#include "classifier_1_bias.h"

__attribute__((aligned(16))) const float classifier_1_bias[1000] = {
    1.80107374e-02f, 4.15177867e-02f, 1.10702217e-02f, 1.27777262e-02f, 3.67459580e-02f, 3.35037671e-02f, 4.85849865e-02f, -4.03938908e-03f,
    1.17007439e-04f, 1.28688142e-02f, 1.01616979e-02f, -6.37386180e-03f, 1.46461753e-02f, 1.88870877e-02f, 1.45037444e-02f, 1.23607889e-02f,
    2.97918357e-03f, 8.94118100e-03f, 2.20778137e-02f, 7.38395099e-03f, 1.98704023e-02f, 3.52114961e-02f, 2.51874942e-02f, 9.34338756e-03f,
    2.12275516e-02f, 1.14736510e-02f, 1.91931184e-02f, 1.04175536e-02f, 1.26222884e-02f, 5.08766435e-02f, 1.91267412e-02f, 6.80433447e-03f,
    3.36670736e-03f, 2.68421671e-03f, 3.88691723e-02f, -6.47994457e-03f, -3.08789453e-03f, 2.14582104e-02f, 1.48236528e-02f, -5.18012280e-03f,
    3.50168534e-03f, 2.91878283e-02f, 1.31972283e-02f, -3.33204609e-03f, 1.38153872e-02f, 3.19510177e-02f, 2.33361181e-02f, 1.61589365e-02f,
    1.50470734e-02f, 1.33605264e-02f, 2.79829372e-02f, -4.43714671e-03f, 2.40140948e-02f, 3.28741362e-03f, 9.87684168e-03f, 1.28814597e-02f,
    -6.59762067e-04f, 8.41801229e-04f, 3.42969410e-02f, 2.34314036e-02f, 4.11182526e-04f, 2.82808635e-02f, 1.92422364e-02f, 3.72483879e-02f,
    1.03660459e-02f, 3.14440429e-02f, 4.02186178e-02f, 1.85637958e-02f, 3.68266664e-02f, 3.28628980e-02f, 1.03126941e-02f, 2.19710842e-02f,
    -1.94359361e-03f, -2.49420223e-03f, -1.45208575e-02f, 1.47203906e-02f, 1.24564311e-02f, 2.21189596e-02f, 3.29096615e-02f, 2.85931826e-02f,
    1.06519787e-02f, 2.52897087e-02f, 1.87840387e-02f, 1.23838987e-02f, 6.11836975e-03f, 1.80966035e-02f, 3.02868406e-03f, 1.84539035e-02f,
    -8.78170785e-03f, 2.37051863e-02f, 9.91192460e-03f, 1.39662065e-02f, 8.70292541e-03f, -1.71815418e-02f, -3.45172803e-03f, 1.26711419e-02f,
    1.40358396e-02f, -6.48473669e-03f, 7.36930268e-03f, -1.19796870e-02f, -3.44305765e-04f, 6.52858010e-03f, 3.83176245e-02f, 4.30014879e-02f,
    1.07247932e-02f, -2.45072122e-04f, 5.10282069e-02f, 1.71840750e-02f, 2.79791001e-02f, -1.68062490e-03f, -2.08595842e-02f, 6.07449673e-02f,
    1.99619457e-02f, -8.63465772e-04f, 3.57064279e-03f, -3.08040716e-02f, 2.04011202e-02f, 3.52555281e-03f, 1.86581854e-02f, 1.19934266e-03f,
    2.10110396e-02f, -8.79491388e-04f, -1.32316520e-04f, -3.88339092e-03f, 3.65099241e-03f, 9.17861611e-03f, 4.28384636e-03f, -5.89811057e-03f,
    6.97692996e-03f, 1.69935431e-02f, -4.64799767e-03f, 1.35499351e-02f, 1.98835470e-02f, 2.05000807e-02f, -8.13815184e-03f, -8.30048136e-03f,
    -2.96877115e-03f, 5.43320877e-03f, 3.21392827e-02f, -1.52508100e-03f, 4.28854581e-03f, 1.61727294e-02f, 2.86450004e-03f, -4.71825246e-03f,
    -1.48865515e-02f, -8.36978946e-03f, -5.43544767e-03f, -1.04700006e-03f, 8.15376453e-03f, 3.07323840e-02f, 4.73418180e-03f, 9.20839515e-03f,
    1.85242330e-03f, 3.81763354e-02f, 1.84229761e-02f, 1.79481618e-02f, 1.08307963e-02f, 1.00576738e-02f, -5.89346886e-03f, 7.48823537e-03f,
    -3.55485873e-03f, 1.61654539e-02f, 2.80856956e-02f, 2.06871815e-02f, -4.24059799e-05f, 2.62489286e-03f, 6.08575623e-03f, -3.18423612e-03f,
    2.36048438e-02f, 6.06025662e-03f, 3.14822793e-02f, 3.85598615e-02f, 2.57100314e-02f, 4.59174672e-03f, 3.12081724e-02f, 2.82641407e-03f,
    -4.57549095e-03f, 2.13247016e-02f, 3.44286934e-02f, 8.69143475e-03f, 1.05909798e-02f, 1.01502677e-02f, 1.22951558e-02f, 1.84332654e-02f,
    1.49260769e-02f, -7.71769439e-04f, 1.07079167e-02f, 6.22447347e-03f, 9.77781694e-03f, 1.13523030e-03f, 2.49147527e-02f, 2.13347021e-02f,
    3.17943431e-02f, 6.32911129e-03f, 8.60251021e-03f, 2.27292199e-02f, 1.13773523e-02f, 4.61795047e-04f, -2.32855673e-03f, 3.72097567e-02f,
    -2.30041030e-03f, 2.60321628e-02f, 3.54497358e-02f, 3.03885285e-02f, 3.70761640e-02f, 2.12443713e-03f, 3.89278168e-03f, 5.64263109e-03f,
    -1.58795845e-02f, 3.58363874e-02f, 7.46503763e-04f, 6.98970119e-03f, 6.25151582e-03f, 1.13377450e-02f, 2.17443015e-02f, 1.47476932e-03f,
    2.07097698e-02f, 2.15840861e-02f, 1.20914038e-02f, -1.74911991e-02f, 2.63499841e-02f, 2.00188924e-02f, 1.26563264e-02f, 3.74052823e-02f,
    1.45081198e-02f, 3.01462840e-02f, 3.19529064e-02f, -1.18409554e-02f, 2.89630033e-02f, 2.06908043e-02f, 3.17418091e-02f, -3.41392565e-03f,
    -9.34386533e-03f, 3.18740867e-02f, 6.40641293e-03f, 1.44021248e-03f, 1.46240387e-02f, 1.29471030e-02f, 8.96237511e-03f, 2.21911408e-02f,
    -1.22151002e-02f, 3.63245257e-03f, 1.53035449e-03f, 2.96682841e-03f, -5.67127718e-03f, 2.59678885e-02f, 4.49842308e-03f, 9.40785091e-03f,
    -8.07719771e-03f, -7.37622287e-03f, 1.33746173e-02f, 1.55027518e-02f, 2.39323992e-02f, -1.18386734e-03f, 2.09320709e-02f, 6.46708161e-03f,
    5.88190369e-03f, 1.80984214e-02f, 1.41947670e-02f, 2.19559986e-02f, 2.53596101e-02f, 3.75815369e-02f, 2.11857748e-03f, 1.38163322e-03f,
    -8.71233828e-03f, 1.22863995e-02f, 2.14695558e-02f, -6.61110692e-03f, 1.02909682e-02f, 2.40504965e-02f, 3.65205333e-02f, 1.48587872e-03f,
    1.94805264e-02f, -3.98921780e-03f, -1.81966007e-03f, 1.28720002e-02f, 2.01386269e-02f, 1.45822968e-02f, -1.11904340e-02f, 1.62949078e-02f,
    1.99570227e-02f, 1.74835771e-02f, -1.01922275e-02f, 3.13133597e-02f, 4.16955948e-02f, 1.72663480e-02f, 1.56169180e-02f, 1.58913136e-02f,
    -1.81457691e-03f, 2.55141985e-02f, -9.82781965e-03f, -7.58080219e-04f, -8.71418323e-03f, -1.47488224e-03f, -1.56865902e-02f, 2.11500414e-02f,
    6.26581581e-03f, 2.08046734e-02f, 1.72146019e-02f, 7.15910876e-03f, -9.63043887e-03f, -1.09027242e-02f, -2.13450249e-02f, -1.09609263e-03f,
    -1.48362750e-02f, 2.68202331e-02f, 4.29287320e-03f, -1.37011688e-02f, -2.24429425e-02f, -1.41948685e-02f, -7.97981489e-03f, 3.84552544e-03f,
    7.14561949e-03f, 2.13578697e-02f, 2.77346317e-02f, 5.38171362e-03f, 9.27055720e-03f, 1.59408264e-02f, 4.33309190e-03f, -1.79650672e-02f,
    -5.26313949e-03f, -3.11329011e-02f, -2.14474965e-02f, -4.35336819e-03f, -2.63390853e-03f, -1.63218006e-02f, -5.81250293e-03f, -8.63347668e-03f,
    1.24978442e-02f, 1.44485403e-02f, 3.28089967e-02f, 1.05332136e-02f, 5.48079014e-02f, 1.49679314e-02f, 1.89611129e-02f, 3.20319347e-02f,
    3.06635220e-02f, 2.20524725e-02f, -1.75183564e-02f, 2.30212491e-02f, 1.88424047e-02f, 1.14129893e-02f, 1.04442360e-02f, 2.68885549e-02f,
    -3.25920270e-03f, -1.67594571e-02f, 6.41168701e-03f, -8.08324665e-03f, -8.72821454e-03f, -2.21234839e-03f, 2.11009104e-02f, 9.58845951e-03f,
    1.08842980e-02f, 1.56202260e-02f, 1.24741346e-02f, -2.09352020e-02f, 5.01673715e-03f, 2.67130812e-03f, 2.11672541e-02f, 3.75532806e-02f,
    2.54924898e-03f, 4.41622064e-02f, 3.72793637e-02f, 4.59769890e-02f, 2.10739188e-02f, 1.56067051e-02f, 5.60968975e-03f, 2.33065095e-02f,
    1.42333901e-03f, 5.17954770e-03f, 1.48762753e-02f, 1.18198888e-02f, 2.29408033e-02f, 3.26105282e-02f, 1.97064579e-02f, 5.03763324e-03f,
    1.11297332e-02f, 6.58570277e-03f, 2.42594182e-02f, 3.47345211e-02f, 4.31300979e-03f, 1.43401828e-02f, 2.20238362e-02f, 1.47484278e-03f,
    -8.07866640e-03f, -2.45169806e-03f, 1.03363674e-02f, -2.39651417e-03f, -2.25369213e-03f, 1.23720616e-02f, -9.74420365e-03f, 1.22815538e-02f,
    1.84827228e-03f, 1.52389063e-02f, -3.01791867e-03f, 1.34218512e-02f, -1.20320439e-03f, 7.32155889e-03f, -7.98111968e-03f, 4.11606282e-02f,
    1.15927206e-02f, -4.54048160e-03f, 1.21037173e-03f, 1.74805820e-02f, -1.87961403e-02f, 4.92630079e-02f, 1.06259221e-02f, -6.62144681e-04f,
    8.43203440e-03f, -2.57620066e-02f, 2.07704362e-02f, 3.77035327e-02f, -7.74583733e-03f, 2.04695072e-02f, 2.42026746e-02f, 1.04882531e-02f,
    5.22388369e-02f, 1.30844396e-02f, 1.94903109e-02f, 1.27245812e-02f, 5.43694757e-03f, 3.44506353e-02f, 5.29471785e-03f, 1.38134435e-02f,
    1.27152298e-02f, 1.36815198e-02f, -1.36295741e-03f, 1.25703644e-02f, 5.82451746e-03f, 1.11675914e-02f, -1.97300012e-03f, 3.65362279e-02f,
    -4.35719267e-03f, 1.65751372e-02f, 4.08449024e-02f, 1.34347063e-02f, 4.33814060e-03f, -7.15344166e-03f, 2.21984256e-02f, -2.18522977e-02f,
    1.05227483e-02f, 3.15276086e-02f, 2.90034357e-02f, 4.75255065e-02f, 2.04845145e-02f, 2.21630186e-02f, 2.98266858e-02f, -1.74297355e-02f,
    4.05705720e-02f, 2.20391341e-02f, 3.37100625e-02f, 1.85737796e-02f, 2.32240204e-02f, 2.05125902e-02f, 3.25080901e-02f, 2.78765243e-02f,
    1.16351875e-03f, 9.20911320e-03f, 1.43520571e-02f, 3.28691602e-02f, -4.99975868e-03f, 2.33013313e-02f, -6.65594533e-04f, -2.34277323e-02f,
    4.85703070e-03f, 6.13817424e-02f, 1.70632116e-02f, 2.16117054e-02f, 7.74904387e-04f, 3.68355736e-02f, 1.76800825e-02f, 1.00566493e-03f,
    -7.06144702e-03f, 6.63376087e-03f, 9.15487669e-03f, 1.86418016e-02f, 1.38412146e-02f, 1.47061590e-02f, 2.45792195e-02f, -5.94136771e-03f,
    5.19862846e-02f, 1.04865618e-02f, 4.95379791e-03f, -1.07908377e-03f, -1.10206641e-02f, 1.79096479e-02f, -7.17389584e-03f, -5.24816103e-03f,
    -9.72798746e-03f, 1.88274961e-02f, -1.49227995e-02f, 1.09941941e-02f, 2.68822759e-02f, 2.14917939e-02f, -1.46235358e-02f, 2.68152356e-02f,
    -3.91299836e-03f, -3.59351411e-02f, 2.25556921e-02f, 1.54156461e-02f, 4.16535959e-02f, -2.51631089e-03f, -1.05407136e-02f, 1.08050862e-02f,
    6.08662283e-03f, -1.02481470e-02f, -9.89579875e-03f, 2.32160697e-03f, 2.01100111e-02f, 1.24803334e-02f, 1.21417074e-02f, 1.73976831e-02f,
    -7.10073952e-03f, -1.33254528e-02f, 6.11813413e-03f, 2.27904543e-02f, -1.65924907e-03f, -2.50652898e-03f, -5.02417656e-03f, 8.78626108e-03f,
    4.51523513e-02f, -1.96952261e-02f, 2.78643556e-02f, 2.37222556e-02f, 2.73742974e-02f, 2.47080512e-02f, 6.08125888e-03f, -6.36435021e-03f,
    -2.14190222e-02f, 4.85302731e-02f, 1.84942242e-02f, -6.62147999e-03f, 3.68147157e-02f, 9.42693576e-02f, 2.39103232e-02f, -3.85594228e-03f,
    2.44924938e-03f, 2.06583217e-02f, 2.31837332e-02f, 3.27314399e-02f, 1.33397942e-02f, -2.38962583e-02f, -3.49784060e-03f, 7.05920858e-03f,
    2.89227087e-02f, 2.94961147e-02f, -1.21613573e-02f, -1.95436832e-03f, 5.06582437e-03f, 7.13413432e-02f, -3.36699816e-03f, -2.96492525e-03f,
    2.14026459e-02f, 3.26150330e-03f, 6.72493968e-03f, 1.43133011e-02f, 5.32801710e-02f, 2.31566709e-02f, -2.01269779e-02f, 1.99728031e-02f,
    -1.17277745e-02f, 2.26127803e-02f, -4.30271211e-05f, 2.36497670e-02f, 2.07513515e-02f, 2.28609592e-02f, -7.80862058e-03f, 1.44837238e-02f,
    -4.66565648e-03f, 2.58449484e-02f, 4.37373668e-03f, -2.63655502e-02f, 8.76567885e-03f, 5.53488731e-03f, 2.79841218e-02f, 1.78697240e-02f,
    2.86838459e-03f, 1.23432409e-02f, 1.65092084e-03f, 1.69563126e-02f, 2.15262678e-02f, -2.53516622e-02f, -1.37049416e-02f, 4.29438874e-02f,
    1.45541159e-02f, 1.84610230e-03f, 1.30632678e-02f, 1.89564899e-02f, 5.06804930e-03f, -1.45319884e-03f, 5.06770425e-03f, 5.48753329e-02f,
    -2.22927792e-05f, 5.14547620e-03f, 2.83727366e-02f, 1.05428072e-02f, -2.57925806e-03f, 1.21891079e-02f, -1.95621350e-03f, 2.67241783e-02f,
    -5.59874577e-03f, 2.88028736e-02f, 2.74404828e-02f, 1.90598946e-02f, 6.95082312e-03f, -6.02836814e-03f, 1.16254538e-02f, 1.65441427e-02f,
    1.73304100e-02f, 1.66317038e-02f, 3.39440219e-02f, 1.03283608e-02f, 1.88292526e-02f, -6.03312673e-03f, 4.39767307e-03f, 1.63435116e-02f,
    -1.84105895e-02f, 3.16476934e-02f, 1.88778937e-02f, -1.82412174e-02f, 2.36163586e-02f, 1.92886479e-02f, 2.69058254e-02f, 2.87803318e-02f,
    3.64847407e-02f, 6.98311604e-04f, -1.51655043e-03f, 2.28985883e-02f, 1.78926960e-02f, -6.04282320e-03f, 1.87201630e-02f, 7.04413094e-03f,
    1.61020402e-02f, -6.80720108e-03f, 4.51423153e-02f, -6.66012941e-03f, 1.53960017e-02f, -8.57002195e-03f, -1.47381530e-03f, -1.94223633e-03f,
    2.72346362e-02f, -1.82587039e-02f, 2.49648169e-02f, -4.09014896e-02f, 1.38820400e-02f, 2.13225242e-02f, 4.64154854e-02f, 3.53927095e-03f,
    3.53879780e-02f, 3.20676826e-02f, -3.45250638e-03f, 1.79757681e-02f, 3.18787843e-02f, 4.28516418e-02f, -3.31136538e-03f, 3.38687822e-02f,
    8.49917624e-03f, 6.87464420e-03f, 2.27313340e-02f, 2.42431574e-02f, 2.21681986e-02f, -4.10328293e-03f, 2.00374685e-02f, 3.44693125e-03f,
    1.77807324e-02f, 3.72510566e-03f, 2.33065914e-02f, -1.73779915e-03f, 1.25428038e-02f, 6.28372952e-02f, -4.69256751e-03f, 3.99351902e-02f,
    1.83239691e-02f, -3.04989313e-04f, 3.41100991e-02f, 6.97544450e-03f, -2.38164794e-02f, 3.82600650e-02f, 1.69988237e-02f, -7.34816538e-04f,
    4.93508577e-02f, 1.54146133e-02f, 2.01215129e-02f, -5.98547701e-03f, 5.56434598e-03f, 2.32049096e-02f, -3.50898341e-03f, -6.99955504e-03f,
    -1.91059820e-02f, 8.82705767e-03f, 1.29976943e-02f, 2.98045222e-02f, 1.59304850e-02f, -2.02347059e-02f, 9.01191123e-03f, -8.35748482e-03f,
    -2.12625694e-03f, 3.39906774e-02f, 2.58358531e-02f, 1.19511532e-02f, 3.10512763e-02f, 3.30237001e-02f, 1.99751612e-02f, 4.49384898e-02f,
    8.87576398e-03f, -3.96885769e-03f, 3.18535753e-02f, 2.19403189e-02f, -9.31064971e-03f, -8.61811044e-04f, -1.55423833e-02f, -1.16378092e-03f,
    3.63151729e-02f, 6.08294420e-02f, -8.53983313e-03f, -1.74144481e-03f, 4.69452254e-02f, -2.30440404e-02f, 1.56919546e-02f, 4.49199118e-02f,
    3.11977640e-02f, 3.41173448e-02f, -4.01692651e-03f, -4.89032641e-03f, 1.82059854e-02f, 1.06454645e-04f, 4.19111103e-02f, 1.71672422e-02f,
    -2.00549071e-03f, 2.13655345e-02f, -3.75225837e-03f, 9.30049736e-03f, 7.67638558e-05f, 1.04691368e-03f, -2.53330613e-03f, 3.48102711e-02f,
    1.78692210e-02f, 2.95593217e-02f, 4.91156653e-02f, 4.57626358e-02f, -9.04791523e-04f, 6.14644326e-02f, 1.07152211e-02f, 5.41397966e-02f,
    -4.73723840e-03f, 2.92666513e-03f, 2.98588555e-02f, 1.24044567e-02f, 2.73078331e-03f, 3.73294880e-03f, 3.56624201e-02f, 2.15349197e-02f,
    3.31884623e-02f, 2.06400324e-02f, -8.38418212e-03f, 3.36010866e-02f, 1.63812228e-02f, -5.27922006e-04f, -2.74908207e-02f, -2.09290092e-03f,
    2.88136564e-02f, 1.28398957e-02f, 8.43083952e-03f, 1.72466263e-02f, 1.65564660e-02f, 2.15583276e-02f, 7.19381543e-03f, 1.42744295e-02f,
    2.60082036e-02f, 1.31078735e-02f, 3.08856182e-02f, 2.57625082e-03f, -1.87592041e-02f, -5.83266839e-03f, 2.55389549e-02f, 2.07597371e-02f,
    -2.16967403e-03f, 2.53655389e-02f, -2.26417668e-02f, -7.72008160e-03f, 2.97339000e-02f, 2.28109322e-02f, 1.25065842e-03f, 2.72789225e-02f,
    1.89755149e-02f, 2.04805899e-02f, -1.74986403e-02f, -1.29914321e-02f, 2.75003929e-02f, 7.27530057e-03f, -1.87041685e-02f, 2.58815978e-02f,
    -9.09891073e-03f, 2.01342888e-02f, 8.00613910e-02f, -2.62364512e-03f, 2.02883296e-02f, 2.97791641e-02f, 1.62671451e-02f, 3.77904437e-02f,
    -3.18113938e-02f, 1.26645882e-02f, 1.31670227e-02f, 2.33745128e-02f, 7.16126640e-04f, 1.13895792e-03f, -1.29854335e-02f, 1.45575786e-02f,
    1.89307425e-02f, -1.03542134e-02f, 1.63015686e-02f, 4.76947054e-03f, -1.52281066e-03f, 3.14441184e-03f, 1.81177985e-02f, 1.98938288e-02f,
    1.74180940e-02f, -3.80660966e-03f, -1.46924946e-02f, 5.08739194e-03f, -9.22242831e-03f, 1.10236341e-02f, 1.49631714e-02f, -1.13398805e-02f,
    1.55346822e-02f, 4.98097986e-02f, 4.20317007e-03f, -1.41748032e-02f, 1.87818669e-02f, 2.81686173e-03f, 2.71792095e-02f, 3.53244357e-02f,
    5.62835205e-03f, 9.17563960e-03f, 3.84689160e-02f, -9.36063565e-03f, 1.82889830e-02f, 1.82524379e-02f, 2.30537192e-03f, 2.57182587e-02f,
    7.00790714e-03f, 1.11397225e-02f, 2.64528431e-02f, 2.69804075e-02f, -2.34262925e-03f, 1.67443324e-02f, -1.12562561e-02f, 1.83072016e-02f,
    3.14483941e-02f, -2.36088550e-03f, -1.12761289e-03f, 6.23555435e-03f, 1.57917347e-02f, 4.00946848e-02f, 4.47666422e-02f, 1.91829447e-02f,
    -3.00725689e-03f, 1.05135487e-02f, 4.17803414e-02f, 7.45258760e-03f, 3.21969911e-02f, 3.32682095e-02f, 1.21431071e-02f, 2.02040356e-02f,
    -4.39331774e-03f, 8.71395692e-03f, 7.05607655e-03f, -1.55063001e-02f, 3.98645215e-02f, 1.18024023e-02f, 4.14491026e-03f, 9.32193885e-04f,
    -1.61217619e-02f, 5.83792245e-03f, 9.94869787e-03f, 6.26511220e-03f, 6.75223256e-03f, 2.37828586e-02f, 7.66780833e-03f, 1.32571599e-02f,
    4.72538806e-02f, 3.20818424e-02f, -5.37578890e-04f, 1.93836372e-02f, 6.29650727e-02f, 4.16923128e-02f, 4.00667451e-03f, -5.06944396e-03f,
    8.49564467e-03f, -2.06126971e-03f, -9.06448229e-04f, -1.62628591e-02f, 3.08335363e-03f, 2.24873424e-02f, 5.55455834e-02f, 2.00637802e-02f,
    5.78728365e-03f, 1.55341337e-02f, 2.96289823e-03f, 8.88810784e-04f, 1.20192021e-03f, 2.52317209e-02f, 3.60534154e-03f, 1.99093074e-02f,
    5.77161945e-02f, 5.58686927e-02f, 5.71366958e-02f, -7.40937330e-03f, 3.92006263e-02f, 3.66611872e-03f, -2.57950765e-03f, 4.56283242e-02f,
    4.03945930e-02f, -7.14953640e-04f, 2.90698255e-03f, 1.86027661e-02f, 1.83220878e-02f, 6.00130763e-03f, 2.76627112e-02f, 2.56499145e-02f,
    6.35695411e-03f, 9.60327871e-03f, 4.26290594e-02f, -2.53169704e-03f, -1.31294392e-02f, 2.62488276e-02f, 2.81879888e-03f, 9.25706327e-03f,
    -1.17659513e-02f, 2.58683804e-02f, 3.51757184e-02f, -6.82443613e-03f, -1.51126608e-02f, 6.21107314e-03f, 8.02413374e-03f, -1.12883328e-02f,
    2.85041984e-02f, -7.59647042e-03f, 5.64268278e-03f, -1.25667443e-02f, 2.99148913e-02f, 5.16635459e-03f, 1.35428440e-02f, -2.37866919e-02f,
    -7.49603380e-03f, 1.25577599e-02f, 1.42358253e-02f, -7.98245240e-03f, 7.90757220e-03f, 8.91108252e-03f, -4.53748927e-03f, -8.32234230e-03f,
    -3.99714382e-03f, 1.54741425e-02f, -2.47446238e-03f, 1.00551872e-02f, -2.84121442e-03f, 2.78005376e-02f, 2.33068615e-02f, -1.54583727e-03f,
    1.21488906e-02f, 3.19833234e-02f, 1.35546541e-02f, 3.66877131e-02f, 1.76193938e-02f, 1.57588534e-02f, 1.69860143e-02f, 1.69437788e-02f,
    1.46718358e-03f, 2.35409234e-02f, 1.97922718e-02f, 1.62803438e-02f, 3.97593975e-02f, 1.66639276e-02f, 2.13706475e-02f, 3.49135622e-02f,
    1.95242297e-02f, 4.49623726e-02f, 2.53451895e-02f, 6.47942200e-02f, 1.95078328e-02f, 2.35917214e-02f, 3.56368930e-03f, 3.28563643e-03f,
    1.57186911e-02f, 2.05948614e-02f, 1.97469331e-02f, -4.99722781e-03f, -1.57766864e-02f, 2.15990450e-02f, -9.32073500e-03f, -7.37397582e-04f,
    1.03360517e-02f, -2.17047445e-02f, 1.83574553e-03f, 5.52411610e-03f, 2.91462876e-02f, 4.97427350e-03f, 2.33602198e-03f, 2.22884305e-02f
};

const int classifier_1_bias_shape[1] = { 1000 };
const int classifier_1_bias_ndim = 1;
const size_t classifier_1_bias_numel = 1000;
