#include "features_8_expand3x3_bias.h"

__attribute__((aligned(16))) const float features_8_expand3x3_bias[192] = {
    1.63494926e-02f, -3.20781633e-04f, -1.37459766e-02f, 1.40474224e-02f, 3.16488580e-03f, 3.81215550e-02f, -4.88476036e-03f, 9.19664931e-03f,
    7.07333116e-03f, -2.78452355e-02f, 1.90193951e-02f, 7.15945847e-03f, 9.11334343e-03f, 8.53002723e-03f, 1.73139467e-03f, 9.91991069e-03f,
    6.91333739e-03f, 9.41457169e-04f, 5.98131912e-03f, -1.64035382e-03f, -2.49848068e-02f, -1.97813511e-02f, 8.75461847e-03f, 2.46067941e-02f,
    -1.36776678e-02f, 9.89313424e-03f, 1.38668651e-02f, 1.81150902e-02f, 1.28726140e-02f, -1.97660271e-02f, -4.54841703e-02f, -6.64228201e-03f,
    3.99129614e-02f, -7.61292595e-03f, 1.09611023e-02f, 1.01630082e-02f, 1.70091912e-02f, -1.03265289e-02f, 9.73835867e-03f, 8.88064224e-03f,
    4.23938222e-03f, 7.09988503e-03f, -1.23405270e-02f, 1.87654104e-02f, 1.05664516e-02f, 9.22180060e-03f, -1.96884125e-02f, 6.71752309e-03f,
    1.34001384e-02f, 9.41086095e-03f, 1.37631027e-02f, 1.20826997e-02f, 1.37226060e-02f, 2.06903983e-02f, -3.15071689e-03f, 1.19360508e-02f,
    6.48537930e-03f, 2.82046255e-02f, 1.03801638e-02f, -2.24067289e-02f, 8.76987446e-03f, 1.05329482e-02f, 3.83776873e-02f, 1.02811316e-02f,
    1.05581377e-02f, 1.55126350e-02f, -1.66788064e-02f, 2.62491014e-02f, 1.97792072e-02f, 1.50584942e-02f, 2.42412277e-02f, -6.01577573e-03f,
    -1.52946950e-03f, 9.85589996e-03f, 5.05160866e-03f, -1.26417284e-03f, 8.56726663e-04f, -1.60296429e-02f, -3.30615416e-03f, -5.96323935e-03f,
    -2.11740914e-03f, 8.61902256e-03f, 2.89585050e-02f, 1.44414073e-02f, 1.71290077e-02f, -9.03254468e-03f, 8.80728289e-03f, 1.68070383e-02f,
    1.37113035e-02f, 1.94149129e-02f, 2.86053941e-02f, 1.50255524e-02f, 1.13868422e-03f, 5.09431539e-03f, 2.44470779e-02f, -2.48763547e-03f,
    -5.08102402e-03f, 6.32342091e-03f, 2.37110890e-02f, 1.06639797e-02f, -3.71306133e-03f, 1.38386758e-02f, -1.68217737e-02f, 6.12907819e-02f,
    1.02670761e-02f, 3.23272240e-03f, -5.72381495e-03f, 4.02092710e-02f, 1.77037492e-02f, -6.30164985e-03f, 4.47567441e-02f, -1.24077108e-02f,
    -2.00814498e-03f, -3.35608004e-03f, 2.24089008e-02f, 4.76291450e-03f, 9.47999582e-03f, 2.13962998e-02f, 1.52048813e-02f, -3.26972711e-03f,
    -6.86174259e-03f, 3.30394949e-03f, -1.66238137e-02f, 5.92795424e-02f, 9.41041484e-03f, -4.06923704e-02f, -1.29107777e-02f, 3.12543148e-03f,
    1.97655540e-02f, -4.25604172e-03f, 2.52217408e-02f, 1.50929159e-02f, -1.58105884e-02f, 3.75925703e-03f, -1.05325086e-03f, 9.88961384e-03f,
    3.20318528e-03f, -8.38221796e-03f, 1.89648364e-02f, 3.16577591e-02f, 2.09502187e-02f, 2.86777504e-03f, 1.33373216e-02f, -2.07027197e-02f,
    9.76481382e-03f, 2.12070029e-02f, -1.12931449e-02f, 4.13029408e-03f, 2.20118673e-03f, 7.68543687e-03f, -1.72045827e-02f, 8.30944919e-04f,
    1.61954891e-02f, 1.54862311e-02f, 1.88697111e-02f, 2.15035640e-02f, 1.72848813e-02f, 2.37292796e-02f, 1.06282290e-02f, -1.37221282e-02f,
    1.22649898e-03f, -5.11126965e-03f, 5.41275507e-03f, -1.26314787e-02f, 2.53698211e-02f, 9.41035978e-05f, 1.04369875e-02f, 1.71043742e-02f,
    2.51301713e-02f, 1.19627528e-02f, 7.40322703e-03f, -7.41436543e-06f, 4.06459346e-03f, 1.37149962e-03f, -3.00610084e-02f, -1.01136612e-02f,
    2.47771910e-04f, -1.92779046e-03f, -5.73275751e-03f, 2.95758825e-02f, -1.91310216e-02f, 2.91817170e-03f, -3.30853090e-03f, 3.51884798e-03f,
    4.73477021e-02f, 1.19421445e-03f, 1.99624114e-02f, 7.56060064e-04f, -8.52198247e-03f, -1.36433030e-02f, -1.18941753e-04f, 7.35903159e-03f
};

const int features_8_expand3x3_bias_shape[1] = { 192 };
const int features_8_expand3x3_bias_ndim = 1;
const size_t features_8_expand3x3_bias_numel = 192;
