#include "features_9_expand1x1_bias.h"

__attribute__((aligned(16))) const float features_9_expand1x1_bias[192] = {
    1.38721932e-02f, 1.32085765e-02f, 6.47505894e-02f, -2.40846770e-03f, 2.53202226e-02f, 2.74108853e-02f, 2.93303654e-02f, 6.71889773e-03f,
    1.33528502e-03f, 1.49914753e-02f, 2.74317693e-02f, -4.76460997e-03f, 5.97862527e-02f, 1.66669110e-04f, -1.00369100e-03f, 1.76465623e-02f,
    3.94421406e-02f, 5.23318127e-02f, -1.58956200e-02f, 7.15871975e-02f, 4.55020033e-02f, 2.99420040e-02f, -7.06316298e-03f, -1.86043475e-02f,
    2.30242554e-02f, 3.33429575e-02f, 6.30826456e-03f, 1.21446773e-02f, -1.43445330e-02f, 1.81142688e-02f, 5.47228195e-02f, 3.41435149e-02f,
    -1.61785930e-02f, -1.75975766e-02f, -7.03902356e-03f, 1.21446298e-02f, 3.58903669e-02f, 3.14454064e-02f, 8.11633281e-03f, 1.65937003e-02f,
    -6.94700470e-03f, -3.86028172e-04f, -1.01781301e-02f, 4.19574492e-02f, -2.21026950e-02f, 7.75059592e-03f, -1.20205199e-02f, -1.36675518e-02f,
    2.45790798e-02f, 5.95234428e-03f, 3.82200368e-02f, 3.51714343e-02f, 4.43685465e-02f, 2.52859108e-02f, -9.83502436e-03f, 2.24957839e-02f,
    1.08857090e-02f, 1.76896080e-02f, 1.69398170e-02f, -3.03616282e-03f, 2.40173936e-02f, 3.32479738e-02f, -3.34361661e-03f, 5.48017547e-02f,
    -7.59809650e-03f, 3.69081087e-02f, -6.17072918e-03f, 8.05514026e-03f, -4.86194715e-03f, -4.93193092e-03f, -3.17462161e-03f, 1.61554702e-02f,
    2.20904890e-02f, 1.87702123e-02f, 3.38208005e-02f, 2.76066344e-02f, 4.58373837e-02f, -4.75472654e-04f, 3.95854712e-02f, 4.83492538e-02f,
    7.95072969e-03f, -3.43745854e-03f, 4.92261425e-02f, -1.87359191e-02f, 2.48537492e-02f, 5.52584566e-02f, 7.30738565e-02f, 5.49374670e-02f,
    1.24824820e-02f, 3.23427841e-02f, 3.05638909e-02f, 2.57254075e-02f, 3.33344820e-03f, 4.51584868e-02f, 3.90249857e-04f, 7.70523399e-03f,
    2.18344107e-02f, -4.19360306e-03f, 4.68721241e-02f, 2.97099482e-02f, -6.77041244e-03f, 1.76951997e-02f, 1.73582528e-02f, 4.96079028e-02f,
    1.05835246e-02f, 3.73051539e-02f, -1.61928311e-02f, 2.69248313e-03f, 2.39091623e-03f, 4.04280238e-02f, 1.78458281e-02f, 4.25160676e-02f,
    2.79120402e-03f, 6.29942790e-02f, 3.07957679e-02f, 1.74485389e-02f, 4.44106385e-02f, 1.40178986e-02f, 2.88406271e-03f, 3.43843549e-02f,
    3.90186720e-02f, 4.36426736e-02f, 3.05369440e-02f, 2.52852309e-03f, 8.68128706e-03f, -2.09285058e-02f, 4.97402698e-02f, 2.98601761e-02f,
    1.31105818e-02f, 5.01591414e-02f, -6.17315108e-03f, 6.01895899e-02f, -2.33470351e-02f, 1.09972116e-02f, 4.03500870e-02f, 6.45827677e-05f,
    -1.46702183e-02f, -2.04507615e-02f, -6.96094008e-03f, 8.77145976e-02f, 3.34926024e-02f, 6.98594674e-02f, 4.41485159e-02f, -1.36830853e-02f,
    4.18611281e-02f, 3.91224027e-02f, -1.99752059e-02f, 4.66547767e-03f, 1.53243598e-02f, -6.62470423e-03f, 1.02978339e-03f, -2.38519683e-02f,
    1.11193042e-02f, 3.77805419e-02f, 2.64837947e-02f, -4.98467882e-04f, 6.38722256e-02f, -5.57680614e-03f, 2.13878974e-02f, -1.43283990e-03f,
    3.14352382e-03f, 1.82592552e-02f, -5.65087190e-03f, 4.11264300e-02f, -6.64141076e-03f, -3.96984145e-02f, 3.45620662e-02f, 5.79617396e-02f,
    1.78058688e-02f, 2.06180252e-02f, 2.00524759e-02f, -2.29245443e-02f, 2.39410643e-02f, -3.75088560e-03f, -2.55562123e-02f, -3.22147203e-03f,
    2.05150638e-02f, 4.81567569e-02f, 3.95488404e-02f, -2.03940319e-04f, 1.02891754e-02f, 1.41465850e-02f, -4.73163277e-03f, -7.04513723e-03f,
    1.23448242e-02f, 1.92868505e-02f, 7.34312925e-03f, 2.14795582e-02f, 1.22190630e-02f, 7.30245328e-03f, 3.39413993e-02f, 2.22936925e-02f
};

const int features_9_expand1x1_bias_shape[1] = { 192 };
const int features_9_expand1x1_bias_ndim = 1;
const size_t features_9_expand1x1_bias_numel = 192;
