#include "features_5_squeeze_weight.h"

__attribute__((aligned(16))) const float features_5_squeeze_weight[4096] = {
    1.69427857e-01f, -7.76162967e-02f, 7.58379474e-02f, 1.65190026e-01f, 9.45113599e-02f, -1.61331996e-01f, -5.61878122e-02f, 4.63107228e-02f,
    -1.29096285e-01f, -9.95100103e-03f, 2.29063332e-01f, 2.63934443e-03f, -5.22682145e-02f, -1.12676762e-01f, 2.15440597e-02f, 1.18388653e-01f,
    1.38552012e-02f, 3.51756215e-01f, 1.95201989e-02f, 8.13824832e-02f, 1.01914719e-01f, 7.63232559e-02f, -9.39512700e-02f, 1.78520575e-01f,
    1.37925163e-01f, -9.59103033e-02f, 1.16997376e-01f, 6.40818253e-02f, -1.60590634e-02f, -1.17262743e-01f, -8.96309093e-02f, -5.72873279e-02f,
    -1.71317741e-01f, 1.22759864e-02f, 1.18310548e-01f, -6.81262836e-02f, 3.48440744e-02f, -1.03948683e-01f, 6.47638813e-02f, -8.50680619e-02f,
    6.15177527e-02f, -3.86777259e-02f, -1.35710156e-02f, 7.51030771e-03f, 1.72069982e-01f, -9.22378227e-02f, 7.70258680e-02f, -1.44884810e-01f,
    -1.84286341e-01f, 2.97836900e-01f, 6.69738427e-02f, 1.55420437e-01f, -1.46724150e-01f, -2.14273855e-02f, -6.46153837e-02f, 6.38536662e-02f,
    2.84561127e-01f, 1.62142217e-01f, 6.52989820e-02f, 3.30665529e-01f, 7.02679809e-03f, -4.47897315e-02f, -2.38978013e-01f, 2.02303883e-02f,
    1.99897923e-02f, -1.73142731e-01f, 9.14401338e-02f, 6.55801520e-02f, -1.96071029e-01f, -6.55992748e-03f, 4.43968661e-02f, 1.88795537e-01f,
    3.76969464e-02f, -1.20234914e-01f, -5.44650592e-02f, -3.83629389e-02f, 6.88826386e-03f, 6.35996833e-02f, -7.04932883e-02f, 2.70654238e-03f,
    -3.18617299e-02f, -7.03456923e-02f, -6.91018775e-02f, -3.05047370e-02f, 2.61184778e-02f, 1.94985736e-02f, 8.19484144e-02f, -4.43408005e-02f,
    -2.87697375e-01f, 9.56500135e-03f, 6.75005019e-02f, 6.78050071e-02f, -6.49973080e-02f, -7.88542926e-02f, -2.91563906e-02f, -1.49928465e-01f,
    -8.80769789e-02f, 1.02442183e-01f, 7.83027112e-02f, -5.90600334e-02f, -1.29767247e-02f, 3.94009426e-02f, 1.39148459e-01f, -3.89251560e-02f,
    1.39665544e-01f, 1.82726290e-02f, -2.91191697e-01f, 5.97742833e-02f, 2.66913056e-01f, 1.23073593e-01f, -3.74930240e-02f, 3.66494507e-01f,
    -1.29181489e-01f, -7.31359199e-02f, -1.16657160e-01f, 3.88586484e-02f, 1.81050766e-02f, 1.12347221e-02f, -1.56718358e-01f, 2.61528827e-02f,
    -7.03225508e-02f, -4.21131998e-02f, -4.96846214e-02f, -1.03652708e-01f, -2.71251738e-01f, -3.75845470e-02f, 3.67902890e-02f, -7.43410289e-02f,
    -2.11610913e-01f, -2.51003541e-02f, -5.70748886e-03f, 6.40705088e-03f, 1.82060823e-02f, 6.58299550e-02f, 1.82188272e-01f, -2.34047547e-02f,
    -2.00616777e-01f, 3.04504573e-01f, 2.37754211e-01f, 3.68721932e-02f, 4.73711900e-02f, 2.48230435e-02f, 1.91524208e-01f, -4.24076855e-01f,
    -8.02219957e-02f, 1.09053068e-01f, 1.43867265e-02f, 8.31542462e-02f, 5.91330454e-02f, 2.29796395e-02f, 2.78278105e-02f, 1.03334457e-01f,
    9.00396779e-02f, -1.63020447e-01f, -1.03277579e-01f, 8.42345357e-01f, -5.56367682e-03f, 1.06213704e-01f, -5.91817126e-02f, -5.61521016e-02f,
    -2.14405626e-01f, 2.48668861e-04f, 1.89879566e-01f, -4.24928181e-02f, 1.68407951e-02f, 1.64624870e-01f, -2.31547147e-01f, 2.51996778e-02f,
    3.35312784e-02f, 6.74886778e-02f, 5.45243248e-02f, 2.18103021e-01f, 1.73323750e-01f, 1.39340907e-01f, -6.86115399e-02f, 7.44297728e-02f,
    1.04708811e-02f, -1.79504499e-01f, -1.01944625e-01f, -2.81006610e-03f, 1.34838134e-01f, 2.47375965e-01f, -7.85206165e-03f, -3.14619741e-04f,
    1.43445969e-01f, -8.92214403e-02f, -9.44931135e-02f, 1.65127553e-02f, -4.47130352e-02f, -2.23625600e-01f, 8.64439756e-02f, -3.20876330e-01f,
    -6.30638096e-04f, -4.04784456e-02f, 9.18737706e-03f, -2.97674797e-02f, 3.88484076e-02f, 2.85754204e-02f, 1.57047752e-02f, 5.98010514e-03f,
    -1.16128050e-01f, 3.08651235e-02f, 4.43715826e-02f, 2.75284015e-02f, -4.85463301e-03f, -4.37252373e-02f, 2.10661534e-02f, -1.80603266e-02f,
    -1.21494746e-02f, 3.78925763e-02f, 1.14015555e-02f, -3.69353523e-03f, -1.56967174e-02f, 3.99161689e-02f, 4.63273712e-02f, 8.83467495e-02f,
    -5.77870384e-02f, 5.12418225e-02f, 4.99333702e-02f, -7.58035183e-02f, -1.62371509e-02f, 5.64792240e-03f, -1.02313720e-02f, -4.51841243e-02f,
    1.54588455e-02f, -2.87420414e-02f, -2.00285427e-02f, -3.55735868e-02f, -2.64221057e-02f, 7.16237910e-03f, -7.91453198e-02f, 5.40758707e-02f,
    -2.15186343e-01f, 2.47415341e-02f, 2.68051354e-03f, 1.48599625e-01f, 2.49474999e-02f, -3.88020708e-04f, -4.91147563e-02f, -4.35594097e-02f,
    -1.18719619e-02f, 3.95651571e-02f, 3.15791041e-01f, 5.84503710e-02f, 4.03330773e-02f, -2.46066004e-02f, -2.09372584e-02f, -9.04609561e-02f,
    7.12432899e-03f, 2.82542855e-02f, 9.82592069e-03f, 3.25215026e-03f, -2.56087687e-02f, 4.51750644e-02f, -1.02462098e-01f, 4.47796971e-01f,
    8.05234760e-02f, -8.40528980e-02f, 1.54233158e-01f, -1.15451396e-01f, 1.79659516e-01f, 2.73525804e-01f, 4.90950905e-02f, 1.61327243e-01f,
    -4.36329208e-02f, 3.29705849e-02f, 7.56094903e-02f, -6.26197979e-02f, 2.10566670e-02f, -1.69330731e-01f, -7.80186802e-02f, 1.52585134e-01f,
    7.45675042e-02f, -2.55771484e-02f, 3.62886548e-01f, 1.70998141e-01f, 7.26005286e-02f, -7.02944770e-02f, 1.43597022e-01f, 1.26704261e-01f,
    -4.90619242e-02f, -8.84327814e-02f, 7.56257102e-02f, 4.83430736e-02f, 1.14844941e-01f, 2.97654793e-02f, -2.56479263e-01f, -2.56044827e-02f,
    2.67308988e-02f, 1.80711180e-01f, -4.61182324e-03f, -5.34155443e-02f, -1.25953659e-01f, 3.07911318e-02f, -2.54646763e-02f, 2.49891475e-01f,
    2.45337024e-01f, -4.94759418e-02f, 3.68165299e-02f, -5.56460805e-02f, 1.45962343e-01f, -1.58069834e-01f, -2.04271108e-01f, 2.51752257e-01f,
    -8.07342455e-02f, -4.06779908e-02f, -8.14822316e-02f, -3.27209234e-01f, -1.93665233e-02f, -8.19949657e-02f, -2.53093213e-01f, -1.98322400e-01f,
    -4.79453504e-02f, -2.35492676e-01f, -2.19864562e-01f, -1.79269277e-02f, 2.47356832e-01f, -8.78786892e-02f, -5.35881221e-02f, -2.92794546e-03f,
    1.41359642e-01f, 3.69086713e-02f, -5.09664640e-02f, 5.68948463e-02f, 3.68128740e-03f, -1.08348737e-02f, -6.28650561e-02f, -1.13760822e-01f,
    -1.07382298e-01f, 3.05558415e-03f, -1.06930345e-01f, -1.39971927e-01f, -2.12443862e-02f, -1.15186669e-01f, 5.10909140e-01f, -4.11108471e-02f,
    -2.19773263e-01f, -1.81611881e-01f, 2.64736824e-02f, -1.01122931e-01f, 1.47766307e-01f, -1.61951482e-01f, 8.78052637e-02f, -1.60625979e-01f,
    -4.55856994e-02f, -8.87040347e-02f, -1.00208841e-01f, 2.07781553e-01f, -2.65957545e-02f, 1.41990140e-01f, -7.19906390e-02f, -9.40686837e-02f,
    -1.36337951e-01f, 1.81627601e-01f, 2.28384092e-01f, 9.28564742e-02f, 6.38574287e-02f, -8.68678838e-03f, 8.34760666e-02f, -1.84913754e-01f,
    -1.57720312e-01f, -2.70940810e-01f, -9.51242521e-02f, -8.95093456e-02f, -1.04452528e-01f, 1.59564525e-01f, -1.05492949e-01f, 6.34520948e-01f,
    -9.27914307e-02f, -1.10392496e-01f, 7.67697468e-02f, 5.19773066e-01f, 8.08139294e-02f, -3.27012576e-02f, 1.97375372e-01f, -1.78590044e-01f,
    -9.42070410e-02f, 1.26305753e-02f, -1.34151086e-01f, 2.33116418e-01f, 2.55194008e-01f, -1.75100282e-01f, -1.39171675e-01f, 3.87734585e-02f,
    1.59053415e-01f, 1.53963581e-01f, -3.18971723e-02f, -8.35684538e-02f, 5.29151022e-01f, 7.00708702e-02f, 4.88478467e-02f, -1.12933137e-01f,
    -6.69539394e-03f, -4.48202044e-02f, 8.44808295e-02f, -1.14571810e-01f, 1.11355148e-01f, 3.77181359e-02f, -1.62117928e-01f, 1.53842211e-01f,
    -5.41880354e-02f, 3.27984318e-02f, 1.20512052e-02f, 9.47983265e-02f, -2.08211258e-01f, 6.20530657e-02f, 1.58269808e-01f, 1.37847111e-01f,
    -7.96601549e-02f, -2.74987333e-02f, -2.97723822e-02f, 5.11762761e-02f, 9.96987298e-02f, -9.63814706e-02f, -1.64785832e-01f, -5.89541718e-02f,
    3.61813642e-02f, -1.97390616e-02f, 1.10317588e-01f, -3.60470936e-02f, 4.49844785e-02f, 5.53274751e-02f, 7.46510997e-02f, 4.40506458e-01f,
    -6.35338724e-02f, -6.36261553e-02f, -3.23795617e-01f, -2.12461110e-02f, 6.07649796e-02f, 2.78211441e-02f, -2.00126365e-01f, -1.54191786e-02f,
    -1.17997609e-01f, 1.00309767e-01f, -8.66978168e-02f, -1.57315850e-01f, 4.02519619e-03f, -1.25039890e-01f, 2.46201828e-01f, -4.35398072e-02f,
    -1.98733792e-01f, 3.01169213e-02f, -1.24671008e-03f, 2.29797572e-01f, -1.41078448e-02f, -1.11627802e-01f, -6.75762296e-02f, -1.48893431e-01f,
    2.65178859e-01f, -2.11137999e-02f, -5.02664559e-02f, -7.54410401e-02f, -7.42813796e-02f, 5.95540106e-02f, -1.11274429e-01f, 3.50477323e-02f,
    1.14897247e-02f, 5.65204509e-02f, 3.06516513e-02f, 7.23205805e-02f, 1.04136966e-01f, -1.04483716e-01f, -2.43367121e-01f, -8.44159499e-02f,
    2.61036724e-01f, 1.21997327e-01f, -7.58049190e-02f, 1.61228124e-02f, 7.41831511e-02f, -1.59089148e-01f, 1.79384410e-01f, 4.62267846e-02f,
    9.28243920e-02f, -1.63791329e-01f, -1.54769942e-01f, 1.20911619e-03f, 2.42112726e-02f, 8.19066167e-03f, 3.17813784e-01f, 1.24597788e-01f,
    1.74541205e-01f, 4.18107510e-02f, -2.76774883e-01f, 5.12066446e-02f, 7.68759325e-02f, -2.25847531e-02f, 7.58684203e-02f, 5.99291809e-02f,
    -9.43446234e-02f, 3.87245491e-02f, 8.57039616e-02f, -5.47658056e-02f, 1.88874472e-02f, 1.30140662e-01f, 1.64312236e-02f, -2.76325881e-01f,
    1.79448932e-01f, 9.34183970e-02f, -2.58180704e-02f, -7.73330033e-02f, 1.41982377e-01f, 3.39691155e-02f, -1.08115673e-01f, 5.79541922e-02f,
    -5.13680615e-02f, -2.36225262e-01f, -2.27567125e-02f, 1.94323108e-01f, 1.02993846e-02f, 1.04825594e-01f, -5.30990995e-02f, 2.60928750e-01f,
    -7.25891590e-02f, -4.98414263e-02f, -1.85584515e-01f, -2.51025647e-01f, -2.76005089e-01f, 1.39880076e-01f, 9.50753242e-02f, -1.42520489e-02f,
    -2.07421612e-02f, 1.82546545e-02f, 4.65298854e-02f, -5.88789359e-02f, 2.03621127e-02f, -1.33114383e-01f, 2.32426282e-02f, 3.38302627e-02f,
    -1.47859186e-01f, -4.54526991e-02f, 1.08514734e-01f, -7.89545253e-02f, 3.69558305e-01f, 7.73459747e-02f, 4.81649220e-01f, -1.25373021e-01f,
    8.47486593e-03f, 8.88131093e-03f, 1.06539018e-02f, 5.17355427e-02f, 7.41911754e-02f, -1.20629549e-01f, -1.73690878e-02f, 1.43468834e-03f,
    -8.11874717e-02f, -1.18752934e-01f, -9.80552807e-02f, 2.69451141e-01f, -8.14930797e-02f, -2.51884423e-02f, -1.66543741e-02f, -1.55127019e-01f,
    -3.19676548e-01f, 1.35549262e-01f, -1.70628414e-01f, -1.98957488e-01f, 3.17878425e-02f, -7.71385580e-02f, -1.43968403e-01f, -1.56408429e-01f,
    -2.86066234e-01f, -2.99627725e-02f, -1.01462215e-01f, 3.55022959e-02f, 1.48988992e-01f, 3.63762639e-02f, 4.29735363e-01f, 4.96441334e-01f,
    1.79428071e-01f, 6.31796196e-02f, -3.74832675e-02f, 9.25270915e-02f, 1.99019797e-02f, 7.61316568e-02f, 1.86359361e-02f, 1.36914834e-01f,
    4.99345213e-02f, -5.71409576e-02f, -1.28066748e-01f, -1.38659969e-01f, 2.82917526e-02f, 1.18067563e-01f, 2.40774512e-01f, 4.70822095e-04f,
    -7.99522095e-05f, -8.22673440e-02f, -1.27068833e-02f, 5.02768718e-02f, -1.13061741e-01f, -1.07612967e-01f, 2.56803960e-01f, 6.46316707e-02f,
    9.46107730e-02f, 1.55955017e-01f, -1.41547322e-01f, 2.76385397e-02f, 1.18096188e-01f, -8.33989587e-03f, 3.38699520e-02f, -8.58977158e-03f,
    6.46227077e-02f, -6.51286095e-02f, -7.41538107e-02f, -4.86360164e-03f, -2.79201269e-02f, 6.09673448e-02f, -2.25915566e-01f, -1.01659954e-01f,
    -5.60528971e-02f, 2.32885838e-01f, 1.75235435e-01f, 6.10761791e-02f, 7.50270635e-02f, 6.62101340e-03f, -8.24484751e-02f, 4.72507365e-02f,
    -1.70356818e-02f, 9.20458790e-03f, -2.27384530e-02f, -1.54203206e-01f, -1.11149870e-01f, 1.62111431e-01f, 8.61096568e-03f, 3.70327741e-01f,
    -6.45635054e-02f, 1.18162423e-01f, 3.34937386e-02f, 3.20480347e-01f, -1.04673080e-01f, -9.59443897e-02f, 1.19169772e-01f, 1.34253530e-02f,
    -7.47071877e-02f, 3.55852433e-02f, -1.79875389e-01f, -2.90010590e-03f, 1.19042836e-01f, -2.41279751e-01f, -1.96390077e-01f, 4.14017439e-02f,
    -1.33917436e-01f, -1.45899251e-01f, 1.85647048e-02f, 1.07459007e-02f, -1.41388014e-01f, -5.74277565e-02f, 5.07414192e-02f, 1.95104890e-02f,
    -5.10028750e-02f, 2.48631872e-02f, -5.03014447e-03f, -2.69626752e-02f, -8.43984932e-02f, -5.52009270e-02f, 8.11244026e-02f, 1.01753451e-01f,
    9.20830667e-02f, 2.55046636e-02f, 5.99088334e-02f, 1.36227474e-01f, 1.35838807e-01f, -9.74574834e-02f, -1.13722691e-02f, -4.83171679e-02f,
    6.53583407e-02f, -2.72554741e-03f, 4.14014459e-02f, 1.10143945e-02f, -9.19039100e-02f, 2.70945989e-02f, 1.19288482e-01f, 3.16802673e-02f,
    5.05845174e-02f, 4.50788178e-02f, 7.77793378e-02f, 1.31821141e-01f, -8.34591389e-02f, -8.23555961e-02f, -4.64202799e-02f, -8.98404047e-02f,
    -6.64691404e-02f, -6.63473085e-03f, 3.21755141e-01f, 6.55573383e-02f, 7.42629394e-02f, -2.99180229e-03f, -1.58534303e-01f, 1.05283931e-01f,
    -4.07576747e-03f, -1.10078920e-02f, -8.26774761e-02f, 1.33343749e-02f, -2.33667586e-02f, -2.55819838e-02f, -1.36911899e-01f, -3.38733643e-02f,
    6.05140161e-03f, -1.10455550e-01f, -1.26682669e-01f, -1.26801327e-01f, 6.82784021e-02f, 1.02565311e-01f, -9.41129848e-02f, 5.80295995e-02f,
    -2.66162783e-01f, 1.69130951e-01f, 1.35807216e-01f, -1.08750490e-02f, -1.09105334e-01f, 1.07671844e-03f, 1.12826573e-02f, -9.45878476e-02f,
    -1.73372492e-01f, -1.56312898e-01f, -2.00455651e-01f, -1.12342760e-01f, 2.06461012e-01f, 6.71094507e-02f, 2.30506086e-03f, -6.29589632e-02f,
    -1.64434627e-01f, -6.20692335e-02f, -5.18024191e-02f, 6.75753579e-02f, -3.59805860e-02f, 1.34657294e-01f, -7.17301667e-02f, 8.07372332e-02f,
    6.45117015e-02f, -5.02621010e-02f, 1.05292022e-01f, 3.99227589e-02f, 7.09042847e-02f, 3.30070704e-02f, -1.54118270e-01f, -1.16432108e-01f,
    -4.56058346e-02f, 1.56702340e-01f, 2.38804117e-01f, 1.03082612e-01f, 2.12823242e-01f, 6.01100504e-01f, -6.52933940e-02f, -7.79727623e-02f,
    5.62346913e-02f, -6.43602759e-02f, -1.81871369e-01f, -7.69303952e-05f, -2.02392451e-02f, -1.01786889e-01f, -1.56771332e-01f, 1.06768690e-01f,
    -2.28296459e-01f, 1.29188955e-01f, -1.52918790e-02f, -7.45745897e-02f, -2.18894154e-01f, 1.17308788e-01f, 1.56094462e-01f, -8.81407857e-02f,
    -1.39100673e-02f, 2.44408384e-01f, -4.18230519e-02f, -1.15104668e-01f, -5.74658364e-02f, -5.27296262e-03f, 6.54912144e-02f, -2.62401439e-02f,
    3.55518907e-02f, -5.57722617e-03f, -2.10930690e-01f, -1.14842936e-01f, -1.23907186e-01f, 4.62136626e-01f, -1.45776123e-02f, 3.93719703e-01f,
    -5.67373447e-02f, 1.16486463e-03f, 5.81538081e-02f, -1.24244150e-02f, 3.55706513e-01f, 1.04014724e-02f, 2.05876648e-01f, 8.68103579e-02f,
    3.97806168e-02f, -9.10876989e-02f, -2.97129214e-01f, 7.57017508e-02f, -4.32932824e-01f, -1.36497557e-01f, 2.65210420e-01f, -8.68988107e-04f,
    -9.66556966e-02f, 5.28587066e-02f, 1.89268757e-02f, -6.64389059e-02f, 3.13988514e-02f, 8.53611007e-02f, -2.91198120e-02f, 1.01126386e-02f,
    -1.06187761e-01f, -1.71247777e-02f, -1.06166236e-01f, 4.99583222e-02f, 1.06199078e-01f, 6.67794719e-02f, -1.97078418e-02f, 8.63664225e-02f,
    2.22758204e-03f, 2.55722940e-01f, 1.03434175e-01f, -1.00156926e-02f, -4.35474142e-02f, -1.53443292e-02f, -3.48245469e-03f, 7.79886842e-02f,
    6.49180651e-01f, -4.92588058e-02f, 6.07863627e-02f, -1.11493997e-01f, -2.05447868e-01f, 4.72349077e-02f, 4.95617390e-02f, 9.32410508e-02f,
    4.11338620e-02f, -3.82345989e-02f, -4.88859266e-02f, -2.32361611e-02f, -9.06054601e-02f, 1.76396444e-01f, -2.50727296e-01f, 1.25144601e-01f,
    1.11820400e-01f, -2.13880643e-01f, -2.30638590e-02f, 1.50032863e-01f, 1.53248072e-01f, -5.20383045e-02f, 3.89068946e-02f, -2.88513362e-01f,
    -1.64166227e-01f, -5.47226667e-02f, -1.53155252e-01f, -7.54096685e-03f, -1.80686474e-01f, -5.31847514e-02f, 1.02060921e-01f, -1.05499700e-02f,
    -3.76333669e-02f, -1.13960980e-02f, 2.49027442e-02f, -8.54815170e-02f, -1.91891924e-01f, -8.28779340e-02f, -1.35800809e-01f, -5.92313930e-02f,
    1.12318717e-01f, -9.03328210e-02f, -6.92491978e-02f, 2.72738375e-03f, -1.87258258e-01f, 1.24523388e-02f, -8.75116885e-03f, 1.79105729e-01f,
    -4.16411720e-02f, -1.47006974e-01f, 3.67817916e-02f, 9.41086933e-02f, 3.51501778e-02f, 2.02351529e-02f, -1.65727705e-01f, -2.03899592e-02f,
    -1.31172553e-01f, -1.99035406e-01f, -6.81614280e-02f, -3.15523371e-02f, -1.07810602e-01f, 8.47258642e-02f, -1.21773735e-01f, 2.33959436e-01f,
    2.89698452e-01f, 3.19950394e-02f, 2.59384569e-02f, 1.59067050e-01f, 1.85041934e-01f, -1.72741503e-01f, -7.04498962e-02f, -1.56903982e-01f,
    -1.12162277e-01f, 2.85137445e-01f, -1.07976608e-01f, 8.45130011e-02f, -1.42507469e-02f, -5.26905730e-02f, -9.84260589e-02f, 2.92332824e-02f,
    -2.16329545e-01f, -6.25141934e-02f, 5.22075593e-01f, 2.76599020e-01f, 1.78647444e-01f, 2.91500360e-01f, 1.61037698e-01f, 1.98252369e-02f,
    -8.30257013e-02f, 2.16597226e-02f, -1.13983072e-01f, -4.54852842e-02f, 1.53598383e-01f, -3.67929906e-01f, 1.79893330e-01f, 3.30437459e-02f,
    1.40894145e-01f, 5.41270189e-02f, -1.83675569e-02f, -3.94894779e-01f, -1.05902642e-01f, 2.17135847e-01f, -2.47240692e-01f, -1.26937509e-01f,
    3.68321151e-01f, -1.05617739e-01f, -7.07458258e-02f, 3.27221192e-02f, -7.78069273e-02f, 1.09528936e-01f, -3.93665284e-02f, 3.40962149e-02f,
    1.96805298e-02f, -3.81889939e-02f, -1.41883165e-01f, 1.43533563e-02f, -7.70118684e-02f, -1.16858386e-01f, 2.67069768e-02f, -6.75609931e-02f,
    -2.06067096e-02f, -1.14601642e-01f, 2.89410334e-02f, -4.76482026e-02f, 1.20652537e-03f, 9.31629390e-02f, -4.24341559e-02f, -5.26472926e-02f,
    1.91739559e-01f, -1.24008223e-01f, 5.82173839e-02f, -5.82330348e-03f, -1.43881068e-01f, -9.20875147e-02f, -5.94322123e-02f, 1.01952419e-01f,
    -5.96993566e-02f, 8.70339647e-02f, -1.60324246e-01f, -2.02663824e-01f, -1.36154145e-01f, 2.56061852e-01f, 8.67526159e-02f, -1.37016594e-01f,
    4.28772755e-02f, 4.71714102e-02f, 6.73973858e-02f, 9.77558494e-02f, -2.63418034e-02f, 8.87916088e-02f, -1.30556077e-01f, 3.95362675e-02f,
    1.63169459e-01f, 8.29633474e-02f, 9.69761834e-02f, -1.37276268e-02f, 8.96660425e-03f, 6.31215349e-02f, 1.23701431e-01f, 1.64366718e-02f,
    -8.88548046e-02f, 5.88973165e-02f, -1.25309333e-01f, -2.22454891e-02f, -3.34556922e-02f, 1.98235348e-01f, -1.84952840e-02f, 4.85926270e-02f,
    4.20084335e-02f, -9.56053138e-02f, 1.28847629e-01f, 6.22287355e-02f, 1.01605475e-01f, 2.98067540e-01f, -2.38001742e-03f, -1.24546569e-02f,
    -9.08248476e-05f, 7.92577192e-02f, 2.13697717e-01f, 2.11766623e-02f, 1.03632681e-01f, 9.60148498e-02f, -1.43711030e-01f, -4.23315726e-02f,
    3.80074047e-02f, 1.46114724e-02f, -1.73765808e-01f, 1.35082468e-01f, -6.59230500e-02f, -1.06961345e-02f, 3.47386561e-02f, 1.82199970e-01f,
    -8.28978792e-02f, -1.58043683e-01f, 6.59826547e-02f, 1.63557798e-01f, -2.22548917e-01f, -1.96721092e-01f, -4.48582275e-03f, 1.36365414e-01f,
    2.01928765e-01f, 4.61841039e-02f, 9.11909214e-04f, -5.41609004e-02f, 1.76377352e-02f, -4.82967570e-02f, 1.24134161e-01f, -5.70818894e-02f,
    2.08029747e-01f, -2.12551113e-02f, -1.38473257e-01f, -9.28576514e-02f, -8.86878371e-02f, -1.05337217e-01f, -4.79512336e-03f, 5.79342730e-02f,
    1.45439297e-01f, -7.13779107e-02f, 2.58027017e-01f, 2.44419321e-01f, -8.78047869e-02f, -6.81473166e-02f, -6.02254607e-02f, 3.07108443e-02f,
    -5.58718741e-02f, -1.61994714e-02f, -5.84113151e-02f, 8.89468193e-03f, 9.35733542e-02f, -1.61827002e-02f, -6.96427375e-02f, 1.45598084e-01f,
    -1.89298391e-02f, -1.04022846e-01f, -2.67648604e-02f, -7.88253359e-03f, 1.85375020e-01f, -1.55597612e-01f, -1.01907775e-01f, -1.47555709e-01f,
    -1.21757112e-01f, 2.84841806e-02f, -1.02284387e-01f, -7.24693686e-02f, 2.16322422e-01f, 4.26631374e-03f, -2.72847731e-02f, 1.14561401e-01f,
    1.06137946e-01f, 7.56660849e-02f, 6.98640104e-03f, 7.28449672e-02f, 3.96714881e-02f, -1.05688125e-01f, 9.83336195e-02f, -3.01662404e-02f,
    1.53649002e-01f, -1.70120224e-02f, 1.00133598e-01f, -1.82679176e-01f, -1.02334954e-01f, 5.56047969e-02f, -5.89493066e-02f, -2.29905713e-02f,
    2.59415507e-01f, -2.66334191e-02f, 2.17199728e-01f, 2.58612856e-02f, 7.34455884e-02f, 2.24194862e-02f, -5.30205145e-02f, 1.03818923e-01f,
    8.30827355e-02f, -3.23775202e-01f, -1.03601322e-01f, 1.31286792e-02f, 1.93677563e-02f, 5.65557219e-02f, 1.65376455e-01f, -1.07048973e-01f,
    -3.31708305e-02f, 2.58216262e-01f, -9.32161137e-03f, -1.03645571e-01f, -5.52282520e-02f, 1.41293272e-01f, 1.50207341e-01f, -1.82721764e-01f,
    1.53448954e-01f, 1.30415946e-01f, -5.21818921e-02f, -6.99706227e-02f, 6.02325052e-02f, 2.26077572e-01f, -8.13057050e-02f, -9.17065069e-02f,
    -1.24122702e-01f, -3.13712247e-02f, 1.35504559e-01f, -6.83073848e-02f, -6.40996024e-02f, -7.02331960e-02f, -1.44314796e-01f, 2.41979316e-01f,
    -1.23997563e-02f, -1.27150313e-04f, -1.29731148e-01f, -3.34596150e-02f, -1.15459329e-02f, -3.44620161e-02f, 3.50900263e-01f, 1.83706790e-01f,
    1.33934781e-01f, -5.33145145e-02f, 1.41423911e-01f, 3.14854532e-02f, -2.98554134e-02f, 2.65089422e-02f, 1.54921990e-02f, -1.96941972e-01f,
    -4.61670384e-02f, -9.95245110e-03f, -1.25677541e-01f, 6.57672286e-02f, -4.63704541e-02f, 1.19433381e-01f, 3.40762176e-02f, 3.87395211e-02f,
    -2.85154674e-02f, -2.61688475e-02f, -1.08825125e-01f, 6.43230826e-02f, -1.21674515e-01f, 1.17145471e-01f, 9.39014480e-02f, 1.49487153e-01f,
    1.98701806e-02f, -4.16008420e-02f, -1.56541720e-01f, 1.44842581e-03f, -7.40366951e-02f, 2.61165332e-02f, -3.27627338e-03f, 1.96807645e-02f,
    -3.16178054e-02f, -7.33557642e-02f, 4.82406728e-02f, 2.00752616e-02f, -1.84398778e-02f, -1.55618472e-03f, -6.47830404e-03f, 3.18827778e-02f,
    5.39171975e-03f, -4.51362692e-02f, -1.30165026e-01f, -3.62301171e-02f, 3.69101204e-02f, 9.04019400e-02f, -7.81927556e-02f, 5.41894175e-02f,
    6.79909736e-02f, 5.09086326e-02f, 1.82042718e-02f, -3.87393311e-02f, -1.38689298e-02f, -1.97575819e-02f, -4.03270237e-02f, -5.59664471e-03f,
    7.06068277e-02f, 1.39799967e-01f, 1.20493919e-01f, -1.13901617e-02f, 1.81893185e-02f, -1.27343303e-02f, -5.85859306e-02f, -2.33484316e-03f,
    -2.05723405e-01f, 7.93660432e-03f, -1.35919568e-03f, 6.58012927e-02f, 1.00661233e-01f, -4.92366776e-02f, 8.30475539e-02f, -8.84181187e-02f,
    1.15423881e-01f, -3.11731249e-02f, -2.11736765e-02f, -2.73616500e-02f, 3.72268297e-02f, -2.83651277e-02f, 1.91298485e-01f, 5.58666699e-02f,
    -2.87635662e-02f, 8.42941478e-02f, -4.94224392e-03f, 9.95544195e-02f, -1.65106859e-02f, -5.69565110e-02f, -1.60189364e-02f, 3.36977132e-02f,
    -1.43332243e-01f, -3.08747012e-02f, 1.17921315e-01f, -1.90068752e-01f, 8.76026079e-02f, 2.13901311e-01f, -1.96954399e-01f, 2.13334765e-02f,
    4.80315626e-01f, 1.92706302e-01f, 4.60379064e-01f, 3.36088806e-01f, 2.28586078e-01f, -1.35742560e-01f, -5.94365709e-02f, -5.97499013e-02f,
    -8.06100890e-02f, 2.05860794e-01f, -2.42720894e-03f, 2.71326512e-01f, -7.82133490e-02f, -1.88360497e-01f, -5.45299873e-02f, -4.37102951e-02f,
    -8.75130370e-02f, 9.44240601e-04f, -2.21923396e-01f, -7.38352491e-03f, 5.55524588e-01f, -1.20176114e-01f, 2.34334826e-01f, 2.48623714e-02f,
    2.33392879e-01f, -1.29474238e-01f, -4.41574939e-02f, -8.53939727e-03f, -6.63033947e-02f, -1.07104011e-01f, 5.68037480e-02f, -3.65845151e-02f,
    -2.79499471e-01f, 4.30525616e-02f, -9.70993787e-02f, 2.15115443e-01f, -1.28837675e-01f, 8.71263165e-03f, 3.64163369e-01f, -9.47362259e-02f,
    3.00482869e-01f, 2.38791093e-01f, -3.36413160e-02f, -6.96444372e-03f, -1.52505845e-01f, -8.68880972e-02f, 3.17698002e-01f, 3.76420438e-01f,
    -9.40051973e-02f, 7.64855444e-02f, 1.51494727e-01f, 1.98213547e-01f, 2.24293619e-02f, -3.77792418e-02f, -4.71625440e-02f, -9.96712223e-02f,
    2.06111655e-01f, -6.31730705e-02f, 6.68820664e-02f, 2.24767029e-02f, 1.01081459e-02f, 4.24270444e-02f, -2.55282640e-01f, 5.97813278e-02f,
    1.04168832e-01f, -1.25344455e-01f, -2.50676870e-01f, -9.79478955e-02f, 3.49629894e-02f, -7.46330991e-02f, -1.54235497e-01f, 3.77875715e-01f,
    -6.32815287e-02f, -1.25391230e-01f, 2.03066524e-02f, 9.43368003e-02f, 3.25402245e-02f, -5.42978523e-03f, 3.15133892e-02f, 4.45236862e-02f,
    1.09231539e-01f, 4.45543183e-03f, 3.65599543e-02f, -2.18803491e-02f, -3.03721696e-04f, -8.27396736e-02f, 2.45502554e-02f, 8.37282360e-01f,
    7.98130222e-03f, 1.00221887e-01f, -4.69127670e-03f, -1.09992266e-01f, -1.83547232e-02f, -9.00636613e-02f, 5.77391863e-01f, -1.87098250e-01f,
    -4.29544039e-03f, -1.47323653e-01f, 1.07326545e-01f, -6.72185943e-02f, 5.31855524e-02f, -1.56636938e-01f, 2.07848791e-02f, 6.75093755e-02f,
    1.11236654e-01f, -1.21838637e-01f, -9.21650529e-02f, 3.82807814e-02f, 2.47189756e-02f, -6.27799779e-02f, -7.77951675e-03f, 7.64548331e-02f,
    6.91730231e-02f, -1.78633053e-02f, -2.13527441e-01f, -1.39202282e-01f, 3.30689065e-02f, 7.09268227e-02f, -1.08205505e-01f, 1.90991387e-01f,
    1.03188977e-02f, 7.72838295e-03f, -9.97220073e-03f, -1.11296801e-02f, -3.71265300e-02f, 8.39387346e-03f, -4.01533283e-02f, -3.46123194e-03f,
    1.77563459e-01f, -1.59904920e-02f, 3.90038453e-02f, 2.33387500e-02f, -8.28363560e-03f, 1.52732536e-01f, -2.19149664e-02f, 1.33037446e-02f,
    1.90730747e-02f, -3.85950916e-02f, -5.89581467e-02f, 1.26892980e-02f, 2.69376989e-02f, 2.12525111e-02f, -4.13585315e-03f, -2.95671560e-02f,
    1.67261157e-02f, 1.84590872e-02f, 1.47550739e-02f, -7.05335848e-03f, -6.70211716e-03f, -5.83419614e-02f, -4.94356006e-02f, 3.06689758e-02f,
    -4.01310101e-02f, 5.58184087e-02f, -5.79298027e-02f, 2.22542614e-01f, -3.50393727e-02f, 2.32107360e-02f, -1.80585459e-02f, 1.59707516e-02f,
    4.24205279e-03f, 1.03984550e-02f, 3.06394864e-02f, -2.94407845e-01f, -9.86184832e-03f, -3.36547345e-02f, -2.64587611e-01f, 7.45544806e-02f,
    -3.88446450e-02f, -2.82206014e-02f, 5.86296478e-03f, 6.94135297e-03f, 4.11076918e-02f, -2.33559720e-02f, 3.29434983e-02f, -3.14343274e-02f,
    -2.84686661e-03f, 7.58155659e-02f, 5.20852022e-02f, 1.44598596e-02f, 3.54766063e-02f, -3.71791013e-02f, 1.31071195e-01f, -1.82904780e-01f,
    7.65077304e-03f, 2.99878716e-02f, -1.66947424e-01f, -9.48328674e-02f, 1.30743802e-01f, 2.89880425e-01f, 4.60630916e-02f, -1.88602075e-01f,
    -3.04190144e-02f, -3.14294500e-03f, 1.05470382e-01f, -4.83564399e-02f, -1.22174749e-03f, 3.03705800e-02f, -2.29408368e-02f, 4.44481969e-02f,
    -8.97863731e-02f, -1.96109582e-02f, -6.89091682e-02f, -3.56620699e-02f, -1.05199009e-01f, -6.14722781e-02f, 2.67182618e-01f, -1.45505294e-01f,
    1.19106464e-01f, 1.44126285e-02f, 6.18065670e-02f, 1.57393813e-02f, 7.13206083e-02f, -5.07101454e-02f, -1.14224166e-01f, -3.79058570e-02f,
    1.43904975e-02f, 4.12160233e-02f, 6.49530888e-02f, 1.55978752e-02f, 7.28581399e-02f, -7.33465478e-02f, -8.68228376e-02f, 3.75724100e-02f,
    -3.46752375e-01f, 5.37533313e-02f, -3.21249664e-01f, 3.79538424e-02f, 6.20240606e-02f, -1.01960979e-01f, -2.13970199e-01f, -3.67617086e-02f,
    1.89461917e-01f, 5.41550256e-02f, 3.06351688e-02f, 1.72342449e-01f, 5.78130782e-03f, -2.31705103e-02f, 4.19646949e-01f, 1.14333354e-01f,
    8.34495276e-02f, 2.15596706e-03f, 5.45769297e-02f, -2.69833505e-02f, -2.91467547e-01f, -1.41468480e-01f, 2.80363522e-02f, 4.86124679e-02f,
    7.23467618e-02f, -3.71220522e-02f, 1.12647787e-01f, -2.16299504e-01f, -7.20278546e-02f, 1.98712826e-01f, -2.09905595e-01f, -6.14493638e-02f,
    3.53691876e-01f, -8.10009316e-02f, 4.48560655e-01f, 1.56108528e-01f, 9.80274007e-02f, -1.42895907e-01f, 2.84924388e-01f, -3.22731258e-03f,
    1.54790103e-01f, 9.92431790e-02f, -1.95303425e-01f, 2.47351527e-02f, 6.10580295e-03f, 3.95092428e-01f, 8.16361234e-02f, 6.51674345e-02f,
    -1.16212584e-01f, 5.68567105e-02f, -1.48055792e-01f, 4.27260920e-02f, -1.42973186e-02f, 3.95302959e-02f, -1.94154128e-01f, -1.34363095e-03f,
    -3.90368775e-02f, 1.46444039e-02f, 2.84836709e-01f, -4.63520177e-02f, 5.72488680e-02f, 3.68567146e-02f, -7.04296902e-02f, 3.20859700e-02f,
    2.29435470e-02f, -2.59253941e-02f, -2.97897942e-02f, -1.27753258e-01f, -1.48822907e-02f, 1.06865272e-01f, 4.43390846e-01f, 2.86166728e-01f,
    -5.01937233e-02f, 1.05015628e-01f, -8.01896080e-02f, 3.00197393e-01f, -8.21139440e-02f, 2.40891948e-02f, 3.07810139e-02f, -2.99047716e-02f,
    -1.51763901e-01f, -8.83016661e-02f, 1.19692691e-01f, -1.15456507e-01f, -1.92927793e-02f, -7.15950876e-02f, -9.22721103e-02f, -6.42627254e-02f,
    -6.52235374e-02f, 5.86659797e-02f, 1.61066264e-01f, -1.20281726e-01f, -1.07933380e-01f, 1.73845977e-01f, 3.35821100e-02f, 7.38833696e-02f,
    -1.69296023e-02f, 5.31756058e-02f, 1.50233746e-01f, -4.29831371e-02f, -1.19859040e-01f, -5.08275256e-02f, 1.82594180e-01f, 1.11991517e-01f,
    1.76371604e-01f, -1.69184990e-02f, -1.30950371e-02f, -1.01789698e-01f, 1.34125501e-01f, -4.98204678e-02f, -8.81992951e-02f, -5.32589070e-02f,
    1.54139742e-01f, 1.18688263e-01f, 8.31598639e-02f, 3.33129019e-02f, -7.25488663e-02f, 4.45644073e-02f, 3.15376148e-02f, 1.40878549e-02f,
    -5.92991570e-03f, 1.11690223e-01f, -4.48290408e-02f, 2.02706352e-01f, 9.71506983e-02f, 5.21126352e-02f, -3.16929631e-03f, -9.07740518e-02f,
    -2.01602295e-01f, -1.33880544e-02f, 2.01192752e-01f, 4.26499210e-02f, 7.55541474e-02f, 8.00205842e-02f, 7.05450997e-02f, -1.55047312e-01f,
    -1.46743089e-01f, -8.97849053e-02f, -1.92741305e-02f, -1.35183856e-01f, -4.37011793e-02f, -6.19201064e-02f, 9.18636192e-03f, 2.92126000e-01f,
    1.63202763e-01f, 4.19491790e-02f, 1.60631686e-01f, -4.39905971e-02f, 3.09666842e-01f, 2.87914991e-01f, -2.50387490e-02f, -5.65112643e-02f,
    2.30122041e-02f, -1.19112857e-01f, 8.76849368e-02f, -2.73960214e-02f, -1.24547221e-01f, 1.05105318e-01f, 4.16201018e-02f, -4.85281870e-02f,
    4.74720076e-02f, -2.33251825e-01f, 1.16107382e-01f, -1.45923430e-02f, 5.66556975e-02f, -3.46806906e-02f, -2.15778081e-03f, -5.80016896e-02f,
    -2.20129088e-01f, -1.31917730e-01f, 2.03788832e-01f, 8.75075310e-02f, 9.28149223e-02f, 5.10053243e-03f, 6.51636794e-02f, -5.12141511e-02f,
    -1.82080656e-01f, -8.35872069e-03f, -9.25335735e-02f, -2.59183627e-02f, -4.84086201e-03f, -5.51443584e-02f, -1.32331997e-01f, 1.03701696e-01f,
    -1.61409557e-01f, 5.04969470e-02f, -6.18198290e-02f, 6.33167773e-02f, 3.59318190e-04f, 6.57540485e-02f, 3.37979436e-01f, -1.50292173e-01f,
    -1.18863070e-02f, -3.26875776e-01f, 5.34708463e-02f, -9.07475781e-03f, -8.67122188e-02f, -9.34422016e-02f, 1.53566584e-01f, -1.48276228e-03f,
    -2.48062626e-01f, -4.17682007e-02f, 4.59175110e-02f, 5.74619807e-02f, 2.68010907e-02f, -3.36172849e-01f, 2.99074780e-02f, -1.06553987e-01f,
    -1.38096824e-01f, 1.81317255e-01f, 1.31390542e-01f, -1.62123039e-01f, -9.20222607e-03f, -1.47878066e-01f, -4.29312699e-02f, 3.25697511e-02f,
    -4.66398634e-02f, -5.58281280e-02f, -1.81717858e-01f, 5.31649403e-02f, -1.09759323e-01f, -1.09298795e-01f, -3.17735262e-02f, -2.38386076e-02f,
    1.70259446e-01f, -3.81804518e-02f, 6.24638190e-03f, 8.05044174e-02f, 5.96214980e-02f, 4.44814086e-01f, -1.48066640e-01f, 7.50262849e-03f,
    -1.53961495e-01f, 1.59436613e-01f, -8.79245847e-02f, 3.90386105e-01f, -5.61661087e-02f, 1.03273302e-01f, 1.84906926e-02f, -3.75856757e-02f,
    -8.82277787e-02f, 7.04718605e-02f, -6.42746389e-02f, 2.83570811e-02f, -2.94726342e-02f, -8.10165405e-02f, -2.22450063e-01f, -5.73550463e-02f,
    1.56935751e-01f, -5.34667931e-02f, 1.28860623e-01f, -2.31043696e-01f, -8.79047289e-02f, -1.98462438e-02f, -7.46785253e-02f, 2.75740270e-02f,
    2.10308105e-01f, 7.84034878e-02f, -3.58891249e-01f, 1.79365755e-03f, -1.58954039e-01f, -1.02518372e-01f, -2.42172971e-01f, 8.38286132e-02f,
    5.49867041e-02f, 1.10183463e-01f, 6.08422980e-02f, 1.26092434e-01f, 1.59984410e-01f, 3.69389541e-02f, -9.97121781e-02f, -2.11470366e-01f,
    -6.93963319e-02f, -4.62566316e-02f, -1.29815144e-02f, 5.67679144e-02f, -1.88464448e-01f, -7.69972205e-02f, -6.17368594e-02f, 1.00251630e-01f,
    5.12212813e-02f, 6.58815028e-03f, -1.31765082e-01f, 1.05211549e-01f, 3.10811047e-02f, 3.00584771e-02f, -7.53972307e-02f, -1.84919965e-02f,
    7.03396043e-03f, 3.68101805e-01f, -3.14982310e-02f, -2.02202916e-01f, -2.90006883e-02f, 2.50967234e-01f, 1.67538851e-01f, -3.97501700e-03f,
    -4.22801776e-03f, 7.24231452e-02f, -1.07470863e-01f, -3.97858582e-02f, 3.31562795e-02f, 1.67107254e-01f, 8.78428817e-02f, 7.53515288e-02f,
    -1.98960174e-02f, -5.62232472e-02f, 2.04389781e-01f, -1.87168688e-01f, 7.98422378e-03f, 2.27369387e-02f, -9.14543942e-02f, -9.74954963e-02f,
    1.33238345e-01f, 5.75077394e-03f, 1.07532181e-01f, -4.10658643e-02f, -1.42995447e-01f, 2.59296484e-02f, -2.27120787e-01f, 2.53404617e-01f,
    7.90182799e-02f, 1.91095829e-01f, 5.14215715e-02f, 2.17628032e-01f, -9.58601534e-02f, 1.98494762e-01f, -8.08294937e-02f, 7.12030306e-02f,
    2.99354028e-02f, -8.01280662e-02f, -2.83305719e-02f, 2.37240449e-01f, -1.37121499e-01f, -3.88054699e-02f, 1.05064288e-01f, 1.10617295e-01f,
    1.61527783e-01f, -8.54989812e-02f, -1.70609877e-01f, 1.98232159e-01f, 7.93620422e-02f, 7.68648237e-02f, 2.47556537e-01f, -4.45302501e-02f,
    7.36445338e-02f, -2.10322775e-02f, 2.00013235e-01f, 3.22611593e-02f, 1.21063955e-01f, 8.55073482e-02f, 6.72657043e-02f, 2.28799865e-01f,
    -4.17883173e-02f, -1.50375232e-01f, 1.24126717e-01f, 1.43345550e-01f, -1.89575210e-01f, -1.05420455e-01f, -3.37494388e-02f, -2.94936877e-02f,
    -2.92952061e-01f, -2.02791080e-01f, -1.55686393e-01f, -2.34208882e-01f, 1.19944260e-01f, -2.57287417e-02f, 3.35512236e-02f, 4.33506593e-02f,
    7.07627013e-02f, -1.31596431e-01f, -2.87845861e-02f, 3.24392207e-02f, 1.47964463e-01f, 1.01036411e-02f, 3.36365588e-02f, -3.75717655e-02f,
    -7.68050741e-05f, 4.10609126e-01f, 6.30886108e-02f, 4.65413034e-02f, -4.11845669e-02f, 1.17125750e-01f, 1.19685829e-02f, 5.84514663e-02f,
    1.01541770e+00f, 5.95135940e-03f, -2.75111824e-01f, 4.26360741e-02f, -1.65985942e-01f, -5.84431216e-02f, -1.52524814e-01f, -2.14664370e-01f,
    -4.39728471e-03f, -7.83543140e-02f, 2.34721173e-02f, 6.89793602e-02f, -1.11366749e-01f, 2.28185463e-03f, 7.78745651e-01f, 4.26297262e-02f,
    -2.04282343e-01f, -6.28910819e-03f, -3.07411570e-02f, 1.42029285e-01f, -2.06853539e-01f, -8.60405639e-02f, -2.65421029e-02f, 9.47210640e-02f,
    4.30934429e-02f, 4.49041426e-02f, 1.01178467e-01f, -9.11971182e-02f, -1.91463623e-02f, -3.12985294e-02f, -1.40306234e-01f, 8.47968012e-02f,
    -1.10010669e-01f, 7.23707378e-02f, -5.41896001e-02f, -1.24226436e-01f, 2.53552664e-02f, 4.99604605e-02f, 9.01350081e-02f, 6.41388521e-02f,
    -8.89050737e-02f, -1.36281148e-01f, -1.14737116e-01f, -8.18439201e-02f, 2.12498575e-01f, 1.02616169e-01f, -5.60574941e-02f, -1.61994547e-02f,
    -3.57750505e-02f, 1.07529841e-03f, 8.43273848e-02f, 1.67924054e-02f, 1.19870462e-01f, 4.36796807e-02f, -4.71746959e-02f, -1.24230748e-02f,
    8.92845020e-02f, 6.58571720e-02f, -1.16486580e-03f, -1.21068303e-02f, 1.17229214e-02f, 3.67919989e-02f, -3.98466960e-02f, -3.28344060e-03f,
    2.23214235e-02f, 4.97332998e-02f, 7.47900158e-02f, 3.22617702e-02f, -6.08811304e-02f, 9.16652903e-02f, -8.22826400e-02f, 1.06802076e-01f,
    5.62292486e-02f, -6.75539747e-02f, 8.44984353e-02f, 6.18552081e-02f, 4.68122140e-02f, 8.60910118e-02f, 7.75350258e-02f, -7.13737085e-02f,
    -3.76587291e-03f, -4.31952961e-02f, 1.11667037e-01f, 9.67674106e-02f, -3.50883268e-02f, 6.11561239e-02f, 3.62545736e-02f, -2.71683913e-02f,
    -4.99883154e-03f, 6.23417735e-01f, -8.47005695e-02f, -1.06817037e-01f, 3.21573950e-02f, 3.44698839e-02f, 5.44169880e-02f, 2.72881150e-01f,
    9.73005146e-02f, 4.31623012e-02f, 1.30448276e-02f, -1.34970382e-01f, 9.18160155e-02f, 4.86871339e-02f, 1.99470073e-02f, -3.93208340e-02f,
    -2.08549470e-01f, 7.89083727e-03f, 3.83184552e-01f, -4.68525589e-02f, 1.72343045e-01f, -4.38686907e-02f, 2.42359832e-01f, -9.98670012e-02f,
    -2.29501456e-01f, 7.81423133e-03f, 5.41244112e-02f, 9.72791389e-03f, 1.06329776e-01f, -8.97629112e-02f, 1.63147330e-01f, 2.39013880e-02f,
    -1.82184353e-01f, -2.90901780e-01f, -4.12964165e-01f, 1.12517431e-01f, 1.13991655e-01f, 3.86567228e-02f, -5.34703881e-02f, -9.61403847e-02f,
    2.73466766e-01f, 2.12722465e-01f, -3.48773479e-01f, -1.88337088e-01f, -1.68706074e-01f, 4.34583873e-02f, 3.03303264e-03f, 7.59887323e-02f,
    -1.02672875e-01f, 1.30029559e-01f, -1.49732545e-01f, 4.03734483e-02f, 1.04039133e-01f, 1.19604863e-01f, -9.51904207e-02f, -3.34762633e-02f,
    3.26451153e-01f, -1.10991143e-01f, 2.00919490e-02f, 4.14621793e-02f, -1.62546068e-01f, 1.15657456e-01f, -3.90354916e-02f, 5.26667833e-02f,
    7.00416137e-03f, 4.20821868e-02f, -1.80175632e-01f, 1.48935333e-01f, 7.99321309e-02f, 1.16741642e-01f, 2.73394585e-01f, 3.15672234e-02f,
    1.77814551e-02f, 1.09114997e-01f, 6.77186251e-02f, 9.30107534e-02f, -8.04409683e-02f, 1.14133917e-01f, 5.31994440e-02f, -6.42122924e-02f,
    -2.30480563e-02f, -5.92054846e-03f, -6.58650026e-02f, 3.75337601e-02f, 7.02042431e-02f, 9.95645579e-03f, -1.68494254e-01f, -1.61672249e-01f,
    -7.44096339e-02f, -8.07423741e-02f, 1.36028212e-02f, -6.62977621e-02f, -1.98257416e-01f, 1.17535271e-01f, -1.96442738e-01f, -8.56621191e-02f,
    -2.67957617e-02f, -1.67999621e-02f, 8.40871260e-02f, 4.41212803e-02f, -4.05698130e-03f, -5.44136651e-02f, 3.68805751e-02f, 9.79617387e-02f,
    3.28422599e-02f, 1.17963672e-01f, 8.74774382e-02f, 5.35994321e-02f, 5.03425226e-02f, 1.64196268e-01f, 6.34806231e-02f, 4.02586535e-02f,
    1.04698930e-02f, -1.62334874e-01f, -9.13730916e-03f, 5.88494614e-02f, 9.78001975e-04f, 1.51028723e-01f, 2.87976321e-02f, -1.15909651e-02f,
    1.90588430e-01f, 1.09944418e-02f, -1.36426643e-01f, -7.26775229e-02f, 4.19051908e-02f, 4.66883779e-02f, 4.61108908e-02f, 9.19992011e-03f,
    1.49185613e-01f, 8.14659670e-02f, -2.97821630e-02f, -1.35870744e-02f, 1.22445904e-01f, -1.43750785e-02f, -5.83130792e-02f, -9.37973782e-02f,
    1.35356843e-01f, -3.52480859e-02f, -1.17897786e-01f, 1.74051061e-01f, -1.14068817e-02f, 7.25779608e-02f, -4.07392271e-02f, -1.03312418e-01f,
    -1.39595345e-01f, -5.66779636e-03f, -1.29742801e-01f, -1.83703184e-01f, 4.79423301e-03f, 1.35370286e-03f, -1.05542906e-01f, 5.09591281e-01f,
    -3.79718132e-02f, -1.97311002e-03f, 6.68138489e-02f, -3.23885977e-02f, 2.53416717e-01f, -1.26513429e-02f, -3.03880684e-02f, 3.30838785e-02f,
    1.24670090e-02f, -1.15237050e-01f, 1.42518312e-01f, -1.30374283e-01f, 4.01458442e-02f, 1.74787134e-01f, 9.21069309e-02f, -1.35521233e-01f,
    -9.59701911e-02f, -1.58254360e-03f, -7.08175972e-02f, 1.63825795e-01f, -8.70631356e-03f, 3.29020526e-03f, 3.46379757e-01f, -8.29674080e-02f,
    1.64130945e-02f, -9.52856839e-02f, 3.85165624e-02f, -1.09372996e-01f, 2.69998282e-01f, 1.05999470e-01f, 2.77600791e-02f, -5.80733679e-02f,
    1.19766958e-01f, 1.12357751e-01f, -6.08406030e-02f, 1.68641821e-01f, -1.44317672e-01f, -1.15839613e-03f, -8.08933377e-03f, -9.25218761e-02f,
    2.28700981e-01f, 3.07376999e-02f, 8.88140053e-02f, -4.27662022e-02f, 2.55391803e-02f, -2.16928661e-01f, 5.02257720e-02f, -3.62304300e-02f,
    -1.36737287e-01f, -7.69406408e-02f, -1.85193390e-01f, -1.53549284e-01f, -1.37316361e-01f, -2.58364528e-01f, 1.15249798e-01f, 8.27927962e-02f,
    1.33736104e-01f, 7.92489275e-02f, 1.95508122e-01f, -2.01331526e-01f, -7.31084496e-03f, -2.15908121e-02f, 1.32709354e-01f, -1.04246870e-01f,
    1.78263888e-01f, -2.45071396e-01f, -2.07370743e-01f, -1.03695072e-01f, -1.13148719e-01f, 1.22277699e-02f, 4.29180600e-02f, 6.32363930e-02f,
    -3.20552066e-02f, -8.48935097e-02f, 4.05288965e-01f, 5.96668832e-02f, 3.88751887e-02f, -1.71413258e-01f, 8.98827761e-02f, -2.54458666e-01f,
    -1.80227727e-01f, 3.35182250e-02f, -6.36355057e-02f, -2.03414321e-01f, -2.15603877e-02f, 1.25556648e-01f, -1.82612836e-01f, 2.15214416e-01f,
    6.78265393e-02f, 1.61645889e-01f, 7.12934285e-02f, 1.12429112e-01f, -9.64181945e-02f, 6.66572228e-02f, 8.95512849e-02f, -1.70323402e-01f,
    -1.76483721e-01f, 4.19274829e-02f, -1.01069495e-01f, 1.54296175e-01f, 1.65532917e-01f, -1.66981965e-01f, -2.97340125e-01f, 8.87813717e-02f,
    1.05954945e-01f, -1.12926280e-02f, 5.10034189e-02f, 2.78481990e-02f, 7.93622583e-02f, 1.81324296e-02f, 6.49427056e-01f, 4.79850583e-02f,
    -3.41455936e-02f, -2.40075454e-01f, -1.02772407e-01f, -2.24965051e-01f, 9.66742784e-02f, -2.60414183e-02f, 1.30549669e-01f, 4.00247611e-02f,
    -3.23144883e-01f, 1.51906863e-01f, 3.25244330e-02f, 1.23884603e-01f, 5.24343140e-02f, 2.63370499e-02f, 6.14410602e-02f, 1.81674987e-01f,
    5.03757372e-02f, 9.68174040e-02f, -2.10216478e-01f, -1.99177101e-01f, 4.62960228e-02f, -1.92286432e-01f, 5.56446379e-03f, -3.61872315e-01f,
    -1.21585811e-02f, 8.34808350e-02f, -2.01135650e-02f, -1.96211085e-01f, -1.54675562e-02f, 2.43642554e-01f, 2.12517112e-01f, -1.93802878e-01f,
    3.37050594e-02f, -2.54870594e-01f, 5.71468435e-02f, 3.24901342e-01f, 3.27789128e-01f, -2.33624637e-01f, -8.29869583e-02f, 1.27425760e-01f,
    5.71390428e-02f, -2.21036375e-01f, -1.27557844e-01f, 5.26289977e-02f, 5.73578337e-03f, 2.99061924e-01f, 1.81713179e-02f, 4.92738746e-02f,
    1.57845318e-01f, -1.26403525e-01f, -2.47103363e-01f, -5.38974516e-02f, -1.42456964e-02f, -4.26002145e-02f, 2.58712433e-02f, 9.67938527e-02f,
    -3.14505994e-02f, -6.94867373e-02f, 1.47298388e-02f, 1.44250533e-02f, -3.85931016e-05f, -9.54037439e-03f, 2.43454594e-02f, 4.63200267e-03f,
    4.38851826e-02f, -1.01311812e-02f, -1.33750811e-01f, 2.69247442e-02f, -2.48791296e-02f, 1.10780232e-01f, -4.60834429e-02f, 1.49944788e-02f,
    -2.45872233e-02f, 4.33980562e-02f, -1.20745031e-02f, -1.17218615e-02f, 2.22873613e-02f, 2.91964896e-02f, 1.45434588e-02f, 2.92326938e-02f,
    -2.86897160e-02f, 5.46524525e-02f, 3.38122547e-02f, -3.15477438e-02f, 6.49573328e-03f, -4.27972451e-02f, 2.60852482e-02f, 3.00817229e-02f,
    2.17063539e-03f, 2.67935898e-02f, -5.59735708e-02f, 3.22896034e-01f, -3.31356898e-02f, -6.80872845e-03f, 2.01867558e-02f, 6.77393749e-02f,
    -9.01415348e-02f, -9.29264817e-03f, 6.45333901e-02f, -1.41314104e-01f, 4.41036671e-02f, -4.51516323e-02f, -1.02302097e-01f, -8.58061295e-03f,
    -1.25244213e-02f, 1.94521770e-02f, 3.49993594e-02f, 6.97675645e-02f, 3.49085480e-02f, 6.73833583e-03f, -2.02782154e-02f, -1.63064092e-01f,
    -2.20322385e-02f, 7.63083249e-02f, 6.02275096e-02f, 5.28158015e-03f, 5.21394759e-02f, -1.62636526e-02f, -1.98400766e-01f, 1.39420494e-01f,
    -2.45583728e-02f, -6.24426305e-02f, -2.70265434e-02f, 2.53085382e-02f, 1.05332835e-02f, 1.06467187e-01f, -1.01858780e-01f, 5.16331382e-02f,
    -3.80474254e-02f, 4.37162697e-01f, -1.13917306e-01f, 2.08694458e-01f, 7.79131241e-03f, -1.38009280e-01f, -1.89716786e-01f, -1.67431682e-02f,
    2.87731811e-02f, -1.47972673e-01f, 6.73362389e-02f, 1.39764160e-01f, 3.88856716e-02f, -4.24235016e-02f, 1.11893686e-02f, 1.61474377e-01f,
    8.35597813e-02f, -1.20202526e-01f, 8.67090046e-01f, 6.22426197e-02f, 5.48797026e-02f, 1.30445749e-01f, -6.01278320e-02f, 1.21192642e-01f,
    -1.03495598e-01f, 1.83564760e-02f, 1.87094599e-01f, -4.61039208e-02f, 2.62727439e-01f, -1.41146824e-01f, -9.43116620e-02f, 1.10705227e-01f,
    6.53359145e-02f, 1.13561414e-01f, 9.42935795e-02f, -1.60928011e-01f, -1.58013478e-01f, 1.39646545e-01f, -9.98832434e-02f, -4.16815691e-02f,
    3.22827846e-02f, 7.41733909e-02f, -3.94220697e-03f, 1.38757443e-02f, 7.98349082e-02f, -1.45313948e-01f, -8.34341068e-03f, -2.47822721e-02f,
    -2.89758909e-02f, 9.72229429e-03f, -1.52961105e-01f, 6.37569204e-02f, 1.14830248e-02f, -1.23526109e-02f, -5.82772419e-02f, -6.00084104e-02f,
    4.26543131e-02f, -2.18073130e-02f, -4.75109965e-02f, 1.09765138e-02f, -3.87260579e-02f, -2.25395299e-02f, -2.45086811e-02f, 2.43419074e-02f,
    -2.59008974e-01f, -2.78236088e-03f, -6.68452904e-02f, -2.35286746e-02f, -3.17042619e-02f, -2.96587527e-01f, -2.75915000e-03f, 1.40328137e-02f,
    6.47241771e-02f, 3.13231051e-02f, -8.96755159e-02f, -6.55423403e-02f, 4.86588404e-02f, 2.19073351e-02f, -1.65152121e-02f, -7.16011599e-02f,
    -6.33238535e-03f, -1.73733924e-02f, 8.50259699e-03f, -4.47370224e-02f, -3.44375819e-02f, 9.50902607e-03f, 1.35897798e-02f, -2.35838089e-02f,
    4.96525839e-02f, 1.28624737e-01f, 1.27578462e-02f, -3.82534638e-02f, -1.54104149e-02f, -7.65546551e-03f, -4.87173833e-02f, 2.02777330e-02f,
    -7.38591403e-02f, 5.86270727e-02f, 3.12801488e-02f, -9.23736207e-03f, -4.04900648e-02f, 4.35446613e-02f, 3.13125327e-02f, 6.42971545e-02f,
    -1.73937548e-02f, -2.29658652e-02f, 1.25137448e-01f, 1.13578409e-01f, -3.66968522e-03f, -4.93788943e-02f, 1.03849843e-02f, 6.56986758e-02f,
    -5.44829248e-03f, 9.64461565e-02f, -2.13384032e-02f, 5.36233671e-02f, -5.12343943e-02f, -4.68702614e-02f, 4.10772413e-02f, -2.70121582e-02f,
    -2.61204392e-02f, 5.19671068e-02f, -3.05041373e-02f, -8.88213366e-02f, -2.28584427e-02f, 7.45313317e-02f, 1.04210101e-01f, 3.75653952e-02f,
    1.32298931e-01f, -4.13398370e-02f, -4.17232215e-02f, 1.11520812e-01f, -7.55239874e-02f, -6.68280125e-02f, 6.93432940e-03f, 1.21695660e-02f,
    2.62869280e-02f, -9.51867178e-02f, -6.43857196e-02f, -5.61614074e-02f, 1.38938725e-02f, -9.70692337e-02f, 3.58794592e-02f, 4.01867107e-02f,
    -7.56324083e-02f, 6.08328819e-01f, 1.08553402e-01f, 4.05738689e-03f, 1.90488696e-02f, 1.17511161e-01f, -6.91728964e-02f, -1.37136757e-01f,
    1.80977061e-01f, 3.73187400e-02f, -4.77851182e-02f, 2.00349718e-01f, -1.44247422e-02f, 1.81773618e-01f, 7.20648766e-02f, -2.20842659e-03f,
    -2.29510702e-02f, 6.22468814e-02f, 5.34794992e-03f, 5.43551287e-03f, -1.55783277e-02f, 1.03014126e-01f, 6.03715181e-02f, -1.09604672e-02f,
    -1.06549241e-01f, -2.48072054e-02f, -2.26203352e-02f, 4.58796546e-02f, 1.96018264e-01f, 9.77775827e-02f, -1.05246961e-01f, -1.58990473e-01f,
    -1.51497900e-01f, -3.81534435e-02f, -3.67241316e-02f, 1.53749257e-01f, -2.59504449e-02f, -1.02213807e-01f, 1.72706768e-01f, -1.54842371e-02f,
    -8.71228352e-02f, 2.15117902e-01f, -5.34187965e-02f, -9.73866880e-02f, 2.97879696e-01f, -5.22947172e-03f, 6.30148575e-02f, -4.56167310e-02f,
    2.87380554e-02f, 4.89908755e-02f, 9.27789435e-02f, -6.06185347e-02f, 7.52251083e-03f, -1.44033069e-02f, -7.29899481e-02f, 5.56596182e-02f,
    6.67017400e-02f, -3.70958112e-02f, 3.30767721e-01f, -1.31838406e-02f, -2.25418177e-03f, 2.46509686e-02f, -1.25443980e-01f, 3.42271984e-01f,
    1.20023072e-01f, 8.03980455e-02f, -7.37028988e-03f, -1.31294265e-01f, -1.98162589e-02f, 1.11020610e-01f, 3.75167727e-02f, -1.81536227e-01f,
    1.40878698e-02f, -1.17534526e-01f, -8.14844146e-02f, -8.42009261e-02f, 2.36403514e-02f, -9.91821066e-02f, -2.94952333e-01f, 1.01195194e-01f,
    6.90318272e-02f, 2.78850319e-03f, 3.22390869e-02f, -1.23996632e-02f, 4.56467308e-02f, 1.99371409e-02f, 3.73283699e-02f, -4.55715470e-02f,
    -2.39829309e-02f, -3.50651108e-02f, -5.37307709e-02f, 6.53952807e-02f, -2.75616683e-02f, 6.23485248e-04f, -7.27521628e-02f, 1.01662558e-02f,
    -1.86142866e-02f, 2.06130221e-02f, 5.73500991e-02f, 1.73040144e-02f, 1.81044698e-01f, 2.74717305e-02f, 5.55528216e-02f, -9.10181031e-02f,
    -1.67092849e-02f, -4.53328155e-03f, -6.30147755e-02f, -2.35436368e-03f, -1.09019101e-01f, -5.25840968e-02f, 4.21275944e-02f, 2.88385656e-02f,
    -6.78591207e-02f, 3.86624411e-02f, -9.04301240e-04f, 4.37063091e-02f, -1.33677777e-02f, 7.89473858e-03f, -6.70040250e-02f, 6.20531067e-02f,
    -2.49123015e-02f, -4.49169651e-02f, -3.73854227e-02f, 7.09016696e-02f, 7.10163219e-03f, 6.85628727e-02f, -5.35886511e-02f, -2.25485787e-02f,
    -4.02149111e-02f, 4.26299050e-02f, 5.38264774e-02f, 2.46502925e-02f, -6.82622660e-03f, -1.00616524e-02f, -1.25158310e-01f, -2.89088525e-02f,
    5.13102934e-02f, 4.62911604e-03f, 1.18036084e-02f, -7.12704659e-02f, 2.12349705e-02f, 1.23230079e-02f, 1.98052786e-02f, -5.96953630e-02f,
    7.44611472e-02f, 3.02719846e-02f, -6.47845268e-02f, 2.11085398e-02f, -3.20180021e-02f, -1.59104876e-02f, -3.41184475e-02f, -5.36467275e-03f,
    1.09302655e-01f, 4.87389788e-03f, -1.06251882e-02f, -9.86907408e-02f, 5.74242696e-02f, 4.54785377e-02f, -3.79996412e-02f, -6.76016584e-02f,
    6.66259453e-02f, -1.16433948e-02f, 5.94435595e-02f, -3.12985145e-02f, -3.73037905e-02f, -5.21998182e-02f, 2.72495970e-02f, 4.57665250e-02f,
    1.72986642e-01f, -9.18543413e-02f, -1.25030279e-01f, 8.29156861e-02f, 1.11597098e-01f, 6.05406985e-02f, -5.73984683e-02f, 4.87897582e-02f,
    6.17075898e-02f, -1.87130153e-01f, 7.58792311e-02f, -6.55862391e-02f, 6.97601080e-01f, 8.59750509e-02f, -2.11212307e-01f, 3.44557881e-01f,
    1.10811807e-01f, 3.53975028e-01f, -9.96347666e-02f, -6.06167093e-02f, -7.09032193e-02f, -1.02540463e-01f, 3.19243893e-02f, -1.78212952e-02f,
    1.20464154e-01f, -3.48014608e-02f, -1.23027496e-01f, 1.71255961e-01f, -3.31824198e-02f, -1.41187340e-01f, 1.26428440e-01f, 1.26327857e-01f,
    5.30909002e-01f, 7.85165802e-02f, -7.65543524e-03f, -1.18546151e-02f, 4.89912927e-02f, -1.89334806e-02f, -7.30110183e-02f, -1.04396552e-01f,
    -1.79848060e-01f, -1.65651649e-01f, -8.52562562e-02f, 3.17931533e-01f, 1.23995719e-02f, -5.89945093e-02f, -1.04230426e-01f, 1.66592404e-01f,
    -3.63122672e-02f, -1.68301135e-01f, -4.55009267e-02f, 1.20364122e-01f, 2.94402391e-01f, 2.65743047e-01f, -1.36860192e-01f, 2.09553942e-01f,
    2.35960603e-01f, -3.61960046e-02f, 8.81275013e-02f, -3.08453351e-01f, 4.93012834e-03f, 4.90956148e-03f, 1.12434790e-01f, -1.86202191e-02f,
    -6.30800705e-03f, -1.99702412e-01f, 3.00693542e-01f, -4.15242165e-02f, -4.34312336e-02f, 3.04084718e-01f, 5.18866256e-02f, -7.51126036e-02f,
    -7.60479793e-02f, 3.92174460e-02f, 1.76645696e-01f, 1.74817592e-02f, -1.08589858e-01f, -8.86229798e-02f, 4.75492738e-02f, 1.21513180e-01f,
    1.30614057e-01f, -5.56275286e-02f, 2.63674697e-03f, 1.45600036e-01f, -9.04332250e-02f, -5.54278232e-02f, 7.89637789e-02f, -3.81278954e-02f,
    -9.95399803e-02f, -9.42205787e-02f, 9.81459171e-02f, 1.19751301e-02f, -8.37720186e-02f, 9.79195759e-02f, 2.09347814e-01f, -7.71220475e-02f,
    -4.98728044e-02f, 2.51293689e-01f, -4.62600514e-02f, -1.04667939e-01f, -2.02578846e-02f, -1.10286407e-01f, -2.93520140e-03f, 5.43706454e-02f,
    -7.61275962e-02f, 2.00058799e-02f, 1.75593887e-03f, 4.57519025e-04f, 1.45081669e-01f, -7.22877160e-02f, -9.33673084e-02f, 3.14123362e-01f,
    4.42183204e-02f, -1.72275513e-01f, 4.07444164e-02f, -8.24881420e-02f, -1.10505238e-01f, -9.01768655e-02f, -1.45769462e-01f, -2.94776782e-02f,
    1.14249103e-01f, 2.65762322e-02f, 1.83569402e-01f, -5.54213859e-02f, -2.69263778e-02f, 8.26868340e-02f, -7.76721686e-02f, 5.15226908e-02f,
    2.05222979e-01f, -1.49963647e-01f, -8.72266740e-02f, 1.29341066e-01f, 1.74563989e-01f, -1.99646652e-01f, -3.13642509e-02f, -1.85145125e-01f,
    -9.19001624e-02f, 2.64334064e-02f, -9.57020819e-02f, -8.00614581e-02f, -9.98414904e-02f, 1.24640033e-01f, 3.36871356e-01f, -1.47945166e-01f,
    -4.78954054e-02f, -4.50635850e-02f, 3.31960097e-02f, -1.57522246e-01f, 1.11395074e-02f, 1.74488612e-02f, -5.22892624e-02f, -1.95788428e-01f,
    -7.15240613e-02f, 9.87107828e-02f, 6.18950762e-02f, 1.30223259e-01f, -1.18898293e-02f, -1.49910972e-01f, -9.58929583e-02f, 8.85291621e-02f,
    9.82924178e-02f, -1.60794139e-01f, 8.53471085e-02f, -1.11809932e-01f, -7.13327527e-03f, -2.19520688e-01f, -7.89782107e-02f, 9.46764126e-02f,
    1.06526762e-01f, -2.45464578e-01f, 1.85450777e-01f, 6.77895024e-02f, 1.42909855e-01f, 8.32895637e-02f, -5.33863790e-02f, -8.47247764e-02f,
    -6.65975213e-02f, -1.26529157e-01f, -2.65724696e-02f, 2.17365459e-01f, -1.07292429e-01f, -1.27584308e-01f, 1.61466271e-01f, -1.21763334e-01f,
    2.59091496e-01f, -1.99926123e-02f, 1.74607605e-01f, 2.14042589e-02f, -8.46932828e-02f, -9.54729244e-02f, 1.45985097e-01f, 4.33355290e-03f,
    -1.28862813e-01f, -1.59603164e-01f, 1.21977441e-01f, 1.69403255e-01f, -2.72036642e-01f, -5.54016680e-02f, 7.93312490e-02f, 1.06635071e-01f,
    3.91010232e-02f, 2.64315940e-02f, -6.66794851e-02f, 1.87779501e-01f, -1.00437947e-01f, -1.39442950e-01f, 2.33312085e-01f, -4.96550575e-02f,
    -1.00004282e-02f, 5.31647876e-02f, -3.94420922e-02f, -1.27870545e-01f, 4.06400412e-02f, -1.49465576e-01f, -2.03750864e-01f, -5.91847077e-02f,
    3.13065238e-02f, 1.70579374e-01f, 9.71471146e-03f, -3.64051834e-02f, -2.98924092e-03f, 3.52716818e-02f, 3.19456428e-01f, 1.22952899e-02f,
    7.51241902e-03f, -1.63234815e-01f, -6.80229589e-02f, 2.46111855e-01f, -8.07396248e-02f, -8.38540569e-02f, -6.33732826e-02f, -2.08801836e-01f,
    2.00295791e-01f, 8.32538062e-05f, -9.67286061e-03f, -8.37001354e-02f, -1.43345997e-01f, -1.01363569e-01f, 6.14697449e-02f, 6.51956201e-02f,
    6.70558773e-03f, 1.77440420e-03f, 2.25740019e-02f, 4.16840374e-01f, 1.48934114e-03f, 9.33105424e-02f, -1.44995555e-01f, 3.09619121e-02f,
    2.56078690e-01f, -7.94495493e-02f, -4.12101857e-02f, -1.01584099e-01f, -4.38650966e-01f, 2.78072417e-01f, 9.39741582e-02f, 9.03099105e-02f,
    -5.10629639e-02f, -1.74106330e-01f, -5.98770380e-02f, 5.65653071e-02f, 2.55659819e-02f, 7.01847896e-02f, 1.02522321e-01f, -6.32296503e-02f,
    -1.13463840e-02f, 2.68150903e-02f, -6.68525025e-02f, -5.44780726e-03f, 3.73239778e-02f, 1.14678748e-01f, 5.87173283e-01f, 4.77965735e-02f,
    -1.87632382e-01f, -1.23284794e-01f, -1.28298640e-01f, -1.10557482e-01f, 1.47799984e-01f, -3.86209227e-02f, 2.82652080e-02f, 4.50200923e-02f,
    -1.63558662e-01f, 1.73841655e-01f, 1.04597816e-02f, 1.53526049e-02f, 3.37965451e-02f, 1.12214625e-01f, -1.72160283e-01f, -8.91630277e-02f,
    -7.16678426e-02f, 1.45273656e-01f, 4.18999702e-01f, -4.38726805e-02f, -4.66072969e-02f, -5.51095605e-02f, -1.50235832e-01f, 4.70123664e-02f,
    1.10941745e-01f, 4.49600965e-02f, 8.33063796e-02f, 3.38101462e-02f, -2.09751859e-01f, 5.61446231e-03f, 1.05715301e-02f, 6.71774507e-01f,
    -1.84290811e-01f, -1.10880986e-01f, -7.20932782e-02f, 6.78715646e-01f, -3.95760611e-02f, -1.97207835e-02f, 1.23369560e-01f, -1.17385574e-01f,
    9.64186713e-03f, 1.57694399e-01f, 5.69866523e-02f, -6.70476556e-02f, 1.42711580e-01f, -1.15192629e-01f, 1.05836295e-01f, -9.85779241e-02f,
    8.38144310e-03f, 8.75607803e-02f, 2.95232624e-01f, 8.32404867e-02f, 3.11973870e-01f, -1.21633612e-01f, 4.10204194e-03f, 3.17794234e-02f,
    1.29948050e-01f, -5.51311113e-02f, -2.34329514e-02f, -7.44757652e-02f, 1.41261712e-01f, -2.92079225e-02f, -1.27711013e-01f, 1.18561108e-02f,
    3.13111879e-02f, 9.39277932e-02f, 1.25034321e-02f, -1.40713807e-03f, -1.57459214e-01f, -8.57017376e-03f, -7.29828253e-02f, 1.99504271e-01f,
    -2.33394001e-02f, 7.51603022e-02f, 2.15332955e-02f, -2.60795038e-02f, -1.23716488e-01f, 9.04689059e-02f, -2.14836653e-02f, -4.08094786e-02f,
    1.54123493e-02f, -1.36046512e-02f, -7.50375092e-02f, -1.09442621e-01f, 1.09415032e-01f, -1.29326843e-02f, -5.36226071e-02f, 1.04529440e-01f,
    2.08764419e-01f, -2.35258549e-01f, -1.76209494e-01f, 1.46709576e-01f, -3.85102145e-02f, 5.03508523e-02f, 2.29797050e-01f, 1.72146946e-01f,
    2.22381532e-01f, 6.50899932e-02f, 2.40595624e-01f, -5.07296361e-02f, -7.32565075e-02f, -1.15827113e-01f, -3.12191635e-01f, -1.98760495e-01f,
    -8.89582783e-02f, 5.30641228e-02f, 7.71639869e-02f, -1.06403887e-01f, -2.09716454e-01f, -1.59204811e-01f, 6.43749684e-02f, -2.38725662e-01f,
    -1.82588592e-01f, 7.89875910e-03f, 1.36314258e-01f, 2.98775494e-01f, -5.96002080e-02f, -1.15360832e-03f, -3.13936144e-01f, 2.13333577e-01f,
    1.74838141e-01f, 2.29177907e-01f, 1.00789197e-01f, -2.68932998e-01f, 2.29089484e-01f, 2.84948468e-01f, -1.80418596e-01f, -3.82506363e-02f,
    -8.26856866e-02f, -1.25595093e-01f, 1.23619642e-02f, -2.85856221e-02f, -7.39716366e-02f, -3.36773306e-01f, 7.65995355e-03f, 2.45111380e-02f,
    -2.90658325e-02f, -1.06080167e-01f, 2.08273828e-01f, -6.56206086e-02f, 2.52361208e-01f, 3.00222728e-02f, 2.80305922e-01f, 1.21036664e-01f,
    1.37451410e-01f, -1.44969076e-02f, 1.67358425e-02f, 4.61480767e-02f, -1.16228744e-01f, -4.39058570e-03f, 5.62273823e-02f, -4.68959175e-02f,
    -1.18639767e-01f, 3.31633762e-02f, 1.24344397e-02f, 4.35723275e-01f, 1.91518534e-02f, 3.48439105e-02f, -4.17002924e-02f, -2.82825604e-02f,
    1.56261072e-01f, -2.46208876e-01f, -4.05278951e-02f, -5.32551706e-02f, 1.88969359e-01f, 1.78193331e-01f, 1.29574491e-02f, 1.04522027e-01f,
    -1.39781367e-02f, -4.18395586e-02f, -1.30983638e-02f, 3.15679535e-02f, -3.41387354e-02f, 2.59355485e-01f, 3.88652891e-01f, -2.82480791e-02f,
    4.22531292e-02f, -1.54584408e-01f, -2.17768505e-01f, 3.48076746e-02f, -7.07943887e-02f, 1.58652097e-01f, -4.53691073e-02f, 7.96314105e-02f,
    -1.03715129e-01f, 8.63628313e-02f, -2.18550917e-02f, 7.06314594e-02f, -5.78148407e-04f, -5.50629087e-02f, 7.98293203e-02f, 9.01938677e-02f,
    7.90609717e-02f, -2.94555053e-02f, 1.51651055e-01f, 2.24099338e-01f, 1.68474019e-01f, -4.15719487e-03f, 2.08783999e-01f, 4.99605648e-02f,
    8.36902335e-02f, -2.43739575e-01f, -3.03925406e-02f, 7.39823878e-02f, 8.73163566e-02f, -7.78107718e-02f, -1.10090122e-01f, 4.30901386e-02f,
    1.74543530e-01f, 2.69520134e-01f, 2.76988924e-01f, 2.73275077e-02f, -1.13212697e-01f, 5.24726808e-02f, 5.23615927e-02f, -1.54381115e-02f,
    4.51522283e-02f, 2.03424722e-01f, 5.25049925e-01f, 2.91045103e-02f, 1.01586536e-01f, -1.51012093e-01f, -2.10070491e-01f, 1.90466195e-02f,
    -1.18392818e-01f, -1.45417348e-01f, -1.59723699e-01f, -2.30580773e-02f, 7.78103294e-03f, 4.81652357e-02f, 7.60714859e-02f, -1.04551181e-01f,
    -2.96451990e-02f, -8.15174058e-02f, -2.50602573e-01f, 1.70263872e-02f, 1.04072623e-01f, 8.47537890e-02f, 6.13785908e-02f, 2.30518878e-01f,
    1.54131994e-01f, 8.61513987e-02f, 2.09010914e-02f, -9.05972123e-02f, 8.89738053e-02f, -2.30455443e-01f, -6.84447261e-03f, 4.29898575e-02f,
    -9.70532969e-02f, -1.30526036e-01f, -2.14084536e-01f, -1.26859829e-01f, -1.51024565e-01f, -1.27527982e-01f, 2.46290952e-01f, 1.68232098e-01f,
    -3.32791321e-02f, -2.17474446e-01f, -7.66089037e-02f, -2.47415587e-01f, 9.67491418e-02f, -1.20620713e-01f, -1.48685068e-01f, 1.25809871e-02f,
    -3.34202014e-02f, -1.42651305e-01f, -1.29795521e-01f, 8.33547711e-02f, -9.53963920e-02f, 5.72707728e-02f, -1.65372580e-01f, 3.51071209e-02f,
    -1.09842345e-01f, 4.94293012e-02f, 2.15122893e-01f, -4.45588455e-02f, 9.85419527e-02f, -3.17911953e-01f, -6.42532483e-02f, -1.57316312e-01f,
    -1.41712964e-01f, -6.42060786e-02f, -1.89333320e-01f, -1.09243460e-01f, -9.75640491e-02f, -2.00856835e-01f, -2.32912004e-01f, 1.19499072e-01f,
    -1.12513378e-01f, 1.73210036e-02f, 1.27847850e-01f, 1.77131638e-01f, -6.22826964e-02f, -1.69848576e-01f, 2.99145952e-02f, -1.94601923e-01f,
    -2.46161688e-02f, 4.65495698e-02f, 3.38896513e-02f, -1.03899352e-02f, -1.34292217e-02f, -2.07118750e-01f, -1.56408206e-01f, -1.00569271e-01f,
    -5.08193597e-02f, 3.55697833e-02f, -9.99592468e-02f, 9.26131085e-02f, -6.01579361e-02f, -2.42940694e-01f, 5.89239178e-03f, -1.78936571e-01f,
    6.53900728e-02f, 4.68702614e-02f, -3.69229838e-02f, 7.35030770e-02f, -4.39471751e-02f, 4.14994322e-02f, 2.16233339e-02f, -1.11647472e-01f,
    -6.07322901e-02f, 1.42919114e-02f, -2.34805763e-01f, -1.43568814e-01f, -6.28101900e-02f, 4.79936153e-02f, -1.10458799e-01f, -4.75112572e-02f,
    1.98397096e-02f, 6.63251057e-02f, -8.00426826e-02f, 7.19227176e-03f, -6.33128511e-04f, 7.36403987e-02f, 2.21554503e-01f, 1.19666547e-01f,
    -5.16212173e-03f, -1.23697296e-01f, -5.20025194e-03f, 8.12004134e-03f, 1.23001531e-01f, 6.21183356e-03f, 9.75821689e-02f, -1.62439510e-01f,
    -5.99094965e-02f, -5.60886785e-02f, -1.24014333e-01f, 1.15371384e-01f, -1.46995887e-01f, 2.10478961e-01f, 4.01811242e-01f, -1.26601130e-01f,
    1.41030803e-01f, 1.69294700e-01f, 1.05846450e-01f, 3.45569700e-01f, 2.72600236e-03f, 1.52087614e-01f, 1.49323896e-01f, 8.43070298e-02f,
    -1.58339497e-02f, 3.59927043e-02f, 2.49130856e-02f, 2.74326615e-02f, -1.62953094e-01f, 3.15856487e-02f, -4.07187864e-02f, 6.56027123e-02f,
    1.32395476e-02f, 1.12590350e-01f, -1.03761494e-01f, -9.82402861e-02f, -1.46238664e-02f, -5.86831011e-03f, 8.64908770e-02f, 1.85072735e-01f,
    5.21843657e-02f, 4.41187993e-02f, 7.04157799e-02f, 1.54062614e-01f, -9.99345910e-03f, 3.94910313e-02f, -3.61427456e-01f, 9.53199118e-02f,
    3.11491251e-01f, 1.86288431e-01f, 7.35456795e-02f, 1.57018661e-01f, 2.75116938e-04f, 2.15025693e-01f, -7.74714500e-02f, -1.81253087e-02f,
    7.43020922e-02f, 1.02810115e-01f, 1.24758892e-01f, -6.71863183e-02f, -1.72194950e-02f, -1.78177822e-02f, 8.75981897e-02f, 1.80305149e-02f,
    2.04288557e-01f, -2.17257850e-02f, -3.55510801e-01f, 7.22252717e-03f, -6.95940033e-02f, 4.21240227e-03f, 3.01642958e-02f, 1.11193046e-01f,
    1.57669961e-01f, 3.49751383e-01f, 3.65061164e-01f, -2.57072560e-02f, 1.90064490e-01f, -1.46828756e-01f, 8.31823200e-02f, -4.80403781e-01f,
    2.50474066e-01f, 1.72871351e-01f, 4.85110581e-02f, -4.00492758e-01f, 9.17448197e-03f, 1.35376349e-01f, -1.46408901e-01f, 1.12312950e-01f,
    9.50266942e-02f, -1.06470259e-02f, 1.18055314e-01f, -1.19197972e-01f, -4.36256714e-02f, 1.69895485e-01f, 7.59165362e-02f, 5.54400608e-02f,
    -1.65686943e-02f, -1.02783293e-02f, -1.14199974e-01f, -7.44683594e-02f, 3.09460349e-02f, -1.77996859e-01f, -1.40607488e-04f, 4.49828953e-01f,
    -1.54191226e-01f, 7.18567595e-02f, 2.20424533e-02f, -7.78984353e-02f, 4.68980491e-01f, 8.68462622e-02f, 1.36379048e-01f, 7.50375316e-02f,
    1.04637057e-01f, 1.44396365e-01f, -7.42089450e-02f, 3.53675000e-02f, -2.47738913e-01f, -2.99710602e-01f, -1.43644353e-02f, -8.57490003e-02f,
    3.98233235e-01f, -2.78992429e-02f, -2.92426609e-02f, -7.08387513e-03f, 7.11524044e-04f, -1.40068412e-01f, -1.63991868e-01f, -4.76942360e-02f,
    1.97339863e-01f, -1.93778694e-01f, 1.39630809e-01f, -8.92796088e-03f, 4.71169576e-02f, 1.26168907e-01f, 7.71487951e-02f, -3.11533781e-03f,
    7.02438578e-02f, 4.60208878e-02f, 2.21373186e-01f, -1.82230640e-02f, -3.40667814e-02f, 5.67292748e-03f, -1.09983303e-01f, -3.02691847e-01f,
    -1.48348361e-01f, 6.12349585e-02f, 1.04336478e-01f, 2.89326876e-01f, 7.68910199e-02f, -6.53935820e-02f, -1.50238827e-01f, -1.25137728e-03f,
    -6.22595660e-02f, -1.20528318e-01f, -7.32812658e-02f, 9.27743092e-02f, -2.89803091e-03f, 1.77846923e-02f, 2.00294286e-01f, 1.99554991e-02f,
    -8.21860656e-02f, 8.62902626e-02f, -3.81940673e-03f, 8.73157661e-03f, -1.95536879e-03f, -6.36431426e-02f, 6.95662946e-02f, -1.37832999e-01f,
    -6.36471584e-02f, -1.40134484e-01f, -4.82416637e-02f, -4.22304533e-02f, -1.00567073e-01f, -1.45168409e-01f, 2.56378144e-01f, 1.57339320e-01f,
    -2.31640805e-02f, -4.66735326e-02f, -1.10400155e-01f, -3.10379751e-02f, -3.60208261e-03f, -7.17523843e-02f, -7.19686747e-02f, -1.06128538e-02f,
    8.36611688e-02f, -9.17431265e-02f, -1.22355595e-01f, -7.87252281e-03f, -3.70429121e-02f, -5.38779125e-02f, -9.32803899e-02f, 1.67457890e-02f,
    -1.01568088e-01f, 1.91614240e-01f, -2.31098849e-02f, 1.21166788e-01f, 1.37098283e-01f, -1.51189178e-01f, -2.29541391e-01f, 1.99557245e-02f,
    -5.77170700e-02f, 2.91876882e-01f, -5.55552423e-01f, -1.72790229e-01f, -2.11895928e-01f, 8.35439712e-02f, -2.08715647e-02f, 2.55127460e-01f,
    -1.92624480e-02f, 9.72574111e-04f, 5.33450842e-02f, 8.34636390e-02f, 1.43394172e-01f, 7.68250600e-02f, 5.99373244e-02f, -1.29923329e-01f,
    4.69460227e-02f, 1.84794188e-01f, -9.73175690e-02f, 2.34116077e-01f, -1.22908860e-01f, -2.02783331e-01f, -2.37681717e-01f, 8.43043551e-02f,
    1.36365160e-01f, -3.25504988e-02f, -1.30568761e-02f, -1.61980893e-02f, -1.44121081e-01f, -1.41876653e-01f, 2.87549365e-02f, -1.49025068e-01f,
    1.57526687e-01f, -7.98952952e-02f, 1.27573097e-02f, 2.16751501e-01f, -9.39472094e-02f, 2.01964825e-01f, -1.43579379e-01f, 4.44151694e-04f,
    -1.40135989e-01f, 4.69455570e-02f, -1.97996527e-01f, 1.18280046e-01f, -6.26906566e-03f, 5.88922724e-02f, 3.92052904e-02f, 1.26939192e-01f,
    -8.90941080e-03f, 9.13213864e-02f, 7.41355494e-02f, -9.37771797e-03f, 3.04222107e-01f, -9.13959146e-02f, -2.09748223e-01f, -6.71272799e-02f,
    1.05808511e-01f, -9.34840739e-02f, 1.20912418e-01f, -1.47878587e-01f, 7.07130879e-02f, -2.15757219e-03f, -9.32733566e-02f, 1.48885965e-01f,
    3.43641602e-02f, 1.80642962e-01f, -1.50077924e-01f, 4.09136824e-02f, -2.03581020e-01f, -4.23952937e-02f, -1.16021568e-02f, 1.01421438e-01f,
    6.10610768e-02f, 1.02163345e-01f, 7.87908658e-02f, 7.23267570e-02f, 1.35156289e-01f, 1.13521457e-01f, 8.41047615e-03f, -1.31466836e-01f,
    1.24254651e-01f, -9.07503814e-03f, -9.15360870e-04f, 1.72274649e-01f, -2.90421420e-03f, -5.55291679e-03f, -8.59648511e-02f, 1.31686673e-01f,
    2.78872140e-02f, -7.78152328e-03f, -1.57891825e-01f, 1.47437630e-02f, 1.74435973e-02f, -6.65105358e-02f, 1.09535828e-01f, 1.65251866e-01f,
    -2.04123203e-02f, -1.78693578e-01f, -2.42519798e-03f, 2.08064124e-01f, -1.94640398e-01f, -3.28138731e-02f, -1.07063605e-02f, 1.46883532e-01f,
    -1.12044610e-01f, -1.38324708e-01f, -7.11472780e-02f, 7.84130301e-03f, 8.97979513e-02f, -2.06621423e-01f, 1.26680300e-01f, 1.63732693e-02f,
    -1.78514645e-01f, 6.25293493e-01f, -7.91172534e-02f, 1.03057869e-01f, -2.02984795e-01f, -1.74866840e-02f, -3.33625190e-02f, -7.12519214e-02f,
    -7.40916058e-02f, 1.10828981e-03f, -1.49264187e-01f, -1.15656711e-01f, -1.55633181e-01f, 1.08511984e-01f, -3.91829014e-02f, 9.87002179e-02f,
    1.44387066e-01f, 1.83879286e-02f, 7.13322908e-02f, -1.35779008e-01f, 9.38993990e-02f, 1.36040151e-01f, 2.77245939e-02f, 1.15158139e-02f,
    6.71945736e-02f, 6.03268929e-02f, -1.18328273e-01f, -1.59074917e-01f, 3.82286519e-01f, 1.24420717e-01f, 5.48852012e-02f, -1.28928706e-01f,
    -1.00559704e-01f, -4.47455905e-02f, 1.65296376e-01f, 1.65007412e-01f, 2.44911704e-02f, -8.71380493e-02f, -3.28888521e-02f, -8.13487768e-02f,
    -5.38837053e-02f, -4.84285839e-02f, 1.08584538e-01f, 1.00335337e-01f, 3.32146406e-01f, 1.71356723e-01f, 2.65449099e-02f, 1.15080237e-01f,
    -7.49711990e-02f, -3.20781842e-02f, 1.34712100e-01f, -8.92256126e-02f, 2.00899959e-01f, -3.13051902e-02f, -1.12212390e-01f, 1.49757221e-01f,
    2.50898778e-01f, 7.88783804e-02f, -3.99156567e-03f, -2.62026265e-02f, -1.66074157e-01f, 9.92477592e-03f, -5.18755727e-02f, -4.71607260e-02f,
    3.81100714e-01f, 1.20190211e-01f, 8.79006237e-02f, 5.00550261e-03f, -1.93228573e-01f, 5.49463220e-02f, -9.54134911e-02f, -5.06381057e-02f,
    2.64143050e-01f, 1.81291923e-01f, 2.13955015e-01f, -1.86070129e-01f, -6.56342879e-02f, -1.21484756e-01f, -7.75337964e-02f, -2.19037267e-03f,
    4.30583507e-02f, -2.00488433e-01f, -3.98688644e-01f, 3.50442827e-02f, 2.92342424e-01f, -1.16520792e-01f, -2.99635939e-02f, 2.79112458e-02f,
    7.45242462e-02f, -7.35789835e-02f, 1.73678532e-01f, -1.99787334e-01f, 2.67831534e-02f, -1.65570527e-01f, 2.30882794e-01f, -2.31060516e-02f,
    -1.05189361e-01f, 1.12480782e-01f, 8.87872055e-02f, -4.78241816e-02f, -1.15989447e-01f, -2.60047644e-01f, 2.69310564e-01f, -2.66949117e-01f,
    -9.68152806e-02f, -7.09396601e-02f, 1.83511958e-01f, 1.96494043e-01f, -2.57130712e-02f, 9.12928507e-02f, -3.04456294e-01f, -1.37325644e-01f,
    -5.34859784e-02f, -2.94659045e-02f, -8.74181837e-02f, 5.88776432e-02f, -7.97582231e-03f, -5.05368523e-02f, 3.78094077e-01f, 7.70549551e-02f,
    5.72472159e-03f, 1.11094043e-01f, -1.29105449e-01f, -7.00908303e-02f, 3.12794037e-02f, -2.23062441e-01f, 1.91148311e-01f, 1.36980832e-01f,
    3.57332528e-02f, 5.72175086e-02f, -5.08352518e-02f, 7.52717024e-03f, -2.21915722e-01f, 8.59592557e-02f, 1.07649826e-01f, 1.72199793e-02f,
    6.44852081e-03f, 1.93619162e-01f, 2.69999564e-01f, 5.74234128e-02f, 1.04519710e-01f, 1.16963021e-01f, -5.28474860e-02f, -9.41885039e-02f,
    -1.28697693e-01f, -1.11180777e-03f, -1.68804199e-01f, -4.68739495e-02f, -1.56842694e-01f, -6.99798167e-02f, -6.72083572e-02f, 4.90932524e-01f,
    -4.08458412e-02f, -2.23950148e-02f, -2.90672109e-02f, 4.05693680e-01f, -1.03701577e-01f, 5.57394214e-02f, 1.35025159e-01f, -1.02016903e-01f,
    -1.08240068e-01f, -8.25149938e-02f, 1.09085040e-02f, -7.40659535e-02f, -3.95816006e-02f, -1.34442851e-01f, -1.63059346e-02f, -3.10840481e-03f,
    -2.60323845e-02f, 1.08101089e-02f, 5.85244745e-02f, 2.52529204e-01f, -2.74605211e-02f, -3.48119348e-01f, 3.96315195e-02f, -3.99666071e-01f,
    -5.43916002e-02f, 8.85873213e-02f, -6.04077103e-03f, -4.91124503e-02f, -2.24031106e-01f, 6.03621304e-02f, -3.60785648e-02f, 7.65806958e-02f,
    6.82989508e-02f, 3.22101377e-02f, 4.69088465e-01f, -1.71377733e-02f, 5.59350908e-01f, 3.57317537e-01f, -1.31251857e-01f, 3.67221199e-02f,
    1.12428702e-01f, 2.01597977e-02f, 4.53624912e-02f, 7.95297883e-03f, -1.17317148e-01f, -8.49033669e-02f, -7.21557811e-02f, -3.30827758e-02f,
    1.30575210e-01f, -8.58473592e-03f, 9.29830372e-02f, 3.81859839e-02f, -7.98037648e-02f, -5.72207309e-02f, 6.61325082e-02f, -2.92244256e-02f,
    1.96453780e-02f, -2.62531400e-01f, 3.85664292e-02f, -1.02015741e-01f, 2.71056662e-03f, 3.57280076e-02f, -3.95988524e-02f, -1.41086087e-01f,
    -2.37694725e-01f, 9.25141051e-02f, -1.05813742e-01f, 1.06278680e-01f, 3.28289837e-01f, 4.70845588e-02f, 3.50153558e-02f, 1.88185833e-02f,
    -3.39496545e-02f, -1.12622812e-01f, 5.67993782e-02f, 1.28650472e-01f, 2.46715657e-02f, -3.55881229e-02f, 3.15341324e-01f, -4.85915877e-02f,
    3.66062159e-04f, 1.34722263e-01f, 4.88305576e-02f, -6.31097332e-02f, -3.42346877e-01f, -7.90806338e-02f, -2.90976744e-02f, 2.43209049e-01f,
    -2.66146138e-02f, 1.16157122e-02f, -1.02434605e-01f, -5.18797152e-02f, -1.48106888e-01f, -8.03900808e-02f, 7.57692233e-02f, -5.42010777e-02f,
    1.20698787e-01f, -1.41409934e-01f, -4.29986492e-02f, -2.21670605e-02f, 2.12060809e-01f, -1.03544757e-01f, 2.78269827e-01f, 1.74670145e-01f,
    -2.32177287e-01f, -5.03210351e-02f, 1.69429183e-02f, 6.34830147e-02f, -8.39120597e-02f, -3.34536210e-02f, 1.23431146e-01f, -3.82891059e-01f,
    -3.16655822e-02f, 3.14394563e-01f, 8.56136624e-03f, 3.47540863e-02f, -4.60197404e-03f, -5.45769669e-02f, 4.23093848e-02f, -5.94233535e-02f,
    -1.19949907e-01f, 7.69278407e-02f, -2.13299721e-01f, -8.68710317e-03f, -3.10963660e-01f, 1.30509511e-01f, -7.86055624e-02f, 1.10861443e-01f,
    -3.53560597e-01f, -1.95412375e-02f, 5.32463714e-02f, 1.83568344e-01f, 3.10595389e-02f, 1.63915604e-01f, -1.07442871e-01f, -1.44792199e-01f,
    4.92047183e-02f, -2.61682626e-02f, -1.03825726e-01f, 2.40581799e-02f, 1.36189908e-01f, -8.63570571e-02f, -7.90297613e-02f, 3.26514803e-02f,
    -3.80022265e-02f, -4.49509472e-02f, -9.28213634e-03f, 1.84376985e-02f, 1.26570120e-01f, 1.06406778e-01f, -2.92775612e-02f, -7.10377395e-02f,
    -1.19348697e-01f, 2.24081818e-02f, -7.19734952e-02f, 1.10403597e-02f, 8.73077437e-02f, -3.74410674e-02f, -3.40290973e-03f, 5.65284453e-02f,
    1.18065923e-01f, -2.80062109e-02f, 1.25871152e-01f, 2.12825369e-02f, 1.65323168e-02f, 3.44520248e-02f, -7.76630938e-02f, 3.03551983e-02f,
    8.37114751e-02f, -2.09016893e-02f, 2.87451949e-02f, 2.81512029e-02f, -9.32842642e-02f, 1.13077136e-02f, -4.60425690e-02f, 2.70920787e-02f,
    1.20575584e-01f, 1.04144134e-01f, 2.63458379e-02f, 4.15942483e-02f, -2.45837811e-02f, -2.62574665e-03f, -8.97703916e-02f, -7.05924490e-03f,
    5.77602610e-02f, -5.88337369e-02f, 1.44889936e-01f, -1.17846001e-02f, -1.52092492e-02f, -4.69103456e-02f, 1.38947722e-02f, 6.82342201e-02f,
    4.54667956e-02f, -4.00717445e-02f, 4.80025224e-02f, -5.94714060e-02f, -3.70367914e-02f, -4.66046035e-02f, -1.84625760e-02f, 6.37980849e-02f,
    -7.01847374e-02f, -1.04815941e-02f, 5.68781001e-03f, -1.39340430e-01f, 8.00758898e-02f, 7.64245093e-02f, 5.72878048e-02f, -4.00123373e-02f,
    -7.96744153e-02f, 1.06318094e-01f, 1.18265837e-01f, 3.15556000e-03f, 2.65921634e-02f, 3.82027358e-01f, -5.05765341e-02f, 6.59585148e-02f,
    -7.74561614e-02f, -1.14533685e-01f, -1.41346473e-02f, 8.16197693e-02f, -1.87610015e-02f, -4.25620526e-02f, 3.61316428e-02f, 1.82310224e-01f,
    -5.61453998e-02f, -1.27481490e-01f, -7.70501718e-02f, 3.56310695e-01f, 8.89280986e-04f, 8.24986622e-02f, -6.95355516e-03f, -6.95990622e-02f,
    1.20395720e-02f, -5.40215857e-02f, 5.58794178e-02f, 7.49871805e-02f, 6.82682618e-02f, -4.28340677e-03f, -1.52019430e-02f, -1.25715837e-01f,
    -2.93798745e-02f, -7.89367184e-02f, 2.28537723e-01f, -6.33323565e-02f, -1.04582861e-01f, -3.05936843e-01f, 1.13200426e-01f, 5.18753946e-01f,
    -1.26991449e-02f, -6.23991638e-02f, -1.78910002e-01f, -8.56019184e-02f, 7.52300397e-02f, -1.93946600e-01f, 3.92487124e-02f, -1.19242765e-01f,
    7.39976019e-02f, -2.43908718e-01f, -5.33985458e-02f, 1.96452975e-01f, 1.13941684e-01f, -1.55254975e-01f, -2.18577400e-01f, -9.37575623e-02f,
    2.69433320e-01f, 1.37434915e-01f, 3.40840906e-01f, -1.32670745e-01f, -1.97179969e-02f, -6.02565631e-02f, -9.43316296e-02f, -5.27674556e-02f,
    -3.77206434e-03f, -6.48585781e-02f, 2.09968269e-01f, 9.25651267e-02f, 2.83748540e-03f, 2.59891361e-01f, 4.40808609e-02f, -4.98384058e-01f,
    2.36558393e-01f, 7.12875426e-02f, -6.32616282e-02f, 1.66796640e-01f, -2.02445820e-01f, -4.42403965e-02f, -8.99927467e-02f, 1.26202300e-01f,
    1.48635149e-01f, 6.13678526e-03f, 1.95824891e-01f, 5.96815385e-02f, 3.25411201e-01f, 4.32183355e-01f, -9.37082469e-02f, 1.48645923e-01f,
    -2.60112673e-01f, 4.48596440e-02f, 8.10774416e-03f, 3.40870395e-02f, -7.45125785e-02f, 1.45917729e-01f, 3.39064896e-02f, -5.90149164e-02f,
    -1.13298573e-01f, 2.27991134e-01f, -1.31463453e-01f, -3.74321714e-02f, -9.19922963e-02f, -1.70987904e-01f, -2.09059007e-02f, 8.65747258e-02f,
    -2.53303405e-02f, -1.84125572e-01f, -2.29033511e-02f, 4.88302782e-02f, 1.99073523e-01f, -6.29222766e-02f, -3.66636668e-03f, 3.88890982e-01f,
    -7.14193955e-02f, -1.68742705e-02f, -6.87146187e-02f, -2.64623165e-01f, 7.70289404e-03f, 3.67057659e-02f, 1.81687385e-01f, -6.49573877e-02f,
    3.51206884e-02f, 2.90236801e-01f, 1.97030324e-03f, -8.55384767e-02f, -8.09668079e-02f, -6.84181228e-02f, -1.88189760e-01f, -2.07797550e-02f,
    1.06883690e-01f, -1.63282141e-01f, -1.30060101e-02f, -2.39171535e-02f, -1.84339523e-01f, 9.95492414e-02f, -7.08905002e-03f, -1.28696337e-01f,
    6.05558418e-02f, -4.17293906e-02f, 7.31156245e-02f, 1.00914076e-01f, -1.16994195e-02f, -1.29344672e-01f, 7.28146508e-02f, -1.10108957e-01f,
    1.18404724e-01f, 7.42040128e-02f, 7.01764971e-02f, 4.91141006e-02f, 2.48213917e-01f, -2.54977401e-02f, 1.61388919e-01f, -3.36188264e-02f,
    -1.02611229e-01f, -8.47272342e-04f, -4.78663631e-02f, 8.74401629e-02f, -1.35335431e-01f, 7.54307061e-02f, -1.83038935e-02f, -2.36707732e-01f,
    -9.76830199e-02f, -1.19148204e-02f, 2.92227492e-02f, 2.06749383e-02f, -4.49488126e-02f, 3.33682373e-02f, 5.14911823e-02f, -6.36207089e-02f,
    -1.31883129e-01f, -4.06037867e-01f, 2.91405737e-01f, -6.02008551e-02f, -7.88960829e-02f, 1.03987366e-01f, 6.58538342e-02f, 1.62744299e-01f,
    -2.04537898e-01f, 2.67050080e-02f, 3.33488137e-02f, 4.87547703e-02f, -3.65638211e-02f, -1.18262663e-01f, -4.98501137e-02f, -6.32469952e-02f,
    -1.16003141e-01f, -7.83208013e-02f, -1.67533737e-02f, -7.49731436e-02f, 2.09183186e-01f, -1.63177565e-01f, -1.40188739e-01f, 3.62396948e-02f
};

const int features_5_squeeze_weight_shape[4] = { 32, 128, 1, 1 };
const int features_5_squeeze_weight_ndim = 4;
const size_t features_5_squeeze_weight_numel = 4096;
