#include "features_5_expand1x1_weight.h"

__attribute__((aligned(16))) const float features_5_expand1x1_weight[4096] = {
    -1.44431844e-01f, -1.61510780e-01f, -3.33384015e-02f, -1.50796399e-01f, 4.74675931e-02f, 1.90662481e-02f, -4.29918803e-03f, 9.13741160e-03f,
    -1.01541519e-01f, 7.21212849e-02f, 9.33101252e-02f, 2.54259501e-02f, -9.42551568e-02f, 1.00019239e-01f, -2.41779145e-02f, 3.19495499e-02f,
    -1.37622319e-02f, -5.26883863e-02f, -6.52784482e-02f, 3.11213255e-01f, 8.24138746e-02f, -2.28704717e-02f, 2.43760884e-01f, 1.61656346e-02f,
    -1.03730828e-01f, 2.86576245e-02f, -8.49939659e-02f, -2.08396968e-02f, 1.61388934e-01f, 1.02406656e-02f, 5.18456288e-02f, 7.53400549e-02f,
    -2.93520689e-02f, 7.99683109e-02f, -3.74131873e-02f, 2.98022032e-02f, -3.09278667e-02f, 3.41896527e-02f, -2.06410542e-01f, -7.20836073e-02f,
    3.49118002e-02f, 2.21031070e-01f, 9.56292525e-02f, 9.87465680e-02f, 2.58311592e-02f, 1.49802104e-01f, -6.09126128e-02f, -3.35921571e-02f,
    -1.78832144e-01f, 9.48934928e-02f, 8.25436041e-02f, 1.67733673e-02f, 1.92074403e-01f, 7.52379671e-02f, -8.66639987e-03f, 3.31490040e-02f,
    -1.93476677e-02f, -2.04088986e-01f, -7.03741089e-02f, -1.38428481e-02f, -2.38124970e-02f, -1.41438723e-01f, 3.22623141e-02f, -1.06434442e-01f,
    -1.45467063e-02f, -3.19016428e-04f, -2.90678233e-01f, -1.36275038e-01f, 1.80737339e-02f, 7.21925125e-02f, 8.06069449e-02f, 1.30049884e-01f,
    -6.24320656e-02f, -3.95647474e-02f, 2.01556133e-03f, -1.11876942e-01f, 3.14031184e-01f, -6.57393187e-02f, -9.63787436e-02f, -1.77178904e-01f,
    -3.66559215e-02f, 2.10644789e-02f, -4.60781753e-02f, -1.28619503e-02f, -4.16754670e-02f, -6.42182864e-03f, 1.10881351e-01f, -5.20236380e-02f,
    4.34983447e-02f, -4.66829352e-02f, -1.48434183e-02f, -2.23328192e-02f, -1.88321263e-01f, 5.37946634e-02f, -3.45463604e-02f, -2.60153436e-03f,
    -1.79520249e-02f, 5.76084815e-02f, -5.47213368e-02f, -1.05263188e-01f, -7.95327593e-03f, -3.23541351e-02f, 1.07430689e-01f, 1.57226831e-01f,
    -1.88851319e-02f, 8.07292834e-02f, 4.95785512e-02f, 1.46147490e-01f, -3.86498347e-02f, -7.02978149e-02f, -4.86773364e-02f, -1.17067464e-01f,
    1.85333751e-02f, 7.38929436e-02f, 1.86990052e-02f, -3.48660499e-02f, -3.36420350e-02f, -6.04372174e-02f, -9.41557661e-02f, -5.20412885e-02f,
    -1.45035917e-02f, -9.26491991e-02f, -5.43837287e-02f, -1.05236590e-01f, 3.32836092e-01f, 2.58434308e-03f, 4.83579785e-02f, 1.26121804e-01f,
    1.56790435e-01f, -1.55708352e-02f, -2.86447573e-02f, 1.28908530e-01f, -8.75284076e-02f, -4.48505208e-02f, -5.89749999e-02f, -7.78888464e-02f,
    1.98100597e-01f, 4.39462587e-02f, -8.90161768e-02f, -1.18202521e-02f, -7.25824833e-02f, -3.39437742e-03f, -1.01086497e-01f, -1.16200775e-01f,
    1.54243140e-02f, 7.87630677e-03f, -5.34543246e-02f, -1.23139799e-01f, 5.65533638e-02f, -1.62601955e-02f, -7.44962767e-02f, -1.74831264e-02f,
    -2.16175485e-02f, 5.35649620e-03f, 3.41267735e-02f, 1.43552661e-01f, -1.29898295e-01f, -4.52308096e-02f, -1.17528383e-02f, -9.71087888e-02f,
    -3.04092430e-02f, -5.02568483e-03f, 1.30380332e-01f, -1.43207818e-01f, -1.07854240e-01f, -3.14230286e-02f, -4.80463021e-02f, -3.29053067e-02f,
    -1.85811948e-02f, -1.05128109e-01f, -3.49521730e-03f, -1.94809586e-01f, -9.29722637e-02f, 1.69847310e-01f, 2.51492471e-01f, -1.72317147e-01f,
    -2.75399853e-02f, 1.31564550e-02f, 2.70670024e-03f, -4.17175144e-02f, -5.19239902e-03f, -2.45110411e-02f, 7.87834972e-02f, 3.17708105e-01f,
    -1.03961170e-01f, -1.44009277e-01f, 1.22249443e-02f, -1.53432386e-02f, 7.09096342e-02f, -5.30020110e-02f, 3.22061591e-02f, -3.03336047e-02f,
    1.79275677e-01f, 2.34620553e-02f, 7.95049518e-02f, -1.19608641e-01f, 9.09108147e-02f, 7.79702968e-04f, -5.33103123e-02f, -8.62000585e-02f,
    1.85308889e-01f, -4.01088372e-02f, -1.47391092e-02f, 6.54864088e-02f, -3.26061174e-02f, 5.20581147e-04f, -1.31030604e-01f, 9.59408060e-02f,
    -1.06560804e-01f, 9.22469422e-03f, 6.83591410e-04f, -1.33822575e-01f, -3.44058834e-02f, 7.96954855e-02f, 2.50561684e-01f, -4.52419072e-02f,
    -4.80681397e-02f, -1.30186081e-01f, 4.07996736e-02f, 2.26210076e-02f, -9.01837200e-02f, -3.75863165e-02f, -1.19277313e-02f, -6.97063804e-02f,
    -2.04464886e-02f, 2.10956112e-02f, -7.01506564e-04f, -4.44542291e-03f, 2.11204607e-02f, 9.49212722e-03f, -4.19508144e-02f, 4.98708636e-02f,
    3.99319828e-02f, 2.04247646e-02f, 1.18814796e-01f, 1.53270829e-03f, 5.86235477e-03f, 5.75664565e-02f, -4.58749011e-02f, 8.35346337e-03f,
    2.17817500e-02f, 4.15560231e-03f, 3.01449350e-03f, 5.49728386e-02f, 1.91732123e-02f, -2.10877927e-03f, -2.87032370e-02f, -2.05790084e-02f,
    2.71594431e-02f, -8.61430690e-02f, 1.90747972e-03f, -2.03490779e-02f, -3.42130549e-02f, -2.81384420e-02f, 3.07979863e-02f, 5.61641064e-03f,
    -8.71749893e-02f, 9.33291204e-03f, -8.79275203e-02f, -1.16527408e-01f, 9.15528163e-02f, -5.37205338e-02f, -1.88644938e-02f, -6.47499934e-02f,
    -1.28119200e-01f, 1.40548036e-01f, -2.84859259e-02f, 2.12872311e-01f, -4.21295092e-02f, 1.51870083e-02f, -1.86820086e-02f, -1.43127978e-01f,
    9.22037065e-02f, -4.13293354e-02f, 5.20702749e-02f, 2.75561493e-03f, -9.29923356e-03f, -8.20616856e-02f, 9.15781185e-02f, -1.13671735e-01f,
    -1.55010750e-03f, 5.00023812e-02f, -7.64999241e-02f, -1.20571777e-02f, 2.53131360e-01f, -8.46544206e-02f, 1.97395831e-02f, -1.24314018e-01f,
    -2.11579297e-02f, -3.25322710e-02f, -4.99740280e-02f, 6.64424151e-02f, 1.15370483e-03f, -1.45590872e-01f, -3.17521989e-02f, 3.79104912e-02f,
    -2.72441236e-03f, -1.99760683e-02f, -2.44364012e-02f, -7.07256654e-03f, -8.47878307e-02f, 9.94683951e-02f, -9.99327470e-03f, -5.19389883e-02f,
    -2.16634721e-02f, 1.24183055e-02f, 2.56335121e-02f, -1.39648812e-02f, 6.56009838e-02f, 2.78553311e-02f, -4.53243554e-02f, -1.09628193e-01f,
    2.97166575e-02f, 2.44004326e-03f, 3.96789387e-02f, -5.47514558e-02f, -1.95856690e-02f, 2.35597305e-02f, 2.96467781e-01f, -1.09511815e-01f,
    1.24364011e-02f, 6.44491971e-01f, 6.99998066e-02f, 1.15879334e-03f, 2.90581472e-02f, -2.66792346e-03f, 3.46221700e-02f, 8.73114765e-02f,
    -2.18101218e-02f, -1.02947848e-02f, -1.55019417e-01f, 5.18153869e-02f, -6.04372025e-02f, 8.35644901e-02f, 2.49486566e-02f, 1.53314853e-02f,
    1.12664379e-01f, 8.33569467e-02f, -9.32686925e-02f, -2.31097609e-01f, -5.27414086e-04f, -3.15648466e-02f, 8.24239030e-02f, -3.19912098e-02f,
    2.83483285e-02f, -6.51376322e-02f, -8.86159309e-04f, 2.40891874e-02f, 1.75057352e-02f, -7.96709582e-03f, 1.49722192e-02f, 4.00505848e-02f,
    -1.81798469e-02f, -1.35290042e-01f, 1.66677058e-01f, -5.79878800e-02f, 2.89299479e-03f, 1.52298793e-01f, 5.90009801e-02f, -1.03424668e-01f,
    -9.73580182e-02f, -1.07951863e-02f, -9.24470648e-02f, 1.54816061e-01f, -2.41624162e-01f, 2.01594561e-01f, -3.27618234e-02f, 3.15434523e-02f,
    -8.12227502e-02f, -7.71019310e-02f, 2.33824644e-02f, -2.98652530e-01f, 4.25108522e-02f, 1.86827237e-04f, 8.66440758e-02f, -2.23607346e-02f,
    9.45118740e-02f, -5.63512444e-02f, -8.33432656e-03f, 4.34853174e-02f, -1.24590974e-02f, -1.90439094e-02f, 3.55268382e-02f, 1.01008989e-01f,
    -1.74616247e-01f, 7.16423690e-02f, 1.69672266e-01f, -6.43089488e-02f, 5.21342680e-02f, -4.07110676e-02f, 7.54367858e-02f, 6.16227984e-02f,
    -1.08749814e-01f, 4.93659154e-02f, -5.50726019e-02f, 8.30167755e-02f, -7.33544156e-02f, 7.20824450e-02f, -1.85008407e-01f, -6.09124489e-02f,
    -1.12748675e-01f, 8.26443732e-02f, -4.71363366e-02f, 5.47814548e-01f, 4.36352566e-02f, -1.00112192e-01f, 2.83990294e-01f, -9.29311812e-02f,
    -7.74970278e-02f, -1.40552357e-01f, -6.19490407e-02f, 2.49148495e-02f, 5.19260727e-02f, 1.53950276e-02f, 2.85783634e-02f, 1.23634733e-01f,
    -2.53914408e-02f, 3.88624743e-02f, 8.75530317e-02f, -5.12543507e-02f, -8.20649229e-03f, 2.19165329e-02f, 1.27454260e-02f, 8.20086598e-02f,
    -9.77523625e-02f, 3.72376554e-02f, 1.40867364e-02f, 9.54240635e-02f, -1.00381218e-01f, -2.08111908e-02f, -5.63568762e-03f, 2.45811325e-02f,
    5.93328150e-03f, -1.39334112e-01f, 5.26248038e-01f, -2.62100041e-01f, 1.75505765e-02f, -3.44221517e-02f, 7.79676363e-02f, 2.27898569e-03f,
    9.49174922e-04f, -2.22609956e-02f, -3.01605109e-02f, 3.25590745e-02f, -6.41559735e-02f, -5.34765460e-02f, -3.96207254e-03f, 3.71762179e-02f,
    3.79828423e-01f, 8.73042196e-02f, -1.25042098e-02f, -5.57790063e-02f, -4.87367846e-02f, -9.12680030e-02f, -3.41774002e-02f, -1.10799946e-01f,
    3.98482159e-02f, 4.31840820e-03f, -8.17933381e-02f, 1.27228066e-01f, -1.60383284e-01f, 4.11951058e-02f, -8.58268738e-02f, -1.64161753e-02f,
    1.07741751e-01f, 3.18659358e-02f, -4.33408618e-02f, -8.14298615e-02f, -1.64356120e-02f, -9.31208022e-03f, 6.57706186e-02f, 3.50030027e-02f,
    -1.93903055e-02f, -8.32363367e-02f, 2.27622669e-02f, 7.47995600e-02f, -4.25673686e-02f, -1.44958934e-02f, -1.97651740e-02f, 3.51935215e-02f,
    -2.48924885e-02f, -1.26443170e-02f, -5.84992766e-02f, -2.96875611e-02f, 4.36145335e-01f, -1.16693396e-02f, 1.01350963e-01f, -6.17905892e-02f,
    3.75824794e-02f, 8.83563329e-03f, 5.45638949e-02f, 7.97371864e-02f, -1.05946764e-01f, -3.75831537e-02f, -2.23980863e-02f, 2.18796786e-02f,
    9.70544592e-02f, 3.18345055e-02f, -3.92669328e-02f, -3.92159112e-02f, -1.19146211e-02f, -4.94923443e-02f, 1.22765629e-02f, -9.58197638e-02f,
    -7.94789493e-02f, -6.35344163e-02f, -1.42249152e-01f, 1.81920007e-02f, -1.09377302e-01f, 8.34326968e-02f, -1.17324017e-01f, -7.66568184e-02f,
    9.24459845e-02f, -6.87158480e-02f, -1.98686533e-02f, -1.28683910e-01f, 2.16741357e-02f, -1.06545813e-01f, 2.54784316e-01f, 1.42641678e-01f,
    -7.36399740e-02f, 1.72882497e-01f, 4.67429962e-03f, 1.17340060e-02f, -4.85714972e-02f, 5.08511066e-02f, -1.54261932e-01f, -5.75281214e-03f,
    3.93308811e-02f, -4.90470752e-02f, 2.06506699e-02f, 2.27421019e-02f, 8.00784677e-02f, -7.88707659e-02f, -1.07462076e-03f, 2.32336581e-01f,
    -9.24770907e-02f, -1.82354763e-01f, -1.79846376e-01f, -9.00616497e-02f, 1.26636341e-01f, 2.19139084e-01f, -3.88479978e-02f, 3.52819748e-02f,
    -1.34169972e-02f, 2.32057888e-02f, 1.97877690e-01f, -6.13522157e-02f, -1.19308777e-01f, 8.17146525e-02f, -1.38184249e-01f, -7.67088160e-02f,
    -4.59978729e-02f, -5.49664199e-02f, -5.34478948e-02f, 7.40792826e-02f, -1.32410705e-01f, -1.51032489e-03f, -1.25959329e-02f, -7.57202879e-02f,
    -2.10530572e-02f, 2.50479598e-02f, -3.01441438e-02f, -1.03460714e-01f, -3.66717055e-02f, 1.45558462e-01f, 3.50128412e-02f, 4.82773408e-02f,
    -7.64926374e-02f, -1.22662559e-01f, -1.18685134e-01f, -4.03187564e-03f, -8.05405714e-03f, -1.33304283e-01f, 1.92149617e-02f, 2.19119757e-01f,
    -3.00721563e-02f, -4.34324611e-03f, 2.21873760e-01f, -6.86811432e-02f, -1.44999355e-01f, -8.76583382e-02f, -6.81628585e-02f, -6.89587276e-03f,
    -8.44399557e-02f, -1.09513134e-01f, 9.08633396e-02f, -1.46382555e-01f, -8.68011564e-02f, 2.79647615e-02f, 6.47045523e-02f, -1.04795292e-01f,
    -5.24709672e-02f, 2.45120451e-02f, 2.99469046e-02f, -8.66688509e-03f, 8.02906677e-02f, -1.49042411e-02f, 2.36270223e-02f, 9.88764092e-02f,
    -1.05672427e-01f, -8.44618976e-02f, 1.53192565e-01f, 3.33571918e-02f, 2.32076019e-01f, -4.02866937e-02f, 2.10945401e-02f, 1.36039767e-03f,
    7.60414675e-02f, 2.74768740e-01f, 8.78606066e-02f, -6.11195192e-02f, -1.35056544e-02f, -3.64793725e-02f, 6.74677789e-02f, 3.73302959e-02f,
    5.43271489e-02f, 2.01889593e-02f, -1.11208722e-01f, 1.79534219e-02f, 5.92405908e-04f, -1.06715031e-01f, -5.31232394e-02f, 7.46599399e-03f,
    -1.61579810e-02f, 2.29089439e-01f, -1.68491930e-01f, -1.79158255e-01f, 4.19979058e-02f, 2.10777260e-02f, 1.13696747e-01f, 8.78096819e-02f,
    5.29968645e-03f, -1.13409581e-02f, -3.04213376e-03f, -2.15601381e-02f, -7.48900650e-03f, -5.32136858e-02f, -4.90052737e-02f, 4.78694662e-02f,
    -1.56923071e-01f, -9.78834853e-02f, 1.62293136e-01f, -4.94587831e-02f, 8.21730942e-02f, 1.16844639e-01f, 2.51245238e-02f, 1.71295062e-01f,
    -1.12253442e-01f, -6.65942356e-02f, -1.03314467e-01f, -1.15057640e-02f, -8.43088031e-02f, -2.83533242e-02f, -1.16465755e-01f, -4.78081405e-02f,
    -2.17108745e-02f, -1.20302580e-01f, 2.62400825e-02f, 1.99690834e-01f, -1.72280204e-02f, -4.40488346e-02f, 1.67488307e-01f, 9.37316567e-03f,
    -2.33008526e-02f, -8.24436471e-02f, 4.94090188e-03f, -6.22631097e-03f, 1.46220475e-01f, 5.66096827e-02f, 8.17183778e-02f, 6.06587641e-02f,
    -1.14922725e-01f, 4.01092134e-02f, 1.50992975e-01f, -7.12886080e-03f, 7.03973472e-02f, -6.15065321e-02f, 1.70193806e-01f, -2.43255958e-01f,
    -1.00308575e-01f, -5.36786504e-02f, -2.16658842e-02f, 1.15177669e-01f, -1.45022616e-01f, 2.79289186e-01f, 2.41210088e-02f, -1.53530054e-02f,
    -1.31969780e-01f, 1.50772966e-02f, 1.83064863e-02f, -1.06691413e-01f, 5.90703338e-02f, -6.44731373e-02f, 4.90776710e-02f, -1.62825473e-02f,
    2.18955457e-01f, -9.61064845e-02f, -5.14684059e-02f, 9.18988418e-03f, 1.12744704e-01f, 1.46625221e-01f, -8.44016224e-02f, 8.38287473e-02f,
    4.53095362e-02f, 7.21808597e-02f, 7.31083304e-02f, -6.41258582e-02f, 1.07051231e-01f, -2.23944426e-01f, 1.68765849e-03f, 1.90764204e-01f,
    3.13177146e-02f, 4.31146510e-02f, -6.93937838e-02f, -5.64459804e-03f, 2.71660835e-01f, -1.49680406e-01f, -8.98009688e-02f, -2.14014649e-02f,
    -8.21215361e-02f, 2.30640635e-01f, 5.02335876e-02f, 4.69407849e-02f, 2.01367680e-02f, -3.39201349e-03f, 1.54658139e-01f, -5.93549050e-02f,
    -4.56948169e-02f, -8.09330121e-02f, 9.00704116e-02f, -8.64119902e-02f, -1.93446930e-02f, 5.73722124e-02f, -2.19984189e-01f, -3.46187651e-02f,
    8.87552649e-02f, -1.19814925e-01f, 2.65968025e-01f, 9.73418914e-03f, 3.73490993e-03f, 1.67242475e-02f, 1.32409139e-02f, -1.93227261e-01f,
    6.32043332e-02f, -1.17635235e-01f, 7.63417706e-02f, 3.18246409e-02f, -1.48540169e-01f, -6.16504811e-03f, -1.00386314e-01f, 7.51583930e-03f,
    2.57129014e-01f, 4.92846593e-02f, 5.74508943e-02f, -3.33664194e-02f, -7.51083493e-02f, -2.26377212e-02f, -1.67727787e-02f, -6.49683326e-02f,
    1.71554923e-01f, -1.57668397e-01f, 5.82618900e-02f, 4.47333530e-02f, -2.92024370e-02f, 4.09128740e-02f, -6.81994483e-02f, -7.64831062e-03f,
    -1.01245455e-01f, -3.02364794e-03f, 4.19945382e-02f, -1.26384720e-01f, 1.21270634e-01f, 1.78320900e-01f, -6.91697896e-02f, 1.27917886e-01f,
    -3.28591838e-02f, -3.70922871e-03f, 2.04533506e-02f, -2.30958555e-02f, 1.73443601e-01f, -7.45770112e-02f, -3.87958661e-02f, -7.92278051e-02f,
    -9.79499072e-02f, 8.83470476e-02f, 1.44844260e-02f, 5.88835776e-02f, 1.53776398e-02f, -9.02870484e-03f, 4.75384481e-02f, -1.16937242e-01f,
    5.14393039e-02f, -8.52467120e-02f, -9.42159258e-03f, -8.41630623e-02f, -8.03635344e-02f, -5.82976602e-02f, 2.16052473e-01f, -4.66477014e-02f,
    9.03537904e-04f, -1.33543506e-01f, 3.10175102e-02f, 3.47153563e-03f, 3.19934338e-02f, 6.77445903e-03f, 1.49907370e-03f, -1.99523959e-02f,
    -5.31147309e-02f, 2.45904718e-02f, 3.35018873e-01f, 3.25677544e-02f, -9.20366049e-02f, 1.22721463e-01f, 3.09187695e-02f, 2.00502742e-02f,
    7.23774359e-02f, -8.11456591e-02f, -1.21001489e-01f, -1.64167807e-01f, 3.08703016e-02f, 2.42117699e-02f, 6.10645749e-02f, -3.72332218e-03f,
    1.00704632e-03f, -1.48751931e-02f, 7.72469630e-03f, 6.82231560e-02f, 2.42280662e-02f, 1.32118864e-02f, 3.35087515e-02f, 7.68882409e-02f,
    5.25859445e-02f, 3.10383774e-02f, 6.91154674e-02f, 9.25533101e-03f, 1.86029151e-01f, -1.72962025e-01f, -5.47822714e-02f, 3.12844552e-02f,
    -9.60610062e-02f, -7.20558017e-02f, -1.65574700e-01f, 8.18569437e-02f, 2.40647307e-04f, -2.22492844e-01f, 2.89739490e-01f, 2.59156346e-01f,
    -1.20309843e-02f, -9.44449753e-02f, -8.44557807e-02f, -5.67634776e-02f, -1.10369407e-01f, -4.71504927e-02f, 9.55720097e-02f, 5.02450466e-02f,
    -8.71892795e-02f, -1.01097099e-01f, -6.61352947e-02f, -1.86872512e-01f, 2.76094705e-01f, -8.18453804e-02f, -9.75876153e-02f, -9.00915936e-02f,
    3.70186716e-02f, 5.60968854e-02f, 2.10951149e-01f, 2.84643412e-01f, 1.10074803e-02f, -1.49470702e-01f, -3.81161347e-02f, -1.24510765e-01f,
    4.12419401e-02f, -5.44968545e-02f, 1.20310545e-01f, 1.06004372e-01f, -1.46047458e-01f, 2.51201808e-01f, 1.15653034e-02f, -8.58982354e-02f,
    -1.28215373e-01f, 2.43731332e-03f, 8.63883793e-02f, -7.12854462e-03f, 3.25420797e-02f, 1.32959662e-02f, -6.55685961e-02f, -1.17829576e-01f,
    -2.83008441e-02f, -2.26281881e-01f, 1.70545548e-01f, 1.83468729e-01f, 1.70471985e-02f, 1.60931908e-02f, -6.31843284e-02f, 8.02697334e-03f,
    -8.62727016e-02f, 4.49206531e-01f, 8.50987583e-02f, 2.35073082e-02f, 5.11183403e-02f, 4.68389578e-02f, -1.57265831e-02f, 3.37593742e-02f,
    -5.37023954e-02f, -4.79791947e-02f, -3.46428961e-01f, -1.13854771e-02f, -4.17468548e-02f, -5.48376888e-02f, 2.41740067e-02f, 6.70183823e-02f,
    2.10226938e-01f, -2.16911465e-01f, 3.65684718e-01f, -1.15385719e-01f, 1.31161865e-02f, -3.44055239e-04f, 1.06962938e-02f, 1.18221864e-02f,
    3.57766432e-04f, -1.02728553e-01f, 3.01553644e-02f, -2.92409938e-02f, 7.56697403e-03f, 5.22479881e-03f, 2.08414607e-02f, -1.83708258e-02f,
    8.31340719e-03f, 1.91955209e-01f, 1.32804006e-01f, -7.62263164e-02f, 8.21673274e-02f, -5.83420284e-02f, -1.74753256e-02f, -6.32682769e-03f,
    -6.55978024e-02f, 1.19936224e-02f, -1.31994709e-01f, 6.37294129e-02f, -3.04265749e-02f, -4.52534817e-02f, 1.45456241e-03f, 4.65793088e-02f,
    3.62484865e-02f, -6.21136394e-04f, -2.28417695e-01f, -8.46710280e-02f, -5.83652407e-02f, -6.05946667e-02f, 1.18657805e-01f, -9.91637036e-02f,
    1.36000603e-01f, -1.31837726e-02f, 9.59863588e-02f, 7.22316653e-02f, 2.67769545e-02f, -1.26445545e-02f, 4.93209064e-02f, -5.81273204e-03f,
    -2.77050138e-02f, 1.47461668e-02f, -5.58108352e-02f, -9.16130692e-02f, -2.50780117e-02f, -2.77016275e-02f, -2.54842162e-01f, -3.42864096e-02f,
    -7.93979689e-02f, -4.95286845e-02f, 1.18154220e-01f, 1.05625615e-02f, -1.40055880e-01f, 1.55895829e-01f, -4.31371070e-02f, -1.39269620e-01f,
    -3.29125561e-02f, 3.63465659e-02f, 4.33237813e-02f, -1.91671267e-01f, -2.45821178e-02f, -1.73025265e-01f, 9.90461707e-02f, -1.73873845e-02f,
    1.40072167e-01f, -9.67908204e-02f, 3.15469772e-01f, -6.08424582e-02f, 2.28614107e-01f, -1.03974253e-01f, -2.63417475e-02f, -1.03323326e-01f,
    2.01187029e-01f, -1.83478922e-01f, 8.02457798e-03f, -1.11687817e-01f, 5.89789785e-02f, -9.11040325e-03f, 6.29582629e-02f, -2.67184265e-02f,
    1.25082701e-01f, 1.95071530e-02f, -4.10333127e-02f, 3.63080017e-02f, 1.90954968e-01f, -5.34000807e-02f, 1.07421763e-02f, 4.64158468e-02f,
    1.27591500e-02f, -1.71851084e-01f, 6.08793683e-02f, -2.11052716e-01f, 8.64906143e-03f, 1.60150990e-01f, 1.59873307e-01f, 2.12811176e-02f,
    -5.50561324e-02f, -1.52953956e-02f, 3.73795293e-02f, -4.57875207e-02f, 1.54983476e-01f, 5.22213103e-03f, 6.51701689e-02f, 6.64935261e-02f,
    -2.17346862e-01f, 2.66317315e-02f, -1.61315445e-02f, 1.46098556e-02f, 2.51727756e-02f, -6.63587153e-02f, 1.99117884e-02f, -7.72455931e-02f,
    -1.54317230e-01f, -2.68301517e-02f, 9.22359303e-02f, -8.13353211e-02f, -8.21011961e-02f, 6.66991323e-02f, 3.89991961e-02f, 8.80199745e-02f,
    2.53557354e-01f, -1.77950915e-02f, -9.47390720e-02f, 3.56225252e-01f, 5.14895190e-03f, -4.02258411e-02f, -6.39781058e-02f, 4.19615395e-02f,
    -1.42055899e-01f, 6.41682819e-02f, -1.52126387e-01f, 8.41541514e-02f, 2.74134930e-02f, 1.08051365e-02f, -4.99342866e-02f, 7.56570548e-02f,
    3.40764713e-03f, -9.43432674e-02f, -6.57294691e-02f, 3.54977578e-01f, 1.38183506e-02f, -1.90223474e-02f, -4.16687615e-02f, -7.66252913e-03f,
    7.60673657e-02f, -3.75367254e-02f, -8.34659562e-02f, -7.80862477e-03f, -7.39630908e-02f, 2.15883348e-02f, 2.15478703e-01f, 1.93822563e-01f,
    1.50305957e-01f, -6.80092052e-02f, -4.52852249e-02f, -7.38450065e-02f, -8.04769397e-02f, -1.24780133e-01f, -1.73502132e-01f, 1.08998895e-01f,
    -8.00753310e-02f, 8.11869651e-02f, -1.33480672e-02f, 2.42052332e-01f, -7.12152617e-03f, -2.91288756e-02f, -1.19796619e-02f, -7.89163075e-03f,
    1.98587198e-02f, 1.53153986e-01f, 6.05962314e-02f, -3.13278809e-02f, -6.54230937e-02f, -6.26633018e-02f, -4.52569537e-02f, -3.57711427e-02f,
    -3.67416777e-02f, -2.06898805e-02f, -1.02372080e-01f, -8.92381091e-03f, 1.06968284e-01f, -1.27882913e-01f, -3.79795991e-02f, -6.79165870e-02f,
    -2.70917565e-02f, 2.87659317e-01f, 2.11194634e-01f, -9.55661684e-02f, -3.52618918e-02f, -1.19084353e-03f, 1.44025702e-02f, -3.11406180e-02f,
    -7.11686502e-04f, -5.54356836e-02f, 1.20110950e-02f, -5.39494380e-02f, 1.19472379e-02f, -3.86989117e-02f, -6.59884810e-02f, 4.45522927e-02f,
    9.85655412e-02f, 1.32433116e-01f, -3.66347693e-02f, 5.15427887e-02f, -1.75756216e-02f, -9.34932381e-02f, 3.62762958e-02f, -1.14039801e-01f,
    -8.86646733e-02f, 1.59514785e-01f, 1.48605062e-02f, 1.95173174e-02f, -3.86821143e-02f, 1.78945720e-01f, -9.41897631e-02f, -3.61823849e-02f,
    7.09059462e-02f, 5.09621911e-02f, -8.02369509e-03f, -1.76040623e-02f, 1.01828724e-02f, 2.40616240e-02f, 2.84664519e-02f, 2.85595767e-02f,
    -9.58934575e-02f, -1.47086337e-01f, -6.70714006e-02f, -1.18784616e-02f, -2.93587171e-03f, 7.80721381e-02f, -8.12899098e-02f, 3.90558839e-02f,
    -2.17174608e-02f, 4.44637798e-02f, -3.56574394e-02f, -2.00729311e-01f, -2.05066785e-01f, 5.13350517e-02f, -1.13528920e-02f, 4.61445041e-02f,
    8.17089006e-02f, -2.18300000e-01f, 5.98044042e-03f, -2.08123282e-01f, -7.66428933e-02f, 2.22671941e-01f, 7.50040933e-02f, 1.27682969e-01f,
    -1.48177296e-01f, 2.78209373e-02f, 4.88058366e-02f, 1.90733410e-02f, 1.50456596e-02f, 1.53412640e-01f, 2.11070657e-01f, 2.26322934e-01f,
    -8.06734189e-02f, -3.03908810e-02f, -4.83835042e-02f, 5.63009828e-02f, -1.13881849e-01f, 7.21879005e-02f, -1.13687433e-01f, -8.67711678e-02f,
    4.58768308e-02f, 7.76044801e-02f, 5.38848378e-02f, 6.67407513e-02f, -1.08602978e-02f, -1.47071272e-01f, -7.83337001e-03f, -1.84245948e-02f,
    2.30804347e-02f, -5.72513044e-02f, 2.83870786e-01f, -7.18671456e-02f, 1.16423905e-01f, -1.24662787e-01f, 4.75266166e-02f, -9.97670367e-03f,
    2.84743793e-02f, 1.95825204e-01f, 2.45046258e-01f, 1.53611107e-02f, -7.64251221e-03f, -3.25244525e-03f, -3.32614817e-02f, -7.37092271e-02f,
    2.36568470e-02f, -7.68810734e-02f, 8.19521323e-02f, -8.21906403e-02f, -9.83206555e-03f, 5.93500473e-02f, -1.08070962e-01f, -8.78035203e-02f,
    -6.93501681e-02f, 4.16001193e-02f, -5.87998405e-02f, 6.38947636e-02f, 2.91876167e-01f, -1.07718833e-01f, 3.14728133e-02f, -3.96172376e-03f,
    -9.70582739e-02f, 1.17718600e-01f, -4.94592711e-02f, 3.46199334e-01f, -5.96433766e-02f, -8.51373225e-02f, -9.01347697e-02f, -1.29896134e-01f,
    1.20830044e-01f, -2.54859240e-03f, -3.08930669e-02f, -3.15394904e-03f, -5.74319065e-02f, -1.15050390e-01f, -6.57332316e-02f, -2.29839057e-01f,
    -8.26286972e-02f, 1.15861304e-01f, -3.61025729e-03f, 2.10760478e-02f, -3.37020978e-02f, -4.40672152e-02f, -4.59703766e-02f, 1.46769047e-01f,
    -3.10436785e-02f, 1.49238482e-01f, 4.83403504e-02f, -1.22883670e-01f, 2.60730796e-02f, -6.34500161e-02f, 1.52907163e-01f, -4.71873283e-02f,
    -7.89275244e-02f, -9.00761187e-02f, -1.87241822e-01f, -3.82131673e-02f, -6.47384301e-02f, -7.76020661e-02f, 1.86933726e-01f, -5.15929013e-02f,
    1.82717711e-01f, -7.06462935e-02f, 1.01292506e-01f, -7.95476958e-02f, -4.74039465e-02f, -1.90793071e-02f, 1.78367525e-01f, -7.56910741e-02f,
    -6.86319871e-03f, 3.77121642e-02f, 2.87094265e-02f, -1.39800301e-02f, 1.18254103e-01f, 8.32857192e-02f, -2.75708679e-02f, 1.53509185e-01f,
    -5.22639118e-02f, -7.65526444e-02f, 3.55346724e-02f, 2.41230838e-02f, -1.17444908e-02f, 5.21001853e-02f, 1.30259721e-02f, -6.10478632e-02f,
    4.32411917e-02f, -7.84066170e-02f, 1.43126519e-02f, 8.79502147e-02f, 2.92653814e-02f, 4.68805358e-02f, -6.31375834e-02f, 4.01867703e-02f,
    7.31854066e-02f, -1.76909268e-02f, -5.14768623e-03f, -1.97758358e-02f, 2.70049304e-01f, -3.65641341e-02f, 5.60511508e-05f, 7.77896307e-03f,
    -4.35812622e-02f, -9.29934159e-02f, 9.00387764e-03f, 3.66766122e-03f, 3.90344411e-02f, -6.19223118e-02f, 2.96095610e-02f, -2.06713695e-02f,
    -1.30807692e-02f, -1.11318668e-02f, 3.89766581e-02f, -2.27752160e-02f, 7.09394813e-02f, -8.83395597e-02f, 2.64744405e-02f, -8.99398178e-02f,
    -1.41700394e-02f, -4.04360443e-02f, -4.19374183e-02f, 1.25223503e-01f, -1.03919238e-01f, -1.02153411e-02f, 7.20236003e-01f, -6.05815835e-02f,
    2.90843425e-03f, -8.16697907e-03f, -3.22746374e-02f, -7.21239969e-02f, -1.09935347e-02f, -4.14370485e-02f, 5.71768917e-02f, -6.35135099e-02f,
    2.24215258e-02f, -6.32858425e-02f, 1.65132098e-02f, -3.43427509e-02f, 1.34849593e-01f, -2.10439158e-03f, -5.22351116e-02f, 7.41056427e-02f,
    8.66110250e-02f, 7.43548498e-02f, 2.33549967e-01f, 1.18389405e-01f, 7.36303777e-02f, -1.04209095e-01f, 9.35087726e-02f, -1.78517208e-01f,
    4.63834964e-02f, -3.58115993e-02f, 3.58979441e-02f, 1.69026345e-01f, -1.31391004e-01f, 1.88827232e-01f, 2.33326033e-02f, 5.26948683e-02f,
    -1.01898246e-01f, 4.45815474e-02f, 8.62330256e-04f, -3.79776619e-02f, -1.74105503e-02f, -6.28854707e-02f, -7.87104294e-02f, -2.11812910e-02f,
    6.89756721e-02f, -2.27446437e-01f, 9.22430679e-02f, 1.29600689e-01f, -8.65560472e-02f, 1.10833190e-01f, -1.12570263e-01f, 3.11436839e-02f,
    1.13385431e-01f, 1.39913792e-02f, 1.31435037e-01f, -1.40033737e-01f, -1.80387229e-01f, 2.83461139e-02f, 5.69854677e-02f, 1.04593799e-01f,
    -5.77758215e-02f, -1.47024542e-01f, 1.40324497e-04f, -2.00655594e-01f, -1.14491343e-01f, 2.50097495e-02f, 1.95242971e-01f, -2.19981298e-01f,
    -5.87579571e-02f, 9.02722403e-03f, 3.57921161e-02f, 2.65886280e-04f, 6.22419156e-02f, 1.78067118e-01f, 1.31474972e-01f, 2.05683976e-01f,
    -7.15950727e-02f, -1.72925651e-01f, -1.23592466e-01f, -2.45174598e-02f, 1.22779638e-01f, 1.13697059e-01f, 3.22417207e-02f, -1.81246579e-01f,
    6.69525489e-02f, 2.90441550e-02f, 6.61635175e-02f, -1.80612728e-01f, 6.85265958e-02f, -4.35872748e-02f, -1.30189359e-01f, 6.29307982e-03f,
    -2.07200833e-02f, 1.33183440e-02f, -7.75209069e-02f, -1.02542035e-01f, -5.78609183e-02f, 8.37227851e-02f, -2.26583518e-03f, -1.35202948e-02f,
    -8.20337385e-02f, -4.70230356e-03f, -9.81603041e-02f, -1.54308632e-01f, -4.36693653e-02f, -2.32811142e-02f, 1.31410271e-01f, -5.10490127e-02f,
    1.47356605e-03f, 3.28351520e-02f, -1.92095578e-01f, -1.02476820e-01f, -9.68665928e-02f, 1.64417937e-01f, 4.14895453e-03f, 2.46279597e-01f,
    -8.49560872e-02f, 3.33087482e-02f, -4.52196822e-02f, -1.17271222e-01f, -7.20789805e-02f, -6.45833760e-02f, -1.10352198e-02f, -6.16119616e-02f,
    8.33226517e-02f, 8.21341500e-02f, -2.55942140e-02f, 8.39629620e-02f, 1.68853253e-01f, -1.47569790e-01f, -1.07602045e-01f, 6.81875506e-03f,
    5.77813350e-02f, 3.44377756e-02f, -3.59489806e-02f, -1.40069202e-01f, 5.20486310e-02f, 2.96215981e-01f, 9.44041386e-02f, 2.68772766e-02f,
    -5.75883724e-02f, 7.60942232e-04f, -5.99749498e-02f, -1.26460455e-02f, 6.57304972e-02f, -3.74873690e-02f, 1.67584717e-02f, 9.07141119e-02f,
    -1.01855353e-01f, 1.29525855e-01f, 2.07248002e-01f, -2.86162030e-02f, 5.35877831e-02f, -9.47836712e-02f, -2.10248698e-02f, 4.73999120e-02f,
    -6.34469613e-02f, -9.48672090e-03f, 3.70557532e-02f, 1.57175027e-03f, 6.49212152e-02f, -5.55469980e-03f, -6.74691424e-02f, -5.96808046e-02f,
    -3.02309636e-02f, 2.19586715e-02f, 2.23786950e-01f, 6.31994829e-02f, -6.83971075e-03f, -6.48657456e-02f, 5.08966632e-02f, -3.09856925e-02f,
    1.05045149e-02f, -1.02045730e-01f, 3.80869359e-02f, -1.28299817e-02f, 3.08192633e-02f, 4.22718227e-02f, -4.35536280e-02f, -4.65966314e-02f,
    3.89989793e-01f, 8.60622376e-02f, -3.70216519e-02f, -1.11259736e-01f, 5.68028614e-02f, 1.28253112e-02f, -6.13492914e-02f, 3.27540562e-02f,
    3.21380869e-02f, 6.41296953e-02f, 4.87896847e-03f, 2.54760999e-02f, 5.92352189e-02f, -3.38253677e-02f, -5.88635355e-03f, -6.08419366e-02f,
    -1.25384957e-01f, 5.33324890e-02f, -1.15930133e-01f, -1.93682760e-01f, 3.13720331e-02f, 1.43790841e-01f, 7.83855245e-02f, -9.63748097e-02f,
    -7.90965259e-02f, -7.38762645e-03f, 7.49408081e-02f, -3.01619526e-02f, 2.52599232e-02f, -7.16138398e-03f, 3.96241434e-02f, 2.81773899e-02f,
    -2.47568619e-02f, -1.84029683e-01f, -9.47070047e-02f, -7.65637755e-02f, 1.15704807e-02f, 3.29461582e-02f, -2.64797155e-02f, 3.58302519e-02f,
    -1.54298674e-02f, 3.65617909e-02f, 2.46592127e-02f, 8.66977647e-02f, -8.61445442e-02f, 9.31876078e-02f, 6.45860732e-02f, -4.02203910e-02f,
    5.50677888e-02f, 1.29286781e-01f, -2.13271514e-01f, 1.11622542e-01f, 4.01036516e-02f, -6.41524568e-02f, 9.27409157e-02f, -4.69571315e-02f,
    1.11227669e-01f, -1.70837261e-03f, 2.91929878e-02f, 1.60592198e-02f, 6.80035651e-02f, -7.61025175e-02f, 1.42035708e-02f, -2.48224512e-02f,
    6.91892533e-03f, -1.79809213e-01f, -5.39405681e-02f, -9.01600495e-02f, -1.25784064e-02f, -6.40576007e-03f, 2.88476884e-01f, -1.14559688e-01f,
    -3.90446931e-02f, -1.00249395e-01f, -7.22786859e-02f, 6.91150362e-03f, -6.15940541e-02f, 1.10830307e-01f, 8.22736621e-02f, -1.13515623e-01f,
    2.45403096e-01f, -1.03901595e-01f, -8.71004760e-02f, -1.02701351e-01f, -2.92597935e-02f, -9.18249507e-03f, 1.53926104e-01f, -4.20121178e-02f,
    -7.88828135e-02f, 5.11735789e-02f, 3.28196511e-02f, 1.38835594e-01f, 1.88252747e-01f, 1.93533614e-01f, 1.90436766e-02f, 2.03643262e-01f,
    8.24898258e-02f, -1.18788034e-01f, -2.15733964e-02f, -7.65264109e-02f, -4.54184450e-02f, -8.72509032e-02f, 6.57775439e-03f, -2.95522660e-02f,
    3.56658489e-01f, 6.54928386e-02f, -7.84934014e-02f, 7.46017024e-02f, -1.34765059e-01f, 3.05727730e-03f, 1.35275275e-02f, 2.32264027e-02f,
    3.95919234e-02f, -6.73759356e-02f, -8.52400623e-03f, -1.37674913e-01f, -9.26266238e-03f, -5.35959788e-02f, 7.58963227e-02f, 3.78836021e-02f,
    -6.31281734e-02f, -1.21818064e-02f, 3.73779126e-02f, 5.99749871e-02f, 2.79892031e-02f, -2.73884907e-02f, 5.66679612e-02f, 3.03737633e-02f,
    -2.81681344e-02f, 2.31784564e-02f, -5.44882379e-03f, -1.90802842e-01f, -5.89381084e-02f, -3.59445363e-02f, 1.90387979e-01f, 1.09697739e-02f,
    7.52554685e-02f, 1.94331761e-02f, -9.18638706e-03f, 5.40552363e-02f, -6.86223283e-02f, -4.54812609e-02f, 3.55454907e-02f, -3.83949354e-02f,
    2.84046698e-02f, 4.56476994e-02f, -1.06807075e-01f, -1.17050961e-01f, -9.50319916e-02f, 7.82470480e-02f, 1.55482948e-01f, 1.60828397e-01f,
    -4.85386625e-02f, 1.44215999e-02f, -6.24213070e-02f, -6.56956155e-03f, 5.44405617e-02f, -4.79846559e-02f, -4.34747040e-02f, -5.60782440e-02f,
    -7.88737163e-02f, 1.86709300e-01f, -5.77590894e-04f, -1.45263234e-02f, 1.51247885e-02f, 1.03815943e-02f, 1.42333349e-02f, -5.26904501e-02f,
    -7.07769990e-02f, -2.42430978e-02f, 4.06479746e-01f, -4.38598655e-02f, -4.59438451e-02f, 1.96420923e-02f, -4.34651505e-03f, -4.05769721e-02f,
    3.19954790e-02f, -1.72583938e-01f, 3.98445249e-01f, 9.61127412e-03f, 2.98564322e-02f, -2.00230405e-02f, 1.73145998e-02f, -3.53773572e-02f,
    -3.83794941e-02f, 1.12597495e-02f, -1.82157084e-02f, -8.62203632e-03f, 6.63368450e-03f, 7.93791190e-03f, 3.57986726e-02f, 1.95351131e-02f,
    8.56581479e-02f, 4.85567637e-02f, 6.76057488e-02f, 4.82102931e-02f, 5.70186712e-02f, -3.89393158e-02f, -6.52069375e-02f, -4.17751558e-02f,
    1.31881014e-01f, 2.52480078e-02f, -6.64332211e-02f, 7.87084475e-02f, -9.33529250e-03f, -2.53872536e-02f, -1.18166180e-02f, 6.06293790e-03f,
    1.17316067e-01f, 7.45652243e-02f, 8.96584913e-02f, -6.64368197e-02f, 1.48206174e-01f, -5.33162393e-02f, 4.87946048e-02f, -8.88058636e-03f,
    -2.79619545e-02f, -1.33718610e-01f, -1.28508704e-02f, 1.05588827e-02f, 1.88093204e-02f, -6.25748858e-02f, -4.43808325e-02f, -1.52993858e-01f,
    1.37860596e-01f, 6.93625212e-02f, 2.15725273e-01f, -2.94711511e-03f, 1.13907615e-02f, -2.84626484e-02f, 6.89927861e-02f, -1.53621927e-01f,
    3.62470224e-02f, -1.68723613e-02f, 2.68585817e-03f, 1.08018510e-01f, -1.76539913e-01f, 6.98398650e-02f, -1.28949344e-01f, -4.67506461e-02f,
    -7.32241124e-02f, 5.26251420e-02f, -1.36422254e-02f, -9.53939334e-02f, -5.72779626e-02f, 1.86121240e-02f, 2.00857539e-04f, -3.13584208e-02f,
    2.44578913e-01f, -9.72891822e-02f, 4.23675627e-02f, 3.05546783e-02f, 3.21963243e-02f, 6.86827078e-02f, -4.81198952e-02f, 3.77557687e-02f,
    -1.77083407e-02f, 2.24546865e-02f, 1.73562150e-02f, -2.02262439e-02f, 3.05362284e-01f, -3.39363366e-02f, 2.46880278e-02f, -8.67324248e-02f,
    -1.27567295e-02f, -3.28771211e-02f, -5.74614219e-02f, 6.92060515e-02f, -4.17760536e-02f, -3.00619174e-02f, -9.71012041e-02f, 3.02338719e-01f,
    1.01202533e-01f, -4.62060608e-02f, 1.99240055e-02f, 1.08921258e-02f, 2.52100197e-03f, -2.03537159e-02f, 8.15904960e-02f, -7.38682821e-02f,
    2.85296957e-03f, -6.60955384e-02f, -1.54646030e-02f, 4.65859808e-02f, -1.37219042e-01f, 2.31841002e-02f, -4.17204015e-02f, -8.42321664e-03f,
    2.49117091e-02f, -2.59151936e-01f, 3.15608233e-02f, -1.51084457e-02f, 9.22345836e-03f, 7.56182894e-02f, 5.89817064e-03f, 3.13364901e-02f,
    -1.13723772e-02f, 9.73724667e-03f, 3.55432332e-01f, 4.53079678e-02f, -1.38875663e-01f, 9.72845778e-02f, -4.06206809e-02f, 4.42067832e-02f,
    9.48652998e-02f, 3.09065521e-01f, -1.84741035e-01f, -3.48799042e-02f, 1.60377026e-02f, -7.37179304e-03f, -1.06750941e-02f, 2.78807227e-02f,
    4.27126922e-02f, -1.02601692e-01f, 2.79316655e-03f, 4.99154627e-02f, 7.95979891e-03f, -7.93301850e-04f, 2.23970916e-02f, 2.04232000e-02f,
    1.13607123e-01f, -4.93018590e-02f, -7.87922665e-02f, -1.14136904e-01f, -4.55333553e-02f, -5.58448844e-02f, 1.38304368e-01f, -1.18131250e-01f,
    -5.27211353e-02f, 9.95533988e-02f, -2.18804255e-02f, 1.07029513e-01f, -8.41925219e-02f, 1.55612200e-01f, -1.33740187e-01f, -8.14427361e-02f,
    2.05418989e-02f, -2.52526272e-02f, 6.34572981e-03f, -8.46242085e-02f, -1.01248741e-01f, 6.05871640e-02f, 1.98114425e-01f, -2.13192720e-02f,
    -1.16391450e-01f, 1.54685333e-01f, 9.27854031e-02f, 3.18384990e-02f, -3.42914909e-02f, 5.24487384e-02f, -8.37896019e-02f, 1.86566729e-02f,
    -2.66922470e-02f, -2.22069561e-01f, 3.43541466e-02f, -5.61948074e-03f, 6.26897588e-02f, -6.08932674e-02f, 2.95584481e-02f, 7.72460997e-02f,
    -6.07139915e-02f, 1.56086369e-03f, -6.20686263e-03f, 5.77605516e-02f, -1.44628510e-01f, 1.11033916e-01f, 1.23259751e-02f, 3.97069044e-02f,
    6.58239201e-02f, -1.35093749e-01f, 4.55354571e-01f, 8.23823512e-02f, 4.34506461e-02f, -8.55423510e-02f, 1.23322509e-01f, -2.90317042e-03f,
    -4.45866883e-02f, -6.58747330e-02f, 8.94644484e-03f, 7.84234405e-02f, 2.66674738e-02f, 3.77684506e-03f, 3.73909026e-02f, 9.77224261e-02f,
    -6.53956532e-02f, -1.76405326e-01f, 7.13874847e-02f, -6.84488863e-02f, 2.00298339e-01f, -7.96749145e-02f, 1.46266982e-01f, 2.18954738e-02f,
    -1.64635181e-01f, -9.77441743e-02f, -1.44610643e-01f, -2.57376917e-02f, -5.66670410e-02f, -1.99538335e-01f, 2.87823588e-01f, 1.52098536e-01f,
    -1.60670374e-02f, -1.24119826e-01f, -4.18687612e-02f, 1.47550926e-01f, -8.19142908e-02f, -1.33425314e-02f, 2.32570216e-01f, 1.04470011e-02f,
    -3.14024165e-02f, 2.41642538e-02f, 5.05119413e-02f, -1.79320171e-01f, 2.47790381e-01f, 9.71318632e-02f, -5.28876223e-02f, 1.06596030e-01f,
    5.77923022e-02f, 4.53302749e-02f, 4.46028300e-02f, -6.39080927e-02f, -8.01872239e-02f, 4.18322273e-02f, 5.39761931e-02f, -1.58467770e-01f,
    -1.22756891e-01f, -1.00379966e-01f, 1.65192597e-02f, 1.26236469e-01f, -1.45505935e-01f, 3.46097052e-01f, -6.88594133e-02f, 6.25287043e-03f,
    1.71313897e-01f, 1.08988196e-01f, -1.08150847e-01f, -5.78652844e-02f, -1.36851817e-02f, -2.58487929e-02f, 1.01623110e-01f, 2.34641023e-02f,
    9.64962840e-02f, -1.20416999e-01f, 4.35738526e-02f, 1.45130590e-01f, 6.57286942e-02f, 8.53832066e-03f, 9.41693783e-02f, 1.33993253e-01f,
    2.63701584e-02f, -8.37833434e-03f, 5.72536923e-02f, -1.22738332e-01f, -3.01705841e-02f, -3.55670452e-02f, -1.62868127e-02f, -4.87995706e-02f,
    3.37342136e-02f, -2.29313560e-02f, 4.09547705e-03f, -2.97809020e-02f, -8.11512992e-02f, 6.03262745e-02f, -3.01993322e-02f, 4.89197701e-01f,
    5.34355752e-02f, 1.33413570e-02f, 1.13828983e-02f, -4.84140473e-04f, 1.86450742e-02f, -4.77394275e-02f, 1.47372857e-01f, -1.05346195e-01f,
    -5.49271666e-02f, -5.73436990e-02f, 6.25543892e-02f, 7.02076731e-03f, -1.47189468e-01f, 3.91088240e-02f, -6.13762364e-02f, -5.16870432e-03f,
    3.14875133e-02f, 1.42837688e-02f, 7.23061934e-02f, -4.74086404e-02f, -7.94542283e-02f, 1.47061953e-02f, 4.42479141e-02f, -8.17167386e-02f,
    7.36681744e-02f, 4.64767255e-02f, 8.10655672e-03f, -1.02942660e-01f, -3.77294719e-02f, 1.03481032e-01f, -1.88850984e-01f, -2.23665044e-01f,
    1.81413740e-01f, 4.28895503e-02f, -2.62067607e-03f, 4.28310595e-02f, 7.57547170e-02f, -4.15025614e-02f, 4.69836630e-02f, 8.63865204e-03f,
    -9.53284875e-02f, 2.04192456e-02f, -1.01120090e-02f, 3.60258698e-01f, -1.14769734e-01f, 6.64916169e-03f, -8.36062282e-02f, 4.88453135e-02f,
    -5.95092997e-02f, -6.20722733e-02f, 1.35783553e-01f, -4.13370095e-02f, 4.97812927e-02f, 6.21700883e-02f, 1.18166041e-02f, 6.29231781e-02f,
    -9.12998617e-02f, -2.87422519e-02f, 1.08414389e-01f, 7.46405050e-02f, -1.11281902e-01f, 1.71299465e-02f, -5.73368929e-03f, -1.03420783e-02f,
    -5.07242139e-03f, 1.03168741e-01f, -2.78317988e-01f, -2.09633380e-01f, 5.04512573e-03f, -9.00567975e-03f, 6.27042875e-02f, -6.01513721e-02f,
    1.38927028e-01f, -6.08617812e-02f, -1.18047995e-02f, -1.19849676e-02f, -3.68274637e-02f, -1.73880868e-02f, 1.34219788e-02f, 4.85205017e-02f,
    -3.17806639e-02f, -1.62872910e-01f, -1.50383427e-03f, 1.18475193e-02f, 2.43139826e-02f, -8.37713573e-03f, 1.07959146e-02f, 5.02688698e-02f,
    -9.12107304e-02f, 2.09327205e-03f, 4.45126295e-01f, -4.27863486e-02f, -6.75034896e-02f, 1.82892308e-02f, 3.82732041e-02f, 1.09385038e-02f,
    2.19830852e-02f, 4.19892758e-01f, -2.30265915e-01f, -3.31472903e-02f, 3.62936631e-02f, -7.40921870e-02f, -2.31788196e-02f, -4.46692668e-02f,
    4.98281308e-02f, 1.67602636e-02f, -5.50317066e-03f, -1.95904691e-02f, -8.85138381e-03f, 2.02447455e-02f, -2.56322846e-02f, -1.44577073e-02f,
    -1.31213680e-01f, -1.19413927e-01f, 1.18066214e-01f, -7.62118697e-02f, 3.56356837e-02f, 1.13361165e-01f, -1.03702834e-02f, 2.73481220e-01f,
    -1.31877780e-01f, 8.73363391e-03f, 7.36244693e-02f, 5.90263307e-03f, 3.60740572e-02f, -1.00025594e-01f, -2.05285056e-03f, -4.54886667e-02f,
    -2.11090967e-02f, 4.63494919e-02f, -1.12668090e-01f, -3.24080586e-02f, -5.19368201e-02f, -5.78650311e-02f, 1.53155953e-01f, 4.13945541e-02f,
    4.12543789e-02f, -1.50841484e-02f, 4.61289845e-02f, -6.25781119e-02f, 4.14193273e-02f, 1.33349991e-03f, -1.12457201e-01f, 7.01037645e-02f,
    -6.53029755e-02f, 1.01233236e-02f, -1.06571943e-01f, 2.21978620e-01f, -1.71129592e-02f, -9.42011997e-02f, 5.63446619e-02f, -1.64092623e-03f,
    -1.53781489e-01f, 1.59234256e-01f, -1.78202707e-02f, 2.60529757e-01f, 3.92234931e-03f, -1.05611868e-01f, 6.67437240e-02f, -2.27732807e-01f,
    7.78205693e-02f, -2.17368621e-02f, -1.53634809e-02f, -5.12353238e-03f, -9.98616293e-02f, -6.58648536e-02f, -4.16869447e-02f, -2.10129589e-01f,
    4.58258428e-02f, -3.47675644e-02f, -9.50494409e-02f, -5.95193766e-02f, 3.18633050e-01f, 1.86580308e-02f, -1.59058087e-02f, 1.01092122e-01f,
    3.14107537e-02f, -1.45208478e-01f, 1.16257213e-01f, -1.02949105e-02f, -3.08206473e-02f, -1.07399307e-01f, 1.52190074e-01f, 1.72209684e-02f,
    -3.78534198e-02f, -8.00821185e-03f, 9.80451405e-02f, 3.27091441e-02f, -7.25366771e-02f, -2.65147910e-02f, 3.81454341e-02f, 4.87048440e-02f,
    6.78842589e-02f, -1.11352079e-01f, 1.54392287e-01f, 2.28877831e-02f, 5.70836593e-04f, -2.89061461e-02f, 1.50611818e-01f, -2.31752265e-02f,
    -8.02561343e-02f, -4.04130034e-02f, -1.00845605e-01f, -9.99868009e-03f, 6.33645430e-03f, 1.01933628e-02f, -6.16276972e-02f, 4.43790406e-02f,
    -1.14633583e-01f, -6.88842759e-02f, 5.44802397e-02f, 1.17349029e-01f, -9.60667431e-02f, -2.03164872e-02f, -6.66864067e-02f, -4.19058464e-02f,
    8.04199725e-02f, 3.81339528e-02f, -7.77702108e-02f, -4.79977243e-02f, -1.24376016e-02f, 2.41095856e-01f, -1.00529045e-01f, -1.21139802e-01f,
    -1.20435487e-02f, -2.20403075e-02f, 1.41149536e-02f, 7.34767839e-02f, 9.56730023e-02f, 1.84848221e-04f, -8.22210312e-02f, -7.26223141e-02f,
    6.51077032e-02f, -1.42270308e-02f, -6.70325849e-03f, 1.07780218e-01f, -1.19712658e-01f, -1.94982737e-02f, -3.27881090e-02f, -7.29801133e-02f,
    -9.87541601e-02f, 1.32244959e-01f, 2.67603789e-02f, 1.00823984e-01f, 2.92514525e-02f, -1.08974501e-01f, 3.22385132e-02f, -4.61092629e-02f,
    -7.48374611e-02f, -6.61118403e-02f, -4.01181728e-02f, -4.07995246e-02f, -1.59303933e-01f, 6.79490641e-02f, 3.86113562e-02f, -3.86417955e-02f,
    8.19681659e-02f, 3.62861365e-01f, -1.54362291e-01f, 1.21400371e-01f, -1.21486476e-02f, -9.74540561e-02f, 3.18991616e-02f, -5.93335032e-02f,
    -2.92627476e-02f, -3.67815159e-02f, 5.98433614e-02f, 7.86429718e-02f, 4.47186604e-02f, 4.85186353e-02f, -5.77395037e-03f, -2.27022637e-02f,
    1.69834401e-02f, -2.05680858e-02f, 1.50988445e-01f, 4.85440493e-02f, -6.69327900e-02f, -4.42612767e-02f, 5.57563407e-03f, -6.55556172e-02f,
    -6.62109535e-03f, -1.72529891e-02f, -7.17397556e-02f, 1.61663711e-01f, -1.01400197e-01f, 1.01067265e-02f, -5.39841652e-02f, -2.88544279e-02f,
    4.75109033e-02f, 1.55683281e-02f, 7.97343347e-03f, -5.70301414e-02f, -9.06528756e-02f, 1.17945522e-01f, 2.07965542e-02f, 1.39557332e-01f,
    -8.37399662e-02f, -1.09480374e-01f, -8.85514319e-02f, 3.73509191e-02f, -1.53768053e-02f, -1.37743980e-01f, 1.27105981e-01f, 1.12886943e-01f,
    -1.77310919e-03f, 2.71988153e-01f, -8.90354812e-02f, 2.11483575e-02f, -3.17424908e-02f, -1.12120181e-01f, -4.87882867e-02f, -2.07288470e-02f,
    -5.21314470e-03f, -6.89852536e-02f, 2.73640513e-01f, -7.94375613e-02f, 3.72066908e-02f, -1.03452027e-01f, -2.61257961e-02f, -1.80685893e-02f,
    -1.51171861e-02f, -1.07866950e-01f, 8.08999017e-02f, -1.12246320e-01f, -7.18997940e-02f, -1.35008721e-02f, -4.58224155e-02f, -9.78805777e-03f,
    -4.61875349e-02f, 4.21339162e-02f, -2.41092071e-02f, -3.07240076e-02f, -2.87602283e-02f, -2.44755354e-02f, -6.19550347e-02f, -1.40822744e-02f,
    7.17461258e-02f, -6.34259284e-02f, -5.17186709e-02f, -4.64959294e-02f, 4.87591662e-02f, -3.49635892e-02f, -8.98852479e-03f, -1.13756489e-02f,
    5.36173023e-02f, 1.46489486e-01f, -1.96759775e-02f, 1.92571059e-01f, -2.70558125e-03f, -5.30266017e-02f, -4.32461612e-02f, -3.61825265e-02f,
    -2.09043734e-02f, -4.84892093e-02f, 2.94881947e-02f, -1.57450572e-01f, 3.62348333e-02f, 4.41090018e-02f, 6.63690194e-02f, -3.38330008e-02f,
    -4.81591150e-02f, -1.08139478e-01f, 3.02432235e-02f, 6.44726828e-02f, 9.26511455e-03f, -5.66022284e-02f, 3.82462703e-02f, 1.45215979e-02f,
    -3.03196572e-02f, -1.16387308e-01f, 6.45080134e-02f, 1.92099229e-01f, 5.81350662e-02f, 1.04234368e-02f, -6.18281178e-02f, -5.92166819e-02f,
    -4.38187830e-03f, -9.53007787e-02f, -1.46256849e-01f, -5.82949072e-02f, 1.85073372e-02f, 3.97064090e-02f, 7.86888823e-02f, 8.99633300e-03f,
    7.05608204e-02f, -1.03897639e-01f, 6.15616627e-02f, 3.66120875e-01f, -4.33778577e-02f, -4.80460711e-02f, -5.84953986e-02f, -6.86011985e-02f,
    -1.14156231e-01f, -1.81282282e-01f, -5.67781366e-02f, 1.75471157e-01f, 5.70281856e-02f, -5.90954013e-02f, -6.79031089e-02f, -9.77723524e-02f,
    -1.34843573e-01f, -1.55673549e-01f, 2.67137170e-01f, -4.52846400e-02f, 1.43797100e-01f, 8.39485079e-02f, -1.64714586e-02f, 9.53096002e-02f,
    -2.04936624e-01f, -2.57593133e-02f, -1.74020864e-02f, -3.27305729e-03f, 1.44696549e-01f, -1.39877588e-01f, 3.08499336e-02f, 4.68516126e-02f,
    -1.38512626e-02f, -1.83639735e-01f, 1.08520493e-01f, -1.90861940e-01f, -5.67981713e-02f, -8.25770348e-02f, 1.47189811e-01f, -1.59083344e-02f,
    1.63388982e-01f, -5.67427129e-02f, -3.13608372e-03f, -8.05440992e-02f, 3.12135667e-02f, -4.93884534e-02f, 4.08358462e-02f, -9.95134003e-03f,
    1.13632074e-02f, -1.77098542e-01f, 1.51622593e-02f, -1.35094821e-02f, 2.65899356e-02f, 3.31875496e-02f, -2.33449526e-02f, -9.85607728e-02f,
    -5.95512055e-03f, -3.99139151e-02f, 2.16329545e-01f, -3.30338371e-03f, -1.19376019e-01f, 1.21255130e-01f, 2.45484188e-02f, -9.40374006e-03f,
    1.26740351e-01f, -1.38635099e-01f, -4.17380333e-02f, -4.70379330e-02f, 1.11623565e-02f, 1.78868193e-02f, 2.81723831e-02f, -4.61197495e-02f,
    5.51959835e-02f, -5.15342057e-02f, 1.13400280e-01f, 4.61781658e-02f, 1.07387334e-01f, 5.26294820e-02f, 4.51824777e-02f, -1.33939190e-02f,
    1.98697418e-01f, -9.27098542e-02f, 2.38178372e-01f, 1.11294411e-01f, 1.02155589e-01f, -3.55695449e-02f, 5.51984422e-02f, -1.05776064e-01f,
    7.65412301e-02f, 2.39485577e-02f, -1.03225589e-01f, 1.79099247e-01f, -1.49205223e-01f, 3.83556299e-02f, 1.89554587e-01f, 1.33708701e-01f,
    -6.63828105e-02f, -1.55154858e-02f, 9.68591049e-02f, -1.55340388e-01f, -4.08339454e-03f, 2.15313248e-02f, 4.03042510e-02f, 1.10464040e-02f,
    6.89759776e-02f, -1.82799637e-01f, 5.61455525e-02f, 6.56758994e-02f, 9.91108865e-02f, 4.07503545e-02f, 4.94895095e-04f, 1.72637682e-02f,
    6.19434379e-02f, 5.36063313e-02f, 2.39901081e-01f, -4.73790318e-02f, -3.27693252e-03f, 2.20729694e-01f, -7.06763566e-02f, -1.72969520e-01f,
    4.13852893e-02f, -5.26723638e-02f, -8.79634395e-02f, -2.31461804e-02f, -1.53618559e-01f, 4.31573950e-02f, -5.58932722e-02f, -9.23484862e-02f,
    -9.09566693e-03f, 4.15022532e-03f, 7.65845701e-02f, -2.21565496e-02f, -1.33170346e-02f, 3.61643312e-03f, -4.34472691e-03f, -1.12333409e-01f,
    2.59170085e-01f, -6.61128312e-02f, -9.30780917e-02f, 2.39453875e-02f, 3.27435471e-02f, -1.23545535e-01f, 4.49115783e-02f, -1.28306150e-01f,
    6.72388636e-03f, -8.82969762e-05f, -1.15383409e-01f, -1.02722943e-01f, 5.34263663e-02f, -5.86069375e-03f, -1.23206392e-01f, -7.83232898e-02f,
    6.70677274e-02f, -8.80939439e-02f, 4.58262488e-02f, 1.48999989e-01f, -4.88157161e-02f, -7.28501333e-03f, -1.50552481e-01f, 8.39302018e-02f,
    3.56787741e-02f, 3.02615147e-02f, 3.32901999e-02f, 4.57793428e-03f, -1.19284779e-01f, 7.45345354e-02f, 2.03480750e-01f, -1.55720115e-01f,
    -6.87003434e-02f, 1.51757091e-01f, 1.89134642e-01f, -7.99684203e-04f, -2.58412454e-02f, -1.39350310e-01f, -3.10835000e-02f, 1.43800333e-01f,
    -5.48900962e-02f, 1.73150569e-01f, -2.74231974e-02f, 1.80043243e-02f, 2.01706421e-02f, -1.47944853e-01f, -5.34031168e-02f, 1.18963592e-01f,
    7.34672463e-03f, 5.39462902e-02f, -7.38030151e-02f, -2.50395890e-02f, -4.86759469e-02f, 7.32222944e-02f, -3.10967537e-03f, 5.28519452e-02f,
    -3.19801420e-02f, 1.70507684e-01f, -1.59024924e-01f, 1.13370411e-01f, 5.28752282e-02f, -5.51409759e-02f, 1.12004742e-01f, 2.34912690e-02f,
    -1.38478754e-02f, 3.77173498e-02f, 6.42897636e-02f, -9.25280303e-02f, 3.60735133e-02f, 1.32993534e-01f, -3.04679982e-02f, 7.02798087e-03f,
    1.28414214e-01f, 9.48423669e-02f, -6.73837289e-02f, -4.34080809e-02f, -9.17359814e-02f, -6.02959469e-02f, 4.12317440e-02f, -7.96882957e-02f,
    9.74672660e-02f, -9.72795784e-02f, -9.85415280e-03f, 7.10097477e-02f, -9.05021057e-02f, 1.81770101e-01f, -6.83505759e-02f, -1.20057389e-01f,
    3.64045203e-02f, 4.86191697e-02f, -1.87733416e-02f, -3.07828281e-02f, 7.57632628e-02f, 5.99885546e-02f, -3.00291590e-02f, -1.70488339e-02f,
    -9.05501395e-02f, 1.34585097e-01f, 6.21513054e-02f, -3.19174752e-02f, -4.17993665e-02f, -4.99468781e-02f, -5.98172434e-02f, 6.27620742e-02f,
    3.94494295e-01f, -7.52429068e-02f, -1.07001863e-01f, -4.64972220e-02f, -2.53757052e-02f, -1.25101991e-02f, -9.92102101e-02f, 6.40802085e-04f,
    -7.14823380e-02f, 1.64663456e-02f, 2.54148152e-02f, 1.46731944e-03f, -6.56256750e-02f, -2.76648719e-02f, 3.53913428e-03f, -5.29152304e-02f,
    6.06225915e-02f, -5.95754609e-02f, 6.13320470e-02f, -1.23510003e-01f, 8.54049921e-02f, 3.94538604e-02f, 8.91918615e-02f, 9.12746564e-02f,
    -1.21503226e-01f, 5.78539260e-02f, -2.36833338e-02f, 4.41920012e-02f, 3.48753259e-02f, -8.63740817e-02f, 2.83013303e-02f, 8.17782283e-02f,
    4.25350945e-03f, -2.80027203e-02f, 1.35365918e-01f, 1.46087892e-02f, 1.48511499e-01f, -1.24276169e-02f, 1.72909051e-01f, -1.75802276e-01f,
    1.33570731e-02f, -2.08001211e-02f, 6.61258996e-02f, 2.99845710e-02f, -1.25155479e-01f, 2.08169848e-01f, 1.21064521e-02f, 6.57601804e-02f,
    -6.41711876e-02f, -2.20795833e-02f, 9.05280560e-02f, -2.88980491e-02f, 2.57480834e-02f, -6.74500838e-02f, -3.54230702e-02f, 5.24902996e-03f,
    -2.47281115e-03f, -1.35852709e-01f, 2.53010411e-02f, -1.22488430e-02f, -1.53695513e-02f, 1.51007831e-01f, -7.49640763e-02f, 3.57752629e-02f,
    -6.19801208e-02f, 2.53382444e-01f, 6.28128275e-02f, 4.13166545e-02f, 4.80739735e-02f, -4.51229662e-02f, 4.38047834e-02f, 1.22070625e-01f,
    -6.64283559e-02f, 5.94205819e-02f, -2.21541151e-01f, 2.03182492e-02f, 8.87009199e-04f, 4.88089863e-03f, -5.34350164e-02f, -9.80272889e-03f,
    -5.91936894e-02f, -2.96251010e-02f, 2.26729304e-01f, -1.05964981e-01f, -1.79449134e-02f, 2.02735700e-02f, 9.90917906e-02f, 5.35617955e-02f,
    -3.48941609e-02f, 7.10694771e-03f, 5.06796390e-02f, -5.81022725e-02f, -5.12977652e-02f, 4.27491926e-02f, -5.94250597e-02f, -1.47799049e-02f,
    -1.80837572e-01f, 1.75888494e-01f, 1.93577111e-02f, -8.69254917e-02f, -5.53475367e-03f, -1.13445669e-01f, -8.46234802e-03f, -7.52752572e-02f,
    -1.33770540e-01f, -6.70689642e-02f, -2.58037090e-01f, -5.66756986e-02f, -1.08141124e-01f, 7.61005357e-02f, -3.48012485e-02f, -4.12075184e-02f,
    1.60289109e-01f, -4.51904442e-03f, -2.55812109e-01f, 2.51115352e-01f, -1.21395420e-02f, -5.38754649e-02f, 1.93700120e-02f, -2.09620874e-02f,
    -9.21471491e-02f, 8.31858218e-02f, -1.38802258e-02f, -3.90939936e-02f, 7.87973776e-02f, 4.20970842e-02f, 5.10636345e-02f, -9.30118840e-04f,
    2.89402679e-02f, 7.91975856e-02f, 2.98323065e-01f, -1.18051291e-01f, -1.78911001e-03f, -5.67470863e-02f, -8.71863142e-02f, -1.90286025e-01f,
    2.91905738e-02f, 5.27450927e-02f, 2.28988957e-02f, 1.11401081e-01f, -6.51046932e-02f, 1.00385964e-01f, -1.15282303e-02f, 8.82176403e-03f,
    5.83918281e-02f, -4.45696078e-02f, 9.65503603e-02f, 1.01643384e-01f, 6.02733195e-02f, -3.23952362e-02f, 1.27745762e-01f, -7.49231800e-02f,
    7.89047312e-03f, -1.43405318e-01f, 3.68058272e-02f, 8.98219794e-02f, 1.71553135e-01f, -4.70107086e-02f, 2.53233574e-02f, 7.22239912e-03f,
    -5.64846322e-02f, -4.93758284e-02f, 3.68538052e-02f, -7.63252601e-02f, -5.76397777e-02f, -2.21648570e-02f, 8.30583647e-02f, 1.02148525e-01f,
    -3.89416516e-02f, -1.46356891e-04f, -7.38999471e-02f, 5.15586250e-02f, -3.59360762e-02f, -1.65684707e-02f, 3.61727551e-02f, -4.25492004e-02f,
    7.12149590e-02f, -5.35705313e-02f, 2.74629910e-02f, -2.10085157e-02f, -8.88574719e-02f, 4.26441096e-02f, -2.19244976e-02f, 6.19349815e-02f,
    -1.06702431e-03f, -4.88929003e-02f, -3.60141918e-02f, -3.96311581e-02f, 2.34716237e-01f, -7.09329844e-02f, 4.77836840e-03f, -5.61066419e-02f,
    7.70992339e-02f, 5.70033408e-05f, 1.19826764e-01f, -1.74535424e-01f, -1.04386128e-01f, 9.63363517e-03f, -2.22212169e-02f, -8.48408937e-02f,
    3.40728983e-02f, 5.33596650e-02f, -8.68544579e-02f, 1.10789642e-01f, -1.10310964e-01f, 1.12309240e-01f, -9.91649181e-02f, -4.41321358e-02f,
    5.17784297e-01f, 3.46518159e-02f, 3.63879539e-02f, -7.85955191e-02f, 1.20459637e-02f, -6.28356338e-02f, 1.13818124e-01f, 8.01912788e-03f,
    9.34646726e-02f, -1.78705245e-01f, -2.68896185e-02f, 4.96815518e-02f, 1.04250461e-02f, -5.74045740e-02f, 3.74022275e-02f, 2.18859129e-02f,
    7.87370279e-03f, -1.60197005e-01f, 2.59329736e-01f, 2.99633909e-02f, 7.94639066e-02f, -8.21888670e-02f, -3.54216360e-02f, 6.89071417e-02f,
    -2.47842465e-02f, -8.12385157e-02f, 1.09693334e-01f, 4.93063107e-02f, 2.62102261e-02f, -1.55749051e-02f, 7.23787099e-02f, 1.24399655e-01f,
    2.94536233e-01f, 1.96520209e-01f, -2.52637058e-01f, 7.23120123e-02f, -3.70285064e-02f, -8.62871408e-02f, 1.75907224e-01f, 3.04247695e-03f,
    9.17342305e-02f, -1.32121950e-01f, -8.34455155e-03f, 5.56674562e-02f, 1.06186472e-01f, -1.56834926e-02f, -4.48588170e-02f, -5.66437468e-02f,
    -1.17312804e-01f, -3.15214619e-02f, -6.60585845e-03f, -1.01371557e-01f, -5.48337847e-02f, -6.46555275e-02f, 1.51668698e-01f, -9.12551284e-02f,
    -7.53921196e-02f, 9.56854597e-03f, -5.19582257e-02f, 6.88774288e-02f, -4.09094952e-02f, 7.11570978e-02f, -1.17734924e-01f, -5.11102304e-02f,
    1.14774533e-01f, -2.95430031e-02f, -6.66735135e-03f, 5.60637824e-02f, 4.64671962e-02f, -4.21115384e-02f, 9.56301466e-02f, 2.25315943e-01f,
    -8.23797286e-02f, 1.54407648e-02f, -7.35780075e-02f, 1.98339485e-02f, 9.57086831e-02f, -1.44029066e-01f, 4.27869558e-02f, -2.27300543e-02f,
    1.71184982e-03f, -1.20421220e-02f, 1.67782698e-02f, -1.20002860e-02f, -1.75243448e-02f, -1.05553903e-02f, -9.42524150e-03f, 1.40138222e-02f,
    -1.57466568e-02f, -1.83909928e-04f, -4.90512233e-03f, 7.08732288e-03f, 1.25495512e-02f, 1.77095626e-02f, -2.09290255e-02f, 1.22440271e-02f,
    1.20181860e-02f, 4.98751551e-03f, -9.67715308e-03f, -2.79024299e-02f, 9.50757007e-04f, -9.12036840e-03f, 2.99730990e-03f, 2.67721107e-03f,
    5.04315784e-03f, -9.41282418e-03f, -6.81339065e-03f, -8.11267551e-03f, -8.19179974e-03f, -7.62266293e-03f, -6.86900737e-03f, -1.55550684e-03f,
    5.15339002e-02f, -2.63000652e-02f, 1.55799344e-01f, 4.22065482e-02f, 5.61076216e-02f, -3.04103922e-02f, -1.26700103e-01f, -1.51309818e-01f,
    1.44920992e-02f, -1.36406213e-01f, 4.56895726e-03f, 7.50585366e-03f, -2.68109832e-02f, -9.20936763e-02f, 3.21614921e-01f, 1.79636702e-02f,
    4.63232249e-01f, 3.03983614e-02f, 2.40453947e-02f, 1.05803111e-03f, -8.64341184e-02f, -1.06716186e-01f, -4.78839353e-02f, -1.12663224e-01f,
    1.57060876e-01f, -2.89410561e-01f, -9.39736217e-02f, -2.74376827e-03f, 1.28697380e-01f, -1.11336216e-01f, 1.06307212e-02f, -1.17873669e-01f,
    -2.12680502e-03f, 5.83743155e-02f, 2.53128141e-01f, -3.44365612e-02f, 8.07950199e-02f, -2.19100937e-01f, 7.94281811e-03f, 1.03190258e-01f,
    -4.20828015e-02f, 5.32581806e-02f, -2.28999145e-02f, 7.45621622e-02f, 1.21638469e-01f, 2.67451555e-02f, -1.17598057e-01f, 5.30832820e-03f,
    -1.00273229e-01f, -3.19129694e-03f, 3.17401588e-02f, 1.44361004e-01f, 8.14003404e-03f, -9.33137834e-02f, 1.83532581e-01f, -1.13367336e-02f,
    -2.03924775e-01f, -2.05823720e-01f, 4.86351997e-02f, -7.93521199e-03f, 1.18272595e-01f, 3.80109139e-02f, -1.28191262e-01f, -2.07397118e-02f,
    -1.21049382e-01f, -8.88758302e-02f, 3.03092096e-02f, -7.13505745e-02f, 2.02155169e-02f, 9.98459533e-02f, 1.81472898e-01f, 1.63514391e-01f,
    -1.15085378e-01f, -5.16416393e-02f, 5.60254380e-02f, 5.56368791e-02f, -1.70575783e-01f, -2.10350938e-03f, 9.46331490e-03f, -1.03323003e-02f,
    -2.20519472e-02f, 8.57061893e-02f, -2.12285906e-01f, -2.29894340e-01f, 2.44638287e-02f, 6.23291805e-02f, 1.85368150e-01f, -1.48569033e-01f,
    5.07120155e-02f, -6.05677143e-02f, -2.67215166e-02f, -2.50282250e-02f, 4.59443331e-02f, 1.34379923e-01f, 5.45969978e-03f, 9.49433520e-02f,
    1.92041043e-02f, -3.81786972e-02f, -7.53094777e-02f, -5.71979769e-02f, 1.01115108e-01f, 4.24722098e-02f, 2.86164191e-02f, -2.37174779e-02f,
    2.26571830e-03f, -5.44507336e-03f, -6.73199221e-02f, -4.49266098e-02f, 1.32692754e-01f, -2.72826920e-03f, 3.35740261e-02f, 3.09446696e-02f,
    5.11953086e-02f, -6.17399178e-02f, 3.85080799e-02f, 1.90882720e-02f, -3.31521989e-03f, -5.85244000e-02f, 7.68926591e-02f, -4.28057276e-02f,
    7.25455731e-02f, -4.76187356e-02f, -1.16429543e-02f, 1.56414032e-01f, -1.42514795e-01f, -9.57319513e-03f, -1.51075656e-03f, -2.10286006e-02f,
    1.34321883e-01f, -9.65500101e-02f, 5.17729111e-02f, -4.02209572e-02f, 2.59730294e-02f, -4.77524772e-02f, 7.23363981e-02f, 1.29759749e-02f,
    2.52673291e-02f, 3.56980017e-03f, 2.05412626e-01f, 7.25657418e-02f, -1.24765627e-01f, 3.78280040e-03f, -1.60927628e-03f, 2.91314851e-02f,
    4.33712732e-03f, 1.05377801e-01f, -2.21224487e-01f, -2.38317803e-01f, 7.62914792e-02f, 9.03411061e-02f, 4.22338657e-02f, -5.25186770e-03f,
    -1.80570688e-02f, -1.03435647e-02f, 1.90825090e-02f, 3.81589383e-02f, -1.33830113e-02f, -4.45277132e-02f, 2.12939307e-02f, 3.23520228e-02f,
    -2.51721647e-02f, -2.19757915e-01f, 1.39325574e-01f, -4.79469402e-03f, 5.35274632e-02f, -1.00058854e-01f, 4.86715063e-02f, 1.69206947e-01f,
    -1.17753737e-01f, -7.80927064e-03f, 4.74336326e-01f, 5.64350970e-02f, -2.77348701e-03f, -3.26031782e-02f, 4.66246381e-02f, 2.75008976e-02f,
    8.81523862e-02f, 1.25044316e-01f, 1.12534381e-01f, -2.34378159e-01f, 1.12259584e-02f, -5.63943200e-02f, 1.30653888e-01f, -1.70051847e-02f,
    -4.14910838e-02f, -7.80067071e-02f, -1.97536815e-02f, -7.34035624e-03f, 2.59826537e-02f, -3.12191918e-02f, -7.07276836e-02f, 1.99451409e-02f,
    6.15090951e-02f, -1.94168347e-03f, -6.01862906e-04f, 7.82235563e-02f, -3.64153087e-02f, -3.16268280e-02f, -3.53587195e-02f, -3.07336412e-02f,
    -8.11018609e-03f, 8.32724944e-03f, -4.31079902e-02f, 1.05084479e-01f, -3.98436747e-02f, -9.21217073e-03f, 8.69328529e-03f, -5.03964648e-02f,
    -4.35407571e-02f, 1.83533896e-02f, 1.03418482e-02f, -2.74612978e-02f, 2.15706062e-02f, 9.63554997e-03f, -1.17970109e-02f, -3.63986823e-03f,
    -5.34718111e-03f, -5.33095188e-02f, -2.54163500e-02f, 4.27935012e-02f, -1.86547358e-02f, -2.57275682e-02f, 9.95537825e-03f, 2.72770133e-03f,
    -1.28191635e-01f, 3.68844032e-01f, 1.03855856e-01f, -2.25058366e-02f, 4.60472591e-02f, 6.16730656e-04f, -1.60527211e-02f, 2.73499358e-02f,
    -1.71819121e-01f, -8.19542110e-02f, -2.26804331e-01f, -6.04276918e-02f, -1.17274493e-01f, 6.52198866e-02f, -2.42922623e-02f, -6.23968663e-03f,
    1.16869532e-01f, -4.80544716e-02f, -5.50522730e-02f, -2.00935230e-02f, 3.94886769e-02f, -9.66577604e-02f, 2.19948981e-02f, -2.41145603e-02f,
    1.14395738e-01f, -2.58210544e-02f, 6.57504722e-02f, 8.11450332e-02f, 3.97874378e-02f, 9.55826193e-02f, 2.77227517e-02f, -3.28226015e-02f,
    3.19536328e-01f, -5.80627052e-03f, 1.05902731e-01f, -3.49865332e-02f, 5.00760525e-02f, 6.53983876e-02f, -1.29851894e-02f, -7.69607872e-02f,
    1.44180223e-01f, 8.01182091e-02f, -1.40377998e-01f, 1.53120458e-01f, -1.15229087e-02f, 5.35877161e-02f, 2.88029555e-02f, -3.99596989e-02f,
    -8.49141702e-02f, -6.60022199e-02f, 3.64556611e-02f, -2.20331088e-01f, -5.86952362e-03f, 1.11656509e-01f, 7.46494085e-02f, 6.80844719e-03f,
    -3.16740312e-02f, -4.81131934e-02f, 7.94276521e-02f, 3.23798135e-02f, 6.27087578e-02f, -5.22099435e-02f, 5.81933782e-02f, -8.44831914e-02f,
    -1.07765399e-01f, 1.40801921e-01f, 1.21356800e-01f, -6.70905337e-02f, 1.27254680e-01f, -7.74065331e-02f, 6.83088526e-02f, 2.06891119e-01f,
    -1.01072043e-01f, 2.32766429e-03f, -6.73988238e-02f, -1.36038652e-02f, -5.66280331e-04f, -1.93089873e-01f, 1.48418620e-01f, 4.73125018e-02f,
    -1.00830927e-01f, 1.49996445e-01f, -2.38544837e-01f, -4.77238707e-02f, 4.68766801e-02f, -7.23184040e-03f, 2.36289769e-01f, -2.31199544e-02f,
    2.29764543e-02f, -9.79194697e-03f, 7.09183738e-02f, -1.52531952e-01f, 6.39638007e-02f, 7.90946186e-02f, -1.43079937e-01f, 8.97101313e-02f,
    -7.41465017e-02f, 1.86710358e-01f, 1.10056579e-01f, -3.10320389e-02f, 2.93818060e-02f, -1.53929098e-02f, 3.33206542e-02f, 6.56694621e-02f,
    -8.66929963e-02f, 3.44341472e-02f, -5.37673905e-02f, 6.47050515e-02f, -1.83977500e-01f, 1.01633288e-01f, -5.47854812e-04f, 1.92451868e-02f,
    9.36816707e-02f, 6.44456327e-01f, -2.59490222e-01f, -1.35945216e-01f, 4.21700105e-02f, -2.98574306e-02f, 7.77906105e-02f, -3.76656801e-02f,
    3.64865847e-02f, -6.40478805e-02f, 2.36517377e-02f, -5.90264425e-03f, 1.76930595e-02f, 5.24999574e-02f, -3.96998897e-02f, 6.42547980e-02f,
    -4.44629677e-02f, -9.12201256e-02f, -2.41501741e-02f, -5.25659956e-02f, -9.13051516e-02f, -3.93633321e-02f, 6.28596917e-02f, 9.05638281e-03f,
    2.03775197e-01f, -4.00990807e-02f, 6.68036577e-04f, 1.26842898e-03f, -1.56451255e-01f, 2.38865614e-02f, -1.44752627e-02f, -6.31811693e-02f,
    -3.00127212e-02f, -1.33355901e-01f, 1.13105476e-01f, -5.75317293e-02f, -3.69180110e-03f, 9.37251151e-02f, 1.00244455e-01f, 9.60089713e-02f,
    -3.35300416e-02f, -9.43066105e-02f, -2.72709578e-02f, 6.33935630e-02f, -4.57216613e-02f, -7.10754916e-02f, 2.33699605e-02f, 1.85584858e-01f,
    -2.51190737e-02f, 2.33879276e-02f, -1.09082513e-01f, -1.56578541e-01f, 3.91395181e-01f, 6.36553671e-03f, 1.47186499e-02f, -6.90481961e-02f,
    -5.78018390e-02f, -9.34147183e-03f, -1.77431200e-02f, 2.24461526e-01f, -4.29288670e-03f, -9.82351899e-02f, -2.55967043e-02f, -7.76771009e-02f,
    5.69762811e-02f, -1.74000487e-02f, 7.72616863e-02f, -7.26030394e-02f, -3.81745212e-02f, -3.77456211e-02f, 1.60463259e-01f, -8.48967731e-02f,
    3.20667699e-02f, -1.85652837e-01f, -2.11638398e-02f, 4.52800803e-02f, -7.21931830e-02f, -1.44075200e-01f, -3.86560149e-02f, 1.14826255e-01f,
    1.06704533e-02f, 4.23454493e-01f, -1.78392362e-02f, 4.71395366e-02f, 2.91523617e-02f, -3.31944525e-02f, -8.31232127e-03f, -6.91757118e-03f,
    2.99396757e-02f, -1.39652304e-02f, 3.71918440e-01f, -3.53477821e-02f, 3.04891244e-02f, -4.47612479e-02f, -2.50200052e-02f, -8.25211685e-03f,
    -2.96690036e-02f, -2.76267529e-01f, 2.14322165e-01f, -4.37190793e-02f, 1.25913350e-02f, -3.72843351e-03f, -1.50632421e-02f, -3.79149765e-02f,
    -6.55883029e-02f, -3.99881899e-02f, -5.46154380e-03f, -1.31113669e-02f, -2.96766870e-03f, 1.05542419e-02f, -4.94164787e-03f, -4.33479920e-02f,
    -1.10905312e-01f, -4.00413573e-02f, 5.47434427e-02f, -7.95670077e-02f, 1.89418003e-01f, -7.35787349e-03f, -9.50832218e-02f, -2.99768019e-02f,
    -1.28699854e-01f, -1.09687909e-01f, 2.40969341e-02f, -2.35179458e-02f, -1.17698414e-02f, -1.18685171e-01f, -2.15270910e-02f, 2.22575426e-01f,
    -4.70317118e-02f, -2.05393117e-02f, -3.54732834e-02f, -1.02600873e-01f, -9.88030657e-02f, 5.74569963e-02f, 2.98921943e-01f, -7.06975535e-02f,
    -6.21369369e-02f, -7.65435472e-02f, -6.18864484e-02f, -1.01678252e-01f, -7.88034126e-02f, -1.28896430e-01f, 3.90404128e-02f, -4.73824963e-02f,
    1.06395539e-02f, 5.77046815e-03f, 9.89156589e-02f, 1.46720812e-01f, -8.66900235e-02f, -7.46945664e-02f, -1.70646328e-02f, -2.10689493e-02f,
    -1.22015752e-01f, -3.28082778e-02f, 1.19823841e-02f, 5.29267937e-02f, -1.13826863e-01f, -7.47615658e-03f, -4.40526642e-02f, -4.14884724e-02f,
    7.36473352e-02f, 3.21888104e-02f, -2.54773721e-02f, -2.66736336e-02f, -4.27260026e-02f, 3.83496620e-02f, -8.32824633e-02f, 2.12905794e-01f,
    -5.21612428e-02f, -3.76874246e-02f, 5.98833291e-03f, -5.43163866e-02f, 3.87426019e-01f, -3.66561823e-02f, 8.33964720e-02f, -1.48603728e-03f,
    -7.08905682e-02f, 1.24387614e-01f, -2.27955468e-02f, -1.48230106e-01f, -3.68783399e-02f, 9.58516672e-02f, 2.68517137e-01f, 1.59326226e-01f,
    -1.19451918e-01f, -7.52938464e-02f, -1.96182474e-01f, 4.02537733e-02f, -1.02617189e-01f, 5.05423471e-02f, -1.15121551e-01f, -1.10038765e-01f,
    -7.13377371e-02f, -2.00970292e-01f, 1.08202025e-01f, -1.78123564e-01f, -2.03538388e-02f, 6.00916275e-04f, 2.25646213e-01f, -1.75239414e-01f,
    1.19766295e-01f, -4.43089847e-03f, -3.26663069e-03f, -8.35741907e-02f, -7.20591545e-02f, 1.40572116e-01f, 8.96733478e-02f, 1.72010720e-01f,
    1.84962928e-01f, 9.23490226e-02f, 1.42776653e-01f, -1.53093427e-01f, -1.50638565e-01f, -1.66179128e-02f, -6.96102157e-02f, 7.08146319e-02f,
    2.04693303e-02f, 8.19174573e-03f, -6.20839093e-03f, 1.68182943e-02f, -4.63766269e-02f, 1.20124947e-02f, -5.56202941e-02f, -7.76750147e-02f,
    3.04229483e-02f, 6.18462563e-02f, 2.78282780e-02f, -1.00169275e-02f, -2.26186533e-02f, 9.91972089e-02f, 2.93315928e-02f, 3.63831967e-02f,
    -4.42219004e-02f, -1.20087057e-01f, -2.47819517e-02f, -6.64422587e-02f, 3.54397744e-01f, 1.39819579e-02f, 1.17544765e-02f, -1.11471541e-01f,
    4.56551313e-02f, -6.57844618e-02f, -5.55813536e-02f, -5.27147353e-02f, 2.73404066e-02f, -9.38384831e-02f, -1.42736673e-01f, 1.82601169e-03f,
    -3.50541584e-02f, 1.65853322e-01f, -1.51501214e-02f, 3.63100097e-02f, -1.68129690e-02f, -3.86304557e-02f, -1.89722923e-03f, -1.41264975e-01f,
    1.38864413e-01f, -6.40534684e-02f, -1.88203827e-02f, 3.60451415e-02f, -2.20608450e-02f, -4.47140969e-02f, 8.94400477e-02f, -6.97302520e-02f,
    -9.78814289e-02f, -6.36792481e-02f, -8.78923833e-02f, -2.62795314e-02f, 1.01767182e-01f, -3.69450822e-02f, -9.80566442e-02f, 3.83449227e-01f,
    -4.56316806e-02f, -9.68104810e-04f, -1.60154298e-01f, -3.54347408e-01f, -1.24191791e-01f, -4.03026715e-02f, 7.55401701e-03f, -7.33450241e-03f,
    -9.08068046e-02f, 5.06345443e-02f, -5.45700565e-02f, 4.99889581e-03f, -4.84662689e-02f, -7.99850449e-02f, -1.88288823e-01f, -1.43261328e-01f,
    2.41403244e-02f, -6.65210653e-03f, -5.34016639e-02f, -1.05575763e-01f, -9.52261128e-03f, 8.97263139e-02f, 3.77810270e-01f, 1.80524483e-01f,
    -1.34952202e-01f, 3.26191097e-01f, 6.49987981e-02f, -1.52313560e-01f, 6.04946204e-02f, 1.60726700e-02f, 1.28737260e-02f, 1.95866853e-01f,
    -5.58947325e-02f, -2.56848276e-01f, 3.25969011e-02f, -5.48873693e-02f, 2.90457532e-02f, 1.51293436e-02f, 1.25410408e-01f, 5.58373742e-02f,
    -1.08245827e-01f, -5.03120981e-02f, 9.95866954e-02f, -1.14864875e-02f, -1.09006330e-01f, 4.21540765e-03f, -3.89881991e-02f, -7.44191855e-02f,
    -3.82762700e-02f, -2.43128766e-03f, -4.03488427e-02f, -1.86875001e-01f, 5.02509950e-03f, 1.00323614e-02f, 2.17447981e-01f, -8.75571743e-02f,
    1.03397451e-01f, 2.05315780e-02f, 1.67148560e-01f, -3.13317589e-02f, 1.14991143e-02f, 9.16798860e-02f, 3.76706496e-02f, 1.81639731e-01f,
    3.34756775e-03f, 2.51282126e-01f, 4.80024656e-03f, -1.67753138e-02f, -1.73926111e-02f, -2.59790625e-02f, 6.83527114e-03f, -5.22368327e-02f,
    -5.03467508e-02f, -4.10547517e-02f, -1.42451495e-01f, 6.07768483e-02f, -1.44753546e-01f, 1.82230741e-01f, -1.89088695e-02f, 2.61623748e-02f,
    1.12674601e-01f, -1.64821237e-01f, 1.32953584e-01f, -2.95453612e-02f, -1.61479618e-02f, -6.52658334e-03f, 3.73981968e-02f, -4.76204511e-03f,
    -5.55611774e-02f, -4.36182544e-02f, -1.32911550e-02f, 7.14743286e-02f, -2.29520034e-02f, -3.00355931e-03f, 2.43503079e-02f, 7.04671443e-02f,
    -5.63259721e-02f, 5.19557670e-02f, 3.89458798e-02f, -1.03313588e-01f, -6.55498579e-02f, 8.63314793e-03f, 1.95600286e-01f, -4.92645940e-03f,
    1.30959612e-03f, -6.34512827e-02f, -1.09058082e-01f, 1.77001715e-01f, -6.32215366e-02f, 1.06408715e-01f, -5.85436784e-02f, 5.32261804e-02f,
    -1.26933039e-03f, -1.50017571e-02f, -5.32589443e-02f, -1.05990522e-01f, 6.48494586e-02f, -4.06207964e-02f, 8.56925696e-02f, -6.30267560e-02f,
    7.04738349e-02f, -6.16140626e-02f, -4.93704416e-02f, 5.06478921e-02f, -8.64126757e-02f, -8.59383792e-02f, -3.43248136e-02f, -3.54824997e-02f,
    -2.01601051e-02f, 6.41905665e-02f, 2.26152856e-02f, -9.83243361e-02f, 1.56846531e-02f, -5.85885458e-02f, -2.32040454e-02f, 2.06881901e-03f,
    -8.54425803e-02f, 1.01068523e-03f, -1.68978527e-01f, 7.63754779e-03f, -8.51993784e-02f, -5.54232523e-02f, -2.75120605e-03f, -3.34358327e-02f,
    -8.96979682e-03f, -1.38055295e-01f, 2.25322768e-01f, 2.80357469e-02f, 4.17040242e-03f, -6.29242063e-02f, 1.60719365e-01f, -5.87371774e-02f,
    -1.96228754e-02f, 1.47118012e-03f, 1.41664103e-01f, -8.03560466e-02f, -3.03051956e-02f, 1.73889115e-01f, 2.47295760e-03f, -1.72414836e-02f,
    2.70963460e-02f, -1.12942094e-02f, 1.32063329e-01f, -1.75970808e-01f, -2.02001244e-01f, 1.63453203e-02f, -5.25695942e-02f, -2.80632754e-03f,
    3.80651020e-02f, -1.96049418e-02f, 7.22885225e-03f, -2.35040843e-01f, -6.16529323e-02f, 6.06283545e-02f, 2.14557067e-01f, 2.58979559e-01f,
    -3.67227048e-02f, -4.53316001e-03f, 1.37659535e-02f, 3.12507823e-02f, 4.22929600e-02f, -6.29426762e-02f, 3.42402250e-01f, -1.25254974e-01f,
    1.18904747e-02f, -2.62134284e-01f, -5.01608141e-02f, -5.80196418e-02f, -1.98545888e-01f, -4.84504439e-02f, 2.15967814e-03f, -5.27470671e-02f,
    -7.90844262e-02f, 9.29448828e-02f, -8.04258808e-02f, -1.00839570e-01f, -5.99209666e-02f, -7.20880867e-04f, 9.49348137e-02f, 4.56425920e-02f,
    -4.46876213e-02f, -5.36854006e-02f, -1.10816047e-01f, -1.94800198e-02f, -7.84141645e-02f, -3.32250707e-02f, -7.87417665e-02f, -7.45174214e-02f,
    3.12928706e-02f, -4.87884246e-02f, -6.23158328e-02f, 8.13633949e-02f, 2.96362527e-02f, -7.07417428e-02f, 1.43243834e-01f, -5.25003020e-03f,
    4.47453298e-02f, 4.44532856e-02f, 2.98432946e-01f, -7.02199712e-02f, 8.13644528e-02f, -1.58436656e-01f, 2.33408250e-02f, -2.85845697e-02f,
    -5.47148958e-02f, -1.04950987e-01f, 4.97452877e-02f, -3.13949548e-02f, 6.96675107e-03f, -3.92526723e-02f, -6.55627251e-02f, -2.46156808e-02f,
    -5.26412576e-02f, 2.69172359e-02f, 9.92272347e-02f, 9.75939538e-03f, -4.16703820e-02f, 1.77868739e-01f, -3.13554816e-02f, -9.42608155e-03f,
    9.00459886e-02f, -9.56710577e-02f, 7.08521307e-02f, 8.38219896e-02f, -9.08469688e-03f, 2.34275637e-03f, 3.81673612e-02f, 1.49069047e-02f,
    -2.85903942e-02f, -9.30047780e-03f, 1.69724543e-02f, 7.56487921e-02f, 9.93219241e-02f, 7.50085935e-02f, 3.43280174e-02f, 4.44546994e-03f,
    -4.31438200e-02f, 1.89651579e-01f, -6.73315078e-02f, -3.62654105e-02f, 4.70941216e-02f, -6.80335164e-02f, -3.31897475e-02f, -1.86782386e-02f,
    -4.62866351e-02f, 3.16089368e-03f, 2.13519633e-01f, -3.87843512e-02f, 1.32089178e-03f, -7.70811588e-02f, 1.60113722e-02f, -2.06384039e-03f,
    -4.28716727e-02f, 2.32224539e-01f, 2.52220154e-01f, -2.38382164e-02f, 1.31360618e-02f, -4.56066951e-02f, 1.71056446e-02f, 3.46845984e-02f,
    -9.45118889e-02f, 1.32145494e-01f, -8.86408910e-02f, -6.48405105e-02f, -8.45172722e-03f, -5.72004542e-02f, -1.02482205e-02f, -1.31281838e-02f,
    -3.05764545e-02f, 2.23281048e-02f, -2.40108334e-02f, -1.28270775e-01f, -2.20148593e-01f, 4.50089239e-02f, -3.21211256e-02f, 1.76930442e-01f,
    -1.25082970e-01f, -4.04101051e-02f, -5.53961620e-02f, -4.28190976e-02f, 2.66403168e-01f, -9.21780095e-02f, -2.16269027e-02f, -6.63568154e-02f,
    -5.17760962e-02f, 2.09557824e-02f, 1.63530540e-02f, -5.13735265e-02f, 7.88953006e-02f, 5.46745583e-02f, 3.36056873e-02f, -5.44920973e-02f,
    4.82829474e-02f, -4.63972352e-02f, 6.83612227e-02f, -3.40558775e-02f, 1.15281321e-01f, -3.90607007e-02f, 1.13042854e-01f, 1.85623374e-02f,
    2.71436700e-04f, -7.70113617e-02f, 2.56883986e-02f, -4.90653925e-02f, 1.45022701e-02f, 7.13183731e-02f, 3.65592465e-02f, -5.14294878e-02f,
    9.02838781e-02f, 1.94413774e-02f, -2.62692347e-02f, 6.49639918e-03f, 5.70513755e-02f, -8.56938027e-03f, 3.94526161e-02f, -4.35773395e-02f,
    -2.20532119e-02f, -6.96861893e-02f, -3.44223455e-02f, -9.41829756e-02f, 5.72373578e-03f, 4.40657549e-02f, 4.29069437e-02f, -2.15155035e-02f,
    7.11472705e-03f, 7.90581759e-03f, 5.41464649e-02f, -1.08067207e-02f, 3.76205295e-02f, 1.38927223e-02f, 5.83701134e-02f, -4.40542214e-02f,
    1.12845629e-01f, -3.63609828e-02f, 8.27099904e-02f, 3.20862122e-02f, 1.42940935e-02f, -6.66019768e-02f, -8.43164232e-03f, -2.59663891e-02f,
    5.35724647e-02f, 4.82702777e-02f, -7.00923279e-02f, 8.45189914e-02f, 1.28710354e-02f, -5.36031574e-02f, -3.50456946e-02f, 9.75813940e-02f,
    -1.06831618e-01f, -2.43079290e-02f, -1.13583922e-01f, 8.52850080e-02f, -2.11917050e-02f, 1.70239788e-02f, 5.34421094e-02f, 7.33449981e-02f,
    -2.16253493e-02f, 2.92540006e-02f, -1.29626384e-02f, 6.65057153e-02f, 1.72902755e-02f, -6.61325008e-02f, -3.64683568e-02f, 1.17281685e-02f,
    -3.34459692e-02f, -3.16810086e-02f, -1.80743277e-01f, -2.78586596e-01f, -7.91466758e-02f, 6.27423748e-02f, 4.21399146e-01f, 2.15529487e-01f,
    -9.40109789e-02f, 5.26657924e-02f, 4.73362692e-02f, -4.80129421e-02f, -1.12059675e-01f, -7.50730634e-02f, -2.09825084e-01f, -1.11493133e-01f,
    -1.03974104e-01f, 2.16030125e-02f, -4.88599613e-02f, -3.05620376e-02f, 3.16271349e-03f, -7.88671337e-03f, 2.53305644e-01f, -8.37602932e-03f,
    9.47555900e-02f, 2.75775015e-01f, -8.71438682e-02f, -1.88496649e-01f, -1.26916006e-01f, 2.98472643e-01f, 8.98169726e-03f, 1.60574228e-01f,
    8.91044661e-02f, -7.98949376e-02f, -3.74623835e-02f, -5.97842596e-02f, 3.53601240e-02f, 7.11063817e-02f, -6.42240569e-02f, -2.89201345e-02f,
    6.34219050e-02f, 3.95406969e-02f, -8.43170956e-02f, 5.73497638e-02f, 4.82594259e-02f, -1.54487425e-02f, 1.10491831e-02f, 1.40873212e-02f,
    -4.16070744e-02f, -8.09442922e-02f, -4.84014377e-02f, 1.66883081e-01f, 1.41109629e-02f, 7.19062388e-02f, 4.15378064e-02f, 6.83391169e-02f,
    -1.00724265e-01f, 4.53228839e-02f, -6.67852610e-02f, -4.54908088e-02f, 3.60410623e-02f, -6.84473589e-02f, -1.70836095e-02f, -7.03222975e-02f,
    1.28573440e-02f, -3.56215611e-02f, 3.01569283e-01f, 1.41265944e-01f, -5.80707826e-02f, 8.48186761e-03f, 4.94737700e-02f, 1.87694430e-01f,
    -3.87226604e-02f, -1.25184312e-01f, -4.85494994e-02f, 1.80592388e-02f, -7.73371682e-02f, -1.52488165e-02f, -1.96936175e-01f, 1.14148494e-03f,
    -2.18136944e-02f, -3.73509787e-02f, -1.77876577e-02f, -1.09518588e-01f, -7.01418966e-02f, 9.12109483e-03f, -1.21743895e-01f, -2.14931201e-02f,
    -4.62509580e-02f, -9.12939385e-02f, 6.84089586e-02f, -4.70240042e-02f, 2.22506404e-01f, 6.89208508e-02f, 1.32670552e-02f, 2.28700116e-02f,
    1.02550477e-01f, -1.21849447e-01f, 3.23540531e-02f, 1.87812075e-02f, 1.85265709e-02f, 4.63377237e-02f, -2.78612264e-02f, 5.26027866e-02f,
    -4.92218658e-02f, -1.47495037e-02f, -1.24372043e-01f, 3.91880274e-02f, -1.38886467e-01f, 1.06839865e-01f, -3.86919007e-02f, -5.36564887e-02f,
    5.26900254e-02f, -1.08062647e-01f, 1.55704394e-01f, -1.78423077e-01f, -1.01016965e-02f, -7.26178885e-02f, 7.96284527e-03f, -5.07685021e-02f,
    9.82042626e-02f, -3.06078810e-02f, 1.17875785e-01f, 1.82123166e-02f, 4.06400152e-02f, -5.57676982e-03f, 7.88153410e-02f, -8.53310972e-02f,
    -1.09694144e-02f, 5.40738329e-02f, -1.18186645e-01f, -1.10943675e-01f, 1.92545634e-02f, 2.90998276e-02f, -1.67057186e-01f, -7.30040222e-02f,
    -2.66532339e-02f, -9.22554508e-02f, -2.15499122e-02f, -2.57226098e-02f, -4.58365865e-02f, 2.53063645e-02f, -2.22976506e-02f, -1.31757930e-01f,
    2.46318355e-02f, 3.79996351e-03f, -5.25328405e-02f, -3.86080109e-02f, -2.44368874e-02f, -7.15095848e-02f, 1.92703754e-01f, 6.75307168e-03f,
    1.76558364e-02f, 2.20809355e-02f, -5.53125981e-03f, 3.52298953e-02f, 1.60443902e-01f, 2.63438672e-01f, -4.31364179e-02f, -1.29214257e-01f,
    1.13984540e-01f, -2.17191894e-02f, -5.45393676e-02f, -9.71981585e-02f, -6.91018179e-02f, 8.26326385e-03f, -1.73811406e-01f, 1.55655155e-02f,
    -1.19382679e-01f, -1.35778785e-01f, -5.44390921e-03f, -1.56474233e-01f, -1.09743282e-01f, -2.78702769e-02f, 7.05477372e-02f, 3.57667804e-02f,
    -2.58845519e-02f, 5.77543490e-03f, -3.21481959e-03f, -2.52460055e-02f, 1.93691477e-01f, 3.50807123e-02f, 1.85304239e-01f, -2.20673103e-02f,
    -1.41857741e-02f, 3.36293168e-02f, -4.47119400e-03f, 1.52876988e-01f, -7.67003326e-03f, 6.28787652e-02f, 7.07193092e-02f, -1.23765610e-01f
};

const int features_5_expand1x1_weight_shape[4] = { 128, 32, 1, 1 };
const int features_5_expand1x1_weight_ndim = 4;
const size_t features_5_expand1x1_weight_numel = 4096;
