#include "features_7_expand3x3_bias.h"

__attribute__((aligned(16))) const float features_7_expand3x3_bias[128] = {
    2.12577041e-02f, 5.20656556e-02f, 2.66640703e-03f, 6.73169317e-03f, -1.59066822e-02f, -3.20498575e-03f, 1.04950201e-02f, 1.20924162e-02f,
    2.02435888e-02f, -7.56747462e-03f, -1.65159423e-02f, 1.28479311e-02f, 1.89161953e-02f, -4.14794404e-03f, -5.44520933e-03f, 9.21874307e-03f,
    5.76004013e-03f, 1.06162112e-02f, -4.18022089e-03f, 2.00798712e-03f, -8.32350459e-03f, 4.17585252e-03f, -2.32790620e-03f, 2.49832589e-03f,
    9.11792181e-03f, -2.47850325e-02f, -5.74685342e-04f, 9.22599435e-03f, -6.75342651e-03f, -3.62483575e-03f, -5.09071769e-03f, 7.24999979e-03f,
    1.88318640e-02f, 1.28400372e-03f, 1.26593551e-02f, -3.88380419e-03f, 1.08902017e-02f, 1.61176138e-02f, -1.23173632e-02f, 3.01032048e-02f,
    6.57420605e-03f, 6.96878275e-03f, 2.17860267e-02f, 2.49017682e-02f, 1.39744878e-02f, 1.13699939e-02f, -9.28848702e-03f, -6.06668135e-03f,
    3.25661968e-03f, -1.28174685e-02f, -2.41827429e-03f, -9.73713771e-03f, -8.70323274e-03f, 1.09676262e-02f, -5.65565797e-03f, 6.16862811e-03f,
    5.24040172e-03f, 2.13983394e-02f, 4.83460398e-03f, 2.15694606e-02f, 7.26980488e-07f, 1.44270454e-02f, 1.26242982e-02f, 6.25414401e-02f,
    -5.34057664e-03f, -1.02565042e-03f, -1.95245501e-02f, -5.35476673e-03f, 5.16186142e-03f, 1.61706526e-02f, -1.00716623e-02f, 1.23064881e-02f,
    -9.82664805e-03f, 3.37144434e-02f, 1.34355677e-02f, -1.05357990e-02f, -4.85221110e-03f, 7.10579380e-03f, 1.23934774e-02f, -3.62262549e-03f,
    4.16372111e-03f, -7.52205215e-03f, 1.33307241e-02f, -2.62586819e-03f, -3.29326955e-03f, 5.77635504e-03f, -3.20306956e-03f, 1.28150070e-02f,
    -1.53393019e-02f, 3.56365490e-04f, -3.40027595e-03f, -5.05544245e-03f, 1.02068484e-02f, -1.02980090e-02f, 2.35667406e-03f, 1.19166719e-02f,
    2.17530485e-02f, -4.82326932e-03f, -9.70831700e-03f, 1.07436264e-02f, -5.74772805e-02f, 4.61618304e-02f, -7.09124189e-03f, -5.82750712e-04f,
    5.34687564e-02f, -9.88522265e-03f, -4.14128527e-02f, 6.79360423e-03f, -1.47209587e-02f, 1.67645141e-02f, 2.97512058e-02f, -1.14037283e-02f,
    8.80688056e-03f, 9.05814767e-03f, 1.61621142e-02f, -1.45029323e-02f, -3.02053220e-03f, -2.60324730e-03f, -6.05790701e-04f, -4.25720625e-02f,
    9.29801259e-03f, -2.00937944e-03f, 4.17217286e-03f, 1.38369408e-02f, 5.10976883e-04f, 4.89355251e-03f, -2.08151564e-02f, -4.95227613e-03f
};

const int features_7_expand3x3_bias_shape[1] = { 128 };
const int features_7_expand3x3_bias_ndim = 1;
const size_t features_7_expand3x3_bias_numel = 128;
