#include "features_5_expand3x3_weight.h"

__attribute__((aligned(16))) const float features_5_expand3x3_weight[36864] = {
    1.06760755e-01f, 8.66049454e-02f, 3.30755934e-02f, -2.59516239e-02f, -3.18580493e-02f, -5.95609359e-02f, -8.44021961e-02f, -4.62966003e-02f,
    -6.29627332e-02f, 4.11399407e-03f, -2.88883746e-02f, -2.21797312e-03f, 2.04235921e-03f, -1.13016751e-03f, -3.58329564e-02f, 4.08549197e-02f,
    2.98033599e-02f, 2.69063320e-02f, -1.02622785e-01f, -1.09864824e-01f, -1.29143953e-01f, 1.04073375e-01f, 8.43132064e-02f, 5.19930832e-02f,
    1.78870291e-01f, 1.25061065e-01f, 1.04041755e-01f, -2.54820716e-02f, 7.98699539e-03f, -2.46465895e-02f, -4.23065908e-02f, -5.21580018e-02f,
    -1.02956034e-03f, -2.30130926e-03f, -2.97459308e-03f, 2.79625412e-02f, 1.69617329e-02f, -5.84579147e-02f, -2.39757635e-02f, 1.88437551e-02f,
    -1.37784155e-02f, -1.95659492e-02f, 5.22806542e-03f, 3.53438011e-03f, 1.08244773e-02f, -3.09520252e-02f, -1.74345933e-02f, -1.04575977e-02f,
    -2.52895355e-02f, -4.76148911e-02f, -7.17429370e-02f, -6.22975901e-02f, -1.29963547e-01f, -1.02966107e-01f, -1.50538208e-02f, 3.95798422e-02f,
    3.02410442e-02f, -2.72803828e-02f, -3.13977059e-03f, -4.28584181e-02f, 6.47750217e-03f, -1.58353057e-02f, -2.43159626e-02f, 1.21246632e-02f,
    4.91200797e-02f, 7.70171930e-04f, -2.60381680e-02f, 9.39006824e-03f, 1.23593854e-02f, -2.89540030e-02f, -7.74975717e-02f, 1.29529508e-02f,
    6.27935007e-02f, 8.86868313e-02f, 9.21825245e-02f, 5.88806067e-03f, -5.69928810e-03f, -6.12469809e-03f, -9.61748697e-03f, -4.42005170e-04f,
    -5.94458692e-02f, 7.11562857e-03f, 1.17037237e-01f, 8.63935649e-02f, -5.65419346e-02f, -1.22964576e-01f, -6.37782812e-02f, -8.91218707e-02f,
    -1.60932809e-01f, -9.09574553e-02f, 2.73800232e-02f, 8.67334101e-03f, 1.45292962e-02f, -2.47207331e-03f, -3.09106503e-02f, -2.75167599e-02f,
    -7.02803768e-03f, -2.16378178e-02f, -1.49515579e-02f, 5.60826771e-02f, 5.51644601e-02f, 3.10393926e-02f, 1.96682848e-03f, -2.67484179e-03f,
    2.86344551e-02f, -3.47251222e-02f, 1.06526054e-02f, 2.65627448e-02f, 2.87474189e-02f, 2.67527252e-02f, 6.48257583e-02f, -4.29492444e-02f,
    -3.89827453e-02f, 1.07922824e-02f, -1.51182646e-02f, -2.78282389e-02f, 1.68427061e-02f, -1.43107018e-02f, 2.77028456e-02f, 2.91610416e-02f,
    4.21537757e-02f, 1.18668536e-02f, -3.14164385e-02f, 4.43679132e-02f, -2.43809680e-03f, -3.61081660e-02f, -6.77595660e-03f, -1.54679865e-02f,
    1.20643061e-02f, -6.56038970e-02f, -6.93568513e-02f, -6.63727298e-02f, 8.50938167e-03f, 5.20322546e-02f, -6.30643917e-05f, 1.36161298e-01f,
    5.02724685e-02f, 9.00472254e-02f, 1.46649536e-02f, -2.18432192e-02f, 6.06173370e-03f, -4.54740785e-02f, -4.90983427e-02f, -7.65198544e-02f,
    2.13036891e-02f, -8.96569062e-03f, -4.95680887e-03f, -2.43293848e-02f, -6.87399320e-03f, -1.22080278e-02f, -4.81522940e-02f, -3.86670157e-02f,
    -6.09315783e-02f, -4.07382399e-02f, -5.56283891e-02f, -2.45048609e-02f, 2.06077415e-02f, -9.56076384e-03f, 3.15754651e-03f, 4.03247587e-02f,
    2.74278820e-02f, 1.94326341e-02f, 4.94621508e-02f, 3.45311575e-02f, 5.46415523e-02f, -9.80679179e-04f, -1.54962493e-02f, -1.98355131e-02f,
    2.64908304e-03f, -1.46694053e-02f, -1.72941405e-02f, -4.04148512e-02f, -4.82282639e-02f, 2.30822270e-03f, 9.68789402e-03f, -2.58786231e-02f,
    3.10313310e-02f, 5.85086495e-02f, -1.31079904e-03f, 8.84682965e-03f, 8.21331814e-02f, 8.99636596e-02f, -2.54443102e-02f, -8.83938223e-02f,
    -1.21230684e-01f, -7.27084465e-03f, -7.58330375e-02f, -9.49881747e-02f, -9.60346684e-03f, 3.40500064e-02f, 1.85033493e-02f, 9.79003385e-02f,
    2.00945027e-02f, -2.22791675e-02f, 5.41818812e-02f, 3.76519971e-02f, 2.48834584e-02f, 8.57762434e-03f, 6.33882880e-02f, -7.68740941e-03f,
    3.68884690e-02f, 7.12423101e-02f, 3.70908342e-02f, 3.60438228e-02f, -2.16898564e-02f, -3.52142192e-02f, -4.02302518e-02f, 1.46385143e-02f,
    7.54546076e-02f, -5.02698533e-02f, -3.88306342e-02f, -9.66278240e-02f, -1.06226988e-01f, -2.58886255e-02f, -1.28979951e-01f, -1.07615590e-01f,
    -1.66272610e-01f, -1.53754145e-01f, -1.58656299e-01f, -1.22272670e-02f, 2.40799598e-02f, 2.32032686e-02f, 1.10209942e-01f, 1.07312985e-01f,
    1.06068112e-01f, 4.93559949e-02f, 2.87372768e-02f, 5.44836111e-02f, -3.85880768e-02f, -6.85398281e-02f, -7.97258131e-03f, -7.94320926e-02f,
    -4.53345850e-02f, -1.58865545e-02f, -4.95066494e-02f, -6.89578727e-02f, 6.64397329e-03f, -2.27832273e-02f, -8.01953673e-03f, 9.76321381e-03f,
    9.59516410e-03f, -2.18203124e-02f, 1.13195227e-02f, 4.94641922e-02f, 1.15974713e-02f, 2.36555040e-02f, -1.52575262e-02f, 1.22299585e-02f,
    2.56853811e-02f, -3.58440983e-03f, 3.12688382e-04f, -1.12131257e-02f, -5.99516276e-03f, 1.47313606e-02f, 7.90702819e-04f, -3.41740623e-02f,
    -9.36448481e-03f, -1.89582836e-02f, -2.34994944e-02f, -3.63718569e-02f, -2.33699474e-03f, -3.11355963e-02f, 1.29661709e-02f, 9.00847139e-04f,
    -2.98673827e-02f, -8.68791528e-03f, -4.99420315e-02f, -4.88641858e-02f, -1.99631080e-02f, -1.91565286e-02f, 1.10269986e-01f, 7.58866966e-02f,
    7.26126730e-02f, 6.72249720e-02f, -5.34560271e-02f, 2.95067690e-02f, 1.29527156e-03f, -3.35343368e-02f, 3.69047001e-02f, 1.06354140e-01f,
    4.99814302e-02f, 3.75551283e-02f, 5.52001111e-02f, 1.74911674e-02f, 6.74203858e-02f, 4.97209467e-02f, 3.78518589e-02f, 1.00565411e-01f,
    -2.03587580e-02f, -1.33333411e-02f, 1.34110954e-02f, -4.02667895e-02f, 1.32083427e-02f, 7.23952353e-02f, -1.30836451e-02f, -8.37863702e-03f,
    5.20167537e-02f, -5.99356182e-03f, 9.66258161e-03f, 4.41952003e-03f, -5.44101885e-03f, 2.25186665e-02f, -2.17733718e-02f, -4.78050997e-03f,
    1.04932897e-02f, -7.79631082e-03f, -2.82850284e-02f, -4.47645523e-02f, 7.72954673e-02f, -1.00326426e-01f, -1.44242505e-02f, 9.70775634e-02f,
    -6.55629039e-02f, 3.86175923e-02f, 1.09719299e-02f, -5.86413406e-02f, 6.00399747e-02f, -6.48950264e-02f, 9.40974206e-02f, -3.06692980e-02f,
    -7.79458582e-02f, 9.49182957e-02f, -1.15978040e-01f, 7.29257092e-02f, 7.76200518e-02f, 3.55169526e-03f, -7.63003230e-02f, 1.90044835e-01f,
    -3.88528369e-02f, -1.25355422e-01f, 7.44788200e-02f, 2.04962417e-02f, -1.93510391e-02f, 2.38954369e-02f, -4.15229276e-02f, 1.09190069e-01f,
    -7.78049827e-02f, -1.02243334e-01f, 2.10046154e-02f, -6.30540848e-02f, 9.17888358e-02f, -9.68820676e-02f, -2.93648653e-02f, -1.44110611e-02f,
    -3.96445692e-02f, 2.79975999e-02f, -1.96534768e-03f, 1.90594897e-03f, 1.33823883e-02f, -4.76851761e-02f, -1.38950013e-02f, 5.64368144e-02f,
    -1.14589527e-01f, 3.36952917e-02f, -9.45198536e-03f, -8.09296221e-02f, 5.11544803e-03f, -5.02471663e-02f, 9.12498534e-02f, -2.36182455e-02f,
    -5.52060679e-02f, 2.53528897e-02f, 1.41859753e-02f, -7.10548237e-02f, -1.21214762e-01f, 3.10988259e-02f, -5.37697114e-02f, -1.94416866e-02f,
    1.76895708e-02f, -6.72103837e-02f, 3.78779285e-02f, -1.34225870e-02f, 7.68190026e-02f, 9.11624953e-02f, -1.23798892e-01f, 1.50516912e-01f,
    -7.37239569e-02f, -8.49491134e-02f, -1.29892584e-02f, -2.52353344e-02f, 1.91046894e-02f, -2.04013549e-02f, -9.52952541e-03f, -1.22026950e-02f,
    -8.31602793e-03f, 5.63556142e-02f, -5.11702383e-03f, 9.18390825e-02f, 2.97781192e-02f, -5.31600192e-02f, 1.30001977e-01f, 3.03689502e-02f,
    -2.33881891e-01f, 1.20947599e-01f, 3.92733654e-03f, -8.82908702e-02f, 1.03575297e-01f, -3.73828858e-02f, 5.40086441e-02f, 2.38814242e-02f,
    -2.13957839e-02f, 2.31788978e-02f, -2.54519959e-03f, 1.00593463e-01f, -4.70951535e-02f, -4.27877977e-02f, -4.93171848e-02f, -2.07573920e-03f,
    -1.31360456e-01f, -3.48644890e-02f, 4.18169312e-02f, -3.93470749e-02f, 2.28756014e-03f, 3.26118874e-03f, -6.99752849e-03f, -3.45813781e-02f,
    1.40690003e-02f, -6.10433295e-02f, 5.04650995e-02f, 1.08590528e-01f, -2.86076441e-02f, 4.15036939e-02f, 2.66691074e-02f, -3.83144803e-02f,
    -1.84643567e-02f, -1.88475661e-02f, -1.59712620e-02f, -7.92059153e-02f, 1.75883189e-01f, -5.54710953e-03f, -6.54782429e-02f, 4.18727174e-02f,
    -2.18746327e-02f, 1.15609886e-02f, -6.18144125e-02f, 1.09628215e-01f, -4.54856567e-02f, -4.68477346e-02f, -2.55628079e-02f, -3.29239070e-02f,
    8.83979723e-03f, 2.16343012e-02f, 5.87289687e-04f, 1.38226412e-02f, -1.71752237e-02f, 2.65727155e-02f, -1.10459700e-02f, -1.54433660e-02f,
    2.81271618e-02f, 3.17746511e-04f, -6.08662085e-04f, -3.12927738e-03f, -7.44102104e-03f, -1.24307405e-02f, -2.57876404e-02f, -2.23250710e-03f,
    -1.45755485e-02f, 2.66278815e-02f, -2.69279759e-02f, 1.58361495e-02f, 4.97171991e-02f, 5.47660857e-05f, -2.00416129e-02f, 1.29263345e-02f,
    -2.11242810e-02f, -1.43304206e-02f, 1.15756271e-02f, -4.55612363e-03f, 4.06851657e-02f, -3.45525146e-02f, -6.89587295e-02f, 6.26242459e-02f,
    -2.02535968e-02f, -3.91021520e-02f, -5.82522079e-02f, -4.86817248e-02f, -2.19615716e-02f, 1.30743766e-02f, -5.29172793e-02f, 1.39587102e-02f,
    -3.52354906e-02f, 7.66874664e-03f, 3.92804183e-02f, -4.94026840e-02f, 8.64506215e-02f, 2.41325628e-02f, -6.17149472e-02f, -1.97608452e-02f,
    7.46577680e-02f, -9.33421627e-02f, -4.82089482e-02f, 1.12142920e-01f, 2.35595345e-03f, 5.39385946e-03f, 2.03866623e-02f, -1.03709802e-01f,
    -1.95801407e-02f, 8.32052156e-03f, -1.23987518e-01f, 7.37556219e-02f, 1.72900319e-01f, -4.27274778e-02f, -1.43021345e-01f, 3.74000706e-02f,
    2.95365062e-02f, -1.08805791e-01f, -9.48072821e-02f, 2.43555754e-02f, -5.61629273e-02f, -2.51024868e-02f, -6.48221001e-02f, 4.18501422e-02f,
    -1.36445770e-02f, -4.83683571e-02f, 7.66861066e-02f, -3.60341296e-02f, 2.77230460e-02f, 2.24704836e-02f, -6.01577722e-02f, 8.44419375e-02f,
    -3.97201739e-02f, 2.75595766e-02f, 2.39518308e-03f, 3.70947942e-02f, -9.75736300e-04f, -2.83921380e-02f, -3.91043276e-02f, 6.67762831e-02f,
    -8.31472278e-02f, 6.34828359e-02f, 4.49128151e-02f, -5.93069606e-02f, 3.11300121e-02f, -6.01605214e-02f, -1.03901461e-01f, 9.71198305e-02f,
    -7.36003369e-02f, -4.32260055e-03f, -1.50091767e-01f, -2.99806762e-02f, 4.16088328e-02f, 6.29515350e-02f, 1.95370838e-02f, 1.86243162e-01f,
    9.11370013e-03f, -7.16010258e-02f, 5.29233506e-03f, -1.01530202e-01f, -4.83077280e-02f, -5.97532354e-02f, -3.15583274e-02f, -2.31573936e-02f,
    -7.04022199e-02f, -3.64239118e-03f, 5.34238145e-02f, 2.99013257e-02f, -8.12337641e-03f, 1.34330466e-02f, -2.93082613e-02f, -4.88661937e-02f,
    1.42278388e-01f, -4.85919714e-02f, 1.48468137e-01f, 1.90806179e-03f, -1.48529289e-02f, 2.02360809e-01f, -2.48221401e-02f, 6.42228173e-04f,
    7.86368772e-02f, -8.67270902e-02f, 1.19439982e-01f, -3.27477455e-02f, -9.67943370e-02f, 2.41815224e-02f, -2.88238116e-02f, 7.18984113e-04f,
    -6.01464370e-03f, -2.23831832e-02f, 7.24168029e-03f, 6.10284805e-02f, -6.14386499e-02f, 2.63257436e-02f, 2.95487512e-02f, 4.85392027e-02f,
    -1.41291656e-02f, 3.42590059e-03f, -2.17208993e-02f, -3.87409963e-02f, 2.25187317e-02f, 1.25091607e-02f, -3.00607160e-02f, -1.50689343e-02f,
    -6.81180367e-03f, 1.84410326e-02f, -6.12066761e-02f, -5.13681844e-02f, -5.12159951e-02f, -1.28558874e-01f, -1.07286587e-01f, 1.56996086e-01f,
    8.89182538e-02f, 1.32289261e-01f, 2.28573685e-03f, 5.12997210e-02f, -1.87986586e-02f, -4.02105153e-02f, -2.96402220e-02f, -1.34961784e-01f,
    4.45527770e-02f, -1.34315770e-02f, -4.26274315e-02f, 8.04302748e-03f, 2.06022680e-01f, 3.07212949e-01f, 1.02891281e-01f, 2.16306150e-02f,
    -1.16255123e-03f, 4.36885096e-02f, -1.37378588e-01f, -1.44889385e-01f, -1.26536071e-01f, 4.06025387e-02f, -1.23718493e-01f, -1.49107814e-01f,
    -4.09593806e-02f, 4.79465164e-02f, 3.57754380e-02f, 1.86320581e-02f, 4.65881079e-02f, 3.16021265e-03f, 1.92288088e-03f, 6.14297614e-02f,
    6.80484176e-02f, 5.43942787e-02f, -1.38877146e-02f, -3.19559723e-02f, -3.34645100e-02f, -4.03020158e-02f, -1.59405594e-04f, 5.65260649e-03f,
    5.54418005e-02f, -2.17694789e-03f, -9.32116956e-02f, -6.85406104e-02f, 9.43187550e-02f, -8.94060507e-02f, -9.40539222e-03f, 4.13041152e-02f,
    -5.87485433e-02f, -6.57947883e-02f, -2.72838864e-02f, 7.05452263e-02f, 7.69336373e-02f, -1.38369545e-01f, -8.17322824e-03f, 3.17983069e-02f,
    7.36827925e-02f, -4.35928628e-02f, -4.39016074e-02f, 1.07232973e-01f, 4.58950996e-02f, 1.03242978e-01f, -9.41161066e-02f, 2.34266389e-02f,
    -5.66163249e-02f, -4.21583243e-02f, 2.03553103e-02f, -1.63582563e-02f, -5.45170568e-02f, -7.79921596e-04f, 6.72312528e-02f, -7.35179102e-03f,
    -3.76163535e-02f, -1.87757192e-03f, 3.66018037e-03f, 1.27048597e-01f, 7.92336836e-02f, 5.51721752e-02f, 3.70158069e-02f, -1.84011292e-02f,
    -5.94280176e-02f, -1.17121324e-01f, -1.79287747e-01f, -8.19391012e-02f, 5.96918948e-02f, 1.60671752e-02f, -1.37374811e-02f, -2.69508474e-02f,
    5.05888052e-02f, 1.26967624e-01f, 1.80047359e-02f, -1.08362138e-02f, -2.52007321e-02f, -2.01731902e-02f, -7.48928711e-02f, -5.68684265e-02f,
    1.07731730e-01f, 2.10036486e-02f, -1.44321263e-01f, -3.43627036e-02f, -5.13715623e-03f, 1.14847362e-01f, -4.26266789e-02f, 7.51964971e-02f,
    -3.09682526e-02f, 8.35004896e-02f, -2.13831980e-02f, -1.18839286e-01f, 2.53595803e-02f, 5.43547943e-02f, 8.40042252e-03f, -1.22287147e-01f,
    -4.16275859e-02f, -7.77851641e-02f, 2.11604256e-02f, -1.78968497e-02f, -1.70737468e-02f, 5.15120663e-02f, 1.10546038e-01f, 4.95571978e-02f,
    1.16084935e-02f, 5.65997623e-02f, -4.15976159e-02f, -3.38857174e-02f, -9.21161845e-02f, -1.11799678e-02f, -7.65578821e-02f, -4.04548720e-02f,
    -4.26472016e-02f, 1.97037756e-02f, -1.52681936e-02f, -1.45026753e-02f, -1.29026286e-02f, 4.06594612e-02f, 5.12470491e-03f, 2.98429001e-02f,
    -3.49994865e-03f, -2.31245812e-02f, 1.71873774e-02f, 7.12672062e-03f, -8.76809508e-02f, 1.83736086e-02f, 2.33404934e-02f, -9.91537049e-03f,
    1.48776015e-02f, 9.56334756e-04f, -2.48633102e-02f, 1.42731965e-02f, 2.27671098e-02f, -2.84913648e-02f, -6.50286535e-03f, -1.17327692e-02f,
    -2.53626313e-02f, 3.38741243e-02f, -8.12948856e-05f, -3.15867364e-02f, -4.19295430e-02f, -9.81644839e-02f, -4.01164033e-02f, 2.11945623e-02f,
    -1.32596433e-01f, 2.50965245e-02f, -1.45751666e-02f, 6.98189251e-03f, -4.44369912e-02f, -1.04102291e-01f, -9.39347446e-02f, -2.88184099e-02f,
    -5.40132560e-02f, -6.22172840e-02f, -4.46048379e-02f, 1.96978133e-02f, 3.68911363e-02f, -2.64459718e-02f, -9.26540121e-02f, -5.00576943e-02f,
    -5.19265682e-02f, 2.40091351e-03f, -1.99880078e-03f, -4.35685329e-02f, 1.44114494e-01f, 8.18680078e-02f, -2.83067040e-02f, 3.05805262e-02f,
    -8.54040403e-03f, -9.33974702e-03f, 1.35889044e-02f, -9.03494284e-02f, -2.63940189e-02f, -4.28028926e-02f, 2.37452202e-02f, 4.38564196e-02f,
    -3.12041100e-02f, 1.56794693e-02f, -6.25640228e-02f, -7.38227144e-02f, -8.86229500e-02f, 3.40234935e-02f, 1.95852090e-02f, -2.06068438e-02f,
    -5.75864539e-02f, -5.37053645e-02f, -7.64956027e-02f, 1.15693964e-01f, 5.29964529e-02f, 5.29210530e-02f, -8.82984772e-02f, -1.32075563e-01f,
    -6.78645298e-02f, 7.02706277e-02f, -2.73220800e-02f, 2.73386817e-02f, 1.75358597e-02f, -3.58018018e-02f, -4.73472588e-02f, 4.00242545e-02f,
    1.42015106e-05f, 2.92893052e-02f, 3.51700303e-03f, -9.49092805e-02f, -5.06901257e-02f, 1.55903414e-01f, 7.47241452e-03f, 1.00327298e-01f,
    -3.24863344e-02f, 6.46540076e-02f, -1.60454959e-02f, -2.41775922e-02f, 8.21692199e-02f, 1.39760837e-01f, -6.84933215e-02f, -5.19397892e-02f,
    -1.42740712e-01f, 3.18847261e-02f, -1.09082788e-01f, -4.46461700e-02f, -1.72291249e-02f, -7.92220980e-02f, -9.07513946e-02f, -1.47509221e-02f,
    3.99884544e-02f, 3.76814343e-02f, -2.23407615e-02f, 2.86367722e-02f, 1.30538484e-02f, 1.64550673e-02f, -9.86005142e-02f, -1.80062316e-02f,
    4.49340679e-02f, -3.80618088e-02f, 3.58124971e-02f, 1.09420232e-01f, 1.37578756e-01f, 2.29880884e-02f, -1.07016511e-01f, 7.70591348e-02f,
    7.12443963e-02f, 3.92364487e-02f, 1.83568653e-02f, 4.59475294e-02f, -1.68156382e-02f, -3.51716168e-02f, -9.26084220e-02f, 3.21961311e-03f,
    -9.01718512e-02f, 2.04929840e-02f, -1.60130728e-02f, -1.07469531e-02f, 3.12104728e-02f, 1.96388941e-02f, -7.54530728e-02f, -1.53871113e-03f,
    3.30760702e-02f, -5.01990095e-02f, 2.22563557e-02f, 1.31068388e-02f, -1.99396759e-02f, 1.41548235e-02f, -2.35262308e-02f, -2.31249705e-02f,
    9.18653235e-03f, 1.47027606e-02f, -1.58347357e-02f, 5.69689088e-02f, 9.94802453e-03f, -1.97879151e-02f, 4.01232541e-02f, 1.08645130e-02f,
    2.17465609e-02f, -1.31495036e-02f, -2.23330408e-02f, 1.02061987e-01f, -4.08919640e-02f, -7.65819848e-02f, -7.08164414e-03f, -3.98562849e-02f,
    2.13340241e-02f, -7.53241703e-02f, 2.94710137e-02f, 6.52689189e-02f, 7.25500984e-03f, -1.61128882e-02f, 3.28979641e-02f, -3.58065125e-03f,
    -3.19329947e-02f, 3.85040678e-02f, 1.25083569e-02f, -1.89694185e-02f, -3.98318749e-03f, -4.86192061e-03f, -6.61402661e-03f, 2.62651294e-02f,
    -2.48107091e-02f, 2.83433571e-02f, 1.37315625e-02f, -1.33188255e-02f, -2.14701369e-02f, 2.63541806e-02f, 1.30675778e-01f, -2.31218580e-02f,
    2.48920619e-02f, 7.94011354e-02f, -5.36103286e-02f, -5.31117292e-03f, 4.26547462e-03f, -3.12469732e-02f, 1.13760177e-02f, 2.22982485e-02f,
    -4.47462779e-04f, -3.55649702e-02f, 7.59503990e-02f, 6.20532455e-03f, -4.73796800e-02f, 2.23859791e-02f, 3.23592834e-02f, 1.56737026e-02f,
    -1.83497593e-02f, 8.82079173e-03f, -3.08690555e-02f, -7.43135363e-02f, 5.37896110e-03f, -2.78322585e-02f, -1.66828409e-02f, 1.16143376e-02f,
    2.72054151e-02f, -1.72587447e-02f, -9.22295004e-02f, -1.07622407e-02f, -6.17323667e-02f, -7.51213357e-02f, 3.15540507e-02f, -2.91761607e-02f,
    3.06532066e-03f, 3.59587707e-02f, -3.94295268e-02f, -5.86075485e-02f, -8.01635720e-03f, -1.07071397e-03f, -2.06539463e-02f, 6.72159949e-03f,
    -1.12987040e-02f, 1.04834493e-02f, 1.40648205e-02f, -2.50396561e-02f, 2.07584240e-02f, 9.88265127e-02f, -7.76812620e-03f, -4.08048406e-02f,
    2.19992027e-02f, 1.68369133e-02f, -1.99276973e-02f, 1.02072563e-02f, 9.19849984e-03f, 3.02507449e-02f, -2.29182709e-02f, -1.73784643e-02f,
    -3.16213444e-02f, -1.72132477e-02f, -1.46840643e-02f, -2.16350071e-02f, -3.72190704e-03f, 6.84103146e-02f, -8.79626498e-02f, -5.74008636e-02f,
    6.31828085e-02f, -9.39249769e-02f, -7.96310827e-02f, 2.02204473e-02f, -3.30963805e-02f, -5.04377075e-02f, 9.18176472e-02f, -2.24829894e-02f,
    -2.66770050e-02f, 4.46023606e-02f, -2.05477793e-02f, -2.23545209e-02f, 2.39900686e-02f, -4.90294676e-03f, -2.38298047e-02f, 1.41761824e-01f,
    -1.05744889e-02f, -7.13085532e-02f, -6.30917028e-03f, -1.61459465e-02f, -1.29617648e-02f, -2.16343980e-02f, 2.46364158e-02f, 2.44376529e-02f,
    3.49656224e-01f, 3.79672460e-02f, -1.70633987e-01f, 1.62122160e-01f, -5.37751429e-02f, -9.02756602e-02f, -3.79774347e-02f, -7.02719316e-02f,
    -3.22946645e-02f, 8.42125621e-03f, 1.95871592e-02f, -1.70958489e-02f, 2.56334115e-02f, 6.53260574e-03f, -2.71991566e-02f, 7.76491035e-03f,
    1.04658427e-02f, -1.08811120e-03f, 4.81362231e-02f, -9.81606264e-03f, -2.40479857e-02f, 3.38249840e-02f, -3.57425921e-02f, -3.48317735e-02f,
    1.20582087e-02f, -1.26073351e-02f, 9.60569363e-03f, 2.11453557e-01f, -5.29728085e-02f, -7.58571103e-02f, 1.02694280e-01f, -1.29794419e-01f,
    -7.50649646e-02f, 5.57635836e-02f, -5.79593368e-02f, -4.10232767e-02f, -7.80944247e-03f, 1.19553006e-03f, 1.69075683e-01f, -2.15379372e-02f,
    4.71645370e-02f, 1.04608275e-01f, 5.79914590e-03f, -8.83852970e-03f, -1.17024351e-02f, -7.97762200e-02f, -4.34022881e-02f, 1.64859556e-03f,
    -4.28790934e-02f, -3.94494683e-02f, -3.53385359e-02f, 3.36167216e-02f, -3.33967209e-02f, -1.37725975e-02f, -2.31779311e-02f, -1.45928534e-02f,
    9.27354693e-02f, 2.67912094e-02f, 2.34494098e-02f, 4.47418280e-02f, 5.92901111e-02f, 3.01787648e-02f, 2.84404047e-02f, 1.23687290e-01f,
    2.09372025e-03f, -1.55774346e-02f, 1.73558816e-02f, -5.51500916e-02f, -4.10316288e-02f, -3.91153619e-02f, -6.25912249e-02f, -1.33023434e-03f,
    -1.42843619e-01f, -4.49313894e-02f, -1.20031219e-02f, -4.64953296e-02f, 5.35527244e-03f, -4.53318357e-02f, -9.18465294e-03f, 1.69478040e-02f,
    -1.54948626e-02f, 2.31850952e-01f, -6.50663525e-02f, -1.48046166e-01f, 7.89272860e-02f, -8.66103694e-02f, -1.19686566e-01f, -5.04136458e-03f,
    -3.01662013e-02f, -5.13156950e-02f, 1.31597393e-03f, -5.87420203e-02f, -3.74472514e-02f, 1.62390415e-02f, -1.26006443e-03f, 4.76691760e-02f,
    -7.14841560e-02f, -3.04053295e-02f, 8.86100233e-02f, 2.15082154e-01f, -5.80833852e-02f, -9.32622477e-02f, 5.09461164e-02f, -9.12933350e-02f,
    -3.73278782e-02f, 1.26175806e-02f, -1.15420390e-02f, 1.49886962e-02f, 1.30788386e-01f, 3.73977865e-03f, -4.92385924e-02f, 6.89149871e-02f,
    2.89228745e-03f, -3.15599628e-02f, -8.20194092e-03f, 1.01949163e-02f, -9.41100437e-03f, 9.40023921e-03f, -2.15248585e-01f, -5.61349653e-02f,
    2.05713753e-02f, -1.25472546e-01f, -3.74923237e-02f, -2.97443178e-02f, -9.63953696e-03f, 1.65176373e-02f, 3.07769123e-02f, -3.65068130e-02f,
    -3.26391459e-02f, 3.37978229e-02f, 1.78081717e-03f, 2.60559991e-02f, 5.25679719e-03f, 6.46599308e-02f, 1.05994619e-01f, 9.79440585e-02f,
    -2.76709888e-02f, -4.76512052e-02f, -5.36398403e-02f, -5.09810410e-02f, -7.03296810e-02f, 2.10484825e-02f, -1.08311167e-02f, -5.95837049e-02f,
    -5.87664060e-02f, 6.93889800e-03f, 3.44711877e-02f, -6.75088959e-03f, 4.50314805e-02f, -9.54855606e-03f, 5.48098199e-02f, 8.73787515e-03f,
    -1.65496562e-02f, 3.56824370e-03f, 4.09565913e-03f, -1.01908259e-02f, 2.73251869e-02f, 1.64434612e-02f, -1.50274979e-02f, -1.87301468e-02f,
    3.03827017e-03f, 7.35118613e-03f, -4.07266356e-02f, -7.17339367e-02f, 2.28272583e-02f, -1.05199873e-01f, -6.13137558e-02f, 8.40701386e-02f,
    -7.25678802e-02f, 5.65573275e-02f, 9.73168164e-02f, -1.52382359e-01f, 1.01068795e-01f, -7.80129805e-02f, -3.24910097e-02f, 2.87526026e-02f,
    -8.84655491e-02f, 2.97070034e-02f, -3.34367268e-02f, 8.78459811e-02f, 2.77797859e-02f, 3.28660291e-03f, 3.53412470e-03f, 2.52936743e-02f,
    -2.26495769e-02f, 3.47744524e-02f, 1.16037773e-02f, 4.93023582e-02f, -2.55454015e-02f, -2.29513161e-02f, -1.47327021e-01f, -6.00959361e-02f,
    -6.38457537e-02f, -9.65098590e-02f, 9.45110712e-03f, -1.18905399e-02f, 3.21623683e-02f, -2.86658220e-02f, 5.17822988e-02f, 5.06523959e-02f,
    -4.33314070e-02f, 4.70755901e-03f, -7.55144060e-02f, -5.77189680e-03f, -8.70416909e-02f, -1.19360052e-01f, 6.32630214e-02f, 8.17830712e-02f,
    -1.00034997e-02f, -8.84208921e-03f, 1.58334076e-02f, -3.77328657e-02f, -3.54610644e-02f, -3.20006646e-02f, -1.28694708e-02f, 3.50150615e-02f,
    -3.93931307e-02f, 3.38732451e-02f, 3.98600511e-02f, 2.18945593e-02f, -3.69289257e-02f, -9.51066613e-02f, 3.17138620e-02f, 2.57285573e-02f,
    -7.65371844e-02f, -7.06898719e-02f, 8.15288946e-02f, 2.54646912e-02f, 1.51553471e-02f, 1.36227757e-01f, -6.81324750e-02f, 1.71245903e-01f,
    -7.54865631e-02f, -2.20879493e-03f, -2.90813129e-02f, -3.21380980e-02f, 3.94992344e-02f, -5.64067252e-02f, 4.63071167e-02f, 6.41169818e-03f,
    -1.18406517e-02f, 6.75550923e-02f, -3.21438350e-02f, 9.33994874e-02f, 1.14464805e-01f, -5.62923923e-02f, 6.25092015e-02f, 3.82755436e-02f,
    -9.77892727e-02f, -3.25878561e-02f, -4.38306443e-02f, -4.67927940e-02f, -2.31727529e-02f, -3.45439687e-02f, -3.59308091e-03f, -5.33224232e-02f,
    3.31841074e-02f, 5.44828549e-02f, 2.48787832e-03f, 3.81125435e-02f, 2.81916782e-02f, -3.42350602e-02f, -4.13130177e-03f, 4.13047113e-02f,
    2.05958728e-02f, -1.18323993e-02f, -1.11628789e-02f, 1.17918625e-02f, 5.37110940e-02f, -1.04400665e-01f, 9.66709293e-03f, 3.33564691e-02f,
    3.89859229e-02f, 2.32676808e-02f, 2.08060932e-03f, -8.06060247e-03f, -2.64702495e-02f, -4.01783958e-02f, -1.39442738e-02f, -1.06230015e-02f,
    -1.36587977e-01f, 6.34310022e-02f, -9.38665718e-02f, -1.18260160e-01f, 7.18206242e-02f, -4.05541211e-02f, 1.25011250e-01f, 5.37315123e-02f,
    -4.87897582e-02f, 8.29750299e-02f, 6.85331272e-03f, 1.41391875e-02f, 3.20735462e-02f, -4.99685481e-02f, 1.94082893e-02f, -3.12202964e-02f,
    -2.54794639e-02f, 5.73686417e-03f, 5.51684573e-03f, -1.20178964e-02f, 1.19258873e-02f, -9.07353964e-03f, -1.43282162e-02f, 1.14505589e-02f,
    -1.62550695e-02f, -4.42360388e-03f, 8.82202946e-03f, -3.14836204e-02f, -1.60858855e-02f, 1.02937752e-02f, -4.13821032e-03f, -1.36021227e-02f,
    -2.65559200e-02f, 4.61082999e-03f, -3.80695015e-02f, 5.68136089e-02f, -5.40296920e-02f, 1.53015694e-02f, -2.33861394e-02f, 9.45371110e-04f,
    5.61720505e-02f, 8.37027002e-03f, 3.84678459e-03f, -6.53194338e-02f, 5.22615612e-02f, 8.85052513e-03f, -1.34330735e-01f, 9.44785848e-02f,
    -1.04159012e-01f, -7.20341632e-05f, 1.99045297e-02f, -8.24197605e-02f, 6.19665114e-03f, -2.08528340e-02f, 2.62983441e-02f, -2.59477235e-02f,
    3.46680032e-03f, -1.69131104e-02f, -2.01420789e-03f, -2.99007557e-02f, -1.86187476e-02f, -1.08419610e-02f, 3.19845602e-02f, -6.66112602e-02f,
    -1.35363517e-02f, -7.19306543e-02f, -4.48466092e-02f, 6.85613900e-02f, -6.47189990e-02f, 4.45596389e-02f, 2.46122554e-02f, -1.53994277e-01f,
    2.50553247e-04f, 2.56017726e-02f, -4.51286435e-02f, -6.31074980e-02f, -4.71140780e-02f, 3.58548053e-02f, 2.54755020e-02f, -6.74634706e-03f,
    9.78364274e-02f, -1.08318232e-01f, -8.17178041e-02f, -1.15736807e-02f, -1.12992704e-01f, 4.07421589e-03f, -7.72086978e-02f, -7.32745901e-02f,
    -2.08206084e-02f, -1.56527713e-01f, -6.25065491e-02f, 3.15184444e-02f, -9.10456106e-02f, -1.35867625e-01f, -7.57345557e-02f, 3.36009599e-02f,
    6.49175746e-03f, -7.61861131e-02f, 8.40024874e-02f, -9.66169611e-02f, -3.69799063e-02f, 4.09921072e-02f, -1.41410187e-01f, 1.06370188e-01f,
    -2.32481398e-02f, -2.31366437e-02f, 1.18195936e-01f, -4.52312604e-02f, -4.34832601e-03f, 6.15208931e-02f, -3.28510627e-02f, 2.30249073e-02f,
    -4.34825458e-02f, 3.99935320e-02f, 3.67017239e-02f, 4.57031699e-03f, 9.02946144e-02f, 9.49523821e-02f, -3.67121920e-02f, 2.16058627e-01f,
    1.20785326e-01f, -9.87412333e-02f, 9.13892984e-02f, -1.00571819e-01f, -1.05080582e-01f, -1.52059019e-01f, -9.10856649e-02f, 1.19355150e-01f,
    -9.78023559e-02f, 1.36499912e-01f, 2.89275795e-02f, -2.15035286e-02f, 6.65882900e-02f, -1.05578061e-02f, -5.42586036e-02f, 6.88799378e-03f,
    1.65074870e-01f, -8.90368819e-02f, -2.34915093e-02f, 1.09305046e-01f, -6.10884950e-02f, 1.01583190e-02f, -1.80461444e-02f, -1.01255387e-01f,
    1.63703278e-01f, 8.56785383e-03f, -4.69790027e-02f, 1.46237090e-01f, -5.57685234e-02f, -1.74493175e-02f, 9.63753238e-02f, -3.38676944e-02f,
    1.77130345e-02f, -9.50458646e-03f, 1.81765538e-02f, -5.02318181e-02f, -1.52529050e-02f, 7.65380356e-03f, -4.01829034e-02f, 1.64717752e-02f,
    -1.13156494e-02f, -1.17163211e-02f, 1.60206039e-03f, -1.54484119e-02f, -2.02624537e-02f, -1.52782779e-02f, -9.31156240e-03f, -3.05811856e-02f,
    1.57879833e-02f, -1.78310368e-02f, 3.03534754e-02f, 1.80877354e-02f, 4.55919616e-02f, -5.35834767e-03f, -4.93221432e-02f, -6.61940351e-02f,
    2.63484567e-02f, -5.50098978e-02f, -4.04651389e-02f, -8.82081166e-02f, -4.56489809e-02f, -1.94876498e-04f, 1.65926125e-02f, -4.95822318e-02f,
    -9.94515643e-02f, 4.61323597e-02f, -1.83745176e-02f, 1.12151494e-02f, 8.50915983e-02f, 1.40938476e-01f, -6.97412267e-02f, 7.99158514e-02f,
    1.95738241e-01f, 2.99455188e-02f, 4.07583341e-02f, -2.36867238e-02f, 2.47265548e-02f, -1.49981882e-02f, -5.79531640e-02f, -4.61553968e-02f,
    -7.35020638e-02f, -9.14216414e-02f, -7.18081519e-02f, -7.45033100e-02f, -1.73645411e-02f, -9.59931780e-03f, -2.67707976e-03f, -3.20415050e-02f,
    -4.76046279e-02f, 3.25669758e-02f, 3.47870886e-02f, -5.43032214e-02f, 1.05231171e-02f, 4.06707413e-02f, -2.50206348e-02f, -2.05724146e-02f,
    -5.31657487e-02f, -4.12236713e-02f, 2.05279700e-02f, -1.31690390e-02f, -5.81761897e-02f, 8.49736929e-02f, 2.87184026e-02f, -3.66683900e-02f,
    -1.81638878e-02f, 1.02533717e-02f, -1.56461541e-02f, -2.00899281e-02f, -2.30161697e-02f, 1.11961858e-02f, -3.32342684e-02f, -4.39612232e-02f,
    1.33433845e-02f, -3.41418386e-02f, -2.29681954e-01f, -2.45711416e-01f, 2.48708546e-01f, 1.51839601e-02f, -2.18922064e-01f, 1.61556914e-01f,
    1.56186700e-01f, 4.94613573e-02f, 2.39285175e-02f, -1.22200523e-03f, 1.28235798e-02f, -4.41782875e-03f, -2.25899499e-02f, -1.60017814e-02f,
    -1.40426336e-02f, 1.54989390e-02f, 5.59471734e-03f, 3.02422661e-02f, 3.74064408e-02f, -7.08000287e-02f, 7.95108601e-02f, 1.22483529e-01f,
    -1.40212536e-01f, 7.08617046e-02f, 8.72762222e-03f, -5.64052165e-02f, 1.06569920e-02f, 1.34580461e-02f, 2.77370550e-02f, 5.52578568e-02f,
    -6.38867123e-03f, -1.39093294e-03f, 6.12707064e-02f, -1.64772407e-03f, -2.64434349e-02f, -3.12746949e-02f, -4.10476215e-02f, 2.33736597e-02f,
    -8.64361450e-02f, -9.38444808e-02f, 1.11530935e-02f, -7.47751072e-02f, -5.29444637e-03f, 1.98652353e-02f, 1.29556106e-02f, -2.32678294e-01f,
    -4.30878848e-02f, 1.43906087e-01f, -6.80961534e-02f, 8.42699185e-02f, 5.23359366e-02f, 4.66968119e-02f, 6.36645928e-02f, -1.79120809e-01f,
    8.34577829e-02f, 1.91379160e-01f, -2.86685973e-01f, -2.93950434e-03f, 2.81272948e-01f, -1.11452982e-01f, -1.15820922e-01f, 2.73501705e-02f,
    -3.90860587e-02f, -5.33081777e-02f, -9.38860252e-02f, 8.19515809e-02f, -6.10419996e-02f, -8.70675594e-02f, 1.71163082e-02f, -3.32197249e-02f,
    -1.08371582e-02f, -1.32964775e-02f, 2.26336941e-02f, -2.38257293e-02f, -1.23742288e-02f, -1.01943631e-02f, 2.49029254e-04f, -2.87035685e-02f,
    1.17965769e-02f, -3.39440815e-03f, -7.12037086e-04f, -1.33839855e-02f, -1.95460976e-03f, 3.27036178e-05f, -5.11229038e-02f, -2.33814586e-02f,
    -3.18627656e-02f, 1.17157921e-02f, 2.60614511e-02f, 9.78460908e-03f, -2.93405131e-02f, -4.35980689e-03f, 7.94309191e-04f, -3.19730537e-03f,
    8.93560424e-03f, 6.36725640e-03f, -5.23511283e-02f, -9.08829365e-03f, -7.82902539e-03f, -5.18544875e-02f, 3.02057508e-02f, -9.17070135e-02f,
    -1.46225452e-01f, 4.57892790e-02f, 8.78577773e-03f, 5.58574349e-02f, 8.42303559e-02f, -3.87498438e-02f, -1.67900957e-02f, 3.74054909e-02f,
    -6.68458343e-02f, -1.46164587e-02f, 3.99657264e-02f, -2.36552414e-02f, -4.71602567e-03f, 1.68025773e-02f, -2.12892909e-02f, 3.14290775e-03f,
    9.13854018e-02f, -1.25055209e-01f, -5.24567033e-04f, 8.50028023e-02f, -1.08013913e-01f, 4.24138196e-02f, 5.39308414e-02f, -1.17138892e-01f,
    -2.28948057e-01f, -3.90556604e-02f, -2.61893064e-01f, -3.41778815e-01f, -2.44916771e-02f, -1.15844738e-02f, -4.62165289e-02f, 5.04628941e-02f,
    1.83737483e-02f, -3.29832248e-02f, -7.74354395e-03f, 4.86711152e-02f, -3.07750124e-02f, -6.50095418e-02f, -6.32666126e-02f, 2.39003245e-02f,
    -5.37186814e-03f, -1.32819591e-02f, 3.10578570e-02f, 1.54933361e-02f, 2.87169535e-02f, 1.58156659e-02f, -1.78203825e-02f, -1.17497100e-03f,
    -5.62859811e-02f, 6.54893834e-03f, 1.33653609e-02f, 6.59425259e-02f, 4.55820784e-02f, -2.64216457e-02f, 2.12271754e-02f, 1.96469035e-02f,
    -3.71427014e-02f, 2.08128709e-03f, 5.17801428e-03f, 6.08932003e-02f, 3.38545069e-02f, -2.95615625e-02f, -4.97325771e-02f, 1.28443435e-01f,
    6.01800270e-02f, -7.99162835e-02f, 6.42048642e-02f, 4.22015898e-02f, -4.86624688e-02f, -1.17845297e-01f, -5.28522730e-02f, 4.73457761e-02f,
    -1.06762834e-01f, -8.30392167e-02f, 2.07557485e-01f, 2.93011405e-02f, -3.94175537e-02f, -9.79150552e-03f, -4.01582941e-02f, -2.01986935e-02f,
    5.25229517e-03f, 1.52059393e-02f, -8.06205627e-03f, -7.76687730e-03f, 3.23215649e-02f, -3.43125425e-02f, 7.27068037e-02f, -7.48365521e-02f,
    -1.22700613e-02f, 1.26748737e-02f, 1.77146029e-02f, 6.20996952e-02f, -4.57878923e-03f, 4.51044179e-02f, 6.57922253e-02f, 2.37786509e-02f,
    2.16398463e-02f, -3.17356624e-02f, 3.07464562e-02f, -2.46559549e-03f, -4.58010063e-02f, 1.44080771e-02f, 2.00463179e-02f, 9.09028575e-03f,
    -7.67327622e-02f, 1.51379108e-01f, -4.48161438e-02f, -1.05006352e-01f, 2.18477473e-02f, 2.37173121e-02f, -2.33370773e-02f, -1.20742455e-01f,
    7.89247677e-02f, -8.40960350e-03f, 1.73618384e-02f, -2.15636417e-02f, -1.72185209e-02f, -4.40002140e-03f, -7.78886117e-03f, 5.28257573e-03f,
    2.78286021e-02f, -9.47149191e-03f, 6.61323369e-02f, 3.26845683e-02f, -3.84148695e-02f, 4.16137837e-02f, 7.52311721e-02f, -6.94464371e-02f,
    3.47430855e-02f, 1.22888461e-01f, -7.77214542e-02f, 9.47793294e-03f, 4.24492359e-03f, -3.68311405e-02f, -2.12158989e-02f, -1.47178443e-02f,
    -1.22708129e-02f, 1.91564634e-02f, -4.15246859e-02f, 2.02180110e-02f, -1.83520522e-02f, -4.42552827e-02f, 7.30886236e-02f, 4.48846035e-02f,
    -9.39341411e-02f, -9.33734700e-03f, 7.60037974e-02f, -3.25298905e-02f, -6.60699308e-02f, -8.40414166e-02f, -7.17409700e-02f, 6.39743805e-02f,
    1.27808722e-02f, -9.06325653e-02f, 5.73321581e-02f, -3.39000635e-02f, -2.92253047e-02f, 8.17558076e-03f, 1.58319235e-01f, -1.98238254e-01f,
    -1.02361143e-01f, 7.06550777e-02f, 2.66026538e-02f, -1.97175846e-01f, -5.63489608e-02f, 2.36881897e-01f, -7.35815391e-02f, -1.33412872e-02f,
    -4.58434075e-02f, 2.01862007e-02f, 3.98097709e-02f, -5.91583364e-02f, 1.88043844e-02f, 6.20385259e-02f, 1.82915051e-02f, -4.05324586e-02f,
    2.27613631e-03f, 6.81341812e-02f, 1.87136084e-02f, -1.69421345e-01f, 4.24686559e-02f, -4.80245054e-02f, -4.18215692e-02f, 5.19014150e-02f,
    5.48267961e-02f, -2.52294615e-02f, 5.77281602e-02f, -9.95486323e-03f, -3.53502929e-02f, -2.82497015e-02f, -4.45382930e-02f, -4.64440510e-02f,
    -1.02370329e-01f, 2.18661577e-02f, -6.81958348e-02f, -6.72840998e-02f, 9.88931805e-02f, 6.68408349e-02f, -1.11671418e-01f, 5.71069457e-02f,
    9.58883315e-02f, -4.62184474e-02f, -2.87864730e-02f, 3.17120180e-02f, -2.98352242e-02f, -3.93761043e-03f, 1.72877889e-02f, -1.24836341e-01f,
    -9.27182883e-02f, 4.18587141e-02f, -1.51387881e-02f, -8.23558420e-02f, 6.89566776e-04f, -1.95384808e-02f, -2.67490372e-02f, -2.56728139e-02f,
    5.50665483e-02f, -1.17131146e-02f, -1.22171799e-02f, 3.04729678e-02f, -7.17141945e-03f, -2.07626279e-02f, 3.82908583e-02f, 1.57119501e-02f,
    -5.90040609e-02f, 4.87024225e-02f, 6.40926138e-02f, 2.45969072e-02f, 1.43846050e-02f, 4.69929837e-02f, -3.27259637e-02f, -8.58915970e-03f,
    -1.16616432e-02f, -4.04988192e-02f, 1.76828858e-02f, 2.99711917e-02f, -1.06201787e-02f, 2.05331631e-02f, 4.97953370e-02f, 1.36727868e-02f,
    -6.07786812e-02f, 2.00478286e-02f, 2.39073895e-02f, -5.97201511e-02f, -5.52745312e-02f, 3.06196809e-02f, -1.35749858e-02f, 3.04769240e-02f,
    4.21389006e-02f, 4.22274694e-02f, 2.06593685e-02f, 3.18512246e-02f, 2.97161005e-02f, -4.06913273e-02f, -7.61338845e-02f, 1.14061385e-02f,
    -2.83181351e-02f, 2.65492313e-02f, 1.02876825e-02f, -1.96786709e-02f, 1.93091650e-02f, -1.16775688e-02f, -6.43133512e-03f, 1.12915458e-02f,
    4.49104328e-03f, -2.65385099e-02f, -2.84156036e-02f, 1.36458427e-02f, 1.93742253e-02f, 1.48538677e-02f, -4.38645408e-02f, 5.01073636e-02f,
    3.10371816e-02f, -1.36959711e-02f, 1.04820803e-02f, -1.69725399e-02f, -2.24436577e-02f, -1.64239854e-02f, 2.84154955e-02f, -3.77729945e-02f,
    -6.61739428e-03f, 4.92654480e-02f, 4.64483211e-03f, -4.55571450e-02f, 7.61084780e-02f, -4.99056354e-02f, -6.04083613e-02f, 3.19868624e-02f,
    3.95070314e-02f, -4.53862995e-02f, 2.19271006e-03f, 8.88785198e-02f, -2.82621267e-03f, 1.59274384e-01f, 9.36699845e-03f, -2.25426722e-03f,
    -6.10105246e-02f, 7.88724869e-02f, -6.31438643e-02f, -5.89560159e-02f, 1.18444160e-01f, -1.12246230e-01f, 2.78820377e-02f, 6.45003840e-02f,
    1.72535907e-02f, 2.84935627e-02f, 7.44667277e-02f, 4.27326933e-02f, 2.65231170e-02f, 4.48671281e-02f, 9.91051551e-03f, -1.30889500e-02f,
    7.27162585e-02f, -3.30087245e-02f, -1.05178572e-01f, 6.36734962e-02f, -6.19859435e-02f, -1.96503419e-02f, -1.74334608e-02f, 1.12802640e-01f,
    -3.05794608e-02f, -7.95544162e-02f, 5.26251830e-03f, 6.57349229e-02f, -1.03997290e-01f, -3.05425785e-02f, 2.38641128e-02f, -2.20456887e-02f,
    -7.41051286e-02f, 2.31227409e-02f, -8.08760747e-02f, -4.04793583e-02f, 5.09875305e-02f, -1.34946302e-01f, -1.05011791e-01f, 1.31458370e-02f,
    -5.12850992e-02f, -1.22054936e-02f, -7.42411911e-02f, -1.02178775e-01f, 1.10743411e-01f, 2.65414664e-03f, -6.53656647e-02f, 1.18377782e-01f,
    -2.04201750e-02f, -3.85320969e-02f, 4.91688140e-02f, 4.26576994e-02f, -1.10915722e-02f, 2.77363416e-02f, -2.80880253e-03f, 1.02134021e-02f,
    -4.50544506e-02f, -3.87399979e-02f, -2.75982842e-02f, -1.82165597e-02f, -4.44885157e-02f, 5.02692908e-02f, 5.73361143e-02f, -1.57143809e-02f,
    -7.24091940e-03f, 4.24478799e-02f, -6.79986319e-03f, -2.85470225e-02f, 7.35237673e-02f, -1.40387312e-01f, 7.34967068e-02f, 8.35104510e-02f,
    -1.19647078e-01f, -1.33344814e-01f, 1.88541219e-01f, 3.83390337e-02f, -2.05364630e-01f, 6.46953797e-03f, 7.79733583e-02f, 6.29593804e-03f,
    1.29813468e-02f, -9.52673331e-03f, -2.45769750e-02f, -1.87646933e-02f, -1.38046441e-03f, 1.09340260e-02f, -8.48954991e-02f, 5.13800643e-02f,
    3.40034366e-02f, -3.62316286e-03f, 7.16040209e-02f, -3.69128995e-02f, -1.08484827e-01f, 3.19521092e-02f, -3.25692631e-02f, -1.70969531e-01f,
    -4.83364910e-02f, 4.65030111e-02f, 3.05327978e-02f, -1.14674665e-01f, -2.25809147e-03f, -7.81772286e-03f, -7.09247142e-02f, 2.76382994e-02f,
    1.38110062e-02f, 1.69876982e-02f, -7.49903321e-02f, 2.65805908e-02f, 5.67830466e-02f, -3.82001139e-02f, 6.74417689e-02f, 5.13404384e-02f,
    -8.18073601e-02f, 4.71586622e-02f, 4.08940017e-02f, 6.55973190e-03f, 6.65654913e-02f, 6.50260150e-02f, -3.03430222e-02f, 1.79824848e-02f,
    5.07784784e-02f, -6.44391477e-02f, 2.14045197e-02f, -1.14316724e-01f, 9.15301219e-02f, -8.82437676e-02f, -1.35060534e-01f, 7.59527162e-02f,
    -6.81723654e-02f, -7.86675066e-02f, 7.37105384e-02f, -4.67934608e-02f, 8.70513096e-02f, -5.34111001e-02f, 2.16177711e-03f, 1.77933145e-02f,
    -9.13051665e-02f, -5.73054422e-03f, 4.11829120e-03f, -8.32881331e-02f, 3.61424312e-02f, -8.44332576e-02f, -1.08964778e-01f, 3.99924777e-02f,
    -1.27833225e-02f, -1.21254668e-01f, 3.16320881e-02f, 3.12779471e-02f, -1.19505292e-02f, 7.72063956e-02f, 5.59260659e-02f, 3.25142816e-02f,
    -7.77069628e-02f, 3.21991667e-02f, 3.86819839e-02f, -1.07618444e-01f, 8.28213841e-02f, 3.12678143e-02f, -8.75559300e-02f, 2.68390514e-02f,
    -6.99383020e-03f, 3.45050059e-02f, 3.15072425e-02f, -5.64034656e-02f, 8.27825069e-03f, 6.75184429e-02f, -2.26237699e-02f, 1.85383018e-02f,
    1.91956921e-03f, 4.22943756e-02f, -3.48247588e-02f, -8.35369974e-02f, -5.45976870e-02f, -3.04656681e-02f, 4.21001352e-02f, 7.29171187e-02f,
    1.99525412e-02f, -2.05861758e-02f, 1.81908589e-02f, 1.80869829e-02f, -2.72651780e-02f, -4.63475734e-02f, -4.20385189e-02f, 1.83223188e-02f,
    7.13735297e-02f, 1.40309082e-02f, 1.24788433e-02f, 1.32956933e-02f, 1.46100055e-02f, 9.69076157e-03f, -1.38949789e-02f, -1.68922041e-02f,
    -1.44421784e-02f, -1.13966186e-02f, 9.97693371e-03f, 2.49685142e-02f, 2.03987360e-02f, -1.22207627e-02f, -4.18548249e-02f, -5.00952974e-02f,
    -6.49250532e-03f, -4.14356999e-02f, -5.03144711e-02f, 1.14430254e-02f, -4.20534424e-02f, -6.67779297e-02f, -3.99493314e-02f, 2.65329126e-02f,
    -6.01708367e-02f, -1.10831670e-02f, -2.03478485e-02f, -5.96124381e-02f, -2.95922589e-02f, -3.03971246e-02f, 2.87030376e-02f, 9.57113039e-03f,
    -5.35179861e-02f, 9.69754998e-03f, 2.31382474e-02f, -2.00997237e-02f, -3.69263743e-03f, 3.99893001e-02f, 3.40427160e-02f, 1.31516941e-02f,
    -1.84245780e-02f, -5.23339063e-02f, 4.58189398e-02f, -4.21137176e-03f, -1.20924003e-02f, -1.82519909e-02f, 2.55894549e-02f, 7.13756830e-02f,
    -1.81646068e-02f, 6.24057166e-02f, 7.05246348e-03f, -7.16957599e-02f, -3.07932571e-02f, 1.09146059e-01f, -2.53578443e-02f, -2.37649381e-02f,
    1.27351955e-02f, 7.19090458e-04f, -1.31150465e-02f, 2.02178918e-02f, 1.92150043e-03f, 1.23313740e-02f, 1.14558972e-02f, 4.26075123e-02f,
    2.26210747e-02f, 1.76119395e-02f, -6.03809813e-03f, 1.41131254e-02f, -2.09186599e-03f, -2.62525324e-02f, 9.48532484e-03f, -1.87333301e-02f,
    -9.53186862e-03f, -2.28937957e-02f, 2.77586165e-03f, -8.62934738e-02f, -5.72881522e-03f, 6.06486090e-02f, -6.00814745e-02f, 5.41601330e-02f,
    5.39339855e-02f, -7.04662651e-02f, -3.85383703e-03f, -2.38096900e-02f, -3.60962264e-02f, 3.87570299e-02f, 1.03160588e-03f, -2.81198714e-02f,
    1.71321183e-02f, -2.94380691e-02f, -2.67154388e-02f, -1.02179339e-02f, 1.08284131e-01f, 4.39043678e-02f, -2.64679678e-02f, 1.88392047e-02f,
    -1.67376976e-02f, -6.23422340e-02f, 1.46046299e-02f, 5.83956996e-03f, -2.64517497e-02f, 3.09771765e-02f, 6.23622909e-02f, -2.09190603e-02f,
    2.36592479e-02f, -1.64671037e-02f, -3.69653068e-02f, 1.00425929e-02f, -7.57178143e-02f, -1.06630981e-01f, 4.33076210e-02f, -2.26705819e-02f,
    4.21854928e-02f, -1.64144067e-03f, -6.81477636e-02f, -2.79538967e-02f, 3.90306637e-02f, -5.16501139e-04f, -4.28713262e-02f, -9.16678756e-02f,
    1.89767316e-01f, -5.88470995e-02f, -1.00734882e-01f, 1.23567082e-01f, -1.00328833e-01f, -3.91066447e-02f, 1.53634414e-01f, 1.28382491e-02f,
    6.94796219e-02f, -1.40679583e-01f, 2.32110415e-02f, 1.38840497e-01f, -1.39760524e-01f, 2.03020815e-02f, 7.42360055e-02f, -1.11480780e-01f,
    -1.08336788e-02f, 5.46638705e-02f, 1.90280955e-02f, -7.26366937e-02f, -9.76200253e-02f, -5.93089536e-02f, -9.33634713e-02f, -2.47731879e-02f,
    1.92917250e-02f, 4.69270982e-02f, -2.56337528e-03f, -1.24105081e-01f, -6.27514794e-02f, 4.26349677e-02f, -2.08502486e-02f, -1.58969779e-03f,
    -2.94814333e-02f, -1.97839667e-03f, -5.75040989e-02f, 6.91074207e-02f, 6.23720065e-02f, -3.06091271e-02f, -8.27545524e-02f, -2.88226511e-02f,
    -6.58331737e-02f, -1.10600218e-02f, 2.75662933e-02f, 1.23909079e-02f, 2.80224048e-02f, -2.09282408e-03f, 4.22332548e-02f, 7.86419306e-03f,
    3.04476661e-03f, 2.44547818e-02f, 7.92821404e-03f, 1.08568892e-01f, 3.93830761e-02f, -8.01473036e-02f, 1.85528211e-02f, 6.57950044e-02f,
    -3.40015106e-02f, -2.09280457e-02f, 5.82559370e-02f, 2.92386264e-02f, -6.07227385e-02f, 5.46696857e-02f, -8.96420795e-03f, 8.82214606e-02f,
    8.38438049e-02f, -1.51522532e-02f, 3.27082409e-04f, -4.67342958e-02f, -9.26443934e-02f, -7.81766698e-02f, -9.86313373e-02f, -4.40318225e-04f,
    3.84445079e-02f, 6.54397300e-03f, -6.25957325e-02f, -6.35021254e-02f, -4.69317809e-02f, -1.10252336e-01f, -3.66442315e-02f, 4.42706570e-02f,
    -6.71930686e-02f, 6.20719604e-02f, -6.61119446e-02f, -4.21914160e-02f, 1.39126956e-01f, -1.06377058e-01f, -7.23087694e-03f, 8.42233151e-02f,
    -6.62964210e-02f, 4.03147712e-02f, -3.27339279e-03f, -1.62178744e-02f, 8.03687423e-02f, -7.67153874e-03f, -8.99911916e-04f, 2.19610259e-02f,
    -5.27254641e-02f, -3.42360511e-02f, 5.03814071e-02f, -5.46636805e-02f, -2.15567239e-02f, 4.16295752e-02f, -7.93407038e-02f, 4.33073714e-02f,
    2.19665933e-02f, -4.66237925e-02f, 6.53196350e-02f, 2.72913463e-02f, -3.80037613e-02f, 2.45797895e-02f, -1.74025726e-02f, -4.24627401e-02f,
    4.87216264e-02f, 1.85852346e-03f, -5.89766447e-03f, 2.55913269e-02f, 2.02881396e-02f, -7.79279624e-04f, 5.00762500e-02f, -2.10287385e-02f,
    -2.42039766e-02f, 3.22963460e-03f, 4.65136878e-02f, 8.38906690e-03f, 1.99506171e-02f, -3.54055539e-02f, -4.08836119e-02f, -2.50987522e-02f,
    6.49115117e-03f, -4.19872953e-03f, 9.45308805e-03f, 4.09456948e-03f, -6.34537544e-03f, -1.38298282e-02f, 1.56159669e-01f, -2.57424980e-01f,
    8.13131854e-02f, 2.00408399e-01f, -3.25027376e-01f, 2.01634839e-01f, 9.59480107e-02f, -2.51267463e-01f, 1.53708726e-01f, -1.91634893e-02f,
    -1.05567100e-02f, -3.47869545e-02f, 2.91601643e-02f, 2.42661722e-02f, 1.69544220e-02f, 4.48888913e-02f, 3.07230446e-02f, -1.16369931e-03f,
    7.06274156e-03f, -5.23519553e-02f, -1.08774554e-03f, 2.58399034e-03f, -5.80874458e-02f, 1.64029785e-02f, 4.36916724e-02f, -3.32297422e-02f,
    4.57679145e-02f, -2.44165119e-02f, -2.55223941e-02f, -1.16296103e-02f, -1.21834558e-02f, 1.43655818e-02f, -3.16718072e-02f, -5.18308245e-02f,
    -4.63105179e-02f, -2.32272372e-02f, -5.45638837e-02f, 1.15547813e-02f, 5.92002412e-03f, -7.87881166e-02f, 3.52543853e-02f, 1.19458390e-02f,
    -4.08363640e-02f, 6.32006675e-02f, -8.62996443e-04f, 2.49190559e-03f, -6.87566260e-03f, 4.59245779e-02f, 1.26712956e-02f, -4.15653847e-02f,
    4.36582454e-02f, -4.83744927e-02f, -3.16136256e-02f, 1.85862910e-02f, 1.72288381e-02f, 1.97341144e-02f, -3.40571180e-02f, -3.51391397e-02f,
    -1.75184105e-02f, 5.77447051e-03f, 1.36387320e-02f, 4.92682261e-03f, 3.26366201e-02f, 6.48805723e-02f, 3.73183303e-02f, 1.82613656e-02f,
    -1.65044013e-02f, -4.71696630e-02f, -7.89293051e-02f, 4.07250077e-02f, 3.12662274e-02f, -3.69649604e-02f, 1.77360736e-02f, -2.87684379e-03f,
    3.85602117e-02f, -4.57853638e-02f, -1.89771038e-02f, -2.40840614e-02f, 7.74213625e-03f, 2.91416934e-03f, 2.22015288e-02f, 7.40332082e-02f,
    1.48747567e-04f, -1.56650618e-02f, -1.53128812e-02f, -7.43979290e-02f, -1.20358365e-02f, 4.27562464e-03f, -2.80735083e-02f, 1.31938513e-02f,
    6.09257109e-02f, 6.51513711e-02f, 5.85491285e-02f, -5.22460081e-02f, 1.15988636e-02f, -3.66489440e-02f, 1.40851662e-02f, 2.00883597e-02f,
    -1.42435506e-02f, 3.85393272e-03f, -1.13015929e-02f, -2.14710757e-02f, 3.10494807e-02f, -2.14777123e-02f, 1.49386143e-03f, -1.46018516e-03f,
    -2.68356223e-02f, 2.08022608e-03f, -8.00232869e-03f, 6.67165453e-03f, -3.87699739e-03f, -2.25686305e-03f, -6.66365819e-03f, -1.82228759e-02f,
    5.23605896e-03f, 2.38270909e-02f, -1.94045957e-02f, 3.89322750e-02f, -3.25622037e-02f, 3.46008986e-02f, -6.01183549e-02f, -4.91759218e-02f,
    3.29460017e-03f, -2.67919824e-02f, 1.47863606e-03f, -2.66297273e-02f, -2.49382854e-02f, 1.15035241e-02f, -7.34940469e-02f, -6.38174126e-03f,
    1.47131933e-02f, -6.20089732e-02f, 1.27738565e-02f, -1.72026493e-02f, -3.11805531e-02f, 4.63625118e-02f, -4.23601121e-02f, 2.38497695e-03f,
    1.07851893e-01f, -1.09674819e-01f, 1.13944300e-02f, 2.29301602e-02f, -7.17037097e-02f, 1.07490886e-02f, 5.72834387e-02f, 1.85612254e-02f,
    2.30258685e-02f, 5.98763674e-02f, -3.00480425e-02f, 4.81393225e-02f, 4.44581732e-03f, -1.39631107e-02f, 1.41684641e-03f, -1.09192491e-01f,
    -9.41817090e-02f, 1.32270250e-02f, -3.84968780e-02f, 2.11203583e-02f, 7.47999400e-02f, -8.15774575e-02f, -6.44322261e-02f, 3.89693901e-02f,
    1.19194016e-02f, -2.89645158e-02f, -2.95703067e-04f, 1.84708294e-02f, -6.89083710e-02f, 2.34366860e-02f, 8.94269720e-03f, -3.39097977e-02f,
    1.23859765e-02f, 1.54071040e-02f, -2.90361792e-02f, -5.12273535e-02f, -3.16061415e-02f, -2.69551612e-02f, -1.10209949e-01f, -1.16688563e-02f,
    8.18331353e-03f, -5.63383736e-02f, 3.12470421e-02f, -1.05231598e-01f, 1.19115449e-01f, 5.37667722e-02f, -1.69526830e-01f, 1.19373746e-01f,
    5.08728102e-02f, -9.28006619e-02f, 8.43398497e-02f, 1.28693143e-02f, 6.12365305e-02f, -1.52656417e-02f, -9.59435925e-02f, -4.32823822e-02f,
    -7.12326095e-02f, 4.38443795e-02f, 2.41246540e-02f, 1.47632407e-02f, -2.93313898e-02f, -1.31431669e-02f, 1.89060083e-04f, 2.96145566e-02f,
    1.35370540e-02f, -1.22687127e-02f, 1.24744494e-02f, -2.53005773e-02f, -4.60374393e-02f, -1.41890734e-01f, 2.12613285e-01f, -6.58477098e-02f,
    -1.00896209e-01f, 3.18686843e-01f, -1.02029778e-01f, -7.06559718e-02f, 1.89088196e-01f, -1.33473128e-01f, -1.35070058e-02f, 1.46826878e-02f,
    2.00013816e-02f, -2.07924820e-03f, 5.23108477e-03f, 1.06071951e-02f, -5.94349355e-02f, -2.32306663e-02f, -3.46431024e-02f, -2.83087380e-02f,
    5.23186624e-02f, -1.21978648e-01f, -3.02370470e-02f, 2.18698427e-01f, -8.96144584e-02f, -7.70345703e-02f, 8.29773173e-02f, -5.21798097e-02f,
    5.47311492e-02f, 1.10037297e-01f, 6.36710599e-02f, 8.70217942e-03f, 1.19551253e-02f, 1.57049447e-02f, -5.94678409e-02f, -4.08567227e-02f,
    -2.77565569e-02f, 5.03257988e-03f, -2.20419969e-02f, -2.10953001e-02f, -8.65125039e-04f, 2.29029525e-02f, -1.03211049e-02f, 1.05273230e-02f,
    -1.33971218e-02f, -2.85465382e-02f, 7.14672506e-02f, 3.37121561e-02f, -4.39076722e-02f, 2.34677438e-02f, -1.37015572e-02f, -7.30479658e-02f,
    9.84052345e-02f, 5.21260761e-02f, -1.32986391e-02f, -8.64083841e-02f, -1.13452943e-02f, 6.42169416e-02f, -1.68586791e-01f, -4.67549972e-02f,
    3.86740267e-03f, -1.87011603e-02f, -3.62611376e-02f, -4.58504297e-02f, -4.51175794e-02f, -3.41804884e-03f, 1.15796044e-01f, -1.43329933e-01f,
    1.12908654e-01f, 1.30858734e-01f, -1.33298576e-01f, 2.68670321e-02f, 7.44263455e-02f, 6.81556538e-02f, 5.35748899e-02f, -2.97366250e-02f,
    5.16827255e-02f, -4.22616266e-02f, -3.63238640e-02f, 1.12626636e-02f, -2.63241921e-02f, 2.02479307e-02f, -9.58141908e-02f, -1.23588247e-02f,
    1.25498036e-02f, -4.01483290e-03f, 7.54884556e-02f, 3.65414061e-02f, 4.64951172e-02f, 9.73302033e-03f, -1.28288241e-02f, -1.14127845e-02f,
    -1.21198082e-03f, 1.45072527e-02f, -2.79578902e-02f, -2.61269789e-02f, 7.21951015e-03f, 2.06205826e-02f, 1.56307593e-02f, 3.40144485e-02f,
    1.06961932e-02f, 2.85582822e-02f, -5.39099239e-03f, 1.41888738e-01f, 1.10184178e-01f, -1.42959682e-02f, 3.58477584e-03f, -1.52176050e-02f,
    -8.68007019e-02f, 5.78008965e-02f, -3.21212411e-02f, 4.05433849e-02f, -5.44845797e-02f, -1.31760493e-01f, 3.46567556e-02f, -4.58457731e-02f,
    -1.49563670e-01f, -3.97310071e-02f, -8.66027847e-02f, -4.86637615e-02f, -5.44723161e-02f, -2.21810360e-02f, -4.91357632e-02f, -2.11049635e-02f,
    3.02303433e-02f, 1.56513005e-02f, 2.58814148e-03f, -4.82442081e-02f, 6.16518827e-03f, 5.25363609e-02f, -1.06542476e-01f, -1.78627539e-02f,
    1.66954532e-01f, -5.13442419e-03f, 5.42967522e-04f, 5.88473417e-02f, -6.03988767e-02f, -5.88154383e-02f, 2.58486923e-02f, -4.16707955e-02f,
    -2.42683385e-02f, 3.87894958e-02f, -4.54192683e-02f, -4.02644984e-02f, 1.60103419e-03f, 6.73043430e-02f, 5.61226085e-02f, 6.43083220e-03f,
    1.60003930e-01f, 3.42624597e-02f, -8.81162956e-02f, 4.01133634e-02f, -1.73540320e-02f, -5.29833063e-02f, 1.13785274e-01f, -1.25300571e-01f,
    2.60024648e-02f, 1.59905121e-01f, -1.66090071e-01f, 1.22482339e-02f, -3.82893756e-02f, -1.69529960e-01f, -5.56906611e-02f, 7.26885423e-02f,
    -3.22034173e-02f, -8.01872686e-02f, 1.62816703e-01f, 1.45827651e-01f, -1.53372750e-01f, 3.89921591e-02f, 1.07766613e-01f, -7.59992003e-02f,
    -5.46244206e-03f, -3.05364151e-02f, 6.33948669e-02f, -5.58725297e-02f, 4.53020558e-02f, 3.45069431e-02f, -1.97635368e-02f, 8.23295955e-03f,
    1.14539852e-02f, 1.37877781e-02f, -2.73732026e-03f, -8.99359863e-03f, 1.79961193e-02f, 3.05285752e-02f, -1.84877627e-02f, -3.90228219e-02f,
    -3.39253508e-02f, -3.14809717e-02f, 2.44438034e-02f, 8.78209323e-02f, 1.06036579e-02f, 1.34652965e-02f, -1.30610296e-03f, -6.10945164e-04f,
    8.17502104e-03f, -2.81868083e-03f, -3.29468376e-03f, -1.66578013e-02f, -8.72587487e-02f, 2.38421392e-02f, -3.53102991e-03f, 3.55338827e-02f,
    3.69922221e-02f, -3.23174521e-02f, -2.27370914e-02f, -3.81169021e-02f, -1.57886650e-03f, 2.97309477e-02f, 4.35118563e-02f, -4.09576520e-02f,
    -8.22537243e-02f, 6.62961900e-02f, -6.89102784e-02f, -9.76253524e-02f, 2.82761585e-02f, -5.41970320e-02f, -2.52461657e-02f, -2.03005574e-03f,
    -1.99190378e-02f, -2.90620904e-02f, -2.25545727e-02f, -2.08494556e-03f, -4.76044184e-03f, -4.07673419e-03f, 2.24599577e-02f, 9.14594624e-03f,
    -3.92435752e-02f, 8.78457129e-02f, -3.81437293e-03f, -6.18338920e-02f, 1.46850031e-02f, 5.04134875e-03f, -4.33593616e-02f, 1.04544140e-01f,
    -6.19075820e-02f, 2.74782814e-02f, -1.25779472e-02f, -1.94319442e-01f, -1.16986826e-01f, -1.89028885e-02f, -1.27671301e-01f, -4.19869795e-02f,
    -9.56538618e-02f, -3.97451818e-02f, -1.83752216e-02f, -2.35592127e-02f, -1.13423227e-03f, 2.96512991e-02f, -1.31712221e-02f, -2.15301011e-02f,
    4.57096063e-02f, -5.28236367e-02f, -1.64832897e-03f, 1.36271911e-02f, -5.49920201e-02f, -3.41434665e-02f, -4.44447808e-03f, -6.92031980e-02f,
    -6.38016537e-02f, -1.97755042e-02f, -4.27209064e-02f, -5.68652861e-02f, -6.08578958e-02f, -3.09292488e-02f, -2.02209805e-03f, -2.32820399e-02f,
    -4.92058247e-02f, -3.89826037e-02f, -5.21916114e-02f, 4.19392884e-02f, 1.24751620e-01f, 1.47505403e-02f, -5.42014092e-02f, 1.89767196e-03f,
    2.20591156e-03f, -4.35575331e-03f, 2.01925114e-02f, 3.17400731e-02f, -5.36750369e-02f, -4.57126237e-02f, -5.92248049e-03f, -1.01106718e-01f,
    -7.49400780e-02f, -1.94729108e-03f, -4.58028316e-02f, -7.82719702e-02f, -2.89615821e-02f, -2.54837424e-02f, -4.43269014e-02f, -4.98310626e-02f,
    3.80112939e-02f, 4.11475599e-02f, 8.39725416e-03f, -1.90518759e-02f, -1.01540778e-02f, 1.71226356e-02f, 3.83726396e-02f, 3.96247208e-03f,
    4.80398117e-03f, 5.62890880e-02f, -6.04568161e-02f, 3.15070972e-02f, 6.97617456e-02f, -7.47398939e-04f, 4.24672067e-02f, -3.93968783e-02f,
    -5.13866805e-02f, -8.74743015e-02f, -7.14793280e-02f, -3.13009210e-02f, 2.92794276e-02f, -2.83930041e-02f, 3.88862677e-02f, 7.65552595e-02f,
    4.82236296e-02f, 6.55770376e-02f, 6.97513297e-02f, 6.82257935e-02f, 5.68182990e-02f, 3.23883034e-02f, 4.90449630e-02f, 4.22755368e-02f,
    3.51667479e-02f, 4.62549389e-04f, -3.16343345e-02f, -4.06119339e-02f, -1.67698748e-02f, -2.02968288e-02f, -3.77586670e-02f, -1.16611412e-03f,
    -1.29165379e-02f, -3.04736551e-02f, 6.82641054e-03f, 1.76256429e-02f, 1.43506462e-02f, 3.32616009e-02f, 5.70405610e-02f, 2.77984552e-02f,
    1.78031772e-02f, 2.77439039e-02f, 9.73412395e-03f, -1.72879919e-02f, -2.71835290e-02f, -2.33196579e-02f, -2.74710823e-02f, -1.17578786e-02f,
    -5.75495232e-03f, -2.32502799e-02f, -2.68756580e-02f, -1.51351998e-02f, 5.63725503e-03f, 1.70968585e-02f, 8.96569341e-03f, -3.53097427e-03f,
    1.67200118e-02f, 4.29774402e-03f, 1.03440639e-02f, 2.88035125e-02f, 1.46976449e-02f, 4.15282175e-02f, 2.77641625e-03f, -9.86405835e-03f,
    2.40390599e-02f, -4.97072563e-03f, -2.81980205e-02f, 1.04291573e-01f, 4.06731032e-02f, 9.50830709e-03f, 3.02001573e-02f, -3.04972306e-02f,
    -4.82658744e-02f, -1.58549787e-03f, -2.91759260e-02f, -5.04350401e-02f, 1.74229443e-02f, -2.37833280e-02f, -4.86273468e-02f, 2.08152700e-02f,
    -2.20361371e-02f, 1.97381992e-02f, 1.73235349e-02f, -5.71878580e-03f, 3.41698993e-03f, 1.05329193e-02f, -1.33020226e-02f, -5.81918517e-03f,
    5.51283397e-02f, 5.69341518e-02f, 4.86800969e-02f, 2.50800401e-02f, 2.79395469e-02f, 2.79955473e-02f, 3.12265605e-02f, 8.64377711e-03f,
    2.66155824e-02f, 8.83859862e-03f, -2.91908327e-02f, -5.99311851e-03f, 1.54310055e-02f, -3.40151079e-02f, -7.01025920e-03f, 3.23655573e-03f,
    -2.45745871e-02f, -6.05120510e-03f, 1.53865675e-02f, -1.90851521e-02f, -1.69722028e-02f, 3.54796350e-02f, -3.47543545e-02f, -2.54045222e-02f,
    3.55842412e-02f, -1.52843995e-02f, -1.79235227e-02f, 3.78149338e-02f, -1.24603128e-02f, -4.68046404e-02f, -8.13692529e-03f, -4.97122332e-02f,
    -6.39134645e-02f, -2.47459896e-02f, -4.55958769e-02f, -5.36563732e-02f, 5.88695556e-02f, 8.89007524e-02f, 7.41590112e-02f, 9.91026759e-02f,
    1.07596859e-01f, 9.60408747e-02f, 9.08088014e-02f, 9.62707102e-02f, 9.50299948e-02f, -3.82970669e-03f, -2.23218575e-02f, 2.19519585e-02f,
    -4.26765084e-02f, -6.17536008e-02f, -3.86738107e-02f, -4.76136841e-02f, -3.36245671e-02f, -1.99912842e-02f, -5.80082834e-02f, -4.09032702e-02f,
    -1.11070871e-02f, -2.98504587e-02f, -3.86270136e-02f, -1.51211796e-02f, -3.92086171e-02f, -3.87045518e-02f, -2.39293650e-02f, 1.44051202e-03f,
    -1.90760903e-02f, -3.20281833e-02f, -3.13638449e-02f, -3.21024433e-02f, -3.93650457e-02f, 4.41858219e-03f, 4.38640174e-03f, -9.59459879e-03f,
    4.31477800e-02f, 4.41851802e-02f, 3.74182872e-02f, 4.92435321e-02f, 5.90349026e-02f, 7.04893246e-02f, 2.78287176e-02f, 3.85805890e-02f,
    4.69841473e-02f, -5.15452363e-02f, -4.60727401e-02f, -2.15022583e-02f, -3.73389684e-02f, -1.67673249e-02f, -2.33073141e-02f, -5.44104874e-02f,
    -4.05786820e-02f, -2.96459217e-02f, 1.91665515e-02f, -2.70975903e-02f, 8.27665348e-03f, -3.61626856e-02f, -9.12165046e-02f, -5.36212698e-02f,
    -4.07925211e-02f, -7.95724019e-02f, -6.37733266e-02f, 1.14382833e-01f, 1.23938069e-01f, 1.54289722e-01f, 1.20948657e-01f, 8.40288624e-02f,
    9.53456685e-02f, 1.35801315e-01f, 7.79071748e-02f, 9.92142111e-02f, 6.76354095e-02f, 5.47191463e-02f, 2.70852577e-02f, 4.29834388e-02f,
    2.79123224e-02f, 1.96103379e-02f, 5.47296852e-02f, 4.18136232e-02f, 3.66718508e-02f, -4.41550352e-02f, -4.56238762e-02f, 1.29350889e-02f,
    -3.32332142e-02f, -3.48744020e-02f, 2.14460157e-02f, 1.83436424e-02f, -1.31841460e-02f, 2.69802604e-02f, 3.32591794e-02f, 1.27340518e-02f,
    -3.04342601e-02f, 2.77661216e-02f, 2.57873461e-02f, -8.22701864e-03f, 2.73446180e-02f, 6.36486243e-03f, -2.11852752e-02f, -1.19788647e-02f,
    -3.80960070e-02f, -1.64526831e-02f, -2.81759147e-02f, -4.19917777e-02f, -2.28551757e-02f, -1.24116503e-02f, -5.69083616e-02f, -2.80967150e-02f,
    -3.56514528e-02f, -4.25477065e-02f, 4.96763829e-03f, -5.24326600e-02f, -6.72259331e-02f, -4.69599776e-02f, -4.11456563e-02f, -4.49292772e-02f,
    -1.82755049e-02f, -4.53721592e-03f, -2.71514393e-02f, -1.31261209e-02f, -4.34178635e-02f, -5.17143384e-02f, -5.84696829e-02f, -3.84639017e-02f,
    -4.68214564e-02f, -5.29636554e-02f, 4.01546173e-02f, 9.48421191e-03f, -3.93749727e-03f, -7.36458879e-03f, 8.36600643e-03f, -2.64914967e-02f,
    1.67119876e-02f, 2.61856727e-02f, -1.21248430e-02f, -1.50679350e-02f, -3.93116735e-02f, -4.83033210e-02f, -1.44645777e-02f, -1.39444573e-02f,
    -1.39519935e-02f, -1.90529638e-04f, 9.15508997e-03f, 4.66196751e-03f, 5.72567880e-02f, 1.99942477e-02f, 7.30607938e-03f, 6.47522062e-02f,
    2.68438943e-02f, 7.58028124e-03f, 6.16210885e-02f, 3.43381017e-02f, 1.60650201e-02f, -2.00679619e-02f, -3.06551140e-02f, -4.59441356e-02f,
    -2.93452088e-02f, -2.26587392e-02f, -3.89754698e-02f, 9.69055388e-03f, -1.95307713e-02f, -1.50993010e-02f, 2.37360746e-02f, -2.24188045e-02f,
    -9.50660557e-03f, 4.33500074e-02f, -1.96984643e-03f, -2.02109311e-02f, 1.90788917e-02f, -1.61463376e-02f, -2.63841338e-02f, 2.01405608e-03f,
    -4.03516591e-02f, -4.46546152e-02f, -4.70660254e-02f, -6.52220845e-02f, -4.85069416e-02f, -6.80683330e-02f, -9.09885690e-02f, -7.71256983e-02f,
    7.80661777e-02f, -3.07227075e-02f, -1.53008997e-02f, -1.82202086e-02f, -6.52146935e-02f, 2.06349716e-02f, -4.90345992e-04f, -3.21418643e-02f,
    1.76589079e-02f, 1.76984333e-02f, -2.32095849e-02f, 1.93972420e-02f, -3.44644859e-02f, 2.16074046e-02f, 9.07930732e-03f, -3.47097181e-02f,
    1.62474476e-02f, 1.01062637e-02f, 3.05735972e-03f, 1.66744590e-04f, -1.07466429e-01f, -7.67075717e-02f, 1.09433845e-01f, -8.77580270e-02f,
    -1.21385753e-01f, 5.51103391e-02f, 3.85040902e-02f, -8.61969143e-02f, 1.34227216e-01f, 2.73951814e-02f, -1.74956489e-02f, 1.95333660e-01f,
    -1.17778229e-02f, -3.11566964e-02f, 8.08684900e-02f, -7.33136311e-02f, -1.04272822e-02f, -9.21422392e-02f, 4.89066988e-02f, 7.00809136e-02f,
    -2.23653093e-02f, 5.61246052e-02f, 2.60549635e-02f, -6.34036660e-02f, -5.99878617e-02f, -4.84407544e-02f, -7.04078823e-02f, 1.10945776e-02f,
    -4.75785993e-02f, -4.49672081e-02f, -5.97952157e-02f, -1.97925922e-02f, -3.84325683e-02f, -8.46306048e-03f, -6.14051074e-02f, -1.57802284e-01f,
    1.70603616e-03f, -4.83777095e-03f, -9.38491598e-02f, -2.81978794e-03f, -1.44136362e-02f, -7.99485743e-02f, -2.95080356e-02f, 6.71938434e-02f,
    -7.73232104e-03f, 7.46368011e-03f, 6.34647310e-02f, -2.49580946e-02f, -8.27029254e-03f, 4.78960052e-02f, -9.77219492e-02f, -2.15609875e-02f,
    -3.18629644e-03f, -1.38233583e-02f, 4.94148443e-03f, 4.31390367e-02f, 1.91602185e-02f, 2.70152185e-02f, 4.50451486e-02f, 4.51589525e-02f,
    9.11152177e-03f, 4.38756868e-02f, -6.77470043e-02f, 8.26358050e-02f, 7.38664418e-02f, -2.03093231e-01f, 1.38657406e-01f, 5.23266345e-02f,
    -7.73413256e-02f, 1.29714742e-01f, -1.39412424e-02f, -7.85671145e-05f, 1.52807105e-02f, -4.44460614e-03f, 1.01957642e-01f, -1.67091768e-02f,
    -2.77084690e-02f, 1.12489844e-02f, -3.68397497e-03f, 3.07171531e-02f, 5.46864942e-02f, 1.23425797e-01f, 6.75974265e-02f, -1.05098046e-01f,
    -6.69102296e-02f, 9.97784808e-02f, -3.76404375e-02f, -3.21472846e-02f, 4.98188147e-03f, -2.39569973e-02f, 4.30765934e-02f, 1.44990580e-02f,
    6.57192916e-02f, -4.07299288e-02f, -4.49944334e-03f, 1.00947078e-02f, 1.57249197e-02f, 9.00005251e-02f, 7.77424797e-02f, 4.08396274e-02f,
    7.56701306e-02f, -5.10755815e-02f, 7.72163197e-02f, -1.04857506e-02f, -8.51331502e-02f, -1.44679118e-02f, 2.32289527e-02f, -8.09443593e-02f,
    1.27947498e-02f, -5.27428687e-02f, 7.53049972e-03f, -6.50255308e-02f, 2.57206913e-02f, -4.79093678e-02f, 3.97634208e-02f, 5.35679050e-02f,
    -1.07125558e-01f, -2.71341763e-02f, 1.24545671e-01f, -8.57040882e-02f, 1.06781051e-01f, -4.55296934e-02f, -8.12448859e-02f, 3.18725482e-02f,
    -9.48527753e-02f, -8.36566687e-02f, -7.59145617e-02f, -3.70686105e-03f, 2.50774860e-01f, -3.55899893e-02f, -3.74510810e-02f, -1.77970454e-02f,
    -7.56499618e-02f, -3.68026793e-02f, -6.31482899e-03f, -3.11360434e-02f, -4.18932214e-02f, 8.05785730e-02f, -4.34821360e-02f, -2.05087531e-02f,
    3.09166182e-02f, -1.57195178e-03f, -2.55763661e-02f, -1.62743479e-02f, -7.49538280e-03f, -3.07321809e-02f, 1.14861943e-01f, -1.17680449e-02f,
    -6.65962845e-02f, -1.62718575e-02f, -3.39060687e-02f, 5.43903885e-03f, -4.17510327e-03f, 1.60254519e-02f, 1.61251016e-02f, 2.94136144e-02f,
    -1.11444725e-03f, -3.12934294e-02f, -8.64396319e-02f, -7.66625348e-03f, 9.56509411e-02f, -1.09423317e-01f, -5.88347837e-02f, 2.72806197e-01f,
    -7.86488354e-02f, -2.91955937e-02f, 9.29969698e-02f, -1.13383960e-03f, -6.51133657e-02f, -1.97321102e-02f, -5.43625727e-02f, 4.43320684e-02f,
    -2.16504261e-02f, -6.81976378e-02f, -5.29138558e-02f, 5.07965013e-02f, 8.51221848e-03f, -7.24111721e-02f, 6.17074408e-02f, -1.20326728e-02f,
    3.35508175e-02f, 1.21912966e-02f, -8.76219571e-02f, -2.04260983e-02f, 9.64317545e-02f, 8.78848322e-03f, 6.36817738e-02f, 2.39144079e-02f,
    5.26880696e-02f, 4.18435894e-02f, -2.64639538e-02f, -1.59763351e-01f, 5.26104905e-02f, -8.99889041e-03f, 6.20139241e-02f, 9.65812206e-02f,
    -8.33602324e-02f, -9.08465981e-02f, 1.01476731e-02f, -4.54670489e-02f, 6.40877038e-02f, -1.75890196e-02f, 2.57940162e-02f, -5.92833087e-02f,
    -5.52528538e-02f, 8.03174600e-02f, 9.16568413e-02f, 5.93052879e-02f, 5.02481312e-03f, -3.20174217e-01f, -1.37425708e-02f, 1.42481197e-02f,
    -2.91613415e-02f, 1.99130289e-02f, 2.42709778e-02f, -3.72266658e-02f, -6.00374192e-02f, 7.97385536e-03f, 2.35012360e-02f, -4.73375618e-02f,
    8.37355666e-03f, 4.35632132e-02f, 3.10213584e-02f, -6.04715385e-02f, -8.79214555e-02f, -7.44688660e-02f, 5.61151770e-04f, 3.84488627e-02f,
    4.83688060e-03f, 4.04708050e-02f, 8.36228579e-02f, 2.92757004e-02f, -2.11658087e-02f, 4.18740548e-02f, -1.74643937e-02f, -4.30675782e-02f,
    -3.43878753e-02f, -9.91531387e-02f, 9.48064774e-02f, 7.20273629e-02f, -4.08765525e-02f, -5.11006154e-02f, -1.28059313e-01f, -3.37854140e-02f,
    1.18709197e-02f, -2.67567914e-02f, 2.91554220e-02f, -7.33765066e-02f, -6.75602704e-02f, -1.99140273e-02f, 1.02051999e-02f, 1.54490937e-02f,
    -3.46858837e-02f, -6.11565374e-02f, -5.50676733e-02f, -4.46619876e-02f, -4.54588979e-03f, 8.30346122e-02f, 7.27779344e-02f, 4.46814783e-02f,
    -2.33235564e-02f, 3.15875164e-03f, -3.35352831e-02f, -1.62570029e-01f, -1.86847933e-02f, 2.15657111e-02f, -3.38336453e-02f, 1.64275244e-03f,
    3.70370661e-04f, -2.89772684e-03f, -1.42020825e-02f, 1.67829655e-02f, -2.34482321e-03f, 3.08108795e-03f, 2.13783663e-02f, 3.71781178e-03f,
    -1.55580800e-03f, 4.14728597e-02f, 2.77771726e-02f, -4.24011797e-03f, 2.02019177e-02f, -3.85616682e-02f, -1.75755043e-02f, 2.16994695e-02f,
    -5.61118184e-04f, 9.03828419e-04f, 8.77382904e-02f, 2.38115620e-02f, -4.44626994e-02f, 7.41882622e-02f, 1.03248982e-03f, -5.26553355e-02f,
    2.75400691e-02f, -2.26134527e-02f, -5.44924997e-02f, -1.69658419e-02f, -7.42284721e-03f, -8.40882584e-02f, 5.33305481e-03f, 2.33896207e-02f,
    -3.48932333e-02f, 1.02337720e-02f, 1.37839802e-02f, -4.29831259e-02f, 1.67947114e-01f, 1.33637398e-01f, 4.99610938e-02f, 7.31679350e-02f,
    1.53379012e-02f, -1.86705205e-03f, 9.09404680e-02f, 6.16381988e-02f, -3.40339914e-02f, -5.42679578e-02f, -1.02400228e-01f, 5.72546944e-02f,
    -2.62442902e-02f, -1.29010767e-01f, -2.31002849e-02f, 1.34432577e-02f, -2.57935394e-02f, 2.63473615e-02f, 7.13411942e-02f, 2.08850622e-01f,
    2.15540398e-02f, 6.83588684e-02f, 1.65584788e-01f, 4.45310511e-02f, 8.78812396e-04f, 4.71508652e-02f, 8.49682465e-03f, 1.74785443e-02f,
    -9.88128483e-02f, -2.41331710e-03f, 1.52690709e-02f, -4.82031479e-02f, -1.42644756e-02f, -4.03769389e-02f, -9.46205258e-02f, -2.25872137e-02f,
    -8.44597630e-03f, 9.81146656e-03f, -3.34152132e-02f, -4.53966781e-02f, -4.04881090e-02f, -3.64652649e-02f, -6.70851097e-02f, -6.39811829e-02f,
    -1.34928543e-02f, 1.55665278e-01f, -1.73560623e-03f, -8.75684768e-02f, 9.20318589e-02f, 9.25921928e-03f, -6.33574277e-02f, 1.33825123e-01f,
    5.91770187e-02f, -1.94389969e-02f, -2.33519003e-02f, -2.68593486e-02f, -2.37427745e-03f, -3.04364972e-02f, -6.63627777e-03f, 8.20962805e-03f,
    -3.13331559e-02f, -2.29591504e-02f, 1.29500786e-02f, 3.99679393e-02f, 1.40894558e-02f, -2.01084819e-02f, -7.45867938e-02f, -3.06170043e-02f,
    -4.01894152e-02f, 2.04738285e-02f, 2.88116075e-02f, -5.51779289e-03f, -9.22096446e-02f, -7.72055164e-02f, 2.70639379e-02f, -1.69912279e-02f,
    1.30607057e-02f, 8.12240914e-02f, -5.23250774e-02f, -4.35102284e-02f, 6.59400746e-02f, 6.19795099e-02f, 4.69937958e-02f, -4.73731793e-02f,
    -4.76991571e-03f, -1.42613361e-02f, -9.26250219e-02f, 2.34199632e-02f, -9.44185711e-04f, -4.70155329e-02f, 2.93214265e-02f, 4.22455743e-02f,
    -8.25579558e-03f, -8.12815735e-04f, 1.61080752e-02f, -1.55108878e-02f, 7.12234154e-02f, 6.12202957e-02f, 4.32823561e-02f, 9.97407213e-02f,
    2.12175891e-01f, 4.92243059e-02f, 3.91949415e-02f, 5.10779321e-02f, -1.60137527e-02f, 6.74054101e-02f, 1.34002939e-01f, 2.50410028e-02f,
    -2.50738412e-02f, 3.54467779e-02f, -2.81405430e-02f, 1.53861626e-03f, 5.87515254e-03f, 2.01452989e-02f, -7.49175204e-03f, 7.36591453e-03f,
    -1.21120224e-02f, -3.93070327e-03f, -2.15597786e-02f, 1.22929423e-03f, -2.38219136e-03f, -2.96373013e-02f, 2.70923097e-02f, 1.23367542e-02f,
    -1.37341591e-02f, 2.78981719e-02f, 1.50014013e-02f, -3.73036438e-03f, -7.40363495e-03f, 5.13635017e-03f, -3.95948701e-02f, -1.91238243e-02f,
    -1.07206195e-03f, -3.03807463e-02f, -1.15143787e-02f, -1.50301792e-02f, -8.69691670e-02f, -9.63427941e-04f, -1.02024727e-01f, -1.43111989e-01f,
    -1.45699307e-02f, -1.01889022e-01f, -1.02590889e-01f, -4.65221629e-02f, -6.90001920e-02f, 7.43712932e-02f, 2.62740821e-01f, -6.44984171e-02f,
    3.07645127e-02f, 2.25810170e-01f, -4.74938788e-02f, 5.65502606e-02f, 2.11589575e-01f, -5.78358844e-02f, -9.36371461e-02f, -1.05066746e-01f,
    -4.45678979e-02f, -6.11987859e-02f, -4.51838002e-02f, -3.43951583e-02f, -4.58563715e-02f, -3.31713073e-02f, 3.18853147e-02f, 9.17702764e-02f,
    8.46723020e-02f, -3.96424569e-02f, 5.00372564e-03f, 2.13672444e-02f, 2.96921898e-02f, 6.85280338e-02f, 4.05726992e-02f, -1.25692384e-02f,
    6.12412170e-02f, -2.19024401e-02f, 3.19279954e-02f, 4.53335010e-02f, -4.33770940e-02f, 6.91854730e-02f, 5.53959496e-02f, -4.44073565e-02f,
    -6.86037466e-02f, -6.74642026e-02f, -3.09060421e-02f, -9.24482197e-02f, -8.62452090e-02f, 2.09412631e-02f, -5.45860305e-02f, -5.94185814e-02f,
    -2.05793083e-02f, -1.32709399e-01f, -6.66820779e-02f, -7.67165199e-02f, -1.00447930e-01f, -4.13713902e-02f, -1.07438393e-01f, -3.08667831e-02f,
    -2.20066495e-02f, -2.92580146e-02f, -5.83399422e-02f, 3.22396006e-03f, -4.54438627e-02f, -3.81255075e-02f, 4.11992222e-02f, -2.80713700e-02f,
    -1.65818017e-02f, -8.26703734e-04f, 4.02256288e-03f, -5.19391857e-02f, -5.08238599e-02f, -7.33219236e-02f, -5.86811751e-02f, -3.22183520e-02f,
    -7.64426664e-02f, 1.34266317e-02f, 1.70650221e-02f, 2.65142396e-02f, -8.25189129e-02f, -6.38142452e-02f, -1.26013365e-02f, -5.57181351e-02f,
    1.25274044e-02f, 3.19548063e-02f, -4.41895649e-02f, -2.35064272e-02f, -2.91470606e-02f, 3.15863118e-02f, 1.66818947e-01f, 1.85375791e-02f,
    5.08980602e-02f, 1.47001430e-01f, -3.38965328e-03f, 2.39096768e-02f, 7.65207261e-02f, -2.57080458e-02f, 7.12808734e-03f, -7.58212283e-02f,
    2.51918361e-02f, -7.71010481e-03f, -5.02953604e-02f, 4.30395976e-02f, 1.79169569e-02f, 1.97156444e-02f, 6.95158914e-02f, -2.56541651e-02f,
    1.05164111e-01f, 2.71342713e-02f, -2.96674613e-02f, 5.66971116e-02f, -1.40819410e-02f, -7.21813440e-02f, -1.47478180e-02f, -2.05898266e-02f,
    -6.37877313e-03f, 5.51149622e-02f, 1.15650450e-03f, -5.83133362e-02f, 2.87966654e-02f, 2.29260251e-02f, 1.35685522e-02f, -8.21856335e-02f,
    -2.00904105e-02f, 2.41847932e-02f, -8.69877543e-03f, -2.51747426e-02f, -3.07434984e-02f, -7.52304820e-03f, 2.11680718e-02f, -2.35481467e-02f,
    2.71403696e-02f, -1.70758853e-04f, -1.05439506e-01f, -3.80338989e-02f, 4.88494784e-02f, 9.56642777e-02f, -1.75020210e-02f, -6.67192563e-02f,
    2.89838319e-03f, 6.39606789e-02f, -1.50870886e-02f, -8.05745870e-02f, -2.14108657e-02f, -6.31846301e-03f, 7.30888471e-02f, -4.59307209e-02f,
    -5.35042882e-02f, 3.70562077e-02f, -1.50635801e-02f, 6.54969364e-02f, -5.93542233e-02f, -5.54710329e-02f, -1.01507939e-02f, 3.19001527e-04f,
    -4.51613702e-02f, -6.27383217e-02f, 4.52459268e-02f, 1.40331492e-01f, 4.66773324e-02f, -7.43971840e-02f, -6.95175258e-03f, 1.10829197e-01f,
    -1.04213908e-01f, -9.96290818e-02f, -6.74129725e-02f, -1.23338088e-01f, -1.08857185e-01f, -1.27912879e-01f, -8.36145803e-02f, -1.07135542e-01f,
    -7.39364922e-02f, 1.07171603e-01f, 9.73139629e-02f, 9.86288488e-02f, 1.33634899e-02f, 8.95291567e-04f, 1.92084927e-02f, -2.45064702e-02f,
    -7.75807798e-02f, -2.75405347e-02f, 7.50178695e-02f, -2.41423566e-02f, -5.96050657e-02f, 5.90751879e-02f, 1.17320314e-01f, -2.54124999e-02f,
    1.03032000e-01f, 4.80719618e-02f, -4.26973440e-02f, -1.00691468e-01f, 1.29818050e-02f, 9.73577201e-02f, -5.20136813e-03f, -6.57442361e-02f,
    -8.88998955e-02f, -1.34131208e-01f, -1.01854011e-01f, -9.25960317e-02f, 5.39545752e-02f, -1.30680755e-01f, -7.16666207e-02f, -2.32949555e-02f,
    -4.51593734e-02f, 2.62822267e-02f, 2.57469295e-03f, -1.59330387e-02f, -3.39063108e-02f, 6.04791753e-02f, 2.24294490e-03f, -2.41596177e-02f,
    -8.79070349e-03f, 3.69393192e-02f, 4.05985080e-02f, -7.71806017e-02f, -9.69892666e-02f, -7.18104839e-02f, 3.40120271e-02f, -9.16845165e-03f,
    -3.78564224e-02f, -6.54347381e-03f, 1.01277754e-01f, 9.59044546e-02f, -1.05646811e-02f, -3.23791616e-02f, 1.55538069e-02f, 1.97134987e-02f,
    -6.36772625e-03f, -6.86261579e-02f, 1.80656500e-02f, 6.97643906e-02f, -9.64148494e-04f, 8.87149498e-02f, 5.77834919e-02f, -1.30597223e-02f,
    -4.20524999e-02f, -1.65747423e-02f, 6.09460101e-02f, -3.18122767e-02f, -8.94074291e-02f, -8.20360035e-02f, -1.78686064e-02f, 1.05694003e-01f,
    8.49294886e-02f, -1.15195319e-01f, -4.61865216e-02f, -7.71905761e-03f, -1.29616251e-02f, -1.08189201e-02f, -2.96205189e-02f, -1.05767883e-02f,
    5.01789078e-02f, 2.58726180e-02f, -4.36366647e-02f, -2.96469051e-02f, 6.36983514e-02f, -2.86941305e-02f, -6.07400797e-02f, -9.93327051e-02f,
    -5.98030277e-02f, 9.85675119e-03f, 3.98346363e-03f, -4.45646886e-03f, -3.88118513e-02f, 1.97101720e-02f, -6.21258933e-03f, 3.80595997e-02f,
    -1.54387606e-02f, 6.07110746e-02f, -2.20398093e-03f, -2.88128797e-02f, 2.38403096e-03f, 1.66653711e-02f, 3.10019869e-02f, -5.57762198e-02f,
    -2.01750509e-02f, -1.30011383e-02f, -8.68945569e-03f, 3.69212367e-02f, -8.09008852e-05f, -1.74584631e-02f, -3.33235525e-02f, 4.31428757e-03f,
    7.88099878e-03f, 3.80365588e-02f, -3.66728902e-02f, -5.86422198e-02f, 1.31609105e-02f, 5.65035194e-02f, -8.60723760e-03f, -4.70968382e-03f,
    -7.36682815e-03f, -7.19087720e-02f, 4.25329581e-02f, 2.96134390e-02f, 1.03037082e-01f, -6.39254004e-02f, -6.19097725e-02f, -3.19797769e-02f,
    8.12510177e-02f, -1.01404507e-02f, -8.73937383e-02f, -2.87176576e-03f, 7.97057822e-02f, 6.65455833e-02f, 4.14249115e-02f, 2.19136700e-02f,
    6.34394120e-03f, 1.19796224e-01f, 1.31177217e-01f, -2.63551418e-02f, -3.63883525e-02f, 6.41225055e-02f, -2.13891547e-02f, 1.89080045e-01f,
    1.90693051e-01f, -1.33895263e-01f, 3.49707305e-02f, 1.31545871e-01f, -8.65736753e-02f, -9.32596326e-02f, -8.72240886e-02f, 7.59119391e-02f,
    1.99487638e-02f, -8.93482417e-02f, 1.82965007e-02f, 3.33833246e-04f, 2.56734062e-02f, -8.15137383e-03f, -7.30126724e-02f, -2.28402950e-02f,
    -8.29554796e-02f, -6.85287938e-02f, -8.25002939e-02f, 4.89283092e-02f, -2.62401346e-02f, -1.17770635e-01f, 6.88366443e-02f, 1.58080295e-01f,
    1.09959982e-01f, 2.96534356e-02f, -1.13630585e-01f, -1.32766098e-01f, -3.41588967e-02f, -1.14081375e-01f, -3.27313654e-02f, -1.15070203e-02f,
    -1.42382961e-02f, 4.37306650e-02f, -5.78471981e-02f, -8.45578499e-03f, 5.29430248e-02f, -3.20051908e-02f, -1.11931525e-01f, -1.03642326e-02f,
    5.40225804e-02f, 2.98827793e-02f, -8.01535547e-02f, 7.93263316e-02f, -7.96516836e-02f, -1.14392713e-01f, 9.65585653e-03f, 6.56580403e-02f,
    9.05923843e-02f, -4.23077233e-02f, -1.28279865e-01f, 3.55804600e-02f, -8.86333138e-02f, -1.26406521e-01f, 2.29486022e-02f, 1.18047088e-01f,
    -8.65323693e-02f, -1.33968845e-01f, 1.68651305e-02f, 1.84264213e-01f, -2.09368113e-02f, 5.60960658e-02f, 8.81640986e-02f, 3.83487456e-02f,
    -1.10967606e-02f, -7.77502805e-02f, -1.36290779e-02f, 3.41371261e-02f, 3.40079404e-02f, -2.29220167e-02f, 2.91521978e-02f, -6.97682425e-02f,
    -8.10697600e-02f, 1.23040855e-01f, 2.57943254e-02f, -1.22166917e-01f, -5.59943542e-02f, 1.02420844e-01f, 1.35067612e-01f, 9.00656357e-03f,
    -4.77643237e-02f, -1.28652722e-01f, 1.68373976e-02f, 1.30424118e-02f, -4.09076549e-02f, -4.26906236e-02f, 2.60835774e-02f, 8.61993805e-02f,
    -5.23529910e-02f, -3.11725512e-02f, -6.17752708e-02f, -1.06039308e-02f, 7.31002614e-02f, 3.39674428e-02f, -3.75287235e-02f, 1.44569473e-02f,
    -2.62139086e-02f, 1.72729958e-02f, 1.50225367e-02f, -1.49096707e-02f, 2.29605436e-02f, 1.78704914e-02f, -2.75296383e-02f, -2.11094432e-02f,
    -3.23464610e-02f, -3.22863758e-02f, 2.73250192e-02f, 3.11985053e-02f, 2.04028208e-02f, 2.38751713e-03f, 1.00967707e-02f, 3.61165293e-02f,
    -3.73681486e-02f, -4.00391258e-02f, 1.42718153e-02f, -1.06234774e-02f, -7.93984085e-02f, 4.52508070e-02f, 4.41071354e-02f, -9.23324078e-02f,
    4.83875051e-02f, 7.27165584e-03f, -6.62060753e-02f, 3.74809466e-02f, -5.57839982e-02f, -2.92821135e-02f, 6.28119111e-02f, -5.17431051e-02f,
    2.63957400e-03f, 5.17287813e-02f, -3.73126976e-02f, 2.42262501e-02f, 5.35771623e-02f, -3.03051770e-02f, -5.69691807e-02f, 2.03786464e-03f,
    -3.45164612e-02f, -5.00030369e-02f, -1.81507580e-02f, 1.49212060e-02f, 8.51410441e-03f, -1.67160798e-02f, 1.77250952e-01f, 5.77198789e-02f,
    -1.90178066e-01f, 2.34510377e-01f, -1.03161983e-01f, -1.76642671e-01f, 1.04979061e-01f, -1.50722176e-01f, -1.81915388e-01f, -1.10200904e-02f,
    -5.47635928e-02f, -6.91994501e-04f, 3.52121657e-04f, -3.29417847e-02f, 7.48082111e-03f, 9.54189152e-03f, -2.03803107e-02f, -1.94319841e-02f,
    -3.57911369e-04f, 2.01779045e-02f, -4.74000908e-02f, -2.16506813e-02f, 3.44231888e-03f, -5.44139668e-02f, -2.37237569e-02f, -4.77758422e-02f,
    -2.14319602e-02f, -9.62728262e-03f, -7.39444001e-03f, 3.37995030e-03f, -5.61087392e-02f, 1.55338654e-02f, -6.46712184e-02f, -4.87409607e-02f,
    3.04557700e-02f, -4.47461382e-04f, -2.44744364e-02f, -2.47428734e-02f, -1.92655660e-02f, 1.81513634e-02f, 3.45752621e-03f, -5.60133439e-03f,
    2.89801434e-02f, 1.98600832e-02f, -5.82615659e-03f, 9.52988043e-02f, 2.65446212e-02f, -4.30018418e-02f, 2.88895275e-02f, 2.17752047e-02f,
    -4.08207662e-02f, 1.71495378e-02f, 9.98377707e-03f, 2.87869796e-02f, 4.40564565e-02f, 4.54178900e-02f, 1.88539829e-02f, 2.34365650e-02f,
    6.19261106e-03f, 4.28059474e-02f, 7.71979466e-02f, 1.75105464e-02f, 6.77890182e-02f, 7.76980305e-03f, -2.01597642e-02f, 6.30573407e-02f,
    2.52477396e-02f, -5.37972599e-02f, 6.22163564e-02f, 2.91562583e-02f, -1.95310283e-02f, 3.75341773e-02f, 8.70699063e-03f, -6.02577068e-03f,
    3.54910898e-03f, -2.00473145e-03f, 8.79136100e-03f, -4.84110415e-02f, 7.05547407e-02f, 1.70860458e-02f, 1.14791412e-02f, 2.70114206e-02f,
    1.60152093e-04f, 2.73886621e-02f, 3.54551263e-02f, -1.85539331e-02f, 2.24047229e-02f, -9.22297500e-03f, -1.67384744e-02f, 1.37399882e-02f,
    -7.74688262e-04f, -3.37382145e-02f, 1.54506285e-02f, 3.60265598e-02f, -2.39082556e-02f, -4.44922037e-03f, 2.31869761e-02f, -2.54202075e-02f,
    3.38959694e-03f, -5.93014201e-03f, 3.34248319e-02f, 3.25252418e-03f, -2.88195186e-03f, 1.93118099e-02f, -1.83755960e-02f, 2.46902667e-02f,
    1.45717049e-02f, -1.19538680e-02f, 2.10900581e-03f, -1.53549230e-02f, -4.38268716e-03f, 2.72447206e-02f, 4.38232254e-03f, 1.88304856e-02f,
    -7.29262643e-03f, -1.24944039e-02f, 4.17318806e-04f, 4.87416200e-02f, -4.91581336e-02f, -5.46845309e-02f, -9.67739895e-03f, -5.92667460e-02f,
    -4.79703210e-02f, -1.53491292e-02f, -1.28846653e-02f, 4.39893082e-03f, -5.41432351e-02f, 1.48330657e-02f, 2.16999985e-02f, -8.02612528e-02f,
    4.42090328e-04f, 2.41851867e-05f, -1.98605098e-02f, 2.15856060e-02f, 2.31125169e-02f, -4.18379828e-02f, 1.07615270e-01f, 3.92406099e-02f,
    -3.39988917e-02f, 8.93640518e-03f, -8.57525319e-03f, -6.28014728e-02f, -9.79435816e-02f, -1.68270208e-02f, 2.74904203e-02f, 3.05117462e-02f,
    3.34783904e-02f, 3.70351747e-02f, 3.32647073e-03f, -1.71735641e-02f, 6.28225580e-02f, 1.01358956e-02f, 2.58008298e-02f, -2.05805395e-02f,
    1.88847072e-02f, 1.68227945e-02f, -4.75573614e-02f, -2.87258811e-02f, -4.26490158e-02f, 1.01868203e-02f, -6.28081569e-03f, -6.30038455e-02f,
    -3.93879935e-02f, -3.78064960e-02f, 1.64892264e-02f, -2.15576254e-02f, -4.84517664e-02f, 7.21780658e-02f, -1.77124534e-02f, 3.45675345e-03f,
    5.92927709e-02f, -8.97798538e-02f, -3.54828387e-02f, -2.71953307e-02f, -1.09792538e-01f, -5.44302985e-02f, -9.00928006e-02f, 1.28145553e-02f,
    3.71175520e-02f, -1.16253330e-03f, 8.05572271e-02f, -2.86010820e-02f, -1.06101997e-01f, 1.81091964e-01f, -3.23022418e-02f, -1.29545093e-01f,
    1.38578594e-01f, -9.78866592e-03f, -1.22824535e-01f, -2.08665170e-02f, -6.82790205e-02f, -2.60900036e-02f, -2.14167237e-02f, -8.62114653e-02f,
    -2.41374969e-02f, 7.18084443e-03f, -3.27993296e-02f, 2.46884744e-03f, -1.12789655e-02f, -8.81063193e-02f, -2.02054791e-02f, 1.91006474e-02f,
    -1.48884561e-02f, 6.45230860e-02f, 1.48772290e-02f, -1.50731429e-02f, 7.06441253e-02f, -1.48133457e-01f, -1.08163521e-01f, 1.07504651e-01f,
    -1.77013963e-01f, -7.86505714e-02f, 1.86283320e-01f, -1.68404132e-01f, 6.50689751e-02f, 1.31857157e-01f, 6.30803630e-02f, 4.10766304e-02f,
    2.14772262e-02f, -1.72837321e-02f, -4.71321568e-02f, -5.84936291e-02f, -7.61936139e-03f, -1.75919139e-03f, -1.92744713e-02f, -7.60418251e-02f,
    7.46041909e-02f, 1.74350172e-01f, -1.09821603e-01f, -2.72803940e-02f, 7.64717832e-02f, -1.28811851e-01f, -5.72942458e-02f, 3.33096436e-03f,
    8.27827603e-02f, 7.87042826e-02f, -1.51117016e-02f, -3.96821238e-02f, -1.57779399e-02f, 1.35642774e-02f, -1.86646599e-02f, -6.89776540e-02f,
    -2.93304492e-02f, -1.03749506e-01f, 7.95069486e-02f, 1.33317128e-01f, -9.89000350e-02f, -7.42850900e-02f, 6.15668390e-03f, 1.85866833e-01f,
    5.52666038e-02f, -1.46430179e-01f, 1.18716934e-03f, -2.01455709e-02f, -3.75858955e-02f, 8.51098001e-02f, 4.08677384e-02f, -3.79254110e-02f,
    3.41376625e-02f, 5.33983223e-02f, -4.32246597e-03f, -6.59679398e-02f, -1.20437536e-02f, 1.92272235e-02f, -2.09810911e-03f, 6.46378938e-03f,
    -4.82638776e-02f, -5.08837766e-05f, 2.50324234e-02f, -2.71119922e-02f, 4.94727120e-03f, 1.93088520e-02f, 2.06676051e-02f, -1.53112132e-02f,
    -3.03980112e-02f, -2.12970898e-02f, -3.87381129e-02f, -6.44016340e-02f, -5.33367060e-02f, 8.51362273e-02f, 2.30930001e-02f, -3.17593366e-02f,
    2.71465145e-02f, -2.19825236e-03f, 3.20677808e-03f, -2.15829592e-02f, -2.87936479e-02f, 8.57935380e-03f, -9.47192460e-02f, -1.87640756e-01f,
    -6.41255751e-02f, 3.65078598e-02f, 7.23534524e-02f, 1.13861253e-02f, 2.59458832e-02f, 9.93514284e-02f, 1.13461137e-01f, 4.03230228e-02f,
    -2.26242025e-03f, 2.16796412e-03f, -2.71134954e-02f, 1.55345201e-02f, 1.08114211e-02f, -2.75668292e-03f, 6.80068927e-03f, 1.52258035e-02f,
    6.02469128e-03f, -5.78957200e-02f, 6.44015800e-03f, 9.52948406e-02f, 5.15635535e-02f, -2.21543945e-02f, 7.59601546e-03f, 1.38303563e-02f,
    8.67761597e-02f, 1.07607491e-01f, 1.97388567e-02f, -7.33083906e-03f, 5.84103866e-03f, -8.36797878e-02f, -4.88033034e-02f, -4.59272554e-03f,
    -4.83759791e-02f, -6.77350014e-02f, 4.60302755e-02f, -2.56474242e-02f, -2.86695994e-02f, 1.96992476e-02f, 6.31490797e-02f, 8.28302056e-02f,
    -7.20043629e-02f, -2.35686973e-02f, 3.35027203e-02f, 3.15926112e-02f, -5.67300469e-02f, -2.72835623e-02f, -2.41305139e-02f, -9.59265605e-03f,
    3.10484916e-02f, 1.61875598e-02f, 3.04298587e-02f, 1.72713213e-02f, 4.57121953e-02f, 2.24002339e-02f, -3.33288275e-02f, 4.59658988e-02f,
    6.72979355e-02f, 3.16752009e-02f, -4.15306203e-02f, 2.18755938e-02f, 4.99055423e-02f, 2.30628625e-02f, 3.07690166e-02f, 7.52773881e-02f,
    -5.02093183e-03f, -8.55404884e-03f, 4.90354560e-02f, 6.77585080e-02f, 2.44068634e-02f, -1.29566295e-02f, -9.86132771e-03f, 1.48362843e-02f,
    4.08026502e-02f, -3.72181740e-03f, -1.31775707e-03f, -2.21646521e-02f, 2.44591832e-02f, 1.10313017e-02f, -1.73710808e-02f, -3.55630666e-02f,
    3.28525268e-02f, 8.75180289e-02f, -1.30308457e-02f, -9.29929614e-02f, -6.33260980e-02f, 6.05092831e-02f, 5.48728928e-02f, 3.79266925e-02f,
    -1.32735297e-01f, 1.32069150e-02f, 8.01030546e-02f, -2.55642030e-02f, -4.79271337e-02f, -8.24395344e-02f, 1.63302924e-02f, 2.25413255e-02f,
    -1.24344826e-01f, -5.76047972e-02f, -3.20161786e-03f, 5.96684851e-02f, -5.11404239e-02f, -4.03106622e-02f, 9.11457837e-03f, 5.35343178e-02f,
    4.55517918e-02f, -8.62070918e-02f, -1.51663041e-02f, 1.47677874e-02f, -7.41706369e-03f, -1.44808432e-02f, 4.26981552e-03f, 2.34394744e-02f,
    -1.07343234e-02f, -2.34131813e-02f, -1.20559772e-02f, -1.21137865e-01f, 1.36644086e-02f, 5.32451980e-02f, -4.64702100e-02f, -8.91686529e-02f,
    -5.91193289e-02f, 3.99181172e-02f, 4.38052826e-02f, -3.46247703e-02f, -4.08907011e-02f, -7.51730055e-03f, 5.79323657e-02f, -8.57560337e-03f,
    -1.30511187e-02f, 3.95237245e-02f, 4.28376831e-02f, -1.51398666e-02f, 6.90471902e-02f, -2.33892482e-02f, -6.57458156e-02f, -5.06080985e-02f,
    4.37026508e-02f, 6.32149503e-02f, -6.24610335e-02f, -1.04358971e-01f, 2.58337334e-02f, 5.18713146e-02f, 6.22446500e-02f, 4.67433557e-02f,
    -4.22747694e-02f, 3.48651372e-02f, 4.39152196e-02f, 1.60580012e-03f, 9.65457875e-03f, 1.72587857e-03f, 2.18563108e-03f, 4.44336161e-02f,
    -9.03920904e-02f, -4.54633236e-02f, 2.13151053e-02f, 7.41820270e-03f, -1.51793743e-02f, -2.14104541e-02f, -3.45878527e-02f, 2.18421239e-02f,
    1.69726126e-02f, 5.10960259e-02f, 2.99823340e-02f, -8.34896602e-03f, 6.89307088e-03f, 3.03319804e-02f, 2.35920325e-02f, -5.41676171e-02f,
    -6.81615993e-02f, 4.74999323e-02f, -3.48717533e-02f, -4.67039878e-03f, -1.16278626e-01f, -1.30971391e-02f, 3.81879956e-02f, -7.16874599e-02f,
    -6.82358891e-02f, -1.51384016e-02f, -2.47803051e-02f, 4.10954915e-02f, 1.19455732e-01f, -1.58814698e-01f, -1.32267177e-01f, 9.94333252e-02f,
    -2.51833741e-02f, -4.98421565e-02f, -6.49877861e-02f, -6.84273615e-02f, 9.44849662e-03f, 1.54188173e-02f, 5.61662167e-02f, -2.15801634e-02f,
    -8.84852037e-02f, 2.57153176e-02f, 6.03099838e-02f, 2.12107226e-02f, -2.49138307e-02f, -7.63271353e-04f, 3.69810350e-02f, -1.82935875e-02f,
    3.27192135e-02f, 5.65724261e-02f, -1.76999858e-03f, 1.99858341e-02f, -1.65392887e-02f, 6.78806230e-02f, 1.57002166e-01f, 3.62044163e-02f,
    -7.68200755e-02f, -1.37758791e-01f, -7.40337297e-02f, 3.10575124e-02f, -1.01086527e-01f, -1.39295205e-01f, 2.21546311e-02f, -1.25819668e-02f,
    -1.77497324e-02f, -6.72005415e-02f, -6.31239861e-02f, -2.85617448e-02f, -6.30647838e-02f, -3.96358930e-02f, -5.73667288e-02f, -7.26857856e-02f,
    -5.85037507e-02f, -3.88338007e-02f, 1.11985929e-01f, 2.62128888e-04f, -5.85651509e-02f, 1.44805880e-02f, -1.45857837e-02f, 6.33782744e-02f,
    -8.95644128e-02f, -5.89778535e-02f, 3.01200547e-03f, -1.07250595e-03f, 5.04163690e-02f, 4.37913090e-02f, 4.22328860e-02f, 3.31865326e-02f,
    6.97100116e-03f, 3.80206630e-02f, 1.87725853e-02f, 2.42867414e-02f, 2.27012411e-02f, 8.78553092e-03f, -1.13261156e-02f, -6.09585680e-02f,
    -4.48037274e-02f, -4.66057993e-02f, -3.63244079e-02f, -6.71268702e-02f, -2.16771234e-02f, -2.74294876e-02f, -2.49136090e-02f, 3.59764583e-02f,
    1.44294232e-01f, 1.49084285e-01f, 1.37705088e-01f, -4.59480509e-02f, -8.75886008e-02f, -3.14074643e-02f, -3.25375125e-02f, -5.34689687e-02f,
    -1.89957935e-02f, 1.96505133e-02f, 4.53537181e-02f, 2.07007229e-02f, 1.90193951e-02f, 2.18262692e-04f, 3.00707389e-02f, 2.04107892e-02f,
    -3.52654569e-02f, -5.39308935e-02f, 6.52444595e-03f, -3.53049152e-02f, -4.85435054e-02f, -3.01665533e-02f, -6.94412589e-02f, -3.42325233e-02f,
    -2.88880598e-02f, -6.86486661e-02f, -7.40507245e-02f, -8.88730399e-03f, -3.78220305e-02f, -1.49794780e-02f, -9.32475273e-03f, -6.94330335e-02f,
    -3.12167276e-02f, 1.02636702e-02f, 1.34620955e-02f, 6.50189742e-02f, 5.96884452e-03f, 4.81133871e-02f, 6.49518371e-02f, -2.58086552e-03f,
    -3.41607630e-02f, 3.07141505e-02f, 2.94239782e-02f, -4.98046689e-02f, 1.04793133e-02f, 3.54312472e-02f, 2.27024779e-02f, 1.35964826e-02f,
    -8.49218816e-02f, -6.88022748e-02f, -6.30084053e-02f, -4.33038585e-02f, -3.24207805e-02f, -2.11544819e-02f, 6.73500746e-02f, 4.39676791e-02f,
    -1.25420289e-02f, 3.66150811e-02f, -3.42236683e-02f, -2.73896344e-02f, -7.83499479e-02f, -1.10745244e-01f, -4.28980403e-02f, 3.63143012e-02f,
    5.14783114e-02f, 6.80713877e-02f, -4.43378240e-02f, -2.63516065e-02f, -2.23451201e-02f, 1.41277276e-02f, 3.33946794e-02f, 2.37190556e-02f,
    1.81319192e-03f, 8.48619174e-03f, 1.21165591e-03f, 9.48633328e-02f, 5.90534732e-02f, -1.49846170e-02f, -1.44262740e-03f, 2.03565182e-03f,
    -3.98250781e-02f, -4.79791686e-03f, 2.76601333e-02f, 3.06646749e-02f, -8.35168883e-02f, -7.00928569e-02f, -4.79976535e-02f, -2.66844174e-04f,
    2.20507216e-02f, 3.67347151e-02f, 1.53095752e-01f, 1.27087489e-01f, 9.36432779e-02f, 2.16774782e-03f, 7.63151795e-02f, 9.46073160e-02f,
    -2.60007139e-02f, -1.03686387e-02f, 1.22986156e-02f, -2.73997858e-02f, -5.34490682e-02f, -6.18048832e-02f, -1.41936168e-02f, -4.50383015e-02f,
    -1.03037423e-02f, -3.79535630e-02f, -3.70329879e-02f, -2.64744684e-02f, 6.48059547e-02f, 3.41645703e-02f, 3.99601087e-02f, 2.85601504e-02f,
    -3.43261808e-02f, -2.87519395e-02f, -2.34777052e-02f, -5.74398749e-02f, -4.49480908e-03f, 6.33245632e-02f, 2.12717019e-02f, 2.04972085e-02f,
    -4.98118475e-02f, -4.39915173e-02f, -5.78474663e-02f, 3.53373885e-02f, 4.48833779e-02f, 5.32857329e-03f, 2.28398899e-03f, 1.29273878e-02f,
    -1.71070844e-02f, -3.46112326e-02f, -3.10597252e-02f, -1.40406778e-02f, 4.96456958e-02f, 3.16552445e-02f, 1.86061915e-02f, -1.51356943e-02f,
    -2.62806434e-02f, -1.87816508e-02f, -2.88663190e-02f, -3.69225182e-02f, -2.21416503e-02f, 2.21027210e-02f, 9.60415322e-03f, 4.94654960e-05f,
    -1.94475763e-02f, -3.82879898e-02f, -2.03781947e-02f, -1.75802410e-02f, -3.22369896e-02f, -4.89656813e-02f, -2.54031345e-02f, -2.47514695e-02f,
    -2.36153286e-02f, -1.39601026e-02f, -2.93834787e-02f, -2.65537892e-02f, 5.09261526e-02f, 1.40861301e-02f, 7.22972900e-02f, -6.74363971e-03f,
    -5.72975911e-02f, 2.15139147e-02f, -2.43647434e-02f, -3.39986719e-02f, 2.04957533e-03f, -7.38894865e-02f, -1.34236917e-01f, -1.17846213e-01f,
    -5.01193032e-02f, -3.99614833e-02f, 1.90778505e-02f, 4.94008185e-03f, 6.56466112e-02f, 1.16492771e-01f, 2.18512770e-02f, 6.90369233e-02f,
    1.80928521e-02f, 3.54215987e-02f, 3.24671417e-02f, 2.72624311e-03f, -8.28502253e-02f, -4.60899360e-02f, -5.99877350e-02f, -1.68784149e-02f,
    -4.98485900e-02f, 5.00165410e-02f, 3.18707339e-02f, -6.25020042e-02f, -1.05778044e-02f, 5.88690639e-02f, -2.40097959e-02f, -1.30907306e-03f,
    3.36936489e-02f, 7.31568336e-02f, 5.96741661e-02f, 1.97749212e-02f, 7.60276569e-04f, -2.85855588e-03f, -3.35494094e-02f, -8.75147283e-02f,
    -7.99983367e-02f, -8.12585577e-02f, -1.12451755e-01f, -2.29519811e-02f, -5.51119372e-02f, -1.17675394e-01f, -1.48717323e-02f, 3.80128548e-02f,
    -3.19347307e-02f, 5.01542017e-02f, 1.50634900e-01f, 2.33139724e-01f, 1.30053163e-01f, 6.13264591e-02f, 9.38453823e-02f, 2.02468690e-02f,
    -2.02188745e-01f, -1.79114565e-01f, -2.08614826e-01f, -3.14506032e-02f, -6.70797899e-02f, -3.85481976e-02f, -5.80308177e-02f, -8.04318637e-02f,
    -8.43720734e-02f, 1.09813429e-01f, 1.15339994e-01f, 7.17840195e-02f, 2.24649329e-02f, 6.33396283e-02f, 4.47194465e-02f, 2.67301761e-02f,
    3.17779630e-02f, 2.42731138e-03f, -2.75562853e-02f, -2.85042468e-02f, -3.38887461e-02f, -3.17052938e-02f, -2.91527789e-02f, -1.33888032e-02f,
    5.88451922e-02f, 1.57466456e-02f, -3.71109881e-02f, 3.54670249e-02f, 2.55078301e-02f, 1.42103583e-02f, -4.08185087e-02f, -2.28149239e-02f,
    1.08562149e-02f, -7.80664757e-03f, -5.39032295e-02f, -1.11591276e-02f, -5.47534740e-03f, -2.87155584e-02f, -3.65236774e-02f, -1.10183895e-01f,
    -1.08358890e-01f, -6.90569058e-02f, -7.09442943e-02f, -8.01882446e-02f, -3.80273722e-02f, 4.42265011e-02f, 1.63703077e-02f, 2.74888128e-02f,
    -5.83027638e-02f, -6.17432073e-02f, 2.73940861e-02f, 1.80470273e-02f, 3.71885076e-02f, 3.22195776e-02f, 5.23254350e-02f, 5.23548126e-02f,
    4.78369221e-02f, 1.61000248e-02f, 1.73041970e-02f, 2.41799466e-02f, 2.29651295e-03f, -2.80928873e-02f, 1.10664284e-02f, 3.36591303e-02f,
    -1.13439895e-02f, 6.30469481e-03f, 4.09936681e-02f, 9.86751094e-02f, 1.05031446e-01f, -9.95729566e-02f, -6.00223877e-02f, 5.04773371e-02f,
    -1.15447110e-02f, -9.01602432e-02f, -5.33960536e-02f, -2.71966401e-02f, -6.75359890e-02f, 1.86809897e-02f, -6.15868829e-02f, -5.69872856e-02f,
    -1.48115419e-02f, 2.88314335e-02f, 9.67971459e-02f, -3.86042818e-02f, -2.71820631e-02f, -2.65853130e-03f, 1.89917237e-02f, -6.24318793e-02f,
    -8.20699323e-04f, 1.82361659e-02f, 3.47100385e-03f, 3.82046588e-02f, -1.08707475e-03f, 6.65889755e-02f, 6.80280179e-02f, 2.61787279e-03f,
    1.63053293e-02f, 4.25756499e-02f, -8.37379880e-03f, -1.09182913e-02f, -3.50742019e-03f, -5.06170187e-03f, 9.66191813e-02f, 8.83899778e-02f,
    6.50028288e-02f, -4.10531498e-02f, 6.30714186e-03f, 1.70886647e-02f, -9.79125276e-02f, -6.81822374e-02f, -1.38050213e-01f, -7.56575959e-03f,
    -1.85966995e-02f, 4.25075628e-02f, -9.54962708e-03f, -3.71359438e-02f, 2.37791869e-03f, 3.74871865e-02f, 4.22470532e-02f, 1.11540491e-02f,
    4.61647511e-02f, -1.64962595e-03f, 1.39575424e-02f, -3.86093259e-02f, -3.11921164e-02f, 3.82590294e-02f, 1.07427819e-04f, -6.35323673e-02f,
    -8.60266294e-03f, -2.74371379e-03f, -8.65395889e-02f, -1.51664898e-01f, -8.35921541e-02f, -1.09165452e-01f, -5.11720441e-02f, -1.05710700e-03f,
    6.41771033e-02f, 9.67647880e-02f, 3.11697759e-02f, 1.07739465e-02f, 4.28253692e-03f, 1.06340246e-02f, 4.69948805e-04f, 1.91342421e-02f,
    4.99451440e-03f, -2.34554857e-02f, -4.41944133e-03f, 2.55923085e-02f, -3.07650138e-02f, -5.18955812e-02f, -1.00155955e-03f, -8.53297859e-02f,
    -6.23108633e-02f, -9.09185316e-03f, -3.42795476e-02f, -3.02904770e-02f, 3.51345912e-02f, 1.44886719e-02f, -1.72927994e-02f, -7.11286590e-02f,
    -5.91359958e-02f, 8.15594755e-03f, -2.42031775e-02f, -5.44584766e-02f, -2.81276014e-02f, 7.26269111e-02f, 6.54774578e-03f, 4.41512242e-02f,
    4.55923714e-02f, -3.44681032e-02f, 2.18374748e-02f, -3.59598957e-02f, -4.16355431e-02f, 4.60352451e-02f, 1.24827027e-02f, 2.17752233e-02f,
    -1.78921726e-02f, 9.12366528e-03f, 3.05426959e-02f, 1.57424677e-02f, -8.48472416e-02f, -1.09109253e-01f, -2.81247646e-02f, 3.03680431e-02f,
    -1.17715849e-02f, 4.15230878e-02f, 6.10212795e-03f, -5.73697500e-02f, -1.33472318e-02f, -1.40830372e-02f, -4.00985479e-02f, -4.08283481e-03f,
    -1.79351848e-02f, -3.18604447e-02f, -3.97280417e-02f, -1.78578477e-02f, -2.24421290e-03f, 1.22847939e-02f, -2.54636221e-02f, -3.30475383e-02f,
    -3.68520394e-02f, 1.47509938e-02f, -1.11282747e-02f, 5.14434977e-03f, -1.17031028e-02f, -4.19142051e-03f, 8.44139699e-03f, 2.04555988e-02f,
    5.10060461e-03f, -6.52138749e-03f, 7.32595427e-03f, -6.67034509e-03f, -1.59929115e-02f, 2.21929071e-03f, -3.57078365e-03f, 3.00311986e-02f,
    4.24395017e-02f, 8.49990267e-03f, -1.35903060e-02f, 4.59227823e-02f, 6.13312004e-03f, -1.94109809e-02f, 9.36293155e-02f, 1.52266528e-02f,
    -4.55636019e-03f, -2.11369414e-02f, 1.57243740e-02f, 4.15159687e-02f, -1.67057067e-01f, -1.11985788e-01f, -3.31455804e-02f, 6.22536242e-02f,
    7.07495958e-02f, -8.35947320e-03f, 7.64071792e-02f, 5.17745316e-02f, 8.61864612e-02f, 5.60822934e-02f, 9.18471515e-02f, 7.97067732e-02f,
    2.39661783e-02f, -6.48340583e-03f, -6.94222236e-03f, 3.35572287e-02f, -7.12046549e-02f, -7.65947700e-02f, 4.70418632e-02f, 5.74097373e-02f,
    -1.88942347e-02f, 4.64473516e-02f, 1.92464851e-02f, -1.03257224e-02f, 2.17973143e-02f, -5.34802750e-02f, 2.82140691e-02f, 8.30770135e-02f,
    -1.13623485e-01f, -7.34552443e-02f, 5.72374985e-02f, 1.22412689e-01f, 1.40735926e-02f, -2.16858461e-02f, 1.01553090e-01f, 4.25044931e-02f,
    -8.34833384e-02f, 7.98959285e-03f, 4.08860072e-02f, -3.76207680e-02f, -2.36548260e-02f, -2.13923287e-02f, 7.35439584e-02f, 2.13131569e-02f,
    -4.61989343e-02f, 2.54308786e-02f, -7.03038350e-02f, -5.99630624e-02f, 1.02874329e-02f, -5.71579635e-02f, -4.06503864e-02f, -1.19779013e-01f,
    -4.83621694e-02f, 4.03193012e-02f, -1.09150037e-01f, -8.40179324e-02f, -5.46099506e-02f, 8.11496973e-02f, -3.07120159e-02f, -9.52806920e-02f,
    1.16288982e-01f, 9.15881321e-02f, 5.34063857e-03f, -1.52697386e-02f, 3.99112664e-02f, 8.43859278e-03f, 1.09977676e-02f, 2.32107681e-03f,
    -5.56731857e-02f, -1.35290471e-03f, -2.90683424e-03f, 3.46629694e-02f, -6.23405315e-02f, -8.48056078e-02f, -2.51174439e-02f, -3.72274891e-02f,
    -5.80801331e-02f, -1.28539195e-02f, 4.78550792e-02f, 6.10950254e-02f, 6.95102196e-03f, -1.89632207e-01f, -1.42276883e-01f, -1.02722980e-01f,
    -7.36626564e-03f, 2.21707771e-04f, -2.28099152e-02f, 1.15332045e-01f, 1.56440720e-01f, 1.79116696e-01f, -6.75402174e-04f, -6.50740741e-03f,
    -3.77874151e-02f, 4.07389887e-02f, -3.95964831e-02f, -5.39744161e-02f, 1.62801854e-02f, 5.93621098e-02f, 8.68709572e-03f, -1.68629847e-02f,
    -8.16132426e-02f, 4.78833960e-03f, -8.64930972e-02f, -5.67761809e-02f, -6.12506038e-03f, -3.36865224e-02f, 1.66831948e-02f, -1.12811504e-02f,
    2.86458991e-02f, -1.79677717e-02f, -3.47738825e-02f, 6.35490716e-02f, 3.60946683e-03f, -4.55136187e-02f, 6.96198940e-02f, -1.04252389e-02f,
    -5.09162061e-02f, 2.20738747e-03f, 3.58628831e-03f, -1.64279230e-02f, -2.19957326e-02f, -1.14190187e-02f, 9.97380819e-03f, -2.06182450e-02f,
    -1.02123963e-02f, 2.60911118e-02f, 7.19780698e-02f, 6.08483069e-02f, 1.75975019e-03f, 7.95638002e-03f, 5.09752780e-02f, 5.86118782e-04f,
    -2.94249523e-02f, 4.94242460e-02f, 3.99953723e-02f, 1.42799420e-02f, 4.37091738e-02f, -6.07426874e-02f, 1.47502059e-02f, 4.30900492e-02f,
    -4.45441045e-02f, -3.31906006e-02f, 1.75122786e-02f, -3.39742415e-02f, 1.04796842e-01f, 9.64449346e-03f, -4.40881141e-02f, 1.03218749e-01f,
    -2.15623950e-04f, -3.61036956e-02f, 6.90657422e-02f, 2.57150680e-02f, -6.89912308e-03f, 6.40723016e-03f, -1.11147193e-02f, 5.75206103e-03f,
    2.66738441e-02f, -3.51085104e-02f, -2.33479179e-02f, 2.97358632e-02f, -9.35214479e-03f, -3.75962444e-02f, -1.29054859e-01f, -1.30060896e-01f,
    -1.31321833e-01f, -1.73837289e-01f, -2.02438906e-01f, -1.54273033e-01f, -1.81164831e-01f, -1.98028207e-01f, -1.69643894e-01f, -1.33799752e-02f,
    -1.14392359e-02f, 6.54685646e-02f, -3.48429829e-02f, -4.28710133e-02f, -1.74252305e-03f, 5.71329445e-02f, 2.51977462e-02f, 2.70068683e-02f,
    3.01481946e-03f, 7.07883202e-03f, -4.06637527e-02f, 6.30399287e-02f, 2.89141014e-02f, -5.01460545e-02f, 2.81994659e-02f, -1.11380769e-02f,
    -6.77223578e-02f, 6.10553399e-02f, -4.41547893e-02f, -2.91460957e-02f, -2.67514866e-02f, -8.97179171e-02f, -3.18095312e-02f, 1.00377118e-02f,
    -6.09795600e-02f, -3.53647768e-03f, 1.50356814e-02f, -2.55947118e-03f, -3.01361140e-02f, 4.94961767e-03f, 9.10825748e-03f, -2.28781030e-02f,
    3.83997220e-03f, 1.84065457e-02f, -9.60755907e-03f, -1.33120809e-02f, 1.32201295e-02f, 3.74141224e-02f, -3.09962388e-02f, -2.24650949e-02f,
    3.73488814e-02f, -1.25601366e-02f, 3.04472400e-03f, 3.48948315e-02f, -2.42590662e-02f, -1.02627687e-02f, -3.49010900e-02f, -5.88306971e-02f,
    -7.33916240e-04f, -5.78127950e-02f, -4.78122085e-02f, -2.02397946e-02f, -7.48438686e-02f, 1.30833229e-02f, -1.79077126e-02f, 1.88174583e-02f,
    2.41373889e-02f, 3.13604884e-02f, 3.28793153e-02f, 7.31971562e-02f, 5.02384007e-02f, 3.01797669e-02f, -2.95961611e-02f, 7.35973800e-03f,
    -6.32526027e-03f, 1.62587296e-02f, 8.31468552e-02f, 6.19968139e-02f, 1.09324316e-02f, 6.64879084e-02f, 1.58731993e-02f, -3.30550969e-02f,
    -2.29194146e-02f, -4.26832959e-02f, -1.17140189e-02f, 6.49027154e-03f, -4.61273221e-03f, -4.06429730e-02f, -1.86470486e-02f, -3.73985581e-02f,
    -8.16669688e-02f, -6.98917806e-02f, -8.69735926e-02f, -7.26317838e-02f, -6.92424849e-02f, -7.57385492e-02f, -5.34764193e-02f, -5.56691438e-02f,
    -6.68518767e-02f, -1.24784103e-02f, 9.74707189e-04f, -4.74010874e-03f, 1.53882960e-02f, 1.34211238e-02f, -4.11846628e-03f, 1.24770366e-02f,
    -1.64033324e-02f, -3.66090946e-02f, 3.29871178e-02f, 1.98307242e-02f, -1.98390465e-02f, 6.86757616e-04f, 1.80677194e-02f, -1.70221590e-02f,
    -1.90071035e-02f, 2.22137794e-02f, 5.81455277e-03f, -1.01660527e-01f, -2.72724237e-02f, -3.13561149e-02f, -7.74108022e-02f, 3.65036796e-03f,
    -6.30309880e-02f, -8.63468274e-02f, -8.89425166e-03f, -5.35258502e-02f, 4.56088893e-02f, -7.03699421e-03f, 3.64715382e-02f, 3.56096849e-02f,
    -3.69289555e-02f, -3.17331892e-03f, -2.08877828e-02f, -8.72403905e-02f, 1.51256341e-02f, -5.45328530e-03f, -2.09494848e-02f, -3.14440839e-02f,
    2.73729041e-02f, -3.76038253e-03f, -2.06731539e-02f, 3.40324789e-02f, -2.17941776e-03f, -3.29286270e-02f, 1.72989920e-03f, -1.15296124e-02f,
    8.96148533e-02f, -2.10305359e-02f, -5.61274551e-02f, 5.93136996e-02f, 3.10963430e-02f, 4.53190366e-03f, 8.68144035e-02f, -6.46656901e-02f,
    -6.90860078e-02f, -2.30016317e-02f, -8.82997662e-02f, -8.35079998e-02f, -4.91145290e-02f, -4.38772812e-02f, -1.03943169e-01f, -3.41484398e-02f,
    -2.87165660e-02f, 1.18556060e-02f, -2.09779665e-02f, -3.79624553e-02f, 4.81663793e-02f, 7.94701464e-03f, -4.02121507e-02f, 2.48894710e-02f,
    -8.34600255e-03f, -8.45946074e-02f, -9.58928689e-02f, -1.02146171e-01f, -9.85398889e-02f, -8.97741318e-02f, -9.06438380e-02f, -7.32048377e-02f,
    -1.21555462e-01f, -1.34842098e-01f, -2.84924135e-02f, -4.58507352e-02f, -5.89245409e-02f, -2.35979278e-02f, -5.92455044e-02f, -8.89694840e-02f,
    -6.98607089e-03f, -3.44390832e-02f, -1.15636542e-01f, 5.65490313e-02f, 3.67848352e-02f, -1.80543251e-02f, 2.39579193e-02f, 4.23606597e-02f,
    2.24975869e-02f, 3.54752541e-02f, 4.32443507e-02f, -2.24768054e-02f, 4.13863286e-02f, 2.17405222e-02f, 7.98080349e-04f, 1.81189906e-02f,
    -8.86698719e-03f, -3.52127925e-02f, 7.92224184e-02f, 2.73527429e-02f, 1.57693513e-02f, 1.42720357e-01f, 1.01072557e-01f, 1.94258392e-01f,
    9.67159495e-02f, 8.60898718e-02f, 1.00669913e-01f, 2.06851646e-01f, 1.38013110e-01f, 1.71611220e-01f, 2.96654906e-02f, 6.48114132e-03f,
    -8.36132374e-03f, 3.42630446e-02f, 9.42136161e-03f, -2.11919192e-02f, 5.10017611e-02f, 8.11694935e-03f, 6.86389068e-03f, 5.74679933e-02f,
    7.46199396e-03f, 1.16655946e-01f, 1.12141836e-02f, -2.10790671e-02f, 1.13571785e-01f, -8.28026235e-03f, 3.10340282e-02f, 2.02177048e-01f,
    -1.35781253e-02f, 1.02527225e-02f, -4.02559042e-02f, -3.62380370e-02f, -1.55856162e-02f, -5.10926172e-02f, 8.71810168e-02f, 1.21219894e-02f,
    -6.21942058e-03f, 2.19605267e-02f, -3.06240190e-02f, 2.74221245e-02f, -1.48625104e-02f, 6.04851125e-03f, 2.43067723e-02f, -1.48573713e-02f,
    1.83554515e-02f, 2.78117508e-02f, 1.09925959e-02f, -2.52363477e-02f, -2.88347714e-02f, 5.87611534e-02f, 4.06483375e-02f, -3.20830792e-02f,
    9.96756740e-03f, -5.95083982e-02f, -7.89482445e-02f, -2.28807125e-02f, 7.28025893e-03f, -5.35840131e-02f, -4.25528549e-03f, 5.64356195e-03f,
    1.49041057e-01f, -1.08345255e-01f, -1.48111746e-01f, 7.97246117e-03f, 8.02152753e-02f, -1.41509874e-02f, 5.04318113e-03f, -2.97428276e-02f,
    -6.94274679e-02f, 7.91195035e-03f, -2.44402047e-02f, 4.28156042e-03f, 1.99817583e-01f, -1.52190536e-01f, -9.65819359e-02f, -9.20126662e-02f,
    -7.72706196e-02f, -7.90853724e-02f, -1.20942749e-01f, 6.22871816e-02f, -6.05548099e-02f, -1.01913929e-01f, -2.02579014e-02f, -6.97631314e-02f,
    -6.77390173e-02f, 4.85240109e-03f, -4.20283154e-02f, 1.22950180e-03f, 4.49563116e-02f, 1.48289371e-02f, 2.78621130e-02f, 1.04997240e-01f,
