#include "features_4_expand1x1_weight.h"

__attribute__((aligned(16))) const float features_4_expand1x1_weight[1024] = {
    7.66696557e-02f, 2.56555766e-01f, 3.58479694e-02f, 1.06665500e-01f, 2.21767277e-01f, -1.88558251e-01f, -8.34324732e-02f, -2.22289830e-01f,
    1.00845315e-01f, -2.93081887e-02f, 9.33829173e-02f, 1.21293450e-02f, 2.19664887e-01f, -1.09550111e-01f, -3.92079577e-02f, 3.28101516e-02f,
    2.10263148e-01f, 1.14620939e-01f, 3.60620916e-01f, -5.73600456e-02f, -1.35968020e-02f, -5.34529611e-02f, -1.30356506e-01f, 7.92488176e-03f,
    -1.63914114e-01f, 4.80922431e-01f, -3.26705128e-01f, -2.43738536e-02f, -1.00456662e-01f, -2.30359123e-03f, 9.56077129e-03f, 2.32917327e-03f,
    2.83732116e-01f, -3.17512393e-01f, -2.34997272e-01f, -9.35657248e-02f, -1.08999349e-02f, 7.48851672e-02f, 4.29058254e-01f, -9.77586489e-03f,
    -1.01824276e-01f, -1.16148666e-01f, -3.11715722e-01f, -3.02841840e-03f, 2.48973700e-03f, -2.46333748e-01f, 1.67372137e-01f, 4.57011193e-01f,
    1.02870844e-01f, -8.42456296e-02f, -1.35438126e-02f, -1.39960840e-01f, 5.79011589e-02f, 4.45281863e-01f, 1.13353031e-02f, 8.08949769e-03f,
    3.33093363e-03f, -1.73327819e-01f, -2.50780564e-02f, 4.20005396e-02f, 8.92456174e-02f, 1.41949682e-02f, -2.59964556e-01f, 1.02199115e-01f,
    7.80501723e-01f, 9.69297998e-03f, 3.80208820e-01f, -1.69749945e-01f, 5.85921993e-03f, -6.76054880e-02f, 6.67545572e-02f, 9.09424108e-03f,
    -1.71923228e-02f, -1.59534942e-02f, -7.22793117e-02f, -1.66823361e-02f, -1.03228211e-01f, -1.91675901e-01f, -3.97449471e-02f, -1.29420146e-01f,
    5.86918220e-02f, -1.99646786e-01f, -7.98681471e-03f, 1.28745928e-01f, -4.51528579e-02f, -2.88963020e-01f, 4.50364739e-01f, 5.36693931e-02f,
    4.50152196e-02f, 2.02793139e-03f, 2.13684544e-01f, 8.58266130e-02f, -6.34660423e-02f, -1.54466510e-01f, 4.57093090e-01f, -4.59362358e-01f,
    -6.49837218e-03f, -6.55705482e-02f, 2.06381958e-02f, 1.02346554e-01f, 4.83421266e-01f, -3.79163288e-02f, 2.04105988e-01f, 2.90245414e-01f,
    -1.85249001e-01f, 4.68398929e-02f, 2.82298513e-02f, -5.08780658e-01f, -1.88978076e-01f, -1.01387739e-01f, 1.85678042e-02f, 8.95854086e-02f,
    -8.97329897e-02f, -3.45707446e-01f, 1.46646947e-01f, 2.29507551e-01f, 4.59564105e-02f, -6.11952960e-01f, 3.77329700e-02f, 5.45324311e-02f,
    1.18803807e-01f, 1.95394650e-01f, -2.82723010e-01f, 9.43688527e-02f, 1.87138636e-02f, 2.70697981e-01f, 3.87545079e-02f, 3.72718602e-01f,
    -1.91549561e-03f, 3.16107541e-01f, -2.04250272e-02f, 1.72598124e-01f, -6.18347228e-02f, 1.97487131e-01f, -5.88362552e-02f, -2.10110694e-01f,
    -2.47912817e-02f, 6.50925189e-02f, -3.17008793e-02f, -1.05383219e-02f, -1.37500733e-01f, -6.54971451e-02f, 2.70494550e-01f, -4.84135747e-02f,
    -5.77263087e-02f, -3.12519446e-02f, 7.16295838e-02f, -9.40214470e-02f, -5.47181070e-01f, 1.46279663e-01f, 5.86179271e-02f, 2.96515882e-01f,
    6.25875965e-02f, 2.62514572e-04f, -6.07632957e-02f, 2.34084249e-01f, 4.30000722e-02f, 8.50857645e-02f, 1.75716113e-02f, -5.59288301e-02f,
    -1.29811130e-02f, -9.49090719e-02f, 4.51082289e-02f, -1.18271913e-02f, -1.43122748e-01f, -2.36799300e-01f, 6.96374252e-02f, 2.08758250e-01f,
    1.75777093e-01f, -2.92593837e-02f, 7.00223446e-02f, -1.51856929e-01f, 4.29305106e-01f, -1.74514011e-01f, 2.10373737e-02f, 8.28941390e-02f,
    -2.11895540e-01f, 1.62181035e-01f, -3.04441452e-01f, 9.47226360e-02f, -2.42456391e-01f, 1.83316439e-01f, -6.39299378e-02f, 9.31632370e-02f,
    1.40900314e-01f, -6.73714653e-02f, 6.19044639e-02f, 9.32688192e-02f, 1.97558060e-01f, 6.93892241e-02f, 2.21328586e-01f, 6.49811178e-02f,
    2.37087503e-01f, -1.32915944e-01f, 2.81307310e-01f, 2.62949485e-02f, 9.75753069e-02f, -3.40874404e-01f, 1.46423995e-01f, 1.21448465e-01f,
    -3.45904268e-02f, 2.16855053e-02f, -3.18040818e-01f, 4.62941006e-02f, -3.61576080e-02f, 4.41046029e-01f, 7.55667873e-03f, -8.53800252e-02f,
    1.15568181e-02f, 3.60212654e-01f, 1.35737434e-01f, -1.59718275e-01f, 6.81278016e-03f, 1.93132058e-01f, -2.47582898e-01f, -1.67723298e-02f,
    1.27402425e-01f, -1.03648603e-01f, -6.02598302e-02f, -1.41087279e-01f, -2.40423098e-01f, 3.12907636e-01f, 1.70806423e-02f, -7.63503462e-02f,
    -1.90950364e-01f, -2.15862960e-01f, -1.14842467e-01f, 7.13079870e-02f, 1.08696692e-01f, -3.52982990e-02f, 1.94147766e-01f, 1.95315212e-01f,
    -4.81299497e-02f, 1.44975305e-01f, -7.37650469e-02f, -3.02237689e-01f, 1.26749173e-01f, 2.64914155e-01f, 1.07583597e-01f, 2.81643253e-02f,
    4.81218398e-02f, -1.73411474e-01f, 3.02494019e-01f, 1.78042725e-01f, 2.48264506e-01f, 2.11646743e-02f, 1.40549913e-01f, -3.34840834e-01f,
    1.19258732e-01f, -1.03595860e-01f, -3.05778943e-02f, 8.22321624e-02f, 1.87774420e-01f, -4.43101004e-02f, 9.61271450e-02f, -4.90325168e-02f,
    7.97224864e-02f, -2.79030174e-01f, 1.15267485e-01f, 2.87855417e-01f, -2.11222693e-01f, 1.43579394e-01f, 2.25877509e-01f, -4.97516356e-02f,
    7.27109089e-02f, -2.10509211e-01f, -2.26343542e-01f, 4.09167819e-02f, 2.10676968e-01f, 9.49723125e-02f, 1.04801729e-01f, -1.93683922e-01f,
    5.03364503e-02f, 3.06091104e-02f, 1.09554224e-01f, -1.38194695e-01f, 8.79320428e-02f, 1.31448820e-01f, 6.70057386e-02f, 1.12158164e-01f,
    4.79932874e-03f, -6.03604428e-02f, -2.62246162e-01f, -1.67289704e-01f, 3.55980724e-01f, 1.45831481e-01f, -5.85521199e-02f, -1.36972338e-01f,
    -2.34617293e-03f, -3.33614886e-01f, 4.27343726e-01f, 8.87463167e-02f, -2.25091726e-02f, 3.40517193e-01f, 6.85582682e-02f, 7.74604827e-02f,
    5.61234206e-02f, 1.78358391e-01f, -4.70132023e-01f, 3.96350399e-02f, -9.86406952e-03f, -2.69303501e-01f, 1.88750345e-02f, 2.17547379e-02f,
    -1.02976091e-01f, 9.58175492e-03f, 2.97775656e-01f, 5.25727309e-03f, 1.18495896e-01f, 1.49972379e-01f, -2.94995815e-01f, 9.90227163e-02f,
    4.43302065e-01f, -2.08595648e-01f, -2.91356295e-01f, 6.03405461e-02f, 5.86823449e-02f, 1.67494133e-01f, 2.00573727e-01f, -2.27927282e-01f,
    -3.99229556e-01f, -1.33420035e-01f, 6.59538954e-02f, 1.58407345e-01f, 5.78781590e-02f, 5.09163082e-01f, 3.73393334e-02f, 7.90710449e-02f,
    1.93088457e-01f, 1.98576793e-01f, -4.83934656e-02f, 4.57021520e-02f, 9.78676081e-02f, -4.56216812e-01f, -2.01666340e-01f, 1.34100586e-01f,
    -2.52990965e-02f, 6.26079291e-02f, 1.35440007e-01f, -8.40692818e-02f, 2.96246484e-02f, 5.70026457e-01f, 7.29485080e-02f, -3.14522758e-02f,
    -2.24218220e-02f, -1.03625312e-01f, -6.53263479e-02f, -1.97568163e-02f, 2.03171913e-02f, -4.01187301e-01f, -5.03994413e-02f, 7.16147944e-02f,
    -1.30460799e-01f, -2.04032868e-01f, 4.06921625e-01f, 9.12793651e-02f, 7.95960426e-02f, -2.37787381e-01f, -5.67813078e-03f, 5.55820428e-02f,
    2.70981520e-01f, 3.18707734e-01f, 1.89524874e-01f, -1.07137542e-02f, -4.26532365e-02f, 2.85748690e-02f, 9.81098264e-02f, -3.73129070e-01f,
    1.89552754e-01f, 3.44993800e-01f, -2.74438679e-01f, 1.56032562e-01f, 1.62948787e-01f, 3.37611660e-02f, -2.07084239e-01f, 2.26823151e-01f,
    -1.68521449e-01f, -1.34409800e-01f, -9.75939073e-03f, 1.55100152e-01f, 2.70809650e-01f, -1.56143099e-01f, 1.47543233e-02f, -4.22559232e-02f,
    1.29288450e-01f, -2.56821901e-01f, 6.42860159e-02f, -1.97603535e-02f, 7.70723075e-02f, -8.14818889e-02f, 4.59219754e-01f, 7.89696872e-02f,
    1.60501059e-02f, -3.00347537e-01f, 7.72633329e-02f, 1.33031338e-01f, 1.14559233e-01f, 2.59075820e-01f, -3.67003769e-01f, 1.45380916e-02f,
    1.01275742e-01f, -1.57870501e-02f, -8.39534849e-02f, 5.92970431e-01f, -7.59273097e-02f, 1.19559787e-01f, -7.69524556e-03f, -3.58943760e-01f,
    -7.43731065e-03f, 1.10349894e-01f, 7.83532932e-02f, 3.16408724e-02f, -3.62668693e-01f, 1.42590001e-01f, 5.28669637e-03f, 6.51113465e-02f,
    1.85075607e-02f, 1.62967443e-02f, 7.09848553e-02f, 1.12068303e-01f, -2.78566182e-01f, 1.56258531e-02f, -5.96773960e-02f, 1.55549213e-01f,
    -1.23250529e-01f, -3.34012173e-02f, -4.39212397e-02f, 8.93578172e-01f, 1.86529476e-02f, -1.12552032e-01f, -2.82165483e-02f, -7.30430111e-02f,
    -8.53537768e-03f, 2.34149545e-02f, 9.79715679e-03f, -9.73710977e-03f, -3.84879410e-01f, 1.46381734e-02f, -1.05512692e-02f, 7.72534311e-01f,
    5.90104572e-02f, -1.41261546e-02f, 3.44885513e-02f, -3.98733169e-01f, -9.92545392e-03f, -3.19947526e-02f, -3.50945885e-03f, 2.33722515e-02f,
    -2.36209393e-01f, 2.65511721e-01f, -1.83470510e-02f, 1.88690513e-01f, 4.17986438e-02f, -1.82247609e-01f, -8.36527795e-02f, 3.06179002e-02f,
    1.09406255e-01f, 1.27558365e-01f, 1.36889964e-01f, 3.38760614e-02f, 1.98301107e-01f, -1.08156383e-01f, 2.61521083e-03f, -1.48465350e-01f,
    1.25409275e-01f, -1.41251430e-01f, -1.90478116e-01f, 1.12165660e-01f, -1.81111142e-01f, 5.51348515e-02f, 8.20224807e-02f, 1.94295987e-01f,
    3.65437265e-03f, -8.09877589e-02f, -1.20393699e-02f, 1.00555614e-01f, -1.36191040e-01f, 2.91934740e-02f, 2.40016207e-01f, 6.60850331e-02f,
    -3.44992429e-02f, -3.25647831e-01f, -3.05962980e-01f, -2.26896584e-01f, 6.59721121e-02f, 1.31927729e-01f, -1.15843080e-01f, 8.97921249e-02f,
    -8.53592679e-02f, 2.96063215e-01f, 7.57357897e-03f, 1.14807896e-01f, -3.15876417e-02f, -4.82148789e-02f, 3.36058259e-01f, 1.61152959e-01f,
    1.69828944e-02f, 3.59814824e-03f, 3.63221206e-02f, -8.71088356e-02f, 3.81433815e-01f, -4.04676236e-02f, -2.11192835e-02f, -6.53610349e-01f,
    -1.17250890e-01f, 6.98482012e-03f, 1.67702883e-02f, 6.91882789e-01f, -6.06075004e-02f, -2.92203780e-02f, -2.29364652e-02f, 1.08774165e-02f,
    1.36068270e-01f, -2.97021922e-02f, 8.56070071e-02f, 2.26348624e-01f, 2.37383340e-02f, 9.92708728e-02f, 1.70085832e-01f, -1.84323728e-01f,
    3.03596735e-01f, -2.31013507e-01f, -9.35838465e-03f, -3.19729894e-02f, -1.20983526e-01f, 2.18720436e-01f, -2.03802958e-01f, -2.34272182e-02f,
    -4.00345586e-03f, -2.87215143e-01f, -8.41972828e-02f, 6.66017383e-02f, 1.08168766e-01f, 7.93391094e-02f, 3.17274742e-02f, 6.85536116e-02f,
    3.68743300e-01f, -4.90274996e-01f, 1.60066426e-01f, 7.19271079e-02f, 8.58704150e-02f, -2.20804185e-01f, 1.54351145e-01f, 1.21711850e-01f,
    3.44014280e-02f, -1.07223811e-02f, 1.98718719e-02f, 1.12743273e-01f, -3.78014483e-02f, 7.20226020e-02f, -4.51688915e-02f, 2.33002976e-01f,
    2.70234019e-01f, -4.30281520e-01f, 5.35249710e-02f, 1.56447843e-01f, 1.47520810e-01f, 1.90070882e-01f, -2.38289833e-01f, -9.36596319e-02f,
    -2.14376241e-01f, -3.60967308e-01f, -7.85208493e-02f, 1.94838092e-01f, -1.97079033e-01f, 5.93156293e-02f, 1.75916091e-01f, -7.13712424e-02f,
    5.17836437e-02f, 3.20321739e-01f, 1.15528241e-01f, -3.01009119e-02f, -1.56550795e-01f, 1.18212052e-01f, 1.57910399e-02f, 1.75252765e-01f,
    -8.98252800e-03f, 7.02977926e-02f, 5.05732968e-02f, -2.14070588e-01f, -1.03600748e-01f, -2.39266455e-01f, -1.64425805e-01f, 1.25157624e-01f,
    -1.53048635e-01f, 1.00539111e-01f, -2.42402102e-03f, 2.02346176e-01f, 1.87574401e-01f, 1.02419019e-01f, 9.72581357e-02f, -8.71406030e-03f,
    -8.97901058e-02f, 1.73439160e-01f, 3.14900128e-04f, 2.78729528e-01f, 1.87808380e-01f, -2.75864631e-01f, -9.73484665e-03f, 2.18207732e-01f,
    1.47045916e-02f, -8.40348937e-03f, 5.06941639e-02f, -1.34487271e-01f, -6.75003603e-02f, -4.20253761e-02f, -1.08654827e-01f, 9.88369510e-02f,
    -1.99989341e-02f, 8.59156922e-02f, -4.90645953e-02f, -7.73525909e-02f, 6.27457738e-01f, -1.03761284e-02f, -7.90492892e-02f, -2.81020135e-01f,
    -1.53714150e-01f, 3.38858576e-03f, 4.04315852e-02f, 1.23435453e-01f, 8.08719620e-02f, 1.46161905e-02f, -6.34550080e-02f, 5.38946204e-02f,
    1.65949285e-01f, 1.55386120e-01f, 4.44732934e-01f, 1.10629667e-02f, -2.94177145e-01f, -1.41935542e-01f, 3.49139236e-02f, 3.94288898e-02f,
    1.47121787e-01f, -1.85015649e-01f, 4.26248647e-02f, -4.57287617e-02f, 8.34490433e-02f, -1.77223071e-01f, 1.95909500e-01f, -1.63078308e-02f,
    4.98906523e-02f, 8.64137560e-02f, -2.13667806e-02f, 7.98967481e-03f, -2.29827780e-02f, -8.67256969e-02f, -1.99517384e-01f, 2.08392553e-02f,
    5.09911822e-03f, 2.26834361e-02f, -6.14417434e-01f, -2.33797971e-02f, -2.23378073e-02f, -4.96191392e-03f, -2.98726815e-03f, 1.05923486e+00f,
    -3.21317494e-01f, 3.26698199e-02f, 7.95238093e-02f, 9.19933394e-02f, -2.81320035e-01f, -2.42743403e-01f, -2.25278251e-02f, 8.74636173e-02f,
    2.96531707e-01f, 2.44759902e-01f, -8.66032988e-02f, 3.11457608e-02f, 3.99177931e-02f, 2.43554488e-01f, 7.62050301e-02f, -2.97789089e-02f,
    -4.31684226e-01f, -3.15116525e-01f, 9.66741983e-03f, 4.97069508e-01f, 1.70750469e-02f, 7.90858492e-02f, 2.86215156e-01f, 1.09890029e-01f,
    1.63336292e-01f, -2.79103786e-01f, -4.31757897e-01f, 1.64260298e-01f, 2.38029242e-01f, 1.26326844e-01f, 4.39782962e-02f, -2.55767792e-01f,
    1.03365727e-01f, 9.00108889e-02f, -1.45638034e-01f, -1.21074393e-02f, 2.54428774e-01f, 7.33858347e-02f, -1.71728991e-02f, 2.42466509e-01f,
    -7.74878114e-02f, -2.12514803e-01f, 4.89635691e-02f, -2.47271746e-01f, 6.65611848e-02f, 1.53832212e-01f, 1.46197170e-01f, 4.43715490e-02f,
    1.80677772e-01f, -2.78921485e-01f, 3.40672024e-02f, 1.48971558e-01f, 2.64072806e-01f, 8.42918679e-02f, 1.24476835e-01f, 1.95832863e-01f,
    -5.70814032e-03f, -1.22289866e-01f, -5.55204824e-02f, -6.82773516e-02f, 3.23108882e-01f, -1.47057801e-01f, 3.14106867e-02f, -2.52141207e-01f,
    1.40900254e-01f, 4.81338538e-02f, -8.72884169e-02f, -8.11052918e-02f, -2.78815806e-01f, -3.27190943e-02f, 5.76234721e-02f, 2.57099837e-01f,
    -1.93192229e-01f, 1.42431170e-01f, 1.24570578e-01f, 1.09559730e-01f, -2.30711907e-01f, 4.27466854e-02f, -4.15450893e-02f, 1.76652297e-01f,
    1.78369716e-01f, 1.76740706e-01f, -2.97944814e-01f, -1.75561920e-01f, 3.98627259e-02f, 2.18325764e-01f, -1.57444067e-02f, -2.10056622e-02f,
    -6.26882732e-01f, 2.89574843e-02f, 1.64964885e-01f, -2.70173550e-02f, -3.37833390e-02f, 2.74595886e-01f, 1.52432963e-01f, 1.14551991e-01f,
    6.32137284e-02f, -6.61397949e-02f, 1.53613994e-02f, 1.08228557e-01f, 9.99076888e-02f, 9.77879688e-02f, 2.60901805e-02f, 4.29192521e-02f,
    2.01952860e-01f, -2.78139878e-02f, -2.86462486e-01f, -3.02149057e-02f, 5.21364668e-03f, -1.51069015e-01f, 5.84951937e-01f, -2.20140949e-01f,
    7.45840697e-03f, 4.45353836e-02f, -1.53949022e-01f, -3.40396538e-02f, 7.87019432e-02f, -5.08663595e-01f, 3.77907464e-03f, 5.45606464e-02f,
    1.27032902e-02f, -9.48010907e-02f, 3.62718441e-02f, 6.40294030e-02f, -3.17142382e-02f, 4.27280515e-01f, 6.14998579e-01f, -3.05061787e-02f,
    -4.95633446e-02f, 1.00622594e-01f, 3.36376816e-01f, -7.54713565e-02f, -1.77359283e-01f, 1.90796942e-01f, -3.67267728e-02f, -2.37626985e-01f,
    -2.94453427e-02f, 5.85324541e-02f, -6.01030178e-02f, 4.11981018e-03f, 2.34789461e-01f, 2.15882257e-01f, -9.61186364e-02f, -1.70649309e-02f,
    2.22581401e-01f, 4.54756850e-03f, -1.46635398e-01f, -1.30759273e-02f, -1.36583090e-01f, -6.09880053e-02f, 9.57901999e-02f, -1.39021605e-01f,
    4.32100333e-02f, -1.09683797e-01f, -6.21569492e-02f, -2.53270548e-02f, 2.34231189e-01f, 2.43856683e-01f, 1.24025069e-01f, 1.28082991e-01f,
    -8.00089389e-02f, -1.12641588e-01f, 8.29935595e-02f, -1.61726490e-01f, 8.95974040e-02f, 8.74028355e-02f, 1.28895370e-02f, 5.73525717e-03f,
    -2.28829645e-02f, 1.90017279e-02f, 1.01736642e-01f, 5.74781336e-02f, 2.46482827e-02f, 5.89412689e-01f, -5.59570849e-01f, 1.42913818e-01f,
    -2.41830628e-02f, 1.50311515e-01f, 5.03424145e-02f, 2.96937317e-01f, 2.19002161e-02f, 2.94592619e-01f, -4.27911151e-03f, 1.77358061e-01f,
    1.67688150e-02f, 1.76033080e-01f, 3.74992825e-02f, 1.32985502e-01f, -1.34185717e-01f, 8.09336361e-03f, -2.37960175e-01f, -1.47788942e-01f,
    -2.41479471e-01f, 9.55568776e-02f, -9.90647078e-02f, 1.18580528e-01f, 2.45348021e-01f, 1.31744027e-01f, -4.36878763e-02f, 2.40345046e-01f,
    -4.26557139e-02f, 1.74922988e-01f, -3.66013683e-02f, -1.83927134e-01f, -1.64199620e-03f, 9.80485603e-02f, 8.03468674e-02f, -3.22242826e-02f,
    3.08290333e-03f, -1.73840642e-01f, 6.61885440e-02f, -1.55142665e-01f, -2.91869044e-02f, 8.46947879e-02f, 1.98510826e-01f, -5.81925474e-02f,
    -3.72563154e-02f, 2.99232807e-02f, 9.67068315e-01f, -4.42434512e-02f, -6.22871853e-02f, -6.33939281e-02f, -3.16235684e-02f, -6.66057348e-01f,
    -8.46108720e-02f, -4.31724727e-01f, -8.86448249e-02f, -1.98665157e-01f, -3.53628676e-03f, -1.39765358e-02f, 3.52956027e-01f, 1.87102798e-02f,
    -1.41711578e-01f, 3.62953722e-01f, 2.31233299e-01f, 3.27301100e-02f, 9.32441205e-02f, 2.02633627e-02f, -8.71374458e-02f, -1.38812259e-01f,
    -1.57776117e-01f, -1.00774333e-01f, -2.75713839e-02f, -1.12497851e-01f, 9.55742449e-02f, 6.64952793e-04f, 4.37204465e-02f, 1.06037058e-01f,
    2.50200070e-02f, 4.63244736e-01f, -1.29904225e-01f, 2.73662414e-02f, 4.70145106e-01f, -2.11109985e-02f, 1.12183474e-01f, -1.04940034e-01f,
    8.80251154e-02f, -4.23883572e-02f, -1.38524801e-01f, -6.92099929e-02f, -9.81340408e-02f, 3.48345011e-01f, 5.93933053e-02f, -1.23997636e-01f,
    1.80561878e-02f, -7.71299452e-02f, 6.47245497e-02f, 3.27400193e-02f, 2.46179417e-01f, -2.42959619e-01f, 6.61108196e-02f, -9.35931951e-02f,
    7.39256516e-02f, -4.38900255e-02f, -1.00679539e-01f, -1.05518766e-01f, -1.30478740e-01f, -1.64457172e-01f, 7.23047331e-02f, -2.62487918e-01f,
    -1.09983072e-01f, 1.28290236e-01f, 5.37211671e-02f, -1.92460746e-01f, 4.76802379e-01f, -2.49347426e-02f, 1.53836533e-01f, 2.78050303e-02f,
    6.54514953e-02f, 1.60622954e-01f, 2.08315045e-01f, 1.38179556e-01f, -1.37329042e-01f, -1.36608362e-01f, -7.93767124e-02f, 3.55756991e-02f,
    1.98001698e-01f, 5.93752973e-02f, 2.82059968e-01f, -5.43850623e-02f, 1.51878640e-01f, -1.47997558e-01f, -3.15059155e-01f, 1.14231989e-01f,
    -1.55461475e-01f, 4.35415395e-02f, 2.23836571e-01f, 4.03703183e-01f, 4.70716208e-02f, -1.64509684e-01f, 3.32287550e-01f, 2.52568778e-02f,
    1.61098376e-01f, -2.40442172e-01f, -2.04822585e-01f, 6.30663037e-02f, 2.41471946e-01f, -3.29129726e-01f, -2.18552276e-01f, -1.38480231e-01f,
    -2.83427298e-01f, -7.62474611e-02f, -1.29800305e-01f, -1.26334846e-01f, 1.33549413e-02f, -7.02363327e-02f, 4.23643500e-01f, -1.88965857e-01f,
    -1.84145402e-02f, 3.34499657e-01f, -1.62298128e-01f, -7.16079548e-02f, -2.47220229e-03f, 8.90502557e-02f, 1.87172830e-01f, 6.00530282e-02f,
    1.91880047e-01f, -2.58029312e-01f, 2.72920504e-02f, 1.32904798e-01f, 5.61631583e-02f, 2.35465020e-01f, 1.52087122e-01f, 9.21540856e-02f,
    8.00839365e-02f, -7.32845813e-02f, 1.16139732e-01f, -1.35356784e-01f, -1.95906028e-01f, 2.03497648e-01f, -3.59148353e-01f, -2.72421688e-02f,
    -4.05702114e-01f, -4.30532396e-02f, 7.06437603e-02f, 1.15022935e-01f, 2.05585644e-01f, 2.30286289e-02f, 3.34396609e-03f, -2.52015948e-01f,
    2.76261687e-01f, 3.53800431e-02f, -3.86577174e-02f, 2.52869679e-03f, 1.47895649e-01f, 1.54984310e-01f, 1.30007535e-01f, -5.65789044e-02f
};

const int features_4_expand1x1_weight_shape[4] = { 64, 16, 1, 1 };
const int features_4_expand1x1_weight_ndim = 4;
const size_t features_4_expand1x1_weight_numel = 1024;
