#include "features_5_expand1x1_bias.h"

__attribute__((aligned(16))) const float features_5_expand1x1_bias[128] = {
    8.57239868e-03f, 1.48488197e-03f, 4.01490778e-02f, -9.55623090e-02f, -9.60372761e-03f, 1.36078134e-01f, -3.44991684e-02f, 1.32523644e+00f,
    6.72599152e-02f, 5.46726957e-02f, 1.77760810e-01f, 1.89119011e-01f, 6.64436840e-04f, 3.49131852e-01f, 5.85968532e-02f, 9.15543139e-02f,
    -1.31497607e-01f, 1.69084355e-01f, 1.25792041e-01f, 5.02413251e-02f, -8.04905954e-04f, 2.78224677e-01f, 8.94536637e-03f, 4.51989472e-02f,
    -1.13007158e-01f, 1.09609425e-01f, -9.28058252e-02f, 1.52689785e-01f, -3.51048857e-02f, -1.69767980e-02f, 1.19598292e-01f, 5.70268854e-02f,
    3.79689224e-02f, -9.88343582e-02f, -7.63545632e-02f, 6.74463157e-03f, -3.91408429e-02f, -2.64132857e-01f, -6.34014383e-02f, -6.46507889e-02f,
    1.92867771e-01f, 8.62304196e-02f, 1.93202883e-01f, -8.37743133e-02f, 5.65650500e-02f, -3.54486369e-02f, -3.79438438e-02f, -1.27672791e-01f,
    -5.21996878e-02f, -2.20876280e-03f, -1.23235984e-02f, -4.38431352e-02f, -2.11621940e-01f, 1.31778151e-01f, 1.00463413e-01f, 6.24166690e-02f,
    -1.42755657e-01f, 4.42701653e-02f, 6.10396080e-02f, -5.34189343e-02f, 1.55871212e-01f, 9.04373080e-02f, 7.68264681e-02f, 2.97031291e-02f,
    -3.77804227e-02f, 1.18699120e-02f, -1.07780220e-02f, 6.08432107e-02f, -7.82411769e-02f, -3.37731950e-02f, 1.92026943e-02f, -2.10069135e-01f,
    -1.02166019e-01f, -1.80490270e-01f, 1.28780544e-01f, 4.29449715e-02f, 6.78673908e-02f, -2.90557165e-02f, -3.11116055e-02f, -1.54846534e-01f,
    -1.23239020e-02f, -1.81993954e-02f, 1.89180195e-01f, -1.05267711e-01f, -3.43810469e-02f, 4.67997134e-01f, 2.79733585e-03f, 1.94910035e-01f,
    7.55560175e-02f, -8.69290456e-02f, 4.44431782e+00f, 9.59455669e-02f, 2.40682304e-01f, -1.48529373e-02f, 3.33714485e-02f, -5.30540245e-03f,
    3.32918018e-01f, -8.43479410e-02f, 4.44454290e-02f, -1.24860875e-01f, 3.83467041e-02f, 2.60882974e-01f, 5.96885011e-03f, 4.92249317e-02f,
    -1.35970548e-01f, -7.67539591e-02f, 3.79811749e-02f, 8.43710790e-04f, 1.20096862e-01f, -3.43020745e-02f, -7.66541064e-02f, 9.78315920e-02f,
    -5.65314367e-02f, 4.56778891e-02f, 7.93324038e-02f, 1.31099313e-01f, 7.44342897e-03f, 9.19738710e-02f, -6.44461334e-01f, -4.97359931e-02f,
    -6.87634125e-02f, -4.47089732e-01f, -3.17450687e-02f, -3.79030675e-01f, 2.12477911e-02f, 9.73435268e-02f, 2.89291758e-02f, 3.29040689e-04f
};

const int features_5_expand1x1_bias_shape[1] = { 128 };
const int features_5_expand1x1_bias_ndim = 1;
const size_t features_5_expand1x1_bias_numel = 128;
