#include "features_7_squeeze_weight.h"

__attribute__((aligned(16))) const float features_7_squeeze_weight[8192] = {
    1.70442089e-01f, -9.69563797e-02f, -1.00305215e-01f, 3.33647355e-02f, -8.82342085e-02f, -8.74743387e-02f, -5.93522675e-02f, -1.92736164e-01f,
    2.61379909e-02f, -8.25487301e-02f, 1.83783397e-01f, -1.24664586e-02f, 9.23745632e-02f, 2.23568097e-01f, -1.52349332e-02f, -7.52566606e-02f,
    1.86561704e-01f, -1.03418410e-01f, -1.01448618e-01f, 1.18375169e-02f, -1.90771278e-02f, -1.59078598e-01f, -4.21907939e-02f, -1.59987900e-02f,
    2.52837949e-02f, -2.31598150e-02f, 1.56421870e-01f, -7.22327270e-03f, -5.29532656e-02f, 8.54524523e-02f, -8.51487219e-02f, 1.87885553e-01f,
    -2.93754488e-02f, -1.69602007e-01f, -2.49319468e-02f, 1.52565809e-02f, 8.65035728e-02f, 2.53649447e-02f, 6.08184794e-03f, -1.68583728e-02f,
    -5.21440431e-02f, 1.12670502e-02f, -1.19417179e-02f, 6.54726624e-02f, -4.65938337e-02f, -3.70682478e-02f, -4.33490202e-02f, -7.82597736e-02f,
    8.01584423e-02f, -3.70592512e-02f, -8.90229829e-03f, 1.67670306e-02f, 9.10337269e-02f, -1.86194349e-02f, -7.28277639e-02f, -5.79042882e-02f,
    9.83064398e-02f, 3.56670357e-02f, 3.50771636e-01f, 1.12985805e-01f, -6.41241968e-02f, -6.65166229e-02f, -8.16970840e-02f, -1.52013615e-01f,
    1.67767033e-01f, -5.68733774e-02f, -4.44138534e-02f, 1.74030349e-01f, -5.56981526e-02f, 3.40446740e-01f, -3.59111167e-02f, 8.47095102e-02f,
    6.70453459e-02f, 8.30982476e-02f, 4.53204177e-02f, 1.93583444e-02f, 1.51189089e-01f, -2.55245194e-02f, 9.61737782e-02f, 2.39201397e-01f,
    -1.76182557e-02f, 2.74146292e-02f, -9.74607021e-02f, -3.37173566e-02f, 6.33902103e-02f, -1.08489372e-01f, 3.63219380e-02f, -1.02509698e-02f,
    1.23398855e-01f, 8.51026550e-02f, -6.43181503e-01f, 7.83841759e-02f, -1.06302593e-02f, -1.81259483e-01f, 9.34565440e-03f, -1.15521990e-01f,
    -6.38097152e-02f, -1.06113004e-02f, -2.33148094e-02f, 7.07877651e-02f, 1.97729599e-02f, 3.72767717e-01f, 1.22839928e-01f, -3.12341936e-02f,
    2.22244728e-02f, 3.73454019e-02f, -1.20068200e-01f, -2.08511412e-01f, -1.16654783e-02f, 1.43003032e-01f, 2.73697544e-02f, -1.41452402e-01f,
    -4.25324813e-02f, -4.96720374e-02f, -1.10938065e-01f, -3.01845446e-02f, 5.51847816e-02f, -2.22821836e-03f, 2.44229585e-01f, 8.69916473e-03f,
    3.09868623e-02f, 6.73256740e-02f, -9.09379125e-02f, 1.38785705e-01f, -8.21646228e-02f, 4.06469852e-02f, 8.04125741e-02f, 6.68125749e-02f,
    -1.34277418e-01f, -9.09693316e-02f, -4.22576182e-02f, 2.90609221e-03f, -9.90899093e-03f, 1.89414755e-01f, 2.21268255e-02f, -1.99141703e-03f,
    -8.26554075e-02f, -1.01923734e-01f, 1.18961930e-01f, 2.52290000e-03f, 4.91776466e-02f, -1.06517278e-01f, -4.04261574e-02f, 1.00323126e-01f,
    4.19214629e-02f, -1.92955565e-02f, -8.19931254e-02f, 1.22384606e-02f, 2.11044382e-02f, 4.07652445e-02f, 8.11537951e-02f, -5.38296774e-02f,
    4.84551527e-02f, -7.54273757e-02f, -4.29764800e-02f, 1.23633794e-01f, 1.54939601e-02f, 6.81326017e-02f, -5.40008117e-03f, 4.95213494e-02f,
    -7.98282176e-02f, 7.46835396e-02f, -1.21537261e-01f, -5.51134497e-02f, -1.20024132e-02f, -4.76047397e-02f, 3.15097421e-02f, 1.48410443e-04f,
    -2.65028067e-02f, -2.08895057e-02f, 2.68306047e-01f, -6.22105636e-02f, -8.92241970e-02f, -3.05760466e-02f, -4.66558300e-02f, 4.97458316e-02f,
    3.15547772e-02f, -5.01761632e-03f, -2.66538970e-02f, -6.44580051e-02f, 7.55835474e-02f, 1.82447150e-01f, 3.34775038e-02f, 1.75320765e-03f,
    -2.29895040e-02f, -2.07890794e-02f, -1.18479006e-01f, -2.13394258e-02f, -7.13658333e-02f, 1.10887930e-01f, -5.62859466e-03f, 6.93032503e-01f,
    2.68257987e-02f, -2.94698514e-02f, -1.31367566e-02f, -3.83443274e-02f, -1.30233929e-01f, -1.21767417e-01f, 1.57370880e-01f, 2.68415928e-01f,
    7.06646815e-02f, -1.77665785e-01f, 2.60355230e-02f, -7.77567551e-02f, 4.50998880e-02f, 9.50278789e-02f, -7.05047026e-02f, -7.18760118e-02f,
    4.61304516e-01f, 2.27387678e-02f, 5.73139153e-02f, -6.39493689e-02f, -7.30891228e-02f, -2.22898163e-02f, -1.41594246e-01f, 2.82682590e-02f,
    5.85002974e-02f, -6.16527759e-02f, 5.50130606e-02f, 2.03226626e-01f, -3.88715323e-03f, 9.70453098e-02f, -6.44013882e-02f, -3.12814722e-03f,
    -3.71286571e-02f, -6.47763759e-02f, 8.24174806e-02f, -1.31385863e-01f, 1.20075811e-02f, 1.26073295e-02f, 4.73327637e-02f, -3.95638570e-02f,
    1.05490051e-01f, 4.56399238e-03f, 1.94285944e-01f, 7.98392519e-02f, -3.64350714e-02f, 4.60619517e-02f, -1.02125632e-03f, 9.61021334e-02f,
    -1.92942604e-01f, -6.33411482e-02f, -3.99629399e-02f, -5.46296942e-04f, 4.17538881e-01f, -5.95251583e-02f, -1.33183934e-02f, -3.57278576e-03f,
    -1.13040350e-01f, 8.32830071e-02f, -5.15622608e-02f, -9.16781723e-02f, 8.17477256e-02f, -5.83623834e-02f, -1.53218463e-01f, 1.49982557e-01f,
    -8.31449963e-03f, 9.29500815e-03f, -4.93526496e-02f, -1.77197367e-01f, -7.13892803e-02f, -4.53318730e-02f, 7.39356130e-02f, 1.41026884e-01f,
    -5.13274074e-02f, -1.12939917e-01f, 2.09100246e-01f, 1.20983660e-01f, -4.24627066e-02f, -1.34101510e-02f, 2.00321302e-01f, 1.53200299e-01f,
    1.44038303e-02f, -3.40920612e-02f, -1.68226719e-01f, -4.02170047e-02f, -1.13876112e-01f, 1.18164338e-01f, -1.39704198e-01f, 1.71836466e-01f,
    -5.07445484e-02f, 5.62687442e-02f, -1.12507053e-01f, 1.30498586e-02f, 7.22467676e-02f, 1.73390508e-02f, -1.92452118e-01f, -4.92746048e-02f,
    1.04238957e-01f, 7.37502128e-02f, -2.66795248e-01f, 7.38735050e-02f, 3.06004398e-02f, -9.07643288e-02f, 3.24092992e-02f, -7.29058459e-02f,
    2.24695742e-01f, 7.15722218e-02f, 2.81934023e-01f, -1.58265710e-01f, 8.28445405e-02f, -5.57569414e-02f, -9.16740969e-02f, -6.65539950e-02f,
    -3.52825597e-02f, 1.35523811e-01f, 1.83608651e-01f, 2.25625187e-02f, -7.43740648e-02f, 1.34675056e-01f, 6.28973618e-02f, 1.85787931e-01f,
    1.24309577e-01f, 9.29491445e-02f, 6.33376613e-02f, -8.72787908e-02f, 1.84060678e-01f, 2.42364496e-01f, -1.89674832e-03f, -1.49603290e-02f,
    3.31099471e-03f, -1.80490941e-01f, -1.90297458e-02f, -2.02532355e-02f, -2.69309487e-02f, -6.00222312e-02f, 2.25615166e-02f, -1.37311742e-01f,
    7.19820103e-03f, 7.82073140e-02f, -8.02682340e-02f, -5.96304284e-03f, 2.34630719e-01f, 4.94233593e-02f, -1.30293844e-02f, -3.44579406e-02f,
    -2.26965570e-03f, 2.08541304e-02f, 2.25196883e-01f, -1.08805917e-01f, 8.21803585e-02f, 5.29096238e-02f, -7.54333436e-02f, 1.88632056e-01f,
    1.06799096e-01f, 2.93386150e-02f, 4.24904674e-01f, 7.78219849e-02f, -5.69127388e-02f, -1.01955429e-01f, 4.91143949e-02f, 4.87397648e-02f,
    -1.00615686e-02f, 1.70849860e-02f, 5.23011424e-02f, 4.01269644e-02f, -1.57625392e-01f, 6.30424693e-02f, 3.84498946e-02f, 2.20893119e-02f,
    -3.66991907e-02f, -4.95367497e-02f, -1.79409124e-02f, -6.61038011e-02f, -2.75812387e-01f, 1.19664252e-03f, 2.10611094e-02f, -1.08668238e-01f,
    1.45591468e-01f, 2.76031852e-01f, -7.28694126e-02f, 4.47203554e-02f, -6.41491860e-02f, 2.70522516e-02f, -1.29814342e-01f, -5.98694384e-02f,
    -1.92131680e-02f, 2.91356258e-03f, -2.30814479e-02f, -5.08999638e-02f, -1.26385808e-01f, -1.25468699e-02f, -6.48584813e-02f, 4.92615160e-03f,
    3.98829505e-02f, -6.40167966e-02f, -3.44645754e-02f, 2.04926133e-01f, -1.97914895e-02f, 2.75488347e-02f, 2.76593547e-02f, -2.21284796e-02f,
    5.49806282e-02f, 1.70452937e-01f, 1.48307547e-01f, 1.87301654e-02f, 3.25532675e-01f, -5.57539612e-02f, 2.08164588e-01f, 6.34758500e-03f,
    -2.92165764e-02f, 4.70603295e-02f, -1.23183976e-03f, -6.98216781e-02f, 2.52211075e-02f, -5.74477296e-03f, 5.49633950e-02f, 8.20022449e-03f,
    -7.98972920e-02f, 8.64563212e-02f, -6.12370148e-02f, 1.02053499e-02f, -8.25323630e-03f, -6.49459958e-02f, -9.88315120e-02f, 1.40422462e-02f,
    -2.93035395e-02f, -1.36954457e-01f, 4.85773534e-02f, 9.83688142e-03f, -1.22592323e-01f, 7.55673796e-02f, -6.81122318e-02f, 1.48805426e-02f,
    -9.11555737e-02f, -1.40039876e-01f, 2.35427506e-02f, -4.46613096e-02f, -6.36031926e-02f, 3.20463143e-02f, -1.32963538e-01f, -7.76090398e-02f,
    2.69879140e-02f, -1.20405927e-01f, 7.97937959e-02f, -9.95599180e-02f, 2.03072384e-01f, -2.54401304e-02f, 4.80811208e-01f, 5.91643155e-02f,
    2.09058106e-01f, -4.32688519e-02f, 3.29583511e-02f, -9.60618779e-02f, -1.22730106e-01f, -2.61207391e-02f, 7.49265775e-02f, -8.93433914e-02f,
    -2.63574272e-02f, 1.11086883e-01f, 8.16490799e-02f, -3.54754180e-02f, -4.82243076e-02f, 6.83267275e-03f, 1.36643901e-01f, 2.23733280e-02f,
    4.68828669e-03f, 1.92335527e-02f, 2.18001872e-01f, 1.92953289e-01f, -1.02012679e-01f, -1.16066843e-01f, 8.79689828e-02f, 2.91581862e-02f,
    2.53510289e-03f, -6.73180819e-03f, -3.12127769e-02f, 6.07277900e-02f, -9.67571437e-02f, -7.00386167e-02f, -3.16043943e-02f, 1.26764715e-01f,
    3.76914106e-02f, -5.80101684e-02f, -1.69914332e-03f, -4.13128287e-02f, 7.04406053e-02f, 1.07564919e-01f, -2.44748499e-02f, 2.02120673e-02f,
    -1.42732218e-01f, -1.34909675e-01f, -4.57414314e-02f, 1.40513678e-03f, -1.12969816e-01f, -2.54333019e-02f, 1.34628147e-01f, -1.01027459e-01f,
    -1.10422984e-01f, 1.03663333e-01f, -1.47477714e-02f, 2.58558560e-02f, 5.58921434e-02f, 6.63644820e-02f, 5.82411513e-02f, -7.81373531e-02f,
    -4.65316558e-03f, -1.43195670e-02f, 3.09142005e-02f, 6.94116428e-02f, -4.63736653e-02f, -2.30939966e-02f, 3.26164626e-02f, -6.78176656e-02f,
    8.68001804e-02f, 1.34267122e-01f, 3.00130010e-01f, -2.19221208e-02f, -1.97797641e-02f, -1.68069765e-01f, 6.38754666e-02f, 6.31123036e-02f,
    9.47509483e-02f, 1.25733718e-01f, 5.71405813e-02f, 5.86890914e-02f, -5.98612651e-02f, 2.06456762e-02f, 4.18674126e-02f, -3.91931713e-01f,
    5.50658330e-02f, -2.10750792e-02f, 7.73590878e-02f, -6.36628270e-02f, 9.65510160e-02f, 2.85105079e-01f, 4.50290293e-02f, 6.10496243e-03f,
    6.76973015e-02f, -7.87574798e-02f, 2.16683652e-02f, -1.44069334e-02f, -1.17245447e-02f, -8.38041380e-02f, 1.62789613e-01f, 1.08373545e-01f,
    1.49454713e-01f, 1.27431661e-01f, -1.35018915e-01f, 1.23825207e-01f, 4.82206613e-01f, -1.56639934e-01f, -1.41829252e-02f, -2.57344684e-03f,
    -7.76257589e-02f, 1.40682338e-02f, 1.84146211e-01f, 5.05317934e-02f, 9.06177759e-02f, 4.11496818e-01f, 5.79663925e-02f, 3.99824008e-02f,
    -6.45865779e-03f, -6.23587333e-02f, 6.61844667e-03f, 7.38290027e-02f, -1.06525704e-01f, 6.01636767e-02f, 1.67520717e-01f, 1.37548059e-01f,
    6.71231374e-02f, -9.79587436e-02f, 2.27228496e-02f, -5.57106361e-02f, 5.97988844e-01f, 3.52172144e-02f, -5.01549989e-02f, 9.40741505e-03f,
    3.09494227e-01f, 2.61491686e-02f, 1.43572152e-01f, -2.08840966e-01f, -8.74635056e-02f, 5.23413494e-02f, -5.35770319e-02f, -1.94990590e-01f,
    2.31435090e-01f, -4.10959087e-02f, 1.43094435e-02f, 8.97650123e-02f, -3.58565152e-02f, -1.04847066e-01f, 6.13038428e-03f, 1.52978852e-01f,
    1.11519575e-01f, 5.90946823e-02f, -9.88220349e-02f, 1.70419618e-01f, -2.08945032e-02f, 1.35882264e-02f, 8.33986253e-02f, 4.84643597e-03f,
    1.18739828e-01f, 1.33479312e-01f, 4.58823740e-02f, 2.69444466e-01f, -1.79802570e-02f, 3.33611853e-02f, 2.06257668e-04f, -2.34685410e-02f,
    -5.19583113e-02f, 1.07823266e-02f, -1.43182242e+00f, 7.44335949e-02f, 1.93807110e-03f, -1.54933840e-01f, 4.14597057e-02f, -2.58520059e-02f,
    2.12071091e-01f, 4.17730138e-02f, 7.09124058e-02f, 5.47110178e-02f, -2.55370736e-01f, -4.50038701e-01f, 5.48166297e-02f, 4.31306139e-02f,
    5.10766447e-01f, -6.17734604e-02f, 1.11957302e-03f, 2.57103685e-02f, 3.67944278e-02f, 6.36767149e-02f, 2.16683466e-02f, -4.92915921e-02f,
    2.79292792e-01f, -3.05360686e-02f, 7.74356052e-02f, 5.89739811e-03f, -6.55742129e-03f, 7.93087706e-02f, 4.52889949e-01f, 8.90072733e-02f,
    7.01336795e-03f, 1.52958632e-01f, 5.69424368e-02f, 1.75029024e-01f, -5.11208400e-02f, 4.48443517e-02f, -6.11907616e-03f, 5.00496887e-02f,
    4.62234393e-02f, -6.71395361e-02f, -8.73420909e-02f, -6.46362156e-02f, -4.85273674e-02f, 6.90171942e-02f, -7.34002562e-03f, -6.16219454e-03f,
    3.86541001e-02f, -4.39760834e-02f, 2.33296126e-01f, 3.74089554e-02f, 1.02803884e-02f, -3.76669988e-02f, 4.26227525e-02f, -2.68009622e-02f,
    1.04156835e-03f, 2.62162611e-02f, 9.02078301e-03f, -4.79366519e-02f, 5.73720597e-02f, 1.04188267e-02f, -5.64950742e-02f, 2.63455193e-02f,
    2.52097193e-02f, 2.95033287e-02f, 9.41735953e-02f, -2.30819713e-02f, -2.21128371e-02f, -1.05202422e-02f, -8.52212682e-02f, -1.54314432e-02f,
    6.62801862e-02f, 1.80242106e-03f, -9.71362088e-03f, 5.53305708e-02f, 2.77477968e-02f, -4.90356572e-02f, 8.11545625e-02f, 2.28990708e-02f,
    5.25475964e-02f, 1.19579546e-02f, -2.81264773e-03f, 3.82661037e-02f, 1.18278125e-02f, 5.83161898e-02f, -9.52265598e-03f, -1.53061654e-03f,
    -7.24664750e-03f, -4.74083722e-02f, 1.06134340e-01f, 3.46338190e-02f, -3.48242223e-02f, -8.41282606e-02f, -2.43693609e-02f, 1.34187425e-03f,
    1.10095486e-01f, -3.17469239e-02f, 2.38773897e-02f, -2.72481106e-02f, -2.69940533e-02f, -4.02456671e-02f, 7.02310074e-03f, -7.50775933e-02f,
    3.13971862e-02f, 3.50557156e-02f, 2.29976214e-02f, -1.19946353e-01f, -1.75023470e-02f, -2.62204092e-02f, -3.50487710e-04f, -1.11877762e-01f,
    -3.23128588e-02f, 2.73869261e-02f, 6.83539808e-02f, -5.36254840e-03f, -2.94198599e-02f, -2.90571246e-02f, 1.05173208e-01f, -4.45427792e-03f,
    -7.26222619e-02f, 6.81564808e-02f, 2.23917495e-02f, 8.57357960e-03f, -1.47786988e-02f, -3.80883296e-03f, -5.05623594e-02f, 4.70303111e-02f,
    9.21983719e-02f, -1.07778519e-01f, -9.07098968e-03f, -3.51285934e-02f, 3.10883112e-02f, 2.38790940e-02f, 1.21740690e-02f, -8.59061778e-02f,
    1.18087806e-01f, -1.13232471e-02f, -5.78578450e-02f, -3.59946564e-02f, 2.01621791e-03f, 6.92917854e-02f, 5.20654283e-02f, -1.02970991e-02f,
    -1.83891933e-02f, 1.31154238e-07f, -6.11141175e-02f, -3.34398821e-02f, -1.63566485e-01f, 3.54228020e-02f, -3.16479988e-02f, -3.78866643e-02f,
    7.12776110e-02f, -6.89006671e-02f, 3.06261107e-02f, 3.67566943e-02f, -1.17088012e-01f, 4.67643648e-01f, -9.34174508e-02f, 2.13204753e-02f,
    8.89490023e-02f, 3.59453894e-02f, 5.88129908e-02f, 2.56688088e-01f, -1.63189769e-02f, 1.87834483e-02f, 4.94306162e-02f, 4.80174646e-02f,
    1.48971975e-02f, 1.19345263e-01f, 5.38460128e-02f, 2.38586381e-01f, 6.67017847e-02f, -1.37787402e-01f, 4.33782442e-03f, 1.01546079e-01f,
    -3.24805155e-02f, -5.18915281e-02f, -1.17514972e-02f, 3.10609676e-02f, 4.65845950e-02f, 1.36166796e-01f, 9.03265402e-02f, -4.99936491e-02f,
    1.41954899e-01f, -1.00988939e-01f, -1.39159054e-01f, 1.07122492e-02f, 7.62266517e-02f, 1.30184859e-01f, 8.45800787e-02f, 1.04395323e-01f,
    3.90077047e-02f, 4.65504900e-02f, 1.25553384e-01f, -7.39794374e-02f, 1.49886459e-01f, -4.89484034e-02f, -2.60097623e-01f, 1.02158621e-01f,
    -9.42910463e-03f, 8.61670747e-02f, 5.38839959e-03f, 1.59891441e-01f, -9.60289314e-02f, -3.93239185e-02f, -2.18928277e-01f, 3.75775024e-02f,
    3.09199598e-02f, -3.37888449e-01f, 1.33591682e-01f, -1.46918461e-01f, -1.50069064e-02f, -1.85997244e-02f, 1.15932617e-02f, 3.32100503e-02f,
    -9.03176144e-02f, 1.12624638e-01f, 7.60872439e-02f, 1.00920677e-01f, 2.20302516e-03f, 1.13990337e-01f, 8.66170228e-02f, 1.69808511e-02f,
    8.17103237e-02f, 2.39042044e-02f, 4.31801714e-02f, 7.38336593e-02f, 1.01248205e-01f, 4.47431244e-02f, 1.12010678e-02f, -6.05223887e-03f,
    4.92381752e-02f, 8.36649537e-02f, -1.73320770e-02f, 7.56832063e-02f, 1.89226621e-03f, 3.19417566e-02f, 5.48035577e-02f, 1.19467545e-03f,
    4.58952561e-02f, -3.82504091e-02f, 1.05044678e-01f, -4.57451567e-02f, 6.89749569e-02f, -1.54408151e-02f, -4.61199991e-02f, 4.96105291e-02f,
    -2.16346532e-02f, 8.62606764e-02f, 1.51976928e-01f, 6.39148504e-02f, 2.83355229e-02f, 1.13164589e-01f, 1.75625831e-01f, 1.49016231e-01f,
    9.89422575e-02f, 1.45307004e-01f, 3.39566916e-01f, 1.15441466e-02f, 1.25156373e-01f, 9.32052508e-02f, 6.96335509e-02f, 2.04106402e-02f,
    8.57395232e-02f, 1.31928641e-02f, 5.63643686e-03f, 7.79164135e-02f, 2.46991441e-02f, 4.69183624e-02f, 5.54135256e-02f, -1.79381877e-01f,
    3.82884443e-02f, 1.03954296e-03f, 1.09561898e-01f, 8.89364034e-02f, 1.98076457e-01f, 7.93568417e-02f, 2.24094559e-02f, -3.00929206e-03f,
    1.11324312e-02f, -2.55813543e-02f, -1.14544798e-02f, -6.30373508e-02f, -1.75161399e-02f, 4.60363785e-03f, -2.08560359e-02f, 9.63890925e-02f,
    1.86016653e-02f, 8.17004964e-02f, 7.57066831e-02f, 3.32113653e-02f, 1.67481843e-02f, -5.87251177e-03f, -6.66159913e-02f, -7.66240805e-02f,
    -1.89864993e-01f, -4.90542427e-02f, -6.68029860e-02f, 1.08895712e-01f, 1.61644801e-01f, 5.71047515e-02f, -7.72281513e-02f, 2.96414077e-01f,
    2.27090150e-01f, -7.17733502e-02f, 1.05733298e-01f, -2.98739281e-02f, 2.02125996e-01f, -6.49029166e-02f, 2.52645701e-01f, -1.09352916e-01f,
    -3.82615954e-01f, -2.11937889e-01f, 1.45384669e-01f, -1.51364848e-01f, -2.28586301e-01f, 3.15981805e-01f, 3.76616754e-02f, 1.83420733e-01f,
    -2.24764839e-01f, 2.70195246e-01f, -2.26251647e-01f, -1.30951002e-01f, -1.79219648e-01f, 1.83613896e-01f, -2.10737064e-01f, -2.54556715e-01f,
    7.54884332e-02f, -9.96110812e-02f, -1.23842195e-01f, 5.54034375e-02f, 1.98239014e-01f, -3.25304270e-02f, 1.52459685e-02f, -2.12955654e-01f,
    -1.77082270e-01f, -2.72663087e-02f, 1.93386704e-01f, 2.45277844e-02f, -3.14637393e-01f, 2.07985118e-01f, 1.26127481e-01f, -1.07252173e-01f,
    9.53765810e-02f, -5.96538708e-02f, -2.58088171e-01f, 1.66717738e-01f, 1.33811504e-01f, -1.83560252e-02f, -1.13598630e-01f, -2.20818803e-01f,
    2.31160074e-01f, -3.00258368e-01f, -1.36858806e-01f, 2.39730433e-01f, -8.61837193e-02f, 9.48491991e-02f, 1.74798548e-01f, 2.79590935e-02f,
    -1.36815812e-02f, -1.76790297e-01f, 1.34283692e-01f, -5.05486019e-02f, -1.00734338e-01f, 1.48251578e-02f, -3.69406864e-02f, 4.06887047e-02f,
    -1.36114970e-01f, -2.13770960e-02f, 1.28332496e-01f, 1.83256075e-01f, -5.92341321e-03f, -6.52832016e-02f, -1.90201059e-01f, -1.97926939e-01f,
    -8.03630129e-02f, 1.33488402e-01f, 8.32660943e-02f, -1.73999116e-01f, 3.38104181e-02f, -1.43997222e-01f, -1.94158070e-02f, -9.33137909e-02f,
    -1.97608292e-01f, 6.52903691e-02f, -9.09161940e-03f, -2.15747908e-01f, 2.29679737e-02f, 6.80332072e-03f, -9.68948603e-02f, -4.48149443e-02f,
    1.56091228e-02f, 2.81633437e-01f, 2.90641367e-01f, -7.74879530e-02f, 9.52437893e-02f, -1.30223334e-01f, -5.49547523e-02f, -2.36664414e-01f,
    -2.99999982e-01f, 1.82657540e-01f, -1.24562882e-01f, -6.25985954e-03f, 8.67723450e-02f, 1.19415663e-01f, -1.45701662e-01f, 1.09477274e-01f,
    -1.22454986e-01f, 2.35519856e-01f, 2.09259409e-02f, 3.41807939e-02f, -1.59206867e-01f, 2.80485712e-02f, -1.39899865e-01f, -4.89480747e-03f,
    -2.58412901e-02f, 2.05208808e-01f, 6.97584897e-02f, -2.97924429e-02f, 2.06352800e-01f, 7.72000104e-02f, -1.95011720e-02f, -3.23456973e-01f,
    9.13574919e-02f, 1.13453187e-01f, 7.47252479e-02f, -2.50899911e-01f, 4.59757540e-03f, 2.63268143e-01f, -5.00968620e-02f, 9.19791460e-02f,
    -2.15763494e-01f, 1.37657300e-01f, 3.04704793e-02f, -1.18134310e-02f, -2.06205044e-02f, 1.30563691e-01f, 4.06556129e-02f, 3.17574702e-02f,
    -9.18734521e-02f, -2.38276478e-02f, 5.41540049e-02f, 5.02059199e-02f, -6.35199696e-02f, 4.10647169e-02f, 2.94006914e-02f, -1.15412846e-03f,
    8.43798649e-03f, 5.92812076e-02f, 9.13118199e-02f, -1.76131055e-02f, 1.05664365e-01f, -6.84146509e-02f, -8.22096616e-02f, 8.63763988e-02f,
    7.57627413e-02f, 1.84778944e-02f, 2.46172771e-03f, -4.41914238e-02f, -6.75228760e-02f, -6.01691008e-03f, -1.30868793e-01f, 1.44632399e-01f,
    3.03671695e-02f, 2.03239769e-01f, 4.87830304e-02f, 3.34590495e-01f, -8.39291364e-02f, 6.34778142e-02f, -3.63604762e-02f, 4.78918012e-03f,
    4.11295965e-02f, 1.20781511e-01f, 4.16976698e-02f, 8.73043612e-02f, 6.00481406e-02f, 3.99624221e-02f, -4.29468006e-02f, 9.78563912e-03f,
    1.04849543e-02f, -1.16068095e-01f, 5.29369246e-03f, 1.36745617e-01f, 2.33471766e-02f, -8.08100477e-02f, -3.15771438e-02f, -2.20205374e-02f,
    7.04836100e-02f, 4.03130502e-02f, -1.99366480e-01f, 6.57700896e-02f, -2.13959883e-03f, 4.28414121e-02f, -3.12187895e-02f, -2.22663898e-02f,
    -9.30649564e-02f, -9.12282392e-02f, 2.84073222e-03f, 3.01583633e-02f, 9.55598652e-02f, -1.73367690e-02f, -9.03668180e-02f, 7.06863850e-02f,
    -3.56776528e-02f, 1.41187936e-01f, 7.32367709e-02f, 5.24483796e-04f, 7.57564828e-02f, 5.49120530e-02f, -2.14380920e-02f, -4.74862009e-02f,
    7.39407390e-02f, -4.48168293e-02f, 2.70964116e-01f, 5.82793541e-02f, -4.24959995e-02f, 6.46596551e-02f, 1.55112492e-02f, 1.64783485e-02f,
    3.34770493e-02f, -2.18927544e-02f, 3.21984151e-03f, 4.13592979e-02f, 6.84240237e-02f, 3.95449884e-02f, 3.02787293e-02f, -1.07867166e-01f,
    6.36773109e-02f, -8.03335831e-02f, -1.16823815e-01f, 3.64282243e-02f, 1.09458685e-01f, -2.29730442e-01f, 6.23655245e-02f, -7.98947457e-03f,
    -1.60151720e-02f, -3.52984737e-03f, 1.28813192e-01f, -3.95697951e-02f, -2.21853018e-01f, 1.97127294e-02f, -8.28680918e-02f, 4.33698222e-02f,
    5.64597920e-02f, 8.75304453e-03f, 8.80367607e-02f, 1.53763369e-02f, -1.96213201e-01f, 2.44058892e-02f, 1.84841633e-01f, 4.47091050e-02f,
    -7.38751814e-02f, 8.36984888e-02f, -5.29014021e-02f, -2.48567993e-03f, -2.59139121e-01f, 8.14446583e-02f, 3.77287060e-01f, -5.14088059e-03f,
    -1.00745305e-01f, 1.77416522e-02f, 1.61879081e-02f, -5.79313114e-02f, 9.89354923e-02f, -3.32790166e-02f, -1.36140019e-01f, 1.16965957e-02f,
    -2.08823010e-01f, -6.59157187e-02f, 1.55378804e-01f, 1.44618526e-01f, 1.19784981e-01f, -2.98049599e-01f, -7.91828893e-03f, 1.71351463e-01f,
    -1.19408637e-01f, -3.08006972e-01f, 4.43004109e-02f, -1.83917060e-01f, -3.96657102e-02f, 1.17515378e-01f, 2.93885380e-01f, 2.92459577e-01f,
    -6.37191311e-02f, -2.07805306e-01f, -2.82233536e-01f, 4.33951914e-01f, 1.20468929e-01f, 1.46389008e-01f, -7.85182789e-02f, -1.98439732e-01f,
    6.31016791e-02f, -4.06289175e-02f, 6.97334623e-03f, 4.52011265e-03f, 4.52102482e-01f, 1.92460373e-01f, -1.41468227e-01f, -2.36897901e-01f,
    -2.10659578e-01f, 3.93191189e-01f, 1.26732454e-01f, 5.35089411e-02f, 1.06493980e-01f, -2.18975283e-02f, -5.74457180e-03f, -3.58297348e-01f,
    -6.50187060e-02f, -8.48357975e-02f, -5.40196002e-02f, -2.68427819e-01f, 5.33583164e-02f, -1.13021538e-01f, 2.65613049e-01f, -3.09589189e-02f,
    -1.81465670e-02f, -4.18004282e-02f, 8.18516985e-02f, -6.73141256e-02f, 1.16484582e-01f, 6.21286361e-03f, -3.94082852e-02f, -1.84858859e-01f,
    -1.54422149e-01f, 2.13685989e-01f, 1.18941098e-01f, -5.34329452e-02f, -3.13720942e-01f, 1.32781401e-01f, 2.83468589e-02f, 1.06978223e-01f,
    1.90144986e-01f, -9.28301737e-02f, 2.57678658e-01f, 1.47928670e-02f, 2.78712027e-02f, -2.35766619e-01f, 1.26701266e-01f, 2.35644318e-02f,
    8.40871930e-02f, 1.81552563e-02f, 1.64506912e-01f, 2.28124838e-02f, -5.33795282e-02f, 2.06501316e-02f, -2.12971792e-01f, -6.76623434e-02f,
    5.35065793e-02f, -5.47966622e-02f, -2.73182213e-01f, -2.26688683e-01f, -1.42342344e-01f, -2.87087858e-01f, 4.61087137e-01f, 1.55553162e-01f,
    -5.42916469e-02f, 7.91619532e-03f, -1.10474825e-01f, 3.51097286e-01f, 6.94394857e-02f, -1.13070808e-01f, 1.19340099e-01f, -4.96239960e-02f,
    1.42079905e-01f, 5.70028797e-02f, -5.72049655e-02f, 2.11923465e-01f, -8.94768462e-02f, -2.56447177e-02f, 4.37056385e-02f, -1.73392355e-01f,
    2.84834713e-01f, -4.93499748e-02f, 4.49198037e-02f, -1.14413619e-01f, -1.19884603e-01f, 8.68769065e-02f, -2.71021783e-01f, -2.13914424e-01f,
    -6.75051957e-02f, 6.39530048e-02f, -9.97757390e-02f, 9.27478150e-02f, 5.01274429e-02f, 1.48786739e-01f, 1.82680879e-02f, -3.60279888e-01f,
    8.35196581e-03f, 5.73818721e-02f, -1.67681858e-01f, -5.97842373e-02f, 3.73407938e-02f, -2.00565290e-02f, -3.20779905e-02f, 6.29395992e-02f,
    2.43990161e-02f, -1.97892431e-02f, -6.25877082e-03f, -7.34631568e-02f, 5.15226200e-02f, -1.46758720e-01f, -6.74420968e-02f, 1.45820573e-01f,
    3.00725643e-02f, -9.10523236e-02f, -1.45092681e-02f, 2.95675881e-02f, 4.18610275e-02f, -9.18361023e-02f, -6.56603277e-02f, 3.42319906e-02f,
    7.37827346e-02f, -5.46694957e-02f, -4.75728549e-02f, -4.84218039e-02f, 7.93115124e-02f, 2.76529193e-02f, 9.02676508e-02f, -4.29815277e-02f,
    -2.97086692e-04f, 1.67254120e-01f, 4.03715074e-02f, 9.71053019e-02f, 9.33652837e-03f, -1.07723204e-02f, 8.53167381e-03f, -6.28652647e-02f,
    -3.10915988e-03f, -1.23191617e-01f, 1.88243873e-02f, -2.65704822e-02f, 6.48811758e-02f, 3.77467908e-02f, -2.70230602e-02f, 7.93439150e-02f,
    7.76139870e-02f, -1.33068398e-01f, -8.06734785e-02f, -1.30916536e-01f, -5.34268580e-02f, 1.77947387e-01f, -5.47304226e-04f, -7.18243769e-04f,
    -1.23555893e-02f, 4.38745059e-02f, 1.83442444e-01f, -7.07451552e-02f, 9.25394446e-02f, 5.38640097e-03f, -1.24621475e-02f, 2.79049315e-02f,
    1.37187699e-02f, -2.98264734e-02f, 8.53401870e-02f, -1.84864905e-02f, -8.71085525e-02f, 4.36570458e-02f, 1.23004407e-01f, 1.34113297e-01f,
    -1.30926907e-01f, -7.26048723e-02f, -2.20855717e-02f, 3.20327431e-02f, 1.49346098e-01f, -2.05405712e-01f, -7.10338878e-04f, 4.55258451e-02f,
    -1.30163506e-01f, 8.59493390e-02f, -1.29199934e+00f, -8.46794695e-02f, -1.38738036e-01f, 6.67659789e-02f, -4.41355482e-02f, -2.01780014e-02f,
    -8.01733956e-02f, 5.95960990e-02f, 6.99557737e-02f, -2.41678618e-02f, -4.20496389e-02f, -7.30858222e-02f, -5.73737249e-02f, 1.39741143e-02f,
    2.60547716e-02f, 6.08706400e-02f, 1.68457836e-01f, 1.58821866e-01f, -5.06434739e-02f, 2.43539233e-02f, -1.82994213e-02f, 3.33787464e-02f,
    4.86503206e-02f, -5.73948734e-02f, 4.11027186e-02f, 8.17535520e-02f, 1.27987310e-01f, -4.87622246e-02f, 1.45886600e-01f, 3.03633325e-03f,
    4.39344123e-02f, 8.00539255e-02f, 9.77964178e-02f, 1.14645302e-01f, 9.20443907e-02f, 2.96506695e-02f, -1.69313475e-02f, -1.04983225e-01f,
    6.97917342e-02f, 2.27642283e-01f, 1.50060400e-01f, 5.12631722e-02f, 1.48960009e-01f, -8.46941099e-02f, 5.24471439e-02f, 4.78370748e-02f,
    -2.83138640e-02f, 5.04546940e-01f, -4.87946160e-02f, -1.50275320e-01f, -9.01841372e-02f, 1.82508588e-01f, -1.25370827e-02f, 6.04434907e-02f,
    1.85328145e-02f, 5.98601066e-02f, -4.07821015e-02f, 5.21387696e-01f, -1.21555902e-01f, 8.55152458e-02f, -1.79130342e-02f, -3.39379907e-02f,
    -3.64928953e-02f, 1.41838519e-02f, -1.44109517e-01f, 1.45759612e-01f, 1.52791157e-01f, 9.47549269e-02f, 1.54354386e-02f, -4.64870222e-02f,
    -6.89973384e-02f, 4.40654010e-02f, 1.92564204e-01f, 2.31684111e-02f, -2.87043070e-03f, 3.65303308e-01f, 3.00839782e-01f, -1.14228781e-02f,
    5.17736562e-02f, -1.21173725e-01f, -9.69767347e-02f, -1.05523190e-03f, 9.26222354e-02f, 3.25402915e-02f, 7.57595226e-02f, 5.95299900e-02f,
    1.42147109e-01f, 1.15762636e-01f, -6.89225942e-02f, -4.10119966e-02f, -2.79097594e-02f, 1.14591040e-01f, 9.04351696e-02f, 2.72925377e-01f,
    -7.34227076e-02f, -1.92203484e-02f, 5.26805893e-02f, 2.03249454e-01f, 4.87019271e-02f, 1.73947766e-01f, 1.25548234e-02f, -2.44066566e-02f,
    -6.45287558e-02f, -5.07014990e-02f, -1.13759406e-01f, 2.71726519e-01f, -6.82530701e-02f, 6.61609694e-02f, 5.26299439e-02f, 8.19204152e-02f,
    2.60466915e-02f, 4.62215617e-02f, -5.20866476e-02f, 1.96498975e-01f, 8.74869674e-02f, 9.58239287e-03f, -8.39159861e-02f, 1.66253179e-01f,
    -4.47867103e-02f, -6.65857494e-02f, -6.44085854e-02f, 2.86560152e-02f, 2.15079546e-01f, 2.44510919e-02f, 2.42070183e-01f, -3.62836979e-02f,
    4.62273695e-02f, 2.18560353e-01f, 1.64461657e-01f, 5.08789718e-02f, -2.51401551e-02f, 1.62414387e-02f, -5.38288280e-02f, 6.22438416e-02f,
    2.22145282e-02f, 8.00729319e-02f, 3.43573727e-02f, 2.28805584e-03f, -9.37899202e-02f, -4.01696488e-02f, 2.65466869e-02f, -7.32618272e-02f,
    -1.63674932e-02f, 1.24383681e-01f, 5.09965383e-02f, 1.66801259e-01f, 1.12179637e-01f, 4.62936349e-02f, -1.14393890e-01f, 7.40411431e-02f,
    -1.40465016e-03f, 1.96437523e-01f, -1.46028981e-01f, 7.83674978e-03f, 1.46057054e-01f, 4.68510613e-02f, 7.19169497e-01f, -2.43648384e-02f,
    -4.97780405e-02f, -4.19158377e-02f, -1.00848749e-01f, 8.09961185e-02f, -5.23645431e-02f, -1.14172809e-01f, 9.65966359e-02f, -6.32727668e-02f,
    -2.54308730e-02f, -2.72239204e-02f, 1.59322858e-01f, -4.57271971e-02f, -1.26605108e-01f, 8.19442272e-02f, -1.61641091e-02f, 1.32711723e-01f,
    -2.54813842e-02f, 2.52868943e-02f, 1.43281622e-02f, 1.46709144e-01f, 5.61144315e-02f, 7.32017905e-02f, 8.73488337e-02f, -1.63000152e-01f,
    -2.05674171e-02f, 1.44449949e-01f, 1.40220195e-01f, -9.89299193e-02f, 1.92361865e-02f, 2.66396075e-01f, -1.76188588e-01f, 3.29951614e-01f,
    -3.94964777e-02f, 1.62720196e-02f, -1.67613626e-01f, 4.97135848e-01f, -8.23238567e-02f, -5.24038114e-02f, 1.07339971e-01f, 1.72970456e-03f,
    -2.39624381e-02f, 1.01007320e-01f, 1.55438893e-02f, 8.23799446e-02f, 8.54633152e-02f, -5.20378724e-02f, 4.95589785e-02f, -1.58742234e-01f,
    -1.88537091e-02f, -6.30540401e-02f, 3.63031089e-01f, 6.22552447e-02f, -8.27913433e-02f, -1.09337099e-01f, -1.90436840e-02f, -4.61757241e-04f,
    5.09689339e-02f, -1.04082527e-03f, -1.70800239e-02f, -1.44751474e-01f, 1.42896455e-02f, 2.57561393e-02f, 3.86144161e-01f, -1.18371658e-01f,
    -1.16214976e-02f, 8.60956311e-03f, 3.59783880e-02f, -1.46047279e-01f, 4.14281279e-01f, -5.14445417e-02f, -3.52803580e-02f, -1.12215020e-01f,
    -4.17362042e-02f, -1.27665013e-01f, 3.87848392e-02f, -7.80037194e-02f, -9.24624279e-02f, 1.79728061e-01f, 1.36072189e-01f, 1.46908969e-01f,
    4.46407497e-03f, 1.90150514e-02f, -1.36799365e-01f, 1.45321533e-01f, 2.98329532e-01f, 1.72931060e-01f, 7.79944435e-02f, -1.95020903e-02f,
    4.97851893e-02f, -2.57512163e-02f, 1.22011304e-01f, -8.10558796e-02f, -3.76088396e-02f, 3.18318009e-01f, -4.37462255e-02f, 1.30461261e-01f,
    -5.01653701e-02f, 1.16077289e-02f, 4.15795505e-01f, -2.88949963e-02f, -4.12798399e-04f, -1.08999670e-01f, 7.10118115e-02f, -9.42376778e-02f,
    -1.82430327e-01f, 4.57265265e-02f, -1.47031073e-03f, 1.35784239e-01f, -1.84589595e-01f, 1.41969353e-01f, 3.39909159e-02f, -1.35806307e-01f,
    4.42484468e-02f, -1.11932918e-01f, 7.62306377e-02f, -3.81511152e-02f, 9.35398880e-03f, -1.06111713e-01f, -1.15369491e-01f, -2.57330406e-02f,
    3.59803885e-02f, -8.42420012e-02f, -1.77997231e-01f, -8.81303027e-02f, -9.29578990e-02f, 7.91639760e-02f, -7.44111389e-02f, -7.15846568e-02f,
    1.10948673e-02f, 1.76966731e-02f, 1.22603131e-02f, 1.51891392e-02f, 1.45483345e-01f, 8.78196061e-02f, -6.82536513e-02f, 3.87943201e-02f,
    1.93419918e-01f, -1.69146955e-02f, -4.48338734e-03f, -1.40333146e-01f, -1.29553489e-03f, 1.57049239e-01f, 1.02224918e-02f, -7.44096264e-02f,
    -1.40813403e-02f, -1.26888286e-02f, 7.54455775e-02f, -2.05193341e-01f, -1.86638013e-01f, -8.49189386e-02f, -8.60273093e-02f, 4.46345955e-02f,
    -5.31653874e-03f, 5.30835912e-02f, 1.14654891e-01f, 4.79725301e-02f, -1.94802843e-02f, 1.71975955e-01f, 1.30524695e-01f, 7.19399005e-02f,
    5.12280166e-02f, 4.73274998e-02f, 1.06337532e-01f, 2.15974316e-01f, -1.97740458e-02f, -1.88156143e-02f, 9.75435004e-02f, 2.16381643e-02f,
    3.82545441e-02f, 1.62207901e-01f, -1.07827775e-01f, 5.97940832e-02f, -1.00075617e-01f, -4.11222279e-02f, 2.92929888e-01f, -1.07408218e-01f,
    1.53429821e-01f, -9.56467353e-04f, -2.98947319e-02f, 1.83055233e-02f, -9.57969055e-02f, 9.16449800e-02f, 1.75485522e-01f, 1.10247560e-01f,
    6.90124705e-02f, -5.07069044e-02f, 3.20172422e-02f, 1.53615251e-01f, -6.09449595e-02f, -1.42130241e-01f, -1.12427995e-01f, 2.60798912e-03f,
    -4.07626852e-02f, 9.53819975e-02f, 2.86945522e-01f, 1.25875935e-01f, 2.34519504e-02f, 9.57610607e-02f, 1.18408039e-01f, -8.25711787e-02f,
    2.02532653e-02f, 1.67228460e-01f, -1.09522291e-01f, -1.16671398e-01f, -1.16503857e-01f, -2.57381964e-02f, 1.00651719e-01f, 4.32977974e-02f,
    -5.14867045e-02f, -1.06510995e-02f, -9.20857787e-02f, 3.78476351e-01f, -2.63512190e-02f, -9.60201118e-03f, -3.53794210e-02f, 1.74392294e-02f,
    4.24094982e-02f, 1.18281230e-01f, -1.47866517e-01f, -6.21585175e-02f, 8.38046223e-02f, 1.30094692e-01f, -1.46241143e-01f, -1.32195803e-03f,
    1.03598468e-01f, -1.87648721e-02f, 2.47394107e-02f, 1.39069334e-01f, -7.70757347e-02f, -5.29144891e-02f, 3.72465551e-02f, 1.32551538e-02f,
    -2.23803312e-01f, -1.13926105e-01f, 6.70289174e-02f, -8.06413367e-02f, 9.49717313e-02f, 1.47991851e-02f, 2.36379385e-01f, 1.55551806e-01f,
    1.71303988e-01f, -1.44829217e-03f, -5.16289882e-02f, 8.90124515e-02f, -1.13487616e-01f, 8.88238549e-02f, -7.17698187e-02f, -4.70974781e-02f,
    -1.51364207e-01f, -9.83512402e-02f, -3.70868556e-02f, -6.67935535e-02f, 6.36473075e-02f, -5.64540215e-02f, 1.01920038e-01f, -4.93532307e-02f,
    8.03765357e-02f, 1.58118933e-01f, -1.76935494e-01f, -6.78939149e-02f, 2.87790466e-02f, 1.16876215e-01f, -4.95246984e-02f, 1.43320128e-01f,
    7.47551695e-02f, 7.13468716e-02f, 5.68458103e-02f, 4.33026105e-02f, 3.42248380e-02f, 6.17841445e-02f, 4.39128950e-02f, 1.46840140e-01f,
    -3.66228372e-02f, -1.60737392e-02f, -6.93136901e-02f, -6.95631206e-02f, 4.98296246e-02f, -2.74273664e-01f, 2.81633921e-02f, 1.68681324e-01f,
    -7.94389192e-03f, 2.04856452e-02f, 9.57087353e-02f, 7.73057640e-02f, -1.38089895e-01f, 2.91622002e-02f, 1.03179611e-01f, 7.83243105e-02f,
    5.75066134e-02f, 3.93895537e-01f, -1.31089419e-01f, 4.21262383e-02f, -3.32446009e-01f, -1.06351241e-01f, 1.26510501e-01f, -4.87681217e-02f,
    7.21796900e-02f, -5.83664328e-02f, 1.75963212e-02f, 2.80729700e-02f, 5.41387871e-03f, 2.25744039e-01f, 4.28750813e-02f, -3.31559569e-01f,
    6.39987066e-02f, 4.83625010e-02f, 7.87246004e-02f, 1.88883021e-02f, 6.89974334e-03f, 5.58252484e-02f, 5.53160533e-03f, 1.33995488e-01f,
    2.45569915e-01f, -1.08751923e-01f, 8.57771188e-03f, 3.55970748e-02f, 6.84376732e-02f, -2.20378302e-02f, 6.32600859e-02f, -7.88882002e-03f,
    5.15045106e-01f, -2.70306692e-02f, -9.76138115e-02f, -1.19271547e-01f, 1.15407869e-01f, 7.57071078e-02f, 4.08718437e-02f, 2.43723258e-01f,
    6.50799274e-01f, 1.87916785e-01f, 4.43828031e-02f, -1.72976851e-02f, -3.32411230e-02f, 2.74958849e-01f, -5.03712296e-02f, 5.39909787e-02f,
    1.60417929e-02f, -1.73985064e-01f, -1.73007905e-01f, 1.99054852e-01f, -1.70958802e-01f, -9.14228708e-02f, 4.68898304e-02f, 1.31063759e-01f,
    3.72466147e-02f, -1.05994456e-02f, 5.25683388e-02f, -2.11112514e-01f, -1.02761485e-01f, -4.05960716e-03f, -1.00229435e-01f, -9.73775908e-02f,
    3.89760524e-01f, -7.22499490e-02f, 3.87492776e-01f, -1.01690426e-01f, 1.09935680e-03f, 2.14926660e-01f, -1.14125714e-01f, 2.94360280e-01f,
    4.16414112e-01f, -1.47919916e-02f, -2.67028868e-01f, -4.35832702e-02f, 4.52443622e-02f, 5.34715235e-01f, -7.73612335e-02f, -2.41977982e-02f,
    3.77127230e-02f, -2.28701402e-02f, 5.76373227e-02f, -3.01217407e-01f, 1.11795599e-02f, -2.43104622e-02f, 3.34736109e-02f, 2.64999002e-01f,
    -2.26611450e-01f, -3.08761988e-02f, -2.12325528e-01f, 6.89331740e-02f, -4.65838760e-02f, 1.71943735e-02f, 7.66197965e-02f, 2.18177898e-04f,
    -8.62074899e-04f, -8.38185176e-02f, 2.57666975e-01f, -3.11995689e-02f, -7.85351321e-02f, -2.25633770e-01f, 5.67930192e-02f, 1.93074662e-02f,
    -4.11901027e-02f, 1.48844915e-02f, -5.88584971e-03f, 9.79031902e-03f, 4.29678559e-02f, 5.24530075e-02f, 3.54634412e-02f, 2.71963477e-02f,
    1.99857540e-02f, 3.27052064e-02f, -3.20863202e-02f, -3.64449322e-02f, -8.02750327e-03f, 3.04063372e-02f, 5.67693710e-02f, 9.70227923e-03f,
    -1.29620479e-02f, 3.32975052e-02f, 2.10226122e-02f, 6.31465167e-02f, -1.99349802e-02f, 3.06744687e-02f, -1.76448733e-01f, 1.32169668e-02f,
    5.96985745e-04f, -1.67355519e-02f, 3.26323585e-04f, -4.39479314e-02f, 5.58235198e-02f, 1.52086234e-02f, -4.14531045e-02f, -1.99723849e-03f,
    3.08705010e-02f, -3.53584699e-02f, 1.01544345e-02f, -2.82300040e-02f, 2.08520051e-02f, 1.06710106e-01f, 6.20121770e-02f, 7.12160245e-02f,
    3.89631316e-02f, 2.09738524e-03f, 6.60269633e-02f, -6.47351742e-02f, 3.47454520e-03f, -6.30836701e-03f, -1.81672024e-03f, 1.05277160e-02f,
    3.25725712e-02f, 2.99442727e-02f, 2.73455400e-03f, -6.65253215e-03f, -3.96390669e-02f, 5.83014973e-02f, -6.07088581e-02f, 4.12499309e-02f,
    2.99478415e-03f, -2.98776831e-02f, 4.21909876e-02f, -2.82756658e-03f, 1.22082485e-02f, 3.19799371e-02f, -1.72489509e-02f, -1.09407343e-01f,
    8.74054711e-03f, -1.46116335e-02f, -4.34858836e-02f, 1.00469012e-02f, 1.63437538e-02f, 3.88347581e-02f, 2.99612712e-02f, -8.85466114e-02f,
    -8.87826027e-04f, 8.55969861e-02f, 3.30504701e-02f, -2.06478722e-02f, -5.86980348e-03f, 3.10233384e-02f, 3.86303216e-02f, 6.88497871e-02f,
    2.05833302e-03f, -3.59082147e-02f, -5.16818762e-02f, 6.33862093e-02f, 3.64355706e-02f, -5.34289367e-02f, 5.51688038e-02f, -4.07590307e-02f,
    4.90100235e-02f, -3.09521407e-02f, 2.65254434e-02f, -4.24732752e-02f, -5.10949232e-02f, -1.13708647e-02f, -2.09375415e-02f, -1.34155024e-02f,
    -4.00936455e-02f, 5.01544811e-02f, -7.85083696e-03f, 3.19205341e-03f, -5.25478311e-02f, 6.02047937e-03f, 2.54421961e-02f, -1.98693965e-02f,
    2.11698618e-02f, 4.85171303e-02f, -5.81879653e-02f, 3.52016129e-02f, -4.42092866e-02f, -9.56432223e-02f, -3.29851061e-02f, 8.16345811e-02f,
    1.16042338e-01f, 2.19994094e-02f, -2.88803466e-02f, 4.92041092e-03f, -3.37178558e-02f, -1.02262730e-02f, 9.95968804e-02f, -3.62687698e-03f,
    4.77778027e-03f, 2.48875152e-02f, 1.88066307e-02f, 3.82571489e-01f, 9.79798473e-03f, -1.43106161e-02f, 6.19568042e-02f, -3.92617546e-02f,
    3.83573808e-02f, 1.79265551e-02f, 9.04685408e-02f, -2.12275386e-02f, 2.98502389e-02f, 8.84942934e-02f, 2.06241496e-02f, 5.77761829e-01f,
    8.27782154e-02f, -3.77917313e-04f, -1.18535114e-02f, 1.23378694e-01f, -8.47932175e-02f, 5.12251735e-01f, -6.59153238e-02f, 4.42671068e-02f,
    -4.61013913e-02f, -5.27492538e-02f, 5.34231551e-02f, -7.32593760e-02f, 4.45230491e-02f, 3.41481008e-02f, 9.89940614e-02f, 7.66154453e-02f,
    -2.61661950e-02f, 2.52331458e-02f, -1.58890504e-02f, 5.78094386e-02f, 1.54931918e-01f, -1.76603138e-01f, -9.08160396e-03f, 1.04780972e-01f,
    -8.13151337e-03f, -7.00366795e-02f, 2.61668097e-02f, 2.22132206e-02f, 3.19123231e-02f, 2.71327309e-02f, 1.91307086e-02f, -6.31640702e-02f,
    1.57081366e-01f, -1.13997431e-02f, -7.42454035e-03f, -1.33566549e-02f, -2.37135626e-02f, -6.10779747e-02f, 1.11924000e-01f, -1.24760889e-01f,
    -9.38845724e-02f, -1.39415994e-01f, -2.50926800e-02f, -9.10581350e-02f, 2.76747793e-01f, 4.95177135e-02f, -1.18460013e-02f, 1.84863824e-02f,
    -1.84609517e-02f, -5.02291061e-02f, 1.98682562e-01f, -3.17099728e-02f, -2.02046245e-01f, 2.76399907e-02f, 3.72099578e-02f, -9.48988125e-02f,
    6.18295670e-02f, 3.36826034e-02f, 1.01045437e-01f, 1.32647663e-01f, -2.19020601e-02f, -1.40834451e-01f, -7.04671964e-02f, -1.82359386e-02f,
    -3.27660330e-02f, -1.06989242e-01f, 2.02605709e-01f, 4.80044521e-02f, -2.95410100e-02f, -3.98436934e-02f, -3.18337977e-02f, -1.74471781e-01f,
    -8.97432193e-02f, -9.47397426e-02f, 9.76807699e-02f, 6.32231981e-02f, -6.66995421e-02f, 1.89000934e-01f, 4.57228422e-02f, -1.12068370e-01f,
    -1.25821069e-01f, -1.48443319e-02f, 2.03257942e+00f, -9.44740474e-02f, 1.22812681e-01f, -1.15321234e-01f, 2.89339852e-02f, -9.71155688e-02f,
    3.27701598e-01f, -4.18112352e-02f, -1.38951493e-02f, -1.36493102e-01f, -1.55211031e-01f, -2.43112698e-01f, 1.69799998e-02f, 1.14877209e-01f,
    3.08285207e-01f, 2.32319850e-02f, -2.22876649e-02f, 1.19054668e-01f, 3.03982478e-02f, -4.23685014e-02f, -1.39678672e-01f, 1.32829383e-01f,
    5.39110079e-02f, -3.08168624e-02f, 1.69350728e-01f, 9.09293666e-02f, -3.82653368e-03f, 1.27028152e-01f, -1.56490982e-01f, 5.97391576e-02f,
    -5.74219003e-02f, -2.77840316e-01f, 3.84836793e-02f, -2.76375562e-01f, -2.68375352e-02f, 1.27279073e-01f, -5.59427589e-02f, -5.25737666e-02f,
    -1.51059134e-02f, 4.78276759e-02f, 3.69717330e-02f, 1.84890535e-02f, 8.75909925e-02f, 1.03603024e-02f, 8.88016671e-02f, 4.28155288e-02f,
    -4.78418358e-03f, 1.80988461e-01f, -9.49576348e-02f, -9.34312940e-02f, -6.95769638e-02f, 8.56780633e-02f, -1.09359110e-02f, 4.08210568e-02f,
    -1.17785968e-02f, 5.72677411e-04f, -9.53242779e-02f, 1.59271717e-01f, -1.19777424e-02f, -1.89675321e-03f, 6.03375733e-02f, -5.64904809e-02f,
    -4.22985405e-02f, -1.67844687e-02f, -1.26442388e-01f, -6.36603945e-05f, 5.86557202e-02f, 5.36766350e-02f, -8.11203942e-02f, -2.96040922e-02f,
    2.48984378e-02f, -4.14006524e-02f, 3.61859985e-02f, -1.96374338e-02f, 6.02133572e-02f, 2.55702268e-02f, 1.33313581e-01f, 9.30344909e-02f,
    3.43158729e-02f, 1.86002273e-02f, 1.67211771e-01f, -1.87947080e-02f, 4.84302714e-02f, 9.01818927e-03f, 1.16465930e-02f, 1.35707315e-02f,
    5.70647344e-02f, 3.19015011e-02f, -7.28738680e-02f, 3.80262267e-03f, -2.97892559e-02f, 1.16722487e-01f, -1.52555749e-01f, 6.67162389e-02f,
    -5.17020514e-03f, -1.37731200e-02f, -4.45888862e-02f, 4.55224998e-02f, 1.16167367e-01f, 1.60089489e-02f, -7.59902876e-03f, 4.10784364e-01f,
    8.41859207e-02f, -7.56826848e-02f, 1.19301220e-02f, 6.79472759e-02f, 7.57277990e-03f, 3.49436998e-02f, 1.14770001e-02f, -1.50602525e-02f,
    -1.80106331e-02f, -5.47076687e-02f, -3.68191712e-02f, -3.61323692e-02f, 1.39450226e-02f, 8.03594105e-03f, -8.25411305e-02f, 6.54474944e-02f,
    6.48257509e-02f, -2.64733601e-02f, 2.60436349e-03f, -5.73146716e-03f, 4.46860157e-02f, -4.65811826e-02f, 5.66893481e-02f, -9.46074910e-03f,
    -2.37509254e-02f, -3.15653272e-02f, 9.50338915e-02f, 4.24353853e-02f, 4.63462248e-02f, 2.77830511e-02f, -1.18977567e-02f, 1.03950046e-03f,
    1.35757297e-01f, 6.03573658e-02f, -4.58249077e-03f, 2.84408703e-02f, -1.66126266e-02f, 8.66018832e-02f, -3.14068273e-02f, -5.63845411e-02f,
    7.37478137e-02f, 4.55329306e-02f, 7.63685554e-02f, -1.72830578e-02f, 6.25658408e-02f, -1.47962784e-02f, -1.27885155e-02f, 1.29733533e-01f,
    4.79477011e-02f, 4.29005660e-02f, -4.09204029e-02f, -1.56903844e-02f, 6.29487485e-02f, 2.99242914e-01f, 2.03442797e-01f, 4.23891246e-02f,
    -6.39230683e-02f, 2.25541648e-03f, -1.99361108e-02f, 7.66440108e-02f, 2.55804844e-02f, -1.44119874e-01f, -8.89783353e-03f, 4.65476997e-02f,
    9.56170782e-02f, -4.41224016e-02f, 3.83707806e-02f, 2.33474616e-02f, 7.49434065e-03f, -2.26721227e-01f, 1.80208877e-01f, 1.25043720e-01f,
    -2.81881571e-01f, 5.20406291e-03f, 8.53387937e-02f, 2.80105751e-02f, 1.03717916e-01f, 1.96363647e-02f, 4.48196344e-02f, 7.39199668e-02f,
    3.82232182e-02f, -1.13531286e-02f, 1.25217870e-01f, 2.82746647e-02f, 2.76774112e-02f, -7.41412789e-02f, 8.53781253e-02f, -5.13546122e-03f,
    -3.56279574e-02f, 5.48625365e-02f, 2.62025028e-01f, -2.72757746e-02f, 1.15537532e-01f, 7.38649219e-02f, -7.01898485e-02f, 1.93805739e-01f,
    4.14182805e-02f, -9.18281302e-02f, 4.85471599e-02f, -5.84053807e-02f, -4.97769475e-01f, 6.93779737e-02f, -4.46495831e-01f, -2.23354772e-02f,
    1.15259960e-02f, -3.95005673e-01f, 1.93827096e-02f, -1.15640886e-01f, -3.87757085e-02f, 6.45905584e-02f, 5.86093054e-04f, -9.61661898e-03f,
    -3.35632190e-02f, -6.61434159e-02f, 1.36592807e-02f, -4.28413153e-02f, 6.96111238e-03f, 3.49469036e-02f, -5.86617403e-02f, 3.27576429e-01f,
    6.03987649e-02f, 3.57179381e-02f, 3.95462066e-02f, 1.68196633e-01f, -1.31555358e-02f, 1.43047065e-01f, 3.83298174e-02f, -3.66670807e-04f,
    7.63152391e-02f, 3.19518372e-02f, -3.62843454e-01f, 6.67163357e-02f, 4.33000773e-02f, 1.67495701e-02f, 1.36456251e-01f, 3.78574729e-02f,
    -3.13203931e-02f, 3.43578719e-02f, 7.93830957e-03f, 5.93085736e-02f, 4.20040749e-02f, -1.12863250e-01f, 1.78348765e-01f, 6.16137050e-02f,
    2.79517248e-02f, 6.91429386e-03f, 2.56833266e-02f, 8.45290348e-02f, 6.59187511e-02f, 4.18062788e-03f, 1.75005853e-01f, -1.38181413e-03f,
    1.27177134e-01f, 5.21245264e-02f, 4.46629405e-01f, -7.03982934e-02f, 1.50752574e-01f, -2.84479540e-02f, 8.46039206e-02f, 1.71741080e-02f,
    1.02196954e-01f, -2.05125436e-02f, 1.71910264e-02f, 5.72999083e-02f, 1.14846729e-01f, -4.07311320e-02f, -3.97891551e-03f, 4.26356122e-02f,
    6.29011616e-02f, 3.18681091e-01f, 2.50179023e-01f, -5.87115549e-02f, 1.63574591e-01f, -1.77594274e-01f, 4.30974597e-03f, 2.70430502e-02f,
    9.65615362e-03f, 1.85808968e-02f, 8.60158354e-02f, -3.63718420e-01f, 4.47085425e-02f, 4.46837060e-02f, 1.52974436e-02f, 4.53711823e-02f,
    3.33862565e-03f, 3.31221744e-02f, 1.35087119e-02f, 2.05857232e-02f, 2.64054775e-01f, -1.49854543e-02f, -3.47797871e-02f, -2.36595288e-01f,
    1.80776492e-01f, -3.93282443e-01f, -3.19002330e-01f, 1.79965775e-02f, -1.76266596e-01f, -9.29184705e-02f, -7.93303028e-02f, 1.24278605e-01f,
    7.01816976e-02f, -9.03971791e-02f, 1.31976321e-01f, 7.71023929e-02f, 5.96907735e-02f, -1.13552019e-01f, -2.03207657e-02f, -8.52973834e-02f,
    1.80557892e-01f, -3.41254510e-02f, -4.29999316e-03f, 3.76363285e-02f, 7.69930985e-03f, -9.66032743e-02f, -2.10059378e-02f, -3.51317264e-02f,
    3.07146072e-01f, -1.78913057e-01f, -1.27061278e-01f, 1.49753556e-01f, 9.99298766e-02f, 9.72910076e-02f, -1.40514858e-02f, -1.72854781e-01f,
    -3.76154436e-03f, 1.86173975e-01f, 1.07320137e-01f, 4.57434393e-02f, 1.72914062e-02f, 3.42946649e-01f, 2.72280220e-02f, -3.65062505e-01f,
    -9.41768438e-02f, 1.54780522e-01f, -7.38791749e-02f, -1.33089438e-01f, -3.70201990e-02f, -9.28551033e-02f, 1.60234720e-01f, 1.05383664e-01f,
    -1.77420601e-01f, -9.33367684e-02f, -2.94759691e-01f, 4.35809270e-02f, 7.09818006e-02f, -4.11180593e-02f, 8.64841491e-02f, -3.82924616e-01f,
    -7.21080378e-02f, 1.32193923e-01f, 7.72161260e-02f, -6.06134608e-02f, -2.45651111e-01f, 1.76297277e-01f, -4.90327999e-02f, -4.18393500e-02f,
    -1.01290293e-01f, 2.01504789e-02f, 1.72755852e-01f, -1.15896955e-01f, -3.06312591e-01f, -2.01435819e-01f, -3.64866816e-02f, 1.28971979e-01f,
    2.98234433e-01f, -2.08197668e-01f, 9.75272804e-02f, 3.66117731e-02f, -8.98874477e-02f, -3.03323120e-01f, -4.15321320e-01f, -6.90602884e-02f,
    4.04662788e-02f, 4.51561809e-01f, 2.38337874e-01f, 9.69911143e-02f, 5.64044833e-01f, 7.36086443e-02f, 4.83965009e-01f, 1.08678706e-01f,
    1.69089381e-02f, -1.05791040e-01f, -3.60304475e-01f, 9.51781720e-02f, -1.22715138e-01f, 1.60884187e-01f, -3.85354757e-02f, 8.07866007e-02f,
    5.62076345e-02f, 2.65128016e-01f, 1.11165375e-01f, -1.36234999e-01f, -1.81588352e-01f, 5.57927750e-02f, -1.54300407e-01f, 8.61489624e-02f,
    7.53070042e-02f, -4.80014458e-02f, 1.57601491e-01f, -5.56416772e-02f, 1.89111352e-01f, 3.67314145e-02f, -2.08282650e-01f, -6.95485920e-02f,
    -2.58311778e-01f, 2.16438875e-01f, -8.00316408e-02f, 1.79350629e-01f, -3.11537385e-02f, 9.95873287e-03f, 1.95356365e-02f, -7.81984255e-02f,
    -3.16307211e-04f, -5.97344153e-02f, -2.36260399e-01f, 3.71666923e-02f, 4.30597588e-02f, 1.69524446e-01f, -2.20245093e-01f, 2.60462999e-01f,
    4.20898974e-01f, -7.54679516e-02f, 1.06870504e-02f, 4.05444354e-02f, -1.58706695e-01f, 8.12645480e-02f, -9.12391171e-02f, 9.41824615e-02f,
    1.07975304e-01f, 4.34231199e-02f, -7.53375217e-02f, -6.75040334e-02f, 5.96377432e-01f, 9.29088816e-02f, -5.28263748e-02f, 4.26885448e-02f,
    2.68016309e-01f, -3.30670993e-03f, 1.15555413e-02f, -6.25530491e-03f, 3.21135610e-01f, 7.71386921e-02f, -6.25823587e-02f, -1.62486155e-02f,
    1.38306230e-01f, -3.81536931e-02f, -2.12386593e-01f, -1.13549978e-01f, 5.57178166e-03f, -3.68500389e-02f, -2.02860441e-02f, 6.83462294e-03f,
    7.20674172e-02f, -5.19782007e-02f, -7.40513904e-03f, 1.18826456e-01f, 1.54905304e-01f, -1.03714816e-01f, 5.37266396e-02f, 9.94440839e-02f,
    3.98045070e-02f, 1.27773394e-03f, -7.89370313e-02f, 6.98463768e-02f, 1.10171810e-02f, -1.02042094e-01f, 1.05958015e-01f, -1.09985836e-01f,
    1.67419627e-01f, 2.51611471e-01f, -1.01147227e-01f, -1.89355649e-02f, 1.00360125e-01f, -1.44965068e-01f, -1.43141672e-01f, 1.10032298e-01f,
    -4.69454527e-02f, 1.30407035e-01f, 1.97641999e-01f, 1.68592721e-01f, 2.42184848e-01f, 1.26346648e-01f, 2.78610289e-02f, -6.28592330e-04f,
    -1.41779780e-01f, 3.15485820e-02f, 5.71632832e-02f, 1.38618574e-01f, -1.45633951e-01f, 8.04951340e-02f, -4.39986996e-02f, 1.17658321e-02f,
    -9.40933749e-02f, -8.67057145e-02f, 1.04768805e-01f, 1.07600428e-02f, -1.60786018e-01f, -6.56565651e-02f, 1.51436806e-01f, 4.89364341e-02f,
    5.46687134e-02f, -7.36336559e-02f, 6.70638755e-02f, -9.69609097e-02f, 1.75596163e-01f, 1.66130334e-01f, 1.28450757e-02f, 2.12805957e-01f,
    1.19640037e-01f, 1.16037093e-01f, 3.49784225e-01f, 6.66021882e-03f, 1.42218590e-01f, -9.08457115e-02f, 5.28218709e-02f, -7.43115172e-02f,
    -3.51154624e-04f, -7.62385204e-02f, 9.83802229e-03f, -1.78344131e-01f, -5.62202446e-02f, 2.90830396e-02f, 4.12371755e-02f, 1.27415750e-02f,
    -9.71757993e-03f, 3.26068774e-02f, 8.32689777e-02f, -1.46427616e-01f, -8.20651464e-03f, 8.66595507e-02f, 6.94718258e-03f, -1.01043180e-01f,
    1.02535889e-01f, 2.44022943e-02f, 1.03702977e-01f, 6.24797270e-02f, 1.07057199e-01f, 1.04425929e-01f, 1.49896052e-02f, 4.16859239e-02f,
    -3.44578251e-02f, -6.08512461e-02f, -8.07738081e-02f, 7.25386068e-02f, -6.54722154e-02f, -8.10745507e-02f, 2.05994383e-01f, 6.58439100e-02f,
    -8.04113448e-02f, 1.38843715e-01f, -5.91132455e-02f, -1.52444188e-02f, 6.20508455e-02f, -4.99181710e-02f, -4.73051965e-02f, -1.03009194e-02f,
    5.19282073e-02f, -6.64462289e-03f, 2.40856126e-01f, -2.27676734e-01f, 7.13528991e-02f, -4.73273871e-03f, 8.06218460e-02f, 2.13173851e-02f,
    -8.55760053e-02f, 5.06297983e-02f, -1.28548425e-02f, 3.25397775e-02f, -1.03904054e-01f, 8.77868682e-02f, 1.08326890e-01f, -3.08306459e-02f,
    4.33730185e-02f, 1.61175892e-01f, 6.92631379e-02f, -4.61091474e-02f, -4.42548543e-02f, -9.16761160e-02f, 8.47918615e-02f, -3.73054035e-02f,
    -1.32621944e-01f, 4.01180983e-02f, 1.80785030e-01f, 9.78845358e-02f, -1.37476310e-01f, 4.01398875e-02f, 2.32090795e-04f, 6.28302619e-02f,
    2.78495234e-02f, -1.95795193e-01f, -7.73348808e-02f, -1.05163835e-01f, 8.34840629e-03f, -6.57193288e-02f, 2.08553866e-01f, -2.93946434e-02f,
    -6.86940104e-02f, -1.94152579e-01f, -5.20422086e-02f, -4.28627953e-02f, 2.62351446e-02f, -1.62014663e-01f, -1.50264855e-02f, 1.19959190e-01f,
    -3.92555520e-02f, 3.89133617e-02f, 1.00568071e-01f, -8.18848908e-02f, 2.40397770e-02f, -1.45367935e-01f, 1.33625969e-01f, -8.20462331e-02f,
    -2.02019811e-02f, 1.87668920e-01f, 1.23536559e-02f, -2.21407220e-01f, 3.86822447e-02f, 6.17039092e-02f, -1.48362458e-01f, -2.88447607e-02f,
    4.11665393e-03f, 5.43005913e-02f, -4.23724316e-02f, -4.05208580e-03f, -1.59104764e-01f, 8.49288926e-02f, -3.54949422e-02f, 1.50525467e-02f,
    -6.28211573e-02f, -4.85261008e-02f, -4.18747440e-02f, 3.82275172e-02f, -2.34321989e-02f, 1.22933835e-02f, -5.07228114e-02f, 4.85148691e-02f,
    -3.03837694e-02f, 1.77518889e-01f, 2.12342571e-02f, 6.05274877e-03f, -6.12927340e-02f, -1.77090257e-01f, 1.03556022e-01f, -1.90231964e-01f,
    -1.57764226e-01f, 1.32401595e-02f, 9.00321603e-02f, -1.68348737e-02f, 4.05263156e-02f, -1.07822254e-01f, -4.11770195e-02f, 7.73343667e-02f,
    -1.86705336e-01f, -1.00572199e-01f, 8.77524540e-02f, 5.79080768e-02f, 8.32281485e-02f, 1.09600211e-02f, 2.18876898e-01f, -1.13458477e-01f,
    4.91529442e-02f, 3.58490199e-02f, 1.04757808e-02f, -1.22439712e-02f, -7.11799413e-02f, -3.19124237e-02f, 1.22777775e-01f, 6.98951855e-02f,
    3.06088269e-01f, -5.78323714e-02f, -8.38937834e-02f, -1.93146486e-02f, 1.00472756e-02f, 2.59432625e-02f, 4.57122102e-02f, -5.27330898e-02f,
    9.33730602e-02f, 1.66223139e-01f, 4.83301543e-02f, 7.73558319e-02f, -6.18949234e-02f, 1.61593884e-01f, -2.45387897e-01f, 1.52561754e-01f,
    8.84422436e-02f, 1.05173774e-01f, 2.29518101e-01f, 8.24186951e-02f, -1.00499205e-01f, 4.20346633e-02f, -2.62684599e-02f, -5.08125499e-03f,
    4.14545313e-02f, 2.93974459e-01f, 1.74167812e-01f, 7.65711069e-02f, -6.15580333e-03f, 1.91027448e-02f, -1.57527164e-01f, -2.28940308e-01f,
    -9.79038924e-02f, 6.22001886e-02f, 2.12984271e-02f, 8.51921588e-02f, 4.87164557e-02f, -1.01947702e-01f, 2.27783516e-01f, 2.84438245e-02f,
    1.33128852e-01f, 1.41638651e-01f, -2.97693368e-02f, 4.00805660e-03f, -1.51035890e-01f, -8.61715004e-02f, -6.48314785e-03f, -5.17833373e-03f,
    6.88565820e-02f, 1.43865049e-01f, -5.74432984e-02f, 5.14694192e-02f, -5.08858226e-02f, 8.89081955e-02f, -6.77529871e-02f, -1.74066219e-02f,
    7.92713165e-02f, 1.18010499e-01f, -2.69336160e-02f, 1.68775599e-02f, -4.80405688e-02f, 2.02299524e-02f, -4.52023931e-02f, 4.96892259e-02f,
    5.23717590e-02f, -9.83044505e-02f, 1.00444384e-01f, -4.83446829e-02f, 3.11200731e-02f, 1.84782073e-02f, -9.29982290e-02f, 7.48545974e-02f,
    1.75294504e-02f, 1.30840251e-02f, 1.24348655e-01f, -2.26342920e-02f, 1.64570026e-02f, -5.75071499e-02f, 2.74158984e-01f, -1.27362862e-01f,
    -4.66595218e-02f, 1.07496209e-01f, -7.21209943e-02f, 4.00746912e-02f, 5.95319383e-02f, -1.06981166e-01f, -3.35036777e-02f, -9.66719445e-03f,
    -9.42056477e-02f, 1.54515147e-01f, -8.35583806e-02f, -4.80930321e-02f, 1.77385762e-01f, 6.72155898e-03f, 1.20630942e-01f, -4.13283184e-02f,
    -3.77127388e-03f, 1.43053532e-01f, 4.74063694e-01f, 8.98269340e-02f, -4.61576246e-02f, 5.08627519e-02f, 4.44832072e-02f, 9.19755772e-02f,
    5.75833395e-02f, 7.12143034e-02f, 9.53739695e-03f, 4.50613152e-04f, -1.41835868e-01f, 8.60345215e-02f, 6.06333427e-02f, -1.20796964e-01f,
    -8.16974565e-02f, -8.10318291e-02f, 3.39746505e-01f, -5.93688823e-02f, 2.56559044e-01f, 3.71175483e-02f, 1.17758811e-01f, -1.01268560e-01f,
    3.87906516e-03f, -2.43903808e-02f, -7.30576813e-02f, -2.94051208e-02f, 7.43739307e-02f, 1.41343459e-01f, -3.96030657e-02f, 3.15196998e-02f,
    -2.91341674e-02f, -8.57327972e-03f, -8.24990422e-02f, -3.64815490e-03f, 1.87278211e-01f, 1.38198137e-01f, 2.41670888e-02f, -3.65432501e-02f,
    -8.92050192e-02f, -9.17457044e-03f, 2.02578995e-02f, 1.11373633e-01f, -6.15460649e-02f, -1.23682529e-01f, 5.03189154e-02f, -3.38431783e-02f,
    -6.68709651e-02f, -1.55523634e-02f, 4.02107835e-02f, 2.31826246e-01f, -1.04455806e-01f, -9.68168490e-03f, -1.65905580e-02f, 5.19374050e-02f,
    2.06061766e-01f, 3.18693705e-02f, -7.53515586e-02f, -3.94277088e-02f, -2.21044328e-02f, 4.52658678e-05f, 4.45679612e-02f, -9.00282189e-02f,
    2.21507102e-01f, 4.62121554e-02f, 2.13722348e-01f, -8.43769163e-02f, -1.17615480e-02f, 9.72420499e-02f, 1.00080349e-01f, 8.38005468e-02f,
    1.07066952e-01f, -1.86251234e-02f, 1.46957353e-01f, 2.25457609e-01f, 1.50363371e-01f, -6.13012165e-02f, -1.23527221e-01f, 3.00578680e-03f,
    9.74775851e-02f, -4.55771349e-02f, 3.69660780e-02f, -1.35038629e-01f, 1.05346583e-01f, -2.20570341e-02f, -1.48693360e-02f, -3.48499455e-02f,
    -3.01277470e-02f, -4.83236797e-02f, -1.48708541e-02f, -1.61219269e-01f, 1.42628193e-01f, -8.97258148e-03f, 1.51113272e-02f, 1.52419135e-01f,
    5.28580621e-02f, -1.76229551e-01f, -2.93047260e-02f, 1.22054480e-01f, -3.55538204e-02f, 2.32206553e-01f, -1.43561410e-02f, -4.30032052e-02f,
    -9.65318829e-02f, -1.75441355e-01f, 2.90996190e-02f, -6.92645013e-02f, -7.64211044e-02f, -5.51262759e-02f, -7.29288459e-02f, -6.88916631e-03f,
    1.30531728e-01f, 1.46492451e-01f, -4.17981558e-02f, -6.66568056e-02f, -3.39707583e-02f, -4.72944714e-02f, -2.18451004e-02f, 7.40579190e-03f,
    5.77633604e-02f, -2.79738964e-03f, 2.40152940e-01f, 4.20371778e-02f, -2.27598976e-02f, -9.78056341e-02f, -6.66705593e-02f, -1.35097444e-01f,
    5.14937118e-02f, -3.33737619e-02f, -2.95643639e-02f, -1.34672999e-01f, -3.79433818e-02f, 8.12128633e-02f, -8.94098580e-02f, 7.06330389e-02f,
    1.77312251e-02f, 2.60625720e-01f, -7.20854700e-02f, -4.24300469e-02f, -1.16397224e-01f, 1.11700989e-01f, 4.86189239e-02f, 5.20820878e-02f,
    7.05313310e-02f, -1.12922713e-01f, 1.69361860e-01f, -2.10388806e-02f, -1.70970764e-02f, -9.09884572e-02f, -1.27364755e-01f, -6.35566860e-02f,
    1.46127539e-02f, 2.32975453e-01f, -4.30558100e-02f, 7.63718560e-02f, -7.10157380e-02f, -6.27904609e-02f, 1.66810751e-02f, -1.69117063e-01f,
    -4.17353325e-02f, 2.37437785e-02f, 1.12896770e-01f, -1.83283146e-02f, -1.28382847e-01f, 3.94407898e-01f, 6.17465526e-02f, -2.26851106e-01f,
    5.65302484e-02f, -8.56330767e-02f, -1.47808194e-02f, 2.06741821e-02f, -9.54664499e-02f, 9.40095484e-02f, -5.98429404e-02f, -1.49246836e-02f,
    1.29282385e-01f, -8.96849260e-02f, 1.84095651e-02f, 1.08224563e-01f, 1.50807932e-01f, 4.25549485e-02f, -1.65981561e-01f, -4.29236656e-03f,
    2.26385877e-01f, 1.08066343e-01f, -5.26069440e-02f, 6.56142011e-02f, 1.99753121e-02f, 2.19401330e-01f, 7.17288954e-03f, -4.87868935e-02f,
    -1.19046867e-01f, -3.52268927e-02f, -1.24616534e-01f, 2.20511168e-01f, -1.92517996e-01f, -6.97261691e-02f, 2.00956330e-01f, 1.03925809e-01f,
    4.29394878e-02f, 1.14206597e-01f, -2.32736655e-02f, -1.61419548e-02f, 1.88986421e-01f, -4.91397120e-02f, 1.34368420e-01f, -2.89948303e-02f,
    -6.04808368e-02f, -9.05477162e-03f, 2.45115846e-01f, -2.94729769e-02f, 2.48191088e-01f, 1.77904218e-01f, -7.06028640e-02f, 9.14650187e-02f,
    -3.74526381e-02f, -1.83165260e-02f, -1.03021793e-01f, 1.77503839e-01f, 6.72677532e-02f, -7.16268122e-02f, 2.93896291e-02f, -1.20632298e-01f,
    -2.08532751e-01f, 1.28513217e-01f, 5.04348911e-02f, -5.78023940e-02f, -2.14534830e-02f, 7.81191420e-03f, -1.32479832e-01f, -5.27268387e-02f,
    -1.11249268e-01f, -2.06245612e-02f, 6.86928211e-03f, 6.85926853e-03f, -3.39241959e-02f, 3.43654975e-02f, -3.08544375e-04f, 1.23245772e-02f,
    -8.53751041e-03f, 5.76238930e-02f, -2.16388315e-01f, -5.63163944e-02f, -4.06935764e-03f, -2.20553651e-01f, 1.27717987e-01f, -2.45156214e-02f,
    -5.43878190e-02f, -3.11779790e-02f, 1.76428795e-01f, -1.39586618e-02f, 1.16969347e-02f, -9.05787200e-02f, 5.05423406e-03f, -1.01620816e-01f,
    -1.69759214e-01f, 1.68563470e-01f, -2.98979487e-02f, -9.95008051e-02f, -2.53058672e-02f, 1.87910333e-01f, -9.86130014e-02f, 6.74660644e-03f,
    -4.60832939e-02f, -3.85033265e-02f, -3.15689817e-02f, -2.36184914e-02f, 7.69109055e-02f, 7.63003305e-02f, -1.61374696e-02f, -7.33821169e-02f,
    -3.86792943e-02f, -1.42096266e-01f, -7.85326958e-02f, 2.90255427e-01f, -1.66574746e-01f, -1.05540983e-01f, 4.49976861e-01f, 1.08663291e-01f,
    -2.01855376e-02f, 1.78732336e-01f, 8.82307142e-02f, -2.91716289e-02f, 3.06367606e-01f, -7.08094239e-02f, 7.80255944e-02f, 1.19788758e-02f,
    1.08682951e-02f, -6.78630620e-02f, 5.76758802e-01f, 1.41470302e-02f, -1.63478538e-01f, 5.55788018e-02f, 4.95753922e-02f, -4.31030206e-02f,
    9.54548866e-02f, -3.21004614e-02f, -3.60196158e-02f, 1.22758374e-01f, -8.90540257e-02f, 7.75060058e-02f, 1.74122266e-02f, -6.39064237e-02f,
    1.96708497e-02f, -5.04378490e-02f, 1.95310503e-01f, -6.70105312e-03f, 1.19491763e-01f, -2.36489922e-02f, 1.96413755e-01f, 1.05059855e-01f,
    1.10080421e-01f, 5.23416214e-02f, 3.67912740e-01f, 4.91372384e-02f, 3.84899974e-02f, 1.39967099e-01f, 7.86165446e-02f, 4.79986966e-01f,
    1.35060549e-01f, 8.63142386e-02f, -1.14682607e-01f, 6.77922294e-02f, 3.63145135e-02f, -5.31150773e-03f, 3.20859820e-01f, -5.91581017e-02f,
    1.05557911e-01f, -7.88095966e-02f, -3.77886593e-02f, -2.83081271e-02f, -7.15121627e-02f, 2.13883799e-02f, 1.51009470e-01f, -3.99468169e-02f,
    5.02377786e-02f, 1.47153921e-02f, 1.24721073e-01f, -4.67392802e-02f, -6.80378079e-02f, 1.78670004e-01f, -1.54190725e-02f, -5.72568290e-02f,
    3.23694646e-02f, -7.25563557e-04f, -7.38919228e-02f, -5.45377135e-02f, -1.33614436e-01f, -1.04549460e-01f, -4.95408587e-02f, 1.47538632e-01f,
    1.91888735e-02f, -9.37679484e-02f, -1.31916190e-02f, -1.05162710e-02f, 7.34660253e-02f, 1.82828661e-02f, 1.35066420e-01f, -1.41968504e-01f,
    8.13213885e-02f, 2.31486242e-02f, 1.35759488e-02f, 3.57792228e-01f, -1.98318839e-01f, -8.10779259e-02f, 1.31097719e-01f, 3.40011762e-03f,
    -1.99105646e-02f, 4.11871150e-02f, 2.52991736e-01f, -2.78283190e-02f, 1.34033650e-01f, -1.13441601e-01f, 6.01840951e-02f, -2.64084106e-03f,
    1.60957826e-03f, -1.86927486e-02f, 4.70427349e-02f, -9.59874783e-03f, -8.46920360e-04f, -1.47151768e-01f, -8.31820145e-02f, 9.61819142e-02f,
    1.05959430e-01f, -3.12509052e-02f, 2.81032082e-02f, 4.43372913e-02f, -1.19389379e-02f, 1.73683465e-02f, -1.47741541e-01f, -3.16114426e-02f,
    1.32355601e-01f, -3.98796946e-02f, -6.86512142e-02f, -1.78538397e-01f, -6.59604445e-02f, -2.20349059e-02f, -6.74305335e-02f, 3.50593179e-01f,
    2.59960324e-01f, 3.70272100e-01f, 1.09140594e-02f, 2.18101479e-02f, -5.62427565e-02f, -1.15087703e-01f, 4.23524678e-02f, 1.16028748e-02f,
    -6.72302172e-02f, -6.83572143e-02f, -9.98179168e-02f, 7.94193521e-02f, 5.81277162e-03f, 9.98579152e-03f, -5.17234281e-02f, -1.53365985e-01f,
    -7.92358816e-02f, 2.66946614e-01f, 1.21284366e-01f, -1.63959544e-02f, -6.24408498e-02f, -1.01922102e-01f, -3.37751769e-02f, 1.85626615e-02f,
    6.42086491e-02f, -3.71010080e-02f, -7.45842233e-02f, 1.47724915e-02f, -3.09022330e-02f, -9.23402607e-02f, 1.03761405e-01f, 5.20288125e-02f,
    -1.65069267e-01f, -8.52952823e-02f, 5.67069687e-02f, 3.64582539e-02f, 5.55334985e-03f, 6.06292523e-02f, 2.20462456e-01f, 1.12628425e-02f,
    2.27003455e-01f, 6.67181462e-02f, -4.39899266e-02f, 4.73145489e-03f, 2.98031457e-02f, 3.92088182e-02f, 3.13695706e-02f, 1.85635239e-02f,
    -7.24715889e-02f, 8.55372101e-02f, -1.44405246e-01f, 1.69401895e-02f, -3.52905951e-02f, -6.83844090e-02f, 1.30560130e-01f, 2.32854977e-01f,
    -1.90050043e-02f, 5.65159358e-02f, -3.94867286e-02f, 1.47575110e-01f, 1.85469836e-02f, -5.14786094e-02f, 2.63721626e-02f, -9.10815690e-03f,
    -8.76089260e-02f, -7.66442195e-02f, 1.79683995e-02f, 3.44493985e-02f, 2.55951792e-01f, 2.10086301e-01f, -5.14449477e-02f, 2.56009370e-01f,
    -8.07993263e-02f, 1.13804080e-01f, 8.17840174e-03f, -1.33280307e-01f, -4.29767184e-02f, -2.22320557e-02f, 8.34699050e-02f, -7.70481452e-02f,
    -4.80576605e-02f, 7.19741657e-02f, 1.48581248e-02f, -4.27614264e-02f, 3.30439769e-02f, -1.66345946e-02f, -7.88570344e-02f, -4.63799685e-02f,
    -1.19873350e-02f, -7.14139789e-02f, -1.14686303e-02f, -3.13895755e-02f, -1.13525271e-01f, -5.82918003e-02f, -7.67269731e-02f, -8.77299681e-02f,
    5.25834188e-02f, -8.62317011e-02f, -4.61369008e-02f, 4.33615185e-02f, -4.29677917e-03f, 1.73494592e-02f, 1.48408398e-01f, 3.92709710e-02f,
    2.12087892e-02f, 4.13451374e-01f, 4.68614735e-02f, -4.11538631e-02f, -4.68328707e-02f, -8.05063471e-02f, -8.61272439e-02f, 1.72826257e-02f,
    -1.14386797e-01f, -2.60786086e-01f, 2.16657594e-01f, -8.04125667e-02f, -5.74751943e-02f, 1.46910120e-02f, -2.10973937e-02f, 9.00064930e-02f,
    1.76527314e-02f, -3.11873737e-03f, 3.08597255e-02f, 1.32863596e-01f, -4.79695126e-02f, 9.60935131e-02f, 3.51593345e-02f, 1.74521804e-02f,
    -3.85038853e-02f, -1.83695257e-02f, -7.86739886e-02f, 1.89730469e-02f, 7.82613456e-02f, 3.88254672e-01f, 1.82976082e-01f, 8.64097923e-02f,
    2.04332955e-02f, -5.71376644e-02f, 2.09701527e-02f, -1.11324757e-01f, 5.21026030e-02f, 5.71177378e-02f, 1.13117564e-02f, -3.80850360e-02f,
    5.67953438e-02f, -5.41557632e-02f, 1.37174234e-01f, 8.69602617e-03f, -6.01716973e-02f, 7.81122074e-02f, 2.52228260e-01f, 1.34378776e-01f,
    1.37352645e-01f, 6.58735540e-03f, -6.71478435e-02f, -1.71582043e-01f, 1.12150192e-01f, 2.33579576e-02f, 4.40697223e-02f, 5.56330122e-02f,
    -5.04549406e-02f, 6.12252858e-03f, 8.88234675e-02f, -7.24271238e-02f, 2.61358730e-02f, 1.23706821e-03f, 8.70655850e-02f, -1.90494638e-02f,
    7.38820359e-02f, 1.30364001e-01f, 2.63626903e-01f, -1.23718061e-01f, -1.09988309e-01f, -8.20648596e-02f, 1.18098259e-01f, 4.76289541e-02f,
    -3.34699318e-04f, 2.39851661e-02f, 8.09406862e-03f, 4.41377051e-02f, 1.07942507e-01f, 8.91331062e-02f, -6.97683496e-03f, -5.13652042e-02f,
    7.31120817e-03f, -1.17447838e-01f, -1.79571249e-02f, 2.74509132e-01f, -3.73271331e-02f, 2.51536407e-02f, 2.45695468e-02f, 2.89032119e-03f,
    3.32771055e-02f, 1.30650848e-01f, 5.29082343e-02f, 2.64432400e-01f, -4.75444682e-02f, 2.58335192e-03f, 7.64162913e-02f, -1.11458981e-02f,
    -1.98617689e-02f, 6.05458505e-02f, -1.73688889e-03f, 4.28737476e-02f, 3.66803199e-01f, -2.30399240e-02f, 4.23299260e-02f, 1.70065746e-01f,
    2.77502298e-01f, -5.85161336e-02f, -9.04927682e-03f, 2.88725853e-01f, 2.98938602e-02f, -3.59836332e-02f, -9.25366357e-02f, -1.07818246e-01f,
    -2.77641276e-03f, 8.54408219e-02f, 2.55720895e-02f, 1.49711728e-01f, -1.12510040e-01f, -7.66486377e-02f, 1.27612948e-01f, 8.11487064e-02f,
    -1.75968371e-02f, -3.04182936e-02f, 1.50392130e-01f, -9.42200273e-02f, -4.77210879e-02f, 4.80165443e-04f, 4.90505323e-02f, 9.18682739e-02f,
    -6.94272816e-02f, -6.64720908e-02f, -7.03286380e-02f, -3.99690270e-02f, -4.24824692e-02f, 2.68375576e-01f, -4.98174317e-02f, -7.44400918e-02f,
    2.35430058e-02f, -1.01644300e-01f, 3.70146185e-02f, 6.81425706e-02f, 7.30051287e-03f, 8.68835002e-02f, 1.20143751e-02f, 2.02159751e-02f,
    5.46666011e-02f, -1.27438366e-01f, 7.10520893e-02f, -3.14798020e-02f, 3.11492980e-02f, -6.04670122e-02f, -6.53243512e-02f, 5.44203371e-02f,
    -4.96584689e-04f, -1.77458767e-02f, -5.08478656e-03f, 1.50262475e-01f, 6.13959879e-02f, -6.41793311e-02f, 1.20735817e-01f, 2.49550794e-03f,
    -5.82700372e-02f, -2.07445007e-02f, -1.05824463e-01f, 2.91183498e-03f, -3.86560597e-02f, 2.32689213e-02f, 1.10444263e-01f, -1.87692661e-02f,
    2.65603177e-02f, -1.85866028e-01f, -5.18281907e-02f, -8.01329315e-02f, -2.21200623e-02f, 1.48745300e-02f, -3.73467244e-02f, -6.17374778e-02f,
    -2.61019826e-01f, -5.12401834e-02f, 7.02514946e-02f, 1.00179560e-01f, -6.46359473e-02f, 4.65604067e-02f, 3.09802517e-02f, 7.40578920e-02f,
    6.43917918e-02f, -1.60367116e-02f, 3.87121215e-02f, -2.86849122e-02f, 1.12933502e-01f, 1.03906103e-04f, -8.99646953e-02f, -1.61367804e-02f,
    3.32784513e-03f, -1.44835340e-03f, -1.11236901e-03f, -1.68618843e-01f, -3.62112187e-02f, 5.07267378e-02f, -6.88734278e-02f, 6.36079255e-03f,
    1.08541317e-01f, -2.06139740e-02f, -5.69152310e-02f, -8.03665221e-02f, -4.04758900e-02f, 1.96643174e-01f, -5.67727722e-03f, 1.34653479e-01f,
    -1.18385926e-01f, 4.08002846e-02f, -1.53333664e-01f, 1.25433058e-02f, 1.54450506e-01f, 3.54114473e-02f, 1.22930408e-01f, -3.79110985e-02f,
    -7.35944184e-03f, 1.35814905e-01f, 3.23568545e-02f, 6.65627494e-02f, -5.81395701e-02f, -4.33355570e-02f, 4.22715619e-02f, -3.54422405e-02f,
    -5.77497110e-02f, -1.56884462e-01f, 4.42720875e-02f, 3.72516923e-02f, -1.64999530e-01f, -1.43607691e-01f, 6.90014809e-02f, 2.55486853e-02f,
    -5.36008924e-02f, -1.23659326e-02f, -2.20006570e-01f, -2.08380252e-01f, 1.92970131e-02f, 4.15205657e-02f, -9.95719582e-02f, 2.32720952e-02f,
    -4.64910418e-02f, 1.98314618e-02f, 1.78175837e-01f, 2.02205162e-02f, -3.55022028e-02f, 1.22747339e-01f, -6.06787726e-02f, -2.18640819e-01f,
    8.25252458e-02f, -1.14777252e-01f, 1.42893344e-01f, -2.31194735e-01f, -6.93015531e-02f, 9.72927883e-02f, 6.42792806e-02f, 1.69822812e-01f,
    1.16759852e-01f, 6.10454902e-02f, -8.20915923e-02f, 1.27450600e-02f, 2.64042377e-01f, 4.58339229e-02f, -3.44148614e-02f, -7.45979100e-02f,
    4.36382815e-02f, -8.77681375e-02f, 2.84837723e-01f, 1.85800523e-01f, 3.55238244e-02f, -1.20314449e-01f, 5.08417152e-02f, 1.15737408e-01f,
    3.22488874e-01f, -2.48930678e-02f, 3.82111460e-01f, -4.52964120e-02f, -1.50616378e-01f, -4.84989993e-02f, 5.22362702e-02f, 1.11607537e-01f,
    -2.27926895e-01f, 4.88650911e-02f, 1.85414441e-02f, 5.66568039e-03f, 2.98161339e-02f, 8.18350390e-02f, -5.47632277e-02f, -8.55039805e-02f,
    -3.96050774e-02f, 5.07867821e-02f, -2.41066366e-02f, 5.01217544e-02f, 5.44149652e-02f, -2.10503504e-01f, 1.73290651e-02f, 4.64496575e-02f,
    1.31066227e-02f, -3.37501206e-02f, -6.47310093e-02f, -8.22452754e-02f, 1.54383704e-02f, -8.01114738e-02f, 4.96323407e-02f, 8.93901810e-02f,
    1.66380078e-01f, 7.85858110e-02f, -4.63669887e-03f, 1.21531086e-02f, -1.24624409e-01f, -6.41187727e-02f, -2.11921319e-01f, -1.40790259e-02f,
    1.69270746e-02f, 4.18253802e-02f, -7.53267333e-02f, 1.50131240e-01f, 4.03267406e-02f, -2.96609234e-02f, 4.78553623e-02f, 2.75931984e-01f,
    1.28074229e-01f, 2.05947068e-02f, -1.38448626e-01f, -2.91575715e-02f, 1.98498264e-01f, -2.07398174e-04f, -1.06949858e-01f, -1.74045876e-01f,
    1.51431412e-02f, 1.79353371e-01f, 1.30185917e-01f, 6.49793027e-03f, -2.24728853e-01f, -1.66280583e-01f, 8.44161659e-02f, -7.78961629e-02f,
    3.82427722e-02f, 1.96418568e-01f, 5.14834449e-02f, 5.25356382e-02f, 1.37915239e-01f, -3.04557327e-02f, 8.14775378e-02f, -1.73191637e-01f,
    6.67682365e-02f, 7.70711154e-03f, -3.62415761e-01f, 2.26407617e-01f, 1.67809099e-01f, 1.24731168e-01f, 1.22968502e-01f, -1.63305402e-01f,
    -1.47747636e-01f, -5.53560257e-02f, 4.54184413e-02f, 1.67843074e-01f, -3.03145032e-02f, -1.05977200e-01f, -5.88259622e-02f, -7.28812888e-02f,
    1.08027600e-01f, 1.22151123e-02f, -9.44962800e-02f, -7.10353926e-02f, 1.17081158e-01f, -1.67269886e-01f, -5.26617747e-03f, -3.38103287e-02f,
    1.07689254e-01f, 1.35462005e-02f, 1.65805638e-01f, -2.10390217e-03f, 1.63164847e-02f, 1.46161780e-01f, -9.61173251e-02f, 4.87724632e-01f,
    9.85158049e-03f, 1.40760034e-01f, -4.55150455e-02f, -6.44435063e-02f, 1.48183117e-02f, 2.81853467e-01f, -8.60622898e-02f, -2.70881802e-01f,
    -9.17628631e-02f, 1.02058545e-01f, 1.22041896e-01f, 1.33730233e-01f, 1.82015225e-02f, 1.62888750e-01f, -1.87865406e-01f, 4.54058871e-02f,
    -8.57297257e-02f, -1.44970044e-01f, 1.40566856e-01f, 4.23890769e-01f, 3.34564358e-01f, -7.59131387e-02f, 5.89626841e-02f, 6.05196208e-02f,
    1.94936603e-01f, 8.68722200e-02f, -3.47945988e-02f, 3.21916789e-02f, 4.67907377e-02f, -4.40555006e-01f, -1.08699135e-01f, -9.83011797e-02f,
    -1.15008317e-01f, -2.07906201e-01f, 4.33788784e-02f, 2.79270142e-01f, -2.79645249e-02f, -5.06874360e-02f, -4.74564731e-02f, -6.81562498e-02f,
    -1.51012033e-01f, -4.72938903e-02f, 2.04164848e-01f, 2.50817239e-01f, 1.45238400e-01f, -2.89119631e-01f, -5.89673333e-02f, 1.98197186e-01f,
    -1.05956450e-01f, 9.72746238e-02f, 1.22999489e-01f, 3.68381917e-01f, 7.81871304e-02f, -1.23063987e-02f, 1.27630219e-01f, 8.45485553e-02f,
    6.37367368e-02f, -2.61516981e-02f, -1.39305338e-01f, 7.14443848e-02f, 2.00179853e-02f, -7.86933899e-02f, 7.70563111e-02f, 8.72065127e-03f,
    -1.71731301e-02f, 1.98386442e-02f, -6.83771074e-02f, -1.36506960e-01f, 2.24036574e-02f, 1.88418590e-02f, -3.25940549e-03f, -1.23798832e-01f,
    2.51237988e-01f, -8.48748088e-02f, -1.08576387e-01f, 1.93699032e-01f, 1.26119703e-01f, -1.25616029e-01f, 1.09999910e-01f, 3.37505192e-02f,
    1.69389874e-01f, -3.92423645e-02f, -6.64808974e-02f, -1.49924010e-01f, -2.76547968e-02f, 9.45083126e-02f, -1.72102079e-01f, -8.47775489e-02f,
    -1.71968341e-01f, 2.35626493e-02f, 8.39197189e-02f, 4.61285934e-02f, 1.75423503e-01f, -5.79482270e-03f, 7.81584010e-02f, -4.98389155e-02f,
    -6.15264662e-02f, -4.19423589e-03f, -1.25993848e-01f, 7.69645348e-02f, -6.95729405e-02f, -1.05999475e-02f, 9.93519798e-02f, 7.21157566e-02f,
    3.46610136e-02f, -1.78989694e-02f, -3.73782590e-02f, 1.29140884e-01f, -2.72670295e-02f, -3.42714004e-02f, 3.08155455e-02f, -7.52582327e-02f,
    1.36073222e-02f, 1.33097097e-01f, 1.17265500e-01f, -7.70686939e-02f, -1.43323153e-01f, -5.22687100e-02f, 3.61357443e-02f, 8.84280279e-02f,
    6.28535897e-02f, 1.23992279e-01f, -5.83470985e-02f, -2.86778144e-04f, -7.17897713e-03f, -1.06792055e-01f, -6.46619797e-02f, 6.01746934e-03f,
    -3.17328945e-02f, -1.40188023e-01f, 1.16032705e-01f, 2.90898811e-02f, -5.90416715e-02f, 1.67641982e-01f, 1.34797350e-01f, -7.45921135e-02f,
    8.26392025e-02f, 7.76284281e-03f, -8.27303827e-02f, 2.79151760e-02f, -2.84895182e-01f, -5.28804176e-02f, 7.44849967e-04f, -9.40645859e-02f,
    8.60098153e-02f, 1.22836158e-01f, 4.12888043e-02f, -4.52995747e-02f, 2.58825012e-02f, -2.27451976e-02f, -5.21687940e-02f, -5.72387762e-02f,
    -9.63104069e-02f, 1.47471600e-03f, -1.41930640e-01f, 1.48926377e-02f, 1.75476775e-01f, 1.16061233e-01f, 3.11210416e-02f, -2.69637536e-02f,
    9.35728941e-03f, 7.93627203e-02f, -5.24828769e-02f, -1.44326106e-01f, 5.09472638e-02f, 4.15566303e-02f, -1.83934808e-01f, -6.53364658e-02f,
    -6.65361434e-02f, -7.97965005e-02f, -9.62324589e-02f, -2.09384747e-02f, -9.01752189e-02f, 2.52832361e-02f, -4.43104480e-04f, 5.48789240e-02f,
    -1.15577206e-02f, -1.97085533e-02f, -2.27421418e-01f, -1.26247415e-02f, 6.46878555e-02f, -2.93887220e-02f, -2.88994815e-02f, 9.14784670e-02f,
    1.67393625e-01f, 3.39704603e-02f, -1.10423546e-02f, -2.62508914e-02f, -1.23510182e-01f, -7.48373419e-02f, -6.05484173e-02f, 6.38225302e-02f,
    2.85577886e-02f, 1.94562171e-02f, 6.05051517e-02f, -1.22542299e-01f, -3.22523899e-02f, 3.21878232e-02f, 1.99543592e-02f, -1.47481337e-01f,
    -7.88758472e-02f, 1.34879515e-01f, -1.06267788e-01f, 1.22898407e-01f, -4.50400412e-02f, 3.14704180e-01f, -1.82292089e-02f, -6.22094758e-02f,
    2.01942980e-01f, 1.08695842e-01f, -2.55816747e-02f, 9.90185793e-03f, -6.43095821e-02f, -6.84773624e-02f, -9.28284004e-02f, -3.26675773e-02f,
    -9.48339179e-02f, 9.34381783e-02f, 1.81659639e-01f, 2.78522044e-01f, 4.03918654e-01f, 1.54470444e-01f, -8.00932720e-02f, -8.41676891e-02f,
    3.54052000e-02f, 5.23257516e-02f, 2.78629959e-01f, 4.00910854e-01f, -4.50252034e-02f, 1.41770035e-01f, 1.57463163e-01f, 4.09066454e-02f,
    -4.92171794e-02f, 1.45383582e-01f, 1.52646810e-01f, 3.64999503e-01f, -7.35853463e-02f, -1.68647856e-01f, -7.66427964e-02f, 1.87093198e-01f,
    2.23174989e-01f, 4.44278151e-01f, -2.06594944e-01f, 1.02508582e-01f, 1.72257234e-04f, 1.55373111e-01f, 3.49811703e-01f, 2.88529787e-02f,
    5.59523776e-02f, 1.33802384e-01f, 4.63961214e-02f, -1.42939284e-01f, -9.74329114e-02f, 1.15903109e-01f, 2.95084827e-02f, -2.09613189e-01f,
    3.77466790e-02f, -6.03768937e-02f, -3.77219915e-02f, -3.86972837e-02f, 1.31915599e-01f, -2.79646218e-01f, 1.78765859e-02f, -2.38041542e-02f,
    1.33587793e-01f, -1.44333029e-02f, 2.28084065e-02f, 5.21183275e-02f, 1.54887408e-03f, 1.05225220e-01f, 2.32301815e-03f, 9.77353826e-02f,
    7.14216977e-02f, 5.90421148e-02f, -1.87777765e-02f, -1.43024653e-01f, -3.54622938e-02f, -1.06696166e-01f, 3.78756285e-01f, -1.50186673e-01f,
    2.03253523e-01f, -1.19353235e-01f, -6.33869859e-05f, 1.08970694e-01f, 7.74238184e-02f, 1.88692346e-01f, -6.55172840e-02f, -1.23723105e-01f,
    -8.20581391e-02f, -9.78101045e-02f, -3.78093384e-02f, -8.39293599e-02f, 3.18836085e-02f, 1.76082030e-02f, 1.66065618e-01f, -1.60533488e-01f,
    -4.31088656e-02f, -2.36805193e-02f, -9.54142679e-03f, -9.56212077e-03f, -5.12956902e-02f, -1.12154752e-01f, 2.60626733e-01f, 4.94910508e-01f,
    1.33486927e-01f, -1.53704612e-02f, 1.83269996e-02f, -1.42022878e-01f, -5.79027832e-02f, -9.90039036e-02f, 6.35590544e-03f, 1.36895746e-01f,
    -5.03511280e-02f, -1.17672980e-01f, 1.27168640e-01f, 2.86947247e-02f, -6.10002428e-02f, 5.30457906e-02f, -3.33174318e-02f, 1.30699918e-01f,
    5.58395125e-02f, 6.40747026e-02f, 2.62381379e-02f, -2.60774881e-01f, -9.79537591e-02f, -1.48729635e-02f, 9.27177891e-02f, 7.97701105e-02f,
    3.11175603e-02f, 3.54975685e-02f, 3.96182723e-02f, 3.99150997e-02f, 3.81851643e-02f, -1.50306165e-01f, -5.16691096e-02f, 1.96377754e-01f,
    1.53533354e-01f, 2.64896713e-02f, 1.70401201e-01f, -3.81983556e-02f, 2.38617465e-01f, 5.17242961e-03f, -5.38796633e-02f, 5.99218858e-03f,
    -2.67394960e-01f, -3.00723523e-01f, -1.14467647e-02f, 1.70823205e-02f, 4.83493581e-02f, -3.67098823e-02f, 5.26728369e-02f, 5.87188303e-02f,
    1.10154033e-01f, 1.69025436e-01f, 6.51562810e-02f, 8.56919810e-02f, -3.86819523e-03f, -3.95749211e-02f, -1.36233851e-01f, -2.66639031e-02f,
    5.08306585e-02f, -2.97126407e-03f, -8.10793042e-02f, -8.38332102e-02f, -6.25312775e-02f, 1.31863728e-01f, -8.47075135e-02f, -5.16520301e-03f,
    1.06910206e-01f, 6.70421422e-02f, -1.81345623e-02f, 6.11947998e-02f, 1.16463512e-01f, 9.08890646e-03f, 4.23423983e-02f, -3.67754959e-02f,
    7.77221099e-02f, 7.34640956e-02f, 1.71602294e-02f, 5.56766093e-02f, -6.39877692e-02f, -3.76392193e-02f, 1.31890669e-01f, -1.51555683e-03f,
    5.08691780e-02f, 1.04308396e-03f, -5.77384941e-02f, 8.68952945e-02f, 1.55434683e-01f, -9.85060334e-02f, -3.28088626e-02f, -2.79037319e-02f,
    9.67972055e-02f, -9.65244975e-03f, 7.39645073e-03f, 1.77776758e-02f, -2.09361881e-01f, 2.10071906e-01f, 2.98188552e-02f, 3.82509947e-01f,
    2.83488929e-01f, -1.12806736e-02f, 4.58782464e-01f, 5.70858240e-01f, -5.37719615e-02f, -1.64404605e-03f, 8.05570036e-02f, 6.61781756e-03f,
    4.73812111e-02f, -6.10861881e-03f, -7.03296289e-02f, 2.28929222e-02f, 7.64824748e-02f, 1.55473799e-02f, 6.02493025e-02f, 8.59293938e-02f,
    2.28534266e-02f, -2.05123108e-02f, 3.20328772e-02f, 9.72679630e-03f, 1.02169469e-01f, 1.25454128e-01f, 1.09682949e-02f, -4.30722535e-02f,
    5.56366146e-02f, -2.06768569e-02f, -7.13743344e-02f, 5.51520661e-02f, -1.80423204e-02f, 2.27078665e-02f, -1.31121993e-01f, 9.16226953e-02f,
    2.55377535e-02f, -1.92276202e-02f, 2.05078170e-01f, -7.86924921e-03f, -3.21729034e-02f, 4.06984575e-02f, -1.05566317e-02f, 1.78069808e-02f,
    -1.27101630e-01f, 1.07637875e-01f, 1.17434017e-01f, -3.95629048e-01f, -6.68135379e-03f, -4.37508449e-02f, -1.97590441e-02f, -5.22545651e-02f,
    8.24450850e-02f, 2.32341979e-02f, 9.50546656e-03f, 4.66589957e-01f, 4.11482528e-02f, 1.23481445e-01f, -2.28650957e-01f, -1.38076201e-01f,
    -2.06105337e-01f, -1.95654884e-01f, 6.16659187e-02f, 1.86714157e-01f, 3.11878156e-02f, -1.20196074e-01f, 7.30816415e-03f, 1.29284173e-01f,
    -9.32985321e-02f, -7.92921111e-02f, 4.02231030e-02f, 1.46693245e-01f, -1.51123637e-02f, 9.03055072e-02f, 5.47171850e-03f, 9.96787325e-02f,
    -4.30486143e-01f, -7.09366947e-02f, -1.45917851e-02f, -1.08631678e-01f, -1.70036867e-01f, -1.00946620e-01f, -1.41284019e-01f, 9.42121446e-02f,
    -1.90891586e-02f, 3.16182822e-02f, -4.29154336e-02f, 6.81416392e-02f, 9.74805579e-02f, -2.29953334e-01f, 1.35314822e-01f, 2.58362629e-02f,
    -9.86556113e-02f, -1.71570539e-01f, -2.99509138e-01f, -7.67992437e-02f, -3.09134960e-01f, 9.33427513e-02f, 1.60974219e-01f, 1.35323703e-01f,
    -3.81172299e-01f, -1.93859398e-01f, 2.48407304e-01f, 7.94043671e-03f, 4.18538712e-02f, -7.64401704e-02f, -1.85706928e-01f, 2.20789716e-01f,
    8.60567018e-02f, -3.36498208e-02f, 6.29253164e-02f, -2.39629522e-02f, 1.34414881e-01f, -3.31792571e-02f, -3.68074537e-03f, -9.48398784e-02f,
    9.31515694e-02f, -9.53099877e-02f, -1.68206513e-01f, 1.44496754e-01f, -6.33867532e-02f, 2.33508289e-01f, -3.02034795e-01f, -1.12362429e-01f,
    -1.07948354e-03f, 7.70700425e-02f, 1.40872058e-02f, -1.18569814e-01f, 5.08202426e-02f, -6.79179206e-02f, 1.61614731e-01f, -1.78672541e-02f,
    -3.40509857e-03f, -3.30409631e-02f, 1.10610567e-01f, -5.72860092e-02f, 6.17308319e-02f, 9.58427116e-02f, -2.31836457e-02f, -2.87993014e-01f,
    2.03483868e-02f, 3.09246313e-02f, -3.84133868e-02f, -9.65263546e-02f, -1.23639987e-03f, 7.22999126e-02f, 1.30704895e-01f, 5.46938144e-02f,
    -1.88386232e-01f, -2.30032325e-01f, 9.81007963e-02f, -6.97351918e-02f, 5.07804416e-02f, 5.06425321e-01f, 8.75334516e-02f, -5.56596629e-02f,
    2.13571843e-02f, 1.43477991e-02f, -6.81017861e-02f, -1.30096525e-01f, 9.16601121e-02f, 8.83512944e-02f, 3.42502147e-02f, -1.13197096e-01f,
    1.89952925e-01f, -1.59628585e-01f, -3.66099924e-01f, 1.05136253e-01f, 1.74846530e-01f, 1.56183243e-01f, -1.23416245e-01f, 1.93845611e-02f,
    1.05743207e-01f, 9.25537013e-03f, 3.51321436e-02f, 2.30389267e-01f, 1.89009849e-02f, -2.42188528e-01f, 1.56244010e-01f, 1.14229918e-02f,
    -2.02873498e-02f, 6.82261810e-02f, 1.47749290e-01f, 6.05371594e-02f, 4.39815363e-03f, 6.29988164e-02f, 3.12990658e-02f, -2.30553225e-01f,
    -1.15825467e-01f, 4.40084375e-02f, -9.15167108e-02f, 1.49644651e-02f, 5.44679631e-03f, -1.11897908e-01f, -5.51652014e-02f, -7.84114972e-02f,
    1.02713272e-01f, 8.82057324e-02f, 9.13473591e-02f, -3.42319384e-02f, 7.74796009e-02f, -5.95352659e-03f, 5.50720803e-02f, 5.89776896e-02f,
    1.20717600e-01f, 2.31537912e-02f, -2.60787457e-02f, -8.75148326e-02f, 5.10513932e-02f, -1.27188992e-02f, -2.49107271e-01f, 9.33637246e-02f,
    3.29827778e-02f, 1.53271228e-01f, -7.29852915e-02f, -3.45618784e-01f, -5.17111979e-02f, -1.96414068e-02f, -6.61604628e-02f, 1.01251744e-01f,
    2.31527518e-02f, 7.80403242e-02f, 1.13484919e-01f, 9.95864999e-03f, 1.93718597e-02f, 2.82433815e-03f, -8.70166421e-02f, -6.91889375e-02f,
    8.63140896e-02f, 1.04377300e-01f, 7.49341771e-02f, 7.08222538e-02f, -4.26349835e-03f, 3.35744619e-01f, 4.07299809e-02f, 4.50759120e-02f,
    7.02819452e-02f, 2.13903133e-02f, 2.02841073e-01f, 6.99182823e-02f, 7.92099908e-02f, -5.79457991e-02f, 2.45869160e-02f, -8.23328272e-02f,
    -8.58908668e-02f, 2.65869685e-02f, 2.80494597e-02f, 3.44338492e-02f, 7.97173241e-04f, -8.77272803e-03f, -1.41098768e-01f, 3.37237455e-02f,
    2.51530278e-02f, 8.00956711e-02f, -3.25264744e-02f, 7.85999559e-03f, 9.45559219e-02f, -9.31554586e-02f, 7.52959549e-02f, -1.03965007e-01f,
    3.88544835e-02f, -1.46812936e-02f, 1.18636014e-02f, 3.56124267e-02f, -1.30021900e-01f, 1.51355872e-02f, 8.80958289e-02f, 5.50523251e-02f,
    8.25390741e-02f, -1.54175851e-02f, 2.58097928e-02f, 4.00330052e-02f, 2.90769115e-02f, 2.16987263e-02f, 4.50114273e-02f, -3.36831123e-01f,
    -3.47287245e-02f, 1.29983455e-01f, 1.23166472e-01f, 1.40311215e-02f, -1.06999673e-01f, -6.96604028e-02f, 4.73124981e-02f, 3.72847877e-02f,
    4.16978858e-02f, 1.54222567e-02f, 1.47600129e-01f, 5.27259529e-01f, -5.79830259e-02f, 1.86632127e-02f, -3.37116495e-02f, 1.57504585e-02f,
    4.82826121e-02f, -3.84777449e-02f, 3.77447754e-02f, 1.16459439e-02f, 4.29843180e-02f, 9.53661371e-03f, 1.22934014e-01f, 1.61668509e-01f,
    1.50059700e-01f, 5.89497164e-02f, 3.49248528e-01f, -9.88080073e-03f, 2.24843994e-01f, -5.80187934e-03f, -2.12192386e-01f, -4.86331806e-02f,
    1.41580608e-02f, -1.19058512e-01f, 4.18857075e-02f, 1.09239511e-01f, 3.30166668e-02f, 4.40370470e-01f, 5.59131168e-02f, 2.91938871e-01f,
    2.00607181e-02f, 4.06718463e-01f, -1.02507971e-01f, -1.49972469e-01f, -2.73999155e-01f, 1.35650545e-01f, 1.41479459e-03f, -2.85002752e-03f,
    -1.15651134e-02f, 8.89538378e-02f, 3.75967994e-02f, -1.03723362e-01f, -2.81379133e-01f, -2.46572681e-03f, 5.76040782e-02f, 1.27985105e-01f,
    4.94080596e-03f, 4.40065637e-02f, -2.41700443e-03f, -1.99163169e-01f, -1.70489013e-01f, 3.07550933e-02f, -8.56010094e-02f, -1.92989662e-01f,
    -2.74065640e-02f, 5.27819805e-02f, -1.29863635e-01f, -1.09457344e-01f, -2.24805430e-01f, -1.57462917e-02f, 8.56781825e-02f, -1.62971780e-01f,
    1.50379226e-01f, 1.33540809e-01f, 1.01335794e-01f, 8.32851231e-02f, 2.96281348e-03f, -5.94112575e-02f, 1.73275676e-02f, 1.84200779e-02f,
    4.15707640e-02f, 1.14235505e-01f, 9.86648202e-02f, -3.96812372e-02f, -8.03733841e-02f, 1.68223172e-01f, -1.95064813e-01f, 2.20521521e-02f,
    5.33518195e-02f, -3.74710023e-01f, 3.90260927e-02f, 2.41783285e-03f, 1.32729467e-02f, 4.76977825e-01f, 4.46083993e-01f, 1.38818407e-02f,
    1.65378183e-01f, 1.10220887e-01f, -1.18800789e-01f, -1.28777906e-01f, -1.17902815e-01f, -4.04471084e-02f, -7.13917390e-02f, 2.39546910e-01f,
    9.56935510e-02f, 3.62914741e-01f, -9.76655707e-02f, -2.75820345e-01f, 1.08099416e-01f, -1.27370939e-01f, 8.13694298e-02f, 4.36739832e-01f,
    -3.52751464e-01f, 1.86459143e-02f, -1.33009315e-01f, 1.60097718e-01f, 2.53265917e-01f, 1.06791638e-01f, -1.55742735e-01f, 6.72983378e-02f,
    1.44923806e-01f, 9.68247801e-02f, 3.92570011e-02f, -1.27598941e-01f, 4.81515676e-01f, 2.97332909e-02f, 1.75455317e-01f, 1.66675076e-01f,
    5.15427552e-02f, -9.85594653e-03f, 1.17777601e-01f, -2.05160037e-01f, 1.98499896e-02f, -6.12578802e-02f, -5.37195653e-02f, -6.88962415e-02f,
    -3.18059847e-02f, 3.21020722e-01f, -1.60349786e-01f, -2.03882977e-01f, -4.85823452e-02f, -1.27098011e-02f, -5.01591824e-02f, -1.31478505e-02f,
    9.76261720e-02f, -1.25072762e-01f, -6.55837059e-02f, 1.52058704e-02f, 5.83049469e-02f, 5.67207001e-02f, 1.63301155e-01f, 6.49166387e-03f,
    6.63209483e-02f, 1.31889865e-01f, -5.27959280e-02f, 1.78224847e-01f, 1.23274103e-01f, 4.09577079e-02f, 8.54859874e-03f, -5.76823577e-02f,
    9.75448117e-02f, 2.02115010e-02f, 6.11856841e-02f, -1.04105279e-01f, -6.67609202e-05f, -3.70313898e-02f, 4.59510088e-02f, 4.09926698e-02f,
    -2.65904870e-02f, -1.08423173e-01f, -5.68709224e-02f, 2.05064891e-03f, 9.10808221e-02f, -1.64492026e-01f, 4.19607805e-03f, -7.81516661e-04f,
    1.57488301e-01f, 6.20983122e-03f, 6.49157092e-02f, -4.61135730e-02f, -7.62952268e-02f, 4.88326102e-02f, -8.95599462e-03f, -2.08098581e-03f,
    1.68448649e-02f, 9.06598717e-02f, -1.14882573e-01f, 2.16451910e-04f, 7.13968426e-02f, -5.43502010e-02f, 7.29611814e-02f, 3.77471820e-02f,
    -5.81991896e-02f, 2.59825796e-01f, 2.26399247e-02f, 4.25246172e-02f, -1.57355234e-01f, -8.90390202e-03f, 2.91047096e-02f, 1.09374607e-02f,
    2.58974661e-03f, 4.50935327e-02f, 1.47288442e-02f, -3.68085615e-02f, 1.07615711e-02f, -1.21359259e-01f, -5.08996136e-02f, 1.12259164e-01f,
    1.65991846e-03f, -1.13190457e-01f, 7.85723627e-02f, 6.36531487e-02f, -9.09425467e-02f, 2.21028626e-01f, 9.53437202e-03f, 1.09803043e-01f,
    -6.68858737e-02f, 1.04827218e-01f, 2.49789387e-01f, -1.70010179e-02f, 6.43281415e-02f, -1.07598320e-01f, -2.04496505e-03f, -9.07385349e-03f,
    5.40435053e-02f, -2.13935196e-01f, 6.56828582e-02f, -3.39229740e-02f, 4.87577030e-03f, -1.93377316e-01f, 8.66007060e-02f, -1.13113917e-01f,
    6.51410744e-02f, 5.74426092e-02f, -9.22008976e-02f, -2.34127678e-02f, -2.94032674e-02f, -1.36057794e-01f, 4.45553884e-02f, -1.16005965e-01f,
    -9.02535096e-02f, -6.49292246e-02f, -2.31591821e-01f, -1.96608007e-01f, -5.87277636e-02f, 1.12882666e-01f, 4.28385939e-03f, 4.67109270e-02f,
    -2.76111849e-02f, 1.75925586e-02f, -3.74090150e-02f, -4.52172570e-03f, 9.77959335e-02f, 2.72774864e-02f, -8.86565074e-02f, 1.91480294e-02f,
    -1.77526828e-02f, 2.11774632e-01f, 1.00018367e-01f, 3.03586647e-02f, -1.27911884e-02f, -3.90486382e-02f, -3.15099627e-01f, 7.27752596e-03f,
    -1.16170505e-02f, 4.69879340e-03f, 5.89987822e-03f, 7.94788226e-02f, 1.71161927e-02f, 4.40909304e-02f, -2.95407209e-03f, 6.71500191e-02f,
    -1.22024808e-02f, -2.67076353e-03f, -1.13141865e-01f, 1.79768802e-04f, 1.07659832e-01f, -3.99280563e-02f, 5.52173192e-03f, 5.92393465e-02f,
    5.36313653e-02f, 1.98991343e-01f, -9.98474425e-04f, -1.32087812e-01f, 3.20369810e-01f, 6.32094741e-01f, 1.36986777e-01f, 1.59789875e-01f,
    -1.59494560e-02f, -2.23130524e-01f, -2.72704829e-02f, -1.02563053e-01f, 6.82493076e-02f, 2.37575129e-01f, -5.29804230e-02f, 5.34976013e-02f,
    1.24643696e-02f, 1.35636758e-02f, 3.82184573e-02f, -2.51540653e-02f, 3.28054130e-01f, 9.33628064e-03f, 6.15849867e-02f, 3.22583541e-02f,
    -9.68779400e-02f, 3.15253288e-01f, 5.24111651e-02f, -5.33839278e-02f, 3.48662399e-02f, 7.52695799e-02f, -8.53263214e-02f, 1.27809616e-02f,
    -1.66779086e-02f, -7.28274733e-02f, 8.45114812e-02f, 5.19187152e-02f, 2.46161921e-03f, -6.25078380e-02f, 2.84697744e-04f, -1.01291299e-01f,
    -2.17563659e-02f, -9.57951993e-02f, 3.65355425e-02f, 4.76951227e-02f, 3.06812376e-01f, -9.34376121e-02f, 1.01080842e-01f, 9.62782651e-02f,
    2.19332635e-01f, -8.75399411e-02f, -6.29534796e-02f, 9.80041847e-02f, -6.19487874e-02f, -1.58444755e-02f, -9.57268383e-03f, -4.71896864e-02f,
    -2.90354341e-02f, 1.09378090e-02f, 1.19490340e-01f, -1.01775020e-01f, 2.48078689e-01f, -2.03317329e-01f, 1.35515500e-02f, 5.43169901e-02f,
    5.73525876e-02f, -3.04599460e-02f, 3.64093333e-01f, 6.26981929e-02f, -1.49349988e-01f, 3.85572836e-02f, 2.99930051e-02f, -6.34385794e-02f,
    -5.01562208e-02f, 2.03859471e-02f, 2.00519525e-02f, 3.68220992e-02f, 2.95327082e-02f, -2.24106796e-02f, -1.03262424e-01f, 2.12448999e-01f,
    7.21271522e-03f, 2.65006781e-01f, 2.94268012e-01f, -6.56517595e-02f, 2.75442362e-01f, 1.47268800e-02f, -5.61760254e-02f, -9.56872478e-02f,
    5.32367229e-01f, 2.61153966e-01f, 1.87194627e-02f, -8.82019922e-02f, 4.18835044e-01f, -1.76926889e-02f, 2.77978241e-01f, 1.12728611e-01f,
    1.26343995e-01f, 1.67985149e-02f, -7.29947584e-03f, -1.09708332e-01f, 1.95856765e-01f, 8.59841779e-02f, -1.16563201e-01f, 9.62705389e-02f,
    8.50403830e-02f, -2.71528736e-02f, 1.88555345e-02f, -6.68239966e-02f, -5.81888743e-02f, -1.01625100e-02f, 5.60517609e-02f, -1.90766677e-01f,
    1.07352929e-02f, -8.16816241e-02f, 1.97564941e-02f, -8.55418220e-02f, 1.87622771e-01f, -2.71713287e-02f, -3.50446284e-01f, -7.05472082e-02f,
    1.38762845e-02f, 2.10041758e-02f, -8.78270864e-02f, -4.29672599e-02f, 5.66792637e-02f, 7.62351498e-04f, 1.23043973e-02f, 7.88431801e-03f,
    3.96147966e-02f, 2.56341040e-01f, 1.91680774e-01f, 4.00239639e-02f, 2.49954507e-01f, -3.64764445e-02f, -1.12668894e-01f, -4.13886681e-02f,
    -1.50651075e-02f, 1.05233915e-01f, 2.62399465e-02f, 9.17019993e-02f, 4.59658317e-02f, -7.69996420e-02f, 8.75483900e-02f, 1.96270980e-02f,
    3.08248326e-02f, -3.70181538e-02f, -4.10390459e-02f, -1.06721438e-01f, 2.13973477e-01f, -1.93383265e-02f, 2.00500369e-01f, 4.34829704e-02f,
    2.54919052e-01f, -8.50954503e-02f, 2.15759009e-01f, 2.04630002e-01f, -1.76195294e-01f, -2.09342055e-02f, -8.66077095e-02f, -2.95473356e-02f,
    7.55422190e-02f, 1.67579368e-01f, -4.43712026e-02f, 2.00731993e-01f, -9.88233183e-03f, 5.12490980e-03f, -3.45954634e-02f, -5.51121309e-02f,
    6.61175400e-02f, -3.90734822e-02f, 1.29847765e-01f, 3.36426087e-02f, -1.00443460e-01f, -1.43581793e-01f, -1.70436484e-04f, -1.25536069e-01f,
    -3.50165479e-02f, -5.80410101e-02f, -6.12815507e-02f, -2.00034738e-01f, 3.23001146e-02f, 4.44761962e-02f, -5.39082959e-02f, -5.94893470e-02f,
    -2.73572169e-02f, -6.58274293e-02f, 2.04286985e-02f, 2.61687458e-01f, 1.48274645e-01f, -1.17727958e-01f, 4.85264271e-01f, 7.34958947e-02f,
    -5.34157082e-02f, 3.06604713e-01f, -5.29423580e-02f, -2.40304340e-02f, 2.27063686e-01f, 9.06376019e-02f, 1.56018548e-02f, 1.59208417e-01f,
    -7.97696188e-02f, -7.67907053e-02f, 1.63433105e-01f, -6.94948807e-02f, -1.93684027e-02f, -9.53987837e-02f, 1.81271490e-02f, 5.16263656e-02f,
    1.33381516e-01f, -6.96346397e-03f, 4.18549739e-02f, -8.73267129e-02f, 1.13133855e-01f, -2.02152468e-02f, 1.26018291e-02f, 1.52177155e-01f,
    -1.31575987e-01f, 3.39204213e-03f, -1.64683819e-01f, -1.59835875e-01f, -1.37655949e-02f, 1.72585398e-01f, 6.49454221e-02f, -1.07325837e-01f,
    -5.00419438e-02f, 5.37580177e-02f, -5.74332848e-02f, -1.04275078e-01f, 1.87142938e-01f, -6.38905987e-02f, -5.72752953e-02f, 3.77946463e-03f,
    3.32061276e-02f, 1.22057118e-01f, 4.86968718e-02f, 1.63207248e-01f, 1.29374266e-02f, -3.36450189e-02f, -1.72684994e-03f, 1.09759256e-01f,
    1.33167520e-01f, -8.96898732e-02f, -4.92582768e-02f, -8.86423066e-02f, -2.30258405e-02f, 4.09595221e-02f, 1.09855592e-01f, 2.54431397e-01f,
    1.67910364e-02f, -1.00359973e-02f, 1.46513075e-01f, 1.05551928e-02f, 3.01867407e-02f, -1.49333747e-02f, -2.11696178e-02f, 4.48026136e-02f,
    -4.43928540e-02f, -7.96569735e-02f, 3.36803496e-02f, 1.28925830e-01f, -9.83535498e-02f, -1.34158120e-01f, -1.03323191e-01f, -1.83389671e-02f,
    -1.12063676e-01f, -1.55485766e-02f, 8.14162493e-02f, -1.36263415e-01f, 2.54708938e-02f, -6.90231025e-02f, -2.50149518e-01f, -1.51797697e-01f,
    -1.05816118e-01f, -1.09549448e-01f, 1.90314561e-01f, 2.09190115e-01f, -6.28991649e-02f, -1.00038953e-01f, 3.36971469e-02f, 1.44325674e-01f,
    -1.08477481e-01f, -5.48183136e-02f, 1.25393018e-01f, 3.40773165e-01f, -9.69598740e-02f, 2.18235683e-02f, 8.48217532e-02f, -4.26519960e-02f,
    1.42284393e-01f, 7.61159882e-02f, 8.85059708e-04f, 4.93528098e-02f, 1.59195647e-01f, -6.59374148e-02f, 3.79255810e-03f, -4.48256694e-02f,
    3.23621869e-01f, -3.94247696e-02f, -3.48031633e-02f, -2.22599521e-01f, -1.63270049e-02f, -1.34308040e-01f, -1.43252403e-01f, -6.19599270e-03f,
    -1.34075239e-01f, 8.35283622e-02f, -7.65310600e-02f, 3.61006670e-02f, 1.28025055e-01f, 3.12950522e-01f, 6.66952282e-02f, -9.07895565e-02f,
    1.28661558e-01f, 2.15436630e-02f, 2.50441343e-01f, -6.71732277e-02f, 1.30080715e-01f, 3.63988429e-02f, -1.20166600e-01f, 6.69764876e-02f,
    4.35008615e-01f, -9.50260609e-02f, 8.67010728e-02f, -8.59007426e-03f, 1.24730565e-01f, -1.26205683e-02f, 1.76563971e-02f, -3.34035791e-02f,
    3.92080694e-02f, -1.43035725e-01f, -1.65024191e-01f, -2.72327866e-02f, 2.17039436e-01f, 7.67547563e-02f, -2.18349829e-01f, -1.31640583e-01f,
    -8.10345560e-02f, -1.63402241e-02f, 3.57657485e-02f, -8.63051116e-02f, -5.76643534e-02f, -1.38814464e-01f, -4.37980220e-02f, -1.54284043e-02f,
    -1.33508027e-01f, -2.46243384e-02f, -5.14645725e-02f, -1.54759884e-02f, -6.02530576e-02f, -3.77473421e-02f, 1.79109901e-01f, 1.02034971e-01f,
    2.25447029e-01f, 1.02574863e-01f, -6.26336411e-02f, 2.74207741e-01f, 8.20334107e-02f, -1.19775221e-01f, 6.11235686e-02f, 1.14397429e-01f,
    -1.84258390e-02f, -2.49364935e-02f, 9.99596715e-02f, -6.53381646e-02f, 1.03592902e-01f, 1.77599192e-01f, -6.55269846e-02f, 5.15852451e-01f,
    -1.28367990e-01f, 5.30697852e-02f, 3.58813733e-01f, -1.60510555e-01f, -1.76039189e-02f, -3.32634263e-02f, -2.87285931e-02f, -5.58209419e-02f,
    1.67667598e-01f, 3.76566197e-04f, 2.65749663e-01f, 2.41987780e-02f, 2.54281722e-02f, -1.29376322e-01f, -1.99485928e-01f, 2.54261494e-02f,
    8.97105858e-02f, 1.97793320e-02f, -7.90684000e-02f, -2.06426848e-02f, 1.02764055e-01f, -6.34392202e-02f, -8.30179453e-02f, 7.02757761e-02f,
    1.66529045e-01f, 3.95842008e-02f, 8.78186524e-02f, 3.75423431e-02f, 1.85164232e-02f, 1.01279221e-01f, 7.48242736e-02f, -2.08887562e-01f,
    -1.86444595e-01f, 5.45701105e-03f, -1.21038504e-01f, 3.49879861e-02f, -1.14714531e-02f, 1.03148840e-01f, -3.48635353e-02f, 4.99404520e-02f,
    -7.29116648e-02f, 4.56548482e-02f, 1.71227232e-01f, -5.80141507e-02f, 4.88150306e-02f, -1.77557096e-02f, -3.91265340e-02f, 5.12826107e-02f,
    5.18037938e-02f, -1.03105910e-01f, 4.64375503e-02f, 7.90490285e-02f, 1.07584044e-01f, 1.95985679e-02f, 2.47678496e-02f, 1.36247471e-01f,
    -1.70180609e-03f, 1.81136969e-02f, -5.80965579e-02f, -6.68344125e-02f, -4.81115840e-02f, -5.05497046e-02f, -5.71859442e-03f, -2.27281568e-03f,
    7.94070959e-02f, 1.32720366e-01f, 4.05475646e-02f, 1.91782266e-02f, 1.90398265e-02f, 1.90079287e-02f, 6.39390349e-02f, -3.03916693e-01f,
    2.20472626e-02f, 8.76620337e-02f, 7.66716972e-02f, 2.26916149e-01f, 1.04503416e-01f, -2.75152832e-01f, 1.86956376e-01f, 6.99443277e-03f,
    5.84175661e-02f, -2.30832882e-02f, 1.15124911e-01f, 6.42201900e-02f, 4.26143743e-02f, 2.08909214e-02f, -8.09182972e-03f, 1.01663088e-02f,
    7.60190329e-03f, 1.37223387e-02f, 6.40588179e-02f, 3.98047492e-02f, 8.42803940e-02f, 4.33809459e-02f, -2.64517039e-01f, -9.98834800e-03f,
    1.00559682e-01f, 1.53313810e-02f, -1.49279507e-02f, -6.49887417e-03f, 8.44298154e-02f, 1.11870855e-01f, -6.90050796e-02f, 1.08626947e-01f,
    1.03767559e-01f, 3.02888602e-02f, 2.45456874e-01f, 8.96314830e-02f, 1.93519462e-02f, 4.11360003e-02f, -6.41362295e-02f, -1.96706206e-02f,
    2.56314743e-02f, -2.22928617e-02f, -3.80027331e-02f, 8.33526626e-02f, 7.34699517e-02f, 1.00429252e-01f, 1.17515028e-01f, -1.09187916e-01f,
    2.46471018e-02f, -1.17704339e-01f, -3.07680190e-01f, 1.43237039e-02f, -6.26221970e-02f, 1.10192373e-01f, 2.36080005e-03f, 2.43391879e-02f,
    -8.22202768e-03f, -3.14697400e-02f, 1.20542489e-03f, 1.07685417e-01f, -4.94727641e-02f, 2.60291919e-02f, -2.88661905e-02f, -8.98912027e-02f,
    2.09900569e-02f, -3.23477015e-02f, 3.15188896e-03f, 2.66030412e-02f, -1.19615294e-01f, 4.34761010e-02f, 3.64053674e-04f, 7.31960163e-02f,
    1.61781590e-02f, 2.61289060e-01f, 2.19739124e-01f, 1.30021393e-01f, 2.09883720e-01f, -1.18975841e-01f, 1.60352588e-02f, -3.16184223e-01f,
    -2.00558975e-01f, -1.33451477e-01f, 3.19973454e-02f, 4.19413000e-02f, -1.87180877e-01f, 2.62690932e-01f, -1.39904186e-01f, 6.10626563e-02f,
    -1.79080591e-01f, 1.59373000e-01f, 7.16184974e-02f, -9.38355252e-02f, 7.21937269e-02f, 7.65118748e-02f, 3.81072350e-02f, 1.18011408e-01f,
    -3.31485718e-01f, 1.66600108e-01f, -1.37183532e-01f, 4.02291641e-02f, -5.91177270e-02f, -2.62361765e-01f, -1.01318479e-01f, 2.06991449e-01f,
    3.95914055e-02f, -1.11262083e-01f, -2.97889441e-01f, -7.81769231e-02f, -3.79132479e-02f, -1.86751738e-01f, 3.81208360e-02f, 1.51243880e-01f,
    4.44983970e-03f, 6.46754205e-02f, 1.54906347e-01f, -3.76637466e-02f, 1.34353638e-01f, 2.80349795e-02f, -4.27425772e-01f, -2.66838402e-01f,
    2.21624658e-01f, 2.04628199e-01f, 2.16617391e-01f, 1.33306980e-01f, 6.74986169e-02f, 5.00769280e-02f, -7.04516619e-02f, 1.35839492e-01f,
    1.56368949e-02f, -1.46469250e-01f, -2.55645607e-02f, 1.20660610e-01f, 1.53032109e-01f, -9.48930606e-02f, -1.36930728e-03f, -1.80188790e-02f,
    6.30706847e-02f, 1.31415352e-01f, -1.73665538e-01f, 5.40783294e-02f, 2.00680077e-01f, 1.74453169e-01f, 8.40119459e-03f, -4.28134315e-02f,
    -1.89957559e-01f, 1.79749161e-01f, -2.36118779e-01f, 4.76105418e-03f, 1.94320351e-01f, 1.54820800e-01f, 2.96670258e-01f, 9.13584009e-02f,
    9.86208580e-03f, -2.17785016e-01f, -3.69114548e-01f, -1.36515215e-01f, -2.86511689e-01f, -1.04868729e-02f, -2.80016392e-01f, 1.20590478e-02f,
    -2.38559812e-01f, 1.06967092e-02f, 2.64230698e-01f, -7.93167874e-02f, 2.37964481e-01f, 3.16493725e-03f, 8.15007612e-02f, 8.35174993e-02f,
    2.47615911e-02f, -2.01524362e-01f, -2.87567437e-01f, 1.62378103e-01f, 1.91756889e-01f, 2.44225729e-02f, 1.19546548e-01f, -2.29355637e-02f,
    -8.72858707e-03f, 6.69163764e-02f, -2.38149643e-01f, 1.09663950e-02f, -9.58758965e-02f, 4.38232012e-02f, 1.74680948e-01f, 1.51013853e-02f,
    2.04311982e-01f, -1.24915749e-01f, 3.74147259e-02f, -2.48737082e-01f, 3.46201360e-02f, 2.57032346e-02f, -2.09342197e-01f, 8.28285217e-02f,
    1.01990446e-01f, 6.44462556e-02f, -1.35466740e-01f, -9.63469446e-02f, -1.68321297e-01f, -6.98181614e-02f, 2.18966618e-01f, -1.54035017e-01f,
    2.26009578e-01f, 1.35529153e-02f, -5.07946610e-02f, -9.09779295e-02f, 1.25046194e-01f, 6.44522384e-02f, -7.14147538e-02f, 1.34674693e-02f,
    3.55674364e-02f, -4.72009741e-02f, 2.94828445e-01f, 1.05702586e-01f, 1.42454773e-01f, 1.93563312e-01f, 2.60264486e-01f, 2.36006808e-02f,
    -8.00174251e-02f, 1.12781830e-01f, 2.15680730e-02f, 7.55331805e-03f, 7.72797018e-02f, 1.15472572e-02f, -2.33866423e-01f, -9.35974270e-02f,
    3.80579121e-02f, 8.80933553e-02f, -1.36366919e-01f, -5.96398190e-02f, -3.91453505e-03f, -7.04820454e-02f, 1.74900785e-01f, 6.03097528e-02f,
    -6.15888983e-02f, 2.07193077e-01f, -1.24887884e-01f, -5.70480265e-02f, 1.49922790e-02f, -8.53430182e-02f, 1.26033232e-01f, -1.28592569e-02f,
    -1.75044201e-02f, 7.00675696e-02f, -9.57734436e-02f, -1.55578637e-02f, 8.05634186e-02f, 2.79187970e-02f, -8.10592920e-02f, -4.40008156e-02f,
    1.33072078e-01f, 8.44078735e-02f, 2.62450725e-01f, -1.09531861e-02f, 7.70037100e-02f, 6.54555559e-02f, -5.50963432e-02f, -3.14200856e-02f,
    5.88796474e-02f, 7.94208273e-02f, 1.72635943e-01f, -7.47549580e-03f, 8.97837356e-02f, -6.33287206e-02f, -2.55323835e-02f, 9.56836939e-02f,
    1.51077155e-02f, 8.50254670e-03f, -7.07932711e-02f, 2.25767735e-02f, -8.36825445e-02f, -5.21757789e-02f, 1.45474136e-01f, -8.95704627e-02f,
    1.38980839e-02f, -7.79670030e-02f, -8.03617463e-02f, 3.34728248e-02f, 5.93937561e-03f, -9.64877233e-02f, 1.16961889e-01f, -8.98857713e-02f,
    7.96261430e-02f, 1.91917524e-01f, -7.00873658e-02f, -1.28743336e-01f, -1.39567908e-02f, -6.65079802e-02f, -1.47169679e-02f, 9.91614535e-02f,
    -3.86484340e-02f, 4.61119832e-03f, -9.35114082e-03f, -3.90828028e-03f, -1.95290521e-01f, 9.03261602e-02f, -3.08518810e-03f, -1.83994882e-02f,
    -1.91575866e-02f, 2.68765744e-02f, -9.16945264e-02f, 4.41863164e-02f, -7.73153007e-02f, 1.94149330e-01f, 1.38406903e-01f, 7.93766528e-02f,
    -1.67297516e-02f, -9.79603603e-02f, -4.80480641e-02f, 7.42778182e-02f, -7.02491924e-02f, -5.93829975e-02f, 7.17216134e-02f, 9.37290937e-02f,
    4.99834567e-02f, 6.44420981e-02f, -1.67849921e-02f, 2.81279050e-02f, 8.83252099e-02f, 7.91389588e-03f, -3.12653668e-02f, -1.11325346e-01f,
    2.50531523e-03f, -9.35780443e-03f, 1.59952059e-01f, 2.64448263e-02f, -1.60203800e-01f, 1.82481650e-02f, 6.88012093e-02f, -1.60327572e-02f,
    3.36661994e-01f, 3.01806312e-02f, 1.80877093e-02f, -5.12644649e-02f, -4.01307233e-02f, -1.76569000e-01f, 1.15608908e-01f, 5.47890365e-02f,
    1.70155883e-01f, 1.83431044e-01f, -2.91940160e-02f, 1.96835920e-01f, -1.08676679e-01f, 4.10008430e-02f, -3.41691077e-02f, -2.09569782e-01f,
    -6.84470981e-02f, -1.37311175e-01f, -7.91319013e-02f, -3.50123197e-02f, 8.41130093e-02f, 1.16311193e-01f, 2.04871758e-03f, -6.81027174e-02f,
    1.93567425e-01f, -1.18208297e-01f, 3.65628302e-03f, -8.71961657e-03f, 1.32937789e-01f, 7.75254965e-02f, -2.54191384e-02f, -9.31790620e-02f,
    1.27132967e-01f, -1.03896350e-01f, -1.61463227e-02f, -2.82863881e-02f, 2.23310962e-02f, 5.79845943e-02f, -3.09980363e-01f, -1.05666034e-01f,
    1.62246183e-01f, -1.07966527e-01f, 4.79844511e-02f, -1.17624275e-01f, 5.79760112e-02f, -1.50626272e-01f, 1.16863534e-01f, 2.29995642e-02f,
    -2.17836187e-03f, -5.21332473e-02f, 6.21701106e-02f, -7.08755618e-03f, -1.28170758e-01f, -3.16946864e-01f, -1.78139322e-02f, -4.64606807e-02f,
