#include "features_9_expand3x3_bias.h"

__attribute__((aligned(16))) const float features_9_expand3x3_bias[192] = {
    2.93540419e-03f, 3.99870537e-02f, 1.14398263e-02f, 7.20182247e-03f, -1.12760172e-03f, 1.38952080e-02f, -1.69019010e-02f, 2.54846085e-02f,
    8.64092901e-04f, -1.45348748e-02f, 8.98171589e-03f, 3.33371907e-02f, 8.96538701e-03f, 1.53992251e-02f, 1.20069459e-02f, 6.79737329e-03f,
    -2.05336027e-02f, 3.04272361e-02f, 5.04690129e-03f, 1.61189809e-02f, 2.12666802e-02f, -1.33653600e-02f, 6.65037520e-03f, 1.45672169e-03f,
    1.25489570e-02f, -1.41502183e-03f, 1.84429940e-02f, 1.55297779e-02f, 3.31378654e-02f, -3.36695509e-03f, 1.68288387e-02f, 1.55059479e-05f,
    1.20662283e-02f, -2.35952437e-02f, 9.84101743e-03f, 2.69292714e-03f, 2.54743025e-02f, 2.42453963e-02f, 7.07537308e-03f, -2.25562546e-02f,
    6.64221030e-03f, 2.11484469e-02f, -8.39805789e-03f, 1.52046857e-02f, 8.78587831e-03f, 5.89223718e-03f, -2.53164850e-04f, -6.04149653e-03f,
    2.04600953e-02f, 4.57659736e-03f, 8.11717194e-03f, 9.65913665e-03f, 1.73753314e-02f, 1.39400894e-02f, -4.24859626e-03f, 6.22506300e-03f,
    3.15212109e-03f, 9.88152716e-03f, -1.10546155e-02f, 3.43989045e-03f, 1.29755586e-02f, 6.34527020e-03f, 3.57399462e-03f, -2.71122437e-03f,
    2.69681588e-02f, 1.00522712e-02f, 6.12579053e-03f, 6.75632758e-03f, -1.58678123e-03f, -4.11380921e-03f, -3.14723002e-03f, 3.10402978e-02f,
    1.14129577e-02f, 7.00298231e-03f, 2.13337992e-03f, -1.19769024e-02f, 1.57299172e-03f, 7.27740536e-03f, -9.53877158e-03f, 2.18276102e-02f,
    -6.38989685e-03f, 1.01035964e-02f, 1.30648620e-03f, -1.13639655e-02f, 1.61783639e-04f, 1.56330261e-02f, -1.47472797e-02f, 1.37066832e-02f,
    2.34087021e-03f, 1.18070422e-02f, -2.56266678e-03f, 1.07585462e-02f, -1.25925438e-02f, -7.73183489e-03f, -5.88816451e-03f, 1.46090649e-02f,
    -7.66436290e-03f, -2.87503116e-02f, -2.20916383e-02f, -1.33635607e-02f, -3.44803231e-03f, 3.15855537e-03f, 8.60295445e-03f, 1.06960386e-02f,
    3.52225546e-03f, 1.42335827e-02f, 1.09790331e-02f, 1.68616511e-02f, 1.60817821e-02f, 1.75025370e-02f, 5.49705932e-03f, -3.84009769e-03f,
    1.57433208e-02f, 1.04379347e-02f, -2.18156987e-04f, 2.58279070e-02f, 2.26683496e-03f, 1.70780998e-02f, -1.26210600e-02f, 1.48558291e-02f,
    2.77220849e-02f, 2.91059958e-03f, 4.96028457e-04f, -3.52264359e-03f, 1.20474165e-02f, 9.01504606e-03f, 2.02080235e-02f, -3.19211707e-02f,
    1.31124184e-02f, -1.05356229e-02f, -2.56478251e-03f, 1.70402024e-02f, -8.30950774e-03f, 1.16040260e-02f, 5.68727031e-03f, -1.78562086e-02f,
    -2.03112345e-02f, 1.44962445e-02f, 9.71504208e-03f, 4.07407386e-03f, -2.98245978e-02f, 2.59151012e-02f, -2.21885368e-03f, 1.45427696e-02f,
    -2.32720282e-03f, -2.61418172e-03f, 4.05029766e-03f, 1.42929154e-02f, -1.21351164e-02f, 9.50747542e-03f, 2.35027932e-02f, -9.39995662e-05f,
    1.54798180e-02f, -1.28327133e-02f, 1.03375576e-02f, -4.78902832e-03f, -1.31308576e-02f, 3.13136750e-03f, 1.90431550e-02f, -5.14336443e-03f,
    1.30605288e-02f, -2.96833962e-02f, 1.77462231e-02f, 7.07122823e-03f, 4.98549221e-03f, 1.62472967e-02f, 1.62440520e-02f, -1.41334627e-03f,
    2.68512107e-02f, 1.54871279e-02f, 1.51601322e-02f, -1.11655649e-02f, -8.50911066e-03f, 2.48886668e-03f, 9.24836844e-03f, -2.64833253e-02f,
    1.96782909e-02f, -1.97235271e-02f, 2.15082392e-02f, -4.62927436e-03f, -2.08208188e-02f, 3.84187233e-03f, 1.85706448e-02f, 1.96923930e-02f,
    6.58607809e-03f, 1.13512902e-02f, 1.39755942e-02f, -5.56424540e-03f, -2.43073832e-02f, -4.74103307e-03f, 1.94130242e-02f, -4.48707305e-03f
};

const int features_9_expand3x3_bias_shape[1] = { 192 };
const int features_9_expand3x3_bias_ndim = 1;
const size_t features_9_expand3x3_bias_numel = 192;
