#include "features_7_expand1x1_bias.h"

__attribute__((aligned(16))) const float features_7_expand1x1_bias[128] = {
    9.78279263e-02f, 9.13732499e-02f, 1.12512432e-01f, 2.92603448e-02f, 5.73867187e-02f, 6.75730931e-04f, 2.78866384e-03f, 8.54063965e-03f,
    4.65334617e-02f, 6.20160811e-02f, -2.68799886e-02f, -3.12539749e-02f, 7.58860186e-02f, 1.27002046e-01f, -3.59221995e-02f, 2.95396075e-02f,
    -4.27713245e-02f, 1.66977704e-01f, 4.47760783e-02f, 6.51230812e-02f, 1.90868378e-02f, 1.84150655e-02f, -1.81461556e-03f, 7.91471452e-03f,
    6.97099790e-02f, 4.81415261e-03f, 3.40735987e-02f, -3.10726594e-02f, -4.83420724e-03f, -2.08756123e-02f, -1.72089264e-02f, -3.96428742e-02f,
    8.66975915e-03f, -4.28565629e-02f, -1.15827411e-01f, 4.12592664e-02f, 5.75424125e-03f, -4.93771816e-03f, -1.11763524e-02f, 1.96675837e-01f,
    8.78278017e-02f, 2.06861980e-02f, 1.82430837e-02f, -2.92338636e-02f, -1.21197782e-01f, 1.33153172e-02f, -1.13854324e-02f, -1.14432524e-03f,
    2.97540613e-02f, 8.73156562e-02f, 5.56260645e-02f, 4.46808562e-02f, 6.51060492e-02f, 5.49131706e-02f, -3.63972783e-02f, -8.72056466e-03f,
    9.44218114e-02f, 6.10266700e-02f, 3.51119530e-03f, 5.43141849e-02f, 1.32902592e-01f, -5.92365377e-02f, -9.81173385e-03f, 2.18471251e-02f,
    2.66612526e-02f, 7.48331174e-02f, 1.41848102e-02f, 1.01917954e-02f, 4.36654799e-02f, 7.82076046e-02f, 5.85013367e-02f, 1.03886798e-01f,
    3.50341126e-02f, 4.53714430e-02f, 2.88196970e-02f, 8.08716640e-02f, -4.52311970e-02f, 1.01775676e-01f, 8.79538953e-02f, 6.46728184e-03f,
    2.95133982e-02f, 1.07386217e-01f, 1.38771996e-01f, 5.31059317e-02f, -8.99702534e-02f, -8.90591964e-02f, -2.65228227e-02f, 3.04214973e-02f,
    -3.94986793e-02f, 7.03862607e-02f, 5.11425268e-03f, 4.86986414e-02f, -2.63920296e-02f, 2.33669244e-02f, -1.50545193e-02f, -4.45958646e-03f,
    3.63181457e-02f, 3.35670151e-02f, -4.78498004e-02f, -1.15656359e-02f, 1.06790094e-02f, -1.87649112e-02f, -1.63617451e-02f, -5.69014139e-02f,
    -3.26827243e-02f, 4.36264277e-02f, 8.72293767e-03f, 6.83179647e-02f, 8.53147954e-02f, 2.27507809e-03f, 1.82755943e-02f, -1.22244908e-02f,
    5.71863316e-02f, 4.44766097e-02f, 1.38858333e-02f, 6.87253401e-02f, -1.01149492e-02f, -6.92248642e-02f, 7.15256780e-02f, 5.62678315e-02f,
    3.85414362e-02f, -7.49158040e-02f, 6.16404973e-02f, 2.45707929e-02f, 1.83740586e-01f, -3.15065645e-02f, 3.39105204e-02f, -1.03962990e-02f
};

const int features_7_expand1x1_bias_shape[1] = { 128 };
const int features_7_expand1x1_bias_ndim = 1;
const size_t features_7_expand1x1_bias_numel = 128;
