#include "features_3_expand1x1_weight.h"

__attribute__((aligned(16))) const float features_3_expand1x1_weight[1024] = {
    -7.14387223e-02f, 3.12040988e-02f, 4.08082791e-02f, 4.01952386e-01f, -3.13762464e-02f, -9.66641977e-02f, -1.27491623e-01f, -9.97375771e-02f,
    2.62204260e-02f, -1.69001639e-01f, -7.06990212e-02f, -6.51930571e-02f, 2.00775728e-01f, -1.72552854e-01f, 4.20093946e-02f, -1.63540930e-01f,
    -1.08899046e-02f, -3.52796679e-03f, 1.30479828e-01f, 3.02340519e-02f, -3.17083299e-02f, -2.27573663e-01f, 7.23061144e-01f, 1.23708837e-01f,
    -4.51052666e-01f, 1.70576840e-03f, -1.32300332e-01f, -1.11328237e-01f, 5.00851637e-03f, 2.02810556e-01f, 6.08088775e-03f, -9.40126702e-02f,
    -1.38987750e-02f, -4.19108681e-02f, -1.17789939e-01f, 3.17498818e-02f, -3.31813842e-02f, -2.64041331e-02f, 1.43544212e-01f, -7.74636149e-01f,
    4.36941624e-01f, 1.39899021e-02f, -1.38215385e-02f, 2.02610381e-02f, -1.70640834e-02f, -1.98967755e-02f, -1.41188568e-02f, 4.03567821e-01f,
    2.26790849e-02f, -2.71108359e-01f, -1.83431476e-01f, 4.01506573e-02f, -5.38834697e-03f, -1.37557253e-01f, -1.01469137e-01f, 1.46610057e-02f,
    1.43049527e-02f, 9.89599247e-03f, -9.04519856e-02f, 1.73953861e-01f, 1.35696689e-02f, 7.01032206e-02f, 4.44526076e-01f, -6.92076935e-03f,
    5.76149598e-02f, -2.76788920e-01f, -2.40076318e-01f, 4.84056324e-02f, 5.25917187e-02f, 2.09999643e-02f, 1.44346312e-01f, -1.14252113e-01f,
    -3.55175346e-01f, 7.48827904e-02f, 9.46683511e-02f, 1.43623516e-01f, 4.08640318e-02f, 7.06983730e-02f, -2.93794632e-01f, 5.72213754e-02f,
    3.76134440e-02f, -2.97387481e-01f, -1.19548060e-01f, 5.41438647e-02f, 7.92270154e-02f, -2.45234206e-01f, -1.53076932e-01f, -1.35341259e-02f,
    -3.03284656e-02f, 6.40396476e-02f, 1.55904517e-01f, 9.73808587e-01f, 3.71081308e-02f, -9.67351571e-02f, -4.30802971e-01f, 2.18580198e-02f,
    8.27497005e-01f, -5.67357130e-02f, -7.80670717e-02f, -1.62784785e-01f, 2.01652557e-01f, 5.61642796e-02f, -3.27660306e-03f, 6.02264367e-02f,
    3.83257866e-02f, -1.71133846e-01f, -7.21288919e-02f, -6.83497544e-03f, -9.32742376e-03f, -7.51160383e-02f, -5.32535054e-02f, 6.29884526e-02f,
    1.65392414e-01f, -4.09817487e-01f, -1.80253431e-01f, 8.10664371e-02f, -1.87301971e-02f, 2.22095847e-01f, 1.93520598e-02f, -1.30437180e-01f,
    -1.29952565e-01f, 2.22597867e-02f, 1.38214737e-01f, 2.29220539e-02f, 1.11688681e-01f, 1.35146841e-01f, 6.20483868e-02f, 1.24569863e-01f,
    1.02984376e-01f, -3.77765149e-01f, 3.09250057e-01f, 1.47741020e-01f, 2.88182329e-02f, 3.36339287e-02f, 2.29465831e-02f, -1.43177614e-01f,
    -4.25605118e-01f, 5.14989048e-02f, 2.32937306e-01f, -1.03173733e-01f, 6.58906773e-02f, 2.14858979e-01f, 1.86291896e-02f, 4.87330183e-02f,
    1.44327536e-01f, 3.28505673e-02f, 2.52968878e-01f, 1.03912927e-01f, 6.79901987e-02f, -2.91181833e-01f, -1.38804406e-01f, -9.21250731e-02f,
    -2.20435426e-01f, -2.16970453e-03f, 2.48765662e-01f, 4.82136846e-01f, 4.65954617e-02f, -1.55014351e-01f, -7.40619376e-02f, 5.42676374e-02f,
    3.53271998e-02f, 8.85692686e-02f, -2.84599334e-01f, 1.15079500e-01f, 9.25588906e-02f, 1.87294453e-01f, 4.76991057e-01f, -2.54401867e-03f,
    -1.39763296e-01f, 5.53930029e-02f, 1.46663204e-01f, 2.02763025e-02f, 8.41616541e-02f, -8.61618370e-02f, -4.40815002e-01f, 1.11344121e-01f,
    8.88247788e-02f, -2.79636502e-01f, -1.61531508e-01f, 1.02058105e-01f, 4.50292453e-02f, -1.59977525e-01f, -1.98742211e-01f, -1.76212434e-02f,
    -6.71513900e-02f, -5.09996014e-03f, 4.11901504e-01f, 2.90243089e-01f, 3.34948637e-02f, -2.48310804e-01f, -2.07927972e-01f, 7.44230077e-02f,
    3.21054943e-02f, 2.68489961e-03f, 1.32911522e-02f, -1.00975316e-02f, 5.33249509e-03f, 1.04866922e-01f, -4.09358799e-01f, 5.58049321e-01f,
    -7.47653935e-03f, -1.01495758e-02f, 2.04659589e-02f, -2.21833698e-02f, 4.84640934e-02f, 3.94809283e-02f, -8.79646186e-03f, -2.93935895e-01f,
    2.28653830e-02f, 7.37390071e-02f, -2.94611719e-03f, 8.80274326e-02f, -3.30525525e-02f, 3.88224870e-01f, -8.91112164e-03f, -8.65152180e-02f,
    -4.26844843e-02f, 1.85348932e-02f, -6.54722810e-01f, -3.34144145e-01f, 3.83056775e-02f, 6.34874821e-01f, 3.79424468e-02f, -2.98236012e-02f,
    1.14106432e-01f, -3.42956297e-02f, 1.12330258e-01f, 1.07086293e-01f, 4.85494100e-02f, 2.87488908e-01f, -7.39391267e-01f, -2.70316228e-02f,
    3.73746067e-01f, -3.00499089e-02f, 1.22328261e-02f, -1.54804096e-01f, 3.28990482e-02f, 1.45522565e-01f, -4.23721373e-02f, 6.39629513e-02f,
    6.73902184e-02f, -1.19194843e-01f, 1.28668646e-04f, 4.34894189e-02f, 2.13289429e-02f, -1.90036282e-01f, -8.04562196e-02f, 2.10364871e-02f,
    1.35856956e-01f, -4.13449667e-02f, 6.75362706e-01f, 3.56385201e-01f, -3.71652171e-02f, -5.12834430e-01f, -1.10440977e-01f, -1.92802325e-02f,
    9.52668488e-02f, 2.10075945e-01f, -3.49139214e-01f, 1.32851586e-01f, 7.94208720e-02f, -6.75988346e-02f, 5.32918796e-02f, 5.24268597e-02f,
    -5.47558488e-03f, 5.33729419e-02f, 2.20756173e-01f, 2.72157431e-01f, 9.29835215e-02f, 4.83167097e-02f, -4.40111011e-01f, 5.52835241e-02f,
    1.96209893e-01f, -3.53406966e-02f, 4.19385638e-03f, 4.96240938e-03f, -2.45110318e-01f, 1.26186684e-02f, -2.23395564e-02f, -2.69695371e-01f,
    6.56340197e-02f, 2.32141707e-02f, -6.38525337e-02f, -8.81805271e-02f, 5.48834503e-01f, -3.39100435e-02f, -5.40119247e-04f, -2.44339466e-01f,
    1.75454114e-02f, -5.83068371e-01f, -3.27404261e-01f, 1.43516004e-01f, -1.21594733e-02f, -8.21738224e-03f, 3.55518349e-02f, 5.21605164e-02f,
    4.98642921e-02f, 2.56696455e-02f, -1.37469038e-01f, 5.27653873e-01f, 9.04411897e-02f, 1.61760107e-01f, 9.30925645e-03f, 2.31347475e-02f,
    1.18826121e-01f, -4.09977585e-01f, -1.38788193e-01f, 8.76183882e-02f, 8.89954716e-02f, -2.14363053e-01f, 1.26780644e-02f, 1.89673505e-03f,
    -1.99586391e-01f, 2.27162261e-02f, -1.70537099e-01f, 3.62395257e-01f, 8.10871869e-02f, 4.01598632e-01f, 1.64739117e-01f, 3.16081792e-02f,
    1.00091435e-01f, 1.51206963e-02f, 5.33187948e-02f, 5.53494506e-02f, -2.65174508e-01f, -4.90345899e-03f, 1.40003366e-02f, 3.68553549e-01f,
    -1.84755668e-01f, 9.23891142e-02f, 2.02747192e-02f, 9.63726826e-03f, -6.20709300e-01f, 1.42077561e-02f, -1.77743658e-02f, 6.83112323e-01f,
    9.71658155e-03f, -3.81816864e-01f, -4.38419163e-01f, 2.48370513e-01f, 2.89293211e-02f, 3.63733470e-01f, 1.51404381e-01f, 1.44227058e-01f,
    4.19818647e-02f, 1.03798844e-01f, 5.24841323e-02f, 7.06911366e-03f, 5.24234213e-02f, -7.36777345e-03f, -1.98936532e-03f, -2.05966854e-03f,
    2.00216435e-02f, 9.92904678e-02f, -1.06228948e-01f, 6.99561387e-02f, -3.30332550e-03f, -1.03845909e-01f, 1.07738696e-01f, 5.60066342e-01f,
    -1.32583901e-01f, -9.05017182e-03f, -7.67972991e-02f, 1.17987983e-01f, -2.18866812e-03f, -6.68440610e-02f, 1.50858639e-02f, -3.09126228e-01f,
    1.94146246e-01f, 8.15819502e-02f, 3.24430376e-01f, 2.16850832e-01f, 5.83403520e-02f, -4.53446686e-01f, -8.36670771e-03f, -2.35548466e-02f,
    3.18611227e-02f, 9.08801779e-02f, -1.39596671e-01f, 2.05508336e-01f, 2.14764133e-01f, 2.95431882e-01f, 5.23618236e-02f, 9.41430703e-02f,
    2.61153191e-01f, 1.30717214e-02f, 3.71365547e-02f, -1.13650821e-01f, -3.46644193e-01f, 5.87458275e-02f, -3.31309647e-03f, -3.03811997e-01f,
    9.35416594e-02f, 3.90068591e-01f, 4.82338443e-02f, 1.02252821e-02f, 6.02940798e-01f, 3.30285798e-03f, -4.48484765e-03f, -2.16877431e-01f,
    1.41475517e-02f, -8.43697339e-02f, -4.76791188e-02f, 6.98459446e-02f, 1.79929230e-02f, -2.03986496e-01f, -5.35597727e-02f, -1.90357561e-04f,
    4.27456051e-02f, 3.22110169e-02f, -1.72532931e-01f, -2.74691675e-02f, 3.79345305e-02f, 6.12992108e-01f, -8.77005234e-02f, 1.21873617e-02f,
    -5.63022077e-01f, -9.93608125e-03f, 7.89796002e-03f, 5.94597459e-01f, -8.45828876e-02f, 1.52524203e-01f, 1.02643490e-01f, 8.93900245e-02f,
    1.26978412e-01f, 1.38668478e-01f, 1.84857976e-02f, -4.46956158e-02f, 1.12353623e-01f, 4.84696291e-02f, 3.98170985e-02f, 7.86183998e-02f,
    2.08742954e-02f, -2.55900711e-01f, -2.75289387e-01f, 6.31948486e-02f, 8.44672993e-02f, 2.78063095e-03f, 4.87438649e-01f, -1.72846019e-01f,
    -3.55748862e-01f, 5.18799052e-02f, 1.03140019e-01f, 1.01193555e-01f, 5.19383773e-02f, -5.66724949e-02f, -3.69795412e-01f, 4.86168526e-02f,
    2.98804641e-02f, -7.12628424e-01f, -3.07565391e-01f, 3.97632681e-02f, 4.28679697e-02f, 1.68636203e-01f, -8.63674581e-02f, -9.98285785e-02f,
    -3.38784158e-01f, -9.10073332e-03f, 1.09092094e-01f, 1.57543018e-01f, 3.47572118e-02f, 5.47477975e-02f, 7.38855779e-01f, 4.44932915e-02f,
    5.89535013e-03f, 5.19674597e-03f, 5.89156002e-02f, 3.46794575e-01f, 8.56904406e-03f, 2.05048230e-02f, -1.32261431e-02f, -9.53255892e-02f,
    5.63264377e-02f, -2.82909065e-01f, -5.72271906e-02f, -2.56320685e-02f, 5.26919425e-01f, -2.24908385e-02f, 4.00747880e-02f, -4.85959709e-01f,
    7.95023590e-02f, -5.77779651e-01f, -3.71377796e-01f, 1.24036171e-01f, 4.80299406e-02f, 3.14350069e-01f, 5.36782324e-01f, -8.51179734e-02f,
    -4.16646868e-01f, -1.56107815e-02f, -2.47366615e-02f, -1.86742455e-01f, 8.20883811e-02f, 1.36632293e-01f, 1.00012012e-01f, 1.01457410e-01f,
    1.54272482e-01f, -6.41005635e-01f, 5.52156344e-02f, 1.98960453e-01f, 1.07606210e-01f, -3.36038470e-02f, 6.28655329e-02f, 1.59191325e-01f,
    1.19797811e-01f, 8.04341286e-02f, 1.04571925e-02f, 7.73892030e-02f, 1.50121599e-01f, 6.87982142e-02f, 6.34067893e-01f, 1.11690179e-01f,
    9.19064693e-03f, 7.82732517e-02f, -3.08717061e-02f, 1.36226505e-01f, 4.27622348e-01f, -5.20500578e-02f, 7.62326941e-02f, -9.03188884e-02f,
    2.97692847e-02f, -2.05667987e-01f, -5.71256131e-02f, -2.45935358e-02f, 2.02080250e-01f, -8.11420530e-02f, 8.78333226e-02f, -3.85320276e-01f,
    3.35637331e-02f, 4.40438122e-01f, -4.27263081e-01f, 1.30744144e-01f, 5.46471700e-02f, 2.89320618e-01f, -4.08567712e-02f, -7.60452002e-02f,
    -1.86242849e-01f, 1.81811657e-02f, 1.24381416e-01f, 6.80283085e-02f, 3.42739224e-02f, 1.61038097e-02f, -5.66118062e-01f, 3.70269222e-03f,
    -6.72902167e-02f, 8.71614665e-02f, -1.37237739e-02f, -7.07772225e-02f, -5.83386533e-02f, 8.13080370e-01f, -1.02711171e-02f, -1.29409894e-01f,
    -1.71067119e-01f, -5.12893721e-02f, -1.31813228e-01f, -3.16369742e-01f, -8.86680931e-02f, -1.60160422e-01f, 1.33017674e-01f, -1.01647310e-01f,
    2.81315129e-02f, -2.65073776e-01f, -8.62343758e-02f, 6.55560270e-02f, 1.43465959e-03f, -1.87132612e-01f, -1.21947557e-01f, -6.69736564e-02f,
    -1.29445061e-01f, 1.50935194e-02f, -3.15200239e-01f, 1.85089648e-01f, 4.89522554e-02f, 9.39187586e-01f, -3.19650114e-01f, -1.03129735e-02f,
    -1.43215567e-01f, -2.67731249e-02f, 6.06066063e-02f, -2.77025253e-01f, 2.84905881e-02f, -1.99511256e-02f, -7.86048248e-02f, 4.00523603e-01f,
    -1.93911880e-01f, -1.05807908e-01f, -9.77055728e-02f, -8.88515040e-02f, 1.33760244e-01f, -2.66635455e-02f, -1.78322394e-03f, 1.74809963e-01f,
    -1.93238750e-01f, 4.52314019e-02f, 5.70711046e-02f, 1.73108488e-01f, -2.73081094e-01f, -1.20604970e-01f, 9.68782827e-02f, -1.41225502e-01f,
    1.49118612e-02f, 8.05127397e-02f, 1.55830339e-01f, 1.06412180e-01f, 1.23602048e-01f, -6.70217723e-02f, 4.38309722e-02f, -3.33741128e-01f,
    1.69003427e-01f, -2.33207762e-01f, -3.05762053e-01f, 1.60252616e-01f, 5.68627045e-02f, 8.11821401e-01f, -3.97015989e-01f, -2.52928827e-02f,
    -7.08019212e-02f, 4.49356798e-04f, 1.49596468e-01f, -2.08062813e-01f, 9.73397121e-02f, -1.15038887e-01f, -2.54729509e-01f, 5.75642437e-02f,
    1.81161419e-01f, 1.50592104e-01f, -4.22976632e-03f, 2.58828074e-01f, 7.94908628e-02f, 8.64559710e-02f, 1.17040053e-01f, -8.72067660e-02f,
    -4.66751754e-01f, 1.81145072e-01f, 2.68393848e-02f, -2.15052143e-01f, 1.22187957e-01f, -1.39512688e-01f, 1.26255900e-01f, 1.20671213e-01f,
    7.93397352e-02f, -1.69736240e-02f, -4.31397021e-01f, 1.45715535e-01f, 5.20458817e-02f, 3.84944558e-01f, 4.81388539e-01f, -9.37177315e-02f,
    -3.71254802e-01f, 2.79145725e-02f, 2.25711122e-01f, -9.10017639e-02f, 3.75682972e-02f, -2.27834359e-01f, -6.19213104e-01f, 5.43135852e-02f,
    9.05774236e-02f, -5.62825322e-01f, -2.17481837e-01f, 9.41106379e-02f, 1.29553840e-01f, 1.36754304e-01f, -3.90749395e-01f, 1.13663912e-01f,
    2.03775689e-01f, 1.04244150e-01f, 2.36871570e-01f, 2.35889405e-01f, 7.45251253e-02f, -1.19182684e-01f, 9.19353217e-02f, 4.22396474e-02f,
    5.35900705e-02f, -4.24180962e-02f, 2.34909728e-01f, 5.93946874e-02f, 7.23958900e-03f, -4.39067811e-01f, -1.43591478e-01f, 1.25097269e-02f,
    1.42773122e-01f, 4.99344766e-02f, -2.83249170e-01f, 6.95165634e-01f, 1.73197389e-02f, 2.50443548e-01f, -2.60383606e-01f, 5.84227592e-03f,
    6.14837669e-02f, 1.64924338e-02f, -4.08101529e-01f, 1.04018688e-01f, 6.62821531e-02f, 4.65263277e-01f, -1.28052860e-01f, 1.36868402e-01f,
    3.30859840e-01f, 9.75661129e-02f, -1.18000545e-01f, 7.33714644e-03f, 7.18876719e-02f, 2.24003956e-01f, -5.34129739e-01f, -9.00302455e-03f,
    6.27965927e-02f, -9.64836553e-02f, -1.21563770e-01f, 3.24236192e-02f, 3.25142704e-02f, 8.69899467e-02f, 3.05949356e-02f, -1.12525662e-02f,
    -5.59767708e-02f, -1.01445578e-02f, 7.95267165e-01f, -3.07391018e-01f, -2.21233163e-02f, -2.54489601e-01f, -7.39812246e-03f, -2.51460951e-02f,
    1.89675242e-01f, 2.76943147e-01f, -8.33770573e-01f, 7.25914687e-02f, 1.13664933e-01f, -1.47795752e-01f, -4.00777757e-02f, 8.82778540e-02f,
    -4.87358868e-02f, 3.74561138e-02f, -2.97546107e-02f, 3.18942145e-02f, 1.49044499e-01f, 5.52714355e-02f, 2.41601259e-01f, 1.57655120e-01f,
    2.92425662e-01f, 5.19620001e-01f, 6.72067881e-01f, 1.82473078e-01f, 7.97736198e-02f, -8.84178579e-02f, -3.05845529e-01f, -1.21713452e-01f,
    -1.78259477e-01f, 3.69970575e-02f, 6.47141114e-02f, -2.11572871e-01f, 9.07780603e-02f, -1.53365955e-01f, 3.44109595e-01f, 1.04395822e-01f,
    1.04587138e-01f, 9.34150890e-02f, -2.89238781e-01f, 1.12332016e-01f, 7.99306575e-03f, -7.72723854e-02f, -8.07691664e-02f, -3.55971372e-03f,
    2.42305901e-02f, 9.15691070e-03f, -1.35410711e-01f, 4.68706220e-01f, 6.60584569e-02f, 3.08228135e-01f, -5.98473668e-01f, -1.67300794e-02f,
    -4.25673872e-02f, -3.05501223e-02f, -3.60626996e-01f, 2.67972976e-01f, 5.39263003e-02f, -1.46952093e-01f, 4.33234051e-02f, 1.43755466e-01f,
    1.91559613e-01f, 1.78430453e-01f, -9.79132727e-02f, -5.90158068e-02f, 9.25882384e-02f, -2.17065159e-02f, 2.22881734e-01f, 1.16386205e-01f,
    4.90387157e-02f, 2.89762586e-01f, 1.89057797e-01f, 1.96097508e-01f, 1.01119958e-01f, -3.68636698e-02f, 1.44571304e-01f, 1.39630660e-01f,
    3.31285059e-01f, 1.27794594e-01f, 8.20716098e-03f, -9.53751430e-03f, 1.15048721e-01f, 7.65877590e-02f, -7.24959373e-01f, 9.26882997e-02f,
    6.58401027e-02f, 3.52715664e-02f, 3.12639438e-02f, 4.64363784e-01f, 4.86388385e-01f, -5.75573975e-03f, 1.65611692e-03f, 1.66128457e-01f,
    -8.30209553e-02f, -2.25982711e-01f, 2.18904484e-02f, 4.87104896e-03f, -6.90952837e-01f, 5.67318387e-02f, 4.36777025e-02f, 1.52582318e-01f,
    3.73080522e-02f, 6.29007578e-01f, -2.79859543e-01f, 7.68172592e-02f, 4.97905388e-02f, 8.52465928e-02f, -5.58468997e-02f, -9.47609991e-02f,
    -1.04481466e-01f, 3.17795202e-02f, -1.22314848e-01f, 1.50926277e-01f, 8.92047286e-02f, 6.94873556e-02f, -5.20690024e-01f, 5.77151552e-02f,
    -3.90340909e-02f, -5.50327897e-01f, 5.81294596e-01f, 2.65935939e-02f, -2.34106779e-02f, -2.59596817e-02f, 1.26517743e-01f, 1.68586269e-01f,
    3.43114257e-01f, 4.13516164e-03f, -1.72096655e-01f, 1.18289843e-01f, 1.72338542e-03f, 3.25449780e-02f, -2.98114508e-01f, 5.52994199e-03f,
    1.46660626e-01f, 3.44082743e-01f, 1.34781197e-01f, 1.22399099e-01f, 5.05598560e-02f, 5.02060987e-02f, -1.15702346e-01f, -1.55675381e-01f,
    -3.31951916e-01f, 4.06928472e-02f, 1.94725111e-01f, 8.54244828e-03f, 9.17249471e-02f, 2.24365368e-01f, -4.39763069e-01f, 7.42844492e-02f,
    -2.14285731e-01f, 3.23473401e-02f, 1.14115760e-01f, 7.50172734e-02f, 5.99809289e-01f, -1.63311418e-02f, -5.89815080e-02f, -1.16539843e-01f,
    -1.16058052e-01f, -1.83331698e-01f, 2.87455507e-02f, 2.12941295e-03f, 2.06594750e-01f, 2.54921522e-02f, 4.36637253e-02f, -3.86461884e-01f,
    7.89734349e-02f, -3.10437262e-01f, -2.45208964e-01f, 8.29603747e-02f, 4.24187817e-02f, 3.86011690e-01f, -2.93653280e-01f, -1.66622236e-01f,
    -3.34069729e-01f, 4.33614338e-03f, 2.45245025e-01f, 7.74588212e-02f, 9.33737308e-02f, 3.50770056e-01f, -3.21101755e-01f, 3.64647224e-03f,
    -2.80260116e-01f, 5.60793541e-02f, 1.02875106e-01f, 3.51597846e-01f, -7.08191320e-02f, -1.33718431e-01f, -2.58807689e-01f, -8.04575756e-02f,
    -6.34568110e-02f, 7.40986466e-01f, -1.57303229e-01f, -1.22489862e-01f, 1.70919225e-02f, -2.32814431e-01f, 3.80306058e-02f, 2.05977987e-02f,
    3.65393795e-02f, 4.32259023e-01f, -3.88385445e-01f, 9.92616266e-02f, 7.32215941e-02f, -1.62007615e-01f, -2.40120385e-02f, 1.08820491e-01f,
    3.24736953e-01f, -2.31550280e-02f, -1.53111413e-01f, 7.70854428e-02f, 4.98427339e-02f, 4.56868894e-02f, -1.25030488e-01f, 6.49431869e-02f,
    1.77226588e-02f, -4.42342818e-01f, 5.15510380e-01f, 2.25489587e-02f, 5.17491857e-03f, 4.10664469e-01f, 1.67302161e-01f, 1.62826348e-02f,
    -4.53639217e-03f, -1.91670377e-02f, 1.20793134e-01f, -2.22260147e-01f, -2.87347543e-03f, -2.65930910e-02f, -4.07954127e-01f, -5.30730225e-02f,
    -5.66133596e-02f, 7.98843727e-02f, 1.04601786e-01f, 2.77673811e-01f, -8.77093673e-02f, -1.79148525e-01f, -2.76537519e-02f, 6.80805519e-02f,
    -1.56740561e-01f, -1.16430009e-02f, 1.03630640e-01f, 3.71419303e-02f, -1.61362335e-01f, -7.17487484e-02f, 3.39493193e-02f, 2.32677817e-01f,
    -1.70450523e-01f, 6.70297891e-02f, 1.32628620e-01f, 3.28357160e-01f, -3.06824744e-01f, -6.27113134e-03f, -1.72722265e-01f, 8.15191045e-02f,
    -7.98198655e-02f, 2.92953253e-01f, -1.21137910e-02f, -9.77003425e-02f, 1.42313540e-01f, -6.25189468e-02f, 5.36631793e-02f, 2.46975552e-02f,
    4.90474813e-02f, -1.64920405e-01f, 1.09987386e-01f, 6.04972728e-02f, 4.75940816e-02f, -2.68241853e-01f, 4.25651252e-01f, 3.96524230e-03f,
    -9.92352739e-02f, 6.52961954e-02f, 1.49005577e-01f, 2.25667462e-01f, 3.04566231e-02f, -2.64843374e-01f, -9.47844051e-03f, 6.96775392e-02f,
    1.46593496e-01f, 2.00506598e-01f, 3.04557770e-01f, 1.55266449e-02f, -5.48963547e-02f, -7.37398565e-02f, -6.49805292e-02f, -8.65136981e-02f,
    -2.38150060e-01f, -2.35013496e-02f, -3.69163714e-02f, -5.69293424e-02f, -1.44989729e-01f, 1.87655985e-01f, 2.42780894e-01f, -7.61550572e-03f,
    2.61942506e-01f, -3.99393514e-02f, -4.03075330e-02f, -1.20184444e-01f, -4.40405190e-01f, 6.72571287e-02f, 8.61625895e-02f, 4.20611314e-02f,
    1.54479980e-01f, 6.22546017e-01f, 1.99269992e-03f, -2.79230364e-02f, -1.45711452e-01f, -4.04521897e-02f, -1.23479096e-02f, 2.20121890e-01f
};

const int features_3_expand1x1_weight_shape[4] = { 64, 16, 1, 1 };
const int features_3_expand1x1_weight_ndim = 4;
const size_t features_3_expand1x1_weight_numel = 1024;
