#include "features_9_expand3x3_weight.h"

__attribute__((aligned(16))) const float features_9_expand3x3_weight[82944] = {
    -1.59186590e-02f, -9.34468769e-03f, -3.42545053e-03f, -2.73886696e-02f, -4.58666794e-02f, -2.55746990e-02f, -1.27059710e-03f, -7.65318284e-03f,
    -1.57464540e-03f, -1.78966206e-02f, 2.01652944e-02f, -3.65270451e-02f, 2.42099166e-03f, 4.53504287e-02f, -1.72978025e-02f, -3.03625539e-02f,
    -1.02017490e-04f, -5.14108837e-02f, -3.27108204e-02f, -4.70067337e-02f, -3.16764265e-02f, -2.49892846e-02f, -4.55779172e-02f, -2.61334758e-02f,
    -3.04144323e-02f, -4.40166630e-02f, -1.67342834e-02f, -2.62622233e-03f, 7.05934465e-02f, 3.13883573e-02f, 4.76649664e-02f, 1.05659157e-01f,
    6.42300099e-02f, 1.62156820e-02f, 6.55859411e-02f, 3.94192301e-02f, -2.24928726e-02f, -1.49769401e-02f, -3.55942771e-02f, -2.49376576e-02f,
    7.27953808e-03f, -3.28712240e-02f, -1.32586509e-02f, -8.22187867e-04f, -2.67661568e-02f, -2.31959559e-02f, 2.60417238e-02f, -8.20906088e-03f,
    -2.12393254e-02f, 4.48623784e-02f, -7.89465290e-03f, -4.59258519e-02f, -1.29667530e-03f, -4.13433537e-02f, -4.77362238e-02f, -2.51889117e-02f,
    -5.84070906e-02f, -3.59303467e-02f, 1.01398639e-02f, -5.85635640e-02f, -6.87092096e-02f, -3.67801785e-02f, -8.48436207e-02f, -9.42297932e-03f,
    -1.34981424e-03f, 1.73699996e-03f, 5.35172829e-03f, -5.26169175e-03f, -5.02208655e-04f, 9.71320318e-04f, 1.22886319e-02f, 9.39516164e-03f,
    -1.77138224e-02f, -1.53786698e-02f, -1.47684729e-02f, 2.91861198e-03f, -2.45522298e-02f, -9.62714758e-03f, -1.02586383e-02f, -1.74301434e-02f,
    -3.01740281e-02f, 2.90636811e-02f, 6.11355230e-02f, 2.77215168e-02f, 7.07329214e-02f, 1.02041431e-01f, 6.82704002e-02f, 1.79340988e-02f,
    6.00567386e-02f, 2.73002908e-02f, -2.78687906e-02f, 9.13618191e-04f, -1.48822805e-02f, -1.66356843e-02f, 4.09775153e-02f, 4.64855833e-03f,
    -3.27791311e-02f, 2.49638781e-03f, -1.67381484e-02f, 3.39312362e-03f, 4.49335715e-03f, -1.38225332e-02f, 2.99755521e-02f, 6.65538535e-02f,
    2.42751613e-02f, 3.99544509e-03f, 1.93535592e-02f, 8.00314452e-03f, -2.98035387e-02f, -1.97757762e-02f, -2.67986804e-02f, -2.78252661e-02f,
    -1.42335976e-02f, -2.41610762e-02f, -2.26369519e-02f, -1.17926672e-02f, -2.02902332e-02f, -4.15986627e-02f, -2.74035502e-02f, -2.27573458e-02f,
    -5.49479909e-02f, -4.44268808e-02f, -5.76929674e-02f, -3.92473862e-02f, -3.83098312e-02f, -4.93921153e-02f, -5.06626181e-02f, -5.45172095e-02f,
    -5.68338074e-02f, -5.56431562e-02f, -5.79488873e-02f, -5.17599359e-02f, -4.33435589e-02f, -6.12464398e-02f, -4.89998348e-02f, -6.95665330e-02f,
    -6.19594157e-02f, -5.70006780e-02f, -4.22111414e-02f, -2.78795715e-02f, -4.09583487e-02f, -1.83718689e-02f, -1.37081863e-02f, -1.67001318e-02f,
    -5.14382776e-03f, -2.81755980e-02f, -3.37408371e-02f, -2.47416049e-02f, -4.82285358e-02f, -5.32798171e-02f, 1.49862692e-02f, -7.56614050e-03f,
    -8.87162145e-03f, 4.98309637e-05f, 2.97945011e-02f, 1.01696663e-02f, 3.86363757e-03f, 5.15582077e-02f, 2.21109716e-03f, -1.10959457e-02f,
    4.38786298e-02f, 1.83117986e-02f, 1.13188932e-02f, 2.73994952e-02f, 5.62692003e-05f, 3.29962485e-02f, 2.20840462e-02f, 9.42052063e-03f,
    3.52027863e-02f, 3.78390364e-02f, 1.69854015e-02f, -3.90648888e-03f, -3.60041037e-02f, -4.09531407e-02f, -2.34030862e-03f, -1.15340622e-02f,
    -3.16487439e-02f, -8.78508016e-03f, -2.41555125e-02f, -3.70500311e-02f, -1.80403516e-02f, 1.69289429e-02f, -1.55141708e-02f, 4.89136949e-03f,
    1.67796444e-02f, -1.02764210e-02f, 1.08424602e-02f, 3.78901325e-02f, -2.17463672e-02f, -3.86221684e-03f, -6.91471761e-03f, -6.06523780e-03f,
    -2.67010797e-02f, -4.46585678e-02f, -2.95557007e-02f, -1.68566629e-02f, -3.13631110e-02f, -1.34686716e-02f, -2.21195966e-02f, -8.69433396e-03f,
    -1.10477209e-02f, -2.44482025e-03f, 1.29579278e-02f, 1.69493761e-02f, -2.15499522e-03f, 6.66454621e-03f, 1.53635610e-02f, -4.41943295e-02f,
    -3.11428569e-02f, -3.59669663e-02f, -3.97631414e-02f, -4.01472598e-02f, -4.66167666e-02f, -5.68721117e-03f, 7.14274542e-03f, -4.67658788e-03f,
    1.54367415e-02f, 1.89588536e-02f, 1.44090950e-02f, 5.28414734e-02f, 5.30810058e-02f, 5.09088784e-02f, 2.93496363e-02f, 3.99708226e-02f,
    3.59440185e-02f, -3.10435961e-03f, -5.44993300e-03f, -1.26546035e-02f, -1.47596616e-02f, 3.25014582e-03f, -1.06520616e-02f, 6.39029453e-03f,
    2.17961092e-02f, 1.22910682e-02f, 2.85199583e-02f, 4.94413935e-02f, 1.59780495e-02f, 1.98356677e-02f, 4.42393646e-02f, 6.84411079e-03f,
    -6.47447538e-03f, 2.23374292e-02f, -1.11180387e-04f, -1.90948434e-02f, -8.03253148e-03f, 9.09766532e-04f, -1.53097175e-02f, -1.94174480e-02f,
    -1.79681964e-02f, 1.64459851e-02f, 1.03746857e-02f, 1.45578468e-02f, -1.55562041e-02f, -2.60337424e-02f, -2.12335438e-02f, -3.35982330e-02f,
    -5.87459691e-02f, -4.03086990e-02f, -2.17454229e-02f, -4.28782739e-02f, -2.53177229e-02f, -3.85278985e-02f, -3.58720906e-02f, -2.65404060e-02f,
    -4.25894447e-02f, -3.94543782e-02f, -3.25024538e-02f, -4.41808514e-02f, -5.05739003e-02f, -4.33226861e-02f, 2.11233981e-02f, -2.79979024e-04f,
    5.20863710e-03f, 1.38367224e-03f, -3.33886594e-02f, -2.19828659e-03f, -3.05859139e-03f, -3.30118313e-02f, -1.34626580e-02f, -8.87985993e-03f,
    3.74980383e-02f, 4.88804607e-03f, 2.71549728e-02f, 8.29070285e-02f, 3.54221798e-02f, 5.22781583e-03f, 4.54602875e-02f, 1.71995666e-02f,
    3.38369831e-02f, 2.32628342e-02f, 3.11700534e-03f, 3.56695950e-02f, 3.97677422e-02f, 1.31866857e-02f, -8.04172712e-04f, -2.47306610e-03f,
    -1.06721995e-02f, -9.09087900e-03f, -2.49921717e-02f, 1.49771909e-03f, -1.71680078e-02f, -3.18921767e-02f, -3.40088047e-02f, -2.15775929e-02f,
    -2.77491510e-02f, -2.34257709e-02f, -7.51059782e-03f, 8.75494094e-04f, -7.08268490e-03f, -9.35566984e-03f, -3.46905412e-03f, -1.68277808e-02f,
    -4.00616135e-03f, -1.20924562e-02f, -7.80321844e-03f, 1.85457859e-02f, 5.75826503e-02f, 1.88876167e-02f, 3.25912721e-02f, 1.04358420e-01f,
    4.01696414e-02f, 9.89576150e-03f, 4.13298607e-02f, -3.48224607e-03f, -1.32531310e-02f, -1.19383307e-02f, -2.14289594e-02f, 5.45253186e-03f,
    2.59568710e-02f, 1.75736216e-03f, -2.18000486e-02f, -5.69457561e-03f, -2.43953876e-02f, 3.75387743e-02f, 5.80922924e-02f, 3.06093376e-02f,
    4.47468795e-02f, 4.68638502e-02f, 3.73849124e-02f, 2.19734292e-02f, 4.28331345e-02f, 2.04793643e-02f, -3.36685330e-02f, 1.09163700e-02f,
    5.02138631e-03f, -1.74659453e-02f, 3.60496975e-02f, 1.38443280e-02f, -2.08814908e-02f, 1.90195106e-02f, -1.85856819e-02f, 1.54568963e-02f,
    2.08647847e-02f, 2.55157668e-02f, 2.15459764e-02f, 1.14592602e-02f, 2.88139749e-02f, 2.60973927e-02f, 3.36998962e-02f, 4.41617370e-02f,
    -2.31629480e-02f, -1.00457342e-02f, -9.80131608e-03f, -1.87914539e-02f, -1.54813668e-02f, -3.28289159e-02f, -4.40075621e-02f, -5.91964647e-02f,
    -6.54521361e-02f, -1.08693233e-02f, 2.94136386e-02f, 4.06840583e-03f, 1.49987899e-02f, 6.19901158e-02f, 2.22649593e-02f, -8.34789686e-03f,
    2.76363958e-02f, -5.37882419e-03f, -5.25874048e-02f, -1.46307675e-02f, 2.07074974e-02f, -4.38381433e-02f, -2.64001098e-02f, 7.40436232e-03f,
    -1.89410765e-02f, -4.40956978e-03f, 3.42364386e-02f, -1.03057753e-02f, -1.37292501e-02f, -2.70656608e-02f, -1.25412783e-02f, 7.84357253e-04f,
    -3.95506509e-02f, -9.75693204e-03f, -8.70549493e-03f, -4.75156866e-02f, 8.24417686e-04f, -2.28334200e-02f, -5.77442460e-02f, -1.41682513e-02f,
    -2.29144339e-02f, -5.85578531e-02f, -2.10346654e-03f, -1.62325855e-02f, -3.91439609e-02f, 4.83415015e-02f, 3.85134593e-02f, 3.74013633e-02f,
    8.73887092e-02f, 8.83519575e-02f, 7.56765455e-02f, 5.92323542e-02f, 5.18390089e-02f, 4.86783944e-02f, -1.38306199e-02f, 8.38934258e-03f,
    3.02572642e-03f, 1.77193265e-02f, 1.93880163e-02f, 2.00839620e-02f, -2.74144188e-02f, -8.92881583e-03f, -2.27304399e-02f, -4.56639975e-02f,
    -8.78517050e-03f, -3.65066491e-02f, -2.99808700e-02f, 1.28068468e-02f, -1.17686940e-02f, -3.76632437e-02f, -1.50981331e-02f, -2.17900928e-02f,
    -6.98677090e-04f, 7.34254776e-04f, -2.12274899e-04f, 1.56491747e-04f, 1.25811738e-03f, 3.78252327e-04f, 1.70488795e-03f, 1.26952305e-03f,
    1.15908566e-03f, 1.49457343e-03f, 1.76462845e-03f, 1.47253857e-03f, 2.01312033e-03f, 2.66108126e-03f, 2.35590525e-03f, 2.20425543e-03f,
    4.16426267e-03f, 2.81896489e-03f, -2.36010272e-03f, -1.89942983e-03f, -8.98980012e-04f, -1.90144510e-03f, -1.73358398e-03f, -2.54974491e-03f,
    3.81922669e-04f, -6.73668867e-04f, -7.38077099e-04f, -3.30720097e-03f, -3.92854679e-03f, -3.98786226e-03f, -1.74131838e-03f, -3.15368851e-03f,
    -3.28727509e-03f, -1.97749445e-03f, -1.52496726e-03f, -2.88157188e-03f, 2.43403207e-04f, 4.41548123e-04f, 9.77419550e-04f, -8.10777303e-04f,
    -9.98884207e-04f, -8.45440372e-04f, -8.88452167e-04f, -2.98308930e-03f, -2.56958231e-03f, 3.26408539e-04f, -2.83403409e-04f, 1.08721992e-03f,
    2.22687842e-03f, 1.00954133e-03f, 2.04308121e-03f, -3.39057762e-04f, -2.02868204e-03f, -5.59456996e-04f, -1.80037401e-04f, -4.70814528e-04f,
    7.86108547e-04f, -2.42405874e-03f, -3.56872170e-03f, -2.14349548e-03f, -2.49223900e-03f, -4.23270930e-03f, -2.99800024e-03f, 2.30136025e-03f,
    5.03134681e-04f, 1.57982542e-03f, 1.37797429e-03f, -1.85662590e-03f, 4.86315170e-04f, 1.32725679e-03f, -5.98361250e-04f, 1.49144407e-03f,
    2.02521478e-04f, -2.28518911e-04f, -1.36881601e-03f, 2.05247896e-03f, 2.44975020e-03f, 1.25041790e-03f, 9.83110396e-04f, 2.06701155e-03f,
    7.63780554e-04f, 1.89001171e-03f, 1.53135785e-04f, 1.53088989e-03f, 1.95564702e-03f, -5.38933498e-04f, 3.77785909e-04f, 1.89972855e-03f,
    1.27888017e-03f, 1.06428226e-03f, -6.75071555e-04f, -8.30243924e-04f, -1.14069371e-04f, -2.23957959e-05f, 6.85810228e-04f, -2.76098057e-04f,
    5.87960298e-04f, 2.06989134e-04f, -6.76320808e-04f, 3.13306972e-03f, 2.80387839e-03f, 2.24642269e-03f, 1.43187412e-03f, -5.93225413e-05f,
    1.17476832e-03f, -1.06098677e-03f, -3.40125733e-03f, -2.32993811e-03f, 8.39966582e-04f, 8.03036615e-04f, 2.06052163e-03f, 4.57390473e-04f,
    -6.15522440e-05f, 1.01723394e-03f, 1.24485139e-03f, 1.02051359e-03f, 2.02114182e-03f, -1.36986014e-03f, -2.47391942e-03f, -2.62019807e-03f,
    -3.69558897e-04f, 1.06367317e-03f, -1.21369863e-04f, 8.07023549e-04f, 1.72441243e-03f, 2.00122013e-03f, 3.00866872e-04f, -1.47636907e-04f,
    9.91706038e-05f, -2.63093016e-03f, -1.68912055e-03f, -1.60858256e-03f, -6.97020267e-04f, -1.65837735e-03f, -1.67738157e-03f, -7.33643828e-04f,
    -5.76660444e-04f, -1.34072697e-03f, -6.07169757e-04f, -2.01478228e-03f, -2.22809543e-03f, -2.26446544e-03f, -4.96774912e-03f, -3.67576838e-03f,
    3.55150849e-02f, 6.46967962e-02f, 9.75088626e-02f, -5.24934195e-02f, -7.59305665e-03f, 5.45731373e-02f, -1.03510767e-02f, 1.74203962e-02f,
    2.93037947e-02f, -7.15169013e-02f, -1.58925876e-02f, -5.13539538e-02f, -2.37908866e-02f, 6.53525144e-02f, -2.36879699e-02f, -2.50069406e-02f,
    4.22825925e-02f, -1.24625023e-02f, 5.72835431e-02f, 7.29301348e-02f, 8.01530406e-02f, 5.67577891e-02f, 3.14220935e-02f, 7.99836591e-02f,
    1.49467218e-04f, -3.06064207e-02f, -1.37923257e-02f, 9.32799354e-02f, 9.38578695e-03f, 4.02657911e-02f, -3.57686495e-03f, -6.28340915e-02f,
    3.76156205e-03f, 1.63442660e-02f, 2.04713959e-02f, 3.08338385e-02f, 8.03033113e-02f, -1.50796426e-02f, -8.44964385e-03f, 3.34773548e-02f,
    -1.28998145e-01f, -5.14181592e-02f, 1.39903659e-02f, 2.17390875e-03f, 5.34994490e-02f, 4.17893892e-03f, -3.88891287e-02f, -4.67294222e-03f,
    -5.30154957e-03f, -3.64333838e-02f, -6.88580936e-03f, 3.43782157e-02f, 4.93001230e-02f, 1.22698341e-02f, -7.86701567e-04f, -4.17279126e-03f,
    -1.20354595e-03f, -3.34184826e-03f, 8.83251056e-02f, 2.64375955e-02f, -1.59252565e-02f, 2.30715387e-02f, -1.05145024e-04f, 3.03463638e-02f,
    2.85111479e-02f, 3.93879004e-02f, 3.97364749e-03f, -7.79842166e-03f, 5.40566631e-03f, 2.09741369e-02f, 5.15259802e-02f, 2.29186993e-02f,
    3.64386775e-02f, 2.92795449e-02f, 3.86939049e-02f, -2.61422191e-02f, -7.30675533e-02f, -2.80895457e-02f, -4.01726589e-02f, -5.90287149e-02f,
    -1.53844710e-02f, -1.94873773e-02f, 8.77988897e-03f, -2.24050768e-02f, -3.67784165e-02f, 3.21046151e-02f, -5.48617914e-02f, -2.86437571e-02f,
    -3.61131094e-02f, -3.02035697e-02f, 6.23158514e-02f, -1.83189139e-02f, 1.90184526e-02f, 4.37114388e-02f, 3.49787809e-02f, 4.23863269e-02f,
    -1.00078015e-02f, 8.28653015e-03f, 4.38524671e-02f, 1.25535345e-02f, -3.43549997e-02f, 1.86445878e-03f, -4.07826854e-03f, -1.04067445e-01f,
    -1.92641504e-02f, 5.44111505e-02f, 8.84745196e-02f, 5.26029468e-02f, 2.55926121e-02f, -1.63313206e-02f, 1.25683118e-02f, 3.83748789e-03f,
    3.93679217e-02f, -3.10431719e-02f, -6.38138652e-02f, -9.91022661e-02f, -7.65432566e-02f, -5.92396073e-02f, -4.78459671e-02f, -4.94783148e-02f,
    -8.23817682e-03f, -2.70483848e-02f, 2.92253606e-02f, -3.41179268e-03f, -9.21027828e-03f, 7.84609059e-04f, 7.69247413e-02f, -5.25918528e-02f,
    3.12232673e-02f, 2.14044955e-02f, -1.41793489e-01f, -3.30249034e-02f, 1.24494724e-01f, 1.28907310e-02f, 4.60934639e-02f, 3.86113301e-02f,
    9.67122242e-02f, 3.47802378e-02f, 9.33879763e-02f, 1.01122238e-01f, 7.44204745e-02f, 1.72047168e-02f, 3.67571823e-02f, 3.21880281e-02f,
    -1.16669953e-01f, -1.00598998e-01f, -8.70285183e-02f, -1.37369320e-01f, -6.25934005e-02f, -1.07041225e-01f, -6.52021319e-02f, -7.39646778e-02f,
    -8.53726566e-02f, 3.63652818e-02f, -1.68544669e-02f, -2.62930077e-02f, 4.53036726e-02f, -7.44760735e-03f, -6.27850443e-02f, 7.11164325e-02f,
    3.30408923e-02f, -1.18961632e-02f, 2.40006763e-02f, -6.71502203e-02f, 7.35655893e-03f, 4.20439336e-03f, -7.43735358e-02f, -3.21621671e-02f,
    -3.84406149e-02f, -1.24069162e-01f, -3.15048620e-02f, 5.77108413e-02f, -3.06696519e-02f, 3.53000462e-02f, 7.35310387e-05f, -4.80209589e-02f,
    2.40344312e-02f, 6.91941604e-02f, 1.32253096e-02f, 5.70841394e-02f, -6.35580495e-02f, -6.31986931e-02f, -6.42597973e-02f, -3.53040211e-02f,
    1.51624391e-02f, -4.25842181e-02f, -8.76350179e-02f, -1.01686485e-01f, -9.11066607e-02f, 9.39597189e-02f, 7.85322711e-02f, 8.59547108e-02f,
    8.49559158e-02f, 2.63575222e-02f, 8.64286795e-02f, 2.47808229e-02f, 4.12933715e-02f, 3.19976583e-02f, -1.60212964e-02f, -1.32757230e-02f,
    4.95685786e-02f, -2.51962300e-02f, -6.60768300e-02f, 2.84887627e-02f, 2.10425220e-02f, 6.29253313e-02f, 5.34654269e-03f, -4.58402596e-02f,
    -5.18447533e-02f, 7.19529688e-02f, -7.61195868e-02f, -1.03153363e-01f, 4.32446413e-02f, 1.03632780e-02f, -1.49920033e-02f, 3.41339111e-02f,
    8.64068605e-03f, -1.82248484e-02f, 3.01698670e-02f, -4.11017314e-02f, -4.42108400e-02f, 3.37153301e-03f, 2.05136854e-02f, 2.31415015e-02f,
    4.11110036e-02f, -4.17358242e-02f, -1.73633117e-02f, -1.18245883e-02f, 1.00579355e-02f, 2.25322377e-02f, 2.68693175e-02f, 1.74766909e-02f,
    4.96925339e-02f, 2.46575400e-02f, 9.05762091e-02f, 5.58097735e-02f, 1.48501974e-02f, 6.29306436e-02f, -2.09876318e-02f, -5.26678823e-02f,
    2.00322177e-02f, -4.27358830e-03f, 3.57288532e-02f, 1.58947781e-02f, 4.86255400e-02f, 1.15588838e-02f, -5.56468517e-02f, -4.58762497e-02f,
    -7.86568075e-02f, -2.90461369e-02f, -2.69250106e-02f, -4.23995927e-02f, 7.35161593e-03f, 4.50075939e-02f, 7.09440783e-02f, -2.15815324e-02f,
    -2.14692373e-02f, 1.45388450e-02f, 5.60428724e-02f, -2.44491585e-02f, -1.75724924e-02f, -3.44147459e-02f, -4.76136170e-02f, 1.32707402e-03f,
    -1.91958230e-02f, -1.60967819e-02f, -2.60567348e-02f, -3.26811187e-02f, -6.47982880e-02f, -5.84263317e-02f, 3.96400057e-02f, 2.08340939e-02f,
    4.74815257e-02f, -1.78573057e-02f, -1.24255113e-01f, -1.19567532e-02f, 6.38332516e-02f, 2.71329824e-02f, 7.23014772e-02f, 1.17471255e-02f,
    -1.60747785e-02f, 3.89147643e-03f, -6.59374818e-02f, -1.00467391e-01f, -7.92790726e-02f, -1.88084692e-02f, -2.89384567e-04f, -4.10999637e-03f,
    3.45803611e-03f, 3.45609826e-03f, 2.51306477e-03f, 1.95862702e-03f, 1.45168672e-03f, 1.95312593e-03f, 7.84337230e-04f, 5.44195937e-05f,
    1.21614110e-04f, -2.09177402e-03f, -1.59301737e-03f, -2.44978978e-03f, -1.65607373e-03f, -7.62295851e-04f, -1.13694614e-03f, -1.84475037e-03f,
    -9.44332220e-04f, -7.45468598e-04f, 2.22791731e-03f, 2.93924147e-03f, 2.41506030e-03f, -4.44933918e-04f, -1.64932921e-03f, -3.77371092e-04f,
    -1.11431011e-03f, -2.18686322e-03f, -1.59916398e-03f, -2.92927842e-03f, -2.59125815e-03f, -2.91559333e-03f, -2.14403030e-03f, -1.57237670e-03f,
    -2.02803197e-03f, -1.14291557e-03f, -9.13941825e-04f, -2.69254844e-04f, 1.39792671e-03f, 1.25765428e-03f, -1.89270810e-04f, -7.20329408e-05f,
    -4.18570853e-04f, -1.24591973e-03f, 8.78437189e-04f, 1.64915668e-03f, 8.74032907e-04f, -2.40904326e-03f, -2.05655047e-03f, -1.11962506e-03f,
    7.05744824e-05f, 8.64814909e-04f, 1.02255202e-04f, 8.14573723e-04f, 5.28556004e-04f, 3.70195950e-04f, -6.73627306e-04f, -9.93006746e-04f,
    -9.31931136e-04f, -1.14042696e-03f, -1.25578546e-03f, -1.74370466e-03f, 2.66362185e-04f, 4.17618226e-04f, -4.94751032e-04f, 1.05185935e-03f,
    6.80171797e-05f, 1.04194775e-03f, 1.27351319e-03f, 2.15355787e-04f, 9.36910918e-04f, 2.25554523e-03f, 9.65421088e-04f, 1.80111721e-03f,
    -1.77698123e-04f, -1.21690508e-03f, -7.42713804e-04f, 1.27480680e-03f, 2.88457697e-04f, 1.61638530e-03f, -9.87858395e-04f, -2.49212678e-03f,
    -1.95092754e-03f, -1.08074746e-03f, -7.34930451e-04f, -1.27632346e-03f, -4.61346615e-04f, 1.44833481e-04f, -1.04856037e-03f, 1.01016636e-03f,
    7.69613311e-04f, 8.66523071e-04f, -1.27600937e-03f, -3.27843096e-04f, -6.64861349e-04f, -1.23488484e-03f, -4.01621655e-04f, 9.76267474e-05f,
    -1.33684790e-03f, -2.97697436e-04f, -9.18651713e-05f, 6.34707685e-04f, 6.19712868e-04f, 8.17677763e-04f, 1.84729579e-03f, 8.43897113e-04f,
    2.10486265e-04f, 2.26396299e-03f, 2.70649907e-03f, 1.39723392e-03f, 3.98444943e-03f, 3.76710179e-03f, 3.01146624e-03f, 1.72973506e-03f,
    1.03002915e-03f, 9.90569941e-04f, 1.84496550e-03f, 9.08596499e-04f, 1.75107364e-03f, 1.74944766e-03f, -1.20522280e-04f, 8.80343781e-04f,
    2.12124456e-03f, -1.83689976e-04f, 5.86967275e-04f, 1.83829234e-03f, 8.58247688e-04f, 7.62789219e-04f, 2.08034529e-03f, 1.13999774e-03f,
    -7.42045595e-05f, 1.33225508e-03f, -1.69529085e-04f, 3.85220221e-04f, 3.16792488e-04f, 4.53546760e-04f, 9.21113678e-05f, -2.64237518e-03f,
    -1.23323582e-03f, -1.74143084e-03f, -4.32737579e-04f, 1.62768248e-03f, -6.08186820e-04f, -3.40402446e-04f, -3.71437782e-05f, -1.45836384e-03f,
    -1.50317438e-02f, -5.52022234e-02f, -3.65710892e-02f, -1.15552573e-02f, -5.98897226e-02f, -3.49222980e-02f, 1.18128741e-02f, -6.00970089e-02f,
    -2.87997890e-02f, 4.83831875e-02f, 5.31593598e-02f, 6.50849566e-02f, 1.09436614e-02f, 2.38587558e-02f, 5.77379055e-02f, 7.19954595e-02f,
    7.78363198e-02f, 1.15590058e-01f, 3.95246409e-02f, 1.50148151e-02f, 3.49370241e-02f, 7.11904764e-02f, 5.56816086e-02f, 7.70003796e-02f,
    9.21388194e-02f, 4.02216315e-02f, 7.59367943e-02f, 3.14464271e-02f, 9.55533795e-03f, 1.54120391e-02f, -1.47069266e-04f, 7.34524801e-03f,
    3.15053836e-02f, -3.28886770e-02f, -3.88957784e-02f, 2.14626174e-02f, -1.15098674e-02f, -4.72818427e-02f, 4.67811748e-02f, 1.37684084e-02f,
    -5.49375936e-02f, 2.14309618e-03f, 3.78658772e-02f, 1.99045264e-03f, 4.04016636e-02f, -3.82574797e-02f, -4.83565368e-02f, -3.60449627e-02f,
    -2.35217367e-03f, -3.43791619e-02f, -4.85893543e-04f, 1.03433309e-02f, -5.73795922e-02f, -2.65545882e-02f, -2.80419067e-02f, -4.66364846e-02f,
    -3.75267901e-02f, -6.09425409e-03f, -5.19925132e-02f, -1.86363570e-02f, 1.56496260e-02f, -7.79535994e-03f, -1.34174125e-02f, -3.79414894e-02f,
    -3.62584218e-02f, -2.86538694e-02f, -1.04390830e-02f, 2.40928810e-02f, 1.32810827e-02f, -3.65241766e-02f, -1.26800174e-02f, -2.05317903e-02f,
    1.61270481e-02f, -2.96461508e-02f, -6.41517062e-03f, 3.27847451e-02f, -5.22084832e-02f, 3.03788140e-04f, 3.34190540e-02f, 1.07361190e-02f,
    3.49308513e-02f, 3.27610858e-02f, 2.67465152e-02f, 1.54166613e-02f, 7.11249486e-02f, 1.25486329e-01f, 3.22085544e-02f, 3.45064923e-02f,
    1.21912174e-02f, 4.25276421e-02f, 5.61207756e-02f, 3.27698886e-02f, 4.07689065e-02f, 6.73694238e-02f, 3.53901535e-02f, 4.19574417e-02f,
    8.17295983e-02f, 4.90985289e-02f, 6.94711432e-02f, 1.05037903e-02f, 8.83094314e-03f, 2.68652122e-02f, 2.53065489e-02f, 3.63162532e-02f,
    5.52620217e-02f, 4.06171679e-02f, 2.16310844e-02f, 5.66404201e-02f, 2.47202255e-03f, 3.76169607e-02f, -1.18352659e-02f, -1.23557644e-02f,
    4.46183234e-02f, -6.65517710e-03f, -1.24365482e-02f, -1.11819468e-02f, 5.89426374e-03f, -6.12175465e-02f, -3.41194235e-02f, -4.53652330e-02f,
    -3.25833261e-02f, -1.29517131e-02f, -2.45408993e-02f, -8.85065049e-02f, -5.05504608e-02f, -5.21301068e-02f, 4.03122306e-02f, -4.83216234e-02f,
    -2.44983118e-02f, 6.64059147e-02f, -6.52774647e-02f, -1.08300103e-02f, 4.92187217e-02f, -2.95717288e-02f, -1.97033808e-02f, 4.53901989e-03f,
    -4.93478205e-04f, 3.60770663e-03f, 1.57437362e-02f, -4.47915345e-02f, 1.11201499e-02f, 2.26719249e-02f, 2.06719581e-02f, 1.06098251e-02f,
    3.69914472e-02f, 1.51063437e-02f, 4.46318649e-02f, 5.12024835e-02f, -1.97588094e-02f, 3.38880420e-02f, 6.79353550e-02f, 1.14065502e-02f,
    4.12492864e-02f, 2.02797707e-02f, 7.77126802e-03f, 2.59785308e-03f, -1.25657888e-02f, -5.62947383e-03f, -1.29826982e-02f, -2.58617979e-02f,
    -1.58518068e-02f, -2.53880247e-02f, -1.47365946e-02f, -3.46795805e-02f, -1.20434556e-02f, -1.57005116e-02f, -3.20834406e-02f, -1.99921746e-02f,
    -2.85772514e-02f, -5.70452809e-02f, -3.87427062e-02f, -2.60638017e-02f, -1.14556472e-03f, 1.29331229e-02f, -2.44219247e-02f, -2.04515811e-02f,
    -4.47991043e-02f, -1.02384062e-02f, 1.26614301e-02f, -3.22675072e-02f, 3.06740310e-02f, 4.44867089e-02f, 1.30988313e-02f, 2.10911836e-02f,
    7.26167858e-03f, 5.63926483e-03f, -7.37805339e-03f, -7.32268579e-03f, -1.71482936e-02f, -6.23537600e-03f, -3.21557820e-02f, -1.65968593e-02f,
    -2.57315021e-03f, -3.03979665e-02f, -6.31695706e-03f, -2.79221963e-02f, -2.73685772e-02f, -1.14627182e-02f, 4.76880632e-02f, 2.00735405e-02f,
    -1.85307791e-03f, 3.72213386e-02f, 5.85994730e-03f, 4.39792499e-03f, 8.05677772e-02f, 5.48795238e-02f, 9.22827888e-03f, -5.79692610e-02f,
    -9.41187218e-02f, -7.04288334e-02f, -5.10444343e-02f, -7.36436769e-02f, -3.54112089e-02f, -3.85727063e-02f, -7.75899440e-02f, -6.69213682e-02f,
    -2.40842625e-02f, -3.19583528e-03f, 9.45198815e-03f, -3.97468843e-02f, 1.94087196e-02f, -3.93524673e-03f, -4.88279127e-02f, 8.67931521e-04f,
    -1.22373765e-02f, 4.49301582e-03f, -2.68283915e-02f, 4.95128427e-03f, -8.42000730e-03f, -3.25627089e-03f, 8.07742355e-04f, -3.44960624e-03f,
    2.90555004e-02f, 4.89115424e-04f, -4.73271236e-02f, -5.13135456e-02f, -7.32369050e-02f, 3.89717370e-02f, -9.33666620e-03f, -6.14050329e-02f,
    2.65751760e-02f, 1.83233768e-02f, 1.60880631e-03f, -5.97566646e-03f, 1.93484612e-02f, 1.72107723e-02f, 1.33690611e-02f, 7.48870820e-02f,
    5.86792501e-03f, 5.40157743e-02f, 6.04988039e-02f, 3.30458172e-02f, -3.63155417e-02f, -3.76227833e-02f, -3.09631582e-02f, -3.97245437e-02f,
    2.47824052e-03f, 3.25199999e-02f, 1.86061282e-02f, -1.68603305e-02f, 4.04468440e-02f, -1.05321661e-01f, -8.94656777e-02f, -9.61443931e-02f,
    -1.23323359e-01f, -8.58200118e-02f, -1.21562757e-01f, -1.23618603e-01f, -9.18333754e-02f, -1.21055208e-01f, 1.66555052e-03f, -3.92652974e-02f,
    -9.31004621e-03f, -3.47185954e-02f, -4.32614423e-02f, 2.31980011e-02f, -1.69630609e-02f, -2.34441813e-02f, 2.93984618e-02f, -3.52595672e-02f,
    -6.45258799e-02f, -5.19065037e-02f, -1.96424313e-02f, -7.60506699e-03f, -5.12404833e-04f, -4.19253930e-02f, -3.78963836e-02f, -1.33376727e-02f,
    1.19711552e-03f, 6.45558524e-04f, 1.12347386e-03f, 1.71436823e-03f, 6.77867152e-04f, 6.63730199e-04f, 1.42430526e-03f, -4.93109510e-05f,
    -1.82562959e-04f, -9.15975252e-04f, -1.38378295e-03f, -2.05380423e-03f, -1.37379894e-03f, -2.65909417e-04f, -7.32946559e-04f, -8.58016603e-04f,
    -6.12300937e-04f, -5.16471104e-04f, 9.66217427e-04f, -5.02519193e-04f, -2.90045515e-04f, 5.09668142e-04f, -4.25227452e-04f, -3.79998906e-04f,
    9.27351532e-04f, 5.16906512e-05f, -5.02749812e-04f, 2.78523425e-03f, 5.53152116e-04f, 6.67485583e-04f, 2.15720758e-03f, 5.84427726e-05f,
    7.28309213e-04f, 2.29913113e-03f, 1.08390674e-03f, 1.73520262e-03f, -1.67202496e-03f, -3.00498423e-03f, -1.65128673e-03f, -1.35436771e-03f,
    -3.14744492e-03f, -1.58653641e-03f, -1.38083543e-03f, -2.90036178e-03f, -2.90199067e-03f, 5.59774984e-04f, 9.87152685e-04f, 1.01214508e-03f,
    7.83518131e-04f, 1.46283687e-03f, 1.09946239e-03f, -7.55666988e-05f, 3.55410913e-04f, 2.08871759e-04f, 3.71606578e-03f, 1.57848408e-03f,
    2.39708950e-03f, 2.16569635e-03f, -1.02680689e-03f, 1.28877070e-03f, 1.59964280e-03f, -1.37650047e-03f, -6.11056748e-04f, 3.21501493e-03f,
    1.02240546e-03f, 1.36962207e-03f, 3.40751745e-03f, 8.21688503e-04f, 7.73577718e-04f, 2.93004885e-03f, 2.60803849e-04f, 4.05627477e-04f,
    1.37854880e-03f, 3.14924614e-06f, -4.30743938e-04f, 2.04390544e-03f, 9.21380590e-04f, 2.77827145e-04f, 1.79162144e-03f, -1.37706656e-05f,
    -1.20375029e-04f, -8.84310866e-04f, -1.41326498e-04f, -1.50705175e-03f, -1.22727780e-03f, 2.24046307e-04f, -1.58752257e-03f, -1.97145250e-03f,
    -1.44167175e-03f, -1.73641043e-03f, -2.74258899e-04f, -3.06925212e-04f, 2.55346793e-04f, -5.81256696e-04f, -4.41852550e-04f, -1.15399098e-03f,
    -6.38577854e-04f, -6.24933280e-04f, -2.02783314e-03f, 1.55066271e-04f, -3.64630390e-03f, -1.82245276e-03f, 1.24909810e-03f, -3.19496752e-03f,
    -6.03735796e-04f, 1.95051881e-03f, -1.02171476e-03f, 7.51369109e-04f, -2.66526942e-03f, -1.38323125e-03f, -2.13953224e-03f, -3.00034741e-03f,
    -7.45076919e-04f, -2.69427616e-03f, -3.59520665e-03f, -1.99911767e-03f, -3.21421935e-03f, 1.72909247e-04f, 9.93985566e-04f, -2.36362510e-04f,
    9.86630563e-04f, 1.60362769e-03f, -4.31861175e-04f, 7.58936396e-04f, 1.19716965e-03f, -6.60415040e-04f, 4.51309723e-04f, 8.16865126e-04f,
    -3.92486429e-04f, 6.12188363e-04f, 9.96235176e-04f, -1.84603021e-04f, 1.70003797e-03f, 1.32274046e-03f, 6.26852488e-05f, 2.75499048e-03f,
    2.21285550e-03f, 3.45891551e-03f, 1.92308018e-03f, 1.90668064e-03f, 3.38730752e-03f, 1.86095957e-03f, 1.59680622e-03f, 2.69044144e-03f,
    -3.25823128e-02f, -7.80351907e-02f, -5.94185218e-02f, -3.08129266e-02f, -2.86605246e-02f, -3.11550405e-02f, -9.29659382e-02f, -5.32745495e-02f,
    -9.16870963e-03f, -3.02141421e-02f, -3.24302688e-02f, -1.81486588e-02f, -1.08231325e-02f, 7.46957585e-03f, 7.82142859e-03f, 7.98972324e-03f,
    2.25093719e-02f, 2.31287777e-02f, -2.69936100e-02f, 1.81900803e-03f, 7.84914155e-05f, -3.95098738e-02f, 4.10188101e-02f, -8.40581208e-03f,
    -4.26227599e-02f, -1.86395738e-02f, -5.17333113e-03f, 1.16899544e-02f, 4.32505682e-02f, 1.60331577e-02f, 1.78234540e-02f, 7.59222638e-03f,
    1.95881026e-03f, 2.85485983e-02f, 3.09374742e-02f, 3.69385742e-02f, 4.59109917e-02f, 1.40289990e-02f, -6.69447705e-02f, 4.21262681e-02f,
    -2.90844333e-03f, -7.32354522e-02f, 7.20281377e-02f, 4.35416326e-02f, -3.90952900e-02f, -3.94374281e-02f, -3.34225670e-02f, -2.79197749e-02f,
    -3.81756648e-02f, -3.91947776e-02f, -1.73564684e-02f, -2.93253548e-02f, -1.22353602e-02f, 7.90075108e-04f, -1.20960530e-02f, 9.52994525e-02f,
    1.42471530e-02f, -4.17404436e-02f, 1.02122195e-01f, -3.00066471e-02f, -3.57163395e-03f, 1.30086273e-01f, 3.05205546e-02f, -2.05892716e-02f,
    -1.56139722e-02f, -8.24377220e-03f, -1.80831105e-02f, 9.77432355e-03f, 1.13584911e-02f, -5.19120432e-02f, -1.26643255e-02f, -1.97723117e-02f,
    -2.14833301e-02f, 1.81773994e-02f, -6.61169691e-03f, -3.20870876e-02f, 8.14229809e-03f, -1.63553823e-02f, 2.10184027e-02f, 5.56336828e-02f,
    5.22952527e-02f, 3.00999614e-03f, -1.70956627e-02f, 2.04692036e-02f, 7.01910164e-03f, -7.22754225e-02f, 6.89044176e-03f, -1.98628549e-02f,
    -6.90653771e-02f, 1.30074518e-02f, 2.10901722e-03f, 5.08986786e-02f, 9.77637991e-03f, -5.34312204e-02f, -2.94164233e-02f, -4.69411016e-02f,
    -3.71342599e-02f, -1.31077254e-02f, -1.80842578e-02f, -2.90000737e-02f, -1.06548248e-02f, -4.98458445e-02f, -9.75396298e-03f, 2.26729782e-03f,
    -2.12580245e-02f, -1.30782202e-02f, -6.13410445e-03f, -1.97686180e-02f, -1.03292111e-02f, -7.40922540e-02f, -9.61407553e-03f, -8.73868167e-03f,
    4.01399061e-02f, 5.60852094e-03f, -2.75251884e-02f, -7.17226416e-03f, -6.06315257e-03f, 3.56472544e-02f, 2.04771776e-02f, -2.73064654e-02f,
    5.81823336e-03f, -3.20895873e-02f, -4.18682434e-02f, 2.71561276e-02f, 4.14220691e-02f, -2.93054953e-02f, -5.38095422e-02f, 1.16380164e-02f,
    2.89065391e-02f, -4.68811952e-02f, -9.86125134e-03f, 5.69209782e-03f, -7.33107850e-02f, -4.48506251e-02f, -1.07279280e-03f, -3.39974537e-02f,
    -6.23087697e-02f, -3.96357812e-02f, -3.87393148e-03f, -4.40994985e-02f, 4.52381000e-03f, 9.19242296e-03f, -1.68004129e-02f, 8.07052385e-03f,
    -6.49820194e-02f, -8.04768056e-02f, -6.12838939e-02f, -7.61928558e-02f, -9.02261660e-02f, -7.60709345e-02f, -9.89714563e-02f, -1.03752002e-01f,
    -7.67157152e-02f, -1.74064916e-02f, -5.99964522e-02f, -5.66028915e-02f, 2.86517907e-02f, -3.49900983e-02f, -3.63481902e-02f, 1.08456455e-01f,
    -1.36698419e-02f, -8.53384286e-02f, 9.90551338e-02f, 5.10386303e-02f, 4.18078862e-02f, 1.10407330e-01f, 4.62441705e-02f, 3.23199257e-02f,
    1.20456740e-01f, 9.57828164e-02f, 7.69087225e-02f, 4.61716531e-03f, -1.87832990e-03f, 2.47829258e-02f, 1.10882511e-02f, -7.27712214e-02f,
    5.48481476e-03f, 1.03577465e-01f, 7.73255974e-02f, 1.06964976e-01f, -7.65483174e-03f, -4.95614558e-02f, -3.39366160e-02f, -2.81295050e-02f,
    -4.42751013e-02f, -3.40149440e-02f, -4.23831716e-02f, -6.14370853e-02f, -1.65117346e-02f, -2.78750677e-02f, -4.09775227e-03f, -7.80785037e-03f,
    -9.22537874e-03f, -5.83705166e-03f, -5.90018090e-03f, -1.18809268e-02f, -2.61244848e-02f, -3.00139058e-02f, -4.56444398e-02f, 1.19236410e-02f,
    3.65261436e-02f, -2.39752661e-02f, 4.02188934e-02f, 4.54805531e-02f, -3.18216383e-02f, 8.98050517e-02f, 8.88729170e-02f, -5.66253327e-02f,
    8.11975151e-02f, 1.74980946e-02f, -8.37582350e-02f, 5.06701209e-02f, -1.42262457e-02f, -3.76695916e-02f, 1.09496824e-01f, 4.06639054e-02f,
    -1.24456398e-02f, -5.35949180e-03f, 2.12312881e-02f, 4.42045880e-03f, -1.32402750e-02f, 5.12956036e-03f, -1.11694550e-02f, -1.02402708e-02f,
    -1.43178701e-02f, 3.46321799e-03f, -1.69356465e-02f, -1.77646074e-02f, 2.68521365e-02f, -6.40277797e-03f, 1.13003412e-02f, 3.68525051e-02f,
    3.20826024e-02f, 2.08500586e-02f, 1.01554759e-01f, -3.49316397e-03f, -3.13560814e-02f, 7.62628317e-02f, -2.33904552e-02f, -1.49875265e-02f,
    9.60415825e-02f, 1.99108198e-03f, -4.33668457e-02f, -5.96495233e-02f, -6.80924356e-02f, -4.66140695e-02f, -6.18392155e-02f, -6.63144216e-02f,
    -6.26015663e-02f, -5.56791015e-02f, -5.11987433e-02f, -5.45140319e-02f, -4.41755429e-02f, -6.96268072e-03f, 1.24284066e-01f, -3.61753628e-04f,
    -1.45097524e-02f, 8.77881497e-02f, 2.44461447e-02f, 1.85295902e-02f, 5.41758016e-02f, -1.21433828e-02f, -3.29790078e-02f, -7.78283831e-03f,
    -1.77398399e-02f, -9.21297595e-02f, -3.43047455e-02f, -5.32820225e-02f, -1.24862067e-01f, -6.21091984e-02f, -3.31254750e-02f, -6.22911565e-02f,
    -3.24409269e-02f, -1.19291991e-02f, -4.66660932e-02f, -2.87453029e-02f, -1.48661723e-02f, -5.18645719e-02f, -3.70104760e-02f, 1.38415704e-02f,
    9.86806974e-02f, 2.16981117e-02f, 1.76622905e-02f, 5.70110232e-02f, -7.40050478e-03f, 4.06768620e-02f, 1.27745429e-02f, -1.25894975e-02f,
    4.90657112e-04f, 1.80056656e-03f, 2.42101424e-03f, 7.90571619e-04f, -4.61336516e-04f, 4.14888753e-04f, 2.25517852e-03f, 2.29014829e-03f,
    2.01016222e-03f, 6.75290416e-04f, 9.78333410e-04f, -1.04593590e-03f, -2.08140980e-03f, -2.73160636e-03f, -3.55074066e-03f, -2.74511660e-03f,
    -3.30499699e-03f, -4.34256531e-03f, 2.97114206e-03f, 2.62459065e-03f, 1.43713097e-03f, 1.63819536e-03f, -6.39944337e-04f, 6.43919338e-04f,
    1.06126838e-03f, 7.67756486e-04f, 1.47841440e-03f, 2.04487564e-03f, 1.69129856e-03f, -6.89811655e-04f, 8.33905506e-05f, 4.27277293e-04f,
    -1.05733296e-03f, -1.34324189e-03f, -4.06557112e-04f, -1.74546917e-03f, -1.01197849e-03f, -1.13112852e-03f, -1.48797221e-03f, 9.84427519e-04f,
    2.11142269e-05f, -1.55880756e-04f, 1.07158290e-03f, 8.35406827e-04f, -9.20670936e-05f, 2.46518815e-04f, 1.73719414e-03f, 1.53285312e-03f,
    7.98690598e-05f, 9.39997670e-04f, 9.43346764e-04f, 6.80067460e-04f, 1.48299558e-03f, 1.80049904e-03f, -3.80269578e-03f, -3.55123030e-03f,
    -4.56037791e-03f, -5.16934051e-06f, -1.11652201e-03f, -2.19296082e-03f, -8.58423940e-04f, -7.01795565e-04f, -1.63661479e-03f, -4.17454779e-04f,
    1.37888838e-03f, 1.11890852e-03f, 8.95907520e-04f, 2.28448492e-03f, 2.02737050e-03f, 1.92281976e-03f, 2.84626242e-03f, 2.05667689e-03f,
    2.07914342e-03f, 3.32890148e-03f, -9.89104621e-04f, 2.80090433e-04f, 3.19157087e-04f, -4.02258150e-03f, -6.90591623e-05f, 1.34751783e-04f,
    -1.76310260e-03f, 2.24010064e-03f, 1.86026504e-03f, 4.40551608e-04f, -2.44721421e-04f, -1.11221678e-04f, -2.47991353e-04f, -1.53026578e-03f,
    -1.05523679e-03f, -2.56298133e-03f, 5.99969528e-04f, 7.90309277e-04f, -5.20936388e-04f, 9.49161651e-04f, 1.35656842e-03f, 8.03362986e-04f,
    -1.93715618e-06f, 1.33666268e-03f, 1.41741068e-03f, -5.02988638e-04f, -6.17429148e-04f, -2.32422887e-03f, -1.15550734e-04f, 4.18838579e-04f,
    -9.71962290e-04f, 8.04127427e-04f, 7.90602586e-04f, 3.31061048e-04f, -6.09523442e-04f, -2.81181332e-04f, 1.94960821e-03f, -1.44070375e-03f,
    -1.17064780e-03f, 1.96390459e-03f, -4.09351283e-04f, -1.93839383e-04f, -7.25819555e-04f, 1.54762727e-03f, 1.49330078e-03f, 1.22399966e-03f,
    1.85749226e-03f, 9.04090586e-04f, 1.51698838e-03f, 1.83839677e-03f, 2.29110150e-03f, 3.18493159e-03f, 1.14608021e-03f, 1.56158593e-03f,
    1.07820763e-03f, 1.45531388e-03f, 4.43214085e-04f, 3.57491110e-04f, 1.51736196e-03f, 1.35549391e-03f, 7.67974067e-04f, -1.10542029e-03f,
    8.85841437e-04f, -1.42155762e-03f, -2.39973143e-03f, -1.47735269e-03f, -2.19582953e-03f, 3.00310901e-04f, 1.61205814e-03f, 7.81983137e-04f,
    -8.23913217e-02f, -6.58200234e-02f, -1.05356373e-01f, -4.08864282e-02f, 3.33120935e-02f, -3.76212560e-02f, -3.00118234e-02f, 1.85612794e-02f,
    -2.39908658e-02f, 2.61325110e-02f, 8.57299939e-02f, 7.52030909e-02f, 1.91619303e-02f, 3.43851373e-02f, 7.85772409e-03f, 4.10979334e-03f,
    8.13966338e-03f, -3.47257555e-02f, 2.68690772e-02f, 2.76702978e-02f, 4.02793437e-02f, 3.43841937e-04f, -6.46606982e-02f, 7.26004597e-03f,
    2.55281813e-02f, -5.26558748e-03f, 3.37633584e-03f, -3.90299819e-02f, -1.76167060e-02f, -2.71385722e-02f, -3.99330072e-02f, -1.30226407e-02f,
    1.29940212e-02f, 5.81769161e-02f, 7.48639926e-02f, 1.01195723e-01f, -2.34359913e-02f, -6.44998252e-02f, -1.69579871e-02f, -2.03806758e-02f,
    -8.22815970e-02f, -7.59755541e-03f, -3.98217328e-02f, -2.38605868e-02f, 2.12226044e-02f, 4.11551669e-02f, 3.27974372e-02f, 1.84559263e-02f,
    1.10589312e-02f, 5.15637361e-03f, -1.27835874e-03f, -1.27529847e-02f, -2.17200257e-02f, -3.71624567e-02f, -5.52701391e-02f, -4.03032191e-02f,
    -3.35013904e-02f, -5.47767654e-02f, -1.32237375e-02f, -4.05434147e-02f, -9.45058744e-03f, 1.16183991e-02f, -1.14913788e-02f, -6.28079772e-02f,
    -2.14140918e-02f, -5.48471091e-03f, -2.04407685e-02f, -2.16818936e-02f, 2.11772583e-02f, 1.17184566e-02f, 1.45196207e-02f, 2.12805849e-02f,
    -7.88866729e-02f, -3.31599452e-02f, -3.93333435e-02f, -6.33577555e-02f, -3.27621363e-02f, -2.76210327e-02f, 7.48298783e-03f, 1.70954540e-02f,
    2.79246066e-02f, 1.97902694e-01f, 1.69027075e-01f, 5.80390804e-02f, -1.77831296e-02f, -1.10625282e-01f, -1.03956006e-01f, -1.48702087e-02f,
    -6.62391335e-02f, -3.46161760e-02f, -4.25501168e-02f, -1.12554960e-01f, 2.02608313e-02f, 4.57868329e-04f, -4.78691049e-02f, 6.64288625e-02f,
    1.35084279e-02f, -3.28813456e-02f, 7.55613670e-02f, 6.79552555e-02f, 5.84453084e-02f, 5.30912429e-02f, 1.15747787e-02f, -2.43642125e-02f,
    6.54352654e-04f, 3.61846052e-02f, 3.72220650e-02f, 2.60149054e-02f, 1.60383567e-01f, 1.30123898e-01f, 6.32078350e-02f, -8.77727009e-03f,
    -2.18025327e-01f, -1.06587224e-01f, -2.94382311e-02f, -7.61545673e-02f, -4.85825054e-02f, -3.07979248e-02f, -3.30779031e-02f, 6.06865212e-02f,
    -5.35229854e-02f, -1.83966346e-02f, 5.49761131e-02f, -7.35020861e-02f, -7.18877837e-02f, -2.72414871e-02f, 8.33896324e-02f, -3.08368057e-02f,
    -2.62163002e-02f, 3.54584120e-02f, -6.30096048e-02f, -5.85622005e-02f, 4.39171344e-02f, 1.27773806e-02f, -2.07884591e-02f, 1.90763790e-02f,
    5.48515581e-02f, 1.64723322e-02f, 3.92240807e-02f, 3.13888676e-02f, -2.47528628e-02f, 4.36202399e-02f, 2.78096013e-02f, -8.22092500e-03f,
    -8.43110979e-02f, 1.55501757e-02f, -1.72843859e-02f, 3.49305347e-02f, 5.94781376e-02f, 4.21956144e-02f, -5.04606124e-03f, 6.47496944e-03f,
    6.37912331e-03f, -2.97155529e-02f, 2.58754566e-02f, -2.00973786e-02f, -2.57315766e-02f, 4.38107066e-02f, -2.50735823e-02f, -7.34289810e-02f,
    -5.76290209e-03f, -3.08120297e-03f, 1.89582687e-02f, 1.99496709e-02f, 4.01371578e-03f, 2.34747827e-02f, 4.59060222e-02f, 2.68044360e-02f,
    1.58365350e-02f, 4.06577215e-02f, 4.39460874e-02f, -2.66384203e-02f, -3.25362198e-02f, -2.31603663e-02f, 2.69874930e-02f, 9.16835107e-03f,
    3.73119973e-02f, 6.44996483e-03f, -5.73884463e-03f, 3.28406207e-02f, 9.35887024e-02f, 1.52711153e-01f, 7.42932707e-02f, 3.21924314e-02f,
    -2.78694928e-02f, -5.96509017e-02f, 9.10567760e-04f, -4.59509157e-03f, -4.55296366e-03f, 6.66286647e-02f, 4.52019982e-02f, 6.23166412e-02f,
    2.09509674e-02f, -3.05916891e-02f, 1.71786770e-02f, 3.35480571e-02f, 1.64874736e-02f, 1.29578905e-02f, -5.29892370e-02f, -9.37555656e-02f,
    -7.41108954e-02f, -5.42214401e-02f, -5.55152185e-02f, -3.63061801e-02f, -7.46110752e-02f, -6.68387935e-02f, -1.04844362e-01f, -8.62313434e-02f,
    -3.60494666e-02f, 6.77287877e-02f, -2.60704383e-02f, -2.33248528e-02f, 6.18591234e-02f, 4.09871489e-02f, 4.83511761e-02f, 6.20693937e-02f,
    1.08183660e-01f, 6.64522424e-02f, 1.15580656e-01f, 6.24736138e-02f, 1.11935670e-02f, 2.08750330e-02f, 1.10887595e-01f, 7.31585175e-02f,
    6.89692497e-02f, 6.00762852e-02f, 6.29844069e-02f, 3.55133377e-02f, -3.08732945e-03f, -6.11129068e-02f, -4.09620218e-02f, 2.47555152e-02f,
    -1.03890551e-02f, -5.48048550e-03f, -6.71656281e-02f, -8.79466310e-02f, -9.34876055e-02f, -7.32224062e-02f, -4.30635065e-02f, -2.72801295e-02f,
    -5.49070053e-02f, -4.01679799e-02f, -1.80063508e-02f, -5.83509877e-02f, -5.71403950e-02f, -7.86933005e-02f, -1.32564642e-02f, -8.77398765e-04f,
    -3.17521207e-02f, 1.20351044e-02f, 1.34054739e-02f, -2.20212620e-02f, -1.08373836e-01f, -1.64657366e-02f, -3.20840292e-02f, -3.35167758e-02f,
    4.53365082e-03f, -8.32758993e-02f, -1.11510335e-02f, -4.08564508e-02f, -6.59736544e-02f, -6.09857321e-04f, 3.15268822e-02f, -1.55903026e-02f,
    -8.28385912e-03f, 1.50209609e-02f, -4.15632613e-02f, 2.02472191e-02f, 4.16005030e-02f, 1.83227975e-02f, -6.73506856e-02f, -3.65841463e-02f,
    -2.96120476e-02f, -4.02915552e-02f, 5.34662162e-04f, -7.61927664e-03f, 4.09582583e-03f, 2.54159365e-02f, 1.26472786e-02f, -3.18148434e-02f,
    4.49188165e-02f, 2.87950337e-02f, -6.00218885e-02f, -1.49275009e-02f, -1.76079310e-02f, -1.66698135e-02f, 6.29097177e-03f, 4.02795151e-02f,
    -7.89123296e-05f, 4.23214165e-04f, -6.56665128e-04f, -1.62350642e-03f, -1.95913762e-03f, -8.94200872e-04f, -9.07030990e-05f, 5.64548873e-06f,
    5.87652787e-04f, -1.93328026e-03f, -1.76992768e-03f, -1.36581657e-03f, -7.13510264e-04f, 2.18280635e-04f, 1.83295298e-04f, -1.41972804e-03f,
    -1.73245254e-03f, -9.61426005e-04f, 2.09812115e-05f, 6.68235880e-04f, 1.08610699e-03f, -9.72224749e-04f, -1.89965358e-03f, -1.06504385e-03f,
    -3.75710754e-03f, -4.08491958e-03f, -3.41704325e-03f, 2.39679147e-03f, 2.29815859e-03f, 2.72285566e-03f, 1.19148660e-03f, 1.92166626e-04f,
    1.50321180e-03f, 9.68762615e-04f, 1.82558128e-04f, 9.12985764e-04f, -1.73242495e-03f, -1.96343753e-03f, -1.60434982e-03f, -7.54189154e-04f,
    6.72721071e-05f, -1.38079294e-03f, -1.33430702e-03f, 4.60725016e-04f, -1.35439611e-03f, -2.11239629e-03f, -2.08623591e-03f, -2.23509874e-03f,
    6.71189628e-04f, 2.39877077e-03f, 1.62324379e-03f, -5.06732904e-04f, 7.44821562e-04f, 9.21117840e-04f, -2.60556932e-03f, 1.53186847e-05f,
    -1.88089543e-04f, -9.23041734e-05f, 3.10936081e-03f, 1.98270613e-03f, -3.82855837e-03f, -5.48770477e-04f, -1.45139382e-03f, -9.32862458e-04f,
    7.78135145e-04f, -1.00118923e-03f, 1.04463630e-04f, 1.03370543e-03f, -3.38155587e-05f, -1.08522212e-03f, -3.59605125e-04f, -1.26521871e-03f,
    5.13901468e-04f, 9.92709422e-04f, -5.51656063e-04f, 1.02218334e-03f, 7.49971718e-04f, 1.30432239e-03f, 2.47442094e-03f, 1.61212427e-03f,
    1.64241355e-03f, -1.68343610e-03f, -2.08532135e-03f, -1.65052805e-03f, 1.37424086e-05f, -2.98626488e-04f, -3.27063666e-04f, -1.80494995e-03f,
    -1.79434125e-03f, -1.28755742e-03f, -1.17388717e-03f, 5.21201640e-04f, -1.02604460e-03f, -4.60176961e-04f, -3.48561443e-04f, -1.32440496e-03f,
    -2.52301921e-03f, -1.84334652e-03f, -2.79825297e-03f, 8.65730515e-04f, 1.30138127e-03f, 1.31793262e-03f, 2.18077633e-03f, 1.78623281e-03f,
    7.88357225e-04f, 5.80504013e-04f, 1.41313300e-03f, -5.36651642e-04f, -7.31990905e-04f, -7.96713517e-04f, -2.33923856e-05f, -2.59556837e-04f,
    7.52368578e-05f, -9.20547536e-05f, -1.12477981e-03f, -5.84124820e-04f, -1.29015069e-03f, 1.53173038e-04f, 1.81363337e-03f, -5.06057768e-05f,
    4.51525935e-04f, 1.23070471e-03f, -5.01479481e-05f, 6.51676091e-04f, 4.97360015e-04f, 5.49401273e-04f, -1.13986223e-03f, -1.06368156e-03f,
    -1.38109899e-03f, 1.16091425e-04f, 5.19155350e-04f, -6.50602988e-06f, -1.45314669e-03f, -4.72269836e-04f, -5.98210085e-04f, -9.41017468e-04f,
    1.61287526e-03f, 1.16462961e-05f, -1.78435454e-04f, 2.97676632e-03f, 1.00047688e-03f, -3.63143743e-03f, -1.01524545e-03f, -1.92285061e-03f,
    5.74957347e-03f, 2.23909020e-02f, -1.10634761e-02f, 3.76837477e-02f, 1.12567227e-02f, -1.33960731e-02f, 1.72119699e-02f, 1.15752136e-02f,
    -5.11947274e-02f, 8.43586847e-02f, 1.02040745e-01f, 6.62128776e-02f, 9.16078463e-02f, 6.85503185e-02f, 7.41392225e-02f, 7.11775497e-02f,
    9.01951417e-02f, 7.31214210e-02f, -6.21570162e-02f, -6.45326078e-02f, -7.78200403e-02f, -2.84913238e-02f, -5.34115396e-02f, -5.52724823e-02f,
    -6.51414618e-02f, -6.06339984e-02f, -6.07808568e-02f, -2.56914995e-03f, -4.52614948e-03f, -9.62525699e-03f, -3.80924121e-02f, -1.91106659e-03f,
    -3.76375541e-02f, 4.46122233e-03f, -1.20115071e-03f, -1.03874062e-03f, -7.73801981e-03f, 2.07282919e-02f, 7.11851567e-02f, -6.63533285e-02f,
    -9.26846936e-02f, -3.87415886e-02f, -7.18095154e-02f, -5.06985895e-02f, -4.85920906e-02f, 1.25079649e-03f, 2.54356898e-02f, -1.22312838e-02f,
    -4.39919122e-02f, -1.91479605e-02f, -6.10078275e-02f, -3.59400287e-02f, -5.53863402e-03f, -4.71812300e-03f, 1.22718187e-02f, 6.96360460e-03f,
    -2.61224050e-04f, -2.44942643e-02f, -1.84522066e-02f, -1.93928834e-02f, -6.35692943e-03f, 5.67073189e-03f, -4.14621038e-03f, 3.13748792e-03f,
    -8.56629293e-03f, 2.13641748e-02f, 1.28239030e-02f, 2.34911479e-02f, 2.20336430e-02f, 1.40062654e-02f, 5.28360810e-03f, -1.48779678e-03f,
    1.25041883e-02f, -1.74950045e-02f, 7.93155376e-03f, 6.50774464e-02f, 5.01920730e-02f, 5.68612888e-02f, 1.22043472e-02f, 7.20927911e-03f,
    5.85429743e-02f, 2.90364679e-02f, 8.45112186e-03f, 7.29547963e-02f, 1.75536349e-02f, 2.29648408e-02f, 3.04624531e-02f, 2.34105419e-02f,
    -1.00897420e-02f, 4.69138892e-03f, -1.15172736e-01f, -9.99049693e-02f, -1.11896314e-01f, -9.35344473e-02f, -5.81620187e-02f, -1.01871304e-01f,
    -9.87025350e-02f, -7.39754662e-02f, -9.62506533e-02f, 2.29696855e-02f, 3.39964405e-02f, 2.91869547e-02f, 3.22965831e-02f, 1.32103004e-02f,
    -1.71668618e-03f, 5.70971258e-02f, 3.30248848e-02f, 2.94237249e-02f, 1.92156201e-03f, -1.44717852e-02f, -2.37038787e-02f, 4.25769575e-02f,
    1.08291302e-03f, 3.95972766e-02f, -3.97781804e-02f, 3.05142868e-02f, -2.17007156e-02f, 1.14246989e-02f, 3.05724069e-02f, 2.26228386e-02f,
    -1.87564064e-02f, 2.95807291e-02f, 1.25310326e-03f, -5.70700988e-02f, 2.58312933e-03f, -3.30690406e-02f, 8.47827829e-03f, 1.04824558e-03f,
    -5.01073934e-02f, 1.55137731e-02f, -3.13308164e-02f, -4.40008864e-02f, 8.10032040e-02f, 3.27625051e-02f, 9.07144602e-03f, -2.57204496e-03f,
    1.73702557e-02f, -4.40595578e-03f, 1.47941988e-02f, -8.75898525e-02f, 2.05974997e-04f, 9.04817507e-03f, 2.01474559e-02f, -1.52596943e-02f,
    1.31063521e-01f, 5.91216944e-02f, 1.30370557e-01f, 3.50152738e-02f, -5.24250641e-02f, 2.01168861e-02f, 7.22697377e-02f, 3.64738293e-02f,
    1.04936399e-01f, -7.11419014e-03f, -6.51393831e-03f, -9.08560585e-03f, -4.10395823e-02f, 7.61476438e-03f, -3.12739098e-03f, -1.05474167e-01f,
    -3.20776999e-02f, -2.17415467e-02f, 8.77959840e-03f, 3.81089672e-02f, 4.59657749e-03f, -4.67139587e-04f, 2.93969437e-02f, -1.24721276e-02f,
    -1.84109749e-03f, 2.02256162e-02f, 5.12051978e-04f, 1.93194747e-02f, 1.23422863e-02f, 4.25896905e-02f, -1.00156786e-02f, -2.86970218e-03f,
    -2.28472669e-02f, -2.76954137e-02f, -4.58934866e-02f, -2.76375730e-02f, 4.48672026e-02f, -5.62799675e-03f, 6.96788058e-02f, 6.60157427e-02f,
    1.68564003e-02f, 5.59708439e-02f, 6.52325898e-02f, 2.55564842e-02f, 7.75519237e-02f, 2.29979772e-03f, 3.86834368e-02f, 1.44778127e-02f,
    3.06104906e-02f, 1.65293496e-02f, 2.01005898e-02f, 2.36848649e-02f, 1.36639988e-02f, 4.27958854e-02f, -3.89846340e-02f, -3.28524634e-02f,
    -1.03094265e-01f, -4.14312445e-02f, -4.89306934e-02f, -1.14056520e-01f, -7.91428238e-02f, -7.57965744e-02f, -1.65058792e-01f, -2.04937346e-03f,
    8.65142699e-03f, 4.88685118e-03f, -9.51422844e-03f, 1.45198535e-02f, 1.88500956e-02f, 2.02015955e-02f, 4.70632613e-02f, 5.24621159e-02f,
    -3.10347583e-02f, 1.23691177e-02f, 3.78252065e-04f, 2.54992890e-04f, 2.27343217e-02f, 9.04249679e-03f, 6.30677491e-02f, 6.84579536e-02f,
    4.59051803e-02f, 3.44853140e-02f, 3.25790653e-03f, 2.15281900e-02f, 5.05833477e-02f, 2.16586366e-02f, 5.35556562e-02f, 2.59887129e-02f,
    2.99121756e-02f, 1.62254963e-02f, -6.90261275e-02f, 3.80950384e-02f, 6.62227124e-02f, -5.61800152e-02f, 2.46836059e-03f, 2.58190595e-02f,
    -6.25260845e-02f, -9.82941687e-03f, 2.02060603e-02f, 3.49736703e-03f, 1.24136107e-02f, 3.88170294e-02f, 1.92558002e-02f, 4.66607362e-02f,
    5.05672880e-02f, -2.50525698e-02f, -2.05319896e-02f, -1.23963133e-02f, 2.06711888e-02f, 4.02420433e-03f, -9.70785245e-02f, -1.20508717e-02f,
    2.62638126e-02f, -5.53839020e-02f, -1.92956142e-02f, 1.13972640e-02f, -5.25185131e-02f, -4.92344843e-03f, 3.21874730e-02f, 3.34561546e-03f,
    -1.45772826e-02f, 2.34748470e-03f, -2.03209873e-02f, -3.35984938e-02f, -6.21495321e-02f, -4.82467972e-02f, 3.17081772e-02f, 4.85863462e-02f,
    2.00017318e-02f, -9.72416066e-03f, -3.30752283e-02f, 1.20139522e-02f, 1.18736848e-02f, 1.50764352e-02f, 2.28413213e-02f, -9.68431309e-02f,
    -6.59138411e-02f, -3.05562504e-02f, -2.41921712e-02f, -2.37726569e-02f, 3.91282653e-03f, -1.47768576e-02f, 2.91365664e-02f, 2.63967030e-02f,
    -1.69032649e-03f, -9.55870491e-04f, -2.04023719e-03f, -1.34182128e-03f, -1.42814917e-03f, -2.51942617e-03f, -2.93062092e-03f, -2.50702654e-03f,
    -3.76620516e-03f, -2.74661114e-03f, -1.64066837e-03f, -2.79656751e-03f, -1.56007509e-03f, 5.82680921e-04f, -1.28400221e-03f, -1.56338268e-03f,
    -4.35440510e-04f, -2.17005704e-03f, -5.40534267e-04f, 1.43808402e-05f, -9.03194130e-04f, -3.18765728e-04f, 1.16780144e-03f, -1.07200816e-03f,
    -8.33240210e-06f, 9.53379320e-04f, -1.09298574e-03f, 1.60041801e-03f, 5.36769920e-04f, 1.27936539e-03f, 9.25277942e-04f, 7.48733291e-05f,
    1.80320593e-03f, 2.02663988e-03f, 8.60530941e-04f, 3.36028845e-03f, -1.65337382e-03f, -1.96443027e-04f, -5.66217583e-04f, -2.20309570e-03f,
    9.72313428e-05f, -2.04376294e-03f, -7.30865868e-04f, 5.96081780e-04f, -8.28643912e-04f, 1.94607687e-03f, 1.61943212e-03f, 2.29684287e-03f,
    2.24423083e-03f, 2.16446002e-03f, 1.84953480e-03f, 1.53582485e-03f, 1.07168581e-03f, 1.25007087e-03f, -6.26590976e-04f, -3.75459233e-04f,
    -1.55133777e-03f, -3.98113400e-07f, 2.02604989e-03f, -1.06911850e-03f, 8.97341233e-04f, 2.12948141e-03f, -4.00027384e-05f, 7.68660801e-04f,
    3.63230560e-04f, 7.95552856e-04f, -2.37275264e-04f, -1.08971528e-03f, -5.50951110e-04f, 8.68734729e-04f, 3.53478914e-04f, 8.33537662e-04f,
    -6.26151217e-04f, -3.52935895e-04f, -1.54007098e-03f, 4.72433254e-04f, 3.68615511e-05f, -1.05200641e-04f, -5.42467518e-04f, -5.17259905e-05f,
    -1.29255175e-04f, 3.95025592e-04f, -1.03615434e-03f, 7.47330429e-04f, -3.72124719e-04f, -7.90997001e-04f, 2.71058118e-04f, 1.09607459e-03f,
    -2.88196257e-04f, 8.21821624e-04f, -1.43130531e-03f, -1.14859466e-03f, -3.55759752e-04f, -1.75924669e-03f, -1.92930817e-03f, -1.12820824e-03f,
    -2.74106604e-03f, -1.88906875e-03f, -1.95479020e-03f, 2.17065006e-03f, 2.99897860e-03f, 2.63569155e-03f, 3.04990634e-03f, 4.21974482e-03f,
    2.34825630e-03f, 4.16000793e-03f, 5.34675596e-03f, 3.08222719e-03f, 8.19969457e-04f, 1.37498800e-03f, 2.34426977e-03f, -9.61142534e-04f,
    9.13688040e-04f, 4.23708319e-04f, -3.87699984e-04f, 1.92185962e-05f, -3.88546410e-04f, -9.97638213e-04f, 6.27600530e-04f, -1.27255963e-03f,
    -1.15675514e-03f, 2.72045640e-04f, -4.62616626e-05f, -2.05051969e-03f, -2.92919751e-04f, -1.11926033e-03f, -1.07029057e-03f, -3.35018325e-04f,
    -4.22976038e-04f, -1.25162152e-03f, 8.51732329e-06f, -1.12555281e-03f, -8.50546756e-04f, -2.10102560e-04f, -2.12723273e-03f, 1.27732020e-03f,
    2.62056920e-03f, 7.98831345e-04f, 1.97567372e-03f, 3.83876939e-03f, 8.15944397e-04f, 2.76276772e-03f, 4.42842394e-03f, 1.27810379e-03f,
    -1.11659924e-02f, -4.58530858e-02f, -6.03002459e-02f, 1.32948412e-02f, -1.14716347e-02f, -1.49558457e-02f, -6.96757482e-03f, -1.40033392e-02f,
    3.52749787e-02f, 2.42871861e-03f, 1.88908186e-02f, -2.44309637e-03f, -2.19247025e-03f, 1.04089538e-02f, -1.35020697e-02f, -1.85089167e-02f,
    -1.86336029e-03f, -2.10137740e-02f, -4.63864803e-02f, -4.83918674e-02f, -5.36566265e-02f, -1.58950575e-02f, 1.81742373e-03f, -3.47308652e-03f,
    6.75316760e-03f, -1.75672062e-02f, 1.59984489e-03f, -3.67249697e-02f, -3.03957909e-02f, -4.62187156e-02f, -8.56927633e-02f, -7.29706660e-02f,
    -8.82784799e-02f, -5.56520857e-02f, -6.12742081e-02f, -8.34409893e-02f, 1.31973857e-02f, 1.75486505e-02f, 4.71467823e-02f, 3.76635417e-02f,
    8.29190481e-03f, 1.17120603e-02f, 6.38545454e-02f, 1.56627856e-02f, 1.28137954e-02f, 3.57444026e-02f, 5.43232486e-02f, 3.29248644e-02f,
    7.60442913e-02f, 1.52354300e-01f, 6.97295815e-02f, 1.79704428e-02f, 5.39040230e-02f, 2.24569589e-02f, -1.18781226e-02f, -1.74964201e-02f,
    -2.97115073e-02f, -5.70714846e-03f, -1.29160192e-02f, -2.85787750e-02f, -8.91000684e-03f, -1.76507828e-03f, -2.48280913e-02f, 1.74025092e-02f,
    5.43478318e-02f, 3.30224745e-02f, -1.18088964e-02f, 3.97332497e-02f, 2.45610140e-02f, -1.72496736e-02f, 7.52185984e-03f, -1.47028975e-02f,
    5.17249992e-03f, 2.46209209e-03f, -3.11610731e-03f, 2.34046709e-02f, 4.60507013e-02f, 1.79405678e-02f, 2.01297691e-03f, 1.87287536e-02f,
    1.56620797e-02f, -4.45572361e-02f, -4.77247648e-02f, -5.71702570e-02f, -4.23900895e-02f, -7.00629689e-03f, -3.16718705e-02f, -7.33723491e-02f,
    -5.43043576e-02f, -7.22993836e-02f, 5.53691164e-02f, 4.89466451e-02f, 4.57902439e-02f, 3.01531795e-02f, 2.39744578e-02f, 2.85458472e-02f,
    9.80515219e-03f, 1.18652470e-02f, 1.73451863e-02f, 3.57586890e-02f, 3.90997976e-02f, 1.95232704e-02f, 4.21559289e-02f, 1.04478434e-01f,
    5.34463339e-02f, 6.64314255e-03f, 2.12907121e-02f, 3.41274813e-02f, -1.07783610e-02f, 4.47937846e-03f, -4.85187350e-03f, -1.44456513e-02f,
    1.45759741e-02f, -5.07966941e-03f, -2.64741648e-02f, 3.71228089e-03f, -2.13984232e-02f, -3.19295786e-02f, -3.81439039e-03f, 3.39700887e-03f,
    -1.93877984e-02f, 6.27137860e-03f, -5.09597920e-03f, -9.74592660e-03f, 4.43289848e-03f, -1.60654280e-02f, -2.21678726e-02f, -9.20408871e-04f,
    -2.98001692e-02f, -2.20860764e-02f, -1.42632984e-02f, -2.15228144e-02f, -3.18521075e-02f, -2.08120774e-02f, -3.56738307e-02f, 1.87814962e-02f,
    2.08561216e-02f, 2.23664511e-02f, 3.33150327e-02f, -2.28708871e-02f, 3.20295058e-02f, -3.65010143e-04f, -2.75625568e-02f, -4.10684105e-03f,
    5.20740105e-05f, -1.56362969e-02f, 2.67460607e-02f, -7.45037803e-03f, 1.82138588e-02f, 2.15306226e-02f, -3.37359309e-02f, -6.71381317e-03f,
    4.36755922e-03f, -1.54481987e-02f, 2.60392297e-02f, -1.65909925e-03f, -1.84651688e-02f, 5.08866692e-03f, -4.57212841e-03f, 2.18659788e-02f,
    2.86266562e-02f, -7.36516109e-03f, -5.14987065e-03f, 1.84566551e-03f, -7.47690629e-03f, -1.09835310e-04f, -1.24779334e-02f, -1.11749619e-02f,
    1.37998175e-03f, 3.88191082e-03f, 3.53215798e-03f, -3.32293063e-02f, -1.64094251e-02f, -2.12776419e-02f, -6.01037107e-02f, -1.81593839e-02f,
    -5.54199144e-02f, -3.96471284e-02f, -2.89451014e-02f, -5.93441278e-02f, 2.03896370e-02f, 2.61534546e-02f, 1.31556122e-02f, 7.17257261e-02f,
    1.28495440e-01f, 6.15040772e-02f, -3.21014337e-02f, 6.30761636e-03f, -1.18479822e-02f, -7.79083967e-02f, -4.49712798e-02f, -7.68223628e-02f,
    -5.61053716e-02f, 2.87329836e-04f, -5.85779548e-02f, -3.79079059e-02f, -2.78969873e-02f, -5.83820529e-02f, 1.71253271e-02f, -6.36366149e-03f,
    -3.12526487e-02f, -8.52746237e-03f, -2.23789327e-02f, -2.40105931e-02f, 1.96662582e-02f, 1.69746112e-02f, 2.21198201e-02f, -4.99894544e-02f,
    -4.76689003e-02f, -6.05444163e-02f, -5.72351478e-02f, -4.15373854e-02f, -3.34910303e-02f, -5.70158213e-02f, -4.82188202e-02f, -3.69523950e-02f,
    -5.10390587e-02f, -1.83933936e-02f, -4.22128774e-02f, -4.45387475e-02f, -1.66409742e-02f, -2.49897577e-02f, -2.36118026e-02f, -1.22897932e-02f,
    -1.36062475e-02f, 1.54851386e-02f, -1.50308618e-02f, 3.25246685e-04f, -2.08117533e-02f, -5.19625284e-02f, -1.88650172e-02f, 1.65997073e-02f,
    -1.11583024e-02f, 3.98309343e-03f, -6.08539656e-02f, -1.47071779e-02f, -3.26241590e-02f, 1.15804663e-02f, 6.97914138e-03f, -3.01383771e-02f,
    3.99859250e-02f, 8.58915504e-03f, -4.76971045e-02f, 4.11293283e-02f, 3.14711630e-02f, 7.20247775e-02f, 3.69903445e-02f, 4.06694673e-02f,
    6.86848238e-02f, 2.06476394e-02f, 1.55111859e-02f, 4.59578261e-02f, -1.41538382e-02f, -3.56344096e-02f, -4.63331565e-02f, 6.19118894e-03f,
    8.47096369e-03f, 2.85150837e-02f, 2.01575123e-02f, 5.29029854e-02f, 7.78157711e-02f, -1.95990317e-02f, 2.48478237e-03f, -8.45148694e-03f,
    -4.92353849e-02f, -3.09251826e-02f, -3.63981798e-02f, -2.49384213e-02f, -1.77427363e-02f, -1.75289568e-02f, 5.44265136e-02f, 4.42039110e-02f,
    3.22051123e-02f, 2.82129832e-02f, 2.76290849e-02f, 2.52945349e-02f, -8.17685202e-03f, -2.61387806e-02f, -4.79277736e-03f, 1.16034010e-02f,
    -2.31743022e-03f, 3.57176252e-02f, 1.83958467e-02f, 3.01366802e-02f, 6.90394938e-02f, 3.77742350e-02f, 7.06840381e-02f, 7.62568191e-02f,
    -2.18731840e-03f, -1.51545845e-03f, -6.41808219e-05f, -2.04927707e-03f, -1.57104619e-03f, 4.42738878e-04f, -1.78174640e-03f, -2.92456680e-04f,
    -9.62858903e-04f, 6.01793814e-04f, 1.58943969e-03f, 9.19374579e-04f, -9.32069815e-05f, 1.17225642e-03f, 3.27813119e-04f, 1.32075639e-03f,
    1.28829828e-03f, 1.54440722e-03f, 2.50964612e-03f, 1.28327427e-03f, 4.56349738e-03f, 9.06951391e-05f, -2.03976990e-03f, 2.66989856e-03f,
    1.66263594e-03f, -3.72117269e-04f, 2.14799820e-03f, 1.39654323e-03f, -1.60818832e-04f, 1.01748714e-03f, -3.53018986e-04f, -1.73554535e-03f,
    6.00298168e-04f, 1.18039874e-03f, -2.84682483e-05f, 1.89526891e-03f, 9.82915866e-04f, 5.45492687e-04f, 1.57967850e-03f, 1.16008858e-03f,
    -8.90822732e-04f, 1.44951302e-03f, 1.75611256e-03f, 7.20888085e-04f, 1.90217711e-03f, -5.80711709e-03f, -3.16009833e-03f, -4.37505497e-03f,
    -4.16421238e-03f, 3.59352358e-04f, -2.03472027e-03f, -2.94716679e-03f, 3.29814735e-04f, -1.26537029e-03f, -2.51644454e-03f, -1.16678141e-03f,
    1.28041778e-03f, -3.91470827e-03f, -3.58645129e-03f, -2.33065774e-04f, -1.06137805e-03f, -7.46139383e-04f, 3.74116306e-03f, -8.48400698e-04f,
    -1.70035695e-03f, 3.74661293e-04f, -1.22369151e-04f, -1.76541414e-03f, 9.29098984e-04f, 1.37182896e-03f, -3.56960023e-04f, 1.23915460e-03f,
    2.11081957e-03f, 8.25244002e-04f, -1.02919969e-03f, 2.52016704e-03f, 1.34336809e-03f, 8.57933483e-05f, 1.20244513e-03f, -1.60228333e-03f,
    -3.65351327e-03f, 1.83205644e-03f, 7.65305362e-04f, 2.01844913e-03f, 3.86282278e-04f, 8.48640106e-04f, 8.85502726e-04f, 6.53797702e-04f,
    -3.08413553e-04f, 2.22739414e-03f, -9.45783046e-04f, -9.65702697e-04f, -1.42783427e-03f, -7.82425865e-04f, -9.73725982e-04f, -1.58669986e-03f,
    -6.31293806e-05f, -2.77771960e-05f, -2.19286745e-03f, 8.96441110e-04f, -2.79252697e-03f, -1.37954194e-03f, 1.40848756e-03f, -2.67245108e-03f,
    3.84372688e-04f, -3.12616257e-03f, -4.27338108e-03f, -1.09062367e-03f, 9.15869168e-05f, -1.06004183e-03f, 2.57575023e-03f, -5.32999547e-05f,
    -1.34666858e-03f, 1.00339565e-03f, 6.62868668e-04f, -2.89890682e-04f, 2.21673236e-03f, 1.61714561e-03f, -5.74915757e-05f, -7.10558787e-04f,
    2.91911606e-03f, 2.18624808e-03f, 1.26679603e-03f, 2.75947643e-03f, 2.00347858e-03f, 1.68538792e-03f, 4.31026303e-04f, 1.11769208e-04f,
    -1.81446158e-04f, 1.82091913e-04f, -7.75047636e-04f, 4.70229461e-05f, 3.95079522e-04f, -1.69464888e-03f, -1.35388272e-03f, -1.83776254e-03f,
    -3.10037145e-03f, -1.68569735e-03f, -3.80636286e-03f, -1.08476589e-03f, -1.06897007e-03f, -8.14040250e-04f, -2.05560797e-03f, -5.84513822e-04f,
    8.37264434e-02f, 1.85743812e-02f, -3.76353562e-02f, 1.28739238e-01f, -5.71792051e-02f, -7.38935247e-02f, 4.43591252e-02f, -5.97609095e-02f,
    -2.75944155e-02f, 6.18679859e-02f, 2.61267349e-02f, 8.22973922e-02f, 3.91783044e-02f, 1.19235069e-02f, 7.08899722e-02f, 1.32061495e-02f,
    -8.68112408e-03f, 7.79089257e-02f, 9.02612433e-02f, 8.17952827e-02f, 9.02511925e-02f, 5.14059840e-03f, -6.28488511e-02f, -6.81469170e-03f,
    -3.83651666e-02f, -3.07113156e-02f, 1.59099814e-03f, -1.10403582e-01f, -4.53224629e-02f, 1.57757148e-01f, -5.16351573e-02f, -4.16219197e-02f,
    1.03904732e-01f, 1.39980335e-02f, -1.70637909e-02f, 1.62219387e-02f, 1.13575615e-03f, 4.87285145e-02f, 1.71465464e-02f, 1.13471700e-02f,
    1.14643089e-01f, -3.10313739e-02f, -3.34316753e-02f, 3.77168171e-02f, -4.50843126e-02f, -1.50108002e-02f, 1.55428564e-02f, 1.59160718e-02f,
    3.16640339e-03f, -3.52695808e-02f, 3.78363058e-02f, 2.83762487e-03f, 1.40205966e-02f, -1.20789949e-02f, 2.37626582e-02f, -2.17688060e-03f,
    3.32259275e-02f, -6.45217160e-03f, 9.49053373e-03f, 4.68518771e-02f, 1.88467670e-02f, 3.73216122e-02f, 2.23100521e-02f, 2.54068542e-02f,
    2.07693898e-03f, 9.78527777e-03f, 2.72227023e-02f, -3.00364103e-02f, 2.22749785e-02f, -2.35590991e-03f, 1.48696424e-02f, 5.59565425e-02f,
    -2.79145576e-02f, -3.00182053e-03f, 1.15585960e-02f, -1.54705402e-02f, -3.33939716e-02f, -1.80396345e-02f, 2.92437170e-02f, -1.40703479e-02f,
    -1.73821915e-02f, -4.79177833e-02f, 3.89593095e-03f, 9.31053832e-02f, 4.37684730e-03f, -2.92818863e-02f, 7.62741342e-02f, 9.56275035e-03f,
    1.43134873e-02f, 6.47106618e-02f, -8.78221914e-02f, -3.58392969e-02f, -9.06660873e-03f, -4.78277989e-02f, -2.48068571e-02f, -3.78488488e-02f,
    -6.03412651e-02f, -1.51400985e-02f, -3.41866389e-02f, -2.83820815e-02f, -4.78179082e-02f, -4.40713689e-02f, -7.82773830e-03f, -4.76596840e-02f,
    -1.25316065e-02f, 1.19581837e-02f, -1.84604190e-02f, 2.57333275e-02f, 4.71617542e-02f, -4.14086180e-03f, 9.45018604e-02f, 4.95854244e-02f,
    -1.47732347e-01f, 9.98772159e-02f, 1.49178039e-02f, -5.07362932e-03f, 2.90459823e-02f, -4.39563654e-02f, 2.55219620e-02f, -1.66882877e-03f,
    -7.04283863e-02f, 2.69917306e-02f, 4.45335060e-02f, 1.84072666e-02f, 8.46154317e-02f, 1.04139179e-01f, -5.38225770e-02f, 1.49799464e-03f,
    1.33641124e-01f, -8.60415697e-02f, -2.53160764e-02f, 9.23418701e-02f, -2.60968748e-02f, -3.04521481e-03f, 4.69171368e-02f, 1.23182256e-02f,
    3.78297791e-02f, 2.30807718e-02f, -2.72269989e-03f, -2.13012770e-02f, 2.59642992e-02f, 2.41262782e-02f, 8.89905728e-04f, 2.89172158e-02f,
    3.73898782e-02f, -2.87234713e-03f, -3.02306395e-02f, 4.24218476e-02f, -2.45747212e-02f, -4.77198549e-02f, 8.10349882e-02f, -4.40637879e-02f,
    -3.93285342e-02f, -4.08255160e-02f, 4.10084007e-03f, 4.05810820e-03f, -5.70503548e-02f, -4.14169803e-02f, -1.52936336e-02f, -9.68070049e-03f,
    -2.40098331e-02f, -2.46198010e-02f, 2.87313983e-02f, -6.24523014e-02f, -7.02505782e-02f, 2.12311931e-02f, -2.86130514e-02f, -1.25677697e-02f,
    -2.01073308e-02f, -5.30502722e-02f, 1.67538598e-02f, 1.71084870e-02f, 2.64419097e-04f, -7.28251413e-02f, 4.58443686e-02f, -1.29770413e-02f,
    -3.20442393e-02f, 8.66706297e-03f, 3.75029445e-02f, 2.35851817e-02f, 3.73395644e-02f, 6.57430664e-03f, 1.32501023e-02f, 4.85353060e-02f,
    -5.21735325e-02f, 1.20947405e-03f, 4.99833412e-02f, -1.52756730e-02f, 4.26771771e-03f, 7.29988217e-02f, 4.73708026e-02f, 4.10239920e-02f,
    1.55744180e-02f, 2.51091141e-02f, 4.91613857e-02f, 8.85231886e-03f, -1.89160943e-04f, 4.56514359e-02f, 8.35644230e-02f, -2.35862937e-02f,
    -8.49977955e-02f, 5.73498644e-02f, -4.00115140e-02f, 7.85282347e-03f, 3.69798802e-02f, -5.93512552e-04f, 5.91433235e-02f, 4.39849310e-02f,
    -8.66261795e-02f, -6.57626539e-02f, 2.87830625e-02f, -3.70642915e-02f, 1.71033144e-02f, 2.65891477e-02f, -2.83723008e-02f, 2.94805728e-02f,
    -1.96387246e-02f, -3.81483929e-03f, -1.34827327e-02f, 5.98235289e-03f, -1.02663182e-01f, -1.79687534e-02f, -3.67078111e-02f, -4.53666635e-02f,
    1.03327326e-01f, -3.83547582e-02f, -2.11616606e-02f, -1.83280222e-02f, -5.73001010e-03f, -2.33848635e-02f, -7.03098904e-03f, -7.57160084e-03f,
    -4.80239987e-02f, 1.73253678e-02f, -1.35052562e-01f, -6.94814324e-02f, -7.89961964e-02f, -7.10046068e-02f, -3.16260830e-02f, 1.49261234e-02f,
    -3.74861099e-02f, 5.74525148e-02f, 2.34937035e-02f, 1.14694357e-01f, 1.18300639e-01f, 3.03201880e-02f, 3.05813160e-02f, -6.49629459e-02f,
    -1.11509591e-01f, -3.74625772e-02f, -9.69851948e-03f, -2.12497711e-02f, 6.23042658e-02f, -2.62303241e-02f, 1.70565203e-01f, -1.49745578e-02f,
    -1.57902226e-01f, 6.24994300e-02f, -6.57835044e-03f, -1.35856912e-01f, 3.17767449e-02f, -3.42215113e-02f, 7.53738917e-04f, -7.18481466e-02f,
    -3.44431773e-02f, 2.67650653e-02f, -4.08095494e-02f, -4.83409278e-02f, -3.65882181e-02f, -6.74307942e-02f, 2.38303673e-02f, 1.04430700e-02f,
    -6.61792466e-03f, 5.71205467e-03f, -2.53175298e-04f, -3.60901132e-02f, 1.49196116e-02f, -2.14058394e-03f, -7.04901442e-02f, 1.01290785e-01f,
    -4.71606031e-02f, 6.91826493e-02f, 5.61073311e-02f, -7.19642788e-02f, 1.84453018e-02f, 3.77301611e-02f, -5.38955629e-02f, -4.93364744e-02f,
    -1.96018280e-03f, -4.89762569e-05f, -1.94753229e-05f, -1.15052750e-03f, -6.05034467e-04f, -1.54402608e-03f, 3.74921947e-05f, -8.26685864e-04f,
    -8.35955288e-05f, 2.47145072e-04f, 9.41078179e-04f, 2.02851443e-04f, 2.14060652e-04f, -4.65798134e-04f, 1.77019072e-04f, -8.98224011e-04f,
    -2.08481727e-03f, -2.06868118e-03f, 2.40244277e-04f, 4.04195889e-04f, 1.44417095e-03f, -4.86503734e-04f, -1.34064525e-03f, -6.12896809e-04f,
    1.09050644e-03f, 1.59140688e-03f, 1.03166397e-03f, 6.09532057e-04f, 5.84994210e-04f, -1.74257759e-04f, 1.16889796e-03f, 1.52718660e-03f,
    1.76765083e-03f, -8.13243794e-04f, -3.94993083e-04f, -7.51817250e-04f, -5.15998225e-04f, 6.25907851e-04f, 4.18812677e-04f, -7.91842249e-05f,
    -6.31901727e-04f, -9.76475072e-04f, -2.03302669e-04f, -1.10435940e-03f, 9.33870906e-04f, -2.14926014e-03f, -2.68641300e-03f, -2.59790453e-03f,
    -1.44766388e-03f, -2.27096723e-03f, -2.38691131e-03f, -5.03515417e-04f, -1.45785361e-05f, -9.37674951e-04f, 5.51538833e-05f, -1.79491064e-03f,
    -1.39200652e-03f, 2.09565856e-03f, 7.50433072e-04f, -3.51147668e-04f, 2.73556635e-03f, 1.53623696e-03f, 2.82816682e-03f, -2.12005922e-03f,
    -2.36532511e-03f, -2.05455301e-03f, -1.14246237e-03f, -8.44492810e-04f, -4.65139819e-05f, 8.99104576e-04f, 1.64186757e-03f, 2.26332597e-03f,
    -2.55648163e-03f, -2.66685663e-03f, -2.30024569e-03f, 6.92044618e-04f, -6.34813390e-04f, 3.36317491e-04f, 1.01882743e-03f, -2.20646878e-04f,
    2.85862388e-05f, 4.19448921e-03f, 2.92682182e-03f, 2.80072028e-03f, 5.62028086e-04f, 1.11556158e-03f, 2.46038730e-03f, 4.98792288e-05f,
    1.82144705e-03f, 7.44655670e-04f, 2.76881066e-04f, -5.41669724e-04f, -3.85726365e-04f, -1.61634147e-04f, -7.89865560e-04f, -3.89303110e-04f,
    1.57502305e-03f, 2.71477713e-03f, 1.71328033e-03f, 1.25292619e-03f, -1.78790023e-03f, -1.52587751e-03f, 1.70681730e-03f, -9.55683427e-05f,
    -1.46709115e-03f, 4.54195892e-04f, -9.40479254e-07f, -4.37934905e-05f, 1.09397864e-03f, 1.56771753e-03f, 1.19457766e-03f, -1.88779365e-03f,
    2.60747242e-04f, -3.70681257e-04f, -9.18896840e-05f, 2.56387726e-03f, 1.39057741e-03f, -3.17027536e-03f, -2.99954345e-03f, -2.85115954e-03f,
    2.63694383e-04f, 9.61020589e-04f, -8.00183567e-04f, 2.59320694e-03f, 2.85023032e-03f, 2.16801022e-03f, 3.63621832e-04f, -3.48541624e-04f,
    -3.36749622e-06f, 3.89875582e-04f, -1.88459468e-03f, -6.82732440e-04f, 2.04995833e-03f, 1.15932361e-03f, 1.10683567e-03f, 2.87001836e-03f,
    1.27448700e-04f, 1.16280734e-03f, 3.23049328e-03f, 6.33827876e-04f, 1.23126968e-03f, 3.72784189e-03f, 3.29330494e-03f, 2.41524074e-03f,
    1.47857545e-02f, 1.07740611e-02f, 3.46725732e-02f, 9.77057219e-02f, -7.18713598e-03f, -7.60277081e-03f, 2.20600888e-02f, -1.03627443e-01f,
    -4.20801975e-02f, 5.29565029e-02f, 9.82459337e-02f, 4.98886518e-02f, 1.82740502e-02f, 2.90531348e-02f, 4.07655723e-02f, 7.46729877e-03f,
    2.36125570e-03f, 4.49748663e-03f, -1.07385200e-02f, 1.04584442e-02f, -2.43208297e-02f, 3.97586124e-03f, 7.64126936e-03f, 1.54835097e-02f,
    -2.70671174e-02f, -1.17470715e-02f, -2.29556970e-02f, -3.16243782e-03f, 9.57876630e-03f, 1.45041626e-02f, -6.88174227e-03f, -6.40496192e-03f,
    -1.68065971e-03f, 3.42274271e-02f, -2.67127883e-02f, 3.30138691e-02f, 3.26790586e-02f, 8.68791249e-03f, 5.47610149e-02f, -3.52197960e-02f,
    -1.49761150e-02f, -1.09842345e-02f, -2.29507871e-02f, 2.63296589e-02f, -7.83941746e-02f, -7.04490859e-03f, 6.84824809e-02f, 3.04449014e-02f,
    -3.26560694e-03f, 1.35734277e-02f, 2.05354206e-02f, -5.29172085e-02f, -7.01116472e-02f, -4.11173999e-02f, 2.96376590e-02f, 5.64463399e-02f,
    5.35258465e-02f, 6.63754623e-03f, -2.25947332e-02f, 2.34608096e-03f, -1.60449743e-02f, 2.71406658e-02f, -3.65242437e-02f, -2.46059615e-02f,
    1.57458968e-02f, -3.03384047e-02f, 7.33625097e-03f, 6.95182160e-02f, 4.07482162e-02f, -7.55140781e-02f, -5.78295551e-02f, -1.94297396e-02f,
    -3.64778265e-02f, 3.75207956e-03f, -3.14654186e-02f, -2.26911791e-02f, -9.06255096e-03f, -4.77980040e-02f, 1.94064528e-02f, 1.30576519e-02f,
    -3.15131992e-02f, -8.49992260e-02f, -1.09801171e-02f, -1.21336048e-02f, -5.16556129e-02f, 1.81200560e-02f, -6.28778413e-02f, -7.13169873e-02f,
    -5.05746752e-02f, -6.41153604e-02f, -1.02659926e-01f, -5.75570166e-02f, -7.72636831e-02f, -4.32811417e-02f, -3.50596048e-02f, -3.64175960e-02f,
    5.99803738e-02f, 1.02885202e-01f, 4.72731516e-02f, -1.68089587e-02f, 1.06554886e-03f, -1.44491419e-02f, 3.59125547e-02f, 1.10036127e-01f,
    5.20895533e-02f, -1.00743631e-02f, -3.07250917e-02f, -6.35257689e-03f, -4.91320454e-02f, -5.59312738e-02f, -5.74609973e-02f, -4.17954102e-02f,
    -1.18267022e-01f, -6.40332773e-02f, 4.85741310e-02f, 1.06902018e-01f, 4.79124375e-02f, -1.02936104e-01f, -1.22730993e-01f, -1.00530416e-01f,
    -3.35507728e-02f, 1.35554560e-02f, -3.01055014e-02f, 8.49586949e-02f, 9.59037542e-02f, 7.35360235e-02f, -3.80770676e-02f, -4.44779955e-02f,
    -8.87740031e-02f, -1.52104767e-02f, -1.98865384e-02f, -2.49854941e-02f, 4.99243662e-02f, 1.26392514e-01f, 1.28630042e-01f, -1.04353866e-02f,
    -3.47678997e-02f, -2.05753166e-02f, 1.13364067e-02f, 8.97890981e-03f, 1.29784644e-02f, 3.17792818e-02f, 3.68636698e-02f, 1.65807810e-02f,
    -3.31019470e-03f, 1.55200996e-02f, 3.61913675e-03f, -5.02044670e-02f, -3.72999758e-02f, -5.24688587e-02f, -2.70298757e-02f, 1.81111135e-02f,
    -3.26950550e-02f, 2.36439053e-02f, 4.81145876e-03f, 4.89471368e-02f, -6.69576973e-02f, -4.24893154e-03f, 7.64640793e-02f, -3.94276753e-02f,
    -5.65685332e-02f, 3.82676884e-03f, 1.38220785e-03f, -3.32922563e-02f, -3.60060437e-03f, -2.39862185e-02f, -4.65461165e-02f, -2.23745126e-02f,
    9.96139273e-03f, 4.15852070e-02f, 2.99223065e-02f, 2.47859005e-02f, 7.49252141e-02f, 2.87740375e-03f, 1.49846599e-02f, 8.97237938e-03f,
    3.43388203e-03f, 3.27281025e-03f, -6.98761493e-02f, -3.46962996e-02f, -3.51575352e-02f, 2.85230018e-02f, -1.85312964e-02f, 9.62780416e-03f,
    1.48830488e-02f, 1.15498742e-02f, -6.38907962e-03f, 8.24694335e-03f, -4.05056328e-02f, -4.13401090e-02f, -7.20487460e-02f, -7.78446719e-02f,
    -4.02598754e-02f, -1.11862430e-02f, -4.77459654e-02f, 4.11701985e-02f, 6.82677254e-02f, 1.70472413e-02f, -3.22254049e-03f, -4.84574772e-02f,
    -4.39928807e-02f, -2.26903912e-02f, -3.29279266e-02f, -5.86418174e-02f, -3.99361625e-02f, 9.44622234e-03f, 7.51461741e-03f, 1.14510302e-02f,
    -5.99935688e-02f, -4.96224351e-02f, 9.77419410e-03f, -2.65154578e-02f, -5.30295558e-02f, 7.72858709e-02f, 1.13380022e-01f, 2.26956271e-02f,
    -3.99613529e-02f, 2.44755438e-03f, -4.49565314e-02f, 5.68214022e-02f, 9.03526545e-02f, 4.74929176e-02f, 2.97943596e-02f, 1.07353916e-02f,
    -1.03291823e-02f, -1.34571902e-02f, -5.18431291e-02f, -3.81567478e-02f, -2.59365179e-02f, -2.70460974e-02f, -6.87316805e-03f, 7.97384419e-03f,
    -1.02275796e-02f, -1.39123516e-03f, -3.41472328e-02f, 5.45979990e-03f, 3.52559462e-02f, 7.03272820e-02f, -2.78410818e-02f, -3.71996276e-02f,
    3.94585393e-02f, -1.46742472e-02f, 6.69606077e-03f, 1.00948431e-01f, 7.33023137e-02f, 6.08040430e-02f, 7.24096075e-02f, 4.48597744e-02f,
    1.84539910e-02f, -6.00541793e-02f, -7.59521648e-02f, -7.11418092e-02f, 2.88012028e-02f, 3.21519072e-03f, -3.22276987e-02f, -8.95245001e-02f,
    1.32249780e-02f, 5.28167374e-02f, -3.75295952e-02f, -5.41090295e-02f, 6.20254837e-02f, 5.35108754e-03f, 2.96456162e-02f, 2.15599164e-02f,
    -3.15720476e-02f, -2.31385287e-02f, -3.35310772e-02f, -8.78956243e-02f, -4.28452641e-02f, -6.88160062e-02f, 8.30457434e-02f, 8.24320689e-02f,
    8.07665512e-02f, -2.14076377e-02f, -4.68064025e-02f, 2.06799228e-02f, -1.18724830e-01f, -8.85386840e-02f, -1.00960597e-01f, -2.15949863e-02f,
    -7.67806396e-02f, -2.29132660e-02f, 1.98328383e-02f, 9.61356703e-03f, 3.40581127e-02f, 8.31099898e-02f, 1.05392858e-01f, 8.57385099e-02f,
    1.50383625e-03f, 1.20008946e-03f, 2.58654193e-03f, 8.52369121e-05f, 5.85269416e-04f, 1.36611750e-03f, 1.03218321e-04f, -1.07451074e-03f,
    -1.02302351e-03f, 5.98137267e-04f, 7.09043175e-04f, 7.23393983e-04f, 8.86664551e-04f, 2.10225303e-03f, 1.45257625e-03f, -1.44924130e-03f,
    -2.00168905e-03f, 1.26407991e-04f, 5.25390205e-04f, 7.35585461e-04f, -8.33444879e-04f, 9.30760754e-04f, 4.79799055e-04f, -7.66857062e-04f,
    -3.79164325e-04f, -6.99049095e-04f, -2.73574260e-03f, -7.99685658e-04f, -7.74737215e-04f, -1.09023810e-03f, -1.60024140e-03f, -2.31458619e-03f,
    -1.32188969e-03f, -4.97925328e-04f, -7.33160472e-04f, -3.61950195e-04f, 2.48721731e-03f, 3.40071740e-03f, 2.64967629e-03f, 3.05339787e-03f,
    2.82840850e-03f, 2.72398861e-03f, 2.82777520e-03f, 1.12853234e-03f, 2.12956942e-03f, 8.92697542e-04f, 1.56566780e-03f, 1.51245529e-03f,
    8.32535676e-04f, 1.64913363e-03f, 2.06832914e-03f, 2.22175760e-04f, 6.33088348e-04f, 1.96567480e-03f, -2.19141555e-04f, 2.72348360e-03f,
    7.14850088e-04f, 3.09008959e-04f, 2.25068559e-03f, -1.38899160e-03f, -5.22937742e-04f, -1.79197127e-03f, -3.94577906e-03f, 1.30867306e-03f,
    5.47946955e-04f, -9.83410981e-04f, 1.43707453e-04f, -1.84807141e-04f, -1.69525796e-03f, 3.04310699e-04f, 6.57400000e-04f, -2.08640494e-03f,
    4.56650043e-04f, -1.96974678e-03f, 1.60025666e-04f, 4.54204273e-04f, 1.03590253e-03f, 6.60272082e-04f, -5.82552981e-04f, -1.24743755e-03f,
    -2.04864205e-04f, -2.08422681e-03f, -1.30455522e-03f, -1.71157904e-03f, -1.15627539e-03f, -2.08215183e-03f, -2.34244298e-03f, -2.65663536e-03f,
    -3.35101038e-03f, -3.35468445e-03f, -2.36054722e-04f, -1.46321650e-03f, -5.61194203e-04f, 2.16303713e-04f, 2.71717785e-04f, 9.62974562e-04f,
    -1.20435294e-03f, -5.13901119e-04f, -3.48784408e-04f, 4.08957107e-03f, 3.23174638e-03f, 2.81914580e-03f, 3.06307711e-03f, 1.61996391e-03f,
    2.49187602e-03f, 4.08846745e-03f, 2.70758360e-03f, 3.55731137e-03f, 1.30902103e-03f, 3.58717027e-03f, 4.81884083e-04f, 2.55525316e-04f,
    -3.31915799e-05f, -1.78334210e-03f, -1.04016729e-03f, -2.54586863e-04f, -2.58090766e-03f, -4.93879314e-04f, 3.94782051e-04f, -1.22207461e-03f,
    -8.37488682e-04f, 1.55768270e-04f, -1.32239424e-03f, -1.09587726e-03f, 2.89252552e-04f, -2.11481540e-03f, -4.80891147e-04f, -7.75436754e-04f,
    -3.16621823e-04f, 1.30605616e-03f, 2.03270023e-03f, 1.64622208e-04f, -6.52731978e-04f, -4.75766021e-04f, -1.75860571e-03f, 1.84321951e-03f,
    2.88084685e-03f, -1.38920368e-04f, 1.93116884e-03f, 1.95735297e-03f, 2.01389135e-04f, 1.47956132e-03f, 1.37402525e-03f, 6.90104906e-04f,
    4.42327037e-02f, 5.37770577e-02f, 5.53897023e-02f, -5.92304803e-02f, -4.31311727e-02f, -1.01652155e-02f, -5.80633385e-03f, 4.04899716e-02f,
    2.06819754e-02f, -4.42102877e-03f, 2.04242840e-02f, -1.30981039e-02f, -1.62613615e-02f, 1.36683183e-02f, -3.25954929e-02f, -1.21482350e-02f,
    5.60885891e-02f, -1.37374550e-03f, 1.64093878e-02f, -1.31144216e-02f, 4.00581062e-02f, -5.92125952e-02f, -1.11616865e-01f, -6.26279041e-02f,
    -4.38118493e-03f, -4.81036827e-02f, -3.30782831e-02f, -4.04266939e-02f, -5.78539036e-02f, -6.09568544e-02f, -6.16391972e-02f, -1.66510995e-02f,
    -6.53726682e-02f, -4.96654063e-02f, -7.58419931e-02f, -4.85281534e-02f, -4.02751602e-02f, -3.02822497e-02f, -4.08574939e-02f, -3.54248062e-02f,
    -6.73214206e-03f, -2.40544546e-02f, -1.65359359e-02f, 4.39777831e-03f, 4.36303532e-03f, -1.21143851e-02f, 8.32865685e-02f, -2.24541891e-02f,
    -3.72932479e-02f, 6.82162941e-02f, -3.36041115e-02f, -4.54410538e-02f, -4.46919501e-02f, -4.29729037e-02f, -4.39239554e-02f, 6.11300906e-03f,
    -3.92474011e-02f, -2.44459091e-03f, 2.17545107e-02f, -1.34588517e-02f, -2.48534326e-02f, -2.23425959e-04f, -4.64979596e-02f, 1.05326658e-03f,
    -3.02637694e-03f, 4.02694568e-03f, -4.40731868e-02f, -9.09694284e-02f, -5.39847985e-02f, 1.87825002e-02f, -3.73989569e-05f, -1.21122906e-02f,
    3.32938205e-03f, -1.24213174e-02f, -1.96544621e-02f, 3.38746943e-02f, 8.24104920e-02f, -8.02762993e-03f, -5.57184964e-03f, -3.53651084e-02f,
    -1.08581930e-02f, 1.07333533e-01f, 4.69688512e-02f, 7.90622607e-02f, 7.26167038e-02f, 2.98595317e-02f, 6.66777864e-02f, 7.31888860e-02f,
    7.71334022e-02f, 6.42992109e-02f, -3.72142233e-02f, -2.60526203e-02f, -3.35902758e-02f, -3.71579686e-03f, 1.64685138e-02f, -1.45173362e-02f,
    -4.23379429e-02f, -2.59890705e-02f, -5.13420887e-02f, -3.12280399e-03f, -8.51616357e-03f, 1.82910328e-04f, -5.41467182e-02f, -9.41919535e-02f,
    -5.88259026e-02f, 2.42110677e-02f, -3.72966677e-02f, -5.76999411e-03f, 6.67611882e-02f, 1.13947392e-01f, 6.00338355e-02f, 1.07400849e-01f,
    1.43796712e-01f, 8.67638364e-02f, 1.77253596e-02f, 1.19333655e-01f, 3.55771482e-02f, -3.34963500e-02f, -1.47196949e-02f, -9.21786055e-02f,
    -2.23868173e-02f, 2.62191687e-02f, -4.06466015e-02f, 2.37413421e-02f, 2.24388186e-02f, 1.69766904e-03f, 1.63120292e-02f, 2.84090843e-02f,
    2.50223782e-02f, -7.56794540e-03f, 2.46528387e-02f, 2.45932676e-02f, -2.52828021e-02f, -1.90621968e-02f, -6.20105769e-03f, -9.41802468e-03f,
    -2.81796381e-02f, -2.85778102e-02f, -9.50457621e-03f, -2.71207164e-03f, -1.34106232e-02f, -2.84089111e-02f, 2.49999203e-02f, -6.96487492e-03f,
    1.83173325e-02f, 4.06557433e-02f, -1.22005986e-02f, 6.98059797e-02f, 1.31494254e-01f, 2.45617665e-02f, 4.00186516e-02f, 3.36857885e-02f,
    7.03181699e-02f, 3.57795954e-02f, 6.51307181e-02f, 5.69256209e-02f, -1.26357935e-03f, -5.06394468e-02f, -5.52531034e-02f, 9.56117287e-02f,
    9.81625095e-02f, 2.95842085e-02f, 2.97074728e-02f, 1.62037853e-02f, -5.84054319e-03f, 4.33007395e-03f, -6.57732785e-02f, -3.06415986e-02f,
    5.78787476e-02f, 6.44725189e-03f, 2.40827687e-02f, 4.95008975e-02f, 3.96146588e-02f, 5.05615026e-02f, 2.36128829e-02f, 8.39714482e-02f,
    3.80621292e-02f, 3.75800431e-02f, -1.03268251e-02f, 5.12623154e-02f, -2.11773813e-02f, -5.93421943e-02f, -4.07588035e-02f, 7.21663097e-03f,
    -3.06492373e-02f, -2.97920853e-02f, -2.51084901e-02f, -7.62388632e-02f, -2.92949062e-02f, -2.54713148e-02f, -5.07609434e-02f, -3.41351628e-02f,
    -4.94420715e-02f, -7.10394382e-02f, -3.87973748e-02f, -2.87030414e-02f, -4.37006094e-02f, -2.45493036e-02f, -5.23190424e-02f, -4.20469195e-02f,
    -4.86041084e-02f, -2.44821645e-02f, 4.63327542e-02f, 1.71577092e-02f, 1.64113026e-02f, 4.57442403e-02f, 2.62392797e-02f, -1.52082518e-02f,
    -5.42546855e-03f, 8.35887063e-03f, -4.30404320e-02f, -6.30997717e-02f, -4.85969000e-02f, -4.04967070e-02f, -6.22470304e-02f, -5.36175594e-02f,
    6.24854788e-02f, 1.26784921e-01f, 5.55463955e-02f, -9.03634168e-03f, -5.62696438e-03f, -3.15587595e-02f, -2.53171157e-02f, -3.13559361e-02f,
    -3.88850272e-02f, 8.53426289e-03f, -9.43304878e-03f, 1.44452676e-02f, -2.15656981e-02f, -9.66052338e-02f, -1.77377388e-02f, -2.73744166e-02f,
    -1.67033784e-02f, 9.09661688e-03f, 4.25425125e-03f, -1.01634662e-03f, 2.90075913e-02f, -5.40405288e-02f, -3.74612510e-02f, 1.48815084e-02f,
    -2.04137936e-02f, -8.85915011e-03f, 1.37951970e-02f, -8.91726241e-02f, -9.15851966e-02f, -1.06409743e-01f, 2.88097430e-02f, 7.45842010e-02f,
    1.36246737e-02f, -5.67463078e-02f, -4.15367931e-02f, -4.20872755e-02f, 1.40815321e-03f, -2.65691448e-02f, 6.05977476e-02f, 3.11797746e-02f,
    -4.50822376e-02f, -5.05553791e-03f, 9.53768194e-03f, -2.09909789e-02f, -2.58354377e-02f, -2.26023756e-02f, 3.07295360e-02f, -3.23205478e-02f,
    1.18951257e-02f, 4.42955457e-02f, 1.67120609e-03f, -5.10268398e-02f, -9.54958145e-03f, -6.21519238e-02f, -3.15481890e-03f, 2.13722531e-02f,
    1.02081774e-02f, 1.10058421e-02f, 2.20003612e-02f, 3.26897912e-02f, 2.69846339e-02f, 4.19261754e-02f, 2.53589544e-02f, -1.33032762e-02f,
    -1.37359994e-02f, 1.94398109e-02f, -1.10182830e-03f, -3.48953381e-02f, -4.68506925e-02f, 1.87746398e-02f, 3.15927416e-02f, -2.67667300e-03f,
    1.44309562e-03f, 2.46449234e-03f, 2.52451818e-03f, 1.83854240e-03f, 3.11449543e-03f, 2.66997842e-03f, 1.82674057e-03f, 2.77912454e-03f,
    2.01604841e-03f, 7.85381591e-04f, -3.05508706e-06f, 1.34060357e-03f, -2.32790946e-04f, -6.57898854e-05f, 8.43256945e-04f, 3.27222864e-04f,
    -6.84933970e-04f, 1.60823949e-03f, 9.07927577e-04f, 1.13632728e-03f, 1.15033868e-03f, 7.53441593e-04f, -6.43524167e-04f, 4.16769151e-04f,
    -9.44528001e-05f, -4.13893693e-04f, 6.33352844e-04f, -1.52124360e-03f, -4.82025935e-04f, -3.59085592e-04f, -1.78850349e-03f, -3.55964206e-04f,
    4.80649069e-05f, -1.13803567e-03f, -1.17436597e-04f, 1.68913481e-04f, -2.06446392e-03f, -1.14089076e-03f, -1.00955996e-03f, -1.47374743e-03f,
    -9.56227886e-04f, -1.64407818e-03f, -5.71117096e-04f, 1.25267217e-03f, 7.22794270e-04f, -1.78057433e-03f, -1.78048364e-03f, -3.52415978e-03f,
    -1.53842394e-03f, 3.81691498e-04f, -2.42044055e-03f, -1.19304622e-03f, -9.86543484e-04f, -2.28137407e-03f, -1.69610931e-03f, -1.20484980e-03f,
    -4.94569540e-04f, -1.25999690e-03f, -3.69811081e-04f, -2.29825833e-04f, -7.27226958e-04f, 4.80422808e-04f, 6.20598963e-04f, -2.60517374e-03f,
    -1.97647512e-03f, -2.69177207e-03f, -2.43767141e-03f, -2.99595849e-04f, -1.03762513e-03f, -2.47296784e-03f, -1.29584642e-03f, -1.96957937e-03f,
    1.67579285e-03f, 1.65368430e-03f, 1.44899369e-03f, 7.68648984e-04f, 3.35259316e-03f, 2.58693867e-03f, 9.04448098e-04f, 1.36527198e-03f,
    1.13176263e-03f, -2.28242390e-03f, -2.46814429e-03f, -4.02558548e-03f, -1.68362155e-03f, -1.09733106e-03f, -3.18722450e-03f, -9.19491227e-04f,
    -5.46480471e-04f, -1.34986243e-03f, 8.55338803e-05f, -4.68794577e-04f, -1.38916122e-03f, -1.82694965e-03f, -1.70663896e-03f, -1.85194658e-03f,
    -1.92737067e-03f, -6.31128496e-04f, -7.25428050e-04f, -1.72262697e-03f, -3.00577190e-03f, -2.56290543e-03f, -1.40765880e-03f, -1.93023251e-03f,
    -1.75293337e-03f, -5.98704908e-04f, 3.41316278e-04f, 8.11677775e-04f, -9.13427211e-04f, -1.51931716e-03f, -2.11140909e-03f, -1.20008807e-03f,
    -2.87261070e-03f, -2.21094117e-03f, -6.91849447e-04f, -2.05455418e-03f, -1.45575125e-03f, 2.18177517e-03f, 4.96426132e-04f, 1.94755220e-03f,
    1.99200888e-03f, 3.85554653e-04f, 1.88148627e-03f, 9.67566448e-04f, -1.06885098e-03f, 8.52524303e-04f, 1.02805335e-03f, 1.10758760e-03f,
    6.29696122e-04f, 5.77854225e-04f, 2.36113323e-04f, -6.53699564e-04f, 6.44037500e-04f, 1.04962685e-03f, 1.08378139e-04f, -1.74290279e-03f,
    -2.00651819e-03f, -4.09606984e-03f, -6.13639306e-04f, -3.26539768e-04f, -2.70567811e-03f, -1.61571964e-03f, -2.18389253e-03f, -3.46599822e-03f,
    8.21232796e-02f, 2.42824457e-03f, -1.09190449e-01f, 5.68531938e-02f, 4.18439740e-03f, -7.73406252e-02f, 3.41549865e-03f, 3.56654227e-02f,
    -9.76216234e-03f, 7.21567273e-02f, -3.41297220e-03f, 1.51205873e-02f, 7.03242421e-02f, 1.30971093e-02f, 1.59067158e-02f, 7.76738450e-02f,
    3.96516137e-02f, 5.92083149e-02f, -7.23688572e-05f, 6.79838099e-03f, -9.49337613e-03f, -3.47805172e-02f, 3.77784558e-02f, -4.26136749e-03f,
    -5.92828616e-02f, -7.16372114e-03f, -1.96305402e-02f, -3.64554934e-02f, -1.77573357e-02f, -7.16836825e-02f, -3.90416756e-02f, -6.78047584e-03f,
    -3.25226448e-02f, -9.28853378e-02f, -6.35972023e-02f, -7.13343099e-02f, 5.00312336e-02f, -1.99500248e-02f, -4.58783731e-02f, 8.98903310e-02f,
    2.93622389e-02f, -1.88412033e-02f, 1.90940768e-01f, 4.64026667e-02f, -1.02425292e-02f, 4.53454889e-02f, 2.82258680e-03f, 3.40683684e-02f,
    4.94424254e-03f, 4.96375235e-03f, 4.59696585e-03f, 6.86265668e-03f, -1.44930193e-02f, -8.72784480e-03f, 5.54605201e-02f, 1.07315769e-02f,
    2.21627336e-02f, 4.92517166e-02f, 1.63755566e-02f, 4.54289801e-02f, 3.52473035e-02f, -1.04912315e-02f, 2.44562440e-02f, -6.53200876e-03f,
    -3.70754600e-02f, -1.07026696e-02f, 9.92270280e-03f, -2.15775473e-03f, 1.43512161e-02f, -3.54792066e-02f, -2.52569448e-02f, 1.58405257e-03f,
    -2.70094126e-02f, -4.14106399e-02f, -2.25704219e-02f, -1.91478059e-02f, 6.96904436e-02f, -2.03001201e-02f, -3.38020809e-02f, -2.97703072e-02f,
    -3.46587002e-02f, -6.97134435e-02f, -6.07057214e-02f, -2.46895216e-02f, -7.08838552e-02f, -8.03773627e-02f, -7.71358609e-02f, -4.29431386e-02f,
    -5.26689664e-02f, -6.65756017e-02f, 6.63423538e-03f, -3.55225727e-02f, 5.71136223e-03f, 8.46789964e-03f, 1.62556805e-02f, 7.86632951e-03f,
    2.20288411e-02f, 3.43468003e-02f, 5.32694198e-02f, 1.82844047e-02f, 2.02148464e-02f, 4.83821929e-02f, -3.24106566e-03f, -8.42293724e-03f,
    1.09595880e-02f, -6.58068387e-03f, -3.67336608e-02f, 7.86138698e-03f, -7.33019486e-02f, -5.31147495e-02f, -5.31579219e-02f, -5.92239276e-02f,
    -3.08441054e-02f, -4.44585383e-02f, -2.67315116e-02f, -1.72854587e-02f, -2.62108427e-02f, 1.25102058e-01f, 5.09287864e-02f, 5.76350354e-02f,
    1.41795361e-02f, -8.46447498e-02f, -9.33571439e-03f, -1.27847297e-02f, -8.26345831e-02f, -4.47397530e-02f, -1.06397718e-02f, 8.93886089e-02f,
    1.40143216e-01f, -4.78000268e-02f, 6.09575659e-02f, 5.58343343e-02f, -1.66262582e-01f, -6.84372261e-02f, -6.70891404e-02f, 4.65277163e-03f,
    -2.39206273e-02f, 1.50655834e-02f, 8.23367108e-03f, -1.04573304e-02f, 3.60486005e-03f, 7.12447334e-03f, -1.36608705e-02f, -2.15781741e-02f,
    -9.87140983e-02f, -4.47753035e-02f, -3.65600437e-02f, -4.91671897e-02f, 4.80455980e-02f, -2.90434398e-02f, 8.08371603e-03f, 6.06813766e-02f,
    7.01513840e-03f, -6.60700351e-02f, 1.06022106e-02f, 6.12378120e-02f, -3.45157608e-02f, -1.27100991e-02f, 6.35125265e-02f, 1.36672184e-02f,
    1.66581776e-02f, 8.77259858e-03f, 2.40090806e-02f, -5.35366498e-02f, 8.05675890e-03f, -1.76216383e-02f, -5.81393093e-02f, -2.34037377e-02f,
    -2.15936247e-02f, -5.57056144e-02f, -2.40185168e-02f, 6.26658425e-02f, 1.33984536e-03f, 5.24629690e-02f, 2.66436357e-02f, -5.93133681e-02f,
    -4.66536637e-03f, -1.90964676e-02f, -7.95008764e-02f, -1.92840793e-03f, 1.42536256e-02f, -5.60376421e-03f, 4.33304571e-02f, 1.67542528e-02f,
    6.40647858e-02f, 4.97668907e-02f, -8.23071506e-03f, -5.27222827e-02f, 1.44753866e-02f, 4.88394089e-02f, -2.42129504e-03f, -1.23011833e-02f,
    1.67487431e-02f, 9.88960825e-03f, -5.17936014e-02f, 3.68194580e-02f, 6.34142309e-02f, 3.12810205e-02f, 6.76085725e-02f, -2.02074200e-02f,
    5.33765880e-03f, 1.56675708e-02f, -2.65278644e-03f, 6.17030216e-03f, 6.08857861e-03f, 2.73770280e-02f, 9.70705673e-02f, -2.78970264e-02f,
    2.32245773e-03f, -2.32717618e-02f, -7.36736134e-02f, 1.71467289e-02f, -1.46792945e-03f, -9.61831063e-02f, -2.44541522e-02f, -9.68885608e-03f,
    1.86532572e-01f, 9.81605724e-02f, 1.39953345e-01f, 2.20392235e-02f, -7.23024607e-02f, 2.83490047e-02f, 3.29761021e-02f, -2.77103819e-02f,
    2.89685726e-02f, -1.28417797e-02f, 9.09314665e-04f, -5.19085862e-03f, 2.17335951e-02f, 1.05987927e-02f, 1.79598257e-02f, -3.09624318e-02f,
    3.41418292e-03f, -3.00171748e-02f, -1.27055228e-01f, -2.35123653e-02f, 6.64560720e-02f, -8.93132538e-02f, 5.65681420e-03f, 1.06649220e-01f,
    -7.96157196e-02f, 3.63705531e-02f, 1.26369804e-01f, -1.95289683e-02f, 2.76834960e-03f, 6.05942169e-03f, -6.18503764e-02f, -4.23971564e-02f,
    -1.63185429e-02f, 1.33481445e-02f, 4.60343547e-02f, 2.28962004e-02f, -3.90509330e-02f, -4.01318632e-02f, -7.21728951e-02f, 2.93332040e-02f,
    -1.86331049e-02f, -2.04279870e-02f, 8.67145061e-02f, -4.49609663e-03f, -5.60989864e-02f, -3.44965197e-02f, 2.54189782e-02f, -6.65607397e-03f,
    -1.79230571e-02f, 1.02509512e-02f, -2.29243226e-02f, -5.86328935e-03f, 2.89795492e-02f, -6.64447725e-04f, -8.00898820e-02f, 9.22869705e-03f,
    -6.67802095e-02f, -7.62282610e-02f, 9.78263095e-02f, 5.84009569e-03f, -1.00088544e-01f, 1.73575617e-02f, -4.64427806e-02f, 7.57272318e-02f,
    -3.38126384e-02f, -3.21084936e-03f, 4.12780009e-02f, 2.84023560e-03f, 5.77775948e-03f, 3.61419894e-04f, -4.48289663e-02f, 9.86840669e-03f,
    4.89501515e-03f, 1.69915217e-03f, 3.57103324e-03f, 1.67613232e-03f, -2.07794295e-03f, 9.17570607e-04f, 2.44041812e-03f, -5.39266388e-04f,
    5.90315205e-04f, 1.31602923e-03f, 1.43708906e-03f, 1.74824242e-03f, 1.33937225e-03f, 2.04613758e-03f, 3.45020113e-03f, 4.09414759e-04f,
    -9.91748995e-04f, 2.20481725e-03f, 1.16169476e-03f, -2.60305154e-04f, 2.68530729e-03f, 1.30989763e-03f, -1.39040954e-03f, 3.38313263e-03f,
    7.10213266e-04f, -3.19426792e-04f, 2.01535434e-03f, -3.37002357e-03f, -1.89081416e-03f, -1.91231200e-03f, -2.11052550e-03f, -7.28120503e-04f,
    -1.95912272e-03f, -1.91951077e-03f, -7.71461520e-04f, -1.67359377e-03f, 2.75816512e-03f, 2.47776113e-03f, 1.26665831e-03f, 9.56195756e-04f,
    5.69924654e-04f, -1.25835615e-03f, 1.92325650e-04f, 6.50717819e-04f, -1.20290194e-03f, -1.97154051e-03f, -1.02193828e-03f, -8.46753304e-04f,
    -1.60097214e-03f, -2.13102787e-03f, -2.75583821e-03f, -2.38652481e-03f, -2.68589379e-03f, -2.49903277e-03f, -1.81149098e-03f, -2.22926936e-03f,
    -1.76302041e-03f, 9.55217693e-05f, -3.37827572e-04f, -2.30084779e-03f, -1.67847262e-03f, -6.30063703e-04f, -2.33016093e-03f, -5.63367270e-04f,
    5.53856255e-04f, 1.73518166e-03f, -2.09201965e-03f, -1.14494830e-03f, -1.54508962e-04f, 1.06258865e-03f, 2.01255782e-03f, 1.78706401e-03f,
    1.01017114e-03f, -2.27143941e-03f, 1.54716091e-03f, -8.65477952e-04f, -4.20917943e-03f, -2.52381753e-04f, 1.14486215e-03f, -1.96902384e-03f,
    9.91021632e-04f, 9.38819197e-04f, 1.42110814e-03f, 1.47221703e-03f, -5.10384969e-04f, -5.36935113e-04f, 3.17793281e-04f, -1.05503306e-03f,
    -2.51913996e-04f, 1.93412905e-03f, 2.02069851e-03f, 2.50191893e-03f, 1.07420445e-03f, 5.49303193e-04f, 2.43892171e-03f, 1.74592179e-03f,
    -7.12239242e-04f, 2.42879661e-03f, 1.87025312e-03f, -1.96276116e-04f, 8.54235317e-04f, -1.58308330e-03f, 4.02870937e-05f, 9.66250256e-04f,
    -3.50353750e-03f, -1.03066303e-03f, 3.32037365e-04f, -3.75296664e-03f, 4.30186512e-03f, 4.15892387e-03f, 6.17073849e-03f, 2.66438606e-03f,
    2.48462020e-04f, 4.83725872e-03f, 3.17510590e-03f, 1.28885836e-03f, 5.22081647e-03f, -2.14494110e-04f, -2.48716003e-03f, 1.23990735e-03f,
    1.20553863e-03f, -2.39608600e-03f, 3.18200933e-03f, 1.74312119e-03f, -1.09724887e-03f, 2.01622280e-03f, 2.12141452e-03f, 5.92418037e-05f,
    3.77201912e-04f, 1.92230684e-03f, 2.06502256e-04f, 1.14792259e-03f, 2.82165105e-03f, 2.40560900e-03f, 2.03649281e-03f, 1.26806344e-03f,
    7.08603009e-04f, 2.70325853e-03f, 2.19921768e-03f, -4.42756602e-04f, 9.05631401e-04f, 1.52301916e-03f, 6.61547019e-05f, 1.29332533e-03f,
    -2.90711038e-02f, -5.44934496e-02f, 9.80063621e-03f, -8.28078482e-03f, -1.94874573e-02f, -1.35500170e-02f, -5.47688641e-03f, 1.12081561e-02f,
    6.77831995e-05f, -1.31737683e-02f, -1.04874268e-01f, -7.18104988e-02f, 4.19972800e-02f, -2.88345199e-02f, -2.36371765e-03f, 3.14087160e-02f,
    -1.83786787e-02f, 7.12655066e-03f, 4.78730574e-02f, -2.20055506e-02f, 7.64988139e-02f, 1.38647696e-02f, -1.20898828e-01f, 2.62869317e-02f,
    5.24619371e-02f, -1.78092765e-03f, 5.63679636e-02f, -1.33788493e-02f, 4.29279767e-02f, -1.19756963e-02f, -1.75950844e-02f, 2.64701638e-02f,
    -5.34266233e-03f, -1.82758737e-02f, 2.61063352e-02f, 1.36106054e-03f, -2.38628983e-02f, 1.41196633e-02f, 7.69299418e-02f, -5.27595989e-02f,
    -6.34516105e-02f, 6.95557445e-02f, 1.96209885e-02f, 9.47292987e-03f, 1.37401447e-01f, 1.70742068e-03f, -4.60531656e-03f, 9.69847431e-04f,
    -6.69986848e-03f, -6.00120723e-02f, -1.18956706e-02f, 3.61866690e-02f, -1.14338771e-02f, 1.65490359e-02f, 1.78747661e-02f, 1.66934170e-02f,
    7.64885265e-03f, -3.94675992e-02f, 1.04106162e-02f, -1.44883199e-02f, 1.87229048e-02f, 3.74427103e-02f, 4.36038822e-02f, 2.05745455e-02f,
    1.82872755e-03f, 1.04610156e-02f, 4.26538922e-02f, -1.08141853e-02f, 2.40975395e-02f, 4.40579467e-03f, -3.16240564e-02f, -3.63242477e-02f,
    -4.08460796e-02f, -4.67125662e-02f, -3.19767147e-02f, -5.32057770e-02f, -6.88409060e-02f, -4.14230153e-02f, -2.20672227e-02f, -2.75088623e-02f,
    8.78548063e-03f, -3.55686154e-03f, -4.68923710e-03f, 1.15861699e-01f, 1.83136892e-02f, 1.56786572e-02f, 5.99513762e-02f, -5.53732589e-02f,
    -4.71014790e-02f, -3.41170765e-02f, 3.50643583e-02f, 5.44077829e-02f, 7.80418441e-02f, -6.32741395e-03f, -2.32190024e-02f, 7.81292655e-03f,
    2.91926488e-02f, 3.22574638e-02f, 4.07888889e-02f, 9.35929734e-03f, -4.79493998e-02f, 7.11105317e-02f, 3.28678973e-02f, -3.99545953e-02f,
    5.81294224e-02f, 2.53989082e-02f, -1.24416482e-02f, 2.61616167e-02f, 5.29806083e-03f, -1.09400541e-01f, 6.97485134e-02f, 5.57959080e-02f,
    -9.90351513e-02f, 5.60901724e-02f, 8.86108205e-02f, 6.16650432e-02f, 3.55529338e-02f, 2.29635388e-02f, 3.21621373e-02f, 2.56028902e-02f,
    -4.03410830e-02f, 1.23041077e-03f, 2.68482976e-02f, -1.01461791e-01f, -4.18840833e-02f, -1.87174734e-02f, 3.38329710e-02f, 3.92872095e-03f,
    4.23308499e-02f, 5.34896106e-02f, -1.32782548e-03f, 1.39840867e-03f, 4.53782864e-02f, 3.51131298e-02f, 2.00485010e-02f, 1.51655711e-02f,
    -2.79135574e-02f, 2.27474123e-02f, 1.30097298e-02f, -6.24714047e-03f, 5.36419626e-04f, 3.32575850e-02f, 1.32791344e-02f, 1.57994479e-02f,
    5.64696006e-02f, 5.38175832e-03f, -1.21168653e-02f, 2.37575956e-02f, -2.90534999e-02f, -1.26788160e-02f, 1.43583164e-01f, 7.77918994e-02f,
    8.78415927e-02f, -2.29263399e-02f, -3.83269489e-02f, -1.06610544e-02f, -4.17406447e-02f, -2.45649274e-02f, -2.40620319e-02f, -3.40528041e-02f,
    -3.29636708e-02f, -2.09464580e-02f, 1.20900795e-02f, -4.64258343e-02f, 3.37306447e-02f, 3.45607847e-02f, 2.94506624e-02f, 5.37361279e-02f,
    -1.00949042e-01f, -1.39908671e-01f, -8.29536319e-02f, -3.39434370e-02f, 2.55499519e-02f, -4.59326506e-02f, -4.84822467e-02f, 1.40120927e-02f,
    -3.62983681e-02f, -5.12729362e-02f, 2.69563799e-03f, -9.84717812e-03f, 2.27070949e-03f, -3.09632439e-02f, 3.95625420e-02f, 3.05666942e-02f,
    2.98663159e-03f, 3.51189785e-02f, -9.50755924e-03f, -3.78518999e-02f, -3.13522108e-02f, 8.67524091e-03f, -1.10464878e-02f, -7.20046367e-03f,
    -1.38746053e-02f, -6.28183112e-02f, -2.50881203e-02f, 5.52499061e-03f, -1.16205523e-02f, -1.61140598e-02f, 5.85234426e-02f, 3.28732766e-02f,
    -5.12972067e-04f, 4.91644442e-02f, -2.48869322e-02f, -1.03827268e-02f, 2.32150257e-02f, -2.11789738e-02f, 3.66884582e-02f, 1.18270449e-01f,
    5.74797450e-05f, 1.76810585e-02f, 1.00232966e-01f, -6.11404218e-02f, -2.26869173e-02f, 8.07031691e-02f, -3.23088244e-02f, -3.39979529e-02f,
    1.41097475e-02f, -3.84072810e-02f, 5.09624183e-02f, -2.94258613e-02f, -1.53513491e-01f, 2.95056384e-02f, 1.03840582e-01f, -4.11487743e-02f,
    1.44130915e-01f, -2.29702350e-02f, -4.38750573e-02f, 4.97876608e-04f, 5.76955220e-03f, -1.28375571e-02f, 2.11126972e-02f, -1.02669485e-02f,
    -1.42727485e-02f, 1.06186615e-02f, -3.57417315e-02f, -5.96315451e-02f, 4.58410522e-03f, -2.47783083e-02f, -3.32541689e-02f, 1.84211284e-02f,
    -4.03633714e-02f, -4.96216528e-02f, -2.44028419e-02f, 4.75100912e-02f, 3.68406959e-02f, 6.14983775e-03f, -5.28057963e-02f, -1.05826713e-01f,
    -6.80825040e-02f, 1.23717047e-01f, 6.83793053e-02f, 1.39964432e-01f, 6.64414614e-02f, -6.60810918e-02f, -2.03384999e-02f, 7.49030188e-02f,
    -4.97799553e-02f, -3.75538431e-02f, 3.94982621e-02f, -7.23335147e-02f, -8.86506215e-02f, 6.79833889e-02f, 3.39775309e-02f, 6.23547509e-02f,
    2.80122813e-02f, -4.53289226e-02f, 2.44049039e-02f, 3.99426073e-02f, -6.60579232e-03f, 1.76287070e-02f, 5.86032402e-03f, -4.24386077e-02f,
    -7.30332434e-02f, 2.05368316e-03f, -6.41442537e-02f, -7.08215758e-02f, 9.67370048e-02f, 1.19748814e-02f, -7.42169935e-03f, 3.04497369e-02f,
    1.45349391e-02f, -4.02859738e-03f, -1.87112410e-02f, -6.44484721e-03f, -6.44166544e-02f, -8.91182870e-02f, -3.75130288e-02f, -1.13825232e-01f,
    -1.58267212e-04f, -8.35642160e-04f, 1.15790253e-03f, 5.69758595e-05f, -1.15036417e-03f, -2.87913834e-04f, 4.04495368e-04f, -9.00821353e-04f,
    -3.54543481e-05f, -1.69097024e-04f, -2.57944135e-04f, -5.34660976e-05f, -6.75637741e-04f, -6.43325213e-04f, 6.21712243e-04f, -7.27153092e-04f,
    1.99371469e-04f, 1.37417519e-04f, 3.13563040e-04f, 6.53491414e-04f, 2.25037942e-03f, -1.26895192e-03f, -9.29955160e-04f, 7.22649042e-04f,
    1.03057630e-03f, 1.59841147e-03f, 2.31028185e-03f, -4.08113323e-04f, -1.62117649e-03f, -2.95617245e-03f, 5.06711076e-05f, -6.20463397e-04f,
    -4.09241096e-04f, 1.04795245e-03f, 1.59897434e-04f, 1.47967279e-04f, 8.56674334e-04f, 3.98857403e-04f, 2.32407637e-03f, -6.02827698e-04f,
    -1.35021133e-03f, 4.38863586e-04f, -1.79668586e-03f, -1.62635290e-03f, -7.23010220e-04f, 1.67759182e-03f, 7.29990541e-04f, 3.53550800e-04f,
    1.98206096e-03f, 6.50932139e-04f, 1.51012943e-03f, 1.77768277e-04f, 1.70369545e-04f, 6.96849456e-05f, 4.64995479e-04f, -5.78669540e-04f,
    -9.18997044e-04f, -6.07148919e-04f, -1.48470956e-03f, -6.20379520e-04f, -8.42205656e-04f, 9.82158817e-04f, 1.32508436e-03f, 3.49325739e-04f,
    3.07917129e-04f, -4.46931044e-05f, 1.41857273e-03f, 1.07040323e-04f, -6.23744272e-04f, 2.18908442e-03f, 8.36602339e-05f, -9.10984760e-04f,
    -1.82334369e-03f, -1.92422385e-03f, -2.53913295e-03f, 5.78247535e-04f, 6.47462002e-05f, -7.01018551e-04f, 1.34598569e-03f, 5.96152211e-04f,
    -2.46565876e-04f, -5.46594267e-04f, -1.90508179e-03f, -1.46639894e-03f, -1.44060483e-04f, -1.28386379e-03f, -5.80562337e-05f, 7.72709260e-04f,
    -9.89192398e-04f, -2.58131279e-03f, 1.96044426e-03f, -3.39543622e-04f, 7.48708495e-04f, 4.87311947e-04f, -1.23797660e-03f, 7.08806037e-04f,
    -1.98016874e-04f, -2.74705351e-03f, -8.46038223e-04f, 1.39701029e-03f, -1.96117209e-03f, -9.36870871e-04f, 2.17781705e-03f, -7.07637635e-04f,
    8.49142321e-04f, 8.30671750e-04f, -1.92080019e-03f, -1.15178910e-03f, 3.60658625e-03f, 3.09410295e-03f, 4.45828214e-03f, 2.06823135e-03f,
    1.09636365e-03f, 1.08237425e-03f, 2.08850764e-03f, 1.34555844e-03f, 5.88006372e-08f, 1.18375069e-03f, 1.47676573e-03f, -2.17788081e-04f,
    6.67772547e-04f, 1.00369484e-03f, -1.36615860e-03f, 6.35026779e-04f, 1.60443492e-03f, 5.87035378e-04f, -2.74849852e-04f, 5.09094098e-04f,
    2.06515240e-03f, -5.43322705e-04f, -1.51233014e-03f, 1.29277041e-05f, -6.73246919e-04f, -1.36551284e-03f, -6.09100913e-04f, 3.17214034e-03f,
    9.84381186e-04f, 7.32752786e-04f, 1.66746066e-03f, -2.73497077e-04f, 2.09449884e-03f, 1.42942497e-03f, 6.00014348e-04f, 6.45947992e-04f,
    3.78911719e-02f, -3.97604046e-04f, -4.16073725e-02f, 4.41188887e-02f, 3.75755690e-02f, -1.18824884e-01f, 3.53269428e-02f, -7.76728569e-03f,
    -8.36155117e-02f, 2.04815567e-02f, 3.11454087e-02f, -2.90251914e-02f, 7.31898844e-02f, 7.17482567e-02f, 5.18725812e-02f, 2.58430243e-02f,
    1.71515699e-02f, -2.60837413e-02f, -3.48903649e-02f, -4.62967604e-02f, -1.29393861e-02f, -1.66012850e-02f, 1.45257625e-03f, 2.36381050e-02f,
    4.64331219e-03f, 5.89913204e-02f, 4.96162809e-02f, -5.26637472e-02f, -1.89937167e-02f, -6.64405874e-04f, -3.49434488e-03f, 7.89165404e-03f,
    3.31963263e-02f, 7.61152953e-02f, 5.21996990e-02f, 1.68371275e-02f, -4.26876955e-02f, -6.19436949e-02f, -1.43152270e-02f, -8.44920874e-02f,
    -9.62340012e-02f, 4.99855280e-02f, -5.72009422e-02f, 8.39429704e-05f, 3.65634486e-02f, -4.03031707e-03f, 1.59341265e-02f, -1.27515977e-03f,
    1.85827836e-02f, -1.28536690e-02f, -3.66961234e-03f, -3.19899321e-02f, -8.76836758e-03f, 1.08166167e-03f, 1.03512732e-02f, -1.16478521e-02f,
    -5.32541685e-02f, 2.57832948e-02f, -3.64267454e-02f, -3.30560356e-02f, -2.40439381e-02f, -8.43829513e-02f, -4.91503030e-02f, -3.21015716e-02f,
    2.56311633e-02f, 2.55902540e-02f, 2.17444040e-02f, 5.10331709e-03f, -2.37492304e-02f, 2.39740312e-02f, -2.76783248e-03f, -1.51520986e-02f,
    -9.37960669e-02f, -5.69393076e-02f, 1.95882618e-02f, -5.48564903e-02f, -9.62923691e-02f, 8.77324119e-02f, 3.88289429e-02f, 9.67179146e-03f,
    2.94643678e-02f, -4.83467840e-02f, -4.01206650e-02f, -6.43792003e-02f, -5.73678575e-02f, -2.59188488e-02f, -2.61818096e-02f, -6.65178448e-02f,
    -1.66177601e-02f, 2.89750341e-02f, -4.59885150e-02f, 4.98441271e-02f, 5.08440025e-02f, -5.51657490e-02f, 2.90521681e-02f, 2.66770385e-02f,
    -2.73873154e-02f, 3.56809832e-02f, -3.06417292e-04f, 1.33788865e-02f, -3.02779824e-02f, -3.42368893e-02f, 4.22519594e-02f, -3.82218100e-02f,
    -2.15482470e-02f, 1.56060336e-02f, -2.15291195e-02f, -2.53696460e-02f, 1.98053196e-02f, 1.50351105e-02f, -7.27094151e-03f, -8.58174730e-03f,
    -2.26363763e-02f, 3.14393593e-03f, 2.15719352e-04f, -1.09468596e-02f, 3.58604454e-02f, -6.71917498e-02f, -3.25303115e-02f, 4.85580973e-02f,
    -6.70333281e-02f, -3.43085304e-02f, 5.64739518e-02f, -7.99576268e-02f, 1.39309838e-02f, 4.11459580e-02f, -2.46348996e-02f, -6.23300485e-02f,
    -6.62383288e-02f, -3.68820764e-02f, -7.30728805e-02f, -2.75706723e-02f, 5.52653074e-02f, 3.40333320e-02f, -1.69151835e-02f, -1.23478444e-02f,
    -1.08274687e-02f, 2.52786856e-02f, -2.17665490e-02f, -3.18390280e-02f, 6.36592135e-02f, -2.39504352e-02f, -1.19284978e-02f, 3.15825678e-02f,
    3.65788899e-02f, -8.85216147e-03f, -1.35182654e-02f, 1.65448617e-02f, -4.67175581e-02f, 9.98522192e-02f, -7.86079094e-02f, 8.20007734e-03f,
    7.09550008e-02f, 1.59894284e-02f, 4.01447825e-02f, -2.86991820e-02f, -5.34309037e-02f, -2.12682579e-02f, -7.82726333e-02f, -1.02933116e-01f,
    -1.00031920e-01f, -6.97229356e-02f, 1.49757916e-03f, 6.66835308e-02f, 1.04877830e-01f, 1.40120704e-02f, 4.30289516e-03f, 8.64438713e-02f,
    -5.32784015e-02f, -5.47786765e-02f, 2.36718301e-02f, 3.44021479e-03f, -8.29146150e-03f, 7.05399811e-02f, 1.93080455e-02f, -1.91471912e-02f,
    5.08078821e-02f, 3.86934355e-02f, 1.46277100e-02f, -1.47531386e-02f, -9.74223167e-02f, -2.09138840e-02f, 3.15002985e-02f, -5.21399789e-02f,
    -2.11800933e-02f, 1.23276606e-01f, -5.19298539e-02f, 1.44240540e-02f, 1.12719685e-01f, 4.10469584e-02f, 2.34050062e-02f, -8.00012797e-03f,
    4.19683941e-02f, -2.95385960e-02f, -3.08219693e-03f, 3.73671576e-02f, 2.91280765e-02f, -2.84617720e-03f, -3.67218233e-03f, -1.60215851e-02f,
    -1.04222046e-02f, 2.91447155e-02f, -3.66705470e-03f, 4.17893678e-02f, 2.86800284e-02f, 2.66023353e-02f, 3.28293703e-02f, 4.25046720e-02f,
