#include "features_9_squeeze_weight.h"

__attribute__((aligned(16))) const float features_9_squeeze_weight[18432] = {
    5.95949888e-02f, 9.42992866e-02f, -2.73450650e-02f, 4.70185786e-01f, -5.00541776e-02f, 3.34341414e-02f, -3.71862240e-02f, 1.03371255e-01f,
    -5.28842323e-02f, 7.01338947e-02f, -7.03120977e-02f, 1.44681679e-02f, -1.76293738e-02f, -4.88248765e-02f, -1.56832516e-01f, 8.17680880e-02f,
    6.33754581e-02f, -1.48023158e-01f, -8.55783219e-06f, -4.04600352e-02f, -1.27671584e-01f, -1.14116855e-01f, 2.86328532e-02f, 1.12716481e-01f,
    4.14777314e-03f, 2.02412792e-02f, -1.95950419e-01f, -6.87960684e-02f, -1.09231705e-02f, 3.57894719e-01f, -1.87365133e-02f, -1.98733434e-02f,
    1.50188059e-03f, 8.37934613e-02f, 5.98231182e-02f, 3.35078053e-02f, 6.66868314e-02f, -1.48737207e-01f, -1.84921529e-02f, -1.28527045e-01f,
    -2.21543126e-02f, -6.60454482e-03f, 3.40752043e-02f, -1.30692488e-02f, 1.19724115e-02f, -1.83873996e-01f, -9.73249748e-02f, 3.84490937e-02f,
    -5.11882715e-02f, -1.46480754e-01f, -4.99647819e-02f, -3.33503857e-02f, -8.18142965e-02f, -6.07043207e-02f, 5.48468083e-02f, -2.07066983e-02f,
    3.95731926e-02f, -3.74076329e-02f, -9.39308256e-02f, 8.13950747e-02f, 3.03621478e-02f, -1.34576529e-01f, -1.50514245e-02f, 1.65030118e-02f,
    -1.47440195e-01f, 1.41229048e-01f, 1.44007634e-02f, 7.58338571e-02f, -5.95915280e-02f, 4.02802322e-03f, 5.13578504e-02f, -1.44784711e-02f,
    2.99494509e-02f, -1.82604998e-01f, -7.97343478e-02f, 1.64457694e-01f, -1.17253810e-01f, 1.57359317e-02f, -2.25498062e-02f, -6.21157549e-02f,
    8.58927146e-03f, 6.92071095e-02f, 7.20248818e-02f, 1.81363136e-01f, -6.42317394e-03f, -8.27252492e-02f, -3.58737037e-02f, 1.15930364e-01f,
    -3.15678418e-02f, -1.91280805e-02f, -7.03850389e-02f, -1.28385216e-01f, -1.54620298e-04f, -8.32289904e-02f, 1.46914363e-01f, 7.01122954e-02f,
    -1.88513473e-02f, 7.52669498e-02f, -2.89206337e-02f, -4.02860828e-02f, -5.98985609e-03f, -6.43337741e-02f, 1.01153359e-01f, 3.35002551e-03f,
    -3.48574035e-02f, 3.87409292e-02f, -4.64266799e-02f, -2.13479605e-02f, 3.07803582e-02f, 1.81650855e-02f, 1.90837994e-01f, 4.47119027e-02f,
    -7.72832707e-02f, 2.04132646e-02f, 9.23404768e-02f, -1.51696717e-02f, 6.47771731e-02f, 2.54690088e-02f, -4.49814722e-02f, 9.02656168e-02f,
    1.12133995e-01f, -4.11175527e-02f, 4.99957912e-02f, 1.23482853e-01f, -1.24279246e-01f, -6.70204908e-02f, 6.62077218e-02f, 5.07650487e-02f,
    7.95019697e-03f, -8.38940963e-02f, 2.37651002e-02f, 2.08191574e-01f, 9.92821679e-02f, 3.01665664e-02f, 1.65616106e-02f, -5.02477847e-02f,
    5.40415123e-02f, -3.61378118e-02f, -1.39105450e-02f, -4.54095453e-02f, 4.54238877e-02f, -4.94467989e-02f, 1.71383135e-02f, 2.23811612e-01f,
    8.32048580e-02f, -8.52150545e-02f, -1.68957897e-02f, -5.76595068e-02f, -4.52747978e-02f, 1.06632640e-03f, 2.15144120e-02f, -1.70102313e-01f,
    5.25310263e-02f, 7.72651359e-02f, -1.19934063e-02f, 1.11345880e-01f, -1.77586406e-01f, 2.76663862e-02f, 9.12419707e-02f, -9.18464065e-02f,
    -8.70577060e-03f, 5.11758998e-02f, 3.47793065e-02f, 8.93374498e-04f, -7.75165185e-02f, 1.84615795e-02f, 7.14627057e-02f, 2.80506983e-02f,
    3.96774970e-02f, -1.73609313e-02f, 2.14776844e-02f, -6.13443106e-02f, 1.73345990e-02f, 3.19077522e-02f, -4.56519499e-02f, 2.58772392e-02f,
    4.91033681e-02f, 1.06084347e-03f, -1.28470674e-01f, -3.67105082e-02f, -1.21225700e-01f, 1.50620073e-01f, 1.67528927e-01f, 6.87924549e-02f,
    -9.67527833e-03f, 1.39373228e-01f, 1.61244452e-01f, -1.20917158e-02f, 1.81688204e-01f, -2.70963553e-02f, -4.46033254e-02f, -3.08435187e-02f,
    1.74187422e-02f, 1.46472184e-02f, 3.49571258e-02f, 3.12936939e-02f, 4.32535782e-02f, 5.83112054e-02f, 8.59940797e-02f, 5.78502826e-02f,
    5.47951944e-02f, 3.99323888e-02f, 3.93802393e-03f, -3.55437538e-03f, 1.36730531e-02f, -2.30203196e-03f, -7.53266597e-03f, -2.29523480e-02f,
    1.64820459e-02f, -3.22531387e-02f, 6.91659935e-03f, -2.63534449e-02f, -2.08202321e-02f, -2.66893059e-02f, 4.90593091e-02f, 8.45401362e-02f,
    -5.18960133e-02f, 3.48274931e-02f, 5.46950549e-02f, -2.69961767e-02f, -2.66636834e-02f, 1.41207194e-02f, 5.03442483e-03f, 1.23647619e-02f,
    5.53311929e-02f, -8.08049813e-02f, 3.48208360e-02f, 9.18358341e-02f, 5.38844392e-02f, -2.05992605e-03f, -3.65471654e-02f, 2.19621398e-02f,
    3.38951722e-02f, -9.64263175e-03f, 3.06324866e-02f, -1.84648875e-02f, -5.28089609e-03f, 2.88099218e-02f, -3.45046297e-02f, 2.02579014e-02f,
    5.96864522e-02f, -5.11104353e-02f, 5.03074825e-02f, 6.31625953e-05f, 3.75760607e-02f, -3.19922566e-02f, 7.39661381e-02f, 5.20120375e-02f,
    6.40862808e-03f, -8.11513513e-02f, -3.01459711e-02f, -1.87860578e-02f, 2.97769513e-02f, 8.57351348e-03f, 3.39767747e-02f, 3.65721099e-02f,
    -9.50695947e-03f, 2.99966633e-02f, -2.36234516e-02f, 5.20853885e-02f, 2.17020139e-03f, 6.28516451e-02f, 4.46828920e-03f, -3.24846432e-02f,
    6.40037432e-02f, -2.26897057e-02f, 2.81667318e-02f, 3.47252353e-03f, 4.60813679e-02f, 1.29461691e-01f, -5.81066264e-03f, 2.84014698e-02f,
    8.71312688e-04f, -6.46150857e-03f, -1.12199718e-02f, 6.59226701e-02f, 7.10915625e-02f, 1.59260426e-02f, 5.14214337e-02f, 1.34237194e-02f,
    -6.21816255e-02f, 5.71671948e-02f, -4.75952262e-03f, 8.26540738e-02f, 3.02620791e-02f, 6.01646863e-03f, 3.56398858e-02f, 3.60458829e-02f,
    2.15241648e-02f, 1.78457201e-02f, -3.47540863e-02f, 8.27855151e-03f, -8.83888546e-03f, -1.42370549e-03f, -5.68029881e-02f, 7.82179758e-02f,
    8.57415423e-02f, -3.93706560e-02f, -1.27056707e-03f, -6.04978539e-02f, 5.94584979e-02f, 2.22553574e-02f, 6.44785240e-02f, 1.96826551e-02f,
    3.01802121e-02f, 3.89880454e-03f, 1.50881246e-01f, -3.04525364e-02f, 2.43096557e-02f, 1.54009070e-02f, 1.84119269e-02f, -2.87514962e-02f,
    7.93355890e-03f, 2.24672351e-02f, 1.26772216e-02f, 1.15923267e-02f, 7.73979947e-02f, -2.69888900e-04f, -4.49294550e-03f, -7.42952945e-03f,
    7.70393014e-03f, 1.44430920e-01f, -9.43389256e-04f, 2.28490289e-02f, 1.90117192e-02f, -1.15025483e-01f, -1.30191110e-02f, 2.22290624e-02f,
    9.09497216e-02f, -6.28704322e-04f, -2.64668744e-03f, 2.04178058e-02f, 3.93395945e-02f, 1.30372886e-02f, -8.31776038e-02f, -2.35805791e-02f,
    1.14768753e-02f, 1.90169308e-02f, -7.14244926e-03f, 1.77102648e-02f, -4.82229749e-03f, 3.02613173e-02f, -4.30195667e-02f, -5.44964001e-02f,
    6.23890758e-03f, -1.60312485e-02f, 9.82746482e-02f, 7.53365532e-02f, -6.39686808e-02f, -6.21072575e-02f, 2.30712742e-02f, -5.46137132e-02f,
    -3.60019854e-03f, 1.29237287e-02f, -1.40043730e-02f, -1.52094681e-02f, 1.96599606e-02f, 1.35423303e-01f, -6.09919727e-02f, -2.43098289e-02f,
    7.62127414e-02f, 2.81738080e-02f, -6.45220578e-02f, 4.07152921e-02f, 1.26705710e-02f, 7.46329036e-03f, -2.05131415e-02f, 1.63186193e-02f,
    -5.32662030e-03f, 8.79916027e-02f, 2.14672405e-02f, 7.19260201e-02f, 9.00594145e-03f, -1.40954936e-02f, -2.87961997e-02f, 4.03164029e-02f,
    5.25458567e-02f, -1.01400837e-01f, -3.42036933e-02f, -1.65391434e-02f, -1.08196378e-01f, 1.05159357e-02f, 9.15076397e-03f, 8.07676837e-02f,
    1.46238565e-01f, -1.37604222e-01f, -9.56097990e-02f, 1.97671190e-01f, -1.83352754e-01f, -6.69434741e-02f, 5.02265617e-02f, 4.91480492e-02f,
    9.42957550e-02f, 9.16673318e-02f, -7.96250701e-02f, -1.25361737e-02f, 2.05248743e-02f, 4.09397744e-02f, 8.84878915e-04f, 9.54966247e-02f,
    -1.10514881e-02f, -1.15860933e-02f, 2.78890711e-05f, -3.16035710e-02f, -7.95266479e-02f, -2.11773627e-02f, -4.09690663e-03f, 1.94621217e-02f,
    4.36464548e-02f, -1.11409254e-01f, 1.16484173e-01f, -7.54188374e-02f, -2.17413646e-03f, -5.41349500e-02f, -6.17066845e-02f, -3.09655499e-02f,
    -3.03997044e-02f, 1.61237232e-02f, 2.54012290e-02f, 4.09743935e-02f, 3.07392441e-02f, 3.29372734e-01f, 2.18539964e-02f, 1.54028209e-02f,
    1.55773446e-01f, -2.72943936e-02f, -6.12451183e-03f, -3.57179381e-02f, -1.93971582e-02f, 5.24993911e-02f, 9.20389146e-02f, -1.05121106e-01f,
    6.38517216e-02f, -7.48573989e-02f, 3.12591381e-02f, -3.65761220e-02f, 4.24812883e-02f, -7.29424506e-02f, -3.73752266e-02f, -6.39826059e-02f,
    1.68226715e-02f, -1.96532370e-03f, 4.19675931e-02f, -2.67794654e-02f, -4.13853601e-02f, 1.93083361e-02f, -1.14057429e-01f, 7.97718540e-02f,
    1.61790699e-01f, -1.35835893e-02f, -1.45287350e-01f, 1.49455264e-01f, -4.08803076e-02f, -8.50989223e-02f, 1.72259018e-03f, 1.32290140e-01f,
    -3.55858505e-02f, 1.76758140e-01f, 2.91196443e-02f, 4.00597900e-02f, 9.37285870e-02f, 1.01173155e-01f, 1.75250083e-01f, -3.68690565e-02f,
    -1.26248062e-01f, -2.00733505e-02f, -3.65709551e-02f, 3.87801640e-02f, -8.77998173e-02f, -1.17352992e-01f, -5.04220687e-02f, 1.32413179e-01f,
    -3.15130465e-02f, -1.13092072e-01f, 3.97986360e-02f, 9.09871310e-02f, 3.11029406e-04f, -9.25921649e-02f, 5.16429730e-02f, -1.61585286e-02f,
    -1.26118720e-01f, 1.92317888e-02f, 2.07564868e-02f, 1.53431883e-02f, -3.28531004e-02f, 1.73408657e-01f, 1.14456676e-02f, 5.34208901e-02f,
    -1.23265959e-01f, -6.31339550e-02f, 9.83823463e-02f, -6.14508316e-02f, -7.86057021e-03f, -1.28660113e-01f, -1.12536006e-01f, -1.77738108e-02f,
    5.51920570e-02f, -5.77457361e-02f, -4.54784147e-02f, -1.26663372e-01f, -2.19910964e-02f, -2.40124371e-02f, 4.28933054e-02f, 1.14640146e-02f,
    -3.37176882e-02f, 9.67422277e-02f, -2.75781304e-02f, -1.04794361e-01f, 8.30846354e-02f, -1.98250953e-02f, -3.03759784e-01f, -1.50340319e-01f,
    -5.20291850e-02f, -1.55508909e-02f, 4.04659845e-02f, -1.38379931e-01f, -9.64407995e-02f, -5.88553492e-03f, 7.10079670e-02f, 1.58656016e-01f,
    3.45927775e-02f, 7.92280585e-02f, -4.87494224e-04f, 8.36236123e-03f, -3.19296047e-02f, -3.25107239e-02f, -8.86131898e-02f, -6.98286369e-02f,
    8.11413396e-03f, 9.62822884e-03f, 1.06482603e-01f, 6.73382282e-02f, 7.97993988e-02f, 1.04140185e-01f, 1.10662527e-01f, 6.65822253e-02f,
    9.67196301e-02f, 6.26610741e-02f, 8.48527402e-02f, -5.86804294e-04f, 1.53871030e-01f, -4.24749367e-02f, -3.33787575e-02f, 2.20001116e-02f,
    8.29459429e-02f, 1.09773003e-01f, 1.13662049e-01f, 6.33260757e-02f, 2.28341922e-01f, 7.40747526e-02f, 2.75250785e-02f, -2.93103773e-02f,
    1.75775941e-02f, 1.96898766e-02f, -5.30766249e-02f, 1.02482997e-01f, 4.84134480e-02f, 5.74277993e-03f, -5.66243678e-02f, -5.38317440e-03f,
    3.09553873e-02f, -2.23419219e-02f, -1.37105035e-02f, -8.53773672e-03f, -1.27499104e-01f, -1.06407180e-01f, 2.08186015e-01f, 4.63887192e-02f,
    -2.99557038e-02f, 1.24341331e-01f, -1.88162050e-03f, -1.51434675e-01f, 2.42624748e-02f, 4.41928022e-02f, -6.07252754e-02f, 4.42859113e-01f,
    9.41252410e-02f, 4.93084714e-02f, -1.01690982e-02f, 8.54348764e-02f, 4.30332720e-02f, -3.16633917e-02f, 2.97903642e-03f, 3.64092886e-02f,
    8.62732809e-03f, -5.30619407e-03f, -4.89945374e-02f, -1.58544090e-02f, 2.54486352e-02f, -8.70199781e-03f, 1.09421904e-03f, -1.60336439e-02f,
    -1.65221635e-02f, 3.58181708e-02f, 4.60196435e-01f, 3.72197367e-02f, 8.22028983e-03f, -3.97281311e-02f, -2.94856038e-02f, -1.14639483e-01f,
    3.81845608e-03f, -1.67336278e-02f, 4.96596172e-02f, -1.80045106e-02f, -5.39180487e-02f, -7.39860758e-02f, -2.27818638e-02f, 4.91244858e-03f,
    1.63960345e-02f, 6.25604531e-03f, -1.78711060e-02f, -4.15944606e-02f, 3.53324972e-02f, -2.56037135e-02f, 2.09565405e-02f, 1.68956537e-02f,
    -8.46877545e-02f, 3.92394550e-02f, 1.55945243e-02f, -3.34767178e-02f, -1.79446698e-03f, -5.94443129e-03f, -1.08329719e-02f, -6.19574916e-03f,
    1.50528448e-02f, 1.64010040e-02f, 1.72849949e-02f, 3.42881568e-02f, -4.21601012e-02f, 9.23168361e-02f, 2.15075072e-02f, 6.15046509e-02f,
    -2.14284379e-02f, 2.65177786e-02f, -1.09893875e-02f, -2.15853788e-02f, 3.63567583e-02f, 2.18844470e-02f, 6.47590309e-03f, 2.43200865e-02f,
    1.70823243e-02f, 4.76293527e-02f, -6.86259568e-02f, 6.30230010e-02f, 2.87783262e-03f, 1.03060035e-02f, 1.48198567e-02f, -5.07196710e-02f,
    3.14172544e-02f, 1.63359102e-02f, -2.46544275e-02f, -2.13721748e-02f, 4.05285358e-02f, -5.38700586e-03f, 4.72982638e-02f, 9.52146482e-03f,
    -2.74889804e-02f, -3.07762772e-02f, -4.08492424e-02f, 5.60386218e-02f, 6.05390258e-02f, -1.26540614e-02f, 5.69909103e-02f, -3.93535756e-02f,
    -2.96610985e-02f, 1.78629290e-02f, -1.18997041e-02f, -6.38833866e-02f, -1.81813147e-02f, 2.49951370e-02f, 1.15806963e-02f, 1.55499373e-02f,
    5.68888336e-02f, -3.97438109e-02f, 4.95841727e-02f, -1.42366076e-02f, 1.34785380e-02f, 9.32357311e-02f, 1.00230627e-01f, 1.24764442e-02f,
    -4.05292213e-02f, 1.54402638e-02f, -4.76382896e-02f, 7.95025527e-02f, -1.36871651e-01f, 4.17535864e-02f, -1.01074427e-01f, -4.33714781e-03f,
    9.94977504e-02f, -4.29287441e-02f, -4.89538629e-03f, 4.76296283e-02f, 3.03716585e-02f, 1.11161629e-02f, 2.77610403e-02f, 2.99765188e-02f,
    1.04470858e-02f, 5.41729853e-02f, -2.49247439e-02f, 1.19644310e-02f, -5.28426543e-02f, -7.59786135e-03f, -8.23798552e-02f, -2.12565456e-02f,
    -2.83320826e-02f, 4.31954414e-02f, -6.40205666e-02f, 4.97159995e-02f, 1.18610477e-02f, -2.66707949e-02f, -3.23992618e-03f, 8.20978358e-02f,
    7.75354877e-02f, 4.34873020e-03f, 1.49343233e-03f, -3.83677743e-02f, -3.68587114e-02f, 1.52143817e-02f, -5.71887009e-02f, -4.45398130e-02f,
    -2.34996639e-02f, 2.36820225e-02f, -9.73633491e-03f, 2.63698283e-03f, 4.76747490e-02f, 5.41302562e-02f, -5.84680513e-02f, -1.25936307e-02f,
    -2.99786654e-04f, -5.22843413e-02f, 3.26135233e-02f, 8.10822919e-02f, 1.34615432e-02f, 5.07636666e-02f, 1.06330102e-04f, 1.60260815e-02f,
    1.60022322e-02f, 1.40265292e-02f, -7.92945549e-02f, -1.30703412e-02f, -4.16071080e-02f, 4.98386882e-02f, -1.22118201e-02f, -5.30192535e-03f,
    7.49485791e-02f, 8.11370555e-03f, 2.28381567e-02f, 1.38734113e-02f, -2.88817286e-02f, 1.79263242e-02f, -3.06335911e-02f, 5.18652685e-02f,
    2.48896107e-02f, 1.89352613e-02f, 1.64014958e-02f, 5.30813336e-01f, -2.95258928e-02f, -3.17599322e-03f, -6.87047243e-02f, 2.11573187e-02f,
    2.04219539e-02f, -6.76289871e-02f, -3.57611552e-02f, 1.69666987e-02f, -7.35773295e-02f, 3.90425473e-02f, 9.66813357e-04f, -4.71167862e-02f,
    7.11383894e-02f, -4.62708510e-02f, -1.01803951e-02f, 6.71660081e-02f, -1.70751312e-03f, -1.54113793e-03f, -2.30226777e-02f, 4.80825678e-02f,
    1.56814754e-02f, -1.72095932e-02f, 5.31364307e-02f, -1.96620859e-02f, 1.64618060e-01f, -9.39183384e-02f, -1.41484560e-02f, 1.67546347e-01f,
    -3.14824982e-03f, -4.42995168e-02f, -1.30655844e-05f, 6.81296587e-02f, -1.04864284e-01f, -7.12069049e-02f, 1.29867017e-01f, 1.00433677e-01f,
    3.95082384e-02f, -2.22538207e-02f, 1.17965080e-01f, -2.41583679e-02f, -7.04742223e-03f, 7.10744187e-02f, 6.67177290e-02f, 1.84411183e-01f,
    -7.28865862e-02f, -1.32086754e-01f, 2.04802603e-02f, 7.08152875e-02f, 1.32693559e-01f, -6.90944269e-02f, 1.08399875e-01f, 6.77815452e-02f,
    -1.02154553e-01f, 9.20308195e-03f, -3.73461731e-02f, -2.97512561e-02f, -6.21659793e-02f, -2.88025495e-02f, -7.37719424e-03f, 8.83289874e-02f,
    8.77368301e-02f, -6.91014081e-02f, -9.37759206e-02f, 1.81593373e-01f, -5.68701215e-02f, -3.70028205e-02f, -4.88036647e-02f, -5.11146188e-02f,
    8.54310244e-02f, -6.10532872e-02f, 1.80428550e-02f, 1.27419159e-01f, 2.14522611e-02f, -5.62991239e-02f, -7.28972107e-02f, 1.24077976e-01f,
    -6.16950355e-02f, 2.03824341e-02f, -7.42007345e-02f, 4.38210890e-02f, 3.51797119e-02f, 9.78559852e-02f, 2.04904720e-01f, 9.27482396e-02f,
    -2.89484840e-02f, 5.91522045e-02f, -4.21693549e-02f, 8.85219034e-03f, -8.35905783e-03f, -1.61803793e-02f, -7.43382722e-02f, -1.80084035e-02f,
    8.86437222e-02f, 7.56082609e-02f, -2.39405464e-02f, -1.11068554e-01f, -8.97872150e-02f, 7.22314864e-02f, 3.77311930e-02f, -2.71824989e-02f,
    -1.05043106e-01f, 7.01906234e-02f, -4.96602245e-02f, 3.66531685e-02f, 1.67389895e-04f, -2.62975842e-02f, -2.85068955e-02f, -8.01822916e-03f,
    -5.84788062e-02f, 1.60536841e-01f, -2.13496778e-02f, -1.10077660e-03f, -6.46058377e-03f, -5.73633574e-02f, -4.27557752e-02f, 1.07302971e-01f,
    2.08457679e-01f, 1.70579359e-01f, -8.89290571e-02f, 1.26954187e-02f, -3.15752402e-02f, -4.60259467e-02f, -6.55271113e-02f, -4.12866808e-02f,
    -4.81019393e-02f, -2.42911633e-02f, -5.95619567e-02f, -5.02696373e-02f, 9.32030156e-02f, -1.85804218e-02f, 9.93101969e-02f, -4.22912650e-02f,
    8.07465147e-03f, -3.63519341e-02f, 5.93716465e-02f, -4.78871390e-02f, -5.49375713e-02f, -7.70388246e-02f, 8.40112492e-02f, 5.43414578e-02f,
    1.35604013e-02f, -2.12178249e-02f, -1.00073023e-02f, -7.10627213e-02f, -7.89046511e-02f, 1.25191242e-01f, -6.95954710e-02f, -5.47308698e-02f,
    -2.47891601e-02f, 1.83726907e-01f, 5.87204322e-02f, -3.19277048e-02f, -4.96288948e-02f, -9.14852694e-02f, -3.14475670e-02f, -2.69516446e-02f,
    1.22850031e-01f, -4.67251688e-02f, -1.35075822e-01f, 6.90951757e-03f, -2.71141138e-02f, -9.34856106e-03f, -8.05431977e-02f, 1.32445414e-02f,
    5.06055134e-04f, -2.69383062e-02f, 8.77462514e-03f, -1.02436095e-01f, -4.70719952e-03f, -1.39681436e-02f, -2.23563537e-02f, 1.63361505e-01f,
    3.08204256e-02f, 1.35361761e-01f, 6.09347373e-02f, -9.27700251e-02f, 3.29432599e-02f, -7.20399395e-02f, -9.85181928e-02f, 1.33576572e-01f,
    -9.03858989e-02f, -2.46382295e-03f, -1.45019516e-02f, 9.00023207e-02f, -1.13121733e-01f, 5.70785291e-02f, 1.56647731e-02f, 8.35803226e-02f,
    -9.03616771e-02f, -8.02350491e-02f, -8.88296738e-02f, 9.22525600e-02f, -6.65000528e-02f, -1.93391775e-03f, -1.11149885e-01f, 1.01031475e-01f,
    2.02962473e-01f, -1.63902361e-02f, 9.20172036e-03f, -8.66971165e-02f, -7.76982382e-02f, -3.18986587e-02f, -3.31304967e-02f, 1.21326754e-02f,
    -1.26776516e-01f, -1.23233162e-02f, 9.27634165e-02f, 2.61245724e-02f, 7.84961432e-02f, -2.20093504e-02f, -5.31411963e-03f, 1.15481019e-01f,
    -1.90514009e-02f, 5.58046699e-02f, -7.37972511e-03f, 1.82860752e-03f, -8.89757946e-02f, -2.69199535e-02f, -4.15395834e-02f, -3.94841991e-02f,
    1.13817491e-01f, 5.80105232e-03f, -8.20151623e-03f, 2.46403106e-02f, 4.93342169e-02f, 1.74186051e-01f, 1.30687589e-02f, 2.82645673e-02f,
    1.04845569e-01f, 1.90591514e-01f, 8.08962062e-02f, -1.09874103e-02f, 3.69170457e-02f, -1.16036281e-01f, -1.10365734e-01f, -3.33570689e-02f,
    -5.48582785e-02f, 3.40653323e-02f, 7.78451376e-03f, 6.81482852e-02f, -1.85813494e-02f, 4.53601591e-03f, -4.50766906e-02f, 3.18629481e-02f,
    2.39630081e-02f, 4.88530807e-02f, 5.61540620e-03f, 2.00677123e-02f, 7.57376943e-03f, -2.06100661e-02f, -3.36489528e-02f, -1.92234609e-02f,
    -5.99663444e-02f, 3.90526317e-02f, -6.23042788e-03f, -3.67151238e-02f, -1.21072261e-02f, 1.00839259e-02f, 2.76254918e-02f, -1.32628337e-01f,
    1.87627412e-03f, -1.36579067e-01f, -5.83557934e-02f, -1.14921667e-02f, 6.12559728e-02f, 8.42257496e-03f, -8.27495940e-03f, 4.79197539e-02f,
    -4.62091304e-02f, 1.41077623e-01f, -4.24631722e-02f, 5.46501577e-02f, 9.53688007e-03f, 1.51837068e-02f, -1.90243721e-02f, -4.80900146e-02f,
    4.44034487e-02f, 5.22350073e-02f, -7.41286948e-02f, -3.22941840e-02f, -8.38630944e-02f, -2.49019619e-02f, 7.47007877e-02f, 1.06052859e-02f,
    -8.55335221e-02f, -4.00323346e-02f, 3.26078013e-02f, 8.51049870e-02f, 9.64811444e-03f, 5.36237024e-02f, -5.96494861e-02f, 1.53462831e-02f,
    2.89793499e-02f, 3.36877741e-02f, 1.56356134e-02f, 1.82239518e-01f, 7.95412287e-02f, -6.21670261e-02f, 1.08094804e-01f, -3.49657983e-02f,
    -6.07096963e-02f, 4.58158404e-02f, 1.49154225e-02f, -4.90555493e-03f, 3.50487679e-02f, 9.73150879e-02f, 1.00333821e-02f, 7.55112842e-02f,
    -3.17211263e-02f, -3.88542027e-03f, 7.69182816e-02f, 7.31359497e-02f, 1.73601918e-02f, -4.11129743e-02f, 7.05625908e-03f, -5.41937426e-02f,
    -4.30475958e-02f, -4.31811735e-02f, 6.48838356e-02f, -4.48001176e-02f, 2.36607045e-02f, -8.98477249e-03f, -3.12189646e-02f, 7.81911612e-03f,
    -4.12145443e-03f, 3.67358029e-02f, 1.76936872e-02f, -3.19692008e-02f, 2.42356751e-02f, -2.83515882e-02f, -5.51266260e-02f, -1.90311112e-02f,
    -2.10662615e-02f, -7.93970153e-02f, 2.18106958e-04f, -1.41335148e-02f, -7.78297931e-02f, 3.70944999e-02f, -6.38502091e-02f, 8.28991532e-02f,
    4.39621098e-02f, 8.55821222e-02f, 1.38615549e-01f, 4.27543074e-02f, 1.15594827e-01f, -3.89081053e-03f, -1.27318472e-01f, 8.06194544e-02f,
    -5.57424352e-02f, 5.74655309e-02f, -1.18401602e-01f, 1.13735668e-01f, -7.08659366e-02f, 6.09447509e-02f, -6.06898405e-02f, -5.37838824e-02f,
    -3.15324478e-02f, 5.93321100e-02f, -8.59426185e-02f, 7.13699460e-02f, -3.32828723e-02f, -7.00772628e-02f, -2.90333992e-03f, 6.35183901e-02f,
    -9.67890397e-03f, -5.09538176e-03f, -3.22347879e-02f, 8.60710535e-03f, 1.44237531e-02f, 4.69827913e-02f, -1.21422391e-02f, -1.77366324e-02f,
    3.09765022e-02f, 1.42180532e-01f, -4.75019328e-02f, 4.39964682e-02f, 1.91423390e-02f, -3.42893936e-02f, -2.81974487e-02f, 1.82972122e-02f,
    2.04301439e-02f, 6.19200543e-02f, 4.15766612e-02f, -3.18787992e-02f, -7.29091540e-02f, 1.23351105e-01f, -3.29750292e-02f, -7.53863677e-02f,
    -2.91835964e-02f, -2.74564698e-02f, 1.88130587e-02f, -1.46920495e-02f, -4.94257435e-02f, -6.45450037e-03f, 5.93329370e-02f, 7.82662183e-02f,
    -1.74928829e-02f, -3.70787531e-02f, 4.20513749e-02f, -1.99326798e-01f, 4.59968820e-02f, -4.44166586e-02f, 8.62951055e-02f, -6.30742237e-02f,
    2.11065654e-02f, -4.37220931e-03f, 4.57011610e-02f, 1.67118106e-02f, -5.22488263e-03f, -6.62622377e-02f, -1.91388242e-02f, -2.92441715e-02f,
    -3.82414274e-02f, 9.99778509e-02f, -2.89562195e-05f, -3.64421979e-02f, -1.92319918e-02f, -5.45297656e-03f, -3.01917456e-02f, 2.49926634e-02f,
    -3.17869820e-02f, -6.54031336e-02f, 3.42701785e-02f, -6.72384202e-02f, 3.46487318e-03f, -1.79586560e-02f, 5.05362153e-02f, -1.93158314e-02f,
    1.99543357e-01f, -6.79845139e-02f, -1.87261850e-02f, 5.65126613e-02f, -2.42008604e-02f, 5.30790128e-02f, 2.40568697e-01f, 1.91310421e-02f,
    1.09872511e-02f, -4.74735163e-02f, -1.97053421e-02f, 2.22069281e-03f, -5.54548390e-02f, -1.50174852e-02f, -4.74747941e-02f, 5.81709892e-02f,
    5.25337905e-02f, -4.31226101e-03f, 8.32152963e-02f, -4.08458523e-03f, 5.22855856e-02f, 1.79229137e-02f, -3.72309349e-02f, 1.31034264e-02f,
    -5.42897992e-02f, -7.09622502e-02f, 1.40257403e-02f, -3.70490700e-02f, 1.01813249e-01f, 3.91107313e-02f, 2.08321493e-02f, -7.18238503e-02f,
    5.79052931e-03f, 1.64808854e-02f, 7.27079390e-03f, -5.27813844e-02f, 1.18952401e-01f, 7.62802884e-02f, 1.77089181e-02f, -3.32381949e-02f,
    3.58544569e-03f, 8.77696835e-03f, 1.29935876e-01f, -9.38885063e-02f, -1.10806748e-02f, -1.42391145e-01f, -1.06371321e-01f, -1.96556617e-02f,
    1.21835209e-02f, 8.40605609e-03f, -1.25366896e-01f, -1.67520329e-01f, -3.48186977e-02f, 6.65066987e-02f, 4.60426845e-02f, -8.04207847e-03f,
    3.43552753e-02f, -4.57563959e-02f, 1.11076817e-01f, 5.97395524e-02f, -6.75809570e-05f, -4.54874225e-02f, -1.26696125e-01f, -1.31455539e-02f,
    -4.37667407e-02f, 6.43981202e-03f, 3.43264192e-02f, 9.74862278e-02f, -1.53196622e-02f, -5.11738658e-02f, -5.66811785e-02f, -5.79687990e-02f,
    9.37981978e-02f, -9.53094065e-02f, 1.14007987e-01f, 4.11201231e-02f, 1.24520615e-01f, -2.08654925e-02f, -1.03247516e-01f, -5.83475977e-02f,
    9.44596753e-02f, 7.76736140e-02f, 1.60772711e-01f, 1.58847924e-02f, -8.54591802e-02f, 3.10632996e-02f, 1.75110206e-01f, 8.72030854e-02f,
    -1.38961032e-01f, 8.56048316e-02f, -3.46057229e-02f, -1.81346565e-01f, -3.56334969e-02f, 7.05096796e-02f, -2.22429950e-02f, -2.04159841e-02f,
    2.44157370e-02f, 1.61357434e-03f, 9.78631005e-02f, 1.06698982e-02f, -3.32840011e-02f, -6.02869503e-02f, -1.20726787e-02f, 5.56769893e-02f,
    -8.17256495e-02f, 7.48883709e-02f, -2.04607286e-02f, -5.75936213e-03f, -4.69285697e-02f, -3.29260668e-03f, -4.83773723e-02f, -3.88706364e-02f,
    5.03354818e-02f, 7.73883164e-02f, -1.44277317e-02f, 1.16736904e-01f, 2.89842412e-02f, -3.41571495e-02f, 6.77356571e-02f, -1.13967918e-02f,
    3.10375709e-02f, -7.85306543e-02f, -1.92038622e-02f, 2.07834065e-01f, -1.22536458e-02f, 3.99816446e-02f, 1.35599198e-02f, 1.49149485e-02f,
    5.55104762e-02f, -3.70829031e-02f, -1.03217632e-01f, -2.52987504e-01f, -6.90740198e-02f, 3.88138974e-03f, -4.88138273e-02f, 3.00410315e-02f,
    -1.01886481e-01f, 2.94275396e-02f, 5.81000745e-02f, 1.59529205e-02f, -1.22273952e-01f, 1.05134711e-01f, -7.77961090e-02f, 1.22854464e-01f,
    -2.39010639e-02f, 1.68759078e-01f, 2.87961513e-02f, 7.10873678e-02f, 1.47862017e-01f, -1.12550994e-02f, 1.40422374e-01f, 4.15104255e-02f,
    2.35125870e-02f, -1.35894790e-01f, -1.21997543e-01f, 3.20782214e-02f, 3.47245038e-02f, 5.63765764e-02f, 3.17333303e-02f, -2.40810271e-02f,
    9.65916812e-02f, 2.78683510e-02f, 1.43145844e-01f, -5.35946898e-02f, -7.87851661e-02f, -4.21447866e-02f, 9.00868513e-03f, -3.91023718e-02f,
    3.77962664e-02f, 5.18901609e-02f, 3.01842224e-02f, -5.82737550e-02f, 2.99405288e-02f, 9.08679813e-02f, 2.50118319e-02f, 6.04167134e-02f,
    -1.75476037e-02f, 8.32711682e-02f, 5.58063611e-02f, 3.18372957e-02f, -1.19456230e-02f, 8.21577311e-02f, 7.75545463e-02f, -2.54678763e-02f,
    9.72192211e-04f, -8.57081413e-02f, 9.07305256e-02f, 8.98190439e-02f, 5.50753437e-02f, 7.59250671e-02f, 5.20142466e-02f, -6.80342019e-02f,
    -2.61492655e-02f, 5.80443116e-03f, 1.13470674e-01f, 8.04886222e-02f, -5.02553172e-02f, -1.32015878e-02f, 6.34712800e-02f, 6.83268160e-02f,
    2.11009830e-02f, 3.73712741e-03f, -6.92674518e-03f, 5.81725873e-02f, 4.42582108e-02f, 6.13744035e-02f, 5.13733961e-02f, 2.16498282e-02f,
    4.57022712e-02f, 4.92159016e-02f, 8.17943551e-03f, -3.33804637e-02f, -5.80328181e-02f, 3.21020605e-03f, 1.59087423e-02f, 9.31060966e-03f,
    -2.24442817e-02f, 1.48732290e-01f, -1.32760303e-02f, 2.76765469e-02f, -1.40405772e-02f, 1.80371806e-01f, 3.88476104e-02f, -3.06547042e-02f,
    -1.51855368e-02f, 4.25231382e-02f, 4.11708839e-02f, 3.17696892e-02f, 1.88693814e-02f, -5.50014637e-02f, 2.17035078e-02f, 1.24232685e-02f,
    1.40288239e-02f, 7.07370564e-02f, 2.95430254e-02f, 2.49201193e-01f, -3.29145640e-02f, -1.07538663e-01f, -6.67877216e-03f, 2.58235112e-02f,
    -2.03696303e-02f, 1.11723535e-01f, 9.02252272e-02f, 1.06641449e-01f, 4.25877748e-03f, 7.40180835e-02f, -1.36493975e-02f, -4.47893189e-03f,
    -2.94143381e-03f, 4.03982811e-02f, -4.99007590e-02f, 1.04698755e-01f, -3.74385994e-03f, 2.88405344e-02f, -6.08463883e-02f, -1.23108830e-02f,
    1.11410152e-02f, 4.70757037e-02f, 3.28830853e-02f, 1.14541136e-01f, -4.38553318e-02f, 1.17845507e-02f, -9.07913595e-03f, -2.64478549e-02f,
    1.00685641e-01f, -3.00380215e-02f, 5.30436076e-02f, -3.07048783e-02f, -3.92778106e-02f, 3.53274792e-02f, -4.54057232e-02f, -4.84552905e-02f,
    -1.32551948e-02f, -1.60677806e-02f, -1.63290743e-02f, -1.18755801e-02f, 7.72899538e-02f, -4.65568677e-02f, -6.92011602e-03f, -7.67862983e-03f,
    1.70546456e-03f, -4.78233323e-02f, 9.51550007e-02f, 7.50594512e-02f, 7.08253086e-02f, 2.23607551e-02f, 8.36328715e-02f, 3.37821268e-03f,
    2.23572925e-02f, 5.82598560e-02f, 9.79394391e-02f, -4.45882939e-02f, 1.04234226e-01f, 8.00666586e-03f, -5.60663603e-02f, 1.26066014e-01f,
    -1.16259670e-02f, 1.89645495e-02f, 1.14667349e-01f, 5.86210489e-02f, -1.93995293e-02f, -2.90754531e-02f, 1.75740555e-01f, -1.33159868e-02f,
    1.02574388e-02f, 7.42347986e-02f, 2.82485019e-02f, -1.14764301e-02f, 1.22509208e-02f, 7.91815221e-02f, 1.22213596e-03f, -8.46351013e-02f,
    4.65879701e-02f, 4.80735563e-02f, -7.36585818e-03f, 7.07300529e-02f, 3.29651535e-02f, -1.61593296e-02f, 3.23560014e-02f, 8.08522291e-03f,
    -2.22147759e-02f, 2.53071077e-02f, 2.18629576e-02f, 6.26737699e-02f, 9.32419747e-02f, 7.99532142e-03f, 5.73862866e-02f, 7.06433225e-03f,
    1.59023739e-02f, 7.90543705e-02f, -3.04377396e-02f, -3.26178148e-02f, 8.85701925e-02f, 2.04060916e-02f, 2.71822233e-02f, -8.50178115e-03f,
    3.36099677e-02f, -6.70984096e-04f, -1.32293692e-02f, 4.57355976e-02f, 2.52638254e-02f, 6.74021384e-03f, 2.23268457e-02f, -4.20803502e-02f,
    6.21785261e-02f, 5.06284386e-02f, 1.73212826e-01f, 8.96828249e-03f, 1.65764596e-02f, -2.58118287e-02f, -8.43181275e-03f, 1.28529653e-01f,
    -3.89690660e-02f, -2.01331098e-02f, -5.57883047e-02f, -1.07222097e-02f, 5.87782674e-02f, -2.55206563e-02f, -8.06119666e-02f, 3.99319781e-03f,
    -5.00146858e-02f, 8.22078530e-03f, -3.74775007e-02f, -5.91472583e-03f, -6.02917094e-03f, 1.52550131e-01f, -5.95852211e-02f, -1.00289457e-01f,
    -5.62421270e-02f, 1.94515078e-03f, 7.21558035e-06f, -4.58790734e-02f, -2.27814019e-02f, 3.65962200e-02f, 4.81570102e-02f, 1.53130097e-02f,
    2.69905943e-02f, 1.09180041e-01f, -1.36445418e-01f, -1.73013452e-02f, -7.58793531e-03f, -3.66015285e-02f, -9.29562896e-02f, -1.61532741e-02f,
    -1.38302548e-02f, 1.15689255e-01f, 4.88699563e-02f, 2.39809155e-02f, 1.36830524e-01f, -5.29626966e-04f, -2.69911308e-02f, -1.91114470e-02f,
    -2.96240710e-02f, 4.62622498e-04f, -5.62271960e-02f, -1.96881648e-02f, 1.58513281e-02f, 7.24314004e-02f, 6.09792881e-02f, 9.59735289e-02f,
    -4.65577357e-02f, -9.93873030e-02f, 1.72769781e-02f, -7.47802630e-02f, -6.62400350e-02f, 4.23177145e-02f, 8.87623727e-02f, 1.86367258e-02f,
    9.99448448e-02f, 1.59870367e-02f, 5.15856706e-02f, -3.47890742e-02f, -1.55205885e-02f, -6.36427552e-02f, -2.50157770e-02f, 6.99268803e-02f,
    -7.42731839e-02f, 7.16159921e-05f, 1.59494188e-02f, 2.53870040e-02f, -3.47013073e-03f, 3.42062451e-02f, -6.07109815e-02f, -3.32036838e-02f,
    3.71154435e-02f, 2.19963696e-02f, 1.03499275e-02f, 4.45631482e-02f, -7.59981573e-02f, -5.62665127e-02f, -7.90983886e-02f, 1.16021447e-01f,
    -5.66492155e-02f, -6.13368973e-02f, 7.65925786e-03f, -6.25119731e-03f, 3.98467518e-02f, -3.15197371e-03f, -1.85907315e-02f, -4.66444204e-03f,
    4.50875573e-02f, 1.07913084e-01f, -5.05681224e-02f, 3.15728523e-02f, 6.61806262e-05f, 3.92215811e-02f, -5.55606149e-02f, 1.31264636e-02f,
    1.89385608e-01f, -7.12591857e-02f, -4.26846789e-03f, 5.49176300e-04f, -1.00501673e-02f, 4.71578389e-02f, -1.04973838e-02f, 5.35291210e-02f,
    -7.88805634e-03f, 5.40784001e-02f, -7.26992788e-04f, 5.79581559e-02f, -7.24532977e-02f, 8.35661292e-02f, 9.58414301e-02f, -1.59886368e-02f,
    -5.94067276e-02f, -3.00713554e-02f, -3.67872119e-02f, 1.09849367e-02f, 1.23860061e-01f, 4.62665632e-02f, -1.51395528e-02f, 2.79387534e-02f,
    1.15165927e-01f, -7.56499097e-02f, 1.74060818e-02f, -6.14347262e-03f, 5.77461952e-03f, -3.82505246e-02f, 1.82407767e-01f, 5.41477045e-03f,
    2.44881101e-02f, -3.39947119e-02f, -1.10190399e-02f, 1.30749792e-01f, 6.34382069e-02f, -9.28720180e-03f, 5.98347597e-02f, -2.00109668e-02f,
    1.65207852e-02f, -9.65135545e-02f, 1.75514016e-02f, 1.68287139e-02f, 9.02895033e-02f, 4.89845965e-03f, -2.37194598e-02f, 2.92718858e-02f,
    5.31262904e-02f, 3.38818058e-02f, 4.50875722e-02f, -4.21274491e-02f, -1.73621215e-02f, 2.76261177e-02f, 6.81360438e-03f, 6.89741895e-02f,
    -1.02700762e-01f, 2.62242388e-02f, -9.45567489e-02f, -1.87582765e-02f, -6.95864633e-02f, -6.79659657e-03f, 6.41896948e-02f, 1.03499219e-01f,
    7.96507150e-02f, 1.22388750e-01f, -7.59929717e-02f, 1.11529484e-01f, -4.94184112e-03f, -8.88183489e-02f, -8.05956349e-02f, -3.47656645e-02f,
    8.37032944e-02f, 1.01468060e-02f, -1.69085281e-03f, 3.56182754e-02f, 1.73470125e-01f, -1.08721286e-01f, -2.50652023e-02f, 2.07743458e-02f,
    7.79866278e-02f, 6.03930885e-03f, -2.69711390e-02f, -1.00803249e-01f, -1.33676574e-01f, -7.09042326e-02f, -4.37089913e-02f, -3.72695141e-02f,
    -2.20826771e-02f, 1.31899923e-01f, 3.22293267e-02f, -1.94343980e-02f, -9.14114621e-03f, -4.12875265e-02f, -4.26675752e-02f, 2.17908993e-02f,
    1.73196062e-01f, -1.85902149e-03f, 1.48260295e-02f, 6.44093603e-02f, 1.33483738e-01f, 1.49194658e-01f, -3.02587226e-02f, -3.01693529e-02f,
    2.64556445e-02f, -1.99649371e-02f, -2.64795311e-02f, -3.81931625e-02f, -5.71333244e-02f, -5.71755767e-02f, 2.57210643e-03f, 4.18914706e-02f,
    2.93569863e-02f, -7.54925460e-02f, -3.75277214e-02f, 1.35660842e-01f, 1.37253953e-02f, -7.02578872e-02f, 4.67880592e-02f, 6.31776527e-02f,
    5.92841320e-02f, 9.17972848e-02f, 2.04647854e-02f, -3.43151274e-03f, -3.89013551e-02f, -1.24881878e-01f, 1.51133742e-02f, 3.40248160e-02f,
    6.28738776e-02f, -5.92370005e-03f, 2.08962942e-03f, 7.76983052e-02f, -1.71227884e-02f, 2.70442311e-02f, -2.63788179e-02f, 6.52857572e-02f,
    -6.89814910e-02f, 1.00225449e-01f, 4.67742095e-03f, 6.10158667e-02f, 3.31132114e-02f, 6.21637329e-02f, -2.33229902e-02f, -7.35840574e-02f,
    5.15458658e-02f, -6.13268949e-02f, -6.61046384e-03f, 2.57194657e-02f, 3.60414684e-02f, -8.75023007e-03f, 5.37779368e-02f, 4.19193506e-02f,
    -7.91430250e-02f, 1.68493856e-02f, -3.01538203e-02f, -2.79777721e-02f, 1.60331931e-02f, -6.87862262e-02f, 5.61587960e-02f, -2.19032746e-02f,
    2.73221992e-02f, 9.36074089e-03f, -5.32408543e-02f, 6.17224872e-02f, 3.21406834e-02f, 5.39213642e-02f, 3.47858705e-02f, -5.57123236e-02f,
    3.14752199e-02f, -4.37679589e-02f, -6.69786520e-03f, -2.56437771e-02f, 6.83171004e-02f, 9.46757570e-02f, 9.20823663e-02f, -4.28852700e-02f,
    -2.23987736e-03f, 4.87730373e-03f, -1.03113525e-01f, -7.09655359e-02f, 8.25805739e-02f, 1.01525495e-02f, 8.03489909e-02f, -6.02777898e-02f,
    -6.27090484e-02f, 3.57162207e-02f, 5.86823486e-02f, 2.35836506e-02f, -2.83313543e-02f, 1.92101020e-02f, -3.62406746e-02f, 1.04323588e-02f,
    1.02470797e-02f, 2.78328024e-02f, -3.64871211e-02f, -6.56886250e-02f, 1.34570137e-01f, 2.95596439e-02f, 4.65250015e-02f, 1.52774289e-01f,
    1.03896447e-02f, 3.62570249e-02f, -4.38600257e-02f, 1.16400812e-02f, 5.36902668e-03f, 1.38584641e-03f, 1.23146102e-01f, 3.65840569e-02f,
    1.54725716e-01f, -7.34138489e-02f, 5.47896251e-02f, 5.68486340e-02f, 2.09007990e-02f, -8.62189978e-02f, 4.17341366e-02f, 5.63511346e-03f,
    3.18444408e-02f, 1.24425739e-01f, -9.15138423e-02f, -2.33800081e-03f, 6.27722144e-02f, -1.75988209e-02f, 2.64035631e-02f, -4.05915380e-02f,
    1.04039021e-01f, 3.41633260e-02f, -4.71903086e-02f, 6.14835024e-02f, -8.02777931e-02f, -1.12541698e-01f, 1.96069508e-04f, 3.02737858e-02f,
    -8.65277462e-03f, 6.17968626e-02f, -1.66756436e-02f, -7.87280947e-02f, 9.24262255e-02f, -1.88935529e-02f, -3.95499691e-02f, 1.65823400e-01f,
    -1.15069244e-02f, 2.99132634e-02f, -8.25562105e-02f, 2.85693835e-02f, 4.11344739e-03f, -7.81501010e-02f, -8.17781240e-02f, 8.90978575e-02f,
    -5.68197407e-02f, 1.89382762e-01f, -5.27556501e-02f, 1.30638480e-01f, -2.07089782e-02f, 2.03153566e-02f, -9.52423066e-02f, -6.88805431e-02f,
    5.00074476e-02f, -3.42992283e-02f, 5.74355498e-02f, -4.53939848e-02f, -4.01515886e-02f, 3.24596800e-02f, 4.48988825e-02f, -3.68442177e-03f,
    1.15343988e-01f, -6.14125980e-03f, 3.78414355e-02f, -9.53350812e-02f, -2.91843014e-03f, 1.69163034e-03f, 6.94622472e-02f, 9.05775055e-02f,
    4.86030281e-02f, 1.16999187e-01f, -4.66654114e-02f, 8.21253881e-02f, -7.88397789e-02f, -1.10804960e-02f, 3.89564456e-03f, 3.18851415e-03f,
    2.00401843e-02f, -1.04662003e-02f, 5.74764349e-02f, 5.44079952e-03f, -3.17424797e-02f, 1.54757509e-02f, -6.88182563e-02f, 1.09657168e-01f,
    -8.47264081e-02f, -1.27769390e-03f, 9.17740241e-02f, -1.27567485e-01f, 3.64403129e-02f, -4.83350828e-03f, 2.43611801e-02f, 2.78136376e-02f,
    -9.76691139e-04f, 4.64566574e-02f, -1.04831783e-02f, 2.69405469e-02f, -1.19012430e-01f, 5.80586791e-02f, -1.25410990e-03f, -8.12041834e-02f,
    -2.77254917e-02f, 1.99897010e-02f, 5.23650897e-06f, -5.67277819e-02f, 5.96906133e-02f, 4.71449271e-02f, -7.22710267e-02f, -1.15160145e-01f,
    -5.16628660e-03f, 6.22812249e-02f, -5.36537543e-02f, 1.08844802e-01f, -1.14963076e-03f, -6.35832921e-02f, -7.11570606e-02f, -6.45382777e-02f,
    4.47610803e-02f, 9.09089819e-02f, 1.17490173e-03f, -9.39950347e-02f, -1.43960342e-02f, 4.20823023e-02f, -5.07925563e-02f, -5.81232496e-02f,
    1.05266340e-01f, -4.92686629e-02f, 6.33729622e-02f, 2.11071689e-02f, 7.59913921e-02f, 1.03708684e-01f, -7.81353377e-03f, -4.60191804e-04f,
    -8.04643407e-02f, 7.95703977e-02f, 1.05917819e-01f, -8.22445527e-02f, 7.69082981e-04f, 9.16115660e-03f, 8.22072327e-02f, 1.52362183e-01f,
    -1.35467812e-01f, 1.60956919e-01f, -3.18334587e-02f, -1.70431118e-02f, -8.35958645e-02f, -6.31213514e-03f, 9.83224660e-02f, -3.72541808e-02f,
    1.20859519e-01f, -8.74347836e-02f, 1.39715210e-01f, -4.76053543e-02f, -6.36275634e-02f, -5.99773414e-02f, -6.57884926e-02f, -4.76534590e-02f,
    -2.04267148e-02f, -2.92758122e-02f, 2.38387659e-02f, -4.74055484e-02f, -2.12707371e-02f, 1.22651160e-01f, 1.43522441e-01f, 2.24682922e-03f,
    -1.25942275e-01f, -2.79304869e-02f, -9.20576826e-02f, 6.02027550e-02f, 6.42427281e-02f, -3.97071019e-02f, -2.36615613e-02f, 5.16780652e-02f,
    2.47307584e-01f, -2.79386025e-02f, 1.07106186e-01f, 1.43307187e-02f, -7.36972579e-05f, 7.81808347e-02f, 1.28364056e-01f, -4.11525602e-03f,
    -2.98666451e-02f, -8.12956765e-02f, 3.72654870e-02f, 2.33577229e-02f, -1.73591711e-02f, 4.36278386e-03f, 1.48411924e-02f, -7.82476887e-02f,
    -1.08034775e-01f, -7.66585544e-02f, -9.39126941e-04f, 1.03381621e-02f, -5.09568788e-02f, 5.41696623e-02f, 1.26717329e-01f, 1.05622495e-02f,
    1.08280540e-01f, 1.47009030e-01f, 1.33475050e-01f, 7.25389197e-02f, -4.76039909e-02f, 7.25574652e-03f, -8.33118707e-02f, 1.31812647e-01f,
    -2.02361848e-02f, 6.80627897e-02f, -1.13182120e-01f, 2.30557136e-02f, 1.89094413e-02f, 3.76621485e-02f, 8.54041427e-02f, 2.41648890e-02f,
    1.05875719e-03f, 3.92165184e-02f, -7.39247724e-02f, 3.37317847e-02f, 7.58481994e-02f, -6.90512359e-03f, 1.30006731e-01f, 2.99984105e-02f,
    -2.24495539e-03f, -1.06831849e-01f, -1.27994013e-03f, 1.61607087e-01f, 4.95432410e-03f, 8.48812684e-02f, 1.04993515e-01f, 5.91768213e-02f,
    -1.64884880e-01f, -6.13032258e-04f, 2.65079409e-01f, -7.13082701e-02f, -3.37320343e-02f, 3.37615311e-02f, 7.62337595e-02f, 1.80470925e-02f,
    -2.07144748e-02f, 4.75880057e-02f, 5.85935079e-02f, 4.52063493e-02f, 1.40269855e-02f, 2.39704689e-03f, 2.72209682e-02f, -3.84474024e-02f,
    -6.99521378e-02f, -6.99714646e-02f, 2.70613078e-02f, 3.02999079e-01f, -2.29467615e-03f, 9.21846461e-03f, -4.78357002e-02f, -6.01042584e-02f,
    1.04756683e-01f, -6.23606192e-03f, 1.20808594e-02f, 4.51582455e-04f, 1.93638951e-01f, -8.96993726e-02f, -3.13768089e-02f, -1.15569547e-01f,
    2.01057326e-02f, 2.00899430e-02f, 5.35871908e-02f, -4.18131240e-02f, 7.97207952e-02f, 3.89581453e-03f, 4.59668040e-02f, -2.18985360e-02f,
    -7.75076076e-02f, -1.78498623e-03f, -2.00364068e-02f, -2.76976265e-02f, -2.91684177e-02f, -2.42305594e-03f, 6.63768500e-02f, 1.56421158e-02f,
    5.86418137e-02f, 3.01339366e-02f, 5.78824757e-03f, 7.92628154e-02f, -6.29433617e-02f, 3.93767618e-02f, 4.02747728e-02f, -7.86824748e-02f,
    8.07842687e-02f, 1.44276861e-02f, -1.96532644e-02f, -8.25103000e-02f, -8.11395515e-03f, -4.38360460e-02f, 6.62912242e-03f, -4.12333570e-02f,
    -1.08414344e-01f, -1.12651335e-02f, -2.97762863e-02f, -9.45844129e-03f, -1.88070089e-02f, 4.86835651e-02f, 1.15972705e-01f, -1.40932640e-02f,
    -5.01193777e-02f, -2.38332711e-02f, -6.88646808e-02f, -5.57048246e-02f, 5.53892218e-02f, 1.86124980e-01f, -3.31368600e-03f, 2.28328984e-02f,
    2.99076289e-02f, -4.26429696e-02f, 1.71717890e-02f, -1.05531596e-01f, 9.69822053e-03f, 1.25742316e-01f, 7.25528821e-02f, -1.45356767e-02f,
    9.03150663e-02f, -6.67031482e-02f, -6.58160597e-02f, -1.36611899e-02f, 4.55577113e-02f, -7.06898654e-03f, 4.62831855e-02f, -5.32468669e-02f,
    3.24129350e-02f, 3.63396443e-02f, -4.65395823e-02f, 1.24213487e-01f, 3.38391475e-02f, 1.93316024e-02f, 4.43712296e-03f, 4.03409675e-02f,
    2.06490327e-02f, 4.04293090e-02f, 5.46176545e-02f, 7.38425762e-04f, 3.70580591e-02f, -4.07453924e-02f, 1.13452703e-01f, -1.52734723e-02f,
    6.66298419e-02f, -6.14302931e-03f, 7.19935820e-03f, 8.57686698e-02f, 5.72587736e-02f, 1.21666178e-01f, 8.88752267e-02f, 3.85976881e-02f,
    3.42366211e-02f, 3.83492187e-02f, 4.67780717e-02f, -3.69759765e-03f, 6.12173826e-02f, 8.89862329e-02f, 1.96536779e-02f, 3.58755924e-02f,
    7.98679292e-02f, -7.71146268e-02f, -1.02844618e-01f, -6.79437965e-02f, 3.15163732e-02f, 1.90993603e-02f, 3.25103588e-02f, 1.01986408e-01f,
    -2.61995774e-02f, 2.33627949e-02f, 1.17572825e-02f, -2.27762818e-01f, 3.00823934e-02f, -7.98957348e-02f, -1.01233043e-01f, 5.96568510e-02f,
    1.47721007e-01f, 4.28016298e-03f, 2.11275127e-02f, -2.17985138e-02f, -7.29380250e-02f, -9.96834412e-02f, -7.00925617e-03f, 1.61499545e-01f,
    1.00513799e-02f, 2.99392380e-02f, -1.01849407e-01f, -7.49696512e-03f, -8.92875940e-02f, 5.72699010e-02f, -5.02169989e-02f, 1.53093860e-02f,
    2.00329348e-02f, 2.05655098e-02f, -3.39699239e-02f, -3.64757366e-02f, -2.39958521e-02f, 7.00943992e-02f, 9.67606753e-02f, 1.38417393e-01f,
    -1.05546452e-02f, -8.24541524e-02f, -1.65055618e-02f, 4.94366512e-02f, -2.65831172e-01f, 9.14865232e-04f, -2.58239582e-02f, -3.66405025e-02f,
    2.72622183e-02f, 4.45294604e-02f, -1.66660044e-02f, 6.90031424e-02f, 2.93451473e-02f, -6.76321015e-02f, 4.39791344e-02f, -7.90048093e-02f,
    1.55266868e-02f, -2.06084233e-02f, -5.40513434e-02f, 3.41746584e-02f, -9.43912789e-02f, 8.47636536e-03f, 1.19817942e-01f, -7.70319551e-02f,
    8.92975926e-02f, -8.86272639e-02f, -2.51917168e-02f, -6.46727299e-03f, 2.53883246e-02f, -4.36365604e-02f, 8.81083608e-02f, 5.30883844e-04f,
    -3.20524797e-02f, -2.06172019e-02f, 3.31113748e-02f, -6.85450295e-03f, 5.27415909e-02f, 1.23371221e-01f, 6.40679225e-02f, -1.13709420e-01f,
    -3.58018577e-02f, 4.60822396e-02f, -4.72501181e-02f, 2.82778498e-02f, -2.52243187e-02f, -1.14223165e-02f, 4.62187976e-02f, 1.57700274e-02f,
    -5.73165864e-02f, -7.76313767e-02f, 7.82204196e-02f, -7.99784064e-02f, -2.27471534e-02f, 2.60912906e-02f, -3.75387222e-02f, 2.59675104e-02f,
    -3.56136076e-03f, -2.03375164e-02f, -6.77301139e-02f, 1.07121682e-02f, -7.35466108e-02f, -4.00474481e-03f, 1.34241655e-01f, 3.02524213e-02f,
    1.01018235e-01f, 5.59863597e-02f, -8.39989260e-02f, -4.91575003e-02f, 3.07557639e-02f, -1.17617846e-02f, -7.62345940e-02f, -1.11555811e-02f,
    7.67299384e-02f, 3.17430124e-02f, 1.06386550e-01f, 6.84044138e-02f, -2.39579193e-02f, -2.97506973e-02f, 1.84957564e-01f, -5.79815768e-02f,
    6.48169443e-02f, 6.41955584e-02f, -7.05157369e-02f, 4.23119357e-03f, -5.03428243e-02f, -7.83747900e-03f, -1.61584634e-02f, -5.30182309e-02f,
    1.46303788e-01f, -3.08074988e-02f, -2.46431337e-05f, 1.06521443e-01f, -1.33198440e-01f, -3.14378589e-02f, -2.94536725e-02f, -6.64445683e-02f,
    1.53123159e-02f, 1.71211749e-01f, 1.17019331e-02f, 5.79467677e-02f, 4.91282996e-03f, -1.29895732e-02f, 7.97554702e-02f, 6.28426746e-02f,
    -1.48325581e-02f, 1.18618034e-01f, 4.46217805e-02f, 5.82507662e-02f, 6.80320412e-02f, -8.11893046e-02f, 3.33324373e-02f, -5.92380464e-02f,
    5.15248105e-02f, 8.29616413e-02f, -6.14803238e-03f, 5.65147288e-02f, 1.45247251e-01f, 3.04200482e-02f, 7.82837160e-03f, -2.73789428e-02f,
    -5.85830770e-02f, 1.64428446e-02f, 2.34755456e-01f, -3.58757563e-02f, -7.23002777e-02f, 5.14559522e-02f, -6.30662451e-03f, 8.87793973e-02f,
    4.38822154e-03f, 2.11390071e-02f, 3.20071005e-04f, 3.97655927e-03f, 1.96996719e-01f, -2.49290206e-02f, 3.08601484e-02f, 1.11236103e-01f,
    8.59641880e-02f, -5.48757054e-02f, 8.48511681e-02f, -2.80052628e-02f, -7.30376914e-02f, 9.31699760e-03f, 1.03910096e-01f, 8.45778175e-03f,
    -5.06084897e-02f, -5.02580702e-02f, 6.79613352e-02f, 1.06890626e-01f, -7.13890418e-04f, -1.60384476e-02f, -1.52872801e-01f, 6.33423850e-02f,
    -1.11806057e-02f, -9.52093154e-02f, -3.68198976e-02f, -8.27980116e-02f, 2.20364798e-02f, 2.15301197e-02f, -1.26230000e-02f, -4.64386344e-02f,
    -8.30837637e-02f, 1.03793211e-01f, 7.63672143e-02f, 3.85102779e-02f, 1.07494910e-04f, -7.45488256e-02f, -3.68915120e-04f, 2.64463797e-02f,
    6.55412227e-02f, 2.16610327e-01f, 1.31755406e-02f, 3.86561602e-02f, -1.99583061e-02f, -2.67842580e-02f, -3.74857932e-02f, 5.42696230e-02f,
    -3.38986367e-02f, 1.56495962e-02f, 1.00416884e-01f, 7.14187995e-02f, 8.10134336e-02f, -5.32339737e-02f, -3.01104002e-02f, -7.31562916e-03f,
    3.08472868e-02f, 7.54249468e-02f, -4.08684649e-02f, 8.36636033e-03f, 9.41654071e-02f, 9.85933915e-02f, -3.57369967e-02f, -3.24547663e-02f,
    -2.52646320e-02f, 3.50904688e-02f, -5.11914343e-02f, -5.02451621e-02f, 1.66602880e-02f, -7.69788548e-02f, -5.87075157e-03f, -5.97133562e-02f,
    -5.39835393e-02f, -1.33942738e-02f, -6.82190284e-02f, 1.11088790e-01f, -2.70566456e-02f, -3.24782357e-02f, 1.14392810e-01f, 2.31544729e-02f,
    4.84217741e-02f, -2.96107829e-02f, 3.56541127e-02f, 8.49344656e-02f, -4.96212766e-02f, -1.22562377e-02f, 1.19131673e-02f, 2.36870330e-02f,
    6.72845449e-03f, 2.77719468e-01f, 2.11212710e-01f, -4.84393723e-02f, -9.06374827e-02f, 6.74710721e-02f, 3.43334079e-02f, -2.78781578e-02f,
    1.64967626e-01f, 7.54239559e-02f, -5.04995771e-02f, -3.69067192e-02f, -5.83647080e-02f, 1.14927769e-01f, -3.81015800e-02f, 8.71381834e-02f,
    3.56670618e-02f, -4.00696415e-03f, 5.58477566e-02f, 6.37884513e-02f, 9.90650058e-02f, 2.42686830e-02f, -4.74329554e-02f, -3.51582877e-02f,
    3.08160000e-02f, -4.63619307e-02f, 3.42923068e-02f, 3.40618223e-01f, 1.56630889e-01f, 1.00602813e-01f, -5.08740097e-02f, 5.83256446e-02f,
    1.56067777e-02f, 1.95739157e-02f, -4.38440591e-02f, -1.15777232e-01f, 9.40423086e-02f, 7.29892477e-02f, -7.15991035e-02f, -7.47298747e-02f,
    -3.05834357e-02f, 3.89736332e-02f, 8.39193538e-02f, 5.10877445e-02f, -7.85989985e-02f, 6.20335974e-02f, -1.28715828e-01f, 2.85341628e-02f,
    2.59498730e-02f, 6.83710154e-04f, -6.92727715e-02f, -2.00265273e-01f, 1.08816996e-01f, 1.58603847e-01f, 2.56313151e-03f, 8.53158906e-02f,
    6.44776132e-03f, 2.71407105e-02f, 6.62534460e-02f, -1.80934984e-02f, 2.89518997e-04f, -7.22421780e-02f, 1.10861259e-02f, 1.10874787e-01f,
    -4.47962433e-02f, -2.20317114e-02f, -3.08184344e-02f, 2.88039576e-02f, 2.11784407e-01f, 1.72044307e-01f, 7.11128414e-02f, 5.17987311e-02f,
    1.91695374e-02f, 2.27197528e-01f, 2.61433516e-02f, -8.82283151e-02f, -2.14028917e-02f, 2.15366902e-03f, 5.02045937e-02f, 1.54673401e-02f,
    3.52401510e-02f, 1.38898296e-02f, -4.01384849e-03f, 1.18493289e-01f, -1.04473129e-01f, -3.82943898e-02f, -2.68040821e-02f, 7.30763152e-02f,
    -1.45866647e-02f, 1.62498251e-01f, 7.45513812e-02f, -1.47353569e-02f, 7.09096193e-02f, -3.63641232e-02f, 2.19866615e-02f, 7.44607970e-02f,
    1.03921674e-01f, -1.60997566e-02f, 2.07254030e-02f, -1.57737091e-01f, -1.85330734e-02f, -3.89913991e-02f, 6.88459584e-03f, 3.70191261e-02f,
    -5.28980372e-03f, -9.65596735e-02f, 2.83803362e-02f, -2.01466102e-02f, -2.56353896e-02f, 1.58030121e-03f, -4.76236232e-02f, 3.19555891e-03f,
    1.49251476e-01f, -1.33713474e-02f, -8.48852992e-02f, -3.00322305e-02f, 2.55734008e-02f, -6.40465692e-02f, -6.66090325e-02f, -4.49319258e-02f,
    4.00580876e-02f, -9.83037502e-02f, 4.17939909e-02f, -3.41615602e-02f, 5.77649549e-02f, -4.15280014e-02f, 9.76967886e-02f, 3.43601871e-03f,
    7.00404644e-02f, -1.36984540e-02f, -9.99006480e-02f, 1.48200825e-01f, 3.50905210e-02f, 1.34708276e-02f, 2.85150260e-02f, -8.78867730e-02f,
    1.47587964e-02f, -6.00025132e-02f, 7.20553324e-02f, 9.17625241e-03f, 3.05657145e-02f, 7.93015882e-02f, -8.42020363e-02f, 2.31714100e-02f,
    1.05960116e-01f, 3.68832015e-02f, -1.58446413e-02f, -1.07272349e-01f, 5.08050472e-02f, 1.04094148e-01f, -1.38548426e-02f, 3.50237116e-02f,
    -1.40322174e-03f, -3.68687510e-02f, 4.05898644e-03f, 5.44124609e-03f, 6.31138310e-02f, 1.55633345e-01f, 4.03175056e-02f, 8.69746730e-02f,
    4.06737104e-02f, 3.23645631e-03f, -8.28792248e-03f, 1.22392140e-01f, -1.16422111e-02f, -4.76561375e-02f, -4.46835645e-02f, 2.21051928e-03f,
    9.40311849e-02f, 1.23866863e-04f, -1.02097094e-01f, 1.22443377e-03f, -7.09138140e-02f, -3.02235745e-02f, 1.04791801e-02f, -6.44604713e-02f,
    1.32230595e-02f, -1.00522958e-01f, -1.05742127e-01f, -6.34890571e-02f, -3.54018286e-02f, -5.93247376e-02f, 1.01718277e-01f, 9.53095108e-02f,
    -8.73988122e-02f, -1.07522476e-02f, 1.87077802e-02f, -8.10473487e-02f, 3.27244624e-02f, -5.05014434e-02f, -4.97114919e-02f, 6.67079091e-02f,
    -5.07838500e-04f, -1.22918040e-01f, 1.30358692e-02f, 2.26102378e-02f, -1.81015786e-02f, -8.53786394e-02f, -7.13836253e-02f, 7.49379769e-02f,
    -1.29151149e-02f, -5.25961816e-03f, 2.13448778e-01f, 3.73856686e-02f, -5.84253259e-02f, -7.00769899e-03f, -6.69298470e-02f, -7.01263919e-02f,
    -4.08715233e-02f, -4.17598374e-02f, 6.37076572e-02f, -4.48879600e-02f, -2.13908721e-02f, 1.79444030e-02f, -1.59570742e-02f, 4.52875644e-02f,
    -4.66613807e-02f, 5.33046387e-02f, -4.03391346e-02f, 5.71575761e-02f, -3.39813046e-02f, -4.94263470e-02f, 1.41371414e-01f, -7.31529221e-02f,
    -6.35904893e-02f, 8.68316218e-02f, 4.44855690e-02f, 5.24725132e-02f, -5.20916246e-02f, -2.87712086e-02f, -7.16772750e-02f, 4.54992335e-03f,
    6.73253685e-02f, -1.46467552e-01f, 1.35235861e-02f, -7.26348981e-02f, -2.90806424e-02f, -3.73588763e-02f, -2.25456357e-02f, 4.81928959e-02f,
    -1.86633840e-02f, 1.57726020e-01f, -1.08249128e-01f, -3.38118896e-02f, 3.04962814e-01f, 3.29580680e-02f, 2.50243372e-03f, -7.45337829e-02f,
    -8.14649761e-02f, -1.13567755e-01f, 6.17412217e-02f, -3.14869545e-02f, -1.52167585e-02f, -9.52637419e-02f, -8.91207829e-02f, 5.62696438e-03f,
    6.34216443e-02f, -9.09049343e-03f, 1.17324998e-05f, 1.41526908e-01f, -5.95632121e-02f, -6.84869215e-02f, 1.22008473e-02f, 5.32833254e-03f,
    -3.57571989e-02f, 1.01843521e-01f, -1.03289478e-01f, 1.19136870e-01f, -5.02085965e-03f, -1.07597843e-01f, -1.98479202e-02f, -2.19730213e-02f,
    -3.16432454e-02f, 3.81810591e-02f, -3.45760994e-02f, -2.50304565e-02f, -1.64226908e-02f, -8.45340490e-02f, -6.94749728e-02f, -2.29195133e-02f,
    -5.65552935e-02f, 2.30090432e-02f, 5.54731078e-02f, 4.50268313e-02f, 5.00667654e-02f, -7.14816228e-02f, -1.19912751e-01f, -1.21700495e-01f,
    -4.34861891e-02f, -2.99128946e-02f, -3.89329046e-02f, 1.19750820e-01f, 5.30453660e-02f, -2.27656532e-02f, 1.32865682e-02f, 1.91574022e-02f,
    -8.42198431e-02f, 3.46442647e-02f, -4.98260669e-02f, 9.50836316e-02f, -9.86057241e-03f, -1.29609946e-02f, 1.47293761e-01f, -5.21196425e-02f,
    -9.95702818e-02f, 1.85868088e-02f, 4.82903570e-02f, -1.00150935e-01f, 1.18325418e-02f, 1.10719211e-01f, 4.51048948e-02f, -5.09196259e-02f,
    -1.04841581e-02f, -2.25820512e-01f, -6.60906658e-02f, -1.64511893e-02f, -4.93129790e-02f, -4.51027937e-02f, -3.04950215e-02f, -3.96416858e-02f,
    9.23494771e-02f, 9.89108458e-02f, 5.27458377e-02f, -3.57218944e-02f, -9.30421352e-02f, 1.78684562e-01f, 5.87338768e-02f, -1.45006970e-01f,
    3.00970301e-02f, 1.64127633e-01f, 5.00710160e-02f, -1.02015091e-02f, -2.45175524e-05f, 1.41410172e-01f, 9.26357955e-02f, -1.96069740e-02f,
    9.39642079e-03f, 4.48953696e-02f, -1.42304776e-02f, -1.84216201e-02f, -2.29764711e-02f, -1.62556976e-01f, 2.39650477e-02f, -2.35639829e-02f,
    6.80890158e-02f, -6.66118935e-02f, -2.47449242e-02f, -6.18106918e-03f, 1.06714413e-01f, 1.85288727e-01f, 2.96877846e-02f, 1.77489445e-02f,
    9.37520154e-03f, 1.30235069e-02f, 6.17613317e-03f, 1.44750193e-01f, 1.36268232e-02f, -2.52464600e-02f, 2.35532913e-02f, -5.43471135e-04f,
    -1.06146010e-02f, -1.04527324e-01f, -1.18145598e-02f, 5.52015342e-02f, -4.21213955e-02f, -1.40364571e-02f, 3.47630560e-01f, 1.91763520e-01f,
    -6.06366098e-02f, -1.18336380e-01f, -5.32307141e-02f, -6.59138411e-02f, 7.29646608e-02f, -1.00761913e-02f, -5.80690801e-02f, -6.89680800e-02f,
    -2.92072780e-02f, 3.74352150e-02f, 2.96939188e-03f, 8.80536512e-02f, 8.68120138e-03f, -4.50507291e-02f, 4.08092886e-02f, -8.42014626e-02f,
    -1.75667014e-02f, -8.87556374e-03f, -1.20550573e-01f, 9.41717848e-02f, 1.41462227e-02f, -9.09330100e-02f, -1.62165239e-01f, -1.01528600e-01f,
    6.97582811e-02f, -1.07641444e-01f, -1.01568073e-01f, -7.52407312e-02f, -1.09486803e-01f, 1.06621638e-01f, -5.09077460e-02f, -7.51951709e-02f,
    -3.86500987e-03f, -6.89607933e-02f, -3.50242257e-02f, -7.17064217e-02f, -6.85499236e-02f, 5.39695704e-03f, 1.57723233e-01f, 5.75826131e-02f,
    -4.12287749e-03f, -1.72069389e-02f, 4.03865688e-02f, 2.84390408e-03f, -1.04167564e-02f, 9.56587568e-02f, 1.54391944e-01f, 6.03775606e-02f,
    7.61148892e-03f, 1.69542119e-01f, 2.46097408e-02f, -2.17637271e-02f, -7.48123974e-02f, 2.59812653e-01f, -1.03878021e-01f, 2.05429439e-02f,
    3.58731002e-02f, -8.96235853e-02f, 8.09500813e-02f, 8.78297314e-02f, 2.65046675e-02f, 3.34855653e-02f, 1.72206294e-02f, -1.96969941e-01f,
    7.51118138e-02f, -1.99345150e-03f, 2.69590542e-02f, -3.02713155e-03f, 5.67786135e-02f, 1.00906096e-01f, -1.32268090e-02f, -9.21788346e-03f,
    5.68820275e-02f, 3.52792181e-02f, 6.10684417e-03f, -4.19329442e-02f, 1.56744227e-01f, 5.89598045e-02f, 1.07265003e-02f, 1.44727239e-02f,
    4.37471457e-03f, 4.36617248e-02f, -1.69571579e-01f, 4.67679687e-02f, -2.26975624e-02f, 2.00185517e-04f, -1.62173610e-03f, 5.63669242e-02f,
    -2.69025657e-02f, 3.07036657e-02f, 4.58577499e-02f, 4.26085703e-02f, -1.09545216e-02f, -1.61221568e-02f, -5.68553805e-02f, 1.16896033e-02f,
    7.62851387e-02f, -1.79742560e-01f, -2.64907628e-02f, -4.38218936e-02f, -1.65341105e-02f, 5.41648269e-02f, 6.85196817e-02f, -5.63209541e-02f,
    8.22492391e-02f, -5.32562584e-02f, 3.72734554e-02f, 6.24246262e-02f, 1.03701511e-02f, -8.05715937e-03f, -2.52153836e-02f, 3.96560617e-02f,
    8.54103938e-02f, 3.14461701e-02f, 3.22892889e-02f, 5.48135340e-02f, 6.01116121e-02f, 9.71498489e-02f, -5.71418256e-02f, 5.18077202e-02f,
    4.62931246e-02f, -6.24439418e-02f, 4.57865372e-02f, -4.46560495e-02f, 5.54979667e-02f, -2.81512756e-02f, -6.79883291e-04f, 1.84436720e-02f,
    2.78204512e-02f, -2.21092571e-02f, -4.68536764e-02f, 2.18969453e-02f, -3.91076459e-03f, -2.95164585e-02f, -9.71158221e-03f, 7.38863796e-02f,
    4.95542288e-02f, 4.57128882e-02f, 4.79285419e-02f, -9.24823806e-03f, -3.07017844e-02f, -6.84459209e-02f, 7.89255723e-02f, 2.94872429e-02f,
    4.13706936e-02f, 5.70436679e-02f, 1.53833972e-02f, 9.25296396e-02f, 8.45216587e-02f, 4.45252704e-03f, -4.50363606e-02f, -7.04102265e-03f,
    -2.57742144e-02f, 2.97276564e-02f, -3.05023650e-03f, -1.01725675e-01f, -6.77871481e-02f, 6.58303648e-02f, 7.47458562e-02f, -1.21841813e-02f,
    1.97280291e-02f, 6.89455308e-03f, 1.09062135e-01f, 2.30555087e-02f, 3.01802643e-02f, 4.76690531e-02f, -1.27581349e-02f, 1.81438401e-01f,
    4.90306392e-02f, -3.43406089e-02f, 1.38069547e-04f, 1.13947392e-01f, 3.09348702e-02f, 1.81179661e-02f, 9.39399004e-02f, -2.36142036e-02f,
    1.69050470e-02f, 2.71656308e-02f, 3.72859947e-02f, 2.83233877e-02f, 2.25257594e-03f, 1.87905133e-02f, 5.49000204e-02f, 9.96705666e-02f,
    6.82861730e-03f, -7.83529412e-03f, 1.76840778e-02f, 7.95410126e-02f, -5.22766486e-02f, -2.59920936e-02f, -5.09815179e-02f, -2.42351554e-02f,
    5.25045255e-03f, 2.87679257e-03f, -2.14002784e-02f, 3.37351225e-02f, -8.83113593e-02f, -4.22929451e-02f, 5.26723005e-02f, -3.26535595e-03f,
    -3.98552008e-02f, -1.22669591e-02f, 6.58529671e-03f, 1.15383221e-02f, 6.10841718e-03f, -3.09227742e-02f, -5.74181750e-02f, -9.03707817e-02f,
    -5.92555571e-03f, 3.50693986e-03f, -3.70129105e-03f, 9.32490602e-02f, 6.75109923e-02f, 1.50125116e-01f, -1.00015495e-02f, 2.23086178e-02f,
    5.90561926e-02f, 6.54551610e-02f, 6.58544227e-02f, 3.87669280e-02f, 7.29652308e-03f, 1.68755837e-02f, 5.32600060e-02f, -1.24163330e-02f,
    -2.56717368e-03f, 8.14439654e-02f, 5.37249558e-02f, -2.98236143e-02f, -3.79361063e-02f, 5.60889319e-02f, -1.34918280e-03f, 7.09676892e-02f,
    8.08201060e-02f, 1.90110039e-02f, -3.22629921e-02f, 7.82064795e-02f, -1.68929249e-02f, 6.15636120e-03f, -6.49291277e-02f, -2.69365869e-02f,
    -7.55119100e-02f, -1.71957575e-02f, -9.61948466e-03f, -3.73957418e-02f, 7.97723532e-02f, 5.35329878e-02f, 6.27229288e-02f, 3.88328433e-02f,
    1.13889590e-01f, -1.42521530e-01f, 5.64872064e-02f, 2.02512890e-02f, -3.41591686e-02f, 4.54415120e-02f, 7.43544996e-02f, 7.15573728e-02f,
    2.05249004e-02f, 4.55915108e-02f, 2.41166279e-01f, -5.30056879e-02f, -9.39148143e-02f, -1.25659574e-02f, 3.44604217e-02f, 5.38199283e-02f,
    -3.28650065e-02f, 1.39162233e-02f, -4.49178852e-02f, -4.85384427e-02f, -1.87997613e-02f, -6.40169010e-02f, 9.16158687e-03f, 3.50106172e-02f,
    -4.10757288e-02f, -1.46241218e-01f, -4.29725924e-06f, 4.65196297e-02f, -1.29735945e-02f, 1.17922984e-02f, -1.96562167e-02f, -3.32736187e-02f,
    8.29013158e-03f, 7.18145967e-02f, -2.50839517e-02f, -4.30150256e-02f, -2.31536869e-02f, 5.94349876e-02f, 2.69634482e-02f, -2.60530319e-02f,
    -1.22856215e-01f, 2.76065823e-02f, -6.49936423e-02f, -4.05738577e-02f, -2.77752168e-02f, -1.12049185e-01f, -7.47347027e-02f, -1.55848682e-01f,
    -2.66119968e-02f, 1.80377811e-01f, 1.15860194e-01f, -3.09494883e-02f, 5.79584017e-03f, -4.54800613e-02f, -5.59002422e-02f, -4.42880653e-02f,
    5.93307503e-02f, -8.05938523e-03f, -1.11869805e-01f, 8.74036029e-02f, 1.15319014e-01f, -9.59370285e-02f, 1.42842364e-02f, -9.57104266e-02f,
    -1.18791692e-01f, 1.60174951e-01f, -3.52591053e-02f, -7.17832241e-03f, -8.10888559e-02f, 5.90425767e-02f, 9.84321442e-03f, -1.25739230e-02f,
    7.86371157e-02f, -1.75766796e-02f, -5.85408844e-02f, -3.73306721e-02f, -7.20930025e-02f, -6.68593869e-02f, 1.46762468e-02f, 1.67016108e-02f,
    -4.15567681e-02f, -1.08704627e-01f, 1.79226454e-02f, -4.80761230e-02f, 1.09590515e-01f, 9.99426916e-02f, 7.72834495e-02f, -6.71093687e-02f,
    -3.61259691e-02f, 4.39171717e-02f, -1.04789659e-02f, 2.74198186e-02f, -1.46579057e-01f, -4.06943411e-02f, 7.61258528e-02f, 3.69567573e-01f,
    1.52686881e-02f, -1.19298503e-01f, 9.37840194e-02f, 4.40827832e-02f, 3.41265586e-05f, -7.38846362e-02f, 1.40456721e-01f, -6.91188034e-03f,
    -1.06786177e-01f, 1.36433974e-01f, 9.90954414e-03f, 2.93186158e-02f, -4.40552309e-02f, -1.36014447e-01f, 7.81621188e-02f, -5.88277392e-02f,
    -6.14032662e-03f, 7.61571452e-02f, 4.27755201e-03f, 1.04723852e-02f, 9.74876881e-02f, -3.86353917e-02f, 6.36456758e-02f, -6.48956653e-03f,
    1.54367790e-01f, 9.11570992e-03f, 3.29545401e-02f, -1.06690772e-01f, 6.01924956e-02f, -1.84640922e-02f, 4.37524654e-02f, -4.54086699e-02f,
    -2.42427289e-02f, 4.66102809e-02f, 3.82284224e-02f, 3.52869891e-02f, 3.55471522e-02f, 7.25272251e-03f, -4.35909212e-01f, -6.22928664e-02f,
    -8.24508071e-02f, -1.67168662e-01f, 1.92782693e-02f, -9.88129154e-02f, -1.25424236e-01f, -3.78594408e-03f, -8.64340737e-03f, 7.84153212e-03f,
    -7.79083697e-03f, 4.63124737e-02f, -4.99206483e-02f, 1.05609417e-01f, -6.56436533e-02f, -2.05675900e-01f, -8.01060572e-02f, 2.75488019e-01f,
    -8.65524262e-03f, -5.24805067e-03f, -3.70680764e-02f, 1.24878891e-01f, -2.20130868e-02f, -4.03517224e-02f, -2.18861364e-02f, -7.99092427e-02f,
    7.86479190e-02f, 2.12598704e-02f, -2.14718822e-02f, -1.07438713e-01f, -7.40329996e-02f, -3.29666585e-02f, -1.23189889e-01f, -1.00462399e-01f,
    -3.10714412e-02f, -6.83749393e-02f, -2.70144958e-02f, 3.72966230e-02f, -1.05517440e-01f, 1.06601708e-01f, 1.54081896e-01f, 4.87750620e-02f,
    -5.81834279e-02f, -3.80332433e-02f, 2.57038772e-02f, -8.44460428e-02f, 5.78795932e-02f, 7.28815496e-02f, 2.81221807e-01f, 5.46444133e-02f,
    -1.12087224e-02f, 6.89886883e-02f, 6.09377027e-02f, -5.14542721e-02f, -1.55245885e-01f, -1.99209116e-02f, 1.45441622e-01f, -3.85638932e-03f,
    -7.90891871e-02f, -1.17242008e-01f, 7.01354668e-02f, -1.14291862e-01f, -4.09614965e-02f, 3.79557023e-03f, -2.59158411e-03f, -2.41073985e-02f,
    3.20115574e-02f, 3.56286839e-02f, 5.22870831e-02f, 9.29070041e-02f, -1.48584107e-02f, 1.60054266e-02f, 8.66657495e-02f, 5.96448444e-02f,
    3.69247310e-02f, -1.19805718e-02f, 3.83695439e-02f, -3.67518030e-02f, 1.04722500e-01f, -2.96450313e-02f, 2.86622792e-02f, 5.02844714e-02f,
    1.14930728e-02f, 3.91503330e-03f, 1.29966557e-01f, -1.45957083e-01f, -4.65856213e-03f, 1.93076357e-02f, -1.14447922e-02f, 2.27449194e-01f,
    -5.05350716e-02f, 5.66666713e-03f, 7.82100782e-02f, 4.62015867e-02f, 1.05162552e-02f, -1.12030238e-01f, -4.99465466e-02f, 5.33471107e-02f,
    1.33917332e-01f, -9.11180601e-02f, -2.22634729e-02f, -3.80901471e-02f, 1.91733316e-02f, -5.75264712e-05f, -1.51515764e-03f, -4.00715694e-02f,
    5.66404574e-02f, 2.30767112e-02f, -1.34745601e-03f, 6.20412789e-02f, -5.16856229e-03f, 4.87401243e-03f, -5.64627834e-02f, 3.32235508e-02f,
    9.38774943e-02f, 2.34772302e-02f, 4.45971265e-02f, 7.99141377e-02f, -2.77357660e-02f, 8.15147460e-02f, 1.42061347e-02f, 5.63271604e-02f,
    4.00803275e-02f, -7.10959407e-03f, 6.90427944e-02f, -8.11608732e-02f, 4.97318879e-02f, -3.60684097e-02f, 9.58191752e-02f, 4.79166172e-02f,
    1.35679275e-03f, 8.12171623e-02f, -4.38871421e-02f, 2.32012961e-02f, 2.78476365e-02f, 2.24903207e-02f, 5.55012422e-03f, 3.83849367e-02f,
    6.99719861e-02f, 3.20579647e-03f, 2.22294200e-02f, -1.29891718e-02f, 3.03318501e-02f, 1.45974219e-01f, 1.06542863e-01f, -2.01481581e-02f,
    4.79378439e-02f, 1.90865062e-02f, 8.55814293e-02f, 1.48789457e-03f, 6.69369996e-02f, -4.28744070e-02f, 2.20906306e-02f, -1.28528485e-02f,
    -4.85661700e-02f, 5.61334155e-02f, 6.42051250e-02f, -1.87017992e-02f, -9.42187384e-02f, 3.89150158e-02f, 2.51400638e-02f, -1.40858907e-02f,
    1.69678871e-02f, 2.77381856e-03f, 7.68316090e-02f, 3.51545773e-02f, 2.43958216e-02f, 1.31884947e-01f, -6.01134226e-02f, 1.73110843e-01f,
    1.35782361e-01f, 2.13481439e-03f, -1.04139261e-02f, 2.45772898e-02f, 5.30063324e-02f, -5.06639704e-02f, 9.24731046e-02f, 1.96351367e-03f,
    -1.30623421e-02f, 2.32880618e-02f, 1.25826925e-01f, 1.63791925e-02f, -4.79533300e-02f, 7.55376834e-03f, 7.98932537e-02f, 6.62694275e-02f,
    -6.29768372e-02f, 5.52090211e-03f, 1.76736005e-02f, 9.42031667e-02f, -5.03685623e-02f, -6.23376109e-02f, 6.98432978e-03f, -1.46574927e-02f,
    3.96265239e-02f, 2.08665177e-01f, 8.44045170e-03f, 4.60155681e-02f, -1.18327923e-01f, -2.27092542e-02f, 3.99454571e-02f, 3.41834836e-02f,
    5.77556714e-02f, -1.01115676e-02f, 5.60894720e-02f, 8.32095519e-02f, -6.17552176e-02f, 9.66387708e-03f, -4.09755781e-02f, -1.07685782e-01f,
    9.43711586e-03f, 9.28371155e-04f, 3.35737877e-02f, 3.70304585e-02f, 5.68032451e-02f, 1.34114191e-01f, 9.05689523e-02f, 1.90985948e-02f,
    7.27280825e-02f, -2.95328870e-02f, 2.22928748e-01f, -9.88394767e-03f, -6.43555401e-03f, 6.18814155e-02f, 3.77319790e-02f, 3.53294751e-03f,
    2.42737625e-02f, -4.52929176e-03f, 7.40336999e-02f, 5.31977927e-03f, -4.52380925e-02f, 3.95715348e-02f, 1.94466598e-02f, 2.65012234e-02f,
    5.24120070e-02f, 6.04979210e-02f, 6.66289702e-02f, 8.11652094e-02f, -2.56379164e-04f, 3.43327858e-02f, -9.41301882e-02f, 2.77738599e-03f,
    -3.73475775e-02f, 2.01926176e-02f, 7.84909725e-03f, 1.37595937e-01f, 6.36375695e-02f, 3.68437171e-02f, 1.40640736e-02f, 1.64439511e-02f,
    8.31792802e-02f, -4.63892408e-02f, -2.22060487e-01f, 2.54422184e-02f, 8.04729685e-02f, 2.75162049e-02f, 1.00468576e-01f, 1.37599766e-01f,
    2.28664428e-02f, -3.25843468e-02f, -2.56183147e-01f, -4.25098091e-02f, -8.93626735e-02f, -2.54087336e-02f, 4.57004607e-02f, 1.08549595e-02f,
    -4.13857661e-02f, -6.38284236e-02f, -1.79582778e-02f, 1.58158764e-02f, 1.69677436e-02f, -7.05047324e-03f, 8.69003311e-02f, 3.76836471e-02f,
    1.17667131e-02f, 1.81288794e-01f, -2.27137184e-06f, 3.39817181e-02f, -3.77827659e-02f, -1.42897498e-02f, 1.03711054e-01f, -2.70838160e-02f,
    2.23663561e-02f, 1.36123262e-02f, 2.13974044e-01f, 3.79327759e-02f, -1.19849602e-02f, -1.08439207e-01f, -9.76142585e-02f, -2.56838612e-02f,
    4.58630621e-02f, 2.99156401e-02f, -8.95959586e-02f, -4.32186425e-02f, -2.55724955e-02f, 2.95800939e-02f, -4.28636298e-02f, -2.03191675e-02f,
    -3.13685052e-02f, -5.39026111e-02f, -4.58372012e-03f, 7.85066653e-03f, 1.63386595e-02f, -4.67531532e-02f, -2.59630457e-02f, -1.71194538e-01f,
    1.48813516e-01f, 9.84957814e-02f, 1.58304628e-02f, 1.65738631e-02f, 8.10642987e-02f, -1.20801246e-02f, -6.71616942e-02f, 1.52032450e-02f,
    -3.04167029e-02f, -5.46221389e-03f, 3.88169885e-02f, 1.99759454e-02f, -5.30483499e-02f, 1.51652068e-01f, -5.75368702e-02f, 5.83940409e-02f,
    1.78688049e-01f, -6.03427850e-02f, -5.85536025e-02f, -7.82596543e-02f, 3.14464532e-02f, -9.43313763e-02f, -2.69867778e-02f, -3.21028195e-02f,
    2.55153570e-02f, 1.51272893e-01f, 1.73649583e-02f, -3.71303335e-02f, -3.38332192e-03f, 1.17808834e-01f, -1.07750677e-01f, 4.85161729e-02f,
    -1.31948724e-01f, 9.48463976e-02f, -2.78814863e-02f, 7.21006542e-02f, 1.32543087e-01f, -5.22303134e-02f, -1.00658700e-01f, -1.61986664e-01f,
    4.64905724e-02f, -3.96861807e-02f, -4.22189571e-02f, 3.34368721e-02f, 4.39034447e-05f, 4.71659470e-03f, 1.21790290e-01f, -4.04834673e-02f,
    -5.85884377e-02f, 1.11976050e-01f, 1.53897526e-02f, -2.62142997e-02f, -6.17650151e-03f, 1.09634198e-01f, -6.18526265e-02f, -1.02371767e-01f,
    -2.26341980e-03f, -3.27830948e-02f, 1.03877187e-01f, -3.29955108e-02f, 4.43028249e-02f, 8.23613629e-02f, -8.93666670e-02f, 1.99231710e-02f,
    -6.55596703e-02f, -4.01366642e-03f, -1.51771992e-01f, -5.49643151e-02f, -8.19487683e-03f, -4.31641117e-02f, -2.34935582e-02f, -3.47382203e-02f,
    -6.54602721e-02f, -2.14206666e-01f, -4.51064818e-02f, -1.28256530e-01f, 1.03345163e-01f, 1.17138281e-01f, 3.43892798e-02f, -6.20807558e-02f,
    -6.20304532e-02f, 1.58314437e-01f, 4.74146269e-02f, -1.83815673e-01f, -8.21181312e-02f, 3.95150110e-02f, 6.86326111e-03f, -6.69955313e-02f,
    -1.57796741e-02f, 9.50874686e-02f, 8.84722453e-03f, 5.08607216e-02f, -4.96863760e-02f, -8.95869918e-03f, -5.90987094e-02f, -2.21808329e-01f,
    7.80675709e-02f, -3.10717616e-03f, -4.18174863e-02f, 1.96099073e-01f, 2.46584993e-02f, -1.54911596e-02f, -1.43649310e-01f, 3.87237854e-02f,
    -1.43472860e-02f, -1.32257208e-01f, -5.89071661e-02f, 5.68267843e-03f, 6.30034506e-02f, 7.55395591e-02f, -1.20465688e-01f, -1.96877159e-02f,
    -8.84623751e-02f, -8.79011452e-02f, 3.05414069e-02f, 7.40315691e-02f, -1.83992777e-02f, 1.49985835e-01f, 1.46625131e-01f, -3.72950844e-02f,
    6.04910813e-02f, -7.57196918e-02f, -5.11247888e-02f, 2.91151460e-02f, 4.93303640e-03f, 4.79599908e-02f, -2.80315410e-02f, 7.32113197e-02f,
    -1.79622299e-03f, -2.90850922e-02f, 1.05280399e-01f, -2.86455057e-03f, -8.81133676e-02f, -4.74409461e-02f, -9.34159085e-02f, 3.41221802e-02f,
    1.26955315e-01f, -1.02524869e-01f, -6.18900694e-02f, 6.89798892e-02f, 4.46697623e-02f, 6.91649914e-02f, 2.22562663e-02f, -8.15215483e-02f,
    8.81890655e-02f, 2.27523632e-02f, -3.64538319e-02f, -3.40847448e-02f, 1.00330777e-01f, 7.00411424e-02f, 2.99032945e-02f, -4.08828408e-02f,
    -2.43438035e-02f, -1.35993713e-03f, 6.56265840e-02f, -8.64767879e-02f, -4.73365448e-02f, 2.26473901e-02f, -9.85593162e-03f, 5.78301325e-02f,
    -2.79300753e-02f, 1.12460451e-02f, 4.38998640e-03f, 2.00165957e-01f, -1.05295534e-04f, -2.27003768e-02f, 3.57227437e-02f, -5.50918020e-02f,
    -4.77987379e-02f, 1.35514168e-02f, 5.06376512e-02f, 1.01349995e-01f, -6.06257170e-02f, -3.10006668e-03f, -6.11234419e-02f, 4.18020897e-02f,
    1.46064647e-02f, -3.01783010e-02f, -2.10361630e-02f, -8.21380690e-02f, 8.13953727e-02f, -1.28424847e-02f, 7.02292919e-02f, -9.11914930e-02f,
    3.68292630e-02f, 2.51901802e-02f, 2.57794131e-02f, 4.10342366e-02f, 4.17062566e-02f, 2.52993102e-03f, -6.64183795e-02f, 5.84172271e-02f,
    4.78277691e-02f, 8.16262662e-02f, 5.71937487e-03f, 9.14018154e-02f, -2.02630851e-02f, 6.48265705e-02f, -1.97333563e-03f, 4.12456803e-02f,
    -8.88782181e-03f, 4.30661477e-02f, 5.35926372e-02f, -4.33479473e-02f, 5.17766401e-02f, 1.08668968e-01f, 9.01877955e-02f, 5.21106906e-02f,
    -4.43260036e-02f, 2.41325796e-02f, -7.25301728e-02f, 4.67560673e-03f, 2.66530160e-02f, 4.11635898e-02f, 2.59220675e-02f, 2.19892263e-02f,
    4.48082276e-02f, -3.84825394e-02f, 7.65923560e-02f, -5.38334437e-02f, 4.46100496e-02f, -1.19809374e-01f, 6.90856203e-02f, 1.90351605e-02f,
    5.74139953e-02f, 2.76766606e-02f, -1.52919777e-02f, 3.53105851e-02f, 1.56443805e-01f, -1.36278886e-02f, 4.19447199e-02f, 2.54421365e-02f,
    6.61455616e-02f, 1.65191516e-02f, 4.41515073e-02f, -7.19346628e-02f, -8.65477547e-02f, 4.46844846e-02f, 2.63068061e-02f, 5.74381426e-02f,
    4.45478335e-02f, -5.02412729e-02f, 5.93218282e-02f, -3.05858310e-02f, 4.18799696e-03f, 8.77890736e-02f, 1.73952989e-02f, 2.36261487e-01f,
    -1.20549820e-01f, 1.99483708e-03f, -3.42150368e-02f, 2.09689900e-01f, -1.31165579e-01f, 9.23368558e-02f, 1.16271779e-01f, -5.78251593e-02f,
    -2.28732508e-02f, 2.06879573e-03f, -6.33965060e-02f, 4.66477275e-02f, -3.15029882e-02f, 5.40203489e-02f, 5.34963533e-02f, 4.76339050e-02f,
    -3.49212933e-04f, -1.70572679e-02f, 3.74968089e-02f, 1.37510553e-01f, -6.41072094e-02f, -8.65141153e-02f, -8.89718011e-02f, -5.38050681e-02f,
    2.04059873e-02f, -1.55877441e-01f, -2.63329297e-02f, 9.52650793e-03f, 8.47638473e-02f, -4.82753627e-02f, 6.23975880e-02f, 6.40366273e-03f,
    -3.10702994e-02f, -1.90649815e-02f, 1.11120334e-02f, 8.55321810e-03f, -2.49899440e-02f, -7.01858383e-03f, -5.04699089e-02f, -8.14910308e-02f,
    1.54486336e-02f, -8.39097239e-03f, -2.69204658e-02f, 1.40131582e-02f, 6.11314885e-02f, 2.66470276e-02f, -4.88953628e-02f, 1.12752672e-02f,
    6.66131452e-02f, 6.11910634e-02f, -8.43070969e-02f, -2.17969920e-02f, 3.75059317e-03f, 1.16341196e-01f, 1.07241675e-01f, 4.98771220e-02f,
    1.42120058e-03f, 5.44443466e-02f, 7.66748041e-02f, 2.25882251e-02f, -2.29322072e-02f, 2.47651897e-02f, 1.34482188e-02f, -1.20319845e-02f,
    1.09145917e-01f, -1.73307431e-03f, 2.11205520e-03f, 3.00066620e-02f, 2.32607145e-02f, 2.45483853e-02f, -4.56141010e-02f, 7.51902536e-03f,
    4.48825546e-02f, -8.09066743e-02f, 2.78241956e-03f, 2.73668543e-02f, 4.72969040e-02f, 1.58604048e-02f, 7.56109953e-02f, 1.62577536e-02f,
    1.18211977e-01f, -3.30953263e-02f, 2.63055921e-01f, 3.98155861e-02f, 3.80031541e-02f, 2.74662152e-02f, 3.16433571e-02f, -1.56404153e-01f,
    8.68917536e-03f, 2.14774415e-01f, 1.96044873e-02f, 5.74278608e-02f, -1.40048200e-02f, 4.12760526e-02f, -4.60657328e-02f, 1.08756900e-01f,
    -6.58192411e-02f, -1.15528323e-01f, 1.24832295e-01f, -1.08825844e-02f, 2.59714872e-02f, -3.14960293e-02f, -1.10528238e-01f, 7.68472850e-02f,
    7.42646977e-02f, -1.02279976e-01f, -3.01627870e-06f, -4.43352610e-02f, 2.71160364e-01f, 2.33158499e-01f, 2.11540014e-01f, 1.77366976e-02f,
    -7.06881210e-02f, 4.65288945e-02f, 5.33142686e-02f, -5.83480597e-02f, -2.32995208e-03f, -5.82049042e-02f, -2.15536319e-02f, 1.21537484e-01f,
    -4.55139577e-03f, 2.28023250e-02f, -3.89588438e-02f, 5.52316234e-02f, 2.12609470e-02f, 4.09133872e-03f, -6.18124306e-02f, -9.63693857e-02f,
    -3.88379507e-02f, 1.19970322e-01f, -7.46596977e-03f, -9.93894227e-03f, 1.71809958e-03f, -6.24898635e-02f, -4.78712423e-03f, -2.02214077e-01f,
    5.75674698e-02f, -5.01071364e-02f, -6.61506578e-02f, 8.89976546e-02f, -5.71214035e-02f, 9.00010765e-02f, 6.66583702e-02f, -7.02508986e-02f,
    -2.54205354e-02f, 4.88402024e-02f, -6.87759519e-02f, -1.09580322e-03f, -1.10344321e-01f, 3.12232934e-02f, -5.09141525e-03f, 1.69341668e-01f,
    -1.80752054e-02f, -3.45571823e-02f, -2.68807709e-02f, 1.72059759e-02f, -4.86308709e-02f, 3.23560163e-02f, 2.91133262e-02f, -6.27694931e-03f,
    -7.03063374e-03f, -3.89714837e-02f, 8.87979791e-02f, -2.01375112e-02f, -4.62650731e-02f, 1.67187471e-02f, 5.21273538e-02f, -1.32116571e-01f,
    -6.08232878e-02f, 1.64637968e-01f, 5.74859194e-02f, 1.43160701e-01f, -8.37227330e-03f, -7.05440789e-02f, -3.55629884e-02f, -1.24460813e-02f,
    4.84912172e-02f, -2.29169969e-02f, -9.12278071e-02f, 1.94994286e-02f, 5.12591942e-05f, 6.10919409e-02f, -3.22722644e-02f, 2.66604442e-02f,
    1.58393383e-02f, -5.72817884e-02f, 3.78530435e-02f, 1.47052491e-02f, 4.69606780e-02f, 2.15047196e-01f, -2.57643405e-03f, 2.76361704e-01f,
    -4.07427065e-02f, -9.59963948e-02f, -5.42876348e-02f, -8.24496448e-02f, -4.54484448e-02f, 9.91418436e-02f, -1.44361919e-02f, 1.76862940e-01f,
    -1.36599587e-02f, -5.58627211e-02f, 4.71922681e-02f, 4.52296138e-02f, 7.42504969e-02f, -5.64102456e-02f, -9.85427648e-02f, 3.03785503e-02f,
    6.06405921e-02f, -1.40249804e-01f, 6.96957856e-02f, -7.94262514e-02f, 1.93274379e-01f, 9.14325416e-02f, -2.83470117e-02f, 5.32110557e-02f,
    -9.90395173e-02f, -8.58398229e-02f, -1.45689204e-01f, -1.98315922e-02f, -2.24988945e-02f, -2.88282544e-03f, 7.16297999e-02f, 8.93233344e-02f,
    9.54647660e-02f, -1.99965406e-02f, -5.78349121e-02f, -3.56326513e-02f, 6.06340468e-02f, 9.26425494e-03f, -1.18682086e-01f, -5.50848171e-02f,
    -1.77210523e-03f, -8.42248872e-02f, -8.29022974e-02f, -2.39594951e-02f, -1.29770562e-01f, -2.30913647e-02f, 1.55183032e-01f, 6.65764362e-02f,
    2.62811296e-02f, -6.24083243e-02f, -6.14956208e-02f, -6.21193498e-02f, -9.82315242e-02f, -2.05068123e-02f, -1.28905281e-01f, 2.21686456e-02f,
    -1.74081162e-01f, 8.03167000e-02f, 1.90455779e-01f, 1.00119850e-02f, -2.46429723e-02f, 7.17111006e-02f, -1.19960524e-01f, 1.71596427e-02f,
    -2.05063331e-03f, -4.59958427e-02f, -3.83475758e-02f, -4.74534519e-02f, -2.65008081e-02f, -3.27947401e-02f, -4.66042534e-02f, 6.07808717e-02f,
    7.38848150e-02f, -7.53049925e-02f, 1.50910607e-02f, 6.51368797e-02f, 7.61387944e-02f, 7.13670030e-02f, 1.36099249e-01f, 1.29764425e-02f,
    3.78300734e-02f, 5.21988571e-02f, -9.57237929e-02f, 8.02014675e-03f, -1.11510942e-03f, 1.16898762e-02f, -1.75972506e-02f, -1.46126365e-02f,
    5.09964749e-02f, 4.73482087e-02f, -1.59482304e-02f, -1.23527586e-01f, -9.63569898e-03f, 5.11386208e-02f, 3.81903127e-02f, -1.97390486e-02f,
    4.52429205e-02f, -1.00757619e-02f, 2.46309433e-02f, 2.77131684e-02f, -3.83390971e-02f, 2.93690078e-02f, 2.26953663e-02f, 4.41985531e-03f,
    7.22199213e-03f, 2.71936832e-03f, -1.97516512e-02f, -9.98910591e-02f, -5.25574908e-02f, -2.53722519e-02f, 5.35220578e-02f, 1.31153479e-01f,
    9.47968382e-03f, -8.14785138e-02f, -3.26677188e-02f, 2.39492394e-02f, -3.43321338e-02f, 5.41621931e-02f, -1.34565867e-02f, 2.14346014e-02f,
    2.63651763e-03f, 5.77916168e-02f, 5.45208231e-02f, 6.98572844e-02f, 4.25481349e-02f, 2.72106119e-02f, -1.34329861e-02f, 1.02182552e-02f,
    1.35301277e-02f, 1.92567625e-03f, -1.72294993e-02f, 2.25354964e-03f, 5.59187271e-02f, 1.05341990e-02f, -6.27342537e-02f, 1.22255879e-02f,
    6.15928397e-02f, -1.04550486e-02f, -5.37116872e-03f, -6.36030287e-02f, -5.72674489e-03f, -1.52334571e-01f, 1.34376436e-02f, 2.09003370e-02f,
    2.35660356e-02f, 4.27158214e-02f, -3.82534526e-02f, -6.97834939e-02f, 2.14176322e-03f, -2.21174099e-02f, 6.57346891e-03f, 4.76381816e-02f,
    -5.88518009e-03f, -5.66115752e-02f, -6.70215338e-02f, 5.69396429e-02f, -3.02200951e-03f, -3.66126709e-02f, -4.71121259e-02f, 3.45257223e-02f,
    3.24533209e-02f, 1.18843261e-02f, 6.35663718e-02f, 3.29557136e-02f, 4.12823074e-02f, -1.23505659e-01f, -6.00880571e-03f, -2.40747258e-02f,
    9.39349085e-02f, 1.05033256e-01f, 5.79448864e-02f, -5.18628024e-02f, 5.24914544e-03f, -3.48457098e-02f, -4.53565419e-02f, 7.17421994e-02f,
    5.96890897e-02f, 1.75490063e-02f, 7.63990805e-02f, 9.45154652e-02f, 2.83172838e-02f, 1.27699301e-02f, 1.48497969e-02f, 3.36798001e-03f,
    1.17189977e-02f, 3.20058502e-02f, -5.15513346e-02f, -2.82063708e-02f, -1.66124236e-02f, -2.70427875e-02f, -1.04589671e-01f, 1.45686075e-01f,
    3.62025164e-02f, 2.99540907e-02f, -6.24303110e-02f, -1.58162061e-02f, 8.15539211e-02f, -3.16499453e-03f, -2.06839349e-02f, -1.35127213e-02f,
    -4.04629111e-02f, 1.15142763e-02f, 6.48268610e-02f, 2.78154388e-02f, 3.86373512e-02f, 2.83670309e-03f, 9.90483630e-03f, 2.03023534e-02f,
    -2.24870723e-02f, -1.43235661e-02f, -6.76848665e-02f, 3.96216810e-02f, 8.35178643e-02f, -3.67761403e-02f, 1.41531136e-02f, -2.59528812e-02f,
    4.52623293e-02f, 4.14033644e-02f, 3.73088419e-02f, 6.50055334e-03f, -1.88591070e-02f, -1.58855692e-02f, 8.88375379e-03f, 2.16761082e-02f,
    -4.41099368e-02f, 5.10709267e-03f, -3.75500321e-03f, 1.45790987e-02f, 6.54321313e-02f, 1.14032049e-02f, -1.98052786e-02f, -5.61706685e-02f,
    6.83132261e-02f, 7.60026574e-02f, 5.51740685e-03f, 7.82399904e-03f, 4.83220443e-02f, 3.11750993e-02f, -4.81275022e-02f, -5.60399797e-03f,
    9.74229421e-04f, 3.59481089e-02f, 5.96855320e-02f, 5.53187616e-02f, 6.32557198e-02f, 5.85902482e-02f, 3.84722687e-02f, -2.55163852e-02f,
    2.34678295e-02f, -1.96138266e-02f, -3.54235782e-03f, -9.12900120e-02f, 6.88317344e-02f, 6.85100555e-02f, -3.36330966e-03f, 2.03862041e-02f,
    5.74483499e-02f, -2.82484386e-02f, 1.90125071e-02f, 4.55371626e-02f, 1.26780896e-02f, 6.93394989e-02f, -8.39733630e-02f, 9.29538608e-02f,
    -3.07317581e-02f, -1.45420264e-02f, 1.98123772e-02f, 4.23545986e-02f, -7.10479468e-02f, -1.16395010e-02f, 5.60939834e-02f, -2.35632528e-03f,
    7.98216462e-02f, 1.89035796e-02f, 7.39983395e-02f, 2.71075796e-02f, -1.08393289e-01f, 2.57472806e-02f, 8.94766375e-02f, 4.91459407e-02f,
    -1.02549437e-02f, 9.78144701e-04f, 1.03595398e-01f, 4.22744639e-02f, 7.88207576e-02f, -1.76934917e-02f, -7.58327693e-02f, -7.26970807e-02f,
    2.66349930e-02f, -8.00855272e-03f, -1.34528186e-02f, -1.98375452e-02f, 4.90972251e-02f, 8.08313861e-02f, 7.63724605e-03f, -3.46003249e-02f,
    -6.73151687e-02f, 8.37054029e-02f, -4.65325547e-06f, 1.01339862e-01f, 5.45740947e-02f, -2.59665772e-02f, 1.53876357e-02f, 4.36668880e-02f,
    4.67945516e-01f, -2.57281363e-02f, -3.65370475e-02f, 7.39833293e-03f, -2.38234224e-03f, -3.70354131e-02f, -6.46064207e-02f, 2.03663513e-01f,
    7.63841420e-02f, 1.06150024e-01f, 6.25139922e-02f, -1.67162530e-02f, -3.39146107e-02f, 6.25544861e-02f, 1.02247603e-01f, -8.98770466e-02f,
    4.99966331e-02f, -1.68945789e-02f, -1.21275432e-01f, -7.73215145e-02f, 1.74910381e-01f, 6.08724840e-02f, 1.89932734e-02f, 8.11058003e-03f,
    2.34617554e-02f, -8.98773894e-02f, -3.80405784e-02f, 4.50981632e-02f, -8.62176493e-02f, 2.87221894e-02f, -2.81607416e-02f, 9.16579738e-02f,
    2.94099063e-01f, -1.55371293e-01f, 6.65691346e-02f, -1.14689618e-01f, 5.32085970e-02f, 2.53236182e-02f, 1.86249726e-02f, -1.00711755e-01f,
    6.23605587e-03f, 2.04374656e-01f, -1.76191777e-01f, 9.87701714e-02f, -3.67596708e-02f, -9.30978358e-03f, -6.64328411e-02f, -3.95223722e-02f,
    3.96928377e-03f, -7.56314956e-03f, 2.98457034e-02f, 7.27104349e-03f, -3.38255253e-04f, -1.97423518e-01f, 1.30261108e-01f, 4.37801331e-02f,
    1.58399921e-02f, -3.47565681e-01f, 7.82379806e-02f, -6.32831380e-02f, 4.25155926e-03f, 5.11375219e-02f, 8.08848068e-02f, 3.55400592e-02f,
    3.46044637e-02f, 1.44582270e-02f, 8.29273015e-02f, 3.10217105e-02f, -9.05143897e-05f, 2.34322529e-02f, -2.00012311e-01f, -2.04930063e-02f,
    4.12540734e-02f, -5.60199609e-03f, -8.92351475e-03f, -6.19171411e-02f, 4.84341290e-03f, 4.90638688e-02f, -5.81631586e-02f, -4.34646476e-03f,
    2.22381383e-01f, 5.47911115e-02f, 1.76126048e-01f, 7.11380467e-02f, -2.66387109e-02f, 1.51122762e-02f, 1.03740105e-02f, -1.45697948e-02f,
    2.44429275e-01f, -1.53975114e-01f, 7.89644010e-03f, -3.31614241e-02f, -3.67755778e-02f, 3.99539393e-04f, 2.76221223e-02f, -3.45300836e-03f,
    3.70954201e-02f, 5.01785763e-02f, -1.94633994e-02f, -6.68028295e-02f, 1.44303501e-01f, -4.15074416e-02f, -8.41284618e-02f, -5.47986180e-02f,
    -1.98870301e-02f, -7.28613958e-02f, -1.34157278e-02f, 4.04739343e-02f, 1.28276065e-01f, 8.50907564e-02f, 7.95859471e-03f, 1.97940748e-02f,
    -9.21840072e-02f, -4.76481542e-02f, -3.85038219e-02f, 7.74408225e-03f, 1.21511430e-01f, -3.21095251e-02f, 2.91114971e-02f, 2.60780808e-02f,
    3.41849416e-01f, -4.67340462e-03f, 7.50413686e-02f, 4.72630747e-02f, 1.40145207e-02f, -3.06749679e-02f, -4.33581066e-04f, 9.35725272e-02f,
    -1.03319705e-01f, -6.55729696e-02f, -1.24011245e-02f, -2.75683422e-02f, -2.07207184e-02f, -2.59937178e-02f, 4.79064062e-02f, -3.56367491e-02f,
    3.40391695e-02f, 5.40917777e-02f, -1.58230707e-01f, -1.08059116e-01f, -1.00085132e-01f, 5.85650280e-02f, 7.37707615e-02f, -9.91693512e-02f,
    2.03952491e-01f, 2.09930521e-02f, 1.04393708e-02f, 1.98387448e-02f, 2.50274539e-01f, -5.84846362e-02f, 4.65314463e-02f, 5.14936894e-02f,
    1.05599269e-01f, 1.20011814e-01f, 1.53837442e-01f, -9.78174270e-04f, 1.36147976e-01f, -1.07920796e-01f, -7.31266961e-02f, -1.70823023e-01f,
    1.70118064e-02f, -6.27118573e-02f, -1.04535624e-01f, 3.05852275e-02f, 1.85010687e-01f, 3.84487747e-03f, -6.71049729e-02f, -2.60336604e-02f,
    -2.26131342e-02f, 1.77746508e-02f, 1.80983860e-02f, 2.88842563e-02f, -2.21155281e-03f, -3.88709037e-03f, -1.36910945e-01f, 6.60740212e-02f,
    3.98926735e-02f, 1.20932208e-02f, -1.43961404e-02f, 8.01844299e-02f, 1.61016993e-02f, 3.43688764e-02f, 3.36334705e-02f, -5.58356903e-02f,
    -5.97947510e-03f, 1.09131761e-01f, 2.59733330e-02f, -7.39890113e-02f, -2.51730485e-03f, 1.00475229e-01f, -1.31698688e-02f, 4.85763960e-02f,
    3.18502262e-02f, 5.85227981e-02f, -3.11597958e-02f, 5.25539704e-02f, 5.15618436e-02f, -2.30353102e-02f, -6.43640086e-02f, 4.29624915e-02f,
    6.47875443e-02f, 1.77285988e-02f, 1.65112258e-03f, 2.03687221e-01f, -1.09501004e-01f, 7.32845441e-02f, 6.61211833e-02f, -9.74869728e-02f,
    -1.12023083e-02f, 9.87241566e-02f, 1.84068922e-02f, 1.05553426e-01f, 7.28151277e-02f, 6.51551411e-02f, -4.38080588e-03f, -1.12021556e-02f,
    9.49057639e-02f, 1.19448580e-01f, 9.04231817e-02f, -7.85948429e-03f, 1.68317370e-02f, -6.74236706e-03f, -1.60616674e-02f, -1.52259599e-02f,
    -3.47893126e-02f, -8.15735385e-02f, 1.12268201e-03f, -3.29243988e-02f, -7.45110586e-02f, 5.89143075e-02f, 6.75387494e-03f, -5.17303161e-02f,
    -2.84863394e-02f, -1.95972645e-03f, 1.55931748e-02f, 2.42774170e-02f, 1.26019204e-02f, 4.30206722e-03f, 5.45824952e-02f, -2.94138733e-02f,
    -1.11777999e-03f, -3.73209044e-02f, -1.28788676e-03f, -4.11548615e-02f, 7.55477995e-02f, 3.06191090e-02f, 1.04169868e-01f, -6.19317926e-02f,
    -5.20289019e-02f, 1.38120025e-01f, -3.27861914e-03f, -2.08940320e-02f, 3.01628690e-02f, -6.28534146e-03f, 3.81116495e-02f, -1.61920756e-01f,
    6.32405505e-02f, -5.78740845e-03f, 2.27525621e-03f, 3.97934727e-02f, -1.28636211e-01f, -1.17965318e-01f, -3.82291451e-02f, -2.30108760e-02f,
    6.88523473e-03f, -3.26740928e-02f, 3.28080095e-02f, 9.37471315e-02f, 9.87839997e-02f, 2.49814034e-01f, -1.17886942e-02f, -1.31417410e-02f,
    1.11373059e-01f, 9.09584761e-03f, -3.79448980e-02f, -2.16409750e-02f, 1.42992884e-02f, -8.43455419e-02f, 4.87522557e-02f, -5.83194792e-02f,
    8.12348574e-02f, -6.46727234e-02f, -1.98393110e-02f, 5.91907799e-02f, 3.24159004e-02f, -7.37364665e-02f, -5.15216924e-02f, 3.03686932e-02f,
    -5.88285513e-02f, 8.62745121e-02f, -6.48746267e-02f, -4.26638648e-02f, -4.60915193e-02f, -4.27502766e-02f, 3.67600992e-02f, 5.64721674e-02f,
    -2.77861319e-02f, 8.04015920e-02f, -8.50260481e-02f, 6.20901305e-03f, 6.85128523e-03f, 3.33745708e-03f, 2.40368806e-02f, 9.53862518e-02f,
    -6.20096065e-02f, 4.53381762e-02f, 1.91423222e-02f, -1.10519283e-01f, 2.99672913e-02f, 1.38129722e-02f, 2.38976441e-03f, 1.51237920e-01f,
    1.93373114e-02f, 9.92265493e-02f, -3.86529490e-02f, 1.91504970e-01f, 1.34243760e-02f, 3.40266116e-02f, -2.39013173e-02f, 8.67748447e-03f,
    -8.83044526e-02f, 1.32316098e-01f, 1.08618466e-02f, -2.18929145e-02f, -2.80134790e-02f, 8.63197669e-02f, 9.27706715e-03f, 2.86944788e-02f,
    5.72694577e-02f, -9.40583125e-02f, 1.55545548e-01f, 1.56271067e-02f, 5.10387942e-02f, -1.45679293e-03f, -1.64533257e-02f, -2.69968025e-02f,
    9.60748196e-02f, -3.77275608e-02f, -2.97938827e-02f, -5.85404560e-02f, -5.80126271e-02f, 2.30250042e-02f, 5.94420470e-02f, -3.56902219e-02f,
    2.74321195e-02f, 6.82189018e-02f, 2.99176164e-02f, -1.33350985e-02f, -4.89202961e-02f, 5.26384562e-02f, -1.11368513e-02f, -2.18668021e-02f,
    9.05170515e-02f, 1.44968182e-01f, -1.97066125e-02f, 5.58319390e-02f, -4.83959466e-02f, -3.01180687e-02f, -3.76205966e-02f, 1.06178619e-01f,
    8.87318049e-03f, -4.76160422e-02f, -1.76774994e-01f, 2.30300188e-01f, -8.66341293e-02f, 4.32313085e-02f, -3.38234454e-02f, 1.43357933e-01f,
    -3.69680040e-02f, -1.20520279e-01f, -1.46321962e-02f, 5.76807447e-02f, -6.30272999e-02f, 2.02320144e-02f, -4.95368429e-02f, 8.13208614e-03f,
    1.36794984e-01f, 2.73469947e-02f, -9.01114959e-07f, -2.38058586e-02f, -3.12967077e-02f, -7.35403150e-02f, 1.73459053e-01f, 8.24078247e-02f,
    5.33636883e-02f, -7.16277510e-02f, -4.27098721e-02f, 4.67093997e-02f, -1.32117672e-02f, -7.56972805e-02f, -3.45942676e-02f, -2.74849460e-02f,
    1.41350683e-02f, 6.68075010e-02f, -4.67559136e-03f, -5.39135113e-02f, 1.22291885e-01f, 9.34000127e-03f, -5.01651652e-02f, 2.53104359e-01f,
    8.42625182e-03f, -5.20451479e-02f, 2.09529232e-02f, -4.13050922e-03f, -6.62924442e-03f, 5.40750809e-02f, 2.77796894e-01f, -6.64925352e-02f,
    -6.14939258e-03f, -1.14433229e-01f, -4.76944633e-03f, -4.39863885e-03f, 3.01211234e-03f, 2.94097681e-02f, 6.42602965e-02f, -2.40066070e-02f,
    5.24618328e-02f, 1.36863992e-01f, -7.09451549e-03f, 1.59231424e-01f, 1.38418507e-02f, -4.39179167e-02f, -1.03354856e-01f, 6.92278445e-02f,
    -8.39681029e-02f, 5.55094443e-02f, 3.11332438e-02f, -1.20851845e-01f, -1.51668470e-02f, -8.58328771e-03f, -5.76327043e-03f, -2.81846337e-03f,
    6.56815171e-02f, 2.17400655e-01f, -4.81840111e-02f, 9.92967337e-02f, -7.16170180e-04f, 8.56444091e-02f, -4.33883280e-04f, 2.16650113e-01f,
    -2.77559217e-02f, 1.09634466e-01f, 8.90232697e-02f, 2.01631963e-01f, 6.08294792e-02f, -9.91260856e-02f, -1.20459720e-01f, -2.06874192e-01f,
    -6.35578483e-02f, -2.48605944e-02f, -5.31017818e-02f, -5.10161370e-02f, 5.03671363e-05f, 1.47887249e-03f, 1.81627423e-01f, -1.92992706e-02f,
    7.61850774e-02f, -2.96050683e-02f, -6.40068902e-03f, -1.90705643e-03f, 1.91237092e-01f, 4.29133587e-02f, -5.99545874e-02f, -1.66397542e-02f,
    3.96148022e-03f, -7.88407773e-02f, -1.20190121e-02f, -9.11784545e-02f, -1.93120055e-02f, -2.01817900e-02f, -6.53183237e-02f, 1.69913962e-01f,
    -9.30823982e-02f, 5.58068184e-03f, -6.82709366e-02f, -6.98517710e-02f, 6.53253344e-04f, -5.66352084e-02f, -2.61396356e-02f, 3.45844962e-02f,
    -7.81944487e-03f, -1.18412912e-01f, -6.84159324e-02f, 1.06266607e-02f, -5.14050163e-02f, -2.44876482e-02f, 2.02916458e-01f, 5.46299368e-02f,
    -8.71950667e-03f, 1.66119337e-01f, 5.45281246e-02f, -6.99422061e-02f, 1.36443954e-02f, 5.60522489e-02f, 3.42351124e-02f, -8.29382911e-02f,
    -1.26036182e-02f, 8.25692117e-02f, 3.75766419e-02f, 2.98342388e-03f, 5.81913814e-02f, 2.00509340e-01f, 1.74398739e-02f, -1.98704228e-01f,
    5.55681437e-02f, -3.69284451e-02f, 9.64697376e-02f, -1.43963899e-02f, 1.14906415e-01f, 7.14647621e-02f, -8.57964233e-02f, -1.33579122e-02f,
    4.82393205e-02f, -1.02036640e-01f, -2.90887989e-03f, 4.74663489e-02f, -3.34433950e-02f, -4.76340801e-02f, -3.59178558e-02f, 1.67235926e-01f,
    1.09619657e-02f, 6.47528842e-02f, 1.15712829e-01f, 3.27739418e-02f, 1.77263096e-01f, 1.22058600e-01f, 1.79890484e-01f, -5.52213378e-02f,
    1.39222428e-01f, -3.56665403e-02f, -7.04843625e-02f, 5.85419266e-03f, 9.35427770e-02f, 1.42896688e-02f, -1.00624137e-01f, -6.15568534e-02f,
    3.47382315e-02f, -5.61677739e-02f, -7.16186315e-02f, 2.41778954e-03f, -8.12833607e-02f, 3.83773558e-02f, -1.17426701e-01f, 1.04805440e-01f,
    1.10557035e-01f, -5.43412529e-02f, 3.04820873e-02f, -6.90975040e-03f, 8.77827480e-02f, -3.49029675e-02f, -4.41798046e-02f, -6.68967217e-02f,
    -1.80163905e-02f, 1.72977671e-02f, -1.08559849e-02f, 4.86681424e-02f, 8.72191414e-02f, 4.53477837e-02f, 1.21996608e-02f, 3.26615758e-02f,
    1.98732819e-02f, 1.28274774e-02f, -3.78730670e-02f, 2.12423829e-03f, -1.02281712e-01f, 3.24260667e-02f, 4.40788977e-02f, -6.38539195e-02f,
    8.21578782e-03f, 1.07497469e-01f, -1.20501988e-01f, 2.87309438e-01f, 6.94301259e-03f, 1.34358434e-02f, -4.17547151e-02f, -5.08524664e-02f,
    4.12874706e-02f, 2.19462514e-02f, 3.38494219e-02f, 4.34828252e-02f, -8.20648074e-02f, -2.03235615e-02f, 7.56446319e-03f, 5.84464846e-03f,
    2.77240016e-03f, 9.41634178e-02f, -3.48487943e-02f, 3.66302915e-02f, 9.90893245e-02f, 9.27715153e-02f, -3.89464921e-03f, 1.39215430e-02f,
    -7.99673889e-03f, -3.00604589e-02f, -8.03821348e-03f, 4.99013327e-02f, 1.98009666e-02f, 3.00564636e-02f, -9.75357555e-03f, 7.55207520e-03f,
    7.34060071e-03f, 9.48998518e-03f, -3.99160273e-02f, 3.36046778e-02f, 1.09268837e-02f, -1.83254853e-02f, 2.31475830e-02f, 1.98187958e-02f,
    4.38736714e-02f, 4.40408699e-02f, -3.17295664e-03f, -5.19244671e-02f, 3.54961827e-02f, 7.19198138e-02f, 4.11793962e-02f, 2.22429577e-02f,
    1.32080223e-02f, -2.93658879e-02f, -5.19914627e-02f, -1.58707201e-02f, 1.50319822e-02f, 3.02422158e-02f, -2.93632094e-02f, 2.29962673e-02f,
    8.67460575e-03f, 1.63917206e-02f, 3.38200517e-02f, -1.41623598e-02f, 1.91921962e-03f, -4.23475727e-02f, 3.34694646e-02f, 5.35311885e-02f,
    3.02521400e-02f, 6.31831884e-02f, -3.33491713e-03f, 5.46310693e-02f, 4.04126383e-02f, -2.64078565e-02f, 4.90247458e-02f, 1.84686799e-02f,
    -2.66471859e-02f, 3.50587489e-03f, -1.89499017e-02f, 7.13992864e-02f, 4.31216089e-03f, -2.38035284e-02f, 2.68671941e-02f, -2.95411330e-02f,
    -4.98641701e-03f, -9.71479822e-05f, 4.91121858e-02f, 7.70302713e-02f, -9.26825497e-03f, 5.39703071e-02f, 2.05033034e-01f, 4.14389335e-02f,
    6.18517995e-02f, 1.41570112e-02f, -2.78960913e-02f, 5.12815230e-02f, -9.92687643e-02f, -4.51365337e-02f, 6.17288388e-02f, 1.16009936e-02f,
    9.50557292e-02f, -4.75485958e-02f, 2.46144049e-02f, 3.47959660e-02f, 4.52737845e-02f, 4.30692919e-02f, 3.04396823e-02f, 6.53161705e-02f,
    -7.12790713e-03f, -2.36394759e-02f, -1.24444964e-03f, 4.83642928e-02f, 5.23182303e-02f, 3.33387256e-02f, 4.90047783e-03f, 5.10683022e-02f,
    -1.71443149e-02f, -1.88869070e-02f, 5.63569041e-03f, -6.72202790e-03f, 5.82135580e-02f, -4.22528107e-03f, 1.73440799e-02f, 1.30685922e-02f,
    -4.55073491e-02f, 3.70544009e-02f, -3.40853035e-02f, -1.50550744e-02f, 8.57575536e-02f, -4.27642977e-03f, -2.41496339e-02f, -2.56142169e-02f,
    -3.97951156e-03f, -6.12194603e-03f, 4.87715602e-02f, 3.14418338e-02f, 9.75280814e-03f, 2.92412918e-02f, -2.86808256e-02f, 5.48408646e-03f,
    1.25725856e-02f, 6.03760779e-02f, -5.59158139e-02f, -1.13433683e-02f, 1.55533561e-02f, 4.43505086e-02f, 1.72516517e-02f, -2.30762102e-02f,
    -1.82822794e-02f, 1.75918117e-02f, 2.22827643e-02f, 2.83911247e-02f, -7.93939009e-02f, 1.83231104e-02f, 1.62890623e-03f, -2.48842835e-02f,
    9.59030613e-02f, -4.10276391e-02f, -1.25512658e-02f, 1.76236071e-02f, -2.07042065e-03f, 8.63131601e-03f, -4.30414733e-03f, -1.94745883e-02f,
    -2.97320876e-02f, -2.91940290e-02f, -2.44474653e-02f, -5.86730167e-02f, 4.83092889e-02f, -1.58233754e-02f, 8.55386406e-02f, 2.31997240e-02f,
    1.28723413e-01f, -8.22032392e-02f, 1.81983948e-01f, -4.16978188e-02f, 3.22474702e-03f, -1.33313788e-02f, 1.09584201e-02f, -4.62249331e-02f,
    2.00787727e-02f, 2.56551523e-02f, -2.28041224e-02f, -3.89738828e-02f, 2.33468190e-02f, 7.08882809e-02f, 5.12721017e-02f, 6.45005554e-02f,
    9.97730941e-02f, 4.57912423e-02f, 1.71087757e-02f, -1.27275297e-02f, -8.09488967e-02f, -2.80532166e-02f, 1.51102528e-01f, 7.31241554e-02f,
    1.24907568e-01f, 2.11332906e-02f, 1.50529067e-05f, 6.79550618e-02f, 2.38622613e-02f, 7.50360563e-02f, -8.78872059e-04f, 7.38337589e-03f,
    -4.90643783e-03f, 1.82383065e-03f, 2.21933257e-02f, 1.11397848e-01f, 1.52694704e-02f, 1.33878738e-01f, 1.76960245e-01f, 2.92373262e-03f,
    -1.28336968e-02f, -4.37778123e-02f, 8.44930783e-02f, -3.32315750e-02f, -2.58277971e-02f, 9.00587719e-03f, 2.29173936e-02f, 6.74659535e-02f,
    4.27550562e-02f, -1.70336347e-02f, 6.62077740e-02f, 5.89615963e-02f, -2.26194505e-02f, 2.17956737e-01f, 4.57930975e-02f, 1.27468235e-03f,
    -1.53279036e-01f, 3.87991555e-02f, 3.07336403e-03f, -1.27707809e-01f, 1.25497594e-01f, 8.14657882e-02f, 1.39377862e-01f, 2.91044861e-02f,
    1.42635228e-02f, 6.29776716e-02f, -5.28746843e-02f, 1.49982393e-01f, 3.10540050e-02f, 1.43109346e-02f, 1.51292775e-02f, -3.29873115e-02f,
    1.74746346e-02f, 9.03563201e-02f, 9.61868465e-02f, 1.37274548e-01f, -3.03669553e-02f, 1.09403253e-01f, 1.08006112e-01f, 7.37122670e-02f,
    -4.80716862e-02f, -5.42430133e-02f, 5.19391224e-02f, 1.98033787e-02f, 6.28955364e-02f, 7.81789124e-02f, 3.64016108e-02f, -6.56215288e-03f,
    9.41973999e-02f, 1.13423280e-01f, -5.77525655e-03f, -2.30237637e-02f, -2.40127705e-02f, 1.07223786e-01f, 5.02348244e-02f, -6.47463799e-02f,
    -6.85055703e-02f, 3.39962821e-03f, 9.86190606e-03f, -4.63216975e-02f, -2.46798686e-06f, -3.23483646e-02f, 1.30298465e-01f, 4.34235781e-02f,
    1.22180454e-01f, 9.03259031e-03f, -1.33673185e-02f, -2.87517998e-02f, -1.04719512e-02f, 1.19822789e-02f, 7.57223591e-02f, 2.49580238e-02f,
    4.50109616e-02f, 9.15278569e-02f, -3.18685398e-02f, -5.39659560e-02f, -3.18649970e-02f, -9.96181965e-02f, -5.11979647e-02f, 1.33494157e-02f,
    -3.92116532e-02f, 3.36176082e-02f, -1.79386735e-02f, 4.07387353e-02f, 8.60500149e-04f, 1.10243158e-02f, 3.86307910e-02f, -1.41214421e-02f,
    -3.17110159e-02f, 9.53809917e-03f, -1.31760174e-02f, 1.60725545e-02f, 2.80288961e-02f, -1.81241054e-02f, -1.49507910e-01f, -3.76270451e-02f,
    -5.91923308e-04f, -9.99847893e-04f, -7.28177198e-04f, 1.72782257e-01f, 9.35644209e-02f, -7.18819425e-02f, -1.27958059e-02f, 6.36116937e-02f,
    1.64921552e-01f, -8.40937942e-02f, 7.57500753e-02f, 3.95336514e-03f, 8.95885676e-02f, 2.98891608e-02f, 2.20114272e-03f, 6.53314441e-02f,
    -7.80892447e-02f, 1.38850547e-02f, 3.57388481e-02f, -6.60761893e-02f, 3.55180316e-02f, -7.99299311e-03f, 1.18307672e-01f, -4.57575694e-02f,
    5.05421385e-02f, 1.70719460e-01f, -6.05142526e-02f, -4.19719517e-02f, 1.11337826e-02f, -2.39606742e-02f, 4.59919497e-02f, -1.64753031e-02f,
    -2.43874155e-02f, 4.11890745e-02f, 1.16564482e-01f, -3.07238530e-02f, 1.28391162e-02f, -3.65567170e-02f, -7.12527186e-02f, 1.55094400e-01f,
    7.01774424e-03f, -1.04321009e-02f, 1.08909188e-02f, 9.40225497e-02f, -8.08623657e-02f, 1.18764099e-02f, 3.54505633e-03f, -9.95498598e-02f,
    2.31937226e-02f, -6.87009692e-02f, 5.04679483e-05f, 6.83457553e-02f, 2.12114543e-01f, 7.17125237e-02f, 9.84660070e-03f, -4.84255701e-02f,
    3.50437425e-02f, 2.12339625e-01f, 6.55283630e-02f, 6.21248186e-02f, -1.05182501e-02f, 1.16980346e-02f, 6.59506246e-02f, 3.86462249e-02f,
    -8.65917951e-02f, -5.99181978e-03f, 9.36321728e-03f, 1.19620515e-02f, -4.35579481e-04f, 1.82064995e-02f, 6.34111464e-02f, 1.18712872e-01f,
    2.09631044e-02f, 1.66974694e-01f, -1.61766056e-02f, 6.56168759e-02f, 2.64303349e-02f, -2.40537040e-02f, -9.35114175e-02f, -6.11282252e-02f,
    8.52337629e-02f, 1.81090593e-01f, 2.27133613e-02f, -7.52589554e-02f, 1.14766084e-01f, 1.59925297e-02f, -6.38845041e-02f, -4.71301042e-02f,
    5.06136976e-02f, -1.27127081e-01f, 6.11929372e-02f, -2.47984882e-02f, -2.27684379e-02f, -3.39550078e-02f, 2.28317790e-02f, 2.26683244e-02f,
    1.10861734e-02f, -1.00921830e-02f, -5.48115857e-02f, 9.01070889e-03f, 1.99259911e-02f, 9.56613421e-02f, 1.41665610e-02f, -4.00132127e-02f,
    -7.83905461e-02f, 1.06492424e-02f, 1.45950187e-02f, 3.86378951e-02f, 2.02659126e-02f, 9.40456707e-03f, 9.24788266e-02f, -8.80145654e-03f,
    -1.02223150e-01f, 1.01893552e-01f, 9.66372937e-02f, 1.46657107e-02f, 1.26397997e-01f, -1.90778002e-02f, 8.45209360e-02f, -9.76153184e-03f,
    8.89693871e-02f, 5.79448268e-02f, 3.90383042e-02f, 5.32558672e-02f, 8.58155452e-03f, 9.17908028e-02f, -2.04859171e-02f, 1.70805883e-02f,
    2.21326333e-02f, -9.36430469e-02f, 1.11170471e-01f, -7.27428496e-02f, 6.50369152e-02f, 9.61561687e-03f, -1.84393954e-02f, 3.78798470e-02f,
    -1.71756726e-02f, -2.03616749e-02f, -5.86447380e-02f, 5.22117689e-02f, -4.14702706e-02f, 1.28817916e-01f, 5.08790230e-03f, 1.27122343e-01f,
    3.95551175e-02f, 6.19797185e-02f, 9.75973755e-02f, 9.32593644e-03f, -4.46941182e-02f, 2.93793995e-02f, -4.86370362e-02f, 2.11413592e-01f,
    -3.55399810e-02f, -2.81659625e-02f, -6.29621446e-02f, 8.90679061e-02f, 1.62480827e-02f, -2.35208664e-02f, 1.51623458e-01f, -3.40496115e-02f,
    -3.03570740e-02f, -1.21811563e-02f, -2.17088349e-02f, 7.70244226e-02f, -3.58436815e-02f, 1.93621386e-02f, 3.38244066e-02f, -1.82498425e-01f,
    2.31463656e-01f, 2.12035868e-02f, 4.70514968e-02f, -5.59724905e-02f, 5.11005074e-02f, -1.30140841e-01f, -1.60233662e-01f, 5.33829331e-02f,
    -2.95578726e-02f, 3.39559698e-03f, -1.48203727e-02f, 1.15640601e-02f, 9.86467525e-02f, -3.96436006e-02f, 3.34504247e-02f, 1.26377955e-01f,
    6.77892938e-02f, -1.83485951e-02f, 8.54593888e-02f, 3.73842381e-02f, 4.97947410e-02f, 2.55910516e-01f, 1.16783150e-01f, 4.64552455e-02f,
    5.92569215e-03f, 8.95987600e-02f, 3.79984528e-02f, -1.10535035e-02f, -1.05416179e-01f, 2.31405739e-02f, 1.93608291e-02f, 1.19459547e-01f,
    -1.94786191e-02f, -2.98529165e-03f, -5.17116562e-02f, -4.10601161e-02f, 3.11846696e-02f, -3.24106775e-02f, 5.36615588e-02f, 5.30601367e-02f,
    -3.08921235e-03f, -1.80480047e-03f, 7.69041106e-02f, -3.98711003e-02f, 2.30985507e-02f, 1.02103062e-01f, 9.43930298e-02f, 6.85100034e-02f,
    2.93816999e-02f, -7.85666928e-02f, 3.09753343e-02f, -8.29870179e-02f, 1.60668010e-03f, -1.36505496e-02f, -3.01489271e-02f, -3.89834610e-03f,
    -3.75035107e-02f, 7.49987885e-02f, -1.27684280e-01f, 1.28224537e-01f, 7.10528158e-03f, 6.48319488e-03f, -5.30549362e-02f, -8.78317375e-03f,
    -7.75642172e-02f, -7.87970945e-02f, 5.32235112e-03f, 8.23215395e-02f, 5.62556274e-02f, 1.22315343e-02f, 7.23803714e-02f, -2.18764022e-02f,
    -1.65768377e-02f, 7.35141188e-02f, -3.15973498e-02f, -3.58429179e-02f, 9.45262015e-02f, 2.98354868e-02f, 1.35561571e-01f, -3.01395934e-02f,
    1.32965657e-03f, -9.40748304e-02f, -2.18598813e-01f, -5.37277386e-02f, 4.74335998e-02f, 2.27455199e-02f, 3.28173977e-03f, 3.72016318e-02f,
    -5.51410094e-02f, 1.13931410e-01f, 7.31315613e-02f, 1.42107056e-02f, 3.43094952e-02f, -8.66638031e-03f, -4.94252332e-02f, -6.93883002e-02f,
    -1.59979903e-03f, -7.30218068e-02f, -6.47185668e-02f, -3.08969393e-02f, 2.37569045e-02f, 1.54141868e-02f, 1.04582526e-01f, 1.92092255e-01f,
    7.38050118e-02f, -1.25202015e-02f, 3.12797670e-06f, 6.07397258e-02f, 1.44401759e-01f, 5.21701276e-02f, 3.11052725e-02f, -1.92662608e-02f,
    -7.04519916e-03f, 2.01218516e-01f, 1.14344545e-02f, -4.37912822e-04f, -6.49080845e-03f, -1.26312384e-02f, -6.10923618e-02f, 1.10702388e-01f,
    -6.80592656e-02f, 1.38689922e-02f, -2.55029816e-02f, -1.25317827e-01f, -1.20178208e-01f, -8.94852132e-02f, -9.11360234e-02f, 1.38832759e-02f,
    -4.45531495e-02f, 7.01071024e-02f, -1.02204874e-01f, -1.61749183e-03f, -8.15628190e-03f, 1.21085733e-01f, -7.66473962e-03f, -1.49261847e-01f,
    -1.59580670e-02f, 1.31381765e-01f, -8.39186832e-02f, 8.77238512e-02f, 7.33405948e-02f, -1.27249816e-02f, 1.10325702e-01f, -7.72160664e-02f,
    4.03890386e-02f, -4.97201011e-02f, -1.82832237e-02f, 4.39649969e-02f, -1.44369379e-01f, -1.03585813e-02f, -5.90497255e-02f, 2.19442874e-01f,
    6.68058451e-03f, 7.48504372e-03f, 7.06828432e-03f, 1.49047256e-01f, -3.91498357e-02f, -2.64084022e-02f, -3.25232632e-02f, 2.75642481e-02f,
    2.30108742e-02f, -8.59213900e-03f, -5.04543521e-02f, 2.89018136e-02f, 1.08995378e-01f, 5.01451567e-02f, 1.04316317e-01f, 1.50538221e-01f,
    1.59861863e-01f, 1.27944961e-01f, 3.60328741e-02f, -6.03956655e-02f, -5.87159358e-02f, 2.29861364e-02f, -4.97246347e-02f, -1.74478628e-02f,
    -6.54418990e-02f, 5.56631051e-02f, -1.16044767e-01f, -6.26882315e-02f, -1.28251282e-04f, 7.40121603e-02f, -4.95967977e-02f, -1.82345938e-02f,
    2.27574408e-01f, 2.32838556e-01f, -1.30913816e-02f, 1.37702003e-02f, 4.72949892e-02f, -2.45067924e-02f, 3.83624360e-02f, -3.46255349e-03f,
    1.27253175e-01f, 4.21224162e-02f, -6.80129379e-02f, 4.64065839e-03f, -6.45221621e-02f, -3.54330316e-02f, 1.49370544e-03f, 1.08535089e-01f,
    -1.32665828e-01f, -5.34895621e-02f, -1.06254347e-01f, -5.04064150e-02f, 8.53239968e-02f, -4.14119884e-02f, -1.89028941e-02f, -7.95083568e-02f,
    2.07307115e-01f, -9.54922736e-02f, 4.12745103e-02f, -2.40360145e-02f, 9.58100334e-03f, -9.10528451e-02f, -1.17781751e-01f, 3.95639911e-02f,
    -7.60573819e-02f, -5.00747636e-02f, -7.82546401e-02f, -1.16686992e-01f, -9.05328915e-02f, 3.09710540e-02f, -3.23716104e-02f, -5.42382225e-02f,
    1.22824229e-01f, -2.09586974e-02f, -2.37222258e-02f, -9.22260061e-02f, 3.83825935e-02f, -8.45398903e-02f, -9.56739113e-02f, 8.40933900e-03f,
    3.78507376e-02f, -1.78483464e-02f, -7.46909082e-02f, -6.62302896e-02f, -3.42548601e-02f, -5.19218743e-02f, -7.06133768e-02f, -1.09115101e-01f,
    -3.14376727e-02f, 1.18947119e-01f, 3.64075880e-03f, -5.87421693e-02f, 1.32450283e-01f, 2.21094117e-02f, -1.25114620e-01f, -1.49451762e-01f,
    8.61925259e-02f, -6.26786575e-02f, 7.93885067e-02f, 8.15315247e-02f, -5.89270294e-02f, -2.66424268e-02f, -3.76169384e-02f, 2.43383721e-02f,
    -5.88729233e-02f, -3.67597826e-02f, -2.77676601e-02f, 2.02619091e-01f, 4.89865355e-02f, -6.51158318e-02f, 1.46615982e-01f, 1.05792889e-03f,
    -3.71079706e-02f, -4.74105291e-02f, -1.36932228e-02f, -3.97044271e-02f, -1.40692247e-02f, -3.47164422e-02f, -8.34760889e-02f, -5.96346892e-03f,
