#include "features_12_expand1x1_bias.h"

__attribute__((aligned(16))) const float features_12_expand1x1_bias[256] = {
    -3.06518469e-03f, 1.95239577e-02f, -3.88639909e-03f, -4.58954804e-04f, 5.25637763e-03f, 1.49838813e-03f, 3.71738300e-02f, 4.36309929e-04f,
    5.38790971e-03f, -1.16075703e-03f, 4.14773338e-02f, 6.07581483e-03f, 6.21020608e-03f, 1.96031556e-02f, -2.72828760e-03f, 3.19279521e-03f,
    -4.60857060e-03f, -8.16961285e-03f, 9.81606171e-03f, 7.14438362e-03f, 2.13449225e-02f, 4.21786569e-02f, 2.37632859e-02f, 3.10954042e-02f,
    2.02582963e-02f, -5.45088900e-03f, 1.41876433e-02f, 1.40993213e-02f, 1.40535608e-02f, 1.13390395e-02f, 1.60306208e-02f, 1.32927783e-02f,
    2.22557271e-03f, 9.09743831e-03f, -5.00194775e-03f, 9.94098466e-03f, 1.82591174e-02f, -1.66737952e-03f, 9.58426297e-03f, 1.57290194e-02f,
    4.56569567e-02f, 1.11664021e-02f, 5.32522891e-03f, -8.66640825e-03f, -1.88238488e-03f, -8.75158526e-04f, -5.44796605e-03f, 1.11675467e-02f,
    1.02450857e-02f, 8.91653355e-03f, 1.18009690e-02f, 9.00446624e-03f, 7.22297793e-03f, 7.38300430e-03f, 5.89385256e-03f, 8.40580836e-03f,
    5.05568320e-03f, 4.38413955e-03f, 1.83623633e-04f, 4.90693608e-03f, 1.34339491e-02f, -1.56931346e-03f, 5.83377248e-03f, -4.80107265e-03f,
    8.60998407e-03f, 1.64441168e-02f, 1.34682078e-02f, 2.76486874e-02f, 1.93930825e-03f, -1.96611043e-03f, 1.11917488e-03f, 3.59648839e-03f,
    2.29379311e-02f, 8.07155203e-03f, 2.42596697e-02f, 6.58413442e-03f, 3.57615319e-03f, 5.42833982e-03f, -3.82784434e-04f, -5.88933052e-03f,
    -6.15156628e-03f, 1.77840479e-02f, -1.99215673e-03f, 2.79033673e-03f, 2.03768555e-02f, 1.55934773e-04f, 1.33183710e-02f, 2.36042449e-03f,
    1.86196361e-02f, -3.58152832e-03f, 1.23430984e-02f, 7.31586292e-03f, 1.06309950e-02f, 1.00560589e-02f, 4.49837698e-03f, 3.13885473e-02f,
    8.38989578e-03f, -2.68922723e-03f, 1.03244334e-02f, 1.50073459e-02f, 1.82219092e-02f, 6.55519357e-03f, -4.49636439e-03f, 1.63108092e-02f,
    5.90479281e-03f, 1.67166498e-02f, 3.30697512e-03f, 1.62198022e-02f, 8.15981720e-03f, 1.89483108e-03f, 1.47800928e-03f, 1.77208483e-02f,
    7.41056725e-03f, -6.22604042e-03f, 1.23839490e-02f, 6.93760393e-03f, -3.80776171e-03f, 2.06996733e-03f, 1.15017286e-02f, 2.35320516e-02f,
    4.75636264e-03f, 9.61554050e-03f, 7.46023841e-03f, -1.32208911e-03f, 4.15415782e-03f, 9.27466061e-03f, -2.50763260e-03f, 9.37450677e-03f,
    -1.16260620e-02f, -3.03419167e-03f, 4.24910011e-03f, 6.25579199e-03f, 8.52920767e-03f, 3.10640316e-03f, 2.72330805e-03f, -1.17393839e-03f,
    -1.15769282e-02f, -4.22135368e-03f, 2.35896069e-03f, 2.15403573e-03f, -1.46948767e-03f, 1.40776681e-02f, 1.67850778e-03f, 6.07720995e-03f,
    2.06295103e-02f, 6.93158852e-03f, 8.05189135e-04f, 9.87180043e-03f, 1.87063012e-02f, 2.35104654e-03f, 3.82837164e-03f, 7.21404795e-03f,
    -6.35784119e-03f, 1.16211781e-02f, 1.73267592e-02f, -9.70169343e-03f, 1.85825780e-03f, 4.69754823e-02f, 1.64325647e-02f, 4.09869011e-03f,
    4.51068161e-03f, -3.34076793e-03f, 3.77144339e-03f, 5.95308235e-03f, -4.72753396e-04f, 4.19682544e-03f, 1.46152899e-02f, 5.42362081e-03f,
    -3.83952190e-03f, -4.40039905e-03f, 2.35479847e-02f, 4.16622264e-03f, 1.76111031e-02f, 1.31589016e-02f, 8.22704006e-03f, 3.83224280e-04f,
    2.88339704e-02f, 2.59435810e-02f, 1.91124924e-03f, -7.38636032e-03f, -1.86078146e-03f, -9.16315429e-03f, 9.54362098e-03f, 1.11091724e-02f,
    -2.67430791e-03f, 3.73011245e-03f, 2.21977774e-02f, 1.03085991e-02f, 2.85386364e-03f, -1.03206711e-03f, 2.15045642e-02f, 1.38333058e-02f,
    -6.09473232e-03f, 1.26521550e-02f, 7.65260775e-04f, 2.11872370e-03f, 7.31155323e-03f, 1.45021128e-02f, 3.13039008e-03f, 1.51637709e-02f,
    2.20653489e-02f, 8.77146237e-03f, 5.44184679e-03f, 8.40643141e-03f, 2.31448412e-02f, -1.83118507e-03f, 2.59733386e-03f, 3.35729099e-03f,
    -3.58098070e-03f, 3.56621505e-03f, 1.36193810e-02f, 1.02365785e-03f, 6.66622678e-03f, 2.45724581e-02f, 9.85393114e-03f, 9.03135817e-03f,
    -1.11013092e-03f, 1.12698535e-02f, -4.79266839e-03f, 8.88196100e-03f, -8.68890900e-04f, -2.86832987e-03f, -9.96871968e-04f, -4.75299964e-03f,
    -1.51779624e-02f, 1.43464850e-02f, 9.40199010e-03f, -1.57458521e-03f, 1.84535247e-03f, 6.24334486e-03f, 1.16818342e-02f, 1.06418657e-03f,
    -3.33290268e-03f, 7.10250228e-04f, 5.25032217e-03f, 1.90907642e-02f, -2.16970034e-03f, 3.44431493e-03f, 4.21052380e-03f, 8.39325879e-03f,
    5.50439209e-03f, -6.72651781e-03f, 3.49641405e-03f, 3.30022536e-03f, 3.71224107e-03f, 1.63039528e-02f, 1.02815740e-02f, 2.95038032e-03f,
    1.89773496e-02f, 5.02116885e-03f, 1.67646110e-02f, 7.59034744e-03f, 1.72070926e-03f, 6.85970392e-03f, -7.04212487e-03f, 1.23215364e-02f
};

const int features_12_expand1x1_bias_shape[1] = { 256 };
const int features_12_expand1x1_bias_ndim = 1;
const size_t features_12_expand1x1_bias_numel = 256;
