#include "features_10_expand1x1_bias.h"

__attribute__((aligned(16))) const float features_10_expand1x1_bias[256] = {
    -1.98882222e-02f, 4.11135443e-02f, 2.82442532e-02f, 3.00926492e-02f, 2.34664278e-03f, 1.85740888e-02f, 3.77210975e-02f, 1.36056505e-02f,
    5.28964251e-02f, 2.86156032e-03f, 4.49010208e-02f, 1.01148682e-02f, 1.33619672e-02f, 8.08415785e-02f, -2.74992194e-02f, 2.25815885e-02f,
    1.70571972e-02f, 2.07494050e-02f, 1.52685051e-03f, 1.85412057e-02f, 2.01214496e-02f, -1.60959791e-02f, -5.74616890e-04f, 3.52720208e-02f,
    2.36886293e-02f, -1.39093446e-02f, -9.17115808e-03f, -1.92071358e-03f, -1.06277679e-04f, 1.53652783e-02f, 1.32556427e-02f, 1.99642461e-02f,
    1.92089565e-02f, 1.42370611e-02f, 2.91155273e-04f, 1.92083754e-02f, 7.54315592e-03f, 3.96425799e-02f, 1.47422645e-02f, 5.14711672e-03f,
    1.01799741e-02f, 2.87708826e-02f, 1.58323739e-02f, -2.46150680e-02f, 7.96818919e-03f, 1.95242632e-02f, -2.21591219e-02f, 4.35874332e-03f,
    4.69507053e-02f, -1.27790170e-02f, -1.19421852e-03f, 3.04736532e-02f, -2.42508575e-02f, 2.25100908e-02f, 1.13049336e-02f, -7.53636425e-03f,
    1.63068511e-02f, 3.73582058e-02f, 3.20491684e-03f, -1.86053175e-03f, 4.90851812e-02f, 2.27616187e-02f, 1.53823355e-02f, 3.87953571e-03f,
    -4.67568496e-03f, -3.72741790e-03f, 3.95084545e-03f, 3.51362713e-02f, 1.04091736e-02f, 1.48136392e-02f, 2.61389464e-02f, 3.64793800e-02f,
    6.63959533e-02f, 3.37098278e-02f, 1.27055580e-02f, -5.27540804e-04f, 5.78575507e-02f, 2.00746637e-02f, -1.63512863e-02f, 2.95364875e-02f,
    4.95050736e-02f, 1.88440811e-02f, -8.23670253e-03f, 2.13109404e-02f, 2.11749654e-02f, -1.64304338e-02f, 3.71966115e-03f, -4.99327295e-03f,
    3.35931070e-02f, 4.18821238e-02f, 3.07595376e-02f, 1.22327013e-02f, 1.97675470e-02f, 2.25392636e-02f, 4.20180103e-03f, 2.70161275e-02f,
    -1.13293845e-02f, 1.16743299e-03f, 1.61210808e-03f, 3.35897505e-02f, 2.44998969e-02f, -9.27652325e-03f, 3.38308252e-02f, 3.66849154e-02f,
    2.28648037e-02f, 7.82318134e-03f, 1.63401887e-02f, -6.28851587e-03f, 3.93402204e-02f, 3.48722339e-02f, -5.21439780e-03f, -5.89130120e-03f,
    -5.38741332e-03f, -1.83039047e-02f, 4.37478088e-02f, -1.50935666e-03f, 4.47077453e-02f, -2.07481137e-03f, 1.37354704e-02f, 3.51412371e-02f,
    2.19377372e-02f, 1.89688895e-02f, 6.88322773e-03f, 1.99866835e-02f, 3.64565291e-02f, 8.32711160e-03f, 4.05294262e-02f, -8.30945652e-03f,
    1.82201911e-03f, 3.38105857e-02f, 3.69511954e-02f, 3.51557769e-02f, 3.01087741e-03f, -9.25098732e-03f, 3.63084897e-02f, -6.86932215e-03f,
    1.53988227e-02f, -9.50365514e-03f, 3.36440615e-02f, 1.22227669e-02f, -3.57817183e-03f, 7.46052619e-03f, 2.70895716e-02f, 1.35737760e-02f,
    1.15260873e-02f, 3.64367687e-03f, 1.19205238e-02f, -2.90740258e-03f, 2.26931460e-02f, -2.35262960e-02f, -2.87413975e-04f, -1.05875265e-02f,
    6.61624782e-03f, -8.78318679e-03f, 8.28164537e-03f, 1.78370513e-02f, 1.78928990e-02f, 3.45722623e-02f, 4.11868803e-02f, 5.22524235e-04f,
    2.19126120e-02f, 1.16289910e-02f, 6.95904670e-03f, 5.19321151e-02f, 7.22175986e-02f, 2.92006060e-02f, 1.53514720e-03f, 5.95996007e-02f,
    7.09889680e-02f, 2.01316521e-04f, 2.14422252e-02f, -1.32623420e-03f, 1.04169520e-02f, -1.01366425e-02f, 6.39259676e-03f, -1.95418969e-02f,
    2.05385145e-02f, 3.61932293e-02f, 2.64623147e-02f, -5.53464098e-03f, 1.25517612e-02f, 1.92107668e-03f, -1.00070685e-02f, 2.56168284e-02f,
    1.66184977e-02f, -4.78017610e-03f, 1.26142073e-02f, -1.79839861e-02f, 1.20532755e-02f, 9.44033731e-04f, 1.60760079e-02f, 1.84509270e-02f,
    -3.93867929e-04f, 1.77128948e-02f, -4.62420983e-03f, 4.19179816e-03f, 6.21896179e-04f, 1.55735528e-02f, 3.71758714e-02f, 2.83927135e-02f,
    -3.10566952e-03f, 3.39068025e-02f, 2.11039316e-02f, 1.56533998e-02f, -3.42928409e-03f, 1.67118907e-02f, 1.61606800e-02f, -2.13853084e-02f,
    2.45337933e-02f, 3.53659294e-03f, -2.57451162e-02f, -2.40912032e-03f, -2.21076087e-04f, 1.77119486e-02f, -1.95655804e-02f, 1.79809500e-02f,
    -2.13214550e-02f, 1.71639845e-02f, -1.76487658e-02f, 3.89781557e-02f, 4.91996855e-02f, 7.80024705e-03f, 2.18975078e-02f, 5.16990956e-04f,
    1.88141875e-03f, -3.87138105e-03f, 2.56612096e-02f, 7.80175393e-03f, 2.21664757e-02f, 6.21893723e-03f, 2.66141221e-02f, 6.98251976e-03f,
    5.78783862e-02f, -8.39116238e-03f, 3.79653685e-02f, 3.05603305e-03f, 1.17043750e-02f, 8.89369473e-03f, 3.48819606e-02f, 4.11325805e-02f,
    3.39506343e-02f, 3.46226282e-02f, -5.61888656e-03f, 4.63298671e-02f, 4.77734953e-03f, 1.90125022e-03f, -6.25333237e-03f, 2.37324554e-02f,
    5.85591514e-03f, 1.12225292e-02f, 2.27329116e-02f, 3.08293477e-02f, -1.65366698e-02f, 3.07768956e-02f, -3.98469903e-03f, 4.32320051e-02f
};

const int features_10_expand1x1_bias_shape[1] = { 256 };
const int features_10_expand1x1_bias_ndim = 1;
const size_t features_10_expand1x1_bias_numel = 256;
