#include "features_8_expand1x1_bias.h"

__attribute__((aligned(16))) const float features_8_expand1x1_bias[192] = {
    2.13771011e-03f, 6.79076687e-02f, 2.25424338e-02f, -1.37983996e-03f, 1.34188095e-02f, 1.34114474e-02f, -1.85891706e-02f, 1.92906652e-02f,
    8.44826107e-04f, -2.88708676e-02f, 1.85193680e-02f, -3.25208856e-03f, 5.69745013e-03f, -1.34655619e-02f, 2.86371335e-02f, 5.52940220e-02f,
    2.67024618e-03f, 1.97024308e-02f, 7.91217203e-10f, 1.54148722e-02f, 1.56609435e-02f, 2.13410542e-03f, 5.76669164e-02f, 4.04249765e-02f,
    9.78631526e-03f, 2.19040699e-02f, 5.09286933e-02f, 6.99195964e-03f, -3.37936287e-03f, 3.87552986e-03f, 9.55309626e-03f, 2.17300076e-02f,
    -6.77252840e-03f, 4.67271432e-02f, -3.17414217e-02f, -2.51927078e-02f, -1.64235961e-02f, -1.49118425e-02f, -2.64548808e-02f, 2.29180753e-02f,
    -1.64183863e-02f, 2.21949946e-02f, 5.81022911e-02f, -8.13536718e-03f, -4.97227069e-03f, -7.59826880e-03f, -7.88230542e-03f, -6.60651028e-02f,
    8.41868669e-02f, 6.20033927e-02f, -3.70595865e-02f, 8.95022824e-02f, 4.83827442e-02f, -2.02788389e-03f, 7.24335993e-03f, -1.84090324e-02f,
    1.04594091e-02f, 2.44170371e-02f, -4.10230830e-03f, 1.71724577e-02f, -3.85220833e-02f, 7.46187046e-02f, 5.97486459e-03f, 3.39251645e-02f,
    4.90385368e-02f, 3.01661864e-02f, -1.30463419e-02f, 1.02813775e-02f, 3.59039754e-03f, 2.45117955e-03f, -8.12424254e-03f, -5.73828910e-03f,
    1.05510168e-02f, 2.72665694e-02f, 2.80225044e-03f, 3.75226396e-03f, 4.54213545e-02f, 2.85169203e-02f, 4.74465080e-02f, 6.51343912e-02f,
    4.67642583e-02f, 5.68489544e-02f, 5.66533506e-02f, 2.64463760e-02f, -1.19513907e-02f, 6.70585642e-03f, 9.00449511e-03f, 3.13512012e-02f,
    3.42692919e-02f, -2.13492829e-02f, 1.00871203e-02f, 3.75559134e-03f, -3.87252248e-06f, 4.44808528e-02f, 3.89135778e-02f, -4.98833740e-03f,
    5.19971643e-03f, 8.50323290e-02f, 5.45996334e-03f, 2.44187973e-02f, 1.42784938e-02f, 8.98350496e-03f, 3.72726806e-02f, 9.33595374e-03f,
    4.60018367e-02f, 3.49087757e-03f, 3.59281502e-03f, -1.24208378e-02f, 1.31729189e-02f, 8.32880288e-02f, 1.85151696e-02f, 3.80330198e-02f,
    2.64740232e-02f, 1.43738901e-02f, 7.72462646e-03f, 3.76124191e-03f, -1.65878271e-03f, -2.41446923e-02f, 1.18748043e-02f, 1.39001077e-02f,
    4.04345915e-02f, 2.75765192e-02f, 1.67208742e-02f, 3.67283672e-02f, 1.93577167e-02f, 4.91280295e-02f, -6.12768345e-03f, 5.84660918e-02f,
    -3.61452177e-02f, -1.56043824e-02f, 4.55998890e-02f, -5.28241955e-02f, 1.02246841e-02f, 1.04004908e-02f, -1.37051905e-03f, -1.88839529e-02f,
    9.10671987e-03f, 5.99224828e-02f, -1.37583334e-02f, 3.52400579e-02f, 4.70884377e-03f, -1.34824403e-02f, 3.02933133e-03f, 1.15417326e-02f,
    6.58186674e-02f, -2.91049685e-02f, -2.29892991e-02f, 8.66448283e-02f, 2.28314027e-02f, -2.78001335e-02f, -2.16104854e-02f, -1.12619875e-02f,
    1.56538736e-03f, -4.28753765e-03f, 5.06491661e-02f, 1.00432930e-03f, 4.48543057e-02f, 8.22643284e-03f, -5.06074168e-03f, -2.12377608e-02f,
    7.03302175e-02f, -1.03772720e-02f, 1.88836306e-02f, 2.99478471e-02f, -1.74553096e-02f, 7.98762515e-02f, 9.70518216e-02f, 1.59830619e-02f,
    8.30797013e-03f, -1.39949974e-02f, 1.36882090e-03f, -1.39328763e-02f, 3.93399000e-02f, 3.44092846e-02f, 8.80265981e-02f, 6.35180697e-02f,
    7.94519857e-03f, 5.23679033e-02f, 6.24680407e-02f, 2.93431617e-02f, -3.13930959e-02f, 3.25740725e-02f, 2.73511801e-02f, 3.99317369e-02f,
    2.36483235e-02f, 1.62738445e-03f, 2.19891202e-02f, -7.86294322e-03f, 4.53139916e-02f, 5.06092422e-03f, 7.21492246e-03f, -3.14565226e-02f
};

const int features_8_expand1x1_bias_shape[1] = { 192 };
const int features_8_expand1x1_bias_ndim = 1;
const size_t features_8_expand1x1_bias_numel = 192;
