#include "features_0_bias.h"

__attribute__((aligned(16))) const float features_0_bias[96] = {
    1.85915679e-02f, -2.21516527e-02f, 2.49716341e-02f, 3.39369863e-01f, 5.28325021e-01f, 4.56228033e-02f, -3.00749242e-01f, -4.05556336e-03f,
    -4.22751904e-02f, 8.70988145e-02f, -9.13863838e-01f, 6.79485425e-02f, 3.69343758e-02f, -4.01608385e-02f, 1.60852075e-01f, 1.18351676e-01f,
    3.78798813e-01f, 1.94257095e-01f, 1.02835689e-02f, -3.41810025e-02f, 2.01403461e-02f, 4.87998128e-01f, 3.87212157e-01f, 2.13003289e-02f,
    5.27348109e-02f, 3.63764703e-01f, 4.62353267e-02f, 9.84419584e-02f, 1.30133316e-01f, 2.82661691e-02f, -2.31547449e-02f, 4.63665843e-01f,
    6.90546259e-02f, 1.32664833e-02f, -1.38109803e-01f, -3.60850364e-01f, 1.46315157e-01f, -1.34922519e-01f, 1.24974638e-01f, 1.33657351e-01f,
    -8.16731870e-01f, 7.19846739e-03f, 1.68503180e-01f, 1.80970520e-01f, 5.77879846e-01f, 7.08025098e-02f, -9.11969244e-02f, 8.66042897e-02f,
    1.31225452e-01f, 2.73100823e-01f, 3.40983458e-02f, -6.57804832e-02f, 2.05466881e-01f, 3.82830761e-02f, 9.53409255e-01f, 4.79385592e-02f,
    -3.31224427e-02f, -1.55425817e-01f, -3.48468982e-02f, 5.67688083e-04f, 1.67656705e-01f, 5.15909553e-01f, 2.51635090e-02f, 1.77904381e-03f,
    2.75366664e-01f, 3.16248201e-02f, 7.27960765e-02f, 3.35837185e-01f, 1.94413826e-01f, -4.60679494e-02f, 2.12095141e-01f, 3.38817649e-02f,
    -1.10135958e-01f, -2.47691665e-02f, 1.28473952e-01f, 4.14075941e-01f, -4.56409186e-01f, 2.54700929e-01f, 4.82882470e-01f, -4.56964403e-01f,
    1.73962429e-01f, 3.13448324e-03f, 3.35570984e-02f, 2.30539171e-03f, 6.53353631e-02f, -2.27139264e-01f, -2.50351012e-01f, 2.53620856e-02f,
    1.88920140e-01f, -8.15881416e-04f, 9.22166333e-02f, 7.09824190e-02f, 4.36952859e-01f, -1.15853846e+00f, 2.13929370e-01f, -2.43377343e-01f
};

const int features_0_bias_shape[1] = { 96 };
const int features_0_bias_ndim = 1;
const size_t features_0_bias_numel = 96;
