#include "features_3_squeeze_weight.h"

__attribute__((aligned(16))) const float features_3_squeeze_weight[1536] = {
    5.90415001e-02f, 8.95532891e-02f, 1.43198282e-01f, -1.96792167e-02f, 1.02569517e-02f, 1.07153356e-01f, -1.11777082e-01f, 1.30898431e-01f,
    1.51633397e-02f, -2.19230857e-02f, -1.21407233e-01f, 4.21561524e-02f, -5.15207425e-02f, -5.59800155e-02f, -9.82438549e-02f, 1.09261960e-01f,
    1.03995413e-01f, 1.84603304e-01f, -1.02183230e-01f, 3.89939211e-02f, 1.85297593e-01f, -1.09373115e-01f, 2.25683913e-01f, 1.20840803e-01f,
    1.05854705e-01f, -1.20391227e-01f, 1.51379392e-01f, -5.29077575e-02f, 1.37828425e-01f, -3.46314460e-02f, -9.36447680e-02f, 2.15971638e-02f,
    3.93483080e-02f, 3.93697396e-02f, -1.37619600e-01f, -6.54392224e-03f, 2.75112037e-02f, 5.24774671e-01f, 1.14513144e-01f, 9.06623751e-02f,
    6.11265779e-01f, -4.63113748e-02f, -4.07745615e-02f, 2.25418717e-01f, 3.70403975e-02f, 1.23206623e-01f, 5.19299470e-02f, -3.60645391e-02f,
    -4.87327948e-02f, 8.15789104e-02f, 8.05251971e-02f, -4.91878204e-02f, 1.72049001e-01f, -8.47107247e-02f, 4.60385054e-01f, 1.48454949e-01f,
    1.81000400e-02f, -5.57784326e-02f, 1.03007657e-02f, -1.57513589e-01f, -3.03349793e-01f, 1.06997527e-01f, 7.33537301e-02f, 5.34041505e-03f,
    -3.23999561e-02f, -1.44031152e-01f, -7.24497214e-02f, 4.89952043e-02f, -5.24058715e-02f, -2.37562999e-01f, -2.61103004e-01f, 4.06612903e-02f,
    -5.00958599e-02f, -1.78323150e-01f, -4.38783541e-02f, -1.33318559e-03f, 5.52636683e-01f, 1.35287285e-01f, -4.68920171e-03f, -2.91960984e-01f,
    -6.08468391e-02f, 1.48356706e-01f, 9.65296328e-02f, -9.64610279e-02f, 1.60996795e-01f, 1.79459035e-01f, 2.13407934e-01f, 1.09402925e-01f,
    2.23152563e-02f, -8.57218876e-02f, -1.72861084e-01f, 2.08273176e-02f, 1.73889428e-01f, -3.09801828e-02f, -4.89774719e-02f, 2.47062981e-01f,
    -3.77282649e-01f, -1.63431272e-01f, -2.33461604e-01f, 1.29017115e-01f, 1.49343044e-01f, -1.98837310e-01f, -1.18131731e-02f, 2.68759578e-01f,
    -1.51275083e-01f, -1.09201901e-01f, 3.79285589e-02f, -4.11285311e-02f, -1.11311954e-02f, 2.23088995e-01f, -1.25200301e-01f, 4.94344644e-02f,
    3.95282358e-02f, -3.60379554e-02f, 1.28718019e-01f, -5.41804098e-02f, -1.36377644e-02f, -8.50070044e-02f, 3.45121056e-01f, 1.35846157e-02f,
    6.56973720e-01f, 6.08665496e-02f, 3.97269800e-02f, -3.67213339e-02f, -5.42207658e-02f, -7.27238832e-04f, -5.40944934e-02f, -1.24264516e-01f,
    3.77462059e-02f, -4.24621813e-03f, 3.57122384e-02f, 1.26412697e-03f, 4.48791087e-02f, 5.54394759e-02f, -2.08626390e-02f, 2.15364099e-01f,
    -1.16723683e-02f, 8.52467045e-02f, 1.36974512e-03f, -4.22355942e-02f, -3.91393565e-02f, -4.00246792e-02f, -3.61111984e-02f, -1.63455680e-01f,
    4.84783024e-01f, -1.64012313e-01f, 1.61322266e-01f, -4.23722304e-02f, -1.95224300e-01f, 7.38272965e-01f, 9.53876451e-02f, 8.11286628e-01f,
    -3.38790305e-02f, 3.52791287e-02f, 2.81300638e-02f, -8.57574642e-02f, -1.62554998e-02f, 4.46257703e-02f, 3.01946066e-02f, 1.81162417e-01f,
    2.62676388e-01f, -3.55197228e-02f, 3.44083786e-01f, 1.42797351e-01f, 2.84970462e-01f, -1.06879465e-01f, -1.50045916e-01f, 7.35680580e-01f,
    -3.99098918e-02f, -9.97521169e-03f, 2.72459071e-02f, 1.65716752e-01f, 2.29114410e-03f, -1.86999887e-01f, 8.12860858e-03f, 5.67302331e-02f,
    -9.48026925e-02f, 5.24554014e-01f, 1.27602726e-01f, 7.91073084e-01f, 5.60802579e-01f, 2.27752118e-03f, 3.43711339e-02f, -7.65565736e-03f,
    1.20779403e-01f, 6.20629787e-01f, 2.72897691e-01f, 5.47271296e-02f, 7.11956600e-05f, 4.80115451e-02f, -1.01017758e-01f, 3.34221981e-02f,
    5.28913558e-01f, 3.88104841e-02f, 6.66984081e-01f, -7.95503557e-02f, -9.16058794e-02f, 5.73033631e-01f, -4.02619950e-02f, 3.49347852e-02f,
    6.13038063e-01f, 7.08272159e-02f, 2.75177434e-02f, -8.10639560e-02f, 1.78903230e-02f, -3.75437260e-01f, -5.06687611e-02f, -6.74794018e-02f,
    4.71019372e-02f, 8.35779756e-02f, 2.41591409e-02f, 8.11334968e-01f, -2.75755711e-02f, 3.04858498e-02f, 2.46432215e-01f, -1.15688760e-02f,
    4.66858335e-02f, -9.84318648e-03f, 6.83931261e-02f, 1.78934097e-01f, 9.52032655e-02f, -1.45190908e-02f, 8.55979696e-02f, 1.87159516e-02f,
    2.27646634e-01f, 7.18513280e-02f, 1.06923416e-01f, -1.04505764e-02f, -5.18950447e-02f, 1.70776043e-02f, 8.92151371e-02f, 1.87437013e-01f,
    -1.99076757e-02f, -1.81671783e-01f, -5.41089587e-02f, -9.25707519e-02f, 4.82057109e-02f, 6.87675476e-02f, 1.16493411e-01f, 2.91327089e-01f,
    -5.74615784e-02f, -5.10803722e-02f, 6.61642671e-01f, 6.35639131e-01f, 1.74015895e-01f, -4.48757745e-02f, 9.95925441e-02f, -1.27603561e-02f,
    7.57430643e-02f, -3.93265276e-04f, 5.78530014e-01f, 5.36691071e-03f, -7.04090271e-05f, -4.97979335e-02f, 1.14830572e-03f, 4.77359205e-01f,
    -2.51982510e-01f, 4.00673896e-01f, -3.29351783e-01f, 9.69996452e-02f, 1.47910248e-02f, 3.21585625e-01f, 7.31730908e-02f, -1.55252619e-02f,
    -1.64482910e-02f, 2.06896812e-01f, -4.21702079e-02f, -1.21915035e-01f, -1.87778380e-02f, 1.18017063e-01f, 1.05300574e-02f, 5.92568927e-02f,
    5.04526161e-02f, 1.86996073e-01f, 6.41911566e-01f, -3.65285464e-02f, 5.90527318e-02f, 3.52728032e-02f, 1.57366320e-02f, 6.97451225e-03f,
    1.22740552e-01f, 1.29120007e-01f, 9.20720398e-02f, 1.72580425e-02f, 2.19758991e-02f, -1.78372860e-02f, 9.79207233e-02f, -7.33576342e-02f,
    4.05053869e-02f, 1.20150268e-01f, 3.86627018e-02f, 6.50912290e-03f, -1.16676278e-02f, -5.84913492e-02f, 2.53415436e-01f, -2.26739645e-01f,
    8.13567266e-02f, -5.18729836e-02f, 8.14768732e-01f, -1.28271341e-01f, 2.68017828e-01f, 3.69186662e-02f, 3.19832675e-02f, 1.30479867e-02f,
    1.38295338e-01f, -1.65001508e-02f, 3.54964435e-01f, 1.64619051e-02f, -2.02529415e-01f, 7.14318603e-02f, 3.76641080e-02f, -2.17185859e-02f,
    -6.08930886e-02f, -2.11563502e-02f, -1.76694736e-01f, 9.00189206e-03f, 1.52791277e-01f, 2.57704989e-03f, 2.40299135e-01f, -4.20233048e-02f,
    -1.10527404e-01f, 7.92011246e-02f, 2.03676865e-01f, 2.50016749e-01f, 9.51607823e-02f, -2.95100898e-01f, -1.33322224e-01f, -1.16123132e-01f,
    -1.20069854e-01f, 1.48548987e-02f, 9.76205468e-02f, 8.94829705e-02f, -7.73341581e-02f, -1.52746625e-02f, -8.09247643e-02f, 1.41920790e-01f,
    -1.06249481e-01f, 5.00063561e-02f, 2.46306043e-02f, 4.77008075e-02f, -9.69973207e-02f, 3.34134996e-02f, -2.63240993e-01f, 3.60153709e-03f,
    9.99693871e-02f, 1.22758560e-01f, 4.07638811e-02f, 8.57841969e-02f, -5.14041982e-04f, 4.67666285e-03f, -2.44858563e-01f, 6.80472478e-02f,
    -3.45805325e-02f, 3.28671485e-02f, 2.97326725e-02f, 5.68202920e-02f, -3.89894145e-03f, 6.05186149e-02f, 1.22812651e-01f, 4.33778055e-02f,
    -1.98054031e-01f, 2.13547796e-02f, 3.78669575e-02f, 4.12257668e-03f, -3.52265835e-01f, -1.00166075e-01f, -5.07046394e-02f, 3.78363729e-01f,
    1.22241624e-01f, 1.52132303e-01f, 2.71631945e-02f, 4.54429835e-02f, 9.17750690e-03f, -2.99897254e-01f, -2.66972750e-01f, 2.38748286e-02f,
    -2.50029322e-02f, 2.21959725e-02f, 9.42574888e-02f, 1.99129567e-01f, 8.77934396e-02f, 7.02747226e-01f, 2.47170795e-02f, -3.45711648e-01f,
    -6.26003146e-02f, -3.59448671e-01f, -3.49340192e-03f, 1.37784421e-01f, -4.04153205e-02f, -2.70341504e-02f, -3.14341605e-01f, 2.15718187e-02f,
    -4.62118424e-02f, -6.22938341e-03f, -2.61957082e-03f, -1.88911811e-01f, 7.99091682e-02f, -1.78947318e-02f, -3.60810608e-02f, 1.18837386e-04f,
    -2.19768696e-02f, -3.36545557e-02f, 3.88104409e-01f, -4.98160832e-02f, 2.61597931e-01f, 1.31639734e-01f, -1.94172695e-01f, -1.89511967e-03f,
    5.39883561e-02f, 1.82101265e-01f, 3.68606746e-02f, -4.20440435e-02f, -1.61512569e-02f, -8.02490860e-02f, 3.57209146e-01f, -2.48234738e-02f,
    -3.42354216e-02f, 3.84318501e-01f, 6.60898387e-02f, 3.66020858e-01f, 1.51838422e-01f, 2.73410350e-01f, 5.58249839e-02f, 1.89499985e-02f,
    2.09551156e-01f, -8.64707306e-02f, 2.41458714e-01f, -3.43138039e-01f, -1.65647402e-01f, -1.48639604e-02f, 3.34441140e-02f, 2.84011006e-01f,
    -4.06941585e-02f, -2.04350248e-01f, -1.84423160e-02f, -2.72767767e-02f, -2.58737300e-02f, -5.13394997e-02f, -5.28274119e-01f, 2.13034078e-02f,
    1.09165488e-02f, 1.85927838e-01f, -2.13167928e-02f, -6.84770420e-02f, 2.22389311e-01f, -1.56057149e-01f, -4.06548947e-01f, 4.95399982e-02f,
    -4.47383672e-02f, -4.67558950e-02f, -1.78938732e-02f, 6.38977960e-02f, 2.58233130e-01f, -1.00717492e-01f, 1.51104659e-01f, -3.83893438e-02f,
    -2.59672433e-01f, -8.38382393e-02f, -2.31658891e-02f, -6.59766197e-02f, 5.79858087e-02f, 6.52133152e-02f, 3.91313344e-01f, -1.25175891e-02f,
    1.61148965e-01f, -3.42243537e-02f, -9.50353686e-03f, -2.55447179e-02f, -2.42705410e-03f, 1.77820191e-01f, 2.19083801e-01f, -5.00105089e-03f,
    2.46234134e-01f, -2.84387115e-02f, -1.14315674e-02f, 4.67639416e-01f, 1.46104142e-01f, -1.80135876e-01f, 2.14247592e-02f, 2.53498852e-01f,
    3.01750839e-01f, 1.76647574e-01f, -3.73823881e-01f, 1.30311772e-01f, 3.01976591e-01f, -3.80265117e-01f, 5.51238284e-02f, -3.64985287e-01f,
    5.42195857e-01f, -1.38563486e-02f, 1.16354585e-01f, -1.34658897e-02f, -9.27431416e-03f, -1.51372552e-01f, -1.79578200e-01f, 6.71244711e-02f,
    3.64043787e-02f, -2.13643610e-01f, 8.89924541e-02f, -3.46671879e-01f, 8.91799852e-02f, -3.64616439e-02f, 2.26612344e-01f, -5.99972755e-02f,
    9.77596119e-02f, 4.80305925e-02f, 3.48669827e-01f, 2.66055942e-01f, -1.15163378e-01f, -1.24626562e-01f, 7.98185915e-03f, 2.78964136e-02f,
    4.41553056e-01f, 3.81966531e-02f, -6.84519857e-02f, -4.57563214e-02f, 1.38030201e-01f, 1.23303078e-01f, 2.03562751e-01f, -1.10477149e-01f,
    4.04006280e-02f, -8.65675211e-02f, -5.33737540e-02f, 2.95877874e-01f, 7.33457655e-02f, -1.56223327e-01f, -3.97379845e-02f, 1.74608007e-01f,
    -6.64045811e-02f, 1.05050197e-02f, -3.18771005e-01f, 5.41032076e-01f, 7.83390254e-02f, 2.37095226e-02f, 2.69693702e-01f, -1.81031600e-01f,
    -3.04065999e-02f, 3.86643372e-02f, 4.94464397e-01f, 2.37381697e-01f, 3.51922780e-01f, 1.14521950e-01f, -5.71778491e-02f, 4.45306122e-01f,
    -3.99369448e-02f, -2.83447087e-01f, 2.17424911e-02f, -4.85644080e-02f, 5.35889529e-02f, -3.30650002e-01f, 8.98318887e-02f, -1.14314027e-01f,
    -3.38407210e-03f, 4.55461740e-01f, 1.53934196e-01f, -1.81696624e-01f, -3.54255475e-02f, -5.00595011e-02f, 1.20618522e-01f, 2.99133006e-02f,
    1.81909874e-01f, 4.22760025e-02f, -3.30454707e-01f, 3.30231674e-02f, -1.63120449e-01f, 9.24726389e-03f, -1.43518744e-04f, -6.37677535e-02f,
    6.48338124e-02f, -3.39964390e-01f, -4.12341394e-02f, 1.11257635e-01f, 1.13456294e-01f, 4.56875861e-02f, -2.38264307e-01f, -4.31422926e-02f,
    3.33563499e-02f, 1.01450548e-01f, -1.46581560e-01f, 5.33361062e-02f, 2.66951084e-01f, 5.49875423e-02f, -9.42090601e-02f, 2.17990577e-01f,
    8.13400671e-02f, -1.95644006e-01f, 1.02123804e-01f, 2.83451397e-02f, 7.37199485e-02f, 4.19150069e-02f, 3.27393115e-01f, -6.14529252e-02f,
    1.53849021e-01f, 1.57871380e-01f, 1.45594344e-01f, -7.62347877e-02f, 1.47340046e-02f, -3.44132446e-02f, 6.50769696e-02f, -2.27013990e-01f,
    5.77675365e-02f, -3.85225534e-01f, 1.99386746e-01f, 1.89583540e-01f, 6.45498559e-02f, -1.23971783e-01f, 6.08710870e-02f, 8.90875831e-02f,
    2.55635858e-01f, -5.47469668e-02f, 1.98647469e-01f, 7.16051981e-02f, 2.12263931e-02f, 1.95829019e-01f, 1.66050702e-01f, -1.22437544e-01f,
    6.28903732e-02f, -1.50644317e-01f, -4.12963368e-02f, 1.27473935e-01f, 7.59458318e-02f, -1.79065451e-01f, -1.48818558e-02f, -1.91424713e-01f,
    3.53836834e-01f, 3.28892246e-02f, -4.49193269e-02f, 1.10368095e-01f, 5.34196151e-03f, 2.30825953e-02f, 1.13900125e-01f, -2.17237666e-01f,
    -2.35721946e-01f, -1.23207025e-01f, 8.14268440e-02f, 1.58255339e-01f, 7.23448172e-02f, -3.53775650e-01f, 1.15570880e-01f, 3.80628780e-02f,
    3.56647559e-02f, -1.38695776e-01f, -2.85222799e-01f, 1.11625701e-01f, 9.62148085e-02f, 2.45188445e-01f, -4.65379246e-02f, -2.97353059e-01f,
    -1.57333881e-01f, 2.37871826e-01f, 2.12987930e-01f, 7.56710529e-01f, 4.76102829e-02f, 3.36263537e-01f, 1.63203031e-01f, -1.04968719e-01f,
    2.12206282e-02f, -1.31274626e-01f, -1.63839385e-01f, -1.11212581e-01f, -6.56106248e-02f, -8.82439762e-02f, -8.22036713e-02f, -1.96960792e-01f,
    1.83928132e-01f, -8.09486657e-02f, -7.63036162e-02f, -2.24433318e-02f, 1.30835986e-02f, 1.34124100e-01f, 4.26516443e-01f, 4.36283182e-03f,
    -5.82044534e-02f, -1.52462393e-01f, 3.35860103e-02f, -9.21586622e-03f, 2.54886299e-02f, -1.36452224e-02f, 8.99297073e-02f, 1.95783284e-02f,
    -1.01084709e-01f, 9.78772864e-02f, 5.77176809e-02f, -9.21960082e-03f, 1.98976874e-01f, 3.16734947e-02f, 3.72938365e-02f, 2.03324869e-01f,
    4.14201945e-01f, 5.43545246e-01f, 6.16829917e-02f, -1.34364469e-02f, -1.32680740e-02f, 5.79566538e-01f, -1.46981016e-01f, -1.13968574e-01f,
    -9.62391347e-02f, 7.10253835e-01f, 5.11911660e-02f, 1.57525942e-01f, -6.31100655e-01f, -1.37551829e-01f, 2.69559659e-02f, 9.22657922e-02f,
    4.15518545e-02f, -2.22217967e-03f, -7.81698152e-02f, -8.04372504e-02f, -2.20611513e-01f, 7.44936764e-02f, 5.90370707e-02f, 2.59455889e-01f,
    2.13009771e-02f, -3.26224193e-02f, 4.15440612e-02f, -1.36562675e-01f, 1.43360436e-01f, -1.26478568e-01f, 4.52539399e-02f, 1.76827699e-01f,
    3.65863256e-02f, 6.34862259e-02f, -4.99562770e-02f, -6.90029934e-02f, 7.04882145e-02f, -7.96201602e-02f, 3.22786927e-01f, -1.11439943e-01f,
    -1.81373671e-01f, 1.23517968e-01f, -8.88546854e-02f, 7.75904432e-02f, 7.01862797e-02f, -2.13639632e-01f, 1.53158028e-02f, -9.34358016e-02f,
    1.39051616e-01f, 2.21085027e-01f, 8.96102861e-02f, -2.69141644e-01f, -2.61988431e-01f, 1.07170574e-01f, 4.65828538e-01f, -1.37779132e-01f,
    -3.41441631e-02f, 7.61158019e-02f, -6.89510629e-02f, 9.98354182e-02f, 2.91341450e-02f, 1.53502345e-01f, -9.63054523e-02f, -4.75949906e-02f,
    1.09556474e-01f, 3.32854807e-01f, -1.67897713e-04f, -1.38597384e-01f, 1.19081408e-01f, -3.08489557e-02f, 4.44788449e-02f, -1.94837779e-01f,
    -6.37827218e-02f, -4.48557027e-02f, 2.35145986e-01f, 1.41891092e-02f, 2.57301390e-01f, 4.96587828e-02f, -5.14241278e-01f, 8.84543285e-02f,
    -1.07970856e-01f, 1.03368357e-01f, 5.08520789e-02f, 2.38931745e-01f, 6.16145357e-02f, -7.13943969e-03f, 5.33732586e-02f, 1.78624108e-01f,
    -1.73731074e-01f, 2.00268194e-01f, 6.76654875e-02f, -5.51302694e-02f, -7.87148327e-02f, 1.06934153e-01f, 2.70133615e-02f, -4.05820608e-02f,
    -6.95181340e-02f, -1.14224084e-01f, 3.70531231e-02f, 7.01688454e-02f, 7.62852803e-02f, -1.86637849e-01f, -3.42988148e-02f, -2.72448272e-01f,
    -7.75329322e-02f, 3.30656543e-02f, 1.40251547e-01f, 2.41329089e-01f, 3.71776342e-01f, -2.15896755e-01f, 1.87468322e-04f, 8.71065855e-02f,
    6.71344325e-02f, -8.96225218e-03f, 4.71583307e-02f, 4.18329872e-02f, 2.21350148e-01f, 6.03967384e-02f, 1.55862153e-01f, 4.70867693e-01f,
    3.32164578e-02f, 6.17455021e-02f, 8.69115666e-02f, 1.63613811e-01f, 1.29588484e-03f, -3.25128257e-01f, -1.39318751e-02f, -4.32581872e-01f,
    9.82925743e-02f, 7.48332664e-02f, 7.13113397e-02f, -1.19117394e-01f, 3.53666306e-01f, -1.33671597e-01f, 2.28623077e-02f, -1.88164085e-01f,
    -3.63388211e-01f, 8.97444934e-02f, -1.52876988e-01f, 1.80340633e-01f, 9.86875221e-02f, 6.16948426e-01f, -6.77382248e-03f, -2.08948672e-01f,
    1.63511455e-01f, 4.39759165e-01f, 1.59257635e-01f, 1.45272553e-01f, 1.93879064e-02f, 3.94922137e-01f, 3.86747019e-03f, -1.69945523e-01f,
    3.05400267e-02f, 1.86416179e-01f, 8.39292705e-02f, -1.32975683e-01f, 9.44920406e-02f, 5.63593954e-02f, -5.44900447e-02f, 1.28789663e-01f,
    7.71768913e-02f, -2.47952819e-01f, 1.18144915e-01f, -1.29265487e-01f, -2.21478328e-01f, -1.78144053e-02f, 8.95612985e-02f, -3.51799905e-01f,
    4.36298437e-02f, 5.57428375e-02f, 3.70976061e-01f, 6.94218874e-02f, -3.88688557e-02f, -1.17230574e-02f, 2.99422741e-01f, 1.90381357e-03f,
    2.88827103e-02f, 3.37134898e-01f, 2.33901758e-02f, -3.50243062e-01f, 2.92106136e-03f, 2.53538880e-02f, 3.36001545e-01f, -6.70785829e-02f,
    2.96850335e-02f, 5.54267988e-02f, 1.88059330e-01f, 1.81989327e-01f, -4.43901904e-02f, 6.38058484e-02f, 1.29707605e-02f, -6.15904965e-02f,
    -9.29451175e-03f, -1.81343022e-03f, -2.06400156e-01f, 2.88257580e-02f, -8.67100805e-02f, -3.65124255e-01f, 2.40785703e-01f, -9.33941267e-03f,
    -5.14824875e-02f, 8.36676583e-02f, -3.88332494e-02f, 1.51455831e-02f, 1.94268137e-01f, 5.63104711e-02f, -1.98840782e-01f, 3.73364717e-04f,
    1.08426129e-02f, -2.09639832e-01f, -9.62141827e-02f, -2.97413528e-01f, -4.54798900e-02f, -1.20494559e-01f, -7.28521198e-02f, -1.64489411e-02f,
    -1.51125088e-01f, 5.95034622e-02f, -1.61952958e-01f, 1.74982756e-01f, 2.07759410e-01f, -1.94450896e-02f, -1.53031170e-01f, -4.39377315e-02f,
    8.94110277e-03f, 5.96093712e-03f, 2.69976594e-02f, 2.53717359e-02f, -3.97796556e-02f, 4.38822210e-02f, 6.47700012e-01f, -3.50460373e-02f,
    5.15727736e-02f, -1.27907544e-01f, 2.20196061e-02f, 7.24972337e-02f, -1.20103940e-01f, -9.56003517e-02f, 4.36934084e-01f, 1.83819141e-03f,
    4.83407453e-02f, 8.58742744e-02f, 1.26581304e-02f, 5.94672151e-02f, -1.67735785e-01f, 1.27290443e-01f, -1.66321382e-01f, 3.60922664e-02f,
    2.93583691e-01f, 5.02880998e-02f, -1.80721618e-02f, 7.23306264e-04f, -1.32129520e-01f, -2.06750974e-01f, -3.81862938e-01f, 3.88799631e-03f,
    3.29447240e-02f, 1.67636931e-01f, 3.06499712e-02f, 4.29759957e-02f, -2.07558312e-02f, -3.17014270e-02f, -3.74305815e-01f, -1.21136606e-02f,
    -2.32240543e-01f, 5.86758479e-02f, 2.75995173e-02f, -4.06242579e-01f, 1.64660811e-02f, 5.63017309e-01f, 1.25746697e-01f, -1.39213011e-01f,
    6.65499493e-02f, 2.08295524e-01f, -4.70884889e-02f, 2.67750919e-01f, -4.15719539e-01f, -7.26682618e-02f, 1.43598109e-01f, -1.99274510e-01f,
    1.86900124e-01f, -2.80994177e-01f, 1.43262938e-01f, 1.63610786e-01f, 3.48344333e-02f, 1.19610839e-02f, 1.74769148e-01f, -1.28588915e-01f,
    -2.43118722e-02f, -1.39863297e-01f, 7.14962035e-02f, -2.20680945e-02f, 1.37406603e-01f, -9.44818854e-02f, 8.45767409e-02f, 8.89223963e-02f,
    8.49288031e-02f, -2.39127930e-02f, 6.13982119e-02f, 3.08231205e-01f, -7.09108487e-02f, 1.69025630e-01f, 1.19875737e-01f, 4.74450856e-01f,
    -2.60241330e-01f, -8.87551606e-02f, -1.44724041e-01f, -6.21463964e-03f, 3.46945710e-02f, 1.04680717e-01f, 3.02295655e-01f, 4.20489088e-02f,
    -1.06775649e-02f, -1.00212261e-01f, 3.99759486e-02f, 2.32478250e-02f, 6.10690899e-02f, 1.85706988e-01f, -1.89459398e-01f, 7.25547001e-02f,
    -3.15872699e-01f, -7.94769675e-02f, 1.11465659e-02f, 1.88306853e-01f, -2.01348692e-01f, -1.73362643e-02f, 2.31728435e-01f, 1.69538528e-01f,
    1.53275773e-01f, 4.14006524e-02f, 1.94054097e-01f, 2.13384941e-01f, -1.65244460e-01f, 6.70650974e-02f, -5.22262715e-02f, 1.48259953e-01f,
    3.58683884e-01f, -1.68047041e-01f, 5.12816720e-02f, -1.48094475e-01f, -4.34342213e-02f, -1.85729563e-01f, -1.75419465e-01f, 2.47923359e-01f,
    -8.95404890e-02f, -9.36795622e-02f, 2.51913905e-01f, 3.68811004e-02f, -2.92500649e-02f, 1.34759441e-01f, 9.91216227e-02f, 1.06982164e-01f,
    -1.12133093e-01f, 4.48533259e-02f, 6.10519107e-03f, 1.69372559e-01f, -3.46841663e-03f, 1.53287025e-02f, -4.83170673e-02f, 1.62358984e-01f,
    -3.13322246e-02f, -5.45296036e-02f, 1.69880196e-01f, 9.62549299e-02f, 1.42935365e-01f, -1.50118619e-01f, -4.21616323e-02f, -7.19925314e-02f,
    -1.57365218e-01f, -1.37823030e-01f, 3.52429032e-01f, 4.06522527e-02f, -3.40987295e-01f, 3.41193289e-01f, 6.24007285e-02f, 2.57423967e-01f,
    -4.89324629e-01f, -1.36652619e-01f, 1.11573458e-01f, 3.49892080e-02f, 3.33954133e-02f, 7.15834275e-02f, 8.65564197e-02f, -7.10486397e-02f,
    9.17822048e-02f, 1.55153751e-01f, 8.99939835e-02f, 3.53309333e-01f, 4.53600660e-02f, 1.32751912e-01f, 6.99616522e-02f, -1.45297259e-01f,
    -1.87246889e-01f, 2.26461351e-01f, -4.66810614e-01f, -3.88325900e-01f, 1.48894578e-01f, -5.45743667e-02f, 4.99069318e-02f, 2.06110060e-01f,
    -5.55334687e-01f, -2.33814791e-02f, 9.21677202e-02f, 2.80166920e-02f, 1.36576623e-01f, 1.20674819e-01f, -3.59728277e-01f, 1.28337353e-01f,
    1.13562986e-01f, -8.57387707e-02f, 2.63132863e-02f, -1.86684906e-01f, 7.82260001e-02f, 4.45253290e-02f, -1.95318945e-02f, -1.03162996e-01f,
    -2.33747549e-02f, 8.35318118e-02f, 3.12344909e-01f, -5.41183174e-01f, 9.10115987e-03f, -1.84181720e-01f, 2.12529019e-01f, 3.72875556e-02f,
    -7.71383047e-02f, 2.74913050e-02f, -5.02313852e-01f, -2.80201584e-01f, -3.36541265e-01f, 1.85016960e-01f, -4.46276600e-03f, -4.00290549e-01f,
    1.26706749e-01f, 2.57750750e-01f, -6.86387271e-02f, 7.60294721e-02f, -5.30021414e-02f, 3.00318748e-01f, -1.62990317e-02f, -6.92716911e-02f,
    -1.18739486e-01f, -5.96584320e-01f, 2.82936059e-02f, 2.33574525e-01f, 2.07725186e-02f, 1.03875965e-01f, 1.02646537e-01f, -7.29447650e-03f,
    1.55051770e-02f, -2.76356610e-03f, 3.15907985e-01f, -2.39291757e-01f, 1.09432332e-01f, -3.02324649e-02f, -2.76552346e-02f, -9.57213566e-02f,
    4.41597924e-02f, 2.07395926e-01f, 5.30912168e-02f, 7.17338771e-02f, 3.57117653e-02f, 7.03126565e-02f, 2.70229638e-01f, -5.40918857e-03f,
    2.88527296e-03f, -1.90768972e-01f, 1.37236603e-02f, 3.19790781e-01f, 3.55149852e-03f, -2.39705369e-02f, 8.86123255e-02f, -6.44823238e-02f,
    -8.12169816e-03f, 4.24427688e-02f, 1.30591944e-01f, 2.00495392e-01f, -1.80489659e-01f, -1.67201813e-02f, 6.99730292e-02f, -1.79664224e-01f,
    -2.09524542e-01f, 5.11023700e-02f, -4.85792495e-02f, 3.08727957e-02f, -1.23975880e-01f, 3.53057832e-01f, 5.62819779e-01f, -2.30497215e-02f,
    -1.57210864e-02f, 4.31250893e-02f, -4.33908515e-02f, 3.27210128e-03f, 1.07416131e-01f, 4.10940982e-02f, -5.95426150e-02f, 4.12241220e-02f,
    -3.47546935e-02f, 7.05233440e-02f, 7.77720362e-02f, 3.05939049e-01f, 1.56994939e-01f, 1.05702616e-01f, 1.01462565e-02f, -1.21379774e-02f,
    1.74497142e-01f, 6.95372932e-03f, 6.94553554e-01f, -9.16229412e-02f, 1.08846343e+00f, 3.09023075e-02f, -1.69984266e-01f, 2.32232988e-01f,
    1.66960564e-02f, -1.27445171e-02f, -8.87394603e-03f, -2.75857113e-02f, 2.71737594e-02f, 3.78053077e-02f, 9.59694758e-02f, 2.46366151e-02f,
    4.17780578e-02f, -2.38316789e-01f, -4.73460443e-02f, -5.53010218e-02f, 1.50862664e-01f, 1.08637530e-02f, 7.32618123e-02f, -2.51725335e-02f,
    -5.91656268e-02f, -1.69951338e-02f, -1.82614308e-02f, 1.63027868e-01f, 2.83924580e-01f, -5.94927892e-02f, 1.53140232e-01f, 3.39884274e-02f,
    -7.05800354e-02f, 3.89777211e-04f, -1.13516003e-01f, 4.03690245e-03f, -3.11199352e-02f, 8.83839279e-02f, 4.85005379e-01f, 4.67934646e-02f,
    7.13474900e-02f, -1.25423238e-01f, -1.55168620e-03f, 5.46752028e-02f, -4.96689416e-03f, -1.49361894e-01f, 8.54745358e-02f, -1.12311151e-02f,
    -1.00636654e-01f, 2.14617811e-02f, 6.72926288e-03f, 3.33874404e-01f, 6.49270639e-02f, -2.23333342e-03f, -9.56844985e-02f, -1.33709803e-01f,
    -2.50700600e-02f, -1.87333792e-01f, 2.17779875e-01f, -2.49874145e-01f, 6.17503226e-01f, 1.58023581e-01f, -2.70533841e-02f, 6.27450198e-02f,
    -2.26916283e-01f, 1.51007414e-01f, 1.21948346e-01f, -9.40967128e-02f, -3.87819447e-02f, -9.96720418e-02f, -2.54893661e-01f, 1.00788780e-01f,
    1.37168258e-01f, 4.85893302e-02f, 1.44536451e-01f, 2.57496983e-01f, 1.33528128e-01f, -1.30205287e-03f, 2.72742715e-02f, -1.11336997e-02f,
    -2.00717766e-02f, 1.51931375e-01f, -1.33325279e-01f, -4.60806668e-01f, 6.89110681e-02f, -4.79535908e-02f, -2.13595048e-01f, -5.62611222e-01f,
    -1.90099292e-02f, 1.09089367e-01f, 6.16008341e-02f, -9.56629869e-03f, 5.75482547e-02f, 1.57553345e-01f, -4.40925062e-01f, -1.06894039e-01f,
    6.74871355e-02f, 7.41101503e-02f, 7.46998563e-03f, 1.26592889e-01f, 9.65571702e-02f, 4.80672624e-03f, 6.41511604e-02f, -7.35542923e-02f,
    1.61672279e-01f, 4.71187830e-02f, 2.45720848e-01f, -2.80557662e-01f, 2.39566267e-01f, 6.41427785e-02f, 2.41636485e-01f, 5.39629385e-02f,
    4.24957722e-02f, 1.05833806e-01f, -2.39297584e-01f, -2.24080861e-01f, 8.42732415e-02f, 2.31876671e-01f, 9.15412009e-02f, -1.07283518e-01f,
    -4.60059851e-01f, 1.41140550e-01f, -2.24641692e-02f, -2.92056315e-02f, 2.68203542e-02f, 3.92357260e-02f, 2.37823538e-02f, -5.95397688e-02f,
    6.70448020e-02f, -1.32847309e-01f, -1.26823947e-01f, 1.06088728e-01f, -6.09057359e-02f, -1.35797888e-01f, 1.00523807e-01f, -8.50569606e-02f,
    1.92803785e-01f, -8.60751942e-02f, 2.46691599e-01f, -3.04054189e-02f, 1.08268395e-01f, -1.43788144e-01f, -5.78171341e-04f, -1.78604685e-02f,
    1.32994696e-01f, 1.87293068e-01f, -1.38431728e-01f, 8.95330906e-02f, -4.44957092e-02f, 4.40468416e-02f, -1.99137628e-02f, 3.59541066e-02f,
    1.85196534e-01f, 3.10382396e-01f, 2.19236016e-01f, -1.15187004e-01f, 7.90519193e-02f, 2.07537562e-01f, -6.00671582e-03f, 1.20566458e-01f,
    -2.90651042e-02f, 4.77651209e-01f, 7.86864385e-02f, 4.82804030e-02f, 3.85382362e-02f, 2.56897211e-01f, 4.05656695e-01f, 1.18069649e-01f,
    -1.09292030e-01f, -7.35687017e-02f, -1.75614953e-02f, -1.48212478e-01f, 9.28375199e-02f, 5.07626962e-03f, -2.79770941e-01f, 7.59952843e-01f,
    -1.10515952e-01f, 1.02437288e-01f, 3.36483084e-02f, -9.50233713e-02f, 1.02775171e-01f, 8.47162127e-01f, 8.58160108e-02f, -4.81270552e-02f,
    -1.20890057e-02f, 1.65286705e-01f, -7.94900283e-02f, 1.82532705e-02f, 1.71862051e-01f, 5.22462353e-02f, -1.17512951e-02f, -1.94082841e-01f,
    -9.52440593e-03f, 6.58503473e-01f, -4.26792204e-02f, 1.17006585e-01f, 5.09592742e-02f, 7.22525239e-01f, -3.87232937e-02f, 4.57580119e-01f,
    -4.24812809e-02f, 2.23956276e-02f, -2.65106916e-01f, -1.41604602e-01f, 2.54327506e-01f, -3.61916088e-02f, 6.67980090e-02f, -4.85226288e-02f,
    7.36306071e-01f, -4.07100245e-02f, -1.87902242e-01f, 1.17029913e-01f, 4.80515733e-02f, 1.14188179e-01f, -4.89856005e-02f, -1.81038290e-01f,
    1.67938456e-01f, 8.34467709e-02f, 2.81675696e-01f, -1.92907304e-01f, -1.34587273e-01f, 7.48005062e-02f, 1.67504713e-01f, -5.18552214e-02f,
    3.01260012e-03f, 4.82725389e-02f, 3.20231095e-02f, 1.15969852e-01f, 4.45714034e-02f, 2.94658780e-01f, 2.66304687e-02f, -2.69928128e-02f,
    1.71472371e-01f, -2.41121456e-01f, -1.95044398e-01f, -6.73461482e-02f, -1.39139697e-01f, -2.59276126e-02f, 1.26951563e-04f, 7.35359550e-01f,
    -8.47128183e-02f, -1.22941591e-01f, -2.77940929e-01f, 2.10600030e-02f, 9.84874461e-03f, -1.51725458e-02f, 6.21167310e-02f, 5.93728758e-02f,
    1.52683938e-02f, 4.62094024e-02f, 3.05526610e-02f, 1.28132701e-01f, -2.59530302e-02f, 3.17150243e-02f, 6.44434467e-02f, -1.05845639e-02f,
    2.48136725e-02f, -5.93424821e-03f, -5.94705623e-03f, -2.39273340e-01f, 3.21132630e-01f, 4.84694354e-02f, 8.53462592e-02f, 2.72425205e-01f,
    3.95202547e-01f, -3.95066649e-01f, 3.72677110e-02f, 4.07136530e-02f, 1.12499632e-01f, 6.23871386e-01f, -5.13687506e-02f, 6.43835142e-02f,
    4.61215898e-02f, -2.92841047e-01f, -2.67374851e-02f, -1.83731169e-02f, -2.82007515e-01f, 6.62256703e-02f, 3.59577080e-03f, 8.67115930e-02f,
    -4.42595966e-02f, -2.36994386e-01f, -2.45944515e-01f, -1.00999877e-01f, -6.19240105e-01f, 1.01507358e-01f, 4.75292876e-02f, -2.92282607e-02f,
    -3.56471352e-02f, -1.73945948e-02f, -7.38125062e-04f, -2.24454433e-01f, 4.12843108e-01f, 7.91353360e-02f, 1.70636654e-01f, 8.54862407e-02f,
    -3.69579755e-02f, 6.84722424e-01f, 2.55991369e-02f, -9.07861255e-03f, -6.77689211e-04f, 1.67112760e-02f, 5.67098260e-01f, 6.71850815e-02f,
    8.03953558e-02f, 2.73405939e-01f, -1.31164100e-02f, -5.57332747e-02f, 2.62879044e-01f, 2.18591750e-01f, -1.07611641e-01f, 1.67971980e-02f,
    -3.78278177e-03f, -5.17064668e-02f, 2.53416109e-03f, 8.57243836e-01f, 2.57793188e-01f, -4.03643698e-02f, 3.52456868e-01f, 4.75242399e-02f,
    1.51459016e-02f, -2.68396139e-02f, -7.28034914e-01f, -8.77056271e-03f, -4.18765172e-02f, -2.79858951e-02f, -2.89124548e-02f, -2.48173848e-02f,
    -5.26446879e-01f, -2.03381464e-01f, 2.78940275e-02f, 7.78592974e-02f, 3.79740703e-03f, -4.35424298e-02f, -4.80707549e-02f, 5.26169017e-02f,
    2.08063170e-01f, 4.72332910e-02f, -3.04980110e-02f, -7.60243926e-03f, 6.79346561e-01f, 4.58815731e-02f, 2.03708515e-01f, 3.63138579e-02f
};

const int features_3_squeeze_weight_shape[4] = { 16, 96, 1, 1 };
const int features_3_squeeze_weight_ndim = 4;
const size_t features_3_squeeze_weight_numel = 1536;
