#include "features_4_expand3x3_weight.h"

__attribute__((aligned(16))) const float features_4_expand3x3_weight[9216] = {
    -7.11682141e-02f, 4.48574759e-02f, 7.00915381e-02f, -3.58545370e-02f, -3.88194881e-02f, 3.99582274e-02f, -1.15506887e-01f, -1.31673768e-01f,
    9.39074531e-02f, -1.28402427e-01f, -1.05056308e-01f, -8.68833736e-02f, -1.35996446e-01f, 1.80667192e-01f, -1.10820837e-01f, -8.55560154e-02f,
    -1.71950132e-01f, -1.23029150e-01f, 4.50012572e-02f, 6.46758080e-02f, 1.85432006e-02f, 6.79708570e-02f, 1.87472612e-01f, -6.90444782e-02f,
    1.26530319e-01f, 6.90073743e-02f, -7.56940097e-02f, -2.05452796e-02f, -9.56141576e-02f, -8.03277791e-02f, 2.41256170e-02f, -7.39111602e-02f,
    -2.81124450e-02f, 1.13329187e-01f, 1.32068098e-01f, 4.39417884e-02f, 2.64726449e-02f, 5.21650463e-02f, 1.76749080e-02f, -4.76430990e-02f,
    -7.85752237e-02f, 1.89677812e-02f, 1.68275263e-03f, 8.39948207e-02f, 3.82906734e-03f, -3.65947187e-02f, 4.43155803e-02f, 2.04908326e-02f,
    -4.04934660e-02f, -6.38893917e-02f, 4.98314947e-02f, 3.38111110e-02f, 3.56488861e-02f, -1.45293307e-02f, 9.09319818e-02f, -1.38498209e-02f,
    -1.79842860e-02f, 4.32774015e-02f, -3.53154659e-01f, 7.97322765e-02f, 8.92498791e-02f, 2.12016985e-01f, 1.97687149e-01f, 8.75532813e-03f,
    2.72527337e-02f, -4.39569307e-03f, -3.25842835e-02f, -8.14758986e-02f, -5.43328561e-03f, 7.69265890e-02f, 8.47805664e-02f, -3.27880075e-03f,
    2.00280137e-02f, 2.50236671e-02f, 6.83688298e-02f, 1.03851035e-02f, -3.47085409e-02f, 2.66542155e-02f, -3.54020111e-03f, 9.71103236e-02f,
    -1.91382617e-02f, 7.27929249e-02f, -4.34350921e-03f, -3.17600779e-02f, -8.30536429e-03f, -8.14002231e-02f, -4.95980233e-02f, 3.87643427e-02f,
    1.49419834e-03f, -3.48795876e-02f, 4.94203977e-02f, -8.91271979e-02f, -3.15151848e-02f, -6.16925657e-02f, 9.62982103e-02f, -3.30854356e-02f,
    -3.56050134e-02f, 7.99836069e-02f, 5.84897702e-04f, 3.65241840e-02f, 2.25981940e-02f, 1.34342788e-02f, 3.07063721e-02f, -3.52080055e-02f,
    -2.92054154e-02f, 2.59084906e-02f, 3.70546319e-02f, 4.75105718e-02f, 4.21240702e-02f, 6.20074980e-02f, 2.83435676e-02f, -3.34962830e-02f,
    8.39398354e-02f, -2.73609627e-02f, -2.48195268e-02f, -1.56615749e-01f, -3.15569490e-02f, 7.37915486e-02f, 1.18121594e-01f, 2.84436885e-02f,
    8.98893643e-03f, -2.01220408e-01f, -4.46105897e-02f, -4.38237526e-02f, -6.43852027e-03f, 2.97802668e-02f, 1.96047034e-02f, -9.62392092e-02f,
    -9.68392193e-03f, 3.07152569e-02f, 1.35680407e-01f, 5.25603676e-03f, 5.67975268e-02f, -3.10155526e-02f, 7.65185878e-02f, 7.44177820e-03f,
    9.98236015e-02f, -2.79698558e-02f, -3.49824950e-02f, -1.09505430e-01f, -4.06947732e-02f, 1.84694701e-03f, -1.03234984e-01f, -7.31428340e-02f,
    -1.84905306e-02f, -1.14914581e-01f, -7.45130377e-03f, -5.83525235e-03f, 4.99742664e-02f, -2.83858404e-02f, 1.24932574e-02f, 3.53438850e-03f,
    1.03579983e-02f, -1.53535539e-02f, 4.91226465e-02f, -4.14791238e-03f, -1.54670700e-02f, 1.05910696e-01f, 7.13964701e-02f, -1.95270665e-02f,
    -4.12392579e-02f, -8.28189310e-04f, 3.10176890e-03f, -6.26928285e-02f, -4.45198044e-02f, 7.57793337e-02f, 3.78952362e-02f, -1.91379134e-02f,
    4.98797633e-02f, 1.07115678e-01f, 1.16475113e-02f, -6.37866631e-02f, 4.08611000e-02f, 2.93272361e-02f, -7.43581355e-02f, 2.00524822e-01f,
    1.43067628e-01f, -6.56758919e-02f, -5.45209721e-02f, 2.91612484e-02f, 1.79134421e-02f, -2.37781610e-02f, 4.81992438e-02f, -2.71991417e-02f,
    -7.99892172e-02f, -5.52679636e-02f, 6.43450543e-02f, -1.55272288e-02f, 2.62325574e-02f, -2.03651655e-02f, 6.66161850e-02f, -8.26938823e-02f,
    1.84705108e-01f, 1.76858738e-01f, -3.44879389e-01f, -1.26037076e-02f, -3.28749679e-02f, -2.99299955e-02f, 2.78363749e-02f, 5.35895303e-03f,
    -1.03181005e-02f, 4.75964881e-02f, 1.94984283e-02f, -3.30778994e-02f, 5.23332097e-02f, 7.86041319e-02f, -6.90342719e-03f, -2.80895736e-02f,
    -2.37160046e-02f, -3.09949880e-03f, 1.23694884e-02f, 5.13416808e-03f, -1.82335470e-02f, -1.79831497e-02f, 4.78427252e-03f, -9.56240669e-03f,
    -5.11135310e-02f, -4.73996364e-02f, 3.65230517e-04f, 1.76023296e-03f, 6.80814907e-02f, -2.36910749e-02f, 1.19848000e-02f, 5.22831790e-02f,
    -6.85813138e-03f, -1.35272341e-02f, 1.31088439e-02f, 4.05743420e-02f, -1.84222795e-02f, 3.82014588e-02f, 2.91897100e-03f, -1.57813486e-02f,
    -4.05598022e-02f, -3.79818082e-02f, -2.95161940e-02f, 2.09207013e-02f, -3.34038995e-02f, 4.64142626e-03f, -3.61370035e-02f, -1.09570408e-02f,
    -4.89728199e-03f, 2.90919244e-02f, 1.46394242e-02f, -2.84550525e-02f, -4.77051847e-02f, -2.26998124e-02f, -2.94583738e-02f, 8.00556242e-02f,
    -3.56809907e-02f, 3.16835530e-02f, 4.14433219e-02f, -4.52053180e-04f, 1.06737368e-01f, 1.17928237e-01f, 5.64948134e-02f, 8.15772042e-02f,
    -2.33033583e-01f, -7.08609298e-02f, 5.70043400e-02f, 1.37663305e-01f, 6.72928020e-02f, -3.98897901e-02f, -2.85592437e-01f, -4.83707599e-02f,
    -1.27471074e-01f, 1.08712111e-02f, 1.76248327e-01f, 2.97028515e-02f, 1.02628678e-01f, 9.60454904e-03f, 8.00434425e-02f, 3.03870857e-01f,
    1.38311058e-01f, -8.07529613e-02f, -3.37768227e-01f, 1.56136617e-01f, -5.27172014e-02f, -1.39909655e-01f, -6.71269298e-02f, -1.74649544e-02f,
    -1.05139956e-01f, -3.64719629e-02f, -2.99983285e-02f, 1.81614682e-01f, 1.26136867e-02f, -4.23569828e-02f, -5.24227694e-03f, -4.69333790e-02f,
    1.17824906e-02f, -9.88645405e-02f, -1.69339925e-02f, 5.38527705e-02f, 1.36976644e-01f, 7.09461868e-02f, -6.87212273e-02f, -8.87715444e-02f,
    -2.48582456e-02f, -1.22117229e-01f, 4.74033207e-02f, 3.26048397e-02f, 1.89132631e-01f, 9.09768492e-02f, 8.84603113e-02f, 1.96559448e-02f,
    7.44578987e-02f, -2.53237952e-02f, 4.91865212e-03f, 4.21069860e-02f, 8.37046504e-02f, 4.25675362e-02f, -1.96362212e-02f, 6.12416752e-02f,
    7.93201104e-02f, 3.10765896e-02f, -1.50779551e-02f, 2.57073808e-02f, 1.76053047e-02f, 1.81593001e-02f, -2.95290630e-02f, -7.94025436e-02f,
    -6.89409226e-02f, -2.18113814e-03f, -3.13549303e-02f, -5.96060902e-02f, -1.97620671e-02f, -2.11335588e-02f, -1.02316169e-02f, 2.92534959e-02f,
    4.73587811e-02f, 9.07011516e-03f, 7.32207380e-04f, -1.75357498e-02f, -4.31478806e-02f, -6.86908662e-02f, -2.22550426e-02f, -1.20575251e-02f,
    9.26338602e-03f, 6.12071157e-02f, 8.92865658e-02f, -7.98447356e-02f, -9.64523777e-02f, -8.06527436e-02f, 4.46185619e-02f, 4.46101502e-02f,
    -1.99986678e-02f, -8.63277093e-02f, -1.94556024e-02f, 1.44922836e-02f, -1.01528428e-02f, 7.80461682e-03f, 3.32402587e-02f, -2.98820604e-02f,
    6.84557017e-03f, 7.94172753e-03f, -2.20405106e-02f, 3.66888270e-02f, -1.75779872e-02f, -1.25376061e-02f, -2.37077940e-02f, -3.21243778e-02f,
    -1.54257072e-02f, -8.64732359e-03f, -5.70839792e-02f, -7.93427378e-02f, -7.19046295e-02f, -8.86383653e-02f, 9.65188723e-03f, 5.06302062e-03f,
    -4.69869263e-02f, -8.01419560e-03f, 6.50987402e-03f, 1.40230566e-01f, 1.67396873e-01f, -1.38644814e-01f, 5.00237904e-02f, 1.54825538e-01f,
    -1.21053364e-02f, -6.83767162e-03f, -8.26761350e-02f, 4.83327545e-02f, -9.37044099e-02f, 1.08217411e-02f, 2.16046602e-01f, 6.12024441e-02f,
    -4.43606153e-02f, 1.25749791e-02f, -9.65283141e-02f, -1.57991331e-02f, -1.02812899e-02f, -2.45410278e-02f, 3.39832194e-02f, -3.99693847e-02f,
    -2.10392978e-02f, -1.03628989e-02f, -2.06117090e-02f, -3.80576327e-02f, -1.71433482e-02f, 5.21140844e-02f, 3.30556855e-02f, 4.01824564e-02f,
    1.00195080e-01f, 2.40716022e-02f, -7.90689886e-02f, -5.72180375e-02f, -8.85459557e-02f, -5.78970537e-02f, 1.01256073e-02f, -4.74358387e-02f,
    7.68790767e-02f, 1.02300040e-01f, 6.47115037e-02f, -8.88619050e-02f, -6.29633758e-03f, -1.07075535e-01f, -7.20623359e-02f, -4.16829288e-02f,
    -6.26289845e-02f, 6.64838264e-03f, 4.80217822e-02f, 1.00730062e-02f, -1.04029454e-01f, -3.32201533e-02f, -1.37139838e-02f, -4.91739213e-02f,
    -1.27320662e-02f, -6.64615165e-03f, 1.23212375e-01f, -2.69405786e-02f, 7.96769932e-02f, -5.72040211e-03f, 2.94570681e-02f, -3.43016759e-02f,
    -1.38649404e-01f, -1.30694330e-01f, -8.81499201e-02f, 4.55590636e-02f, 3.01557243e-01f, 2.48212069e-02f, -1.45063505e-01f, -8.11966658e-02f,
    -1.51278868e-01f, -2.20254064e-02f, -1.84446725e-03f, -6.67585358e-02f, -2.12530382e-02f, -1.82175217e-03f, 3.19514200e-02f, -2.41783950e-02f,
    -1.35068893e-02f, -3.07563171e-02f, -2.52644047e-02f, 1.52005870e-02f, 2.29481142e-02f, -3.14091183e-02f, 3.07524931e-02f, 7.36660957e-02f,
    -1.00156382e-01f, 7.06584484e-04f, 3.99567075e-02f, 7.94409215e-02f, 5.26063784e-04f, 2.31738910e-02f, 4.54389527e-02f, -1.10794522e-01f,
    -6.33142292e-02f, 2.01371219e-02f, -4.67346534e-02f, 1.48299932e-02f, 1.60254519e-02f, 2.77366769e-03f, -5.05165895e-04f, 1.55680962e-02f,
    2.07089260e-03f, -1.12552503e-02f, -8.02741200e-03f, 2.99742166e-02f, -5.86565305e-03f, -8.05492103e-02f, 2.58607417e-02f, -2.75834072e-02f,
    2.51117628e-02f, 6.31047860e-02f, 4.35817195e-03f, -7.07233325e-02f, -5.21951281e-02f, -1.27548814e-01f, 1.59529913e-02f, -1.79805662e-02f,
    5.62003031e-02f, -3.25790048e-02f, -3.89843024e-02f, -2.48184763e-02f, 6.83916360e-02f, -3.36375311e-02f, 8.81998800e-03f, 3.22908424e-02f,
    -1.20924332e-03f, -3.22946534e-02f, 1.85811967e-02f, -2.48002801e-02f, -2.26178374e-02f, 1.20532429e-02f, 9.68575245e-04f, 1.17672654e-02f,
    4.49681953e-02f, -7.04110339e-02f, -3.75227071e-02f, -1.59149002e-02f, -1.91267878e-01f, -5.99544980e-02f, 1.08504631e-01f, -3.15690823e-02f,
    5.02126962e-02f, -6.63559418e-03f, 2.57477369e-02f, -5.89355715e-02f, -1.45823536e-02f, 5.86234666e-02f, -5.81013318e-03f, -3.63917351e-02f,
    -3.23763639e-02f, -3.88791114e-02f, 1.95576534e-01f, 1.34399757e-01f, 8.90992060e-02f, 1.92790523e-01f, 5.87411551e-03f, 1.64720081e-02f,
    2.12604627e-01f, 2.48776034e-01f, 1.77004158e-01f, 7.52859749e-03f, -3.99753265e-02f, -1.64691508e-02f, -4.96557215e-03f, -5.15775988e-03f,
    1.77478453e-03f, -4.17868532e-02f, -1.02146501e-02f, 3.58275734e-02f, -7.13308854e-03f, 4.44772504e-02f, 6.54445868e-03f, -1.39724566e-02f,
    3.38549428e-02f, 2.70253476e-02f, -3.18369456e-02f, -2.03479975e-02f, -5.77395633e-02f, -6.54228032e-02f, 1.26513913e-02f, -5.82995228e-02f,
    -2.83321794e-02f, 6.33964613e-02f, 1.07339257e-03f, -8.93717259e-02f, -8.12907517e-02f, -1.22771107e-01f, -9.27754343e-02f, -5.62943257e-02f,
    -3.66707705e-02f, 1.85959600e-02f, 1.74062356e-01f, 6.45181686e-02f, -1.28529528e-02f, -1.42576154e-02f, -9.81028005e-02f, -4.48760316e-02f,
    3.73339765e-02f, 1.06900081e-01f, 2.06221305e-02f, -8.06260854e-04f, 8.47678632e-02f, 4.65378575e-02f, -5.08901104e-02f, -1.38985272e-02f,
    1.44716725e-02f, 1.19223911e-02f, 6.61836145e-03f, 6.56482205e-02f, -5.76796867e-02f, -3.84394042e-02f, 4.64421064e-02f, -6.29568705e-03f,
    -2.06833519e-03f, 2.93540116e-02f, 3.09269931e-02f, -7.48293241e-04f, 8.87197722e-03f, -3.07380222e-02f, -6.40439838e-02f, -1.56544670e-02f,
    -4.38925391e-03f, -2.46329717e-02f, -6.80986792e-02f, -4.95227501e-02f, 2.02983115e-02f, -1.26094565e-01f, -4.54330407e-02f, 2.10973658e-02f,
    -1.62918326e-02f, 2.18537915e-02f, -2.60990579e-02f, -4.83914725e-02f, 6.56842664e-02f, -4.40478139e-02f, 1.58007666e-01f, 2.59329498e-01f,
    -4.37739454e-02f, 1.57560222e-02f, 6.80762157e-02f, -2.20660735e-02f, -3.93216684e-02f, 4.50963946e-03f, 1.83910858e-02f, -6.20245598e-02f,
    4.59981263e-02f, 6.35481924e-02f, -8.86192024e-02f, 1.05601195e-02f, 5.34395352e-02f, 3.73885408e-02f, 1.31360963e-01f, 1.88714340e-02f,
    2.79388636e-01f, -2.19910339e-01f, -1.11404113e-01f, 7.37663358e-02f, -1.73031483e-02f, -2.93697417e-02f, 5.15370853e-02f, 2.28915177e-02f,
    -4.77915667e-02f, -5.00780158e-02f, 1.54220155e-02f, -4.70063314e-02f, 2.61476133e-02f, 2.99650580e-02f, -1.01416208e-01f, -4.82629873e-02f,
    -1.82364527e-02f, 1.15482518e-02f, -7.65528306e-02f, 7.87791312e-02f, 9.10094231e-02f, -5.70670739e-02f, 4.37343270e-02f, 3.27781513e-02f,
    -8.87054726e-02f, 3.92297953e-02f, 7.38787949e-02f, -1.95155337e-01f, 9.28752348e-02f, 1.72841474e-01f, -1.40060291e-01f, 2.79795285e-02f,
    7.51387179e-02f, -5.18886745e-02f, -9.49719828e-03f, -4.40632030e-02f, 1.22723458e-02f, 1.19489342e-01f, 4.93882485e-02f, -5.28457537e-02f,
    5.04797616e-04f, 1.65966637e-02f, -2.64591109e-02f, 3.28232385e-02f, 4.62134508e-03f, 9.15284678e-02f, 1.80409439e-02f, -7.69030750e-02f,
    -3.44804041e-02f, -8.76288116e-02f, 1.80591885e-02f, -5.58780544e-02f, 3.45029272e-02f, 2.93044690e-02f, -8.27945992e-02f, 4.76131625e-02f,
    4.84230481e-02f, -7.27168247e-02f, 2.74482071e-02f, 4.16006669e-02f, 1.37294717e-02f, -3.52231460e-03f, -6.01982325e-02f, 4.94884551e-02f,
    -4.55351956e-02f, -2.49586906e-02f, 4.27171066e-02f, -6.08978197e-02f, -1.14460371e-01f, -1.20228752e-01f, -4.99027781e-02f, 6.43948689e-02f,
    -1.26625538e-01f, 1.11813948e-01f, 6.76359981e-02f, -5.41278906e-02f, 1.38162315e-01f, 4.03684676e-02f, -3.76155376e-02f, 5.29850572e-02f,
    -2.97030713e-02f, -3.25369649e-02f, 1.62382767e-01f, 8.32356736e-02f, -1.47422031e-01f, -9.93237272e-02f, -4.07572649e-02f, -8.96559469e-03f,
    -9.09260847e-03f, 2.17539631e-03f, -2.18810309e-02f, -7.42921755e-02f, -4.04404812e-02f, -6.11043796e-02f, 2.94953547e-02f, -8.07946268e-03f,
    1.29562497e-01f, 5.16291000e-02f, -1.00524530e-01f, 5.67826964e-02f, -6.82419017e-02f, -8.90168101e-02f, -6.85045198e-02f, -1.56751424e-01f,
    -2.12894958e-02f, 2.82062471e-01f, 8.51400644e-02f, -6.94312081e-02f, 1.30295470e-01f, -1.46053448e-01f, -1.55049846e-01f, 4.06045504e-02f,
    -1.26218617e-01f, -5.93786016e-02f, -1.00816358e-02f, 1.17669124e-02f, -6.46330416e-03f, 3.46564054e-02f, -3.25262137e-02f, -1.48202935e-02f,
    3.36172655e-02f, -2.63216607e-02f, 3.15653160e-02f, -4.96230684e-02f, -6.95565045e-02f, -4.62899618e-02f, -1.12008788e-02f, -5.37035540e-02f,
    -3.35072093e-02f, -9.26814135e-03f, -2.70169321e-02f, -6.20130859e-02f, 2.04382204e-02f, 6.38018996e-02f, -3.63665409e-02f, 3.18919197e-02f,
    -1.92425568e-02f, -3.32502164e-02f, 2.15119366e-02f, -3.80249247e-02f, 2.83566620e-02f, 1.10467426e-01f, 1.38039272e-02f, -5.70175126e-02f,
    -4.08612676e-02f, -6.53744638e-02f, -4.12187492e-03f, 4.52481909e-03f, 1.11490842e-02f, 4.41973917e-02f, -2.41218448e-01f, -1.48290560e-01f,
    7.85054341e-02f, -1.19975775e-01f, 1.76340878e-01f, 1.84461564e-01f, 2.67597474e-02f, 1.41930759e-01f, 4.48216721e-02f, 1.04073156e-02f,
    7.34138563e-02f, -8.80510639e-03f, 2.95801386e-02f, -1.30552147e-02f, -1.73172168e-02f, 4.39769030e-02f, -3.48700932e-03f, -1.36636570e-02f,
    1.81879312e-01f, 1.03257388e-01f, 7.19876140e-02f, 7.59204328e-02f, -4.01260480e-02f, -1.07294030e-01f, 1.57793947e-02f, -1.13979273e-01f,
    -1.74640790e-01f, -2.09723059e-02f, -4.50353278e-03f, -4.22922783e-02f, -6.36208132e-02f, 3.29223722e-02f, -2.44727284e-02f, -4.88821417e-02f,
    1.63699482e-02f, 1.87305585e-02f, 2.56437226e-04f, -6.40740320e-02f, 8.34605247e-02f, -6.39185756e-02f, -6.88215299e-03f, 1.49129769e-02f,
    2.21220814e-02f, 3.62434238e-02f, 7.44642839e-02f, -3.97905009e-03f, 5.23593393e-04f, -1.48287509e-02f, 9.19985492e-03f, 6.41030318e-04f,
    1.93562973e-02f, 1.94548592e-02f, 5.22294827e-02f, 2.14042459e-02f, 2.02008501e-01f, 8.53635818e-02f, -3.32896076e-02f, 7.23436624e-02f,
    -7.02361688e-02f, -1.16605222e-01f, -2.59527843e-02f, -1.35615572e-01f, -1.07758671e-01f, 7.14037269e-02f, -7.31500387e-02f, -1.99458878e-02f,
    -8.65411572e-03f, -1.03949055e-01f, -3.98811921e-02f, 9.94441099e-03f, -5.75780943e-02f, 2.61232164e-02f, 1.15932606e-01f, 2.89438311e-02f,
    -2.56636590e-02f, 1.77385751e-02f, -7.02760220e-02f, -3.73577215e-02f, 2.19196193e-02f, 1.79382805e-02f, 3.93940955e-02f, 2.77636737e-01f,
    7.55375028e-02f, 8.58624503e-02f, 1.12591818e-01f, -7.76917785e-02f, -5.79434484e-02f, 8.23814422e-02f, 1.76363792e-02f, -4.23381068e-02f,
    1.77994788e-01f, 5.96370213e-02f, 2.30258226e-01f, -8.24893415e-02f, -4.79941219e-01f, -8.62710848e-02f, 1.55662984e-01f, -3.70868966e-02f,
    1.49010792e-01f, 2.17356663e-02f, -3.54400240e-02f, -4.03702781e-02f, 2.97141410e-02f, 7.39994198e-02f, 2.73940321e-02f, -5.78992590e-02f,
    -5.77301048e-02f, 1.24385292e-02f, 3.83575633e-02f, 2.68920586e-02f, 7.99993277e-02f, 1.34860892e-02f, -3.99682745e-02f, 2.50526108e-02f,
    4.23043370e-02f, -1.91212818e-02f, 2.39081942e-02f, -1.86718106e-02f, 9.34523530e-03f, -4.09410298e-02f, 4.03319784e-02f, 4.96564284e-02f,
    3.09611410e-02f, -1.49640795e-02f, -1.51945874e-02f, -2.95173749e-02f, -6.34188810e-03f, 3.34404521e-02f, -1.93379610e-03f, 2.24052016e-02f,
    -5.08606993e-03f, 1.93442423e-02f, -1.36505272e-02f, -1.83096789e-02f, -2.72618365e-02f, -1.25842899e-01f, 3.52829578e-03f, -4.94273342e-02f,
    6.57965662e-03f, 1.66619509e-01f, -7.70965451e-03f, -8.79064053e-02f, 1.42483776e-02f, -1.03745431e-01f, 1.72660034e-02f, -6.19936502e-03f,
    2.90254783e-02f, -2.90119983e-02f, -1.71797693e-01f, -4.87593152e-02f, 3.77570242e-02f, 1.20120905e-02f, 2.19059158e-02f, -3.26320156e-02f,
    -1.26970131e-02f, -2.78234035e-02f, 2.61594150e-02f, 1.88782602e-03f, 1.39149288e-02f, 2.26396360e-02f, 3.76812695e-03f, 2.30227020e-02f,
    1.63111370e-02f, -3.64129655e-02f, -1.24262413e-02f, -6.25874698e-02f, -1.60400465e-01f, -7.10526481e-02f, 6.99422183e-03f, -6.16201013e-03f,
    1.87192932e-02f, -2.41645202e-01f, -8.40889663e-02f, -2.03866780e-01f, -9.83730257e-02f, 4.64333177e-01f, -1.28506571e-01f, -2.35099807e-01f,
    -2.20751222e-02f, -2.28449628e-01f, 5.18851308e-03f, 1.38273463e-02f, 3.31801362e-02f, 1.55237988e-01f, 2.49332160e-01f, 1.44009769e-01f,
    2.45289356e-02f, 1.16905853e-01f, 1.04231788e-02f, -5.24127809e-03f, 1.05421497e-02f, -3.24131781e-03f, 2.16273703e-02f, -6.38020784e-02f,
    2.15506181e-03f, 7.63373077e-03f, 8.24381877e-03f, -6.67653419e-03f, -9.94008929e-02f, 1.57496519e-02f, -5.25229201e-02f, 4.97149713e-02f,
    1.20053522e-01f, 6.86894804e-02f, -7.82600194e-02f, -2.88807899e-02f, -3.88628356e-02f, -1.16270274e-01f, -4.72966693e-02f, -6.81902990e-02f,
    -2.36686449e-02f, 2.03444883e-01f, 2.37709545e-02f, -1.08681962e-01f, 1.68648139e-02f, -1.15236968e-01f, -2.94051841e-02f, 5.49410023e-02f,
    -3.36130196e-03f, -2.75598932e-02f, 3.57087292e-02f, -2.86307670e-02f, -2.02303771e-02f, 2.48893183e-02f, -4.33661714e-02f, 2.43338682e-02f,
    1.01038657e-01f, -6.02602549e-02f, 1.10762395e-01f, 2.13312656e-01f, 1.24572337e-01f, 1.48389889e-02f, 1.20052643e-01f, 6.84819371e-02f,
    -2.56751478e-02f, -5.65122738e-02f, -1.06236331e-01f, -7.91795328e-02f, 2.29878025e-03f, -8.14573318e-02f, -1.02077499e-02f, 1.69593263e-02f,
    -3.83894332e-02f, -3.98203284e-02f, 8.10065679e-03f, -6.79119006e-02f, -7.27434680e-02f, 1.87763155e-01f, -1.09174073e-01f, -6.42726347e-02f,
    1.84437521e-02f, -4.46043573e-02f, 7.35530397e-03f, -2.99365129e-02f, 4.30601612e-02f, 4.55292724e-02f, 9.02840644e-02f, 5.79869039e-02f,
    -2.84656454e-02f, 3.58423102e-03f, 7.31813312e-02f, -2.90304590e-02f, -1.75885297e-02f, 9.04326811e-02f, -1.46741420e-01f, -3.96061093e-02f,
    1.26646727e-01f, -1.41434884e-02f, -3.87573540e-02f, 6.82290643e-02f, 1.24907568e-02f, -1.17343276e-04f, -4.28970978e-02f, 1.61828957e-02f,
    8.62734616e-02f, -1.65604819e-02f, -6.02049343e-02f, -9.61954053e-03f, -2.02671289e-02f, 5.93454577e-02f, 1.14278339e-01f, -1.74474865e-01f,
    -1.58876583e-01f, 3.68818194e-01f, -3.80579345e-02f, -1.38461232e-01f, 9.93874520e-02f, -2.00838894e-02f, 3.48536745e-02f, -1.52424416e-02f,
    1.16829108e-02f, 1.16666786e-01f, -5.33171445e-02f, 8.09972454e-03f, 1.44077554e-01f, -2.71480866e-02f, -6.21511154e-02f, -1.02339499e-02f,
    -3.49467248e-02f, 3.13469805e-02f, 2.23807860e-02f, 4.58696149e-02f, 1.14264283e-02f, -4.59291786e-02f, -1.00326892e-02f, -1.98494289e-02f,
    8.69198292e-02f, -1.53005626e-02f, 2.02224050e-02f, 4.81146052e-02f, -6.22299202e-02f, 1.44047625e-02f, 6.37255758e-02f, -1.00548968e-01f,
    -1.10946521e-01f, 1.23691456e-02f, 2.30023079e-02f, 1.60044152e-02f, 3.60617712e-02f, 2.94675939e-02f, 2.84764897e-02f, -8.30293633e-03f,
    7.62719568e-03f, -9.06550512e-03f, -3.70059982e-02f, 3.51634175e-02f, 6.79662898e-02f, 6.71696514e-02f, -9.31896567e-02f, 5.00562834e-03f,
    4.22932766e-02f, 8.47004540e-03f, 8.88899192e-02f, -1.53596364e-02f, -1.28002344e-02f, 1.78477783e-02f, -3.37420478e-02f, 1.67432893e-02f,
    4.88413125e-02f, -3.15616354e-02f, -1.24448463e-02f, 4.83334344e-03f, 3.99055295e-02f, -9.07440707e-02f, -6.38398454e-02f, 1.76779985e-01f,
    1.36729285e-01f, -2.15974107e-01f, 4.05579396e-02f, 1.17231771e-01f, -8.56835544e-02f, 7.29124472e-02f, 6.92462921e-02f, 2.93970890e-02f,
    1.02002092e-01f, -5.57385981e-02f, 7.66299083e-04f, -1.20381653e-01f, -1.40740484e-01f, 6.55619279e-02f, -9.29266512e-02f, -7.39430413e-02f,
    1.68438554e-01f, -5.93012497e-02f, -3.18274528e-01f, 7.67323449e-02f, 7.79435188e-02f, 7.63672451e-03f, 2.35616583e-02f, -1.01410344e-01f,
    -2.14081462e-02f, -8.56819674e-02f, -8.03894699e-02f, 1.85856938e-01f, 2.26216298e-03f, -8.15019608e-02f, -1.96064897e-02f, -2.73699276e-02f,
    -2.65177786e-02f, 1.79985445e-02f, -2.33639553e-02f, 3.08896210e-02f, 1.79709634e-03f, -4.45458815e-02f, -1.82878226e-02f, 1.36960465e-02f,
    -3.73870470e-02f, -4.25247177e-02f, -6.79119863e-03f, 2.77796742e-02f, 1.95949059e-02f, -2.96141841e-02f, 9.82332230e-03f, 5.54539822e-02f,
    -1.58875175e-02f, -6.49469718e-02f, 4.60006930e-02f, 4.09158356e-02f, -1.97423920e-02f, -8.26847740e-03f, -1.44817028e-02f, 2.34703328e-02f,
    -8.90390854e-03f, -1.06593044e-02f, 3.89339812e-02f, 2.98378319e-02f, -1.41555695e-02f, -4.88461852e-02f, -2.35689767e-02f, -2.33776048e-02f,
    -4.91310731e-02f, -1.45434998e-02f, -4.00819182e-02f, -6.02485314e-02f, -3.96939367e-01f, -1.79794595e-01f, 7.91764408e-02f, -5.40604174e-01f,
    1.77429363e-01f, 4.46556687e-01f, -1.97846740e-01f, 3.19934547e-01f, 2.93294162e-01f, -4.92737778e-02f, 4.77634519e-02f, -3.20365950e-02f,
    3.17247994e-02f, 1.73594519e-01f, 1.09850271e-02f, 1.31477769e-02f, 8.42287764e-03f, -7.13093579e-02f, 1.17863610e-01f, 3.11552733e-02f,
    -3.31430919e-02f, 6.31896481e-02f, -2.62182346e-03f, -5.28804138e-02f, -9.02553089e-03f, 1.38301654e-02f, -4.71633067e-03f, 3.81568633e-02f,
    9.69236195e-02f, 5.29813580e-02f, 1.27999812e-01f, -2.97595169e-02f, -1.30141266e-02f, 6.84444979e-02f, -4.60245498e-02f, -1.03802823e-01f,
    -1.74324233e-02f, -3.12920772e-02f, 1.54190827e-02f, 1.09380305e-01f, -3.66934799e-02f, -1.05254631e-02f, 5.84180541e-02f, -2.56061666e-02f,
    -4.50984240e-02f, 1.48020452e-02f, -1.27846692e-02f, -3.54150590e-03f, 2.82645728e-02f, -4.70241606e-02f, 1.79761909e-02f, 2.42579747e-02f,
    -9.69283003e-03f, -1.03541734e-02f, -2.02905163e-02f, -9.82189435e-04f, -1.86464321e-02f, -6.44109212e-03f, 7.37218931e-02f, -9.64809135e-02f,
    4.45013680e-02f, -7.82430917e-02f, 9.95557639e-04f, 1.99934527e-01f, 1.54692352e-01f, 2.83164680e-02f, 3.28938812e-01f, -9.46756601e-02f,
    -2.06713185e-01f, 1.71260357e-01f, -1.26617745e-01f, -1.93209305e-01f, -2.57158950e-02f, -1.76313706e-02f, -1.25560081e-02f, 2.07882971e-02f,
    3.77699174e-02f, -4.21882793e-02f, -5.82105890e-02f, -6.43107072e-02f, 3.30375098e-02f, -4.69736159e-02f, 2.45205481e-02f, 5.31486189e-03f,
    1.85986813e-02f, 1.92484446e-02f, -6.03764020e-02f, 2.38326099e-03f, -6.04267232e-03f, -5.54446168e-02f, -7.71929994e-02f, 3.14111821e-02f,
    2.60782707e-02f, -1.16812298e-02f, 3.04420060e-03f, 1.74492970e-02f, -8.43289867e-03f, 2.24701185e-02f, -1.13260373e-02f, 5.21666370e-02f,
    -3.15539427e-02f, 1.65039056e-03f, -5.37307560e-03f, -1.70039430e-01f, -2.70162914e-02f, -2.03756616e-03f, 2.14911834e-03f, -1.15567690e-03f,
    8.44005495e-02f, 1.39246851e-01f, 3.87291387e-02f, 1.00806065e-01f, -1.39899887e-02f, -4.24954332e-02f, -4.85834181e-02f, -1.17475271e-01f,
    -2.79276241e-02f, -1.97425671e-02f, -6.21875003e-02f, -2.76511107e-02f, -2.71585941e-01f, 2.52649367e-01f, 6.59814104e-02f, -1.33547410e-01f,
    -1.38443872e-01f, 4.87177446e-02f, -9.91382152e-02f, -1.83759406e-02f, 2.65105721e-02f, -1.74676299e-01f, 8.26898441e-02f, 1.29934862e-01f,
    -2.09613219e-02f, -4.02490161e-02f, 3.02357785e-03f, -6.77913055e-02f, -5.65128550e-02f, 1.30283711e-02f, 1.88547838e-02f, -2.58905776e-02f,
    -2.10273992e-02f, -1.58398934e-02f, -2.82903085e-03f, -9.18884110e-03f, -2.23946162e-02f, -3.80415507e-02f, -1.07567385e-02f, -8.24379455e-03f,
    -4.89333607e-02f, 3.07247654e-04f, 2.39688698e-02f, 1.36896335e-02f, -7.34753266e-04f, 1.54162306e-04f, 6.09317869e-02f, -7.42384465e-03f,
    -4.52446863e-02f, 1.70943365e-02f, 1.92413107e-02f, 4.74172272e-03f, -3.66740418e-03f, -2.15965379e-02f, 9.11759511e-02f, 2.77535204e-04f,
    -7.18533397e-02f, 2.82325715e-01f, -3.40256691e-01f, -1.47443518e-01f, 2.61072099e-01f, 1.38941482e-01f, -3.55500691e-02f, 1.19678937e-02f,
    -4.30748798e-02f, -3.64888050e-02f, 2.14592777e-02f, -4.34523411e-02f, -1.59086008e-02f, 1.88665390e-02f, 8.61494895e-03f, -8.56431201e-03f,
    5.56009449e-03f, 4.21056375e-02f, 4.33532372e-02f, 8.96935910e-02f, -4.10389341e-02f, 4.96651903e-02f, -7.39107952e-02f, 2.06198972e-02f,
    1.26393875e-02f, -4.22916301e-02f, 9.52173471e-02f, 1.06456533e-01f, -1.81860045e-01f, -7.13414606e-03f, 2.12442577e-01f, -1.31954923e-02f,
    9.49344411e-02f, 7.04053640e-02f, 4.35125679e-02f, 1.21518567e-01f, 1.82501301e-01f, -1.94796756e-01f, -1.80329829e-02f, 1.66460097e-01f,
    -1.37188599e-01f, -1.54301301e-01f, 4.96404581e-02f, 6.79654651e-04f, 3.03991634e-04f, -6.64485246e-02f, 4.91900370e-02f, -7.57818073e-02f,
    -2.92233564e-02f, 6.64527565e-02f, 3.54036503e-02f, -3.01134102e-02f, -7.65331835e-02f, -9.46027134e-03f, 7.20376968e-02f, -1.05513230e-01f,
    6.08788840e-02f, 7.95937255e-02f, -1.53710991e-02f, -9.96049494e-02f, -3.75390649e-02f, -1.73925553e-02f, 4.56429757e-02f, 2.50165109e-02f,
    -1.42967373e-01f, -1.77951939e-02f, 5.21320812e-02f, -9.60450619e-03f, -1.90218557e-02f, 7.32067600e-03f, -5.71496645e-03f, 1.82185657e-02f,
    9.46507696e-03f, -3.95367388e-03f, 1.00846544e-01f, 3.42563912e-02f, -1.07034640e-02f, -5.12252115e-02f, -1.46531488e-03f, 1.51909729e-02f,
    -1.49074420e-01f, -8.73821676e-02f, 2.55252063e-01f, 7.83737227e-02f, -1.31748691e-01f, 2.29156241e-02f, 1.47361755e-01f, 4.39454578e-02f,
    1.21500604e-02f, 6.32421300e-02f, -2.24682782e-02f, -9.16143134e-03f, -6.71198145e-02f, -4.80103046e-02f, -1.17056994e-02f, 9.51084867e-03f,
    -2.07031313e-02f, -4.53808419e-02f, 8.25371500e-03f, 2.31011417e-02f, 6.83427043e-03f, -3.65615450e-02f, -1.11551734e-03f, 1.90683603e-02f,
    -1.67499110e-02f, 9.08578688e-04f, -5.69625646e-02f, -2.35024095e-02f, 3.46482955e-02f, -7.97251165e-02f, 9.67676193e-03f, 1.01566471e-01f,
    -1.03374636e-02f, 5.56360409e-02f, 9.80692059e-02f, 5.73706701e-02f, 1.34612182e-02f, -7.22394558e-03f, 4.20900574e-03f, 3.23960278e-03f,
    8.53498001e-03f, 5.58571378e-03f, -3.53094600e-02f, 2.58278232e-02f, -1.51288882e-02f, 1.02817431e-01f, 3.48990485e-02f, 1.25329480e-01f,
    -1.03802970e-02f, -8.74289721e-02f, 6.02032281e-02f, -9.44161490e-02f, -9.68421623e-02f, 1.81054436e-02f, -1.84192997e-03f, 3.86183755e-03f,
    2.71339137e-02f, -1.02195973e-02f, 1.36686731e-02f, 1.22488067e-02f, -5.12434123e-03f, -1.73511654e-02f, 5.39234690e-02f, -1.27176642e-02f,
    -1.82543590e-04f, -1.54498070e-02f, -1.54349171e-02f, 2.14126371e-02f, -1.31537346e-02f, 2.64154319e-02f, 3.28098089e-02f, 1.34537190e-01f,
    2.25584313e-01f, -1.82575267e-02f, 4.46508616e-01f, -1.01206467e-01f, -3.01311404e-01f, 5.95479719e-02f, -3.70570868e-01f, -1.65321365e-01f,
    -6.03495911e-03f, -5.54521233e-02f, 2.65765209e-02f, 2.43510343e-02f, -5.33609577e-02f, 7.12320283e-02f, 6.25243187e-02f, 1.08359242e-02f,
    9.23052523e-03f, 9.57848039e-03f, -4.50162441e-02f, -1.63038429e-02f, 5.28572164e-02f, -2.16377415e-02f, 5.04849292e-03f, 3.78983561e-03f,
    -3.68855568e-03f, -1.12257909e-03f, -5.31892926e-02f, -2.66808290e-02f, -1.33300237e-02f, 9.28427372e-03f, 8.24624225e-02f, -1.09205820e-01f,
    3.38906609e-02f, -8.64514858e-02f, 4.26987484e-02f, -3.42301935e-01f, -2.03055710e-01f, -1.07207242e-02f, -4.52911705e-01f, -4.40426404e-03f,
    3.20495844e-01f, -1.25076026e-01f, 4.10517812e-01f, 2.24616900e-01f, 2.60540713e-02f, 3.55826952e-02f, 3.43484543e-02f, 2.10720338e-02f,
    9.70859602e-02f, -2.50930171e-02f, -2.52587330e-02f, -6.06535152e-02f, -1.81259699e-02f, -6.05683215e-02f, 3.04359961e-02f, -1.89714897e-02f,
    7.04164952e-02f, 6.94912076e-02f, -2.56389026e-02f, 2.34149452e-02f, -3.69323641e-02f, -5.03142774e-02f, -3.66143696e-02f, 4.22267243e-03f,
    2.03323225e-03f, 1.29680941e-02f, -1.36146145e-02f, -5.18936571e-03f, 7.81252794e-03f, 2.40013320e-02f, -2.01640390e-02f, 5.53050414e-02f,
    -4.00902107e-02f, 3.30926478e-02f, -2.64943149e-02f, -1.62498727e-01f, -1.38359396e-02f, 5.27634053e-03f, 1.35671981e-02f, -3.73858656e-03f,
    8.72737393e-02f, -1.89679101e-01f, -9.44538489e-02f, -1.69536620e-02f, -8.71519744e-02f, 5.14548197e-02f, 1.56823844e-02f, 4.38282080e-02f,
    3.64399962e-02f, -1.49755657e-01f, -2.38591805e-01f, 3.98945063e-02f, -1.58171192e-01f, 1.92092821e-01f, 1.33826584e-01f, 3.36431852e-03f,
    1.52228355e-01f, -2.52000708e-02f, -3.04902308e-02f, -8.81933421e-02f, -1.89306065e-02f, -9.70083848e-02f, 7.84404129e-02f, 4.97608297e-02f,
    -3.08747124e-03f, 3.73650305e-02f, 9.21911560e-03f, -1.00199342e-01f, -3.13779972e-02f, 4.66338173e-03f, -6.57237470e-02f, -4.58640791e-02f,
    3.45131680e-02f, 2.86320299e-02f, 5.29372655e-02f, 1.98330022e-02f, -1.76400691e-02f, 2.10829433e-02f, 3.12957391e-02f, 2.99273711e-03f,
    3.16240056e-03f, 1.93116535e-03f, 8.76312982e-03f, 2.66931998e-03f, -5.72536746e-03f, 8.97623003e-02f, 1.05568938e-01f, 2.69709025e-02f,
    2.63521094e-02f, 1.55534744e-02f, -1.20735548e-01f, -1.40622752e-02f, -1.44972056e-01f, -8.04182589e-02f, 1.51357338e-01f, 1.70219228e-01f,
    -4.36867699e-02f, 1.06416717e-01f, -1.55421376e-01f, -1.63086355e-01f, 7.42243323e-03f, -6.36029989e-02f, -6.45390674e-02f, -2.37350110e-02f,
    2.12482214e-02f, 2.29585115e-02f, -1.95028111e-02f, 3.39343445e-03f, 1.82182752e-02f, 2.22673379e-02f, -2.61946898e-02f, 1.07534544e-03f,
    -8.70319977e-02f, -3.07553709e-02f, 2.72356626e-02f, 4.43477407e-02f, -5.01659662e-02f, 1.29079130e-02f, 2.77792085e-02f, 4.88117673e-02f,
    3.20214368e-02f, 3.44239213e-02f, 1.60910487e-01f, -3.88907231e-02f, 4.66418639e-03f, 1.49426430e-01f, -7.98278525e-02f, -1.30550683e-01f,
    7.74959940e-03f, -8.60847309e-02f, 1.23908080e-01f, 1.36160269e-01f, 4.22448404e-02f, -1.83786843e-02f, -3.05415019e-02f, -2.19492182e-01f,
    2.22906377e-02f, -1.06954329e-01f, 3.19223478e-02f, -1.15144495e-02f, 1.41408825e-02f, 1.82251036e-02f, 2.52491655e-03f, -3.28424834e-02f,
    8.29332694e-03f, 1.80524646e-03f, 3.04978862e-02f, -4.23382176e-03f, -8.62133056e-02f, -3.77487801e-02f, -3.08942162e-02f, -4.23443988e-02f,
    3.07502225e-02f, -2.07685400e-03f, 1.76555328e-02f, 1.01708800e-01f, 8.60645026e-02f, 1.10529788e-01f, 1.17075350e-02f, -4.32837792e-02f,
    5.17983921e-02f, 6.56366274e-02f, -6.63824156e-02f, -4.98735905e-02f, -9.89525095e-02f, -8.75895247e-02f, 5.66046797e-02f, 1.23593556e-02f,
    3.58178578e-02f, 1.06201069e-02f, -2.52808686e-02f, 1.34805571e-02f, -2.65670884e-02f, -5.68572730e-02f, -2.73781400e-02f, -1.18542530e-01f,
    -2.07080960e-01f, 3.85863110e-02f, -1.16453536e-01f, -2.61663757e-02f, 2.71303236e-01f, 9.39672366e-02f, 1.89895019e-01f, 2.16646686e-01f,
    -2.65050903e-02f, -2.61057969e-02f, 5.10602929e-02f, -1.48181558e-01f, -9.12302881e-02f, 2.26070642e-01f, -1.02126077e-01f, -4.98989364e-03f,
    1.03696650e-02f, 4.43190821e-02f, 9.52272676e-03f, -1.18480459e-01f, 3.13741356e-01f, 8.21109861e-02f, -4.04427141e-01f, 9.49724838e-02f,
    -5.92273846e-02f, -9.85067263e-02f, 2.19045766e-02f, 1.75416116e-02f, 1.54883722e-02f, 1.49980620e-01f, -4.18462977e-02f, -6.70904964e-02f,
    -5.49634825e-03f, 4.69154753e-02f, -9.19817947e-03f, 2.06119698e-02f, -4.99272309e-02f, 5.99206705e-03f, -1.16026951e-02f, -4.08423580e-02f,
    5.66669591e-02f, 6.92183664e-03f, -7.96252862e-02f, 4.29517450e-03f, -1.03225478e-03f, 1.09697913e-03f, -1.68021359e-02f, -1.34919463e-02f,
    3.20877414e-03f, 8.10110942e-03f, 6.57151593e-03f, -1.14683639e-02f, 7.15221977e-03f, 8.99418537e-03f, -6.54270425e-02f, -2.44270656e-02f,
    -1.77983623e-02f, 8.71631876e-02f, -8.02741945e-03f, 3.51382159e-02f, 6.26660697e-03f, 3.87688652e-02f, -9.54403654e-02f, -8.04174319e-02f,
    1.77076817e-01f, -3.76209378e-01f, -2.08941430e-01f, 4.91952538e-01f, -1.84596404e-01f, -3.59505713e-02f, 2.33488306e-01f, -3.16196829e-02f,
    -4.41075815e-03f, 1.49244443e-02f, -2.68910043e-02f, 1.35211963e-02f, 2.94550024e-02f, -3.30490954e-02f, 1.39953522e-02f, -6.75237412e-03f,
    9.27997380e-02f, 4.23736125e-03f, -1.21961057e-01f, 1.12522587e-01f, -5.76273836e-02f, -7.78660774e-02f, 1.20798983e-01f, -2.84296069e-02f,
    -2.00675517e-01f, 8.87064263e-02f, 3.69432308e-02f, -9.75977629e-02f, 4.48864460e-01f, -1.08175091e-01f, -3.81655753e-01f, 1.09063320e-01f,
    -3.37020382e-02f, -4.83752377e-02f, 5.02485707e-02f, -1.18372150e-01f, -1.92467030e-02f, 3.69198471e-02f, -2.21452080e-02f, 4.56669927e-02f,
    6.00234643e-02f, 1.41346619e-01f, -2.43558269e-02f, -1.23783257e-02f, -8.93538818e-03f, -2.28157751e-02f, 4.78092618e-02f, -6.39779270e-02f,
    4.11640182e-02f, -2.07260326e-02f, -1.36643844e-02f, 1.15539636e-02f, 5.72729036e-02f, -5.59536293e-02f, -5.11028431e-02f, 1.52833372e-01f,
    7.46055543e-02f, -1.85473353e-01f, 6.69118986e-02f, -4.70293015e-02f, -4.60220389e-02f, -1.60481539e-02f, 1.99445132e-02f, 2.58386619e-02f,
    5.26768640e-02f, -4.34578024e-03f, -1.07639037e-01f, -4.37069265e-03f, -2.84255818e-02f, 3.72391753e-02f, -1.10808015e-02f, 1.40621718e-02f,
    4.51659076e-02f, -2.10940894e-02f, -1.64260678e-02f, 1.33236526e-02f, 1.35619976e-02f, -1.14611788e-02f, 1.99060142e-02f, -3.22681777e-02f,
    1.66950062e-01f, 8.73497650e-02f, -3.19549404e-02f, 2.55539250e-02f, 1.15477204e-01f, 1.88377686e-02f, -1.30874336e-01f, 3.67059633e-02f,
    -3.11609041e-02f, 1.95102375e-02f, -1.29298521e-02f, -9.71235149e-03f, -6.23683184e-02f, -6.22673966e-02f, 1.42234927e-02f, 7.79633000e-02f,
    -3.23508610e-03f, 3.01624332e-02f, -2.59168521e-02f, -2.73918174e-02f, -8.86427984e-03f, -1.94771960e-02f, -1.36626689e-02f, 6.32737589e-04f,
    2.23944290e-03f, -1.54605517e-02f, -3.16008553e-02f, 4.82389145e-02f, -1.80387776e-02f, -1.57967731e-02f, -4.56754640e-02f, 2.33548619e-02f,
    8.94286018e-03f, 4.05735821e-02f, -1.23135615e-02f, -6.64429367e-03f, -2.34953538e-02f, -8.41892511e-02f, 2.11510435e-02f, 2.23918799e-02f,
    -5.91483228e-02f, 2.95521319e-02f, 4.16627862e-02f, 1.14678135e-02f, -4.34272885e-02f, 3.31619561e-01f, 2.10837424e-01f, -3.62912029e-01f,
    2.24334255e-01f, 4.01131570e-01f, -4.92556900e-01f, -3.11464876e-01f, 2.02315878e-02f, -6.58465968e-03f, -8.99843313e-03f, -3.09615098e-02f,
    -9.68031958e-03f, 3.96442004e-02f, -6.15225697e-04f, -9.74163692e-03f, 5.53630553e-02f, 2.59003658e-02f, -1.35304146e-02f, -2.60970555e-02f,
    -2.57919095e-02f, 8.82284809e-03f, -2.98014712e-02f, -2.93263476e-02f, 1.13565676e-01f, 5.94855659e-02f, 1.93710849e-02f, 2.29363013e-02f,
    -4.41436805e-02f, -1.02735795e-01f, 5.71664758e-02f, -3.04579642e-02f, -7.39422888e-02f, 9.46738273e-02f, 1.46953702e-01f, -1.11887660e-02f,
    4.74773198e-02f, -8.97270907e-03f, -8.08368996e-03f, 7.67439455e-02f, -2.78150500e-03f, -4.70690466e-02f, -8.16642493e-03f, 5.73349930e-02f,
    3.75033654e-02f, -5.69515908e-03f, -5.98034263e-03f, -1.96578596e-02f, 4.15697880e-03f, -1.51781775e-02f, 2.36257799e-02f, 1.02621438e-02f,
    -5.22749359e-03f, -3.98886986e-02f, -2.62812376e-02f, -2.63673365e-02f, -4.29766625e-02f, 6.41988069e-02f, -2.11679399e-01f, 4.61733527e-03f,
    3.66199352e-02f, 6.22922741e-02f, -1.36549082e-02f, 4.12411727e-02f, -1.32767916e-01f, -8.25975165e-02f, 1.74491316e-01f, -1.52517259e-01f,
    -2.01260075e-01f, 2.10606948e-01f, 2.16321722e-01f, -6.32779114e-03f, -1.74508914e-02f, -2.45938916e-03f, -2.09679920e-02f, -6.02066377e-03f,
    6.42593056e-02f, -3.57388966e-02f, 3.59313451e-02f, 5.26340455e-02f, -2.47831941e-02f, 1.20317079e-02f, 1.78479478e-02f, -1.89219974e-02f,
    -2.92171519e-02f, -8.66764633e-04f, -3.53584555e-03f, 1.87208410e-03f, 6.82025740e-04f, 1.99012291e-02f, -6.07291004e-03f, 3.93728428e-02f,
    -3.37526686e-02f, -4.08139899e-02f, -2.77525913e-02f, -1.59340706e-02f, -2.13978663e-02f, 7.87053071e-03f, -3.97503702e-03f, -1.61348712e-02f,
    -2.54155863e-02f, -4.25523557e-02f, -4.18684073e-02f, 1.02907643e-01f, -8.29112679e-02f, -5.44753969e-02f, -8.87636561e-03f, 3.06152888e-02f,
    -4.03740779e-02f, 5.83900772e-02f, -1.38090923e-01f, 2.74483347e-03f, 4.48888689e-02f, -1.55506909e-01f, -3.43425870e-02f, 4.90566902e-02f,
    -1.72151491e-01f, -3.95384282e-02f, 1.45180002e-01f, -1.19595133e-01f, -3.64924632e-02f, 7.91347995e-02f, -9.82558131e-02f, -2.44205073e-02f,
    1.32442281e-01f, -1.39695197e-01f, -1.36306407e-02f, 8.24418291e-03f, -1.69305637e-01f, 4.14199866e-02f, 5.90032451e-02f, -2.08067030e-01f,
    -9.04754922e-03f, 1.44701963e-02f, -1.64636657e-01f, -1.93330161e-02f, 5.08641871e-03f, -5.31091355e-02f, 1.07812628e-01f, 1.39678612e-01f,
    -6.82660788e-02f, -3.92952226e-02f, -4.64806985e-03f, -1.15611352e-01f, 4.63270657e-02f, 4.54618111e-02f, -1.26508266e-01f, 5.46740778e-02f,
    2.22868118e-02f, -1.33855700e-01f, 4.11215797e-02f, 1.92918386e-02f, -1.21431500e-01f, 3.47616747e-02f, 1.22801714e-01f, -1.72006428e-01f,
    8.40476304e-02f, 1.19518735e-01f, -1.79401264e-01f, -1.97742227e-02f, 8.40778798e-02f, -2.04678521e-01f, 1.94915067e-02f, -3.58747840e-02f,
    -8.85171443e-02f, 8.36892948e-02f, 4.25135382e-02f, -1.25346482e-01f, -1.38218943e-02f, -1.00616410e-01f, -9.35086459e-02f, 2.10698955e-02f,
    4.70491871e-02f, -1.20272256e-01f, 1.97068937e-02f, 8.71706828e-02f, -1.30936444e-01f, -1.12457341e-02f, 4.86700758e-02f, -1.33103490e-01f,
    1.49072573e-01f, -1.19885355e-02f, -1.63482457e-01f, 1.94891214e-01f, 1.20708430e-02f, -1.56842560e-01f, 1.53128102e-01f, -6.29568025e-02f,
    -1.80608988e-01f, 2.88685542e-02f, 6.52816072e-02f, -1.03300139e-01f, 2.44957190e-02f, 1.29858434e-01f, -9.63887945e-02f, 2.53223069e-02f,
    5.66008985e-02f, -1.13997072e-01f, 9.83564928e-03f, 1.44534856e-01f, -1.68678969e-01f, 5.28364442e-04f, 1.01417921e-01f, -1.57742754e-01f,
    -2.29796697e-03f, 6.86376169e-02f, -1.32092029e-01f, 9.51830577e-03f, 3.45404749e-03f, -9.70302224e-02f, 3.97260264e-02f, 4.54319678e-02f,
    -1.19313814e-01f, 2.10658386e-02f, -1.26815904e-02f, -1.36007234e-01f, 3.65839712e-02f, 6.43418878e-02f, -1.47792891e-01f, 9.37744305e-02f,
    8.94833580e-02f, -1.91851780e-01f, 5.22191934e-02f, 8.78417119e-02f, -1.26034647e-01f, 4.69002931e-04f, 1.35825455e-01f, -1.86336085e-01f,
    4.14236970e-02f, 1.58466116e-01f, -1.82073370e-01f, -7.05433171e-03f, 7.20804781e-02f, -1.89481393e-01f, 2.28257738e-02f, 4.74786721e-02f,
    -1.67829648e-01f, 7.48366416e-02f, 1.46880239e-01f, -1.32145122e-01f, 8.85941728e-04f, 8.77299160e-02f, -2.17130885e-01f, -1.85356736e-02f,
    4.57758196e-02f, -1.23841129e-01f, 6.06342517e-02f, 1.82693690e-01f, -7.63723999e-02f, -1.19326757e-02f, 5.87682165e-02f, -1.72672331e-01f,
    -9.62823704e-02f, -7.10195005e-02f, 1.88647471e-02f, 7.89692253e-03f, 5.43742329e-02f, 4.90961187e-02f, -6.86769700e-03f, 5.23207150e-02f,
    1.26267433e-01f, -6.80232327e-03f, 4.90918271e-02f, -1.87539421e-02f, -3.80675942e-02f, 6.83309063e-02f, -6.96212351e-02f, 2.85834949e-02f,
    -7.16739744e-02f, -1.89548042e-02f, 4.94690146e-03f, -1.19261689e-01f, -9.51646268e-02f, -7.72331282e-02f, -3.81223345e-03f, -9.10876021e-02f,
    -4.11614962e-02f, -3.30984257e-02f, -1.75397769e-02f, 6.92117065e-02f, 1.42445177e-01f, 8.49601813e-03f, 6.18447475e-02f, 5.16079180e-02f,
    -5.15157990e-02f, 6.25115186e-02f, -6.08667359e-02f, -2.77681649e-02f, 2.20013075e-02f, 1.72370970e-02f, -3.66100818e-02f, 8.23451299e-03f,
    7.48530626e-02f, -8.63508321e-03f, -1.78771373e-02f, -3.98256332e-02f, 1.47726005e-02f, 6.43436611e-02f, 1.14344336e-01f, -3.67510971e-03f,
    1.21536374e-01f, -2.11349688e-02f, -1.55272961e-01f, -5.01786806e-02f, -6.58358335e-02f, 5.68121374e-02f, -6.89698160e-02f, -1.15747333e-01f,
    1.55262591e-03f, -8.08443353e-02f, -3.85973752e-02f, 7.18745515e-02f, 6.50880709e-02f, 1.27277404e-01f, 1.24133810e-01f, 6.11566938e-02f,
    3.47472541e-02f, 4.07555979e-03f, -2.14818469e-03f, -2.70331800e-02f, -2.41591986e-02f, 2.24054568e-02f, 4.05290276e-02f, -1.96128571e-03f,
    3.44514586e-02f, 8.52077603e-02f, 9.13803503e-02f, -9.28890184e-02f, -1.54213486e-02f, 1.22530190e-02f, -4.14951108e-02f, -5.96497394e-02f,
    -1.00937905e-02f, 7.28954673e-02f, -3.66486423e-02f, -1.40957519e-01f, 1.95957944e-02f, -1.10915512e-01f, -2.08941072e-01f, -2.55725114e-03f,
    -8.70544463e-02f, -1.55304864e-01f, 9.91019756e-02f, -1.01719566e-01f, -8.70783851e-02f, 2.85388865e-02f, 3.36480215e-02f, -1.24965705e-01f,
    -4.46164943e-02f, 7.63936117e-02f, -1.71476007e-02f, 4.44221571e-02f, 1.09383799e-02f, 5.02321012e-02f, 1.45508004e-02f, 2.47515347e-02f,
    1.45259937e-02f, 4.26792875e-02f, -3.15768719e-02f, 4.16909577e-03f, 6.21007867e-02f, -6.19144961e-02f, -2.28166278e-03f, 3.34937051e-02f,
    -2.16678545e-01f, 9.13129561e-03f, 6.02798350e-02f, 2.55033910e-01f, 1.31352514e-01f, 1.18852571e-01f, -1.28637791e-01f, 1.53149758e-02f,
    1.50830869e-03f, 1.87634453e-01f, -7.06042303e-03f, 4.21210043e-02f, 3.96466292e-02f, -7.41921142e-02f, 2.04967428e-02f, 1.43460616e-01f,
    2.90916301e-02f, 1.10522166e-01f, -1.73517406e-01f, -1.63341220e-02f, 3.82193215e-02f, 1.78042129e-02f, -3.34388800e-02f, 6.08107448e-02f,
    1.61616281e-01f, -2.94059385e-02f, -1.52724562e-02f, -2.72654109e-02f, -5.69128282e-02f, 7.66667202e-02f, -9.59285796e-02f, -3.94826643e-02f,
    1.46529349e-02f, 1.44087434e-01f, 2.49583852e-02f, -3.16030458e-02f, 3.57527137e-02f, -2.40620375e-02f, -6.96962699e-02f, -9.98639017e-02f,
    -4.53249738e-02f, -5.89736290e-02f, 5.91016784e-02f, 8.01069811e-02f, -5.83312586e-02f, 2.13621885e-01f, -6.22846708e-02f, -4.84867394e-02f,
    -1.97012454e-01f, -1.29757404e-01f, -5.77396527e-03f, -4.89486288e-03f, 3.31138261e-02f, -3.69870439e-02f, 2.18856037e-01f, 5.50269382e-03f,
    -1.27174770e-02f, -5.41324131e-02f, -6.79930672e-02f, 2.57304162e-02f, 4.24474142e-02f, 2.83409320e-02f, 4.62127663e-02f, -5.48536927e-02f,
    1.61202755e-02f, 4.87388112e-02f, -1.39886187e-02f, 4.65127155e-02f, -2.48704891e-04f, 7.99884573e-02f, 2.93589197e-03f, 1.49778780e-02f,
    -5.21375127e-02f, 8.95176735e-03f, 9.33879241e-03f, -1.39378081e-03f, 7.85947032e-03f, -1.15904287e-01f, 2.39127893e-02f, -3.16936360e-03f,
    -3.39873694e-02f, 2.89618909e-01f, -3.17380913e-02f, -2.43458562e-02f, 3.87718566e-02f, -5.80116995e-02f, -4.14753258e-02f, -6.48828894e-02f,
    -5.81571907e-02f, 7.86051340e-03f, -3.60292673e-01f, 1.02008313e-01f, 4.42263205e-03f, 2.77322859e-01f, 1.84664175e-01f, 1.25298603e-02f,
    -3.24373599e-03f, 1.63742676e-02f, -4.00218740e-02f, -1.30644888e-01f, 7.19121248e-02f, 2.18591490e-03f, 4.58113886e-02f, 3.82799879e-02f,
    3.01136039e-02f, -1.14803836e-02f, 5.44065274e-02f, 2.70388406e-02f, -2.15125829e-02f, 4.63169906e-03f, 3.90000790e-02f, 1.13166161e-01f,
    -2.16211043e-02f, -4.73578013e-02f, 3.62375122e-03f, -6.61674440e-02f, 1.47204280e-01f, 5.71641251e-02f, -4.11235280e-02f, 4.45130244e-02f,
    1.04330562e-01f, -4.04295810e-02f, -8.22339505e-02f, -1.58845156e-01f, 3.95653257e-03f, -2.89404601e-01f, 2.33176380e-01f, 5.33475690e-02f,
    9.49021996e-05f, 1.40271056e-02f, -5.80412708e-02f, -4.95681874e-02f, 2.47809440e-02f, 3.18348259e-02f, 2.95492373e-02f, -4.39254455e-02f,
    -2.48366036e-02f, 1.37579413e-02f, 3.61468680e-02f, -4.97848764e-02f, 6.11929707e-02f, 1.07244961e-01f, -1.91329475e-02f, 6.54345304e-02f,
    1.01651691e-01f, -7.18282312e-02f, 1.07935434e-02f, -2.56196801e-02f, -6.41945973e-02f, -9.00436640e-02f, -8.42593759e-02f, 1.93190109e-02f,
    -7.77681097e-02f, 1.45717844e-01f, 3.55884396e-02f, -1.46335782e-02f, -4.16783020e-02f, -6.50237501e-03f, -3.48853394e-02f, 6.61213323e-02f,
    7.24971741e-02f, -3.44285667e-02f, -5.68104275e-02f, 4.12498601e-02f, -4.06342447e-02f, -6.51944131e-02f, -2.32076403e-02f, 1.31917372e-01f,
    1.09453849e-01f, 3.90865207e-02f, 8.54250044e-02f, -2.52295673e-01f, -1.15731515e-01f, -3.39013077e-02f, -1.22542694e-01f, 1.03320129e-01f,
    7.49596534e-03f, 1.10637575e-01f, 3.71821709e-02f, -4.41953316e-02f, 1.69317629e-02f, -5.33363558e-02f, -1.07810199e-01f, 4.70316708e-02f,
    7.13201761e-02f, -8.21098983e-02f, -1.55929863e-01f, 7.37966225e-02f, -5.95246330e-02f, 1.97270289e-02f, 2.90969517e-02f, 6.79684281e-02f,
    1.77381262e-02f, 2.35170890e-02f, 1.83083694e-02f, -1.27320036e-01f, -1.43746752e-02f, -8.22043791e-02f, -7.60691836e-02f, 8.92019123e-02f,
    -4.87737320e-02f, -5.66739924e-02f, 8.30270164e-03f, 3.09675075e-02f, 6.36067241e-02f, 5.83667215e-03f, 3.73044908e-02f, -5.99242970e-02f,
    -3.15776281e-02f, 5.97631671e-02f, -3.82910594e-02f, -1.08454339e-02f, -3.82399820e-02f, 4.15573493e-02f, 1.56613700e-02f, 6.05158508e-02f,
    4.29810323e-02f, -6.59221634e-02f, 1.25434650e-02f, -5.15340418e-02f, -2.03914680e-02f, -4.48541977e-02f, -1.36479810e-01f, 1.18657649e-02f,
    -5.42819984e-02f, -3.26873735e-02f, 4.21282789e-03f, 4.43042405e-02f, 2.74447771e-03f, 1.52495252e-02f, 1.21865630e-01f, 1.55873492e-01f,
    -6.97117746e-02f, 1.04252093e-01f, -1.20210908e-01f, -9.25270692e-02f, -6.49201050e-02f, 2.84588207e-02f, 2.63497494e-02f, -1.00505119e-02f,
    -9.06785205e-03f, 2.53399368e-02f, -4.18525413e-02f, 5.23299575e-02f, 1.19135352e-02f, 2.21592654e-03f, 2.73886062e-02f, -4.94384207e-02f,
    -2.45384008e-01f, -8.26193839e-02f, 3.08317170e-02f, -1.45790726e-01f, 1.51502052e-02f, 1.35533169e-01f, -2.26350296e-02f, 1.55779019e-01f,
    1.53120786e-01f, 3.83029692e-02f, -4.01746780e-02f, -6.54617250e-02f, 1.28578752e-01f, 8.98762420e-03f, 7.70093687e-03f, 3.21551524e-02f,
    1.51188616e-02f, -3.54887098e-02f, -2.06726447e-01f, -1.38691425e-01f, 1.69747040e-01f, -1.79893687e-01f, 9.58838835e-02f, 8.60379860e-02f,
    9.09018889e-02f, 4.82660830e-02f, 3.72058116e-02f, 2.67941616e-02f, 1.21662706e-01f, -4.93688136e-02f, 1.22288331e-01f, -2.12589037e-02f,
    -7.27290437e-02f, 3.32144983e-02f, -5.66171668e-02f, -8.44262466e-02f, -6.79897964e-02f, -3.46687064e-02f, 7.80859450e-03f, -1.02791086e-01f,
    1.78888701e-02f, 7.36998618e-02f, -3.28543712e-03f, 5.61754964e-02f, 6.20482825e-02f, -6.86729401e-02f, -4.96320352e-02f, 3.02759912e-02f,
    -4.55119014e-02f, 1.41451493e-01f, -4.03091647e-02f, 2.93852482e-02f, 2.14395812e-03f, -4.30311151e-02f, -4.40664683e-03f, -1.58383660e-02f,
    3.73476953e-03f, -5.74436001e-02f, -2.40189116e-02f, -1.94842310e-03f, -7.94591382e-03f, -2.88102161e-02f, -1.10412133e-03f, 3.63656819e-01f,
    2.57482231e-01f, -7.68637285e-02f, 2.59927750e-01f, -1.16376497e-01f, -1.98643982e-01f, 1.54351061e-02f, -1.35403350e-01f, -1.42884687e-01f,
    2.68180552e-03f, 9.42935701e-03f, 3.91124301e-02f, 7.04625472e-02f, 2.10180864e-01f, 6.33812845e-02f, 1.87023208e-02f, 8.51466507e-02f,
    -1.35686412e-03f, 4.89854366e-02f, 2.59271730e-03f, 5.51350089e-03f, 5.22338860e-02f, 1.41407385e-01f, 3.93073708e-02f, 7.26285502e-02f,
    7.09937960e-02f, 5.22300117e-02f, -7.85833597e-03f, 2.54114289e-02f, -2.36579254e-02f, -6.42529279e-02f, -1.08937137e-02f, -4.18220088e-02f,
    -1.70201138e-02f, -9.76709882e-04f, -5.66416793e-02f, 2.30243877e-02f, 6.64419457e-02f, 1.84008442e-02f, 5.18599264e-02f, 2.25626290e-01f,
    6.18247204e-02f, -9.12582800e-02f, -4.57076915e-02f, -6.17228411e-02f, -1.34880198e-02f, -1.38034588e-02f, 4.28473689e-02f, -1.40430175e-05f,
    8.17576572e-02f, 8.28946233e-02f, -6.21412545e-02f, -1.23758493e-02f, -3.37495133e-02f, -7.84445480e-02f, -6.57328404e-03f, -1.13672689e-01f,
    5.74598126e-02f, 7.48244533e-03f, -2.60939151e-01f, -9.57898498e-02f, -5.80393299e-02f, -1.17949054e-01f, -3.63821350e-02f, 2.73412317e-02f,
    -4.03287672e-02f, 4.85098874e-03f, -2.95869038e-02f, 1.51791852e-02f, 7.06990855e-03f, -4.34391350e-02f, -1.20974025e-02f, -2.07780339e-02f,
    3.41632292e-02f, -6.78604841e-03f, 1.01673016e-02f, 5.91380224e-02f, 1.35370176e-02f, -4.62373951e-03f, 1.02933720e-02f, -3.39901187e-02f,
    -1.56268629e-03f, 3.00459750e-02f, -1.49101643e-02f, 3.36184539e-02f, 2.42061019e-02f, -2.40669288e-02f, -1.05356434e-02f, -8.41769949e-03f,
    -3.11015751e-02f, -2.43811253e-02f, 8.97733308e-03f, -5.04592806e-03f, 8.86535943e-02f, 1.13471642e-01f, 6.10795580e-02f, 4.26086597e-02f,
    4.29655229e-05f, -8.79874732e-03f, 9.32248905e-02f, 6.24952391e-02f, 3.48173231e-02f, 1.62925702e-02f, 1.60310924e-01f, 1.30175591e-01f,
    8.49622786e-02f, 9.03943405e-02f, 4.58600968e-02f, -1.79955398e-03f, 1.61226222e-03f, -8.21644906e-03f, 2.42075627e-03f, 5.25683202e-02f,
    3.56995277e-02f, -3.65182981e-02f, -3.35127115e-02f, -2.01376844e-02f, -5.00968210e-02f, -3.41820680e-02f, -6.81825355e-02f, -2.35827919e-02f,
    -1.18883781e-01f, -4.80925515e-02f, 5.70895374e-02f, -5.10393903e-02f, 2.91633308e-02f, -1.17948420e-01f, -2.06504762e-01f, -7.95349255e-02f,
    -2.08181038e-01f, -1.36617273e-01f, 3.44588934e-03f, -9.26626027e-02f, 4.53682095e-02f, -5.64309731e-02f, -7.50938728e-02f, 8.98575485e-02f,
    -7.33601907e-03f, -1.22453339e-01f, 3.05183064e-02f, 5.35212085e-02f, -1.25027418e-01f, -1.84450597e-01f, -7.88402110e-02f, 2.37354059e-02f,
    1.99701004e-02f, 8.40814635e-02f, 1.31356776e-01f, 1.36794597e-01f, 1.98196974e-02f, 1.92920528e-02f, 1.20045491e-01f, 6.33965898e-03f,
    6.22455329e-02f, 8.99685621e-02f, -3.51351649e-02f, -1.99183188e-02f, -6.65771365e-02f, 8.44160747e-03f, 1.77235547e-02f, -1.00024372e-01f,
    -4.47366796e-02f, 2.52171997e-02f, 9.15047005e-02f, 2.80496646e-02f, 2.07647920e-01f, -1.79263502e-01f, -1.73550308e-01f, 5.19560352e-02f,
    -9.65577215e-02f, -9.55638755e-03f, -2.56537925e-02f, 3.42087187e-02f, 7.24749491e-02f, 3.77056673e-02f, -1.06134094e-01f, 4.99170981e-02f,
    7.11013600e-02f, 2.44215336e-02f, 8.93876925e-02f, 2.50326376e-02f, -6.41506463e-02f, -8.26239958e-03f, -5.89578263e-02f, -2.30699982e-02f,
    7.44761601e-02f, 2.69009806e-02f, 4.01428901e-02f, 3.54081728e-02f, 5.03416872e-03f, -5.55444555e-03f, 9.76604223e-03f, 2.12462107e-03f,
    1.84578542e-02f, 1.88441924e-03f, 2.90617011e-02f, -1.82049721e-02f, -5.24974391e-02f, -3.91103216e-02f, 5.39116003e-02f, -2.38079578e-02f,
    7.94982165e-02f, 1.34244129e-01f, -5.52712828e-02f, -1.23936897e-02f, 1.37905972e-02f, -4.10886630e-02f, -2.41699610e-02f, -1.57167375e-01f,
    -5.79052093e-03f, -1.53837398e-01f, 9.51382890e-02f, 1.41465291e-01f, -1.82762798e-02f, 1.35374784e-01f, -4.03884565e-03f, -8.20111111e-03f,
    -1.28774885e-02f, 1.21294763e-02f, -5.66584803e-02f, -1.25472648e-02f, 3.44909243e-02f, -1.63996257e-02f, 7.66843744e-03f, -1.25348438e-02f,
    1.89923644e-01f, -1.49629852e-02f, -4.56126072e-02f, 3.75691652e-02f, -3.98097299e-02f, -8.63211975e-02f, -2.78656129e-02f, -1.00981861e-01f,
    -1.62263528e-01f, -5.28491065e-02f, -9.55265686e-02f, 2.09684540e-02f, -1.12622734e-02f, 8.82436112e-02f, 6.75917417e-02f, -5.91745600e-02f,
    1.08789064e-01f, -1.73516460e-02f, 8.55028108e-02f, 1.72034353e-01f, 5.11082150e-02f, 1.53577343e-01f, 3.46155800e-02f, -2.34080523e-01f,
    -1.40317890e-03f, -2.30821788e-01f, -1.24110058e-01f, -7.96278846e-03f, -1.75549984e-02f, 9.80003830e-03f, -6.91329390e-02f, 2.93202456e-02f,
    4.05329578e-02f, -3.02043539e-02f, 5.00768796e-02f, -5.58654964e-02f, 1.46163985e-01f, 8.74351040e-02f, 1.12989927e-02f, 1.20311983e-01f,
    -1.58995017e-02f, -1.06522359e-01f, 2.43706405e-02f, -1.64330348e-01f, -1.00711063e-01f, 4.17362899e-03f, -2.70756446e-02f, -1.62512287e-02f,
    3.71336229e-02f, -1.02535553e-01f, -3.53327803e-02f, -7.58197159e-03f, -8.36376622e-02f, 1.05330616e-01f, -6.00230973e-03f, 2.45093908e-02f,
    -7.81866780e-04f, 1.44602619e-02f, -2.26861425e-02f, 1.00823790e-02f, 2.12454814e-02f, -5.13351113e-02f, 1.63406171e-02f, -1.28676817e-01f,
    -1.39923081e-01f, 5.09526692e-02f, -1.14466466e-01f, -2.48111170e-02f, 1.26276478e-01f, -9.04657412e-03f, 2.17142820e-01f, 1.06526718e-01f,
    -2.86500994e-02f, -5.83454035e-02f, -3.31830569e-02f, -6.48574755e-02f, -1.19373560e-01f, -4.33171540e-02f, -5.85692041e-02f, -1.06561244e-01f,
    -4.03950103e-02f, -8.25803280e-02f, -7.84164593e-02f, -5.04898606e-03f, -1.11410625e-01f, -3.76116931e-02f, -4.04743329e-02f, 1.78940594e-02f,
    -4.24595103e-02f, -4.05828878e-02f, 7.38795474e-02f, 2.61178128e-02f, -5.61389849e-02f, 5.19294739e-02f, 6.13247789e-02f, -3.96900922e-02f,
    1.39436200e-02f, 2.20222422e-03f, 2.27299258e-02f, -5.08633889e-02f, -4.77580018e-02f, -5.74854016e-02f, -7.36727044e-02f, -1.62666216e-02f,
    -2.18831729e-02f, 5.61167486e-03f, 9.56839845e-02f, 6.24817424e-02f, -9.63931009e-02f, -3.47116217e-02f, -3.73249687e-02f, -9.73311625e-03f,
    7.86157046e-03f, 3.46479677e-02f, 6.46211654e-02f, 3.85299176e-02f, 2.96847131e-02f, -8.10121894e-02f, 1.60537027e-02f, 8.09562281e-02f,
    2.68305335e-02f, 6.87338710e-02f, 6.03627674e-02f, 7.12547451e-02f, -1.13977687e-02f, 1.14441328e-02f, -2.61837523e-02f, 6.75920863e-03f,
    2.71356907e-02f, -2.69255154e-02f, 3.35313305e-02f, -2.65657511e-02f, -2.64236960e-03f, 3.55066843e-02f, 2.40276344e-02f, -1.92858707e-02f,
    1.20252101e-02f, -1.84439309e-03f, -1.60957742e-02f, -1.73359178e-02f, -7.26131396e-03f, 1.39447385e-02f, 1.21896220e-02f, 5.72251901e-03f,
    4.20458540e-02f, 1.17513992e-01f, 1.02700345e-01f, -2.90198810e-02f, 6.74072653e-02f, 1.26678795e-01f, -2.33531632e-02f, 8.70632678e-02f,
    1.30273491e-01f, -4.79255691e-02f, -2.48300675e-02f, 2.16698330e-02f, -3.51608568e-03f, 7.76361972e-02f, 4.20890078e-02f, -5.99473007e-02f,
    -2.82176342e-02f, -1.77557543e-02f, -1.49675524e-02f, -3.99782024e-02f, -2.21581310e-02f, -9.51533392e-02f, -7.59391263e-02f, -7.87293389e-02f,
    -4.84639853e-02f, -6.06124513e-02f, -4.50193137e-02f, 6.43180683e-03f, -3.75727308e-03f, 2.31992248e-02f, -1.91853289e-02f, -6.46663684e-05f,
    -1.58149039e-03f, 1.29381036e-02f, -1.94065217e-02f, -4.31596301e-03f, 7.46587589e-02f, 4.78541553e-02f, 2.70150049e-04f, 7.72124305e-02f,
    -2.19157580e-02f, -1.09656312e-01f, -2.53461883e-03f, -6.12555593e-02f, -9.47071686e-02f, -5.19628376e-02f, -8.38352293e-02f, -7.36784935e-02f,
    -7.88415968e-02f, -1.43808603e-01f, -8.11114535e-02f, -1.47155458e-02f, -3.88503298e-02f, 1.28219035e-02f, -2.89221648e-02f, -6.00273162e-02f,
    4.03408259e-02f, 1.16667420e-01f, 1.65767558e-02f, 7.39418119e-02f, 6.05437122e-02f, 9.49069019e-03f, 1.19001195e-02f, 5.93668297e-02f,
    6.85335398e-02f, 5.18477708e-02f, 1.22242808e-01f, 1.21980913e-01f, 9.36315134e-02f, 4.65861000e-02f, 3.87446545e-02f, 7.47749135e-02f,
    1.61490053e-01f, 5.34347594e-01f, 1.71333447e-01f, 1.03093095e-01f, -1.66547835e-01f, -1.15624079e-02f, -9.69873220e-02f, -4.62068021e-01f,
    -1.32565662e-01f, -2.43644174e-02f, 6.75499588e-02f, 2.16557905e-02f, -2.36395234e-03f, 1.04893548e-02f, 4.94067892e-02f, 2.02132185e-04f,
    -1.38225466e-01f, -6.57464936e-02f, -7.05900928e-03f, 4.44455296e-02f, 2.91781481e-02f, -1.56498365e-02f, -1.25182405e-01f, -9.64608602e-03f,
    3.98811512e-02f, -1.16203032e-01f, -2.38778647e-02f, -2.30346713e-02f, -4.96927500e-02f, -1.71455229e-03f, -5.54765202e-02f, -1.09651528e-01f,
    -6.54663369e-02f, 2.35388242e-02f, 4.58705500e-02f, 1.08546037e-02f, -1.38587728e-02f, -5.09438813e-02f, -5.52430889e-03f, -3.63150090e-02f,
    4.85144742e-03f, -2.32929606e-02f, 2.91627366e-02f, 6.29634559e-02f, 2.40328610e-02f, -1.21797156e-03f, 2.17025820e-02f, -2.73557194e-02f,
    -8.21033716e-02f, 4.51014377e-02f, 3.94385867e-02f, -9.15531348e-03f, 3.91269289e-03f, 1.00817187e-02f, 3.12347692e-02f, -1.78432956e-01f,
    -5.35682356e-03f, -5.32759167e-02f, -2.02039368e-02f, -4.23732996e-02f, -8.61151959e-04f, 2.69158632e-01f, 9.84042138e-02f, -2.00842433e-02f,
    -3.18732648e-03f, 1.41831432e-02f, -1.17121153e-02f, 9.19021945e-03f, -1.97294578e-02f, 2.46618129e-02f, 2.80608386e-02f, -7.27451546e-03f,
    2.54295748e-02f, -6.63635880e-02f, 5.53870946e-02f, -4.47687544e-02f, -6.22713007e-02f, -4.70014699e-02f, -3.55569050e-02f, 5.19716926e-02f,
    2.40351427e-02f, -6.17800578e-02f, -2.70965993e-01f, -4.46099751e-02f, -1.11902907e-01f, -1.64736390e-01f, 9.39783081e-03f, 5.18735014e-02f,
    3.70553970e-01f, 1.53965399e-01f, -4.28120373e-03f, -7.62764737e-03f, -4.50008549e-02f, -3.62356342e-02f, 1.06291004e-01f, 3.10815591e-02f,
    -1.48533788e-02f, 1.02238163e-01f, 1.63178593e-02f, 1.56586319e-02f, 9.82614309e-02f, 3.51453163e-02f, 2.47489642e-02f, 1.80527079e-03f,
    -2.67516412e-02f, -2.51993127e-02f, -4.09781933e-02f, -6.76320717e-02f, 4.75786114e-03f, 3.48935425e-02f, 1.52277770e-02f, -5.34520820e-02f,
    4.90634143e-02f, -4.91504595e-02f, 1.36782145e-02f, -6.51271567e-02f, -2.63247881e-02f, -1.99698862e-02f, 1.34603027e-02f, -2.62370566e-03f,
    1.25428056e-03f, 4.02954221e-02f, 1.70982089e-02f, 3.36362571e-02f, -1.79802720e-02f, 3.32501978e-02f, -3.65995690e-02f, 2.44957414e-02f,
    1.62408520e-02f, -1.90822557e-02f, 3.53721082e-02f, -2.15707347e-02f, 1.47846900e-03f, -1.03050238e-02f, 4.81511950e-02f, 9.96898115e-03f,
    4.90177944e-02f, 4.34337780e-02f, 7.94213116e-02f, 5.47081046e-02f, -4.33177501e-02f, 3.56906876e-02f, 7.33667836e-02f, -7.23263174e-02f,
    -1.17377438e-01f, -5.34997731e-02f, -1.13994852e-01f, -5.57198077e-02f, 1.21486694e-01f, -3.15340646e-02f, -9.44388807e-02f, -7.81339481e-02f,
    -1.00221068e-01f, -6.30308166e-02f, -3.43831740e-02f, -5.91463558e-02f, -3.68874110e-02f, 4.41461280e-02f, 4.74799192e-03f, -3.69967781e-02f,
    -1.24129308e-02f, -9.68251750e-02f, 4.09369692e-02f, 2.02802084e-02f, 3.93665284e-02f, -2.22895388e-02f, 8.50571096e-02f, 6.82558715e-02f,
    -2.00651903e-02f, 5.38340174e-02f, 9.60682333e-02f, 2.03138683e-02f, -2.67212465e-03f, 1.40167758e-01f, -9.92888808e-02f, -6.11163899e-02f,
    1.76457301e-01f, 1.55039306e-03f, -1.89490672e-02f, 1.20414652e-01f, 1.38600189e-02f, 1.71780828e-02f, -3.92101184e-02f, -5.99194616e-02f,
    2.39950325e-02f, 1.41284550e-02f, 3.84750357e-03f, 3.82715315e-02f, 1.37272039e-02f, -1.95604682e-01f, -1.45517707e-01f, -9.58354846e-02f,
    5.99465035e-02f, 2.18376696e-01f, 7.26516247e-02f, -4.90121208e-02f, -1.13737933e-01f, -7.86585361e-02f, 1.39226109e-01f, 3.57178673e-02f,
    4.52519469e-02f, 1.03145503e-01f, -1.61999837e-01f, 4.50588502e-02f, -3.77897662e-03f, -1.42975599e-02f, 5.58625869e-02f, -2.85374708e-02f,
    -2.54585240e-02f, -3.01751867e-02f, 1.85470115e-02f, 1.02793965e-02f, -2.02954859e-02f, -9.01815761e-03f, 1.71168726e-02f, 1.69079266e-02f,
    1.52454125e-02f, -6.76733628e-02f, -5.25474884e-02f, -4.89001833e-02f, -8.42157975e-02f, -5.19183427e-02f, 7.90964067e-03f, -3.48342098e-02f,
    -4.21808697e-02f, 1.49436563e-01f, -9.31583997e-03f, 1.02359012e-01f, 4.93410695e-03f, -1.68576434e-01f, -6.00748062e-02f, 1.53468803e-01f,
    3.30925658e-02f, 8.64732936e-02f, -3.82276922e-02f, -8.56893545e-04f, -3.41863111e-02f, 3.36997118e-03f, 1.07854515e-01f, 3.47238295e-02f,
    -3.32366899e-02f, 1.07223606e-02f, -1.34301316e-02f, -4.36345860e-02f, -2.61612497e-02f, -6.41694292e-04f, -1.16357701e-02f, 1.45026967e-02f,
    1.89619418e-02f, -8.37360322e-03f, -1.30290063e-02f, 1.75057945e-03f, 6.20342568e-02f, 2.99461670e-02f, -7.41238100e-03f, 2.20835105e-01f,
    5.10279275e-02f, -1.37999222e-01f, 3.94023806e-02f, -8.85340050e-02f, -1.06838964e-01f, 3.13491523e-02f, 2.08726898e-02f, -4.46550138e-02f,
    1.43322265e-02f, -7.54202679e-02f, -3.44467610e-02f, -3.27992924e-02f, 3.36728729e-02f, -4.44353335e-02f, -1.40720636e-01f, -6.67583719e-02f,
    -5.22569343e-02f, 2.17649657e-02f, -2.31385627e-03f, 8.35020691e-02f, 1.92028750e-02f, -9.92425601e-04f, -2.76699867e-02f, 2.61390898e-02f,
    -4.71978122e-03f, 8.67590159e-02f, 5.51250577e-02f, -2.28676070e-02f, 5.73760495e-02f, 7.81408921e-02f, -1.15154264e-02f, 5.63187562e-02f,
    -1.65770296e-02f, -2.30901968e-02f, -4.19268273e-02f, -2.68928353e-02f, 1.20212331e-01f, -1.05530471e-02f, -2.79963901e-03f, -2.32819398e-03f,
    -3.50994035e-03f, -3.00397142e-03f, 2.29158308e-02f, 3.53636816e-02f, -6.88463356e-03f, -1.78589031e-01f, 2.63732206e-02f, 3.26251052e-02f,
    -6.89684600e-02f, -1.20007312e-02f, 5.83743826e-02f, -1.57631598e-02f, -6.80289343e-02f, 7.41135627e-02f, -1.59638152e-02f, -5.05507179e-02f,
    6.51709139e-02f, 9.06307474e-02f, -2.54262760e-02f, 3.74958129e-03f, 1.32253513e-01f, 2.32949406e-02f, 4.74161431e-02f, 2.40469560e-01f,
    1.11303918e-01f, 5.64335939e-03f, -2.37573497e-03f, -1.06810397e-02f, -4.37711440e-02f, -7.27240071e-02f, -1.94376111e-02f, 4.47740480e-02f,
    3.15273404e-02f, -2.23242696e-02f, 4.25653458e-02f, 3.56834196e-02f, -2.90764583e-04f, -5.48183098e-02f, 7.97511265e-02f, -1.05722181e-01f,
    9.78949517e-02f, 2.44924054e-01f, -1.60220385e-01f, -3.22103016e-02f, 3.54430592e-03f, -2.43740901e-03f, -1.88611690e-02f, -3.94712724e-02f,
    -6.84516877e-02f, -2.20247023e-02f, 7.16424212e-02f, -6.31263033e-02f, -3.07341646e-02f, 4.12188098e-02f, -1.62282158e-02f, -6.34184033e-02f,
    -1.81669369e-02f, -8.39343667e-03f, -2.77099255e-02f, 3.07828113e-02f, -1.80874660e-03f, 3.48093826e-03f, 5.58899008e-02f, -2.22106688e-02f,
    2.02570998e-04f, -8.31240043e-02f, -1.85042433e-02f, 4.42968421e-02f, 7.58339465e-02f, -5.86497225e-02f, 5.02521060e-02f, 5.79285584e-02f,
    -1.36290872e-02f, -1.20162982e-02f, 6.37283102e-02f, -1.27773145e-02f, -3.95692606e-03f, -3.70254070e-02f, -3.84187549e-02f, 1.32337147e-02f,
    -9.29309428e-03f, 1.48989540e-02f, -4.99789156e-02f, 2.54016239e-02f, -2.93729752e-02f, 2.42225267e-02f, 6.22116141e-02f, 3.82652022e-02f,
    2.35362881e-04f, 1.54404284e-03f, 1.87674481e-02f, 7.68906949e-03f, -3.72403041e-02f, -4.65394258e-02f, -1.34375077e-02f, -6.39566109e-02f,
    -6.86218962e-02f, 6.02713525e-02f, -2.57322360e-02f, 2.19383463e-02f, -1.31518707e-01f, -9.73998159e-02f, -8.13563764e-02f, -5.48771285e-02f,
    -7.36570135e-02f, -5.48414104e-02f, -6.45987019e-02f, -3.82417515e-02f, -7.38644525e-02f, -8.32315087e-02f, -1.72206715e-01f, -1.36535302e-01f,
    -2.44916249e-02f, 1.88489959e-01f, 5.90289980e-02f, -2.46263924e-03f, 2.10163444e-02f, -6.10907152e-02f, 9.88323912e-02f, 3.43245924e-01f,
    1.78304136e-01f, -9.55967233e-02f, -1.40593871e-01f, 9.29382741e-02f, -2.62269359e-02f, -4.95542251e-02f, -2.80127581e-02f, -2.78016683e-02f,
    1.49511350e-02f, -3.28030363e-02f, -7.09470361e-02f, 1.13203734e-01f, 1.23423943e-02f, 1.97374038e-02f, -2.49203593e-02f, -1.08152991e-02f,
    3.77484374e-02f, 4.47532907e-02f, 3.87540273e-02f, 7.51747191e-02f, 6.79484382e-02f, 2.40657516e-02f, -8.64445120e-02f, -6.61106855e-02f,
    1.50358947e-02f, -2.02222262e-03f, -1.07696478e-03f, 5.43305576e-02f, 7.88288638e-02f, -4.46677916e-02f, -8.29684883e-02f, 3.08185685e-02f,
    -5.06944694e-02f, -4.36145328e-02f, 5.28921634e-02f, 5.25060110e-03f, 1.91821181e-03f, -6.89924210e-02f, 7.71171274e-03f, 4.05713469e-02f,
    -1.63978385e-03f, 6.80278149e-03f, 1.25520991e-03f, 6.01117499e-02f, 8.42012912e-02f, 9.55948513e-03f, 1.46631584e-01f, 6.74424618e-02f,
    -8.81130323e-02f, 6.47481531e-02f, -3.22515182e-02f, -2.85573397e-02f, -2.15173140e-03f, 3.03482395e-02f, 1.51578281e-02f, -3.18016894e-02f,
    -2.88900780e-03f, -1.16360541e-02f, -3.44627909e-02f, 1.92224290e-02f, 3.46715339e-02f, -1.38507327e-02f, 2.69879010e-02f, -5.33811823e-02f,
    2.17353612e-01f, -2.66255349e-01f, -1.24893814e-01f, -1.08474335e-02f, -1.01773940e-01f, -5.75192599e-03f, -1.05802491e-02f, -1.98191740e-02f,
    5.88182453e-03f, -1.08660020e-01f, -5.00723906e-02f, 1.11018404e-01f, -4.25599515e-02f, 1.13979220e-01f, 6.50432408e-02f, 6.15873262e-02f,
    3.95114869e-02f, -3.91443446e-03f, -2.22448613e-02f, -8.15213993e-02f, -1.79724246e-02f, -2.22032554e-02f, -1.32696396e-02f, 4.33206446e-02f,
    1.25605762e-02f, -1.14004891e-02f, 1.78053733e-02f, -6.49631768e-02f, -1.11180660e-03f, 1.12432446e-02f, -3.02194133e-02f, 5.97320162e-02f,
    2.14267764e-02f, -1.67058967e-02f, -6.22901544e-02f, -8.17005038e-02f, 3.38092893e-02f, 3.08882929e-02f, 6.34345878e-03f, 9.25856456e-03f,
    1.01951249e-01f, -1.56117203e-02f, 6.70481753e-03f, -2.04804987e-02f, -2.22834405e-02f, -9.08598229e-02f, 1.37767047e-01f, 2.14258824e-02f,
    -7.01792091e-02f, -2.08626483e-02f, -8.93000141e-03f, -2.91820932e-02f, -1.08609265e-02f, 2.40691714e-02f, -3.89844440e-02f, 2.97315996e-02f,
    5.02468385e-02f, -1.19687989e-02f, -6.08362781e-04f, -8.13871715e-03f, -4.47026454e-02f, -3.92214507e-02f, 2.39733495e-02f, -7.67290592e-02f,
    -1.70887411e-01f, 1.69171572e-01f, 8.82719904e-02f, 4.03053463e-02f, 1.46723419e-01f, -1.97853029e-01f, -2.19339564e-01f, -2.19491795e-02f,
    -1.40627474e-01f, 2.45455816e-01f, 7.37844780e-02f, 2.18662433e-02f, 1.80037498e-01f, -4.94485674e-03f, 2.00076345e-02f, 2.28828073e-01f,
    -1.86565183e-02f, -1.23858877e-01f, -2.10230201e-02f, -2.96306703e-02f, -7.44665414e-02f, -7.63394088e-02f, 7.03864265e-03f, 8.66488367e-02f,
    -1.25343939e-02f, 7.37904608e-02f, 1.29931286e-01f, -2.31061369e-01f, -1.26840807e-02f, 8.88362303e-02f, -2.93728635e-02f, 3.74951847e-02f,
    -9.85201299e-02f, -3.43157291e-01f, -6.97316155e-02f, 9.85150784e-02f, 1.54942239e-03f, 8.40808600e-02f, 8.90967324e-02f, 1.99009940e-01f,
    4.47280556e-02f, -1.17913030e-01f, -3.85170013e-01f, -7.26616904e-02f, -1.95796806e-02f, 3.44015479e-01f, 1.22805787e-02f, 5.64706288e-02f,
    2.55151056e-02f, -5.13397565e-04f, 2.54608002e-02f, -1.02105953e-01f, -1.30003169e-02f, -3.31904590e-02f, 5.95747568e-02f, -1.56271625e-02f,
    -1.76843461e-02f, 2.14965120e-02f, 4.71644141e-02f, 2.41854358e-02f, 1.35330930e-01f, 2.72180829e-02f, -8.40331018e-02f, 2.39802990e-02f,
    -2.57177297e-02f, -9.18240622e-02f, -4.43369895e-02f, -7.11563453e-02f, -3.25294561e-03f, 2.15026494e-02f, 1.48981321e-03f, 4.79372265e-03f,
    1.86891784e-03f, -1.47154378e-02f, 1.11148776e-02f, 1.61973257e-02f, -6.28882460e-03f, -9.87507589e-03f, -6.01816084e-03f, 2.94745695e-02f,
    5.43712564e-02f, 3.32698412e-02f, -2.35715844e-02f, 1.20805549e-02f, -2.88970694e-02f, 4.67686402e-03f, 2.12397486e-01f, 3.18951815e-01f,
    1.23244897e-01f, -3.11978888e-02f, -2.35799193e-01f, -9.28138867e-02f, -6.83334991e-02f, -1.92898378e-01f, -7.66150206e-02f, -1.11435279e-02f,
    1.12329153e-02f, 2.73208920e-04f, -2.53414866e-02f, -9.08107311e-03f, 1.33605301e-02f, -4.08804826e-02f, 1.59502886e-02f, 1.14060491e-02f,
    -1.94263533e-01f, -1.04502894e-01f, -1.20261602e-01f, 1.10281212e-02f, -1.07378187e-03f, 3.31079178e-02f, 6.20390736e-02f, 8.86408463e-02f,
    8.23593661e-02f, 1.03615746e-01f, 3.59345913e-01f, 1.53281763e-01f, -1.29190639e-01f, -2.05284044e-01f, -1.19219206e-01f, -3.41792554e-02f,
    -6.27473444e-02f, -1.43218441e-02f, 5.15380092e-02f, 1.88423786e-02f, -3.61746624e-02f, 9.25418660e-02f, 8.82040150e-03f, -1.07378423e-01f,
    -3.21260989e-02f, -1.82261225e-02f, 1.14852518e-01f, 1.43155307e-02f, -8.02000519e-03f, -8.26045498e-03f, -1.79690830e-02f, 1.25427740e-02f,
    -3.30837863e-03f, -3.51117402e-02f, 1.72804482e-02f, -2.57780235e-02f, -4.51449044e-02f, -8.04121420e-02f, -8.48436430e-02f, -6.03806553e-03f,
    5.68197034e-02f, -2.79353969e-02f, 1.94400605e-02f, 1.54653296e-01f, 6.43185945e-03f, -1.57921333e-02f, 5.47051150e-03f, 1.28332555e-04f,
    -2.37094406e-02f, 4.76701036e-02f, -5.47792241e-02f, 3.64712328e-02f, 2.08678935e-02f, -1.85616373e-03f, 1.01771997e-02f, -5.10979583e-03f,
    1.28589701e-02f, 3.76012698e-02f, 2.43308395e-02f, 8.06073546e-02f, -2.14097369e-02f, -1.14612337e-02f, 2.14170404e-02f, 5.33905905e-03f,
    9.33131725e-02f, 1.94930241e-01f, -1.35616466e-01f, -8.79104808e-02f, 8.40576291e-02f, 9.78806615e-02f, -7.33541250e-02f, -3.57326157e-02f,
    -8.16982705e-03f, 1.88859716e-01f, 3.79636697e-02f, -1.29712131e-02f, 9.52591673e-02f, 5.57904057e-02f, -7.87959173e-02f, -1.45080090e-01f,
    -1.03992641e-01f, 5.80507554e-02f, 1.00442439e-01f, 1.76051650e-02f, -7.76369497e-02f, -1.04641253e-02f, 3.19464169e-02f, -2.43132301e-02f,
    -1.45361885e-01f, -2.73990026e-03f, 1.53234508e-03f, 1.18455738e-01f, -1.46828843e-02f, 2.15551141e-03f, -2.34138891e-02f, 1.69378053e-02f,
    1.40918186e-03f, -2.92612258e-02f, -4.53067431e-03f, 2.14460995e-02f, 1.03730401e-02f, 4.94075455e-02f, -5.29813506e-02f, -4.29049022e-02f,
    9.86763183e-03f, -4.38385718e-02f, -8.34695343e-03f, -5.25543140e-03f, 2.08446756e-02f, -7.37437885e-03f, -5.42130787e-03f, 2.32181861e-04f,
    3.27388942e-02f, 3.16133015e-02f, -3.54417711e-02f, -1.75369158e-02f, -1.87655594e-02f, 2.20645070e-02f, -5.78327850e-02f, -1.24850884e-01f,
    5.90470321e-02f, 8.76096711e-02f, -1.19212484e-02f, 1.05669433e-02f, 1.88066009e-02f, 3.01478114e-02f, 3.21682952e-02f, 3.52562889e-02f,
    6.05079532e-02f, -5.19132502e-02f, -2.42788251e-02f, 1.46905845e-02f, -8.97151418e-03f, 2.95832232e-02f, -2.83998961e-04f, 2.69670039e-02f,
    -1.62021313e-02f, -2.23921165e-02f, -1.11470353e-02f, 2.46337689e-02f, -1.43661126e-02f, -8.80080368e-03f, 1.92070678e-02f, 8.13679118e-03f,
    3.47176567e-02f, -6.78165555e-02f, 2.39665108e-03f, -6.03393978e-03f, -8.45823810e-02f, -3.04376464e-02f, 2.38944329e-02f, 7.05132112e-02f,
    5.44977896e-02f, -5.40058501e-02f, -3.30124609e-02f, -1.33645654e-01f, 6.19903244e-02f, -3.54091190e-02f, -9.15607437e-02f, 1.17794767e-01f,
    1.72681570e-01f, 7.51818866e-02f, 5.83637878e-03f, 3.71505946e-01f, 2.38290057e-01f, -1.45346493e-01f, -1.51049510e-01f, 1.92660749e-01f,
    -2.25853577e-01f, -2.51792252e-01f, 1.36334766e-02f, 2.32412592e-02f, 2.74136476e-02f, -2.72757392e-02f, -1.11053735e-02f, 1.28268730e-02f,
    3.72567251e-02f, -2.16752943e-02f, -1.84113644e-02f, -4.16734740e-02f, -3.32856514e-02f, 5.04831448e-02f, 8.20145532e-02f, -2.75087804e-02f,
    7.00266734e-02f, 8.77924860e-02f, -7.38533586e-02f, -6.78028017e-02f, -6.11653924e-02f, -2.48920768e-02f, -1.14021087e-02f, -6.20508865e-02f,
    7.18344003e-02f, 5.22724912e-02f, -3.41466926e-02f, -1.56549681e-02f, -1.37464302e-02f, -5.80134755e-03f, -2.23564189e-02f, -4.68386821e-02f,
    -5.79971708e-02f, 2.25959234e-02f, 7.26674572e-02f, -8.65586624e-02f, 2.40641162e-02f, 7.33705014e-02f, -2.21843924e-02f, -6.51410669e-02f,
    -2.14991987e-01f, -6.46036118e-02f, 7.84419477e-02f, 1.12517111e-01f, -1.10827953e-01f, 4.15964872e-02f, 1.60768345e-01f, -4.17306535e-02f,
    -1.50891989e-01f, -1.40521377e-01f, -4.79110703e-02f, -2.99292356e-02f, -8.40203650e-03f, 6.54412881e-02f, -3.43358777e-02f, -5.67882322e-02f,
    1.77482367e-02f, 3.92281897e-02f, 8.44261516e-03f, -2.21169554e-02f, 3.99344303e-02f, -6.89241439e-02f, -3.23451944e-02f, 6.74929321e-02f,
    8.21228176e-02f, 8.22889805e-02f, 3.92649025e-02f, -3.20659461e-03f, 1.36804965e-03f, 6.43292069e-02f, -3.77205312e-02f, -3.97463776e-02f,
    3.68194468e-02f, 1.14611769e-02f, -1.86669792e-03f, 8.54985416e-03f, -3.42878737e-02f, -1.38801448e-02f, -3.43851373e-02f, -7.74096102e-02f,
    -2.44783163e-02f, 5.73569201e-02f, 5.63505553e-02f, 4.50874381e-02f, -4.54881694e-03f, -2.77375267e-03f, 8.13821629e-02f, -2.66435165e-02f,
    -5.43702357e-02f, 2.32509766e-02f, -2.38787159e-02f, -5.91993844e-03f, 3.02344505e-02f, 2.04526875e-02f, -1.63923036e-02f, 1.42839253e-02f,
    -5.57576343e-02f, -3.69081572e-02f, 1.31187234e-02f, 1.09867658e-02f, 1.85654201e-02f, 7.99715295e-02f, -9.73118693e-02f, -1.09961040e-01f,
    -5.00055067e-02f, -1.12669364e-01f, -2.65307520e-02f, -5.77658638e-02f, -6.80342466e-02f, -7.07300752e-02f, -7.78403133e-02f, 4.91383597e-02f,
    2.21206453e-02f, 5.18489331e-02f, -1.30212039e-03f, -1.06410816e-01f, -1.71224736e-02f, -6.71677897e-03f, 2.12171022e-02f, 3.86588573e-02f,
    2.03201100e-02f, 2.13820189e-02f, -1.07702371e-02f, -7.09651336e-02f, 9.44769755e-03f, 8.00809115e-02f, 4.42319661e-02f, 8.67459998e-02f,
    1.27370298e-01f, 1.00015201e-01f, 6.95027933e-02f, 8.31891783e-03f, 6.11542258e-03f, -5.33869937e-02f, -9.94982198e-02f, 1.63292289e-02f,
    6.33541271e-02f, 1.76574744e-03f, 1.88459735e-02f, -4.70698327e-02f, 3.05934865e-02f, 5.34369387e-02f, -8.06823522e-02f, 2.95828078e-02f,
    -7.32125267e-02f, 4.31023911e-02f, 7.89840445e-02f, -7.45629007e-03f, 3.50747257e-04f, 4.74527255e-02f, -3.53476927e-02f, -7.40058497e-02f,
    -1.42148305e-02f, -3.69893909e-02f, 2.90311337e-03f, -7.91421812e-03f, -9.19945724e-03f, -1.72952395e-02f, -8.36910680e-03f, 6.08972311e-02f,
    1.92984920e-02f, -3.70978042e-02f, -7.57149328e-03f, -6.21023588e-02f, -5.69922477e-02f, -3.24571058e-02f, 2.09262390e-02f, -4.80066016e-02f,
    -5.43797985e-02f, -1.32807404e-01f, -1.06709227e-01f, -2.58470159e-02f, 1.41923390e-02f, -3.70485783e-02f, -4.34961170e-02f, -5.63744232e-02f,
    1.74247529e-02f, 4.46165120e-03f, 3.52583155e-02f, 3.72219644e-02f, 5.45145981e-02f, 3.73595841e-02f, 5.96069060e-02f, -1.04360981e-02f,
    7.97138661e-02f, -6.29411191e-02f, -6.33322168e-03f, 8.98892805e-02f, 9.75300297e-02f, 5.28231412e-02f, 5.11863194e-02f, 1.05745215e-02f,
    5.79393432e-02f, 8.76054913e-03f, -8.03631246e-02f, 3.18169951e-01f, -6.20936714e-02f, -2.76091754e-01f, 7.48465434e-02f, -3.71192917e-02f,
    -2.11172402e-01f, -8.08409601e-02f, -5.80580942e-02f, 1.46061089e-02f, -2.19022468e-01f, -4.25153086e-03f, 2.11547986e-01f, 1.98062435e-02f,
    4.13804501e-02f, -1.36822434e-02f, -3.44546251e-02f, -3.80651164e-03f, 1.01632774e-02f, -1.08493119e-01f, -9.54184607e-02f, 1.29393429e-01f,
    4.33948357e-03f, -2.68494920e-03f, 2.79188007e-02f, -1.48193780e-02f, -7.70547017e-02f, 4.10719998e-02f, -4.13782522e-02f, -3.04180346e-02f,
    6.52285665e-02f, -1.77306328e-02f, -1.65628288e-02f, 4.80046347e-02f, -2.16825325e-02f, 1.82350143e-03f, 2.91493367e-02f, 1.39795411e-02f,
    2.80995630e-02f, -2.24383408e-03f, 7.74580706e-03f, -2.11324752e-03f, -1.40674282e-02f, -9.40346811e-03f, 3.69184390e-02f, -2.47663688e-02f,
    8.89662374e-03f, 7.74358679e-03f, -3.54809985e-02f, 4.67217974e-02f, -3.21751498e-02f, -2.40320601e-02f, 1.59146711e-01f, -7.18624424e-03f,
    -1.07724898e-01f, 3.01977664e-01f, -1.18791297e-01f, -1.98455542e-01f, 1.28647741e-02f, -7.85128176e-02f, -5.87063394e-02f, -1.05970986e-02f,
    1.96185075e-02f, 9.90774110e-03f, 1.67796277e-02f, 3.05371117e-02f, -1.42130181e-02f, 2.89865333e-04f, -4.92486879e-02f, -1.59235280e-02f,
    1.76147632e-02f, -4.20203842e-02f, 4.99807624e-03f, 2.56900173e-02f, -9.68953148e-02f, 1.03045339e-02f, -2.78336350e-02f, -5.81675172e-02f,
    1.90187637e-02f, -1.12968259e-01f, -6.51786709e-03f, 1.46758392e-01f, -3.64448607e-01f, -1.07099533e-01f, 4.53001142e-01f, -1.68288752e-01f,
    2.28687618e-02f, 1.49531037e-01f, -1.31248320e-02f, 7.82031640e-02f, -1.36128468e-02f, 1.81394950e-01f, 4.39339019e-02f, -1.24933183e-01f,
    1.00578547e-01f, -8.83848965e-02f, -3.49203125e-02f, -3.47527824e-02f, -4.00423966e-02f, 1.42525602e-02f, 5.56341652e-03f, -7.59396469e-03f,
    6.61012232e-02f, -2.44831033e-02f, 6.07724721e-03f, -4.65759216e-03f, 2.31131576e-02f, -6.28204867e-02f, 2.35027559e-02f, -4.99436744e-02f,
    4.77219112e-02f, 1.05352275e-01f, -4.25414741e-02f, -2.83925161e-02f, 3.74698751e-02f, 4.66823280e-02f, -2.93992605e-04f, -4.10265569e-03f,
    2.62610093e-02f, -2.92665674e-03f, -5.65203419e-03f, 5.08468412e-02f, -4.48042378e-02f, 2.17489954e-02f, -2.90250573e-02f, -5.11313714e-02f,
    2.03260574e-02f, 8.05623978e-02f, -9.74861998e-03f, -3.98149118e-02f, 6.05131611e-02f, 5.64629503e-04f, -4.37951200e-02f, -6.94813505e-02f,
    -7.28341788e-02f, 5.31501137e-02f, -2.93792859e-02f, 8.84134546e-02f, 9.25284997e-02f, 4.06064540e-02f, 1.31195173e-01f, 3.06410193e-02f,
    -4.06235307e-02f, -3.77207287e-02f, 2.16768894e-04f, -3.28470394e-02f, 2.09951196e-02f, 5.01440614e-02f, 2.23736707e-02f, 1.95948314e-02f,
    3.74729410e-02f, -2.65125856e-02f, -4.33504321e-02f, -2.45578457e-02f, -1.56479497e-02f, -9.08853859e-02f, -4.73255999e-02f, 3.29001881e-02f,
    -1.93714648e-02f, 3.62130888e-02f, 3.69323157e-02f, 1.14171067e-02f, -4.49042991e-02f, 7.12000653e-02f, 4.75641526e-02f, -6.07538410e-02f,
    8.82908353e-04f, -3.32774892e-02f, -7.45825469e-02f, -9.03603509e-02f, -1.26880810e-01f, -1.53650954e-01f, -9.28038452e-03f, 3.24706696e-02f,
    -7.15533271e-02f, -1.84776597e-02f, 4.12640534e-02f, -3.91816385e-02f, -7.65990280e-03f, -4.66523319e-02f, -6.15007840e-02f, 2.24167425e-02f,
    -4.60573249e-02f, -4.27498929e-02f, 4.31626737e-02f, 1.68182850e-02f, -2.30649207e-03f, -2.67894249e-02f, 1.05539579e-02f, 4.17497195e-03f,
    -5.73119782e-02f, 1.68002471e-02f, 2.93725058e-02f, -4.55484279e-02f, 4.16388176e-02f, 4.78873178e-02f, 1.53916823e-02f, 8.94312933e-02f,
    -1.90247241e-02f, 4.35404368e-02f, 3.71254444e-01f, 6.27452135e-02f, -4.14987318e-02f, 2.21260060e-02f, -3.58705036e-02f, -1.10457446e-02f,
    -3.29595618e-02f, -1.97045133e-02f, 1.41730364e-02f, -1.77591052e-02f, -2.62135686e-03f, 4.31297459e-02f, 6.75406381e-02f, 2.74405181e-02f,
    4.09665257e-02f, 6.87902942e-02f, 6.22531697e-02f, -2.66036652e-02f, 4.31842059e-02f, 1.13476008e-01f, 4.31129709e-03f, 1.49481697e-02f,
    8.36694613e-02f, -3.27173136e-02f, 2.57939231e-02f, 6.16052048e-03f, -2.58643366e-02f, 9.12292153e-02f, 2.31401324e-02f, -4.10570949e-02f,
    -1.53289307e-02f, 3.11979139e-03f, 1.47885771e-03f, -2.22958680e-02f, -5.54483198e-02f, -3.53610590e-02f, -4.99137975e-02f, -2.40391232e-02f,
    2.38705450e-03f, -3.73762014e-04f, -3.43336575e-02f, -4.96698059e-02f, -1.75387952e-02f, -3.60228457e-02f, 2.16958728e-02f, 9.83086228e-02f,
    5.32815084e-02f, -1.28254490e-02f, -3.49931279e-03f, 7.83801172e-03f, -8.91589597e-02f, -1.73016846e-01f, -1.60291359e-01f, -4.48512435e-02f,
    -1.57897621e-01f, -1.51963562e-01f, -1.14147831e-02f, -7.86446482e-02f, -6.54251203e-02f, 2.91182823e-03f, 1.57398451e-02f, -3.61154974e-02f,
    2.95813736e-02f, 2.36286893e-02f, -1.57435483e-03f, 2.20809299e-02f, 3.27993445e-02f, -1.43452385e-03f, 4.24555428e-02f, 8.26912224e-02f,
    7.38082230e-02f, 4.46349122e-02f, -2.05363538e-02f, -5.74476272e-02f, 8.15823078e-02f, 1.61388014e-02f, -1.79298855e-02f, -2.29391940e-02f,
    -5.33163249e-02f, -1.37092704e-02f, -3.93370306e-03f, 6.17712177e-03f, -6.43865615e-02f, -3.45737971e-02f, 1.64551437e-02f, -1.88258104e-02f,
    -2.40950316e-01f, -3.07430252e-02f, -1.82218060e-01f, -8.91943648e-02f, 5.77315986e-01f, -1.37898147e-01f, -2.06555590e-01f, 5.23350686e-02f,
    -2.63361543e-01f, -3.41060339e-03f, 6.06330223e-02f, 2.66937893e-02f, -1.06183082e-01f, 7.45377615e-02f, -1.40711457e-01f, 3.61152701e-02f,
    -3.46881896e-02f, -3.03867701e-02f, -6.48907572e-02f, -5.62749133e-02f, 1.19801469e-01f, -1.30810216e-01f, 6.29462749e-02f, 1.30663991e-01f,
    -6.90586567e-02f, 1.58123195e-03f, 7.51040801e-02f, -1.48682930e-02f, -4.74925935e-02f, 7.63991475e-02f, -2.21637767e-02f, -1.08313069e-01f,
    1.22535959e-01f, -3.22615616e-02f, -1.01205431e-01f, 7.40301907e-02f, -1.16361007e-02f, 1.14689162e-02f, 2.68777623e-03f, 1.72360484e-02f,
    -4.90901098e-02f, 7.15825334e-02f, -2.85999067e-02f, -3.87007222e-02f, 4.12978604e-03f, -7.57794827e-02f, 6.93619773e-02f, -3.75445001e-02f,
    -3.79967056e-02f, 1.81262925e-01f, -1.34003028e-01f, -2.49288548e-02f, 3.17574702e-02f, -8.83504301e-02f, -4.74218167e-02f, 2.44844127e-02f,
    -4.98812944e-02f, 1.78779870e-01f, -3.04672241e-01f, 1.10040896e-01f, -1.56569164e-02f, 2.21962947e-02f, -1.35718687e-02f, -1.10889105e-02f,
    1.64304469e-02f, 1.11059630e-02f, 1.48964096e-02f, -3.37983817e-02f, 5.06350920e-02f, 2.13041492e-02f, -5.57555875e-04f, 1.95615459e-02f,
    2.11960562e-02f, -3.68490964e-02f, 1.74549141e-03f, 1.22315682e-01f, -1.69633657e-01f, 4.14667977e-03f, 8.79973099e-02f, -2.08843630e-02f,
    -5.33584580e-02f, 7.47092590e-02f, -1.75134376e-01f, 1.08783923e-01f, 7.55200163e-02f, -3.93945009e-01f, 1.62707537e-01f, 6.20341413e-02f,
    -1.79445148e-01f, 1.01146385e-01f, -1.61670707e-02f, 4.71016057e-02f, 1.50061980e-01f, -9.16402973e-03f, 1.32147014e-01f, 7.10098520e-02f,
    9.31880921e-02f, 3.03562414e-02f, -3.01030353e-02f, -1.92900356e-02f, 3.74446809e-02f, 9.93695576e-03f, 3.73166688e-02f, -3.91503200e-02f,
    4.67511825e-02f, -2.04267502e-02f, 1.43294986e-02f, 5.70367789e-03f, -3.44520882e-02f, 4.27947938e-02f, 2.92774383e-02f, -1.51702221e-02f,
    -5.98972198e-03f, -2.89743934e-02f, -9.38601559e-04f, -3.89735005e-03f, -2.53128409e-02f, 1.72958896e-02f, -1.83241609e-02f, -3.41787338e-02f,
    -3.54097709e-02f, 5.10394424e-02f, -7.36747384e-02f, -2.06528883e-02f, -2.71533430e-02f, -5.57034090e-02f, -3.46649475e-02f, 3.42718810e-02f,
    -5.33061214e-02f, -1.58895925e-02f, 7.19827041e-02f, -1.82108488e-02f, -1.91572122e-02f, -2.33559724e-04f, -3.90140489e-02f, 1.18753456e-01f,
    4.49636802e-02f, -4.37290184e-02f, 1.40706643e-01f, 3.86158377e-02f, 6.54466972e-02f, 2.77796928e-02f, 1.16133511e-01f, 1.72576949e-01f,
    -1.90274678e-02f, 7.00267777e-02f, 7.75044365e-03f, -9.76959476e-04f, -1.46318953e-02f, -1.32549610e-02f, -9.18052122e-02f, -2.51955278e-02f,
    -2.43484210e-02f, -2.55418383e-02f, -3.72606628e-02f, -2.41427030e-02f, -7.61381835e-02f, 3.30873840e-02f, 1.43957082e-02f, -3.20714936e-02f,
    -6.58780290e-03f, -3.23380902e-02f, 2.73504537e-02f, -2.14394126e-02f, 1.04490973e-01f, 1.13893310e-02f, -1.48846239e-01f, 5.85627567e-04f,
    2.11877655e-02f, -2.30709240e-02f, -1.41658764e-02f, 1.45670936e-01f, -8.99089384e-04f, -1.35041391e-02f, 2.72820771e-01f, -5.75337447e-02f,
    -6.75035045e-02f, 1.47919402e-01f, -1.12429736e-02f, -4.30151671e-02f, 8.41704663e-03f, -1.46621335e-02f, 1.52742025e-04f, 8.57402980e-02f,
    4.22195159e-03f, -5.52095361e-02f, -2.78806221e-03f, 1.63496733e-02f, -3.52402101e-04f, -3.90010178e-02f, -9.46355686e-02f, 2.39127763e-02f,
    -6.19964302e-02f, -3.75794202e-01f, 2.16087773e-01f, -5.58358543e-02f, -3.25040938e-03f, 3.57247628e-02f, -7.80317038e-02f, 1.17180897e-02f,
    6.98220730e-02f, 2.85121053e-02f, -1.32480143e-02f, 3.79277840e-02f, -5.16722202e-02f, -2.98268883e-03f, 5.02326749e-02f, 4.11800966e-02f,
    1.71131119e-02f, -2.29238048e-02f, 1.11678705e-01f, 1.91518739e-02f, -5.67425527e-02f, 8.49659592e-02f, 1.73899569e-02f, -3.37407701e-02f,
    -1.83052348e-03f, -1.79839805e-02f, 4.80813645e-02f, 1.59200191e-01f, -4.92763892e-02f, -1.00937873e-01f, 7.65534490e-02f, 3.47264595e-02f,
    -2.19552033e-02f, 5.05834259e-02f, -5.89258075e-02f, -4.81136777e-02f, 6.69510067e-02f, -7.28697404e-02f, -4.22342755e-02f, 8.18795636e-02f,
    1.89348888e-02f, 7.99621549e-03f, 4.78997529e-02f, -1.42479733e-01f, 1.02592327e-01f, -1.42188564e-01f, -2.52215806e-02f, 1.00433685e-01f,
    -2.87560914e-02f, 1.04429252e-01f, -1.30843613e-02f, 1.82607584e-02f, 7.84570649e-02f, -1.08339489e-02f, 8.56655613e-02f, 5.95284216e-02f,
    1.63864624e-03f, 3.70865129e-02f, 2.97981929e-02f, -2.11352613e-02f, -3.26292925e-02f, 3.50135230e-02f, 8.52660090e-02f, -2.32710570e-01f,
    2.09533349e-01f, 3.08333963e-01f, -9.17836428e-02f, -4.11047116e-02f, 1.82703361e-02f, -2.24195533e-02f, 1.65754735e-01f, 3.36921960e-02f,
    -6.67390553e-03f, 2.78743654e-02f, -6.68805093e-02f, 1.83662511e-02f, -3.15882452e-02f, -5.95058016e-02f, -1.59445349e-02f, -2.80915737e-01f,
    -2.41714418e-01f, 1.88094527e-02f, 2.95790553e-01f, -1.41664013e-01f, -5.25618792e-02f, 3.15639563e-02f, 3.73358168e-02f, -4.66848277e-02f,
    9.48085561e-02f, -7.17375055e-02f, 1.16472004e-03f, -6.22507185e-02f, 1.77670717e-02f, 1.03713581e-02f, -1.05008930e-01f, 1.15999747e-02f,
    -1.06739976e-01f, -2.48410162e-02f, -2.18659397e-02f, -1.15256220e-01f, 7.84247890e-02f, 6.40129969e-02f, -7.82303065e-02f, -2.73614936e-02f,
    -1.26104839e-02f, -8.17098245e-02f, -5.21288738e-02f, 1.03337504e-01f, -2.00241268e-01f, 7.19766840e-02f, 1.29438579e-01f, -1.11239932e-01f,
    -1.41356304e-01f, 1.72132522e-01f, -5.31119257e-02f, -1.05209187e-01f, 1.75292455e-02f, -1.08172849e-01f, -1.08307108e-01f, 2.89787520e-02f,
    -8.44090730e-02f, -9.21848044e-02f, -7.91322161e-03f, -3.41169462e-02f, 8.63127597e-03f, 8.16825703e-02f, 4.62475121e-02f, -5.36022373e-02f,
    -1.43242702e-02f, 2.16873046e-02f, -2.07035579e-02f, -8.09358060e-03f, -3.72804739e-02f, -1.63341500e-02f, 2.80630607e-02f, 2.71837544e-02f,
    -4.82505700e-03f, -6.99890079e-03f, -2.99069583e-02f, 1.29836248e-02f, 1.78903230e-02f, 1.26309181e-02f, -2.54839379e-02f, -1.81445647e-02f,
    3.90996896e-02f, -8.25525820e-02f, -1.17031462e-03f, 5.56873456e-02f, -7.51600042e-02f, -1.69526413e-02f, 8.94016623e-02f, 2.68135890e-02f,
    -6.67933300e-02f, 2.50376791e-01f, -2.20548302e-01f, -9.55714062e-02f, 9.48163569e-02f, 1.25802130e-01f, -9.80371311e-02f, -4.36508805e-02f,
    5.56810433e-03f, 6.64081657e-03f, 2.52040289e-02f, 4.93986756e-02f, -1.56716611e-02f, 1.74265187e-02f, 1.29144210e-02f, -1.09709827e-02f,
    -1.01078905e-01f, 5.79097494e-02f, 1.20373175e-01f, -4.80992906e-03f, 9.72221196e-02f, 1.66474283e-01f, -1.26877293e-01f, 6.86403215e-02f,
    1.19802423e-01f, 2.10484684e-01f, -7.98091944e-03f, -1.60610765e-01f, 3.73731822e-01f, -1.84163600e-01f, -1.93354726e-01f, 1.93346828e-01f,
    2.45614760e-02f, -9.91592035e-02f, -1.33905457e-02f, -8.41341466e-02f, 2.63643940e-03f, -5.56935789e-04f, 4.73427773e-02f, -1.33214267e-02f,
    4.84691784e-02f, 8.23251531e-02f, -8.74902904e-02f, -1.94349121e-02f, 2.45534000e-03f, -6.48027938e-03f, 1.25854507e-01f, -5.12086004e-02f,
    -5.50988466e-02f, 6.38733134e-02f, 2.86334995e-02f, -2.98496038e-02f, -7.52038956e-02f, 1.43954836e-04f, 1.28429264e-01f, -1.39159352e-01f,
    -3.13536562e-02f, 1.71115279e-01f, -1.06421150e-01f, -3.43160145e-02f, 1.24340698e-01f, 2.07483191e-02f, -8.51015374e-02f, -3.12401149e-02f,
    -4.50499356e-02f, 5.12745306e-02f, 2.23342683e-02f, 3.40090096e-02f, -1.02130845e-02f, -3.78406886e-03f, -2.10502837e-02f, 7.05104973e-03f,
    -9.03565064e-02f, -2.96698809e-02f, 2.84286309e-02f, 6.36432916e-02f, -3.00990138e-02f, -2.66124699e-02f, 4.35221195e-03f, 1.74009837e-02f,
    7.31747597e-02f, -4.36089113e-02f, -5.58049269e-02f, 8.14518481e-02f, 1.47725893e-02f, -3.35368477e-02f, -5.28479964e-02f, 2.66052969e-02f,
    -1.00829311e-01f, -8.79808366e-02f, 5.69772832e-02f, -6.62177876e-02f, -5.76579291e-03f, 5.89498356e-02f, -1.18445046e-03f, -5.08109927e-02f,
    -4.04033577e-03f, -1.45112053e-02f, -2.88913809e-02f, 2.44806670e-02f, -1.20388538e-01f, -1.75082520e-01f, -1.04962572e-01f, 9.51723021e-04f,
    -7.87778124e-02f, 1.85156632e-02f, 6.93291575e-02f, 3.37471738e-02f, -2.20497902e-02f, 1.62453189e-01f, 2.22277835e-01f, -3.36152725e-02f,
    8.79903957e-02f, 5.92334270e-02f, -4.49288376e-02f, -4.98325080e-02f, -1.74521264e-02f, 3.06134652e-02f, -1.00859933e-01f, -7.12995678e-02f,
    -3.13239880e-02f, -2.50138436e-02f, 2.17229454e-03f, -1.72572322e-02f, -6.32060925e-03f, 2.17409749e-02f, 1.84851997e-02f, 1.85396709e-03f,
    3.35910381e-03f, 1.18562467e-02f, -2.51372065e-02f, -1.34695899e-02f, 2.04743892e-02f, 5.02896123e-02f, 9.45587549e-03f, -9.59959999e-02f,
    -7.10591599e-02f, 2.07534656e-01f, -1.95999853e-02f, -5.87094910e-02f, 7.98965469e-02f, 7.16961846e-02f, 2.69890483e-02f, -7.74626946e-03f,
    -5.04356110e-03f, 5.44973463e-02f, 2.85078675e-01f, 7.72850215e-02f, -2.48372164e-02f, 3.05829067e-02f, 4.91970815e-02f, 5.82914799e-02f,
    -4.82914504e-03f, -3.33091244e-03f, 3.65482643e-02f, -1.03753395e-01f, -2.29949486e-02f, 2.11642105e-02f, 1.78527478e-02f, 4.15192284e-02f,
    2.63117291e-02f, 1.04791246e-01f, 9.43087488e-02f, -1.01113044e-01f, -2.26788130e-03f, 1.00175984e-01f, -5.11277951e-02f, -9.66451783e-03f,
    6.74439147e-02f, -5.03444821e-02f, -5.85321046e-04f, -6.29445538e-02f, -5.29279113e-02f, 5.31746857e-02f, -3.73852849e-02f, -7.94650242e-03f,
    4.14928049e-02f, 5.03374543e-03f, 8.90335515e-02f, 4.28121090e-02f, 2.18813680e-02f, 8.59293938e-02f, -4.53403173e-03f, 8.49420428e-02f,
    3.54313292e-02f, 8.54397863e-02f, 5.96924685e-02f, 2.05123257e-02f, -1.34688159e-02f, 1.38659375e-02f, -5.78218885e-03f, 3.79616953e-02f,
    1.83547172e-03f, -4.57269922e-02f, -2.16056891e-02f, 3.45081910e-02f, -8.25332943e-03f, -1.50675654e-01f, -8.44297782e-02f, 1.23654850e-01f,
    -1.02670550e-01f, -1.47467881e-01f, 1.48535684e-01f, 1.64915293e-01f, 1.05450816e-01f, 5.80776744e-02f, 1.09123532e-02f, -7.57528469e-02f,
    6.59497902e-02f, -5.17730322e-03f, -1.77236162e-02f, -3.86251435e-02f, 3.12550962e-02f, 1.17780566e-02f, -7.87584856e-02f, -1.15134232e-01f,
    -1.17697746e-01f, -4.95685898e-02f, -1.96498573e-01f, -1.39953971e-01f, -1.00887962e-01f, -1.26352623e-01f, -5.45495227e-02f, -3.20405848e-02f,
    -5.35711972e-03f, 2.21656058e-02f, -1.94732789e-02f, 1.58168003e-02f, -6.18144721e-02f, 2.41880678e-02f, -4.32545990e-02f, -3.63628305e-02f,
    1.47673845e-01f, 1.04387581e-01f, 1.10519119e-01f, -8.66755918e-02f, -1.37779772e-01f, -6.04052581e-02f, 9.75850970e-02f, 1.85317937e-02f,
    6.32750615e-02f, 8.74970183e-02f, 1.35648653e-01f, 5.87271862e-02f, 8.51779357e-02f, -3.62479180e-01f, 1.13275155e-01f, 1.30547315e-01f,
    1.03328072e-01f, 9.00944024e-02f, 2.35059522e-02f, -1.19599879e-01f, -1.28087336e-02f, 3.30881700e-02f, -2.67450750e-01f, -1.40174121e-01f,
    8.40477459e-03f, -6.83484823e-02f, -7.80940382e-03f, 9.23015624e-02f, 9.53768846e-03f, 7.34426454e-02f, 7.84428641e-02f, -7.96772093e-02f,
    -1.93445906e-02f, 1.28694564e-01f, 4.15965840e-02f, 6.11972809e-02f, 1.19134128e-01f, -3.48729417e-02f, 7.23673329e-02f, 1.66409668e-02f,
    -1.52043507e-01f, -3.78156528e-02f, 7.38993660e-02f, -4.36211042e-02f, 5.12279458e-02f, 1.80252045e-01f, 8.21606442e-02f, 1.08367130e-01f,
    -3.19270976e-02f, -3.09322447e-01f, -3.82453874e-02f, 1.23789839e-01f, 9.11542848e-02f, 1.09285511e-01f, -1.66822542e-02f, -2.08994627e-01f,
    6.06173766e-04f, -1.55630380e-01f, 2.76014894e-01f, -1.96065098e-01f, -2.57721897e-02f, -1.80828378e-01f, -1.86957251e-02f, 1.29100308e-01f,
    4.59215418e-02f, 1.07999526e-01f, -6.36267383e-03f, -2.00904787e-01f, -6.23802282e-02f, 5.60982600e-02f, -1.62630696e-02f, -1.75695829e-02f,
    1.63548350e-01f, 3.76763791e-02f, 1.54268920e-01f, -1.54120669e-01f, -2.04251021e-01f, -7.36607462e-02f, 1.18396178e-01f, -1.31854817e-01f,
    7.02926591e-02f, 1.16035379e-01f, -6.31912649e-02f, 7.28728771e-02f, -1.45097161e-02f, -6.70638308e-02f, 5.87300956e-03f, 5.96396960e-02f,
    -4.70071174e-02f, 8.44423100e-02f, 6.51938543e-02f, 1.14675304e-02f, 1.35529235e-01f, -8.90098698e-03f, -3.22536558e-01f, -5.03346361e-02f,
    1.03266478e-01f, -3.89011838e-02f, 4.56124954e-02f, 1.04901388e-01f, 2.12510955e-03f, 8.30716416e-02f, -3.93841229e-02f, -1.34309530e-01f,
    -5.24906069e-02f, 5.98557815e-02f, -9.47363302e-02f, 5.03094383e-02f, 1.74945265e-01f, 9.46174487e-02f, 1.23417184e-01f, 9.08882692e-02f,
    -1.99508160e-01f, -3.16697024e-02f, 1.32166028e-01f, 6.73315898e-02f, 8.03016424e-02f, 1.40358910e-01f, 6.98565366e-03f, 6.48349151e-02f,
    5.45580983e-02f, -2.73305953e-01f, 1.25866095e-02f, 1.12028450e-01f, 5.20470142e-02f, 8.24325383e-02f, 1.08488537e-01f, 7.27511272e-02f,
    8.80118012e-02f, -2.14206781e-02f, -3.22530985e-01f, -5.49232960e-02f, 1.09514624e-01f, 9.96342953e-03f, 7.66427889e-02f, 4.24676947e-02f,
    -5.38076013e-02f, 8.73267185e-03f, -9.43250507e-02f, -2.32153267e-01f, -7.78082311e-02f, 3.48586254e-02f, -6.91928640e-02f, 5.44644110e-02f,
    1.09535567e-02f, -1.14934193e-02f, -2.78481487e-02f, -2.45543011e-02f, 2.66903313e-03f, -5.60525572e-03f, -3.02483514e-02f, -3.61382999e-02f,
    -6.80157393e-02f, 1.75348818e-02f, 6.37945533e-02f, 2.12976299e-02f, -4.88351856e-04f, 4.91399169e-02f, 4.67984490e-02f, -5.44006564e-02f,
    -4.24278155e-02f, 1.39215728e-02f, 2.92724147e-02f, 6.03510849e-02f, 5.68846054e-02f, 4.29690927e-02f, 6.22867234e-02f, 6.38240799e-02f,
    3.66362669e-02f, 3.44492607e-02f, 5.10633690e-03f, 8.59919190e-02f, 2.44203210e-02f, 5.94848096e-02f, 6.01882823e-02f, -2.78798100e-02f,
    1.17135374e-02f, 1.03032529e-01f, 5.83963320e-02f, 5.42040169e-02f, -2.33627513e-01f, -9.32572559e-02f, -1.39636502e-01f, -1.26660541e-01f,
    5.45676827e-01f, -4.92054969e-02f, -2.18821079e-01f, -1.61646768e-01f, -1.58187166e-01f, -2.80336421e-02f, 1.27439378e-02f, -3.69377155e-03f,
    -3.03179249e-02f, -2.10204162e-02f, -5.49324136e-03f, 1.89953241e-02f, 2.49110605e-03f, 3.31615433e-02f, 2.75429450e-02f, -6.03091307e-02f,
    -7.44029507e-03f, -1.96821839e-02f, -9.40456986e-02f, -2.84439307e-02f, 5.94269633e-02f, -2.47005355e-02f, 1.03121279e-02f, 9.91198346e-02f,
    7.31062784e-04f, 5.99447191e-02f, 5.99724576e-02f, -5.58909914e-03f, -8.03207830e-02f, 1.99199822e-02f, -2.93879882e-02f, -4.42549996e-02f,
    5.86341806e-02f, 1.91808883e-02f, 2.25839149e-02f, 1.47271901e-02f, -5.08669429e-02f, -2.35186983e-03f, -3.11013614e-03f, -2.54941825e-03f,
    2.55095046e-02f, -6.98116198e-02f, -4.96471450e-02f, -7.12588653e-02f, -3.73745933e-02f, -5.44901006e-02f, -2.57783011e-02f, 3.60691361e-02f,
    7.02780718e-03f, 1.87053648e-03f, -1.54645334e-03f, 2.42676307e-02f, 2.65531912e-02f, -3.58763933e-02f, -3.22980471e-02f, 1.68229043e-02f,
    4.74149846e-02f, -4.04363126e-02f, 2.61849891e-02f, 1.04371354e-01f, -3.13145183e-02f, 9.51221064e-02f, -2.98120398e-02f, -1.20847516e-01f,
    -4.06502411e-02f, 7.02713355e-02f, -4.58704196e-02f, 3.81249078e-02f, 7.26764426e-02f, 1.97634865e-02f, 1.93555448e-02f, 6.35135248e-02f,
    -6.99548870e-02f, -1.04713328e-02f, 6.52764142e-02f, 3.37454826e-02f, 6.54820129e-02f, 3.50020565e-02f, 1.81930847e-02f, -2.41516177e-02f,
    -8.76543019e-03f, -3.44088525e-02f, -3.39365862e-02f, 9.55842622e-03f, 4.08358350e-02f, 6.72753155e-03f, -3.25143002e-02f, -1.60300806e-02f,
    -1.20614301e-02f, 1.88686438e-02f, -3.04273609e-02f, -1.23163676e-02f, 7.87477568e-03f, 7.31384708e-03f, 1.10213254e-02f, -3.62623669e-03f,
    -4.18467037e-02f, 1.39507549e-02f, 1.49026811e-02f, -4.82868962e-02f, -4.72193249e-02f, 6.50029164e-03f, 1.24907261e-02f, -1.09432754e-03f,
    -7.08756000e-02f, -3.47392373e-02f, -3.39873694e-02f, -8.88010934e-02f, 5.65820653e-03f, 4.86166738e-02f, -1.59530208e-01f, -7.15328604e-02f,
    1.05968611e-02f, 7.36553688e-03f, 1.53634131e-01f, 1.59090124e-02f, 1.12905383e-01f, -6.32536933e-02f, 5.97312488e-02f, 5.02422974e-02f,
    5.09669334e-02f, 4.30074483e-02f, -4.41179574e-02f, 2.48046722e-02f, -8.55985563e-03f, -7.76779698e-03f, 5.83372544e-03f, 5.04604774e-03f,
    1.00524342e-02f, 4.30808440e-02f, -2.08326336e-02f, 1.92386173e-02f, -1.46649191e-02f, -1.38626108e-02f, 2.90208422e-02f, -8.72482639e-03f,
    -3.31050009e-02f, 7.50875399e-02f, 6.44378960e-02f, 2.76264902e-02f, 6.98878057e-03f, -3.10211070e-02f, 3.18982042e-02f, 1.18522448e-02f,
    -3.62856239e-02f, 3.92664559e-02f, 3.13632116e-02f, -3.13390940e-02f, 6.67947605e-02f, -9.25207213e-02f, -5.56562729e-02f, -2.56987773e-02f,
    -3.61404791e-02f, -7.84881786e-02f, 2.58141477e-02f, 1.70475896e-02f, 3.52933332e-02f, 4.17967103e-02f, -6.78145066e-02f, -7.93823823e-02f,
    -5.03122732e-02f, -6.29965067e-02f, 9.92129967e-02f, -4.08315472e-02f, -4.63700034e-02f, -2.81430762e-02f, -7.62429982e-02f, -1.77762359e-02f,
    -2.08261851e-02f, 1.51084326e-02f, 1.26526374e-02f, -1.31360861e-02f, -2.66262470e-03f, 1.00556044e-02f, 7.15624029e-03f, 2.93849315e-02f,
    -4.66934452e-03f, -1.37893558e-02f, -1.43918283e-02f, -7.08715320e-02f, 1.98658253e-03f, -3.57726514e-02f, 1.42389284e-02f, -4.32595407e-04f,
    -4.59878631e-02f, -9.98796448e-02f, -7.60757551e-02f, -8.10989812e-02f, -1.59004778e-01f, -1.11084260e-01f, -5.58317825e-02f, -3.00525203e-02f,
    2.94385874e-03f, 6.41648397e-02f, 2.45711301e-02f, -4.95481864e-02f, 8.75272229e-03f, 5.01067042e-02f, -4.55244118e-03f, -1.92118168e-03f,
    5.48620755e-03f, 2.40763519e-02f, -4.31434251e-02f, -1.12354411e-02f, -5.11026848e-03f, -1.75442286e-02f, 5.17927669e-03f, -2.26505380e-02f,
    -2.71284226e-02f, 4.95412480e-03f, -2.64425799e-02f, 3.71674411e-02f, -5.22336401e-02f, -2.96506118e-02f, -2.93815322e-03f, -1.14650121e-02f,
    -1.89132821e-02f, 4.01034243e-02f, 3.50972377e-02f, 2.73634121e-02f, 5.93817644e-02f, 1.09836468e-02f, 7.61468196e-04f, 3.97904925e-02f,
    3.34654897e-02f, -3.61312404e-02f, 4.29852754e-02f, 3.96053083e-02f, 7.09947050e-02f, 7.66266063e-02f, -7.98819214e-02f, -6.47223741e-02f,
    -5.45969419e-02f, -2.38147043e-02f, -3.34838144e-02f, -4.70792828e-03f, 3.18404920e-02f, 4.43664044e-02f, 6.66026175e-02f, 3.19167972e-02f,
    1.42061830e-01f, 5.48993424e-02f, 5.71385957e-02f, 6.45818189e-02f, 5.38578443e-02f, 1.89231616e-02f, 3.23389992e-02f, 3.58052179e-02f,
    3.90943512e-03f, -9.56430361e-02f, 3.46967354e-02f, -8.31865147e-02f, -1.12982847e-01f, -2.61701625e-02f, 1.53190121e-01f, 1.04080036e-01f,
    -4.26382087e-02f, -7.89531991e-02f, -1.99013293e-01f, -1.11957386e-01f, 1.35589659e-01f, -2.94531673e-01f, -9.52526852e-02f, 2.17662498e-01f,
    2.47110531e-01f, 1.72258779e-01f, 1.14644453e-01f, 1.46334976e-01f, 9.22786817e-02f, -1.55373933e-02f, -1.78966507e-01f, -1.47147989e-02f,
    8.48952010e-02f, 8.88862014e-02f, 9.35730413e-02f, -1.99152175e-02f, -5.29333539e-02f, -4.95138131e-02f, -4.15775813e-02f, -7.68888742e-02f,
    -1.00002877e-01f, 5.73482066e-02f, 5.11197709e-02f, 7.54267499e-02f, -8.79550539e-03f, -2.54798904e-02f, 9.13466420e-03f, -4.34053782e-03f,
    -3.56539525e-02f, 7.35223340e-03f, 9.43477079e-02f, -2.70078657e-03f, 2.70871483e-02f, -9.42954235e-03f, -8.03494602e-02f, 1.68710388e-02f,
    -5.90255521e-02f, -4.87964265e-02f, -5.47970347e-02f, 1.44770071e-01f, 6.20853864e-02f, 4.96280640e-02f, 1.26666665e-01f, 2.99573392e-01f,
    1.39300257e-01f, -1.35684744e-01f, 1.83182061e-01f, 1.18599646e-01f, -2.45393828e-01f, -2.35900357e-01f, -6.21298030e-02f, -1.42166382e-02f,
    -6.89466521e-02f, -3.53246704e-02f, 3.06989625e-02f, -4.57515195e-03f, -1.97151098e-02f, 9.36421826e-02f, 1.48885110e-02f, 1.30365565e-02f,
    -1.10142104e-01f, -1.59883395e-01f, -1.83223128e-01f, -2.94748135e-02f, -9.42097306e-02f, -6.38803616e-02f, 1.31282702e-01f, 7.10074557e-03f,
    2.52364855e-02f, -1.63577363e-01f, 1.09249903e-02f, -7.84046501e-02f, -6.34063110e-02f, 4.87149060e-02f, -3.29823494e-02f, 5.33429496e-02f,
    -5.42292632e-02f, 2.92208623e-02f, 2.52534226e-02f, 2.77377423e-02f, -4.47866172e-02f, -6.20605377e-03f, -1.43490344e-01f, 7.36581981e-02f,
    1.31398365e-01f, 8.57287869e-02f, 5.03348298e-02f, -7.64249684e-03f, 1.21381432e-02f, 1.66936719e-03f, -7.09736953e-03f, 7.34302998e-02f,
    -1.64704910e-03f, -3.65849584e-02f, 2.25347485e-02f, 5.25051691e-02f, -6.06479065e-04f, -1.60149962e-01f, -8.60568732e-02f, 6.50577694e-02f,
    -9.40784216e-02f, -1.25331059e-01f, 2.02142715e-01f, 8.16805288e-02f, 4.06560972e-02f, -2.66173705e-02f, -9.72427987e-03f, 2.38327179e-02f,
    -4.11072262e-02f, -1.26990423e-01f, -6.55494481e-02f, 1.45372301e-01f, 1.36661366e-01f, 5.87306395e-02f, -3.84454010e-03f, -2.01699249e-02f,
    4.53418493e-02f, 6.57330975e-02f, -3.37390415e-02f, -4.41159382e-02f, 1.35342464e-01f, 6.36081994e-02f, 4.82727699e-02f, 5.18104201e-03f,
    -8.24869648e-02f, -2.04362236e-02f, 9.33433771e-02f, 2.74116341e-02f, -2.23845869e-01f, 6.20970540e-02f, 6.67139441e-02f, -7.79870749e-02f,
    2.50747353e-02f, 3.40911560e-02f, 1.31184664e-02f, 1.90029833e-02f, -6.41742572e-02f, -6.85907574e-03f, 4.47291471e-02f, -8.05080781e-05f,
    -5.48749082e-02f, 3.32369283e-02f, -6.82175457e-02f, 1.00109424e-03f, 1.03959091e-01f, 1.25291333e-01f, 1.57378279e-02f, 1.54529940e-02f,
    -7.68783502e-03f, -3.14736776e-02f, -3.42216603e-02f, 6.52399734e-02f, 9.65026617e-02f, -3.59525420e-02f, -1.54257506e-01f, 1.02037042e-01f,
    -2.02148836e-02f, 6.83578430e-03f, 6.44589365e-02f, 8.87483656e-02f, -3.90614420e-02f, 1.58227682e-02f, 9.49482527e-03f, -9.15847421e-02f,
    7.43944943e-02f, 1.31189764e-01f, 1.61095530e-01f, 1.44393712e-01f, -3.56079377e-02f, 2.41353037e-03f, 3.08801290e-02f, -2.45016050e-02f,
    -7.30945589e-03f, 4.55608666e-02f, 1.24888681e-02f, 3.29962634e-02f, -3.91129218e-02f, -9.06011462e-02f, -1.12786680e-01f, 2.57112812e-02f,
    -1.85520679e-01f, -3.82268652e-02f, 2.14150935e-01f, -5.15284166e-02f, -4.44891164e-03f, 1.52198952e-02f, 2.54584309e-02f, 9.26590189e-02f,
    -1.29962116e-02f, -5.04558794e-02f, -8.38303193e-02f, 4.58976030e-02f, 3.05940639e-02f, 4.65314947e-02f, 2.45804209e-02f, -5.29359095e-03f,
    -6.65820343e-03f, -5.56573577e-05f, -3.39455972e-03f, 4.52909572e-03f, 6.74717268e-03f, 1.72313284e-02f, 5.30239567e-02f, 3.76096182e-02f,
