#include "features_10_squeeze_weight.h"

__attribute__((aligned(16))) const float features_10_squeeze_weight[24576] = {
    3.71682197e-02f, -5.73963407e-05f, 6.90268055e-02f, 4.64818925e-02f, 2.42189094e-02f, 4.63737696e-02f, 5.93984826e-03f, -2.47089118e-02f,
    -3.28139588e-02f, 3.91838476e-02f, -2.87806094e-02f, 1.41977370e-02f, 4.66391705e-02f, 1.08658090e-01f, -9.51293483e-03f, 4.35233861e-02f,
    8.23318437e-02f, 1.42617017e-01f, 9.13982838e-02f, 4.33795229e-02f, 1.31407892e-02f, -3.42261046e-02f, 3.79356965e-02f, 7.04534026e-03f,
    2.59231161e-02f, 6.07832298e-02f, 8.51734951e-02f, 4.57173772e-02f, 7.82704204e-02f, 1.90198440e-02f, 4.32655327e-02f, 4.23320424e-04f,
    8.20166711e-03f, 2.02165134e-02f, 5.58946803e-02f, -6.42547943e-03f, 2.85126884e-02f, 8.13621562e-03f, 6.34790733e-02f, 4.55157831e-02f,
    -6.58459887e-02f, 3.62348296e-02f, -3.45647372e-02f, -2.08706390e-02f, 3.76194194e-02f, 5.13817035e-02f, 1.11876756e-01f, 8.56274813e-02f,
    1.05670895e-02f, -2.04298906e-02f, 1.04305811e-01f, -6.96603302e-03f, 6.50313050e-02f, 1.38852268e-01f, 3.99581008e-02f, 8.09061453e-02f,
    8.41956809e-02f, 7.13488534e-02f, 5.45688048e-02f, 1.05354516e-02f, 1.09929085e-01f, 2.26649139e-02f, 6.98813647e-02f, 2.29943602e-04f,
    -1.37961851e-02f, -3.34821083e-03f, 1.01842657e-01f, 6.89909160e-02f, -3.27903358e-03f, 9.52913612e-02f, 9.49755311e-02f, 9.54230279e-02f,
    4.77158688e-02f, 1.11706071e-01f, 7.32782250e-03f, -2.62376461e-02f, 1.60071403e-01f, 3.34858662e-03f, -3.91588323e-02f, 1.09592579e-01f,
    4.69458438e-02f, 2.12249812e-03f, 2.58477144e-02f, 8.16146955e-02f, 4.23362628e-02f, 5.58521971e-02f, 5.86531945e-02f, 5.68381399e-02f,
    5.39089441e-02f, 6.37683123e-02f, 3.41204740e-03f, 8.30042139e-02f, 8.36288184e-02f, 6.83262721e-02f, 5.24177030e-02f, 5.62271737e-02f,
    -6.71748966e-02f, 1.59445051e-02f, -1.24634095e-02f, 2.99005620e-02f, 4.23292117e-03f, 5.49346656e-02f, 1.15104787e-01f, 6.85496554e-02f,
    -3.05036362e-02f, 3.58414315e-02f, 8.16831514e-02f, 7.91096240e-02f, 6.83690161e-02f, 1.77870899e-01f, -8.30969512e-02f, -3.57059762e-02f,
    8.08162540e-02f, -2.25448254e-02f, 1.72730107e-02f, 5.06991334e-02f, 8.75868872e-02f, -1.37221515e-02f, 7.37453531e-03f, 3.26183178e-02f,
    4.60743234e-02f, 2.77034622e-02f, 9.00075063e-02f, 6.26321584e-02f, 4.58944328e-02f, -3.31592523e-02f, 2.41604690e-02f, 7.83324912e-02f,
    6.94991201e-02f, 7.26246312e-02f, 4.33911420e-02f, 1.25269800e-01f, 3.33959528e-04f, 6.19071946e-02f, 3.96924978e-03f, 7.85114095e-02f,
    -1.20324316e-02f, 5.92578948e-02f, 2.01199353e-02f, 1.30449340e-03f, 3.00629227e-03f, 1.40598882e-02f, 4.39748429e-02f, -2.89320331e-02f,
    7.58058131e-02f, -4.42016236e-02f, 1.06739476e-01f, 1.23761103e-01f, 1.86955873e-02f, 5.46174683e-02f, 2.04337295e-02f, -3.25325541e-02f,
    2.29913574e-02f, 2.40138937e-02f, -5.14229387e-03f, -4.44729114e-04f, 3.47519740e-02f, -2.34060809e-02f, 2.71610711e-02f, 1.42330885e-01f,
    6.78171962e-02f, 1.35512911e-02f, 6.50164187e-02f, 7.33251944e-02f, -2.03935616e-02f, 1.22920297e-01f, 1.26682207e-01f, -8.11042078e-03f,
    7.71177486e-02f, 8.99987742e-02f, -2.96087246e-02f, 8.19121972e-02f, 2.44723614e-02f, 6.82703033e-02f, -2.21698396e-02f, 6.36944175e-02f,
    -3.10133062e-02f, -3.91810685e-02f, 9.77940764e-03f, 1.24635175e-02f, 6.84013218e-02f, 4.50912165e-04f, 1.36704231e-02f, 2.23367829e-02f,
    -4.53224480e-02f, 4.56249202e-03f, 4.62860763e-02f, 4.66520488e-02f, 3.57209556e-02f, 3.49592790e-02f, 8.60051427e-04f, 7.10435212e-02f,
    8.37422237e-02f, 2.61395816e-02f, 1.66568533e-01f, -9.47394818e-02f, -4.56845537e-02f, -9.68872849e-03f, 1.95603669e-02f, 8.56290311e-02f,
    -1.92344263e-01f, 7.44304210e-02f, -1.80178717e-01f, 5.26967421e-02f, -8.58288556e-02f, -7.08116740e-02f, 1.18050195e-01f, -7.78063154e-03f,
    -8.76082852e-02f, 3.55304475e-03f, -1.63992420e-01f, -1.22083500e-01f, 9.60348472e-02f, 3.25621245e-03f, 1.19630788e-02f, 1.10236546e-02f,
    -4.61499766e-02f, -1.14482082e-02f, -2.50099935e-02f, 1.65174738e-01f, 6.57531098e-02f, -8.89768749e-02f, -5.17968759e-02f, -1.46778211e-01f,
    -1.29111484e-01f, -5.06961979e-02f, -1.13025382e-01f, -1.12740256e-01f, -3.00078765e-02f, -1.41509891e-01f, -6.61019832e-02f, 6.03832565e-02f,
    3.76518518e-02f, 2.24896133e-01f, 1.65017340e-02f, -1.58876196e-01f, -4.54760417e-02f, -1.79299757e-01f, -1.51732743e-01f, 2.18267992e-01f,
    -1.07901119e-01f, -1.22703006e-02f, 2.16169488e-02f, -3.05533521e-02f, 3.13677937e-02f, 4.34487872e-03f, -1.32744670e-01f, 4.77411076e-02f,
    -2.06547126e-01f, -1.21524222e-02f, -5.19972593e-02f, 6.89452291e-02f, 5.50497100e-02f, -1.20405540e-01f, -5.48599362e-02f, -4.43774760e-02f,
    -1.92656979e-01f, -2.25870796e-02f, -6.97571188e-02f, -4.23759222e-02f, -2.84398180e-02f, -2.55376492e-02f, 1.01116061e-01f, -8.51946324e-02f,
    -1.15097985e-01f, -1.08325295e-01f, -5.46662137e-02f, -6.69158772e-02f, 6.33989647e-02f, 4.81935032e-02f, 3.09032202e-02f, -6.30774125e-02f,
    4.34758328e-02f, -7.49522224e-02f, -1.22748323e-01f, -3.50135961e-03f, -1.11131050e-01f, 1.64884910e-01f, -1.39853776e-01f, -7.36091509e-02f,
    -5.25734313e-02f, -5.56637123e-02f, -3.66210379e-02f, 2.31489260e-02f, -1.11373439e-01f, -7.57126790e-03f, 1.96281731e-01f, -6.74733073e-02f,
    -7.44223073e-02f, -2.19101887e-02f, -1.03860132e-01f, 7.28665143e-02f, -6.58758283e-02f, -1.07998639e-01f, -9.94132757e-02f, -1.03479430e-01f,
    -1.04178928e-01f, -1.18232697e-01f, -1.86727241e-01f, -1.35268434e-03f, -9.78469178e-02f, -1.65120199e-01f, -1.28305018e-01f, -1.17576055e-01f,
    -1.30699992e-01f, -7.56864548e-02f, 2.70334911e-02f, 5.89464083e-02f, 4.21566963e-02f, 1.32670607e-02f, -1.54280409e-01f, 5.69412811e-03f,
    -2.86124628e-02f, 7.12126419e-02f, -2.79130608e-01f, -1.44927934e-01f, -6.43985122e-02f, 9.96247083e-02f, -1.38408989e-01f, -7.31466934e-02f,
    -2.32146323e-01f, -5.28588928e-02f, 2.07647666e-01f, -4.21836451e-02f, -1.59066871e-01f, -5.32592013e-02f, -1.57934502e-01f, 1.37541220e-01f,
    2.17748750e-02f, -3.09149711e-03f, -6.93930611e-02f, 4.26943880e-03f, 1.22231664e-02f, -9.17181149e-02f, -4.98456769e-02f, -7.44889379e-02f,
    1.85294673e-01f, -6.88244239e-04f, -4.18991707e-02f, -1.20346062e-01f, -5.24193048e-02f, 5.26741371e-02f, -3.83798331e-02f, 4.34506424e-02f,
    7.24092722e-02f, -8.43029320e-02f, 1.43761709e-01f, -1.70152336e-01f, 1.16906665e-01f, -9.37718824e-02f, 8.39713588e-02f, 2.04916373e-02f,
    -4.09731939e-02f, -6.34492487e-02f, -1.50263682e-01f, 1.70677662e-01f, 2.90464051e-02f, 1.43639520e-01f, -1.58328012e-01f, -1.79979987e-02f,
    -1.53842136e-01f, -2.44104564e-01f, -6.08865470e-02f, -4.33643870e-02f, -1.03679197e-02f, 7.70101994e-02f, -5.29196002e-02f, 3.92511971e-02f,
    -2.81774700e-02f, -6.82330877e-02f, -4.10053320e-02f, -2.09790990e-02f, -2.00927928e-02f, 1.62755951e-01f, -1.29311040e-01f, -1.02140985e-01f,
    -2.19291687e-01f, 1.86495855e-02f, 1.08595580e-01f, 1.60410926e-01f, -4.83064307e-03f, 1.44011781e-01f, -1.42734513e-01f, -5.14141768e-02f,
    -8.26634094e-02f, -7.45205432e-02f, -1.33885788e-02f, 1.17925085e-01f, -4.51184325e-02f, 1.62719697e-01f, 4.26114984e-02f, -1.08670890e-01f,
    -3.53450328e-02f, -1.94232184e-02f, 8.09309036e-02f, -5.27070947e-02f, -6.89924806e-02f, 7.68709257e-02f, 5.33291884e-02f, -6.04379512e-02f,
    1.24461308e-01f, -2.52765827e-02f, -1.03942174e-02f, -2.94093862e-02f, 4.05305177e-02f, -2.64861342e-02f, 2.18276288e-02f, 6.51964964e-03f,
    6.54749274e-02f, -4.71957028e-02f, -2.40914747e-02f, -9.78361666e-02f, -1.19390644e-01f, -5.29522821e-02f, 5.46092093e-02f, -6.81212991e-02f,
    4.74832468e-02f, -4.25322540e-02f, -1.02067754e-01f, -1.04050571e-02f, -7.30017871e-02f, 5.46887927e-02f, 9.01190713e-02f, 8.55870023e-02f,
    8.00293759e-02f, -8.55189413e-02f, 7.63872191e-02f, -2.31905747e-02f, 1.20799290e-02f, 2.07053199e-01f, -1.31328618e-02f, -2.31186487e-02f,
    -4.47944887e-02f, -3.33638564e-02f, -9.38480068e-03f, -1.00043170e-01f, 2.73926929e-02f, -2.18499545e-03f, -5.48012964e-02f, -9.84462444e-03f,
    1.31448181e-02f, -1.17444890e-02f, 4.53455783e-02f, 3.68673503e-02f, 2.81667872e-03f, -1.14474095e-01f, 1.28693432e-01f, -6.78417683e-02f,
    1.49414102e-02f, 3.47581618e-02f, 2.45533008e-02f, -3.59463356e-02f, -8.34602192e-02f, 1.58497408e-01f, 1.24476567e-01f, 1.31224737e-01f,
    -3.77365835e-02f, 5.73836267e-02f, 1.82729647e-01f, -1.21723771e-01f, 3.96297351e-02f, -1.85448152e-03f, -1.71819907e-02f, -4.68683466e-02f,
    -6.86041787e-02f, -2.20515281e-02f, -7.11631328e-02f, 4.87757921e-02f, -7.81518742e-02f, -6.05226196e-02f, -2.62876810e-03f, -6.67964593e-02f,
    6.15576319e-02f, -3.08977515e-02f, -5.40080629e-02f, 7.98561424e-02f, -3.26659158e-02f, 4.84130066e-03f, -3.33673693e-03f, -1.47303510e-02f,
    6.13274053e-02f, -7.88142160e-03f, 3.31073813e-02f, 6.44237623e-02f, -7.21497014e-02f, -3.20153050e-02f, -5.33865765e-02f, -1.14448294e-02f,
    -5.63543551e-02f, -6.35574982e-02f, 3.31345797e-02f, -3.82046960e-02f, 4.21714745e-02f, -1.05696492e-01f, -4.89231199e-02f, 1.95166729e-02f,
    -2.93713976e-02f, 1.21773422e-01f, 7.13324025e-02f, -6.73235282e-02f, -5.64156584e-02f, 9.49902646e-03f, -6.55388013e-02f, 8.34875926e-02f,
    -2.28509642e-02f, 8.73401612e-02f, 1.85205024e-02f, -1.02429395e-03f, -2.05215835e-03f, 2.20184457e-02f, -1.25414310e-02f, -8.89518037e-02f,
    -3.72360647e-02f, 1.44803887e-02f, 6.10532202e-02f, -3.46744247e-02f, 1.39080316e-01f, 1.73149463e-02f, 2.67532980e-03f, 1.18840985e-01f,
    3.85618582e-02f, -8.27521309e-02f, -2.83328886e-03f, -9.43162441e-02f, -2.34558317e-03f, 2.84268009e-03f, -1.34514004e-01f, -4.06851247e-02f,
    1.45551115e-02f, -9.00249928e-03f, 1.17755882e-01f, -3.35838906e-02f, -1.13042211e-02f, 1.12823388e-02f, 4.20812666e-02f, -1.60444118e-02f,
    6.64503546e-03f, 4.01644185e-02f, 6.49910271e-02f, -2.26865318e-02f, 6.67218911e-03f, 2.11395994e-01f, 3.49301100e-02f, -4.71157283e-02f,
    1.98303978e-03f, 6.27042167e-03f, 1.26597196e-01f, 1.35110646e-01f, 1.25810236e-01f, -2.07270291e-02f, -3.42326947e-02f, -1.39435036e-02f,
    -2.46365406e-02f, 2.57482119e-02f, -1.67983361e-02f, -5.65051381e-03f, -2.31127273e-02f, 3.75199877e-02f, 5.67333438e-02f, 2.16076300e-01f,
    -3.18778004e-03f, 7.09513575e-03f, -8.45495239e-02f, -1.80366281e-02f, -6.66303933e-02f, 6.90119192e-02f, 2.65949722e-02f, 1.42197371e-01f,
    8.55858158e-03f, 1.31705208e-02f, 9.83861163e-02f, 3.32756266e-02f, 1.38156647e-02f, -1.37764677e-01f, 2.47522146e-02f, 4.97040758e-03f,
    -7.65277296e-02f, 1.19950265e-01f, -1.58340961e-01f, -1.26883596e-01f, -1.10208623e-01f, 7.41870180e-02f, -6.63600862e-02f, -8.54357891e-03f,
    -4.00824659e-02f, 7.57802725e-02f, 3.52207087e-02f, -7.03836381e-02f, -1.30731717e-01f, -7.17196614e-02f, 6.18314967e-02f, -3.67043689e-02f,
    -1.01712622e-01f, -2.43443111e-03f, 2.16626674e-02f, 2.28784252e-02f, -2.56219029e-01f, -1.15597986e-01f, 1.11445963e-01f, 9.05465111e-02f,
    -8.75764638e-02f, 6.81276843e-02f, 4.41200510e-02f, 7.99042508e-02f, 1.24699242e-01f, 9.27053839e-02f, 4.80310842e-02f, 9.67483073e-02f,
    -6.25285879e-02f, -1.17426189e-02f, -1.09272398e-01f, 7.60031268e-02f, 8.46534446e-02f, 7.99974650e-02f, -1.94657639e-01f, 9.64479819e-02f,
    3.43923755e-02f, -2.23369561e-02f, 3.71142142e-02f, 9.88546684e-02f, -1.76820830e-02f, -4.41271514e-02f, -5.89915588e-02f, 4.10950854e-02f,
    8.44643638e-02f, -6.20276891e-02f, -4.35728543e-02f, 1.07646994e-01f, -2.80651674e-02f, 1.06209613e-01f, -1.50455445e-01f, -3.80400121e-02f,
    9.17403549e-02f, -1.91573482e-02f, -1.25249252e-01f, -1.25002444e-01f, -6.67441497e-03f, 1.07491903e-01f, 3.56286280e-02f, -5.99788316e-02f,
    1.62107199e-01f, 9.12929773e-02f, -8.70469436e-02f, 1.60542548e-01f, 6.72959983e-02f, -7.49613047e-02f, -7.02921152e-02f, -3.38008790e-03f,
    -4.74282354e-02f, -6.43901005e-02f, -1.40765265e-01f, -4.01707180e-02f, -3.28942686e-02f, 4.91426364e-02f, -1.31075367e-01f, 2.07924157e-01f,
    -1.40462667e-01f, -2.61684321e-02f, -6.82965890e-02f, 5.89194847e-03f, -8.65674317e-02f, 1.00418776e-01f, -5.09732440e-02f, 3.25103365e-02f,
    -7.37413242e-02f, -5.18800728e-02f, 4.70185243e-02f, -3.78951542e-02f, 1.56344011e-01f, 1.95932854e-03f, 5.57618076e-03f, -1.54478937e-01f,
    4.03175354e-02f, -7.31706470e-02f, -3.92412134e-02f, 6.37580603e-02f, 3.72695923e-02f, 5.42516448e-02f, -8.10204633e-03f, -8.24523345e-03f,
    8.49573016e-02f, -4.22109775e-02f, 9.55999643e-02f, 1.31660044e-01f, 9.55730081e-02f, -6.06884807e-02f, 4.36077192e-02f, 1.32188469e-01f,
    -7.12896883e-03f, 3.20329145e-02f, -1.41265959e-01f, -4.65444550e-02f, -1.47859389e-02f, -1.02120809e-01f, 3.66821066e-02f, 2.55706664e-02f,
    1.68284923e-01f, 5.80536760e-02f, -1.00276060e-01f, 4.53366265e-02f, 5.99338561e-02f, -1.20986988e-04f, 2.16827095e-02f, 1.19011058e-02f,
    6.20024055e-02f, 2.00897455e-02f, -2.40016636e-02f, -5.44519387e-02f, 8.70743245e-02f, 1.42468587e-02f, -8.93576890e-02f, -7.65584856e-02f,
    5.68996258e-02f, 3.64555717e-02f, -8.07106309e-03f, 1.38762847e-01f, -1.25983268e-01f, 5.40203713e-02f, 8.49948525e-02f, 3.37899625e-01f,
    -1.13337673e-01f, 4.22065854e-02f, -5.11241145e-02f, -1.40303880e-01f, 1.36366844e-01f, -1.61118452e-02f, 3.70843820e-02f, 7.17743486e-02f,
    -1.06443368e-01f, -8.22034106e-02f, -1.29361138e-01f, -1.25422804e-02f, -1.64204221e-02f, 1.69677306e-02f, -7.62606263e-02f, -6.12774491e-03f,
    8.97671729e-02f, -6.07859083e-02f, -8.92176777e-02f, 2.31237300e-02f, -3.57998684e-02f, -7.46160150e-02f, -1.05246462e-01f, -4.12809402e-02f,
    5.17721623e-02f, 1.01632476e-01f, 6.57093748e-02f, -2.17369329e-02f, 4.04753648e-02f, 6.45856708e-02f, -3.94918770e-02f, -6.91448674e-02f,
    2.66504008e-02f, 5.44163659e-02f, 1.22261513e-02f, -1.33648729e-02f, -1.63650766e-01f, 4.18623611e-02f, -8.25505331e-02f, 6.43554283e-03f,
    3.26917060e-02f, -2.67592464e-02f, -1.35765687e-01f, -2.91957427e-02f, -1.11069173e-01f, 5.08933738e-02f, 6.36118874e-02f, -6.87962305e-03f,
    -3.11404262e-02f, -1.33640273e-02f, 6.41435310e-02f, -1.80295184e-02f, 1.76471032e-04f, 1.76557526e-02f, 4.38468065e-03f, -9.56327468e-02f,
    2.54321145e-03f, 3.82397510e-03f, -1.55979469e-02f, -2.50276215e-02f, -1.12912636e-02f, -9.21165105e-03f, -1.67614147e-02f, 3.32088023e-02f,
    4.71020602e-02f, 6.05112389e-02f, 4.14313190e-02f, 4.63733077e-02f, 2.00631395e-02f, -6.49430007e-02f, -1.82953458e-02f, 2.03988180e-02f,
    -8.83988943e-03f, 1.88571624e-02f, 9.88557376e-03f, -3.92692611e-02f, 3.12081594e-02f, 1.40819512e-02f, 6.53122133e-03f, -1.74472053e-02f,
    -1.95218101e-02f, -6.09964654e-02f, 1.15660299e-02f, 1.99569482e-02f, 4.12533758e-03f, 6.12710463e-03f, 3.74388434e-02f, -2.79454775e-02f,
    1.33327907e-03f, 1.76020581e-02f, -2.19199676e-02f, 1.05917908e-03f, 5.29010780e-03f, 4.95562479e-02f, 4.82134940e-03f, -1.85437053e-02f,
    9.04002134e-03f, 5.43843135e-02f, -2.43808073e-03f, -6.18525897e-04f, 1.33604454e-02f, -6.37338776e-03f, 3.12569290e-02f, -1.35501241e-02f,
    -4.30650711e-02f, 2.98521090e-02f, -4.73587215e-02f, 1.08377812e-02f, 3.52189280e-02f, 3.02475877e-02f, -6.59634098e-02f, 7.35236704e-02f,
    -5.59765100e-02f, -1.91118685e-04f, -1.50386272e-02f, -5.29240258e-02f, -4.88109887e-02f, -2.08456572e-02f, -4.84993197e-02f, -3.46337073e-02f,
    -1.27032455e-02f, -6.72861328e-03f, 2.35675294e-02f, -7.20230397e-03f, 3.17058265e-02f, -5.39515750e-04f, 3.04964874e-02f, -1.48676103e-02f,
    -2.89651025e-02f, 4.62197699e-02f, 1.82497632e-02f, -2.66639050e-02f, -1.01913670e-02f, -4.30136267e-03f, -4.52687070e-02f, -1.45396506e-02f,
    1.56232594e-02f, -2.67119911e-02f, 1.33372573e-02f, -1.70082301e-02f, 1.14694238e-02f, 1.20102214e-02f, 4.35608029e-02f, -6.82275044e-03f,
    -4.82587554e-02f, 3.59281898e-02f, -4.06333730e-02f, 3.11629046e-02f, -2.73121689e-02f, 8.52145404e-02f, 2.20532343e-02f, 1.01837171e-02f,
    1.86707061e-02f, -1.28054200e-02f, 5.82135282e-03f, -6.61662593e-02f, 3.52189727e-02f, -6.36243960e-03f, 4.02898574e-03f, 4.95276041e-02f,
    -5.14391288e-02f, 1.76659860e-02f, 3.78970541e-02f, 5.02657741e-02f, 3.08130998e-02f, -2.14730818e-02f, 2.79616266e-02f, 7.78853102e-03f,
    -1.97576974e-02f, -3.21309306e-02f, 2.81300154e-02f, 7.28334533e-03f, -4.03612666e-02f, -1.64761897e-02f, -1.91585056e-03f, -2.27251817e-02f,
    5.21488767e-03f, 4.13451949e-03f, 5.70355579e-02f, 3.78841087e-02f, 4.90291305e-02f, 1.29324878e-02f, -6.58760220e-03f, 1.26122069e-02f,
    2.57792082e-02f, 3.10146250e-03f, -3.79287340e-02f, -2.37217508e-02f, -4.64481637e-02f, -3.60022597e-02f, -8.24844185e-03f, 4.57933033e-03f,
    1.77370105e-02f, 4.14433666e-02f, 3.18396045e-03f, 2.15762611e-02f, -3.27528641e-02f, -4.40535918e-02f, 1.58899219e-03f, 4.36734408e-02f,
    6.13545328e-02f, 2.52177734e-02f, 6.29602298e-02f, -1.04250582e-02f, 6.56598434e-02f, -5.37936240e-02f, 2.72014290e-02f, 2.65044924e-02f,
    -2.36413023e-03f, 3.71214040e-02f, 6.25223527e-03f, -2.93341670e-02f, 4.47934307e-02f, 1.95664987e-02f, -1.33308200e-02f, -5.98793812e-02f,
    -6.93520717e-03f, 4.47808839e-02f, 4.07039048e-03f, 1.68928448e-02f, -9.42624919e-03f, 1.75140910e-02f, 3.83414258e-03f, -6.74180016e-02f,
    4.15280499e-02f, 2.98425704e-02f, 3.13853361e-02f, -8.40377584e-02f, 1.07235136e-02f, 5.08174598e-02f, 7.17292028e-03f, -1.29835298e-02f,
    6.51866896e-03f, -2.33259983e-03f, -4.67526242e-02f, 1.51332961e-02f, 3.28476988e-02f, -6.50330931e-02f, -4.76644421e-03f, -1.04925008e-02f,
    6.23396188e-02f, -1.15111575e-01f, 3.33872363e-02f, -9.92818922e-03f, 3.90006192e-02f, 7.29572475e-02f, 1.70228854e-02f, 8.07125419e-02f,
    1.74097121e-02f, 3.31272744e-02f, 3.76369581e-02f, -1.22794867e-01f, -6.17854521e-02f, 1.08253717e-01f, 9.14196223e-02f, 4.45976015e-03f,
    3.94527987e-03f, -4.95280512e-02f, -1.54138925e-02f, -7.19705522e-02f, 1.65129267e-02f, 1.70992501e-02f, 1.58296302e-01f, -2.20359340e-02f,
    1.24496184e-01f, 7.35353008e-02f, 2.23650280e-02f, 1.15089573e-01f, 1.13614589e-01f, 1.49398921e-02f, 2.97804147e-01f, 2.15652231e-02f,
    -7.91569874e-02f, 5.86626977e-02f, 3.65886718e-01f, -4.21293899e-02f, -1.38117313e-01f, 4.13094051e-02f, 3.99123020e-02f, -4.92796972e-02f,
    2.60904524e-02f, -1.33256419e-02f, -2.09724400e-02f, -4.13587540e-02f, -2.71298311e-04f, 1.88868284e-01f, 5.44596426e-02f, 6.13969639e-02f,
    -1.45808622e-01f, 6.36691749e-02f, 5.61791770e-02f, -6.47358224e-02f, 8.00421163e-02f, 4.06925043e-04f, -6.06027730e-02f, 7.32666776e-02f,
    -3.17680575e-02f, -7.33067188e-03f, -1.06060289e-01f, -3.26476246e-02f, -6.75698146e-02f, -8.47338960e-02f, 5.33855194e-03f, 2.23530829e-02f,
    9.34544504e-02f, 4.24177432e-03f, -1.55518437e-02f, 1.61955863e-01f, 9.93641987e-02f, -8.79494194e-03f, -1.04414078e-03f, -5.35594448e-02f,
    -1.01652928e-01f, 1.42447520e-02f, 3.88963409e-02f, 3.66192870e-02f, 7.95759186e-02f, -5.74932098e-02f, -1.20155953e-01f, 1.58718359e-02f,
    -8.48710611e-02f, -6.55377209e-02f, 3.43278274e-02f, 2.42574383e-02f, 2.76940167e-01f, 5.25093153e-02f, -7.46797770e-02f, -3.74934226e-02f,
    2.94190228e-01f, -1.10454168e-02f, -3.56223211e-02f, 2.52108991e-01f, 1.70212716e-01f, -1.08234420e-01f, -6.77807853e-02f, -4.93006520e-02f,
    4.15844433e-02f, 7.10235313e-02f, -3.16355489e-02f, -7.25430856e-03f, -4.53988388e-02f, 6.01447374e-02f, 9.77505818e-02f, 3.54423821e-02f,
    2.51620747e-02f, -3.89763676e-02f, 8.89612436e-02f, -1.90344527e-02f, 2.83905566e-01f, -8.69159624e-02f, -1.24396205e-01f, -2.45061181e-02f,
    -1.34835929e-01f, 7.20676631e-02f, 3.68820839e-02f, -7.39819035e-02f, -9.80209336e-02f, -1.78080564e-03f, 7.59701878e-02f, -2.68483628e-02f,
    4.43191733e-03f, 1.25120003e-02f, 5.02578802e-02f, -4.27563004e-02f, 7.94310570e-02f, -6.65520132e-02f, -4.36990596e-02f, -1.13868797e-02f,
    5.18349409e-02f, 1.39602065e-01f, 4.63750260e-03f, 2.01044410e-01f, -1.67727731e-02f, 1.54446244e-01f, -1.36097640e-01f, -1.92000773e-02f,
    -1.14107855e-01f, 3.16237495e-03f, -8.90886188e-02f, 7.39724981e-03f, -7.67044444e-03f, 2.77237836e-02f, -5.92488870e-02f, 7.01818466e-02f,
    7.47948373e-03f, 2.44007278e-02f, 3.84959579e-02f, -8.22885558e-02f, 7.50126690e-02f, 4.13640514e-02f, -6.24003485e-02f, -2.61171293e-02f,
    -3.83133143e-02f, 7.07605481e-02f, 1.14007957e-01f, -6.71904087e-02f, 2.34443955e-02f, -3.48267332e-02f, -4.53207158e-02f, 3.86520028e-02f,
    1.25906646e-01f, -5.04355393e-02f, -6.45240843e-02f, 1.06846541e-02f, -5.33900484e-02f, -1.21340260e-01f, 2.40000635e-02f, -2.82982327e-02f,
    3.47077511e-02f, 5.30401431e-02f, -1.49954176e-02f, -4.39285412e-02f, -9.80036035e-02f, -8.47791135e-02f, -3.57026011e-02f, 3.07166241e-02f,
    1.38435841e-01f, 6.45040954e-03f, -3.34863225e-03f, -4.34339046e-03f, 3.50433104e-02f, -3.97781841e-03f, -9.53989029e-02f, -2.55364198e-02f,
    3.16352176e-04f, 9.58576649e-02f, 1.52889386e-01f, -8.84755924e-02f, -5.94682118e-04f, -4.16757353e-02f, -8.67932439e-02f, 2.39672251e-02f,
    -2.33334191e-02f, 3.64759862e-02f, -1.86853185e-02f, 3.30565087e-02f, 4.90521714e-02f, -1.05581984e-01f, 2.57444624e-02f, 1.54530089e-02f,
    5.93162552e-02f, -6.12899922e-02f, -1.33056179e-01f, 6.69292957e-02f, -2.12893128e-01f, -1.25726908e-01f, 5.51673304e-03f, 1.17640495e-02f,
    4.90941219e-02f, -1.29265236e-02f, -1.05492339e-01f, 8.90240818e-02f, -2.47399397e-02f, 5.25740720e-02f, 8.12949333e-03f, -8.29249620e-02f,
    1.40006505e-02f, 8.61469880e-02f, 5.37797175e-02f, -7.38487870e-04f, -1.24361262e-01f, 9.71008390e-02f, 1.44125059e-01f, -1.05077690e-02f,
    4.01113406e-02f, 4.59197629e-03f, 1.89355444e-02f, 1.44368589e-01f, 4.82397079e-02f, -1.33094732e-02f, 7.07671195e-02f, 7.09504858e-02f,
    8.48429799e-02f, -2.08329465e-02f, -4.26488481e-02f, 4.82273586e-02f, -5.31551354e-02f, 1.24689527e-01f, -8.96093771e-02f, -3.30013782e-02f,
    4.61362302e-02f, -1.07061237e-01f, 9.42620635e-03f, 8.88506696e-02f, 6.61885515e-02f, -6.83766454e-02f, 7.31607527e-02f, -1.00436278e-01f,
    -1.69172827e-02f, -1.85271427e-01f, -7.22933486e-02f, -1.06812716e-02f, 1.43094733e-01f, 5.02760448e-02f, -6.15251288e-02f, 1.84712950e-02f,
    5.07231057e-02f, 8.60278681e-02f, 1.90715957e-02f, 1.74519811e-02f, -8.86235461e-02f, -1.37486607e-02f, -7.95169473e-02f, -4.90495339e-02f,
    -9.88843571e-03f, -1.43794879e-01f, 4.05974165e-02f, 2.09719062e-01f, -1.06963329e-01f, 4.68448643e-03f, 4.32170555e-02f, -6.21394999e-03f,
    -4.66901511e-02f, -4.55932580e-02f, 1.00894749e-01f, -9.45317745e-02f, 3.70638482e-02f, 1.27796218e-01f, 5.06958887e-02f, 1.01046078e-01f,
    1.00052051e-01f, -6.43264353e-02f, 9.40276086e-02f, 1.79425851e-02f, 5.52043542e-02f, 3.39142419e-02f, 6.36235625e-02f, -7.42042735e-02f,
    -1.62957773e-01f, -4.48002145e-02f, 1.72800228e-01f, 2.21293673e-01f, -7.13527203e-02f, -7.49464193e-03f, 1.64136872e-01f, 1.12213027e-02f,
    2.40314374e-04f, -9.39463302e-02f, -1.88725293e-02f, -4.78524864e-02f, 4.16877493e-02f, -7.03590736e-02f, -5.40040396e-02f, 6.62449673e-02f,
    -5.34405746e-02f, -3.09431423e-02f, 2.44776830e-02f, -7.26758763e-02f, 1.04104668e-01f, 3.10578514e-02f, -4.48191576e-02f, -9.21648890e-02f,
    1.21490099e-02f, 1.38240412e-01f, 1.18276253e-02f, -6.73697740e-02f, -1.21243447e-02f, -6.42212480e-02f, 1.52406812e-01f, 1.13336802e-01f,
    -6.05580732e-02f, -6.79893717e-02f, -7.87786096e-02f, 5.38393222e-02f, -3.61740366e-02f, 1.22751877e-01f, 8.54661614e-02f, -9.81046781e-02f,
    1.13019474e-01f, -5.66624403e-02f, -1.12768240e-01f, 3.99442613e-02f, -2.73724422e-02f, -2.46396214e-02f, 7.52039328e-02f, 2.97297034e-02f,
    -8.06941763e-02f, 7.14940056e-02f, -2.47459505e-02f, -1.01397790e-01f, -6.57616630e-02f, -7.17746913e-02f, -5.62482215e-02f, -6.52850419e-02f,
    -4.72581722e-02f, -2.31763631e-01f, -2.53732922e-03f, -1.75565347e-01f, -3.41225825e-02f, -1.55514507e-02f, -6.09379634e-02f, -8.91975835e-02f,
    -1.23836137e-02f, 5.90984933e-02f, 1.15486741e-01f, -4.48449329e-02f, -5.88439256e-02f, -7.62302428e-02f, 5.50326658e-03f, -7.65113905e-02f,
    2.72469968e-02f, -1.85752157e-02f, -1.60167530e-01f, -8.72898288e-03f, 9.89921950e-03f, -2.91723926e-02f, -3.16077918e-02f, -8.22397768e-02f,
    7.16467425e-02f, 8.50800276e-02f, 3.25260386e-02f, -7.49435723e-02f, -1.25530303e-01f, -2.23183315e-02f, -4.06341627e-02f, -8.02148432e-02f,
    7.92632401e-02f, 1.33017272e-01f, 7.43401721e-02f, -3.71329524e-02f, 5.45536689e-02f, 7.66607225e-02f, 3.94830145e-02f, 2.44122138e-03f,
    -6.14471622e-02f, 1.51376858e-01f, 6.64974600e-02f, 1.20463759e-01f, -9.03312757e-04f, 1.11353360e-02f, -9.11354274e-02f, 6.21911697e-02f,
    2.06386242e-02f, -6.07338361e-02f, 1.51639372e-01f, 1.25087753e-01f, -6.35598227e-02f, 1.06866375e-01f, 1.15646701e-03f, -1.14033408e-02f,
    -1.95064191e-02f, 6.29258603e-02f, 1.96523145e-02f, 5.90698794e-03f, 7.97136649e-02f, -4.52605560e-02f, 1.30627930e-01f, 4.31744894e-03f,
    4.41591591e-02f, -1.20759740e-01f, -8.35132301e-02f, -1.11594230e-01f, -8.88836831e-02f, -8.46267026e-03f, 9.29785669e-02f, 1.83324108e-03f,
    6.76707225e-03f, -1.44909788e-02f, 4.06249575e-02f, 1.01858936e-01f, 4.83569466e-02f, 5.83686829e-02f, -1.46005452e-01f, 4.44542915e-02f,
    2.10687649e-02f, 6.98738843e-02f, 1.54861398e-02f, -2.71378234e-02f, 4.04859111e-02f, -9.75617245e-02f, -4.84957136e-02f, 6.52098209e-02f,
    4.72311266e-02f, -1.19223736e-01f, -1.88450590e-02f, -4.32735495e-02f, 1.01907663e-02f, -5.45747839e-02f, 4.71313251e-03f, 1.16736805e-02f,
    9.80312601e-02f, 2.62853596e-02f, -9.33411941e-02f, 4.52612061e-03f, 5.95870754e-03f, 3.22010517e-02f, 1.16685122e-01f, -1.68179125e-02f,
    -6.04171343e-02f, 8.14081877e-02f, 6.59524500e-02f, 2.29086098e-03f, -1.25376850e-01f, -4.61645536e-02f, -2.36178245e-02f, 6.98827067e-03f,
    2.41166465e-02f, 5.30475713e-02f, -8.84556174e-02f, -1.01481423e-01f, -6.96425838e-03f, 9.26425233e-02f, -8.91783759e-02f, -6.70915022e-02f,
    7.01838806e-02f, -6.83003888e-02f, -1.63218402e-03f, 8.68898258e-02f, -3.40906158e-02f, -4.68098260e-02f, -9.14397910e-02f, 1.10601671e-01f,
    -1.06027700e-01f, 2.05590599e-03f, 9.92342737e-03f, 2.03340538e-02f, 2.56732814e-02f, 1.92917529e-02f, -4.97879498e-02f, 1.02513462e-01f,
    -3.85387475e-03f, 5.98158920e-04f, -2.43607685e-02f, -4.55471082e-03f, -1.25010666e-02f, -1.09398283e-01f, 6.73161671e-02f, -5.04814051e-02f,
    1.25552537e-02f, 3.46725844e-02f, 6.41164407e-02f, 1.79166012e-02f, 1.18098035e-02f, 9.76492241e-02f, 8.12085420e-02f, -3.32139656e-02f,
    1.70888705e-03f, 2.61163834e-04f, 6.40604943e-02f, 8.43458809e-03f, -8.58400166e-02f, 2.69052163e-02f, 1.32813873e-02f, -4.71962057e-02f,
    6.90720379e-02f, -9.40550491e-02f, -6.97675860e-03f, -9.86232907e-02f, -3.78688872e-02f, -5.35376510e-03f, -2.61383951e-02f, -1.02771483e-01f,
    7.10233599e-02f, -5.71761616e-02f, 2.99633630e-02f, 1.15708217e-01f, -1.88120902e-02f, 7.17496350e-02f, -6.59191832e-02f, -4.61982600e-02f,
    -4.74923924e-02f, 1.83507483e-02f, -2.56843474e-02f, -4.76390235e-02f, 1.23490721e-01f, 2.94041652e-02f, -7.64306486e-02f, 1.11531079e-01f,
    -6.69366331e-04f, 2.78134700e-02f, -6.97930530e-02f, -3.84659842e-02f, -5.27443029e-02f, -4.54831310e-02f, -2.42707971e-02f, 4.79683233e-03f,
    9.21701267e-03f, 2.69283354e-02f, -4.47867401e-02f, 2.91298702e-02f, -7.74468249e-03f, -3.69951241e-02f, 1.82990655e-02f, 7.61941299e-02f,
    -8.61658081e-02f, -1.06924765e-01f, 4.25159521e-02f, 2.53774226e-02f, -7.64169693e-02f, -2.64010914e-02f, -2.15243045e-02f, -5.72517887e-03f,
    -1.09667234e-01f, -8.89413431e-02f, -3.18611227e-02f, -5.88488998e-03f, -6.91300072e-03f, 5.36477938e-02f, 6.40242361e-03f, -7.95796588e-02f,
    3.83454598e-02f, -6.45865202e-02f, 4.13312018e-02f, 2.80827004e-02f, -1.44840206e-03f, -3.63205746e-02f, 1.13778263e-01f, 1.11886762e-01f,
    1.15140744e-01f, 1.03724115e-01f, 7.55815506e-02f, -9.33867171e-02f, -4.09115776e-02f, 2.95861289e-02f, -2.46906951e-02f, 2.17970535e-02f,
    -5.49352206e-02f, 4.99612885e-03f, -6.45754188e-02f, -1.50178388e-01f, 6.31496459e-02f, 6.21935120e-04f, 2.13725064e-02f, 4.57823128e-02f,
    -7.71689340e-02f, -9.52463374e-02f, 3.04894969e-02f, 1.33757800e-01f, -6.60541505e-02f, 5.69121353e-02f, -4.90087904e-02f, 4.60573807e-02f,
    -1.08453780e-01f, 3.96440513e-02f, -1.78562775e-02f, 5.98995723e-02f, 4.99473475e-02f, -9.44844484e-02f, 6.62217140e-02f, -5.96235767e-02f,
    -2.45899744e-02f, -2.42408942e-02f, 7.46678263e-02f, 6.50426373e-02f, 5.47350124e-02f, 9.19512957e-02f, -5.33415750e-02f, 1.29328802e-01f,
    6.21812558e-03f, 1.03809452e-02f, 2.41757389e-02f, -4.13003005e-02f, 2.86401585e-02f, 8.57605785e-03f, -4.91385236e-02f, -1.18616343e-01f,
    9.42606013e-03f, 2.47496497e-02f, -3.94782610e-02f, 1.18392430e-01f, 6.36800602e-02f, -6.66105449e-02f, -8.29911679e-02f, 3.27658094e-02f,
    -8.05634484e-02f, 3.97649258e-02f, 1.85028557e-02f, 9.38834250e-02f, -6.14260361e-02f, 4.95684147e-03f, -3.46266143e-02f, 2.63774600e-02f,
    4.37713601e-03f, -1.48649275e-01f, -9.15518496e-03f, -1.00221634e-01f, 1.18472636e-01f, 1.00613058e-01f, 2.96269301e-02f, -4.88621593e-02f,
    -1.43385865e-02f, -1.28868297e-01f, 3.46738547e-02f, 1.00114048e-02f, 8.43090937e-02f, -6.40085414e-02f, -9.19700786e-02f, -4.57809567e-02f,
    3.00406724e-01f, 2.77406834e-02f, -8.03087279e-02f, -2.36986782e-02f, 8.93428400e-02f, 8.03415838e-04f, 2.51345728e-02f, 1.82517558e-01f,
    1.18501782e-02f, -4.10010144e-02f, -5.54013178e-02f, -7.00007007e-02f, 2.94217188e-02f, -4.49275672e-02f, 9.75182187e-03f, 5.32408841e-02f,
    -4.17470448e-02f, 9.88649204e-02f, 1.73482131e-02f, -4.85818461e-02f, 3.27635221e-02f, -9.07534510e-02f, -5.04405200e-02f, -3.38980928e-02f,
    -5.50739560e-03f, 1.59635656e-02f, 2.65054088e-02f, -7.50190616e-02f, -4.12940932e-03f, -1.29321488e-02f, -2.20632590e-02f, 6.35903552e-02f,
    1.00925583e-02f, -5.01055084e-02f, -5.50237782e-02f, -4.98727262e-02f, 1.57823730e-02f, 5.59387021e-02f, -2.76469924e-02f, 6.33992197e-04f,
    9.54307094e-02f, -2.60015838e-02f, 4.97218147e-02f, 7.92294294e-02f, -4.56227362e-02f, 1.89973935e-02f, 4.81414935e-03f, -1.13417052e-01f,
    -1.13532068e-02f, -8.22871029e-02f, 8.48231092e-02f, 9.59813669e-02f, -2.26443782e-02f, 8.74767639e-03f, 3.94888744e-02f, 7.88120404e-02f,
    -7.91120064e-03f, -8.29646811e-02f, -1.48494067e-02f, -3.69863808e-02f, -4.13336903e-02f, -7.20243454e-02f, -5.33959791e-02f, -6.45495132e-02f,
    3.60640064e-02f, -1.55446571e-04f, -9.16624293e-02f, 4.81293947e-02f, -2.63516121e-02f, 1.08811427e-02f, -6.81418851e-02f, 4.16597240e-02f,
    8.44848305e-02f, 1.61234692e-01f, -9.93509870e-03f, -1.24191664e-01f, -6.14167228e-02f, 1.90023929e-01f, 2.65808199e-02f, 9.69026536e-02f,
    1.66592166e-01f, 6.50836453e-02f, -8.80742520e-02f, -6.66041300e-02f, 4.19571474e-02f, -4.66530286e-02f, -4.72306050e-02f, 1.16708793e-01f,
    2.44745865e-01f, 2.74336874e-01f, -1.06587194e-01f, -3.14395241e-02f, -7.63080716e-02f, 9.40960944e-02f, -6.50812238e-02f, -4.40231204e-04f,
    -4.97100363e-03f, 3.30830216e-02f, 6.26804307e-02f, 4.10203971e-02f, 5.52844219e-02f, 2.25810707e-01f, -3.36162583e-03f, -2.49280296e-02f,
    3.44825797e-02f, 1.79570876e-02f, 7.48695210e-02f, -7.91277215e-02f, 9.23053846e-02f, -1.40209198e-01f, 1.34909255e-02f, -1.42177874e-02f,
    -2.12722830e-03f, -2.08577178e-02f, 7.26747289e-02f, -5.45316609e-04f, 2.53469851e-02f, 2.06360668e-02f, 5.68097755e-02f, -6.47055060e-02f,
    1.10004144e-02f, 2.80031413e-02f, -3.95268574e-02f, 3.93097103e-02f, 7.66451061e-02f, -2.52216794e-02f, 1.08658988e-02f, 7.06165982e-03f,
    2.22843848e-02f, 1.79582424e-02f, 3.02259848e-02f, 6.11821115e-02f, -2.86369417e-02f, -1.89698301e-02f, -5.51914647e-02f, -1.58073399e-02f,
    6.96847141e-02f, 1.06997471e-02f, 5.69808781e-02f, 7.24919289e-02f, 7.10930824e-02f, -5.07891141e-02f, 2.73608752e-02f, -2.16177013e-02f,
    2.45251674e-02f, 1.43109411e-02f, -3.30215059e-02f, -8.43428448e-02f, -4.14410047e-02f, -1.13893025e-01f, 4.04385384e-03f, 9.75424424e-02f,
    2.61396822e-02f, -4.01880927e-02f, 3.08874361e-02f, 4.93970253e-02f, 4.22347197e-03f, 1.18902631e-01f, -6.71877787e-02f, 2.03765146e-02f,
    -8.41560736e-02f, 8.62911865e-02f, -6.59563914e-02f, 1.15472302e-02f, 1.14300672e-03f, 1.67895469e-03f, 2.26116292e-02f, 2.89743841e-02f,
    5.98714091e-02f, 3.20265181e-02f, 8.58104602e-03f, 6.14895253e-03f, -4.27593216e-02f, 5.99039309e-02f, 1.65522168e-03f, 2.12261245e-01f,
    1.25719473e-01f, -1.86668545e-01f, 8.76027159e-03f, -1.58080875e-04f, -4.89800647e-02f, 5.84621504e-02f, -3.46678570e-02f, -1.40444711e-01f,
    6.82144761e-02f, -8.51144120e-02f, -1.47129167e-02f, 8.13893601e-02f, 1.19344518e-03f, -1.11645952e-01f, 8.40286631e-03f, 3.19633298e-02f,
    6.06870912e-02f, 4.21999246e-02f, -4.30354625e-02f, -1.16727501e-02f, -2.90817246e-02f, -7.70254284e-02f, -1.79935202e-01f, -5.37938438e-02f,
    2.99352268e-03f, -1.96925886e-02f, 1.18508134e-02f, 8.95207673e-02f, 6.50250614e-02f, 8.86495411e-02f, -5.54454476e-02f, 9.18130204e-02f,
    1.13695394e-02f, -6.59233285e-03f, 3.60340178e-02f, 5.55646606e-02f, 4.12891097e-02f, -4.41686958e-02f, -4.76260260e-02f, 2.00010184e-02f,
    -1.35081550e-02f, 3.74801271e-02f, 2.14012470e-02f, 2.09898539e-02f, -5.65484315e-02f, 2.48055402e-02f, -2.94544660e-02f, -6.69068992e-02f,
    -4.83080037e-02f, 2.43270453e-02f, 6.88010082e-02f, -5.46552464e-02f, 3.18707712e-02f, 9.40587670e-02f, -2.58556828e-02f, 2.00635251e-02f,
    -5.00478745e-02f, -2.22491268e-02f, -3.22703719e-02f, -3.99074964e-02f, -4.63287486e-03f, 2.51139626e-02f, -2.92174984e-02f, -5.92510067e-02f,
    4.03462239e-02f, 4.35382277e-02f, 1.59878079e-02f, 4.00555246e-02f, -9.36179981e-03f, 2.48639956e-02f, -5.54488301e-02f, -8.36523250e-03f,
    1.36738449e-01f, -1.12913335e-02f, -2.60311854e-03f, -1.55660408e-02f, -1.63971987e-02f, -3.79987843e-02f, -1.40093872e-02f, 8.57487395e-02f,
    -2.07660884e-01f, -3.76553535e-02f, -2.91816611e-02f, 7.49628022e-02f, -9.26904678e-02f, -2.34034788e-02f, -3.88027616e-02f, 5.26103154e-02f,
    -5.73182106e-02f, 1.08815223e-01f, 1.09905219e-02f, 4.87407967e-02f, 4.76948395e-02f, 2.57267840e-02f, -1.26140453e-02f, 7.24601969e-02f,
    -9.73436050e-03f, -6.70416951e-02f, -9.45965350e-02f, -9.10267141e-03f, -1.44034952e-01f, -4.24580425e-02f, 5.03959432e-02f, -3.23891342e-02f,
    -2.43758410e-02f, 3.11475117e-02f, 7.45924562e-02f, -6.67519122e-02f, -1.30159587e-01f, -3.22464705e-02f, -7.64489397e-02f, 5.36239259e-02f,
    -5.28659001e-02f, 5.73650040e-02f, 7.02419654e-02f, -4.40491401e-02f, 3.01838554e-02f, 8.57591331e-02f, 2.71848366e-02f, 5.45257553e-02f,
    -6.63978532e-02f, -9.29692537e-02f, 3.78665477e-02f, 1.17056696e-02f, -3.08037195e-02f, 1.23877227e-02f, -1.47597138e-02f, 1.83417350e-02f,
    -3.12316883e-02f, -2.15818901e-02f, -5.93552627e-02f, -1.41160980e-01f, -6.61692470e-02f, 6.19217046e-02f, 2.73208003e-02f, 3.36424783e-02f,
    5.20831607e-02f, 8.19822680e-03f, -6.98272586e-02f, 6.27743155e-02f, -4.40212227e-02f, 4.35726233e-02f, 4.41621840e-02f, -1.26535729e-01f,
    6.82187751e-02f, 8.38878006e-02f, -1.64780747e-02f, 1.03428550e-01f, 8.44340250e-02f, 1.32048251e-02f, 1.08578332e-01f, 1.96526293e-02f,
    -2.53064092e-02f, -8.98094755e-03f, 1.86355913e-03f, -1.08049132e-01f, -4.06040661e-02f, -2.64618248e-02f, 5.27046882e-02f, 7.19777197e-02f,
    2.25970726e-02f, -1.02760242e-02f, -7.46816248e-02f, -5.52642308e-02f, 1.18576467e-01f, -5.59620969e-02f, -7.90496245e-02f, -4.22312841e-02f,
    -1.33058757e-01f, 9.25683975e-02f, -2.33604535e-02f, -1.02505714e-01f, -2.08900571e-02f, -4.90147024e-02f, 6.12609647e-02f, 8.32349509e-02f,
    3.08794398e-02f, -4.25472185e-02f, 9.34255682e-03f, -4.37247492e-02f, 2.56743550e-01f, 5.07396832e-02f, -1.09882969e-02f, 8.86767805e-02f,
    7.44511634e-02f, 6.34994134e-02f, -7.15364963e-02f, 1.09443786e-02f, -4.92120162e-02f, 4.44526747e-02f, 1.38869599e-01f, -1.00712523e-01f,
    5.82906231e-02f, 9.36344266e-03f, 1.59933031e-01f, 7.29559734e-02f, -5.12840673e-02f, 2.44146287e-02f, -5.89182414e-03f, 9.45817214e-03f,
    -1.06122475e-02f, 4.14512940e-02f, -2.05199923e-02f, 2.38541886e-02f, 1.79564491e-01f, 1.11890204e-01f, 4.23564725e-02f, -1.67214014e-02f,
    -6.56218128e-03f, 8.84463266e-03f, -4.19972129e-02f, -4.66055498e-02f, 5.88837750e-02f, -6.09041657e-03f, 1.77035909e-02f, -8.62020850e-02f,
    1.36737162e-02f, 1.05693638e-01f, -3.70390713e-02f, 7.79343620e-02f, -9.09261312e-03f, -1.89806465e-02f, -1.18118584e-01f, -5.37493080e-02f,
    -1.04195168e-02f, -1.35058281e-03f, -4.54454236e-02f, -5.00877947e-02f, -1.19929081e-02f, -4.61487696e-02f, 4.01293226e-02f, 2.29303967e-02f,
    1.01451695e-01f, 1.61339354e-03f, -9.68254730e-02f, -1.44626662e-01f, 1.25009686e-01f, 2.69876644e-02f, -5.84555380e-02f, -1.30944192e-01f,
    -7.49648660e-02f, 2.70586796e-02f, -2.91125849e-02f, 9.38827693e-02f, -1.59741789e-01f, 2.54183654e-02f, -4.79637720e-02f, -5.77660315e-02f,
    1.37011195e-03f, -1.22287609e-02f, -3.67189832e-02f, 6.87761838e-03f, 3.42708640e-03f, -1.85495019e-02f, -6.35140836e-02f, -4.67035510e-02f,
    9.13682114e-03f, -6.82317764e-02f, 3.30624245e-02f, 6.62757978e-02f, -4.77983840e-02f, 8.84536747e-03f, -7.95580819e-02f, 4.10740189e-02f,
    1.04055449e-01f, 5.79745360e-02f, -2.91565042e-02f, -1.43057350e-02f, 7.92788491e-02f, -4.44621667e-02f, -2.97524361e-03f, 5.47614461e-03f,
    6.95347637e-02f, 1.50552869e-01f, 1.61708847e-01f, -4.72672321e-02f, -4.49852552e-03f, -7.25782812e-02f, 2.82843830e-03f, -6.88558668e-02f,
    -1.49525832e-02f, -6.66829571e-02f, -8.04854278e-03f, 6.36136159e-02f, 3.36372294e-03f, 5.08399121e-02f, -6.39028242e-03f, 1.23324625e-01f,
    -4.09111828e-02f, 6.56554177e-02f, -2.19520330e-02f, 2.36411039e-02f, 3.07139959e-02f, 1.27850935e-01f, 1.60748567e-02f, -7.44652301e-02f,
    6.03281744e-02f, -6.31284416e-02f, -1.18771214e-02f, -6.84188530e-02f, 8.52383822e-02f, 2.95800660e-02f, 4.20079846e-03f, -9.35631543e-02f,
    2.09843200e-02f, -1.02772996e-01f, -2.97306683e-02f, -1.60230957e-02f, -1.34122605e-03f, -3.44397761e-02f, 2.85252593e-02f, -1.63105910e-03f,
    -2.11583059e-02f, -1.02027848e-01f, 3.91829647e-02f, 9.13225263e-02f, -2.92233042e-02f, 7.97861665e-02f, 1.98366940e-02f, 6.50017262e-02f,
    -2.30235457e-02f, -2.03918479e-02f, 9.98599082e-02f, -5.16543426e-02f, 6.89925700e-02f, 2.22827122e-02f, -8.16475451e-02f, 3.42445895e-02f,
    1.18380353e-01f, -1.46232352e-01f, -4.40282049e-04f, -1.21826527e-03f, 1.89613756e-02f, 7.18417168e-02f, -1.77991558e-02f, 1.05986865e-02f,
    -8.24857224e-03f, 2.31466264e-01f, 2.32917964e-02f, -8.47656429e-02f, -1.11416625e-02f, 8.86817053e-02f, -4.53925245e-02f, -5.52573092e-02f,
    -3.73972766e-02f, 8.25060233e-02f, -1.18047558e-01f, -3.16318050e-02f, -4.24174517e-02f, 1.85869545e-01f, -2.40787081e-02f, 7.06367642e-02f,
    -4.35363268e-03f, -4.46786880e-02f, -6.19217940e-02f, -2.32406203e-02f, -4.29856814e-02f, -5.29460832e-02f, 3.30239795e-02f, 1.74332820e-02f,
    -3.86974216e-02f, 1.68859176e-02f, 1.21727496e-01f, 5.91597743e-02f, 1.79812666e-02f, -1.41932696e-01f, -1.26245707e-01f, 1.61940470e-01f,
    -3.05303968e-02f, 1.84168797e-02f, 6.63254932e-02f, 7.24933669e-02f, -1.67395379e-02f, 8.92446563e-02f, 9.01388228e-02f, 1.77493080e-01f,
    -1.03391103e-01f, -4.42773700e-02f, -6.72170147e-02f, 1.13770529e-03f, -5.92967868e-02f, 4.36954573e-02f, -8.33391119e-03f, 7.66355917e-02f,
    1.04923092e-01f, -1.02895247e-02f, 2.80670859e-02f, -1.10420205e-01f, -2.47676168e-02f, -5.92832007e-02f, 1.94047578e-02f, -5.85493892e-02f,
    -7.15684965e-02f, -1.58180252e-01f, -2.24831123e-02f, -2.93504223e-02f, 2.84094010e-02f, -5.58211058e-02f, -1.09587274e-01f, -7.90514052e-02f,
    -4.65665795e-02f, -1.15965798e-01f, -1.17610589e-01f, -8.20435435e-02f, 1.97026320e-03f, 5.71381189e-02f, 3.82933877e-02f, -2.16484163e-02f,
    2.68245041e-02f, 7.47291297e-02f, 7.56635219e-02f, -3.14369500e-02f, 1.45840645e-01f, -9.41194296e-02f, -3.49040441e-02f, -1.16797119e-01f,
    7.33451024e-02f, 1.30320758e-01f, 1.08068176e-01f, 2.66306661e-02f, 1.58789940e-02f, -2.17270628e-02f, 3.88662182e-02f, -8.08241442e-02f,
    3.24254520e-02f, 1.30889667e-02f, 2.39536986e-01f, 2.40770057e-01f, 1.65710151e-01f, 4.85223718e-02f, -6.01875633e-02f, 1.08667731e-01f,
    1.92240253e-01f, 5.44402786e-02f, -6.01572394e-02f, 5.97783327e-02f, -1.13381883e-02f, 1.54332649e-02f, -4.25657630e-02f, 1.51504725e-01f,
    -8.68201815e-03f, 8.14714283e-03f, 2.29680344e-01f, -1.16428494e-01f, 1.39944091e-01f, -1.13618843e-01f, -2.58620232e-02f, 4.65133647e-03f,
    -6.72328472e-02f, 6.37867302e-03f, -9.02935788e-02f, 1.18135445e-01f, 8.57752115e-02f, -4.56893668e-02f, -2.20455378e-02f, 7.31259286e-02f,
    -4.47568931e-02f, 5.62618859e-02f, 3.31105329e-02f, 1.61175102e-01f, -4.50991802e-02f, -1.01582576e-02f, 2.66408380e-02f, -7.81079158e-02f,
    2.37670764e-02f, -5.64799719e-02f, -7.63268694e-02f, 5.23620844e-02f, 1.74933329e-01f, 3.26360837e-02f, 6.94343224e-02f, 2.01152302e-02f,
    8.57893378e-03f, 1.17299184e-01f, 4.41708034e-05f, 4.26285155e-02f, -3.44928652e-02f, -4.38246168e-02f, 1.44516332e-02f, 1.97019223e-02f,
    -2.26900470e-03f, 8.69742483e-02f, 9.57086235e-02f, 1.24079309e-01f, 1.04902200e-01f, -1.91955995e-02f, -3.82133946e-02f, 4.40272316e-02f,
    -2.84409616e-03f, 3.31645012e-02f, 1.00681754e-02f, -1.19364010e-02f, 7.23747388e-02f, -7.91399404e-02f, -7.63270482e-02f, -1.03489067e-02f,
    -3.68765742e-02f, -1.16967857e-02f, 6.40411815e-03f, 1.26512274e-01f, -2.18994431e-02f, -3.53751518e-02f, 2.29458243e-01f, 9.83933806e-02f,
    -1.26307279e-01f, -7.28660151e-02f, 8.27890635e-02f, 6.28239959e-02f, 7.02962875e-02f, 1.32244557e-01f, -1.15224421e-02f, -1.10909864e-01f,
    -8.74483511e-02f, 5.08698151e-02f, -8.34755301e-02f, 2.51265746e-02f, 4.42804657e-02f, 4.63964343e-02f, -1.14566445e-01f, -5.52722588e-02f,
    -5.96198030e-02f, -6.29369617e-02f, 3.02994251e-01f, -4.38297540e-02f, -8.06526169e-02f, -6.46831393e-02f, -1.13433953e-02f, -8.73982608e-02f,
    -3.46538648e-02f, -6.49183169e-02f, -1.67668462e-02f, -1.60189085e-02f, -2.74872757e-03f, -6.09396286e-02f, -5.34734987e-02f, 9.48113799e-02f,
    -3.89626026e-02f, -1.00578479e-02f, -7.91797787e-02f, -3.85678001e-02f, 1.55878449e-02f, -2.97359135e-02f, 2.11818721e-02f, 2.04165392e-02f,
    8.17073807e-02f, -6.19655289e-02f, 4.92800400e-02f, -4.83517870e-05f, -1.98907815e-02f, -1.29816448e-02f, 1.87507030e-02f, 5.61032631e-02f,
    1.19766735e-01f, 1.02267982e-02f, 7.48912618e-02f, -7.98581541e-02f, -4.90841307e-02f, 7.09323511e-02f, -9.80136916e-02f, -5.76325879e-02f,
    -2.59149075e-02f, -1.40272379e-01f, -8.70038792e-02f, 1.43321738e-01f, -7.55339339e-02f, -2.65001077e-02f, 1.52821988e-02f, 5.21583147e-02f,
    3.84428613e-02f, 3.43892612e-02f, 1.18353643e-01f, 1.13511560e-02f, -6.43186690e-03f, -3.98492850e-02f, -8.73156488e-02f, -5.27411215e-02f,
    -1.26421109e-01f, 6.31969422e-02f, -3.99255343e-02f, 8.95255804e-02f, 4.69240397e-02f, 1.93134900e-02f, -1.90503169e-02f, -6.99634776e-02f,
    -5.58978319e-02f, 7.28929639e-02f, 6.90105855e-02f, -1.00213371e-01f, 4.36777137e-02f, -4.50535379e-02f, -2.97257826e-02f, -5.62802851e-02f,
    7.44794756e-02f, -6.20797090e-02f, 1.23316888e-02f, 1.75627619e-02f, 1.01870522e-01f, -3.59402417e-04f, 1.32492408e-01f, 1.37788028e-01f,
    -6.04333878e-02f, -7.61896148e-02f, 1.58411358e-02f, -9.03275833e-02f, -2.54557319e-02f, -2.19306927e-02f, 1.78770479e-02f, -6.53041303e-02f,
    -9.46046133e-03f, -1.67214036e-01f, 2.41486281e-02f, 4.78676669e-02f, 3.67185585e-02f, 2.95863906e-03f, 6.00953866e-03f, 1.62858069e-01f,
    1.78886149e-02f, -4.54226183e-03f, 6.72911331e-02f, 7.81937782e-03f, 1.92004051e-02f, -3.80633846e-02f, -9.63863581e-02f, 7.52615258e-02f,
    2.19030268e-02f, -2.62618251e-02f, 3.47789814e-04f, -7.54692033e-02f, -8.23949743e-03f, -1.05693929e-01f, 4.93489355e-02f, -4.02233377e-02f,
    3.31156049e-03f, 8.45705122e-02f, -5.00337258e-02f, -1.37355318e-02f, -4.03948575e-02f, 4.33938056e-02f, 1.38779685e-01f, 1.32315909e-03f,
    -6.20104782e-02f, 1.02882467e-01f, 1.98118493e-01f, 5.78034557e-02f, -1.49809672e-02f, -9.06921327e-02f, 7.12160096e-02f, 4.40354366e-03f,
    6.21869937e-02f, -2.69758664e-02f, 7.84931425e-03f, 8.22378695e-03f, -5.18671647e-02f, 3.87599715e-03f, 1.04840528e-02f, 1.67854920e-01f,
    -1.10805690e-01f, -1.90748088e-02f, 5.32664917e-02f, 1.49135366e-01f, -3.69288102e-02f, -4.05100808e-02f, 4.68789302e-02f, 3.55454609e-02f,
    -8.67648721e-02f, 1.10107876e-01f, 4.29050736e-02f, -1.06696486e-01f, 4.80783451e-03f, 1.64078355e-01f, 1.19495001e-02f, -1.26175210e-01f,
    3.60668115e-02f, -1.12210825e-01f, -7.05800056e-02f, 2.93757860e-02f, 9.67396721e-02f, 1.52828125e-02f, -1.57538662e-03f, -1.58474706e-02f,
    -6.23579230e-03f, 4.36914340e-02f, -8.65210518e-02f, -6.55011013e-02f, 2.57106572e-02f, -3.95912714e-02f, -2.08788253e-02f, -8.05836823e-03f,
    2.65899990e-02f, 1.24719284e-01f, 1.97736263e-01f, -1.60397589e-01f, 6.27047792e-02f, 2.22614827e-03f, -1.88608728e-02f, 2.62421444e-02f,
    -1.97790787e-02f, -3.89898084e-02f, 8.29825327e-02f, 1.32997870e-01f, 4.47515920e-02f, 1.07340060e-01f, -1.03375129e-01f, 7.22013228e-03f,
    -6.01830333e-02f, -1.20161669e-02f, 2.07062081e-01f, 6.43841177e-02f, -1.09094657e-01f, -2.07199492e-02f, 6.24833927e-02f, -4.23235670e-02f,
    -3.44430394e-02f, 1.95687693e-02f, 4.66074049e-02f, -4.47755307e-02f, 1.04824239e-02f, 1.11352280e-01f, 2.10242290e-02f, 8.04129913e-02f,
    4.09236178e-02f, -7.64275938e-02f, 1.54390171e-01f, 1.48649085e-02f, -8.49649906e-02f, -4.03844267e-02f, -4.60420772e-02f, -1.12223126e-01f,
    -6.04216829e-02f, 1.75796136e-01f, 4.20298055e-02f, -6.32137209e-02f, -8.73324350e-02f, -5.53644309e-03f, -6.78117275e-02f, 1.07710913e-01f,
    -2.40627527e-02f, -1.46372020e-01f, -2.71576438e-02f, 5.63315675e-02f, 6.56498745e-02f, 8.64805281e-03f, 1.09550925e-02f, -5.19104339e-02f,
    -2.62840241e-02f, -5.98769672e-02f, -2.76563279e-02f, 2.95323562e-02f, 4.30186577e-02f, 3.84068824e-02f, 9.42083970e-02f, 4.53705676e-02f,
    -9.62463319e-02f, 1.74366057e-01f, -2.09123388e-01f, 8.03839564e-02f, -2.16033589e-02f, 5.14317043e-02f, -9.54266712e-02f, 3.07108331e-02f,
    8.36600140e-02f, -4.17413488e-02f, -3.52291502e-02f, -6.04315028e-02f, -3.26158367e-02f, -3.59668955e-02f, -4.11468036e-02f, -1.94737047e-01f,
    -4.99209426e-02f, 1.28736377e-01f, -1.80895049e-02f, -2.03831885e-02f, -6.69157580e-02f, -2.28615589e-02f, 3.19619216e-02f, 5.23312725e-02f,
    -8.37876052e-02f, 1.99416857e-02f, -1.45259783e-01f, 6.24603592e-02f, 5.91890924e-02f, 2.40569934e-02f, -4.35358472e-02f, 4.02263142e-02f,
    9.36955039e-05f, 8.00664201e-02f, 9.55374315e-02f, 4.39852029e-02f, 9.10407752e-02f, -6.60487562e-02f, -1.99693441e-02f, -1.40277864e-02f,
    -5.09251654e-02f, 1.20736182e-01f, 4.99041602e-02f, -3.30594853e-02f, -1.32999793e-01f, -1.31779432e-01f, 1.42459452e-01f, -6.85533648e-03f,
    3.56645100e-02f, -7.84448609e-02f, -5.14073186e-02f, 2.75544822e-02f, -5.82431704e-02f, 5.63079491e-02f, -6.74284771e-02f, 9.22679342e-03f,
    -4.08598445e-02f, -3.74294072e-02f, 5.42236045e-02f, -5.48158698e-02f, -3.95657346e-02f, 9.31344628e-02f, -5.91420161e-04f, -4.24587801e-02f,
    2.07923036e-02f, -1.87981781e-02f, -3.76159810e-02f, 3.58216725e-02f, 1.72138810e-02f, 5.59222251e-02f, 2.59352736e-02f, -7.35239610e-02f,
    -7.13751977e-03f, 2.65865270e-02f, 9.53654647e-02f, 4.05264907e-02f, -4.50910954e-03f, -3.22804116e-02f, -8.86703134e-02f, 8.28966275e-02f,
    1.17867023e-01f, 7.80165941e-03f, -1.82282194e-01f, 2.32509263e-02f, -1.38852149e-01f, -1.08892163e-02f, 6.01493940e-02f, -1.12794779e-01f,
    -3.32117006e-02f, 2.46260315e-02f, 4.74081561e-02f, 1.16930507e-01f, -1.08393826e-01f, -7.45196128e-03f, -1.78830810e-02f, -9.06196311e-02f,
    -1.96377076e-02f, 1.07345991e-01f, 2.12559476e-02f, -5.93248531e-02f, -7.64686763e-02f, -3.19527388e-02f, 7.00756386e-02f, -3.81293483e-02f,
    -4.34023291e-02f, 7.56504899e-03f, 2.79814191e-02f, 9.91514698e-03f, -7.97685385e-02f, -1.29439980e-01f, 9.46305245e-02f, -5.53831412e-03f,
    3.41920778e-02f, -2.68655661e-02f, 2.52604514e-01f, -1.36926789e-02f, 2.74329148e-02f, 1.36014363e-02f, -3.04714032e-02f, -1.06385306e-01f,
    4.25859541e-02f, -1.04619302e-01f, 1.06971219e-01f, -7.21479058e-02f, -5.42588383e-02f, 3.65223736e-02f, 1.98673327e-02f, -1.16319664e-01f,
    -1.73073225e-02f, -9.25517380e-02f, 2.10139565e-02f, -1.50068209e-01f, 8.92824586e-03f, -1.14342328e-02f, 1.62597880e-01f, 4.37842682e-02f,
    -2.45482959e-02f, 4.32370044e-02f, -1.51315676e-02f, -4.41827253e-02f, 8.57880041e-02f, -5.24508469e-02f, 9.60886627e-02f, 9.99174416e-02f,
    -4.99169007e-02f, 7.60164410e-02f, 5.82925901e-02f, -1.05422355e-01f, -7.95104876e-02f, -1.68520752e-02f, 4.09372896e-02f, -8.09518918e-02f,
    -1.40077591e-01f, 2.63826009e-02f, -1.64285786e-02f, -1.01153217e-01f, -2.69556195e-02f, -4.60790731e-02f, -7.41525963e-02f, -3.29062231e-02f,
    -3.78840752e-02f, 2.68133227e-02f, -2.26050988e-02f, 1.35214493e-01f, -5.26851006e-02f, 6.72286898e-02f, -7.46751353e-02f, -7.60180727e-02f,
    -9.59507674e-02f, -1.07604258e-01f, 2.59626806e-02f, -1.09931827e-02f, -2.90022395e-03f, 7.41926546e-04f, 1.51347006e-02f, -9.97576267e-02f,
    -3.94892618e-02f, 1.94767080e-02f, 6.22626543e-02f, 4.92528975e-02f, 4.13879333e-03f, -1.71012208e-02f, 2.21004095e-02f, 2.27963901e-03f,
    5.53829188e-04f, -9.49928239e-02f, 9.49288309e-02f, -3.80729921e-02f, 9.47568193e-02f, -8.96216631e-02f, -8.36375877e-02f, -5.84643334e-02f,
    -7.25421011e-02f, 3.50169651e-02f, -2.87371203e-02f, -7.95978308e-02f, 5.71349747e-02f, -7.41592199e-02f, -1.91134177e-02f, -8.71063443e-04f,
    7.25982115e-02f, -9.75343399e-03f, -2.92370655e-02f, 1.10632785e-01f, -3.81627716e-02f, 1.24917008e-01f, 3.05976737e-02f, -4.26540673e-02f,
    6.01094067e-02f, 3.31299799e-03f, -2.85472982e-02f, -8.26782212e-02f, -4.55003418e-03f, 8.53871331e-02f, -3.81836407e-02f, 1.13231339e-01f,
    7.52288383e-03f, 1.81878991e-02f, -1.42943235e-02f, -1.79967228e-02f, -2.72035841e-02f, -4.90284339e-02f, -3.17342654e-02f, -6.60318509e-03f,
    5.58982566e-02f, -3.88119705e-02f, -6.69536963e-02f, -2.38117930e-02f, 7.99562410e-02f, -2.55226134e-03f, 3.05408984e-02f, -3.19998674e-02f,
    5.49166352e-02f, 6.06116354e-02f, 2.70419344e-02f, -5.40290102e-02f, 1.13797300e-01f, 8.83914679e-02f, 2.61734910e-02f, 4.44521569e-02f,
    -3.95808183e-02f, 1.33959083e-02f, -1.34090856e-02f, -1.76531018e-03f, -2.76323855e-02f, 9.07737985e-02f, 2.04304866e-02f, -4.17533591e-02f,
    -1.00454902e-02f, -4.15199855e-03f, -4.99585979e-02f, -2.78309379e-02f, -3.07351761e-02f, 1.03418894e-01f, 1.01306379e-01f, 3.99850085e-02f,
    2.24587396e-02f, 5.31370007e-02f, -6.03994653e-02f, 1.39127774e-02f, -1.13079716e-02f, 7.07843900e-02f, 5.87780727e-03f, 1.75276548e-02f,
    3.86062562e-02f, 3.50567922e-02f, -4.55638878e-02f, 6.12835959e-02f, -2.52195564e-03f, -3.67707387e-02f, -7.22031072e-02f, -7.97392242e-03f,
    -9.40433796e-03f, -2.09400225e-02f, -5.54188117e-02f, -3.19795310e-02f, -1.22861741e-02f, -2.97107920e-03f, 4.83883172e-02f, 7.13179260e-02f,
    -7.11164847e-02f, 4.93902788e-02f, 2.21534353e-02f, 1.12858951e-01f, -1.29534081e-02f, -6.37557507e-02f, 1.34505490e-02f, -3.25573198e-02f,
    -8.58794525e-02f, 6.81499690e-02f, -4.25028913e-02f, 3.79155353e-02f, -2.20863260e-02f, 5.62326014e-02f, 7.08508790e-02f, -1.66255664e-02f,
    2.53719296e-02f, 1.96284521e-02f, 6.52035745e-03f, -5.87423705e-03f, 6.96588457e-02f, -1.20385788e-01f, 1.98461041e-02f, -1.68334227e-02f,
    5.89202158e-02f, -5.43682463e-02f, -8.09963867e-02f, -3.66236009e-02f, -8.14571232e-02f, -3.08387112e-02f, -3.38193104e-02f, 1.64807420e-02f,
    -1.54164676e-02f, 1.35273505e-02f, -9.07605588e-02f, 3.60415243e-02f, -8.46510455e-02f, 2.48370022e-02f, 6.88974634e-02f, 9.76588111e-03f,
    3.75861526e-02f, -5.14486954e-02f, -1.69646889e-01f, 7.50710890e-02f, -4.42248620e-02f, 1.30768880e-01f, 3.17064263e-02f, -2.58051176e-02f,
    7.87942335e-02f, 1.28394887e-02f, 8.23328122e-02f, -7.41481110e-02f, 4.44571078e-02f, -8.56342539e-02f, -2.31559295e-02f, 4.01326381e-02f,
    1.42929284e-02f, -6.12701513e-02f, -1.18741550e-01f, -8.57258439e-02f, 6.06802329e-02f, 9.47189555e-02f, -2.33005360e-02f, -3.30656469e-02f,
    -5.60895763e-02f, 8.00810475e-03f, -1.85334161e-02f, -6.74932599e-02f, -8.23468566e-02f, -4.31286022e-02f, -5.64217567e-02f, 8.71142596e-02f,
    -2.26814002e-02f, -5.81675768e-02f, 5.42596467e-02f, 9.24752504e-02f, -9.40256193e-02f, -1.35690913e-01f, 1.59284770e-01f, -1.79838717e-01f,
    1.17260605e-01f, 1.54833958e-01f, -9.80349556e-02f, 1.83797553e-02f, -1.28512502e-01f, 2.76335105e-02f, -3.37793343e-02f, 1.92192599e-01f,
    -3.50337252e-02f, 7.70387575e-02f, 1.27449473e-02f, -2.74818931e-02f, 1.34156784e-02f, -1.26625285e-01f, 1.06622837e-01f, 3.19430009e-02f,
    1.59586861e-03f, 3.83808874e-02f, 2.12616269e-02f, -2.07984168e-02f, 8.70022178e-02f, -1.68858431e-02f, 1.52113169e-01f, 5.03497273e-02f,
    -2.06225347e-02f, 9.83861610e-02f, -1.33146495e-01f, 6.81423545e-02f, 6.90006046e-03f, -5.28738871e-02f, 2.52188575e-02f, 1.64656177e-01f,
    1.26529112e-01f, 2.58203484e-02f, 3.50192860e-02f, -8.34911913e-02f, 2.98890620e-02f, -1.80344567e-01f, 1.86804719e-02f, -9.31257531e-02f,
    6.54907227e-02f, -2.30146553e-02f, -7.43551133e-03f, -2.67238934e-02f, -1.03551820e-01f, -1.39950924e-02f, 7.68254697e-02f, 5.66622354e-02f,
    -6.02192730e-02f, 2.75336578e-02f, 1.11137226e-01f, -1.04680285e-01f, -4.45626527e-02f, -2.37962324e-02f, -1.70912936e-01f, 1.52473897e-01f,
    4.37853634e-02f, -5.52643575e-02f, -5.11298291e-02f, -3.00016068e-02f, 3.04367859e-02f, -3.07515776e-03f, 4.79679294e-02f, 2.03267694e-01f,
    6.37214780e-02f, 2.65813798e-01f, -4.75077033e-02f, 3.47403660e-02f, -5.16607333e-03f, -8.87664184e-02f, -2.28371378e-02f, 1.35557324e-01f,
    -3.65855396e-02f, -1.24677969e-02f, 9.95102338e-03f, 4.04352769e-02f, 3.51714082e-02f, 2.71562710e-02f, -4.47494164e-02f, -3.60998437e-02f,
    -2.92976890e-02f, -4.44945656e-02f, -8.83763358e-02f, 8.30003694e-02f, -1.19037688e-01f, -4.91931010e-03f, 2.70766541e-02f, -5.74728027e-02f,
    -6.42740983e-04f, 9.38072205e-02f, 2.56295413e-01f, -2.20618509e-02f, 4.96118609e-03f, 1.12145476e-01f, 1.45125270e-01f, 2.91962754e-02f,
    7.15041952e-03f, 1.40890554e-01f, -2.39853486e-02f, 4.80749346e-02f, 1.91709846e-02f, -2.31201723e-02f, -1.16115315e-02f, -4.56574857e-02f,
    8.56528208e-02f, -3.17119295e-03f, 8.61463137e-03f, -1.86574325e-01f, -2.03918666e-02f, 1.61567688e-01f, -2.06181183e-02f, -1.13944314e-01f,
    -2.02341191e-03f, -1.51833352e-02f, 7.55919665e-02f, -2.60748109e-03f, 3.56038511e-02f, 1.08139940e-01f, 1.04851108e-02f, -3.28450873e-02f,
    8.76741260e-02f, -5.90760401e-03f, 1.89938039e-01f, -1.10595539e-01f, -5.23972064e-02f, 3.04462388e-02f, 1.65708870e-01f, -1.00023441e-01f,
    2.04535872e-02f, -9.39601846e-03f, 5.56465331e-03f, -1.86870825e-02f, -1.17513672e-01f, -4.79257591e-02f, 2.78175566e-02f, 1.25505403e-02f,
    1.04516439e-01f, -2.29435414e-02f, 2.24523842e-02f, 7.89778680e-02f, -1.04744375e-01f, -3.28524634e-02f, -1.02395482e-01f, -6.89237118e-02f,
    4.38090749e-02f, -7.36225769e-02f, -3.60878445e-02f, -4.51702857e-03f, 7.48502910e-02f, -5.72526194e-02f, -3.44828628e-02f, -1.20069511e-01f,
    1.03892013e-01f, 7.41250515e-02f, 1.32006600e-01f, 6.36636540e-02f, -1.77390903e-01f, 5.00097573e-02f, 7.93577880e-02f, -2.83511095e-02f,
    -5.28323017e-02f, -5.97338565e-02f, -5.70248994e-05f, 1.04388909e-03f, 1.08926762e-02f, -8.72951671e-02f, 1.20822079e-01f, 1.88159332e-01f,
    -1.18773967e-01f, -5.06666861e-02f, -8.02496448e-02f, 1.25557750e-01f, -9.16873515e-02f, 2.61890925e-02f, -1.07016198e-01f, -2.38210279e-02f,
    -5.18944114e-02f, 3.37018893e-04f, -7.81200156e-02f, -2.75889896e-02f, 3.69490571e-02f, 7.92430863e-02f, 1.14890717e-01f, -4.54674251e-02f,
    -4.99776751e-02f, 6.24233915e-04f, 1.27736419e-01f, -2.35942584e-02f, 5.44786677e-02f, 1.16980337e-02f, 6.47655048e-04f, -9.72683541e-03f,
    -7.56671950e-02f, 4.94353883e-02f, -1.12095468e-01f, 1.04662433e-01f, -8.41412917e-02f, 1.01442352e-01f, -7.57180750e-02f, -1.30537972e-01f,
    1.00098044e-01f, 1.81403816e-01f, -1.00275196e-01f, -8.17544758e-02f, 2.74882093e-03f, -8.59448221e-03f, -1.67906433e-01f, 4.34550904e-02f,
    8.32641788e-04f, 3.66439298e-02f, -4.42083776e-02f, -1.09400250e-01f, 1.15632109e-01f, 1.66108944e-02f, -7.66428038e-02f, 1.25757471e-01f,
    -8.76669139e-02f, 5.99216707e-02f, -1.18062787e-01f, 1.62169084e-01f, -7.39663243e-02f, 8.75619520e-03f, -5.54120429e-02f, 2.72071175e-02f,
    -4.63190898e-02f, 8.56549665e-03f, -7.86085501e-02f, 1.35562092e-01f, 1.09310351e-01f, -2.17473760e-01f, -3.26041394e-04f, 6.39934093e-02f,
    7.44947046e-02f, -1.67751476e-01f, 5.71413077e-02f, -3.82179543e-02f, 7.25076394e-03f, -3.64392474e-02f, -6.65114075e-02f, 1.54206948e-03f,
    4.19025086e-02f, 3.79412174e-02f, -3.04990802e-02f, 5.48708476e-02f, -6.39113337e-02f, -1.41140465e-02f, 6.03010878e-03f, 8.08667094e-02f,
    -2.46936418e-02f, -1.31580913e-02f, 5.24497963e-02f, -5.41090108e-02f, 2.50882823e-02f, -1.11662224e-03f, -1.02418242e-02f, -8.86601582e-03f,
    -7.18247890e-02f, -1.29321754e-01f, -4.79446836e-02f, -9.22478810e-02f, -3.00666085e-03f, 1.14079706e-01f, 1.57339394e-01f, 1.21698610e-01f,
    1.26077116e-01f, 1.09661976e-02f, -3.38927805e-02f, 4.80137207e-02f, 1.28535992e-02f, -1.89136006e-02f, 1.84775628e-02f, -1.09264227e-02f,
    7.95739070e-02f, -8.66586491e-02f, -1.53291430e-02f, 3.02866809e-02f, -1.15782812e-01f, -7.67961442e-02f, -3.91980866e-03f, 9.71219689e-02f,
    2.96587124e-02f, 8.57856870e-02f, -5.40707856e-02f, -2.10367255e-02f, -1.73550211e-02f, -3.20133530e-02f, 1.12133890e-01f, -2.37584829e-01f,
    -1.03221044e-01f, 6.26377165e-02f, 7.14352205e-02f, -4.40966561e-02f, 8.23233835e-03f, 1.70956943e-02f, -1.47727709e-02f, 1.33304462e-01f,
    -3.25726308e-02f, -3.84985395e-02f, -2.19689254e-02f, 1.04894135e-02f, -1.20613016e-01f, -5.94353676e-02f, -5.49265593e-02f, 5.78914322e-02f,
    -7.39012584e-02f, 3.62029225e-02f, -8.22883248e-02f, -5.66823743e-02f, -1.03879511e-01f, -2.73576286e-03f, 1.29647106e-01f, 9.79312602e-03f,
    -8.93309787e-02f, -1.22012235e-01f, -9.78613719e-02f, 2.64171977e-02f, 7.37186074e-02f, 1.58333808e-01f, -3.82613204e-02f, -2.01112665e-02f,
    1.22053564e-01f, -8.52659419e-02f, -6.30057454e-02f, -5.68270087e-02f, -5.57040572e-02f, -1.06866129e-01f, -9.92369354e-02f, -1.20830715e-01f,
    -7.74827078e-02f, 8.65937397e-02f, 1.10025994e-01f, -7.74398372e-02f, 1.47055566e-01f, 1.37118250e-02f, 2.35519204e-02f, -8.39181617e-02f,
    1.71550065e-01f, 5.49514443e-02f, -9.22336578e-02f, 1.76042587e-01f, -1.16680861e-01f, -1.23071030e-01f, 1.58680212e-02f, 3.17434855e-02f,
    5.40555231e-02f, -1.94571510e-01f, -9.96751152e-03f, -6.54201582e-02f, 2.83627994e-02f, -1.11401696e-02f, -1.75508350e-01f, -5.08283451e-03f,
    -8.55153203e-02f, 1.49477497e-01f, 1.03941105e-01f, 2.88194744e-03f, -4.93444204e-02f, -3.79756801e-02f, -7.87444711e-02f, -1.15744554e-01f,
    -7.43735954e-02f, 3.77899110e-02f, -2.40535531e-02f, 8.50362256e-02f, -5.43961786e-02f, -2.77586132e-02f, -2.59610778e-03f, -9.53091159e-02f,
    7.72751495e-03f, 7.64435306e-02f, -6.55583814e-02f, 2.77689397e-02f, -3.47585715e-02f, -9.44384665e-04f, -5.66083789e-02f, 1.28713464e-02f,
    5.36744818e-02f, 4.95810099e-02f, 7.40764812e-02f, 1.14657097e-02f, -5.43625355e-02f, -1.46961017e-02f, 3.48448381e-02f, -5.92202060e-02f,
    4.35763225e-02f, 2.39071585e-02f, 5.69540784e-02f, 4.00866754e-02f, 7.52964392e-02f, -6.35045916e-02f, -2.81587578e-02f, -8.79173726e-02f,
    2.96386573e-02f, 8.51318054e-03f, 5.36795743e-02f, 3.61489207e-02f, 1.18751423e-02f, 3.80251370e-02f, -5.93555346e-02f, 1.84369273e-02f,
    3.72316390e-02f, -1.27201378e-01f, -1.63266174e-02f, 1.12096230e-02f, 5.21087945e-02f, 7.05327317e-02f, 6.77584298e-03f, -1.07201166e-01f,
    3.50029953e-02f, 8.65409970e-02f, 9.05388221e-02f, -5.55851348e-02f, 5.15057221e-02f, 4.36615990e-03f, -3.53723168e-02f, -7.15394169e-02f,
    -1.37422690e-02f, 5.03442772e-02f, 1.85615700e-02f, 1.32986577e-02f, 8.13882649e-02f, 2.25759204e-03f, 4.31148261e-02f, -1.39782401e-02f,
    -6.49279356e-02f, 3.58767211e-02f, 5.39956950e-02f, 5.02259620e-02f, 9.51195210e-02f, 9.23221856e-02f, -5.30923493e-02f, -2.52097026e-02f,
    1.74283490e-01f, 1.87111288e-01f, 4.37466502e-02f, 2.12140027e-02f, -8.00903216e-02f, -5.73132709e-02f, -7.21879229e-02f, 3.74853052e-02f,
    5.16095385e-02f, -1.39760859e-02f, -3.38658467e-02f, 1.14474287e-02f, -6.14980832e-02f, -7.48241320e-02f, -8.12417641e-02f, -5.60807821e-05f,
    1.92615658e-01f, 2.66546514e-02f, -6.79609226e-03f, -2.15123892e-01f, -6.18383568e-03f, 2.60279216e-02f, -9.39442068e-02f, 9.94790718e-02f,
    -1.48474649e-02f, 4.40501049e-03f, 4.09450606e-02f, -8.78228098e-02f, 5.23413531e-02f, -3.28205302e-02f, -2.79707089e-02f, 4.15529162e-02f,
    -8.67412332e-03f, 3.80272120e-02f, -3.28081399e-02f, -3.25708240e-02f, -4.30572741e-02f, -4.59965579e-02f, 2.01554950e-02f, -2.65583247e-02f,
    -3.93221304e-02f, -3.67228989e-03f, 1.54033840e-01f, -4.66102734e-02f, -2.39588656e-02f, 1.08982094e-01f, -1.00063473e-01f, 7.72363180e-03f,
    1.30340800e-01f, -1.83220580e-03f, 6.17327951e-02f, 5.66683710e-04f, 1.68261155e-02f, -2.37441878e-03f, 7.57288113e-02f, -4.90967967e-02f,
    3.70634608e-02f, -3.34304906e-02f, 5.39249033e-02f, -9.02179629e-03f, 9.92286876e-02f, 3.96822616e-02f, 2.70632822e-02f, -7.62675628e-02f,
    1.60113964e-02f, 1.20110102e-02f, 1.47619501e-01f, 6.60980567e-02f, -3.25012505e-02f, -3.12897153e-02f, -1.28487842e-02f, 7.37433955e-02f,
    -2.47771591e-02f, 1.87393115e-03f, 6.82746992e-02f, -5.29506728e-02f, -6.72587678e-02f, 5.19589297e-02f, -2.92308759e-02f, 2.05633156e-02f,
    -8.87200609e-03f, -4.57943603e-02f, -3.08687463e-02f, -5.11058494e-02f, -1.12652957e-01f, -8.32889136e-03f, 1.18926754e-02f, 1.54550346e-02f,
    2.83156019e-02f, -1.86422281e-02f, 1.02941366e-03f, -1.27717080e-02f, 1.07746730e-02f, 2.77481731e-02f, 5.65626211e-02f, -6.24819174e-02f,
    8.13354328e-02f, 9.35973823e-02f, 5.09471968e-02f, 9.41798538e-02f, -3.78361866e-02f, 1.42476568e-02f, -2.52684695e-04f, -7.60852471e-02f,
    2.01419350e-02f, 7.99440145e-02f, 3.51671013e-03f, -6.56706165e-04f, -9.60274506e-03f, -6.31747395e-02f, 4.12427597e-02f, -8.47747177e-02f,
    6.99257553e-02f, -7.15088770e-02f, -9.24527198e-02f, 4.70889620e-02f, -1.19031422e-01f, 1.56518847e-01f, 5.02122566e-02f, 7.95672089e-02f,
    8.57409909e-02f, 1.85982138e-02f, 3.06919497e-02f, -8.42026323e-02f, -3.39823663e-02f, -9.90886018e-02f, 6.07877783e-03f, -3.66598815e-02f,
    -8.16003159e-02f, -3.69333699e-02f, -9.08617955e-03f, 1.10037014e-01f, 1.21789053e-01f, -3.12485676e-02f, 4.67463210e-02f, -1.02791026e-01f,
    -1.42107187e-02f, 1.00022228e-02f, 1.85854863e-02f, 2.75961813e-02f, -1.41680121e-01f, 1.18651278e-02f, 2.76073031e-02f, -2.63660401e-02f,
    -6.00800384e-03f, -3.34224962e-02f, 1.03734598e-01f, 3.07186786e-02f, -4.97175232e-02f, 2.97343871e-03f, 6.70076087e-02f, 6.62789866e-02f,
    -6.40176982e-02f, 2.57221349e-02f, 8.83512199e-02f, -4.54567373e-02f, 6.56298101e-02f, 2.57991552e-02f, -3.61155309e-02f, 4.35450710e-02f,
    9.38680023e-02f, -5.43001923e-04f, -1.03451209e-02f, 2.08302513e-02f, -6.78184181e-02f, -7.52304792e-02f, -3.90424095e-02f, -6.57393187e-02f,
    1.41079232e-01f, -7.27740973e-02f, 2.07416177e-01f, 2.62506753e-02f, -6.15570769e-02f, 1.08500980e-02f, 1.14247352e-01f, 9.24880132e-02f,
    -1.05306581e-01f, -4.24616970e-02f, 3.37808691e-02f, 1.00289710e-01f, -7.06688836e-02f, -6.46419972e-02f, 8.03115293e-02f, 4.08248194e-02f,
    4.85052802e-02f, 4.80895787e-02f, -7.30460212e-02f, -1.61659252e-02f, 1.29229620e-01f, -7.65742408e-03f, -3.96789610e-02f, -3.04492246e-02f,
    2.16180950e-01f, 3.97392847e-02f, 6.29986376e-02f, 7.04655424e-02f, -2.42043491e-02f, -3.51853669e-02f, 9.08692777e-02f, 9.81836617e-02f,
    3.50199901e-02f, 1.04004880e-02f, -4.58562486e-02f, -2.33395230e-02f, -5.93095645e-02f, 5.13447355e-03f, 2.99958941e-02f, 1.16378255e-02f,
    -3.51785333e-03f, 2.51492299e-02f, -1.09438486e-02f, 3.29325013e-02f, 7.33353943e-03f, 2.38436107e-02f, -1.65326558e-02f, -1.14397900e-02f,
    4.00490612e-02f, 1.61854271e-02f, -3.30176651e-02f, 9.91135091e-02f, -2.47612111e-02f, -1.21914642e-02f, 2.40867995e-02f, 5.45349494e-02f,
    -4.82399873e-02f, 1.59570538e-02f, 6.91705244e-03f, 5.02312630e-02f, 3.40568945e-02f, 3.16277929e-02f, 1.83185134e-02f, -1.96913444e-02f,
    -1.19595798e-02f, -4.47981954e-02f, -2.93699559e-02f, 5.79639636e-02f, 3.22414152e-02f, -3.41642238e-02f, -4.78494652e-02f, -3.88663262e-02f,
    2.61451118e-02f, -4.09141295e-02f, -2.66776793e-03f, 6.05553854e-03f, -6.69286326e-02f, 6.15153164e-02f, 3.44327241e-02f, 6.73596188e-02f,
    -2.41694450e-02f, -8.37057754e-02f, -5.79854101e-02f, 1.47286970e-02f, 1.35383055e-01f, 1.20418951e-01f, -9.52142775e-02f, -1.23642713e-01f,
    5.29420003e-02f, -7.45174382e-03f, -7.46332780e-02f, -3.27573754e-02f, 8.89015496e-02f, 2.50970013e-02f, 5.71256950e-02f, 1.52572291e-02f,
    8.82337615e-02f, 2.95965243e-02f, 6.40941039e-02f, -8.05667043e-02f, 1.50251109e-02f, -2.38613393e-02f, 6.11446127e-02f, 7.41585195e-02f,
    -2.12349221e-02f, 1.98882655e-03f, -1.21122226e-01f, -2.32233703e-02f, 9.97378156e-02f, 3.85126309e-03f, 8.03331286e-02f, 2.17880949e-01f,
    1.46997245e-02f, 8.18581320e-03f, -1.82510111e-02f, 4.75937836e-02f, -7.37262368e-02f, -6.93275928e-02f, -3.79674174e-02f, 9.59088793e-04f,
    4.16315496e-02f, 5.53448536e-02f, 1.05293490e-01f, -2.17182077e-02f, 6.00142330e-02f, 1.11197412e-01f, 6.42411038e-02f, -8.73182490e-02f,
    -5.31722307e-02f, -1.43442024e-02f, 4.31124084e-02f, 5.64618930e-02f, 1.50922267e-02f, 8.67329463e-02f, 2.53777415e-01f, -5.10562398e-03f,
    -7.12206811e-02f, 3.10820015e-03f, -7.37720914e-03f, -7.49439150e-02f, -1.23999203e-02f, 1.09918825e-01f, 1.33843243e-01f, 3.56921926e-02f,
    3.61209475e-02f, 7.27883400e-03f, -3.19517218e-02f, -2.85594910e-02f, 7.66476616e-02f, 1.63030531e-02f, -3.60203944e-02f, 1.81339029e-03f,
    -6.43542781e-02f, -5.34223057e-02f, 4.87638591e-03f, -1.40277579e-01f, 7.40195736e-02f, -2.47882325e-02f, 1.51031435e-01f, -3.39000486e-02f,
    5.85749559e-03f, -6.24726750e-02f, -1.76496562e-02f, -1.53127551e-01f, -2.01950558e-02f, -4.24925750e-03f, -1.32911950e-01f, 4.08701152e-02f,
    -2.55806129e-02f, 9.53991711e-02f, 2.81504891e-03f, -1.07129440e-01f, -9.44202766e-03f, 4.43976931e-03f, -6.01547621e-02f, -2.27268077e-02f,
    -5.12144342e-02f, -5.37035102e-03f, -1.45480372e-02f, -8.67266580e-03f, -1.48176655e-01f, -1.08408861e-01f, -9.84566063e-02f, -4.45234254e-02f,
    1.27821311e-01f, 1.30313665e-01f, -2.84171794e-02f, -2.87886113e-02f, -1.30905528e-02f, -1.04364129e-02f, 7.85838366e-02f, -1.12544224e-01f,
    -1.28052235e-01f, -6.83109015e-02f, 3.13922837e-02f, -6.63819984e-02f, -1.76906046e-02f, -6.18513897e-02f, -1.08560093e-01f, -3.08772065e-02f,
    -5.78131117e-02f, -3.69765982e-02f, -2.13080663e-02f, -4.85016294e-02f, -1.01309128e-01f, -4.02338319e-02f, 1.73741251e-01f, 7.61901140e-02f,
    -7.85479173e-02f, 5.55829611e-03f, 2.23668981e-02f, 5.72316088e-02f, 6.74337298e-02f, -7.43857995e-02f, -1.57004930e-02f, 7.57232532e-02f,
    -1.39962286e-01f, 8.25377239e-04f, -2.62828940e-03f, 5.87539785e-02f, -3.74182165e-02f, 9.96069834e-02f, 3.54953371e-02f, 2.89719254e-02f,
    -1.04085691e-01f, -3.98932248e-02f, 1.06571443e-01f, 1.69757143e-01f, 1.33649021e-01f, 2.23409794e-02f, 4.57597613e-01f, -8.36953595e-02f,
    1.01105347e-01f, 9.75117646e-03f, 4.59641479e-02f, 7.50223398e-02f, 7.96509311e-02f, -2.64800601e-02f, 1.52451366e-01f, 7.60336891e-02f,
    4.85559218e-02f, -5.52568883e-02f, -1.20368540e-01f, -6.05388358e-02f, 6.32344857e-02f, 1.58455461e-01f, 2.70991236e-01f, -3.66032459e-02f,
    1.01396970e-01f, 6.84588850e-02f, 6.24792874e-02f, 2.95773279e-02f, 1.43591136e-01f, 2.59751808e-02f, -1.04498401e-01f, 1.21650780e-02f,
    4.56825197e-02f, -8.42411369e-02f, -1.67895883e-01f, -5.69692887e-02f, -1.00863636e-01f, -8.25832784e-02f, -5.94555922e-02f, 4.67933789e-02f,
    -9.33464393e-02f, 2.56904792e-02f, 2.68808771e-02f, 3.49203870e-02f, 1.04045041e-01f, -1.41292796e-01f, -1.36505254e-02f, -4.56181578e-02f,
    -6.71430230e-02f, 5.72943687e-02f, -1.19427992e-02f, 4.35769111e-02f, -9.68437195e-02f, 3.79023664e-02f, -1.43117771e-01f, 2.17100278e-01f,
    -3.53733934e-02f, -5.02760485e-02f, 8.14130679e-02f, -2.45482679e-02f, -9.66048148e-03f, -3.16029638e-02f, -1.73397698e-02f, -6.23326637e-02f,
    7.81135410e-02f, -5.90694956e-02f, 3.18949930e-02f, -2.65676109e-03f, 8.02892596e-02f, -1.11251220e-01f, 9.14567560e-02f, -1.06262356e-01f,
    -5.98748308e-03f, -5.96110299e-02f, -3.48251536e-02f, -5.65998666e-02f, 2.74336785e-01f, -2.40729172e-02f, -5.62933981e-02f, -6.14227355e-02f,
    -8.31436962e-02f, -4.58829431e-03f, -9.52131487e-03f, 8.40487033e-02f, 1.90757632e-01f, -4.64173220e-02f, 2.12058760e-02f, -1.72934420e-02f,
    -6.20658286e-02f, 3.87214907e-02f, 3.58445477e-03f, 1.19684972e-01f, -2.58278247e-04f, 1.43024102e-01f, 7.28832856e-02f, 3.43329348e-02f,
    1.77633557e-02f, 4.23284583e-02f, -2.46135890e-02f, -2.65713073e-02f, 1.71226889e-01f, -1.22295573e-01f, 9.22733247e-02f, 1.54542133e-01f,
    5.43852057e-03f, 3.25238079e-01f, -2.10131966e-02f, 2.35884842e-02f, 5.28802490e-03f, -5.36062159e-02f, -3.80864814e-02f, -4.24735360e-02f,
    -5.36057074e-03f, 2.10515894e-02f, 1.44101279e-02f, 1.73821017e-01f, 2.79221922e-01f, -2.26979740e-02f, -7.64008984e-02f, -8.52032304e-02f,
    2.21669912e-01f, -5.33773787e-02f, -4.36763577e-02f, -4.18839566e-02f, -5.66935260e-03f, -5.29714152e-02f, 2.65605077e-02f, 1.28957570e-01f,
    5.33340834e-02f, -3.87525558e-02f, 1.38630196e-01f, -1.13758259e-01f, -1.70206446e-02f, -5.92829399e-02f, 1.44857401e-02f, 6.98644593e-02f,
    -6.42259791e-02f, 9.86706465e-03f, -1.74224637e-02f, 1.19676538e-01f, 1.08902320e-01f, 7.08268732e-02f, -2.03156061e-02f, 6.52519614e-02f,
    9.94992107e-02f, -1.56951770e-01f, 1.25563204e-01f, 2.29187701e-02f, -1.10813022e-01f, 1.24758743e-01f, 1.97653938e-02f, -1.29465282e-01f,
    5.85970562e-03f, -9.05852318e-02f, -5.03731743e-02f, 1.79958776e-01f, -3.96983325e-02f, 9.73647460e-03f, 4.02003266e-02f, -1.30934969e-01f,
    8.22233707e-02f, -1.13200575e-01f, 2.68899873e-02f, -3.97660285e-02f, -2.94549260e-02f, 3.30637954e-02f, -6.91192783e-03f, -2.35326644e-02f,
    -1.13012139e-02f, 6.02173135e-02f, 1.27332687e-01f, 4.76838388e-02f, 9.23136771e-02f, -7.79706240e-03f, 6.96107894e-02f, -2.56068781e-02f,
    6.69741705e-02f, -2.13443302e-02f, -8.33807588e-02f, -3.30967866e-02f, 3.99796739e-02f, -9.98904929e-02f, -5.11377603e-02f, 5.22694997e-02f,
    2.83469893e-02f, -3.06729041e-03f, 1.80909131e-02f, 1.11891024e-01f, 2.38567200e-02f, -1.15203172e-01f, -5.35064340e-02f, -8.87498334e-02f,
    1.09726310e-01f, -5.63980527e-02f, -5.31497635e-02f, -4.99505028e-02f, -4.30108905e-02f, 3.91257415e-03f, 1.09976539e-02f, 8.77278671e-02f,
    -5.15231565e-02f, 7.32941031e-02f, -1.45094186e-01f, -3.31257395e-02f, 7.60312229e-02f, -6.66895211e-02f, 2.41088383e-02f, 3.32463048e-02f,
    -5.05493246e-02f, 6.14240393e-02f, -2.56065298e-02f, 5.68710119e-02f, 2.47828271e-02f, -7.83925578e-02f, 6.53076544e-02f, 8.72034058e-02f,
    1.49475709e-02f, 1.88907329e-02f, 1.70308605e-01f, 9.45551097e-02f, -2.17455570e-02f, -6.52305931e-02f, -1.81821778e-01f, 6.54832497e-02f,
    8.66194367e-02f, 7.09328353e-02f, -4.72365953e-02f, -1.25712380e-01f, -1.67023204e-02f, 1.68519974e-01f, -5.32586798e-02f, 1.20296553e-01f,
    -2.01530065e-02f, 8.63672644e-02f, 2.72785034e-02f, -2.04314422e-02f, 1.12222634e-01f, 7.21370950e-02f, -1.32578425e-02f, 2.40339106e-03f,
    -7.16935694e-02f, 2.04546899e-02f, 3.09236441e-02f, 2.51836702e-02f, 6.65071905e-02f, -4.39008772e-02f, 5.11347800e-02f, 9.64094698e-02f,
    1.30049959e-01f, -1.76589578e-01f, -1.60922129e-02f, 4.50595990e-02f, 1.50931692e-02f, 9.49650183e-02f, 9.20624100e-03f, -3.30094099e-02f,
    -7.32463971e-02f, 6.16740584e-02f, -2.33246647e-02f, 1.29141763e-01f, 2.28437167e-02f, 2.00375438e-01f, -6.16465285e-02f, 1.10835925e-01f,
    -1.15260541e-01f, -4.53453511e-02f, -9.66590550e-03f, 8.01724121e-02f, -1.06172703e-01f, 1.80349946e-02f, 4.67669405e-02f, 7.23143891e-02f,
    3.32379714e-02f, 1.33591779e-02f, 5.04207686e-02f, -3.30704711e-02f, -5.24405465e-02f, -4.89861146e-02f, 4.17937562e-02f, 1.00131221e-02f,
    1.85360357e-01f, 7.77085200e-02f, -6.64826334e-02f, 8.00049827e-02f, -4.22008382e-03f, -1.78926423e-01f, 1.03164591e-01f, 8.52472857e-02f,
    7.81545117e-02f, 1.76630039e-02f, 7.00082555e-02f, -7.02668056e-02f, 1.07243828e-01f, -8.25438797e-02f, -9.01187677e-03f, 5.32308482e-02f,
    5.53899296e-02f, -2.72506326e-02f, -3.25889774e-02f, -5.62791713e-02f, 4.75762039e-02f, -3.11150774e-02f, -1.84822176e-02f, -1.00686148e-01f,
    3.99156511e-02f, -7.50248134e-02f, -1.43099099e-01f, -4.95726019e-02f, 1.29571110e-01f, 1.84335858e-01f, 6.36415184e-02f, 1.38492376e-01f,
    -6.72947839e-02f, -2.58641429e-02f, -1.28865838e-01f, -2.34826338e-02f, 2.01855972e-02f, 2.13223267e-02f, 5.17173298e-02f, -5.92070678e-03f,
    -1.38114795e-01f, 8.65702853e-02f, 1.95219338e-01f, 1.23477891e-01f, -1.94250755e-02f, 2.94910967e-02f, -2.82570794e-02f, 2.58558858e-02f,
    1.03184553e-02f, -5.69012426e-02f, -1.19524851e-01f, -1.61255062e-01f, -1.39053375e-01f, -4.33906205e-02f, 7.52767771e-02f, 6.74928874e-02f,
    2.69794147e-02f, 2.40519032e-01f, -1.30796777e-02f, -3.19819823e-02f, 3.87781523e-02f, 7.61658698e-03f, -1.37140960e-01f, 4.29029278e-02f,
    -5.04637212e-02f, 1.23016639e-02f, -2.44422127e-02f, 1.30807400e-01f, -1.75721571e-01f, -6.19416572e-02f, -4.86721843e-02f, 1.58963934e-01f,
    -2.33899374e-02f, 1.50952935e-01f, -2.69407064e-01f, 5.58181070e-02f, -3.31728272e-02f, 3.39608006e-02f, -1.00277834e-01f, 1.81331635e-01f,
    -1.05844647e-01f, -1.26230389e-01f, -7.80284405e-02f, -4.98770587e-02f, -9.11976844e-02f, -5.82349533e-03f, -3.88316363e-02f, -2.05907986e-01f,
    1.95767313e-01f, 2.78870296e-02f, -8.34028348e-02f, -1.59906954e-01f, -2.68241633e-02f, 7.36229271e-02f, 2.74404325e-03f, 2.41270456e-02f,
    -4.64438573e-02f, -5.67777194e-02f, -2.11324960e-01f, 1.59822498e-02f, 3.80115509e-02f, -5.22340685e-02f, 4.26427536e-02f, 2.69686226e-02f,
    1.75748155e-01f, 2.12639913e-01f, -8.34458023e-02f, -1.05892353e-01f, -5.10674305e-02f, 2.09384412e-02f, -8.56884569e-02f, -4.22984958e-02f,
    -1.09651737e-01f, 1.29494190e-01f, 3.74921113e-02f, 1.00460939e-01f, 9.50921401e-02f, -1.01747662e-02f, 1.27954893e-02f, -1.39947057e-01f,
    -3.29008773e-02f, -6.05370700e-02f, 1.84830632e-02f, 7.38694891e-02f, -1.04282070e-02f, -1.38011634e-01f, -1.58620756e-02f, -7.68488348e-02f,
    -7.64922649e-02f, -2.24118549e-02f, -1.23332327e-04f, 2.13449180e-01f, -1.27912447e-01f, 1.14693642e-02f, -2.42084228e-02f, -3.80608924e-02f,
    9.54786986e-02f, 1.60422903e-02f, -1.08726148e-03f, 1.47443414e-01f, -4.84190769e-02f, 1.57142162e-01f, -8.52780789e-02f, 2.12134883e-01f,
    -7.20097944e-02f, -1.02811657e-01f, -1.25824407e-01f, -3.12854797e-02f, -3.76909785e-02f, 2.06275377e-02f, -7.44983256e-02f, -3.57430913e-02f,
    1.23283742e-02f, -2.51308735e-02f, -7.08600879e-02f, 9.50689465e-02f, -7.30836466e-02f, 3.18963989e-03f, -4.97770719e-02f, -2.23563351e-02f,
    -1.53050780e-01f, 1.32670581e-01f, -1.89246714e-01f, 1.51462210e-02f, -5.49851358e-03f, -4.02582064e-02f, -4.34596203e-02f, -2.90214211e-01f,
    -9.16580185e-02f, -3.32797244e-02f, -2.73467582e-02f, 1.27865644e-02f, -1.00001290e-01f, 2.25364342e-02f, 1.00144567e-02f, 8.72968882e-02f,
    -1.21229829e-03f, 1.49262682e-01f, 1.13719136e-01f, 1.14859328e-01f, -5.41605987e-02f, -4.59289737e-02f, 2.55010813e-01f, -2.12402027e-02f,
    1.45992683e-03f, 2.11164430e-02f, -4.23234105e-02f, -5.70330583e-02f, -3.03212162e-02f, 2.17130724e-02f, -1.23947226e-01f, 1.15878098e-01f,
    2.13316977e-01f, -8.18227008e-02f, 1.13205530e-01f, -5.79954684e-02f, 7.40278792e-03f, -1.29892096e-01f, -1.26225427e-01f, 3.03324331e-02f,
    6.01197639e-03f, -4.31409106e-02f, -1.03895999e-02f, -2.91861668e-02f, 1.35499567e-01f, -6.37152568e-02f, -5.37067764e-02f, 3.16775553e-02f,
    -5.54871038e-02f, -7.04355240e-02f, 8.81434083e-02f, 1.08879544e-01f, 1.95623860e-02f, -8.94902740e-03f, 1.15029365e-01f, 6.09900244e-03f,
    1.43180624e-01f, -6.48283884e-02f, -3.34319510e-02f, -1.33152425e-01f, -2.36660670e-02f, 2.08896901e-02f, -8.53911228e-03f, 1.98831558e-02f,
    1.54173613e-01f, -1.16594993e-02f, 5.96057065e-02f, 1.11335397e-01f, 1.54777034e-03f, -3.43491994e-02f, -4.36060764e-02f, 1.02544926e-01f,
    -1.22496523e-02f, 3.82271945e-03f, -4.21974994e-02f, -4.11803611e-02f, -1.42307393e-03f, -1.32328406e-01f, 3.79977413e-02f, -5.36551066e-02f,
    1.28911540e-01f, 4.14534006e-03f, -6.01849481e-02f, -7.66543746e-02f, 3.03063300e-02f, 3.49368416e-02f, -2.39712093e-02f, 8.44563991e-02f,
    -3.66664305e-02f, 5.62942401e-02f, -7.46073723e-02f, -4.78478558e-02f, 9.13947634e-03f, -5.67338169e-02f, 8.54377374e-02f, -2.58353669e-02f,
    -4.41087410e-02f, -2.68337894e-02f, -6.86974591e-03f, 4.40336168e-02f, 8.09415244e-03f, -2.64897803e-03f, 4.37907949e-02f, 7.62239471e-02f,
    -6.03355421e-03f, 8.34233612e-02f, -7.62940049e-02f, -4.12055366e-02f, -3.70125584e-02f, -7.67166167e-02f, -4.48836274e-02f, -1.00809351e-01f,
    1.36587322e-01f, 9.02465656e-02f, 7.06570521e-02f, 1.08032534e-02f, -4.11253758e-02f, -1.34368725e-02f, 1.47465289e-01f, -5.59710674e-02f,
    -3.19218934e-02f, 1.12710506e-01f, -2.34447587e-02f, 1.25572234e-01f, -5.21908998e-02f, -2.89351549e-02f, 1.38579560e-02f, 3.55228670e-02f,
    -3.01773730e-03f, 1.93502828e-01f, -9.80696529e-02f, 8.97268429e-02f, -3.68486419e-02f, -2.38576066e-02f, 4.32895161e-02f, 5.54118156e-02f,
    -2.26103902e-01f, -6.99315313e-03f, 1.04432054e-01f, 9.12027583e-02f, -6.32345602e-02f, -5.12336206e-04f, 2.20089629e-02f, -5.09832054e-02f,
    -7.10641965e-02f, 1.20826297e-01f, 1.46223113e-01f, -5.65461181e-02f, 2.70135179e-02f, 6.94920570e-02f, 1.09663725e-01f, -3.51050384e-02f,
    2.38102395e-02f, -6.87212795e-02f, -6.15660995e-02f, 6.65294677e-02f, -6.60577118e-02f, -1.85593534e-02f, -4.80821356e-02f, 8.56054127e-02f,
    5.78094423e-02f, -4.85188589e-02f, -8.38993639e-02f, 1.30519658e-01f, -2.19630860e-02f, 1.31612599e-01f, -3.31330448e-02f, -2.49166086e-01f,
    -1.90847125e-02f, 1.34603277e-01f, -5.93998889e-03f, 4.79987413e-02f, -1.93468854e-02f, 8.07263330e-02f, 1.49001554e-02f, 1.08342968e-01f,
    7.91749824e-03f, 1.12390751e-02f, -1.78986192e-02f, -5.76270893e-02f, -5.85302934e-02f, -3.81017588e-02f, -1.58407856e-02f, -5.18136322e-02f,
    2.86578313e-02f, -1.38950506e-02f, -4.22728993e-02f, -1.32589489e-01f, 4.96856049e-02f, -5.90494350e-02f, 4.77570035e-02f, -4.05254252e-02f,
    1.47224829e-01f, 1.17780074e-01f, -1.77933648e-03f, 2.98691280e-02f, -5.82108274e-02f, -5.96855767e-02f, 7.89423753e-03f, -1.75668148e-03f,
    2.08444754e-03f, -3.02466191e-02f, 1.67318091e-01f, 5.33379354e-02f, 1.65821016e-02f, -9.63296276e-03f, 6.17896989e-02f, -6.62469715e-02f,
    -1.54278195e-02f, -8.06855932e-02f, -2.56461874e-02f, 1.17811739e-01f, -3.56071889e-02f, 3.99897899e-03f, -3.52640636e-02f, -5.06727286e-02f,
    -7.84629732e-02f, 3.05843633e-03f, -7.94497691e-03f, -9.60691720e-02f, 8.76422599e-02f, -4.28962409e-02f, 8.73205364e-02f, -1.82063282e-01f,
    -1.00382648e-01f, -7.38370642e-02f, -4.56075557e-02f, 5.12583666e-02f, -3.49844582e-02f, -9.33020040e-02f, 7.73728117e-02f, 3.53430100e-02f,
    3.50710079e-02f, -3.23960930e-02f, 1.04034036e-01f, 5.39620034e-03f, 1.85706979e-03f, -7.68135712e-02f, -1.38565972e-01f, 4.78492305e-02f,
    -6.23962320e-02f, -2.61875428e-02f, -3.57712694e-02f, 9.15467516e-02f, 3.19713838e-02f, 1.00712545e-01f, -1.19714811e-01f, -6.28767312e-02f,
    -4.52442877e-02f, 2.36906875e-02f, -1.72801279e-02f, 1.56776626e-02f, -9.39292684e-02f, 6.55347705e-02f, 7.96963647e-03f, 9.99333113e-02f,
    -5.90161756e-02f, 1.13773122e-02f, -2.71788817e-02f, 4.31055278e-02f, -6.35867119e-02f, -2.20843833e-02f, 2.63027661e-02f, -2.82291323e-02f,
    -3.79273891e-02f, 2.48594116e-02f, 1.25092557e-02f, -1.62868891e-02f, -3.52831110e-02f, 3.29545140e-02f, -3.92730497e-02f, 8.83923937e-03f,
    -3.49931382e-02f, 5.15787629e-03f, -7.97415152e-02f, 8.29841495e-02f, 6.42606383e-03f, -2.00181343e-02f, -5.80255017e-02f, -6.76289275e-02f,
    2.96892095e-02f, 5.90784522e-03f, 1.85013544e-02f, 4.19463310e-03f, 8.10665786e-02f, -5.25958790e-03f, -3.74022260e-04f, -7.48493969e-02f,
    -4.62317951e-02f, 6.12748275e-03f, -7.60567039e-02f, -1.46946600e-02f, -6.00288203e-03f, 1.14272498e-02f, -5.81321605e-02f, -1.26960501e-01f,
    -2.27264911e-02f, -1.17194680e-02f, -1.02368467e-01f, 1.04807792e-02f, 4.37601320e-02f, 1.37576880e-03f, -2.31462438e-02f, -3.14484425e-02f,
    -2.82262620e-02f, -9.93750319e-02f, 3.44164521e-02f, 1.56725477e-02f, -6.60579652e-02f, -4.75603715e-02f, 2.92122755e-02f, 9.17230099e-02f,
    8.44806898e-03f, 1.70233712e-01f, 1.02153577e-01f, -3.82542647e-02f, 1.33775607e-01f, 1.16696797e-01f, 7.86375850e-02f, -3.44792120e-02f,
    1.01006217e-01f, -3.96962604e-03f, 7.98578113e-02f, 8.72872304e-03f, -7.80336931e-03f, -4.06257100e-02f, -7.27746561e-02f, 4.53972258e-02f,
    -6.06473396e-03f, 5.82301281e-02f, -9.36049446e-02f, 1.55469794e-02f, -5.10362871e-02f, 3.24125104e-02f, 4.71450351e-02f, -4.83459756e-02f,
    3.31581607e-02f, -2.79278588e-02f, 6.89608380e-02f, -3.93407457e-02f, -3.76286954e-02f, 3.43795307e-02f, -1.00608774e-01f, 2.58010402e-02f,
    -1.38077838e-02f, 8.43883678e-02f, -1.82270724e-02f, -1.38535732e-02f, 1.85263548e-02f, 4.51703789e-03f, 7.36736581e-02f, 2.47173682e-02f,
    -5.28258854e-04f, 1.62477177e-02f, 4.65145223e-02f, 1.41562717e-02f, 1.00896142e-01f, -8.78538638e-02f, -4.57238555e-02f, 5.50510362e-02f,
    -9.08447504e-02f, -1.96102373e-02f, 1.20020755e-01f, 1.06917121e-01f, -1.23710446e-02f, -4.67197709e-02f, -5.79114398e-03f, -5.06550223e-02f,
    -1.74149096e-01f, 2.50344090e-02f, 1.13815758e-02f, -7.53720030e-02f, 7.12866783e-02f, 2.46240720e-02f, -3.06420214e-02f, 2.74848528e-02f,
    4.66188602e-02f, -8.75520110e-02f, 1.53108180e-01f, -4.55666408e-02f, 2.19556957e-01f, -7.03731850e-02f, 8.26663896e-03f, -1.30117893e-01f,
    9.25684795e-02f, 3.22175445e-03f, -4.95333970e-02f, 1.16767390e-02f, 1.83511786e-02f, 1.83704477e-02f, -2.63663288e-02f, -2.93203797e-02f,
    -8.39297194e-03f, 4.18416737e-03f, 2.83639301e-02f, -1.12305842e-01f, 1.56393778e-02f, -1.15034766e-02f, 2.95245415e-03f, -2.03755647e-02f,
    5.47579080e-02f, 3.34559232e-02f, 3.44258524e-03f, 5.70096672e-02f, 7.78799178e-04f, 9.56095828e-05f, 3.51107568e-02f, -3.28132659e-02f,
    -3.73530351e-02f, -5.21013737e-02f, -7.10509205e-03f, 8.76784921e-02f, -2.86371801e-02f, 1.63918268e-02f, 8.07235092e-02f, -9.08059347e-03f,
    -1.02469943e-01f, 3.93001214e-02f, -1.82282496e-02f, 1.34490013e-01f, 4.34830040e-02f, 1.06409844e-02f, -5.51266819e-02f, 8.22990015e-02f,
    6.24055639e-02f, 4.22930680e-02f, 2.19021197e-02f, -8.23526233e-02f, 1.16730399e-01f, -4.59981672e-02f, 8.85216221e-02f, -1.15642436e-02f,
    9.74544436e-02f, -5.88706741e-03f, 4.02414761e-02f, -8.82784799e-02f, -1.28844708e-01f, 8.11298564e-02f, 2.43461952e-02f, 1.44462496e-01f,
    9.68833789e-02f, 2.66903918e-03f, 8.16057995e-02f, 4.19471189e-02f, 2.99839918e-02f, -1.15122840e-01f, -9.42346230e-02f, 2.73237824e-02f,
    -1.30454645e-01f, 6.47893324e-02f, 3.89287360e-02f, -2.33702753e-02f, 1.20782532e-01f, 1.30936876e-01f, -4.74224389e-02f, 1.73190015e-03f,
    8.02400485e-02f, -6.20563179e-02f, -1.18492156e-01f, 9.26932916e-02f, -4.67716679e-02f, -7.72395879e-02f, 1.53379831e-02f, 5.09186136e-03f,
    -4.40091966e-03f, 9.24570858e-02f, 2.60111075e-02f, 1.08335808e-01f, -7.76656950e-03f, -1.91109985e-01f, 3.04293185e-02f, -1.46395147e-01f,
    1.52042173e-02f, 6.40498996e-02f, -7.92131573e-03f, 3.49877309e-03f, 5.35661206e-02f, -5.20431772e-02f, -1.80983916e-02f, -1.37540430e-01f,
    4.67484295e-02f, 2.17492394e-02f, -2.16675196e-02f, -1.48047611e-01f, -1.54750615e-01f, 1.27195984e-01f, 7.66628981e-02f, -1.64921954e-02f,
    5.68337105e-02f, -6.49196580e-02f, 1.34083301e-01f, -5.69649488e-02f, -5.87733537e-02f, 1.38554841e-01f, -1.21792881e-02f, -1.30800471e-01f,
    -7.53914490e-02f, -8.96065235e-02f, 2.07893644e-02f, 6.40040562e-02f, 4.12341468e-02f, -1.32955268e-01f, -2.78732982e-02f, -1.65088587e-02f,
    -4.61911336e-02f, -1.33977026e-01f, -3.41715999e-02f, -4.37669903e-02f, -1.93549514e-01f, 6.38041943e-02f, -5.88665381e-02f, 3.78807448e-02f,
    3.01147345e-02f, -2.24176906e-02f, 1.66888244e-03f, -1.26093328e-01f, -1.22683764e-01f, -4.20454005e-03f, -4.55577299e-02f, 7.89491180e-03f,
    -2.78674215e-01f, 1.64169148e-01f, -2.62238644e-02f, -1.17228381e-01f, 1.08359449e-01f, -1.49153068e-03f, -8.67716670e-02f, 1.65157825e-01f,
    1.44684970e-01f, -1.52171552e-01f, -1.28718883e-01f, 4.88582160e-03f, -3.33512723e-02f, 3.39637995e-02f, 1.69859413e-05f, -1.14085544e-02f,
    -1.45976497e-02f, 8.98190141e-02f, 1.27106622e-01f, -1.41533487e-03f, -1.13649294e-01f, 1.15714259e-01f, 4.38104523e-03f, -2.75660492e-02f,
    2.94299386e-02f, -9.07577127e-02f, 1.42610714e-01f, -5.73935024e-02f, -6.53255731e-02f, -1.62365418e-02f, 5.81349880e-02f, 3.95566672e-02f,
    1.80107921e-01f, 2.98200380e-02f, -3.06600425e-02f, -5.56207746e-02f, -1.02896541e-02f, 1.20953195e-01f, -7.58427158e-02f, -1.34394774e-02f,
    -1.46607190e-01f, 8.89433250e-02f, 9.33331996e-02f, 1.72656193e-01f, 3.40003967e-02f, 4.83678319e-02f, 4.93826643e-02f, -6.61872420e-03f,
    1.79384932e-01f, -2.43761465e-02f, 3.47936861e-02f, -3.90093662e-02f, 6.12288974e-02f, -1.78788267e-02f, 1.04843572e-01f, 7.58810192e-02f,
    -1.20014668e-01f, 3.52709815e-02f, 5.64004555e-02f, 8.09181482e-02f, 5.48425838e-02f, -2.65673436e-02f, -3.89502943e-02f, -8.84145647e-02f,
    2.17139721e-01f, -1.17037287e-02f, -6.08555973e-02f, 4.24791537e-02f, -4.26129773e-02f, 1.32856876e-01f, 1.59623072e-01f, 4.15629447e-02f,
    4.14207671e-03f, -2.07214624e-01f, -7.46109411e-02f, -1.13142520e-01f, 5.57163954e-02f, 3.10909320e-02f, 7.06478860e-03f, 8.30968767e-02f,
    3.04490417e-01f, -5.08495644e-02f, -1.53406784e-01f, 1.13887414e-01f, -2.59309337e-02f, 1.00870878e-01f, -9.22001302e-02f, 2.65249256e-02f,
    -9.81855616e-02f, 1.53798550e-01f, -3.17863524e-02f, -1.04562245e-01f, 3.80650647e-02f, -7.04524815e-02f, -4.83759753e-02f, 1.49005828e-02f,
    -5.69267347e-02f, 9.96124372e-02f, -3.11210696e-02f, -8.78590494e-02f, -9.95708629e-02f, 2.45688800e-02f, -2.87939496e-02f, 1.03575200e-01f,
    -1.51179442e-02f, 5.12545258e-02f, 1.32906556e-01f, 3.27704512e-02f, -7.81439152e-03f, 2.88944296e-03f, -8.46435968e-03f, -6.85226545e-02f,
    4.19401079e-02f, 4.99597937e-02f, -8.29001740e-02f, -1.12676762e-01f, 6.55060485e-02f, -6.08705506e-02f, 9.07160938e-02f, 4.68863770e-02f,
    -4.11907397e-03f, 3.83539163e-02f, 3.39727923e-02f, 1.33790046e-01f, 2.44494393e-01f, 9.79825202e-03f, -1.81016490e-01f, 7.13943318e-02f,
    -5.07000126e-02f, 2.87138013e-04f, -1.45768141e-02f, 1.27891496e-01f, -2.94627324e-02f, 8.19666386e-02f, 4.26678397e-02f, -4.57130633e-02f,
    -1.07494429e-01f, 1.82249285e-02f, -5.65800257e-02f, 5.81954932e-03f, -3.64083126e-02f, 3.10140047e-02f, 2.65553314e-02f, 2.59398613e-02f,
    2.02481006e-03f, -1.69908330e-01f, -2.68841051e-02f, -3.42807136e-02f, 1.06413335e-01f, 5.45972064e-02f, -3.47960033e-02f, 9.92109105e-02f,
    -1.65622740e-03f, 6.74683303e-02f, 3.51408646e-02f, -1.32279947e-01f, 3.58235650e-02f, -7.16118068e-02f, 4.93434221e-02f, 4.39855792e-02f,
    -9.57806595e-03f, -1.07925599e-02f, 7.27020055e-02f, 4.82778903e-03f, -5.75985797e-02f, 3.26159075e-02f, 3.53487618e-02f, 3.23311239e-02f,
    -1.98241398e-02f, 5.37263267e-02f, 9.87400785e-02f, -4.01721485e-02f, -6.57735532e-03f, 1.23268247e-01f, -6.59118816e-02f, 1.31336432e-02f,
    9.49118063e-02f, -1.05844855e-01f, 2.34523173e-02f, 5.05219698e-02f, -1.01495050e-01f, -6.19940683e-02f, 3.44321728e-02f, 7.42000490e-02f,
    4.71521914e-02f, -8.45343061e-03f, -5.93946055e-02f, -6.56057894e-02f, -3.62805612e-02f, 1.14152074e-01f, -1.78719703e-02f, -1.69234741e-02f,
    -2.32394114e-02f, -4.23995927e-02f, 2.22364925e-02f, -5.03023975e-02f, 3.27648669e-02f, 5.24056256e-02f, 9.61944982e-02f, 8.45333487e-02f,
    1.04668573e-03f, -1.06565371e-01f, -6.03821613e-02f, 3.04162651e-02f, 6.41517667e-03f, -3.02727893e-02f, 8.49091783e-02f, 1.31451655e-02f,
    1.79572795e-02f, -2.06363574e-02f, 5.42219579e-02f, -2.51734536e-02f, 1.03870712e-01f, 1.24166206e-01f, 3.81525494e-02f, 1.18990451e-01f,
    9.64383930e-02f, 3.55091952e-02f, -4.70944457e-02f, -7.70970657e-02f, 3.23431119e-02f, 5.89357018e-02f, 6.96802065e-02f, -4.06173430e-02f,
    1.57458246e-01f, -1.84337869e-02f, -3.96891162e-02f, -5.05032465e-02f, 2.45282426e-02f, 5.14700785e-02f, 1.29584938e-01f, -7.76402950e-02f,
    -3.16935335e-03f, -2.94576753e-02f, -7.07605705e-02f, 5.73787019e-02f, -8.67898986e-02f, 9.30245072e-02f, -2.20991448e-02f, 2.45474260e-02f,
    2.43766978e-02f, -7.56608918e-02f, 1.86324380e-02f, 9.48703215e-02f, -7.69479871e-02f, -9.13574770e-02f, 8.70146789e-04f, -3.82085592e-02f,
    4.89993244e-02f, -4.43515293e-02f, 1.73129551e-02f, -1.03620805e-01f, 1.49342110e-02f, 1.23957396e-02f, 1.70687929e-01f, -5.73533215e-02f,
    1.07112445e-01f, 3.83061320e-02f, 1.46691963e-01f, 1.77597672e-01f, -8.64610523e-02f, 7.57800192e-02f, -6.17369870e-03f, 4.78134528e-02f,
    3.43845822e-02f, -1.53144728e-03f, -3.95854339e-02f, -8.22191015e-02f, -3.66873331e-02f, 6.66413307e-02f, 6.60827458e-02f, -6.42986149e-02f,
    5.09020984e-02f, 1.93054322e-02f, -3.79243828e-02f, -4.73297499e-02f, 5.74298343e-03f, 6.49883598e-02f, -7.77270272e-02f, -3.01518124e-02f,
    -1.22364797e-01f, 3.56941223e-02f, 1.74110737e-02f, -3.07748634e-02f, 3.04349493e-02f, 1.15191741e-02f, -2.95372065e-02f, 8.15437287e-02f,
    1.44287618e-02f, 1.62567608e-02f, -1.30750262e-03f, -9.14139077e-02f, -9.33657493e-03f, 1.04179151e-01f, -5.93701117e-02f, -2.16043979e-01f,
    9.07409042e-02f, -9.37871868e-04f, 6.94481432e-02f, -9.51004867e-03f, -7.36345947e-02f, -8.07529613e-02f, -3.22546251e-02f, -5.45081981e-02f,
    -5.57044819e-02f, 6.44477410e-03f, -2.66378429e-02f, 3.07131112e-02f, 6.06232882e-02f, -3.37737962e-03f, 4.87192161e-02f, 1.13328602e-02f,
    1.28834933e-01f, -5.79252169e-02f, 3.77192609e-02f, 3.71730775e-02f, -1.04046471e-01f, 2.09437422e-02f, 7.10800290e-02f, 7.21209124e-03f,
    -5.89761920e-02f, 2.07482800e-02f, 1.70473680e-02f, -9.20835361e-02f, 2.52265134e-03f, 2.14705318e-02f, -1.08623870e-01f, -1.27223328e-01f,
    -2.49299351e-02f, 4.09556972e-03f, 9.11365356e-03f, 3.25413095e-03f, -5.31512201e-02f, 2.69912165e-02f, 2.78129671e-02f, 6.99476600e-02f,
    9.53926370e-02f, -3.92472520e-02f, -9.05595999e-03f, 1.21328626e-02f, -1.14027917e-01f, 1.14360256e-02f, 1.19485743e-02f, -4.09935899e-02f,
    4.36582603e-02f, 1.74888417e-01f, 6.85102195e-02f, -2.99368706e-02f, -5.06112389e-02f, 2.82775722e-02f, -1.28350854e-02f, 2.73221508e-02f,
    -5.07293865e-02f, -3.26704010e-02f, 2.51093488e-02f, 2.74945162e-02f, 3.83384190e-02f, -1.02189422e-01f, -2.04777867e-02f, 1.77309308e-02f,
    -7.71296099e-02f, -1.29882574e-01f, 3.61906923e-02f, -1.19197518e-02f, 4.39582169e-02f, 1.22472718e-02f, -1.01410560e-01f, -1.15996525e-02f,
    3.66616845e-02f, 8.59469026e-02f, 6.75395876e-02f, 2.55514421e-02f, 1.25885960e-02f, -2.22086180e-02f, 5.26107498e-04f, 2.19160854e-03f,
    1.67042166e-02f, -2.21782345e-02f, 3.31231840e-02f, 1.26681030e-01f, 8.52857381e-02f, -2.56536976e-02f, 6.72117546e-02f, -2.74435636e-02f,
    8.81455466e-03f, -6.64702281e-02f, 1.11816935e-01f, 3.28754783e-02f, 7.36881569e-02f, -1.52084241e-02f, -2.46939845e-02f, 5.79148084e-02f,
    -3.49530578e-02f, -4.49296534e-02f, 3.25411223e-02f, -3.32206348e-03f, -2.40606293e-02f, 2.61040013e-02f, 3.85713205e-02f, 4.95169051e-02f,
    -3.56879570e-02f, -3.29816826e-02f, 4.14134515e-03f, 9.04236883e-02f, -9.97128412e-02f, 3.51672620e-02f, -7.68809915e-02f, 1.52356336e-02f,
    -6.68502925e-03f, 2.48338543e-02f, 8.97288546e-02f, 7.45083019e-02f, 4.82334979e-02f, 2.43394799e-03f, -5.22721112e-02f, 8.09930265e-03f,
    2.13885289e-02f, -7.81317800e-02f, 2.52128462e-03f, 1.74107030e-01f, -3.14266562e-01f, 3.47722881e-02f, -1.76866762e-02f, 1.30719170e-02f,
    6.29759133e-02f, 5.19336172e-05f, -1.00356564e-01f, -5.59534244e-02f, -1.11133456e-02f, 1.23015791e-02f, -7.60822073e-02f, -2.75896471e-02f,
    6.59844205e-02f, 7.03125820e-02f, -3.99965122e-02f, 3.28809991e-02f, 7.65040144e-02f, 4.42988202e-02f, -1.09069042e-01f, 6.22954369e-02f,
    -9.53978002e-02f, 2.00562626e-02f, -2.99534313e-02f, -4.44948711e-02f, -1.11463472e-01f, -1.97699144e-02f, -5.22681437e-02f, 1.92623772e-02f,
    4.14344259e-02f, 4.67695259e-02f, 8.07763636e-02f, 1.88734129e-01f, -5.13974093e-02f, 2.64224838e-02f, -3.02373432e-02f, 1.25617087e-01f,
    -5.91515703e-03f, -5.64011708e-02f, -3.87667567e-02f, 2.19644653e-03f, -4.24999297e-02f, 8.76636803e-02f, 4.08746004e-02f, -6.39986340e-03f,
    1.19271539e-02f, 3.95626901e-03f, 6.29599243e-02f, 3.32622137e-03f, -6.00903705e-02f, 7.93934017e-02f, -8.62200931e-03f, 2.00255439e-02f,
    3.82512324e-02f, -3.45785357e-02f, -4.03936990e-02f, -2.97651514e-02f, 8.07533320e-03f, -2.37785205e-02f, 8.80590975e-02f, -2.69290376e-02f,
    2.52436250e-02f, -1.32064939e-01f, -4.27528657e-02f, -1.97138563e-02f, -6.94275796e-02f, -3.34904306e-02f, -7.76940770e-03f, -1.71184465e-02f,
    -2.24498622e-02f, 1.00269929e-01f, -6.22360632e-02f, 2.04288214e-01f, -8.90953839e-02f, -4.70110029e-02f, 5.37692383e-03f, 5.36491163e-02f,
    4.29703072e-02f, -4.73195396e-04f, 4.47698794e-02f, -2.73219030e-02f, 6.22433238e-02f, 4.50669155e-02f, -4.49374020e-02f, 7.85542652e-03f,
    3.65989096e-03f, 4.14714515e-02f, -6.28593564e-02f, -2.32988186e-02f, 3.61632444e-02f, -6.75082486e-03f, -7.47175813e-02f, -7.02150911e-02f,
    -5.37898280e-02f, -8.31389129e-02f, -2.31065024e-02f, 3.21117677e-02f, -2.76138298e-02f, -2.94468906e-02f, -2.99120080e-02f, 1.77876502e-01f,
    8.96728933e-02f, -6.69128150e-02f, 9.26168039e-02f, -7.91894570e-02f, -3.16363350e-02f, 1.66961104e-02f, -1.44573122e-01f, 4.07150760e-02f,
    1.40454158e-01f, -5.80911413e-02f, 3.43791433e-02f, -1.52298650e-02f, 1.17467269e-02f, 3.66530493e-02f, 1.36147246e-01f, 1.70484230e-01f,
    1.99952513e-01f, 9.50424559e-03f, 2.03549907e-01f, 5.40020596e-03f, -3.08025241e-01f, 2.10049450e-02f, 1.39906764e-01f, -9.11932141e-02f,
    1.17363766e-01f, 1.05940914e-02f, -5.66367358e-02f, -1.00088626e-01f, 4.13294047e-01f, 3.28537524e-02f, -8.46247897e-02f, -1.39793437e-02f,
    1.36116832e-01f, 2.02780198e-02f, -8.84186570e-03f, 1.38060421e-01f, 5.83846159e-02f, -8.98592845e-02f, 1.65934503e-01f, -5.28696924e-02f,
    7.53242299e-02f, 3.02497204e-02f, -2.10383639e-01f, -4.30899896e-02f, 8.30814801e-03f, 1.08651360e-02f, 1.66505983e-03f, -5.70682809e-03f,
    -2.57446077e-02f, -1.16599239e-01f, 2.25635264e-02f, -6.67067477e-03f, 5.45300134e-02f, 3.24374326e-02f, -8.11013877e-02f, -2.87299119e-02f,
    4.44599465e-02f, -1.71241120e-01f, 7.17136040e-02f, 3.61063741e-02f, -1.19468458e-01f, 9.93489381e-03f, -3.85260098e-02f, 2.14345884e-02f,
    5.67414686e-02f, 2.80913077e-02f, -6.72571138e-02f, 1.41314085e-05f, 2.53032446e-02f, -5.22771329e-02f, 2.76413616e-02f, -3.91181000e-02f,
    1.40059190e-02f, -1.70052573e-02f, -4.55744147e-01f, 5.35575580e-03f, -3.36592644e-02f, -6.15974851e-02f, -1.85672343e-02f, 3.41783203e-02f,
    2.51779309e-03f, -6.74420819e-02f, 1.49223700e-01f, -5.16341329e-02f, 1.84563085e-01f, -8.94181803e-02f, 4.79105227e-02f, 1.43844917e-01f,
    9.78468172e-03f, 4.68560308e-03f, 4.58361208e-02f, 9.14272293e-02f, -2.38012373e-02f, -4.01910879e-02f, -5.54410368e-02f, 1.07938327e-01f,
    -2.54945899e-03f, -2.22892120e-01f, -1.47655115e-01f, -1.02245416e-02f, 2.16538459e-01f, -7.91202635e-02f, -6.26548529e-02f, 1.05042756e-01f,
    6.41612411e-02f, 4.84621786e-02f, -9.92219662e-04f, 7.14374781e-02f, 4.84362543e-02f, 1.88037474e-03f, 1.16021991e-01f, -1.83000155e-02f,
    -4.99585643e-02f, 8.80639851e-02f, -1.38663843e-01f, -2.34600052e-01f, -1.74796283e-02f, -2.60111034e-01f, -7.62347430e-02f, 8.58769491e-02f,
    -4.38473299e-02f, -3.47239859e-02f, 2.76445653e-02f, 4.63791104e-04f, -1.55520231e-01f, -2.57517435e-02f, 7.84163177e-03f, 1.25767794e-02f,
    3.80261941e-03f, 2.24859938e-02f, 4.67216790e-01f, -9.74135250e-02f, -5.29162437e-02f, 4.16505150e-02f, 2.51501556e-02f, 6.84457496e-02f,
    -7.90957585e-02f, -4.14683431e-01f, -1.28013140e-03f, 1.77925214e-01f, -1.10235520e-01f, 5.30585110e-01f, -1.24775814e-02f, -1.57512017e-02f,
    -1.74495354e-01f, -5.60427979e-02f, -3.68648693e-02f, -6.35862276e-02f, 2.28424460e-01f, -4.38266993e-02f, 5.78029379e-02f, 9.52756777e-03f,
    5.22764027e-02f, 2.77705565e-02f, -1.00679649e-02f, 2.56315880e-02f, 4.17988412e-02f, -5.84625788e-02f, -1.27746314e-01f, 2.07039416e-02f,
    5.07646203e-02f, 1.89977530e-02f, 7.50931120e-03f, 1.24494666e-02f, -1.55988978e-02f, 3.68704498e-02f, 1.25345318e-02f, -2.05536047e-03f,
    7.89096728e-02f, 7.24143907e-03f, -1.28284385e-02f, -6.14381656e-02f, 1.08269118e-02f, 1.53149813e-02f, -3.35006751e-02f, -1.06956169e-01f,
    -6.50450662e-02f, 3.21689434e-03f, 5.28462715e-02f, -8.59445799e-03f, -3.11648641e-02f, 4.88843843e-02f, -8.05498809e-02f, -9.29244757e-02f,
    9.14872531e-03f, -3.17447744e-02f, -3.28843184e-02f, -8.12879356e-04f, -4.50644419e-02f, -7.70887136e-02f, 8.51296075e-03f, 5.05322441e-02f,
    -7.13354871e-02f, -8.44179466e-02f, 2.77846996e-02f, 2.71332934e-02f, 6.21810071e-02f, -8.72908905e-02f, 3.99033725e-03f, -4.09349240e-02f,
    -9.35965553e-02f, -1.04733706e-02f, 1.03397015e-02f, 3.14857401e-02f, 4.97738533e-02f, -1.70156267e-02f, -5.80577552e-02f, -1.23139918e-02f,
    7.39924889e-03f, 3.60826552e-02f, -6.26251623e-02f, -2.37732474e-02f, -6.55071484e-03f, 9.21272393e-03f, 9.98068484e-04f, -5.40846996e-02f,
    -4.06096131e-03f, -8.82472992e-02f, 5.34626981e-03f, -4.61353362e-02f, -6.13966361e-02f, -8.71806070e-02f, 1.09580802e-02f, 9.23629925e-02f,
    -2.65877997e-03f, 3.63247432e-02f, 1.37730181e-01f, -4.51115258e-02f, 1.07287250e-01f, 4.12013270e-02f, 1.10298321e-02f, 3.74144427e-02f,
    -6.98091462e-02f, 6.72102422e-02f, -4.86475863e-02f, -7.53897727e-02f, -4.81254794e-02f, -3.70849967e-02f, -5.25110438e-02f, 7.11244941e-02f,
    1.98391363e-01f, 1.64572507e-01f, 1.68829679e-01f, 9.65481848e-02f, -7.18526989e-02f, -4.80967090e-02f, 5.76900356e-02f, -1.20146824e-02f,
    -1.16654277e-01f, -1.01790406e-01f, 9.34985504e-02f, -1.94467593e-03f, -8.21868777e-02f, 6.31496403e-03f, -9.51173436e-03f, -1.15802297e-02f,
    -2.43852809e-02f, 1.64803229e-02f, -1.61600132e-02f, -4.21021357e-02f, -8.58506262e-02f, 4.40971293e-02f, 7.26209953e-02f, 1.07056893e-01f,
    -2.90806573e-02f, 1.20987063e-02f, -6.70714974e-02f, 1.82252914e-01f, -3.08400346e-03f, -1.71605200e-02f, -4.75183837e-02f, 1.38955966e-01f,
    -3.27339508e-02f, 4.03705128e-02f, -6.79435655e-02f, 9.26315598e-03f, 9.36715119e-03f, -3.74544784e-02f, 3.75169739e-02f, 4.97062616e-02f,
    -6.68587536e-02f, 8.13363120e-03f, 4.92520221e-02f, 1.68583676e-01f, 3.54716666e-02f, -2.71074865e-02f, 9.60250124e-02f, 3.27704847e-02f,
    -1.09426659e-02f, -4.76783216e-02f, -1.04200333e-01f, 9.61606726e-02f, 9.98508260e-02f, -8.14149454e-02f, -6.94039138e-03f, 8.80852640e-02f,
    5.98197766e-02f, 5.49329370e-02f, -1.19158536e-01f, -3.74294743e-02f, 2.66442355e-02f, -1.61622465e-02f, 8.59661177e-02f, -4.48310338e-02f,
    9.02713276e-03f, 1.05024286e-01f, -2.74525881e-02f, -3.20966579e-02f, -5.57534769e-02f, 2.19079684e-02f, 1.72427259e-02f, 1.52298734e-02f,
    -1.73503943e-02f, -2.97835916e-02f, 3.26663777e-02f, 1.85766872e-02f, 1.34592801e-02f, -2.54445113e-02f, 6.71762601e-03f, 5.51904691e-03f,
    1.08417258e-01f, -6.66719228e-02f, -1.25600874e-01f, 4.84031513e-02f, 7.17883185e-02f, -3.68326567e-02f, 3.60551593e-03f, -1.19320706e-01f,
    -3.24987099e-02f, 2.45163101e-03f, 1.65437032e-02f, 5.20671085e-02f, -1.55978054e-02f, -4.05448601e-02f, 1.43091260e-02f, 5.44536440e-03f,
    -5.51732965e-02f, 2.55839061e-02f, -3.51765640e-02f, 5.15686311e-02f, 1.92437917e-02f, -8.27293936e-03f, 1.35510489e-01f, -3.35704125e-02f,
