#include "features_4_squeeze_weight.h"

__attribute__((aligned(16))) const float features_4_squeeze_weight[2048] = {
    -2.09022481e-02f, -2.44577751e-02f, -1.63206205e-01f, -4.24792767e-02f, -1.62137628e-01f, -2.35419422e-01f, 2.35398099e-01f, 1.25746086e-01f,
    1.29949972e-01f, -2.92168587e-01f, 2.40207404e-01f, 1.60491809e-01f, -2.53999799e-01f, 1.98082879e-01f, -7.35953301e-02f, 4.16077226e-02f,
    -2.03101680e-01f, -6.68220744e-02f, -2.50544012e-01f, -1.65356338e-01f, -2.68476875e-03f, 2.49252334e-01f, -1.39444754e-01f, -4.13674653e-01f,
    2.25734841e-02f, -1.85375527e-01f, 2.11432412e-01f, -2.27808371e-01f, 2.20254734e-02f, 4.84465137e-02f, 2.30567381e-01f, 3.48646902e-02f,
    6.10848814e-02f, 1.06914915e-01f, 6.85459673e-01f, -6.45254999e-02f, 6.37606112e-03f, -5.24852984e-02f, 4.47773755e-01f, 1.95312366e-01f,
    3.61934423e-01f, -7.28071183e-02f, -4.27552275e-02f, 1.62729099e-01f, 5.14761329e-01f, -2.37910107e-01f, 1.33864149e-01f, -2.01639369e-01f,
    -2.33226776e-01f, 1.31957695e-01f, 5.25124259e-02f, 5.77847846e-02f, 1.39870435e-01f, -7.84628317e-02f, -9.86354426e-02f, -6.89201578e-02f,
    -2.33168509e-02f, -1.58523247e-01f, 6.77466333e-01f, -8.99490863e-02f, 9.10823196e-02f, -8.46108794e-02f, -1.27837151e-01f, 4.69634309e-02f,
    2.89642721e-01f, 3.91470008e-02f, -1.90042835e-02f, 1.89698860e-01f, -7.80077884e-03f, -1.46569712e-02f, 1.99875489e-01f, 5.49607091e-02f,
    1.80918112e-01f, -3.68995033e-02f, 1.54049650e-01f, 1.26831683e-05f, -8.50783437e-02f, -8.06995258e-02f, -5.74742481e-02f, 2.13565882e-02f,
    6.20772392e-02f, -1.43044712e-02f, -8.01105797e-02f, 1.17098346e-01f, -1.38524352e-02f, 2.31811374e-01f, 1.11280344e-01f, -3.60617608e-01f,
    3.64097685e-01f, 1.33214429e-01f, 1.89499617e-01f, 4.84155789e-02f, 2.25222871e-01f, -1.48060303e-02f, 2.90520601e-02f, 1.67267583e-02f,
    5.93938911e-03f, -4.89869853e-03f, -1.82770602e-02f, -7.02238232e-02f, -1.16133809e-01f, 2.12980539e-01f, 1.14959240e-01f, 7.78195485e-02f,
    -2.17647880e-01f, 1.56725347e-02f, 2.08227970e-02f, 8.93493518e-02f, 1.16535328e-01f, 2.39975601e-01f, 2.12983806e-02f, 9.58162174e-02f,
    3.72698486e-01f, -1.94190145e-02f, 7.26731792e-02f, 4.46987934e-02f, 6.78608343e-02f, -1.42549291e-01f, -4.54198830e-02f, 3.21877711e-02f,
    9.85500365e-02f, 1.57120511e-01f, -4.34488617e-02f, 1.52705193e-01f, 9.16122124e-02f, -3.55172753e-02f, -4.94262464e-02f, 1.19993895e-01f,
    9.15612504e-02f, 1.05087675e-01f, 1.88554734e-01f, 6.95700571e-02f, -2.74456497e-02f, -3.36547941e-01f, 1.19070314e-01f, -3.05111051e-01f,
    -2.50575803e-02f, 8.10004324e-02f, -4.02565002e-01f, -7.07111955e-02f, 9.02038589e-02f, -3.42028402e-02f, 7.59489238e-02f, 4.23462829e-03f,
    -4.02297169e-01f, -7.71145150e-02f, -2.66367227e-01f, -1.31485075e-01f, -3.80395837e-02f, -1.29140705e-01f, 2.04505712e-01f, 2.76409090e-01f,
    3.63688655e-02f, -1.47337630e-01f, 7.00610951e-02f, -1.42009109e-01f, -8.94726603e-04f, 3.87079418e-02f, -3.68619710e-01f, 2.63848126e-01f,
    9.60126221e-02f, -2.47223396e-02f, 1.66744992e-01f, -2.67698586e-01f, 9.11885947e-02f, 1.37883440e-01f, -2.64801294e-01f, 8.70961919e-02f,
    -2.96282172e-01f, -2.46601254e-01f, 6.71430156e-02f, -3.31288517e-01f, 1.02007277e-01f, -1.68610409e-01f, 8.29673946e-01f, -2.79791951e-01f,
    -2.12845579e-02f, -9.34729278e-02f, 4.59049381e-02f, -9.16535631e-02f, 4.49479967e-02f, -1.95760548e-01f, -5.45638725e-02f, -3.50005664e-02f,
    2.52291132e-02f, 6.26268685e-02f, -4.87030372e-02f, 9.20205787e-02f, 8.46559033e-02f, 4.73094247e-02f, 3.54328364e-01f, 2.40315218e-02f,
    -5.65100759e-02f, 2.04776809e-01f, 2.35084862e-01f, -6.30155951e-02f, -1.49244126e-02f, 1.46607041e-01f, 5.96763827e-02f, -9.73420069e-02f,
    1.00193657e-02f, 1.39555708e-01f, 1.90359384e-01f, 5.72908129e-06f, -2.11271331e-01f, -2.67533064e-01f, -2.38243371e-01f, -2.24873349e-01f,
    4.36636806e-02f, 8.85911286e-02f, -2.14234665e-02f, -2.11357579e-01f, 1.67753905e-01f, -5.48707247e-02f, -1.65110379e-02f, -1.02305755e-01f,
    -1.17050953e-01f, -1.26911506e-01f, 1.48588836e-01f, -1.05043836e-01f, 4.09966148e-02f, 1.27537772e-02f, 8.48115459e-02f, -1.90659165e-01f,
    4.38421875e-01f, 2.64965504e-01f, -1.96291417e-01f, -3.54462937e-02f, 8.66996944e-02f, 1.00312136e-01f, 1.01131395e-01f, -7.58612007e-02f,
    -1.11278698e-01f, -2.57602124e-03f, -1.57388493e-01f, -1.18120320e-01f, -9.30565745e-02f, 2.20377177e-01f, 4.09054086e-02f, 4.25240323e-02f,
    -8.37891847e-02f, -5.42124547e-03f, 1.73333272e-01f, -5.62549420e-02f, 8.39988738e-02f, -3.66225280e-02f, -2.06033140e-01f, -4.73680384e-02f,
    -3.77532700e-03f, -2.19203129e-01f, 8.18678290e-02f, -1.36217484e-02f, 1.03893362e-01f, -2.29220629e-01f, -4.72870506e-02f, -9.02985781e-02f,
    4.56485339e-02f, 2.64449604e-02f, -3.74061733e-01f, -5.68813942e-02f, -9.08731425e-04f, 1.04483619e-01f, 3.82545292e-02f, 4.38928604e-02f,
    4.90815699e-01f, 3.21616828e-01f, 4.27030772e-03f, -2.21807435e-02f, -6.10948838e-02f, 3.51144113e-02f, 9.92198363e-02f, 6.54548034e-02f,
    8.09998531e-03f, -3.67026939e-03f, -1.29493982e-01f, -5.75120412e-02f, 1.02481611e-01f, -2.62730688e-01f, -2.25235000e-01f, 2.35751167e-01f,
    7.31054619e-02f, -6.40987456e-02f, 9.63577479e-02f, 1.12228379e-01f, 7.76170345e-04f, 2.05940567e-03f, -1.07924335e-01f, -2.72213528e-03f,
    -5.67778125e-02f, 3.14673744e-02f, -1.22875266e-01f, -4.72477451e-02f, -4.02980968e-02f, 7.43780732e-02f, -1.56458393e-01f, 1.86189488e-01f,
    4.55987900e-02f, -4.95703034e-02f, -9.69387591e-02f, -1.92043185e-01f, -4.29384373e-02f, -3.71801049e-01f, 8.30231309e-02f, -5.72986156e-02f,
    -3.50452125e-01f, 2.31238365e-01f, 9.54364240e-02f, -2.59685256e-02f, 2.69491881e-01f, 5.61948836e-01f, 1.62388772e-01f, -1.49626061e-01f,
    4.00560126e-02f, -3.95543277e-01f, 3.08774203e-01f, 1.35822713e-01f, 9.87078547e-02f, 1.76029071e-01f, 7.91811012e-03f, -5.32977842e-02f,
    -3.03352904e-03f, 4.60778102e-02f, 8.38953182e-02f, 1.76011417e-02f, -5.60745522e-02f, 3.95803005e-02f, 3.84857692e-02f, 2.54177332e-01f,
    6.18019998e-02f, 1.49543911e-01f, 4.34905244e-03f, 1.86903508e-05f, 3.23870368e-02f, 1.49442092e-01f, -7.73454234e-02f, -4.81164791e-02f,
    1.74014434e-01f, 3.32945101e-02f, 1.12022012e-01f, 7.79321492e-02f, 1.06769264e-01f, 1.04735918e-01f, 5.83600774e-02f, -1.89012319e-01f,
    3.11255038e-01f, 2.42841989e-02f, -2.54779737e-02f, -1.66823268e-02f, -1.12696216e-01f, -4.55958359e-02f, 1.66122451e-01f, 3.40450227e-01f,
    4.69354466e-02f, 1.46210790e-01f, -2.23986097e-02f, 1.04475483e-01f, 8.44097733e-02f, -5.23942476e-03f, 5.12907505e-02f, -5.29613942e-02f,
    -9.40518081e-02f, -1.27313761e-02f, 8.83514285e-02f, -5.60506508e-02f, -3.90844680e-02f, -5.46275079e-02f, -4.95862775e-02f, -4.39139716e-02f,
    2.95051895e-02f, 9.34489816e-02f, -7.15484424e-03f, -2.67285317e-01f, 5.75229228e-02f, -2.42570490e-02f, 3.77818018e-01f, -2.29526963e-02f,
    1.61735401e-01f, -1.48145542e-01f, 3.71319711e-01f, -1.86915118e-02f, 8.34191218e-03f, 1.75748631e-01f, -1.81069985e-01f, -3.45899127e-02f,
    -5.27591892e-02f, -2.72543907e-01f, -2.81424075e-01f, -1.34525791e-01f, 8.64338577e-02f, -5.74370520e-03f, 7.05927670e-01f, 3.05876374e-01f,
    1.50580406e-01f, 1.19638760e-02f, -1.29404692e-02f, -7.38738701e-02f, -7.81471282e-02f, -2.38493234e-01f, -9.52716023e-02f, -2.41362989e-01f,
    1.58776507e-01f, -1.03757136e-01f, -5.90881966e-02f, 1.67861357e-01f, -7.06636608e-02f, -8.86203721e-02f, -1.58241212e-01f, 2.45648190e-01f,
    -1.37774367e-02f, -3.77314687e-02f, -2.72276793e-02f, -1.31036863e-01f, -1.30286366e-01f, -9.67057347e-02f, -7.61539675e-03f, 2.66982436e-01f,
    6.23052455e-02f, -1.28611848e-01f, 3.86566892e-02f, 7.12750629e-02f, -1.43162400e-01f, -7.28725567e-02f, 8.75077173e-02f, 7.92911127e-02f,
    -1.43504828e-01f, 9.54819247e-02f, -3.48359793e-02f, 4.35289703e-02f, -1.37923613e-01f, 1.62500262e-01f, 1.83748454e-02f, 7.82137923e-03f,
    -2.14276984e-02f, 3.30345258e-02f, 3.86537239e-02f, -1.93748966e-01f, -1.88026831e-01f, 3.28491122e-01f, -1.05816349e-01f, 2.24232778e-01f,
    -8.61735120e-02f, 2.87678912e-02f, -1.07854605e-01f, -1.35746375e-01f, -5.13386913e-02f, -1.25978246e-01f, -4.50929701e-02f, -1.02809742e-01f,
    -3.35581824e-02f, 5.30074351e-02f, -1.10339314e-01f, -3.96116078e-03f, 1.64438877e-02f, 1.57083735e-01f, -7.45366141e-02f, 1.08071350e-01f,
    1.59074664e-01f, 2.41854265e-02f, 5.93052544e-02f, 4.86068093e-05f, 2.05014693e-03f, 9.13134888e-02f, -2.98419092e-02f, -6.39290810e-02f,
    -1.04242237e-02f, -9.89730656e-02f, -4.70053665e-02f, -3.67734358e-02f, -5.89410625e-02f, -1.65250078e-02f, -2.51850542e-02f, -2.43771188e-02f,
    -5.40663712e-02f, 1.24310642e-01f, 3.35561901e-01f, 7.35734999e-02f, 6.52934164e-02f, 3.08268249e-01f, -1.11294642e-01f, 1.63544178e-01f,
    9.71523449e-02f, 2.15911251e-02f, -6.31019920e-02f, -6.72678575e-02f, -2.21403822e-01f, 9.56694856e-02f, -7.70679489e-02f, 1.22614294e-01f,
    7.71286115e-02f, -2.01326925e-02f, -3.21896598e-02f, 3.47073637e-02f, -4.52400967e-02f, 3.71968657e-01f, 3.89613770e-03f, 1.70593664e-01f,
    -7.52358139e-02f, -7.81188160e-02f, -1.46383166e-01f, 2.83220559e-02f, 1.32721528e-01f, -3.07249039e-01f, 1.85690194e-01f, 1.09170824e-02f,
    -3.26516968e-03f, -9.70021412e-02f, -1.26937102e-03f, -1.41912043e-01f, 6.05224371e-02f, -1.87478121e-02f, 1.94728494e-01f, -9.96385235e-03f,
    -3.42005879e-01f, -6.12192461e-03f, 2.18059085e-02f, -8.61902684e-02f, -1.14832809e-02f, -3.19122300e-02f, -5.22894710e-02f, 5.25648706e-02f,
    6.74267337e-02f, -1.12577751e-02f, 6.88042790e-02f, -7.87695795e-02f, 1.32765202e-02f, -3.38739119e-02f, -3.14979665e-02f, -3.87155078e-02f,
    2.70261392e-02f, -1.37305200e-01f, 7.15358788e-03f, -1.21800089e-02f, 8.04626286e-01f, 1.66612826e-02f, -4.40195166e-02f, 8.05949941e-02f,
    1.09800905e-01f, -3.36644910e-02f, 1.04956798e-01f, -4.97184321e-02f, -4.33449931e-02f, -4.87433225e-01f, -3.84026282e-02f, 1.02830164e-01f,
    -3.24743807e-01f, -3.15770805e-02f, 1.68614443e-02f, -4.40569818e-02f, -7.35974638e-03f, -2.26793289e-01f, -1.30029442e-02f, 1.34183466e-01f,
    -1.64965354e-02f, 3.84132611e-03f, 2.89945095e-03f, 1.70397689e-03f, -1.19021265e-02f, -4.21703048e-02f, 4.01097164e-02f, -3.69304344e-02f,
    1.11074969e-01f, 1.03837371e-01f, 2.07294464e-01f, -6.10429756e-02f, -3.92735749e-02f, 5.20267524e-02f, -4.01298143e-02f, -6.33461401e-02f,
    6.75866008e-01f, 1.11173904e-02f, -4.10220511e-02f, 1.82459518e-01f, 2.04210952e-01f, 8.18742812e-02f, -1.24802226e-02f, 6.47577643e-01f,
    -5.23875561e-03f, -1.04610447e-03f, -3.25890332e-02f, -5.19737508e-03f, -3.04797441e-01f, -5.82985505e-02f, -1.08643390e-01f, 9.93707217e-03f,
    -1.78732984e-02f, -2.81826220e-02f, 3.16536091e-02f, -1.91687723e-05f, -5.73617816e-02f, 4.78205038e-03f, 3.29847112e-02f, -1.01471478e-02f,
    -4.77315970e-02f, -2.55742669e-01f, 1.76999405e-01f, -5.08257095e-03f, 1.88978180e-01f, -2.71977074e-02f, -1.27531877e-02f, 2.00443808e-02f,
    -6.21359125e-02f, 2.22272351e-02f, -2.00883344e-01f, 8.28216746e-02f, 6.62848875e-02f, -2.78568398e-02f, -2.79485192e-02f, 9.35077965e-02f,
    5.98580092e-02f, -2.81493571e-02f, 3.02017946e-02f, 3.26782800e-02f, -9.67677981e-02f, 1.39356434e-01f, -1.87957898e-01f, 4.94416326e-01f,
    -6.88055381e-02f, 5.72580509e-02f, 5.30380895e-03f, -4.39717025e-02f, 2.60434300e-02f, 1.57185979e-02f, -4.52710837e-02f, -3.67474630e-02f,
    6.50754720e-02f, 1.21077240e-01f, -3.79396714e-02f, 1.63066704e-02f, 8.48819688e-02f, -5.52877001e-02f, 1.60102174e-01f, 6.40482128e-01f,
    2.79546697e-02f, -6.34783367e-03f, 6.01237155e-02f, -3.89067754e-02f, -5.26338160e-01f, 5.74839972e-02f, 2.83144265e-02f, 7.91546032e-02f,
    -6.73878640e-02f, 1.54811680e-01f, 2.93329954e-01f, -5.41312285e-02f, 7.06794783e-02f, 4.35670793e-01f, 2.36617148e-01f, -5.85402828e-03f,
    -1.51930496e-01f, 3.06946188e-01f, 1.77394375e-01f, 4.65439886e-01f, 3.41017634e-01f, 4.28467505e-02f, 1.82843015e-01f, 7.99126327e-01f,
    3.08081210e-01f, -7.15524405e-02f, -1.69613454e-02f, -2.88140446e-01f, -4.73055057e-02f, 4.91288006e-02f, 2.43481845e-01f, -1.16035558e-01f,
    4.48551178e-02f, -2.20916033e-01f, 3.04651335e-02f, 1.20038807e-01f, -1.91297695e-01f, 4.60331794e-03f, -2.13242248e-01f, 1.80007651e-01f,
    4.38396968e-02f, -7.06582814e-02f, -1.27796575e-01f, -4.92606074e-01f, 8.97868946e-02f, 2.26998463e-01f, 4.68879305e-02f, -1.13798887e-01f,
    1.50776669e-01f, 3.97764355e-01f, -1.17029697e-01f, 1.65422854e-03f, 4.56378400e-01f, -6.48555085e-02f, 1.54180238e-02f, -1.05820082e-01f,
    -1.52018182e-02f, 1.90461800e-01f, -1.81775596e-02f, -2.13756889e-01f, -4.75999229e-02f, 1.31502366e-02f, -3.38478908e-02f, -6.37044832e-02f,
    -1.14804298e-01f, -9.88210551e-03f, -4.58668098e-02f, 7.23835528e-02f, -1.31109804e-01f, 2.86399961e-01f, -1.47021145e-01f, 8.16224143e-02f,
    3.34998041e-01f, -7.39059374e-02f, -1.82449780e-02f, 6.86780736e-02f, -8.24320316e-03f, 7.58744106e-02f, -1.00966981e-02f, -1.70116276e-02f,
    -8.77074897e-02f, -1.27801858e-02f, 2.51593500e-01f, -1.65557376e-05f, -9.31502208e-02f, -1.84591413e-01f, 7.00042024e-02f, 1.32068828e-01f,
    -1.03378622e-02f, 1.45625062e-02f, -1.13621786e-01f, -4.97185849e-02f, -2.96942983e-02f, -1.59627229e-01f, 2.01783314e-01f, 9.03948992e-02f,
    -1.59736037e-01f, 1.71553984e-01f, 5.54241892e-03f, 3.83309200e-02f, -2.30730437e-02f, 1.02877013e-01f, -1.00740358e-01f, 7.69060701e-02f,
    5.50254211e-02f, -3.71958092e-02f, 1.51107341e-01f, 2.30736509e-02f, 2.95031101e-01f, 4.40653972e-02f, 6.98795263e-03f, 2.77256034e-02f,
    4.77854460e-02f, 5.08857367e-04f, 1.10671995e-03f, 4.86099944e-02f, 2.28955075e-02f, 6.46317229e-02f, 1.29856557e-01f, 1.96416184e-01f,
    2.34407000e-02f, 6.44917637e-02f, -1.51759848e-01f, 1.46551341e-01f, 5.13371378e-02f, -2.20461741e-01f, 4.78526652e-02f, -1.87208764e-02f,
    2.54281938e-01f, 3.87780778e-02f, 2.84650978e-02f, 8.89852718e-02f, 7.65065104e-02f, 8.62929374e-02f, -1.29154408e-02f, 1.80933587e-02f,
    -1.53777674e-02f, -2.18318641e-01f, -2.05284774e-01f, -2.80875228e-02f, 4.23309982e-01f, 4.19639707e-01f, -1.18327007e-01f, 2.99747229e-01f,
    2.28670239e-01f, -5.03368303e-02f, 3.36847186e-01f, 2.73886055e-01f, -1.36675805e-01f, -5.46466485e-02f, -1.31551817e-01f, -1.14103761e-02f,
    4.03633654e-01f, 8.26493204e-02f, 1.83786780e-01f, 1.10414505e-01f, 4.03780639e-02f, 2.53573328e-01f, -1.53466135e-01f, -2.71352172e-01f,
    4.66100387e-02f, 2.93209571e-02f, -5.66976070e-02f, 3.59518766e-01f, 1.29117697e-01f, -4.58072498e-02f, 4.31281537e-01f, -3.17137599e-01f,
    -7.50974268e-02f, 4.15985733e-01f, -1.62037909e-01f, 3.27799290e-01f, -1.32548451e-01f, -1.10907830e-01f, 4.50460047e-01f, -7.19284043e-02f,
    5.66658974e-01f, 2.40909874e-01f, -1.15875248e-02f, 3.95233542e-01f, -1.67149812e-01f, 7.04336315e-02f, -8.62210810e-01f, 3.49686593e-01f,
    -6.27057552e-02f, 2.42741033e-02f, -4.55357470e-02f, 2.38604754e-01f, -4.27950919e-02f, 3.04377675e-01f, 3.92706133e-02f, 6.16656184e-01f,
    -1.14151593e-02f, -3.23571451e-02f, 1.30501121e-01f, -1.26754493e-01f, -1.88967705e-01f, -1.15701966e-01f, -2.90560246e-01f, -5.03677204e-02f,
    -2.16348186e-01f, -1.72622204e-01f, -2.51193643e-01f, 4.24162252e-03f, 4.06565405e-02f, -1.17927246e-01f, -8.90811384e-02f, 1.49810120e-01f,
    -1.31989392e-02f, -1.06443055e-01f, -1.25540510e-01f, -3.87463624e-05f, 2.43144274e-01f, 2.50957400e-01f, 1.97680146e-01f, 2.11134806e-01f,
    -2.08492298e-02f, -3.14991847e-02f, 6.63313866e-02f, 2.54648238e-01f, -1.21779159e-01f, 4.54808399e-02f, -7.80623080e-03f, 1.21094786e-01f,
    1.18344039e-01f, 1.52906731e-01f, -1.08536094e-01f, 1.35523394e-01f, 5.00947908e-02f, 5.38756736e-02f, -1.32782653e-01f, 1.23305351e-01f,
    -3.98311436e-01f, -2.37509161e-01f, 2.36720160e-01f, 8.92396495e-02f, -1.19699044e-02f, -8.51193070e-02f, -7.22332224e-02f, 6.68828487e-02f,
    8.71217474e-02f, -3.29951085e-02f, 1.36947080e-01f, 1.83864683e-01f, -5.06708818e-03f, -1.10198401e-01f, 6.66980967e-02f, 2.46432666e-02f,
    5.74443601e-02f, 6.22072108e-02f, -2.49265939e-01f, 6.50097802e-02f, -5.57152517e-02f, 2.35259950e-01f, 2.07669184e-01f, 1.32575929e-01f,
    -2.66676489e-02f, 1.60270482e-01f, -4.65854220e-02f, -2.54781209e-02f, -7.65652955e-02f, 2.42381439e-01f, 2.31614992e-01f, 2.00856358e-01f,
    -1.55811571e-02f, -4.50433381e-02f, -8.06497596e-03f, -3.97454463e-02f, -4.22109216e-02f, -5.69666810e-02f, 8.27625990e-02f, 1.97877944e-01f,
    1.30817443e-02f, 1.09209707e-02f, 3.70491892e-02f, -3.97811905e-02f, -9.04561579e-02f, -4.42918278e-02f, 2.45911330e-02f, -8.49325806e-02f,
    8.25594515e-02f, 4.91266787e-01f, 9.02717467e-03f, 4.27245796e-02f, -1.55070528e-01f, -8.95167068e-02f, -1.13991527e-02f, 2.09141061e-01f,
    7.58743048e-01f, 1.44266395e-03f, 1.42331570e-01f, -5.57169877e-02f, -6.45024851e-02f, 4.96134013e-01f, -2.52920128e-02f, 1.37124225e-01f,
    1.23011738e-01f, -6.92443401e-02f, 4.02937904e-02f, -5.76275289e-02f, -3.07555854e-01f, 1.56350791e-01f, 4.90557253e-02f, 8.74629691e-02f,
    -1.75026320e-02f, 8.18019211e-02f, -8.06195941e-03f, 2.96607167e-02f, -5.15873125e-03f, 1.39067126e-02f, 2.31679175e-02f, 7.10160797e-03f,
    -9.55116004e-03f, 1.36193126e-01f, -5.66482365e-01f, -6.58029243e-02f, -8.16114768e-02f, 9.87616256e-02f, 1.86503097e-01f, -1.52053107e-02f,
    2.48332441e-01f, -2.15829294e-02f, -5.30119427e-02f, -2.50901133e-01f, 7.99920112e-02f, 2.41054930e-02f, -1.66314244e-01f, 3.10331106e-01f,
    -4.44931276e-02f, 1.43637797e-02f, -7.71349072e-02f, -8.41748901e-03f, -3.51678461e-01f, 7.83802122e-02f, 2.35375106e-01f, 4.47722971e-02f,
    8.45158398e-02f, -1.31119162e-01f, 3.76029909e-02f, -1.02887157e-06f, 4.65033296e-03f, 1.66013632e-02f, 2.31128186e-03f, -7.12434426e-02f,
    -6.51979819e-02f, -2.82474071e-01f, 1.21508963e-01f, 7.02197403e-02f, 1.92648888e-01f, 3.83608835e-03f, -1.89188924e-02f, 3.21720820e-03f,
    -4.68200492e-03f, 2.02554315e-02f, -2.31965005e-01f, 5.79169512e-01f, 1.51846530e-02f, -1.12138223e-02f, 5.88336103e-02f, 7.76881650e-02f,
    5.89592643e-02f, 5.93704358e-02f, -6.53331727e-02f, 4.42754216e-02f, -1.85328592e-02f, 6.77706972e-02f, -4.20745105e-01f, 1.45942550e-02f,
    1.58809740e-02f, -4.69231814e-01f, -4.65729237e-02f, 3.21839452e-02f, 3.90801802e-02f, 2.35235631e-01f, -1.15795165e-01f, -1.35651091e-02f,
    3.89796644e-02f, 5.16040698e-02f, -1.02346204e-02f, 2.57177036e-02f, -4.66231108e-01f, 7.20092328e-03f, 5.39592728e-02f, -8.92911758e-03f,
    2.94396169e-02f, 2.26876419e-03f, 4.82546948e-02f, -3.71804237e-01f, 3.06809783e-01f, 4.42333668e-02f, 4.06418890e-02f, 1.21023260e-01f,
    -7.36058056e-02f, 1.25126429e-02f, -5.48460297e-02f, -1.47712111e-01f, -1.10125527e-01f, -1.56184793e-01f, 1.29032761e-01f, 8.65844563e-02f,
    2.59714693e-01f, 1.49792761e-01f, -1.11534610e-01f, -6.75931126e-02f, 6.42508343e-02f, 7.29494554e-04f, 4.37695123e-02f, -2.05540825e-02f,
    -7.20966607e-02f, -1.53857633e-01f, -1.70835778e-01f, -9.73477662e-02f, -7.26627633e-02f, -2.54988730e-01f, -1.21418938e-01f, 2.52916902e-01f,
    -1.07647898e-02f, -4.23795963e-03f, 1.28364652e-01f, -9.35959145e-02f, -6.93074390e-02f, -8.26165006e-02f, -8.23755711e-02f, 2.50682738e-02f,
    -1.06342457e-01f, -1.02970473e-01f, 2.31231656e-02f, -3.14301848e-02f, -1.17682807e-01f, -2.10644696e-02f, -1.33200347e-01f, 2.23317653e-01f,
    -1.60694480e-01f, -4.25763875e-02f, -1.20428294e-01f, -1.54981777e-01f, 2.93882508e-02f, -1.57685056e-01f, 1.89189300e-01f, -1.47031546e-01f,
    -1.79399505e-01f, -6.71462491e-02f, -1.18732139e-01f, -2.12763529e-02f, -2.17762738e-01f, 2.47911721e-01f, -8.29787627e-02f, -1.37484685e-01f,
    2.12609861e-02f, -1.63340956e-01f, -9.86422524e-02f, 4.15973812e-02f, 8.22414011e-02f, 1.13596022e-01f, 1.02308519e-01f, -7.30546415e-02f,
    -2.76919417e-02f, -4.22723740e-02f, -1.39869258e-01f, 5.10549694e-02f, 5.96054755e-02f, 1.83158159e-01f, 1.53780999e-02f, 1.74186677e-02f,
    2.05631275e-02f, -1.54282615e-01f, -6.71260282e-02f, -3.24068569e-05f, 3.52612615e-01f, 2.92110503e-01f, 1.72815159e-01f, 3.55454803e-01f,
    -7.51840472e-02f, 4.21126485e-02f, -5.22714667e-02f, 2.71204978e-01f, -2.06518710e-01f, 3.46323522e-03f, 7.77743310e-02f, -1.86315589e-02f,
    -1.80583641e-01f, 1.46513686e-01f, 2.32774075e-02f, 2.43129760e-01f, 8.39190034e-04f, -1.46517307e-01f, -1.30981207e-01f, 8.81267563e-02f,
    -1.32528722e-01f, -8.31375271e-02f, 2.15255246e-01f, 2.23556951e-01f, 2.16160621e-02f, -1.02909610e-01f, 1.62877634e-01f, 2.03706622e-01f,
    -3.21545303e-02f, 1.23831611e-02f, 2.12813929e-01f, 1.65999398e-01f, -3.47002447e-02f, -8.90399888e-03f, 8.73778537e-02f, 6.38593808e-02f,
    -6.42149523e-02f, 7.46467561e-02f, -1.60411254e-01f, 1.44728392e-01f, 5.94012141e-02f, -1.40241534e-01f, 4.13422920e-02f, 1.34557769e-01f,
    2.03332677e-02f, 1.05100401e-01f, -1.24591649e-01f, -1.35101378e-01f, 1.05427891e-01f, 2.10711390e-01f, -2.13191763e-01f, 5.34261823e-01f,
    4.32784967e-02f, 1.01426452e-01f, 1.55751362e-01f, 1.14392422e-01f, -5.20018348e-03f, 6.40548527e-01f, 1.33348569e-01f, -2.25243077e-01f,
    -9.28466395e-02f, 2.05148205e-01f, -1.70631200e-01f, -2.47643739e-01f, 1.83017462e-01f, -2.19356403e-01f, 2.82966718e-02f, 1.65564939e-02f,
    -1.87427271e-02f, -5.26116826e-02f, 4.47906345e-01f, 3.71675968e-01f, -3.51457410e-02f, -1.65424153e-01f, 1.40142515e-01f, 3.94899487e-01f,
    -1.28112268e-02f, 3.25704247e-01f, 3.97618674e-02f, 1.88315138e-01f, 5.19998074e-02f, 1.31591437e-02f, -1.74735501e-01f, 1.11216046e-01f,
    1.79689582e-02f, -2.30376963e-02f, -4.21376288e-01f, 3.61708850e-01f, 4.14087847e-02f, 5.32347225e-02f, -1.45768493e-01f, -3.28122467e-01f,
    -1.26626924e-01f, 7.15173259e-02f, 6.82152510e-01f, 9.50913951e-02f, -3.63923401e-01f, -2.95086235e-01f, -1.44953027e-01f, 4.31258321e-01f,
    -8.78734961e-02f, 2.74652064e-01f, 1.41461170e-03f, 2.22259085e-03f, 6.64455414e-01f, -1.61510184e-01f, -1.36034250e-01f, -2.19763890e-01f,
    -2.02749949e-02f, 1.10111207e-01f, 8.57791156e-02f, 4.25536074e-02f, 2.14559678e-02f, 1.26130104e-01f, -1.31751299e-01f, 1.97745357e-02f,
    -1.34976404e-02f, 9.18599591e-02f, 1.07906230e-01f, 7.95393735e-02f, -3.12135816e-02f, 2.29422107e-01f, 7.71895647e-02f, 4.29166295e-02f,
    -9.23357457e-02f, -5.50654382e-02f, -1.03401192e-01f, -2.09054133e-06f, 8.03544521e-02f, -4.14838232e-02f, 2.32545316e-01f, -9.87195317e-03f,
    -1.69058088e-02f, -2.24869121e-02f, -6.59598364e-03f, 7.47072622e-02f, 1.15824034e-02f, 6.53748289e-02f, 1.14676878e-01f, 1.89856276e-01f,
    3.18741918e-01f, 5.71160167e-02f, 1.41949356e-01f, 3.50620598e-02f, -3.48110288e-01f, -5.36825843e-02f, -1.05961062e-01f, 7.04382285e-02f,
    1.26971360e-02f, -1.30292416e-01f, 4.76529896e-02f, 3.26588750e-02f, 1.99727807e-02f, 8.68472084e-02f, 9.53604952e-02f, 5.34460656e-02f,
    1.34091467e-01f, -8.12962875e-02f, -9.59165022e-02f, 1.20098636e-01f, 1.07634977e-01f, 1.50916576e-01f, 3.00880317e-02f, 7.02192783e-02f,
    7.55043924e-02f, 1.29904589e-02f, -6.54270351e-02f, 2.28724435e-01f, 2.74510924e-02f, -1.50321811e-01f, 9.58503187e-02f, 7.36373812e-02f,
    3.49712260e-02f, -1.14451341e-01f, 1.94862660e-03f, -1.57837451e-01f, 2.51486916e-02f, 1.04863323e-01f, -5.66366538e-02f, 1.78167090e-01f,
    7.19089136e-02f, 6.34046793e-02f, 1.82486534e-01f, -5.06555289e-03f, -1.33090988e-01f, -2.43440885e-02f, 1.97192639e-01f, -4.06015962e-01f,
    -3.82125616e-01f, 8.85655284e-02f, 1.97579488e-01f, -1.81980152e-02f, 1.38824657e-01f, 4.28883210e-02f, -2.35474501e-02f, 4.71310643e-03f,
    2.99751610e-01f, -7.94416443e-02f, -3.42574596e-01f, -1.37651667e-01f, -3.65845263e-02f, -1.83070362e-01f, 2.26427391e-01f, 3.18148509e-02f,
    3.45648974e-02f, -3.31118666e-02f, 1.25180483e-01f, -1.18171655e-01f, -4.95378785e-02f, 8.37613568e-02f, -2.56190479e-01f, -8.16016316e-01f,
    6.65386245e-02f, 5.71051896e-01f, 7.56791234e-02f, 2.84515368e-03f, -1.39448524e-01f, 3.92949283e-02f, 1.44973576e-01f, 1.53249234e-01f,
    3.02132130e-01f, -3.10763776e-01f, 3.11874986e-01f, 2.07258090e-01f, 4.92769293e-02f, 4.46265697e-01f, 2.13587895e-01f, 3.72469664e-01f,
    -1.68921798e-02f, 2.53276855e-01f, 9.09378901e-02f, 6.05179191e-01f, -1.00317113e-01f, 3.80009294e-01f, -7.99394548e-02f, -2.49524057e-01f,
    9.81150568e-02f, 4.65497702e-01f, 5.50167002e-02f, 2.56278459e-02f, 6.16791174e-02f, -2.43738115e-01f, -4.72612008e-02f, -4.95783612e-02f,
    1.62204549e-01f, -3.77574980e-01f, 8.51239339e-02f, 4.53699902e-02f, -8.05613399e-02f, 1.37081340e-01f, 1.46478206e-01f, 4.82597239e-02f,
    8.22298229e-02f, 2.01657325e-01f, 8.04507658e-02f, 2.17025772e-05f, 8.69956091e-02f, 1.69665571e-02f, 4.54077236e-02f, 1.29703850e-01f,
    8.40340704e-02f, -7.36074448e-02f, -3.45357098e-02f, -4.33126651e-02f, 9.12793428e-02f, 1.64009690e-01f, 1.93161219e-01f, 1.04922861e-01f,
    -6.84081092e-02f, 4.28690836e-02f, 1.92080259e-01f, 1.08651929e-01f, 4.77436073e-02f, 1.38010764e-02f, 7.94551969e-02f, 2.22397730e-01f,
    4.58277687e-02f, -9.84960049e-02f, 4.01622988e-02f, -2.35420149e-02f, 6.99202670e-03f, 4.54804711e-02f, 9.58902165e-02f, 3.84201370e-02f,
    1.36142567e-01f, -3.08229737e-02f, -4.97548170e-02f, 6.28691912e-02f, -3.41449559e-01f, 2.50203282e-01f, -1.23102954e-02f, 8.33375007e-03f,
    9.29910317e-02f, 7.39572719e-02f, 4.50640358e-02f, -4.26902100e-02f, 9.30449367e-02f, 2.37731319e-02f, 1.08525082e-01f, 8.81225467e-02f,
    4.63451408e-02f, -2.07678918e-02f, 1.71613351e-01f, 5.98043129e-02f, 1.13088876e-01f, -2.07418613e-02f, -5.85411899e-02f, 6.42381981e-02f,
    2.74810344e-01f, -5.77729046e-02f, -2.95356750e-01f, -7.49095827e-02f, 7.46827498e-02f, -2.02488024e-02f, -4.36708853e-02f, -5.18196709e-02f,
    6.44721240e-02f, -8.21563043e-03f, 5.73883243e-02f, -2.12292559e-02f, -3.92563120e-02f, -1.04435779e-01f, 1.80533680e-03f, -9.90859568e-02f,
    8.81094486e-02f, 2.26641018e-02f, -1.91516317e-02f, 2.51218565e-02f, 3.57898772e-01f, 1.17925843e-02f, -3.96982245e-02f, 7.92325214e-02f,
    -1.37349546e-01f, -8.38751657e-05f, 4.71758582e-02f, -1.33045800e-02f, -5.68595156e-02f, 1.39099255e-01f, 1.88474841e-02f, 1.58796161e-01f,
    4.47997272e-01f, -5.07678054e-02f, -1.48290135e-02f, 8.26011691e-03f, 1.24458648e-01f, -1.74618140e-01f, 7.08524277e-03f, 8.48296136e-02f,
    6.29670126e-03f, 7.35715777e-02f, -3.54693383e-02f, 2.30712574e-02f, -8.84023011e-02f, 9.14059952e-03f, 7.53880590e-02f, -4.51544598e-02f,
    -2.91349199e-02f, 1.29046068e-01f, 6.48132682e-01f, -1.11377381e-01f, -4.63623367e-02f, 8.42931643e-02f, 6.26456916e-01f, 4.26354557e-02f,
    -3.75615954e-01f, 3.19205746e-02f, -4.05742973e-02f, 5.68253770e-02f, -1.55451745e-01f, 5.59194712e-03f, -6.23310506e-02f, -2.97836125e-01f,
    -1.17288893e-02f, 4.33291979e-02f, 1.94468517e-02f, 1.00412294e-02f, -4.09578055e-01f, -6.81645283e-03f, -2.99941212e-01f, -2.43902802e-02f,
    1.64821868e-05f, 1.62291005e-01f, 5.59572084e-03f, -9.69100711e-06f, 2.83580441e-02f, 6.86121034e-03f, 4.21744660e-02f, 9.68017355e-02f,
    3.92217524e-02f, 4.90334779e-02f, -9.41587687e-02f, 5.64751476e-02f, -3.16186458e-01f, 5.84402978e-02f, -2.36044824e-02f, -1.00459578e-03f,
    7.72591797e-04f, -2.72363778e-02f, 1.65248975e-01f, -1.20266020e-01f, 1.54829759e-03f, -6.05583824e-02f, -1.77646384e-01f, 5.88929765e-02f,
    -8.09625387e-02f, -5.72814345e-02f, -1.82720557e-01f, 1.70315653e-02f, -2.50682477e-02f, 4.17570025e-02f, 2.51859546e-01f, -4.29683030e-01f,
    -1.00881709e-02f, -1.15575738e-01f, -1.57930423e-02f, 6.47284567e-01f, 3.55637521e-02f, -3.65794182e-01f, -5.96923083e-02f, 6.67604133e-02f,
    3.18397656e-02f, 1.57548815e-01f, -7.11568221e-02f, -3.70665384e-03f, 3.68459672e-01f, -7.67013580e-02f, 2.14459598e-01f, 5.65207064e-01f,
    -2.38147210e-02f, 5.90616371e-03f, -4.63086776e-02f, -1.62072465e-01f, 3.99484992e-01f, -4.02353355e-04f, -7.03471899e-02f, -1.45174991e-02f,
    2.77024806e-01f, -2.13493869e-01f, 6.70838952e-02f, -9.54242125e-02f, 3.90405692e-02f, 1.75661761e-02f, -1.90490812e-01f, 7.46398345e-02f,
    -3.47920582e-02f, -1.21008456e-01f, 1.14302067e-02f, 2.84144152e-02f, 3.60965207e-02f, -1.27328843e-01f, -4.39988188e-02f, -2.92426869e-02f,
    1.44573435e-01f, -2.77460575e-01f, 9.67420116e-02f, -2.61890516e-02f, -1.58200204e-01f, 1.80569366e-01f, 5.77223375e-02f, 1.92940578e-01f,
    -1.63923100e-01f, -4.80868295e-02f, 7.61472702e-01f, 7.60777015e-03f, -2.37682685e-01f, 2.26778775e-01f, 1.61449146e-02f, 2.01725721e-01f,
    -1.29408285e-01f, -7.87768587e-02f, 2.57990304e-02f, -1.23637564e-01f, -8.69633555e-02f, 1.62130013e-01f, -4.68656942e-02f, 1.24550864e-01f,
    -8.46129656e-03f, 1.52379209e-02f, -6.71037287e-02f, 3.72593966e-03f, 2.15520468e-02f, 1.43667366e-02f, 1.20228983e-01f, 9.75057762e-03f,
    2.62716591e-01f, 2.70018488e-01f, 5.03950939e-03f, -1.77133739e-01f, -1.07620798e-01f, 9.87663958e-03f, -1.82239547e-01f, 4.93997000e-02f,
    4.59035903e-01f, -1.47678023e-02f, -1.00999102e-01f, 9.83705744e-02f, 3.77048999e-01f, -3.91820557e-02f, -1.69425368e-01f, -7.39927366e-02f,
    2.93858126e-02f, -4.73912098e-02f, 1.39118927e-02f, 3.68475132e-02f, 6.99481517e-02f, 1.52490929e-01f, 4.91930038e-01f, 9.81084406e-02f,
    -1.00946277e-01f, -2.32388619e-02f, 2.79782396e-02f, 3.12967350e-05f, -5.37055396e-02f, 3.65885980e-02f, -1.14672013e-01f, -1.44675300e-02f,
    6.05075732e-02f, -2.39303544e-01f, -2.40703151e-01f, -7.36840144e-02f, 1.24716060e-02f, 9.62272584e-02f, -1.32475153e-01f, 1.86789073e-02f,
    -1.15148410e-01f, 3.88442501e-02f, -1.71588175e-02f, -1.00594154e-02f, 3.24204117e-02f, -2.01049298e-01f, 1.88495032e-02f, 1.62859261e-01f,
    3.08286715e-02f, -2.74782665e-02f, 6.94449246e-02f, -3.28489542e-01f, 1.12552963e-01f, -4.05138396e-02f, 4.40366000e-01f, 9.73442793e-02f,
    -1.05867228e-02f, -2.54333980e-04f, -6.84745982e-02f, -2.22670976e-02f, -6.02209121e-02f, -8.25257599e-02f, -7.49594048e-02f, 1.49070024e-01f,
    -4.72643785e-02f, -4.96733561e-02f, 3.12630497e-02f, 6.03956962e-03f, 1.97244473e-02f, 2.69035578e-01f, 3.74020517e-01f, 2.45427131e-03f,
    -3.09649929e-02f, -1.25214234e-01f, 1.51501736e-02f, -5.06472550e-02f, 7.50600621e-02f, -4.10804600e-02f, -9.67867486e-03f, 6.96295453e-03f,
    -1.32504731e-01f, 7.21653223e-01f, 4.74847972e-01f, -4.72755581e-02f, 2.05727369e-01f, -2.30112970e-01f, 6.37074634e-02f, 7.03883776e-03f,
    7.25221708e-02f, -1.24045998e-01f, 2.92870373e-01f, -2.28315845e-01f, 8.61014947e-02f, 5.80031037e-01f, -2.66341388e-01f, 6.37931004e-02f,
    9.29273665e-02f, -3.79606411e-02f, 3.26154567e-03f, 1.38982221e-01f, -3.61783206e-02f, 5.90476673e-03f, 2.62618482e-01f, 2.03678027e-01f,
    -2.19687056e-02f, 2.58867711e-01f, 1.23614684e-01f, 3.79611373e-01f, -1.59265205e-01f, 4.35853302e-02f, 4.91134316e-01f, 8.50337893e-02f,
    4.78903130e-02f, -1.77144617e-01f, 9.83340815e-02f, 4.17787671e-01f, 1.56423777e-01f, 9.56471786e-02f, -4.45533156e-01f, 1.30907461e-01f,
    4.04622734e-01f, -5.12483299e-01f, -9.09886509e-02f, -1.30493999e-01f, -8.53027776e-02f, 3.06229829e-03f, -9.65947509e-02f, 1.03816800e-02f,
    -1.35805961e-02f, 1.32673100e-01f, 7.89024457e-02f, -7.52510503e-02f, -1.63526401e-01f, -2.26481985e-02f, -8.71051028e-02f, -1.22348160e-01f,
    -9.20872167e-02f, -3.49300876e-02f, -7.49027953e-02f, -6.27846941e-02f, -1.33910075e-01f, 2.77402133e-01f, 1.06445260e-01f, 9.28105563e-02f,
    4.20124643e-02f, -9.50803384e-02f, 2.62073398e-01f, -1.16445059e-02f, 1.10667916e-02f, 1.08804524e-01f, 9.34277475e-02f, 4.81666401e-02f,
    1.23039410e-01f, -8.31058621e-02f, -1.07431129e-01f, 1.56509050e-05f, -2.38107607e-01f, 8.46484583e-03f, 4.72661965e-02f, 5.72915189e-02f,
    2.39635423e-01f, 1.59216970e-02f, -2.15892699e-02f, 1.00116238e-01f, -3.00751086e-02f, 2.00081259e-01f, 1.87499985e-01f, 1.47804335e-01f,
    -9.50905010e-02f, 1.71991214e-02f, 2.82868650e-02f, -2.81033311e-02f, 1.37610789e-02f, -6.58497065e-02f, 6.86024651e-02f, 1.50375187e-01f,
    1.49933010e-01f, 7.50969201e-02f, 2.10271940e-01f, 1.86501399e-01f, 3.62253785e-02f, 5.58235198e-02f, -7.50661455e-03f, 8.26253183e-03f,
    -6.19546976e-03f, -6.97973743e-03f, -7.36938864e-02f, -2.66948659e-02f, 7.70932809e-02f, 1.20247044e-02f, -1.63642645e-01f, -8.66951048e-02f,
    2.40444206e-02f, -1.99112226e-03f, 6.12251647e-02f, -1.14652086e-02f, 7.09584728e-02f, 7.20637292e-02f, 1.75206363e-01f, -2.28844490e-02f,
    1.64267227e-01f, 1.62282083e-02f, 4.82338108e-02f, 7.10629895e-02f, 1.12973645e-01f, -8.24715346e-02f, -8.41215849e-02f, 5.75031564e-02f,
    -1.39029445e-02f, -3.16226557e-02f, 8.75965506e-02f, -1.63193385e-03f, -2.30044350e-01f, -2.30662972e-01f, 1.36452302e-01f, 2.43131188e-03f,
    -5.93357570e-02f, -2.27417082e-01f, -2.22873375e-01f, -1.89245082e-02f, 3.99350762e-01f, 5.38615167e-01f, 7.31433988e-01f, 2.20912937e-02f,
    -1.03382342e-01f, -3.07222735e-02f, -9.34451912e-03f, -2.44821087e-02f, -4.84742783e-02f, 1.17103130e-01f, -6.65201806e-03f, -2.73622908e-02f,
    -8.08802154e-03f, 2.76289344e-01f, 1.65130034e-01f, -3.36146802e-01f, -1.30767092e-01f, 5.38104363e-02f, -1.84230894e-01f, 2.54670262e-01f,
    -2.78438292e-02f, -6.32089004e-02f, 1.16626635e-01f, 5.03787994e-01f, 1.99816823e-01f, -1.34069130e-01f, 4.00070697e-01f, -1.98202923e-01f,
    -3.59101951e-01f, 2.61985093e-01f, -1.08338952e-01f, 5.52072108e-01f, -1.46684930e-01f, -3.74646969e-02f, -6.18730718e-03f, 1.18531408e-02f,
    -8.01151060e-03f, 1.85445055e-01f, 1.85676590e-02f, 4.89405543e-03f, 2.44219024e-02f, 9.90284011e-02f, -9.84863658e-03f, 2.91424900e-01f,
    1.74591783e-02f, 5.01408465e-02f, -3.61878015e-02f, -1.39932051e-01f, 7.01579377e-02f, -1.88428432e-01f, -4.26795706e-02f, 5.30787520e-02f,
    6.15011081e-02f, 5.74034154e-02f, -1.42038152e-01f, 2.26876847e-02f, 2.87684589e-03f, 3.01046688e-02f, -5.96122853e-02f, 2.92947352e-01f,
    -2.90369499e-03f, 3.92313823e-02f, -1.09513246e-01f, -1.01993846e-05f, 1.17844522e-01f, -8.53570253e-02f, 3.29700597e-02f, 4.58523370e-02f,
    9.53288898e-02f, -5.50018772e-02f, -2.32971460e-02f, 9.81224179e-02f, -1.39147742e-02f, 1.37295723e-01f, -2.52353549e-02f, 3.75032723e-02f,
    -3.05907410e-02f, -1.17239483e-01f, 3.43110715e-03f, 3.12429424e-02f, 9.38974172e-02f, -9.67012048e-02f, 4.61114869e-02f, 7.66516328e-02f,
    -5.72185405e-03f, -4.29514386e-02f, 1.19116060e-01f, -1.22521967e-02f, 2.25276515e-01f, 1.52917832e-01f, 2.45963633e-02f, 1.11251613e-02f,
    -2.03743167e-02f, -4.15213257e-02f, 2.05579236e-01f, 3.63553222e-03f, 3.20540853e-02f, 1.21997729e-01f, 2.54351646e-01f, 1.75019443e-01f,
    2.62377523e-02f, 2.48728186e-01f, 2.88929760e-01f, -8.26770216e-02f, 5.24249002e-02f, -6.91843778e-02f, 2.55939309e-02f, 1.79166184e-03f,
    -2.76867330e-01f, -1.65469872e-04f, 5.91728948e-02f, 4.61122654e-02f, 3.41618694e-02f, 3.24610318e-03f, -7.55863078e-03f, 4.82033342e-02f,
    7.86444545e-02f, -1.24733418e-01f, 3.90222855e-02f, 4.28310901e-01f, 5.98692633e-02f, 1.08846605e-01f, 6.34175763e-02f, 2.52982974e-01f,
    2.10234985e-01f, 9.85068157e-02f, -2.09290117e-01f, 5.51453494e-02f, 3.29497531e-02f, 6.99774474e-02f, -5.00995889e-02f, 2.25471165e-02f,
    -3.46575558e-01f, -5.39930724e-02f, 3.39021593e-01f, 3.59176010e-01f, -1.09383613e-02f, 2.81744242e-01f, 3.27920541e-02f, -8.23151022e-02f,
    3.82647216e-02f, -2.60570142e-02f, 7.41501898e-02f, 8.43037218e-02f, 8.50836933e-01f, 6.18620515e-02f, 4.32757258e-01f, 4.78308052e-01f,
    6.28388748e-02f, -2.61779636e-01f, 2.12125890e-02f, -8.81530121e-02f, 1.76767975e-01f, 1.20194659e-01f, 1.06290363e-01f, 1.68499470e-01f,
    4.48347554e-02f, 3.00897926e-01f, 1.35990694e-01f, -3.67891520e-01f, 8.57557878e-02f, 4.87332165e-01f, -9.52560827e-02f, -2.20311910e-01f,
    1.85046330e-01f, -8.18218112e-01f, 2.29140166e-02f, -1.85846612e-01f, -4.92235050e-02f, -4.50919867e-01f, 8.75757542e-03f, -1.71454921e-01f,
    1.27162039e-01f, -1.35239631e-01f, 7.52755329e-02f, 1.00660279e-01f, 7.75219277e-02f, 1.62116155e-01f, -4.53575142e-02f, -1.80899985e-02f,
    9.51240510e-02f, 3.19121659e-01f, 4.48049083e-02f, -3.74761254e-01f, -4.03857976e-02f, 6.65315017e-02f, 1.22477166e-01f, 8.20952058e-02f,
    1.39091732e-02f, -1.93178013e-01f, 6.67220652e-02f, 4.14889437e-05f, 6.54800236e-02f, 2.02120557e-01f, 1.08020015e-01f, -7.76588842e-02f,
    8.43695030e-02f, -3.37065756e-02f, 2.96690539e-02f, 1.09516621e-01f, -8.61143023e-02f, -1.65605262e-01f, -1.73836462e-02f, 2.13703945e-01f,
    2.35307347e-02f, 1.38005158e-02f, 1.30798742e-01f, 1.23056822e-01f, 2.03797501e-02f, 1.05202533e-01f, -1.16690658e-02f, 1.46271959e-01f,
    -8.12064391e-03f, 1.14167370e-01f, 1.32240698e-01f, 6.84672073e-02f, 8.59218240e-02f, -7.96004944e-03f, 1.44990534e-01f, 8.69512707e-02f,
    -2.82861352e-01f, -3.81834544e-02f, 1.83787588e-02f, 1.16203502e-01f, 1.53268322e-01f, 1.49952248e-01f, 1.42456412e-01f, 6.30541518e-02f,
    -1.53991535e-01f, 4.86673461e-03f, 1.61148861e-01f, 6.49612173e-02f, 1.06678806e-01f, -9.05233342e-03f, 1.29147679e-01f, 6.83814734e-02f,
    9.69436578e-03f, 1.87811285e-01f, 1.81431025e-01f, -3.45439687e-02f, 6.89872056e-02f, 8.98638517e-02f, -1.30156264e-01f, 1.44799024e-01f
};

const int features_4_squeeze_weight_shape[4] = { 16, 128, 1, 1 };
const int features_4_squeeze_weight_ndim = 4;
const size_t features_4_squeeze_weight_numel = 2048;
