#include "features_12_squeeze_weight.h"

__attribute__((aligned(16))) const float features_12_squeeze_weight[32768] = {
    7.54843876e-02f, -9.65462346e-03f, 1.34538915e-02f, -4.01705280e-02f, -1.90801965e-03f, 1.37294838e-02f, 2.70303246e-02f, -5.50458953e-03f,
    9.27282870e-02f, 5.61543182e-02f, -1.76897217e-02f, 4.77998488e-04f, -1.68201812e-02f, -6.34065121e-02f, -7.45190606e-02f, 4.89160195e-02f,
    -1.53379291e-01f, 1.38552487e-01f, 4.66125607e-02f, 3.85343693e-02f, 3.74014676e-02f, 5.54839373e-02f, 6.99212328e-02f, 3.79723012e-02f,
    -7.10006654e-02f, 4.42830846e-02f, -2.00333335e-02f, 1.39335513e-01f, -1.21039256e-01f, 5.01929894e-02f, 8.25674161e-02f, 2.52876170e-02f,
    4.99742664e-02f, -2.97637489e-02f, 9.51103047e-02f, -5.01185618e-02f, -2.40537953e-02f, 1.32701574e-02f, 7.56888743e-03f, 3.31028103e-04f,
    2.88236775e-02f, 1.36425897e-01f, -1.16416320e-01f, -5.38666695e-02f, 2.96483897e-02f, -8.54287818e-02f, 2.65571028e-02f, 1.23887155e-02f,
    -1.03687383e-01f, -4.21724766e-02f, -2.05157455e-02f, -1.91688482e-02f, -1.72779802e-02f, -1.17530197e-01f, -1.11207969e-01f, 3.83869857e-02f,
    9.60800350e-02f, 1.22562908e-01f, 2.62307152e-02f, 1.04186259e-01f, 5.23799621e-02f, 4.47671600e-02f, -2.24821717e-02f, 2.73442362e-02f,
    1.62948415e-01f, -1.14103006e-02f, -3.73613164e-02f, -1.84144109e-01f, -1.21436216e-01f, 1.76734496e-02f, -6.02295138e-02f, -8.27360377e-02f,
    1.91466359e-03f, 4.75740694e-02f, -2.79124752e-02f, 9.05006453e-02f, -2.84108538e-02f, -3.97070758e-02f, 6.83715269e-02f, 5.37280971e-03f,
    -7.37129524e-03f, 6.14835136e-03f, 1.40370339e-01f, 2.69679967e-02f, -5.60767762e-02f, 2.14746688e-02f, 4.50863875e-02f, 7.79393241e-02f,
    7.77831450e-02f, 2.58870609e-02f, -5.00170365e-02f, 4.88838293e-02f, 5.65997772e-02f, -9.80056524e-02f, -6.93807844e-03f, 3.51713747e-02f,
    -5.47026843e-02f, 2.14664079e-02f, 7.36014619e-02f, -9.18873623e-02f, -8.89867768e-02f, -3.09430994e-02f, -1.18790247e-01f, 1.39126331e-01f,
    -4.62142862e-02f, -4.20839638e-02f, -4.31481749e-02f, 5.00228629e-02f, -6.68072999e-02f, -1.67929269e-02f, 1.19533040e-01f, 4.92831245e-02f,
    7.73580670e-02f, 1.06912171e-02f, -6.51829597e-03f, 2.08480768e-02f, 1.20913967e-01f, 5.84535114e-03f, -1.13435142e-01f, 3.50777544e-02f,
    8.16588625e-02f, -6.22166283e-02f, 1.51228443e-01f, -7.42450058e-02f, -7.34144896e-02f, -5.26544005e-02f, 2.78810412e-02f, 6.14031106e-02f,
    1.58200309e-01f, 3.25676538e-02f, -1.06793255e-01f, -6.84218258e-02f, 3.71396579e-02f, 8.35720450e-02f, 6.16459586e-02f, -3.38523090e-02f,
    9.80892964e-03f, 6.07906468e-02f, 6.32367656e-03f, -4.78289053e-02f, 6.41074851e-02f, -1.28283454e-02f, 1.42078191e-01f, 2.06188098e-01f,
    -8.01610947e-02f, 4.93874252e-02f, 3.47384140e-02f, 4.85915802e-02f, 4.54170220e-02f, -2.09059715e-02f, 4.24899645e-02f, 1.44905537e-01f,
    -2.35317014e-02f, 3.81003669e-03f, -1.41357649e-02f, 8.67112204e-02f, 3.06948964e-02f, 4.08085547e-02f, -1.28721938e-01f, 1.20949065e-02f,
    -3.80176120e-02f, 6.45157471e-02f, -8.38945583e-02f, 1.32806599e-01f, 6.78765774e-02f, 9.52273980e-03f, 7.58927912e-02f, -4.54998873e-02f,
    3.63864079e-02f, 7.94799104e-02f, -2.27420047e-01f, 8.17272738e-02f, 3.40179205e-02f, 1.38728088e-02f, -7.36369565e-02f, -6.69147670e-02f,
    -9.99962986e-02f, 4.70381491e-02f, 1.10804826e-01f, -5.95453903e-02f, -1.92929078e-02f, 4.16148230e-02f, 1.05564259e-02f, 9.73988920e-02f,
    -5.98043203e-02f, 1.06482752e-01f, 2.24030819e-02f, -1.09026305e-01f, 9.33036506e-02f, 1.05434291e-01f, -1.57178026e-02f, 1.01046681e-01f,
    8.72897729e-02f, -5.85363060e-02f, 8.61944631e-03f, 6.32569194e-02f, 2.03904435e-02f, 6.92105740e-02f, 3.17512117e-02f, -8.40266272e-02f,
    1.10001713e-01f, -4.99898456e-02f, 1.32278934e-01f, -1.26547981e-02f, -2.26813648e-02f, -9.77314711e-02f, -1.44490272e-01f, -5.47517054e-02f,
    -3.12278029e-02f, 2.47695707e-02f, 7.98116103e-02f, -9.63361040e-02f, -6.72226623e-02f, 2.52010580e-02f, 8.44388977e-02f, 8.47251900e-03f,
    1.49037883e-01f, 5.47495037e-02f, 2.64783166e-02f, 9.75384265e-02f, 2.18096673e-02f, -5.07333167e-02f, -2.14607380e-02f, -4.15438712e-02f,
    -5.61811775e-03f, -1.36973888e-01f, 7.70006105e-02f, 5.54744806e-03f, -2.00843997e-02f, -1.85020396e-03f, -6.06260560e-02f, 1.03746831e-01f,
    -3.81615013e-02f, -2.53637098e-02f, -8.82372539e-03f, 8.50402191e-03f, -9.58236586e-03f, 9.88670364e-02f, 4.53431793e-02f, 7.65334740e-02f,
    -6.72739893e-02f, -8.87739956e-02f, 1.04549620e-03f, -1.47311524e-01f, 6.92711323e-02f, -3.23784389e-02f, 5.66048883e-02f, -3.78768332e-02f,
    7.56523460e-02f, 5.45842461e-02f, -8.68531410e-03f, 1.79842114e-02f, -4.51827683e-02f, -5.93423545e-02f, 6.20672219e-02f, 4.35869917e-02f,
    1.43914908e-01f, 8.31116959e-02f, 3.82572506e-03f, -3.97419892e-02f, 2.45407373e-02f, 5.78262061e-02f, -2.57547885e-01f, 1.34210616e-01f,
    3.69587094e-02f, 1.24266520e-01f, -1.59323692e-01f, -9.49027613e-02f, -1.89824272e-02f, 3.37466598e-02f, -1.21603176e-01f, -2.33114846e-02f,
    -9.98558477e-02f, 1.94512457e-02f, 6.09132759e-02f, 1.59281537e-01f, -1.84454881e-02f, -3.02819423e-02f, -9.83650163e-02f, -7.39307776e-02f,
    -6.48301840e-02f, -8.99254009e-02f, 3.07025760e-02f, -3.81561555e-02f, -1.06858753e-01f, 8.89023244e-02f, 1.32397721e-02f, -1.22804418e-01f,
    -8.70352760e-02f, -1.46734625e-01f, 1.28979534e-01f, -7.38022700e-02f, 7.01015815e-02f, -7.74072483e-02f, -6.90062642e-02f, 2.22269613e-02f,
    -1.37236401e-01f, -4.14437465e-02f, -3.88339236e-02f, -1.11982841e-02f, 2.63640173e-02f, -5.37749715e-02f, 1.17825434e-01f, 4.35520150e-02f,
    1.28465861e-01f, 2.63033360e-02f, 2.30366690e-03f, 6.52636513e-02f, 9.19622332e-02f, 4.54798639e-02f, 6.44725934e-02f, 9.75407287e-02f,
    -1.84979034e-03f, 1.19960375e-01f, 1.06083214e-01f, 1.42189950e-01f, 5.82524650e-02f, 1.03179984e-01f, -1.17438816e-01f, -8.05330947e-02f,
    -7.25332946e-02f, 5.25137559e-02f, -9.69228372e-02f, 2.56493632e-02f, -8.68515298e-02f, 6.29468355e-03f, -5.50600812e-02f, -4.66120578e-02f,
    3.81225571e-02f, -5.31206392e-02f, -1.29469961e-01f, 1.00591756e-01f, 3.61734554e-02f, -1.87444687e-02f, -4.14887927e-02f, -1.28316162e-02f,
    1.25545561e-01f, -1.07283592e-01f, 1.61905698e-02f, 3.39499563e-02f, -2.55709179e-02f, -8.40844214e-02f, 1.02447420e-01f, 7.19023198e-02f,
    3.73904929e-02f, -4.03417349e-02f, 1.26165614e-01f, 1.42786046e-02f, -4.97666039e-02f, 1.56271327e-02f, 7.50521868e-02f, 3.96194495e-02f,
    9.85824838e-02f, -2.51855515e-02f, 1.43498912e-01f, -4.75525245e-04f, 1.28651693e-01f, -4.78708372e-02f, -1.13422558e-01f, -1.35199100e-01f,
    -3.24352458e-02f, -8.24108571e-02f, -8.85868296e-02f, 8.03258345e-02f, 5.22498377e-02f, -1.95439339e-01f, -1.03147931e-01f, 8.03980008e-02f,
    1.23673044e-02f, 2.62208898e-02f, 3.05435830e-03f, 1.06497250e-01f, 1.67416967e-02f, 4.60458621e-02f, 3.32600549e-02f, -2.03099754e-02f,
    -3.42582725e-02f, 3.74416225e-02f, -1.88212916e-02f, 1.59751493e-02f, -2.81945411e-02f, 7.95464590e-02f, -4.37225625e-02f, 1.33583471e-02f,
    -6.32330552e-02f, -3.80023569e-02f, 2.54389793e-02f, 3.95026058e-02f, -8.65913630e-02f, -8.27615261e-02f, 2.05554757e-02f, -3.97477224e-02f,
    1.70767400e-02f, -1.58229277e-01f, 4.14466821e-02f, 9.42167789e-02f, -1.66602340e-02f, -5.76680414e-02f, -1.55869289e-03f, 6.41226992e-02f,
    -2.77373046e-02f, -4.42887098e-02f, 9.93110612e-02f, -6.53154179e-02f, -5.76858828e-03f, -1.09887280e-01f, 6.22472120e-03f, 3.24943773e-02f,
    -1.27882183e-01f, -3.12640853e-02f, 1.92546155e-02f, -6.95437565e-02f, 2.46661659e-02f, -1.88462920e-02f, -2.87331920e-02f, 6.19151182e-02f,
    -4.19308655e-02f, -1.16687484e-01f, -1.22271530e-01f, 1.08282901e-01f, -1.19408406e-02f, 1.77792611e-03f, -4.62360680e-02f, 4.90979888e-02f,
    -6.53104810e-03f, -1.14154048e-01f, 1.12130769e-01f, 1.22466721e-01f, -1.81987919e-02f, -1.37161076e-01f, -1.17957992e-02f, -1.13812042e-02f,
    -1.09994791e-01f, 1.39103038e-02f, 4.77338098e-02f, 1.42732665e-01f, -1.05472319e-02f, 5.21795228e-02f, 3.38672437e-02f, -1.03988022e-01f,
    2.48692818e-02f, -9.01082680e-02f, 4.64859083e-02f, -1.13313824e-01f, 1.65518269e-01f, 4.79089804e-02f, 6.50909310e-03f, -4.42909934e-02f,
    1.12806886e-01f, -4.86556478e-02f, -1.11634530e-01f, -9.03718639e-03f, -1.05591618e-01f, -4.55965884e-02f, 7.21161738e-02f, 1.03616856e-01f,
    5.71224391e-02f, -1.71241716e-01f, -5.26153557e-02f, -6.37218878e-02f, 1.90275498e-02f, -1.14517026e-02f, -7.28200898e-02f, 4.58158180e-02f,
    1.21509200e-02f, 7.92460982e-03f, -1.05445765e-01f, 1.30865136e-02f, 3.60510871e-02f, -1.60308406e-02f, -1.04936346e-01f, -8.72892141e-02f,
    2.70310957e-02f, -9.98104960e-02f, -3.08390781e-02f, -1.07254200e-01f, 4.70860004e-02f, -1.35456994e-02f, 1.20614797e-01f, -1.06884278e-01f,
    4.30969112e-02f, 3.43266944e-03f, -5.61980158e-02f, -1.46654204e-01f, -1.03401892e-01f, 4.87038717e-02f, 8.15465953e-03f, -1.51533723e-01f,
    8.39530826e-02f, 1.05356373e-01f, 7.60291517e-02f, 5.35914004e-02f, -2.69915797e-02f, -3.44621763e-02f, 2.22174432e-02f, 2.65703015e-02f,
    -3.52521166e-02f, -1.13525782e-02f, -1.10302210e-01f, 6.30667359e-02f, 2.26801597e-02f, -7.75786787e-02f, -5.18299751e-02f, 1.08609602e-01f,
    -1.52703598e-01f, 3.88053544e-02f, -1.29158407e-01f, 3.79015412e-03f, 6.34972006e-02f, -9.71460938e-02f, 3.62719260e-02f, 7.55151035e-03f,
    -9.52576566e-03f, 9.23766661e-03f, -5.00974320e-02f, 8.70124623e-02f, -1.00974374e-01f, -8.46307352e-02f, 7.57278726e-02f, -2.94348896e-02f,
    -5.21101244e-03f, 2.00002510e-02f, -5.68757940e-04f, 5.07184863e-02f, -8.80812481e-02f, -3.84856910e-02f, -3.14135067e-02f, -4.19557169e-02f,
    1.72239207e-02f, -2.45665596e-03f, 1.52137596e-02f, -1.11368045e-01f, 2.22273469e-02f, 2.63941959e-02f, -1.50837260e-03f, 1.78204000e-01f,
    3.75384800e-02f, 1.20762520e-01f, 5.39030433e-02f, 7.74745923e-03f, -1.61171369e-02f, 1.96847543e-02f, 2.38815285e-02f, -4.44581583e-02f,
    -4.07713093e-03f, 5.08147106e-02f, -6.30969778e-02f, 3.27574909e-02f, 8.56509134e-02f, 1.49323493e-01f, -5.70759624e-02f, 1.09515406e-01f,
    5.12570888e-03f, -8.57683346e-02f, 2.55511180e-02f, -3.42689343e-02f, -8.08662251e-02f, 2.59565488e-02f, 2.78158151e-02f, 1.78346317e-02f,
    1.82124060e-02f, -2.00312259e-03f, -9.16043222e-02f, -5.50940037e-02f, 2.95074172e-02f, 1.74729731e-02f, -3.52924690e-02f, -8.31892043e-02f,
    1.43774569e-01f, -1.34725973e-03f, 1.23750582e-01f, -3.95523347e-02f, 4.81743831e-03f, 1.22886673e-02f, -2.17871964e-02f, 1.03142902e-01f,
    1.36148989e-01f, -1.44438788e-01f, 2.96071712e-02f, 6.74299151e-02f, -7.50597790e-02f, -1.06058493e-01f, 1.10312155e-03f, 2.19435599e-02f,
    -1.02267057e-01f, -1.48946967e-03f, 4.03535627e-02f, 1.88303534e-02f, 9.91334394e-02f, 1.63714234e-02f, -4.82851230e-02f, -1.44632794e-02f,
    -2.70422995e-02f, 1.15620561e-01f, 6.12712950e-02f, 1.58693448e-01f, -2.84121670e-02f, -6.26672953e-02f, -6.25702292e-02f, -9.00047868e-02f,
    7.64244981e-03f, -5.29584922e-02f, -8.63674935e-03f, -9.94508639e-02f, -6.00816857e-04f, 2.40010209e-02f, 1.07447233e-03f, 4.79132496e-02f,
    1.52194142e-01f, -1.39082074e-01f, 6.12803400e-02f, 1.42820135e-01f, 4.79205474e-02f, -3.61978374e-02f, -1.53865116e-02f, 1.26458816e-02f,
    -6.50789170e-03f, -8.23061317e-02f, -3.53944488e-02f, -1.00404367e-01f, -9.16441977e-02f, 1.62699055e-02f, -1.54355541e-01f, -4.86264415e-02f,
    6.80636913e-02f, 1.05549470e-01f, 8.06239918e-02f, 1.29964545e-01f, 1.02422565e-01f, 8.94006491e-02f, 5.42718694e-02f, -8.78548548e-02f,
    2.85677239e-02f, -3.87816988e-02f, 5.11803143e-02f, -4.47915532e-02f, 2.19427217e-02f, -1.81974247e-02f, -9.27956495e-03f, -3.16368937e-02f,
    8.21877122e-02f, 4.74595185e-03f, 4.06791456e-02f, 2.20200215e-02f, 1.58811267e-02f, 5.76364957e-02f, 1.10592276e-01f, 4.72607426e-02f,
    -1.69173758e-02f, -9.44355503e-02f, -1.95894092e-02f, -5.54798655e-02f, 6.65265077e-04f, 1.21820666e-01f, -5.36242314e-02f, -1.59069877e-02f,
    -1.76025759e-02f, 4.34306823e-02f, 4.71621528e-02f, 1.91804171e-02f, -5.03152832e-02f, 4.05281819e-02f, 3.56538631e-02f, -4.04368155e-02f,
    -4.20929492e-02f, -2.55288612e-02f, -4.46358919e-02f, 2.08229478e-02f, 1.18751153e-01f, -4.63028066e-02f, 6.02646358e-02f, -3.67464982e-02f,
    1.13464616e-01f, -5.36989383e-02f, -4.45419475e-02f, 4.17554229e-02f, -9.13525671e-02f, 1.61884859e-01f, 6.24431707e-02f, 8.90301988e-02f,
    3.86098437e-02f, 2.59599760e-02f, 2.29602605e-02f, 1.15476377e-01f, 4.69714217e-02f, -1.49289757e-01f, -9.07636285e-02f, -7.33837932e-02f,
    -8.29561204e-02f, 2.38004997e-01f, 1.14624323e-02f, -8.57919157e-02f, -7.75830820e-02f, -4.25765514e-02f, -6.72716573e-02f, 8.36365819e-02f,
    -2.08825548e-03f, -3.07014287e-02f, 1.23160191e-01f, 4.59947577e-03f, 4.65558879e-02f, 8.04417506e-02f, -8.41455534e-02f, 1.56171955e-02f,
    -2.16016211e-02f, 1.03027701e-01f, 9.31542367e-02f, 2.71812256e-04f, -9.03008729e-02f, -1.30771669e-02f, -2.20339540e-02f, 8.92402679e-02f,
    -1.18270388e-03f, 3.64505430e-03f, -7.84715265e-02f, -4.82205078e-02f, 1.84792727e-02f, -1.49131179e-01f, 1.25371173e-01f, 2.70592980e-02f,
    1.35385497e-02f, -1.64078604e-02f, 6.63828328e-02f, 4.04716842e-02f, 5.19302599e-02f, -1.53567538e-01f, 4.12334017e-02f, -1.10828839e-01f,
    -2.44403630e-02f, 1.84292093e-01f, 2.09631518e-01f, 5.05599938e-02f, -1.17714051e-02f, -6.64240047e-02f, 2.67784875e-02f, -3.68573181e-02f,
    1.30656704e-01f, -1.02542071e-02f, -6.27931133e-02f, 4.36692573e-02f, 2.42869183e-02f, 6.20212406e-02f, 3.69984210e-02f, 5.32945693e-02f,
    -1.14887254e-02f, 4.63936776e-02f, -5.45607954e-02f, 1.16553962e-01f, -1.08948238e-01f, -5.80860525e-02f, -3.29041965e-02f, -2.13226527e-02f,
    -4.55523729e-02f, -1.24089532e-02f, -7.60150794e-03f, -1.78224277e-02f, -4.80450056e-02f, -4.03046198e-02f, -3.67450379e-02f, -1.14140406e-01f,
    -6.02786615e-02f, -5.14271185e-02f, -3.51420976e-02f, 7.49021918e-02f, 5.09828217e-02f, 1.14997551e-01f, -1.48600057e-01f, -9.16867480e-02f,
    -7.43788183e-02f, 8.87200534e-02f, -1.17907532e-01f, 1.66096948e-02f, 1.29044354e-01f, -2.63604354e-02f, 6.31135330e-02f, 9.93353650e-02f,
    -1.38804331e-01f, 1.56305507e-01f, 3.13945115e-02f, -2.36810371e-02f, 5.91946356e-02f, 1.07866809e-01f, 1.28437383e-02f, -4.80455905e-03f,
    -7.94365723e-03f, -6.00543879e-02f, -3.63529623e-02f, -5.61803170e-02f, 3.64346169e-02f, -5.14856987e-02f, 4.16456498e-02f, -7.34245405e-02f,
    6.26140982e-02f, 4.97464649e-02f, -5.68855740e-02f, 2.46156361e-02f, -2.67839897e-02f, 1.05928898e-01f, -1.55667111e-01f, -1.37372985e-02f,
    -9.44953319e-03f, 1.68260513e-03f, 7.78950453e-02f, -4.78433147e-02f, -6.95427731e-02f, -3.25594731e-02f, 1.92438047e-02f, 4.53108735e-02f,
    -7.69037828e-02f, 9.10259187e-02f, -7.77737051e-02f, 1.10929497e-01f, 1.00916252e-01f, -1.34495348e-01f, 1.14864513e-01f, 1.33607402e-01f,
    2.39515025e-02f, -1.54312551e-01f, -3.14163081e-02f, -6.13776781e-02f, -7.51327649e-02f, 2.54394431e-02f, -4.90201116e-02f, 2.05332320e-02f,
    1.97137207e-01f, 2.09010337e-02f, -6.61425292e-02f, 4.62157615e-02f, 2.45457776e-02f, 4.39277887e-02f, -9.73424762e-02f, 7.58727640e-02f,
    -1.25327617e-01f, 6.14115130e-03f, 2.11074017e-02f, 1.74385086e-01f, -1.27753394e-03f, 1.98596227e-03f, 8.79623517e-02f, 6.15670942e-02f,
    1.10197850e-01f, -2.17041299e-01f, 1.10391252e-01f, 1.16841510e-01f, 8.00451487e-02f, 6.18771091e-02f, -8.22127983e-02f, -8.22741613e-02f,
    4.79986100e-03f, -1.33018896e-01f, 8.58880638e-04f, 1.29194297e-02f, 1.44394577e-01f, -1.43173963e-01f, -2.73664109e-02f, -1.03758946e-01f,
    7.88875893e-02f, 1.44024938e-01f, -2.50159856e-02f, 5.27621470e-02f, 2.82379035e-02f, -3.62489000e-02f, 1.83529079e-01f, 4.51212674e-02f,
    1.78356264e-02f, -4.94504981e-02f, 5.56852482e-02f, 3.42863463e-02f, 4.32708524e-02f, -5.11766188e-02f, -6.30273744e-02f, -7.15320185e-02f,
    1.54275581e-01f, 7.98743069e-02f, -1.08492933e-01f, 3.05042462e-03f, 1.41292766e-01f, -4.23553586e-02f, 6.34573624e-02f, -4.38081287e-02f,
    3.47698554e-02f, 1.09977931e-01f, 1.44889325e-01f, 1.60491634e-02f, 8.92237052e-02f, 1.24090044e-02f, -2.44991500e-02f, 3.40338796e-02f,
    -1.12171546e-01f, 9.66245085e-02f, 8.00320879e-03f, -6.85817450e-02f, -2.85794828e-02f, 8.37071687e-02f, 1.42567068e-01f, 1.20246261e-01f,
    -1.49199590e-01f, 5.02297245e-02f, 5.05394600e-02f, 6.27338812e-02f, 8.25003907e-02f, -1.78957924e-01f, -2.04520211e-01f, 2.69116182e-02f,
    5.65959141e-02f, -9.41303298e-02f, 5.23584522e-03f, 4.06001173e-02f, 2.21830562e-01f, -8.80908221e-02f, 6.94644749e-02f, -6.51563853e-02f,
    -1.68341145e-01f, 2.09473502e-02f, -4.80261445e-02f, -2.36660056e-02f, 2.71104146e-02f, -1.08424552e-01f, 3.64545966e-03f, 8.75228196e-02f,
    2.74186969e-01f, -4.08524945e-02f, 4.53291051e-02f, -5.20332642e-02f, 6.24181852e-02f, 4.26691771e-02f, -1.38120919e-01f, 1.16013892e-01f,
    -9.48843509e-02f, -8.41445550e-02f, 6.64855689e-02f, -1.63311720e-01f, -2.78862063e-02f, 7.36945961e-03f, 1.02781735e-01f, 9.50405821e-02f,
    1.04471743e-01f, -7.69755021e-02f, 4.44055498e-02f, 1.88422471e-01f, -6.80298731e-02f, 7.43805543e-02f, -1.96493305e-02f, -2.12049074e-02f,
    6.34306949e-03f, 8.66705477e-02f, -5.47010377e-02f, 3.11670266e-02f, -2.56601442e-03f, -7.56106600e-02f, -5.49460240e-02f, -9.18927640e-02f,
    -1.43649340e-01f, -5.32871298e-02f, -8.93596269e-04f, 8.78584906e-02f, 9.44943801e-02f, -7.30623975e-02f, 1.93061560e-01f, -3.37866247e-02f,
    1.39271110e-01f, 9.20003206e-02f, -7.91449770e-02f, 1.02889858e-01f, -2.37744972e-02f, 1.00476898e-01f, 1.49698600e-01f, 6.03159815e-02f,
    -1.17833465e-01f, 4.93909009e-02f, -1.17096268e-01f, -8.24990720e-02f, 1.71974897e-01f, 1.21989415e-03f, 1.73937939e-02f, 1.77710637e-01f,
    2.43966933e-02f, 2.82257795e-02f, -1.00286335e-01f, -1.34728476e-01f, 3.27860937e-02f, -4.24846672e-02f, 1.14234857e-01f, 2.43784681e-01f,
    -6.21597208e-02f, -5.34567237e-03f, -1.20003015e-01f, 1.17748655e-01f, 1.33415610e-01f, 2.41304729e-02f, -6.22944310e-02f, 3.09549496e-02f,
    8.24034512e-02f, -1.19819008e-01f, 1.08932361e-01f, 1.04643598e-01f, 1.77291799e-02f, 2.01739427e-02f, -1.02444611e-01f, 4.03525904e-02f,
    -6.61749393e-02f, -8.84153917e-02f, 3.69801745e-02f, 5.69448881e-02f, -7.80241638e-02f, -2.42264941e-03f, -1.77492008e-01f, -2.58077309e-02f,
    -2.56532375e-02f, -5.20345084e-02f, -7.03095272e-02f, 6.70056343e-02f, -9.38542560e-02f, -3.25816236e-02f, 1.00470230e-01f, -1.09611355e-01f,
    -9.97385308e-02f, 1.03312328e-01f, 4.73579876e-02f, 2.63360627e-02f, -1.05906799e-01f, 8.62821713e-02f, 5.93269104e-03f, 1.42091841e-01f,
    4.89696451e-02f, -1.53747306e-03f, 9.92899761e-02f, -5.99278137e-02f, 9.83112976e-02f, 1.37491837e-01f, 5.13790287e-02f, -6.62860945e-02f,
    1.26144826e-01f, 7.06942603e-02f, 3.28029729e-02f, -3.33889276e-02f, -3.60123888e-02f, 6.14718199e-02f, -3.03047858e-02f, 4.18833420e-02f,
    -8.02463889e-02f, -1.12817017e-02f, -4.26348858e-02f, 9.34401248e-03f, -7.42434412e-02f, -1.50723034e-03f, -3.37545201e-02f, -3.85523844e-03f,
    1.29106596e-01f, -2.19021607e-02f, 5.62806912e-02f, 2.28038407e-03f, 1.36856332e-01f, 1.35010079e-01f, -2.28148084e-02f, -2.60640774e-02f,
    -2.51957662e-02f, -3.82617190e-02f, 1.41110271e-02f, -1.33186147e-01f, -4.86157350e-02f, 1.67065874e-01f, -3.81558971e-03f, 7.11159930e-02f,
    -4.48056273e-02f, -1.90189462e-02f, -8.51580687e-03f, -1.15881644e-01f, 5.32216281e-02f, 8.83534402e-02f, -1.44247748e-02f, -7.39197135e-02f,
    2.23209634e-01f, 5.46592996e-02f, -1.81745179e-02f, 5.62813804e-02f, 2.36598793e-02f, -1.83323100e-02f, 6.15276061e-02f, -1.27814323e-01f,
    7.07544014e-02f, 8.88001025e-02f, -1.14500105e-01f, 4.73735146e-02f, 4.57585528e-02f, -3.65450345e-02f, 8.74503143e-03f, 4.05217037e-02f,
    -3.82630564e-02f, -8.09432380e-03f, -2.78912615e-02f, -1.90140575e-01f, -1.69596437e-03f, 3.72092277e-02f, 1.26888826e-01f, 9.65370312e-02f,
    4.24159728e-02f, 7.61822471e-03f, -1.40201030e-02f, -5.79800345e-02f, 5.03304377e-02f, 3.33935954e-02f, 6.63764924e-02f, -1.19158998e-01f,
    -9.44419131e-02f, 1.15709640e-01f, -6.38349876e-02f, 1.26106247e-01f, 2.27504838e-02f, 2.79211216e-02f, 1.20882047e-02f, -3.87151577e-02f,
    -2.52328366e-02f, 2.50570979e-02f, -1.48127660e-01f, 8.41396526e-02f, 5.42403311e-02f, 9.15589510e-04f, 9.11095366e-02f, 1.02768943e-01f,
    8.16572458e-02f, -1.42813837e-02f, 1.62998423e-01f, -1.33015901e-01f, 6.15189411e-02f, -6.90717995e-02f, 2.04079263e-02f, 3.16450000e-02f,
    -3.91942300e-02f, -6.60090819e-02f, -1.92744717e-01f, -1.48056448e-01f, -6.34455308e-02f, -5.08485138e-02f, 2.55702913e-01f, 7.68892793e-03f,
    4.26169261e-02f, -3.64922956e-02f, -4.84015271e-02f, 6.69292584e-02f, 1.31828681e-01f, 5.56956464e-03f, -2.40828609e-03f, 9.57780555e-02f,
    -7.28930114e-03f, 5.27038090e-02f, 3.86646274e-03f, -1.35702729e-01f, -2.27229130e-02f, -1.08977079e-01f, 7.66332075e-02f, 6.84447363e-02f,
    4.89128940e-02f, 7.77860358e-02f, -6.12786748e-02f, -1.13515712e-01f, 9.16735157e-02f, -1.26934610e-02f, -2.31779832e-02f, 1.15302011e-01f,
    3.67540494e-02f, -1.70457903e-02f, 7.82627147e-03f, -5.79927079e-02f, 9.54063050e-03f, 6.25558496e-02f, -3.23545150e-02f, 6.45896494e-02f,
    -2.15659142e-01f, -6.49477690e-02f, -7.39342300e-03f, -3.83452289e-02f, 1.71400964e-01f, -3.68555933e-02f, -4.87411506e-02f, 4.44029830e-02f,
    1.15701757e-01f, 3.05552892e-02f, -6.98430166e-02f, 1.43277213e-01f, -2.28698123e-02f, 7.23122358e-02f, 4.66717742e-02f, 1.35438398e-01f,
    -1.45721380e-02f, 1.25525013e-01f, 1.11389920e-01f, 4.92985919e-02f, 4.26051952e-02f, 1.67532489e-02f, 2.68742745e-03f, 3.58601548e-02f,
    1.95261855e-02f, 8.46181139e-02f, 9.48999263e-03f, 6.84747065e-04f, 7.48251081e-02f, -1.01719387e-01f, -3.78932804e-02f, 4.24753455e-03f,
    4.89709675e-02f, -4.08683717e-02f, 4.14865874e-02f, -1.09930940e-01f, 1.26100242e-01f, 1.18784845e-01f, 4.90657426e-02f, 1.52639102e-03f,
    -1.74833052e-02f, -4.99236677e-03f, -3.26466337e-02f, 2.05542054e-02f, 3.11694425e-02f, -2.16893256e-02f, 1.08140698e-02f, 7.22497643e-04f,
    -1.12683028e-02f, 9.32588950e-02f, -2.00916398e-02f, 6.91868772e-04f, -1.83216482e-02f, 6.87517077e-02f, -6.54905811e-02f, 7.00418130e-02f,
    -4.17809002e-02f, -6.52166381e-02f, -3.62003595e-02f, 4.82235551e-02f, -1.57018434e-02f, 1.74026494e-03f, -2.13198289e-02f, -6.12104051e-02f,
    1.10359877e-01f, -2.87059316e-04f, 5.81167601e-02f, -8.34834054e-02f, -4.02604416e-02f, 1.22115932e-01f, -1.28893852e-01f, 4.87935991e-04f,
    1.32668808e-01f, -4.66919914e-02f, -7.12936819e-02f, 6.64716959e-02f, 6.87846020e-02f, -1.13811647e-03f, 2.57309359e-02f, -2.35627182e-02f,
    -3.88651825e-02f, 5.72432429e-02f, 1.27168819e-01f, -5.16222566e-02f, -6.92188889e-02f, -8.51409801e-04f, 4.51268302e-03f, 7.27880001e-03f,
    -2.70260442e-02f, -4.18750718e-02f, 5.55965863e-02f, 8.38039368e-02f, 1.95869990e-02f, 2.25057397e-02f, 3.43165658e-02f, 1.30864861e-03f,
    -3.39602903e-02f, 5.47849946e-02f, -1.15864761e-01f, -9.59514361e-03f, -9.32520851e-02f, -3.85533273e-02f, -2.01175883e-01f, -5.83570749e-02f,
    8.00400972e-03f, -1.41118960e-02f, 1.73337180e-02f, 2.20137965e-02f, -9.86147746e-02f, 1.84712044e-04f, 1.90730963e-04f, 2.39472762e-02f,
    -9.30430964e-02f, 1.15054749e-01f, 5.95206060e-02f, 2.36272827e-01f, -1.09807543e-01f, 5.56029230e-02f, 4.17075073e-03f, -6.65464625e-02f,
    -3.51471566e-02f, -3.10833622e-02f, 1.14483340e-02f, -8.63563493e-02f, -6.78488612e-02f, 3.82798049e-03f, 1.11887284e-01f, -9.68062505e-03f,
    5.52424043e-02f, 5.86304776e-02f, 1.68423995e-01f, 4.29026317e-03f, 7.13199517e-03f, 5.39565571e-02f, -6.96409717e-02f, -1.64591670e-02f,
    9.71275046e-02f, 4.43245918e-02f, -6.02940954e-02f, -1.37003615e-01f, -4.48629186e-02f, 3.42774577e-02f, -4.21838881e-03f, 4.09795456e-02f,
    -5.97210694e-03f, 1.54749053e-02f, -6.28617182e-02f, -9.06807557e-03f, 4.88324389e-02f, 4.83041927e-02f, -7.91528821e-02f, 7.08906213e-03f,
    5.88221056e-03f, 1.44291043e-01f, 1.94661692e-02f, -1.03226015e-02f, 1.39896823e-02f, 7.65664801e-02f, -2.14744098e-02f, -4.28730436e-03f,
    1.25752548e-02f, -9.89132524e-02f, 2.45476458e-02f, -7.75168091e-02f, -6.86056865e-03f, 1.19736297e-02f, -1.10830732e-01f, 3.87223810e-03f,
    7.18938094e-03f, -3.97004597e-02f, -6.26375675e-02f, 1.34875268e-01f, -9.41006560e-03f, 3.19390334e-02f, -8.18514638e-03f, -1.32872939e-01f,
    -1.12280659e-02f, -1.67546421e-02f, 2.10051369e-02f, -8.22933316e-02f, -4.44219001e-02f, -2.64579039e-02f, -5.14306016e-02f, 7.62252733e-02f,
    -4.53553312e-02f, 1.54974177e-01f, -2.43258961e-02f, 3.58344950e-02f, 6.34551570e-02f, 7.71828368e-02f, 2.54659116e-01f, 3.52982841e-02f,
    1.07520996e-02f, -4.14168015e-02f, -5.78561658e-03f, 5.38100209e-03f, 3.20722237e-02f, -1.36598069e-02f, 3.03307269e-02f, -1.05566042e-03f,
    -2.87835449e-02f, 8.09804872e-02f, -3.67508978e-02f, -2.76901051e-02f, 6.82912245e-02f, -4.90582958e-02f, 1.18123228e-02f, -1.76837798e-02f,
    1.35904536e-01f, 1.21806199e-02f, 1.08354263e-01f, -6.00159983e-04f, 1.64860692e-02f, -5.97292744e-03f, -9.58389789e-02f, -6.29560789e-03f,
    -1.66562404e-02f, -6.23200014e-02f, -5.83914518e-02f, 9.21366215e-02f, -1.82426609e-02f, -3.70484143e-02f, 1.60358120e-02f, 9.27961543e-02f,
    2.04029288e-02f, 4.62143198e-02f, -2.54619066e-02f, 1.34091787e-02f, -8.71210098e-02f, 7.59038478e-02f, 1.54577017e-01f, 6.26117513e-02f,
    -1.42836466e-01f, 4.17616516e-02f, 2.68651564e-02f, -7.93635566e-03f, 7.14439675e-02f, 1.01783164e-01f, -5.38823754e-02f, -6.30518347e-02f,
    -8.01367313e-02f, -3.32403518e-02f, -1.96600184e-02f, 1.13344684e-01f, -4.34118733e-02f, 6.35868534e-02f, -3.67273055e-02f, 2.47092061e-02f,
    -3.97518203e-02f, -3.06240050e-03f, -1.13191816e-03f, 4.74260468e-03f, -5.76614439e-02f, 2.56109059e-01f, -6.04358353e-02f, 1.98766533e-02f,
    -2.20323205e-02f, 5.60314581e-02f, 8.85973945e-02f, 1.88484192e-01f, 6.38002306e-02f, -5.91537282e-02f, -8.98746867e-03f, 4.53006662e-02f,
    -6.62317127e-02f, -1.66479312e-03f, -9.81676579e-02f, -6.14378154e-02f, 6.11007996e-02f, -3.93779539e-02f, 2.56624520e-02f, 1.51454732e-02f,
    -1.04331285e-01f, -2.36542486e-02f, -1.66994035e-02f, -3.56994532e-02f, 7.35300779e-02f, 8.60697255e-02f, -4.51033451e-02f, -2.24828813e-02f,
    -2.41135415e-02f, -3.48562337e-02f, -7.15302536e-03f, 2.48022806e-02f, -1.68873221e-02f, 2.92734783e-02f, 6.79063052e-02f, -3.12942527e-02f,
    -1.43453886e-03f, 8.52023363e-02f, -9.72174630e-02f, -5.00170095e-03f, -5.25750779e-02f, -1.26888633e-01f, -5.26365377e-02f, 3.20596322e-02f,
    -2.17994023e-02f, -1.13299608e-01f, 2.64308844e-02f, 1.95732757e-01f, -9.31230038e-02f, -1.47997826e-01f, -8.28123745e-03f, 5.37877679e-02f,
    1.53671457e-02f, -3.08639761e-02f, 3.24745066e-02f, 2.15888489e-02f, -1.60722449e-01f, -3.98127101e-02f, -4.61013615e-02f, 9.28968042e-02f,
    5.92895150e-02f, 5.73072955e-02f, -4.14312780e-02f, 1.63204912e-02f, 3.95797379e-02f, -2.49685068e-02f, -2.59339493e-02f, -3.58084440e-02f,
    7.12339729e-02f, -1.57591313e-01f, -3.49052623e-02f, 1.69635639e-02f, -3.80369909e-02f, -3.78379337e-02f, 4.38714325e-02f, 6.44709915e-02f,
    8.28898326e-02f, 8.90608206e-02f, 2.49490719e-02f, -8.04073215e-02f, -8.91761482e-02f, 7.87355192e-03f, -2.06709560e-02f, -6.32295310e-02f,
    -7.11420178e-02f, -3.55593935e-02f, -8.63405243e-02f, -5.40685132e-02f, 5.21093756e-02f, 3.14740613e-02f, 1.16470652e-02f, 7.20082819e-02f,
    -7.32245296e-02f, -1.92015339e-03f, 1.12144344e-01f, -8.76376033e-03f, 7.41012469e-02f, -1.53707908e-02f, -4.67205681e-02f, -4.44387197e-02f,
    -3.40026207e-02f, -1.72948524e-01f, -5.68076186e-02f, -5.65697104e-02f, 1.93687215e-01f, 6.35393187e-02f, -4.49898131e-02f, -3.29878666e-02f,
    7.52631053e-02f, -9.77777317e-02f, -9.90662817e-03f, 1.31296320e-02f, 1.29305586e-01f, -1.45493401e-02f, 4.45696246e-03f, -3.91330756e-02f,
    -7.36935483e-03f, 1.80552248e-02f, 1.17927836e-02f, 3.18636745e-02f, 4.72778417e-02f, 2.29719263e-02f, 1.04530528e-01f, 3.29607772e-03f,
    4.58552353e-02f, -2.22716983e-02f, 9.29580778e-02f, 1.65470168e-02f, 2.42766715e-03f, 1.48972599e-02f, -3.74996588e-02f, 3.38015407e-02f,
    -6.06491826e-02f, -6.02553338e-02f, -9.97820571e-02f, 3.44430399e-03f, 1.28016338e-01f, -3.00856903e-02f, 2.09424738e-02f, 1.75419543e-02f,
    -8.34332854e-02f, 1.89173520e-02f, 1.02671655e-02f, 1.39318109e-01f, -4.22934070e-02f, 1.24415092e-01f, 3.41544859e-02f, -8.10393244e-02f,
    -4.56509180e-02f, 4.97051105e-02f, -1.03971772e-01f, 8.67069960e-02f, 7.10952729e-02f, -3.33111063e-02f, 1.13039084e-01f, -9.17869210e-02f,
    -2.90062092e-02f, -7.98911750e-02f, -9.41447094e-02f, -1.09260418e-01f, -4.10854816e-02f, 6.26490042e-02f, 1.70462839e-02f, -7.01943645e-03f,
    -1.00940414e-01f, 1.56468730e-02f, 1.33829331e-02f, 3.93956527e-02f, 1.19982041e-01f, -2.55971048e-02f, 1.64750189e-01f, 2.33179741e-02f,
    -2.11613420e-02f, 1.10967532e-01f, -9.05876905e-02f, -1.07883714e-01f, 9.14045498e-02f, -2.06389204e-02f, 2.23977724e-03f, -4.74185944e-02f,
    -8.52027442e-03f, 4.06087302e-02f, 6.03064857e-02f, -1.54265568e-01f, -3.86859290e-02f, 7.14428499e-02f, -8.94368887e-02f, 1.89181492e-01f,
    -1.46809056e-01f, 1.31038623e-02f, -3.61804068e-02f, 1.48990527e-01f, -1.22297652e-01f, 5.98880760e-02f, -5.58864698e-02f, 4.82891575e-02f,
    3.61122889e-03f, -2.28356458e-02f, -1.86647903e-02f, -6.28950447e-02f, 1.98259607e-01f, -1.71794891e-02f, -8.34317878e-03f, 2.11378321e-01f,
    -4.40231003e-02f, -1.15840789e-02f, 1.97021998e-02f, 9.70782153e-03f, 3.58997919e-02f, -1.10640638e-01f, 3.63979712e-02f, 1.82215031e-02f,
    -1.40324458e-01f, -7.05838874e-02f, -1.93185601e-02f, -7.21153915e-02f, 5.31977005e-02f, -1.93653908e-02f, 1.88015670e-01f, 2.97512747e-02f,
    6.17108680e-02f, -2.27067843e-02f, 3.23755248e-03f, 1.72873139e-01f, 1.27476286e-02f, -1.06398538e-02f, 9.10170972e-02f, -1.06373399e-01f,
    1.49433594e-02f, -1.32767364e-01f, 1.10894464e-01f, -9.55440775e-02f, 7.43415430e-02f, -3.56632695e-02f, -1.50584161e-01f, -1.09504767e-01f,
    5.61113507e-02f, -2.15197187e-02f, 8.96603055e-03f, 5.73093034e-02f, 6.82016835e-02f, 5.97051950e-03f, -1.35934656e-03f, 5.46298875e-03f,
    -9.31240022e-02f, -9.04970095e-02f, 1.72509745e-01f, -1.84175977e-03f, -1.26531487e-02f, 3.98096293e-02f, -2.99280491e-02f, -8.62341300e-02f,
    1.84633598e-01f, -2.50835549e-02f, 9.19357166e-02f, 8.46636966e-02f, 7.88691342e-02f, 6.75811619e-02f, 1.62811309e-01f, -2.72494685e-02f,
    1.80684086e-02f, -1.54121052e-02f, -4.43260483e-02f, 9.03964639e-02f, 5.16860094e-03f, 1.35455271e-02f, -1.82600133e-02f, 1.07506206e-02f,
    6.34378493e-02f, -6.09283634e-02f, 3.56143788e-02f, -3.55800912e-02f, 6.44832617e-03f, -6.92041358e-03f, -1.32606979e-02f, 1.42339896e-02f,
    3.48097533e-02f, -1.29474193e-01f, -1.02133244e-01f, 6.82311952e-02f, -8.12124833e-02f, 8.72292370e-03f, 1.30544007e-01f, -1.71705082e-01f,
    -4.50425781e-02f, 2.73420122e-02f, 8.99872035e-02f, -6.93806857e-02f, 3.97201069e-02f, 5.68517558e-02f, -2.60070413e-02f, 1.16321377e-01f,
    2.83996202e-02f, 9.64620113e-02f, 2.06117719e-01f, 6.48052022e-02f, -5.81977814e-02f, -1.21109923e-02f, -9.34608206e-02f, 1.29825547e-01f,
    3.33744287e-02f, 1.00450382e-01f, -1.22818619e-01f, -3.53646651e-02f, 2.93438118e-02f, 2.29150951e-02f, -3.00008226e-02f, -7.91338608e-02f,
    4.29246537e-02f, 8.16285610e-02f, 5.97404204e-02f, -3.17343213e-02f, 1.13611169e-01f, -7.37784356e-02f, 3.95332687e-02f, 9.41437781e-02f,
    9.81876999e-03f, -1.17989630e-01f, 5.72623834e-02f, 2.37883944e-02f, -2.58688815e-02f, 9.83463153e-02f, -1.24214888e-01f, -5.45747206e-02f,
    -4.87804264e-02f, -8.57946947e-02f, 7.93153569e-02f, 5.27975298e-02f, 2.65540779e-02f, -7.02521531e-03f, -1.18214090e-03f, -4.05516028e-02f,
    -3.94046195e-02f, 8.55054706e-02f, 4.62829024e-02f, 9.61481705e-02f, 7.87588879e-02f, 4.71326523e-02f, -2.38078292e-02f, 1.55747384e-01f,
    3.86510752e-02f, -4.69245985e-02f, 7.76051963e-03f, 7.59126395e-02f, 7.43626757e-03f, -1.43923191e-02f, 1.56119792e-02f, -5.35923429e-02f,
    2.92536728e-02f, 2.66431049e-02f, 8.57152864e-02f, 1.42366504e-02f, -5.54082878e-02f, 4.19394821e-02f, 6.90117776e-02f, 3.77702489e-02f,
    2.06338707e-02f, -4.44184169e-02f, 1.83546208e-02f, -1.45658344e-01f, 6.61934167e-03f, 2.25990742e-01f, -6.95189089e-03f, -5.88894412e-02f,
    6.01436198e-02f, 9.61756781e-02f, 5.20491460e-03f, -6.21845685e-02f, -3.17977779e-02f, -9.41096172e-02f, -7.49383941e-02f, -1.01442561e-01f,
    -5.12963831e-02f, 1.80337881e-03f, -7.96703622e-02f, -2.29400676e-02f, 8.54088515e-02f, 7.84597173e-02f, -7.20091164e-02f, 1.43288508e-01f,
    -3.78801264e-02f, 7.58334175e-02f, -4.04281579e-02f, 5.48541127e-03f, -5.55110611e-02f, 7.98455849e-02f, -5.21866120e-02f, -2.14368049e-02f,
    -8.63144398e-02f, -5.04171029e-02f, 1.26013175e-01f, -4.07459550e-02f, -4.27677780e-02f, 1.81515217e-01f, -1.88835710e-02f, 9.01629403e-02f,
    -1.11020207e-02f, -6.44402802e-02f, -1.28353154e-02f, 4.76660859e-03f, -6.59027845e-02f, -1.01975193e-02f, -5.92229813e-02f, 1.71497524e-01f,
    -3.25660557e-02f, -1.23168901e-01f, -9.32357982e-02f, -3.14070173e-02f, -2.12706756e-02f, 7.67025873e-02f, -1.10246994e-01f, -2.27749310e-02f,
    6.18709214e-02f, -8.31588209e-02f, -1.36707529e-01f, -6.52384683e-02f, -5.55145033e-02f, 3.46331038e-02f, 1.06796250e-01f, 3.33318370e-04f,
    -1.03264041e-02f, -7.75166303e-02f, -6.51371479e-02f, -4.54805908e-04f, -6.25686580e-03f, -8.69486332e-02f, -1.20440871e-01f, 4.00714986e-02f,
    -3.05686407e-02f, -9.04588774e-02f, 4.47998941e-02f, 5.16661704e-02f, 4.87032197e-02f, -8.11018869e-02f, -3.86880040e-02f, 2.47471165e-02f,
    8.57721362e-03f, 7.48050213e-02f, -1.34631634e-01f, 1.58542767e-01f, 4.60682297e-03f, 1.15602138e-02f, -5.13817556e-02f, 6.04660250e-02f,
    4.35545780e-02f, 3.75046432e-02f, -8.04041103e-02f, 4.29510325e-02f, 1.32172585e-01f, 1.73411816e-01f, -1.23237066e-01f, -3.60975899e-02f,
    -6.83470070e-02f, 4.96219657e-03f, 6.21294789e-02f, 5.26694879e-02f, 6.13888577e-02f, -1.92329101e-02f, -3.48503068e-02f, 5.39294295e-02f,
    1.65562965e-02f, -3.21566388e-02f, 1.97100844e-02f, -1.57538846e-01f, -3.77472006e-02f, -1.80468261e-02f, 1.04857450e-02f, 1.26490504e-01f,
    3.09984684e-02f, -1.67891569e-02f, 3.10571603e-02f, 1.17900865e-02f, -4.75290753e-02f, -1.77095868e-02f, -1.26490276e-02f, 1.30280882e-01f,
    5.67450635e-02f, 1.14625968e-01f, 1.58042498e-02f, 2.31836420e-02f, 3.29093188e-02f, -2.16840543e-02f, 1.23350928e-02f, 2.43989788e-02f,
    -7.04012364e-02f, -6.49691969e-02f, 3.80815007e-02f, 7.64159486e-02f, -2.77544605e-03f, -2.78730355e-02f, 9.87900868e-02f, 1.40434995e-01f,
    2.93155457e-03f, 5.50990812e-02f, 1.73437029e-01f, 3.97895537e-02f, 6.82962164e-02f, -3.34995314e-02f, -5.36047593e-02f, -8.45050886e-02f,
    -8.55011195e-02f, 4.30128090e-02f, -1.02152869e-01f, -3.06255408e-02f, 9.03824121e-02f, 1.47497496e-02f, -7.21854568e-02f, 1.45947665e-01f,
    3.66895385e-02f, 1.49419042e-03f, -1.00410245e-01f, 1.20711792e-02f, -1.04221605e-01f, -1.15705580e-01f, 1.22815572e-01f, -4.70698215e-02f,
    7.67754763e-02f, 1.81326091e-01f, -5.87723143e-02f, 6.54399954e-03f, 5.75513914e-02f, -4.18546647e-02f, 2.77313627e-02f, 4.93991040e-02f,
    -6.29803464e-02f, 1.19382069e-01f, 1.69590667e-01f, 6.11943230e-02f, 9.00337249e-02f, -4.20263223e-02f, 6.37898371e-02f, 1.68616489e-01f,
    8.08319300e-02f, -5.63244969e-02f, 2.78142076e-02f, -2.19052099e-02f, -1.01026604e-02f, 1.23933204e-01f, 9.63247195e-03f, -9.21958759e-02f,
    -1.49748884e-02f, -5.56361750e-02f, -7.13725094e-05f, -6.31570145e-02f, -1.64570704e-01f, -8.79516453e-02f, 7.80382454e-02f, 3.87190618e-02f,
    -6.11881539e-02f, 4.62742820e-02f, -1.24567933e-01f, -6.79287761e-02f, 1.37448171e-02f, 3.49809751e-02f, -8.16334859e-02f, -1.14864305e-01f,
    -4.56423275e-02f, -2.29221582e-02f, 8.15443471e-02f, -8.70816503e-03f, -6.04672125e-03f, 1.09021850e-02f, -4.43196967e-02f, 1.05477057e-01f,
    1.73573121e-02f, -4.78328690e-02f, -4.59401077e-03f, 1.43052354e-01f, -8.53657424e-02f, -7.04974979e-02f, -9.77761671e-03f, -1.57632232e-02f,
    -2.22563259e-02f, -4.99321744e-02f, -7.98404738e-02f, 7.46031404e-02f, -8.19494352e-02f, 1.97720267e-02f, -1.28189642e-02f, 7.80432522e-02f,
    9.70736593e-02f, -5.95012903e-02f, -1.50866985e-01f, 4.88731228e-02f, 2.71689296e-02f, 7.35242814e-02f, -5.20800576e-02f, 4.53650281e-02f,
    7.70333409e-02f, 3.77167314e-02f, 1.01089627e-02f, -1.38416067e-02f, 8.97260383e-03f, 1.62690327e-01f, 5.52658178e-02f, -2.01606378e-02f,
    -1.58028528e-01f, 5.20492196e-02f, 1.94735155e-02f, -2.48965010e-01f, 7.42738470e-02f, -6.20890176e-03f, -1.56352594e-02f, 8.71121511e-02f,
    9.04143229e-02f, -2.33693942e-02f, 3.85069847e-02f, 3.05816587e-02f, 6.59746975e-02f, 4.47307006e-02f, 1.03056401e-01f, -2.41803173e-02f,
    -1.55337736e-01f, -7.24875629e-02f, -8.40594713e-03f, -6.55822158e-02f, 3.43896896e-02f, 5.51341437e-02f, -6.17699996e-02f, -3.37448865e-02f,
    -3.39605846e-02f, 2.58902796e-02f, -7.94497728e-02f, 1.47732303e-01f, -5.25885485e-02f, 1.42194480e-01f, -8.25206414e-02f, 1.27819747e-01f,
    -8.58923420e-02f, 8.72448236e-02f, -3.85371670e-02f, 3.90829798e-03f, -4.57886755e-02f, 4.97515798e-02f, -4.60879225e-03f, 2.68800650e-02f,
    -9.69659910e-03f, -5.20198699e-03f, 2.10246623e-01f, 5.51885068e-02f, 1.33453375e-02f, -4.21587303e-02f, 8.86663049e-03f, 6.00166768e-02f,
    5.09653911e-02f, 8.70023966e-02f, -5.37531972e-02f, -5.62969297e-02f, -5.73056601e-02f, 5.22247925e-02f, 6.53943494e-02f, 1.88060943e-02f,
    6.86374493e-03f, 3.46855223e-02f, 1.70806851e-02f, -7.13959858e-02f, 3.67739052e-02f, 7.05156773e-02f, 1.27746491e-02f, 5.69025092e-02f,
    6.26730025e-02f, 2.35325284e-02f, 1.18182143e-02f, 3.00914422e-02f, -4.13275436e-02f, -9.68671441e-02f, 2.92499028e-02f, -4.02305126e-02f,
    -1.66862924e-02f, 6.40658836e-05f, -6.27715886e-02f, -6.50448129e-02f, 1.60713997e-02f, 1.50562671e-03f, -9.58780758e-03f, -2.11065188e-02f,
    -2.83406246e-02f, 3.51460874e-02f, 8.61533061e-02f, 3.97428349e-02f, -3.52539010e-02f, -6.35486916e-02f, 2.53268005e-03f, -8.67335722e-02f,
    4.84825298e-02f, -4.57044169e-02f, -1.48565277e-01f, -7.61846676e-02f, -3.49635072e-02f, 1.43735185e-01f, 2.90518422e-02f, -7.98271969e-02f,
    -5.65695092e-02f, -4.90685739e-03f, -5.89435361e-02f, -1.63638741e-01f, 4.32238169e-02f, -2.17763539e-02f, -1.17653264e-02f, 1.93968639e-02f,
    1.93079039e-01f, 5.92217632e-02f, -1.31267868e-02f, -7.58162886e-02f, -8.99482295e-02f, 1.55781075e-01f, -9.40953642e-02f, -3.70384194e-02f,
    2.29600575e-02f, -3.22514623e-02f, 2.88101491e-02f, -2.61406116e-02f, 1.48076653e-01f, -5.67350723e-02f, 7.81431571e-02f, -1.02878012e-01f,
    3.89760286e-02f, 3.18414345e-02f, 8.58789459e-02f, 5.81247211e-02f, 7.07021952e-02f, 4.00932133e-03f, 4.80022281e-03f, 1.41885534e-01f,
    8.08839425e-02f, -8.03233460e-02f, 1.50961190e-01f, -5.93633428e-02f, -8.39244351e-02f, 3.75545062e-02f, 1.19309276e-02f, 1.23772040e-01f,
    -3.99113111e-02f, -7.06973299e-03f, 1.04459608e-02f, -1.03100324e-02f, -4.48498279e-02f, -1.26624525e-01f, -8.98261219e-02f, 5.49300686e-02f,
    5.59369996e-02f, -7.42876306e-02f, 1.19437084e-01f, -9.79717970e-02f, -2.40185279e-02f, 6.25228882e-03f, -1.65154971e-02f, -2.25365572e-02f,
    -3.65657359e-03f, 7.95741528e-02f, 6.46495298e-02f, 3.36369127e-03f, 5.64545626e-03f, -9.94387418e-02f, -4.20302935e-02f, -9.90369916e-03f,
    2.63010617e-02f, -5.12119681e-02f, -5.16760536e-02f, 4.38157544e-02f, 1.49908289e-01f, -8.29319805e-02f, 7.88568053e-03f, -1.69692514e-03f,
    -1.67689752e-02f, 8.06568712e-02f, 2.81500667e-01f, 1.04797930e-01f, 8.03406350e-03f, 1.00306861e-01f, 3.52682360e-02f, -4.22440544e-02f,
    9.87394974e-02f, 4.16480564e-02f, 9.06975474e-03f, 1.07033201e-01f, -2.22190539e-03f, -1.03794925e-01f, 1.03023879e-01f, 1.34879082e-01f,
    -5.10878488e-02f, -1.48817236e-02f, -8.69606659e-02f, 6.39706179e-02f, 9.19122100e-02f, 1.02160104e-01f, 2.03966275e-02f, 1.69577181e-01f,
    1.65304113e-02f, -7.02180713e-03f, 2.30360460e-02f, 1.87807772e-02f, 2.48826928e-02f, -2.98822206e-02f, -1.09602779e-01f, 4.99245040e-02f,
    9.66116115e-02f, -1.17802834e-02f, -1.51776016e-01f, -6.80553392e-02f, -1.74135547e-02f, -2.56018396e-02f, 1.16064800e-02f, 2.50193104e-02f,
    -8.99665654e-02f, 3.77252437e-02f, 6.16402365e-02f, 7.79829733e-03f, -2.54456084e-02f, 6.34913594e-02f, 1.16978332e-01f, 3.29285972e-02f,
    4.42994162e-02f, 1.55331416e-03f, -5.32361232e-02f, 9.13274363e-02f, 5.37573546e-02f, 6.49843588e-02f, -1.63631812e-02f, 1.02486528e-01f,
    -1.05258793e-01f, -2.31995340e-02f, 7.85776898e-02f, 1.07324217e-02f, -1.09885193e-01f, -8.02723914e-02f, 2.49895640e-02f, 9.23742950e-02f,
    -3.26392837e-02f, -2.57925242e-02f, 3.09769139e-02f, 8.29454660e-02f, -4.28776406e-02f, 5.96992373e-02f, -7.55721480e-02f, -5.93229942e-02f,
    -5.78846261e-02f, -4.11689319e-02f, -5.74321486e-02f, 4.03524898e-02f, 1.42760454e-02f, 4.47514234e-03f, -1.62256062e-02f, -5.99575229e-02f,
    4.12849523e-02f, 2.46786289e-02f, -6.30892366e-02f, 9.93233174e-02f, -6.62505673e-03f, -1.27986707e-02f, -9.13438275e-02f, 9.06336084e-02f,
    -3.44620757e-02f, 1.06905429e-02f, -5.58483936e-02f, 6.93792775e-02f, -1.14182204e-01f, -5.30423820e-02f, -3.97368483e-02f, 5.17163090e-02f,
    5.58891483e-02f, 3.95924412e-02f, 1.33877601e-02f, 9.56702456e-02f, 8.93293396e-02f, -1.43255349e-02f, 3.85923609e-02f, 2.41448358e-02f,
    4.07066159e-02f, 8.07346553e-02f, -2.59271730e-02f, 4.13256884e-03f, -7.96816945e-02f, 5.52464500e-02f, -3.65281142e-02f, 4.02558222e-02f,
    5.65823726e-02f, -1.87274441e-02f, 4.10938077e-02f, -4.69791070e-02f, 6.62774071e-02f, 7.01554567e-02f, 6.46710917e-02f, -2.41251010e-02f,
    -7.18546808e-02f, -5.01985252e-02f, -1.23969480e-01f, 2.05309719e-01f, -1.01439515e-02f, 9.44904238e-02f, -1.07909694e-01f, -4.32724878e-02f,
    4.89350921e-03f, 1.53276622e-01f, -1.34121433e-01f, -1.00284945e-02f, 3.93992700e-02f, -5.31926472e-03f, 1.73135865e-02f, 7.45233968e-02f,
    -9.16708782e-02f, -6.43258216e-03f, -1.06646970e-01f, -1.01929374e-01f, 9.04873461e-02f, -8.04155469e-02f, -1.66870803e-01f, -5.49778827e-02f,
    -1.70035567e-02f, -3.89332213e-02f, 1.62824627e-03f, -4.86658998e-02f, -3.30271944e-02f, 1.88072175e-01f, -3.18815000e-02f, -3.54845263e-02f,
    -1.28248721e-01f, -6.58691525e-02f, 9.48360413e-02f, -1.47948995e-01f, 7.39176273e-02f, -6.31844997e-02f, 3.51863876e-02f, -9.09796730e-02f,
    1.01476312e-01f, -4.27528471e-02f, -2.09855754e-02f, 7.19813108e-02f, -8.76088813e-02f, 4.13888432e-02f, 1.30588546e-01f, 1.79685820e-02f,
    9.11055356e-02f, -1.11771353e-01f, 3.69704217e-02f, 8.20232928e-03f, -6.17808923e-02f, -8.18842947e-02f, -7.61413574e-02f, -3.68118249e-02f,
    -4.97043394e-02f, -4.85146977e-02f, 1.32234335e-01f, 8.25709924e-02f, 5.30623086e-03f, 1.00660615e-01f, -5.00448756e-02f, 1.40493527e-01f,
    -1.18190885e-01f, 6.65761232e-02f, -4.70333472e-02f, 1.38335183e-01f, 7.33138248e-02f, -7.55348615e-03f, 6.22210242e-02f, 4.03926633e-02f,
    -3.24115679e-02f, -8.27477500e-02f, 7.23740011e-02f, -7.36397952e-02f, 1.19438618e-01f, -1.21334689e-02f, 3.08247566e-01f, 4.34543602e-02f,
    1.81832276e-02f, -7.34166056e-02f, 7.41950748e-03f, -3.39085162e-02f, 1.06097542e-01f, -3.94167416e-02f, 6.59210309e-02f, 2.82937102e-02f,
    -7.09873810e-03f, -9.28029045e-03f, 9.80995595e-02f, 9.70230848e-02f, -1.47567727e-02f, -2.85766739e-02f, 1.31545048e-02f, 7.82101974e-02f,
    4.05876748e-02f, -5.56486398e-02f, 1.03134915e-01f, 9.74661577e-03f, -5.49427345e-02f, -2.06870884e-01f, 4.96277735e-02f, -5.89453131e-02f,
    -5.44714741e-02f, -5.62072583e-02f, -2.65484862e-02f, 5.17686876e-03f, -2.81266472e-03f, -2.03843325e-01f, 5.72856441e-02f, 4.04355340e-02f,
    1.11316904e-01f, -7.41369557e-03f, -8.03300589e-02f, -1.09671004e-01f, -3.70157510e-02f, -5.36573604e-02f, -1.88897587e-02f, 1.75082739e-02f,
    -1.36314869e-01f, -1.06198909e-02f, 5.54100936e-03f, -3.03612724e-02f, -5.54006360e-03f, -4.19446966e-03f, 1.25609323e-01f, 2.77437102e-02f,
    -6.77220896e-02f, 2.53541201e-01f, -9.16526001e-03f, 2.03949306e-03f, 2.42841318e-02f, -1.20796867e-01f, -5.87323867e-02f, 9.11858827e-02f,
    -1.24680512e-01f, -2.82390602e-02f, 5.47959618e-02f, -6.49061427e-02f, -9.31866840e-02f, 2.83657193e-01f, -1.98195670e-02f, 6.90861866e-02f,
    7.05143511e-02f, 5.04426695e-02f, 6.82699010e-02f, 1.86369687e-01f, -1.20939858e-01f, -6.71916381e-02f, 5.11278287e-02f, -1.21293277e-01f,
    5.85965812e-02f, -2.26259083e-02f, -1.33419961e-01f, 1.15627917e-02f, -6.78227246e-02f, 7.07673701e-03f, -3.13239358e-02f, 1.15494326e-01f,
    -5.76597042e-02f, 8.56028199e-02f, 3.23107429e-02f, 3.47138979e-02f, -9.70194414e-02f, -1.65622458e-02f, -3.10688205e-02f, -4.72933576e-02f,
    -3.47219743e-02f, 9.73725617e-02f, -9.25756916e-02f, -1.11816712e-02f, -1.10652074e-01f, -1.80184394e-01f, 7.55341351e-02f, -9.32266638e-02f,
    3.86192976e-03f, 3.36899124e-02f, 2.23337483e-04f, -9.59644839e-02f, 7.20871985e-02f, 1.54294148e-01f, -8.72563794e-02f, -2.63047405e-03f,
    1.28545031e-01f, -1.86100136e-02f, 8.01039636e-02f, 4.60167415e-02f, 3.84466797e-02f, -3.22500467e-02f, 2.85888445e-02f, 8.26011449e-02f,
    -8.09369609e-02f, 1.05474360e-01f, -1.04558192e-01f, 6.31481186e-02f, -1.82855934e-01f, 1.89626068e-01f, -8.75776913e-03f, 1.93371866e-02f,
    2.21997365e-01f, -7.60348663e-02f, -1.09195106e-01f, 1.90479320e-03f, 2.30442057e-03f, 4.12781872e-02f, -8.98333546e-03f, -4.16343957e-02f,
    1.75927579e-01f, -3.61898839e-02f, -7.78729543e-02f, 1.02354936e-01f, 7.43385106e-02f, 1.31373987e-01f, 2.15680689e-01f, 1.32363494e-02f,
    -4.86187357e-03f, 1.93451345e-02f, -1.27953300e-02f, 5.63084222e-02f, 1.30356625e-01f, 6.75788745e-02f, -4.52398099e-02f, -4.00519967e-02f,
    -4.65643406e-02f, -1.33602263e-03f, -1.85822681e-01f, 1.43187903e-02f, 5.59149981e-02f, 1.20206429e-02f, -3.02700400e-02f, -7.86402002e-02f,
    4.04747277e-02f, -4.53392193e-02f, -1.18986100e-01f, 6.64530545e-02f, -4.65315841e-02f, -1.38398141e-01f, -7.35167637e-02f, -4.84694578e-02f,
    -1.91127940e-03f, -3.32579874e-02f, -1.54755963e-02f, -4.21040393e-02f, -3.14878928e-03f, -7.32285716e-03f, 1.43112428e-02f, -4.58255410e-03f,
    -1.45263612e-01f, 9.78726000e-02f, -1.04901511e-02f, -1.17830135e-01f, 2.36539423e-01f, 6.30523413e-02f, 5.89863621e-02f, 1.20705017e-03f,
    -6.01889938e-03f, 8.62165634e-03f, 4.08607014e-02f, -1.41616426e-02f, 4.38933447e-02f, -3.99835557e-02f, -8.20747763e-02f, 7.49583468e-02f,
    -1.42344072e-01f, 3.30272987e-02f, 4.94758859e-02f, 6.69727027e-02f, 4.57003340e-03f, 1.24158688e-01f, -4.92572226e-02f, -3.32976393e-02f,
    -9.66583565e-02f, -2.78190523e-02f, 4.98849601e-02f, -1.01733379e-01f, 7.72752538e-02f, 6.39016703e-02f, 1.33307770e-01f, -6.16626740e-02f,
    -7.32909366e-02f, -8.94962903e-03f, 5.02487756e-02f, -4.47782734e-03f, 1.95882395e-01f, 8.32952708e-02f, -3.23623121e-02f, -1.30162397e-02f,
    -1.10232405e-01f, 2.35315990e-02f, -1.44555848e-02f, -6.98040649e-02f, -1.46950960e-01f, 6.12386726e-02f, -1.33435358e-03f, 3.17397863e-02f,
    1.09116636e-01f, -2.67562252e-02f, 3.23719867e-02f, 2.09824115e-01f, 4.25807796e-02f, -1.08743839e-01f, -3.07698194e-02f, -4.94471416e-02f,
    4.04596962e-02f, 1.41192704e-01f, 3.58539894e-02f, -1.82242356e-02f, 1.52868271e-01f, -4.53119688e-02f, -9.50723067e-02f, -6.81629032e-02f,
    -5.17645255e-02f, -1.45797674e-02f, 9.88750011e-02f, -1.00098506e-01f, -1.02805428e-01f, -5.06621525e-02f, -1.57135710e-01f, 9.55435187e-02f,
    -1.00200446e-02f, -7.79162422e-02f, -2.68121324e-02f, -4.42873091e-02f, 6.51998818e-02f, -1.31534442e-01f, 3.27661484e-02f, 1.82632543e-02f,
    -9.25036846e-04f, -6.12184294e-02f, -1.71918318e-01f, 3.58668230e-02f, -1.49550974e-01f, 1.40147312e-02f, -9.18048248e-02f, -8.91665220e-02f,
    -4.74901795e-02f, 5.68326116e-02f, 3.74384783e-02f, 2.73869392e-02f, -2.47666845e-03f, 1.58817127e-01f, 3.69363427e-02f, 3.88642624e-02f,
    -1.47082254e-01f, -7.97908530e-02f, -4.17971499e-02f, 1.61752347e-02f, 3.37402821e-02f, -3.72674540e-02f, -2.93330066e-02f, -1.16751976e-01f,
    -2.95822117e-02f, -1.70431972e-01f, -2.10329960e-03f, 5.68070710e-02f, -5.43880612e-02f, 1.66535825e-02f, 3.49867232e-02f, 1.27254818e-02f,
    9.31359604e-02f, 6.31073266e-02f, -1.10519499e-01f, 5.08684032e-02f, 4.01230864e-02f, -8.16733390e-02f, 9.37568471e-02f, 3.07827126e-02f,
    5.29284254e-02f, -1.03406832e-01f, -1.59567729e-01f, -3.95247573e-03f, 1.29531492e-02f, -2.63426010e-03f, -2.73900256e-02f, 4.68089730e-02f,
    -9.13438872e-02f, -5.90773225e-02f, 4.40986268e-02f, -4.43935432e-02f, 7.70011246e-02f, -4.04186063e-02f, 2.55129635e-02f, -2.71970984e-02f,
    -9.68580134e-03f, -1.89873613e-02f, -5.84149249e-02f, -9.64654163e-02f, 1.31269053e-01f, 5.42642996e-02f, 3.47851515e-02f, 7.26376772e-02f,
    8.16030577e-02f, 8.17144066e-02f, -2.04721596e-02f, 3.04242093e-02f, 4.16680947e-02f, -8.92806873e-02f, -7.54375830e-02f, -7.21238554e-02f,
    -8.76631811e-02f, 8.29870403e-02f, -4.59577739e-02f, -6.83484599e-02f, -1.22907721e-01f, -9.34006833e-03f, 4.54995641e-03f, -2.40217727e-02f,
    7.23893046e-02f, -1.25014558e-01f, -4.74415570e-02f, 5.63115813e-02f, 1.23474516e-01f, 4.29203920e-02f, -6.04145005e-02f, 6.80134371e-02f,
    4.34097499e-02f, -1.11034468e-01f, -4.05072793e-03f, 7.84878805e-02f, -1.31429434e-01f, -1.19406087e-02f, 3.97670344e-02f, -1.73181649e-02f,
    2.15045474e-02f, 3.35327722e-02f, 4.66423184e-02f, 1.50469644e-03f, -1.55602787e-02f, -3.60802584e-03f, -5.05423136e-02f, 9.07429755e-02f,
    3.20955962e-02f, -9.34662744e-02f, -7.15478882e-02f, -2.94896029e-02f, -2.43141223e-02f, 6.86198175e-02f, -5.12380041e-02f, 4.44699861e-02f,
    5.71033433e-02f, 1.48464106e-02f, 1.93825234e-02f, 1.93924114e-01f, 1.23591358e-02f, 5.25080301e-02f, -2.16477886e-02f, 2.36652307e-02f,
    7.13220760e-02f, 7.59748593e-02f, 1.37154441e-02f, 1.02456827e-02f, 3.79228704e-02f, -6.47982806e-02f, -1.16550669e-01f, 1.37514276e-02f,
    -2.71095149e-02f, -1.05605170e-01f, -1.75774992e-02f, -3.23110633e-02f, 1.46126526e-03f, 3.71734872e-02f, -1.11498469e-02f, -4.29728022e-03f,
    4.45664264e-02f, -2.53411923e-02f, 7.47907460e-02f, -1.30652180e-02f, 1.42469421e-01f, 1.40297608e-02f, 5.08809797e-02f, -6.36062250e-02f,
    1.07549302e-01f, -2.69301310e-02f, -9.34520885e-02f, -3.58161293e-02f, 7.64067005e-03f, -3.78297567e-02f, 7.73876980e-02f, 1.49099857e-01f,
    8.74101277e-03f, 8.59443378e-03f, 1.66341364e-02f, 8.12470093e-02f, -9.21676904e-02f, 3.52934897e-02f, -8.83848667e-02f, 5.37068732e-02f,
    -1.62576571e-01f, -3.69448550e-02f, -8.37219581e-02f, -1.03220912e-02f, -8.55714902e-02f, -1.41945422e-01f, -5.05010411e-02f, 1.72966928e-03f,
    -2.61546262e-02f, -1.55634701e-01f, 1.54114500e-01f, -1.01693802e-01f, -4.30392660e-02f, -9.09783542e-02f, 1.07256331e-01f, -8.45797434e-02f,
    8.27414021e-02f, 1.64978355e-01f, -8.69060159e-02f, -1.71262339e-01f, -3.85752916e-02f, -1.41740754e-01f, 1.17934555e-01f, -1.21682316e-01f,
    -1.26478165e-01f, 3.79143953e-02f, -5.48258126e-02f, -1.36410920e-02f, 8.64605084e-02f, -8.44000280e-02f, -3.97916846e-02f, -6.78806454e-02f,
    1.11087471e-01f, 7.49806166e-02f, 6.60584047e-02f, -5.65502746e-03f, 7.55199045e-02f, -3.38097699e-02f, 1.56491082e-02f, -7.13326633e-02f,
    9.91669968e-02f, 4.19822857e-02f, 9.73162428e-02f, -5.00141177e-03f, 5.17280027e-02f, -1.73442028e-02f, 7.02572688e-02f, -1.49358526e-01f,
    1.39135361e-01f, 1.00255527e-01f, -8.63822773e-02f, -9.32231396e-02f, 1.33223683e-01f, -5.66535778e-02f, -5.09088337e-02f, 1.04439370e-01f,
    2.33362559e-02f, -1.29329145e-01f, 1.15239106e-01f, -8.45093559e-03f, 9.37713534e-02f, -6.56151399e-02f, 1.04705617e-01f, -3.94051522e-02f,
    1.65705495e-02f, -3.65600251e-02f, 1.70447409e-01f, -5.95179154e-03f, 1.29482955e-01f, 5.99307865e-02f, 1.35404840e-02f, 1.71977013e-01f,
    4.52739000e-02f, -9.95458011e-03f, -5.33222267e-03f, -1.42921075e-01f, -2.74119899e-02f, 5.69908284e-02f, 1.28946081e-01f, -1.13229193e-01f,
    -7.42829172e-04f, -1.82474837e-01f, -5.47921024e-02f, 3.26189324e-02f, 3.78934816e-02f, -1.94299787e-01f, -1.73623741e-01f, 6.79373667e-02f,
    1.77406985e-02f, 2.40715649e-02f, -1.51288025e-02f, 3.96433100e-02f, 1.34711880e-02f, -7.99579546e-02f, 1.65719837e-01f, -6.07566833e-02f,
    2.29784399e-02f, 2.17631236e-01f, 4.41209711e-02f, 2.49027498e-02f, 1.39399320e-01f, 5.62249087e-02f, 7.81078488e-02f, -2.59169880e-02f,
    3.11534782e-03f, -2.36291122e-02f, -2.37434004e-02f, -1.12867832e-01f, 5.93867935e-02f, -1.01084970e-01f, -2.51667164e-02f, -5.93929319e-03f,
    -4.10222262e-02f, 1.92662030e-01f, 4.02082987e-02f, 1.86474264e-01f, -1.49082303e-01f, -7.85177946e-02f, 1.33706080e-02f, 3.91726606e-02f,
    -1.16847552e-01f, 1.18151523e-01f, 3.67718339e-02f, 1.50834933e-01f, 7.94341713e-02f, -8.31201449e-02f, 2.21181214e-01f, -2.20003054e-02f,
    -1.05639443e-01f, 1.63496897e-01f, -3.91058549e-02f, 4.90062088e-02f, 4.55582999e-02f, -3.32766324e-02f, 1.32076843e-02f, -6.51882961e-02f,
    7.06670359e-02f, -2.62464695e-02f, -4.06480134e-02f, 3.88643146e-02f, -1.14994854e-01f, -7.88932145e-02f, -8.21478292e-02f, 2.26944759e-01f,
    1.23783559e-01f, 3.83575857e-02f, -3.36823687e-02f, 6.54188916e-02f, 1.58901066e-01f, -9.78966430e-02f, -6.31534681e-02f, 1.22902051e-01f,
    -8.90545920e-02f, 1.54402275e-02f, 1.14201322e-01f, 7.20904544e-02f, 6.72260970e-02f, 2.43251994e-01f, 8.16267952e-02f, 1.78161055e-01f,
    1.72203034e-02f, -7.17654526e-02f, -9.07843485e-02f, -7.41506591e-02f, 7.61598870e-02f, 1.24616489e-01f, -7.92477876e-02f, -2.50401814e-02f,
    6.74309209e-02f, -1.08974330e-01f, -2.02182308e-01f, 1.52782023e-01f, 2.60936506e-02f, 6.02627918e-02f, 6.03305958e-02f, -8.35933909e-02f,
    -5.94949126e-02f, 5.56658953e-02f, 6.13772012e-02f, 3.82846929e-02f, 9.30191949e-02f, -8.97763371e-02f, -2.65283678e-02f, -6.07118458e-02f,
    2.50661443e-03f, 9.48651582e-02f, 7.86725208e-02f, -2.97383294e-02f, 1.10523134e-01f, -2.53943000e-02f, -5.58145754e-02f, 6.68465719e-02f,
    -4.73536402e-02f, -6.10941648e-02f, 5.61162569e-02f, 7.66267115e-03f, 3.64866406e-02f, 8.18397701e-02f, -1.77410096e-02f, 1.06435595e-02f,
    1.00694738e-01f, 1.96742583e-02f, -1.26161650e-01f, -7.34250247e-02f, 1.30336404e-01f, 1.14031292e-01f, 9.54990759e-02f, 3.01539991e-02f,
    -1.98358744e-02f, 1.12251360e-02f, 9.09666047e-02f, 1.51191831e-01f, -5.55115826e-02f, 1.54123083e-01f, 4.10474725e-02f, -2.73671397e-03f,
    1.49603831e-02f, 2.01600008e-02f, 1.53443828e-01f, 1.01835251e-01f, 4.08109389e-02f, 1.05180331e-01f, 6.24952242e-02f, 2.94371955e-02f,
    3.25400531e-02f, 1.34861052e-01f, 4.18046005e-02f, 9.92569104e-02f, 7.69502893e-02f, 2.10325625e-02f, 6.80095926e-02f, -6.94113299e-02f,
    8.69448259e-02f, 2.35864632e-02f, -1.50416642e-01f, 5.37497643e-03f, 1.33114159e-01f, -3.93640995e-03f, -1.12265442e-02f, -1.21604255e-03f,
    -2.67659910e-02f, 8.68646055e-03f, -2.20561530e-02f, -8.33142251e-02f, 3.20726670e-02f, 9.95848700e-02f, 4.55100797e-02f, 2.78475136e-02f,
    3.13923731e-02f, -1.69096723e-01f, 1.13321789e-01f, 8.82094204e-02f, 6.16919622e-02f, 5.30781560e-02f, 7.84821138e-02f, 3.90940160e-02f,
    -5.09385467e-02f, 1.26738280e-01f, 3.65642272e-02f, -3.10080964e-02f, 7.19468296e-02f, -4.16384935e-02f, -8.96674991e-02f, 2.75846440e-02f,
    5.01176529e-02f, 1.54576957e-01f, 2.49010101e-02f, -5.79306819e-02f, -1.32302567e-02f, -8.40648860e-02f, 7.92643800e-02f, -5.07919379e-02f,
    -9.40613821e-03f, -3.22322734e-02f, 1.02255464e-01f, -4.07486707e-02f, -2.26190640e-03f, 9.38946232e-02f, -8.35722983e-02f, -2.58638095e-02f,
    1.16157226e-01f, 2.89487951e-02f, -4.01320774e-03f, -6.33216053e-02f, -7.39950016e-02f, 2.37377714e-02f, 4.59606498e-02f, 5.69756255e-02f,
    1.44913584e-01f, 7.68816546e-02f, 6.85582533e-02f, 1.03718704e-02f, -2.94829495e-02f, 4.01941016e-02f, -2.76592700e-03f, -4.30968553e-02f,
    4.19359729e-02f, -1.11343674e-01f, -4.35938127e-03f, 4.28783894e-02f, 3.28234881e-02f, 2.13895310e-02f, 1.64016634e-02f, 1.11161612e-01f,
    3.66173424e-02f, 1.21202189e-02f, 8.45800911e-04f, 9.44556668e-02f, 1.59282442e-02f, 3.85936908e-03f, 2.86455490e-02f, 1.77002493e-02f,
    7.21896142e-02f, 6.15393594e-02f, -4.09450103e-03f, 9.37967226e-02f, 5.29635176e-02f, -4.27632369e-02f, -6.75369427e-02f, 5.52939512e-02f,
    2.46396922e-02f, 2.51180883e-02f, 1.29419370e-02f, 8.89331475e-02f, -7.52647594e-02f, 5.27221523e-02f, -1.24983247e-02f, 1.12954415e-02f,
    -5.94823621e-02f, -3.64635848e-02f, -3.59460339e-02f, -3.80690470e-02f, 8.72228667e-03f, -3.55991721e-02f, -9.09797847e-03f, -7.80024007e-02f,
    -6.04480878e-02f, 2.08020937e-02f, 7.02649588e-03f, -2.82281954e-02f, -1.02507994e-01f, -3.47440764e-02f, 5.97776473e-02f, 5.06296381e-02f,
    -9.66048613e-02f, 5.13988780e-03f, -4.54066060e-02f, -5.63112944e-02f, -3.47434245e-02f, -5.43561354e-02f, 2.49230731e-02f, 3.27120423e-02f,
    3.50422412e-02f, -4.89774756e-02f, -1.67710055e-02f, -5.88761903e-02f, 5.05316928e-02f, -9.46997330e-02f, -3.74746062e-02f, -2.05123257e-02f,
    8.04807916e-02f, -6.90682232e-02f, 1.41227907e-02f, 5.65461703e-02f, -1.15347914e-02f, 6.09482825e-02f, 7.52921551e-02f, 1.17393211e-02f,
    4.49237004e-02f, 5.71347177e-02f, -2.28536762e-02f, 3.56475636e-02f, 2.77647115e-02f, -1.76935289e-02f, -2.84610596e-02f, 1.60459891e-01f,
    2.44900901e-02f, -2.26560291e-02f, 5.20711113e-03f, 1.85728744e-02f, -4.97069210e-02f, -4.18354161e-02f, 7.12647811e-02f, 1.22789983e-02f,
    -9.42056105e-02f, 1.95999481e-02f, 1.51302908e-02f, -1.17080726e-01f, -1.15887739e-01f, -2.18276549e-02f, -1.06456369e-01f, 3.61419395e-02f,
    -2.70774513e-02f, 5.66130430e-02f, -2.69048773e-02f, 5.70163876e-02f, 2.10554078e-02f, -8.39344338e-02f, -3.30518335e-02f, 6.02225251e-02f,
    6.18388541e-02f, 1.18157364e-01f, 1.26353651e-01f, -4.87823645e-03f, 6.64714575e-02f, -1.82153806e-02f, -4.09951806e-02f, 3.48030105e-02f,
    9.03552026e-02f, -1.33547727e-02f, 1.98559109e-02f, 5.33706881e-02f, 2.17756815e-02f, 3.79465957e-04f, 3.54740061e-02f, 9.85908601e-03f,
    2.78223269e-02f, 1.06934225e-02f, -3.07546351e-02f, -7.00277984e-02f, -5.72135970e-02f, -3.17799523e-02f, -7.03786127e-03f, -4.04785760e-02f,
    7.33153597e-02f, 2.95469747e-03f, 1.23501197e-02f, 3.97494063e-03f, 4.88097705e-02f, -1.16492156e-02f, 5.41514717e-03f, 2.40823869e-02f,
    -2.77547352e-02f, 6.00106753e-02f, -8.05172324e-02f, 6.50878996e-02f, 1.25268893e-02f, 6.13127947e-02f, -4.20418121e-02f, 1.17380880e-01f,
    -1.67056154e-02f, 7.56080449e-02f, 1.57438815e-02f, 1.29768262e-02f, 5.14189266e-02f, 3.00628524e-02f, -3.80982347e-02f, 8.33257288e-02f,
    5.41085042e-02f, 7.11190104e-02f, 3.37466486e-02f, -3.38695273e-02f, 5.12485066e-03f, -1.19881123e-01f, 1.05224051e-01f, -2.81829555e-02f,
    -9.21468958e-02f, 1.14359953e-01f, -7.27494732e-02f, 9.22704861e-02f, 1.82679277e-02f, 1.39405960e-02f, 1.97446272e-02f, -1.33988168e-02f,
    1.51083246e-01f, -7.34200850e-02f, -3.95277701e-02f, -9.79701057e-03f, -2.14186125e-02f, 3.23936306e-02f, 9.97652486e-02f, 4.70684916e-02f,
    -2.07801946e-02f, -6.04812987e-02f, 7.08832592e-03f, -4.12335955e-02f, 5.21945022e-02f, 4.22331877e-02f, 4.32546660e-02f, -1.55529436e-02f,
    3.42923664e-02f, -9.67608020e-03f, 2.06660032e-02f, 3.94745264e-03f, -2.43810732e-02f, 1.98845584e-02f, -5.42026423e-02f, -2.70826500e-02f,
    -1.68707259e-02f, -1.30333239e-02f, 8.66436511e-02f, 3.70910913e-02f, 4.43706326e-02f, -5.14408834e-02f, 1.12887099e-02f, 8.90804529e-02f,
    3.48404795e-03f, -5.38958721e-02f, 2.10688859e-02f, 7.02829063e-02f, -6.14934452e-02f, 7.46737868e-02f, 4.82589826e-02f, 4.64115068e-02f,
    1.67539027e-02f, 4.30710102e-03f, -9.36062187e-02f, 5.38306637e-03f, 3.47593613e-02f, 4.83614728e-02f, 6.38572080e-03f, -2.65225135e-02f,
    1.80958152e-01f, 5.75421341e-02f, 2.29367148e-02f, 5.42869940e-02f, 2.96941716e-02f, -4.71532457e-02f, -3.55384350e-02f, -2.20945198e-02f,
    -2.24047843e-02f, 4.86440621e-02f, -4.17093001e-02f, 7.27038980e-02f, -1.37729067e-02f, -5.49510075e-03f, 3.83691788e-02f, 5.03847301e-02f,
    1.16897121e-01f, 3.69029269e-02f, 7.56995846e-03f, -3.50957215e-02f, 2.07037888e-02f, -1.06728680e-01f, 2.09140740e-02f, 4.84067090e-02f,
    1.81760445e-01f, -1.41301572e-01f, 5.18675670e-02f, 1.66896789e-03f, 3.27282809e-02f, 3.16133946e-02f, 1.12832367e-01f, 3.24582793e-02f,
    7.69633725e-02f, -5.99639080e-02f, 2.06417650e-01f, 6.30490854e-03f, 1.68329608e-02f, -9.68362391e-03f, 1.18583934e-02f, -5.28628193e-02f,
    -1.31716967e-01f, 1.53433606e-01f, 2.79377792e-02f, 1.44247711e-01f, 4.21350300e-02f, -2.35632211e-02f, -4.98667210e-02f, -2.79655959e-02f,
    -4.45947647e-02f, 9.04768799e-03f, 1.12223297e-01f, 1.16087019e-01f, -1.61522225e-01f, 7.70978979e-04f, -2.40485631e-02f, 1.62968948e-01f,
    -1.64782442e-02f, 1.68244734e-01f, -3.15247029e-02f, -2.25165561e-02f, -4.82855663e-02f, -9.26802903e-02f, -3.27067040e-02f, 3.69682442e-03f,
    1.43517144e-02f, 1.38413208e-02f, -1.02868509e-02f, -4.07157987e-02f, 6.66674897e-02f, 2.95188967e-02f, -3.38158756e-02f, -3.15520540e-03f,
    3.51129025e-02f, -2.46842206e-02f, -4.73982729e-02f, 5.18762656e-02f, -9.27901715e-02f, 5.73654175e-02f, -1.35206252e-01f, -1.25284851e-01f,
    5.13882078e-02f, 3.23590860e-02f, -4.72464114e-02f, 1.63887054e-01f, -1.56094059e-01f, 2.25105003e-01f, 1.01567894e-01f, -5.25097363e-03f,
    -7.55081251e-02f, -4.18318883e-02f, 2.01512091e-02f, -1.07500389e-01f, -6.16570003e-02f, 5.29583916e-02f, 1.22415610e-02f, 3.11268549e-02f,
    -1.65153161e-01f, -1.10161111e-01f, -5.00281416e-02f, 1.01732343e-01f, 1.66040752e-02f, 5.06977104e-02f, -7.54383579e-02f, 7.90198147e-02f,
    -9.11162272e-02f, 1.28623126e-02f, 1.48700327e-01f, 9.65744779e-02f, 4.80983704e-02f, -1.64356619e-01f, 4.08588760e-02f, 5.85958548e-03f,
    1.36888083e-02f, -5.71622960e-02f, -2.51202565e-02f, -4.42312434e-02f, 2.21356913e-01f, -2.78330538e-02f, 9.83884335e-02f, -4.07767817e-02f,
    2.13777162e-02f, 3.81421782e-02f, 1.49947494e-01f, 1.23386204e-01f, -4.04692888e-02f, 1.39475405e-01f, -9.13010463e-02f, 7.39067197e-02f,
    2.36626416e-02f, 2.44002864e-02f, -2.38772910e-02f, -8.53306502e-02f, 1.07153855e-01f, -6.13626614e-02f, 4.43439484e-02f, -7.84967169e-02f,
    -5.14786467e-02f, -7.03587802e-03f, 1.56065494e-01f, 1.34192839e-01f, -6.45689666e-02f, 1.27013311e-01f, -6.60788314e-03f, 1.86529700e-02f,
    1.26063509e-03f, 2.26651818e-01f, 4.42021489e-02f, 2.04021826e-01f, -8.26024190e-02f, -5.25490800e-03f, 8.73096734e-02f, 5.25145009e-02f,
    -5.41437976e-02f, -3.98376212e-02f, 3.03571001e-02f, 8.63030553e-02f, -1.80592835e-02f, -5.48792854e-02f, 2.97599640e-02f, 1.14752362e-02f,
    -1.24045186e-01f, -2.18539108e-02f, -5.46721416e-03f, -5.46661019e-02f, -2.02360470e-02f, -1.45070804e-02f, 7.29769692e-02f, 9.90745425e-02f,
    7.59947523e-02f, 4.24505211e-02f, 7.10286899e-03f, 4.13186513e-02f, 1.01840936e-01f, 7.33461697e-03f, -6.13339767e-02f, -4.29003648e-02f,
    1.01762727e-01f, 2.30649970e-02f, -9.97079723e-03f, 1.74134714e-03f, -9.53583866e-02f, -7.59930760e-02f, 2.56250892e-02f, 3.40116993e-02f,
    -8.89422819e-02f, -1.02074295e-01f, -4.27786894e-02f, -8.94404668e-03f, -1.25073209e-01f, -1.05100557e-01f, 1.12077750e-01f, -1.00210056e-01f,
    4.54514194e-03f, -6.09582365e-02f, 5.99451538e-04f, -8.16207193e-03f, -5.45879155e-02f, -6.42683282e-02f, 1.00242361e-01f, -1.19436301e-01f,
    8.33046064e-02f, 9.50638875e-02f, 7.32996091e-02f, -5.40416837e-02f, -1.09618967e-02f, -3.44746038e-02f, -9.75253284e-02f, 1.16292179e-01f,
    -9.65744853e-02f, -7.95810047e-05f, 4.94718961e-02f, 3.64259295e-02f, -3.47150788e-02f, -4.43733260e-02f, 1.06953241e-01f, -7.87359625e-02f,
    -3.10165677e-02f, -3.52582807e-04f, -3.72746810e-02f, 2.38361713e-02f, -3.49847376e-02f, -1.09244384e-01f, -1.80822648e-02f, 7.63271898e-02f,
    -1.20368309e-01f, -1.40482798e-01f, -2.76101902e-02f, 1.71656281e-01f, 3.49973477e-02f, -1.52436614e-01f, 5.82987480e-02f, 2.45075556e-03f,
    9.68583743e-04f, 1.36192083e-01f, -2.17346624e-02f, 9.61292237e-02f, -4.09857184e-02f, 5.21008931e-02f, -3.60746011e-02f, 6.45455271e-02f,
    3.39745954e-02f, 6.08984567e-02f, -2.28766166e-02f, 1.83224753e-01f, -8.31086934e-02f, 5.86073659e-02f, -3.32822427e-02f, -9.92487278e-03f,
    6.74209325e-03f, -3.55070494e-02f, -5.90296760e-02f, -1.32226005e-01f, -8.55031312e-02f, 4.34944890e-02f, -5.56421578e-02f, 1.02959223e-01f,
    1.12593077e-01f, -1.63233355e-02f, -9.91907120e-02f, -9.07999054e-02f, -1.54710859e-02f, 1.99431121e-01f, 6.70996532e-02f, 1.22024670e-01f,
    -9.58251581e-02f, 2.83748936e-02f, 1.87729932e-02f, -3.68206948e-02f, 4.81477454e-02f, -5.03701046e-02f, 3.38704586e-02f, -6.95382506e-02f,
    -2.69001245e-01f, 6.84556458e-03f, -8.77969374e-04f, -4.86724302e-02f, -8.78007561e-02f, -7.14581236e-02f, 2.05487702e-02f, 1.26820832e-01f,
    -4.82557230e-02f, -7.48828286e-03f, 6.44523427e-02f, 1.01064111e-03f, 2.84334105e-02f, -7.23816901e-02f, -8.09774697e-02f, 3.73548679e-02f,
    4.65890579e-02f, 7.94267096e-03f, -3.80240120e-02f, 8.27547386e-02f, 5.67061976e-02f, 1.27132675e-02f, -1.17429234e-01f, -5.42288721e-02f,
    4.14245017e-02f, 1.14115499e-01f, -2.93548647e-02f, -2.40538288e-02f, 1.58576556e-02f, 7.56551176e-02f, 1.60187285e-03f, 2.30245590e-01f,
    3.60972551e-03f, 5.17438240e-02f, 1.10388687e-02f, 8.42838958e-02f, -5.77660687e-02f, -1.04321748e-01f, 4.97352257e-02f, -2.28125919e-02f,
    -1.96654908e-02f, -1.27170086e-02f, -9.97321159e-02f, -4.89462428e-02f, -7.76890144e-02f, 5.49887568e-02f, -4.26532477e-02f, 4.13167328e-02f,
    1.62068475e-02f, -2.05028579e-02f, -1.39455441e-02f, -9.65190027e-03f, -4.77057844e-02f, 2.10589189e-02f, -7.44187832e-02f, 3.22627388e-02f,
    2.45500430e-02f, -3.13758664e-02f, -2.39004120e-02f, 5.86444810e-02f, 2.78865062e-02f, -2.36875601e-02f, 8.24410468e-02f, 4.92405286e-03f,
    -1.03265412e-01f, 5.12512140e-02f, -3.98008451e-02f, -4.38567474e-02f, -1.96937472e-02f, -2.36202520e-03f, 9.85798985e-03f, 3.13822776e-02f,
    -1.74944773e-02f, -4.96789441e-02f, -2.11662814e-01f, 5.24778664e-02f, -8.11763760e-03f, 1.99367255e-02f, 5.12325764e-02f, -8.40638822e-04f,
    6.72924146e-02f, -6.91128103e-03f, 1.24937229e-01f, 3.11236456e-02f, 1.24561265e-01f, -3.20287086e-02f, -1.27852540e-02f, -4.83768061e-02f,
    7.24030584e-02f, 5.57924621e-02f, 2.87418142e-02f, 1.01193763e-01f, -4.25693840e-02f, 2.48754565e-02f, -5.13012744e-02f, -7.03229606e-02f,
    -1.67551357e-02f, 3.60824503e-02f, 5.70753822e-03f, 3.14077549e-02f, 2.52445251e-01f, 2.37603225e-02f, 3.47247161e-02f, -4.19907421e-02f,
    3.82535569e-02f, -2.82251537e-02f, -9.43680927e-02f, -6.92807734e-02f, 3.64821404e-02f, 1.92766974e-03f, 1.40513957e-01f, 4.39479724e-02f,
    1.25852764e-01f, -3.97221334e-02f, -5.78843988e-02f, 4.84953858e-02f, 1.16023369e-01f, 7.62777403e-02f, -4.24184501e-02f, 2.56158728e-02f,
    -3.49766277e-02f, -3.86984684e-02f, -1.04598291e-02f, -1.26685342e-02f, 2.92810388e-02f, 4.76886928e-02f, 2.74538924e-03f, 6.61285967e-02f,
    -4.30385135e-02f, -8.69625597e-04f, 1.02254555e-01f, 6.12593740e-02f, 7.45440796e-02f, 5.72167709e-02f, 7.56459385e-02f, 5.00960164e-02f,
    2.38582511e-02f, 1.98949184e-02f, 1.12257756e-01f, -2.09934823e-02f, -6.12089969e-02f, -8.19811895e-02f, -6.23453371e-02f, -5.09930961e-02f,
    1.03103198e-01f, -7.64575377e-02f, -6.89415932e-02f, 1.98436603e-02f, -2.32146420e-02f, 7.61400983e-02f, 6.55699745e-02f, 1.13288075e-01f,
    1.05254799e-02f, 4.14617509e-02f, 3.13014500e-02f, -6.92756027e-02f, 5.67436330e-02f, -3.83036099e-02f, 2.25009862e-02f, 6.95630759e-02f,
    2.32634190e-02f, -6.16585091e-02f, -1.36515293e-02f, 1.65229514e-02f, 4.68969084e-02f, 6.45806780e-03f, 3.22627798e-02f, 5.26200794e-02f,
    3.16513260e-03f, -3.78838331e-02f, -1.43991215e-02f, 3.91471423e-02f, 5.67671135e-02f, 6.00964949e-02f, 2.32580048e-03f, 1.98286343e-02f,
    2.34401654e-02f, 1.28888385e-02f, -6.09557591e-02f, -6.85602948e-02f, -1.44554898e-02f, -5.16739022e-03f, 4.86201234e-02f, -7.36407004e-03f,
    -9.88540426e-02f, -9.46585834e-02f, 8.45779181e-02f, -7.29269115e-04f, 8.21537375e-02f, -3.85523364e-02f, 1.27036452e-01f, 5.47554418e-02f,
    -1.40090883e-02f, -1.08491771e-01f, 9.28813498e-03f, 8.64957124e-02f, -5.46399562e-04f, -8.18480998e-02f, -1.43437320e-02f, -1.74417924e-02f,
    2.79823337e-02f, -1.03112318e-01f, 4.57939506e-02f, 3.87094170e-02f, -7.19044879e-02f, 5.49977906e-02f, 4.73323427e-02f, -5.83459474e-02f,
    -1.60648767e-02f, 9.69567373e-02f, 1.18550338e-01f, 2.94950642e-02f, -3.07814386e-02f, 7.82364085e-02f, 7.09030684e-03f, -1.06078133e-01f,
    -1.27623323e-02f, -6.05938360e-02f, -1.06304940e-02f, -1.47045273e-02f, 1.58062764e-02f, -1.43077478e-01f, -5.65992221e-02f, 1.64933633e-02f,
    3.58767174e-02f, 6.29112124e-02f, 3.72419320e-02f, 1.03846371e-01f, 5.54867722e-02f, -4.05409299e-02f, -4.96083163e-02f, 5.82024455e-03f,
    2.90680714e-02f, -1.93017274e-02f, 4.21964899e-02f, 1.70457494e-02f, -1.50202196e-02f, 9.63203833e-02f, -3.91174518e-02f, 3.54625806e-02f,
    4.31162342e-02f, 1.24556115e-02f, -3.15381140e-02f, 6.97440654e-02f, -4.17188182e-03f, -1.51407877e-02f, 2.89798770e-02f, 6.00094981e-02f,
    -6.79044984e-03f, -3.35407034e-02f, 5.70130982e-02f, -7.94459134e-03f, 6.05178401e-02f, 4.81361151e-02f, 6.09235391e-02f, 6.59082085e-02f,
    4.55473699e-02f, 2.15481166e-02f, 1.18631441e-02f, 3.97935659e-02f, 1.10650528e-02f, 1.02340490e-01f, 3.50483544e-02f, 8.39067176e-02f,
    3.30317579e-02f, -5.51759787e-02f, -4.17200588e-02f, -7.82145485e-02f, 1.24980574e-02f, -1.30253034e-02f, -1.21640988e-01f, -3.87506634e-02f,
    -5.44595160e-03f, -3.58185992e-02f, -1.05827831e-01f, -1.13379978e-01f, 3.96261923e-02f, 3.09606902e-02f, 1.79599635e-02f, 5.37489019e-02f,
    8.39319676e-02f, 5.46424165e-02f, -3.90018784e-02f, 1.17833130e-01f, -3.63515830e-03f, 1.05276974e-02f, 2.21726540e-02f, 1.39384822e-03f,
    6.01143092e-02f, 4.46162298e-02f, -1.19840717e-02f, -4.72311936e-02f, 5.21057658e-02f, 1.59490019e-01f, 1.69941466e-02f, 2.25753933e-02f,
    7.23105222e-02f, -6.70343731e-03f, -1.94976237e-02f, -3.99269834e-02f, -3.86786356e-04f, -4.71583866e-02f, -2.35027238e-03f, -8.88931900e-02f,
    4.01252322e-02f, -2.14861780e-02f, 9.89447013e-02f, 7.54863918e-02f, 4.44226004e-02f, -3.88656668e-02f, 1.06132433e-01f, 1.34805236e-02f,
    -1.04860231e-01f, -2.33532544e-02f, 6.22413913e-03f, 2.44809240e-02f, 2.43493449e-02f, -5.47836814e-03f, -9.30982307e-02f, 5.61523177e-02f,
    2.02868576e-03f, 2.64028050e-02f, -4.89009358e-02f, -3.43420021e-02f, 3.11579168e-01f, -2.80401055e-02f, -8.25129747e-02f, 1.24185689e-01f,
    6.57623857e-02f, -1.34609178e-01f, 1.51134068e-02f, -1.26311630e-02f, -2.31496082e-03f, 3.56676709e-03f, 1.92256700e-02f, 5.55189028e-02f,
    -6.07671626e-02f, -1.44624382e-01f, 1.50537957e-02f, -9.00699347e-02f, -1.81601018e-01f, 1.00904614e-01f, -1.82192981e-01f, -2.82863788e-02f,
    -3.57646570e-02f, 9.92041454e-02f, -2.86067221e-02f, -2.06732005e-02f, -2.03756243e-02f, -1.78782716e-02f, -6.12546690e-03f, -1.05676696e-01f,
    9.84715894e-02f, -1.42532252e-02f, -7.50400126e-02f, -6.19738623e-02f, 4.34869714e-02f, 1.51064415e-02f, 8.28488450e-03f, -1.69560909e-01f,
    -2.42222454e-02f, -7.75549039e-02f, -3.89124788e-02f, 1.91376224e-01f, 4.71221879e-02f, -4.21717316e-02f, -7.46044293e-02f, -3.79652157e-02f,
    -2.09621224e-03f, 3.35192084e-02f, 1.84701253e-02f, 2.14381870e-02f, 2.00999784e-03f, -4.14126217e-02f, 9.79505032e-02f, -2.01071929e-02f,
    4.04849946e-02f, 8.07244554e-02f, -3.35665457e-02f, -8.17831457e-02f, 1.85229711e-03f, 5.99898770e-03f, -5.16765155e-02f, 2.66381856e-02f,
    1.29539758e-01f, -5.27145667e-03f, 1.14109397e-01f, -6.27004430e-02f, -5.63356541e-02f, -3.74190919e-02f, -1.15408199e-02f, 3.59918736e-02f,
    -6.66182339e-02f, -1.45967349e-01f, -3.12345894e-03f, -2.22549811e-02f, -1.70486085e-02f, -1.10521942e-01f, -3.91670763e-02f, 3.56067605e-02f,
    -7.38732591e-02f, 6.87362105e-02f, -1.62348658e-01f, -7.88418204e-03f, -2.25698277e-02f, -1.18396647e-01f, -1.84898540e-01f, 1.73241086e-02f,
    -1.42563254e-01f, -3.77432853e-02f, -1.33123491e-02f, 3.76355089e-02f, -1.49402693e-02f, -1.15459882e-01f, 6.07862473e-02f, -3.20409387e-02f,
    8.56305361e-02f, 9.94841009e-02f, -2.67745950e-03f, 9.09324586e-02f, 3.21131408e-01f, 9.73695796e-03f, 6.85601830e-02f, 3.96464355e-02f,
    3.80551852e-02f, 7.28375316e-02f, 9.57053304e-02f, 1.96468718e-02f, 7.23828599e-02f, 2.73561385e-02f, -2.79761665e-02f, -5.47283739e-02f,
    6.51240721e-02f, 2.03940868e-02f, -3.93089727e-02f, 1.23047957e-03f, 5.06560728e-02f, -1.06024243e-01f, 1.17596380e-01f, 6.52202684e-03f,
    -3.41380313e-02f, -1.04855020e-02f, -7.51458528e-03f, 1.70677528e-02f, 1.47535533e-01f, 7.22251907e-02f, -3.65143865e-02f, -1.28761828e-01f,
    1.02947245e-03f, 7.99365938e-02f, -4.78974245e-02f, 7.58201331e-02f, 1.41869873e-01f, 1.40469834e-01f, 1.60955507e-02f, -1.75008290e-02f,
    3.88560183e-02f, -5.08880056e-02f, -3.86019982e-02f, -1.97169051e-01f, -7.41708651e-02f, 1.65465847e-02f, -4.05441485e-02f, 1.49577722e-01f,
    -1.00594899e-02f, -7.62244239e-02f, -7.30501562e-02f, -4.31604460e-02f, 8.28861967e-02f, 4.60225083e-02f, 3.08229513e-02f, 7.34027401e-02f,
    3.17415558e-02f, 7.58591816e-02f, 1.25697963e-02f, -7.22472817e-02f, 2.19962895e-02f, 4.19781432e-02f, -2.41301078e-02f, 4.99813557e-02f,
    2.75721867e-03f, -4.42511495e-03f, -2.75012068e-02f, 1.09393507e-01f, -9.73338634e-02f, 6.32954761e-02f, 2.51597241e-02f, 1.88441034e-02f,
    -1.12104990e-01f, -8.87130480e-03f, -1.04913265e-02f, -1.14513971e-01f, 2.07474250e-02f, 2.59975623e-02f, 2.41482034e-01f, 2.50333361e-02f,
    1.46301407e-02f, -3.38305756e-02f, -2.58245934e-02f, -1.33885313e-02f, 3.22367921e-02f, 4.21982110e-02f, 1.70941040e-01f, 1.14891909e-01f,
    1.45851344e-01f, -2.37384401e-02f, -2.96306740e-02f, 3.28798778e-02f, -4.05027196e-02f, 7.02984072e-03f, 2.79778789e-04f, -8.13289955e-02f,
    -1.32007413e-02f, 8.63839537e-02f, -1.64349247e-02f, -3.24560106e-02f, -8.21571648e-02f, -1.93872228e-02f, -7.30670616e-02f, 3.93279567e-02f,
    -4.76720482e-02f, -1.43742770e-01f, 1.06035136e-01f, -4.77956161e-02f, -9.16257799e-02f, -8.61962736e-02f, -1.78991318e-01f, -2.78971158e-02f,
    -4.80289161e-02f, -2.09719092e-02f, 1.92288578e-01f, 1.01778336e-01f, -2.55246330e-02f, 1.90708786e-02f, -1.48260873e-02f, -8.66930857e-02f,
    -7.67363980e-02f, 3.62502821e-02f, -1.49491942e-02f, -3.70898955e-02f, -2.35141646e-02f, -4.11918908e-02f, 8.03034082e-02f, 3.30100320e-02f,
    6.35894686e-02f, -9.92457289e-03f, -3.39450091e-02f, 8.80671442e-02f, -8.78895745e-02f, -1.72129683e-02f, 1.90460663e-02f, -3.72096784e-02f,
    -4.59243134e-02f, 1.41818346e-02f, 4.50334214e-02f, 1.13644414e-02f, -8.60508159e-03f, 5.44392876e-02f, 1.22266104e-02f, -5.75094670e-03f,
    -1.19151110e-02f, 8.54329020e-02f, 3.78913730e-02f, 1.46303758e-01f, 1.19553186e-01f, 9.55118053e-03f, 5.61995851e-03f, -4.75809537e-02f,
    1.18759193e-01f, 6.43368205e-03f, 1.07225254e-01f, -5.20766228e-02f, -1.24904841e-01f, -1.01280268e-02f, -1.53643442e-02f, 1.21822609e-02f,
    -2.12453157e-02f, 2.98399269e-03f, 1.25845507e-01f, -9.63098705e-02f, -1.74540684e-01f, 4.54664789e-02f, 1.31147979e-02f, -1.23470254e-01f,
    -1.59748748e-01f, 3.60889994e-02f, -9.38665401e-03f, 1.19189002e-01f, -2.95206103e-02f, -1.07086107e-01f, 4.14266475e-02f, 7.12140873e-02f,
    1.25098988e-01f, 9.15717706e-02f, 2.98597887e-02f, 1.07147560e-01f, -1.49170235e-01f, 7.84401670e-02f, -2.92945094e-02f, -2.97926757e-02f,
    1.23490475e-01f, 7.92820752e-02f, -9.48971882e-02f, 5.83995134e-03f, -4.94917436e-03f, 3.89271379e-02f, -2.11720467e-02f, -3.44819874e-02f,
    -5.15209846e-02f, 9.42541584e-02f, 2.27232613e-02f, -2.95750424e-02f, 5.71347848e-02f, 6.23108521e-02f, 1.28584012e-01f, 6.65176511e-02f,
    -4.08168659e-02f, -1.39964342e-01f, 1.72941256e-02f, 7.87720978e-02f, 6.00333847e-02f, 1.10483719e-02f, -5.91068482e-03f, 3.36847082e-03f,
    1.99025854e-01f, -3.22270170e-02f, -4.53612842e-02f, -3.54714245e-02f, 2.56865740e-01f, 8.49965140e-02f, 2.52790917e-02f, -9.50720534e-02f,
    3.27578261e-02f, 1.89320259e-02f, 2.13700160e-03f, -2.02559642e-02f, -4.25817706e-02f, 7.60311782e-02f, 7.28899091e-02f, -5.20758666e-02f,
    -9.27247480e-03f, 1.79194380e-02f, -4.88725416e-02f, -5.10827638e-02f, 1.27188578e-01f, 3.16203572e-02f, -1.41295865e-01f, 3.45322564e-02f,
    -5.59130274e-02f, 8.61652568e-02f, 7.29071647e-02f, 3.66879925e-02f, 4.95867841e-02f, -8.00485685e-02f, 1.50639072e-01f, -9.63571593e-02f,
    -8.31811428e-02f, 6.74053505e-02f, 1.14576891e-02f, -1.35249287e-01f, -5.68531491e-02f, 2.40369178e-02f, -4.66102548e-02f, 6.45299908e-03f,
    -1.18633294e-02f, 4.08759676e-02f, 5.89997955e-02f, 1.27789192e-02f, -3.50180380e-02f, 6.35393057e-03f, 2.16802865e-01f, -3.04615069e-02f,
    5.55152353e-03f, 1.72988504e-01f, -2.26983532e-01f, 3.31339985e-02f, -6.76454837e-03f, -9.68716964e-02f, 2.24218704e-02f, -7.97546133e-02f,
    -3.62408231e-03f, -1.94963552e-02f, 1.12305142e-01f, 1.13524146e-01f, 6.42222613e-02f, 1.58485487e-01f, -1.25901848e-02f, -7.24559417e-04f,
    4.73794490e-02f, 1.55898333e-01f, 7.05653802e-02f, -4.06608097e-02f, -1.42660388e-03f, -9.41487104e-02f, 2.40350682e-02f, 2.81645637e-03f,
    -2.09654421e-02f, -1.02289012e-02f, -6.24794401e-02f, -2.50352640e-02f, 1.40762469e-02f, 1.13729522e-01f, -1.19458726e-02f, -8.49060044e-02f,
    -3.74979489e-02f, 6.51227906e-02f, 2.73238234e-02f, -3.79260466e-03f, -3.37594515e-03f, -4.11545075e-02f, -6.64454177e-02f, -1.89432111e-02f,
    -2.20945496e-02f, 1.20372348e-01f, 1.95357613e-02f, -5.02091385e-02f, 7.17480630e-02f, -5.65598421e-02f, 9.81152058e-02f, -5.51170669e-02f,
    1.48176160e-02f, 1.57644916e-02f, -1.49429310e-02f, -4.33594212e-02f, 7.82328472e-02f, -5.84142618e-02f, 2.31857207e-02f, -9.03160423e-02f,
    6.48563132e-02f, -4.36944850e-02f, 6.97175190e-02f, -6.36834651e-02f, -5.83277419e-02f, -1.31957695e-01f, -5.10961302e-02f, -9.32494551e-02f,
    9.42436382e-02f, 6.29317388e-02f, 7.17423856e-02f, 1.68741256e-01f, -4.57473323e-02f, 1.37778103e-01f, 2.40029655e-02f, 1.05443753e-01f,
    -8.72249678e-02f, 9.20254588e-02f, 2.22663339e-02f, -1.29421856e-02f, 2.31491644e-02f, 1.90455634e-02f, 7.84095153e-02f, 5.30921097e-04f,
    1.24727255e-02f, 2.42138579e-02f, -5.79098389e-02f, -1.28237516e-01f, 4.48117144e-02f, -1.30283171e-02f, 1.01207115e-01f, -2.95378193e-02f,
    1.05054043e-01f, 5.39972000e-02f, -4.13094722e-02f, 9.36744437e-02f, 4.57207896e-02f, -8.85550827e-02f, 2.36551948e-02f, 9.40534845e-03f,
    3.10635958e-02f, -4.02548276e-02f, -7.11485520e-02f, -7.27512036e-03f, 8.24168622e-02f, 1.11069553e-01f, -2.68299356e-02f, -4.94130142e-03f,
    8.73712227e-02f, 1.57741353e-01f, -8.92629772e-02f, -4.11588289e-02f, -3.33122052e-02f, -1.22988254e-01f, -2.05040704e-02f, 6.03460781e-02f,
    2.74928249e-02f, -9.54861417e-02f, -8.83893669e-02f, -4.84525934e-02f, -1.68130957e-02f, 2.42843330e-02f, -3.97896469e-02f, -1.29013285e-01f,
    -3.47430483e-02f, -7.61052147e-02f, 5.19779399e-02f, 1.30571844e-02f, 3.07282973e-02f, 4.58382778e-02f, -9.03811306e-02f, -2.51042359e-02f,
    -6.32363036e-02f, 5.53894676e-02f, 8.60365778e-02f, -8.08175560e-03f, -1.34694874e-01f, -2.99524516e-02f, -3.86913158e-02f, -6.58629388e-02f,
    -8.56909826e-02f, -7.05638602e-02f, -1.63502770e-03f, 1.06090896e-01f, 1.33574918e-01f, 7.86802322e-02f, -3.43430080e-02f, 1.11517727e-01f,
    2.81861071e-02f, -4.57006786e-03f, -6.07307740e-02f, -5.10835797e-02f, 6.56317249e-02f, -1.93616331e-01f, 1.43858022e-03f, -7.54881203e-02f,
    4.40398790e-03f, -5.07091545e-02f, -4.37790230e-02f, 5.98764652e-03f, 1.28903449e-01f, 9.52575877e-02f, -2.07309593e-02f, 2.29724497e-02f,
    5.80377728e-02f, 1.21789396e-01f, 4.27962504e-02f, 1.03048638e-01f, -5.45660891e-02f, 3.18722948e-02f, 8.47109873e-03f, -5.77230416e-02f,
    1.67335749e-01f, 5.64774722e-02f, -5.88099845e-03f, -9.68519896e-02f, -5.03731966e-02f, 1.84407961e-02f, 1.09339505e-01f, 3.57205644e-02f,
    2.22856939e-01f, -7.14693069e-02f, 7.14791417e-02f, 1.09822385e-01f, -4.32745181e-02f, 9.53662544e-02f, 1.95665304e-02f, -1.47869006e-01f,
    7.47387856e-02f, -8.73260573e-02f, 1.03927687e-01f, 4.90639918e-03f, 6.83253184e-02f, 5.75977005e-02f, 6.18626177e-02f, 5.09504080e-02f,
    -8.31382871e-02f, -1.35622909e-02f, 4.30622846e-02f, -5.77380955e-02f, -1.09045506e-01f, 3.40390392e-02f, 9.65376664e-03f, 2.52241362e-02f,
    -5.76137528e-02f, -2.29639020e-02f, 7.79859424e-02f, 1.33263469e-02f, -3.97798009e-02f, -2.23507104e-03f, -5.75460047e-02f, -9.88385901e-02f,
    5.91389164e-02f, 1.37184218e-01f, 1.06449150e-01f, -6.73836544e-02f, 1.09366059e-01f, -7.60663748e-02f, -4.20900434e-02f, 3.57305296e-02f,
    -4.97943871e-02f, -1.97876364e-01f, -2.71117184e-02f, 9.37482193e-02f, -5.51749161e-03f, -6.10582111e-03f, -5.34542017e-02f, -5.46548702e-02f,
    7.46849272e-03f, -1.20503847e-02f, -4.84402068e-02f, -3.53857526e-03f, 5.46745323e-02f, 1.68135300e-01f, 5.40017057e-03f, -8.85244757e-02f,
    8.49955454e-02f, 3.32089216e-02f, -4.80386950e-02f, -1.06150322e-01f, -6.38560802e-02f, -1.19008802e-01f, -1.08155888e-02f, 4.37967218e-02f,
    4.26276661e-02f, -3.31688970e-02f, 2.01476231e-01f, 6.83092400e-02f, 1.20482650e-02f, 6.13305978e-02f, 8.16704258e-02f, 3.80892642e-02f,
    1.31324887e-01f, -3.51372398e-02f, 5.15549257e-03f, 3.68144102e-02f, 2.68617820e-04f, -5.93834333e-02f, 5.31246811e-02f, 2.36483347e-02f,
    4.67554964e-02f, 1.65395681e-02f, -7.71946907e-02f, -5.84095605e-02f, -1.03996024e-01f, -7.02876970e-02f, 2.94632539e-02f, 1.24233991e-01f,
    -4.12909873e-02f, -1.71153158e-01f, 8.38988647e-02f, -8.84689167e-02f, -5.34816384e-02f, 3.47178876e-02f, 2.65054610e-02f, -4.50040922e-02f,
    -1.33334761e-02f, -1.62738353e-01f, -7.10428581e-02f, 1.73736420e-02f, 5.91556653e-02f, -4.58880328e-03f, -6.66802600e-02f, -7.25682750e-02f,
    -4.42035161e-02f, -6.23860210e-02f, 4.40516546e-02f, -2.35092379e-02f, -8.09556767e-02f, 2.43657857e-01f, 5.65860188e-03f, -1.12845093e-01f,
    -6.76285625e-02f, -7.52777234e-02f, -3.78650278e-02f, -2.58668456e-02f, 4.31075022e-02f, -8.21279064e-02f, -7.48313144e-02f, -3.19694057e-02f,
    -2.95375753e-02f, -2.22434457e-02f, -4.22117487e-02f, -9.16583017e-02f, -1.16261736e-01f, -6.48376122e-02f, 3.57099995e-02f, 2.85540670e-02f,
    -8.62112716e-02f, 8.43345746e-03f, -1.39685020e-01f, 6.05217107e-02f, 9.27971750e-02f, 2.80436799e-02f, -8.26361701e-02f, 7.80340880e-02f,
    -5.22875227e-02f, 1.04599446e-01f, -3.39703150e-02f, -5.23278862e-02f, 1.30772799e-01f, -2.54797954e-02f, -1.51592389e-01f, 6.08649068e-02f,
    -2.10626349e-02f, 1.40105754e-01f, -4.55234945e-03f, -5.79466373e-02f, -1.54617280e-02f, 1.31341904e-01f, 2.48088650e-02f, -2.00525508e-03f,
    3.55261602e-02f, 5.31655364e-02f, 3.85131361e-03f, -2.96069738e-02f, -6.93733199e-03f, 2.09139258e-01f, 7.83729479e-02f, -8.84475634e-02f,
    -3.21731679e-02f, -1.51936620e-01f, 2.12862238e-01f, -6.04986772e-03f, 1.93749130e-01f, 6.06344528e-02f, -2.37714592e-02f, -1.84544586e-02f,
    1.16185218e-01f, 1.10825047e-01f, -7.19909817e-02f, 1.75313540e-02f, 2.48777047e-02f, 2.86615696e-02f, -5.52841164e-02f, -2.40471065e-02f,
    2.14844331e-01f, 4.71791513e-02f, 1.15214504e-01f, 5.31549454e-02f, -6.23544678e-02f, -1.62626524e-02f, 1.94910392e-01f, -6.63951486e-02f,
    3.71178463e-02f, 2.54987851e-02f, -7.21388757e-02f, 1.20717669e-02f, -8.24780315e-02f, 1.04098603e-01f, -9.29714516e-02f, 1.11386934e-02f,
    -7.93546662e-02f, 2.10632250e-01f, 1.71699636e-02f, -9.49635264e-03f, 3.32914889e-01f, 4.05808985e-02f, 6.49887463e-03f, 1.61100812e-02f,
    -2.94955187e-02f, -1.41278608e-02f, 2.02731825e-02f, 6.46002367e-02f, 1.81040913e-02f, 6.75196797e-02f, 1.10248640e-01f, 1.25678547e-03f,
    7.80223235e-02f, 1.69275343e-01f, 2.28477716e-02f, -1.73655972e-01f, -7.75544420e-02f, -6.72341585e-02f, -1.45690054e-01f, -2.86120214e-02f,
    -2.22423419e-01f, -3.72557938e-02f, 5.36956303e-02f, 4.67963889e-02f, 7.59301260e-02f, 8.47817585e-02f, -3.54855247e-02f, 1.11898698e-01f,
    -5.68969734e-02f, 4.35637534e-02f, 2.09367052e-02f, -2.05303784e-02f, 4.58111688e-02f, -7.66731650e-02f, -8.58083665e-02f, 1.72304869e-01f,
    1.72075001e-03f, -7.50797391e-02f, -6.24804422e-02f, 1.11502506e-01f, 4.65762708e-03f, 4.74011227e-02f, -1.11861117e-02f, 1.18678026e-01f,
    -1.19017698e-01f, -1.34986758e-01f, 7.22642243e-02f, 4.86763194e-03f, 4.52095158e-02f, -8.20191726e-02f, -1.21125430e-01f, -4.84842882e-02f,
    1.39797285e-01f, -3.59042883e-02f, 5.14281057e-02f, 1.65301636e-01f, 1.51099578e-01f, 1.34830847e-01f, 4.89788726e-02f, -6.87145218e-02f,
    -1.13155544e-01f, 1.20536946e-02f, -5.67305647e-03f, -8.95335972e-02f, 1.91926479e-01f, -1.59966722e-02f, 1.94971055e-01f, -1.56372204e-01f,
    -6.06833361e-02f, -1.21519137e-02f, 7.61272982e-02f, 2.80019678e-02f, -1.15451820e-01f, -1.07353777e-01f, -5.88816963e-02f, -3.73488218e-02f,
    6.43647462e-02f, -3.24810147e-02f, -2.12856717e-02f, -1.04029797e-01f, -2.23504975e-02f, -7.74491951e-03f, 6.35471418e-02f, -1.03416130e-01f,
    -2.36276444e-02f, -5.98446578e-02f, -6.23484515e-03f, 7.85717890e-02f, -6.68434277e-02f, 2.43935920e-02f, 1.49659395e-01f, -5.51432371e-02f,
    4.89162169e-02f, 1.80647266e-03f, 8.18605870e-02f, 4.65952158e-02f, -1.02608807e-01f, -7.22358897e-02f, 3.87430675e-02f, 1.59995690e-01f,
    2.28272397e-02f, -9.73910540e-02f, -5.25995493e-02f, -4.73557366e-03f, -1.39257899e-02f, -1.52226552e-01f, 2.27628183e-02f, -1.56727387e-03f,
    -1.66768897e-02f, 5.21245711e-02f, 3.04457527e-02f, -6.87828436e-02f, -1.99684259e-02f, 6.24658726e-02f, -1.01120360e-01f, 1.37893975e-01f,
    -4.87038083e-02f, 2.71947794e-02f, 6.25378788e-02f, -2.51096841e-02f, -1.23807276e-02f, 5.01510352e-02f, -9.65053216e-02f, 4.94461767e-02f,
    9.12546366e-02f, 1.39045306e-02f, -7.42993085e-03f, 6.34986386e-02f, 8.37958008e-02f, 4.57421169e-02f, 8.66999552e-02f, -2.94433814e-02f,
    -9.25248116e-03f, -5.09502143e-02f, 9.56773311e-02f, -1.78039772e-03f, 1.03733428e-01f, -5.44105135e-02f, 7.75110275e-02f, -3.69251780e-02f,
    1.17081553e-01f, 9.16384347e-03f, -4.09336127e-02f, -9.03656334e-02f, 9.93038118e-02f, 1.30395368e-02f, -4.36049029e-02f, 9.97177605e-03f,
    6.02001604e-03f, 4.44631465e-02f, 1.13261513e-01f, 5.79440147e-02f, 2.69589901e-01f, -5.56696467e-02f, -4.23750691e-02f, -5.55634759e-02f,
    1.97003242e-02f, 1.24751836e-01f, 6.58749193e-02f, 4.39977273e-03f, 6.37498721e-02f, 4.88526188e-02f, -1.21020950e-01f, 9.68121178e-03f,
    -3.43419127e-02f, 2.52531394e-02f, 9.27089825e-02f, 1.53868049e-01f, -9.64595079e-02f, 1.37123233e-02f, -2.65032839e-04f, -2.31353194e-02f,
    3.47802676e-02f, 2.69002952e-02f, -1.13023281e-01f, -3.53943333e-02f, -1.48196202e-02f, 1.86212491e-02f, -1.58285007e-01f, -1.68115757e-02f,
    6.70053139e-02f, 2.20025051e-02f, 5.78680113e-02f, -1.42169923e-01f, -3.37342522e-03f, 1.12625808e-01f, 4.07680906e-02f, 3.95609029e-02f,
    -1.38194695e-01f, -6.66965172e-02f, -1.90384462e-02f, 1.93943549e-02f, -2.13106703e-02f, -1.02237090e-01f, -3.53568941e-02f, 2.06751134e-02f,
    -5.30363806e-02f, 7.17530847e-02f, -2.33205613e-02f, 4.60901484e-03f, -5.84199876e-02f, -4.82496060e-02f, 5.11327498e-02f, -1.71250757e-02f,
    -1.16685741e-01f, 1.92765612e-02f, -1.21985227e-01f, 7.21536204e-03f, 1.02951024e-02f, -7.42744356e-02f, -9.92996618e-02f, 2.44343877e-02f,
    7.48232827e-02f, 4.66918014e-02f, -2.85473894e-02f, -1.76141020e-02f, 3.69325988e-02f, 5.39823957e-02f, -4.85629439e-02f, 6.14644438e-02f,
    5.04049063e-02f, -8.72694328e-02f, 4.10307273e-02f, -1.02855690e-01f, -1.18725993e-01f, -1.84774213e-02f, -1.73194066e-01f, -1.31391017e-02f,
    -3.83889005e-02f, 1.54962569e-01f, 6.57353103e-02f, -5.87485023e-02f, 4.13004570e-02f, 9.21323448e-02f, -9.00173560e-02f, -9.53216851e-02f,
    -2.43462645e-03f, 1.14698090e-01f, 4.57803831e-02f, -2.07583774e-02f, -3.92982922e-02f, 2.25508794e-01f, 9.60929468e-02f, 6.23385012e-02f,
    -2.82040313e-02f, -1.57882478e-02f, -5.67303263e-02f, -7.26439431e-02f, 4.55717109e-02f, 1.78730544e-02f, -3.56349684e-02f, 6.50801957e-02f,
    8.26535821e-02f, 4.67475839e-02f, 3.26523855e-02f, -2.84919012e-02f, 1.04947358e-01f, 1.25264488e-02f, 1.32722467e-01f, 1.37271378e-02f,
    3.42897438e-02f, 6.01836778e-02f, 3.26608890e-04f, -1.45615816e-01f, -1.66654736e-02f, 4.46782149e-02f, -4.95520830e-02f, 6.61172345e-02f,
    7.68876262e-03f, 3.11646871e-02f, 7.75495917e-02f, 1.55061176e-02f, -9.45477486e-02f, 7.46182352e-02f, -3.88586223e-02f, 6.30659238e-03f,
    1.05813295e-02f, -1.30243683e-02f, -2.28329852e-01f, -1.66163016e-02f, 8.74179676e-02f, -1.48655042e-01f, 1.39521912e-01f, 1.10851854e-01f,
    -2.33474467e-02f, -3.38595617e-03f, 7.75874183e-02f, 6.76873997e-02f, 1.56172767e-01f, 2.88765747e-02f, 5.78483120e-02f, -5.21849319e-02f,
    -2.84881294e-02f, 9.97942612e-02f, -8.44709389e-03f, 2.93282513e-02f, 4.45566364e-02f, -7.51116648e-02f, -3.39255817e-02f, -5.95325828e-02f,
    -8.85477886e-02f, 5.22763953e-02f, -6.47115782e-02f, -3.30819152e-02f, -2.37950794e-02f, -1.66951586e-02f, 5.14637530e-02f, 4.63083088e-02f,
    -4.97466549e-02f, 2.86049359e-02f, -1.13269864e-02f, 2.41863746e-02f, 1.11955911e-01f, -2.52984371e-02f, 5.45360558e-02f, 3.93137485e-02f,
    3.56032029e-02f, -4.00013998e-02f, 2.48555234e-03f, -4.49529253e-02f, 1.40200049e-01f, 7.93816820e-02f, 1.22999344e-02f, 2.61298697e-02f,
    1.76476594e-02f, 6.35048598e-02f, -3.59459668e-02f, -6.07856400e-02f, 5.75167574e-02f, -8.36467966e-02f, -3.84568144e-03f, -7.09957927e-02f,
    5.88918515e-02f, -3.16757262e-02f, -5.70873246e-02f, 7.92276412e-02f, -1.64744202e-02f, 1.29940495e-01f, 1.16095245e-01f, 7.80212646e-03f,
    1.03255443e-01f, 1.69964749e-02f, -4.43032533e-02f, 5.42305000e-02f, -7.50125479e-03f, 1.83501001e-02f, -3.82539332e-02f, -4.46575806e-02f,
    -1.42308846e-02f, -5.62378466e-02f, -1.06796235e-01f, 1.87125459e-01f, 3.72453555e-02f, 7.59829860e-03f, 2.98644975e-02f, -8.76106229e-03f,
    3.80820446e-02f, 1.05432503e-01f, 5.89078441e-02f, 3.47659700e-02f, 1.12419322e-01f, -1.43395597e-02f, 1.32027194e-02f, -1.82927474e-02f,
    -6.72822222e-02f, -2.85308808e-02f, -1.43242106e-01f, 1.30537031e-02f, 2.19137855e-02f, 7.54198804e-02f, 2.46144086e-02f, -1.27721921e-01f,
    -3.03967949e-02f, -1.57019356e-03f, 2.01618336e-02f, -3.13456655e-02f, 2.36886311e-02f, -7.10214898e-02f, -6.97831437e-02f, -2.83526331e-02f,
    -1.47947192e-01f, -7.79435486e-02f, -3.22280154e-02f, -1.08996984e-02f, 3.77377421e-02f, 1.00894518e-01f, -2.46036537e-02f, 7.74878860e-02f,
    1.01770058e-01f, 1.01674078e-02f, 1.05121873e-01f, -9.71089024e-03f, -9.25782248e-02f, -5.71407415e-02f, 9.84037891e-02f, 4.10351567e-02f,
    4.77524251e-02f, -4.53720205e-02f, 9.72083658e-02f, 1.16139777e-01f, 1.16716623e-02f, 6.85404837e-02f, 2.83176042e-02f, -7.17197806e-02f,
    -4.91468348e-02f, -7.32310563e-02f, 1.99617632e-02f, -1.39493346e-01f, -1.95503049e-03f, 8.05837587e-02f, 1.33756384e-01f, 1.17237270e-01f,
    1.77409232e-01f, -8.21850821e-03f, -4.28323746e-02f, -1.10569969e-01f, -1.60497591e-01f, 8.24338794e-02f, 5.03694154e-02f, 1.22807547e-01f,
    8.01062956e-02f, 5.41424341e-02f, 7.51763359e-02f, 3.08251269e-02f, -1.36337541e-02f, 6.79432452e-02f, 2.81810854e-02f, -1.05826735e-01f,
    3.18656825e-02f, -4.89903651e-02f, 1.27679750e-01f, 4.22311462e-02f, -1.43434517e-02f, 7.43017420e-02f, 3.36613394e-02f, -3.75979207e-02f,
    1.98701825e-02f, 1.36415828e-02f, -1.47319390e-02f, 2.95158792e-02f, -1.40029117e-01f, 1.26125247e-04f, 1.15345463e-01f, -2.90862601e-02f,
    -5.36090396e-02f, -8.95065665e-02f, 5.92504069e-02f, -1.12009197e-01f, 2.52603553e-03f, 1.01642385e-01f, 4.83139120e-02f, 9.45970118e-02f,
    9.00877342e-02f, 1.33368075e-01f, 6.81168586e-02f, 9.71112996e-02f, 1.60208289e-02f, -9.41819996e-02f, -9.74552929e-02f, 4.29571046e-05f,
    -1.19163647e-01f, 6.66190758e-02f, 1.10181563e-01f, -9.96440463e-03f, -9.13196132e-02f, -1.94361154e-03f, 8.69224742e-02f, -8.27610046e-02f,
    6.15760162e-02f, 1.07562765e-02f, 3.50125246e-02f, 3.84266712e-02f, -1.07700459e-03f, 4.39103022e-02f, 3.25703062e-02f, 1.05641864e-01f,
    -1.85766250e-01f, -1.69016838e-01f, 1.04527414e-01f, -6.63883239e-02f, -3.41319386e-03f, -1.63891800e-02f, 6.27113432e-02f, 3.68135460e-02f,
    -3.58996855e-04f, -1.34875730e-01f, -7.64217377e-02f, -1.74878668e-02f, 1.79390963e-02f, -2.33570784e-02f, 1.25539517e-02f, -1.95585899e-02f,
    -9.48281810e-02f, 6.56868443e-02f, 9.24780667e-02f, -2.75298324e-03f, -7.20257163e-02f, -3.76203880e-02f, -1.24097494e-02f, -5.34855621e-03f,
    -9.28116217e-02f, -5.46646081e-02f, 1.52336568e-01f, 6.67635947e-02f, 7.92523101e-02f, -1.80468142e-01f, -1.10093057e-01f, -4.72750217e-02f,
    7.15015084e-02f, 8.42314288e-02f, -3.39073613e-02f, 2.11989395e-02f, 5.92120588e-02f, -8.60665143e-02f, 2.73369253e-02f, -1.44934561e-02f,
    -7.99446627e-02f, 5.51002808e-02f, 1.18491299e-01f, -5.47065586e-02f, 3.36124972e-02f, -4.52154782e-03f, 5.66906519e-02f, 3.30723152e-02f,
    1.58823340e-03f, 9.13805813e-02f, 2.33457927e-02f, -5.80706708e-02f, -2.22046837e-01f, 5.80872670e-02f, 9.72172692e-02f, 2.25823205e-02f,
    -7.88206533e-02f, -3.40573750e-02f, -5.09988703e-02f, 8.56361091e-02f, -5.15180901e-02f, -7.88208619e-02f, -2.24238019e-02f, -1.43099576e-02f,
    1.36111043e-02f, -1.60761222e-01f, -2.96666678e-02f, -7.19998032e-02f, -1.68117452e-02f, 1.62819341e-01f, -3.94915529e-02f, 1.11145228e-01f,
    1.06073115e-02f, -1.57399714e-01f, -4.07641046e-02f, -6.47075027e-02f, 2.20149197e-02f, 1.85979400e-02f, -3.27313901e-03f, -7.47055560e-02f,
    4.44207825e-02f, 4.06552702e-02f, 1.45317987e-02f, -4.96334806e-02f, -4.28215228e-02f, 3.95924486e-02f, -2.18550749e-02f, -2.62141749e-02f,
    1.10425778e-01f, -9.56617147e-02f, -6.90825358e-02f, 7.47754127e-02f, -4.38591614e-02f, 3.02036642e-03f, 1.46412343e-01f, 1.43557981e-01f,
    1.03291534e-02f, 1.06152035e-01f, 2.61914805e-02f, 2.87803058e-02f, 1.65011175e-02f, -6.17977567e-02f, 5.90223214e-03f, -6.71370178e-02f,
    -3.97920571e-02f, -1.02688968e-02f, -1.39754135e-02f, -4.02527601e-02f, 2.16696188e-02f, -9.43889935e-03f, 6.60538897e-02f, -3.54797877e-02f,
    -3.36773433e-02f, 6.74174950e-02f, -7.58451819e-02f, -1.99318863e-02f, 5.14549315e-02f, 9.13875103e-02f, 8.16902444e-02f, 7.58281946e-02f,
    6.61569834e-02f, 1.06836371e-02f, 5.35821244e-02f, -9.73496959e-03f, -1.74906731e-01f, -1.42789736e-01f, -1.93482060e-02f, 4.07495461e-02f,
    3.40904333e-02f, 7.94990361e-02f, -2.20193453e-02f, -2.41126027e-02f, 6.82844082e-03f, 5.22266887e-02f, 8.79571438e-02f, 4.52808524e-03f,
    5.38891181e-04f, -9.69359558e-03f, -1.85674001e-02f, 1.01253033e-01f, 8.75157118e-02f, -1.21242404e-01f, 1.01808548e-01f, -3.39812599e-02f,
    -1.19028315e-02f, -3.19317393e-02f, -2.90704370e-02f, -1.13900594e-01f, 1.95990771e-01f, 6.42658919e-02f, -1.54418964e-02f, 3.89249846e-02f,
    -2.63249455e-03f, 7.92559795e-03f, 3.74333039e-02f, -7.85946622e-02f, 2.69532856e-02f, 4.84777242e-02f, 8.69851336e-02f, 6.15415685e-02f,
    5.06036803e-02f, -5.17259799e-02f, 1.20506302e-01f, 3.13562676e-02f, 5.40118665e-02f, -1.08616009e-01f, 6.32215366e-02f, 2.52298429e-04f,
    -9.69282389e-02f, -2.34020408e-02f, -1.08653205e-02f, 2.01822743e-01f, 1.12774465e-02f, -7.75797665e-02f, -6.60841092e-02f, -1.52918428e-01f,
    8.29586089e-02f, -5.04516102e-05f, 1.02787325e-02f, 4.29000407e-02f, 7.16394559e-02f, -3.99966985e-02f, -2.31587095e-03f, 1.77553035e-02f,
    1.46627510e-02f, -3.44679691e-02f, 1.40748569e-03f, -2.67782230e-02f, -5.38181476e-02f, 1.19071566e-01f, 4.03439580e-03f, 1.23643279e-01f,
    4.27261852e-02f, 1.11644929e-02f, -1.04106046e-01f, -2.74669249e-02f, 2.64649000e-02f, -1.38168763e-02f, -4.02736440e-02f, 1.65971145e-01f,
    2.86165494e-02f, -4.54792082e-02f, -1.54896108e-02f, -8.08105767e-02f, 1.15761988e-01f, -1.15523323e-01f, 3.75713967e-02f, 9.05514583e-02f,
    -6.35461584e-02f, 9.85633358e-02f, 5.42131104e-02f, -7.49724284e-02f, -1.21934749e-01f, 1.96104139e-01f, -5.81709109e-02f, -6.08491674e-02f,
    3.41396928e-02f, -7.94583708e-02f, 2.82203592e-02f, -9.29131731e-02f, 3.37964557e-02f, 6.23697788e-02f, -8.53274316e-02f, 2.06241816e-01f,
    -1.50705436e-02f, 1.39617017e-02f, 5.02047502e-02f, -4.51362655e-02f, 1.11168452e-01f, -5.09110838e-02f, -7.90626183e-02f, -1.94748156e-02f,
    4.81436513e-02f, 3.22085917e-02f, -1.37293607e-01f, -6.80914754e-03f, 2.75714844e-02f, -1.12075461e-02f, 1.55221149e-01f, -1.18586898e-01f,
    -6.26562014e-02f, 8.81173089e-02f, 4.04399782e-02f, 7.98409954e-02f, -4.80812117e-02f, -1.06168270e-01f, 8.71115476e-02f, -3.36613134e-02f,
    1.48210395e-02f, 4.10654955e-02f, 1.09000310e-01f, 1.01038277e-01f, 1.45190349e-02f, -7.54624903e-02f, 3.94190513e-02f, 1.14915162e-01f,
    1.30888462e-01f, 6.42297119e-02f, -6.57331124e-02f, -2.95378212e-02f, 5.72263561e-02f, -2.22914089e-02f, -2.58197468e-02f, 2.53677927e-02f,
    -6.91677108e-02f, 7.99220875e-02f, -1.05667129e-01f, -1.67565681e-02f, 1.59937050e-02f, -6.58770576e-02f, 6.75266609e-02f, 1.79583055e-03f,
    -2.35812236e-02f, -7.07085654e-02f, 1.26693726e-01f, -1.14012688e-01f, -9.41829234e-02f, 5.31540029e-02f, -4.68475409e-02f, -6.60946593e-02f,
    1.87465742e-01f, -5.98451905e-02f, -6.10352121e-03f, -7.26487115e-02f, 1.46089569e-01f, 4.38955501e-02f, 1.78214759e-02f, -3.86658981e-02f,
    -4.95867878e-02f, 2.06068251e-02f, -1.05073713e-01f, 1.02038130e-01f, 8.45596194e-02f, -4.86357696e-02f, 5.83231896e-02f, -5.33021875e-02f,
    1.43105522e-01f, -2.57273205e-02f, -2.09543612e-02f, 1.29654761e-02f, -5.79667725e-02f, 1.08083654e-02f, 1.36133628e-02f, -3.39503996e-02f,
    8.97197872e-02f, -7.22732618e-02f, -2.97504738e-02f, 1.32095814e-01f, -2.77460665e-02f, -1.32563431e-02f, -9.12071690e-02f, 5.16523942e-02f,
    2.81487536e-02f, 2.51839105e-02f, 1.07644208e-01f, 4.14607152e-02f, 4.59914394e-02f, -2.35982332e-02f, 7.62795582e-02f, -1.32742614e-01f,
    5.33997752e-02f, 2.99870204e-02f, -3.40520777e-02f, 6.41996367e-03f, -7.34257102e-02f, -3.67817692e-02f, -3.62753198e-02f, -4.66899537e-02f,
    8.05353895e-02f, 1.02307878e-01f, 1.68316752e-01f, -6.17143475e-02f, -8.12963471e-02f, -5.05898483e-02f, 4.09941375e-02f, -5.89291751e-02f,
    1.12780090e-02f, -7.59696811e-02f, 1.59555860e-02f, 3.06433216e-02f, 1.83013466e-03f, 2.71993913e-02f, 8.13465472e-03f, -5.89298755e-02f,
    7.74897039e-02f, 5.20365685e-03f, 2.14535743e-02f, 2.39796229e-02f, 3.80974710e-02f, -8.89955908e-02f, -1.47471353e-01f, 8.45984183e-03f,
    -5.60832396e-03f, 1.50012106e-01f, -8.71131942e-02f, -1.02419909e-02f, 8.80463794e-02f, 6.05073348e-02f, -7.19194636e-02f, -6.65228963e-02f,
    -2.28030086e-02f, -1.22720823e-01f, 3.94955277e-02f, 4.02805582e-02f, 1.14960201e-01f, 1.65275466e-02f, 5.75702004e-02f, 1.18967056e-01f,
    3.46521474e-02f, -1.34732919e-02f, 1.03608035e-01f, 7.17860460e-02f, 1.11816416e-03f, -1.21160075e-01f, 8.08628649e-02f, 1.06159756e-02f,
    -1.82118360e-02f, 5.24565531e-03f, 2.72526499e-02f, -1.24107882e-01f, -1.23796187e-01f, -3.02273650e-02f, 5.60870171e-02f, -1.37313560e-01f,
    -1.49627969e-01f, -5.84072582e-02f, -4.14769091e-02f, 7.55114257e-02f, 9.57786292e-02f, -2.08374988e-02f, 4.52833017e-03f, 4.02550288e-02f,
    -4.07463051e-02f, -1.28112538e-02f, -5.33831604e-02f, -7.10512772e-02f, -1.01484507e-01f, 8.77663717e-02f, -7.67405778e-02f, 6.00147899e-03f,
    2.72735208e-02f, 5.02498299e-02f, 6.72320649e-02f, -3.43608744e-02f, 1.08930178e-01f, -7.82359466e-02f, 4.43845540e-02f, -7.80099705e-02f,
    2.24786680e-02f, 8.34019855e-02f, 1.35802776e-01f, -6.98795021e-02f, 3.72168608e-02f, 1.35371491e-01f, 1.44176334e-01f, -6.81634545e-02f,
    9.37926397e-02f, 1.76195316e-02f, -5.39568365e-02f, -1.16527580e-01f, 1.41035542e-02f, -6.43783137e-02f, -1.13937231e-02f, -3.31817381e-02f,
    -2.92744990e-02f, 1.02566406e-02f, -7.03281462e-02f, 1.55298896e-02f, 1.10569194e-01f, 1.66423827e-01f, -2.21979264e-02f, 6.77288137e-03f,
    -5.17586917e-02f, 9.90615264e-02f, -4.83861417e-02f, 2.60721091e-02f, -5.42840101e-02f, 3.50814350e-02f, 8.02064389e-02f, 4.77180853e-02f,
    1.98043156e-02f, -2.73561999e-02f, 2.12414831e-01f, -6.44493997e-02f, 1.23116963e-01f, -5.54135889e-02f, 1.00436239e-02f, 1.41356319e-01f,
    2.71639582e-02f, -2.14444473e-01f, -6.42084554e-02f, -1.71403084e-02f, 8.95294473e-02f, 1.34746982e-02f, 1.27565920e-01f, 6.93403259e-02f,
