#include "features_8_expand3x3_weight.h"

__attribute__((aligned(16))) const float features_8_expand3x3_weight[82944] = {
    6.69740587e-02f, 2.38268822e-02f, 7.59124160e-02f, -1.04028545e-02f, -3.93906310e-02f, -2.50732414e-02f, 3.73008996e-02f, -3.59638594e-02f,
    1.60912853e-02f, 6.99363872e-02f, 2.86438633e-02f, 2.22344827e-02f, 5.77821657e-02f, 7.00886070e-04f, 2.20332108e-02f, 5.12351915e-02f,
    3.84675339e-02f, 6.44446984e-02f, -2.31860988e-02f, -2.78537311e-02f, -3.23887132e-02f, -4.74004215e-03f, -3.54925133e-02f, -3.28577347e-02f,
    -1.94484778e-02f, -2.89094280e-02f, -4.67781425e-02f, -9.55969021e-02f, -2.70782001e-02f, -4.58502434e-02f, -5.05544394e-02f, 2.59511173e-02f,
    -5.31528099e-03f, -8.00308511e-02f, -3.34761105e-02f, -5.38646020e-02f, -2.63115559e-02f, -6.61734072e-03f, -3.53079811e-02f, -1.04040485e-02f,
    1.69824492e-02f, -3.67831178e-02f, -6.66286191e-03f, -1.77203808e-02f, -5.58496565e-02f, 2.90088821e-02f, 2.47117337e-02f, 2.01984327e-02f,
    1.38062872e-02f, 4.61985022e-02f, 1.05864210e-02f, 3.07285469e-02f, 2.86501721e-02f, 3.42027582e-02f, -2.33245250e-02f, -2.36305278e-02f,
    -8.16951320e-03f, -3.52017507e-02f, -4.95842025e-02f, -2.28884649e-02f, -2.02248413e-02f, -4.29685637e-02f, -2.61905529e-02f, -3.54526602e-02f,
    -3.14425379e-02f, -1.63153801e-02f, -3.36731970e-02f, 5.47208153e-02f, -3.44806630e-03f, -1.66955721e-02f, -1.62899010e-02f, -2.07602903e-02f,
    -3.93019207e-02f, -2.08102502e-02f, -3.19107436e-03f, -1.44395931e-02f, 2.04743203e-02f, 1.45541476e-02f, -4.26771380e-02f, -4.78454120e-02f,
    -6.06811047e-03f, -2.44593667e-03f, 7.52812158e-03f, 6.21875841e-03f, -1.08118411e-02f, 2.03683376e-02f, 1.49771909e-03f, -2.79485900e-02f,
    -1.77134946e-02f, -2.87558995e-02f, 7.79416412e-04f, -4.10373099e-02f, -4.16817144e-02f, 2.70711049e-03f, -3.54449451e-02f, -3.28808092e-02f,
    -1.94538632e-04f, -2.25352999e-02f, -2.13904530e-02f, 4.81636822e-02f, -2.86309812e-02f, -1.95325427e-02f, -1.80140249e-02f, -9.26993117e-02f,
    -5.92781678e-02f, 3.94578315e-02f, -5.52772060e-02f, -1.09044090e-02f, 1.34961560e-01f, 5.56320921e-02f, 9.69590545e-02f, 7.15485141e-02f,
    -5.38458154e-02f, 2.85228211e-02f, 1.04800373e-01f, 2.84636375e-02f, 1.05964564e-01f, -7.71513283e-02f, -5.69437183e-02f, -7.67189637e-02f,
    -5.88746443e-02f, -1.54787404e-02f, -4.02728096e-02f, -9.29616690e-02f, -6.69042617e-02f, -9.23590064e-02f, -2.08287351e-02f, 2.20259000e-02f,
    -1.34269772e-02f, 5.55252144e-03f, 9.83650610e-02f, 2.66293976e-02f, -4.94218916e-02f, -1.06235631e-02f, -4.55144718e-02f, 1.09284315e-02f,
    -2.13033110e-02f, -2.26851664e-02f, -1.15250777e-02f, -6.28768653e-02f, -1.80083700e-02f, -2.39354768e-03f, -1.67894289e-02f, 5.45246759e-04f,
    4.60534543e-02f, 1.37792984e-02f, -2.61083283e-02f, 1.45975221e-02f, -2.98760682e-02f, -3.59057263e-02f, 1.25380019e-02f, 1.70755163e-02f,
    1.46976532e-03f, 2.35296339e-02f, 1.77326612e-02f, 1.64661221e-02f, 7.46776536e-02f, 7.25667775e-02f, 2.71030441e-02f, 5.21736816e-02f,
    3.45837958e-02f, 1.35622453e-02f, 8.22961777e-02f, 1.90968085e-02f, 4.33137305e-02f, 6.16764240e-02f, -2.39847954e-02f, 1.05968742e-02f,
    8.07554945e-02f, 2.35836878e-02f, 2.18382087e-02f, 2.87891529e-03f, 2.41442900e-02f, -2.14657411e-02f, 6.43436052e-03f, 1.24828061e-02f,
    -4.25094645e-03f, 1.86303607e-03f, -1.23095966e-03f, -1.00514051e-02f, 3.78273800e-02f, 5.60166826e-03f, 3.09592206e-02f, 5.09545133e-02f,
    -9.63783823e-03f, 4.23596390e-02f, -1.55552328e-02f, -2.75526028e-02f, 4.24637347e-02f, 6.74775541e-02f, 9.98699758e-03f, 2.22176164e-02f,
    5.79775870e-02f, -3.54600586e-02f, 1.87016595e-02f, -9.99109074e-03f, -4.44662496e-02f, -2.73845252e-02f, 4.81226295e-03f, -1.17623080e-02f,
    -2.92481985e-02f, 4.14366759e-02f, 2.88045090e-02f, -4.45276219e-03f, 4.97681350e-02f, 3.30160558e-02f, 1.17375702e-02f, 2.13738456e-02f,
    -1.57180820e-02f, -7.53339054e-03f, 2.30060425e-03f, -5.76059856e-02f, -1.29594402e-02f, -1.18788471e-02f, -1.14622926e-02f, -1.13699830e-03f,
    6.98707923e-02f, 1.00215720e-02f, 2.58464199e-02f, 3.69869843e-02f, -4.48751785e-02f, 3.77591420e-03f, 7.02243820e-02f, -2.84813531e-02f,
    9.08436999e-03f, -4.12188433e-02f, -1.82213224e-02f, -3.70439654e-03f, -2.82247160e-02f, -1.40131181e-02f, 1.47574712e-02f, -4.56206985e-02f,
    -5.66207021e-02f, -3.26530710e-02f, 6.53048530e-02f, -1.51844863e-02f, -1.20754400e-02f, 4.43753153e-02f, -5.88385649e-02f, -6.37502968e-03f,
    4.32706177e-02f, -8.03639460e-03f, 2.54522706e-03f, 2.65472643e-02f, 1.13440426e-02f, 7.20070442e-03f, 2.16219090e-02f, -3.59887746e-03f,
    -1.75617058e-02f, 6.47511631e-02f, 1.22510624e-04f, -5.31950500e-03f, 4.82939966e-02f, 1.59245543e-02f, -1.52077610e-02f, 7.61924610e-02f,
    1.99622586e-02f, -1.87956039e-02f, 6.32485151e-02f, 1.81089006e-02f, -4.20330092e-03f, 3.36338095e-02f, -8.32717307e-03f, -1.65606104e-03f,
    3.42500326e-03f, -4.51201238e-02f, -1.79030355e-02f, 4.13617305e-03f, -2.07037628e-02f, -1.46166990e-02f, -7.72460457e-03f, 7.70605309e-03f,
    3.06345965e-03f, -2.76517570e-02f, -1.13928346e-02f, 8.91506486e-03f, 7.96671119e-03f, 2.54084589e-03f, -2.89356094e-02f, 3.56259942e-02f,
    2.64136773e-02f, 6.40959218e-02f, 3.40829715e-02f, -1.76576357e-02f, 2.00881585e-02f, 5.41736148e-02f, 2.32917480e-02f, 5.50000332e-02f,
    -1.72199979e-02f, -2.12722458e-02f, 1.32660847e-02f, 4.14837571e-03f, 6.56140968e-03f, -1.55480381e-03f, -2.94204820e-02f, -2.52550300e-02f,
    -9.18528810e-03f, -2.96534952e-02f, -6.81996066e-03f, 3.73813659e-02f, -1.16094891e-02f, 7.25002810e-02f, 1.96711160e-02f, -3.76721844e-02f,
    -5.76128764e-03f, 2.04342976e-02f, 1.60757732e-02f, -8.05704738e-04f, -1.64928976e-02f, 2.21594386e-02f, 1.25263184e-02f, -2.72739143e-03f,
    -1.10019911e-02f, -4.41371696e-03f, -1.45547772e-02f, -1.25216618e-02f, -2.65391730e-02f, -1.55406902e-02f, 4.14206088e-02f, 1.08844684e-02f,
    -1.02210492e-02f, 2.77620424e-02f, -4.47910326e-03f, -9.49488021e-03f, -2.98313238e-03f, 1.25883110e-02f, 2.47495938e-02f, -1.47404671e-02f,
    1.70497200e-03f, 9.48575151e-04f, 3.59893627e-02f, 4.91751544e-02f, 4.55277450e-02f, 1.86977722e-02f, -1.27956010e-02f, -2.22423617e-02f,
    -1.65096447e-02f, -3.77147235e-02f, -2.04491615e-02f, -2.62778834e-03f, -3.28506269e-02f, -2.18222719e-02f, -6.35402650e-02f, -7.53886998e-02f,
    -8.54254514e-02f, -2.11338308e-02f, -4.21124250e-02f, -7.24152550e-02f, -1.28247440e-02f, -4.34401482e-02f, -8.37880075e-02f, -2.20641159e-02f,
    9.73286014e-03f, 1.33151412e-02f, -3.01634222e-02f, 6.09141104e-02f, -8.64229724e-03f, -1.93749927e-02f, 2.40738001e-02f, 7.93065596e-03f,
    1.28394356e-02f, 6.66352105e-04f, 1.42093673e-02f, -1.75086055e-02f, 2.56329123e-03f, -1.34284962e-02f, -1.14935655e-02f, 1.22336168e-02f,
    -1.49066132e-02f, -2.36628717e-03f, -3.57060544e-02f, -1.94186419e-02f, 1.07145542e-02f, 5.09293415e-02f, -9.72358789e-03f, 1.25389285e-02f,
    2.02022237e-03f, -2.20030248e-02f, -1.75021775e-02f, 1.52941355e-02f, -1.28228422e-02f, -2.61725113e-02f, 1.55864377e-02f, -2.68562790e-03f,
    -5.25360368e-02f, -3.40117775e-02f, -5.29126190e-02f, 1.99419446e-04f, -1.80700123e-02f, -2.03153659e-02f, -2.67910436e-02f, 3.53460596e-03f,
    -1.66600291e-02f, -1.17248204e-02f, -9.91915539e-03f, 1.11883748e-02f, 5.81389740e-02f, -8.31796322e-03f, 5.59954857e-03f, 6.39393106e-02f,
    -4.05523069e-02f, 1.74915791e-02f, 6.14493862e-02f, 2.21570451e-02f, 6.09225594e-02f, 1.93621945e-02f, 2.47916374e-02f, 7.24078482e-03f,
    -1.06476787e-02f, -2.01123878e-02f, -3.07642519e-02f, -2.09954828e-02f, -2.07973216e-02f, -1.11578861e-02f, 1.03384042e-02f, -2.50283033e-02f,
    -1.10506294e-02f, 1.04413053e-03f, -6.01423942e-02f, 4.00430523e-03f, 5.15326634e-02f, 2.75211059e-03f, 1.48681840e-02f, 5.10441102e-02f,
    3.01742572e-02f, -6.06210250e-03f, 6.87116873e-04f, -9.51923709e-03f, -1.54537177e-02f, -4.01520282e-02f, -2.91534048e-02f, -9.05263331e-03f,
    7.29147170e-04f, 1.83952157e-03f, 3.20656761e-03f, 8.56843893e-04f, 9.81203411e-05f, 1.49129925e-03f, 8.62619025e-04f, 7.68312719e-04f,
    4.02322657e-05f, -1.18759298e-03f, 5.86299211e-06f, 2.79955729e-03f, -1.16549316e-03f, 1.67490705e-03f, 3.51402606e-03f, -5.98867773e-05f,
    2.96918489e-03f, 3.83007526e-03f, 1.54439372e-03f, 7.26121245e-04f, -9.02556785e-05f, 2.21731304e-03f, 2.95758597e-04f, -6.03056047e-04f,
    -1.74631768e-05f, -8.78102292e-05f, -5.93969235e-05f, -1.65253109e-03f, -5.06185601e-03f, -2.65504979e-03f, 1.33193331e-03f, -2.36047432e-03f,
    -2.57060770e-03f, 2.31587212e-03f, -6.47152483e-04f, -2.60963803e-03f, -1.75315724e-03f, -1.47240411e-03f, -5.80351101e-04f, -1.39016041e-03f,
    -1.53470552e-04f, 5.48511976e-04f, 1.85620986e-04f, 1.17354060e-03f, 6.63204992e-04f, -9.67557891e-04f, -1.27995596e-03f, -1.00678275e-03f,
    -6.10532763e-04f, -8.92151496e-04f, -9.55394935e-05f, 2.41920920e-04f, 2.57412379e-04f, 3.62475228e-04f, -1.51390291e-03f, -1.61966635e-03f,
    -4.19684133e-04f, -1.10201712e-03f, -1.60091929e-03f, -2.07294896e-03f, -2.01063958e-04f, 1.22078651e-04f, -1.65950521e-04f, 3.76507943e-03f,
    4.22896072e-03f, 2.99386820e-03f, -1.24603254e-03f, 1.27441098e-03f, 3.29521322e-03f, -3.87356011e-03f, -1.27087615e-03f, 2.22348049e-03f,
    -5.80959255e-04f, -7.12205889e-04f, -9.29296657e-04f, -1.00403558e-03f, 2.41594375e-04f, 6.30031805e-04f, -2.07323628e-03f, -8.56091210e-04f,
    -5.79671818e-04f, -1.48773042e-03f, -2.00936076e-04f, 2.17526779e-03f, -7.48087361e-04f, -1.13951275e-03f, 1.92248682e-03f, -3.53809475e-04f,
    -2.42300727e-03f, -3.93084018e-04f, -2.90862750e-04f, 5.58046682e-04f, 5.45220100e-04f, -1.69512746e-03f, -6.99336990e-04f, -3.31890071e-04f,
    -2.29850528e-03f, -8.64039175e-04f, -6.10364601e-04f, 2.08932950e-04f, 2.04887055e-03f, 1.27486617e-03f, -1.94402732e-04f, 6.88112050e-04f,
    7.37511553e-04f, -3.35933932e-04f, -5.49609307e-04f, -1.90759858e-03f, 4.12518112e-03f, 2.82292860e-03f, 1.28219498e-03f, 2.04077014e-03f,
    -3.08960414e-04f, -1.69578401e-04f, -7.73821026e-04f, -2.76223710e-03f, -1.79136731e-03f, -2.60531181e-03f, 6.07441878e-04f, 1.31589640e-03f,
    -3.06875911e-03f, -2.72610545e-04f, 8.69492826e-04f, -3.52781406e-03f, -2.23737210e-03f, -3.05411813e-05f, -6.05569861e-04f, -1.57357799e-03f,
    -1.26058221e-04f, 1.71267288e-03f, 6.13019918e-04f, 1.27603346e-03f, 2.42108898e-03f, 1.80817675e-03f, 2.00872822e-03f, -4.50840313e-03f,
    -3.80026805e-03f, -1.75229053e-03f, -3.64454550e-04f, -1.76771556e-03f, -1.87117083e-03f, 9.09135095e-04f, -1.17582071e-03f, -1.72027387e-03f,
    2.72394926e-03f, 1.53151415e-02f, 1.78761669e-02f, -1.94210596e-02f, -4.74547734e-03f, 1.30175017e-02f, -3.22886929e-02f, -2.45510302e-02f,
    -1.08638974e-02f, 2.62417290e-02f, -2.41355365e-03f, 5.54123558e-02f, 3.82185215e-04f, -1.83175202e-03f, 2.66062040e-02f, -3.26470993e-02f,
    -1.75538827e-02f, -2.68860627e-03f, -1.36145530e-03f, -6.82570040e-03f, 3.37406546e-02f, 9.37732309e-03f, -7.17927888e-03f, 1.30580999e-02f,
    -2.24677399e-02f, -2.12703794e-02f, 1.47788730e-02f, 4.12744343e-01f, 1.54587671e-01f, -1.77886188e-01f, 1.74048245e-01f, 1.80029690e-01f,
    -2.49723539e-01f, -4.22527194e-02f, -5.11060730e-02f, -1.33540720e-01f, -5.30550955e-03f, -1.19460970e-01f, -2.13544946e-02f, -8.19108337e-02f,
    -7.92145431e-02f, 3.29676346e-04f, -1.97282620e-02f, 9.45639834e-02f, 1.81028217e-01f, -5.72032779e-02f, -4.39086929e-02f, -9.65028815e-03f,
    -6.27404079e-02f, -1.58628996e-03f, 8.53765849e-03f, -2.25488041e-02f, 2.69594397e-02f, 1.22029059e-01f, 6.10576794e-02f, -7.61596784e-02f,
    -3.35480310e-02f, 4.81112069e-03f, -4.51601595e-02f, -1.25035050e-03f, -3.06758191e-03f, 7.36894086e-03f, 8.63113254e-02f, -9.70294848e-02f,
    -3.32387760e-02f, -2.23067887e-02f, -5.29603958e-02f, -3.58036235e-02f, 5.63845132e-03f, -1.33158369e-02f, -1.23532619e-02f, -4.11916599e-02f,
    6.64160913e-03f, 7.08532259e-02f, -4.96067060e-03f, 5.08188680e-02f, -2.71778014e-02f, 4.31673639e-02f, 9.38012376e-02f, -1.21855646e-01f,
    -1.55891702e-01f, -5.09360898e-03f, 5.86824007e-02f, 5.53094000e-02f, 4.77332175e-02f, 2.13740654e-02f, 2.00509224e-02f, 6.44188898e-04f,
    -4.97105606e-02f, -5.03731295e-02f, -7.31004216e-03f, -1.69442147e-02f, -8.00145045e-02f, -2.22626748e-03f, 3.86707857e-02f, -2.76296828e-02f,
    -2.72482056e-02f, -6.06837566e-04f, 7.38092931e-03f, 1.77426580e-02f, 6.88004419e-02f, -2.09335666e-02f, -7.05404719e-03f, 4.55747843e-02f,
    5.25890961e-02f, 5.46772918e-03f, 1.17565719e-02f, -1.35134310e-02f, 1.90353394e-02f, -9.82063264e-02f, -9.13090035e-02f, 7.04276282e-03f,
    -9.40710753e-02f, -3.22873779e-02f, -3.42112873e-03f, -5.37908971e-02f, 7.18041062e-02f, 2.77362633e-02f, -6.03388175e-02f, -4.11046483e-02f,
    1.40878921e-02f, -1.21568076e-01f, -1.03198625e-01f, 9.74519923e-03f, -1.22405104e-01f, -1.34406060e-01f, -1.74740497e-02f, 1.51807368e-01f,
    -2.74458621e-02f, 8.71631410e-03f, 2.22352311e-01f, -6.21132366e-03f, 1.11987051e-02f, 3.30009643e-04f, -2.94580660e-03f, -7.74691477e-02f,
    -9.43932980e-02f, 1.81095097e-02f, -2.53608003e-02f, -4.54911590e-02f, 4.52865176e-02f, 4.88066450e-02f, 5.59336767e-02f, 7.78565183e-02f,
    -4.39420342e-02f, -1.99321862e-02f, 3.94024141e-02f, -2.24632528e-02f, -3.00451759e-02f, 3.93315665e-02f, 3.09226718e-02f, 5.51260542e-03f,
    2.28625978e-03f, -1.26549171e-03f, 1.79999415e-02f, 5.53251617e-02f, 1.67947058e-02f, 4.54387162e-03f, -1.48453945e-02f, 2.11256947e-02f,
    -1.17744254e-02f, -4.59605828e-02f, 2.59060375e-02f, 2.97967764e-03f, -5.83419017e-02f, 2.47775633e-02f, 1.85712706e-02f, -9.55217611e-03f,
    3.76066938e-02f, 1.43653648e-02f, -1.28965704e-02f, 4.07394618e-02f, 6.93331007e-03f, -7.98136275e-03f, 3.71232964e-02f, -3.83760706e-02f,
    -4.67973314e-02f, -3.17248772e-03f, -2.77382247e-02f, -5.20335808e-02f, -7.14128762e-02f, 6.13458827e-03f, 5.06532751e-02f, -4.35066484e-02f,
    4.72224206e-02f, 4.98946682e-02f, -5.91151044e-03f, 7.82650188e-02f, 1.13960467e-01f, 3.51962820e-02f, -2.38189697e-02f, 1.54640852e-02f,
    5.45736812e-02f, -5.99387027e-02f, -3.96821164e-02f, -3.89966555e-02f, -2.70132907e-02f, -1.63038876e-02f, -2.06018351e-02f, -4.48629707e-02f,
    9.60339513e-03f, 2.16446277e-02f, -2.95121670e-02f, -7.31426403e-02f, 2.98477095e-02f, -4.73085195e-02f, -5.99870346e-02f, -3.89614254e-02f,
    -1.53066013e-02f, 3.64661701e-02f, -2.88513694e-02f, -4.43361066e-02f, -2.91218492e-03f, -2.45597865e-02f, -1.35922069e-02f, -9.19160713e-03f,
    -5.25868051e-02f, -7.11286068e-02f, -1.31426528e-02f, -4.45125587e-02f, -1.55253932e-01f, -1.36529595e-01f, 1.24257617e-02f, -1.21246362e-02f,
    -4.39668074e-02f, 1.74960509e-01f, 4.57438082e-02f, -1.87224764e-02f, 9.34645087e-02f, 1.38866663e-01f, -1.39865085e-01f, -1.68794096e-02f,
    3.23804803e-02f, -1.29492611e-01f, -4.58952598e-03f, 6.75617578e-03f, 1.01119719e-01f, -6.61467528e-03f, -7.48105422e-02f, 3.03535350e-02f,
    -3.48265395e-02f, -1.95044447e-02f, 2.67712250e-02f, -1.31867424e-01f, -1.07406370e-01f, 5.35634952e-03f, -7.91193768e-02f, 9.35536250e-02f,
    4.92088757e-02f, 1.32131642e-02f, 2.49167725e-01f, 2.20758319e-01f, -3.76275741e-02f, -3.70941386e-02f, -5.99777214e-02f, 1.48080196e-03f,
    4.11827024e-03f, 1.53877735e-02f, 3.09299286e-02f, 2.35387534e-02f, -1.61791034e-02f, -1.44780762e-02f, -1.72646400e-02f, 9.36999265e-03f,
    -4.74740565e-03f, -2.91153230e-02f, -1.63420290e-02f, -4.88377968e-03f, 4.62541729e-03f, 1.63626466e-02f, -3.72293815e-02f, -4.68710996e-02f,
    -1.60227492e-02f, -9.69383214e-03f, -3.19359428e-03f, -2.68922262e-02f, 4.20581037e-03f, 3.70078832e-02f, 3.31646688e-02f, -3.96273583e-02f,
    -4.14983071e-02f, 1.30519923e-02f, 1.46940816e-03f, -2.74860058e-02f, 1.46150710e-02f, -4.30726968e-02f, -3.12358122e-02f, -4.97791208e-02f,
    2.68488919e-04f, 1.64070143e-03f, 1.63220707e-03f, 1.84515526e-03f, 1.34606566e-03f, 2.63427338e-03f, 2.73578288e-03f, 3.16290301e-03f,
    2.40413379e-03f, -1.78435899e-03f, -1.67642283e-04f, 8.78745865e-04f, -1.85967155e-03f, -1.95163244e-03f, -1.24133599e-03f, -2.80087371e-03f,
    -3.46981268e-03f, -2.87707103e-03f, 1.03330205e-03f, 7.96440232e-04f, 1.02603715e-03f, 1.21514010e-03f, 2.72705150e-03f, 1.95149914e-03f,
    2.60368921e-03f, 3.36820376e-03f, 3.18220281e-03f, 2.56204698e-03f, 1.89037784e-03f, 2.64908792e-03f, 5.39926579e-04f, 5.85370115e-04f,
    7.16179260e-04f, 5.75249840e-04f, -1.77348309e-04f, 1.01475336e-03f, 1.66117924e-03f, 1.39636220e-03f, 1.64178165e-03f, 1.70227105e-03f,
    4.34090965e-04f, -1.83044995e-05f, 6.45777443e-04f, -1.76311150e-04f, -4.03791986e-04f, -4.92244784e-04f, 2.00180031e-04f, 7.76683970e-04f,
    -9.95751587e-04f, -8.98214581e-04f, -6.87456864e-04f, -1.12199294e-03f, -1.44881924e-04f, -1.14824128e-04f, 1.36071898e-03f, 9.52592760e-04f,
    9.50270987e-05f, -1.33590121e-03f, -3.40863917e-04f, -1.04992429e-03f, 8.16106040e-04f, 1.38436363e-03f, 1.64210668e-03f, -3.94524512e-04f,
    1.24314253e-03f, 5.25975949e-04f, -7.30290922e-05f, 1.33976841e-03f, -2.09258884e-04f, 1.33654801e-03f, 2.94938055e-03f, 3.70847440e-04f,
    -1.26858256e-04f, 1.62345788e-03f, 1.75881010e-04f, 1.79981755e-03f, 1.18449912e-03f, 1.45709910e-03f, 1.18331111e-03f, 1.96001935e-03f,
    9.36576398e-04f, -1.06726633e-03f, -4.35461086e-04f, -4.26354673e-04f, -3.38956993e-03f, -3.94665636e-03f, -3.33897839e-03f, -3.35384323e-03f,
    -3.44330934e-03f, -3.64964153e-03f, -1.47930312e-03f, -1.17947813e-03f, -7.24885249e-05f, -2.09829793e-03f, -4.90910024e-04f, -7.99531190e-05f,
    -2.31321040e-03f, -1.83744659e-03f, -8.54282407e-04f, -3.64561705e-03f, -3.43191763e-03f, -3.83661198e-03f, -1.06932013e-03f, -2.64175888e-03f,
    -1.99332437e-03f, -3.04253260e-03f, -2.83213099e-03f, -4.18798206e-03f, -1.54770503e-03f, 4.82356409e-05f, -1.07372866e-03f, -1.68861088e-03f,
    1.40401360e-03f, 2.77206622e-04f, 2.37337104e-03f, 4.63439804e-03f, 3.61390109e-03f, -3.67595744e-03f, -2.24891119e-03f, -4.02705465e-03f,
    -2.92893685e-03f, -1.77517778e-03f, -3.44736106e-03f, -2.90933414e-03f, -1.90922467e-03f, -3.68858385e-03f, 1.10464275e-03f, -2.73583690e-04f,
    -8.94477824e-04f, 4.99204441e-04f, 7.71606574e-04f, -9.05340130e-04f, -2.07236013e-03f, -4.38908639e-04f, -3.22401786e-04f, -1.95225282e-03f,
    -9.81857534e-04f, -5.32462000e-05f, -2.04336084e-03f, 1.25535109e-04f, -1.12877235e-04f, -2.02803570e-03f, -1.30447291e-03f, -2.62095680e-04f,
    -7.07267299e-02f, -2.27454454e-02f, -1.33507522e-02f, -5.09578399e-02f, 1.30847339e-02f, 1.67901125e-02f, -8.02415516e-03f, 2.25020703e-02f,
    7.02618249e-03f, -2.00437922e-02f, -1.89844817e-02f, -8.66358168e-03f, -6.03586482e-03f, -3.26948054e-02f, 7.53255049e-03f, -6.39055204e-03f,
    -1.58695970e-02f, -1.29811633e-02f, 9.38606635e-03f, 3.50053161e-02f, 3.58059593e-02f, -3.15110125e-02f, -3.79745364e-02f, -1.94558855e-02f,
    2.33685113e-02f, 2.58917995e-02f, 2.65886635e-02f, 2.16335244e-02f, -1.19916098e-02f, -4.18168567e-02f, -1.80101804e-02f, -3.10357865e-02f,
    -2.11089347e-02f, -3.23779248e-02f, 9.36430413e-03f, -8.16770643e-03f, -5.16886794e-05f, -7.94385001e-02f, -2.05293149e-02f, -3.36705111e-02f,
    -1.19919322e-01f, -4.30882946e-02f, 1.98231116e-02f, -4.36615758e-02f, -4.95145097e-03f, 1.54590188e-02f, 1.08865723e-01f, 6.41216487e-02f,
    5.08532785e-02f, 6.88718855e-02f, 1.76849030e-02f, 6.27917498e-02f, 3.95198427e-02f, 4.12081592e-02f, -4.00555953e-02f, -4.40504923e-02f,
    6.26236154e-03f, -4.33551371e-02f, -7.73382485e-02f, -7.11402148e-02f, 1.61917657e-02f, 2.60443948e-02f, -1.59169771e-02f, -5.64072505e-02f,
    -1.69912615e-04f, 3.22832173e-04f, -5.29172085e-02f, -4.87123281e-02f, -1.67515390e-02f, -5.40057346e-02f, -5.75121231e-02f, -2.38292646e-02f,
    5.42926863e-02f, 8.44008625e-02f, -1.43712563e-02f, 4.46936525e-02f, 9.97518301e-02f, -2.61285920e-02f, -5.69522800e-03f, 3.09796166e-02f,
    -1.73411705e-02f, 5.58162713e-03f, 5.64988554e-02f, 6.10566027e-02f, -1.21991094e-02f, -1.39617296e-02f, 1.68552753e-02f, 5.38477860e-02f,
    4.45139557e-02f, 6.67428970e-02f, 5.51413372e-03f, 3.90604176e-02f, 5.62410280e-02f, -2.58205598e-03f, -3.14162113e-02f, -1.76274199e-02f,
    7.46575296e-02f, 4.91918512e-02f, 2.38030870e-02f, -1.40394391e-02f, 3.88740737e-04f, -8.38057771e-02f, 6.07846938e-02f, 7.31029958e-02f,
    -7.24331364e-02f, 1.22535275e-02f, 7.69487023e-03f, -3.54532078e-02f, 2.38352548e-02f, 3.18084583e-02f, 3.60215195e-02f, -5.54090627e-02f,
    -3.21515352e-02f, 2.06565727e-02f, -4.19882499e-02f, -3.53516527e-02f, -1.73781812e-02f, 8.61096755e-03f, 3.28716226e-02f, -1.55979991e-02f,
    4.61409725e-02f, -1.43454578e-02f, 3.05811036e-03f, 6.62535578e-02f, 4.61152010e-03f, 1.57799888e-02f, -2.69230325e-02f, -3.92764509e-02f,
    1.95341688e-02f, -2.88656000e-02f, -4.87451665e-02f, -3.30372602e-02f, -9.38350055e-03f, 3.35856751e-02f, 3.69220674e-02f, 2.30658036e-02f,
    1.19541921e-02f, -2.79669464e-02f, 5.61875813e-02f, 5.70929572e-02f, 1.10184904e-02f, -5.18282736e-03f, -2.12703366e-02f, -3.97206470e-02f,
    5.21778651e-02f, 4.38776016e-02f, 8.12654325e-04f, 1.61563590e-01f, 2.32890561e-01f, 1.45675421e-01f, 4.33613434e-02f, 1.00041188e-01f,
    6.27036765e-02f, -3.86865735e-02f, -6.10728711e-02f, -3.08113489e-02f, 1.86838093e-03f, 4.60023843e-02f, 3.76653560e-02f, -6.21250458e-02f,
    1.86248962e-03f, -1.58806369e-02f, -1.78335607e-02f, 1.13176620e-02f, -1.33023253e-02f, -1.33788586e-02f, 2.27883998e-02f, -4.00602818e-02f,
    -9.13194194e-03f, 1.25161363e-02f, -1.99644249e-02f, -1.04110828e-02f, -6.10603765e-02f, -8.62283111e-02f, -2.59642713e-02f, -7.22839832e-02f,
    -9.61849391e-02f, 6.41443359e-04f, -2.71920282e-02f, -6.20205291e-02f, -3.91060077e-02f, -1.76663380e-02f, -2.74245869e-02f, 3.96781834e-03f,
    3.00680399e-02f, 2.55154651e-02f, -2.59518996e-02f, -1.36632947e-02f, -5.71238995e-03f, -7.50675844e-03f, 7.82901514e-03f, -2.32961513e-02f,
    -4.04661037e-02f, -5.45223104e-03f, -4.96086888e-02f, 1.70406420e-02f, 4.20036986e-02f, 6.21536979e-03f, 7.13108033e-02f, 6.11528009e-02f,
    3.49700935e-02f, 2.41479427e-02f, -3.93686406e-02f, -3.35162394e-02f, 8.12451169e-02f, 2.92798728e-02f, 5.33621013e-02f, 4.15171236e-02f,
    3.81854246e-03f, 2.55105048e-02f, 3.92083153e-02f, 1.27710206e-02f, 2.62514111e-02f, -5.46855070e-02f, -5.44655211e-02f, -4.64116111e-02f,
    -1.20111099e-02f, 3.55022028e-02f, 3.68417166e-02f, -4.47331332e-02f, 1.40806347e-01f, 2.66323406e-02f, -3.43896523e-02f, 7.92628601e-02f,
    -6.37678488e-04f, -5.69928810e-02f, -2.62226444e-02f, -1.91959552e-02f, -2.67123915e-02f, 1.34373009e-02f, -3.60212056e-04f, -9.75953266e-02f,
    -7.82969818e-02f, -8.43188614e-02f, -9.33544412e-02f, -2.79718470e-02f, -4.90810722e-02f, -7.82450885e-02f, -1.52618503e-02f, -2.17911303e-02f,
    -6.03144802e-02f, -4.51974124e-02f, 1.45375938e-03f, -1.61569268e-02f, 1.78903546e-02f, 4.00935225e-02f, 2.52071954e-02f, 5.45653747e-04f,
    4.81048189e-02f, -3.24178338e-02f, -8.14096108e-02f, 5.09456848e-04f, -7.35207286e-05f, 2.78859660e-02f, 2.73268335e-02f, 2.29441151e-02f,
    -7.03893928e-03f, 2.59816516e-02f, 2.46045515e-02f, 3.22094709e-02f, 3.97889651e-02f, -2.25276556e-02f, -8.06938298e-03f, -1.06291911e-02f,
    -9.70203429e-03f, 8.72616004e-03f, 2.01590061e-02f, -6.51294738e-03f, 1.61703210e-02f, -7.95876980e-03f, 1.51812984e-02f, 5.06098978e-02f,
    1.72408056e-02f, -1.43503491e-02f, -2.57460456e-02f, -2.21008044e-02f, 3.97529528e-02f, 4.55462150e-02f, 3.30589861e-02f, -6.82540983e-02f,
    -3.16707343e-02f, -5.09400219e-02f, -6.52626380e-02f, -4.91338409e-02f, -6.06297553e-02f, -7.70570114e-02f, -7.12720901e-02f, -9.69401151e-02f,
    -3.39706894e-03f, -2.16654968e-03f, -3.91368242e-03f, -3.94845381e-03f, -3.06549808e-03f, -5.64704835e-03f, -3.47986002e-03f, -4.28460073e-03f,
    -4.87015909e-03f, -7.59976218e-04f, -9.38940037e-04f, -2.86694383e-03f, -1.35369634e-03f, -1.59510493e-03f, -2.48075766e-03f, -8.69159048e-05f,
    -7.71824853e-05f, -1.93414264e-04f, 1.53767745e-04f, 1.06640765e-03f, 1.82611425e-03f, 1.34297321e-03f, 2.36044149e-03f, 3.36325658e-03f,
    1.00434443e-03f, 2.36758101e-03f, 2.32777232e-03f, -5.49791730e-04f, 5.42839582e-04f, 1.49652862e-03f, 1.34141697e-03f, 1.37766323e-03f,
    1.99849601e-03f, 1.92820781e-03f, 1.70202984e-03f, 1.94219418e-03f, 3.75463220e-04f, -1.00138050e-03f, -9.21990140e-04f, 8.42932030e-04f,
    -7.89935075e-05f, -2.70998426e-04f, 2.14630296e-03f, 1.16370176e-03f, 8.46884388e-04f, 1.44095684e-03f, 1.03195908e-03f, 1.56779448e-03f,
    6.48601039e-04f, 2.65340583e-04f, 8.61078501e-04f, -9.98334377e-04f, -1.50870229e-03f, -1.09139201e-03f, -1.94112689e-03f, -2.01114872e-03f,
    -2.02344637e-03f, -3.97617416e-03f, -4.18729614e-03f, -3.08065023e-03f, -2.36844737e-03f, -2.44871550e-03f, -1.94966479e-03f, 3.44082620e-03f,
    2.56668660e-03f, 1.59814593e-03f, 3.47641576e-03f, 2.73459964e-03f, 1.92938338e-03f, 1.34748907e-03f, 1.28025422e-03f, 8.77309067e-04f,
    2.59084976e-03f, 1.84137828e-03f, 2.52914941e-03f, 3.37570580e-03f, 3.18926270e-03f, 3.71806440e-03f, 2.59956834e-03f, 3.26030888e-03f,
    2.94818473e-03f, 8.21009337e-04f, 4.35155962e-04f, 6.64764142e-04f, 1.64250843e-03f, 5.04127587e-04f, 6.75710384e-04f, 3.90352658e-03f,
    2.61605182e-03f, 3.03719030e-03f, 1.47611601e-04f, -2.64961505e-04f, -1.68918137e-04f, 4.69688268e-04f, 2.63861148e-04f, 5.25571289e-04f,
    1.02735241e-03f, 5.10743877e-04f, 4.97845467e-04f, -2.93312798e-04f, -9.34951066e-04f, -1.03474094e-03f, 6.09116221e-04f, 1.90159772e-03f,
    4.55675152e-04f, 1.81376433e-03f, 2.31115124e-03f, 7.32252200e-04f, -1.26704690e-03f, -3.34050914e-04f, 1.44750706e-03f, -2.16222179e-04f,
    4.66304482e-04f, 2.92811519e-03f, -1.86091510e-03f, -1.33080699e-03f, 3.67638684e-04f, 4.23123408e-03f, 2.95786187e-03f, 4.65280609e-03f,
    3.89008387e-03f, 2.14845128e-03f, 4.89646522e-03f, 6.19043317e-03f, 5.88501897e-03f, 6.72442326e-03f, 2.57237058e-04f, 9.70609908e-05f,
    8.33022990e-04f, 3.02026339e-04f, 7.40693009e-04f, 8.18365254e-04f, -1.74147077e-03f, -1.24150608e-03f, -1.52216479e-03f, -2.37249164e-03f,
    -1.75415305e-03f, -7.56111578e-04f, -3.90256615e-03f, -3.14897299e-03f, -1.49290194e-03f, -3.74155026e-03f, -2.94596190e-03f, -2.59327819e-03f,
    1.81598127e-01f, 6.63052574e-02f, 1.01424538e-01f, 7.33615160e-02f, -7.47950524e-02f, 4.44865460e-03f, 8.11234489e-02f, -9.46928654e-03f,
    1.78357027e-02f, -1.32585485e-02f, -3.54345478e-02f, -1.29191270e-02f, -1.55125847e-02f, -4.56766486e-02f, -2.75221057e-02f, 8.27619154e-03f,
    -3.13651189e-02f, 9.73059051e-03f, -4.27415185e-02f, -1.19352471e-02f, -4.46447618e-02f, 3.92827541e-02f, 6.70542568e-02f, 1.73490196e-02f,
    7.80050177e-04f, 7.35465484e-03f, -2.89595015e-02f, -2.41283178e-02f, 1.08301342e-02f, 4.31621000e-02f, 1.72773674e-02f, 3.78255360e-02f,
    4.91213836e-02f, 6.94239289e-02f, 3.81855033e-02f, 1.85567737e-02f, -3.43228877e-02f, -2.95688547e-02f, -4.70875427e-02f, -1.74514372e-02f,
    1.31427934e-02f, -2.63241846e-02f, -2.91376524e-02f, 3.85166612e-03f, -3.68672945e-02f, -8.69763643e-03f, 3.95667218e-02f, 7.74648041e-02f,
    -5.74432276e-02f, 2.20527630e-02f, 1.18914127e-01f, -3.18185650e-02f, -9.01794434e-03f, 1.56961649e-03f, 3.86559516e-02f, 1.19312946e-02f,
    -2.50563845e-02f, 2.75946688e-03f, 4.03571278e-02f, 2.18757186e-02f, -1.91530474e-02f, 2.38716453e-02f, 7.60770068e-02f, -3.80371399e-02f,
    -3.33495401e-02f, -8.38358477e-02f, 2.76998319e-02f, 2.34734621e-02f, -2.19784584e-02f, -1.49935586e-05f, 1.11051016e-02f, -4.73226905e-02f,
    5.52300885e-02f, -1.22186197e-02f, -2.01387592e-02f, 9.48020592e-02f, -2.34853756e-02f, -9.87975374e-02f, 8.35524201e-02f, 2.15597171e-02f,
    -6.40400052e-02f, -1.45968050e-02f, -3.22803855e-02f, -3.18109393e-02f, 1.41921733e-02f, 2.41901726e-02f, 5.10907406e-03f, -7.13944808e-02f,
    -1.85204409e-02f, -4.26839069e-02f, -1.07361320e-02f, -8.80975090e-03f, 2.82669794e-02f, -2.08261982e-02f, 3.99740227e-03f, 4.27411832e-02f,
    -4.52211946e-02f, -1.23466142e-02f, -4.77618334e-04f, -8.07105284e-03f, 2.99108513e-02f, 6.97956234e-02f, -3.86008807e-02f, -2.73853373e-02f,
    4.63699922e-02f, -4.80944999e-02f, -3.05938441e-02f, -8.56877537e-04f, 4.97887190e-03f, -1.38319116e-02f, -8.07341188e-02f, -9.51422658e-03f,
    -3.04218456e-02f, -5.63554019e-02f, -2.57989038e-02f, -5.91449663e-02f, -5.65457270e-02f, 6.68613166e-02f, 3.84193324e-02f, -4.17614095e-02f,
    3.07355747e-02f, -2.20826473e-02f, -5.89157231e-02f, -3.78186628e-02f, -2.92119738e-02f, -2.56747231e-02f, -2.41561029e-02f, 7.71507563e-04f,
    -1.89766027e-02f, -7.67093003e-02f, -3.62921618e-02f, -8.95643458e-02f, -9.43039954e-02f, -7.59764537e-02f, -1.35006949e-01f, 4.28364426e-02f,
    -4.40448262e-02f, 7.15581030e-02f, 3.91001850e-02f, -4.43604328e-02f, 1.04988657e-01f, 1.09301046e-01f, 9.21718031e-02f, 1.69668600e-01f,
    -7.94873014e-02f, -9.38370004e-02f, -4.38742079e-02f, -7.89060071e-02f, -7.52431974e-02f, -2.12233700e-02f, -5.24949171e-02f, -4.14046422e-02f,
    2.22597290e-02f, 9.81454086e-03f, 6.76436210e-03f, -8.63961782e-03f, -8.12862720e-03f, 1.85711533e-02f, -3.44128697e-03f, -1.53240794e-02f,
    -1.76703669e-02f, 3.70679125e-02f, -6.49514934e-03f, -1.15145892e-02f, 1.25207221e-02f, 2.72077788e-03f, -7.67300604e-03f, 9.10856389e-03f,
    -3.01197767e-02f, -3.34775150e-02f, -3.07518058e-02f, -7.21789524e-02f, -5.46269380e-02f, -3.38581167e-02f, -1.45495593e-04f, 1.60125587e-02f,
    3.06372680e-02f, -3.24419029e-02f, -4.05967124e-02f, -2.36060210e-02f, 1.02333397e-01f, 4.50323569e-03f, 5.73018081e-02f, 2.72650179e-02f,
    -1.18644319e-01f, -4.71548736e-02f, 6.80085793e-02f, -3.74731794e-02f, -2.41448097e-02f, -2.69131958e-02f, -4.99637909e-02f, -4.28097211e-02f,
    -6.13468662e-02f, -4.27342616e-02f, -6.98642507e-02f, -4.98693585e-02f, -5.15276305e-02f, -6.37976974e-02f, 1.29966699e-02f, 2.98314486e-02f,
    -2.38239001e-02f, 1.83264017e-02f, 6.43362254e-02f, -2.84894090e-02f, 3.45242731e-02f, 3.01090162e-02f, -8.44319910e-03f, -4.42745863e-03f,
    4.12988067e-02f, -6.42583743e-02f, 1.22349178e-02f, 7.27584213e-02f, -8.00375920e-03f, 5.54113984e-02f, 3.34173851e-02f, 5.36102280e-02f,
    -3.23229805e-02f, 2.19174009e-03f, -1.70124024e-02f, -2.73070037e-02f, 2.30842829e-02f, -7.07676783e-02f, -2.36870181e-02f, 3.98907028e-02f,
    -5.66261671e-02f, 1.83214769e-02f, -1.65478773e-02f, -2.97694420e-03f, 2.09705695e-03f, -1.42337242e-02f, 5.82407741e-03f, -3.03280894e-02f,
    -3.77847552e-02f, -4.98929573e-03f, -1.63309202e-02f, -1.50380179e-03f, -3.21177468e-02f, -7.13242125e-03f, 4.74059917e-02f, -9.03811306e-03f,
    -3.62967290e-02f, -2.19303556e-02f, -5.92471007e-03f, 1.34094646e-02f, 1.76606029e-02f, -7.89851323e-03f, 1.01683326e-02f, 1.51490821e-02f,
    -2.71774046e-02f, 1.61159001e-02f, 7.59010110e-03f, -4.62232530e-02f, 8.85444582e-02f, 4.85380627e-02f, 5.96000776e-02f, 4.70614210e-02f,
    2.28697062e-03f, 2.81426795e-02f, -2.87687499e-02f, -6.27696961e-02f, -3.62449400e-02f, -2.80414931e-02f, -4.24548499e-02f, -1.05958723e-01f,
    -1.17478119e-02f, 2.21426543e-02f, -4.74705063e-02f, 4.32490744e-03f, 2.06535999e-02f, -1.27666751e-02f, -2.15948988e-02f, -1.17276497e-02f,
    2.71662027e-02f, -4.76719299e-03f, -3.51913732e-05f, 5.06060384e-02f, -1.72419101e-02f, 7.85830489e-04f, 1.23712439e-02f, 1.43135702e-02f,
    2.73241475e-03f, 5.81109002e-02f, -3.71489528e-04f, 9.58772562e-03f, 7.04361498e-02f, 3.33180046e-03f, 5.53609915e-02f, 9.03960019e-02f,
    6.83748687e-04f, -1.80407509e-03f, -2.00138567e-03f, 2.06079707e-03f, 1.60999061e-03f, -3.90379137e-04f, -9.74128430e-04f, -1.34771530e-04f,
    2.78975611e-04f, 3.07908165e-04f, 1.21879799e-03f, -1.98138901e-03f, 7.83446885e-04f, 1.36987190e-04f, -1.59913208e-03f, 1.29707798e-03f,
    7.76035595e-04f, 1.03052438e-03f, 1.46109960e-03f, 2.53127189e-03f, 3.86347389e-03f, 7.66962257e-05f, 1.59491191e-03f, 1.05274166e-03f,
    2.63356953e-03f, 2.68906564e-03f, 1.76485395e-03f, 4.33440180e-03f, 5.67365205e-03f, 7.35515496e-03f, 2.84588896e-03f, 3.54886148e-03f,
    5.80749661e-03f, 2.03611702e-03f, 3.18536512e-03f, 4.50220052e-03f, 1.04548968e-03f, 2.45037582e-03f, 1.33550237e-03f, -1.57703261e-03f,
    -6.27691625e-04f, -1.56683463e-03f, -6.99973782e-04f, 2.83750036e-04f, -1.10774490e-05f, -2.64470628e-03f, -7.49420782e-04f, -1.27138209e-03f,
    3.24165943e-04f, -8.50136857e-05f, 9.82581187e-05f, -9.78931668e-04f, -4.92789433e-04f, -1.05988863e-03f, -2.81862379e-03f, -1.88053644e-03f,
    -3.42444750e-03f, -2.00563343e-04f, 5.16178901e-04f, -2.02607247e-03f, -1.41285057e-03f, -2.50430172e-03f, -4.17530909e-03f, 1.72101904e-03f,
    2.44564563e-03f, 3.85485752e-03f, 1.71313307e-03f, -3.03702080e-04f, 2.38033826e-03f, 2.00863276e-03f, 3.07487021e-03f, 3.40989209e-03f,
    5.42465423e-04f, -1.25429273e-04f, 2.27526366e-03f, -1.73252818e-04f, -9.07099515e-04f, 1.35862501e-03f, 1.43384351e-03f, 2.29858421e-03f,
    3.07986280e-03f, -7.74475979e-04f, -3.14727629e-04f, -7.86446093e-04f, 7.86857912e-04f, -8.33834056e-04f, 7.69073493e-04f, 8.79065847e-05f,
    9.43190244e-05f, 5.91950411e-05f, -3.24314111e-03f, -2.54008663e-03f, -3.86089855e-03f, -2.42615119e-03f, -7.17745104e-04f, -1.49240496e-03f,
    -2.43325601e-03f, -2.98079778e-03f, -1.78428215e-03f, -1.48885720e-03f, -1.87651848e-03f, -3.36001930e-03f, -2.11581006e-04f, -1.65048591e-03f,
    -9.61861166e-04f, -7.24427577e-04f, -1.34692213e-03f, -4.60736221e-04f, 3.91530950e-04f, -1.09260145e-03f, 1.76389236e-03f, 2.33284384e-03f,
    3.24224494e-03f, 3.18190432e-03f, 2.04781303e-03f, 1.99250923e-03f, 1.06210832e-03f, 7.61271585e-05f, 4.57877060e-04f, 1.72187702e-03f,
    -1.06964435e-03f, -2.15487598e-04f, 2.46764044e-04f, -8.54202197e-04f, -1.31363154e-03f, -1.56563579e-03f, -3.12723289e-03f, -7.52009393e-04f,
    -1.89098576e-03f, -1.55928289e-03f, 4.04209085e-03f, -9.84333688e-04f, -4.80731111e-03f, -2.91807251e-03f, -4.75127157e-03f, 3.07128369e-03f,
    2.72853626e-03f, 1.77398999e-03f, 2.35690386e-03f, 7.62976764e-04f, 8.35090177e-04f, 3.10209347e-03f, 1.69000006e-04f, 1.21814897e-03f,
    -4.61223871e-02f, -1.33069865e-02f, -6.01638481e-02f, -1.20444484e-02f, -6.70281518e-03f, -9.52753797e-03f, -5.58023416e-02f, -1.87608171e-02f,
    -5.19855656e-02f, 3.38046998e-02f, 7.87356403e-03f, 4.60136645e-02f, -3.66972340e-03f, 2.13647738e-01f, -3.60215232e-02f, -3.67723480e-02f,
    -4.35570888e-02f, -3.14125903e-02f, -3.66178751e-02f, -1.80213191e-02f, -4.24079821e-02f, -1.79551039e-02f, -1.36934817e-02f, -2.56504193e-02f,
    -3.95946950e-02f, -2.33430397e-02f, -4.95417677e-02f, -6.84448332e-02f, -1.03729572e-02f, -2.85917800e-02f, -1.54961348e-02f, -1.90664420e-03f,
    -5.29568121e-02f, -6.69702664e-02f, 2.89400667e-02f, -3.88385840e-02f, -4.04491574e-02f, -2.57154237e-02f, -5.65828905e-02f, 8.63742828e-02f,
    7.71944076e-02f, 3.68073471e-02f, 2.11596023e-02f, 3.58916931e-02f, 2.11630985e-02f, -4.17091288e-02f, -9.01844800e-02f, -6.10318594e-02f,
    -2.85372008e-02f, -2.03820448e-02f, -5.89804305e-03f, 8.11098493e-04f, -1.84832048e-03f, -5.08545116e-02f, -9.41719301e-03f, -2.77287816e-03f,
    -2.98323128e-02f, -7.61220008e-02f, -3.61755863e-02f, -1.41802887e-02f, -1.80091877e-02f, -9.38061904e-03f, -3.06634959e-02f, 2.23835129e-02f,
    2.86856182e-02f, -6.85747713e-02f, 3.51861529e-02f, -1.60594620e-02f, 9.13710333e-03f, 5.39536076e-03f, 3.58789898e-02f, 3.80690619e-02f,
    -3.71708386e-02f, -3.83798555e-02f, 1.87002886e-02f, 3.44283693e-02f, 2.18111854e-02f, -2.57018581e-03f, -8.29927158e-03f, -1.09974146e-02f,
    3.05047333e-02f, 7.85796791e-02f, 3.60389091e-02f, 1.31810643e-02f, 5.30327335e-02f, -3.42235006e-02f, 2.68603209e-03f, 3.18843164e-02f,
    6.12758808e-02f, 7.49436021e-02f, 5.29407859e-02f, -1.74697619e-02f, -1.49226449e-02f, 2.83118989e-03f, -9.61770653e-04f, 6.60576448e-02f,
    3.45080160e-02f, 2.11091172e-02f, 1.46843949e-02f, -2.66029220e-03f, 4.64524899e-04f, -2.42558550e-02f, 1.74993519e-02f, -2.70437039e-02f,
    1.59522425e-02f, 2.07560230e-03f, -2.54420526e-02f, -3.79345454e-02f, 3.97365801e-02f, 3.20381299e-02f, 7.22423419e-02f, -4.76848744e-02f,
    3.73197831e-02f, 5.42733259e-02f, -6.97567826e-03f, 1.36508076e-02f, 2.91447304e-02f, -1.31143341e-02f, -1.87001005e-02f, -3.99990156e-02f,
    -5.59596112e-03f, -3.18128020e-02f, -1.04273134e-03f, -2.21883487e-02f, -3.52345407e-02f, 2.33877727e-04f, 2.99398843e-02f, -3.12516652e-02f,
    4.36772685e-03f, 1.83369778e-02f, -1.07408762e-02f, -4.49252389e-02f, 6.80503771e-02f, 2.99437456e-02f, 1.69516727e-02f, -4.82121073e-02f,
    -6.62798956e-02f, -6.94637597e-02f, -3.86140980e-02f, -4.06564213e-02f, -3.25784199e-02f, -2.25974787e-02f, -9.90467728e-04f, -8.85721017e-03f,
    -2.58522034e-02f, 1.61854327e-02f, -1.42095629e-02f, -6.17627464e-02f, -2.40117572e-02f, -5.89245409e-02f, -2.72614844e-02f, -3.78804468e-02f,
    -4.15797979e-02f, -3.59598882e-02f, -5.42329103e-02f, -2.57178992e-02f, 1.91354305e-02f, 4.24321927e-02f, -3.15704420e-02f, -6.48510009e-02f,
    -7.05864802e-02f, -6.39986694e-02f, -2.52030268e-02f, 2.64753699e-02f, -2.92617939e-02f, 1.60698779e-02f, -1.71484873e-02f, 5.60670793e-02f,
    -2.49171406e-02f, 5.75351678e-02f, 3.66104431e-02f, -5.22272103e-03f, 8.86867347e-05f, 1.12549337e-02f, 5.04536889e-02f, -8.02937429e-03f,
    6.14281558e-02f, 5.73144406e-02f, 7.59117603e-02f, 5.96820302e-02f, -2.61454675e-02f, -2.42464971e-02f, -5.27421013e-02f, -1.24934418e-02f,
    1.82260796e-02f, -2.84908386e-03f, -6.36555031e-02f, -2.19467953e-02f, -4.51520085e-02f, 7.13750347e-03f, -3.02680656e-02f, 2.95964032e-02f,
    -1.94157809e-02f, -3.07620298e-02f, -1.85869448e-02f, 9.84451827e-03f, -4.08281460e-02f, -1.60559136e-02f, -4.54542264e-02f, -1.23785520e-02f,
    3.25553380e-02f, -7.85266086e-02f, -4.33305390e-02f, -2.29950435e-03f, -1.90977119e-02f, -4.11293171e-02f, -4.61639557e-03f, 4.84703248e-03f,
    8.25372059e-03f, 4.71734151e-04f, -2.56730709e-02f, -1.01844396e-03f, 7.16010109e-03f, -3.39667834e-02f, 1.43658172e-03f, -1.97999328e-02f,
    -4.23759632e-02f, -4.10631439e-03f, -2.52965093e-02f, -2.22913250e-02f, 5.67977801e-02f, 1.52779380e-02f, -3.60058583e-02f, 3.01435106e-02f,
    -4.46601138e-02f, 1.43470233e-02f, 2.75702658e-03f, 2.73134038e-02f, 3.50193195e-02f, -1.02881398e-02f, -4.21489868e-03f, 9.12006870e-02f,
    5.53271323e-02f, 3.27920844e-03f, -1.26067980e-03f, -1.17130000e-02f, -1.32611981e-02f, 2.53078062e-02f, 1.63494840e-01f, 1.96162425e-02f,
    -6.12954143e-03f, -3.80299054e-03f, -1.59512591e-02f, -3.76393870e-02f, -5.01500629e-02f, -1.87781937e-02f, 3.40502779e-03f, -3.59487943e-02f,
    4.42681694e-03f, -3.75483856e-02f, -6.12739585e-02f, 3.03934980e-03f, 7.80292526e-02f, 1.05779901e-01f, 7.74418861e-02f, 8.34517628e-02f,
    5.28861992e-02f, 3.91332284e-02f, 6.63992539e-02f, 6.99946880e-02f, 9.05947164e-02f, -6.77642925e-03f, -1.52504677e-02f, -2.24643331e-02f,
    8.39760974e-02f, 5.88930286e-02f, 6.53165951e-02f, 3.77044380e-02f, 2.35057529e-02f, 4.92374040e-02f, 2.52467170e-02f, -1.61780342e-02f,
    -1.98334060e-03f, 8.00430477e-02f, 2.44463701e-02f, -3.55632007e-02f, -1.80541687e-02f, -4.02067080e-02f, 6.71697827e-03f, 8.75695422e-02f,
    1.05688229e-01f, 7.19025433e-02f, 4.68006134e-02f, 5.81477396e-02f, 7.95099512e-02f, 3.23621072e-02f, 9.04477537e-02f, 5.65603077e-02f,
    3.06371204e-03f, 3.05638346e-03f, 3.03774583e-03f, 1.11442653e-03f, 3.37115140e-03f, 1.19735487e-03f, 1.57787779e-03f, 2.96020135e-03f,
    1.85817655e-03f, -2.83633219e-03f, -4.04086756e-03f, -5.97783923e-03f, -2.57732510e-03f, -4.88709426e-03f, -6.91723917e-03f, -4.28620540e-03f,
    -4.90456494e-03f, -7.29711214e-03f, -7.88252160e-04f, -1.09275640e-03f, 9.82342986e-04f, -9.94983013e-04f, -1.25629222e-03f, 3.19141982e-04f,
    5.22801474e-06f, 3.19306884e-04f, 8.68604751e-04f, 1.86376460e-03f, 1.03890849e-03f, 2.35090661e-03f, 5.47065574e-05f, -1.13888411e-03f,
    2.89768970e-04f, -1.74263201e-03f, -1.20086200e-03f, -8.21142283e-04f, -2.35376763e-03f, -9.46534739e-04f, 5.40893991e-04f, -1.23771746e-03f,
    -1.95681397e-03f, -9.24861350e-04f, -1.16056064e-03f, -8.93800054e-04f, -5.98304556e-04f, 2.59166176e-04f, -5.55129955e-04f, 1.87411450e-03f,
    -1.99288502e-03f, -1.30904641e-03f, 7.61723932e-05f, 5.62116387e-04f, 2.63619411e-04f, 1.19365263e-03f, -1.64465851e-03f, -2.69233086e-03f,
    -3.84228979e-03f, -5.69835654e-04f, 1.56361522e-04f, -1.60059892e-03f, 3.45023582e-04f, -7.92691659e-04f, -9.57194250e-04f, -1.90674342e-04f,
    6.73731382e-04f, 9.62818041e-04f, -1.11914286e-03f, 1.15378655e-03f, 8.82709166e-04f, -3.50216310e-03f, -2.72264262e-03f, -3.51430033e-03f,
    1.70912093e-03f, 1.96185033e-03f, 2.12152139e-03f, 4.07643965e-04f, 1.79082199e-04f, 5.55821927e-04f, 9.76513315e-04f, 6.78186538e-04f,
    1.33064506e-03f, 2.56354106e-03f, 2.07920047e-03f, 1.25369173e-03f, 5.65836672e-05f, -4.06367588e-04f, 3.69849731e-04f, 1.26252940e-04f,
    -4.18626907e-04f, 4.77955939e-04f, 7.69123668e-04f, 7.36893679e-04f, -6.87803084e-04f, 3.32412135e-04f, 2.05400749e-04f, -8.47851858e-04f,
    2.13855761e-03f, 1.23829639e-03f, 1.49738125e-03f, -3.15264193e-03f, -2.36563291e-03f, -2.17017229e-03f, -2.95677735e-03f, -2.06388533e-03f,
    -1.21380377e-03f, 1.60811900e-03f, 3.26300331e-04f, 1.89139589e-03f, 2.66495626e-03f, 1.43605075e-03f, 1.70204905e-03f, 1.05481676e-03f,
    2.38486403e-03f, 1.89644098e-03f, 2.05346919e-03f, 2.00459198e-03f, 2.16396968e-03f, 3.78650264e-03f, 2.63987901e-03f, 2.93814717e-03f,
    3.61155323e-03f, 2.59445445e-03f, 3.03628156e-03f, 3.51646915e-03f, 1.74805359e-03f, 2.04607076e-03f, -9.57646291e-04f, -2.48583080e-03f,
    -2.70649418e-03f, -3.94291594e-04f, -5.24103059e-04f, -1.83257426e-03f, 8.61929846e-04f, -5.04304597e-04f, -1.57263083e-03f, -1.14194094e-03f,
    -3.06514790e-03f, -3.34710814e-03f, -1.82421051e-03f, -4.93028946e-03f, -3.83672817e-03f, -1.84646493e-03f, -3.79257184e-03f, -3.27484286e-03f,
    -9.17035118e-02f, -3.67073230e-02f, -8.33883807e-02f, -4.44413088e-02f, -2.28543822e-02f, -5.37999161e-03f, -2.53121443e-02f, 3.03875767e-02f,
    3.91676202e-02f, -4.05795826e-03f, -3.78857069e-02f, -9.97700915e-03f, -2.26338673e-03f, -1.17727127e-02f, -2.52300464e-02f, -4.62482078e-03f,
    1.98985822e-02f, 1.82976760e-02f, 2.29728092e-02f, 1.70905758e-02f, 8.21841601e-03f, -5.33967838e-02f, -6.96404129e-02f, -4.79813851e-02f,
    -1.31520992e-02f, -2.46145856e-02f, -4.86319466e-03f, 5.46824262e-02f, -6.13995781e-03f, -3.20242904e-02f, 3.25217508e-02f, -6.22712113e-02f,
    -6.36997893e-02f, 7.35110492e-02f, 8.61391351e-02f, 5.35613224e-02f, 1.51982310e-03f, -1.73858404e-02f, -2.62116957e-02f, 2.42715497e-02f,
    -4.44439519e-03f, 1.07521843e-02f, 1.82980951e-02f, -2.51860563e-02f, 6.51538698e-03f, -1.45469862e-03f, 3.27956006e-02f, 5.64316213e-02f,
    -2.06043338e-03f, 9.31334123e-03f, 6.06702305e-02f, 1.81861017e-02f, 1.79389957e-03f, 1.00611918e-01f, -3.32305729e-02f, -1.78552046e-02f,
    5.24874255e-02f, -4.09723818e-02f, -3.03722173e-02f, 3.13819721e-02f, 3.28189097e-02f, 7.78826848e-02f, 7.51199871e-02f, -3.46201584e-02f,
    3.88952047e-02f, -2.55733784e-02f, 2.07080152e-02f, -3.43774557e-02f, 1.80617198e-02f, 4.04833816e-02f, 5.48767112e-02f, 4.57829759e-02f,
    8.12344477e-02f, 1.73810348e-02f, -2.28052437e-02f, -7.15967175e-03f, -4.30879481e-02f, -4.68558632e-02f, 8.01054686e-02f, -2.24690535e-03f,
    -1.97494533e-02f, 5.22011425e-04f, 4.86511290e-02f, 1.42654143e-02f, 2.71103736e-02f, -6.08319230e-02f, -1.99364237e-02f, 9.38892514e-02f,
    -6.66079111e-03f, 7.23361410e-03f, -1.43766515e-02f, 1.52549446e-02f, 2.74627507e-02f, -1.73270404e-02f, -5.54887541e-02f, -1.45656625e-02f,
    1.92718208e-02f, 1.30431782e-02f, 3.77160832e-02f, -1.80960633e-03f, -2.91058607e-03f, -4.13670503e-02f, 5.01077697e-02f, 1.39812715e-02f,
    -2.40083393e-02f, 2.27250904e-02f, -6.85622869e-03f, -3.37587185e-02f, 5.07056387e-03f, -3.47013697e-02f, 7.69134909e-02f, -3.74007039e-02f,
    1.27080176e-02f, 2.52966769e-02f, 4.69280146e-02f, 2.43003890e-02f, 3.11575644e-02f, -2.67325882e-02f, -8.87749437e-03f, -2.07131286e-03f,
    3.42104882e-02f, -2.90969834e-02f, 1.24397287e-02f, 2.31528655e-02f, -2.06741560e-02f, -8.21659341e-03f, -2.20693089e-02f, -9.84646454e-02f,
    -7.55397528e-02f, 1.25033865e-02f, -1.67456809e-02f, -4.91860621e-02f, 1.97394993e-02f, 1.41212232e-02f, 4.01931778e-02f, 1.43257510e-02f,
    4.26398404e-02f, 9.22024921e-02f, -9.13879871e-02f, -1.07171595e-01f, -4.43411693e-02f, 3.56835574e-02f, 3.07933949e-02f, 3.54777537e-02f,
    -6.38862625e-02f, -5.01146242e-02f, -6.43909946e-02f, -7.01729283e-02f, 1.07131526e-02f, -4.80332449e-02f, -2.34090518e-02f, 1.53410751e-02f,
    8.53892998e-04f, 1.54949367e-01f, 5.78054599e-02f, 9.03967619e-02f, 1.09044299e-01f, 1.27932340e-01f, 4.08678018e-02f, 7.91310817e-02f,
    4.43210825e-02f, 2.19513625e-02f, -2.65900549e-02f, 5.12154819e-03f, 7.33485296e-02f, -8.43603164e-02f, -1.57662302e-01f, 1.78796134e-03f,
    1.16642341e-02f, 1.15549928e-02f, 8.81802589e-02f, 4.85624894e-02f, 1.28387231e-02f, 2.09461059e-02f, -4.39707339e-02f, -9.18504894e-02f,
    -2.68837269e-02f, 1.33341029e-02f, -1.10324509e-02f, 2.36381199e-02f, 5.18339425e-02f, 6.63918164e-03f, 4.38036397e-02f, -8.15298781e-03f,
    -5.20604067e-02f, -2.28856271e-03f, -7.42937147e-04f, 2.36331252e-03f, 2.14978419e-02f, -4.11947221e-02f, 1.06928917e-02f, -5.52731846e-03f,
    -4.94962148e-02f, 1.88853722e-02f, -2.16084030e-02f, 4.94604632e-02f, 4.92453985e-02f, 4.06394266e-02f, -6.56485111e-02f, -7.40786195e-02f,
    -7.73381963e-02f, -3.38172093e-02f, -4.99860384e-02f, -9.04537505e-04f, -2.81266738e-02f, -4.82114181e-02f, -2.18122639e-03f, -1.53203448e-02f,
    -5.42251915e-02f, -6.85649458e-04f, -9.22502354e-02f, -5.62746897e-02f, -6.09154552e-02f, -4.51446176e-02f, 1.64283551e-02f, -9.58147459e-03f,
    -1.69764441e-02f, -3.53478082e-02f, -2.61401143e-02f, -8.51706043e-02f, 2.88759870e-03f, -5.43133877e-02f, -6.56926334e-02f, -5.66188188e-04f,
    -2.93136016e-02f, 7.75137171e-02f, 3.79721238e-03f, 3.70008126e-02f, -1.97003074e-02f, -1.89963654e-02f, -5.19796321e-03f, -5.29433489e-02f,
    -2.21459512e-02f, -1.68518033e-02f, 1.82288066e-02f, -8.38509127e-02f, -8.26678891e-03f, 4.69183968e-03f, -3.76694500e-02f, -5.39073069e-03f,
    4.79051992e-02f, 3.80096212e-02f, 3.59673984e-02f, 2.11807322e-02f, 1.70690343e-02f, 3.98478508e-02f, 4.20799777e-02f, -3.28591242e-02f,
    6.30799681e-02f, -1.19703626e-02f, -3.63115519e-02f, 1.14373779e-02f, 1.08195513e-01f, 1.61315396e-01f, 1.09402947e-01f, -7.47482330e-02f,
    -1.28339678e-01f, -7.55109414e-02f, 1.63532823e-01f, 1.88954577e-01f, 1.74526349e-01f, -3.92603800e-02f, -4.50318865e-02f, -4.53498252e-02f,
    -2.38873102e-02f, -2.35159229e-03f, -9.17013735e-03f, -6.40991004e-03f, 1.84176676e-03f, 1.52984709e-02f, 3.87906320e-02f, 3.76830883e-02f,
    1.49813667e-02f, 2.33797729e-02f, -3.51492576e-02f, -7.88755622e-03f, 9.53481160e-03f, -1.54994652e-02f, 1.42990192e-02f, 2.07201093e-02f,
    -3.35560716e-03f, 5.13435006e-02f, -1.77353043e-02f, -9.38552469e-02f, -6.36365265e-03f, 2.38505751e-02f, -1.61143895e-02f, -9.95842274e-03f,
    7.49601924e-04f, 1.50510028e-03f, 5.01622504e-04f, 1.68448326e-03f, 1.81818940e-03f, 1.56587700e-03f, -1.36008509e-03f, -1.03035150e-03f,
    -1.04392401e-03f, 8.14839004e-05f, 7.31989508e-04f, -4.90183229e-05f, -7.05354731e-04f, -8.78546445e-04f, -9.77355056e-04f, 2.08838470e-03f,
    1.46329752e-03f, 5.68291696e-04f, -6.76393567e-04f, 3.80083773e-04f, -1.25765728e-04f, -1.35431270e-04f, 6.39627164e-04f, 4.25735634e-04f,
    1.38832291e-03f, 1.73602847e-03f, 1.47755747e-03f, 1.57210662e-03f, 1.24673569e-03f, 4.30665212e-04f, 8.65421025e-04f, 6.88481377e-04f,
    -7.05530751e-04f, 1.38658471e-03f, 5.57021413e-04f, -5.81342611e-04f, -1.26068341e-03f, -1.25140324e-03f, -2.03143037e-03f, -1.30055530e-03f,
    -1.86831946e-03f, -2.58896593e-03f, -1.55915332e-03f, -2.34950706e-03f, -2.86669820e-03f, -1.92892121e-03f, -1.69182429e-03f, -1.49690558e-03f,
    -2.19999673e-03f, -1.94529875e-03f, -1.82942790e-03f, -3.26089864e-03f, -3.21583170e-03f, -2.16502207e-03f, -3.54134972e-04f, 3.42219457e-04f,
    -8.18339759e-04f, -7.11039320e-06f, 1.43267956e-04f, -5.55364997e-04f, -6.70544396e-04f, -1.20066223e-03f, -1.30095147e-03f, -4.23790683e-04f,
    -9.11426672e-04f, 2.60879722e-04f, 1.55398971e-04f, -4.31140856e-04f, -2.66959378e-05f, 1.72369729e-03f, 1.94093143e-03f, 1.67419820e-03f,
    3.77447956e-04f, -7.61080126e-04f, 8.56325205e-04f, 1.53199327e-03f, 1.38914376e-03f, 1.97062735e-03f, 6.41790044e-04f, 9.54237825e-04f,
    8.91909935e-04f, -6.83540246e-04f, -9.18474921e-04f, -6.13376382e-04f, -9.92958085e-04f, -3.51703231e-04f, -1.14291313e-03f, -1.49396830e-03f,
    -1.19865744e-03f, -1.74941495e-03f, -5.22388029e-04f, 2.14136136e-03f, -5.25629323e-04f, -4.98614274e-04f, 1.77119160e-03f, -2.54064013e-04f,
    -6.89728768e-04f, -1.97701611e-05f, -1.01044297e-03f, 4.36028640e-04f, 1.23581456e-04f, -3.57716599e-05f, 1.51530781e-03f, 1.76970300e-03f,
    1.35019666e-03f, -5.56852727e-04f, -2.24372532e-04f, 2.77841347e-04f, -1.12014939e-03f, -6.71160058e-04f, -1.98887079e-04f, -2.71701487e-04f,
    9.38498415e-04f, 8.93917226e-04f, 1.95917401e-05f, 1.32292334e-03f, 1.14255224e-03f, 3.77267745e-04f, -4.57128372e-05f, 4.00460587e-04f,
    2.28982055e-04f, -7.81732670e-04f, 2.69314678e-05f, -4.74024768e-04f, -8.86496156e-04f, -7.02750112e-04f, 1.72823702e-03f, 1.61607529e-03f,
    1.38539763e-03f, 2.43770750e-03f, 1.47828204e-03f, 1.91807654e-03f, 2.63379491e-03f, 2.05733324e-03f, 2.62126885e-03f, -9.55234806e-04f,
    -1.33845629e-03f, -9.05018998e-04f, -1.32350961e-03f, -2.15161406e-03f, -1.34322071e-03f, -1.80640040e-04f, -1.12390344e-03f, -5.61262364e-04f,
    1.97559819e-02f, 1.38029130e-02f, 1.29271187e-02f, 8.19293782e-03f, 2.78019309e-02f, 1.27856655e-03f, -2.45209294e-03f, 1.97991747e-02f,
    -1.65416598e-02f, -2.54365671e-02f, -8.02634098e-03f, -2.21561380e-02f, -2.08499189e-02f, -3.08822449e-02f, -1.67223644e-02f, -3.97217609e-02f,
    -2.47220695e-02f, -3.33814099e-02f, 1.15768826e-02f, 3.87777798e-02f, 3.32351355e-03f, -1.92496162e-02f, 3.12626921e-02f, -5.37257502e-03f,
    -2.02036165e-02f, 1.87351219e-02f, -1.44563196e-03f, -1.73026659e-02f, -1.29864393e-02f, -3.18881422e-02f, 2.69090105e-03f, 1.69592798e-02f,
    -1.98567733e-02f, -3.90708540e-03f, 3.76043767e-02f, 3.70724797e-02f, 1.06043398e-01f, 1.77834973e-01f, 1.26509160e-01f, 3.18684094e-02f,
    8.26551095e-02f, 5.47388345e-02f, -3.37359235e-02f, -3.28837223e-02f, -4.52494733e-02f, 3.12842289e-03f, -8.39199964e-03f, -2.50472371e-02f,
    4.05093282e-02f, -3.16560566e-02f, -7.77804032e-02f, 3.48415934e-02f, -3.98098305e-02f, -1.20996550e-01f, -3.56395729e-02f, -4.58984450e-02f,
    -8.34199935e-02f, 2.14725379e-02f, 1.81865860e-02f, 7.53348414e-03f, 1.52730150e-02f, 6.52737683e-03f, 9.68186092e-03f, -2.33529415e-02f,
    -3.44366841e-02f, 1.34759098e-02f, 1.56464111e-02f, 4.59868759e-02f, 5.93074374e-02f, 3.07686590e-02f, 7.25488961e-02f, 8.84427428e-02f,
    -8.71046446e-03f, -2.30179932e-02f, -1.98981985e-02f, -1.02342749e-02f, -5.73010277e-03f, 2.95862146e-02f, -2.30410625e-03f, 2.15436351e-02f,
    7.68369287e-02f, -6.60505518e-03f, 1.69226399e-03f, -2.20188666e-02f, 4.29285318e-03f, 4.28609438e-02f, 3.63999754e-02f, -6.86547393e-03f,
    5.52093461e-02f, 2.74336934e-02f, 1.74114145e-02f, 2.99095307e-02f, 2.38546580e-02f, -9.09633283e-03f, -2.06127595e-02f, -6.35402277e-03f,
    -1.66197866e-02f, -1.44570619e-02f, -5.48389647e-03f, -2.83699203e-02f, -6.13069274e-02f, -1.41135724e-02f, -4.29252051e-02f, -4.93996814e-02f,
    -3.42019722e-02f, -6.67472929e-02f, -7.09396452e-02f, -4.23960090e-02f, 1.15583567e-02f, 7.39342766e-03f, 6.02865741e-02f, -3.77955437e-02f,
    -6.73003346e-02f, -9.94743896e-04f, -4.12221299e-03f, -4.97113615e-02f, -4.84065805e-03f, 2.57368595e-03f, 2.07778960e-02f, -2.13402025e-02f,
    -2.01347843e-02f, 4.22406429e-03f, -2.51551475e-02f, -2.14483012e-02f, -1.69470673e-03f, -1.08253071e-02f, -1.64830405e-02f, -1.98887847e-02f,
    -3.15955169e-02f, -6.77913334e-03f, -4.42925580e-02f, -1.51056433e-02f, 1.99798564e-03f, -1.86975803e-02f, 1.68032460e-02f, -3.30206752e-02f,
    -7.93009251e-03f, -3.36565524e-02f, 4.25252840e-02f, 5.68530858e-02f, 2.94679366e-02f, 2.13279482e-02f, 3.36943790e-02f, 9.62188467e-03f,
    -4.82813530e-02f, -5.48670553e-02f, -2.33622994e-02f, -2.48875879e-02f, -2.61433013e-02f, -7.59598473e-03f, 2.10718922e-02f, 2.57665254e-02f,
    2.95604710e-02f, -1.16688006e-01f, -7.36541077e-02f, -8.93847495e-02f, -4.00817432e-02f, -1.00582922e-02f, -3.71549614e-02f, -3.51674668e-02f,
    -5.83150890e-03f, -1.89222582e-02f, -9.64782853e-03f, 3.03391996e-03f, 3.17547284e-03f, 4.13851580e-03f, 2.37000287e-02f, 1.06506385e-02f,
    3.03812884e-02f, 2.73084268e-02f, 2.19846219e-02f, -7.88644515e-03f, -5.38015515e-02f, -4.62507606e-02f, 7.52741992e-02f, 8.25048909e-02f,
    2.56314427e-02f, 8.17853138e-02f, 9.01042819e-02f, 2.30442416e-02f, -5.55962771e-02f, -5.35746254e-02f, -4.60203849e-02f, -2.76466422e-02f,
    -1.82146672e-02f, -2.30975598e-02f, -5.50163426e-02f, -5.07928096e-02f, -6.17580414e-02f, 2.11061593e-02f, 4.29306515e-02f, 2.94680633e-02f,
    2.91326176e-02f, 6.69078715e-03f, 2.69304533e-02f, 2.03570891e-02f, 1.93536337e-02f, 5.71048167e-03f, -7.86919370e-02f, -5.06785512e-02f,
    -3.44871916e-02f, 4.13278677e-03f, -1.32485926e-02f, -8.36468826e-04f, 3.37392092e-02f, 2.61413734e-02f, -2.43776850e-03f, -1.09683117e-02f,
    9.80868004e-03f, -1.93026688e-04f, -1.48819331e-02f, 2.08540680e-03f, -4.41779150e-03f, -2.92266980e-02f, -4.68704067e-02f, -1.61110219e-02f,
    -7.82501101e-02f, -2.24375464e-02f, -6.94821700e-02f, -2.41257660e-02f, 6.68217894e-03f, -2.21845564e-02f, -2.42153108e-02f, 1.56156104e-02f,
    -2.67992588e-03f, -3.92210819e-02f, -4.27253619e-02f, -2.54783221e-02f, -2.78957505e-02f, -2.85509974e-02f, -2.08243039e-02f, -6.71723206e-03f,
    9.07506887e-03f, -1.48673244e-02f, -8.76951963e-03f, -4.13760031e-03f, -7.83282612e-03f, 1.69187691e-02f, 7.92886503e-03f, -2.90481467e-03f,
    -7.38420989e-03f, -2.07741652e-02f, -2.42576431e-02f, -1.51972584e-02f, 1.32577479e-04f, 9.03226435e-03f, -8.31434969e-03f, -3.54624987e-02f,
    -3.04579316e-03f, -1.87347606e-02f, -7.39701837e-02f, -2.95249168e-02f, -1.69096198e-02f, 1.81931406e-02f, -3.21874581e-02f, -5.30712586e-03f,
    1.51954563e-02f, -1.88658107e-02f, -3.30152139e-02f, -1.56143503e-02f, -2.78087743e-02f, 3.57644772e-03f, -1.90644246e-02f, -1.89442115e-04f,
    2.93867808e-04f, -4.12470065e-02f, -1.78023335e-02f, -6.35165647e-02f, -1.00608014e-01f, -7.13081285e-02f, 1.91770382e-02f, -2.51308735e-03f,
    -4.34132479e-03f, 3.94607196e-03f, -2.69960128e-02f, -1.55275408e-02f, 2.81653740e-03f, -2.32929680e-02f, -1.87922046e-02f, 3.74038704e-02f,
    5.59132807e-02f, 5.77311926e-02f, 2.11341046e-02f, 5.79649583e-02f, 2.46473923e-02f, 8.96224752e-02f, 1.25909075e-01f, 9.44139063e-02f,
    3.61912441e-03f, 3.56624369e-03f, 3.20260343e-03f, 1.37187389e-03f, 2.05068337e-03f, 2.16753269e-03f, 1.87768252e-03f, 2.38752272e-03f,
    2.66149896e-03f, -1.05755462e-03f, -1.84445980e-03f, -1.53908599e-03f, -2.96871993e-03f, -3.94650083e-03f, -3.18579352e-03f, -2.99603888e-03f,
    -3.25979455e-03f, -2.36143894e-03f, -6.63878454e-04f, 1.64070021e-04f, -6.78540149e-04f, -2.59193184e-04f, 1.33269676e-03f, 5.41635905e-04f,
    -1.00375921e-03f, 3.02098953e-04f, 2.54942424e-04f, 2.03086587e-04f, 3.29819013e-04f, 7.80101458e-04f, -1.34615600e-03f, -2.45329784e-03f,
    -1.47254660e-03f, -3.30156018e-03f, -4.82443394e-03f, -2.66622473e-03f, 6.04583998e-04f, 1.31953717e-03f, 1.40596088e-03f, 1.17438729e-03f,
    6.79205114e-04f, 2.19427908e-04f, 1.22469605e-03f, 1.49633142e-03f, 1.89420360e-03f, 6.75948511e-04f, -3.86736734e-04f, -5.10400336e-04f,
    -1.41127524e-03f, -1.16775418e-03f, 4.16276365e-04f, -1.41028129e-03f, -1.49529020e-03f, 1.21243729e-03f, 1.61975541e-03f, 6.26906112e-04f,
    6.29919057e-04f, 8.05382952e-05f, 1.32026442e-04f, 9.17521975e-05f, 2.23786672e-04f, 5.66634408e-04f, 1.29728124e-03f, 1.17114582e-03f,
    1.04517362e-03f, 1.26181403e-03f, 1.26699975e-03f, 5.36386040e-04f, 1.89651983e-04f, 1.91765476e-03f, -1.29122243e-04f, -6.43701409e-04f,
    -9.47101275e-04f, -1.06349506e-03f, -1.47053855e-03f, 1.17261894e-03f, -1.58599566e-03f, -2.00964068e-03f, 1.11824588e-03f, -4.00739693e-04f,
    -2.67784065e-03f, 2.55986233e-03f, 1.34292792e-03f, 5.10611048e-04f, 1.96867576e-03f, -2.59502936e-04f, -8.76239035e-04f, 2.65282835e-03f,
    6.36523357e-04f, 9.44088097e-04f, 7.85842130e-04f, 3.25336121e-04f, 8.78538587e-04f, 6.51442224e-06f, 3.42797604e-04f, 2.12702644e-03f,
    6.41427396e-05f, 7.29999971e-04f, 1.92849291e-03f, 1.44822884e-03f, 1.80191803e-03f, 1.37249555e-03f, 2.28053820e-03f, 2.32232921e-03f,
    1.13654172e-03f, 3.09753628e-03f, 3.12933908e-03f, 1.01552007e-03f, -6.14474528e-04f, -1.32544304e-03f, -9.18866543e-04f, 1.51452655e-03f,
    1.37328799e-03f, 1.68144319e-03f, 3.16496263e-03f, 1.27050432e-03f, 2.30107995e-04f, 3.51433817e-04f, -1.06381159e-03f, -5.84958063e-04f,
    3.57136317e-03f, 8.88542738e-04f, -2.07315461e-04f, 4.49537020e-03f, 2.82084057e-03f, 1.26573141e-03f, -7.35720445e-04f, -2.96167936e-03f,
    -1.95610314e-03f, -7.41042139e-04f, -1.18889718e-03f, -8.91563323e-05f, 4.49887419e-04f, 6.30473485e-04f, 1.46482151e-03f, -6.51052687e-05f,
    1.24166219e-03f, 1.11731736e-03f, -2.56328822e-05f, 2.88075127e-04f, 9.44305677e-04f, -2.45289819e-04f, 7.73383712e-04f, 1.85134180e-03f,
    -3.73877138e-02f, -2.88830791e-02f, 5.69956435e-04f, 2.64341552e-02f, 7.89115019e-03f, 1.47423530e-02f, 1.18409311e-02f, -5.91576472e-03f,
    -1.23254210e-02f, -1.01701003e-02f, 1.63369831e-02f, 1.79439187e-02f, 1.75453406e-02f, -4.91608046e-02f, 2.15559918e-02f, 4.03342322e-02f,
    3.04916147e-02f, 3.71701736e-03f, -1.82546061e-02f, 8.14194418e-03f, 3.43264677e-02f, 9.64198261e-03f, 1.47172324e-02f, 4.80539128e-02f,
    1.12629021e-02f, -1.05029745e-02f, 1.76018570e-02f, -2.57994849e-02f, -4.53908630e-02f, -1.29034305e-02f, 1.83602218e-02f, -6.46572839e-03f,
    -2.14446010e-03f, 5.19842654e-02f, 1.25145093e-02f, -3.60638499e-02f, -9.48536582e-03f, -2.08527651e-02f, 3.85425910e-02f, -1.71447340e-02f,
    -1.68497451e-02f, 3.63661200e-02f, -4.55704023e-04f, 4.24906835e-02f, 9.45567712e-02f, -5.93789667e-02f, -4.32198569e-02f, -4.79474477e-02f,
    -6.13385513e-02f, -3.99304628e-02f, -2.50246041e-02f, -5.96690401e-02f, -3.24390493e-02f, -3.49467844e-02f, -5.54231629e-02f, 3.12593067e-03f,
    3.19677033e-02f, -4.16778810e-02f, -3.88018899e-02f, -2.23440118e-02f, 5.85081056e-02f, 3.16232443e-02f, 1.00898826e-02f, -5.28994352e-02f,
    -7.96718374e-02f, -4.88905646e-02f, -1.74655803e-02f, -7.63490722e-02f, -5.74186295e-02f, -5.25314771e-02f, -5.95547743e-02f, -4.13999297e-02f,
    1.09048774e-02f, -3.59774604e-02f, -5.89679666e-02f, 3.62501517e-02f, 2.48820577e-02f, -8.91480595e-02f, -2.28163265e-02f, -4.38726582e-02f,
    -6.55696094e-02f, 1.64916217e-01f, 2.42466424e-02f, -2.02477146e-02f, 1.88465819e-01f, 3.27680595e-02f, 2.76603680e-02f, 5.12881801e-02f,
    7.61347404e-03f, 1.58085339e-02f, 3.24572958e-02f, 5.15835918e-02f, 4.56046239e-02f, 1.57551505e-02f, 3.94069850e-02f, -2.70587616e-02f,
    -2.77807266e-02f, -3.98925580e-02f, -6.37456775e-02f, -1.22337043e-02f, 2.21315101e-02f, 2.20920388e-02f, 1.48720443e-02f, 2.43439302e-02f,
    4.35384661e-02f, 1.64685529e-02f, 3.18990611e-02f, 3.59651409e-02f, 1.83769595e-02f, 5.48270904e-02f, 3.39064114e-02f, -6.56175017e-02f,
    -3.45601328e-02f, 1.59145743e-02f, -8.23534876e-02f, -6.89675435e-02f, -1.72470752e-02f, -2.91278176e-02f, 2.99440362e-02f, -3.67800668e-02f,
    1.21460939e-02f, 2.19083298e-02f, 6.48171641e-03f, -2.90299784e-02f, -3.87744494e-02f, -1.23810256e-02f, -4.91676591e-02f, -3.58163379e-02f,
    -4.56585288e-02f, -1.08996863e-02f, 4.98281457e-02f, -3.47985141e-02f, -3.26917022e-02f, 4.46942681e-03f, -1.01678474e-02f, 6.56376928e-02f,
    2.91208811e-02f, 8.16564634e-02f, 3.48459557e-02f, -2.68003885e-02f, 3.13755088e-02f, 7.65817314e-02f, 2.24885661e-02f, 4.80361655e-02f,
    -3.08768777e-03f, -2.75814161e-02f, 1.40795335e-02f, -2.58706436e-02f, -9.02797095e-03f, 3.07912230e-02f, 2.84342784e-02f, 3.35943215e-02f,
    6.02211580e-02f, 2.10075621e-02f, -2.77516767e-02f, 2.28582881e-02f, -4.06836495e-02f, -2.56811921e-02f, 1.88965201e-02f, -1.34374909e-02f,
    -3.77001017e-02f, 1.58304378e-04f, 5.38801914e-03f, 1.66998375e-02f, -6.27239409e-04f, 6.23258855e-03f, 5.92191443e-02f, 1.74449999e-02f,
    -3.09017096e-02f, -1.52413202e-02f, -2.08161399e-02f, -3.34861614e-02f, -7.39128143e-03f, 1.64820980e-02f, -7.96720311e-02f, -9.00026709e-02f,
    -2.45206412e-02f, -4.74372879e-02f, -4.47905585e-02f, -3.08412071e-02f, 6.09724298e-02f, 6.61088666e-03f, 5.16632013e-02f, 4.49767187e-02f,
    -6.02163095e-03f, 3.95673178e-02f, 2.94920448e-02f, 2.11243401e-04f, 2.19723210e-02f, 2.96682008e-02f, -4.65723407e-03f, -7.98115972e-03f,
    5.43485209e-02f, 7.77454078e-02f, 3.40092042e-03f, 2.60985028e-02f, -6.61064684e-03f, -1.53951235e-02f, -1.70908421e-02f, -3.50597012e-03f,
    -3.19784917e-02f, -1.20375417e-02f, -1.92728324e-03f, -1.21413749e-02f, -5.24504157e-03f, -3.95533517e-02f, 1.55766658e-03f, 2.92440951e-02f,
    2.38675606e-02f, 7.14194477e-02f, 1.06943119e-02f, -9.73540731e-03f, 7.46520087e-02f, 3.02321780e-02f, 1.30109917e-02f, 7.30807409e-02f,
    -1.89421177e-02f, -1.19944755e-02f, -2.31345724e-02f, -9.22007337e-02f, -2.12424342e-02f, 7.92780612e-03f, 4.16729562e-02f, 4.56666108e-03f,
    2.22343020e-02f, -1.40354652e-02f, 8.87014996e-03f, 1.91848800e-02f, -2.40519326e-02f, 1.78344771e-02f, 4.12404463e-02f, 1.24302190e-02f,
    -3.00664129e-03f, -5.27330325e-04f, 4.38208766e-02f, 1.09539209e-02f, -1.22950440e-02f, 5.03206514e-02f, 3.09531670e-02f, -2.60795164e-03f,
    3.35804224e-02f, 3.60508896e-02f, 2.76945569e-02f, -5.22814989e-02f, -3.67346965e-02f, 7.60290213e-03f, -5.30562736e-02f, -1.75286215e-02f,
    -7.36274756e-04f, -1.05972551e-01f, -6.56290501e-02f, 1.67134199e-02f, -2.12606345e-03f, -1.16697522e-02f, 2.26443876e-02f, -3.81277804e-03f,
    -1.12847146e-02f, 3.79736386e-02f, -1.76572539e-02f, -4.11375165e-02f, 1.31774805e-02f, -4.35617678e-02f, -9.32399649e-03f, 2.54023876e-02f,
    -2.77336035e-02f, -1.26382466e-02f, 5.26725911e-02f, -1.91022679e-02f, 9.22627188e-03f, 2.86966059e-02f, 4.74023856e-02f, 3.96118872e-02f,
    4.89933416e-02f, 1.61704011e-02f, 8.18605628e-03f, 3.32571194e-02f, -3.41603793e-02f, -8.48123133e-02f, -4.67079058e-02f, 2.47210870e-03f,
    3.11464127e-02f, 5.80274910e-02f, 3.17293666e-02f, 2.05656458e-02f, 6.90096766e-02f, 6.51574209e-02f, 4.48311865e-02f, 6.26223758e-02f,
    1.02059217e-03f, 2.26467894e-03f, 1.00834854e-03f, -1.97172063e-04f, -3.44839063e-04f, -1.32964487e-04f, -2.06903904e-04f, -9.69766406e-04f,
    1.23433856e-04f, -6.57940807e-04f, -1.36767712e-03f, -1.27143099e-03f, -1.42445322e-03f, -6.50384580e-04f, 1.41676253e-04f, 3.24463123e-04f,
    1.27633719e-03f, 1.62211235e-03f, 8.85787245e-04f, 3.69173271e-04f, -1.13290793e-03f, 9.88764805e-04f, 1.95779765e-04f, 5.48279786e-04f,
    7.51222426e-04f, 4.52894135e-04f, 8.60295317e-04f, 9.73719987e-04f, -4.65987163e-04f, -4.27898311e-04f, -7.10338703e-04f, -1.41344336e-03f,
    -1.00081437e-03f, -1.20350590e-03f, -2.40814686e-03f, -1.52808370e-03f, -1.14114280e-03f, -3.48732545e-04f, -1.24340865e-03f, -1.56470190e-03f,
    -2.06903322e-04f, -5.41676825e-04f, 1.68380866e-04f, 2.38545029e-03f, 2.67071393e-03f, -2.27619940e-03f, -2.41508381e-03f, -2.59269238e-03f,
    -3.08674900e-03f, -2.97307526e-03f, -2.86626094e-03f, -1.91377418e-03f, -2.97274161e-03f, -2.17705662e-03f, 1.66674494e-03f, 4.84038581e-04f,
    -6.76658587e-04f, 1.32768916e-03f, 9.91399065e-05f, -1.72775224e-04f, -7.42423115e-04f, -1.96868344e-03f, -7.33912748e-04f, 2.62820348e-03f,
    2.34478060e-03f, 2.64202897e-03f, 1.01204263e-03f, 6.33946271e-04f, 2.48726713e-03f, 1.14495833e-05f, -2.61464465e-05f, 1.78801781e-03f,
    8.50042619e-04f, 8.15843348e-04f, 1.42617652e-03f, -6.25594694e-04f, -6.63902247e-05f, -6.80268160e-04f, 7.81410898e-04f, 1.05216936e-03f,
    -8.57294217e-05f, -5.52438840e-04f, -1.73166080e-03f, -4.46776161e-04f, -1.39071653e-03f, -2.39602523e-03f, -1.68290536e-03f, 1.16359326e-03f,
    8.61506851e-04f, 1.62358861e-03f, 3.24686477e-03f, 3.02226515e-03f, 1.10793510e-03f, 9.78360185e-04f, 2.54968822e-04f, -1.64372404e-03f,
    -1.23269565e-04f, 1.24459097e-04f, -7.88749137e-04f, -3.65079963e-03f, -2.44968664e-03f, -3.56092438e-04f, -3.79219046e-03f, -4.04169038e-03f,
    -2.86465581e-03f, -1.51890155e-04f, 1.79490409e-04f, -8.33124504e-04f, 2.23668641e-03f, 2.36700429e-03f, 2.44551990e-03f, 2.95569724e-03f,
    2.41274177e-03f, 2.84449477e-03f, 2.05912511e-03f, 7.85802549e-04f, 2.88124953e-04f, -6.72307724e-05f, 2.00186670e-03f, 8.65983293e-06f,
    -9.17336962e-04f, 7.11506640e-04f, 5.07196877e-04f, -4.64626588e-04f, 1.86268799e-03f, 1.60315004e-03f, -2.14871136e-03f, 1.55817450e-03f,
    -2.22525021e-04f, -1.19923893e-03f, 7.05011596e-04f, -3.85513209e-04f, -1.81498879e-03f, -1.71796244e-03f, -2.31509120e-03f, 1.77963026e-04f,
    1.42356544e-03f, 1.35331065e-03f, -9.63119819e-05f, 5.84130932e-04f, 8.03395349e-04f, 9.81506659e-04f, 1.46964611e-03f, 7.29900203e-04f,
    -3.22878617e-03f, 1.17523577e-02f, 4.92041046e-03f, -8.31995625e-03f, -1.30696222e-03f, -2.18834225e-02f, 3.82291619e-03f, -1.23154679e-02f,
    -1.85061675e-02f, -2.76779439e-02f, 1.38870981e-02f, -3.41502111e-03f, -1.12619894e-02f, 1.98700335e-02f, -3.92880244e-03f, -1.62704904e-02f,
    3.25820930e-02f, -6.15799846e-03f, 2.00690180e-02f, 5.03416918e-02f, 5.07062078e-02f, -1.63258668e-02f, 1.61353387e-02f, 6.16963953e-03f,
    -5.25201038e-02f, -5.36430888e-02f, -4.21198495e-02f, 2.12924689e-01f, 5.59547283e-02f, 4.15781625e-02f, 4.34832089e-02f, 8.37417226e-03f,
    -5.51959034e-03f, 1.41496267e-02f, 4.17398065e-02f, 5.78581765e-02f, -5.10763936e-02f, 2.38390751e-02f, -2.23902147e-02f, -1.95792923e-03f,
    4.73065414e-02f, -3.62131372e-03f, 3.27446535e-02f, 1.09181486e-01f, 2.26908755e-02f, 3.65318172e-02f, 1.96584668e-02f, 2.89868303e-02f,
    2.38563269e-02f, -3.97779010e-02f, -3.82031016e-02f, -2.24058540e-03f, -4.34262417e-02f, -7.25351647e-02f, 7.26242438e-02f, 1.25347331e-01f,
    1.59094468e-01f, 1.60848796e-02f, -4.03798521e-02f, 8.19707289e-03f, -2.24147234e-02f, -1.43475253e-02f, 1.50176575e-02f, 9.91700962e-03f,
    -4.20239232e-02f, -3.62117738e-02f, -2.40002871e-02f, -2.18628403e-02f, -8.08236073e-04f, 1.16216736e-02f, -6.89800642e-03f, 2.55765114e-02f,
    -1.20733045e-01f, -6.07808027e-03f, 5.97796887e-02f, -6.89177588e-02f, -3.29391100e-02f, 7.84083903e-02f, -7.37227425e-02f, -6.46589547e-02f,
    -1.85974613e-02f, 4.32931855e-02f, -6.37889048e-03f, 2.17984021e-02f, -1.26990667e-02f, -1.58165488e-02f, -7.12203234e-03f, -2.57088356e-02f,
    5.85312536e-03f, 1.68997962e-02f, 2.93788146e-02f, 3.28383707e-02f, -9.13091470e-04f, 1.38036562e-02f, 1.68507162e-03f, 1.33484323e-02f,
    2.28266325e-02f, 3.87549475e-02f, 5.93863288e-03f, -1.37141498e-03f, -5.38945710e-03f, 1.14527968e-04f, -3.45005840e-02f, -2.26378385e-02f,
    -3.68405366e-03f, -9.77370795e-03f, 6.66977931e-03f, 3.03987972e-02f, -3.62805910e-02f, 4.12118174e-02f, -3.36461514e-02f, 6.29097670e-02f,
    -3.40636410e-02f, -5.64643070e-02f, 6.82632327e-02f, 3.92639600e-02f, 2.25981083e-02f, 3.16536389e-02f, 2.32593827e-02f, 1.78757552e-02f,
    -2.77889203e-02f, -9.17872693e-03f, -4.43896204e-02f, 7.64494538e-02f, 1.27911508e-01f, 5.56480438e-02f, 3.75041962e-02f, 9.64045525e-02f,
    -1.63891055e-02f, -2.38319207e-02f, 1.78089878e-03f, 7.82560930e-03f, 5.74937612e-02f, 8.63025039e-02f, 5.45917526e-02f, -1.86436474e-02f,
    -5.24163023e-02f, -1.93465687e-02f, 3.29196453e-02f, 1.01462556e-02f, -2.23930413e-03f, 1.28870055e-01f, 7.20325857e-02f, 2.85291839e-02f,
    1.70934405e-02f, 5.44536440e-03f, 2.11714916e-02f, -2.25161035e-02f, -4.66310792e-02f, -3.34467813e-02f, -4.00479026e-02f, -7.03692511e-02f,
    -4.11311127e-02f, 4.31228988e-02f, 6.98728636e-02f, 1.69415195e-02f, -6.78998651e-03f, 3.91838625e-02f, -1.35869449e-02f, -6.79657981e-02f,
    -4.32533883e-02f, -4.78546955e-02f, -1.58706512e-02f, 5.50669851e-03f, 9.12195258e-03f, -2.09455676e-02f, -1.45048155e-02f, 7.77207839e-04f,
    -1.38928080e-02f, -1.41771697e-02f, -5.99194458e-03f, 4.58250567e-02f, 4.12322171e-02f, 5.68431355e-02f, 4.29284461e-02f, 3.22356597e-02f,
    -2.01913305e-02f, 1.28531465e-02f, 1.45466253e-02f, -3.09160016e-02f, -9.85849202e-02f, -1.00099958e-01f, -8.19498599e-02f, 2.09535938e-03f,
    4.07757312e-02f, 1.22758364e-02f, 9.03084800e-02f, 1.35663271e-01f, 1.16556264e-01f, 4.26357472e-03f, 2.25480795e-02f, 3.33746746e-02f,
    -6.06149610e-04f, -1.72290355e-02f, 2.71974374e-02f, -8.28122944e-02f, -1.86286625e-02f, -5.28726690e-02f, -6.27591163e-02f, -2.48166788e-02f,
    -1.68652181e-02f, -3.19435261e-02f, 7.33358134e-03f, -2.18594614e-02f, -3.43763903e-02f, 1.53544936e-02f, -1.76590458e-02f, -2.93334890e-02f,
    3.48883495e-02f, -5.17227575e-02f, -6.71256036e-02f, -8.21374170e-03f, -7.94053897e-02f, -3.43479216e-02f, -4.57401164e-02f, -6.42477721e-02f,
    1.36699434e-03f, -2.25162823e-02f, -6.95882887e-02f, -1.76976006e-02f, -9.11344960e-02f, -6.79828823e-02f, -1.25173435e-01f, -1.07565127e-01f,
    -1.69452026e-01f, -1.13348700e-02f, -1.24954827e-01f, -1.34930359e-02f, 4.88117896e-02f, -1.11415016e-03f, 3.19653898e-02f, 1.15987934e-01f,
    6.05183430e-02f, 1.39670506e-01f, 4.33435105e-02f, 7.19654560e-02f, 2.89748255e-02f, 1.80326664e-04f, -4.69418615e-02f, 2.83762114e-03f,
    1.93528819e-03f, -1.10674789e-02f, 5.46514615e-03f, -1.95809379e-01f, -2.38734931e-01f, -1.39331192e-01f, -6.60659000e-02f, -2.33180858e-02f,
    -3.62866186e-02f, 6.60184100e-02f, 9.13891867e-02f, 1.46070644e-01f, -2.94931922e-02f, -1.25791933e-02f, -1.95068084e-02f, 1.21630775e-02f,
    -8.11422337e-03f, 1.33817792e-02f, 2.73845233e-02f, 1.43192066e-02f, 2.54947692e-03f, 1.14554190e-03f, 3.87386642e-02f, -2.29773838e-02f,
    -1.14081213e-02f, -2.24506389e-02f, -3.27554010e-02f, -2.59753577e-02f, -2.63171755e-02f, -4.33906913e-02f, 1.97660308e-02f, 5.06762881e-03f,
    -2.42447853e-02f, 3.57429795e-02f, 9.52284876e-03f, -1.59376021e-02f, 4.71387431e-02f, 4.00450863e-02f, -9.51112155e-03f, -6.49958774e-02f,
    -1.44983856e-02f, -8.81137978e-03f, -4.49425355e-02f, 4.93944995e-03f, -1.64147783e-02f, -3.16170119e-02f, -6.49357273e-04f, -1.34823248e-02f,
    -9.85407969e-04f, -3.15499236e-03f, -2.91889836e-03f, 1.14612945e-03f, -4.99343092e-04f, -1.40951481e-03f, -1.83768233e-03f, -1.59660506e-03f,
    -1.21300959e-03f, -2.32128732e-04f, 5.71014592e-04f, -1.73821812e-04f, -3.16866062e-05f, 3.45298875e-04f, -8.42928246e-04f, -1.43609021e-03f,
    -5.87885559e-04f, 1.75293710e-04f, 3.89913446e-04f, -2.27360200e-04f, 8.06865224e-04f, -4.63345787e-04f, 2.95092788e-04f, 4.35233320e-04f,
    7.35777663e-04f, 1.26586237e-03f, 2.79936939e-03f, -1.56037320e-04f, -1.02630083e-03f, -1.49990583e-03f, -1.83557859e-03f, -2.81150499e-03f,
    -3.29097296e-04f, 5.97590464e-04f, -1.78869860e-03f, -1.73767481e-03f, -1.56657232e-04f, -8.32889113e-04f, -3.50395479e-04f, -1.20841280e-04f,
    2.16674700e-04f, 1.38824806e-03f, 1.03240123e-03f, 6.18914724e-04f, 3.78179742e-04f, 8.90433323e-04f, 1.77630311e-04f, -5.29948738e-04f,
    2.19800801e-04f, -1.18608645e-03f, -3.34830664e-04f, -1.03636237e-03f, -2.52102665e-03f, -2.29482492e-03f, 4.97254718e-04f, 5.26795222e-04f,
    -2.09295703e-03f, -4.91643696e-05f, 1.13825127e-03f, -4.33912210e-04f, -3.07025621e-03f, -7.09686079e-04f, -1.29082485e-03f, 1.84704794e-03f,
    3.09984619e-03f, 1.14347646e-03f, 1.09004090e-03f, 1.35396418e-04f, 1.21046591e-03f, 4.39178024e-04f, 1.69227656e-03f, 3.54279391e-03f,
    -2.20054481e-03f, -2.50921538e-03f, -6.40275190e-04f, -7.97379471e-04f, -2.73089227e-03f, 1.18217280e-03f, 3.29733622e-04f, -4.30136104e-04f,
    2.97246384e-04f, -1.87947135e-03f, -7.25907041e-04f, -2.97932565e-04f, -1.81237224e-03f, -9.47345921e-04f, 1.73776608e-03f, -1.40804762e-03f,
    -5.29994199e-04f, -5.93549863e-04f, -2.40560318e-03f, -1.47209375e-03f, 1.69968547e-03f, -4.84732067e-04f, 1.29375956e-03f, 3.49244871e-03f,
    7.44589954e-04f, 2.63994560e-03f, 3.73886130e-03f, -8.58133833e-04f, -6.47270936e-04f, 2.04924072e-04f, 6.93651033e-04f, 7.40190619e-04f,
    -1.60292344e-04f, -1.14263594e-03f, 1.67390821e-03f, 1.19742588e-03f, 1.12418435e-04f, 5.33558778e-04f, 8.34564387e-04f, -1.45262841e-03f,
    -7.24407262e-04f, 8.24710238e-04f, -1.19739992e-03f, 1.17526925e-03f, 3.72416037e-03f, -3.05958471e-04f, 2.41099088e-03f, 1.65520317e-03f,
    3.80949554e-04f, 2.36854097e-03f, 8.76334845e-04f, -6.54711155e-04f, -1.01518619e-03f, -2.37918296e-03f, -3.73572321e-03f, -8.39406799e-04f,
    -4.13304340e-04f, -1.30113424e-03f, 1.01535278e-03f, -4.89576312e-04f, -6.19474566e-04f, -1.94364286e-03f, -2.25071446e-03f, 3.83269810e-03f,
    2.58659595e-03f, 2.11271783e-03f, 4.75431560e-03f, 2.71117850e-03f, 4.34480491e-04f, 2.26399838e-03f, -8.28637800e-04f, -2.15096190e-03f,
    6.81449845e-02f, 9.72560123e-02f, 2.02638004e-02f, 1.76052675e-02f, 6.86425623e-03f, 8.32261890e-03f, -6.85098022e-02f, -1.74167566e-02f,
    -3.14571592e-03f, -2.30203811e-02f, 3.85434553e-02f, 4.12773946e-03f, 1.74496043e-02f, 1.02942279e-02f, -2.58150995e-02f, 8.07393156e-03f,
    -3.22575606e-02f, -4.78739887e-02f, 3.93829122e-03f, -5.24373446e-03f, -5.85675985e-02f, -4.07737456e-02f, -5.40859848e-02f, -3.04728318e-02f,
    -4.43484709e-02f, -1.60599854e-02f, 4.85541075e-02f, 1.47436550e-02f, -2.55038645e-02f, -1.36693403e-01f, 1.54835628e-02f, -4.53362763e-02f,
    -9.22322497e-02f, -3.59249562e-02f, 6.86986046e-03f, 1.94141138e-02f, -2.24234127e-02f, -8.79444629e-02f, -1.87168457e-02f, 1.37809794e-02f,
    -7.02252164e-02f, -1.05505076e-03f, 8.14888477e-02f, 7.24345595e-02f, 6.04657531e-02f, -8.98501836e-03f, -4.30292375e-02f, 1.21860966e-01f,
    -4.10012938e-02f, 1.82965025e-02f, 6.43775016e-02f, 2.52657793e-02f, -4.26815338e-02f, -7.88791552e-02f, -3.84568572e-02f, -1.14333751e-02f,
    -3.99731658e-02f, 4.43874486e-02f, 1.27974868e-01f, 3.78335305e-02f, -4.34956178e-02f, -1.96851455e-02f, -8.57686531e-03f, 3.59086227e-03f,
    1.95943229e-02f, 3.99930365e-02f, 1.44519191e-02f, 1.91411972e-02f, 1.50315547e-02f, 1.15684755e-02f, 2.34024171e-02f, -7.49700293e-02f,
    -9.78443399e-03f, -1.21734887e-02f, 1.68775041e-02f, -1.24302395e-02f, -9.78505053e-03f, -5.61604165e-02f, -2.73127519e-02f, -3.67959365e-02f,
    -1.04963399e-01f, -6.29359856e-02f, -9.10666436e-02f, 8.63432593e-04f, -1.90525537e-03f, -4.34767082e-02f, 4.31924909e-02f, 1.85426977e-02f,
    6.33185506e-02f, -9.41728428e-03f, 7.01452896e-04f, -5.50285680e-03f, 2.31702775e-02f, 4.36645187e-03f, 5.00055589e-02f, -5.64662777e-02f,
    1.38215721e-02f, -9.96777788e-02f, -5.01141101e-02f, 4.37489673e-02f, 2.44805031e-02f, 2.67749950e-02f, -5.17220143e-03f, -6.66969866e-02f,
    -1.71466116e-02f, -7.13220611e-02f, -3.81701998e-02f, 2.69563799e-03f, 4.87780981e-02f, 3.42666283e-02f, 7.27236196e-02f, 1.02276476e-02f,
    7.37692043e-02f, 2.67834906e-02f, 2.36697067e-02f, -7.43054971e-02f, -6.62545487e-03f, -7.34166279e-02f, -7.67577663e-02f, -3.51060592e-02f,
    -1.74340233e-02f, 9.23760682e-02f, 4.18884717e-02f, 5.06955571e-02f, 8.92743617e-02f, -2.31805611e-02f, -4.06274665e-03f, 5.15794475e-03f,
    6.91434368e-02f, 4.72615398e-02f, 3.48287784e-02f, -3.71051207e-02f, 9.14898142e-02f, -5.65359816e-02f, -4.15569618e-02f, -3.87785062e-02f,
    -2.78886016e-02f, -8.06179196e-02f, -4.62749749e-02f, -4.48320210e-02f, -1.39739523e-02f, -5.78654595e-02f, 5.76049648e-03f, 5.34317195e-02f,
    2.37527955e-02f, 2.54267268e-02f, -5.58739761e-03f, -2.87728216e-02f, -8.54102299e-02f, -8.48105922e-03f, 4.56551239e-02f, 6.76211119e-02f,
    9.93473083e-02f, 3.51662794e-03f, 2.32630316e-02f, -7.19614327e-02f, -6.85788393e-02f, -5.33531755e-02f, -3.01941782e-02f, -1.03561983e-01f,
    -5.54534839e-03f, 7.97397643e-03f, -5.15354127e-02f, -3.56047787e-02f, 4.67212871e-02f, 3.98702100e-02f, 2.92119067e-02f, 3.39254104e-02f,
    3.47529426e-02f, 1.28726484e-02f, -1.89431757e-02f, -1.14638936e-02f, -5.85449003e-02f, 4.14839247e-03f, -6.05296642e-02f, -1.08331241e-01f,
    1.30152842e-02f, 1.69178285e-02f, 6.55605793e-02f, 1.25796229e-01f, 6.72243163e-02f, 6.18399642e-02f, -1.39133576e-02f, 3.22629996e-02f,
    3.24968505e-03f, -6.53584208e-03f, -7.77134970e-02f, -2.91542970e-02f, -1.29947923e-02f, -4.14356776e-02f, -9.43535268e-02f, 1.32218927e-01f,
    -3.87325510e-02f, 9.05706808e-02f, -5.76355914e-03f, 3.52371596e-02f, -2.43956689e-02f, -5.32306544e-02f, -6.45556822e-02f, -4.21990156e-02f,
    -8.70425161e-03f, -4.38566580e-02f, 2.03405805e-02f, -4.19873465e-03f, -1.24489991e-02f, -4.07251455e-02f, 1.88386366e-02f, 8.54036808e-02f,
    8.53377804e-02f, -5.17806970e-02f, -2.71804770e-03f, -3.65745164e-02f, -1.36876078e-02f, -9.62730218e-03f, 2.75143757e-02f, 7.26151094e-02f,
    -7.03631993e-03f, -9.94061865e-03f, 2.90376954e-02f, 9.91921648e-02f, 1.23674512e-01f, 1.33492630e-02f, 4.89288308e-02f, -5.93977794e-02f,
    -6.35877326e-02f, 1.72258765e-02f, 1.37841821e-01f, -1.78984310e-02f, -4.85614454e-03f, -7.41010234e-02f, -7.11847320e-02f, -9.72342268e-02f,
    -3.69140990e-02f, 5.31136952e-02f, 9.18699615e-03f, 2.99396794e-02f, -9.38622560e-03f, -1.34329023e-02f, 8.78420100e-02f, 7.68594351e-03f,
    -4.34223264e-02f, 6.08155853e-04f, 6.58709137e-03f, -5.85299544e-02f, -2.31960602e-02f, -1.40922610e-02f, -5.86217791e-02f, -1.02106065e-01f,
    -4.01491374e-02f, -8.63107853e-03f, -2.85781566e-02f, 1.08994413e-02f, -2.74687167e-02f, -2.53097694e-02f, 5.10978624e-02f, 5.38604893e-02f,
    7.84702301e-02f, -3.55967181e-03f, 6.45425171e-02f, 2.91999243e-03f, -6.93925619e-02f, -4.35907245e-02f, -1.21748289e-02f, 1.46387499e-02f,
    1.74483582e-02f, 5.04135378e-02f, -7.16093788e-03f, 2.44315099e-02f, 2.18851189e-03f, -6.36659116e-02f, -1.91911217e-02f, 5.63628860e-02f,
    4.89774905e-02f, 2.10171547e-02f, 7.72263482e-02f, -6.19230680e-02f, 2.48492286e-02f, -1.02063932e-01f, -7.19285086e-02f, 7.87817687e-03f,
    -2.54241060e-02f, -7.86326230e-02f, -2.74696369e-02f, -5.89724705e-02f, 3.00541893e-02f, 1.45666776e-02f, 8.08589011e-02f, 3.56024690e-02f,
    1.50544650e-03f, -1.02440105e-03f, -2.39918591e-03f, 1.20445900e-03f, -2.93490104e-03f, -3.95589322e-03f, -1.71148436e-04f, -2.88235676e-03f,
    -3.83703131e-03f, -2.60140933e-03f, 1.25140196e-03f, 2.73333164e-03f, -1.62194401e-03f, -1.19740820e-04f, 1.18543860e-03f, 2.82369019e-03f,
    2.26362841e-03f, 1.84578588e-03f, 3.39858537e-03f, 2.83620995e-03f, 2.23934650e-03f, 2.57814629e-03f, 8.36157706e-04f, 1.08259125e-03f,
    8.08905344e-04f, 1.12675247e-04f, 3.15236568e-04f, -3.30291892e-04f, 2.35138601e-03f, 6.13978948e-04f, -2.43721716e-03f, 4.49131003e-05f,
    3.33977194e-04f, -2.76136491e-03f, -1.11776602e-03f, -1.23040495e-03f, 1.81540818e-04f, 2.84158363e-04f, 7.08096952e-04f, -1.62086438e-03f,
    -2.17001987e-04f, 1.27769564e-03f, -2.26570573e-03f, 9.83678183e-05f, 1.70055532e-03f, -1.47457188e-03f, -6.20409206e-04f, -6.32713665e-04f,
    -1.06192299e-03f, -2.26547578e-04f, -9.22485720e-04f, 2.12241488e-04f, 1.22520735e-03f, 5.61933615e-04f, -4.95514646e-03f, -4.51652706e-03f,
    -3.60390753e-03f, -2.43319548e-03f, -2.46612425e-03f, -1.92348065e-03f, -1.22205610e-03f, -2.47572968e-03f, -3.27169034e-03f, 8.60532571e-04f,
    3.65021580e-04f, 7.52603402e-04f, -7.40473333e-04f, -1.61132100e-03f, 2.05276257e-04f, -9.23218729e-04f, -3.10126983e-04f, 2.35577789e-03f,
    2.37796758e-03f, 2.03951076e-03f, 2.13249819e-03f, -1.99110495e-04f, 6.56752090e-04f, 8.80210777e-04f, -6.16989564e-04f, 1.43270416e-03f,
    2.00283760e-03f, -1.15672410e-04f, 4.28448431e-04f, -1.23029371e-04f, -1.02330977e-03f, -1.06653577e-04f, 1.80099334e-04f, -7.96201290e-04f,
    -1.88314560e-04f, -3.71267670e-04f, -5.78439969e-04f, 2.78191129e-03f, 4.72665345e-03f, 9.41308739e-04f, 1.86725880e-03f, 2.74183252e-03f,
    2.27735052e-03f, 2.18315888e-03f, 8.56452971e-04f, 2.11818283e-03f, 1.16320304e-03f, 3.40689265e-04f, 1.76397222e-03f, 2.63160182e-04f,
    -1.11685100e-03f, 6.67366723e-04f, 7.56415029e-05f, -6.98296411e-04f, -8.41382891e-04f, -3.37869889e-04f, -2.17361492e-03f, 2.73428741e-04f,
    -3.92839574e-04f, -1.89642236e-03f, 1.12351170e-03f, 8.73683253e-04f, -1.13474263e-03f, -8.92309414e-04f, -6.20798557e-04f, -4.60816635e-04f,
    -1.02983892e-03f, -1.24621167e-07f, -8.49204138e-04f, -1.21969194e-03f, 3.79145815e-04f, -6.34350698e-04f, -3.63909319e-04f, -1.04120420e-03f,
    8.82902987e-06f, -1.81844982e-03f, -1.70540065e-03f, -1.24719029e-03f, 1.37974706e-03f, 2.15108879e-03f, 3.12893488e-03f, -1.81707984e-03f,
    -1.03235582e-03f, -2.72934674e-03f, -3.25432280e-04f, 2.31686136e-04f, -1.18105824e-03f, 1.56035647e-03f, 2.34037312e-03f, -1.67298582e-04f,
    2.51371395e-02f, 6.90470785e-02f, 1.46276904e-02f, -3.30450200e-02f, -3.14343274e-02f, -2.47480758e-02f, -2.96738744e-02f, -3.08510065e-02f,
    -2.06549261e-02f, 6.87040295e-03f, 1.91655196e-02f, 5.05414903e-02f, -1.53662656e-02f, -2.16424791e-03f, 1.67574491e-02f, -3.66714620e-03f,
    -3.12122516e-02f, -2.02119388e-02f, 5.62786683e-02f, 1.07479729e-02f, 3.17303985e-02f, -1.19721368e-02f, -5.35831302e-02f, 2.46589025e-03f,
    -1.49724754e-02f, -3.17312479e-02f, -7.87436217e-03f, 1.72012612e-01f, 5.78498887e-03f, -5.84373362e-02f, 6.18683174e-02f, -1.24702208e-01f,
    -1.52489141e-01f, -5.94227836e-02f, -6.90985918e-02f, 9.02155880e-03f, -6.03191089e-04f, 1.22703859e-04f, -2.78145187e-02f, -6.43387763e-03f,
    -3.35219502e-02f, -6.10289797e-02f, -1.19456239e-02f, -1.58473998e-02f, -1.32903056e-02f, 1.59947947e-02f, 2.48052135e-01f, 2.79539943e-01f,
    -1.25565499e-01f, 1.76353175e-02f, 8.32068846e-02f, -1.21026978e-01f, -2.56402612e-01f, -1.79260075e-01f, 1.27058446e-01f, -1.06383115e-01f,
    -2.23260939e-01f, 2.33481139e-01f, -5.48743047e-02f, -1.48414299e-01f, 2.84807011e-02f, 6.25292808e-02f, 8.17104578e-02f, 1.89192332e-02f,
    4.25697342e-02f, 5.65954782e-02f, -6.80136457e-02f, -5.99798821e-02f, 2.73239892e-03f, 2.28945771e-03f, -4.51152436e-02f, 1.32682675e-03f,
    -2.15156257e-01f, -1.84811145e-01f, -8.95760283e-02f, -1.39882162e-01f, -5.54806739e-03f, -5.58329467e-03f, 1.55552447e-01f, 2.56730318e-01f,
    8.29780176e-02f, -1.21683870e-02f, 3.05820461e-02f, 5.01955934e-02f, 3.58940177e-02f, 3.78464698e-03f, 2.96699721e-02f, 6.42847195e-02f,
    -2.77465135e-02f, -7.92193189e-02f, 2.13536266e-02f, -4.99082543e-03f, 4.72914660e-03f, -2.79271081e-02f, 7.14884372e-03f, -4.49323803e-02f,
    1.36758396e-02f, -2.73478609e-02f, 5.06336894e-03f, -2.90564541e-02f, -3.20670940e-02f, -3.69403735e-02f, -1.88341010e-02f, -3.82419080e-02f,
    -1.77450255e-02f, 7.11519271e-02f, 1.15366869e-01f, 6.15509078e-02f, -5.48848026e-02f, -1.28305867e-01f, 3.84331541e-03f, 2.64642760e-02f,
    1.13798482e-02f, -2.80466191e-02f, 1.86365947e-01f, 6.84515238e-02f, -1.64652020e-02f, -1.48205966e-01f, -2.68497646e-01f, -1.84781998e-01f,
    6.62649199e-02f, -9.92246252e-03f, -6.74656034e-02f, 2.36706093e-01f, 2.09542170e-01f, 1.17077515e-01f, 1.15583949e-01f, 9.22124758e-02f,
    2.97218375e-02f, 2.36034431e-02f, -5.95062338e-02f, -1.06950514e-01f, -3.57698114e-03f, -1.13444053e-01f, -9.15347710e-02f, -2.74895243e-02f,
    -6.33993149e-02f, -4.68184017e-02f, -1.41612692e-02f, 1.91645734e-02f, 2.43860763e-02f, 2.84740049e-02f, 1.20647326e-01f, 8.91625360e-02f,
    -2.49855462e-02f, 2.84324065e-02f, 2.31375769e-02f, -1.17051518e-02f, -2.45783832e-02f, 1.92310400e-02f, 1.16339652e-02f, 8.36777408e-03f,
    1.80118848e-02f, -1.54621685e-02f, 3.17983516e-02f, 4.70071705e-03f, 1.30116125e-03f, 2.72912979e-02f, -1.48339123e-02f, 1.55616160e-02f,
    2.66637262e-02f, -1.86272617e-02f, 6.92876242e-03f, -3.44464220e-02f, -2.30456274e-02f, -2.94549018e-02f, -8.26252904e-03f, -6.90796459e-03f,
    1.13467767e-03f, 1.94419583e-03f, -4.76142066e-03f, 5.47960736e-02f, 3.50771286e-02f, -6.33699819e-02f, -4.63499650e-02f, -4.56619002e-02f,
    -5.21379001e-02f, 4.19163145e-03f, 2.32762229e-02f, 6.54223487e-02f, 6.72071576e-02f, 7.33341053e-02f, 3.08761727e-02f, -5.49556920e-04f,
    -4.11664657e-02f, -5.16538732e-02f, -1.13261640e-02f, -5.74967228e-02f, -3.12647969e-02f, -1.57921407e-02f, -6.63455054e-02f, 4.10512350e-02f,
    2.06221789e-02f, 5.56906164e-02f, 2.03848188e-03f, 2.14341171e-02f, -3.70089803e-03f, 4.25821217e-03f, 1.78124495e-02f, -1.02464966e-01f,
    -5.18707298e-02f, 4.92524281e-02f, 1.96318086e-02f, -1.98797369e-03f, 1.71330273e-02f, 2.53977031e-02f, -6.63265027e-03f, -3.10680401e-02f,
    1.58570558e-02f, 2.96333451e-02f, 1.47143460e-03f, -2.02019308e-02f, -1.39356526e-02f, -2.98974547e-03f, 1.47016319e-02f, -2.82126404e-02f,
    9.45851058e-02f, 3.72636244e-02f, -9.13742036e-02f, -1.00140020e-01f, 1.10056937e-01f, 1.24457940e-01f, -2.41541669e-01f, -1.77706182e-02f,
    1.29789382e-01f, 1.17318422e-01f, 3.08718998e-02f, -3.27938981e-02f, 1.59990610e-04f, -2.84644961e-02f, 3.94392125e-02f, -1.49622887e-01f,
    -4.01805341e-03f, 5.92038967e-02f, -2.59712487e-02f, -4.54374775e-02f, -2.09057219e-02f, 6.69235410e-03f, -5.49607910e-02f, -1.71877653e-03f,
    5.65148927e-02f, 3.92836332e-02f, -1.31872622e-02f, -5.42471595e-02f, 1.72729209e-01f, 1.95658848e-01f, -2.21452079e-04f, -3.46163400e-02f,
    2.53166016e-02f, 8.84016231e-02f, -6.73221797e-02f, -1.33682951e-01f, 1.34975743e-02f, 5.84665546e-03f, 2.91949250e-02f, -2.30388884e-02f,
    -4.26888280e-02f, -2.44924854e-02f, -8.40101484e-03f, -6.15921579e-02f, -3.57322171e-02f, -5.43930717e-02f, -6.57247100e-03f, 2.82759108e-02f,
    -4.63369302e-03f, -3.23379412e-02f, -5.85103966e-03f, 1.68406647e-02f, 2.97079282e-03f, 1.24325487e-03f, 2.62414720e-02f, 6.42747758e-03f,
    4.72873971e-02f, -5.97165786e-02f, -2.85616517e-02f, -1.92333981e-02f, 4.26948331e-02f, -2.19508354e-02f, -4.18962026e-03f, 3.54239419e-02f,
    1.97895076e-02f, 3.29239592e-02f, -6.64862618e-02f, -6.89757317e-02f, 3.74417566e-02f, -3.76164876e-02f, -1.11161740e-02f, 7.68144280e-02f,
    -4.56824526e-03f, -1.78274116e-03f, -1.67436991e-03f, -5.31448051e-03f, -2.83615268e-03f, -1.79513823e-03f, -3.09766410e-03f, -4.23047598e-03f,
    -1.48821017e-03f, -6.37993566e-04f, -4.90870036e-04f, -2.93693738e-03f, 1.74367207e-03f, 2.15442199e-03f, -1.23997557e-03f, 3.21395649e-03f,
    8.57237377e-04f, -2.37333225e-04f, 1.76068780e-03f, 9.28105437e-04f, -3.22554006e-05f, 1.87411974e-03f, 4.64959885e-04f, -5.36042440e-04f,
    2.07708287e-03f, 1.56130141e-03f, -5.90011710e-04f, 6.11591444e-04f, -4.73103428e-05f, 6.44779357e-04f, -1.59506942e-03f, -2.36158352e-03f,
    -2.60181696e-04f, -3.19075258e-03f, -3.06730019e-03f, 1.41435055e-04f, -2.67881388e-03f, -1.31449697e-03f, -1.81806879e-03f, -1.49012764e-03f,
    1.10627210e-04f, -1.06010870e-04f, -5.49944118e-04f, 5.36184933e-04f, 1.57023699e-03f, -1.76208373e-03f, -1.36179419e-03f, -1.47959834e-03f,
    -7.72338768e-04f, -1.07083109e-03f, -5.08811267e-04f, -6.91551249e-04f, -9.77839110e-04f, -1.26841362e-04f, 2.49269046e-03f, 1.41022122e-03f,
    9.71927308e-04f, 1.33454613e-03f, -5.37921442e-05f, -4.70422765e-06f, 6.79433171e-04f, 6.25099172e-04f, 1.11181394e-03f, -6.22571330e-04f,
    -2.42305500e-03f, -3.87747842e-03f, -8.99609411e-04f, -1.72529370e-03f, -2.86022341e-03f, 1.96186407e-03f, -2.02960873e-04f, -1.03329634e-03f,
    -1.06650311e-03f, -3.88594024e-04f, -1.82298609e-04f, -1.50385278e-03f, 1.00996704e-05f, -2.64536764e-04f, -1.09669601e-03f, -8.68296134e-04f,
    -1.37829152e-03f, -1.84877295e-04f, -2.07459391e-03f, -1.91459316e-03f, 7.36673537e-04f, -9.52347706e-04f, -1.55975780e-04f, 1.92138483e-04f,
    1.77492067e-04f, 1.27112563e-03f, 4.73471871e-03f, 3.89887486e-03f, 3.07683065e-03f, 3.12866853e-03f, 2.05388549e-03f, 1.80952216e-03f,
    3.51657887e-04f, 5.27872995e-04f, 7.54259876e-04f, -2.61209556e-03f, -2.29257718e-03f, -9.73316841e-04f, -2.49956013e-03f, -2.27105105e-03f,
    -1.82173133e-03f, -1.15927856e-03f, -1.56290492e-03f, -2.17061606e-03f, 2.21215584e-03f, -2.22407543e-05f, -4.75311565e-04f, 3.01278476e-03f,
    -4.67584687e-06f, -1.05299638e-03f, 1.67812093e-03f, -8.90780822e-04f, -3.12785874e-03f, -1.05015945e-03f, -3.28695471e-03f, -2.86403764e-03f,
    7.05533777e-04f, -1.01915665e-03f, -3.46039538e-04f, 3.90716712e-04f, 5.10314363e-04f, 1.55350455e-04f, 7.90229475e-04f, 3.28886708e-05f,
    -1.17164323e-04f, 1.11205829e-03f, 1.13728398e-03f, 1.69936544e-03f, 1.23335887e-03f, 1.34075829e-03f, 2.02497514e-03f, -1.64022995e-03f,
    5.84139663e-04f, 1.69280532e-03f, -4.37681767e-04f, 2.57597538e-03f, 2.56158854e-03f, 4.42199525e-04f, 4.50343080e-03f, 4.14197333e-03f,
    3.43092531e-02f, -4.78868112e-02f, 1.84240788e-02f, 6.19317368e-02f, 3.13514168e-03f, -4.52566007e-03f, 1.38471052e-02f, 2.53536608e-02f,
    -1.04732765e-03f, 8.71708803e-03f, -3.57258916e-02f, -2.71482952e-03f, 1.79770924e-02f, 5.38704870e-03f, 3.06084822e-03f, 1.97064597e-02f,
    -1.44945141e-02f, -1.74976774e-02f, -1.19476495e-02f, -1.86581770e-03f, -2.26501399e-03f, -2.33237054e-02f, -2.72558536e-03f, -2.65008397e-02f,
    -1.10685490e-02f, -2.83290874e-02f, -4.40896675e-02f, -2.01716796e-02f, -5.26012369e-02f, 2.63112374e-02f, -6.30185232e-02f, -7.98378699e-03f,
    7.55960420e-02f, -6.76743835e-02f, -1.57906618e-02f, 3.48703675e-02f, -3.41327973e-02f, 8.73909518e-03f, 6.89955708e-03f, -3.19659002e-02f,
    -2.86129136e-02f, -3.71310338e-02f, -1.97965875e-02f, -3.49582126e-03f, -3.78965959e-02f, 2.42436286e-02f, 1.20202480e-02f, -3.72892916e-02f,
    5.61985187e-02f, 8.60063434e-02f, -6.71129450e-02f, 5.72360493e-03f, 7.71293715e-02f, -4.24567465e-04f, -1.03406643e-03f, -7.15927929e-02f,
    -3.20701040e-02f, 1.18382253e-01f, -1.14322141e-01f, -1.09025732e-01f, 8.22262913e-02f, -7.96596147e-03f, -3.23390886e-02f, -7.92196766e-03f,
    -1.09501235e-01f, -4.37718667e-02f, 5.16722128e-02f, -9.32967011e-03f, -1.16699887e-02f, 9.81504284e-03f, 1.63963102e-02f, -3.75611894e-02f,
    -6.15243502e-02f, -5.93068311e-03f, 8.21577609e-02f, -1.68883145e-01f, 1.06571438e-02f, 1.81582749e-01f, -3.27240899e-02f, -3.41895781e-02f,
    1.30782664e-01f, 6.57850951e-02f, -3.46279852e-02f, -3.08480840e-02f, -2.93674110e-03f, 2.35862862e-02f, -7.06456304e-02f, 1.56585351e-02f,
    4.93383780e-02f, -4.83416617e-02f, 4.73389477e-02f, -5.68430289e-04f, -4.25126366e-02f, 6.67084940e-03f, 1.59094017e-02f, -4.02172655e-02f,
    1.46011105e-02f, 2.74537895e-02f, -1.27287544e-02f, -3.13134454e-02f, -1.32613229e-02f, -8.73985421e-03f, -5.95528558e-02f, -6.51756749e-02f,
    5.67360707e-02f, -1.65708531e-02f, -1.91439185e-02f, 7.50755966e-02f, -6.43531308e-02f, -1.10964430e-03f, -5.90376072e-02f, 2.05362197e-02f,
    -5.49215935e-02f, -8.64428654e-02f, 5.65204583e-03f, -4.08451259e-02f, -1.56691335e-02f, -6.12214301e-03f, -5.67489974e-02f, 1.93731822e-02f,
    7.01036528e-02f, -1.77940838e-02f, -4.74278443e-02f, 1.96988955e-01f, 7.96211436e-02f, -1.76395718e-02f, 2.87911724e-02f, 1.42500609e-01f,
    -7.95198604e-02f, -8.51416439e-02f, 1.07978232e-01f, -1.73634086e-02f, -7.91853964e-02f, -4.23480682e-02f, -5.74392900e-02f, 1.87350418e-02f,
    -1.12312892e-02f, 2.45336592e-02f, 4.91658524e-02f, 1.55481033e-03f, -2.07035244e-03f, 5.02403155e-02f, -5.65242069e-03f, -5.79706393e-03f,
    -6.39250781e-03f, -4.53925179e-03f, -1.40970880e-02f, 2.91005783e-02f, -1.46105997e-02f, -4.65722522e-03f, -7.91457389e-03f, -2.98908483e-02f,
    -5.31633422e-02f, 3.12447199e-03f, 3.56977209e-02f, -2.62760110e-02f, -9.15454235e-03f, -3.78834940e-02f, -2.94235293e-02f, 4.25400399e-03f,
    -5.49930707e-02f, -4.64490093e-02f, 5.24027422e-02f, 2.31709750e-03f, 3.34257670e-02f, 1.46530345e-02f, -7.22237863e-03f, 8.50797165e-03f,
    -1.53400945e-02f, -1.98697280e-02f, -1.57809220e-02f, -5.05056418e-02f, -3.39610279e-02f, 2.21663136e-02f, -4.92196269e-02f, -5.21828793e-02f,
    3.70874777e-02f, -3.18957865e-02f, -2.38307007e-02f, 2.08805706e-02f, -1.74101107e-02f, -1.96277872e-02f, 5.33400849e-03f, 8.67538853e-04f,
    5.57690859e-03f, 2.57034488e-02f, -1.46878911e-02f, -3.31633724e-02f, 2.85282880e-02f, 1.25567047e-02f, 8.13949294e-03f, -3.46711166e-02f,
    2.70934086e-02f, 2.09389832e-02f, -2.59963553e-02f, -1.49290659e-03f, 2.44362894e-02f, -4.00791829e-03f, 4.17940086e-03f, 6.67362586e-02f,
    3.06817275e-02f, -9.13564116e-03f, 7.00744241e-03f, -1.34419193e-02f, 6.69356552e-04f, 1.45576512e-02f, 1.25870984e-02f, -5.43607660e-02f,
    4.24737670e-02f, -7.18298880e-03f, 4.74358397e-03f, -8.98609869e-04f, 4.13816907e-02f, 3.48713924e-03f, -4.60735038e-02f, 4.76147011e-02f,
    9.03258100e-02f, 3.78268696e-02f, 3.10925823e-02f, 5.25348149e-02f, -1.00367919e-01f, 2.88008917e-02f, 1.22195266e-01f, 2.81810109e-02f,
    6.44972473e-02f, -5.52659370e-02f, -1.32387012e-01f, -7.47123435e-02f, 8.82363915e-02f, -1.27125755e-01f, 4.56416868e-02f, 2.45216101e-01f,
    -4.51600775e-02f, 3.76910232e-02f, 3.09257153e-02f, 1.09847421e-02f, 5.04212193e-02f, -2.16725972e-02f, -6.58629611e-02f, 3.29190493e-02f,
    -1.01936758e-02f, 4.15183417e-02f, 3.61394808e-02f, -8.16785693e-02f, -2.38887183e-02f, 1.31613500e-02f, -5.76053597e-02f, 6.96831197e-02f,
    8.12567025e-02f, -1.73932239e-02f, -1.32357795e-02f, 8.06752741e-02f, 4.71049361e-02f, -7.11029097e-02f, 4.34191562e-02f, 2.77904198e-02f,
    -5.23260273e-02f, 5.98098710e-02f, 5.05292602e-03f, -1.46254590e-02f, 2.08479129e-02f, 4.13652323e-02f, 6.48639351e-02f, 1.20622888e-02f,
    2.18772311e-02f, 6.55991351e-03f, 7.02471333e-03f, -3.52672786e-02f, -2.01874916e-02f, -7.19993375e-03f, 1.47780720e-02f, -2.11771671e-02f,
    -2.15943884e-02f, 6.90411776e-03f, 2.04781140e-03f, -5.02852611e-02f, 3.68053429e-02f, 6.49655657e-03f, -2.74379961e-02f, 4.91697341e-03f,
    -5.47735319e-02f, -2.23293807e-02f, 4.24021892e-02f, -6.20712824e-02f, -5.54863811e-02f, 5.75936884e-02f, 1.69725884e-02f, -1.05167497e-02f,
    -1.36226660e-03f, -8.60960048e-04f, -2.80673635e-06f, -2.40294379e-03f, -2.27030553e-03f, -1.52401743e-03f, -3.42296989e-04f, -1.60641303e-05f,
    1.21349360e-04f, -1.27868517e-03f, -3.50298709e-04f, -4.79415234e-04f, -3.54693178e-03f, -2.70383060e-03f, -2.42562429e-03f, -2.24511256e-03f,
    -1.67986716e-03f, -2.94578983e-03f, 1.46560092e-03f, 1.72386912e-03f, 9.49757174e-04f, 1.62286428e-03f, 4.52022156e-04f, 5.23264578e-04f,
    2.42212787e-03f, 1.81705959e-03f, 1.53947400e-03f, 1.75580231e-03f, 2.79135606e-03f, 2.15227786e-03f, 3.41503089e-03f, 4.41568485e-03f,
    4.04246710e-03f, 1.37262186e-03f, 2.41598883e-03f, 2.79567391e-03f, 4.27584564e-05f, -9.74784605e-04f, -4.35054913e-04f, -9.55951866e-04f,
    -1.74817850e-03f, -6.91455614e-04f, -1.27356220e-03f, -1.36095053e-03f, -8.38749460e-04f, -1.11276004e-03f, -1.79340865e-03f, -1.28008984e-03f,
    -4.04672493e-04f, 1.94493332e-03f, 5.50962402e-04f, 2.25887750e-04f, 9.75572621e-04f, 1.23992644e-03f, -3.66575387e-03f, -2.20164843e-03f,
    -3.85710457e-03f, -1.58433476e-03f, -1.01408700e-03f, -2.79885298e-03f, 6.43757012e-05f, 7.66205267e-05f, -1.32691278e-03f, -1.62553939e-03f,
    -1.33494043e-03f, -3.83496459e-04f, 4.76760797e-05f, 4.98859117e-05f, 1.00665505e-03f, 8.86309659e-04f, 5.85880829e-04f, 1.48839608e-03f,
    2.54582311e-03f, 2.51138210e-03f, 3.71607020e-03f, 1.04544288e-03f, 1.48716522e-03f, 2.74642720e-03f, 1.37920817e-03f, 6.49874390e-04f,
    1.81968010e-03f, -3.30008188e-04f, 8.67503928e-04f, 8.20711604e-04f, 1.81056123e-04f, 2.29398487e-03f, 1.34563178e-03f, -1.02215607e-04f,
    5.81263506e-04f, 5.70510922e-04f, -1.23690127e-03f, -7.33184977e-04f, -5.36335516e-04f, -1.75020355e-03f, -1.36660249e-03f, -1.35890197e-03f,
    -2.01031612e-03f, -2.95973034e-03f, -3.59249325e-03f, -1.12882804e-03f, -2.10690964e-03f, 2.19813315e-04f, -2.53337272e-03f, -2.44479184e-03f,
    -1.16072688e-03f, -4.14527894e-04f, 2.86458526e-04f, 1.09555223e-03f, -3.75683507e-04f, 2.68529495e-03f, 1.94601063e-03f, -9.14483331e-04f,
    2.03387928e-04f, -4.59683419e-04f, -1.61061344e-05f, 6.45351538e-04f, -9.16990335e-04f, -3.18262656e-03f, -1.60200172e-03f, -2.76023848e-03f,
    -1.48769631e-03f, -1.78878044e-03f, -1.80747651e-03f, -4.94581414e-04f, -8.41991743e-04f, -1.61027920e-03f, -2.95101642e-03f, -2.90225190e-03f,
    -3.05071496e-03f, -7.13950023e-04f, -6.98284828e-04f, -6.99739787e-04f, -8.05515563e-04f, -4.01390454e-04f, 3.80732672e-04f, -2.23687338e-03f,
    -1.39656116e-03f, -2.63065728e-03f, -1.45362702e-03f, -9.40855069e-04f, -1.52810127e-03f, -5.32537582e-04f, -4.99791749e-05f, -1.37979980e-03f,
    -4.57496271e-02f, -1.89245604e-02f, -8.70152265e-02f, -2.94623654e-02f, -6.80231303e-03f, -6.15230352e-02f, -5.77630885e-02f, -1.98563691e-02f,
    -1.08855546e-01f, 3.45235728e-02f, 4.22269665e-02f, 4.21320610e-02f, 6.51305243e-02f, -1.45624220e-01f, 5.60617708e-02f, 5.93328588e-02f,
    9.11400393e-02f, 6.14281595e-02f, -8.33629724e-03f, -3.35752778e-02f, -1.46979615e-02f, -3.60712260e-02f, -6.15795814e-02f, -2.50875335e-02f,
    -1.37233911e-02f, -1.36462385e-02f, -1.22380583e-02f, 5.25851920e-03f, 3.84005741e-03f, -3.24878097e-02f, 2.50795688e-02f, 6.06115609e-02f,
    1.82765890e-02f, -2.32785637e-03f, 2.14019287e-02f, -3.16401199e-03f, -3.10509931e-02f, -3.41755636e-02f, -4.75693271e-02f, -3.96509320e-02f,
    -2.98564192e-02f, -4.31444645e-02f, -6.45141527e-02f, -5.69572076e-02f, -5.24276830e-02f, -1.87928119e-04f, -1.02348048e-02f, -1.11184139e-02f,
    4.88493741e-02f, -2.13161879e-03f, -4.32902575e-02f, 2.26139389e-02f, 8.74156225e-03f, -4.06321473e-02f, 1.49469310e-02f, -4.39337119e-02f,
    -2.65160594e-02f, 4.99009416e-02f, 2.11329702e-02f, 1.12760784e-02f, 2.96490714e-02f, -9.86935012e-03f, 2.32267715e-02f, 3.26741934e-02f,
    -5.67739177e-03f, 6.13951199e-02f, 4.39425856e-02f, -8.35404079e-03f, 1.04658201e-01f, 6.76831007e-02f, 5.54730222e-02f, 1.08233914e-01f,
    6.18623849e-03f, 6.42900635e-03f, 1.36113511e-02f, -4.23192326e-03f, -1.73297115e-02f, 8.05257261e-03f, 2.20465362e-02f, -9.26051289e-03f,
    -1.79659259e-02f, 7.26785418e-03f, 3.40749584e-02f, 6.27031252e-02f, -3.30310897e-03f, 3.60514075e-02f, 6.26935214e-02f, 5.21672629e-02f,
    6.91235438e-02f, 9.52705666e-02f, 1.97617318e-02f, 2.25509722e-02f, -4.22642305e-02f, 1.70489568e-02f, -2.40194947e-02f, -1.38931617e-01f,
    -4.27989997e-02f, -6.03926629e-02f, -1.11787274e-01f, -6.63809180e-02f, -5.56473769e-02f, -9.00963694e-02f, -8.49485490e-03f, 3.84122208e-02f,
    -2.73749530e-02f, -1.63194258e-02f, 9.61014070e-03f, -3.88422571e-02f, -1.26516437e-02f, 2.34957058e-02f, -2.87834252e-03f, 5.18716760e-02f,
    4.09440622e-02f, -2.10571475e-02f, 5.66060767e-02f, 2.19625607e-02f, -7.20047299e-03f, 1.24530150e-02f, 1.27835898e-02f, 4.28837538e-02f,
    -7.81650003e-03f, 3.54107730e-02f, 6.51476756e-02f, -2.30418448e-03f, 2.15958944e-03f, -6.74870005e-03f, 4.91461866e-02f, -1.69107545e-04f,
    5.70460176e-03f, -4.28032130e-03f, -4.13207896e-02f, 1.48419803e-02f, 2.12541572e-03f, -4.87328134e-02f, 3.73876132e-02f, -4.95171547e-02f,
    -2.61474159e-02f, -7.28634596e-02f, -2.64204219e-02f, 2.01239511e-02f, -3.61078531e-02f, -2.42178794e-02f, 1.45478891e-02f, -6.07564785e-02f,
    3.04789897e-02f, -5.07439207e-03f, 2.12658159e-02f, 5.63219041e-02f, -1.26942843e-02f, 4.94476967e-02f, 4.07681204e-02f, -1.67647947e-03f,
    3.70424837e-02f, -1.69929408e-03f, -2.04808637e-02f, 1.86605360e-02f, -4.14613634e-02f, 2.42999103e-02f, -6.50555547e-03f, 1.84967685e-02f,
    3.29119596e-03f, 3.41080092e-02f, -2.69039888e-02f, 1.58475935e-02f, -4.06310819e-02f, -2.76934374e-02f, 8.59930813e-02f, -3.15042608e-03f,
    -1.87654737e-02f, -2.23615002e-02f, -3.09489835e-02f, 5.66883795e-02f, -8.31333268e-03f, 2.03801896e-02f, 5.41188344e-02f, 2.49065994e-03f,
    -1.87654104e-02f, 7.40507096e-02f, 3.63098569e-02f, 1.34242028e-02f, -6.07946329e-02f, -3.72297280e-02f, -4.04492579e-02f, 1.07785559e-03f,
    4.69952673e-02f, 1.17499987e-02f, 2.19251332e-03f, 4.62464914e-02f, -1.34054897e-02f, 3.04451250e-02f, 1.13873137e-02f, 3.02373357e-02f,
    -3.67219523e-02f, -3.05353701e-02f, -1.76353306e-02f, -3.57220918e-02f, -3.04679573e-02f, -5.61356219e-03f, -1.22170262e-02f, -4.46333783e-03f,
    -4.26390171e-02f, -5.55416569e-03f, 7.92775210e-03f, -7.16444552e-02f, 2.26054210e-02f, -1.70029067e-02f, -4.42343056e-02f, -1.65609270e-02f,
