#include "features_10_expand3x3_bias.h"

__attribute__((aligned(16))) const float features_10_expand3x3_bias[256] = {
    3.44596920e-03f, 1.49220051e-02f, 3.34517984e-03f, 8.35630111e-03f, 2.47102068e-03f, 1.22369202e-02f, -5.79737453e-03f, -8.28995556e-03f,
    -3.72246577e-04f, 1.22849829e-02f, 8.26363545e-03f, -1.41996862e-02f, -1.34313935e-02f, 8.03563092e-03f, 1.70421116e-02f, -3.07353213e-03f,
    1.09344143e-02f, 5.63639961e-03f, 4.00359370e-03f, 1.00825904e-02f, 1.33171184e-02f, 2.19374001e-02f, -1.33287804e-02f, 1.10699143e-02f,
    9.76084638e-03f, 1.34065179e-02f, -8.80947150e-03f, 8.83228332e-03f, -3.44168991e-02f, 9.46001243e-03f, 5.70122385e-03f, -9.31487652e-04f,
    -1.75414514e-02f, -2.19639856e-03f, -1.27313994e-02f, 7.15111662e-03f, 3.17388657e-03f, -2.41483673e-02f, -4.55706613e-03f, 4.78668045e-03f,
    1.41671449e-02f, 1.41759301e-02f, -1.53720304e-02f, -3.05397296e-03f, 1.01501765e-02f, 1.53926816e-02f, -6.07086928e-04f, 7.98703358e-03f,
    1.12038581e-02f, -5.49248699e-03f, -1.30073857e-02f, 1.75563712e-02f, -1.60382558e-02f, 6.09336793e-03f, -4.14628908e-02f, -9.65836551e-03f,
    2.58699502e-03f, -4.79659019e-03f, -3.21861170e-03f, 1.40754487e-02f, 2.24311035e-02f, -3.19859898e-03f, -5.96653204e-03f, 5.75863477e-03f,
    3.96698480e-03f, 1.94851421e-02f, 9.30248853e-03f, -1.53021328e-03f, -5.21204621e-03f, 1.01356779e-03f, -3.27647268e-03f, 2.72346660e-02f,
    6.48934115e-03f, -2.80281133e-03f, 7.64256436e-03f, -1.22185971e-03f, 2.16847453e-02f, 3.55955884e-02f, 5.85602422e-04f, -5.59549686e-03f,
    -4.22560319e-04f, -1.04921591e-02f, 8.82464368e-03f, 1.86118241e-02f, -2.27062003e-04f, -2.15620641e-02f, 2.35683452e-02f, 6.76279841e-03f,
    1.54140042e-02f, -8.88257660e-03f, 5.63613046e-03f, -1.15998145e-02f, 1.08727645e-02f, -5.97483711e-03f, -1.01925037e-03f, 1.53237451e-02f,
    4.88096522e-03f, -2.91466545e-02f, 9.88863967e-03f, -4.00675274e-03f, -8.45164061e-03f, -2.28113891e-03f, -1.26741556e-02f, -8.00608471e-03f,
    9.47735179e-03f, 5.33218170e-03f, -6.71975967e-03f, 6.20163465e-03f, 3.30845849e-03f, -7.35417847e-03f, 5.42630674e-03f, -1.37806321e-02f,
    6.31923042e-03f, -6.96229842e-03f, 2.09418815e-02f, -2.23188801e-03f, -9.66656022e-04f, 7.06701819e-03f, 4.36346047e-04f, 2.84842518e-03f,
    -6.79269340e-03f, 1.59175005e-02f, 2.84324866e-03f, -1.91818143e-03f, 1.16495071e-02f, 1.34328259e-02f, 5.98419458e-03f, -9.06955358e-03f,
    -1.45588201e-02f, 8.09366582e-04f, 1.88093651e-02f, 1.59916058e-02f, 8.42354354e-03f, -1.58012416e-02f, -3.31949294e-02f, 1.37377055e-02f,
    -5.41607151e-03f, -4.30334872e-03f, -3.37808684e-04f, -1.73594698e-03f, 6.43318798e-03f, 3.13885487e-03f, 1.13381669e-02f, 2.04737801e-02f,
    -1.96827631e-02f, 5.17131109e-03f, 1.35604879e-02f, -8.66851676e-03f, 9.94717889e-03f, -1.23746190e-02f, -8.06470960e-03f, 2.44876333e-02f,
    1.42820533e-02f, -3.58290202e-03f, -1.12904022e-02f, 4.21945658e-03f, 3.09963413e-02f, -3.50402734e-05f, -3.99134355e-03f, 1.76358651e-02f,
    5.77164209e-03f, -5.90408267e-03f, -4.75940295e-03f, -1.03922887e-02f, -2.31294222e-02f, 5.30271837e-03f, -8.85355938e-03f, -8.44167918e-03f,
    6.90340297e-04f, -1.26196267e-02f, -8.87267664e-03f, 3.55571671e-03f, -2.70316210e-02f, 4.13843896e-03f, 1.93138942e-02f, 2.86838622e-03f,
    -3.78623931e-03f, 2.78816056e-02f, -5.07437671e-03f, -4.04631905e-03f, 1.50872236e-02f, -8.92191194e-03f, -1.07823098e-02f, 4.86480771e-03f,
    1.52355526e-04f, 5.91159565e-03f, 2.99417116e-02f, 1.31891398e-02f, -1.04620755e-02f, -1.08280284e-02f, 6.96352730e-03f, 1.76747423e-02f,
    1.82088967e-02f, -2.56462656e-02f, -6.79619843e-03f, 7.42242672e-03f, -1.94829088e-02f, -1.26649830e-02f, -5.83773479e-03f, 6.28656568e-03f,
    1.85655907e-03f, 1.33565022e-03f, -4.10155468e-02f, 5.87536907e-03f, 1.06553603e-02f, -1.03951676e-03f, -1.99528877e-02f, 1.40247289e-02f,
    2.46425755e-02f, 3.69846541e-03f, -9.48544592e-03f, 6.66365633e-03f, 1.15200700e-02f, 9.90898255e-03f, 5.84837422e-03f, 1.66360494e-02f,
    7.58688012e-03f, 6.57302514e-03f, 1.05328392e-02f, 6.78985612e-03f, 1.43358996e-03f, 2.23444123e-02f, -5.54671092e-03f, -2.96476320e-03f,
    -2.54864469e-02f, 9.28093586e-03f, -1.19926585e-02f, -2.22454704e-02f, -1.32710338e-02f, 1.60076395e-02f, -6.67106779e-03f, 1.52400658e-02f,
    1.83478408e-02f, -1.85486805e-02f, -1.71463948e-03f, 1.84599229e-03f, -1.03915567e-02f, 1.06725786e-02f, -8.41799472e-03f, -7.27301138e-03f,
    9.64417122e-03f, -4.34396882e-03f, -7.68809998e-03f, 5.31193800e-03f, 4.67358250e-03f, 1.37623101e-02f, -8.54172464e-03f, -7.29275809e-04f,
    3.50722065e-03f, 1.90334283e-02f, 5.20795351e-03f, 1.58025417e-02f, 1.93057652e-03f, 1.91682787e-03f, -2.87898118e-03f, 1.41747687e-02f
};

const int features_10_expand3x3_bias_shape[1] = { 256 };
const int features_10_expand3x3_bias_ndim = 1;
const size_t features_10_expand3x3_bias_numel = 256;
