#include "features_7_expand1x1_weight.h"

__attribute__((aligned(16))) const float features_7_expand1x1_weight[4096] = {
    -1.70000494e-01f, 1.24173025e-02f, -1.41837876e-02f, -1.29774272e-01f, 5.02585666e-03f, -5.26429377e-02f, -8.58906750e-03f, 8.29897970e-02f,
    1.49534658e-01f, 1.12685736e-03f, 5.49450293e-02f, 1.70576219e-02f, -1.14834756e-01f, -1.16758250e-01f, 5.88352457e-02f, -1.55973971e-01f,
    1.53307036e-01f, 6.02812767e-02f, 4.13152166e-02f, -1.89834222e-01f, -1.77304566e-01f, 2.05241308e-01f, 2.85113215e-01f, 1.23104975e-01f,
    -1.69563010e-01f, 1.02076493e-01f, 5.51497787e-02f, 2.73805466e-02f, 6.70105144e-02f, -7.38988025e-03f, 1.32085934e-01f, -2.96730734e-02f,
    4.06139344e-03f, 5.98857142e-02f, -8.51945132e-02f, 1.13003782e-03f, -1.23774856e-01f, -1.92831904e-01f, 1.92011684e-01f, 1.83054104e-01f,
    2.60742009e-01f, -1.43167064e-01f, 2.48223171e-02f, 1.12961959e-02f, -6.15126528e-02f, -6.97171241e-02f, -7.91161954e-02f, -1.44685596e-01f,
    -7.81444088e-03f, -2.09367245e-01f, -1.97824717e-01f, 3.81393135e-02f, 4.96016145e-02f, -9.95002910e-02f, 1.85321018e-01f, 1.10268429e-01f,
    -2.03569583e-03f, 1.37050182e-01f, -1.39850825e-01f, 6.40970990e-02f, 1.02673560e-01f, 5.31348772e-02f, -8.19450766e-02f, -2.07137764e-01f,
    -2.70984888e-01f, 1.57005772e-01f, -4.12046552e-01f, -3.94306295e-02f, 1.19597986e-02f, -7.16010034e-02f, 1.69183329e-01f, -2.36768425e-01f,
    1.07324846e-01f, 1.74463429e-02f, 1.96712613e-01f, 5.97728007e-02f, 2.26320792e-02f, 7.82149136e-02f, 7.22181126e-02f, -3.79394591e-02f,
    7.76115283e-02f, 5.19338213e-02f, 2.72857375e-03f, 3.27542983e-02f, 7.44488984e-02f, -1.45470910e-02f, 1.77114516e-01f, 4.99320589e-02f,
    7.37837777e-02f, 7.27177113e-02f, 3.58238667e-02f, 1.43719465e-02f, -2.62558252e-01f, 1.78889990e-01f, 9.18352380e-02f, 2.14849934e-02f,
    4.06293496e-02f, 3.48630905e-01f, -1.39692113e-01f, 5.79922367e-03f, 3.95460092e-02f, -1.33418784e-01f, -1.22307725e-01f, -7.07811192e-02f,
    -2.71813627e-02f, -7.24831894e-02f, 1.01550825e-01f, -4.12829891e-02f, 3.29378620e-02f, -2.85218470e-02f, -1.72191672e-02f, -2.39842813e-02f,
    -4.44438010e-02f, 4.29966189e-02f, 1.68582812e-01f, -6.94819689e-02f, -1.23244897e-01f, -6.56813234e-02f, 8.68601650e-02f, 5.76947443e-02f,
    -4.19253632e-02f, 1.97956800e-01f, 6.32117838e-02f, -6.07142188e-02f, 5.47291385e-03f, 7.66372532e-02f, 1.26192486e-02f, 8.85706395e-02f,
    -1.72500879e-01f, 4.11251523e-02f, -1.27931370e-03f, 8.81492570e-02f, -4.02636640e-03f, 6.67271838e-02f, -1.00704059e-01f, 7.37769753e-02f,
    1.84412807e-01f, -1.03262857e-01f, -2.82158833e-02f, -5.37387617e-02f, -1.51367728e-02f, -1.06973156e-01f, -4.41049896e-02f, -1.32179543e-01f,
    2.30283529e-01f, -6.57135770e-02f, 8.89945775e-02f, 1.89815730e-01f, -1.08719561e-02f, 4.30334173e-02f, 4.59290564e-01f, 2.53180601e-02f,
    -1.18458427e-01f, -2.26260070e-02f, -4.90371510e-02f, 3.55183706e-02f, 4.66842800e-02f, -2.43568659e-01f, -3.24407928e-02f, -3.28919105e-02f,
    5.38004609e-03f, 8.91576894e-03f, -4.55046892e-02f, 2.93622404e-01f, 3.10490996e-01f, -2.12709501e-01f, 2.85746399e-02f, -6.13802932e-02f,
    -4.59531732e-02f, 2.62733102e-01f, -1.28514707e-01f, -5.98968472e-03f, -1.74084231e-01f, -6.85340464e-02f, -1.27284274e-01f, 7.38497823e-03f,
    -4.58486006e-02f, 3.57060246e-02f, -2.39269659e-01f, -3.97925898e-02f, 2.38473386e-01f, -2.21474748e-02f, -1.42739803e-01f, 3.61345857e-01f,
    1.40364678e-03f, -1.93658933e-01f, 3.41054797e-01f, 4.75409962e-02f, -4.67264540e-02f, -3.64277214e-02f, 2.07325500e-02f, -6.93743080e-02f,
    2.63002072e-03f, 1.92733016e-02f, -6.83269426e-02f, -9.10518970e-03f, 1.97599586e-02f, -1.33808877e-03f, -8.20914432e-02f, 2.80445606e-01f,
    1.77603047e-02f, 3.25085893e-02f, 2.21689939e-02f, -8.19209963e-02f, -5.04658930e-02f, -5.63100427e-02f, 1.32704601e-01f, 1.29378200e-01f,
    -3.95893417e-02f, 1.74813718e-02f, 1.05638400e-01f, 6.11329684e-03f, -1.41326012e-02f, -1.34781495e-01f, -1.29056409e-01f, 2.20723003e-01f,
    -4.84800488e-02f, -6.13847151e-02f, 3.53380628e-02f, 3.75576951e-02f, -4.34560031e-02f, -1.05485216e-01f, -1.53122753e-01f, 1.08898714e-01f,
    8.38460103e-02f, -1.00477323e-01f, -1.48519263e-01f, 1.42474487e-01f, 1.43697560e-01f, -1.80698097e-01f, -1.13945208e-01f, -8.34171399e-02f,
    1.96353868e-01f, 2.35168025e-01f, -1.18570887e-02f, 1.16210327e-01f, -5.59635311e-02f, -9.41332430e-02f, 1.48568135e-02f, -1.37781605e-01f,
    2.51641423e-01f, 6.46036044e-02f, 4.39606681e-02f, -2.95754224e-01f, 9.94442850e-02f, 1.63865667e-02f, -5.51068364e-03f, 8.19671303e-02f,
    -1.25774845e-01f, -1.28976777e-01f, 1.63658068e-01f, 1.18461415e-01f, 7.07870498e-02f, 2.25154925e-02f, -2.38391876e-01f, 2.12301582e-01f,
    4.04461697e-02f, 7.58039206e-02f, 1.84434131e-02f, -2.93436684e-02f, -6.56769350e-02f, -9.96867344e-02f, 3.29812169e-02f, 1.21127032e-01f,
    1.43925980e-01f, -2.31318057e-01f, 1.23037718e-01f, 2.28697777e-01f, -1.37964115e-02f, -1.65013373e-02f, -7.39627481e-02f, -1.21505363e-02f,
    -9.31832567e-03f, -1.23131156e-01f, 1.73818748e-02f, -4.99140248e-02f, 1.89231783e-01f, -1.22036912e-01f, 8.91322047e-02f, -7.91213512e-02f,
    -1.03139311e-01f, -4.33013141e-02f, -1.61118075e-01f, -7.47354031e-02f, 1.67350948e-01f, -8.75449777e-02f, 4.99697924e-02f, 3.35471183e-02f,
    -8.97670314e-02f, 1.98183715e-01f, -1.01629414e-01f, -2.31707662e-01f, -8.84966329e-02f, -1.03526674e-02f, 1.84507534e-01f, -2.95899939e-02f,
    1.49792954e-01f, -1.36287272e-01f, -3.40494476e-02f, -2.25980550e-01f, -6.02654591e-02f, 4.85626934e-03f, 3.56758498e-02f, -5.89319598e-03f,
    -1.14305295e-01f, 5.15188277e-02f, 9.27372724e-02f, -1.59868598e-01f, -7.40573183e-02f, 1.82618365e-01f, -1.16573591e-02f, 1.54167861e-01f,
    9.56466645e-02f, 3.10937595e-02f, -1.12462692e-01f, -5.87131409e-03f, 1.31317079e-02f, 2.17055023e-01f, 7.93344751e-02f, -1.82013698e-02f,
    1.55050799e-01f, -4.65719923e-02f, -3.80295813e-02f, -3.50348391e-02f, -6.06642403e-02f, -2.58695222e-02f, -8.23187269e-03f, -1.32389572e-02f,
    -6.75563421e-03f, -3.04789077e-02f, 6.58253059e-02f, 5.55852577e-02f, -2.06705466e-01f, -1.25452369e-01f, 1.84707064e-02f, 1.88114673e-01f,
    9.18215513e-02f, 1.08865760e-02f, 1.67115226e-01f, 8.00849199e-02f, -6.56168535e-02f, -2.37932708e-02f, -5.31888306e-02f, 6.84732199e-02f,
    -5.09754978e-02f, 1.63176544e-02f, -7.29605108e-02f, 7.95160607e-02f, 2.40001418e-02f, -1.54055595e-01f, -1.10447131e-01f, 6.83725849e-02f,
    1.25785530e-01f, 2.81730443e-02f, -1.81428492e-02f, -6.43391237e-02f, -8.71969014e-02f, 2.44517475e-01f, 3.54834832e-02f, -1.45318341e-02f,
    -9.52001438e-02f, -1.02105401e-02f, -1.69216767e-01f, -1.07957155e-03f, -3.40623707e-02f, -4.48621921e-02f, 6.19773082e-02f, 6.41293749e-02f,
    -1.01851821e-01f, -6.99868053e-02f, 5.98776229e-02f, 4.02208477e-01f, -3.09782363e-02f, 2.47985154e-01f, -7.01167583e-02f, -4.89022285e-02f,
    -8.51597488e-02f, 9.42074060e-02f, -9.84092951e-02f, -5.56336045e-02f, -6.80469573e-02f, -2.24759549e-01f, 3.22261244e-01f, -8.32150802e-02f,
    -1.62078455e-01f, -6.30522296e-02f, -1.69722274e-01f, -6.72460645e-02f, -4.01144587e-02f, -1.15720652e-01f, 7.10435510e-02f, -1.15333162e-01f,
    1.22355640e-01f, 1.71258394e-02f, -1.72040761e-01f, -8.19010139e-02f, -2.33894080e-01f, -3.82033326e-02f, 3.22299600e-02f, 7.79351592e-02f,
    1.20022081e-01f, 1.78278498e-02f, 2.31208563e-01f, 1.39067963e-01f, -2.68253731e-03f, -2.32698116e-02f, 3.20869446e-01f, 1.11381803e-03f,
    1.31819397e-01f, 1.73823699e-01f, 1.91713851e-02f, 5.87046072e-02f, 5.96579676e-03f, -1.09603263e-01f, -2.89423056e-02f, 5.91792390e-02f,
    1.72755541e-03f, 3.54600810e-02f, -9.14150923e-02f, -2.38376111e-03f, 9.11989212e-02f, -2.38110200e-01f, -1.05914876e-01f, 3.49791497e-02f,
    3.27083141e-01f, -2.13916197e-01f, 2.01727618e-02f, -4.42967862e-02f, 8.28375593e-02f, 6.53123036e-02f, 7.61186928e-02f, 3.19739133e-02f,
    -1.37500703e-01f, -2.40297150e-02f, -1.17783971e-01f, -9.70803425e-02f, 7.93162361e-02f, -8.84179473e-02f, 1.04580969e-01f, 1.05012111e-01f,
    -6.68995231e-02f, 2.04789206e-01f, 8.42503086e-02f, -6.93221167e-02f, 6.10501654e-02f, -2.95217335e-02f, -3.11687333e-03f, -5.76723628e-02f,
    9.01793092e-02f, -1.92979082e-01f, 2.11028531e-02f, 1.86177939e-01f, 6.91974238e-02f, 7.72853866e-02f, -1.64902315e-01f, -3.37869972e-02f,
    -8.82855281e-02f, -1.15802586e-01f, 1.00468919e-02f, 2.72859961e-01f, -9.53341872e-02f, 1.40191317e-02f, -1.32432114e-02f, -4.44589481e-02f,
    -2.23042746e-03f, -5.92158996e-02f, 8.05510432e-02f, -6.61657006e-02f, -7.29649812e-02f, 8.21464881e-02f, -3.79699394e-02f, -1.25754654e-01f,
    5.00983074e-02f, 5.37455454e-02f, 1.57372400e-01f, 2.31747806e-01f, -9.56032891e-03f, -2.88090650e-02f, 5.38603663e-02f, -4.83262129e-02f,
    -7.95977265e-02f, 2.93978006e-01f, 4.80403416e-02f, -3.01754544e-03f, -5.47033548e-02f, -1.95601299e-01f, -2.78684869e-02f, 1.90696523e-01f,
    -3.84922465e-03f, 1.04024885e-02f, 1.93290543e-02f, 1.63354129e-01f, -1.53096378e-01f, -3.95718142e-02f, -3.30732577e-02f, -1.38096347e-01f,
    5.74648045e-02f, 2.61983629e-02f, -1.39194116e-01f, -3.06297876e-02f, -1.86637193e-02f, -8.82431790e-02f, -1.30350351e-01f, 2.11438350e-02f,
    8.13989863e-02f, 1.03034601e-01f, -3.86258326e-02f, -4.79107574e-02f, -8.81877616e-02f, 2.53948271e-01f, -8.33361670e-02f, 7.72498269e-03f,
    -1.11217350e-01f, -1.46338949e-02f, 3.97369862e-01f, -3.96189699e-03f, 1.92468371e-02f, 1.11186214e-01f, -1.36728764e-01f, -2.72377580e-01f,
    4.28979993e-02f, -2.03867862e-03f, -8.94808024e-02f, 1.17663741e-02f, -2.03450322e-02f, -3.69189903e-02f, -6.27679378e-02f, 6.10314659e-04f,
    2.25479361e-02f, -9.05244611e-03f, 4.62189540e-02f, 7.59809185e-03f, 3.50151211e-02f, 1.89905427e-02f, -1.01627402e-01f, 3.32615967e-03f,
    -1.46535086e-02f, -2.13764593e-01f, 1.46431876e-02f, 1.61726847e-02f, 5.50681412e-01f, -1.46072581e-01f, -3.41631062e-02f, 4.54303734e-02f,
    -1.59164712e-01f, 3.91059518e-02f, -3.51645380e-01f, -6.71687489e-03f, 3.44775207e-02f, -1.19429246e-01f, 8.12962800e-02f, 7.59096146e-02f,
    4.69999880e-01f, 7.53243789e-02f, 2.59363145e-01f, -1.29099209e-02f, -9.28691253e-02f, -8.73583183e-02f, 1.97457179e-01f, 4.51539904e-02f,
    1.55172721e-02f, 6.23758473e-02f, 8.28431398e-02f, 1.62220404e-01f, -4.32442874e-03f, -2.06168249e-01f, -1.18891641e-01f, -5.66488095e-02f,
    -1.28343835e-01f, -9.84297320e-02f, 1.55844958e-02f, -6.26184270e-02f, 4.43553254e-02f, 7.25525990e-02f, 3.58816758e-02f, 1.25072151e-01f,
    -2.57596169e-02f, 2.26319194e-01f, -1.29134208e-01f, 3.43109854e-02f, -2.19365820e-01f, -9.86196399e-02f, 1.09375477e-01f, 1.02023385e-01f,
    1.34428784e-01f, 1.34052500e-01f, 5.83512783e-02f, 2.99352221e-02f, 5.01073673e-02f, -1.81799680e-02f, 8.18657503e-03f, -6.96955547e-02f,
    -5.37784398e-02f, -2.12306812e-01f, 2.23505199e-01f, -4.09012698e-02f, -6.75103962e-02f, -2.56322660e-02f, -8.43230337e-02f, -1.55841708e-01f,
    -1.12167029e-02f, -1.25825569e-01f, 4.70028073e-02f, -1.47923037e-01f, 1.04505382e-01f, 1.34268835e-01f, 1.13287993e-01f, -7.16818646e-02f,
    -3.48559730e-02f, 7.67637463e-03f, -1.24375485e-01f, 2.69430708e-02f, -1.76379588e-02f, -8.32523108e-02f, -1.40177622e-01f, 1.98395237e-01f,
    -3.66339250e-03f, 7.69765973e-02f, 5.03707267e-02f, -4.04981337e-02f, 2.70937413e-01f, 1.62966818e-01f, 1.07019849e-01f, 4.49278280e-02f,
    -4.30339426e-02f, 7.92185962e-02f, 2.77704038e-02f, -1.40063643e-01f, 1.10875145e-02f, 1.05838723e-01f, 4.49981168e-02f, -9.29856673e-02f,
    1.72551442e-02f, -1.49557933e-01f, -1.42893326e-02f, -9.13908705e-02f, -5.40743582e-02f, 6.38372526e-02f, 1.18253872e-01f, 4.26250882e-02f,
    -1.16654821e-02f, -1.22123053e-02f, -9.04600099e-02f, -3.00349742e-02f, 5.23990571e-01f, 1.04222856e-02f, -5.21234162e-02f, -9.22666024e-03f,
    4.77050990e-02f, 5.59989586e-02f, -1.82973929e-02f, 2.14455836e-02f, -7.89609253e-02f, -3.68277207e-02f, -3.71543169e-02f, 1.61768831e-02f,
    -1.03009202e-01f, 3.87995899e-01f, -8.88679698e-02f, 1.65745877e-02f, 9.01697874e-02f, -5.69108315e-02f, -5.67026250e-02f, -9.07682255e-02f,
    -5.06725023e-03f, 3.89860496e-02f, -3.44853044e-01f, -5.55009581e-02f, -2.34547984e-02f, -9.38948244e-02f, 5.89279421e-02f, 1.20087780e-01f,
    -1.47205040e-01f, -7.03619272e-02f, 4.07538973e-02f, 6.07651882e-02f, 1.00873932e-01f, -7.64217880e-03f, -1.29291505e-01f, -3.85292508e-02f,
    1.65528029e-01f, 4.46357280e-02f, 1.10170908e-01f, -2.33597383e-02f, -7.63289481e-02f, -3.04553136e-02f, 5.22042736e-02f, 4.95021865e-02f,
    -5.27240559e-02f, 1.72917936e-02f, 7.20823407e-02f, -7.30877742e-03f, -2.49116439e-02f, -1.64806977e-01f, 5.57852536e-02f, 2.83360153e-01f,
    4.62891050e-02f, 1.16485059e-01f, 5.36902957e-02f, 1.81069270e-01f, -2.89334267e-01f, -8.84564966e-02f, -8.34615454e-02f, 4.21493948e-02f,
    -7.09754974e-02f, -8.98203105e-02f, -4.58546951e-02f, 5.79686463e-02f, 2.47326121e-02f, 4.59634066e-02f, -1.49812937e-01f, -1.03434781e-02f,
    1.52031004e-01f, -3.55476029e-02f, 2.30969992e-02f, 2.14278768e-03f, -2.75934543e-02f, 6.47076443e-02f, -1.13665082e-01f, -1.72048435e-01f,
    1.53932169e-01f, 9.55460742e-02f, 2.68461704e-01f, 8.77965838e-02f, -2.88742464e-02f, 1.76950395e-01f, 1.47962108e-01f, -1.29457906e-01f,
    1.64844811e-01f, -1.59147561e-01f, 3.20305973e-02f, -2.14721449e-02f, -2.80740261e-02f, 2.77098548e-02f, -2.05567747e-01f, 1.65048808e-01f,
    2.04007374e-03f, 1.49010211e-01f, -8.82609282e-03f, 3.00435632e-01f, 2.47794166e-01f, -7.75437355e-02f, -1.28915533e-02f, 6.52564364e-03f,
    1.11355400e-02f, 3.60719487e-02f, -2.63302960e-03f, -1.30302861e-01f, -8.76056701e-02f, -3.77382711e-02f, 3.62502923e-03f, 1.29631879e-02f,
    -3.37965414e-02f, -1.06245309e-01f, -3.89285348e-02f, 1.12698805e-02f, 3.67748737e-02f, -7.67430812e-02f, -1.33946612e-01f, 1.32704899e-02f,
    -4.27464955e-02f, 5.82480920e-04f, 1.13220327e-01f, 2.02710018e-01f, -2.25144010e-02f, -9.33508947e-02f, -1.52284745e-02f, -1.21176891e-01f,
    6.54093875e-03f, -1.26711324e-01f, -1.01476386e-01f, -8.09298977e-02f, -6.74019894e-03f, -1.39175162e-01f, -1.08345829e-01f, 5.87306246e-02f,
    1.91393539e-01f, 2.36829501e-02f, -1.01369895e-01f, -6.61743209e-02f, 9.79403928e-02f, 1.09448776e-01f, 1.32390797e-01f, 1.96492478e-01f,
    -7.18351379e-02f, 3.36421281e-02f, -6.47397414e-02f, 3.45707946e-02f, -7.41588185e-03f, -7.70091712e-02f, -1.79226920e-02f, 1.46331578e-01f,
    1.77610397e-01f, -2.65466399e-03f, 3.66784935e-03f, -2.16312874e-02f, 4.45392951e-02f, 1.22525811e-01f, 1.06219150e-01f, -5.66259362e-02f,
    1.39478892e-01f, -1.06339999e-01f, -4.54009287e-02f, 7.09233284e-02f, -7.68766627e-02f, -2.36276332e-02f, -1.88221917e-01f, 2.85529234e-02f,
    1.45287231e-01f, -1.59841463e-01f, 7.89686888e-02f, 1.29892707e-01f, 2.49790519e-01f, 9.96672660e-02f, 3.51375081e-02f, 5.14502153e-02f,
    -1.00463100e-01f, -6.17723651e-02f, 8.18505324e-03f, 7.52759278e-02f, 7.17456117e-02f, 4.09421399e-02f, -8.40723366e-02f, -1.09514646e-01f,
    -5.33846766e-03f, -3.32811773e-02f, -9.90995765e-02f, -8.93003345e-02f, 1.24587622e-02f, 6.49644583e-02f, 1.56343460e-01f, -1.55349225e-02f,
    8.86237808e-03f, -1.09463446e-01f, -1.24466464e-01f, -1.61132112e-01f, 5.16208187e-02f, -5.77422418e-02f, 2.25234866e-01f, 3.20642777e-02f,
    -5.52939102e-02f, 1.38914451e-01f, -8.70672464e-02f, 3.80916834e-01f, -8.41357484e-02f, -9.26778316e-02f, -9.20386165e-02f, -8.65844339e-02f,
    1.90937951e-01f, 8.85224640e-02f, 5.96570894e-02f, 3.53286006e-02f, -8.47175810e-03f, 7.38438144e-02f, -8.17941874e-02f, 1.01245522e-01f,
    -2.53633410e-02f, 2.53371876e-02f, 1.19578749e-01f, 3.11604947e-01f, -8.90814587e-02f, -2.71893799e-01f, -1.44968614e-01f, 4.84016873e-02f,
    1.67713970e-01f, -1.40741438e-01f, 3.00243963e-02f, -6.84192628e-02f, -6.87633827e-02f, 1.84215531e-01f, -1.21951036e-01f, 1.60440475e-01f,
    -5.69026135e-02f, -1.13228306e-01f, 3.99518758e-02f, -1.17773443e-01f, 1.13300771e-01f, 2.68821176e-02f, -3.99973951e-02f, 1.08477443e-01f,
    -6.87856749e-02f, -1.80539191e-02f, 3.32977483e-03f, 8.76578391e-02f, -2.77752802e-02f, 1.68934017e-01f, 2.59329919e-02f, -4.26584408e-02f,
    -3.28879803e-02f, -9.13100839e-02f, -7.00165108e-02f, 1.18955933e-01f, -3.89459655e-02f, 1.78553984e-02f, -1.28569752e-02f, -8.68833661e-02f,
    -2.51103137e-02f, -8.46227184e-02f, -4.15352806e-02f, -6.49863109e-02f, 1.27250012e-02f, -9.34473947e-02f, 4.23643999e-02f, -3.80686601e-03f,
    8.04629028e-02f, 1.92982420e-01f, -5.55366799e-02f, -1.09245162e-02f, -6.30421564e-02f, -5.92539273e-02f, 6.09198101e-02f, -1.19141433e-02f,
    1.72332659e-01f, 2.84209043e-01f, 1.66708201e-01f, -1.40807211e-01f, 9.67843756e-02f, -8.18606019e-02f, 2.01874110e-03f, 1.39365330e-01f,
    -3.38646658e-02f, -9.46736559e-02f, -3.80779523e-03f, -4.20463867e-02f, 1.24356113e-02f, -2.77068224e-02f, -2.74612129e-01f, -4.54982705e-02f,
    8.62799510e-02f, 1.04278408e-01f, 1.32024795e-01f, -3.23738568e-02f, 5.88506982e-02f, 6.94657117e-02f, 2.14265659e-01f, -2.91520404e-03f,
    -9.76116955e-02f, -3.35943662e-02f, 2.29885876e-01f, -4.75846268e-02f, -1.94229960e-01f, -2.99049914e-01f, 5.23256175e-02f, 8.30715746e-02f,
    8.37890580e-02f, -6.23090565e-02f, 3.88808362e-02f, 1.58758208e-01f, 1.29879257e-02f, -1.43152863e-01f, 2.54788026e-02f, 3.55360955e-02f,
    -1.82258487e-01f, 3.06309061e-03f, 4.81206775e-02f, -2.29126476e-02f, -5.82844652e-02f, -5.11647910e-02f, -2.21535906e-01f, 5.16763628e-02f,
    1.62896346e-02f, -4.57334816e-02f, 1.60408601e-01f, 2.90482715e-02f, 3.41413692e-02f, -4.91259135e-02f, 3.93910483e-02f, 2.82715801e-02f,
    -1.21896885e-01f, 8.31710696e-02f, -1.33799508e-01f, -3.91370840e-02f, 2.44365990e-01f, 6.86816201e-02f, -1.04899533e-01f, -5.58655746e-02f,
    -1.08439520e-01f, 6.97070956e-02f, -1.95970893e-01f, 2.08400264e-01f, 5.25927134e-02f, -2.44392663e-01f, -1.23218067e-01f, 1.14949018e-01f,
    8.42471495e-02f, -6.44792430e-03f, 3.52679268e-02f, 8.95191804e-02f, -9.40433424e-03f, 3.84039462e-01f, -3.01099688e-01f, -4.70710285e-02f,
    1.00071236e-01f, 3.85600701e-02f, -5.43468334e-02f, -8.21443275e-03f, -9.34886467e-03f, 7.47870728e-02f, 7.22323731e-02f, -1.62096620e-01f,
    -1.91890687e-01f, 5.39288633e-02f, -1.70770660e-02f, -1.56684946e-02f, 3.49490414e-03f, 1.01912461e-01f, -3.88752073e-02f, 1.25251506e-02f,
    3.38437520e-02f, -1.87942404e-02f, -6.84559867e-02f, -1.14983832e-02f, 1.49195828e-02f, -6.30542412e-02f, -6.68779090e-02f, -1.65303294e-02f,
    1.46532372e-01f, 1.43430140e-02f, -3.97946080e-03f, -3.69907729e-02f, 1.40065059e-01f, 1.53346425e-02f, -2.55001746e-02f, 1.57138600e-03f,
    -1.37021393e-01f, -1.14801370e-01f, -1.76051170e-01f, -6.97576106e-02f, -4.43691388e-02f, 5.16054519e-02f, -2.34554186e-02f, -1.30805299e-01f,
    -1.11640573e-01f, -7.92006031e-02f, 7.65335783e-02f, 6.33481443e-02f, 2.10487515e-01f, 1.93728685e-01f, -1.00393891e-01f, 1.09406248e-01f,
    -2.16640327e-02f, 4.38760556e-02f, 7.20736682e-02f, -1.20200992e-01f, 2.89623979e-02f, 1.73180684e-01f, 1.53594941e-01f, -2.91958526e-02f,
    1.68607563e-01f, -3.05690356e-02f, -2.07548235e-02f, 6.51187822e-02f, -3.85718117e-03f, -6.10778220e-02f, 1.55698936e-02f, 6.90550264e-03f,
    -5.06381504e-02f, -4.47975425e-03f, 1.12766474e-01f, -1.06559377e-02f, 2.49164235e-02f, 9.68598053e-02f, 9.93315037e-03f, -1.80649087e-02f,
    -3.16765100e-01f, 5.04303239e-02f, -2.10046366e-01f, 1.97933465e-02f, -2.17588264e-02f, 1.14285618e-01f, 6.90757111e-02f, -2.01137975e-01f,
    -5.17604724e-02f, 9.64589044e-03f, -7.10519217e-03f, -6.07572347e-02f, -2.82185916e-02f, 3.35229337e-02f, 1.47683054e-01f, -9.33649763e-03f,
    2.45496348e-01f, 1.74032122e-01f, 5.52046858e-02f, -2.25332715e-02f, -8.40674117e-02f, -1.68162093e-01f, 6.51918426e-02f, 1.36975972e-02f,
    1.51169837e-01f, 1.35053709e-01f, 2.12063804e-01f, 6.53746799e-02f, 4.13653105e-02f, 1.48527175e-01f, -1.49337962e-01f, -1.86463818e-01f,
    -4.38207388e-01f, -4.11105864e-02f, 2.33113661e-01f, 8.90237018e-02f, -1.54782608e-01f, -1.17456019e-02f, -9.47949216e-02f, -4.94797938e-02f,
    -4.13132180e-03f, 2.64751986e-02f, -7.89800193e-03f, 7.33466819e-02f, 5.37382476e-02f, 1.69289961e-01f, -7.83762261e-02f, -1.56432018e-02f,
    2.66726255e-01f, 1.41754691e-02f, 2.96437778e-02f, 3.60165685e-02f, -8.94105211e-02f, 1.51600435e-01f, -7.83131272e-02f, 5.76610342e-02f,
    3.95952575e-02f, 7.57439882e-02f, -4.14776281e-02f, -1.33123443e-01f, 4.34906594e-02f, 7.29048252e-02f, -4.47812341e-02f, 1.60509720e-01f,
    1.05213024e-01f, -1.75714821e-01f, 6.43535852e-02f, 2.75599033e-01f, -1.37297571e-01f, -1.12120643e-01f, -6.78248629e-02f, -5.88853508e-02f,
    6.88182637e-02f, -4.43939865e-02f, -2.19204966e-02f, -1.81897450e-02f, 8.16193894e-02f, -3.49131115e-02f, 2.41340306e-02f, 2.79248543e-02f,
    -8.19998607e-02f, 2.73830086e-01f, 3.49006616e-02f, 4.68228385e-02f, -8.07629600e-02f, 8.21071267e-02f, 1.33882090e-01f, -2.25912500e-02f,
    1.26246572e-01f, -6.63286671e-02f, 1.25192910e-01f, 3.30521329e-03f, -1.63890533e-02f, -8.67046863e-02f, -1.48915976e-01f, -5.66322310e-03f,
    -1.25404820e-01f, -2.48523299e-02f, 2.16461927e-01f, 2.50438415e-02f, 1.79545119e-01f, 2.14061931e-01f, 2.85602603e-02f, 4.95671891e-02f,
    1.24905869e-01f, 3.34484689e-02f, -1.74521461e-01f, -2.28629887e-01f, 2.87539717e-02f, 9.89361480e-02f, -1.27955852e-02f, -2.16953456e-03f,
    5.15518375e-02f, -2.03462720e-01f, 2.54002959e-02f, 4.42986079e-02f, -1.83003023e-01f, 9.98434126e-02f, 3.35492045e-01f, -1.00106634e-01f,
    1.93745811e-02f, -1.87860858e-02f, 2.34366447e-01f, 4.55690995e-02f, 1.13060400e-02f, -4.33657281e-02f, -1.19118281e-02f, -1.78568080e-01f,
    1.18624590e-01f, -1.31061316e-01f, 1.69301882e-01f, 1.10884234e-01f, -9.51276496e-02f, -1.02863004e-02f, 5.29436097e-02f, -3.85231227e-02f,
    3.80457118e-02f, -5.74950390e-02f, 6.79949149e-02f, -4.05253917e-02f, 1.44346561e-02f, -9.33386087e-02f, -2.95545533e-03f, -4.67957929e-02f,
    7.28549063e-02f, 5.33879884e-02f, -1.02227554e-02f, -4.47440520e-03f, -7.42325410e-02f, 1.94466352e-01f, 1.19362988e-01f, 1.85960028e-02f,
    2.50161827e-01f, 1.79900136e-02f, -4.21974063e-02f, -1.32288307e-01f, -4.89218198e-02f, 3.36180702e-02f, -3.76824476e-02f, 1.47166476e-01f,
    2.78508831e-02f, -7.77181461e-02f, -1.22842394e-01f, -5.61798811e-02f, -1.03108540e-01f, -2.18200907e-02f, 1.01165846e-01f, -5.87993003e-02f,
    -4.58599217e-02f, -1.73746026e-03f, -4.73158062e-02f, 3.42742614e-02f, -6.08959794e-02f, 2.42136553e-01f, -6.23213425e-02f, -1.88518204e-02f,
    1.08680986e-01f, 4.32602018e-02f, -3.31784077e-02f, -5.10132611e-02f, 2.55816460e-01f, -1.32420018e-01f, 4.09422815e-02f, -4.02012188e-03f,
    -1.06122479e-01f, -1.52231053e-01f, -1.14691824e-01f, -8.43386501e-02f, -6.51227087e-02f, -2.22831711e-01f, 3.63171995e-02f, 4.13173623e-02f,
    4.21340287e-01f, 1.78501889e-01f, 6.67622313e-02f, 1.80046454e-01f, 7.64450505e-02f, 8.79249349e-02f, 9.96519178e-02f, -3.48894000e-02f,
    2.67023761e-02f, 6.50831684e-02f, -8.25313255e-02f, -2.91931778e-01f, -1.04396112e-01f, 6.94720168e-03f, 1.13481633e-01f, -1.24989390e-01f,
    -9.61439908e-02f, 2.36251652e-02f, -3.59497666e-02f, 4.90739383e-02f, 2.00755820e-01f, 3.92446145e-02f, 1.88340530e-01f, 1.77379698e-02f,
    -1.17732279e-01f, 1.69810116e-01f, -3.07432652e-01f, 1.17811576e-01f, 7.80075639e-02f, -1.52571267e-02f, 8.08987543e-02f, 1.34323820e-01f,
    -1.71749383e-01f, 7.54166692e-02f, 1.47057250e-01f, -6.82472438e-02f, 6.92425966e-02f, 6.44239131e-03f, 6.22496605e-02f, -1.40703274e-02f,
    -1.59546677e-02f, -2.21990775e-02f, -3.05326562e-02f, 9.31556374e-02f, 1.49646252e-02f, -2.00862009e-02f, 1.08982272e-01f, 4.49475013e-02f,
    -6.27000332e-02f, 1.03917124e-03f, 1.57696344e-02f, -1.97783280e-02f, 2.79397648e-02f, -1.43332362e-01f, 5.42577961e-03f, -3.58253010e-02f,
    8.15226436e-02f, 1.60941571e-01f, 3.84836085e-02f, -1.05878107e-01f, -4.24612649e-02f, 7.18777776e-02f, 9.87154841e-02f, 1.16195440e-01f,
    6.48510158e-02f, 3.25164236e-02f, 2.21746922e-01f, -1.94753483e-01f, -5.02596945e-02f, -1.25308275e-01f, -9.56647918e-02f, -1.35907277e-01f,
    -2.20157038e-02f, 4.35524583e-02f, -9.04958993e-02f, 6.63851872e-02f, 6.33005332e-03f, -9.80912670e-02f, -3.24664265e-02f, 5.23239486e-02f,
    -1.59643337e-01f, -1.17186286e-01f, -8.34226161e-02f, 5.29710203e-02f, 7.93226063e-02f, 1.87706232e-01f, 1.27137497e-01f, -9.73405242e-02f,
    1.61346763e-01f, -6.91528320e-02f, 5.63553050e-02f, -7.56849721e-02f, 2.57524699e-02f, -2.12789536e-01f, 5.70523813e-02f, -1.98288765e-02f,
    -6.22544810e-02f, -3.81245017e-02f, 3.34744543e-01f, -6.43646494e-02f, -2.03142185e-02f, -1.05318837e-01f, -2.96684424e-03f, 1.18203964e-02f,
    -6.10838532e-02f, 4.72107381e-02f, -2.87849363e-02f, 5.37081808e-02f, 1.04103424e-02f, 1.57220736e-01f, 3.09144743e-02f, 1.17247954e-01f,
    -2.03277066e-01f, -6.52691722e-02f, 8.90122131e-02f, 1.83257349e-02f, 1.10860750e-01f, -8.43468606e-02f, -9.68992431e-03f, -1.68512426e-02f,
    -1.12773545e-01f, -7.53419772e-02f, 4.94893998e-01f, 7.38840457e-03f, 5.91796963e-03f, -6.58000857e-02f, -5.05836792e-02f, -7.40836039e-02f,
    2.57304758e-01f, 5.61260208e-02f, -1.03209741e-01f, -1.05446927e-01f, -7.59382769e-02f, -1.93912722e-02f, -3.58540863e-02f, 6.19753897e-02f,
    -4.11821436e-03f, -5.09703998e-03f, 7.10817659e-03f, -1.08731292e-01f, -1.76154003e-02f, -4.04292829e-02f, 1.83257908e-02f, 5.11105917e-02f,
    2.25822497e-02f, 4.74161096e-02f, 1.76969599e-02f, -3.57172526e-02f, 8.11432600e-02f, -1.35946199e-01f, 1.36733772e-02f, 4.90097404e-02f,
    9.15780440e-02f, 8.53080750e-02f, 2.46546820e-01f, 6.30287081e-02f, -8.50296691e-02f, 9.39399973e-02f, 6.73588887e-02f, -6.70927903e-03f,
    -3.36850107e-01f, -2.92031020e-02f, 1.16826501e-02f, 3.18610966e-02f, -3.47106397e-01f, -1.70009024e-02f, 3.85855623e-02f, 2.00272635e-01f,
    -2.31563970e-02f, 4.84690629e-03f, 1.25186652e-01f, 7.48008862e-02f, 4.92693670e-02f, 4.35140766e-02f, -5.48358783e-02f, -1.56781152e-01f,
    1.71247467e-01f, -3.14152725e-02f, -8.62281844e-02f, -7.59605393e-02f, -5.87556809e-02f, -3.01242918e-02f, -2.14166269e-01f, 1.47402883e-01f,
    4.17878516e-02f, -2.52042171e-02f, -4.28647771e-02f, 3.87105644e-01f, -1.15157217e-01f, -5.76380007e-02f, 7.00485036e-02f, -1.63427461e-02f,
    4.20348682e-02f, 6.37988746e-01f, -6.94748061e-03f, 1.30448595e-01f, -5.82181960e-02f, -2.19891742e-02f, -9.85443592e-02f, -5.30468114e-02f,
    -1.10004939e-01f, -6.16448782e-02f, -1.04081705e-01f, 1.06727183e-01f, -2.77833313e-01f, 1.86023265e-02f, -3.13655585e-02f, -3.48742515e-01f,
    3.90662327e-02f, -6.15257025e-02f, -1.92680970e-01f, 1.44768491e-01f, 1.94728957e-03f, -3.47536765e-02f, 6.35019615e-02f, -4.71894816e-02f,
    -8.25465936e-03f, -4.22625579e-02f, 2.38214862e-02f, 3.69383907e-03f, 7.85867218e-03f, -7.32361078e-02f, 3.61350216e-02f, -1.67813599e-01f,
    -1.76045135e-01f, -4.79578710e-04f, 1.98348224e-01f, -1.72110945e-02f, 8.55725035e-02f, -4.42321114e-02f, -1.19147539e-01f, 4.09241468e-02f,
    7.16795176e-02f, 4.74652573e-02f, 2.63466574e-02f, 2.54518956e-01f, -3.79725844e-02f, 2.99970835e-01f, 1.39683962e-01f, 7.23068044e-02f,
    -1.06131561e-01f, -1.24645069e-01f, 6.10970408e-02f, 1.53082786e-02f, 9.16548222e-02f, -3.35394442e-01f, -2.37009916e-02f, -2.59492453e-02f,
    -4.46821563e-03f, -1.46139311e-02f, -9.19059850e-03f, -5.34463786e-02f, 2.86847442e-01f, -3.99043895e-02f, -1.73497014e-02f, 1.42420689e-02f,
    3.76652442e-02f, 2.40946487e-02f, -7.89733604e-03f, 1.15156146e-02f, -7.76818907e-03f, 5.03087463e-03f, -5.19715389e-03f, -2.07967758e-02f,
    -3.14322710e-02f, -1.42871216e-01f, -5.57972640e-02f, 2.86130533e-02f, 1.64973103e-02f, 5.61660044e-02f, -4.71478188e-03f, -2.54464820e-02f,
    -1.72968302e-02f, -5.73514029e-02f, -1.10782474e-01f, -1.70916803e-02f, -1.32594164e-02f, 3.47956084e-02f, 2.25090049e-02f, 1.67920172e-01f,
    -6.10229187e-02f, 2.13114247e-01f, -7.75624474e-04f, -6.99113011e-02f, 5.44715300e-02f, 4.67459038e-02f, 3.74562114e-01f, -2.75293961e-02f,
    -3.81649658e-02f, -2.19861302e-03f, -7.61755109e-02f, -2.48896163e-02f, -1.46744549e-01f, -6.16145283e-02f, 6.89262822e-02f, 9.43520069e-02f,
    4.71459553e-02f, 8.50566253e-02f, 1.03243403e-01f, -1.42882019e-01f, 1.32801256e-03f, -4.10429342e-03f, -1.84671327e-01f, 4.03910093e-02f,
    -1.08217262e-01f, -2.12746531e-01f, 1.05254836e-01f, -1.16920888e-01f, -3.39582600e-02f, -2.28452887e-02f, -7.05242008e-02f, 3.43831442e-02f,
    -2.23446414e-02f, -1.12235278e-01f, -1.77888811e-01f, -8.17564949e-02f, 1.35717066e-02f, -2.21652851e-01f, -4.40810062e-02f, -9.17534903e-02f,
    1.34046882e-01f, 2.49148929e-04f, -6.85541555e-02f, 2.18728945e-01f, 4.85916398e-02f, -5.64185679e-02f, 2.30393767e-01f, -7.53339753e-02f,
    9.80046578e-03f, 1.10075310e-01f, -9.07563940e-02f, 5.01719564e-02f, 1.32489884e-02f, -1.41382977e-01f, -2.43321776e-01f, 3.03181075e-02f,
    -1.37720490e-02f, 2.83344418e-01f, 8.67135674e-02f, 3.36458720e-02f, 1.78760365e-01f, 3.29027593e-01f, -4.53040078e-02f, 8.77168700e-02f,
    4.60489243e-02f, 1.03126764e-01f, 6.69645593e-02f, 1.06492322e-02f, -7.32208639e-02f, -2.38474473e-01f, 1.34164870e-01f, 5.55641055e-02f,
    1.10982999e-01f, -1.84745342e-01f, 1.77147850e-01f, -3.16597968e-01f, 1.95754901e-01f, 1.22155607e-01f, -3.04519944e-02f, 3.12638253e-01f,
    -9.13977027e-02f, -1.07064463e-01f, -6.01030961e-02f, 1.00987576e-01f, 1.32842734e-02f, 1.01529751e-02f, -1.60318166e-01f, 3.91434729e-02f,
    6.16539195e-02f, -7.80413523e-02f, -1.08987540e-01f, -6.52168617e-02f, 5.90406694e-02f, -9.07168165e-02f, -6.91085160e-02f, -3.86333987e-02f,
    -2.45933663e-02f, 3.34525496e-01f, 6.88774092e-03f, 4.95507538e-01f, 1.75163195e-01f, -1.62841976e-01f, -1.40615538e-01f, 7.30177015e-02f,
    6.26268312e-02f, 1.77742727e-02f, 1.43195227e-01f, -1.35569379e-01f, 2.68065333e-01f, 7.39136860e-02f, -1.10166688e-02f, 4.42543142e-02f,
    -2.78971326e-02f, -1.72025591e-01f, -6.98809102e-02f, -5.88921309e-02f, -6.38288632e-02f, -1.63811877e-01f, -4.53854874e-02f, -5.43748699e-02f,
    -1.27782434e-01f, 1.61145359e-01f, 4.99756187e-02f, -1.87566593e-01f, 6.40405193e-02f, -2.28855386e-01f, -8.25596228e-02f, -4.15572058e-03f,
    -2.94498764e-02f, -4.27432284e-02f, 3.07448953e-02f, -2.96166353e-02f, 1.28414389e-02f, -6.92249388e-02f, 3.78742516e-01f, -1.74451377e-02f,
    7.02724233e-02f, 7.23811239e-02f, 6.14570975e-02f, 2.16552764e-01f, 8.46564099e-02f, 4.28701378e-02f, -1.34202421e-01f, -8.83001387e-02f,
    1.01278387e-01f, -6.55861646e-02f, -1.40713036e-01f, 1.90228000e-01f, 6.76307604e-02f, 1.45743601e-02f, -3.53938192e-01f, -2.22499408e-02f,
    1.61690563e-02f, -1.84753641e-01f, -2.74617411e-03f, -1.58977453e-02f, 6.50307909e-02f, -1.31225213e-01f, 1.04981370e-01f, -1.09860636e-01f,
    -1.21911429e-01f, 1.38567895e-01f, -4.11149152e-02f, 4.44081575e-02f, -4.89957407e-02f, -1.87293496e-02f, -1.82048127e-01f, -1.95885792e-01f,
    1.03977971e-01f, 1.22686699e-01f, 1.70582995e-01f, -7.10403249e-02f, 2.64698982e-01f, 1.14602558e-01f, 9.44824144e-02f, 1.89730637e-02f,
    -1.12504646e-01f, -1.33540919e-02f, 1.08001474e-02f, 1.76754817e-01f, -5.45044653e-02f, -1.86642557e-02f, 5.79225644e-03f, 4.06828932e-02f,
    9.07437503e-03f, -7.41443411e-02f, -4.18860652e-02f, 2.36661006e-02f, -2.53905933e-02f, 1.05650863e-02f, 6.13315813e-02f, -2.10658051e-02f,
    8.41672942e-02f, -7.98104554e-02f, 1.98985431e-02f, -6.60075992e-02f, 1.10963166e-01f, 6.83492422e-02f, -5.20680487e-01f, -3.49859595e-02f,
    -1.91788636e-02f, 8.20491910e-02f, 6.13515265e-02f, -4.02790047e-02f, -2.38775760e-02f, -3.17344256e-02f, -5.31836934e-02f, -1.45736116e-03f,
    -6.84955642e-02f, 1.14367343e-01f, 1.33978590e-01f, -9.60255638e-02f, -6.96864203e-02f, -8.05375651e-02f, -1.11007737e-02f, 2.40306750e-01f,
    -5.28322123e-02f, 7.12961257e-02f, 1.68194890e-01f, -8.83791875e-03f, -1.41483182e-02f, -1.04162395e-01f, 5.20111471e-02f, 6.13676421e-02f,
    4.43035997e-02f, 1.36288479e-02f, 4.75383312e-01f, -5.22966571e-02f, 3.15626326e-04f, 7.19417632e-02f, -6.53515086e-02f, -3.30635831e-02f,
    2.62723833e-01f, 2.81511862e-02f, 1.14178970e-01f, -6.10654196e-03f, 1.83491334e-02f, -1.43422773e-02f, -1.58990085e-01f, -7.98820928e-02f,
    -3.64283025e-02f, -1.05188899e-02f, 1.68651473e-02f, -3.83016951e-02f, -4.34997603e-02f, 3.06475461e-02f, -4.29818891e-02f, -5.04176579e-02f,
    -5.92361130e-02f, -3.03651430e-02f, 5.46083599e-03f, -5.51495887e-03f, -3.73893082e-01f, -6.50115460e-02f, 3.56143457e-04f, -1.81590039e-02f,
    -1.31432414e-01f, -5.91417067e-02f, -2.80463696e-01f, 2.51452532e-02f, 1.10407934e-01f, 3.78511637e-03f, -8.49801600e-02f, 2.65146136e-01f,
    1.05548988e-03f, 8.01796988e-02f, 6.39626756e-02f, 1.88773368e-02f, 7.21811503e-02f, -6.40329272e-02f, 3.89515534e-02f, 6.00454547e-02f,
    -3.63400439e-03f, -4.35400289e-03f, 6.33551702e-02f, -9.60284695e-02f, -1.81629341e-02f, -1.24867037e-01f, 2.06295729e-01f, 1.22371830e-01f,
    -1.61846682e-01f, -1.83496233e-02f, 1.13080330e-01f, 2.11974472e-01f, 8.48292783e-02f, -6.45658895e-02f, -7.89279714e-02f, -2.54215673e-03f,
    1.20060399e-01f, -7.78025016e-02f, -1.23822264e-01f, -5.50102210e-03f, -9.14898366e-02f, -2.34309863e-02f, -1.54345166e-02f, 1.52835801e-01f,
    1.48722127e-01f, -3.79331224e-02f, 2.56088525e-01f, 7.39970356e-02f, 1.72939822e-01f, -2.38056574e-03f, -7.78858885e-02f, -7.85834193e-02f,
    -9.36205164e-02f, 7.88039938e-02f, 7.30818463e-03f, -1.81217829e-03f, 6.79531507e-03f, 1.02653787e-01f, -5.24587445e-02f, -1.09556325e-01f,
    -5.60488142e-02f, -5.97367436e-03f, -8.90587345e-02f, 1.68845169e-02f, 1.82534993e-01f, 3.07493985e-01f, -1.27610773e-01f, 4.05122265e-02f,
    1.22664813e-02f, 9.44228843e-03f, 1.69883706e-02f, 1.81278184e-01f, 1.87036946e-01f, -1.85015887e-01f, 5.86089827e-02f, 3.72759365e-02f,
    1.98378097e-02f, -2.37166137e-02f, -8.11651722e-02f, -5.87739758e-02f, -8.92154649e-02f, 4.49237647e-03f, 5.06289862e-02f, -2.21438520e-02f,
    7.29550272e-02f, -9.50209424e-02f, -1.64656825e-02f, 1.13494461e-02f, 1.16096832e-01f, -7.48006403e-02f, -1.48639783e-01f, 3.61656062e-02f,
    1.01062231e-01f, -3.67890447e-02f, 9.16696638e-02f, 1.21158041e-01f, -1.25630200e-02f, -6.18123077e-03f, -1.08357213e-01f, 3.77100967e-02f,
    4.73119551e-03f, -4.01194058e-02f, -1.08376138e-01f, 1.75381988e-01f, 1.74822379e-02f, -2.33369514e-01f, 7.47896731e-02f, -1.03823598e-02f,
    1.45344809e-01f, 4.59034413e-01f, 1.59182046e-02f, 7.46741965e-02f, -3.61978672e-02f, -1.91256758e-02f, -1.79022208e-01f, 1.18694790e-02f,
    7.43850693e-02f, 1.04504786e-01f, -1.05197191e-01f, -9.53771919e-02f, 7.39055723e-02f, -5.74914627e-02f, -9.85976979e-02f, 2.14873672e-01f,
    -3.85537185e-02f, -7.82207251e-02f, -1.04221582e-01f, 5.35216108e-02f, 1.28477830e-02f, -1.06385715e-01f, -4.85553592e-02f, -2.54424810e-01f,
    -5.32413311e-02f, 1.39103323e-01f, -4.25135881e-01f, 9.15905982e-02f, 4.07214649e-03f, -1.88769087e-01f, 1.15004614e-01f, -1.89145774e-01f,
    1.60164475e-01f, -1.48475006e-01f, 3.83019894e-02f, 1.78303450e-01f, 1.09073982e-01f, 5.60604930e-02f, 7.47058913e-02f, 1.49246648e-01f,
    -3.40596475e-02f, -1.28275409e-01f, -5.93671538e-02f, -6.27111197e-02f, 1.54923797e-01f, -1.01121165e-01f, 2.94078171e-01f, 4.65394929e-03f,
    -2.89192200e-02f, 1.40516698e-01f, -4.80657592e-02f, 9.13345255e-03f, 5.31527884e-02f, -2.48810127e-02f, 6.13800921e-02f, -4.15370613e-02f,
    4.37077492e-01f, -5.97242191e-02f, -1.50226235e-01f, 1.81834251e-02f, 1.13727205e-04f, -4.41549718e-02f, 3.55375782e-02f, 1.77725986e-01f,
    -2.69602865e-01f, -6.11592084e-03f, -6.65235445e-02f, -8.57185107e-03f, -2.61568390e-02f, -1.45512428e-02f, -6.00547642e-02f, 1.19910747e-01f,
    -4.46022348e-03f, -5.46114184e-02f, -4.36571762e-02f, -2.07833573e-01f, -3.55102457e-02f, -2.78598499e-02f, -7.66725242e-02f, -8.70101228e-02f,
    -3.50821801e-02f, -5.87919801e-02f, -1.18021956e-02f, -1.04154974e-01f, 4.30592358e-01f, -3.45963463e-02f, -9.86497402e-02f, -6.49633035e-02f,
    5.73284402e-02f, -1.10913403e-01f, 5.35534509e-02f, 1.53421596e-01f, 1.45731643e-01f, 2.08151843e-02f, 7.83157945e-02f, -9.95836109e-02f,
    -1.09538122e-03f, -1.15031503e-01f, -2.71848706e-03f, 2.40192115e-01f, -6.46539554e-02f, 3.24316835e-03f, -9.74203423e-02f, -4.98737507e-02f,
    -7.32320398e-02f, -5.17210476e-02f, -4.67210934e-02f, 2.01958735e-02f, -1.97409615e-02f, 6.01445138e-02f, 2.09707245e-02f, -8.19069371e-02f,
    -1.32218804e-02f, 8.25572480e-03f, -5.31546548e-02f, 1.31668612e-01f, 1.22440024e-03f, -1.71376355e-02f, -3.31654660e-02f, -6.67650136e-04f,
    -3.56239118e-02f, 8.29534419e-03f, -5.67589365e-02f, -6.56727999e-02f, 3.45942564e-02f, -6.59312233e-02f, -1.98808871e-02f, 1.66185983e-02f,
    4.18196283e-02f, -1.03294685e-01f, 8.82157236e-02f, 3.87136750e-02f, -4.79720952e-03f, -2.42806412e-02f, -7.59376511e-02f, -5.84466271e-02f,
    4.79229763e-02f, 2.25128815e-01f, 8.47677588e-02f, 6.45102561e-02f, 1.84690356e-01f, 2.07809936e-02f, -2.08119936e-02f, -3.28313559e-02f,
    -4.94937524e-02f, 8.27676803e-02f, -1.21131182e-01f, -1.55461894e-04f, 4.40769680e-02f, 1.28669366e-02f, -1.09866448e-01f, 1.44768447e-01f,
    -1.47423660e-02f, 3.15549731e-01f, -4.83519360e-02f, 3.35879177e-02f, -5.17797694e-02f, -6.37034997e-02f, 6.68915436e-02f, 2.37909742e-02f,
    5.41593395e-02f, -1.03853606e-02f, 6.11432008e-02f, 3.91108030e-03f, -1.94431096e-01f, -6.88166171e-02f, -8.69132355e-02f, -2.13807359e-01f,
    1.20059676e-01f, 1.42055620e-02f, -5.55221476e-02f, 1.85413957e-01f, 5.89671433e-02f, 3.66496116e-01f, -9.59941745e-02f, -7.99950585e-02f,
    2.38541160e-02f, -2.19608158e-01f, -6.58910871e-02f, -1.67019680e-01f, 1.41979948e-01f, -5.53861000e-02f, 1.36348739e-01f, -2.21648403e-02f,
    -6.19598739e-02f, -1.26235887e-01f, -8.54621306e-02f, -6.44860463e-03f, 2.89777815e-02f, -7.61019513e-02f, 3.21506225e-02f, 1.26954928e-01f,
    5.15787750e-02f, 6.09483104e-03f, 3.55603188e-01f, -6.98031336e-02f, -6.90852702e-02f, -1.72661811e-01f, 1.00702085e-01f, -4.36401330e-02f,
    -1.63805264e-03f, -4.36621420e-02f, 1.33424634e-02f, 1.58238605e-01f, -3.14238388e-03f, -5.38029484e-02f, 1.87795386e-02f, 4.15511169e-02f,
    -2.13880882e-01f, -5.59996963e-02f, 1.25251086e-02f, 1.98818237e-01f, 5.48178842e-03f, 2.01382209e-02f, -6.57249847e-03f, -2.93177068e-02f,
    -8.83452594e-02f, 2.46889759e-02f, -2.34008767e-02f, -7.61367008e-02f, -1.23196408e-01f, -1.43587202e-01f, 8.45497921e-02f, 1.96505282e-02f,
    -2.10078992e-02f, 7.82836303e-02f, 1.07906558e-01f, 1.01908036e-02f, -2.90002078e-01f, -1.18794516e-01f, 2.03131393e-01f, 3.28862727e-01f,
    -7.46297315e-02f, -5.36919236e-02f, 3.19943614e-02f, 2.15658352e-01f, -9.26443711e-02f, 1.42366156e-01f, 1.34537652e-01f, -5.73460162e-02f,
    -1.09988578e-01f, -1.67065440e-03f, -1.35875821e-01f, 3.25889438e-02f, 3.35523188e-02f, -1.98660433e-01f, 9.29707512e-02f, -6.59058914e-02f,
    -3.07771355e-01f, -5.37450798e-02f, 2.70323843e-01f, 2.35004164e-02f, -1.73466131e-02f, 1.22008786e-01f, -1.22290915e-02f, -3.40382606e-01f,
    5.85424639e-02f, -8.46973211e-02f, -9.93192568e-02f, -1.12634022e-02f, 1.13937743e-01f, 1.03588432e-01f, -2.12783962e-02f, -9.12493542e-02f,
    -8.72376338e-02f, 7.45601300e-03f, -4.51762341e-02f, 7.71269575e-03f, 8.57560709e-03f, -3.50032710e-02f, 1.38904467e-01f, -6.22185767e-02f,
    8.43510330e-02f, 1.00066856e-01f, -1.09870993e-02f, 1.25382692e-01f, 7.03669414e-02f, 4.17775288e-02f, 5.44973314e-02f, 3.24323028e-02f,
    8.96800458e-02f, -5.25493287e-02f, 1.98669229e-02f, -1.00626655e-01f, 3.90346646e-02f, -1.56720296e-01f, -3.31359692e-02f, 1.38775170e-01f,
    8.52347538e-02f, -1.48633987e-01f, 4.81924564e-02f, -3.34575921e-02f, 2.23088767e-02f, 7.79741555e-02f, 2.87504327e-02f, 2.04997044e-02f,
    -3.78869250e-02f, -5.27635030e-03f, 8.09284076e-02f, -2.87903585e-02f, 1.35240033e-01f, 9.45076272e-02f, -2.57632434e-02f, 6.93785399e-02f,
    3.51305790e-02f, 6.76039755e-02f, 1.43580129e-02f, 3.94436419e-02f, -8.40387940e-02f, -4.72106896e-02f, 1.06276684e-01f, -3.27053480e-03f,
    -6.75936490e-02f, -2.30017155e-02f, -4.99228835e-02f, 6.07432518e-03f, -4.39124517e-02f, -6.55213147e-02f, -4.32097763e-02f, 4.93584573e-02f,
    1.98734984e-01f, 1.04705736e-01f, 1.72442839e-01f, -1.31345913e-01f, 4.89346236e-02f, 2.50347350e-02f, 6.55769184e-02f, 1.28461197e-01f,
    -8.43782127e-02f, -4.06287387e-02f, -1.79111063e-02f, -1.31699312e-02f, 1.85048836e-03f, -1.18135765e-01f, 2.88300179e-02f, 2.49018967e-01f,
    -7.73971602e-02f, -1.45491794e-01f, -8.20078328e-02f, 7.69278705e-02f, 6.18130574e-03f, -3.78135927e-02f, -2.19515078e-02f, -2.51550140e-04f,
    -9.57516581e-02f, 4.38926965e-02f, -1.55971777e-02f, 1.66984096e-01f, 1.49675474e-01f, -1.44754097e-01f, 1.94974393e-01f, 1.25940368e-01f,
    1.55332342e-01f, -1.59334064e-01f, 5.01948856e-02f, 1.27305195e-01f, 4.69844602e-02f, 5.54111674e-02f, 1.18688248e-01f, -8.09477121e-02f,
    -8.85154232e-02f, -1.74496859e-01f, -1.47722006e-01f, -1.01751775e-01f, 1.13910371e-02f, -2.31910944e-01f, 4.40663695e-02f, -9.87766962e-03f,
    2.16005016e-02f, 4.94480319e-02f, -5.20214364e-02f, 4.21961918e-02f, -4.75583784e-02f, -2.52669230e-02f, -7.47943521e-02f, 2.61468417e-03f,
    -1.02350347e-01f, 2.80029744e-01f, -3.35789502e-01f, -2.63230093e-02f, 6.15895875e-02f, -9.71849337e-02f, 8.13015997e-02f, -1.37548363e-02f,
    1.53267786e-01f, -6.48255423e-02f, -8.86528939e-02f, 3.11737210e-01f, 2.12141592e-02f, 2.37230584e-02f, -1.35057509e-01f, -1.37574434e-01f,
    7.23295435e-02f, -2.83508431e-02f, -1.01347201e-01f, -8.57446790e-02f, 8.39570835e-02f, 1.29628763e-01f, -9.62331071e-02f, 1.33405570e-02f,
    -8.10577199e-02f, -4.62992452e-02f, 1.16311945e-02f, -1.37050420e-01f, 1.76489130e-01f, 5.71548641e-02f, 2.22762749e-01f, -1.67569324e-01f,
    -3.78863029e-02f, -2.59029283e-03f, -3.29016559e-02f, 7.33820871e-02f, -3.10694277e-01f, -4.67778854e-02f, -8.05594772e-03f, 1.31830452e-02f,
    8.55172426e-02f, -4.46378328e-02f, 2.83418503e-02f, 5.57704605e-02f, -8.88012201e-02f, -3.33671970e-03f, -1.22349709e-02f, -3.78805473e-02f,
    -4.31476235e-02f, 2.06015483e-02f, 1.69986546e-01f, -3.98126207e-02f, 8.54418650e-02f, -1.02618881e-01f, -3.32955420e-02f, -1.16050117e-01f,
    5.93490638e-02f, 1.50053594e-02f, 4.49947447e-01f, -3.38939838e-02f, 8.96634813e-03f, -1.52976075e-02f, 8.02005734e-03f, -1.25934124e-01f,
    9.53496322e-02f, 1.99928097e-02f, -1.19993523e-01f, -4.50786054e-02f, -1.44828767e-01f, -1.92915514e-01f, 1.15509070e-01f, 3.91970910e-02f,
    2.11799875e-01f, -8.85345787e-02f, -5.60690686e-02f, -2.99322279e-03f, 8.96484703e-02f, 1.66471899e-02f, 8.15648884e-02f, -1.11078195e-01f,
    -7.71391317e-02f, -1.52816400e-01f, -3.04156929e-01f, 2.12237403e-01f, 3.30082551e-02f, 2.42129743e-01f, 5.22241816e-02f, -4.62677963e-02f,
    -5.58104692e-03f, 2.17726186e-01f, -2.07070991e-01f, 2.76512261e-02f, -6.83593098e-03f, -4.93102632e-02f, 2.24541977e-01f, -2.42781654e-01f,
    -1.84861809e-01f, 1.79937646e-01f, -7.76335895e-02f, -7.04100132e-02f, -9.64793041e-02f, 3.41898277e-02f, 1.02198929e-01f, 2.34240815e-01f,
    -1.85011193e-01f, -9.65915620e-02f, -9.02111921e-03f, 1.20001651e-01f, -3.06110457e-02f, 1.17201060e-01f, 2.65099436e-01f, -8.54945481e-02f,
    -1.18784495e-01f, -4.23037224e-02f, -1.61205605e-02f, 5.31274313e-03f, 2.63132583e-02f, -1.35439876e-02f, 3.03813373e-03f, -8.29615220e-02f,
    1.20941401e-01f, -8.60141963e-02f, -1.38796359e-01f, -5.74812889e-02f, -6.07068278e-02f, -5.48440553e-02f, 2.08900854e-01f, 6.52782172e-02f,
    5.79631664e-02f, 1.26364097e-01f, -2.27256238e-01f, 4.57429029e-02f, 1.86022129e-02f, -1.07764885e-01f, 1.82358950e-01f, 9.87086520e-02f,
    2.68351704e-01f, -2.93694995e-03f, -1.15684293e-01f, -1.66405410e-01f, -4.71868739e-02f, 5.30680045e-02f, 7.77170584e-02f, 2.51260042e-01f,
    4.37365733e-02f, -1.14104353e-01f, -1.76470564e-03f, -8.54425505e-02f, -1.55382408e-02f, -6.24375641e-02f, -1.21268861e-01f, 6.36450574e-02f,
    3.72462533e-02f, 4.21024300e-02f, -1.14963263e-01f, -5.01259044e-02f, 2.96799183e-01f, -1.26541406e-01f, -1.31415486e-01f, -3.44558880e-02f,
    1.91780657e-01f, 1.90974176e-02f, 7.39732683e-02f, -1.91971660e-02f, -7.53485113e-02f, 2.10929915e-01f, 2.29415540e-02f, -5.51575571e-02f,
    5.02033569e-02f, -9.28529203e-02f, -2.38059551e-01f, -2.44085188e-03f, -5.91982715e-02f, 2.28920858e-02f, -2.31539324e-01f, -7.71807358e-02f,
    -6.83875158e-02f, -7.02407956e-02f, 2.79457169e-03f, 4.40057665e-01f, 7.74864182e-02f, -2.14634269e-01f, -2.86863483e-02f, -1.36634856e-01f,
    1.16555259e-01f, -1.07142702e-02f, -1.29231319e-01f, -2.32546702e-02f, 4.82850533e-04f, 5.84465086e-01f, -9.56814736e-02f, -1.21542268e-01f,
    -1.20239042e-01f, 9.86128375e-02f, -8.27727318e-02f, -2.54349168e-02f, 1.35332607e-02f, -6.07175231e-02f, 2.68787086e-01f, -1.70561865e-01f,
    1.36485577e-01f, -1.23119846e-01f, 2.23588824e-01f, -7.58198090e-04f, 1.17919035e-01f, -9.15135350e-03f, 8.99098963e-02f, 4.06523384e-02f,
    -9.33621600e-02f, -8.02592114e-02f, -1.06892213e-01f, -1.58357620e-01f, -4.56424877e-02f, -1.19696438e-01f, 2.98308671e-01f, 1.21859074e-01f,
    -1.47087961e-01f, 6.39547184e-02f, 4.39750478e-02f, 6.36424646e-02f, 4.90087643e-02f, -5.33030108e-02f, -2.85676010e-02f, -1.01509638e-01f,
    -1.64002657e-01f, -1.98209509e-01f, 1.06872104e-01f, -3.30155529e-02f, -1.04585685e-01f, -1.30868694e-02f, -4.52334210e-02f, 2.59128604e-02f,
    2.57153749e-01f, -4.60561179e-02f, -4.96680960e-02f, -1.27538651e-01f, -4.18230481e-02f, 2.08384544e-02f, 7.06645399e-02f, 2.08276868e-01f,
    -3.79846208e-02f, -2.17598323e-02f, 2.74276044e-02f, 4.64842916e-02f, -2.78878920e-02f, -1.74894854e-02f, -1.81266237e-02f, -8.13877061e-02f,
    1.09499142e-01f, 1.10152960e-01f, -1.13168329e-01f, 3.86456102e-01f, 8.84558260e-02f, 4.24522627e-03f, 1.30093604e-01f, 1.78193897e-02f,
    6.16956875e-02f, 2.89180409e-02f, -2.34495830e-02f, 1.16394319e-01f, -4.20632735e-02f, -1.30057365e-01f, 4.04426940e-02f, -3.47647816e-02f,
    2.39192396e-02f, 2.70615876e-01f, -2.19126046e-02f, -5.30332467e-03f, -1.05705939e-01f, 1.07081281e-02f, -1.21147655e-01f, 3.91402245e-02f,
    -3.12625244e-02f, 1.80489093e-01f, 5.22056855e-02f, -3.87770706e-03f, -5.03412588e-03f, -5.73350899e-02f, 6.53066020e-03f, -8.89314339e-02f,
    1.10770158e-01f, -2.17878874e-02f, -6.73354939e-02f, -1.73617788e-02f, 1.66155249e-02f, -6.28956780e-02f, 1.89103615e-02f, -1.05276257e-01f,
    1.35994792e-01f, 4.18765664e-01f, -5.11534549e-02f, -1.17304817e-01f, -1.37760192e-02f, -5.05212769e-02f, -2.91764766e-01f, 3.53355445e-02f,
    7.07372576e-02f, 9.50584412e-02f, -4.77107503e-02f, -1.24696650e-01f, 8.91242027e-02f, 1.12228148e-01f, -1.62152231e-01f, -2.37034503e-02f,
    -1.47639126e-01f, 6.95104823e-02f, 5.94137125e-02f, 1.90388888e-01f, -1.11791469e-01f, -3.42720374e-02f, -8.89554247e-02f, 2.69767523e-01f,
    1.02961048e-01f, 1.64383322e-01f, 1.91564318e-02f, -1.18992120e-01f, -2.63145212e-02f, -1.84251592e-01f, 4.98037003e-02f, -4.09081951e-02f,
    -4.69670966e-02f, -2.13490967e-02f, -2.44886696e-01f, -4.40452173e-02f, -1.20420076e-01f, -1.37440547e-01f, 2.07577005e-01f, -8.79339352e-02f,
    2.04070389e-01f, 4.51351441e-02f, 2.53728777e-02f, 1.19809464e-01f, -2.87006125e-02f, 2.42506489e-02f, -2.70037819e-02f, 5.55124506e-02f,
    -4.75030094e-02f, -2.54710875e-02f, -6.14143759e-02f, 1.14327900e-01f, 6.59900019e-03f, -5.16346991e-02f, -2.85588596e-02f, 2.11465489e-02f,
    -3.41530144e-02f, 1.85810216e-02f, -1.33459598e-01f, 1.73682943e-01f, 2.14476377e-01f, 7.52958134e-02f, 1.46995522e-02f, -4.12893891e-02f,
    -1.05937630e-01f, 2.27327332e-01f, -1.80561543e-01f, -6.52231723e-02f, -2.21582055e-02f, -2.36022640e-02f, -9.79733616e-02f, 5.11358529e-02f,
    2.47901961e-01f, 2.46820733e-01f, 1.79762654e-02f, -8.00902098e-02f, -3.11544407e-02f, 1.12452935e-02f, -3.25280353e-02f, -3.09333950e-02f,
    -2.88522542e-02f, 1.60464853e-01f, -1.07801082e-02f, -3.37709906e-03f, -1.20709658e-01f, -5.94511479e-02f, 1.29528046e-01f, 1.66197084e-02f,
    8.84744599e-02f, 1.97795540e-01f, -7.59120286e-02f, -1.03841275e-01f, 1.25439569e-01f, 2.43180878e-02f, -1.22471958e-01f, 5.39039783e-02f,
    -1.48717225e-01f, 3.99264582e-02f, -1.04949921e-01f, -9.70114172e-02f, -4.85138148e-02f, -8.86617303e-02f, 3.39709073e-01f, -3.41006927e-02f,
    1.01037130e-01f, 1.72205389e-01f, -3.17255646e-04f, -4.21154462e-02f, 1.39214516e-01f, 9.60223451e-02f, 1.62340313e-01f, -1.12177812e-01f,
    -4.23228405e-02f, 2.72232983e-02f, -1.18345335e-01f, -1.39643207e-01f, -7.08981529e-02f, 9.74332020e-02f, 6.21748492e-02f, 9.37985107e-02f,
    2.40411889e-02f, -6.56300485e-02f, -3.83563899e-02f, 6.73284307e-02f, -4.76838201e-02f, -2.57210806e-02f, -4.70605157e-02f, -1.20627150e-01f,
    9.65504572e-02f, 4.28528851e-03f, 3.15773159e-01f, 6.19429275e-02f, -3.27029754e-03f, 1.72429755e-01f, -1.11984745e-01f, -6.13482408e-02f,
    -1.86921433e-01f, 1.47102475e-02f, 1.70822814e-01f, -3.78176309e-02f, -4.59169000e-02f, -7.49232396e-02f, 4.61098477e-02f, 1.07093891e-02f,
    -1.58833250e-01f, 3.27578187e-03f, 1.26630282e-02f, 3.51240905e-03f, 4.92016561e-02f, -8.25235695e-02f, -1.08652212e-01f, 4.51482423e-02f,
    1.61321927e-02f, -1.08132651e-02f, -3.71450260e-02f, -1.57111455e-02f, 2.53195558e-02f, 8.42784792e-02f, -1.58595815e-01f, 7.51317367e-02f,
    3.17476727e-02f, 2.82898024e-02f, 1.44746959e-01f, 1.92720108e-02f, -2.02740412e-02f, 2.77364403e-01f, -3.20588887e-01f, 2.86665857e-02f,
    -1.37204364e-01f, 1.09177001e-01f, -1.00359544e-01f, -9.24551859e-02f, 8.12788215e-03f, 2.61450056e-02f, -1.02014869e-01f, 7.13923052e-02f,
    -1.61928922e-01f, 5.07243127e-02f, 2.67188191e-01f, 1.67377278e-01f, -7.80983791e-02f, -7.26603642e-02f, -2.03212332e-02f, 3.83756831e-02f,
    6.27516136e-02f, 2.64307223e-02f, -4.56337295e-02f, 8.31346810e-02f, -3.89531031e-02f, 1.80761982e-02f, -1.19339742e-01f, 8.59246925e-02f,
    1.12250060e-01f, 2.74433699e-02f, -4.15864177e-02f, -7.64518157e-02f, -4.75859009e-02f, -9.61091835e-04f, -8.15143716e-03f, -2.28851825e-01f,
    -2.10189342e-01f, -1.23401657e-01f, -5.07000126e-02f, 1.13230027e-01f, -1.35073038e-02f, 1.19764328e-01f, 3.44635472e-02f, -3.97908725e-02f,
    -2.86949798e-02f, -1.35989692e-02f, -2.13652453e-03f, -4.06763740e-02f, 6.41974658e-02f, 6.64929077e-02f, -6.65893173e-03f, -1.32031562e-02f,
    1.60548672e-01f, 1.10664234e-01f, -2.94428729e-02f, -3.23216505e-02f, 6.85789362e-02f, 6.00728728e-02f, 1.58678159e-01f, 1.26206931e-02f,
    5.49726784e-02f, -5.92522807e-02f, -2.70421728e-02f, 7.54339546e-02f, -1.55227512e-01f, 2.49177217e-03f, 7.48330504e-02f, -2.52878629e-02f,
    1.60370067e-01f, 2.11193964e-01f, -1.34117290e-01f, -8.49137902e-02f, 6.71309829e-02f, 1.75195277e-01f, 8.35335478e-02f, -5.76786622e-02f,
    5.29314317e-02f, -1.08770482e-01f, -6.93132058e-02f, 8.08070078e-02f, -1.58218928e-02f, -9.67704132e-02f, -1.88865840e-01f, 3.46637778e-02f,
    2.93719083e-01f, 6.89397901e-02f, -1.63780123e-01f, 6.89146444e-02f, -1.20657146e-01f, -5.13976403e-02f, 8.49478692e-02f, 5.58282062e-03f,
    3.90200019e-02f, 3.68024632e-02f, -2.63584666e-02f, 2.12321933e-02f, 1.13706924e-01f, 6.72728568e-02f, 7.09001124e-02f, -1.31341740e-01f,
    -2.35874787e-01f, 1.97187901e-01f, -6.59943968e-02f, 1.13685176e-01f, 1.61263309e-02f, 3.99722196e-02f, -1.23659261e-01f, -1.21537931e-02f,
    -1.03031181e-01f, 9.48957875e-02f, -4.81326543e-02f, 7.69150630e-02f, 6.41038567e-02f, -1.07820287e-01f, 1.73510760e-02f, 1.15812771e-01f,
    9.04231444e-02f, 1.84304605e-03f, 2.48109512e-02f, 3.35502736e-02f, -3.21276933e-02f, 1.21447995e-01f, -1.15485966e-01f, -1.17237218e-01f,
    5.11077456e-02f, 1.45700285e-02f, -1.54256582e-01f, 1.96779504e-01f, -4.46994901e-02f, -1.39742985e-01f, 5.77823780e-02f, 2.96624564e-02f,
    2.16281965e-01f, 1.05293781e-01f, -3.06441598e-02f, 3.33504319e-01f, -1.45901114e-01f, -1.46240648e-02f, 3.12867761e-02f, 8.15582201e-02f,
    2.32066438e-02f, 1.14047289e-01f, 9.21323597e-02f, 2.13878211e-02f, -1.40916631e-01f, -2.03223526e-02f, 2.33518984e-02f, -2.33945146e-01f,
    -5.96400090e-02f, -1.44686177e-01f, 2.72119138e-02f, 1.03922233e-01f, 3.73212323e-02f, -1.14182770e-01f, -7.13450164e-02f, 1.28340155e-01f,
    2.20947079e-02f, -1.00048743e-01f, -6.76269382e-02f, -8.46114159e-02f, -6.54842779e-02f, -4.74494323e-02f, 9.20805335e-02f, -1.02340594e-01f,
    -7.12494999e-02f, -1.83963589e-02f, -1.49553223e-02f, -4.88466546e-02f, 5.21627404e-02f, 9.16764978e-03f, 1.36097431e-01f, 3.43334407e-01f,
    -9.99652743e-02f, -9.67428181e-03f, -4.78808694e-02f, 4.16577369e-01f, 2.58784946e-02f, 3.44626844e-01f, -1.31938621e-01f, -7.70687908e-02f,
    -5.25288247e-02f, 1.27292395e-01f, -3.22649479e-02f, 1.38064753e-02f, -1.03991635e-01f, -1.11009978e-01f, 7.67157674e-02f, -5.72436489e-02f,
    -5.19523323e-02f, -9.97283310e-02f, -9.68049020e-02f, -5.04122563e-02f, 1.11666536e-02f, 9.79296267e-02f, -1.89656407e-01f, -1.07206583e-01f,
    1.69925705e-01f, -4.93264124e-02f, 2.90266216e-01f, -7.77377784e-02f, 8.00367892e-02f, -1.20431401e-01f, 7.93469027e-02f, 2.16726400e-02f,
    -6.34513050e-02f, -9.45084821e-03f, 6.33806214e-02f, 2.35367581e-01f, -5.92615865e-02f, -1.60241514e-01f, 1.01803824e-01f, 1.11193001e-01f,
    -2.23420069e-01f, -3.78827960e-03f, -1.57273617e-02f, 1.49432659e-01f, 1.16767503e-01f, 8.82846043e-02f, 7.24080205e-02f, -4.44715581e-04f,
    4.67952061e-03f, 5.29805720e-02f, -2.98741702e-02f, -7.51432776e-02f, 4.69822437e-03f, 1.23104632e-01f, -2.01561496e-01f, -2.04850942e-01f,
    -4.03371975e-02f, 7.06188660e-03f, -2.23277528e-02f, -8.77570808e-02f, 7.37169906e-02f, 6.29910901e-02f, -1.27433063e-02f, 4.20422368e-02f,
    -4.07480672e-02f, 5.29815033e-02f, 9.38085690e-02f, 3.21937874e-02f, -1.52362743e-02f, -3.48159075e-02f, 4.46031094e-02f, 1.19743578e-01f,
    7.32024312e-02f, -8.28511955e-04f, 3.98606099e-02f, 3.33781317e-02f, -1.09284753e-02f, 2.14249361e-02f, -1.33161088e-02f, 2.06054915e-02f,
    8.44331458e-03f, 7.15621142e-03f, -1.72484815e-02f, -5.81911094e-02f, -1.35004371e-02f, -1.04188107e-01f, 2.39984673e-02f, 5.22136353e-02f,
    7.95546472e-02f, -7.77422115e-02f, -6.18953556e-02f, 6.44448400e-02f, -1.43813670e-01f, -6.30958453e-02f, 9.53248888e-02f, 1.21811338e-01f,
    7.76438937e-02f, -3.63364108e-02f, 7.90459067e-02f, -7.95362983e-03f, 3.28305773e-02f, -6.85581490e-02f, 1.36119872e-03f, 3.72846350e-02f,
    -3.09069064e-02f, 8.17209631e-02f, -3.56211476e-02f, 4.10118513e-02f, 1.58519939e-01f, -1.98959813e-01f, -1.02371704e-02f, 7.42574558e-02f,
    1.48588242e-02f, 2.41605006e-03f, -7.76701421e-02f, -9.18960422e-02f, 2.63839364e-01f, -1.83722720e-01f, -1.07318707e-01f, -2.94280443e-02f,
    1.59305222e-02f, -8.27578306e-02f, -1.06141694e-01f, -9.19604003e-02f, -3.23991068e-02f, -8.06586817e-02f, -5.11921458e-02f, -1.63736373e-01f,
    7.65192658e-02f, 1.67118218e-02f, -5.00686234e-03f, 6.05777763e-02f, 4.22226608e-01f, 3.54891345e-02f, -1.11159064e-01f, 7.67649785e-02f,
    -2.24971212e-02f, -7.27369115e-02f, 2.72799909e-01f, 5.90074658e-02f, -1.92142057e-03f, 2.12672688e-02f, -1.09725475e-01f, 1.67302340e-01f,
    -2.09615886e-01f, 2.40845196e-02f, 4.48068261e-01f, -4.92134504e-02f, -3.26740779e-02f, 2.25704350e-02f, -9.71251503e-02f, 3.90133947e-01f,
    3.33568454e-02f, -2.75845937e-02f, -3.58464606e-02f, -1.83283444e-02f, -1.39276348e-02f, 4.54322658e-02f, 1.88852638e-01f, -1.09545931e-01f,
    -2.83159576e-02f, -5.00204274e-03f, -4.56850938e-02f, 3.96361016e-03f, -6.30648211e-02f, -1.35225907e-01f, -1.18965738e-01f, -2.31004786e-02f,
    1.11939386e-01f, -2.84683798e-02f, -2.33907290e-02f, -7.80221522e-02f, -2.84619927e-01f, -1.53269067e-01f, 3.61537049e-03f, 4.85354625e-02f,
    -4.41778228e-02f, -9.16119367e-02f, -1.89481124e-01f, 8.76775756e-02f, 2.66975947e-02f, 1.22266123e-02f, -1.51822656e-01f, -3.96937244e-02f,
    1.70317486e-01f, 1.36507884e-01f, -5.42578399e-02f, -7.22398758e-02f, 3.48575674e-02f, 4.10393439e-02f, -9.70402732e-02f, 1.59539878e-01f,
    -3.38054821e-02f, 7.10754329e-03f, 1.03549659e-01f, 2.10387055e-02f, -6.38192520e-02f, -1.55453548e-01f, 1.38281826e-02f, 1.79115087e-01f,
    8.28794166e-02f, 3.33156846e-02f, -1.31001538e-02f, 5.25029115e-02f, 1.23991869e-01f, -2.40535647e-01f, -2.06552029e-01f, 9.53442007e-02f,
    -1.50081232e-01f, 1.82747975e-01f, 8.28226730e-02f, 5.89782596e-02f, 2.33608950e-02f, -9.98257548e-02f, 2.88320512e-01f, -1.08466245e-01f,
    1.66843161e-01f, -4.99703214e-02f, 2.15052464e-03f, -7.05930293e-02f, -1.53498933e-01f, -7.66972639e-03f, 6.40486851e-02f, 2.43509606e-01f,
    7.78388679e-02f, -6.62976801e-02f, 3.30933370e-02f, 1.08910151e-01f, 1.51479803e-02f, -2.58338358e-02f, -1.44621268e-01f, -3.09420805e-02f,
    6.69429153e-02f, -7.65209645e-02f, -4.75416631e-02f, -1.38679698e-01f, -6.17253967e-02f, -7.49327987e-02f, -1.59395218e-01f, -4.87834774e-03f,
    -6.43822504e-03f, -6.46333471e-02f, 1.44357637e-01f, 1.29906490e-01f, 1.49125988e-02f, 5.92217334e-02f, 1.74176786e-02f, -2.27121383e-01f,
    -5.49196154e-02f, 1.91096440e-02f, -9.15741250e-02f, 5.86676672e-02f, -1.60099883e-02f, 3.06056794e-02f, -6.12243190e-02f, -1.14702307e-01f,
    2.10924111e-02f, 2.79734079e-02f, 1.27969325e-01f, -8.33951458e-02f, -6.44636676e-02f, -1.29062198e-02f, 4.84649278e-02f, 8.66271369e-03f,
    9.44890007e-02f, -4.08612639e-02f, 4.93918322e-02f, -5.68294805e-03f, 2.98098084e-02f, -1.77921280e-01f, 2.08699540e-03f, 8.97388831e-02f,
    1.04957223e-01f, -4.00811024e-02f, -9.44661349e-02f, -1.35455476e-02f, 1.01675210e-03f, 4.84351069e-02f, -8.13827962e-02f, 1.70837507e-01f,
    -2.39331514e-01f, -2.60987468e-02f, 2.38114200e-03f, -4.20110859e-02f, -3.07056168e-03f, 3.86026725e-02f, 1.18768044e-01f, 8.55709314e-02f,
    7.06485705e-03f, -5.53616462e-03f, -3.48238721e-02f, -1.82303786e-02f, 1.46589964e-03f, -7.96170533e-02f, -6.28286898e-02f, -1.12374891e-02f,
    9.56522822e-02f, -1.37547180e-01f, -1.40128834e-02f, 4.31426764e-02f, 2.03012228e-01f, 8.52910653e-02f, -3.36183421e-02f, -1.50404191e-02f,
    8.04724265e-03f, -6.02286384e-02f, 4.46988285e-01f, -1.16051491e-02f, -3.09500773e-03f, -9.65609923e-02f, -2.84866486e-02f, -8.86025131e-02f,
    2.26991341e-01f, 1.00805260e-01f, 2.40461066e-01f, 2.49774233e-02f, -8.57466646e-03f, -4.73857969e-02f, -4.94802296e-02f, -1.29209593e-01f,
    -9.96433571e-02f, 5.21675609e-02f, -2.54974533e-02f, -1.40306307e-02f, -7.45537598e-03f, -1.22236488e-02f, -9.68463272e-02f, -7.95034468e-02f,
    -2.78380830e-02f, -2.99308132e-02f, 2.50052642e-02f, 4.33065072e-02f, -1.26206661e-02f, -1.78919248e-02f, -1.07801154e-01f, 4.60017957e-02f,
    -1.21380992e-01f, -8.58795792e-02f, -1.20347530e-01f, 3.70236747e-02f, -4.46324609e-02f, 1.38429716e-01f, -6.75091743e-02f, -1.69620905e-02f,
    1.06722444e-01f, -1.27875194e-01f, 2.49361753e-01f, -9.09622312e-02f, -1.57890186e-01f, 2.03890264e-01f, 2.06279196e-02f, 2.72366047e-01f,
    -2.53401250e-01f, 3.39444261e-03f, 3.41722667e-01f, -1.74418285e-01f, -4.78580669e-02f, -6.24026954e-02f, -1.77887708e-01f, 4.56358753e-02f,
    2.82737434e-01f, -1.86077803e-01f, -1.01598188e-01f, 7.04956353e-02f, 6.92545995e-02f, -2.77403295e-02f, 3.49544943e-03f, 1.75585791e-01f,
    4.32134010e-02f, -7.84370489e-03f, 2.80251186e-02f, -2.95413043e-02f, 3.19798328e-02f, 8.95383582e-03f, 1.58717874e-02f, -4.78237271e-02f,
    -2.89715324e-02f, -7.21082510e-03f, -1.53349146e-01f, -9.06086862e-02f, -8.06666613e-02f, 1.13393418e-01f, 1.03419960e-01f, 3.55770402e-02f,
    9.93271545e-02f, 2.58566141e-02f, 4.46104780e-02f, -4.77059819e-02f, 6.60145804e-02f, -7.99107328e-02f, -4.48017493e-02f, 1.64110050e-01f,
    2.58028597e-01f, -3.18230018e-02f, 5.05768172e-02f, 2.65887752e-02f, -9.25366729e-02f, -1.65369492e-02f, -1.73337338e-03f, 3.95990796e-02f,
    1.24660179e-01f, -7.77960382e-03f, 1.65187731e-01f, -1.67002939e-02f, -6.14587823e-03f, 1.44822538e-01f, -1.64960921e-02f, 3.90312523e-01f,
    -2.08402619e-01f, 1.19932937e-02f, 4.00703512e-02f, -5.01452684e-02f, -1.15882233e-01f, -1.21982135e-01f, 4.83229663e-03f, -8.27092528e-02f,
    7.57778063e-02f, -2.77009942e-02f, -6.66761994e-02f, 5.54649606e-02f, 7.06645800e-03f, -5.32445200e-02f, -1.27353549e-01f, -3.87917981e-02f,
    -4.18778770e-02f, -1.27710581e-01f, -7.97298178e-03f, -3.49143986e-03f, -2.39106473e-02f, 5.17665111e-02f, -2.83091851e-02f, -4.80952822e-02f,
    1.84217826e-01f, 7.02807456e-02f, 1.68322057e-01f, -3.12964357e-02f, 7.35594332e-02f, -6.70749415e-03f, 8.96958858e-02f, -2.02696375e-03f,
    -9.51881632e-02f, -7.45426342e-02f, -1.50029272e-01f, 2.62246262e-02f, -1.06072180e-01f, 1.36284437e-02f, -7.23933652e-02f, -4.94302716e-03f,
    1.60079554e-01f, -4.46250997e-02f, -9.88194346e-02f, -8.05519223e-02f, -2.28444263e-02f, 2.90433373e-02f, -8.19408000e-02f, 8.52065086e-02f,
    2.51196802e-01f, 2.15593770e-01f, 3.53663489e-02f, -2.87472475e-02f, 2.59545445e-02f, -3.11069041e-01f, 6.04988774e-03f, -3.07140239e-02f,
    -3.66459601e-02f, 3.02467626e-02f, -7.40986988e-02f, -1.06576040e-01f, -1.73347175e-01f, -2.53431983e-02f, -2.24203859e-02f, 1.33804036e-02f,
    1.37194276e-01f, 1.90433457e-01f, 1.03863962e-02f, -6.04591705e-02f, -9.79307890e-02f, 3.72950435e-02f, -6.70061857e-02f, 7.56953731e-02f,
    -6.36666641e-02f, -3.12461257e-01f, 2.63425112e-02f, -9.36859567e-03f, -4.67879176e-02f, 5.94862439e-02f, -6.60344139e-02f, 1.27401650e-01f,
    6.46776035e-02f, -3.52262408e-02f, 4.40737218e-01f, -4.85870764e-02f, 2.05831379e-02f, 8.08745101e-02f, 7.00353703e-04f, 2.57254541e-01f,
    -2.12204102e-02f, 1.15455411e-01f, -7.22689629e-02f, -8.60209242e-02f, -7.00286403e-02f, 2.89243251e-01f, -5.73161282e-02f, 6.26249313e-02f,
    1.46236897e-01f, 3.51171762e-01f, 3.67634296e-02f, -4.62375693e-02f, 3.75740160e-03f, 4.43910919e-02f, -1.93963442e-02f, 1.27574569e-02f,
    -2.39128079e-02f, -5.63832708e-02f, -3.13019045e-02f, 2.18811259e-02f, -1.28571585e-01f, -9.57074761e-02f, -7.06979409e-02f, -4.79178876e-02f,
    5.46652563e-02f, -2.48995237e-02f, -1.41215265e-01f, -5.87370917e-02f, 3.07229832e-02f, -9.38039720e-02f, 8.06086585e-02f, -8.81783962e-02f,
    -3.68945114e-02f, -1.24852180e-01f, -2.11482614e-01f, -2.41139587e-02f, -2.41549890e-02f, -2.61784792e-01f, 3.22377235e-02f, 1.54611453e-01f,
    2.06373453e-01f, -3.28295007e-02f, -9.86143574e-02f, -1.08288012e-01f, -8.52601826e-02f, -6.83351755e-02f, 5.32917827e-02f, 9.10022780e-02f,
    1.20101988e-01f, -6.90401590e-04f, 1.77567691e-01f, 3.46744299e-01f, 7.83990324e-02f, 1.39057010e-01f, -4.22667107e-03f, -1.01147518e-01f,
    8.89335796e-02f, 1.16778493e-01f, -4.49482314e-02f, -9.32758395e-03f, 1.10114634e-01f, 2.53627133e-02f, -2.93475747e-01f, 9.82150435e-02f,
    -7.39790797e-02f, -4.29616868e-02f, -8.32602754e-03f, -2.15862840e-01f, 1.54487610e-01f, -2.45195895e-01f, 2.79669017e-01f, 8.48423019e-02f,
    -1.28650642e-03f, -6.72004074e-02f, 3.60584185e-02f, 1.52700633e-01f, 3.40800732e-02f, 3.36721726e-02f, -6.79852962e-02f, -1.04725823e-01f,
    -2.65493095e-02f, 1.38621002e-01f, -1.48820192e-01f, -7.21609965e-02f, 7.03509599e-02f, -1.58882663e-02f, -1.37493331e-02f, 2.84113556e-01f,
    -4.91952561e-02f, -3.61640304e-02f, 2.58594066e-01f, 1.87321842e-01f, -2.44236887e-02f, -2.60466158e-01f, 2.50565521e-02f, -1.54401064e-01f,
    7.88248405e-02f, 4.59896587e-02f, -6.76530460e-03f, 1.55652855e-02f, 2.01669764e-02f, 3.89007069e-02f, -9.99841467e-02f, -1.43498138e-01f,
    9.82258990e-02f, 7.99881741e-02f, 1.14111602e-01f, 8.26209486e-02f, -2.98761874e-02f, 4.93106768e-02f, 2.05860920e-02f, -3.02494690e-02f,
    -1.61681615e-03f, 5.12820408e-02f, 3.05687599e-02f, 5.12279347e-02f, -1.69329694e-04f, -6.94895280e-04f, -1.11154921e-01f, 6.44184202e-02f,
    4.42679785e-02f, -7.66843408e-02f, 3.60320918e-02f, 1.20731786e-01f, -4.34779048e-01f, -1.72330171e-03f, -1.42196007e-02f, 5.80334812e-02f,
    1.69412166e-01f, -5.57187945e-02f, 3.88866067e-02f, -1.00409966e-02f, -4.86825630e-02f, 7.12366030e-03f, 1.57603770e-01f, 7.85840526e-02f,
    -4.33730427e-03f, -1.65910572e-02f, 3.05688471e-01f, 5.87979853e-02f, 1.95972566e-02f, -9.39020813e-02f, -6.39133751e-02f, -1.28787726e-01f,
    1.60499550e-02f, -8.12280998e-02f, -1.46372737e-02f, 6.28627613e-02f, 2.69651767e-02f, -1.11924723e-01f, 7.14371502e-02f, -2.45703366e-02f,
    -1.68665618e-01f, -8.06214213e-02f, -7.95908421e-02f, 8.05008560e-02f, -1.59334894e-02f, 6.99348971e-02f, 6.01383485e-02f, -7.06324950e-02f,
    9.08966362e-02f, -1.37320951e-01f, 3.93446758e-02f, 1.45304784e-01f, 1.81167834e-02f, -1.62175633e-02f, -2.46030036e-02f, 2.25019321e-01f,
    -5.12073040e-02f, 4.00075614e-02f, -1.58988878e-01f, 7.01341406e-02f, -1.49471164e-01f, 7.36525208e-02f, 3.43741588e-02f, 1.64632108e-02f,
    6.08518422e-02f, -2.50354018e-02f, 3.45258489e-02f, 5.36518991e-02f, -4.45038266e-02f, -3.61921079e-02f, -6.93476945e-02f, -1.38885751e-02f,
    2.25154489e-01f, -2.74969917e-02f, -4.84670512e-03f, 2.11325884e-01f, -5.63856885e-02f, -1.28002599e-01f, -5.89236580e-02f, 6.19904511e-02f,
    -2.80522615e-01f, 2.39485338e-01f, 1.17841050e-01f, 7.82075431e-03f, 4.47149314e-02f, 1.92803107e-02f, -1.70493767e-01f, -1.94139406e-01f,
    1.72214791e-01f, 2.30412595e-02f, 3.16588059e-02f, 1.24357827e-02f, 5.80192804e-02f, 2.60131434e-02f, 3.05871572e-02f, -1.39286026e-01f,
    -4.61263508e-02f, 3.93396243e-02f, -2.29225475e-02f, 1.11606248e-01f, -4.15819436e-02f, -2.38793660e-02f, 1.26882046e-01f, 3.03557288e-04f,
    -2.73106173e-02f, 6.66744858e-02f, 7.87072536e-03f, -7.19168559e-02f, 8.16885903e-02f, -6.54751956e-02f, 2.68808931e-01f, -1.25725858e-03f,
    -1.11582041e-01f, 1.29929604e-02f, -9.59384721e-03f, -1.78218856e-02f, -8.49956200e-02f, -2.89222486e-02f, 9.68227386e-02f, 1.70934871e-02f,
    5.68713658e-02f, -1.60312150e-02f, -3.39187562e-01f, -7.63176680e-02f, -1.89488679e-02f, 1.80486202e-01f, 1.74808696e-01f, 6.22901581e-02f,
    8.15144926e-03f, -5.99757768e-02f, -1.00542843e-01f, -1.42473862e-01f, 1.09810010e-03f, -1.33287475e-01f, 7.52470791e-02f, 3.59200351e-02f,
    3.47330451e-01f, 3.44772756e-01f, -6.43875748e-02f, 1.10384366e-02f, 7.22152591e-02f, -6.28005713e-02f, -5.74101508e-02f, 1.49813071e-02f,
    -1.93159819e-01f, 1.00573555e-01f, -5.64881228e-02f, 1.46346137e-01f, -4.35011946e-02f, 1.03994347e-01f, 1.36861697e-01f, -1.51302312e-02f,
    1.74462497e-01f, -1.56725034e-01f, 5.74150272e-02f, 2.70132482e-01f, -6.28711507e-02f, 5.30736819e-02f, -8.76170918e-02f, 1.00357840e-02f,
    -9.90448147e-02f, -1.98670905e-02f, -8.17288924e-03f, -8.30991101e-03f, 1.04231678e-01f, -1.69469360e-02f, -2.82492898e-02f, -1.69317827e-01f,
    1.18100271e-01f, -2.06309929e-01f, -1.62299514e-01f, -1.92672253e-01f, 7.13451877e-02f, -1.28953997e-02f, 1.21061457e-02f, 4.11163419e-02f,
    3.85570452e-02f, 1.26115948e-01f, 4.09752838e-02f, 7.11129699e-03f, -4.86173332e-02f, -2.25449741e-01f, 3.73201072e-02f, 5.70679717e-02f,
    2.79539227e-01f, -3.44063863e-02f, -1.68736964e-01f, 7.27067366e-02f, -2.30826177e-02f, 2.30514184e-01f, -1.85168073e-01f, -1.29911855e-01f,
    -3.09523009e-02f, 4.35173437e-02f, 1.68499071e-02f, -5.19305207e-02f, 6.73565418e-02f, 2.69191086e-01f, -6.79318160e-02f, -1.05366290e-01f,
    3.84199589e-01f, 4.17929739e-02f, -5.20361923e-02f, -1.46057487e-01f, 6.52095005e-02f, -1.13977976e-02f, 4.23934311e-02f, 5.95407337e-02f,
    7.17676505e-02f, 5.43200038e-02f, -1.60719633e-01f, 9.61495861e-02f, 4.71245460e-02f, -3.47095318e-02f, -9.60682631e-02f, 1.87276080e-01f,
    -2.96824247e-01f, 6.59399852e-03f, -9.47821364e-02f, -1.71159357e-02f, -3.89975272e-02f, 1.41702279e-01f, -5.78155629e-02f, -6.68951645e-02f,
    1.73082218e-01f, 2.20094789e-02f, 1.26881832e-02f, -8.28018114e-02f, 6.74346760e-02f, 7.46391863e-02f, 8.96502510e-02f, -1.64238960e-02f,
    2.50212252e-01f, -1.41344041e-01f, 4.08013426e-02f, -2.14644019e-02f, 3.01598683e-02f, 5.40874228e-02f, 6.49779011e-03f, -2.32508685e-03f,
    1.84242353e-01f, -1.57573372e-01f, 4.01470602e-01f, -1.22347204e-02f, -2.97978241e-02f, 1.14051044e-01f, -9.94951576e-02f, 5.84563464e-02f,
    2.16353193e-01f, 1.29656363e-02f, -6.26683980e-02f, -1.15257658e-01f, -1.71620026e-01f, -1.14305034e-01f, 5.37123904e-02f, 1.47942811e-01f,
    1.41411219e-02f, -3.73400301e-02f, -5.35560437e-02f, -4.11028862e-02f, -3.31903100e-02f, -5.99376112e-02f, -1.68846235e-01f, -4.25217077e-02f,
    -6.40066415e-02f, 8.98284167e-02f, -2.89241821e-02f, 1.60371400e-02f, 1.50878713e-01f, -1.80647925e-01f, -1.13906056e-01f, 3.19869816e-02f,
    -1.37551636e-01f, 7.98321515e-02f, 4.74545248e-02f, -1.46677531e-02f, -2.39855982e-02f, -1.36753127e-01f, 7.66432881e-02f, -3.77831817e-01f,
    3.49556535e-01f, 3.63701023e-04f, 2.02939603e-02f, -2.82472721e-03f, -3.56624648e-02f, 3.10041495e-02f, 9.50692818e-02f, -3.73883955e-02f,
    1.13372147e-01f, -2.79331405e-04f, -8.48776847e-02f, 4.94816666e-03f, 1.63399223e-02f, -1.22102313e-02f, -1.64221272e-01f, -1.59249846e-02f,
    5.51784188e-02f, 6.02737926e-02f, -1.50127662e-02f, -7.60971084e-02f, 2.55195647e-01f, -2.29248647e-02f, 4.49963883e-02f, -7.40090664e-03f,
    6.58164220e-03f, -9.55141410e-02f, -7.93484747e-02f, 3.64382900e-02f, 6.29202873e-02f, 1.37392106e-02f, -2.14579985e-01f, 4.52100113e-02f,
    4.28729542e-02f, 6.65138438e-02f, 8.55603535e-03f, -3.09454352e-02f, 1.07441142e-01f, 2.27865912e-02f, -5.75190373e-02f, 5.81661277e-02f,
    6.27020746e-03f, 5.98689243e-02f, 3.43103558e-02f, -4.35345620e-02f, -8.45777337e-03f, 6.61734194e-02f, -2.73301750e-02f, -3.79004106e-02f,
    -4.47199568e-02f, -1.34714931e-01f, -3.58786173e-02f, 4.71209288e-01f, -2.88307425e-02f, -1.37701575e-02f, 1.30091280e-01f, -2.20764596e-02f,
    -1.17461272e-01f, 3.82645875e-02f, 3.09017673e-02f, 6.55959770e-02f, 3.94091429e-03f, -4.88696508e-02f, 2.05035154e-02f, -6.00476051e-03f,
    1.58268899e-01f, 2.07337271e-02f, -6.23878511e-03f, 7.49404058e-02f, 2.17850935e-02f, 5.52985445e-03f, -5.31090833e-02f, -1.60072856e-02f,
    4.36040089e-02f, 1.18943984e-02f, 6.24095611e-02f, -8.53552371e-02f, -1.24152405e-02f, -1.69465076e-02f, 2.33166784e-01f, -8.33682865e-02f,
    -3.01436745e-02f, 6.46042973e-02f, -1.04870240e-03f, 2.72836648e-02f, -2.78316349e-01f, -1.20609045e-01f, 9.85573903e-02f, 1.82195343e-02f,
    1.96620136e-01f, -5.87128326e-02f, 2.23725766e-01f, 8.93249288e-02f, 6.23291805e-02f, 6.85348511e-02f, -1.32759899e-01f, 8.89182463e-02f,
    -3.26110780e-01f, 1.33346930e-01f, 1.30618393e-01f, 1.26522630e-01f, -8.39440897e-02f, -1.31972566e-01f, -1.33727537e-02f, -4.81356718e-02f,
    -9.42896158e-02f, 6.17349856e-02f, -2.78725475e-02f, -2.69773863e-02f, 3.52508537e-02f, 4.19852994e-02f, -8.67729932e-02f, 5.69036938e-02f,
    -6.81355894e-02f, 4.91505228e-02f, 5.50622120e-02f, 1.30904958e-01f, -1.16772316e-01f, 3.25688906e-02f, -5.30930161e-02f, -3.31465341e-03f,
    -7.99762830e-02f, 4.04827669e-02f, -1.48835376e-01f, 2.99953401e-01f, 3.04417431e-01f, -1.81901649e-01f, -1.27664372e-01f, -1.04107091e-03f,
    2.26590753e-01f, 1.17960637e-02f, 1.17187919e-02f, -1.37746468e-01f, -1.08761586e-01f, -8.11571181e-02f, -2.34398451e-02f, -1.41559631e-01f,
    2.36486614e-01f, 5.57957664e-02f, 8.31731409e-02f, -1.26289487e-01f, 1.12842925e-01f, -1.49104178e-01f, 1.34722227e-02f, 1.56009570e-01f,
    -5.44130318e-02f, 4.08339389e-02f, 1.74673855e-01f, 2.44445473e-01f, 6.79199398e-02f, -1.15845613e-01f, -2.01219320e-01f, 2.36144252e-02f,
    1.37006924e-01f, 2.33376995e-01f, 6.61581336e-03f, 5.01396321e-02f, 5.87317795e-02f, -1.40485764e-01f, -8.65243301e-02f, -1.41571881e-02f,
    -6.24440378e-03f, 1.58234268e-01f, 1.78874910e-01f, 2.84019168e-02f, -1.18834581e-02f, -1.43807158e-01f, -1.31927496e-02f, -3.31914127e-02f,
    -3.71303014e-03f, 1.06040299e-01f, -5.05410880e-02f, 7.22629800e-02f, -7.64820203e-02f, -9.77683291e-02f, -9.53535438e-02f, -4.00656871e-02f,
    -1.15227439e-01f, 2.49915779e-01f, 7.92029053e-02f, -5.99433519e-02f, 9.77052450e-02f, 3.57815810e-02f, -2.09265038e-01f, 8.84666049e-04f,
    -2.90241003e-01f, -5.45654222e-02f, -1.42122254e-01f, 6.42864453e-03f, -1.05240634e-02f, -1.27687091e-02f, 3.74013595e-02f, 5.03169656e-01f,
    4.31115776e-01f, -4.03681323e-02f, 4.01239730e-02f, 3.72039415e-02f, 6.57000095e-02f, 5.79586327e-02f, 8.17608088e-03f, 4.44048680e-02f,
    -8.49215612e-02f, 1.98828429e-02f, 3.93023826e-02f, 5.01993597e-02f, -3.78723070e-02f, 1.24790482e-02f, 1.01341315e-01f, -3.13477032e-02f,
    2.68123187e-02f, 6.42426908e-02f, -2.71439254e-02f, -1.99541710e-02f, -1.76031590e-01f, 3.55276018e-02f, -1.78840514e-02f, -3.18145566e-02f,
    6.67660758e-02f, -4.09950875e-02f, -5.41717708e-02f, -3.51773314e-02f, -4.84045083e-03f, 1.28257379e-01f, -1.33662194e-01f, -5.66242710e-02f,
    -2.67184108e-01f, -1.95233338e-02f, -9.74001959e-02f, 1.24294851e-02f, 5.57987019e-02f, 4.31365781e-02f, -1.85849648e-02f, 3.82677428e-02f,
    -6.17327467e-02f, 1.35234324e-02f, 3.89612131e-02f, -5.63102588e-02f, -6.00637682e-02f, -1.06995618e-02f, 1.14037111e-01f, 3.39459330e-02f,
    1.74406264e-02f, -5.16867526e-02f, 2.93208342e-02f, 3.45865302e-02f, 3.17982376e-01f, -5.37792966e-02f, -7.80249597e-04f, -1.23286601e-02f,
    -1.34580545e-02f, 9.10923630e-02f, -1.13248549e-01f, 2.54135150e-02f, 7.75951101e-03f, 7.03352913e-02f, -1.46302227e-02f, 1.10997044e-01f,
    9.45372432e-02f, -4.02990133e-02f, -9.58965719e-02f, -7.78897572e-03f, -8.47787857e-02f, -2.55378671e-02f, 1.20582629e-03f, 1.23178191e-01f,
    -1.25463195e-02f, -8.43640193e-02f, 1.13229379e-01f, 1.53255746e-01f, -4.61928099e-02f, 4.62594032e-02f, 1.89985204e-02f, 1.15035102e-02f,
    -6.47411719e-02f, 3.89952958e-02f, -8.52306560e-02f, 4.44647344e-03f, 4.77432497e-02f, -1.98287368e-01f, 1.84344560e-01f, -4.76809740e-02f,
    -4.01138375e-03f, -5.89910373e-02f, -1.18515737e-01f, -5.65861762e-02f, -9.03518684e-03f, -1.04516633e-01f, -5.55619858e-02f, 4.22393046e-02f,
    -1.76218808e-01f, -9.14704800e-02f, 2.50523716e-01f, 1.03357203e-01f, 3.73494178e-02f, -2.60331687e-02f, -1.66940376e-01f, 3.24074998e-02f,
    -3.57560329e-02f, -5.62781887e-03f, 4.20810133e-02f, 7.48724565e-02f, 4.57203798e-02f, 2.55935103e-01f, -6.27923533e-02f, 3.10337786e-02f,
    -1.39352754e-02f, 1.21174783e-01f, -1.84390359e-02f, 3.00413091e-02f, -2.30824519e-02f, 2.15967372e-02f, 5.68700535e-03f, -3.52840573e-02f
};

const int features_7_expand1x1_weight_shape[4] = { 128, 32, 1, 1 };
const int features_7_expand1x1_weight_ndim = 4;
const size_t features_7_expand1x1_weight_numel = 4096;
