#include "features_5_expand3x3_bias.h"

__attribute__((aligned(16))) const float features_5_expand3x3_bias[128] = {
    1.78386960e-02f, -8.72731768e-03f, 1.61109827e-02f, -1.72790512e-02f, 1.44162774e-02f, -1.31242750e-02f, 2.99949236e-02f, -4.06264998e-02f,
    -1.34901078e-02f, 7.59879267e-03f, -3.57566997e-02f, -1.52315227e-02f, 2.52927281e-03f, -7.89397769e-03f, -1.20623559e-02f, 1.62196495e-02f,
    1.31881153e-02f, 3.33452295e-03f, -2.18923595e-02f, 1.15999244e-02f, 4.02702112e-03f, -7.95875769e-03f, -2.15252303e-02f, -4.91064638e-02f,
    -3.70350434e-03f, -4.28178534e-03f, 3.02649476e-03f, 6.05718195e-02f, -1.92509522e-03f, -5.66672068e-03f, -2.27375422e-03f, 9.16820914e-02f,
    1.06404265e-02f, -1.86645538e-02f, -2.85679530e-02f, 1.23950951e-02f, 5.58682084e-02f, -2.97853127e-02f, -1.70138981e-02f, 6.22248370e-03f,
    1.87362637e-02f, 3.89071269e-04f, 1.37793105e-02f, -2.78692022e-02f, 1.94917638e-02f, -1.54361082e-02f, -1.12577546e-02f, -4.09337170e-02f,
    -1.37983132e-02f, 5.66366548e-03f, -5.80703607e-03f, 4.51350361e-02f, -5.97359100e-03f, 1.15203494e-02f, -5.27178086e-02f, 2.22864188e-03f,
    -1.92724541e-02f, 5.61906211e-02f, 1.96065940e-02f, 6.24138257e-03f, 2.84455270e-02f, 6.10172190e-03f, -1.04773138e-03f, 4.63096723e-02f,
    1.13447458e-02f, 7.44165480e-03f, 5.33263292e-03f, -4.08217013e-02f, 2.79147867e-02f, 4.01232354e-02f, 4.10515000e-04f, 1.42854648e-02f,
    -4.20692079e-02f, 6.14747256e-02f, -5.41533306e-02f, -2.50262916e-02f, 4.81953518e-03f, 3.60822603e-02f, -3.26827802e-02f, -9.38770175e-03f,
    3.12014800e-02f, -4.56998032e-03f, -1.91199444e-02f, 4.73219790e-02f, -4.74140495e-02f, -2.37080958e-02f, -5.84554002e-02f, 4.46763355e-03f,
    -3.46353687e-02f, -2.50346605e-02f, 1.52027644e-02f, 6.78342506e-02f, 3.29793151e-03f, 3.94448005e-02f, 2.93753459e-03f, 2.41841432e-02f,
    -2.66462956e-02f, 5.82963973e-02f, -2.15338804e-02f, 4.38522398e-02f, -1.81421004e-02f, -1.16377452e-03f, 1.82464868e-02f, -3.89484726e-02f,
    2.11918224e-02f, -6.54362738e-02f, -1.89745892e-02f, 1.77536476e-02f, 3.96370143e-02f, -1.11299483e-02f, 1.24597363e-02f, 1.18450793e-02f,
    2.43432019e-02f, -3.40144266e-03f, 7.47334063e-02f, 3.53044011e-02f, 2.87083979e-03f, -2.61209924e-02f, -2.03378452e-03f, 4.20675874e-02f,
    -2.98394766e-02f, -1.74637903e-02f, 4.56293933e-02f, 3.06669176e-02f, -5.31828776e-03f, 4.53837141e-02f, 2.10887510e-02f, 3.66413184e-02f
};

const int features_5_expand3x3_bias_shape[1] = { 128 };
const int features_5_expand3x3_bias_ndim = 1;
const size_t features_5_expand3x3_bias_numel = 128;
